#pragma once

// kind=dense (stored OI)
static const float w04[] = {
  -7.647854e-01f, -2.582220e-01f, -1.071088e+00f, 6.838876e-02f, -5.596268e-01f, -1.803968e+00f, -1.983302e+00f, 5.129462e-01f,
  -7.636589e-01f, -4.202730e-01f, 4.302177e-01f, -2.608854e+00f, 5.045583e-01f, 4.329620e-02f, 1.132146e+00f, 5.767866e-01f,
  -3.544267e-01f, -9.747559e-02f, -8.945810e-01f, 5.228961e-01f, -3.313424e-01f, 1.726692e-01f, 6.547761e-01f, 3.711590e-01f,
  -6.822233e-01f, -3.886495e-01f, 1.800317e-01f, -1.216964e+00f, -2.025243e-01f, -1.238675e-01f, -2.571808e-01f, -1.047608e+00f,
  5.710923e-01f, -9.185221e-03f, 1.177551e+00f, -1.632725e-01f, 6.201518e-02f, 5.098469e-01f, 5.158696e-01f, 1.420498e-01f,
  3.752112e-01f, 1.877050e-01f, -2.002345e-01f, 1.931508e+00f, -4.095683e-01f, -1.341245e-01f, -1.852149e+00f, -1.898683e-01f,
  6.876890e-01f, 1.398360e-01f, -2.898202e-02f, 2.556538e-01f, -5.591760e-01f, 1.349516e-01f, -5.507781e-01f, 4.498626e-01f,
  2.709604e-01f, -4.692541e-01f, 2.097150e-01f, 3.517621e-01f, -2.234004e-01f, 4.115977e-01f, -2.841386e-01f, 1.432161e-01f
};
