#ifndef B24_H
#define B24_H

#include <stdint.h>

// Auto-generated by txt2h.py on 2026-02-16T03:54:17
// Source count: 128

const float b24[128] = {
  -0.3041625f, 0.1393463f, -0.2117663f, -0.2701994f, -0.286598f, -0.3111235f, 0.3725077f, -0.2013424f,
  -0.2486408f, 0.234781f, 0.5841665f, -0.3445116f, -0.01488797f, -0.2501773f, -0.2852947f, -0.5878319f,
  -0.3680105f, -0.5188342f, -0.06702141f, -0.2765461f, -0.2776431f, -0.2773623f, 0.04025565f, -0.3209241f,
  -0.346363f, -0.3462731f, -0.5050855f, -0.23923f, -0.1864828f, -0.3744562f, -0.2651904f, -0.1527553f,
  -0.1256705f, -0.3294192f, -0.3171489f, -0.133565f, 0.4993116f, -0.245697f, -0.223806f, -0.06991623f,
  -0.3174005f, -0.2702496f, -0.3059478f, -0.9795984f, -0.2727895f, -0.2279036f, -0.2976814f, -0.3561357f,
  -0.0396111f, 0.2346087f, -0.2961781f, -0.1585806f, -0.9118331f, -0.1614708f, -0.01816f, -0.3580243f,
  -0.2706537f, -0.3126498f, -0.3341019f, 0.1072687f, -0.3304683f, -0.8240616f, 0.4108045f, -0.3318684f,
  -0.2609364f, -0.01948471f, -0.3421351f, -0.2990237f, -0.01250406f, -0.4750668f, -0.2533306f, -0.2901326f,
  -0.1826394f, -0.2894773f, -1.299507f, -0.3372685f, -0.6551469f, -0.07308168f, 0.01088093f, -0.2639034f,
  -0.2832835f, -0.2425732f, -0.4494154f, -0.224147f, -0.4278744f, -0.08903424f, -0.2962336f, -0.1076388f,
  -0.2346195f, 0.5448363f, -0.2981297f, -0.680787f, -0.1096629f, -0.3160073f, -0.03504757f, -0.3435391f,
  -0.3176108f, 0.2852603f, -0.3187556f, -0.2608935f, -0.3180125f, -0.0845608f, -0.2367709f, -0.3374f,
  -0.3427146f, -0.3887601f, 0.3511476f, -0.2442485f, 0.4668823f, 0.2898516f, -0.08916277f, 0.3821232f,
  0.4081064f, -0.3619571f, -0.3310139f, 0.1047191f, -0.2638524f, -0.2699819f, -0.08885996f, -0.2567498f,
  -0.09911405f, 0.2285246f, -0.004730471f, 0.4954432f, -0.03124886f, -0.3994776f, 0.06020876f, -0.7867919f,
};

#define B24_LEN (128u)

#endif // B24_H