#ifndef B25_H
#define B25_H

#include <stdint.h>

// Auto-generated by txt2h.py on 2026-02-16T03:54:17
// Source count: 256

const float b25[256] = {
  0.05217162f, -1.107069f, -0.1559265f, -0.09488527f, -0.2914042f, -0.11517f, -1.734918f, -0.01065265f,
  -0.3880664f, -0.1541671f, -0.09001367f, -0.2364053f, 0.006424892f, -0.1655088f, 0.0437665f, -0.002588923f,
  0.1674689f, 0.07622123f, -0.07043759f, -0.1157894f, -0.09161671f, -0.1054696f, 0.09356063f, -0.1549893f,
  -0.1497327f, 0.002138192f, -0.07709364f, -0.08307572f, 0.1155763f, -0.05596538f, -0.0519101f, -0.217452f,
  0.01000407f, -0.03127596f, -0.04266707f, -0.05457929f, -0.08682791f, -0.07604899f, 0.02923966f, 0.1145107f,
  -0.002301661f, -1.363079f, 0.6297017f, -0.1377004f, 1.326137f, 0.1829934f, 0.06579503f, 0.002580692f,
  -0.3048009f, -0.03404901f, -0.04959187f, -0.3417816f, -0.03209423f, -0.02255001f, -0.1271023f, 0.1562497f,
  -0.07988951f, -0.183092f, 0.03493484f, -0.1040042f, -0.08638443f, 0.1602648f, 0.8826424f, -0.002714439f,
  -0.1032372f, 0.03871426f, -0.1010902f, -0.171285f, 0.06154255f, -0.1181733f, -0.09797543f, 0.67014f,
  -0.5601068f, -0.1464993f, -0.2181368f, -0.1058542f, -0.1841748f, -0.02309588f, -0.1372222f, -0.5064186f,
  0.04563726f, -0.1083369f, -0.5645942f, -0.1666646f, -0.02771724f, -0.05217835f, -0.07528546f, -0.09149767f,
  -0.02563914f, -0.1290846f, 0.1819559f, -0.2991225f, -0.0584078f, 0.3964749f, -0.2606801f, 1.218775f,
  -0.04347024f, -0.1897627f, 0.6856979f, -0.6274169f, 0.06858186f, -0.2037576f, -0.07896326f, 0.3060291f,
  -0.1170729f, -0.06231686f, 0.06642732f, -0.001775371f, 0.02873006f, -0.07295591f, -0.1551215f, -0.3597696f,
  0.06348196f, 0.007850133f, 0.2014948f, -0.1460558f, -0.140456f, -0.07968178f, -0.2149354f, -0.002158282f,
  -0.01386561f, 0.05155413f, -0.1348909f, 0.0003127113f, 0.01571106f, -0.4854678f, -0.1676586f, -0.1533374f,
  -0.3574691f, 0.2025942f, 0.02802348f, -0.163483f, -0.1395893f, 0.4029199f, -1.351456f, -0.3707466f,
  0.1876802f, -0.01341555f, -0.1317394f, -0.06247359f, -0.1573218f, -0.1356408f, -0.09593461f, 0.03959572f,
  0.2990309f, 0.08961535f, 0.05477706f, -0.1881786f, 1.467263f, -0.2161708f, -0.04860082f, -0.04335287f,
  -0.1327523f, -0.01434369f, -0.1339021f, -0.3156756f, 0.0526321f, -0.06194463f, -0.1410656f, 0.001632204f,
  -0.0951723f, 0.3354805f, -0.09091668f, -0.03373523f, 0.0101185f, 0.04867751f, 0.07264746f, -0.05824314f,
  -0.1184131f, -0.1107216f, -0.1745896f, 0.07945021f, -0.08378546f, -0.2142796f, -0.1144552f, -0.15111f,
  -0.599734f, -0.1218692f, -0.101058f, -0.06484574f, -0.04393033f, -0.2095941f, -0.1558486f, 0.01644841f,
  -0.2516001f, -0.08752187f, 0.02888694f, -0.1884684f, -0.01900007f, -0.1380162f, -0.1429609f, -0.2102782f,
  -0.05394225f, -1.405543f, -0.04761836f, -0.1667971f, 0.04089656f, -0.2441605f, 0.0008654364f, -0.1654215f,
  0.2989281f, -0.5364656f, -0.03964489f, -0.0772613f, -0.02988248f, 0.04320911f, -0.11601f, -0.2297557f,
  1.197785f, -0.06247617f, -0.2213219f, -0.1907462f, -0.3005456f, -0.001083419f, -0.1549024f, -0.1473272f,
  -0.1453706f, -0.1372258f, -0.08860657f, -0.1918873f, 0.06385862f, -0.06273969f, 0.04102611f, -0.9783799f,
  -0.008691866f, -0.1141378f, 0.02547558f, -0.1172863f, -0.07168029f, -0.0504096f, 0.1373595f, -0.06350863f,
  -0.01122021f, -0.3147478f, -0.07533429f, -0.1794655f, -1.37723f, -0.1463622f, -0.1770125f, -0.1011949f,
  -0.04896432f, 1.294062f, -0.01195545f, 0.01841315f, -0.04016542f, 0.01207489f, -0.00166732f, 0.2925631f,
  -0.08531325f, -0.03417192f, -0.1546916f, 0.03167558f, -0.1508068f, -0.02156054f, -0.07777005f, 0.03993767f,
};

#define B25_LEN (256u)

#endif // B25_H