#ifndef W01_H
#define W01_H

#include <stdint.h>

// Auto-generated by txt2h.py on 2026-02-16T03:54:17
// Source count: 216

const float w01[216] = {
  0.6209057f, 0.5558f, -0.01329603f, 0.04314132f, -0.2302138f, 0.3363248f, 0.4793064f, 1.149147f,
  0.7736399f, -1.522895f, -2.012031f, -2.079728f, -1.527496f, -0.6797668f, 0.0101038f, -0.3235703f,
  -1.581442f, -1.438043f, 1.16977f, 1.667392f, 1.417866f, 1.429328f, 0.2129065f, 0.6750693f,
  -0.08543868f, 0.4469011f, 0.01804565f, -0.6636093f, -1.117462f, -1.071732f, 0.09345125f, -1.17522f,
  -0.590747f, 0.5472575f, 0.6755406f, 0.3113104f, -0.3598056f, -0.02178652f, -0.2451011f, -0.493406f,
  0.05301065f, 0.5247434f, -0.1745381f, -0.4838359f, -0.1787946f, 1.476096f, 0.4923441f, 1.396738f,
  0.2016352f, 0.8095772f, 0.1883674f, -0.369151f, 0.3414064f, -0.1270599f, -0.9047883f, -0.3983141f,
  0.1316078f, 0.1175561f, -0.125234f, 0.2652668f, -0.140411f, 0.5030471f, 1.436677f, -1.089983f,
  -0.9080039f, 0.01403924f, -0.9092368f, -0.6035397f, 0.2510837f, 0.1062f, 0.1325887f, 0.2576877f,
  -0.8563535f, -0.7765292f, -0.4023015f, -0.1544873f, 0.2540958f, 0.1240711f, 0.2807359f, 0.1199505f,
  0.4178351f, 1.159688f, -0.5045698f, 1.248475f, 0.6878679f, -1.279313f, 0.658691f, 0.7268109f,
  -1.285423f, -0.07528798f, 0.5290632f, -1.396621f, 0.381233f, 0.3613141f, -0.9813414f, -0.03854991f,
  -0.4558589f, -0.07390694f, 0.6136068f, -0.2771342f, -1.04958f, -0.1125792f, 0.4947461f, -1.733146f,
  0.04939763f, 0.3853836f, 0.5221432f, 0.3606258f, -0.2355875f, -0.4933799f, -0.624599f, 0.2010572f,
  -0.3491425f, -0.8828571f, 0.1070148f, 0.1061238f, -0.4335371f, 0.3253481f, 0.1707262f, -0.1918872f,
  0.4892632f, -0.3636398f, -0.2821527f, 0.2139421f, 0.5356148f, -0.6161778f, 0.1203154f, 0.2465398f,
  0.1733972f, -0.4719275f, -0.2570971f, -0.3689314f, 0.2317319f, -0.4856969f, -0.5039816f, -0.0718173f,
  -0.2355073f, -0.1530809f, 0.1996337f, 0.05403823f, -0.1521277f, 0.1503952f, 0.3293345f, -0.007663989f,
  0.1894578f, -0.2010287f, -0.02185475f, 0.2746467f, -0.09608302f, -0.2309205f, 0.2242738f, 0.1514911f,
  -0.04984735f, -0.1134458f, -0.1917078f, 0.02343471f, 0.1213447f, 0.1515976f, -0.2978965f, -0.05680934f,
  0.02933627f, 0.03703283f, 0.6445808f, 0.7798536f, 0.2510447f, 0.4527766f, -0.05020482f, 0.3813395f,
  0.2613636f, 0.8536024f, 0.7364537f, -0.3593424f, -0.4610355f, -0.5060206f, -0.5307605f, -0.6010968f,
  -0.5630899f, -0.6731027f, -1.184501f, -1.125636f, -0.1678736f, -0.4667094f, 0.3098001f, -0.04252247f,
  0.5012726f, 0.310922f, 0.3477846f, 0.6635772f, -0.1386252f, 0.0989505f, -0.2721287f, -0.4803268f,
  0.06687298f, 0.06355446f, -0.3623519f, 0.06932528f, -0.1095436f, -0.1964264f, -0.009960186f, 0.1499577f,
  -0.008361295f, 0.1166144f, -0.06738716f, -0.1260134f, -0.06520844f, 0.2174033f, 0.1673642f, -0.1446573f,
  0.2750776f, -0.04873833f, 0.04116441f, -0.1342152f, -0.2725109f, 0.1785339f, -0.1677249f, -0.26174f,
};

#define W01_LEN (216u)

#endif // W01_H