#ifndef W03_H
#define W03_H

#include <stdint.h>

// Auto-generated by txt2h.py on 2026-02-16T03:54:17
// Source count: 128

const float w03[128] = {
  1.134484f, -0.1994989f, 0.5334882f, -0.3510428f, 0.7664758f, 0.0202753f, 0.1584274f, -0.03093101f,
  -0.04597215f, 0.238629f, -0.5432612f, -1.009785f, 0.5659412f, -0.5724468f, 0.991483f, -0.350147f,
  0.4834844f, 0.6674324f, -0.0355331f, -0.1081769f, -0.2657384f, -0.008668593f, 0.2940966f, -0.006539765f,
  0.0439306f, -0.1440553f, 0.2596672f, 0.1390479f, 0.3369603f, 0.04243334f, -0.07520688f, -0.2637453f,
  -0.06294452f, 0.06762179f, 0.1935515f, -0.01459019f, 0.1409912f, -0.007043757f, 0.2349056f, -0.2561044f,
  -0.03826869f, 0.04131314f, 0.04998204f, 0.1341219f, 0.1044178f, 0.4368809f, -0.02417714f, 0.04536388f,
  -0.03319295f, 0.04524085f, -0.1175588f, 0.9282795f, 0.3094921f, -0.05025291f, 0.2251599f, 0.04273987f,
  -0.06637583f, -0.07040899f, 0.2997435f, -1.192383f, -0.1631655f, 0.151306f, -0.1730379f, 0.221196f,
  0.0001344165f, -0.1220701f, -0.2043049f, 0.05905111f, 0.1080041f, -0.01999959f, -0.06189372f, -0.3377449f,
  -0.08975361f, 0.3969451f, 0.04063092f, 0.07856032f, 0.199445f, 0.09115239f, 0.3169283f, -0.05016103f,
  0.08397502f, -0.07747738f, -0.09602548f, -0.1575858f, -0.0539711f, -0.4876029f, -0.03451626f, -0.1023752f,
  -0.4661402f, -0.1164327f, -0.03981439f, -0.03152017f, -0.03990746f, -0.06158173f, 0.3574001f, -0.1391926f,
  0.260967f, -0.2304471f, 0.2940882f, 1.149075f, -0.239658f, -0.4866679f, 0.4572831f, 0.6805367f,
  -0.1038366f, 0.1136249f, 0.4147215f, 0.0551479f, 0.05341528f, 0.2342688f, 0.1139534f, 0.1433683f,
  -0.8009686f, -0.430245f, 0.6232772f, 0.2594973f, -0.7265174f, -0.2873822f, -0.9148393f, -0.5080322f,
  -0.08801028f, 0.178241f, -0.1097893f, -0.2863359f, -0.3910752f, -0.1286296f, 1.084352f, -0.09640808f,
};

#define W03_LEN (128u)

#endif // W03_H