#ifndef W04_H
#define W04_H

#include <stdint.h>

// Auto-generated by txt2h.py on 2026-02-16T03:54:17
// Source count: 144

const float w04[144] = {
  -0.02804548f, -0.06479906f, 0.0537351f, 0.1375903f, 0.1751864f, 0.01624801f, 0.2888012f, 0.3527082f,
  0.05220113f, 0.06394719f, 0.03449896f, -0.1948521f, -0.2394984f, -0.3558573f, -0.142161f, -0.2173197f,
  -0.4200528f, 0.0312125f, 0.007688473f, -0.007514533f, -0.01444789f, -0.07990275f, -0.7246057f, -0.3994199f,
  0.107485f, -0.3771929f, -0.3032705f, -0.2087559f, 0.910026f, 0.6618469f, 0.1018153f, 0.4758004f,
  0.41964f, 0.0001848077f, -0.5948485f, -0.2172449f, -1.701869f, -0.7816927f, 0.118276f, -1.022426f,
  -0.1624162f, 0.2414994f, 0.2795781f, 0.2445891f, 0.2767961f, -1.403699f, 0.4033971f, 0.2149819f,
  0.8908395f, -1.21794f, 0.3285345f, 0.7095318f, 0.2306166f, -0.5853682f, -0.06862056f, 0.184879f,
  0.1444652f, 0.3466972f, 0.4331927f, 0.08332152f, 0.4877101f, 0.3752037f, 0.08177076f, -0.3106523f,
  -0.4396721f, -0.2921326f, -0.3936284f, -0.6254302f, -0.2851163f, -0.02194879f, -0.197871f, -0.06151919f,
  -0.2910902f, -0.9631079f, 1.012876f, -0.7519801f, -0.3955143f, 0.8184991f, -1.026277f, 1.108571f,
  0.6090363f, -0.1991436f, 0.08264573f, 0.2083467f, 0.2748077f, 0.8036075f, 0.6327322f, 0.4338467f,
  0.7186839f, 0.1239951f, -0.7781846f, 2.130089f, -1.081527f, 0.08057952f, -1.028087f, 1.193946f,
  0.2311559f, -0.8053914f, 0.2399946f, -0.2165616f, -0.2440239f, -0.09447803f, -0.3547882f, -0.935639f,
  -0.2816896f, -0.2878334f, -0.485269f, -0.3615482f, 0.03647416f, 0.1162173f, 0.08334024f, 0.3559868f,
  0.3856315f, 0.1801212f, 0.3677399f, 0.2985137f, 0.0103713f, 0.1548124f, 0.1799365f, -0.01851764f,
  0.7487448f, 0.8428987f, 0.1775998f, 0.5587296f, 0.625917f, 0.1358959f, -0.1420521f, -0.3808266f,
  -0.1816952f, -0.1634426f, -0.4028576f, -0.3074837f, -0.1108751f, -0.2749901f, -0.2643083f, -0.4864479f,
  -0.3299485f, -0.02088719f, -0.4994347f, -0.09127067f, 0.1016618f, -0.1544407f, 0.02725503f, 0.2086676f,
};

#define W04_LEN (144u)

#endif // W04_H