#ifndef W06_H
#define W06_H

#include <stdint.h>

// Auto-generated by txt2h.py on 2026-02-16T03:54:17
// Source count: 288

const float w06[288] = {
  0.001399133f, 0.6426129f, -0.1795525f, 0.06830952f, 1.137662f, 0.7714596f, -0.9320437f, -0.002583467f,
  0.2367344f, -3.427678f, 3.346462f, 0.6158091f, 1.436732f, 0.3883135f, -0.8405843f, 2.263268f,
  -2.050854f, -0.6002178f, 0.04387913f, -0.8412306f, 0.2276553f, 0.2564156f, -0.6256492f, -0.1960467f,
  0.4920083f, -0.01220518f, -0.421522f, -0.05930714f, 0.2393985f, -0.1460079f, -0.2388819f, 0.6406095f,
  0.4244291f, -0.2077948f, 0.1140158f, 0.4533631f, 0.04215366f, -0.5165496f, 0.1544631f, 0.09310779f,
  -0.5647146f, -0.05610747f, 0.4225052f, -0.7339171f, -0.2847655f, 1.538752f, -0.8164554f, -0.08676685f,
  1.707718f, -1.233334f, -1.013237f, 0.3094379f, -0.3743509f, -0.6115984f, 0.07142936f, 0.6910386f,
  -0.6796756f, -0.1758497f, 1.617773f, -1.01968f, 0.0001895026f, 0.4645925f, -0.2420397f, 0.7450666f,
  0.07161626f, 0.2655232f, 0.2013487f, -0.8621559f, -0.4141502f, -0.2255963f, -1.386828f, -0.412068f,
  -1.080988f, -1.091226f, -0.8299404f, 0.4683954f, 1.240364f, 0.5073075f, 0.2127947f, 0.5345148f,
  -0.2347639f, -0.03594994f, 0.334718f, -0.03971675f, 0.04365241f, 0.6856456f, -0.01403177f, -0.1124771f,
  0.6217f, 0.04393436f, 0.07447872f, 0.5440465f, -0.576735f, -0.9735967f, 1.262281f, 0.9310527f,
  -0.125624f, -0.8914815f, -0.4364202f, -0.2323741f, -0.867621f, 0.333719f, 0.08659945f, -0.9953152f,
  0.8621663f, 0.06146394f, -0.6794902f, 0.4406941f, -0.3103372f, 0.4504732f, 0.262179f, -0.3807612f,
  1.03712f, 0.2467886f, -0.2441749f, -0.2177234f, -0.0351457f, -0.4601202f, 0.9427539f, 0.769546f,
  -1.393979f, -0.5052558f, 0.7511734f, -0.4025763f, -0.5585116f, -0.1078816f, 0.3396744f, -0.5073118f,
  0.03602093f, -0.9025872f, 1.54294f, -0.08079263f, 0.591746f, -0.4915982f, 0.1183977f, -0.2631919f,
  0.2502764f, 0.1538023f, -0.02460526f, 0.7105979f, 0.4673981f, -0.1664702f, 0.2157101f, -0.07980384f,
  -0.8932074f, -1.283653f, -0.4142738f, 1.616743f, 1.086588f, -0.9857765f, -0.6821156f, 1.247526f,
  -0.01040314f, -0.7558429f, 1.200253f, 1.319908f, -0.6168921f, 0.3472719f, 0.3776132f, -0.163723f,
  -0.7196907f, -0.7688866f, -0.2412185f, -1.282331f, -0.4940861f, -0.1359064f, 1.11963f, 0.8518778f,
  0.1510548f, -0.04447242f, 0.210124f, 1.455835f, -0.442232f, -0.4026955f, 1.067629f, -0.81777f,
  -0.5225381f, -0.04952771f, 0.1354607f, -0.05384829f, 2.062542f, -2.057541f, -0.642294f, -2.974733f,
  3.251692f, 0.7569316f, 0.6036257f, -1.770212f, -0.2238416f, -0.1947747f, 0.5177394f, 0.1537679f,
  0.27593f, 0.8872938f, 0.07363796f, 0.08751017f, 0.1748281f, -0.2466803f, -0.2097717f, -0.276503f,
  -0.6394311f, -0.4640468f, -0.8994376f, 1.576527f, -0.4328118f, -1.286602f, 0.4744988f, 1.179398f,
  -1.28753f, -0.6634171f, -0.7237568f, -1.601037f, 1.660319f, -0.9384859f, -0.6467817f, 1.399776f,
  -0.02127608f, -0.8826567f, 0.1794781f, -0.1930288f, -1.00564f, -0.1508413f, 0.3869205f, -0.1798314f,
  0.07557679f, -0.6190247f, -1.311972f, 2.13737f, -0.3079341f, -1.319355f, 1.607906f, -0.10886f,
  -0.2861066f, 0.06419491f, -0.2414044f, 0.148251f, 0.08616732f, -0.3372292f, 0.496618f, 0.910984f,
  -0.1130763f, 0.2704038f, -0.08659999f, -0.06329322f, 1.052458f, 0.2188715f, -0.4138877f, 0.4355271f,
  0.8863635f, 0.02295914f, -0.6538723f, -0.2289904f, -0.07173312f, 0.932907f, -0.07609946f, -0.6549597f,
  1.197521f, -0.4635188f, -0.7599723f, 0.545269f, -0.4504592f, 0.6384431f, 0.8788223f, -0.2436305f,
  0.688018f, -0.6342618f, -0.7110685f, -0.3435341f, -0.4301845f, 0.1143909f, 0.09188694f, -0.3104737f,
  0.237233f, -0.8362265f, -1.139117f, -0.2883851f, -0.06107869f, -0.9747027f, 0.005732495f, 0.4959046f,
  0.0444272f, -0.1846389f, 0.4722848f, 0.7229434f, 0.2517217f, -0.1118075f, -0.002354527f, 0.1640377f,
};

#define W06_LEN (288u)

#endif // W06_H