#ifndef W08_H
#define W08_H

#include <stdint.h>

// Auto-generated by txt2h.py on 2026-02-16T03:54:17
// Source count: 288

const float w08[288] = {
  0.5003669f, 1.037377f, 0.7575442f, 1.000494f, 1.440101f, 0.7514774f, 0.6959122f, 0.8667274f,
  0.3271565f, -0.02400785f, -0.2847713f, -0.09762498f, -0.2746233f, -0.4817203f, -0.2025139f, -0.2869853f,
  -0.2506441f, -0.08539993f, 0.8425954f, -0.9196463f, -0.8261517f, 1.445988f, -0.5085849f, -0.914324f,
  0.6367832f, -0.1986852f, -0.7205612f, -0.3566005f, -0.3273183f, 0.1300492f, -0.3334905f, 0.12251f,
  0.4161652f, -0.03886665f, 0.3981475f, 0.5448337f, 0.7906528f, 1.062892f, 0.5690565f, -0.1923287f,
  -0.1819072f, 0.00484997f, -0.8461712f, -1.229216f, -0.6146913f, -0.2684315f, -0.3863059f, -0.1811067f,
  -0.4982699f, -0.8280793f, -0.3454107f, -0.2547227f, -0.3931434f, -0.07861168f, 0.3375285f, 0.5270963f,
  0.1947364f, 0.4214665f, 0.4797706f, 0.174688f, 0.08718879f, 0.05483105f, 0.06831812f, -0.1311951f,
  -0.2479848f, -0.1832478f, -0.3016253f, -0.4881933f, -0.2269789f, -0.016956f, -0.3324054f, -0.1073233f,
  0.001854907f, -0.4001224f, -0.3848721f, -0.3446191f, -0.5708538f, -0.2151434f, -0.1796802f, -0.2663388f,
  -0.01524317f, -1.482265f, -1.513117f, -0.5453304f, 0.1201578f, 0.2520907f, 0.4425082f, 0.9873577f,
  1.122633f, 0.5381216f, 0.1802663f, 0.3950464f, 0.2228882f, 0.3460009f, 0.437525f, 0.2767309f,
  0.2989168f, 0.2839506f, 0.0843104f, -0.4952835f, 0.4238705f, 0.4858576f, -0.9566547f, 0.3791315f,
  0.4926862f, -0.3009099f, -0.0463641f, 0.08779534f, 0.2792579f, 0.1488769f, -0.0761666f, 0.4708196f,
  0.3717223f, -0.04511412f, 0.249282f, 0.2929703f, 0.127076f, -0.3639358f, -0.6205376f, -0.2570259f,
  -0.5336219f, -0.5747154f, -0.2307667f, -0.2181415f, -0.08296946f, 0.0562446f, -0.08546986f, -0.3097232f,
  -0.350767f, -0.2460317f, -0.5141258f, -0.1289139f, -0.1094044f, -0.1009015f, -0.04118593f, -0.0922155f,
  -0.2666212f, -0.3015563f, -0.1581336f, -0.4867327f, -0.4999005f, -0.1731422f, -0.3190337f, -0.278347f,
  -0.3762911f, -0.2717209f, -0.03573298f, -0.3160762f, -0.6127533f, -0.5023904f, -0.0345939f, -0.2739699f,
  -0.2713291f, -0.2867115f, -0.553682f, -0.2847923f, -0.7170642f, -1.141083f, -0.4696316f, -0.5267265f,
  -0.6424276f, -0.1818322f, -0.3413798f, -0.4160599f, -0.1070742f, -0.4104782f, -0.6961775f, -0.3271503f,
  -0.3636699f, -0.3473461f, -0.1793188f, -0.2437148f, -0.2076168f, 0.03134729f, -0.1553857f, -0.4365922f,
  -0.2835338f, -0.05688713f, -0.1396359f, -0.2448112f, -0.2176986f, -0.02303801f, 0.2756886f, -0.004757361f,
  0.3911631f, 0.4564952f, 0.2660594f, 0.4244705f, 0.1648405f, 0.03366868f, -0.2316756f, -0.5093576f,
  -0.4550645f, -0.555005f, -0.6310685f, -0.196999f, -0.3759198f, -0.3635463f, -0.28483f, 0.0554864f,
  0.1553359f, -0.4782614f, 0.216291f, 0.3781172f, -0.09883838f, 0.2260962f, 0.2329764f, 0.0962403f,
  0.1481803f, 0.07337464f, 0.1032902f, 0.2845151f, 0.2904986f, -0.006776354f, 0.2199878f, 0.1922843f,
  0.2211793f, 0.1232048f, -0.1133013f, 0.3433826f, 0.4990228f, 0.2177769f, 0.2827128f, 0.5216613f,
  0.421607f, 0.4036265f, 0.597369f, 0.1846452f, 0.579935f, 0.4416252f, 0.01953747f, 0.08393488f,
  -0.1049969f, -0.2116671f, -0.1396986f, -0.3678565f, -0.272355f, -0.4411866f, -0.4438061f, -0.1009371f,
  -0.2553906f, -0.1659677f, 0.1092314f, 0.1839159f, 0.2423437f, 0.0634672f, 0.2915707f, 0.3112489f,
  0.05936697f, 0.1286871f, 0.1388068f, 0.04090217f, -0.1070109f, -0.291813f, -0.3691916f, -0.3580663f,
  -0.6924406f, -0.3889557f, -0.03578485f, -0.2868222f, -0.2337517f, 0.04818527f, 0.1441486f, 0.1060626f,
  0.1045966f, 0.2443689f, 0.126346f, 0.09861958f, 0.08642457f, 0.01639654f, 0.194609f, 0.2507046f,
  0.05651718f, 0.2749556f, 0.3106599f, 0.004934487f, 0.1460014f, 0.07002744f, -0.03186502f, -0.5210218f,
  -0.8814604f, -0.3306679f, -0.2829268f, -0.5614849f, -0.2776044f, 0.1359254f, -0.03236754f, -0.1118028f,
};

#define W08_LEN (288u)

#endif // W08_H