#ifndef W10_H
#define W10_H

#include <stdint.h>

// Auto-generated by txt2h.py on 2026-02-16T03:54:17
// Source count: 576

const float w10[576] = {
  -1.421158f, 1.707111f, -0.9321777f, -0.4657722f, 2.322604f, -1.194725f, -0.2208837f, 0.1232061f,
  0.0205717f, -0.6566632f, -0.05867225f, -0.1903497f, 0.588966f, 0.7847359f, 0.07473899f, 0.7939698f,
  0.6520897f, -0.7021661f, 0.1342604f, -0.921521f, -0.1352318f, 0.6392834f, -0.1374965f, -0.6431336f,
  0.03954942f, 0.1420379f, -0.955559f, -0.5405156f, 0.1015388f, 0.550408f, -0.04354085f, 0.5366701f,
  0.5423473f, -0.4399254f, 0.3494449f, 0.648453f, -1.917783f, -2.103714f, -1.371839f, 0.06952725f,
  1.765799f, 0.8850728f, 0.8791562f, 1.862866f, 0.1549855f, 0.2563079f, 1.087137f, -0.5355138f,
  -1.680465f, 0.2696047f, 1.247095f, -0.8926935f, -0.6028504f, 0.9857883f, -0.3179685f, 0.8238415f,
  1.157167f, -0.7855268f, 0.2034158f, 0.3137834f, -0.7425963f, -0.4145786f, -1.143817f, 0.3205505f,
  -0.05326302f, -0.4623622f, 0.4820985f, 0.2812714f, 0.3479115f, 0.2744531f, 0.1426103f, -0.04002043f,
  -0.4055095f, 0.5045757f, 0.2629224f, -0.2238899f, 0.6727313f, 0.05516659f, -0.02790179f, 0.4415025f,
  -0.08027139f, 0.1146493f, -1.130931f, 0.01584426f, -1.467367f, -0.376712f, 1.506622f, -1.229721f,
  0.5123151f, 0.9675205f, -0.7368569f, -0.4795016f, 0.4621147f, 0.4089189f, 1.218827f, -0.6173005f,
  0.5507928f, -0.5993505f, 0.1130624f, 0.1225014f, -0.2689156f, -0.3724558f, 0.6551452f, 0.9281732f,
  0.2207976f, 0.5947956f, -0.04091578f, 0.04217139f, -0.03666273f, 0.2355615f, 0.0860297f, 0.2263168f,
  0.6720031f, 0.04950266f, 0.2134988f, 0.627111f, -0.3507496f, 0.5645455f, -0.02257317f, -0.4792053f,
  1.262322f, -0.0764906f, -1.276114f, 0.51936f, 0.04561309f, -0.7767259f, -0.572727f, -0.9952206f,
  -0.764414f, 0.1598066f, 1.384129f, 0.5137342f, -0.06451824f, -0.1118759f, -0.5111213f, -0.1427148f,
  0.3913175f, -0.2328998f, -0.6293192f, 1.117014f, 0.487592f, -0.1040369f, -0.5889488f, 0.1464129f,
  -0.29816f, -0.4794107f, -0.2964436f, 0.0203915f, 0.4028485f, 0.3788629f, 0.1482441f, 1.014165f,
  0.07234886f, 0.2423253f, 0.2192458f, -0.2446088f, 0.3475451f, 0.29597f, -0.05728515f, 0.4189743f,
  0.1445376f, 0.2639799f, 0.5632845f, 1.088487f, -0.2835878f, 0.5220449f, -0.06070479f, -0.7069929f,
  -1.14509f, -0.8636762f, -0.05184786f, 0.1511052f, -0.8882697f, 0.4695971f, 0.01856378f, -1.090978f,
  0.7280224f, 0.2560234f, -1.258397f, 0.1480112f, -0.7848839f, 1.042872f, 0.5896658f, -0.8897989f,
  0.355246f, 0.8360447f, -0.2930179f, -0.5005926f, -0.1132341f, -0.811268f, 0.2928735f, 0.9690942f,
  -0.4323679f, 0.7642679f, 0.1885746f, 0.4465147f, -0.09188597f, -0.1295331f, 0.6012924f, 0.1550818f,
  0.8048209f, -1.069579f, -1.41765f, 0.09814546f, -0.8491384f, -0.4638751f, 0.9677021f, 0.4549658f,
  -0.6375343f, -0.1626996f, 0.2851581f, -1.004674f, 0.289938f, -0.2636697f, -0.5022142f, -0.1788566f,
  0.6454715f, -0.6113827f, -0.3246174f, -0.2563231f, 0.7630347f, -0.705191f, -0.3383101f, 0.2617307f,
  -0.2990689f, 0.4175234f, -0.8142039f, 0.1065695f, -0.09573629f, -0.6017127f, 0.9048769f, -0.8567946f,
  0.2427454f, 0.7465764f, 0.4515718f, 0.2057909f, 0.4246563f, 0.3854738f, 0.6677872f, 0.3363477f,
  -0.05403198f, -0.2940214f, -0.2608007f, -0.3612972f, -0.8726149f, -0.6100527f, 0.1464307f, 0.8508497f,
  -0.6404201f, -0.2813714f, 0.3065991f, -0.7223074f, -0.1789181f, -0.349139f, -0.3915511f, -0.2889388f,
  -0.3059448f, -0.4024135f, -0.6177931f, -0.4784208f, -0.2532625f, -0.6348881f, -1.145688f, -0.3639838f,
  0.06542373f, 0.3321458f, 0.09463393f, 0.3687377f, 1.332763f, 0.0529722f, 0.02749896f, 0.07205799f,
  0.06151121f, 0.3423094f, 0.05100215f, 0.006562784f, 0.359919f, 0.2924839f, -0.02844499f, -0.0172959f,
  -0.05772227f, -0.2310612f, 0.318652f, 0.06575879f, -0.5983368f, 0.6625781f, 0.03643575f, -0.6169563f,
  0.1115296f, -0.08435972f, -0.3081468f, 0.7384955f, -0.2204296f, -0.3371615f, 0.1041497f, -0.5038282f,
  -0.1468018f, -0.9076392f, -1.069867f, -0.5411931f, 0.4620817f, 0.7781717f, -0.4903952f, -0.3077852f,
  0.1460602f, -0.3293955f, -0.08123051f, 0.612047f, 0.001322973f, -0.3833465f, 0.5218328f, -0.2732123f,
  -0.5825124f, -0.1740014f, -0.6624132f, 0.2347358f, -1.294145f, -0.3485964f, 1.765888f, 0.3014489f,
  0.1927465f, 0.9824719f, -0.06825572f, -0.4627454f, 0.279587f, -1.276861f, -0.07354997f, -1.274209f,
  -0.04343326f, 0.7606454f, -0.6708284f, 1.064329f, 0.3025951f, -1.151239f, 1.158009f, -1.255588f,
  -0.3342075f, 1.430369f, -0.2331339f, 0.04193819f, 0.4302993f, -0.1556196f, -0.01230852f, 0.1775542f,
  0.174095f, 0.4409725f, 0.9986903f, 0.3988233f, 0.1491773f, 0.6773766f, 0.0919419f, 0.4567907f,
  -0.1773733f, -1.422771f, 0.9219472f, 0.2723982f, -1.145451f, 0.1265443f, 0.3457264f, 0.6603402f,
  -0.2908012f, -0.1923647f, -0.09654228f, -0.1351305f, -0.2404328f, -0.1219283f, -0.1166917f, -0.800335f,
  -0.3431637f, -0.5184975f, 0.8331547f, -0.5543714f, -0.5240027f, 0.9702871f, -0.6068426f, -0.717873f,
  0.2667989f, -0.0115167f, -0.350256f, -0.743242f, -0.473949f, 0.1873267f, 0.7029746f, 0.241229f,
  0.353137f, 0.7697614f, 0.2414308f, -0.01630064f, 0.3748707f, 0.2054325f, 0.4499428f, 0.4649353f,
  0.1831329f, -0.05244303f, 0.009244602f, 0.09757383f, 0.03418061f, 0.1239081f, -0.2647409f, 0.4448913f,
  0.5812637f, -0.2893045f, 0.1217029f, 0.09118816f, 0.05267093f, -0.0918401f, -0.06594234f, -0.1022799f,
  -0.3591798f, -0.5000076f, -0.2264792f, -0.3000739f, -0.2343511f, 0.02925694f, 0.7381445f, 0.2103313f,
  -0.3636408f, 1.23019f, 0.3062728f, -0.7329858f, -0.1446967f, -0.7463156f, -0.528026f, 0.0236579f,
  0.1749863f, 0.1381677f, 0.1378898f, 0.3791924f, 0.00261846f, 0.09985536f, 0.1496715f, 0.02715964f,
  0.7129956f, -0.1325419f, -0.1717005f, 0.521647f, 0.3609558f, -0.3829457f, -0.5641112f, 0.01137456f,
  -0.1091759f, -0.5761088f, 0.5753706f, 0.1321094f, -0.5734722f, -0.1640042f, 0.715062f, 0.02666575f,
  -0.6352063f, -0.2308787f, 0.640215f, 0.7778727f, 0.1020999f, -0.2933989f, 0.1956151f, -0.9822741f,
  -0.4065801f, -0.7074457f, 0.1577942f, 0.1997607f, 0.02343002f, -0.3072611f, 0.8589226f, 0.08193179f,
  -0.7057965f, 0.7201285f, 0.07028496f, -1.037513f, 0.1364099f, 0.4770298f, 0.1145109f, 0.1035116f,
  0.9865221f, 0.08796973f, -0.7322727f, -1.060917f, -0.4621106f, -0.5167102f, -0.9619687f, -1.054547f,
  0.1612056f, -0.4472379f, -0.2658623f, 0.1889677f, -0.1866228f, 0.06780536f, -0.5983473f, -0.7728528f,
  -0.5570833f, -0.04899521f, -0.3100925f, 0.07882658f, -0.6050125f, -0.4763677f, -0.3383731f, -0.6751584f,
  -0.8406106f, -0.6798559f, -0.6014399f, 0.2198951f, 1.156941f, -0.3827578f, 0.2267241f, 0.9977991f,
  0.9213595f, -0.2034382f, -0.3262781f, 0.1098246f, 0.1464262f, 0.1718534f, -0.1753088f, 0.2995762f,
  0.1442478f, 1.204663f, 1.229063f, 0.8171924f, -0.5930322f, -0.4259563f, -0.5479211f, -0.4808078f,
  -0.5947735f, -0.3894386f, -0.5267588f, -0.2018719f, -0.6863876f, -0.6138983f, -0.1422514f, -0.9147769f,
  0.4564363f, 0.5937573f, 0.4667872f, 0.4664516f, 0.6606014f, -0.7779717f, 0.7250443f, 0.6933455f,
  -1.084011f, 0.3393644f, -0.1554219f, -0.7234924f, 0.8058408f, -0.2117713f, -0.3077669f, 0.9595341f,
  -0.4691139f, -0.565372f, 0.3925936f, -0.1888961f, -0.2274044f, -0.4653094f, -0.7036949f, -0.1302744f,
  -0.1998267f, -0.2631327f, -0.9356816f, 0.3228178f, 1.123399f, 0.1978468f, -0.2207415f, -0.259932f,
  -0.02489641f, -0.4235451f, -0.23429f, 0.0234148f, -0.3513618f, -0.8219381f, 1.513101f, -0.411126f,
  -0.2313218f, 1.046337f, -0.4591436f, 0.4750887f, 0.4430374f, -0.1311102f, -0.7107018f, -0.2326738f,
};

#define W10_LEN (576u)

#endif // W10_H