#ifndef W11_H
#define W11_H

#include <stdint.h>

// Auto-generated by txt2h.py on 2026-02-16T03:54:17
// Source count: 4096

const float w11[4096] = {
  0.02732011f, 0.1957625f, 0.01071261f, 0.1853045f, 0.01624838f, -0.02958649f, -0.0987166f, -0.2768573f,
  0.06893087f, 0.1497981f, 0.1835401f, -0.06539085f, 0.09488422f, 0.07056382f, 0.06359551f, -0.2253105f,
  0.1339972f, -0.01653769f, -0.09276722f, 0.009667004f, -0.2829116f, -0.03038768f, -0.1003539f, 0.06750281f,
  0.004434674f, -0.0248119f, 0.05430806f, -0.09083367f, -0.0124888f, -0.09920082f, -0.04154806f, 0.07108012f,
  -0.07649928f, -0.04000137f, -0.1152035f, 0.1468594f, 0.2061279f, -0.1260824f, 0.110026f, -0.08522401f,
  0.01151991f, 0.01076769f, 0.06873486f, -0.09394035f, -0.1123957f, 0.04306602f, 0.1874752f, 0.1557891f,
  -0.1540224f, -0.1212568f, -0.08925639f, 0.02225494f, -0.04921721f, 0.1208459f, -0.07360659f, 0.04278397f,
  0.346364f, 0.01468102f, 0.08408315f, -0.06363948f, 0.009286993f, -0.06247346f, 0.05494141f, -0.06317268f,
  0.1022478f, -0.1296478f, 0.2979279f, -0.007331612f, 0.01787283f, 0.04387245f, 0.1639311f, 0.3023413f,
  -0.17828f, 0.05350513f, -0.09469768f, -0.1038763f, -0.06742757f, 0.02160231f, 0.0640091f, 0.2103858f,
  -0.1345314f, 0.08567966f, 0.1994952f, 0.07494004f, 0.03278012f, 0.1511031f, 0.05745823f, -0.04827909f,
  0.09309714f, 0.01690136f, 0.2678628f, 0.1728957f, -0.2822622f, 0.1819354f, -0.1335974f, 0.1592103f,
  0.1573647f, 0.3325228f, -0.128444f, -0.1963253f, 0.1250291f, 0.1563354f, 0.1255733f, 0.4091136f,
  0.2009946f, 0.08166111f, 0.2053804f, 0.07062251f, 0.4240599f, -0.2475847f, -0.03617347f, -0.01166917f,
  0.1199158f, 0.2894085f, -0.01632237f, -0.003648585f, -0.1185974f, 0.2287489f, -0.07180257f, 0.3323008f,
  -0.1036581f, -0.3979163f, 0.07009472f, 0.01420873f, 0.3737482f, 0.2212507f, -0.05008753f, 0.1435271f,
  0.2900172f, -0.07814363f, 0.02781536f, 0.3490155f, -0.06880672f, -0.1008857f, 0.2515032f, 0.3076622f,
  -0.1458632f, -0.2196589f, 0.09107956f, 0.2212491f, -0.1498216f, -0.1083939f, 0.2662458f, 0.2760424f,
  -0.1486962f, -0.3019409f, -0.2026054f, -0.03434573f, 0.0370679f, -0.1782921f, -0.1628626f, -0.1833515f,
  -0.1465036f, -0.0515441f, -0.06620674f, -0.174376f, -0.341044f, 0.02401502f, 0.1285487f, -0.03561957f,
  -0.01918996f, 0.2813906f, -0.2136056f, 0.06122475f, 0.132834f, -0.1891319f, 0.06094036f, -0.06904384f,
  0.21068f, -0.0102154f, -0.1161961f, 0.1036621f, -0.1218758f, 0.08083934f, -0.1367664f, -0.06121369f,
  0.01175192f, 0.03419039f, -0.1954485f, 0.03485279f, 0.07596765f, 0.3044113f, 0.06281125f, 0.212995f,
  -0.08868969f, 0.3458731f, 0.2993844f, 0.01047375f, -0.1962462f, 0.1904083f, -0.1406527f, -0.1939312f,
  3.349369e-31f, -1.111129e-30f, -1.987635e-31f, 9.690798e-31f, -5.143937e-31f, -1.885411e-31f, 5.933939e-31f, 7.519812e-31f,
  4.582294e-31f, -5.326797e-31f, -3.222184e-31f, 4.299461e-31f, 3.235841e-31f, 2.57936e-31f, -1.306146e-30f, 3.667072e-32f,
  -4.895847e-31f, -4.006016e-31f, 4.618085e-31f, 3.675457e-31f, -1.016084e-31f, -4.191991e-31f, 8.211339e-31f, 5.293726e-31f,
  -1.020055e-31f, 1.579957e-31f, 8.916667e-31f, -3.44571e-31f, -8.212067e-31f, 6.945856e-31f, 9.035428e-31f, -5.912979e-31f,
  -1.117508e-30f, -5.864441e-31f, -6.200719e-31f, -8.523325e-31f, -6.452481e-31f, 2.714196e-31f, 1.743396e-31f, -6.67803e-31f,
  2.693472e-31f, 8.534317e-31f, -2.529682e-31f, -4.644151e-31f, -2.569947e-31f, -4.273899e-31f, -3.843707e-31f, 1.566473e-31f,
  4.522045e-31f, -8.152687e-31f, 3.423561e-31f, -6.518876e-31f, -1.139144e-30f, 2.876539e-31f, 4.927992e-31f, -1.312308e-31f,
  1.354039e-31f, -1.685529e-31f, -7.483056e-32f, 1.296884e-31f, 6.33553e-31f, 1.043805e-30f, 1.884495e-31f, -1.027644e-31f,
  0.161612f, 0.06701598f, -0.1511971f, 0.2407543f, -0.1621263f, -0.02069973f, 0.02227467f, -0.0547388f,
  -0.1649761f, 0.3217718f, 0.1141801f, 0.1105703f, -0.1341231f, -0.006206493f, -0.03546027f, -0.1325094f,
  -0.07144795f, -0.06029148f, 0.06256567f, 0.02237101f, 0.02582411f, 0.09548203f, -0.1597818f, -0.07633439f,
  0.1205879f, 0.1272227f, 0.1017383f, -0.06119156f, 0.02605963f, 0.03493332f, 0.03904441f, -0.03424371f,
  0.07293462f, -0.02792146f, 0.08066106f, -0.1504587f, 0.06699967f, -0.1257571f, -0.01852527f, -0.1093543f,
  -0.1137427f, 0.02797864f, -0.07836685f, -0.2177995f, -0.02387542f, -0.0001918581f, 0.0184381f, -0.2052725f,
  0.09672233f, -0.1684095f, 0.06348334f, -0.3034283f, -0.1161996f, 0.131093f, 0.1322038f, 0.418918f,
  0.05622129f, -0.02670536f, -0.1719255f, -0.06323384f, 0.1406696f, 0.03718851f, 0.057201f, 0.05907013f,
  -0.09354363f, 0.003227505f, -0.05615261f, 0.1679126f, 0.06748836f, 0.03142055f, 0.05300933f, 0.2456442f,
  -0.03313759f, -0.09356679f, 0.3134598f, 0.1124413f, -0.1499507f, -0.0596813f, -0.08317896f, 0.03752638f,
  -0.2226292f, -0.02703456f, 0.268411f, 0.1898221f, -0.1032455f, 0.08827634f, -0.1152243f, -0.1602694f,
  0.2441481f, -0.226514f, 0.04421161f, 0.1684905f, 0.08920775f, -0.2554296f, 0.3219686f, -0.0996808f,
  0.3091833f, 0.1014345f, 0.02053064f, 0.1310001f, 0.02687378f, 0.0512636f, -0.09592397f, -0.1249046f,
  0.0808126f, -0.02953882f, -0.1892623f, 0.02066602f, -0.06091001f, 0.02019655f, 0.03019362f, 0.1920385f,
  0.1189706f, 0.09638231f, 0.1424575f, -0.04996756f, 0.0884186f, -0.03633003f, 0.1913227f, -0.07757272f,
  0.08651744f, -0.01686333f, -0.1866643f, -0.1751205f, -0.05366882f, 0.117896f, -0.07486454f, -0.03165821f,
  0.04681519f, -0.02627558f, -0.3100636f, 0.2877925f, 0.06065835f, -0.2230205f, 0.08698206f, 0.05138313f,
  0.1632905f, -0.0963639f, 0.1732345f, 0.09135706f, 0.2818068f, 0.2339111f, 0.1434935f, 0.08374878f,
  0.01682693f, -0.1532519f, -0.2805387f, -0.2469854f, -0.1162566f, 0.3314089f, 0.1341645f, 0.07486793f,
  -0.2804973f, 0.07934073f, 0.1757756f, -0.2868254f, -0.04899631f, 0.2796859f, -0.06498422f, 0.1249444f,
  -0.07919604f, -0.1342499f, -0.2704215f, -0.308867f, 0.06960734f, 0.05273348f, 0.06757886f, -0.2392766f,
  -0.08891613f, 0.174332f, 0.2337358f, -0.2641085f, -0.2340117f, 0.1333943f, -0.1071444f, 0.002125386f,
  0.4419807f, 0.03309954f, 0.1743465f, -0.1828441f, 0.4036156f, -0.02319506f, 0.2329122f, -0.222518f,
  -0.4322492f, 0.279363f, 0.1399474f, 0.09428588f, -0.02396244f, -0.04747408f, 0.1165921f, 0.0770651f,
  -0.1501467f, 0.2646441f, -0.01668782f, 0.4312121f, -0.002194235f, -0.1624749f, -0.07297557f, -0.226214f,
  -0.2307292f, -0.2719215f, 0.1400315f, 0.05412107f, 0.05130292f, 0.1805979f, -0.47623f, 0.03837519f,
  0.00870734f, 0.01751954f, -0.2153311f, 0.05344677f, 0.5254064f, -0.1121863f, 0.07769567f, -0.2275636f,
  0.03995423f, 0.08123471f, 0.2495577f, 0.02437389f, -0.1166491f, 0.2331633f, -0.2658854f, -0.2356157f,
  -0.1312934f, 0.02961478f, 0.09565198f, -0.000690768f, -0.2448761f, -0.1029421f, -0.05591721f, -0.005327167f,
  0.04810529f, -0.1270819f, 0.0238825f, 0.3601841f, 0.2479876f, 0.03121168f, -0.02733307f, 0.2543927f,
  -0.1320311f, 0.2015614f, 0.2761643f, -0.1413155f, 0.1274389f, 0.1265679f, 0.1554333f, -0.4607161f,
  0.01241884f, 0.1619038f, 0.1710431f, -0.211432f, 0.2208882f, -0.2096918f, 0.04255364f, -0.1333768f,
  0.05370628f, -0.2558575f, -0.02310465f, -0.1380037f, 0.08250561f, -0.07900145f, 0.0470014f, -0.1234862f,
  -0.09456892f, -0.05483039f, 0.1495803f, 0.06542756f, 0.04232396f, 0.1071443f, 0.05673288f, -0.167302f,
  -0.0360386f, -0.1016863f, 0.0806378f, 0.01356285f, -0.1013697f, 0.119958f, -0.1420406f, -0.1331555f,
  -0.009754503f, 0.09469399f, 0.3278229f, -0.02116103f, -0.148609f, -0.1107327f, -0.05736517f, 0.1083377f,
  -0.04875487f, -0.08602869f, -0.005166193f, -0.1036238f, -0.07293069f, 0.005393885f, -0.02095131f, 0.1390732f,
  -0.2096125f, 0.09570056f, 0.03622707f, -0.1993526f, -0.2007182f, -0.1007538f, 0.07679952f, -0.2487814f,
  0.08373652f, 0.02517064f, 0.1932467f, -0.3290501f, 0.5050809f, -0.1027176f, 0.2840178f, -0.02034499f,
  -0.09125666f, -0.02026668f, -0.2646531f, -0.1742372f, -0.200061f, -0.1048722f, -0.1325689f, -0.0870773f,
  0.1516082f, 0.01057891f, 0.01995676f, -0.1483845f, 0.05705241f, -0.1080478f, 0.0792603f, -0.1572972f,
  -0.1127353f, -0.08099648f, 0.07972561f, 0.0009164173f, 0.05471038f, 0.02919994f, 0.04073338f, -0.07010552f,
  -0.1179771f, -0.02392771f, 0.05568632f, -0.05978138f, 0.02666907f, 0.03236244f, -0.01156438f, 0.09909379f,
  -0.003044038f, -0.01563622f, -0.123251f, 0.05721378f, 0.1066805f, -0.08983549f, -0.0417313f, 0.06404702f,
  0.01972003f, -0.05824282f, 0.03692172f, 0.1770854f, 0.2268919f, -0.1053127f, -0.03470335f, 0.1488591f,
  0.06470762f, -0.07593408f, 0.04722736f, 0.2358923f, -0.01977801f, -0.07627238f, -0.1008606f, 0.158096f,
  -0.02105449f, 0.05042125f, 0.05952976f, -0.06424014f, 0.1306481f, -0.04290744f, 0.1460649f, 0.1010868f,
  0.03791637f, -0.1485976f, -0.07026077f, -0.05047889f, 0.08897489f, 0.0224523f, 0.02667281f, 0.1820388f,
  0.3350289f, -0.06714975f, 0.2742424f, 0.4760985f, -0.2046711f, 0.3582207f, 0.2991643f, -0.1350673f,
  0.05800646f, 0.275907f, -0.05982042f, 0.3093012f, -0.0419347f, 0.2787368f, -0.05237366f, 0.2605657f,
  -0.5033801f, 0.4712188f, -0.9150481f, -0.1668528f, 0.02757746f, -0.04041181f, -0.02232425f, -0.3926342f,
  0.1517774f, -0.3320807f, 0.2023076f, 0.1378932f, 0.1689232f, 0.03287974f, -0.6649565f, 0.3019079f,
  0.07458577f, 0.1453556f, -0.04022478f, 0.390034f, -0.1659224f, 0.05767243f, -0.07352488f, 0.2987738f,
  0.1227989f, -0.1280756f, 0.1232267f, 0.2271715f, 0.4523716f, -0.1146344f, 0.05428368f, -0.2268757f,
  0.1885053f, 0.3352669f, -0.4576083f, 0.05764277f, 0.1906707f, 0.2215657f, 0.2270682f, -0.1118866f,
  -0.2151935f, -0.4356378f, -0.6165396f, -0.1203192f, 0.07119077f, -0.362747f, -0.2017091f, 0.3606386f,
  -0.269806f, -0.6276284f, -0.0001938448f, -0.2860111f, -0.1538955f, 0.2837629f, 0.03222697f, 0.1518143f,
  -0.003417826f, 0.04982233f, 0.02967839f, -0.1516431f, -0.1691022f, 0.6466029f, -0.02124549f, 0.1223966f,
  -0.467356f, -0.128418f, 0.07554526f, 0.0963894f, -0.06486567f, 0.140103f, 0.2852676f, -0.0003767307f,
  0.1444457f, 0.1016663f, -0.2333076f, -0.05536307f, -0.5415192f, 0.1118413f, 0.00117768f, 0.02454905f,
  0.3518986f, -0.09331376f, 0.3245623f, -0.002329424f, 0.1301454f, 0.1071848f, 0.2192366f, -0.1434954f,
  -0.2317539f, 0.1548106f, 0.1295834f, -0.04064633f, -0.1834365f, -0.2133867f, 0.02598298f, -0.003154895f,
  -0.09510954f, -0.08084299f, 0.1271793f, 0.5495169f, 0.1775439f, -0.2186397f, -0.06611273f, -0.003775446f,
  0.006077332f, -0.02259159f, -0.04955414f, 0.01709818f, -0.1221432f, -0.2287382f, 0.2678153f, 0.1890988f,
  4.257293e-31f, 1.866341e-30f, -1.983348e-30f, -2.151889e-30f, 9.834719e-31f, -1.903127e-30f, 2.293554e-30f, -2.05929e-30f,
  2.088127e-30f, 2.105727e-30f, -2.422684e-30f, 2.14669e-30f, 2.104757e-30f, 2.052913e-30f, -3.81527e-31f, 2.349185e-30f,
  -2.374828e-30f, 8.994688e-31f, 2.187621e-30f, 1.820892e-30f, 2.112413e-30f, 2.27908e-30f, 2.389952e-30f, -1.451919e-30f,
  1.426935e-30f, 1.516512e-30f, -1.85273e-30f, -1.858042e-30f, -2.174994e-30f, -1.787871e-30f, 2.315523e-30f, -1.57529e-30f,
  1.849117e-30f, -1.789055e-30f, 2.200102e-30f, 1.813675e-30f, 1.392783e-30f, -6.496103e-31f, 2.289155e-30f, 2.453325e-30f,
  1.972484e-30f, -2.621126e-30f, -2.350041e-30f, -2.289013e-30f, 2.215468e-30f, 2.372676e-30f, 1.595837e-30f, 2.127565e-30f,
  2.420673e-30f, 2.420622e-30f, -1.88996e-30f, 2.037003e-30f, -2.397363e-30f, -1.364919e-30f, -9.706223e-31f, 1.671066e-30f,
  -2.085388e-30f, -1.829686e-30f, 2.544033e-30f, -2.049542e-30f, 1.724858e-30f, 1.116889e-30f, 1.808923e-30f, 2.27684e-30f,
  3.409412e-31f, 5.926108e-32f, -4.824498e-31f, -3.075459e-31f, -2.284673e-31f, -2.750906e-31f, -3.827868e-31f, -3.10809e-31f,
  -4.210695e-31f, -1.297724e-31f, -5.391918e-31f, -4.403011e-31f, -3.303716e-31f, -3.759942e-31f, -2.155598e-31f, -4.293522e-31f,
  3.948044e-31f, -2.077442e-31f, 4.591022e-31f, 3.271291e-31f, 8.407077e-32f, 4.198757e-31f, -2.317614e-31f, 1.250798e-31f,
  -8.597051e-31f, 2.987072e-31f, -3.772154e-31f, 2.099393e-31f, -5.788533e-31f, -4.629148e-31f, -4.510394e-31f, 3.927233e-31f,
  4.755899e-31f, -3.876747e-31f, 1.586541e-31f, -4.034127e-31f, 1.501175e-31f, -3.625123e-31f, -3.719708e-31f, 3.883925e-31f,
  -2.870798e-31f, -4.715056e-31f, 4.258039e-31f, -4.153914e-31f, 4.454259e-31f, 5.840648e-31f, -2.98381e-31f, -5.399897e-31f,
  -4.402351e-31f, -4.372566e-31f, 4.580136e-31f, -2.8632e-31f, 3.038524e-31f, 1.922646e-31f, 2.599235e-31f, -3.469867e-31f,
  -2.952446e-31f, -1.80558e-31f, -5.75402e-31f, -4.238244e-31f, -1.198203e-31f, -4.133816e-31f, 4.348036e-31f, 4.191275e-31f,
  -0.09924673f, 0.2703587f, 0.3144327f, 0.1366676f, -0.1483687f, -0.1646033f, 0.08097322f, 0.233017f,
  0.18199f, 0.1443983f, 0.189862f, 0.1100196f, 0.09085765f, 0.2499204f, -0.03710682f, -0.005922338f,
  -0.0765211f, -0.1440209f, 0.3849418f, -0.04640302f, 0.2317511f, 0.02451785f, -0.2035253f, 0.1500888f,
  0.1628765f, -0.1563947f, 0.003546498f, 0.072612f, -0.1296f, 0.1886634f, -0.21459f, 0.1757817f,
  0.07730372f, 0.06788375f, -0.05341637f, -0.1276617f, 0.005760841f, -0.0598443f, -0.1469145f, 0.2703737f,
  0.2472795f, -0.05389306f, 0.05554611f, -0.3353864f, 0.5401507f, -0.06017528f, -0.1230694f, 0.3754922f,
  0.2946435f, 0.1009691f, 0.07774625f, 0.1849637f, 0.08149938f, -0.03908512f, -0.02005088f, 0.1094184f,
  0.2075702f, -0.03505763f, 0.05994998f, -0.1001791f, -0.08635443f, -0.005682075f, 0.006864772f, -0.00556141f,
  0.05290882f, -0.1647153f, 0.1081444f, -0.1585259f, 0.05233653f, 0.1352269f, 0.1032385f, 0.03489944f,
  -0.1800648f, 0.0776843f, 0.1207653f, 0.1453606f, -0.001861181f, 0.06639446f, -0.03912228f, 0.3529439f,
  0.06101051f, -0.1959151f, 0.05427367f, -0.007834597f, 0.2108019f, -0.2540059f, -0.1329373f, -0.04236676f,
  0.1309589f, 0.02112329f, 0.01345288f, -0.06803574f, 0.03214657f, 0.0600955f, 0.03454655f, 0.07803097f,
  0.02788213f, 0.1207303f, 0.05834234f, -0.07867396f, -0.02924186f, -0.05451096f, -0.1179583f, -0.003648252f,
  -0.04267237f, 0.0597771f, 0.06186465f, 0.1810705f, 0.2652251f, -0.09753673f, -0.1824347f, 0.2100012f,
  0.02667987f, -0.02724013f, 0.05959811f, 0.02165341f, -0.0195686f, -0.01593046f, 0.06858166f, -0.09709616f,
  0.1048571f, -0.1093678f, 0.1152494f, 0.007548198f, -0.04337264f, 0.1663267f, -0.1886082f, -0.1423482f,
  -0.06206868f, 0.3727297f, -0.0321473f, 0.08067696f, 0.2226953f, 0.002012984f, -0.05169766f, -0.1089405f,
  -0.2473439f, -0.03315067f, -0.0361693f, -0.1101811f, -0.3833709f, 0.04071061f, 0.08499376f, 0.1181484f,
  -0.1813252f, -0.3106206f, 0.6758077f, 0.02708473f, -0.0193769f, -0.0131587f, 0.1701532f, -0.108027f,
  0.1666685f, 0.03680766f, 0.1025667f, -0.0822681f, -0.0298855f, 0.2506478f, -0.1623601f, -0.1931533f,
  -0.2033233f, 0.06099211f, 0.2230393f, -0.1369558f, 0.1679558f, -0.02909591f, 0.0418324f, 0.1118695f,
  -0.2148027f, 0.1673091f, -0.4801819f, -0.07312932f, -0.02113366f, -0.1803898f, 0.02151823f, -0.1145164f,
  -0.07574302f, -0.01746665f, -0.1533553f, -0.2585703f, -0.0346305f, -0.05960421f, -0.05753103f, -0.1883517f,
  -0.1581791f, -0.1988837f, 0.1828724f, -0.03808446f, 0.0992162f, 0.2485316f, 0.137234f, 0.1349744f,
  0.1401077f, -0.01055723f, 0.0574332f, 0.02933576f, 0.1298776f, -0.04360845f, -0.02920668f, 0.1728736f,
  -0.02692268f, -0.2404767f, -0.2200834f, 0.02070067f, -0.2256535f, -0.4369551f, -0.07335103f, 0.1164752f,
  -0.10348f, -0.6729915f, 0.1867986f, 0.1789389f, 0.1324931f, 0.457413f, 0.3237695f, -0.1542801f,
  0.05985307f, -0.08308545f, -0.5161118f, -0.1027594f, 0.1224919f, -0.2311643f, -0.1219464f, 0.3694567f,
  -0.1475948f, -0.1850758f, 0.2382374f, -0.2457719f, -0.1529224f, -0.2210931f, -0.01521035f, 0.2746745f,
  0.05642251f, -0.04971193f, -0.4620753f, -0.02830258f, 0.03435244f, 0.190304f, -0.1685982f, 0.2916208f,
  0.06980205f, -0.02042243f, 0.3084401f, 0.05146344f, 0.16498f, 0.1077483f, 0.1475807f, 0.1504254f,
  -0.2227349f, 0.09119285f, 0.1405094f, 0.2131084f, 0.1878278f, 0.03385997f, -0.1921493f, 0.03682011f,
  -0.01754653f, -0.5570387f, 0.05565272f, -0.2813142f, -0.2431304f, 0.1265729f, 0.1058788f, 0.2869963f,
  -0.01676186f, -0.2549366f, -0.4457867f, -0.2874081f, -0.1645693f, -0.2391794f, -0.1116124f, 0.02089327f,
  -0.5042267f, 0.0221458f, -0.1522964f, 0.1342874f, -0.2288537f, 0.4450821f, 0.2627671f, -0.0257662f,
  -0.1165393f, 0.05695839f, 0.2140025f, -0.2560451f, -0.1458914f, 0.1290656f, -0.001929125f, -0.4314963f,
  -0.008498782f, 0.02702995f, -0.01341803f, -0.3549296f, -0.359057f, -0.07781142f, 0.02285258f, 0.1869434f,
  0.1033921f, -0.4741507f, 0.3856707f, 0.1618135f, 0.1688855f, -0.01701013f, -0.06043664f, 0.1743914f,
  0.1783277f, 0.4302568f, -0.3088205f, 0.160873f, 0.2513146f, 0.09742704f, -0.2386646f, -0.01337159f,
  0.3031411f, 0.07936089f, 0.0008636875f, 0.02061946f, -0.03528851f, 0.04248149f, -0.07345265f, 0.6474854f,
  0.1863119f, -0.2092862f, 0.1730494f, -0.1907142f, -0.2537603f, 0.07613473f, 0.2060691f, -0.01446136f,
  0.009339253f, -0.1598232f, 0.4920052f, 0.3566215f, 0.247185f, -0.1837245f, -0.1866485f, -0.218347f,
  0.2800258f, -0.1731078f, 0.2217956f, 0.1930903f, -0.2817554f, -0.1908896f, -0.1252635f, -0.05528941f,
  0.1713931f, 0.02322581f, 0.1066542f, -0.1608393f, -0.08065172f, 0.05417867f, -0.5145454f, 0.2616629f,
  0.2782973f, -0.1290099f, 0.07627877f, -0.06093132f, 0.169449f, -0.1565385f, -0.1293907f, 0.07175235f,
  -0.1459478f, 0.05920709f, 0.3257885f, -0.2028375f, -0.1332052f, -0.1243738f, 0.2008568f, -0.114273f,
  0.3596106f, -0.0301874f, 0.1756756f, -0.2394667f, 0.224832f, -0.2031953f, 0.006305739f, 0.06959049f,
  -0.004795813f, 0.004587855f, 0.3314067f, -0.3031178f, -0.07178362f, -0.2529279f, -0.01109004f, 0.06892027f,
  0.1409558f, -0.01576918f, 0.04540951f, -0.05438859f, -0.02257417f, -0.00739387f, -0.004330654f, -0.06254565f,
  -0.05017286f, -0.05722059f, 0.06400111f, 0.1090523f, 0.0007044021f, -0.166719f, 0.1103363f, 0.05384503f,
  -0.02355245f, -0.04312904f, 0.1661379f, 0.01193807f, -0.03716962f, -0.01344543f, -0.07793877f, 0.05620725f,
  0.03844986f, 0.008228772f, -0.1519272f, 0.1104447f, 0.009054215f, -0.2048571f, -0.003552101f, 0.08894029f,
  -0.0825863f, 0.1133377f, 0.06813467f, -0.0008324017f, 0.04783313f, -0.03646123f, -0.0455329f, -0.08312934f,
  -0.03101119f, 0.1355881f, -0.1092737f, -0.008416479f, -0.143128f, -0.05946413f, -0.1025092f, 0.04960741f,
  -0.03619675f, 0.06967458f, 0.05451058f, -0.07923272f, 0.05523965f, 0.04280199f, 0.03616139f, -0.05302497f,
  -0.02733498f, 0.04459545f, 0.1344652f, -0.003606956f, 0.1070724f, 0.08882409f, -0.01965895f, 0.09220001f,
  0.2198922f, -0.1751478f, 0.005708308f, -0.1229902f, 0.2605576f, -0.08324366f, -0.1073045f, 0.04376261f,
  -0.1346809f, -0.08659219f, 0.210425f, 0.1113514f, -0.0112325f, 0.004062626f, 0.143994f, -0.07359019f,
  0.272635f, -0.200037f, 0.1068577f, -0.07448202f, 0.03490728f, -0.03979217f, -0.2814402f, 0.1276279f,
  0.05777505f, 0.03718399f, -0.2806085f, 0.1202836f, -0.2684294f, -0.08764531f, 0.0189209f, 0.09601479f,
  0.08090208f, 0.3910619f, -0.1348312f, 0.009834875f, -0.1068698f, -0.06049531f, -0.01400041f, -0.2064468f,
  -0.07150033f, 0.251262f, 0.03019496f, 0.1561657f, -0.2897416f, 0.01794775f, -0.1016672f, -0.02818623f,
  -0.1099703f, 0.178774f, 0.06950347f, 0.01636336f, 0.5133693f, -0.0883304f, -0.05918751f, -0.1152376f,
  -0.04858089f, 0.2132106f, -0.001130196f, 0.181964f, 0.0346121f, 0.1212655f, -0.0250785f, -0.1396014f,
  0.00181624f, -0.01962915f, 0.08473357f, 0.01625659f, 0.04735786f, -0.1645451f, -0.2185532f, -0.0180784f,
  0.1757606f, 0.3374192f, -0.167105f, -0.2320735f, 0.07120113f, 0.3120398f, 0.09027199f, 0.09453513f,
  -0.02009043f, 0.01525973f, 0.09892914f, -0.06470528f, -0.2235779f, 0.2813444f, 0.02182889f, 0.2377103f,
  -0.2282607f, -0.01289212f, -0.0789484f, 0.02241995f, 0.1398244f, -0.02383625f, -0.1761513f, 0.04866362f,
  0.2200207f, -0.05429939f, 0.06516885f, -0.4193618f, 0.2358057f, 0.112335f, -0.1290084f, -0.1075793f,
  0.07329264f, -0.0150461f, -0.09378691f, -0.006939028f, -0.1179045f, 0.1170022f, -0.04563684f, -0.2180296f,
  0.1280059f, -0.1500351f, -0.0805601f, 0.1321768f, 0.01917977f, -0.1407485f, -0.04879034f, 0.1589612f,
  0.1255391f, -0.0277336f, -0.1039076f, 0.3934475f, 0.07019044f, -0.1599494f, 0.1457692f, -0.0783383f,
  0.05766235f, -0.07946205f, 0.1501097f, -0.1182618f, 0.008654087f, 0.1749353f, 0.1296693f, -0.03187824f,
  -0.05026119f, -0.2184393f, -0.1047626f, -0.006755334f, -0.01326701f, -0.008792829f, 0.04122625f, -0.145114f,
  0.2003544f, -0.02986877f, 0.105954f, 0.3744402f, 0.1099573f, 0.1860569f, -0.08848421f, 0.1547571f,
  0.06594528f, 0.3596385f, -0.05500396f, 0.08809357f, 0.03057557f, -0.0003891733f, 0.05728064f, 0.1605706f,
  0.1419106f, -0.03176884f, 0.1753592f, -0.2300444f, 0.06073293f, -0.1020443f, 0.1046471f, -0.03861116f,
  0.131186f, 0.1617706f, -0.1330788f, -0.3797808f, -0.04615488f, -0.01091827f, 0.01992394f, 0.01866397f,
  0.01672494f, -0.1148626f, 0.03673425f, -0.07563264f, -0.1593036f, 0.1289778f, 0.05840706f, -0.2073767f,
  0.08061356f, 0.1047303f, 0.1187729f, -0.2317499f, 0.2253832f, -0.02334405f, -0.1798373f, 0.2434545f,
  0.07994071f, -0.1105809f, -0.157927f, 0.07418808f, 0.002897333f, 0.03658669f, 0.1989226f, -0.2550492f,
  0.1264194f, -0.06061122f, -0.04054685f, 0.04772018f, -0.2362892f, 0.1590803f, 0.05519974f, -0.04379028f,
  -0.2127887f, -0.2011369f, 0.08267048f, 0.3128288f, -0.1091111f, 0.0247442f, 0.00853687f, -0.1093615f,
  0.01616787f, -0.07043551f, -0.04745366f, -0.1453954f, 0.08774313f, 0.1017116f, -0.07802598f, -0.04169893f,
  -0.04835865f, -0.03221197f, 0.2330103f, 0.4775106f, -0.004908571f, 0.03940041f, -0.01413841f, 0.2264245f,
  0.04259984f, 0.03863184f, 0.1445071f, -0.1440812f, -0.09475945f, -0.1931178f, 0.1485526f, -0.1788456f,
  0.06936367f, -0.07486963f, -0.08981217f, -0.03982223f, 0.07123531f, 0.04722412f, 0.1035014f, 0.1286339f,
  0.01438939f, -0.05746345f, -0.08901591f, -0.167954f, 0.02068967f, -0.1494951f, 0.08353735f, -0.09350235f,
  0.03343082f, -0.02841255f, 0.270671f, 0.09044602f, -0.04171891f, 0.05675076f, -0.01258501f, -0.0704851f,
  0.04532339f, 0.1336742f, -0.07243419f, 0.213784f, -0.06120259f, 0.08304842f, -0.03911411f, -0.1061605f,
  0.1071363f, 0.03699666f, -0.2547483f, 0.112907f, 0.1849882f, -0.2270382f, -0.01909527f, -0.06842011f,
  -0.08692504f, -0.208978f, 0.007222176f, -0.01588736f, 0.3029561f, 0.1200963f, -0.2786104f, 0.07853208f,
  -0.03725887f, -0.07761361f, 0.1445223f, 0.3830322f, 0.04824833f, -0.04045852f, 0.03998301f, 0.3082543f,
  0.08509132f, -0.1230989f, 0.4381484f, -0.4679227f, 0.3929816f, 0.02810163f, 0.1022548f, -0.1831388f,
  0.001320691f, -0.1433671f, -0.1023286f, -0.02195975f, -0.07084864f, 0.0887071f, -0.1925499f, 0.2157422f,
  -0.2589419f, 0.01200899f, 0.1462926f, -0.3711655f, 0.1759674f, 0.05147831f, -0.110246f, -0.07992417f,
  0.0583419f, 0.1054026f, -0.2239503f, 0.1196522f, 0.09620854f, -0.1814053f, 0.08292884f, -0.00781732f,
  0.1934044f, 0.002097141f, 0.1151564f, 0.119689f, 0.1695005f, 0.04323002f, 0.2949583f, 0.2347253f,
  0.07209372f, 0.1682813f, 0.2580518f, 0.08782434f, -0.1976213f, -0.2687047f, 0.01592343f, -0.1056891f,
  -0.07265105f, 0.1208081f, 0.09169982f, -0.03261494f, -0.1374358f, 0.3445273f, -0.1635519f, 0.02399164f,
  -0.05822004f, -0.137798f, 0.2110349f, 0.01801243f, -0.04161049f, -0.1432465f, 0.3093583f, 0.0174248f,
  0.08963087f, -0.05451258f, 0.2467646f, -0.04687911f, -0.02068958f, -0.1265466f, -0.1362164f, 0.2367246f,
  -0.2589995f, -0.06968152f, 0.02240089f, 0.04713763f, 0.1899472f, 0.06107843f, 0.08809067f, -0.01837009f,
  -0.1377944f, -0.08175357f, 0.0461352f, 0.09676237f, -0.2736571f, -0.1958151f, 0.1600742f, 0.1457265f,
  -0.2619169f, -0.2851334f, 0.1350702f, 0.1509005f, 0.0368588f, 0.4729813f, 0.2607303f, 0.05448577f,
  0.07328506f, 0.01063074f, -0.02894406f, 0.04467481f, -0.1039495f, -0.1619981f, -0.08697583f, 0.03074503f,
  -0.2995445f, -0.1261578f, 0.268833f, 0.00271819f, -0.2458527f, 0.01723412f, 0.1145138f, -0.153579f,
  0.1174447f, -0.05715252f, 0.02858976f, 0.1740559f, -0.02958244f, 0.06831583f, 0.2634322f, -0.1146272f,
  0.2213492f, 0.09894113f, -0.07315656f, -0.3383924f, -0.2192534f, -0.002121827f, 0.09752031f, -0.3406406f,
  0.2734006f, 0.07896351f, -0.2102126f, 0.1770317f, -0.1349333f, -0.04850101f, 0.5006446f, -0.02248718f,
  0.2437912f, -0.04829421f, -0.1677009f, -0.09268522f, -0.08331359f, 0.1179953f, -0.00550718f, -0.1342659f,
  -0.1569204f, 0.02902596f, -0.05089602f, 0.2619252f, -0.2929357f, -0.116132f, 0.02273098f, -0.1222727f,
  0.04967413f, -0.007129935f, 0.03182452f, -0.09377225f, -0.1433309f, 0.2567066f, -0.09581639f, -0.1025197f,
  0.152359f, 0.0957572f, 0.03595847f, 0.03350862f, -0.04157467f, 0.08980358f, -0.0628975f, 0.09889448f,
  0.03644442f, 0.002255401f, -0.06256869f, 0.1044254f, 0.1575699f, 0.003898835f, 0.05261299f, 0.08821717f,
  0.04766362f, 0.09771043f, -0.09313829f, -0.04198151f, 0.03981264f, 0.0243395f, 0.06741327f, 0.06050467f,
  -0.0004481772f, -0.09269016f, -0.1123464f, 0.1240348f, 0.02131816f, 0.07113405f, -0.08962862f, 0.0502382f,
  0.02833298f, 0.05571299f, 0.03138049f, 0.02734568f, -0.03747083f, 0.00141228f, 0.13434f, 0.1012724f,
  0.01758686f, 0.05204758f, -0.06580843f, 0.07148989f, -0.0625964f, 0.006000838f, -0.1507945f, -0.004804465f,
  -0.0004695342f, 0.05567911f, -0.0008236339f, 0.1435653f, 0.2228294f, -0.09884105f, 0.1366671f, 0.00550105f,
  0.02242628f, -0.3142194f, 0.2014188f, -0.06093476f, 0.08791493f, 0.4944525f, -0.1890239f, -0.02520405f,
  -0.2549231f, -0.08092207f, 0.1222659f, 0.0484078f, -0.08376045f, 0.2552105f, -0.09659561f, 0.1922944f,
  -0.2890117f, -0.2503501f, -0.1168661f, 0.05930026f, -0.1158729f, 0.1327522f, -0.1208099f, -0.1536437f,
  0.08910178f, -0.1551125f, 0.2737747f, -0.002412988f, -0.142317f, 0.009955668f, -0.09267348f, 0.06719718f,
  -0.03140031f, 0.05010851f, -0.02088989f, -0.09228256f, 0.08663309f, 0.06531896f, -0.04977765f, 0.0384585f,
  0.04173775f, 0.1567035f, -0.1060665f, 0.01934514f, 0.01233509f, 0.08608937f, 0.1800329f, 0.3629968f,
  0.3350003f, -0.08142787f, 0.1818827f, -0.08368478f, 0.04299487f, 0.03393873f, 0.06107315f, -0.1793859f,
  0.03866849f, 0.02792403f, -0.1293903f, 0.1414614f, 0.006327997f, -0.03845168f, -0.02061435f, -0.236541f,
  -0.07530342f, 0.2811668f, 0.005407079f, -0.05605922f, -0.0613152f, 0.03821162f, 0.2618948f, -0.3010682f,
  -0.1817694f, -0.2041041f, -0.06107446f, -0.1719722f, -0.1373273f, 0.07705371f, 0.1589685f, 0.1496681f,
  0.09583845f, -0.1915892f, 0.3405387f, -0.09071169f, -0.02498933f, 0.05759063f, 0.05872173f, -0.1995771f,
  0.0006240071f, -0.02864016f, -0.02860304f, 0.2488078f, -0.1465257f, 0.03090511f, 0.2158043f, -0.02511855f,
  -0.02647934f, -0.03324844f, -0.01752577f, 0.2526561f, -0.1928739f, 0.007749471f, -0.2622722f, 0.06933602f,
  -0.1743136f, -0.07097733f, 0.2378068f, 0.2287863f, -0.02392322f, -0.1082983f, -0.1063098f, 0.05696293f,
  -0.1679664f, 0.006160662f, 0.05044759f, 0.2494625f, 0.08376815f, 0.1344121f, 0.1677913f, 0.1935459f,
  0.2896163f, -0.2680493f, 0.1053791f, 0.08676313f, 0.07096192f, 0.1660524f, 0.1172517f, 0.2796153f,
  0.02416469f, -0.01864624f, 0.1399471f, 0.1231637f, 0.001278025f, 0.01870096f, -0.01004054f, 0.05358046f,
  0.07309072f, -0.02183335f, 0.01318462f, 0.07744867f, -0.1680242f, -0.06378356f, 0.09272186f, -0.001199452f,
  -0.005258895f, -0.03016228f, -0.1804363f, -0.0317033f, -0.145909f, -0.005215681f, -0.007878096f, -0.0715384f,
  0.02328223f, -0.04960417f, -0.01670044f, 0.01669475f, -0.105094f, -0.07373833f, -0.046863f, 0.01003418f,
  0.02619979f, 0.05923874f, 0.08351399f, 0.04649147f, 0.07391775f, -0.01042447f, 0.03113737f, 0.005568122f,
  -0.07406951f, 0.006947082f, -0.0963323f, -0.0002507218f, -0.1153054f, 0.002222324f, -0.1253286f, -0.05792113f,
  -0.165966f, -0.04546772f, 0.0004115301f, -0.1089675f, -0.07786034f, 0.02684781f, -0.02022483f, 0.00616189f,
  0.0519073f, -0.06630455f, 0.09043583f, -0.001783017f, -0.1303957f, 0.003138224f, -0.07036109f, -0.007910807f,
  0.06689358f, -0.2279289f, 0.1199539f, -0.0765075f, 0.1325544f, -0.01936152f, -0.1075828f, -0.04834394f,
  -0.2010047f, -0.2225717f, -0.2836393f, -0.04680074f, -0.0924783f, 0.04196302f, 0.09647603f, -0.03977989f,
  -0.09387322f, -0.09216579f, 0.05511536f, -0.05170052f, -0.0132031f, -0.1249049f, 0.1195486f, -0.04379343f,
  -0.1032881f, -0.1238381f, -0.2137273f, -1.519946e-05f, -0.01232792f, -0.03333342f, 0.1374699f, 0.0351766f,
  -0.02259739f, 0.08417276f, 0.1002243f, -0.03965013f, -0.1336444f, -0.1257508f, 0.2385146f, 0.06043756f,
  0.1948941f, 0.01678767f, 0.05520981f, -0.1628324f, 0.02153014f, 0.02985444f, 0.05631971f, -0.008704696f,
  -0.07948302f, -0.05890982f, 0.09999223f, 0.1371208f, -0.02894701f, 0.2280534f, 0.06622447f, 0.1280672f,
  -0.09624504f, -0.05127912f, -0.001145026f, 0.02578867f, -0.05032881f, 0.1270272f, 0.06031381f, 0.08304477f,
  0.266551f, -0.1764364f, -0.05128514f, -0.1850233f, -0.0005759436f, 0.1983121f, 0.09198342f, 0.01459977f,
  -0.1708506f, 0.03910336f, 0.01297302f, -0.1336581f, 0.1331194f, -0.3667298f, -0.06812777f, -0.01551432f,
  0.2374985f, -0.3080063f, 0.2486841f, 0.1353625f, -0.2695065f, -0.180224f, -0.08368623f, 0.1319449f,
  0.0765916f, -0.04755874f, -0.02730488f, -0.272303f, -0.1714077f, -0.2422214f, -0.06013266f, 0.1312997f,
  0.2579047f, 0.2582135f, -0.07949983f, -0.06942998f, -0.131267f, 0.01603099f, -0.4045818f, 0.08181241f,
  0.2717302f, 0.2786444f, -0.5155154f, -0.2829276f, -0.04184777f, -0.2700588f, 0.08066911f, -0.1133313f,
  0.2705355f, 0.06963552f, -0.2245393f, -0.2037344f, 0.2039419f, -0.06511937f, 0.1970676f, 0.05830181f,
  -0.090376f, 0.3792063f, 0.1922505f, 0.1889589f, -0.1522142f, 0.05685843f, -0.1489057f, -0.1134973f,
  -0.1832973f, 0.02697074f, -0.1670709f, -0.1405897f, -0.05668281f, 0.09230676f, 0.6239243f, -0.4027452f,
  -0.2744652f, 0.4502325f, -0.03557996f, -0.03404023f, 0.3588177f, 0.108915f, 0.1704745f, 0.1300523f,
  0.4434431f, -0.01608436f, 0.0356656f, -0.02090648f, -0.2835396f, -0.07790138f, -0.03253824f, 0.07847432f,
  0.006657045f, 0.2166538f, 0.0597376f, -0.2570665f, -0.1370019f, 0.06504767f, 0.2870869f, -0.1818988f,
  0.3335214f, -0.1787535f, -0.09332201f, -0.1496006f, -0.02131894f, -0.1432393f, 0.01729172f, 0.1285281f,
  0.223744f, -0.1710469f, -0.06600078f, -0.2947943f, 0.1671493f, 0.1271626f, -0.1131698f, 0.1359773f,
  -0.1323182f, 0.03977529f, 0.1044076f, 0.05668459f, 0.5337579f, 0.1436237f, 0.001040644f, 0.09453294f,
  -0.4225436f, -0.02545529f, 0.4344557f, -0.08776777f, -0.1655373f, -0.01374514f, 0.02864853f, 0.1326836f,
  0.2520385f, 0.2916443f, -0.1168139f, -0.1657683f, 0.4251376f, 0.06082184f, -0.4248624f, 0.02204186f,
  -0.3105766f, -0.2624861f, -0.2565125f, 0.02027488f, -0.2372103f, -0.2827085f, 0.007817293f, 0.2373101f,
  -0.5498683f, -0.07191261f, 0.1565799f, -0.3095639f, 0.2172104f, -0.352787f, -0.01449579f, -0.02480518f,
  -0.384713f, -0.0333607f, 0.4355778f, -0.356799f, 0.1233816f, 0.6128921f, 0.01010098f, -0.3570726f,
  -0.5712876f, 0.0635133f, 0.2100309f, -0.09339706f, -0.206128f, 0.1655983f, 0.1748079f, -0.2323971f,
  0.3354154f, 0.06778082f, -0.4665236f, 0.3221701f, -0.07896058f, 0.3896698f, 0.05731226f, -0.2026539f,
  -0.225163f, 0.1345129f, 0.2222063f, -0.2621381f, 0.1815579f, -0.1027916f, -0.01573538f, -0.04687899f,
  -0.07026327f, -0.008979801f, -0.3894868f, 0.2278237f, 0.2371688f, 0.08427076f, -0.3462586f, 0.1738329f,
  -0.001049808f, -0.06625317f, 0.02780237f, 0.02236289f, -0.04394893f, -0.01528065f, 0.003819497f, 0.01123115f,
  -0.00516565f, -0.008545184f, 0.06232993f, 0.07405433f, -0.1620146f, -0.1131229f, -0.02194306f, 0.01724259f,
  0.1772885f, 0.06189363f, 0.02303774f, -0.004017686f, -0.05615121f, -0.1426809f, 0.07417999f, -0.01418923f,
  -0.08702189f, -0.07512346f, 0.03875076f, -0.05164165f, 0.114709f, -0.1432232f, 0.01231131f, 0.003886043f,
  0.05112195f, 0.01038868f, 0.1556099f, 0.2620373f, 0.04104367f, -0.0114196f, 0.1644546f, 0.1842793f,
  0.04177455f, 0.1022125f, 0.05106694f, -0.02299537f, -0.01757299f, -0.02644295f, 0.1110338f, -0.132921f,
  0.06778508f, 0.1183852f, 0.01893704f, 0.08927887f, 0.1346605f, -0.01080684f, -0.09848493f, -0.001617078f,
  -0.009074369f, -0.007869547f, -0.01821424f, -0.1104637f, 0.1714312f, 0.03865264f, 0.06665758f, 0.01489121f,
  0.1019808f, 0.3529404f, 0.02629531f, 0.1226282f, -0.0249411f, 0.1203103f, -0.05078702f, -0.01817689f,
  0.016976f, 0.03415404f, 0.1811869f, -0.09219276f, -0.04338227f, 0.1999251f, -0.02313223f, -0.00607762f,
  0.2506107f, 0.1095327f, -0.1726402f, -0.02731165f, -0.05560422f, -0.00219363f, -0.04606378f, 0.103078f,
  0.04004052f, 0.06862176f, 0.02604165f, -0.09857596f, -0.1881201f, 0.04297032f, -0.02568949f, 0.1076294f,
  0.1000713f, 0.1023506f, 0.03856084f, 0.09066136f, 0.0644254f, -0.1435465f, 0.2151951f, -0.0899423f,
  -0.05167559f, -0.1052394f, 0.1502904f, 0.009955811f, 0.04462934f, -0.1114055f, -0.04400053f, 0.09862813f,
  0.09066264f, 0.08339291f, 0.09643219f, 0.2153818f, -0.02147332f, -0.01388766f, 0.07852875f, 0.007081659f,
  0.1422339f, 0.1248449f, 0.006067718f, 0.09826411f, -0.02931123f, 0.05108593f, 0.04894572f, -0.05686672f,
  -0.08892737f, 0.07081714f, -0.08142402f, 0.1044583f, 0.2068429f, -0.07321698f, 0.005760978f, 0.02135997f,
  0.05137325f, -0.1401443f, 0.04337558f, 0.0423785f, -0.1298375f, -0.1439673f, -0.08617003f, -0.05034696f,
  0.08710197f, 0.08932953f, 0.04753009f, -0.1042219f, -0.121582f, -0.1560319f, 0.1907521f, -0.08840837f,
  -0.08420379f, 0.05087462f, 0.1195997f, 0.1615224f, -0.1668872f, -0.04079703f, -0.01348276f, 0.1196985f,
  0.1141196f, 0.104704f, 0.1690069f, 0.1443746f, 0.04532325f, -0.2106786f, 0.2093324f, -0.1165743f,
  0.143241f, -0.02900612f, -0.003114334f, 0.01142857f, -0.1347315f, 0.06859951f, 0.08558004f, -0.04945304f,
  -0.03933257f, -0.08055214f, -0.01848684f, -0.02823058f, -0.08424947f, 0.03168981f, -0.08180874f, 0.08683575f,
  -0.1969981f, -0.09006204f, 0.07457583f, -0.06645815f, -0.01256218f, 0.09932885f, -0.01927789f, -0.06346101f,
  0.2581417f, 0.04645465f, -0.05098151f, -0.01556186f, 0.2070102f, 0.05700316f, -0.03798481f, -0.2016846f,
  -0.1581218f, 0.01955601f, 0.3879584f, -0.2739247f, 0.2113604f, 0.1880914f, 0.0203741f, -0.1119992f,
  0.3888415f, 0.1046252f, 0.1394359f, -0.09406236f, -0.3567354f, -0.1222866f, 0.06140413f, 0.3047183f,
  0.2535467f, 0.009439678f, -0.3347401f, -0.2452711f, -0.236164f, 0.1077193f, -0.2280945f, 0.2980772f,
  0.3521851f, 0.3181059f, -0.1000149f, 0.04783063f, 0.1385379f, 0.09420817f, -0.6159343f, -0.1993149f,
  0.1530967f, -0.01465787f, 0.1170606f, -0.2593812f, 0.03776456f, 0.08329861f, -0.1439963f, 0.001922882f,
  -0.02101899f, 0.5213194f, 0.02582984f, 0.03966989f, 0.1650558f, -0.02101238f, 0.04810356f, -0.1366771f,
  -0.2312071f, 0.02536517f, 0.0974717f, -0.2204133f, -0.1672079f, -0.07849604f, -0.1504136f, -0.1351762f,
  -0.003591997f, -0.1184291f, 0.3197643f, 0.006375617f, -0.4318835f, 0.326938f, -0.09493478f, -0.05826816f,
  0.1228426f, 0.2385053f, 0.2182126f, -0.1884558f, 0.1931002f, 0.4312265f, 0.1575439f, 0.2682204f,
  -0.2771565f, -0.008353606f, 0.09394279f, 0.2702171f, -0.1033678f, 0.1761323f, -0.2627315f, -0.07456341f,
  0.1869145f, -0.01116141f, 0.1675311f, -0.01635549f, -0.1078229f, -0.2419201f, -0.1191958f, 0.3197885f,
  0.2314127f, 0.1136637f, 0.01919325f, -0.0397392f, 0.3388809f, -0.04707681f, 0.02062303f, 0.02582368f,
  0.2342035f, -0.005305568f, -0.07260841f, -0.2541293f, -0.01919472f, -0.04059182f, -0.1511186f, 0.1090606f,
  0.0109225f, 0.3249483f, -0.008702959f, 0.07018031f, -0.004930917f, -0.1535988f, -0.3675078f, 0.2955004f,
  -0.09514287f, 0.3141369f, -0.1451993f, 0.1433668f, -0.1339247f, 0.1062045f, 0.3433416f, 0.01533954f,
  -0.01852874f, -0.003320861f, 0.01003226f, -0.02977127f, -0.07896976f, 0.1112949f, 0.04199577f, 0.05193503f,
  0.1734667f, -0.02944792f, 0.1988656f, 0.2325353f, -0.09243076f, -0.04408289f, 0.2985739f, 0.3420879f,
  -0.01750438f, 0.1370348f, 0.00919233f, 0.01359014f, 0.03468285f, -0.04642293f, 0.1860607f, 0.04209883f,
  -0.02705851f, 0.07390139f, 0.3954888f, 0.09619994f, -0.0545768f, -0.2568952f, -0.002527039f, 0.138226f,
  0.03477496f, 0.1935436f, -0.1477876f, 0.3170297f, -0.02372068f, 0.002577869f, -0.09909802f, 0.002410405f,
  0.2021181f, -0.05284605f, 0.1773179f, -0.1291243f, 0.2697868f, 0.1113785f, -0.07174733f, -0.09079275f,
  0.1978251f, -0.04420623f, -0.02843856f, -0.06209644f, 0.1099967f, -0.1596792f, 0.04575085f, 0.1029338f,
  0.09437858f, 0.06956865f, -0.1148495f, 0.02839432f, -0.1245006f, -0.05240215f, 0.07793436f, -0.03504585f,
  -0.1643353f, 0.08956076f, 0.1160354f, 0.09397758f, -0.2798474f, 0.04987508f, -0.09114092f, -0.02327427f,
  0.2171266f, 0.01186308f, -0.1080442f, -0.1718218f, 0.185056f, 0.05322508f, 0.04940511f, -0.0242854f,
  0.3436654f, 0.06375869f, -0.006999111f, 0.2564971f, 0.008401332f, 0.1357134f, -0.1430669f, 0.05848531f,
  -0.02263336f, 0.1520741f, -0.2107157f, 0.2401381f, 0.133817f, -0.5179855f, 0.1019669f, 0.07704858f,
  0.04294195f, -0.1371253f, 0.2518671f, 0.1307372f, 0.04059526f, 0.1032223f, -0.07993818f, 0.2070709f,
  0.01083192f, -0.0421169f, -0.217148f, 0.1591776f, 0.06574816f, -0.1402975f, 0.1311956f, -0.2517809f,
  0.1600027f, -0.1818067f, -0.2255003f, -0.1326405f, -0.1532733f, 0.1727318f, 0.2919439f, -0.1228633f,
  -0.2075774f, -0.1730841f, -0.2894401f, 0.1017551f, 0.09878612f, -0.3099627f, -0.1445063f, 0.05454791f,
  -0.06765886f, 0.2312309f, 0.06410939f, -0.08416069f, 0.2122911f, 0.02138485f, -0.3047527f, -0.02839427f,
  -0.05175555f, 0.1186132f, -0.172348f, -0.1336649f, -0.0001382777f, -0.09565803f, -0.05659043f, 0.1361277f,
  -0.04191065f, 0.04528683f, 0.006732107f, -0.0901576f, -0.06526741f, -0.09393276f, -0.002616834f, -0.0836905f,
  -0.03801325f, -0.01065694f, -0.1019214f, 0.2322893f, 0.7251101f, -0.05157962f, 0.1538152f, -0.1060626f,
  -0.003157951f, 0.07346214f, 0.0544055f, 0.1082238f, 0.007248246f, 0.125132f, 0.06722999f, -0.1156907f,
  -0.04980198f, -0.1317992f, 0.09858665f, 0.06673501f, 0.003493884f, -0.02813191f, -0.2680965f, 0.182821f,
  -0.1054125f, -0.1230397f, 0.003347207f, 0.1381681f, -0.1308054f, -0.05994562f, -0.05813662f, -0.1618952f,
  -0.008256906f, -0.2724379f, -0.1338048f, 0.1596495f, -0.07503492f, -0.2599592f, -0.1048613f, -0.01449806f,
  -0.09645212f, -0.09709115f, -0.1423556f, 0.04259146f, -0.1948251f, -0.2051994f, -0.06738739f, 0.2219948f,
  -0.2487008f, -0.03168809f, -0.1789807f, -0.1383137f, -0.4137462f, 0.1102109f, 0.1874586f, 0.2277369f,
  -0.3208839f, -0.1525098f, -0.2648779f, 0.3262267f, -0.04522695f, -0.4746602f, -0.1273666f, -0.1319607f,
  0.1347248f, -0.1608019f, -0.118307f, -0.117111f, 0.1515108f, -0.07534868f, -0.1892721f, -0.3204507f,
  -0.2006668f, -0.005511697f, 0.1113609f, -0.05491045f, -0.114779f, -0.1818781f, 0.7504248f, -0.08294058f,
  -0.06929955f, -0.2527578f, 0.3945048f, 0.02231325f, -0.194291f, -0.1544431f, -0.03715608f, 0.04260562f,
  -0.4834338f, -0.1916682f, -0.3890067f, -0.02659738f, -0.07899056f, -0.05771298f, -0.001649139f, -0.03157261f,
  -0.05043115f, -0.04758897f, -0.1082881f, -0.1727981f, -0.1912713f, -0.1634136f, 0.2930807f, -0.1396179f,
  0.01041882f, -0.1244011f, 0.1738855f, -0.2208565f, 0.03226508f, 0.1928988f, 0.1801076f, -0.1420154f,
  -0.1741574f, -0.0147268f, -0.08407585f, 0.2248088f, -0.1269724f, -0.3720766f, -0.2901984f, -0.3431275f,
  -0.2693501f, -0.09496168f, -0.3415242f, -0.0856637f, 0.221313f, -0.1965243f, -0.1234113f, 0.3046761f,
  0.07728617f, 0.03739942f, 0.1016453f, -0.2764361f, 0.01713398f, 0.1487352f, -0.3508684f, 0.1611113f,
  0.08883073f, 0.03737046f, -0.04625613f, -0.1696113f, 0.1470449f, 0.3261526f, -0.08592255f, 0.3494136f,
  0.2723613f, 0.2863261f, -0.278237f, -0.1836452f, 0.2335583f, -0.2931811f, -0.09660581f, -0.0896167f,
  0.5091737f, 0.742689f, 0.06501257f, -0.2843234f, 0.2392871f, -0.4645796f, -0.2023308f, -0.2112432f,
  -0.1247511f, 0.2464142f, -0.1895611f, 0.1551935f, 0.5182461f, 0.06042489f, -0.1470159f, -0.08359699f,
  0.03618374f, 0.03674885f, -0.09974271f, 0.2998312f, -0.03290329f, -0.122819f, 0.2468177f, -0.117763f,
  0.1857192f, -0.2936754f, -0.06333067f, 0.005903795f, -0.1063358f, -0.153698f, 0.08807738f, -0.2653332f,
  0.03139395f, 0.02547281f, 0.09332465f, -0.09789387f, -0.2172705f, 0.1873939f, 0.3641808f, -0.1424658f,
  -0.09604878f, 0.02499696f, 0.02493098f, -0.01612161f, 0.05036095f, 0.09702095f, -0.1474457f, 0.0493692f,
  0.02278648f, -0.09510797f, 0.05106338f, -0.01232486f, -0.04965229f, -0.1926568f, -0.05990858f, 0.194176f,
  -0.03178906f, -0.04169272f, 0.2271695f, -0.1782544f, 0.1781409f, 0.1777495f, -0.2290296f, -0.07685664f,
  0.1798457f, -0.1696278f, 0.2518413f, 0.07572221f, -0.1047359f, 0.1386585f, -0.06503365f, 0.0535375f,
  0.05457334f, 0.1455598f, 0.1804726f, -0.2069625f, -0.1022384f, 0.1477422f, 0.05079658f, -0.04873047f,
  -1.066939e-30f, -1.102346e-30f, 1.149481e-30f, 8.881632e-31f, 1.417302e-30f, 2.331466e-30f, -2.707081e-30f, -3.80633e-31f,
  -1.219244e-30f, -4.699299e-31f, 1.513229e-30f, 7.45588e-31f, 2.377305e-30f, -1.843977e-30f, 3.646894e-31f, -5.791588e-31f,
  -1.807323e-30f, -5.963495e-31f, 4.848428e-31f, 1.116444e-30f, -1.245162e-30f, 3.725907e-31f, -9.127649e-31f, -1.118647e-30f,
  -6.132483e-31f, -8.511274e-31f, -1.183067e-30f, 2.748573e-30f, 1.906535e-30f, 8.226756e-31f, 2.139065e-30f, 1.858068e-30f,
  8.180344e-31f, 1.737693e-30f, 9.340354e-31f, -5.735718e-31f, -5.259957e-31f, -2.787835e-32f, -3.063086e-30f, 1.224873e-30f,
  -9.618164e-31f, -1.456005e-30f, 2.713051e-30f, -1.418515e-30f, -1.236091e-30f, -6.040469e-32f, 9.643086e-32f, -1.297632e-30f,
  8.644452e-31f, 1.611899e-30f, -1.311638e-30f, -2.459052e-30f, 1.412802e-30f, 7.403193e-31f, 1.377591e-30f, 1.146326e-30f,
  -7.632429e-31f, 3.730403e-31f, -1.542167e-30f, 1.646734e-31f, -1.095032e-30f, -1.673742e-30f, 1.572981e-30f, -1.034586e-30f,
  -0.02122958f, 0.1967955f, -0.137194f, 0.1036562f, -0.2000553f, -0.09058537f, 0.07338301f, 0.03062944f,
  -0.04896618f, 0.04191045f, 0.006108601f, 0.05965968f, -0.02087924f, -0.005082751f, 0.1220208f, 0.0003142723f,
  -0.09942826f, -0.009312013f, 0.04949492f, -0.04789491f, -0.05755665f, -0.04782812f, -0.07322148f, 0.05707286f,
  -0.1249213f, 0.02902633f, -0.03568513f, 0.06938186f, 0.1388099f, 0.03478039f, -0.02831455f, 0.003254345f,
  -0.02387236f, -0.08982443f, -0.07085837f, -0.01665927f, -0.1447325f, -0.0455503f, 0.02033616f, 0.02364056f,
  0.032368f, -0.03410941f, 0.1119512f, -0.1759558f, 0.03618189f, 0.1311987f, -0.03336309f, 0.1791935f,
  0.1080626f, -0.05751453f, -0.01698245f, 0.00745941f, 0.02790308f, -0.1391735f, 0.06179633f, 0.04383631f,
  0.1360375f, -0.02465292f, 0.02477885f, 0.05384007f, -0.01449341f, 0.02406264f, 0.07466362f, -0.1042301f,
  0.08857971f, 0.1264353f, 0.02213408f, -0.04640205f, -0.03220001f, 0.03703409f, 0.04195256f, -0.09715305f,
  -0.1369985f, -0.09886843f, 0.09631051f, -0.01979928f, -0.0358571f, 0.0002335461f, 0.1029622f, 0.107814f,
  0.01477958f, -0.0721058f, -0.07570905f, -0.05177156f, -0.04011153f, -0.1154973f, 0.008675459f, -0.0173944f,
  0.1088196f, -0.01784359f, -0.1051824f, 0.1045174f, 0.028414f, -0.07385002f, -0.05893635f, 0.03408252f,
  0.1318543f, 0.03219208f, -0.01322759f, 0.02503332f, -0.02320653f, -0.09118071f, -0.02843319f, -0.053741f,
  0.0386126f, 0.04220362f, -0.01132877f, -0.1079794f, 0.0176233f, -0.03668247f, -0.02334254f, 0.01638156f,
  -0.1163882f, -0.09134656f, -0.1286308f, 0.06298152f, 0.01776847f, 0.1142639f, 0.005962085f, -0.0009579192f,
  0.1614237f, -0.009011457f, -0.05476091f, -0.001963714f, 0.0190732f, -0.01222239f, -0.02154151f, 0.1346985f,
  -0.02828817f, -0.1702604f, -0.08171225f, -0.06098462f, -0.2047488f, -0.08181362f, -0.05279152f, -0.0003922995f,
  0.07441466f, -0.0245745f, -0.1409297f, 0.1026748f, 0.3428893f, 0.1629911f, 0.1158234f, -0.1188432f,
  0.007869066f, 0.08469313f, -0.08146877f, 0.04425044f, -0.06512409f, -0.01518606f, -0.1219669f, 0.2501636f,
  0.02281513f, -0.02003679f, -0.2365763f, 0.1028139f, -0.03460338f, -0.1631895f, -0.04064938f, -0.008567234f,
  -0.04094667f, -0.1398744f, -0.08400475f, 0.1399772f, -0.1342656f, 0.1972888f, -0.2235177f, -0.1605748f,
  0.02228307f, -0.09235644f, 0.06475088f, 0.05322216f, -0.3270905f, 0.06762279f, 0.01131824f, -0.05353712f,
  0.0005358654f, -0.06745829f, 0.107893f, -0.02854064f, 0.0553665f, -0.1036636f, 0.02172908f, 0.03670334f,
  0.2244465f, 0.2105265f, 0.01212414f, 0.02373762f, -0.02032117f, -0.2525765f, 0.03817079f, -0.06559964f,
  -0.08550078f, 0.1736816f, -0.2026265f, -0.09540138f, -0.1108486f, -0.08705343f, -0.0895308f, -0.003184105f,
  -0.01288278f, -0.1750537f, -0.1053344f, 0.007863525f, 0.417938f, -0.1438594f, -0.04356891f, -0.3095543f,
  -0.1812181f, -0.3019923f, 0.352722f, -0.3953834f, -0.07046764f, 0.2779325f, 0.2479247f, 0.2495337f,
  -0.08343078f, 0.03241087f, 0.3039171f, -0.0655188f, 0.07607848f, 0.1884929f, 0.3096376f, -0.1713634f,
  0.06784738f, 0.1167568f, -0.1399689f, -0.1780723f, -0.2242888f, 0.2443868f, -0.2815077f, 0.186359f,
  0.09933357f, 0.2288904f, -0.5303791f, 0.2177824f, 0.4418398f, -0.1410818f, -0.1298968f, -0.06366132f,
  0.07277294f, 0.08367389f, 0.1426802f, 0.1229104f, 0.3935476f, -0.0470131f, -0.203975f, -0.01917231f,
  -0.4357594f, -0.3222302f, 0.05717605f, -0.1065776f, 0.4224339f, 0.06527374f, -0.3240493f, -0.08600849f,
  0.1476146f, -0.2218657f, -0.04722514f, -0.2162387f, 0.09039589f, 0.06917916f, -0.06942455f, 0.03308553f,
  -0.05516855f, -0.2642878f, 0.1635084f, -0.07583462f, -0.3239366f, 0.07961141f, -0.007560253f, -0.1822695f,
  0.01121727f, -0.2017384f, 0.3190608f, 0.3834413f, 0.1331328f, -0.08542112f, -0.1358783f, 0.1628996f,
  0.1199071f, 0.1862977f, -0.1052531f, -0.1179377f, -0.04814994f, 0.4117489f, -0.01880175f, 0.08820482f,
  0.1648436f, 0.1720941f, 0.2367197f, 0.003357401f, 0.01413736f, -0.09073833f, 0.7661397f, -0.1658898f,
  0.1364652f, 0.1428535f, -0.1220852f, -0.1862314f, -0.3721884f, -0.06114675f, 0.2578329f, -0.1484018f,
  -0.01568787f, 0.0105783f, -0.1650534f, 0.01205114f, -0.1239259f, -0.1101186f, -0.3263101f, -0.0123253f,
  -0.2433046f, 0.4636657f, 0.2289847f, -0.03055019f, 0.1343588f, -0.1941497f, -0.1677853f, 0.08641009f,
  -0.1346562f, -0.07467684f, 0.03704904f, 0.01382524f, 0.05973355f, -0.07204743f, 0.01032621f, 0.0813574f,
  -0.1607032f, 0.0562101f, -0.06761488f, 0.07914892f, 0.2162926f, 0.1261865f, -0.02515712f, -0.1680425f,
  0.09299457f, -0.1641489f, 0.4293466f, -0.2831217f, -0.02591588f, 0.1951078f, 0.2771845f, -0.09620082f,
  0.06679553f, -0.2360426f, 0.05234939f, 0.05371224f, 0.05987014f, -0.2280195f, 0.1318598f, 0.01926521f,
  -0.07073865f, -0.1262613f, 0.3445836f, -0.01394168f, -0.1364982f, -0.0140233f, -0.2367686f, -0.009779505f,
  -0.185597f, -0.06677786f, -0.08949549f, -0.05381678f, 0.08667816f, -0.003486966f, -0.07198493f, 0.410369f,
  0.08414946f, -0.00661786f, 0.332213f, -0.04612985f, -0.06639958f, -0.08486612f, -0.03041487f, 0.1255461f,
  -0.09630611f, 0.1808242f, -0.2164234f, -0.0883755f, 0.09476388f, -0.05313772f, 0.08685263f, -0.2401031f,
  0.2432178f, 0.288487f, -0.09312119f, -0.2347606f, -0.09963596f, -0.02239863f, -0.0623888f, -0.04391095f,
  -0.07453948f, -0.1698095f, 0.3310759f, 0.1118181f, -0.009065971f, 0.002578568f, 0.3451096f, -0.04317082f,
  -0.04373025f, -0.1519438f, -0.03402216f, -0.07762583f, 0.0398658f, -0.07648657f, -0.06442317f, 0.05086396f,
  -0.03481334f, -0.04180016f, 0.204263f, 0.1958596f, -0.02078799f, -0.2813258f, 0.01825034f, -0.005433286f,
  0.09166457f, -0.02273701f, 0.1077398f, -0.06681486f, 0.145957f, 0.05794425f, -0.2578149f, -0.1420704f,
  -0.02942123f, 0.1634824f, 0.07958143f, 0.05639886f, -0.1010897f, -0.1502726f, 0.2408162f, 0.1285825f,
  -0.08792032f, 0.07373062f, 0.2899249f, -0.1718266f, 0.2135026f, 0.08105795f, 0.09043318f, 0.1073782f,
  0.1121522f, -0.005261822f, -0.005467425f, 0.03162962f, -0.0415159f, -0.1282067f, 0.002972085f, 0.0846369f,
  -0.1195356f, 0.1512983f, -0.01117743f, -0.2271002f, 0.1311781f, 0.1266985f, 0.07072546f, 0.05800528f,
  0.2442369f, 0.2200103f, -0.2960043f, 0.1651937f, 0.04123348f, 0.09239371f, 0.1364448f, 0.06092552f,
  0.03952321f, 0.1518752f, -0.1644388f, -0.01726917f, -0.03730934f, -0.2202873f, -0.2248859f, 0.03540506f,
  -0.2193717f, 0.1130661f, -0.110371f, -0.01995571f, 0.1744333f, 0.06924297f, -0.003217603f, 0.1819084f,
  0.01461457f, -0.0502593f, 0.3315198f, 0.2957882f, -0.211531f, 0.3351101f, 0.3154539f, -0.0299931f,
  0.2491187f, 0.1285555f, -0.2218383f, -0.2127044f, 0.01092132f, 0.2967994f, 0.04690896f, -0.1122785f,
  -0.03586265f, -0.0459274f, -0.07688016f, -0.1683137f, -0.3050627f, 0.1460849f, 0.06287006f, -0.08800554f,
  -0.4187877f, 0.1521992f, 0.1083196f, 0.01101357f, -0.05373746f, -0.1808464f, 0.02703731f, 0.1495509f,
  -0.1323861f, 0.1675102f, -0.0297002f, -0.004357064f, -0.02034262f, 0.001590456f, -0.04310487f, -0.003209072f,
  0.2181996f, 0.003528317f, 0.2042991f, 0.03511919f, 0.002602071f, -0.04659637f, -0.1015177f, 0.1233213f,
  0.1841359f, 0.3092706f, 0.3057761f, -0.06202609f, -0.1497641f, 0.1122309f, 0.1669137f, 0.1543707f,
  -0.02720738f, -0.05044767f, 0.1726407f, 0.05419376f, 0.02926022f, -0.2122553f, 0.1793231f, -0.08800844f,
  0.04568646f, 0.09775939f, -0.1697402f, 0.1418998f, -0.1001297f, -0.02470328f, 0.04400348f, 0.1181117f,
  0.2038957f, -0.0444185f, -0.1328162f, -0.1507983f, -0.2214972f, 0.1042549f, -0.0214704f, 0.1302391f,
  -0.01209921f, -0.05121527f, -0.04701087f, -0.1963741f, -0.1140359f, 0.03085703f, 0.04345544f, 0.1152982f,
  -0.2168797f, 0.01674354f, -0.03904442f, 0.1794079f, 0.1428005f, -0.04967163f, -0.1041164f, -0.2719605f,
  -0.04494859f, -0.08940878f, -0.02280842f, 0.1876617f, 0.1052217f, 0.009853923f, 0.07380652f, 0.09264449f,
  0.1264214f, -0.2268755f, -0.00674258f, -0.01545679f, -0.1229877f, -0.0713766f, -0.1475905f, -0.1537897f,
  0.03690226f, 0.03542409f, 0.03674968f, -0.08066873f, 0.0511308f, 0.110112f, 0.07605434f, -0.05175799f,
  -0.1232005f, -0.09262007f, -0.001897536f, 0.1282078f, -0.1284547f, 0.1633696f, 0.05501847f, -0.03631597f,
  -0.05140465f, 0.01094497f, -0.0234759f, -0.03686219f, -0.1363672f, -0.00398872f, 0.2823842f, 0.03995245f,
  0.05570491f, 0.02117636f, -0.01820231f, -0.04396971f, 0.1340371f, 0.07963786f, -0.05412298f, -0.09081815f,
  0.04601804f, -0.07745333f, -0.0862048f, -0.03303934f, 0.09084151f, -0.0442865f, -0.0747755f, -0.01083834f,
  -0.08379661f, 0.07877378f, -0.02063967f, -0.1219463f, -0.1618785f, 0.0458999f, -0.01251239f, -0.01752206f,
  0.2516641f, -0.09368102f, -0.5420422f, 0.278295f, 0.002130015f, 0.1595315f, -0.1505766f, 0.1647297f,
  -0.0431948f, 0.1836023f, -0.04900248f, -0.1282471f, -0.2826357f, -0.02216395f, 0.02444411f, -0.239215f,
  0.1046762f, 0.08395161f, -0.06885112f, 0.2010275f, 0.7076926f, 0.1619771f, -0.06732854f, 0.1988661f,
  0.01746587f, 0.3413147f, -0.18213f, 0.04282462f, 0.01213024f, 0.4267988f, -0.0318309f, -0.05877519f,
  -0.09467652f, -0.01318352f, -0.2272826f, -0.08472045f, 0.3629932f, -0.1726197f, 0.1022326f, 0.3354445f,
  -0.3655958f, -0.02187824f, 0.04418499f, 0.06271258f, -0.02135637f, -0.1809973f, -0.008363707f, 0.3975717f,
  -0.3644707f, 0.01102015f, -0.08661972f, 0.1456615f, -0.2243258f, -0.06821138f, 0.1771221f, -0.1499009f,
  0.1740782f, -0.1383019f, -0.1338041f, 0.04115467f, 0.6924746f, -0.08202893f, -0.06081529f, -0.3164988f,
  0.1905711f, 0.03696541f, -0.1182997f, -0.1396297f, -0.1655203f, 0.1425391f, 0.1651493f, 0.2740148f,
  -0.08572087f, 0.0753846f, -0.2390217f, -0.163332f, -0.08362778f, 0.1020592f, -0.04647354f, 0.1613931f,
  -0.04318754f, -0.02370204f, 0.05359498f, 0.1401778f, 0.2831962f, 0.02162793f, -0.04824321f, 0.06456831f,
  0.1369386f, -0.04119202f, -0.1380112f, -0.2207398f, -0.004788533f, -0.2144473f, 0.0931954f, -0.02213413f,
  -0.07548228f, -0.01618613f, -0.02749633f, 0.01867227f, -0.3137963f, -0.04057486f, -0.1929087f, 0.06260906f,
  0.04666379f, 0.01267801f, -0.05987569f, -0.05665619f, 0.113773f, -0.1109916f, -0.0171195f, -0.05065609f,
  0.1969615f, 0.06259954f, -0.1205137f, -0.1843714f, 0.005626594f, -0.07268275f, 0.1894918f, -0.02385906f,
  0.11805f, -0.09270787f, -0.2083729f, 0.07234294f, -0.06749014f, -0.1094068f, 0.05518986f, 0.1064715f,
  0.004300651f, -0.1534562f, -0.06819209f, 0.02909583f, 0.1535633f, 0.1254094f, 0.07204309f, 0.1169046f,
  0.1213189f, 0.07094207f, -0.05726293f, -0.08725443f, 0.2311859f, -0.005036732f, -0.03598797f, -0.005372191f,
  0.2542087f, 0.1354248f, -0.004601045f, 0.1871771f, 0.03548575f, 0.03127667f, -0.1891989f, 0.2045855f,
  -0.07078183f, 0.008742623f, -0.01079117f, 0.01829823f, 0.04137659f, 0.07502259f, 0.1627421f, 0.01332364f,
  0.08814128f, -0.04548275f, -0.1543826f, 0.1610192f, -0.09157294f, 0.0231886f, -0.03736871f, -0.01986868f,
  0.007248139f, 0.001129029f, 0.1130046f, -0.03739756f, -0.1753694f, 0.1139022f, 0.07235967f, -0.1868565f,
  -0.04872362f, -0.07874142f, -0.1247091f, 0.1055385f, -0.009250174f, -0.01740385f, -0.1122225f, 0.03795108f,
  0.008266969f, -0.01452537f, 0.1125037f, 0.02143261f, -0.04581998f, -0.01725113f, 0.06520531f, 0.02085117f,
  0.1300692f, 0.006763525f, 0.2133121f, -0.2689344f, 0.2690622f, 0.3090573f, -0.1255624f, 0.1809637f,
  -0.2530428f, -0.09018435f, 0.3749247f, -0.006596408f, 0.2938012f, 0.2004084f, 0.08294738f, 0.1217028f,
  0.3854731f, -0.5002224f, -0.09464037f, 0.08201962f, 0.05305861f, -0.09819778f, -0.5188217f, 0.2320371f,
  0.1147398f, 0.5188424f, -0.1017498f, -0.09745613f, -0.1799695f, -0.08095635f, -0.3959136f, 0.1299148f,
  0.1131907f, -0.08088703f, -0.4014095f, 0.00473941f, 0.2814528f, 0.3325933f, -0.4816081f, 0.3366404f,
  -0.200792f, 0.05058065f, 0.2832436f, -0.1533923f, -0.3486863f, -0.1823989f, -0.3051602f, 0.3630122f,
  0.00269676f, 0.239955f, 0.4317919f, 0.1509174f, 0.3150881f, -0.1368527f, -0.2317519f, -0.1932775f,
  0.1217243f, 0.3290075f, -0.08691368f, 0.05897665f, 0.2474901f, 0.2767766f, -0.1424989f, -0.159959f,
  0.2655126f, 0.02701959f, 0.1060348f, 0.01097201f, 0.1459417f, -0.04985712f, -0.06785498f, 0.151876f,
  -0.2159837f, -0.1619384f, -0.0636503f, 0.2061968f, 0.1786857f, -0.1517718f, 0.1388438f, 0.1141789f,
  0.01298575f, -0.2746252f, -0.1785527f, 0.04600612f, -0.1632749f, -0.1980357f, -0.06305045f, -0.0541143f,
  0.02309127f, 0.007980029f, 0.1556707f, -0.04545339f, 0.1123031f, -0.3064589f, 0.04586839f, 0.1320559f,
  0.04324652f, -0.009783938f, -0.006980641f, 0.05096323f, 0.1907206f, -0.153028f, -0.02997051f, 0.1083929f,
  -0.3258817f, 0.2241659f, -0.07053674f, 0.2710153f, -0.1962819f, -0.2439414f, -0.1094809f, 0.1580243f,
  -0.1539203f, 0.02400718f, -0.2009101f, 0.004894764f, 0.01572994f, -0.1648105f, 0.01958019f, -0.1412253f,
  0.1188315f, -0.07069772f, -0.07573783f, 0.08601959f, -0.03315677f, 0.08728993f, 0.1786461f, 0.08850139f,
  0.05876861f, -0.1654645f, 0.003959296f, 0.01797406f, 0.04057361f, 0.0503996f, -0.01474739f, -0.09779181f,
  0.03728818f, 0.01229996f, 0.01943553f, 0.05001812f, 0.0649364f, 0.07471425f, 0.002341217f, 0.01038458f,
  -0.07981061f, 0.01614043f, -0.02197293f, 0.162223f, 0.02060201f, 0.02162717f, 0.1428318f, 0.03504264f,
  0.04155209f, -0.007658149f, -0.1518194f, -0.07939003f, -0.03343957f, -0.01156785f, 0.1090093f, 0.1055802f,
  0.09714701f, 0.01608683f, -0.02578053f, 0.2672292f, -0.06327209f, -0.02521504f, 0.1539635f, 0.09781379f,
  -0.04093621f, 0.07999536f, -0.00371474f, 0.1791664f, 0.05539183f, -0.03313489f, 0.05410004f, -0.02757019f,
  0.01701418f, 0.0883515f, -0.02313121f, 0.005628961f, -0.2080214f, -0.0981767f, 0.08831216f, 0.07137158f,
  0.05758237f, -0.05860015f, -0.1195779f, 0.02909686f, -0.01378876f, -0.05927045f, -0.07549161f, 0.06430474f,
};

#define W11_LEN (4096u)

#endif // W11_H