#ifndef W16_H
#define W16_H

#include <stdint.h>

// Auto-generated by txt2h.py on 2026-02-16T03:54:17
// Source count: 1152

const float w16[1152] = {
  -0.6157929f, -0.6710588f, -1.81162f, -0.1142398f, 0.7118299f, -5.546917f, -0.455443f, -0.1744896f,
  -2.688745f, -0.3415175f, -0.5133329f, -0.4535303f, 0.3296443f, 0.5296017f, 0.6095143f, -0.3021098f,
  -0.1172041f, -0.1005366f, -0.1151406f, 0.200259f, 1.114281f, -1.034784f, -0.366307f, 0.7422801f,
  0.1916933f, -0.0572573f, 0.8922897f, 0.6811002f, 0.4732125f, 0.4810835f, 0.2105799f, 0.1204002f,
  -0.150587f, -0.8992227f, -0.5051855f, -0.9712574f, 0.04541929f, 0.2307689f, 0.9333048f, -0.7744786f,
  -0.252616f, 0.495607f, 0.02432962f, 0.01923672f, 1.159056f, -0.8614385f, 0.8969799f, -0.4554079f,
  -3.251069f, -1.644718f, 0.2776273f, -5.504134f, -2.938588f, -0.07854218f, 0.002854508f, 0.4090714f,
  0.1798791f, -0.1741909f, -0.2065124f, -0.4224567f, 0.7079822f, 1.061648f, 0.1734496f, -0.2287403f,
  -0.1468221f, -0.53177f, 0.7129743f, 0.3553018f, 0.5093541f, 0.3130894f, 0.3005029f, 0.3938933f,
  -0.5540742f, -0.245129f, -0.5530476f, 0.4072546f, 0.1607877f, 0.3747345f, 0.3375454f, 0.4348163f,
  0.5423556f, 1.159488f, -0.2174336f, -0.668716f, 0.6064906f, 0.483042f, -0.2033091f, 0.1159807f,
  -0.3706843f, -0.1339209f, -3.574116f, -4.13666f, -11.10497f, -2.312501f, 0.7570975f, -1.745414f,
  1.045369f, 0.9819419f, -2.326441f, 1.548869f, 0.1564327f, -0.1996825f, -0.1705753f, -0.5339819f,
  -0.4193773f, 0.1590913f, 0.8141904f, 0.9010723f, -6.758461f, 0.8300287f, 0.3188238f, -3.644484f,
  -0.7594071f, -1.15616f, -0.5470689f, -1.673226f, -0.000128201f, -8.050537f, -5.664199f, -8.84708f,
  -3.806593f, -0.6301261f, -1.22006f, -0.7248274f, -2.414606f, 2.003533f, 0.5662249f, 0.8832555f,
  -2.788066f, -1.346857f, -3.310239f, -5.214943f, -1.731273f, -2.803326f, -7.726138f, 0.7968097f,
  -0.1273781f, -0.278688f, 1.106834f, 0.08669943f, -0.02024708f, -0.2082132f, 0.02212632f, 0.08926024f,
  -0.402842f, 0.02529751f, 0.1924557f, 0.2286572f, 0.348962f, 0.3487337f, 0.3243684f, 0.4185743f,
  0.5843366f, -0.2321515f, 0.4568786f, -5.854255f, -0.5250605f, 0.2299696f, -3.303462f, -0.6138192f,
  0.2843181f, -2.766366f, -2.914414f, -1.935032f, -6.10042f, 0.3808436f, 0.9857537f, -2.011929f,
  -1.638295f, -0.427015f, -0.2730592f, 0.9705284f, 1.333171f, -0.2293883f, 0.3020844f, -0.4236635f,
  -0.3599381f, -0.7792932f, 0.289549f, 0.4496222f, 0.5342367f, -0.6908681f, -5.399871f, 0.6053951f,
  -2.817481f, -5.555322f, 0.03572663f, -1.386448f, -1.280804f, 0.4996132f, 0.1974217f, 0.2877425f,
  0.587236f, 0.3052742f, 0.2215506f, -0.06638169f, -0.09644757f, -0.2138439f, -1.636036f, -0.004376882f,
  -1.776235f, 0.5319948f, 0.5277442f, -5.55936f, -1.613888f, 0.2309733f, -5.630571f, -1.373903f,
  -6.158557f, -1.683874f, -0.4783695f, 0.4797508f, -0.5960469f, 0.2783831f, -1.620351f, 0.5855622f,
  -6.487369f, -5.457376f, -2.332638f, -0.6251626f, 0.9853051f, -1.099726f, 0.3368314f, -1.050943f,
  0.8939019f, 0.04533236f, 0.3535908f, 0.207503f, 0.1036661f, 0.6498949f, -0.1911692f, 0.3863861f,
  0.4501938f, -0.3805718f, -0.7787861f, -0.05500327f, -1.117947f, -0.2797471f, -1.849043f, 0.7211189f,
  -0.292452f, -0.3543978f, -3.102588f, -1.571778f, -3.39197f, -8.560054f, -0.1179578f, 1.150829f,
  -1.419016f, -0.1048845f, -0.686716f, 0.3346389f, -0.9664946f, -6.648905f, -3.421325f, 0.4905622f,
  -1.210674f, 1.064421f, -1.447417f, 1.274191f, -1.456773f, 0.9635688f, -6.44871f, -7.484218f,
  -0.4401855f, -3.110516f, 1.410356f, -1.143612f, -1.498552f, -0.664314f, 0.5228239f, 0.6749126f,
  0.3528419f, 0.3235776f, 0.5630764f, 0.03806463f, -0.3657971f, -0.7114184f, -1.183115f, 0.5018888f,
  0.4217069f, 0.1588638f, -0.1601097f, -0.3479983f, -0.2187662f, -0.03777494f, -0.1252868f, -0.2251344f,
  -0.08080729f, 0.1718747f, 0.2955382f, -0.1000684f, 0.6549624f, 0.1674288f, -0.008527075f, 0.8496144f,
  0.2156099f, -0.7626255f, 0.5622073f, 1.088106f, -0.04498268f, 0.3262521f, 0.5057915f, 0.4730286f,
  -0.5583091f, -0.4080252f, 0.2490816f, 0.8857065f, 0.5745556f, -0.1976369f, -0.04981306f, 0.2459264f,
  -0.001201848f, -0.6940771f, -0.7119858f, 0.8664556f, 0.2924581f, 0.1267395f, 0.06139019f, -0.1213123f,
  -0.03416428f, 0.2911395f, -0.01888992f, -0.109132f, 0.285398f, 0.6451756f, -0.1696303f, 0.3532756f,
  -1.188412f, -0.8206191f, -2.413147f, -7.581502f, -5.002543f, -0.4461001f, -0.6263286f, 0.0925175f,
  0.04102527f, 0.1214714f, 0.7500783f, 0.00739157f, 0.2240456f, -0.03522626f, 0.1202637f, -0.3006605f,
  0.01579904f, -0.1130036f, -0.070541f, 0.6397956f, 0.003915846f, 0.410683f, 0.7669896f, -1.147676f,
  0.2082952f, -0.3397215f, -1.018587f, 0.5974486f, -0.445998f, -0.8966361f, 0.9159088f, -0.424833f,
  -7.549066f, -6.452759f, -5.405927f, -0.2222608f, 1.463443f, -1.327721f, 0.1370591f, 0.2278323f,
  -0.6667619f, 1.087609f, 0.1602615f, 1.02085f, 0.4654724f, -0.8050724f, 0.03392508f, 0.7766865f,
  -0.04824931f, 0.07025963f, -1.436368f, 1.444728f, -0.8370513f, -3.194437f, -1.561756f, -2.180874f,
  -4.186358f, -0.9975364f, 0.9054369f, 0.7752192f, 0.3287987f, 0.6304725f, 0.3282942f, 0.7072702f,
  0.3813554f, -0.2329376f, 0.05727361f, -0.1380251f, -3.486192f, -3.334515f, 0.06884178f, -0.2802317f,
  -0.1131397f, 0.1506374f, 0.4583709f, -0.4003065f, 0.2043058f, -0.1961347f, -1.057814f, -0.4550912f,
  1.42261f, 0.8175437f, -0.4738435f, -0.7223402f, 0.05074747f, -0.3937673f, -0.4062205f, -0.06198087f,
  0.3091759f, -0.3652878f, -0.3541146f, 0.5890693f, -0.01530091f, -0.3029738f, 0.1345592f, -3.056901f,
  -2.124207f, 1.088085f, -0.5850024f, -1.680697f, -1.216921f, -1.746876f, -1.810627f, -6.130471f,
  -0.4114181f, -0.6412237f, -1.356546f, 0.009944425f, 0.2923607f, 0.8240892f, -0.6292987f, -0.5975984f,
  0.2894756f, -1.730206f, 0.7319861f, 0.6161351f, 1.072013f, -1.098865f, -3.685248f, -0.289023f,
  -3.133077f, -6.809124f, -0.1211477f, 0.1646273f, -0.4111502f, 0.7085143f, -0.1223907f, -0.1226017f,
  1.103627f, -1.18663f, -0.2295967f, -0.2126131f, -0.7084855f, -0.004147091f, 0.8102664f, -0.3351019f,
  -1.309807f, -6.606598f, -2.75715f, -0.3641915f, -5.988764f, -5.650084f, -5.881234f, -0.5172774f,
  0.7723439f, -1.073551f, -0.8623548f, 0.979664f, -6.625201f, -0.4654378f, 0.06064771f, 0.3825168f,
  0.1677438f, 0.3445492f, -0.4786731f, 0.2858799f, -0.1359547f, -0.4118913f, 0.3793395f, -0.3001739f,
  -0.678189f, -0.09616278f, 0.1588908f, -0.470647f, -0.5753556f, 0.1018142f, 0.6754194f, -0.6757814f,
  -1.21865f, 0.236661f, -6.328749f, -4.331806f, -0.5897042f, -3.964198f, -3.675416f, 0.8584749f,
  -0.3948005f, -0.9690844f, -5.184095f, -0.5243761f, 1.165148f, -8.041769f, -1.211285f, 0.1715993f,
  -6.928314f, -1.63606f, -0.942425f, 0.7221977f, -1.3182f, -0.9024791f, -1.953181f, -0.7186445f,
  -5.858772f, -1.642405f, -1.076178f, -0.325327f, 0.7245004f, 0.372585f, 1.228714f, -0.1303651f,
  1.058141f, 0.7783533f, -0.4905743f, -3.352219f, -0.1463684f, 0.04384253f, -1.242236f, -0.07958974f,
  -0.006662894f, -0.2522055f, 0.08943577f, -0.105406f, -1.027028f, -0.1320644f, -0.3884149f, 0.3409253f,
  1.215762f, -0.405403f, -0.2110487f, 0.1639102f, -0.9384663f, 0.05245433f, -0.1451935f, -0.06879828f,
  0.1645492f, -0.004812681f, 0.1660846f, 0.1210298f, 0.6165954f, 0.7064259f, -0.6657976f, -0.322233f,
  0.1754629f, -0.3934987f, -0.0043509f, -0.2294506f, -0.6846642f, 0.03006143f, -0.2187495f, -5.490812f,
  -5.100464f, -3.102769f, 0.08089985f, 0.5217244f, -5.31001f, -1.461999f, 0.2409364f, -4.1124f,
  -0.1893034f, -0.1056701f, 0.2517338f, 0.03971029f, 0.1357893f, 0.7259703f, 0.001693556f, 0.2826555f,
  0.615036f, -3.941002f, 0.1724472f, 0.02178331f, -3.863323f, -0.4015241f, -0.7782852f, -0.200906f,
  0.3411218f, -0.4953204f, 0.3260478f, -0.01205765f, -0.4327604f, 0.2819605f, 0.07582907f, -0.4519256f,
  0.5660149f, 0.3992664f, 0.2047831f, -0.0710334f, -0.06874361f, 0.2107316f, -0.4129114f, -0.03390788f,
  -0.08634244f, -0.7472578f, -0.1730234f, -0.4985951f, 1.434675f, 1.20939f, -0.2604068f, -0.7418505f,
  3.313111f, 0.4805498f, 1.535115f, 1.332839f, -0.1355458f, -7.466191f, -1.213134f, -3.22555f,
  -5.278801f, 0.6747236f, -0.207946f, -1.001816f, -1.085562f, 1.270206f, 0.70946f, 0.1716541f,
  -0.6579794f, 0.6095273f, 0.3981335f, -0.6107243f, 0.7734916f, 0.6950328f, -0.457521f, -2.349711f,
  0.4461314f, -1.928531f, -5.484886f, -0.1549793f, 0.6953225f, -3.043871f, -1.514828f, -0.6063716f,
  -1.271537f, -0.3860601f, -10.21176f, 0.3327264f, 0.4904754f, -1.711661f, -0.3801581f, -0.09889045f,
  0.2992468f, -0.6366073f, 0.2771982f, -3.130797f, 0.2303717f, -0.1827551f, -1.598628f, -0.01098549f,
  -0.5575849f, -0.6441262f, -7.549547f, -6.126218f, -0.6285647f, -4.370848f, -4.462265f, 2.904113f,
  2.870814f, -10.6968f, -0.759807f, -2.502763f, 0.6200773f, -0.2782785f, -1.867143f, 0.6481534f,
  -1.190375f, 0.01122432f, -5.479784f, -0.2980539f, -4.86751f, -1.685294f, -2.510052f, -0.3727622f,
  -0.8833297f, -0.3345211f, 0.3453582f, 0.5506471f, -0.1009472f, -4.872062f, 0.3109783f, 0.6367089f,
  1.304673f, -4.612418f, -0.3390757f, -0.3192743f, -7.282315f, -11.67247f, -0.1711846f, -0.3834905f,
  -0.4736731f, 0.4639189f, 0.3472599f, 0.0799761f, 1.503818f, 0.7494642f, 0.3841796f, -0.5381314f,
  0.2979604f, 0.2979527f, -1.614376f, 0.4554584f, -1.458979f, -4.971729f, -1.99313f, 0.4679819f,
  1.178835f, -0.2228083f, 1.153397f, 0.1677628f, -0.1297603f, 0.6660895f, 0.2252696f, 0.0910109f,
  0.3979846f, -1.088125f, -3.009912f, -0.9856122f, 0.4674182f, -0.481019f, -3.555563f, -1.109934f,
  0.721828f, -2.801109f, -0.2464252f, 0.2013527f, -0.3958834f, -0.3113989f, 0.4784867f, -0.2561558f,
  -0.340035f, 0.08309069f, -0.002345434f, -5.663033f, -4.135734f, -0.003532817f, -4.084164f, 0.5775529f,
  1.387048f, -4.649338f, -1.693116f, -3.485035f, 0.8053164f, -1.964039f, -1.540539f, 0.03289763f,
  -2.316304f, 0.8985391f, -0.5506631f, -1.577134f, 0.1336809f, -7.5694f, -0.4784133f, 0.5640502f,
  -0.09405328f, -0.107501f, -0.7786651f, -5.692528f, -0.2407519f, 0.2993611f, 0.2733857f, -1.821787f,
  -6.587746f, 0.1381634f, -1.030022f, 0.6268184f, -1.143411f, 0.4004628f, -0.2535876f, -0.6382366f,
  0.9068511f, -2.701352f, 0.5193958f, -2.959557f, -0.05197225f, -2.330743f, -1.924774f, 0.6032603f,
  -2.976437f, -4.949022f, -4.134478f, -0.1294718f, -2.17794f, -3.389683f, -0.132461f, 0.09599672f,
  0.720448f, -2.444578f, 1.451501f, -3.499744f, 0.9028986f, -1.857646f, -6.251821f, -0.2288686f,
  -3.596012f, -4.882856f, -2.732534f, 0.8775027f, -7.247405f, -1.474929f, -0.7412379f, -2.226152f,
  0.8675053f, -1.512625f, 0.3267865f, -4.849252f, -0.08389581f, -0.6088011f, -8.070278f, -0.5960234f,
  -0.0485011f, -3.890933f, 0.8259301f, -0.4592007f, -0.02130993f, -0.1999552f, -0.08878429f, -0.09543822f,
  0.05967101f, 0.1346597f, 0.2081822f, 0.6622736f, 0.5763832f, 0.1903753f, -0.1948922f, 0.2211159f,
  0.3113531f, -0.5500008f, 0.1143001f, 0.2642238f, -0.4574685f, 0.1121658f, 0.2819674f, 1.163932f,
  -0.04892305f, -0.09203866f, -0.07295626f, -0.05218181f, -0.02278092f, -0.355669f, -0.2278181f, -5.579853f,
  0.2957328f, 0.3258678f, -1.230029f, -0.2914612f, 0.196281f, -2.522828f, -1.27174f, -0.6828943f,
  0.4499391f, 0.5542502f, 0.5386324f, 0.3059547f, 0.3986098f, 0.3670885f, -0.02200995f, -0.0228884f,
  -0.2104364f, 0.2341156f, 0.1938049f, 0.5330453f, 0.1678959f, 0.1379357f, -0.007705308f, -0.227973f,
  -0.3183983f, -0.4663013f, -1.760117f, 0.3382517f, -0.8199136f, -3.798562f, -0.2400476f, -1.097059f,
  -2.793544f, -0.6805006f, 1.009613f, -4.908127f, -1.913404f, -1.962828f, 0.4923222f, 1.040346f,
  -3.917455f, -0.3357531f, -0.8631629f, -2.347867f, -0.1963539f, -0.5229545f, -0.1401823f, 0.001047416f,
  -0.2319147f, -0.1896735f, 0.7507495f, 1.191704f, 0.2922542f, -0.9092008f, -0.02392054f, -0.1740304f,
  -0.6518699f, 0.144353f, -0.1769701f, -0.3886615f, 0.9704226f, 0.6796552f, 0.2766279f, -2.025664f,
  -0.6417907f, -0.4999363f, 0.6284086f, -3.462968f, -0.4620485f, -0.9223455f, -0.8805454f, 0.2962309f,
  -0.03050344f, 0.01308559f, 0.2056221f, -0.3163479f, 0.1277532f, 0.5359969f, -0.1173386f, 0.4637359f,
  -7.660868f, -3.626612f, -3.875028f, 1.530338f, 0.3638493f, -4.353676f, 0.3636527f, 0.01593747f,
  -5.604384f, 0.9554176f, 0.5248326f, 0.5434546f, 0.09528387f, -0.1540883f, 0.0458965f, -0.1511257f,
  0.103674f, 0.482345f, 0.6221354f, 0.005852049f, -0.4349418f, -0.6840006f, -1.868871f, 0.8923265f,
  -3.501515f, -6.153923f, -4.72667f, 0.2721858f, -0.04496966f, -0.9449903f, -0.2869414f, -0.4546035f,
  -0.4354786f, -0.1995109f, -0.02405503f, 0.1260635f, -4.713185f, -0.6659756f, -2.62791f, -0.482089f,
  0.7593967f, -1.348888f, -1.290534f, -1.32692f, 0.740282f, -0.8358595f, 0.7090084f, -2.028888f,
  0.3386611f, -1.110033f, -7.217681f, 0.3722372f, 0.7898595f, -6.514642f, 0.9355191f, -2.960738f,
  0.9842992f, -3.075215f, -3.623061f, 0.2750538f, -4.202887f, -7.980754f, -4.924629f, -6.991422f,
  1.096699f, -0.7071929f, -2.540165f, -1.389876f, -1.298482f, 1.389391f, 0.02195544f, -1.209867f,
  -0.9893461f, 1.879851f, -0.4621393f, -3.413475f, -3.917235f, -2.161623f, -3.621016f, -7.787508f,
  -3.512069f, -4.067185f, 0.004316386f, -0.06228229f, -5.433213f, 1.214874f, -6.135444f, 1.364009f,
  -2.080945f, -0.1643997f, -0.6965995f, -0.4915792f, -2.432134f, 0.6713072f, -5.251606f, -2.434903f,
  -0.08256345f, -1.284453f, -2.725215f, -0.1894403f, -2.569863f, -4.234004f, 1.362077f, -0.4244061f,
  -3.368753f, -0.9072009f, -0.7891898f, -0.5627341f, -0.7016236f, 0.08825704f, -0.09647305f, -0.366565f,
  0.1476497f, -0.2394425f, -0.5391929f, -0.1889831f, -0.06906241f, -0.9210347f, -5.882973f, -4.296076f,
  -0.4612049f, -1.26484f, -0.2453464f, 0.7128036f, 0.2588473f, -1.554875f, -6.376002f, -3.250098f,
  -2.153956f, -1.224404f, -1.879639f, 2.161849f, 0.8624509f, -0.7224895f, -2.659737f, -0.1099613f,
  0.9784344f, -3.327355f, -1.26117f, -3.698867f, -5.02038f, 0.6654537f, -2.605845f, -0.948486f,
  -3.861937f, -0.2217378f, 0.6640002f, -3.719686f, -0.5191436f, -0.09880213f, 0.1403965f, 0.4302095f,
  -0.6002693f, -0.304913f, 0.1605287f, -0.05054038f, -0.216723f, -0.2193692f, -0.7904492f, 1.721639f,
  0.745555f, -0.008606803f, 0.4230101f, -0.2861928f, -1.09453f, -3.132719f, 0.7622095f, 0.1294655f,
  -2.50143f, -1.096817f, -3.583309f, -0.1822928f, 0.4526206f, 0.1317567f, -0.5555061f, 0.1166687f,
  0.7454534f, -1.003531f, -0.6310132f, 0.5107345f, -0.2341343f, 0.001652767f, -0.1808531f, 0.1253653f,
  0.3382735f, 0.3411572f, -0.1251291f, 0.1516542f, 0.8573174f, -7.683286f, -6.518213f, 1.673534f,
  -7.422824f, -3.838554f, -0.105851f, -2.446078f, -1.685775f, -0.7712474f, 0.4892245f, -1.221413f,
  -0.7420055f, -2.42745f, 1.130455f, -1.599267f, -7.286889f, -1.3929f, -0.4332597f, 0.9591931f,
  0.5364254f, 0.01785677f, 0.2530438f, 0.2954834f, 0.2609596f, -0.3441632f, -0.02601895f, -0.1243339f,
};

#define W16_LEN (1152u)

#endif // W16_H