#ifndef W20_H
#define W20_H

#include <stdint.h>

// Auto-generated by txt2h.py on 2026-02-16T03:54:18
// Source count: 1152

const float w20[1152] = {
  0.9957328f, -1.438859f, -3.928195f, -1.518187f, -0.8263674f, -1.463656f, -0.9082218f, 0.4168941f,
  -0.7649973f, 1.358114f, -4.8705f, -6.762321f, -2.591252f, 0.688872f, -0.8784443f, 0.3572234f,
  -0.6275119f, -0.2121884f, 0.657646f, -0.07310198f, -0.03085716f, 0.1887782f, -0.2278301f, -0.2103859f,
  0.1067663f, -0.04985731f, 0.2171997f, -2.198026f, 0.3249319f, -5.341415f, 0.8210676f, 0.3180194f,
  -3.314417f, -0.2029177f, -0.9949739f, -1.547549f, -3.800325f, -4.422816f, -3.311261f, -1.282915f,
  -0.5707875f, 0.5009165f, 0.5777428f, -1.181968f, 0.2796704f, -0.652294f, -2.371869f, -2.634307f,
  -0.3454559f, -0.2182341f, 0.5344591f, -0.2987661f, -0.03214956f, -0.006323278f, 0.6514149f, -0.4282601f,
  -0.1541637f, 0.2996445f, -0.8905818f, -0.04241981f, 0.1152758f, -0.3321778f, 0.3841472f, 1.040979f,
  -1.575776f, -0.8823875f, -0.2014791f, -0.6625974f, 0.4618191f, -0.5307781f, -2.619919f, -8.608204f,
  -2.898941f, -3.801626f, -3.8614f, -0.05418093f, -0.3606647f, 0.2541063f, 0.2113132f, 0.5701143f,
  -0.6352232f, -0.8291771f, 1.945959f, -2.812399f, -0.4555857f, -3.692757f, -1.168882f, -8.004358f,
  -4.925369f, 1.162279f, -9.573248f, -10.57204f, -9.675088f, -1.539993f, -3.378986f, -4.801698f,
  0.2717296f, 0.9260044f, -0.2625324f, 0.8454906f, -3.557985f, -2.742112f, -2.033001f, -3.165117f,
  2.275759f, -1.859959f, -2.686227f, -0.6806205f, 0.3523679f, -0.6831921f, 0.03821314f, 0.2533604f,
  -0.7935634f, 0.2667215f, -0.2153616f, -0.9629207f, 0.532438f, 0.5218696f, -2.088265f, -3.155137f,
  -0.3676729f, 0.8659788f, -4.517671f, -1.470323f, -0.1912415f, 0.4753631f, -0.7053366f, -0.9334341f,
  0.8998355f, -1.838047f, -0.9083028f, -0.3246594f, -5.609744f, -3.780106f, 0.3481913f, -0.5766463f,
  0.3940371f, -4.290996f, 0.5857615f, -1.955646f, -4.972778f, 0.4262885f, -2.869173f, -5.705847f,
  -0.295972f, 0.5686938f, -0.3758143f, -0.1732658f, 0.2596709f, -0.1734097f, 0.1018054f, 0.2155873f,
  -0.1017438f, 0.1431784f, 2.035854f, -1.490066f, -0.79713f, -3.356149f, -6.155478f, -1.677968f,
  -3.467476f, -4.584251f, -2.533248f, -4.017377f, -4.534769f, 0.6794077f, -0.3804694f, -1.542398f,
  -0.1351377f, 0.1438816f, 0.1383796f, -5.267865f, 0.7190762f, -1.438082f, -0.09092998f, -0.01133266f,
  -0.09412421f, 0.3511982f, -0.7459575f, 0.07156f, 0.5859948f, -3.144061f, -7.990555f, 0.2105393f,
  0.2306586f, -2.17045f, -0.3746f, 0.1872246f, 0.773082f, -2.85263f, -0.05448887f, -0.4403228f,
  -3.26554f, 0.2782451f, 0.01025516f, -6.020462f, -3.029215f, 0.3649662f, -4.586728f, 0.6154705f,
  -0.4269382f, 0.8377256f, -0.1894281f, -0.7668136f, -2.511353f, -1.184056f, 0.661287f, -0.7003995f,
  -0.3145842f, -0.5701658f, 0.1462613f, 0.420496f, 0.3478345f, -0.4604954f, -0.2111644f, 0.09391015f,
  -1.069422f, -2.237822f, -3.07119f, -0.08154134f, 1.314903f, -0.8697534f, -2.977597f, -0.3890844f,
  -3.262118f, 0.5976585f, -2.3327f, -1.305519f, -0.2925103f, 1.365649f, -2.23753f, -1.441255f,
  -1.277624f, -7.868184f, 0.1871925f, -1.394459f, 0.364322f, 0.3599472f, -2.418942f, -0.6001815f,
  -3.335198f, -2.616298f, -0.9920303f, -1.340551f, -3.840683f, -1.308923f, -0.4789412f, -1.125051f,
  -0.03632951f, -0.3607842f, -0.3143984f, 0.4222822f, 0.5286672f, -3.173351f, -6.272204f, 0.7719204f,
  -2.247277f, -1.201003f, -2.630941f, 1.155003f, -0.3487396f, -3.243106f, -3.334712f, 0.6007398f,
  0.1425029f, 0.2514944f, -0.1801063f, -2.01106f, 0.4719555f, -0.8160498f, -0.5577278f, -2.839859f,
  -1.973899f, 0.07184019f, -2.77121f, -0.3377459f, -0.3769817f, -1.090683f, 0.4180625f, -0.4806744f,
  1.345581f, -1.856191f, -3.116141f, -1.659567f, -1.820278f, -0.2492989f, 0.2944517f, -0.6588812f,
  -0.7182536f, 0.2757237f, -0.1571413f, -3.722544f, -0.5789206f, -0.08135189f, -2.279163f, 0.3869305f,
  -0.3184556f, -2.385451f, -3.920818f, -1.482985f, 0.8822199f, -1.718124f, -0.5110555f, -0.6459197f,
  0.6336054f, -1.995941f, 0.02902965f, 0.6306347f, 0.2015305f, -0.09367729f, 0.07267915f, 0.008128403f,
  0.01188083f, 0.04312297f, 0.06972121f, 1.107612f, 0.4855146f, -3.444142f, -1.76576f, 0.1364064f,
  -1.066373f, -3.511697f, -3.770601f, -4.005569f, 0.9753395f, -0.7287237f, -0.2616765f, -1.014329f,
  -4.261656f, -2.350652f, -1.099259f, -0.4092535f, -5.050823f, 0.672636f, -0.9963587f, 0.2453732f,
  -6.222501f, -0.02366882f, -0.9998719f, -2.582054f, 1.014084f, -0.4674253f, -0.9869484f, 0.8108304f,
  -0.3701022f, 0.5002702f, -1.505436f, 0.5699555f, -7.927304f, -4.30842f, -1.499454f, -5.122775f,
  -8.247549f, -5.87974f, 0.9576752f, -0.8009477f, 0.3637766f, 0.590016f, -0.2033543f, -1.499545f,
  -0.3501133f, -0.7228935f, 0.4361493f, -0.9830621f, -3.510958f, -0.4831457f, -0.04096522f, -6.516328f,
  -1.046397f, 0.2277281f, 0.08929578f, -3.073567f, -0.25493f, 0.1038614f, -4.418575f, -2.847965f,
  0.001984179f, -3.677809f, 0.3599751f, -0.4298552f, -6.439794f, 0.4275193f, -0.1157105f, -0.3830845f,
  -0.688956f, -0.1598386f, 0.3967511f, 0.08074181f, -2.054066f, 0.2803449f, -1.482714f, 0.9880456f,
  0.1198711f, -6.842851f, -1.110371f, -1.719375f, -8.790216f, -9.441746f, -2.916105f, -1.179299f,
  -2.22647f, 1.54653f, -4.459816f, -2.210184f, -0.8539655f, 0.5066343f, -0.1315055f, -4.210027f,
  -0.6762466f, 0.8117718f, -4.652057f, -1.313433f, 0.05665965f, -4.570483f, -0.9253536f, -0.4317229f,
  -6.544229f, -0.4300654f, 0.3473358f, -4.67134f, -0.1552718f, -0.7452579f, -1.031045f, -3.94593f,
  -2.935218f, -1.326156f, -1.370171f, 1.045919f, -0.1688346f, -0.7679027f, 0.0574958f, -0.507965f,
  -6.426387f, -3.754689f, 0.3977075f, -4.206545f, -0.3204698f, -0.03224762f, -2.140118f, -0.7985575f,
  1.630109f, -1.158434f, -0.3639735f, 0.1835573f, -0.9371892f, -0.2362582f, 0.8127627f, 0.408415f,
  0.553844f, 0.8228482f, -2.393899f, -1.626684f, 0.1241192f, -4.387227f, 0.1008439f, -0.01870302f,
  -3.939111f, -0.6368042f, 0.06232732f, 1.224947f, -0.7917117f, -0.5751429f, -2.861694f, -4.405147f,
  0.6875204f, -1.368216f, 0.8016806f, -1.063642f, -1.636171f, -2.113648f, -7.526268f, -0.4828709f,
  1.08778f, -6.603249f, -0.1023926f, 0.04207002f, -0.5203483f, 0.3633316f, -0.2638339f, 0.1047859f,
  0.6367363f, 0.185789f, 0.1611354f, 0.2040797f, -0.1522919f, 0.1669617f, 0.06332818f, -2.915809f,
  -2.515647f, 2.097857f, -3.603309f, -1.917933f, -0.4052967f, -7.451468f, -3.568442f, -0.2187575f,
  -0.2552479f, -0.3405217f, -0.1241374f, -0.4258862f, -0.3183797f, 0.3498756f, 0.461019f, 0.5270193f,
  -0.04326435f, 0.3572367f, -0.133389f, -0.9461792f, -1.850169f, 1.237547f, -3.887517f, -0.5354896f,
  -1.860516f, -5.829529f, -2.22493f, -3.803431f, -2.222365f, -0.8735892f, 0.5333193f, -1.315047f,
  1.459679f, -1.486316f, -4.912116f, -0.2312861f, 0.04561048f, -6.859457f, -0.1094252f, -0.04249017f,
  -4.977924f, -0.5682493f, -0.007966127f, 0.9599986f, -0.3746965f, -0.7469444f, -1.251757f, -0.08819003f,
  1.395768f, -5.865143f, -1.012031f, -1.891778f, 0.9332443f, -1.426245f, -4.108285f, -1.036001f,
  -0.2522737f, -3.782003f, -0.6042166f, 0.7253765f, -0.5443431f, -1.56084f, -3.445583f, 1.314501f,
  0.235877f, -2.602347f, -0.06190058f, 0.4212664f, -1.662489f, -1.656243f, -0.470114f, -3.499298f,
  -2.470979f, 0.5478756f, -0.1616932f, -3.000463f, -2.116441f, -1.088052f, -3.700033f, -2.22025f,
  0.8314009f, -0.2170162f, -5.308564f, -2.573812f, -1.369507f, -2.631159f, 0.5166829f, 0.5011754f,
  -6.110056f, -2.449217f, 0.6030491f, -5.333763f, -2.227242f, -0.2712891f, -2.682712f, -1.682513f,
  0.3421767f, 0.9986885f, -1.0313f, -3.903194f, -1.520455f, 0.8474257f, -1.96114f, 0.01143994f,
  -0.8201835f, 0.4413716f, 0.2057219f, -4.335617f, -3.723137f, 0.4686678f, -0.6597479f, 0.6529494f,
  -0.4302886f, -0.2690356f, 0.06526612f, -1.1592f, -1.434994f, 0.3357266f, -2.353803f, 1.056383f,
  -0.5329531f, 0.7149485f, -5.363063f, -0.09018474f, 0.3073025f, -1.55526f, 0.3469988f, 0.4618222f,
  -2.97157f, -2.971968f, -0.3709484f, -2.591057f, 0.5211604f, -3.597306f, -1.445818f, -0.101926f,
  -9.740499f, -4.275302f, 1.441855f, -9.246326f, -4.137396f, 1.331158f, 0.1501416f, -0.02058429f,
  0.2990022f, 0.1267422f, -0.08747661f, 0.1399753f, -0.09763107f, 0.2164022f, 0.8975188f, -0.3045258f,
  0.7680815f, -0.4924804f, 0.9397072f, -1.052562f, -1.974375f, -1.149273f, -5.53365f, -2.155657f,
  -0.335652f, -8.89654f, -4.803316f, 1.09136f, -0.8857238f, -1.745006f, -3.106001f, 1.935811f,
  -0.7385343f, -1.508838f, -0.2999886f, -0.2550451f, 0.2528606f, 1.08034f, 0.3965528f, 0.4734424f,
  0.7893269f, 0.1294014f, -0.2635985f, 0.3069968f, -1.184693f, -0.1235195f, 0.1791576f, -5.381349f,
  -0.2372828f, -0.2858666f, -2.531447f, 0.6562015f, 0.3213049f, 0.515133f, 0.0882431f, -0.5495241f,
  0.2088553f, -0.04986306f, 0.1912042f, 0.1492876f, -0.1651297f, -0.1700473f, 0.04167012f, -0.2622891f,
  -0.004205626f, 0.3388479f, -0.3901822f, -0.1158728f, 0.2247742f, -6.536326f, 0.299504f, -1.003191f,
  -2.869184f, -0.2361446f, 0.7382602f, -4.077037f, -0.05073136f, -0.9169025f, 0.8675095f, -1.730818f,
  0.5351673f, -1.574615f, 1.708709f, -0.3070707f, -3.037102f, -2.932142f, -2.395657f, -0.03246864f,
  0.4110509f, -0.7615614f, -0.8323776f, 0.4326675f, -1.90837f, -0.3705044f, -1.262693f, -7.748769f,
  -1.551268f, -1.782341f, -5.930525f, 0.1497483f, -0.08781276f, -4.879307f, 0.7849017f, -2.402059f,
  -4.18203f, -5.142025f, -0.4864449f, 0.07668142f, -0.9084496f, -1.445885f, -0.3183811f, 0.5012041f,
  -3.269728f, -0.2306972f, -0.5613779f, 0.00236675f, 0.03282058f, 1.044326f, -2.291438f, -4.909522f,
  -0.2418998f, -1.565971f, -1.180698f, -1.181898f, -2.343313f, -1.305641f, -0.1375871f, -4.073255f,
  -1.768548f, 0.1835601f, -1.932892f, 1.18119f, 0.2308436f, -0.1091364f, 0.5553701f, 0.1987613f,
  0.4099201f, 1.154158f, 0.1589186f, 0.2559099f, 0.6622683f, -0.6151968f, 0.4788544f, -0.5331957f,
  -2.262708f, 0.3629165f, 0.9083008f, -5.367137f, -3.887352f, 0.07799824f, -1.015065f, -0.8440426f,
  -0.2451181f, 0.1625203f, 1.420367f, 0.05902622f, 0.9926307f, 1.317944f, 0.654018f, -0.5260617f,
  0.4282419f, -4.927852f, 0.9079876f, -0.8278652f, -4.055253f, -0.4857155f, -0.1548471f, -0.2639315f,
  -2.109101f, 0.5464346f, -0.7645128f, 0.4985583f, -0.9696197f, -1.154772f, -0.09903315f, -1.807083f,
  -2.668713f, -3.597359f, -0.2347582f, 0.3100293f, -5.410885f, -0.2890034f, -2.083873f, -2.37668f,
  0.02168375f, -0.6744074f, -3.601142f, -0.2190735f, 0.1931216f, -4.721251f, -0.121158f, -0.5368749f,
  -0.3004265f, -0.3619635f, -0.5446573f, -0.02262902f, -0.516901f, 0.328452f, -0.1255678f, -0.2897275f,
  0.2264068f, -0.3565506f, -0.4173773f, 0.02709583f, 1.145379f, -1.575651f, -2.255861f, -1.220476f,
  0.5314921f, 0.8180449f, -8.582326f, -3.229352f, -2.835555f, -4.857824f, -0.9623232f, -2.55692f,
  0.2384313f, 0.2716275f, -0.7606358f, -2.151721f, -0.2684261f, 0.6804395f, -7.377666f, -0.2380949f,
  -0.5768601f, -1.218383f, 0.08129006f, -0.8461018f, -1.139688f, -2.23227f, 0.7591009f, -7.609617f,
  -6.489558f, -2.5997f, -0.8419585f, -0.8669856f, -0.3482006f, 0.1860886f, 0.6754164f, -1.295752f,
  -5.530121f, -1.701768f, 1.223999f, -0.6930578f, 0.3987876f, -0.8829098f, 0.2562308f, -0.3134645f,
  -1.867255f, -2.223944f, -5.051221f, -1.175674f, 0.6095651f, -2.076955f, -0.02883039f, -1.110912f,
  -0.1791566f, 0.2392824f, 0.1695432f, 0.1152912f, 0.325241f, 0.1248813f, -0.04427651f, 0.03329173f,
  0.2730075f, 0.5473073f, 0.3914883f, 0.2356316f, 0.291664f, 0.656771f, 0.690394f, 1.625057f,
  1.478311f, -0.9067093f, -0.5321607f, 0.2802054f, -4.530378f, -2.501856f, -1.532523f, -5.379977f,
  -1.570994f, 1.391196f, 1.107612f, -0.2525624f, -1.827283f, 0.1288976f, -1.990679f, 0.6649824f,
  0.1695972f, 1.487049f, -0.3657974f, -4.227481f, -6.670464f, -3.903757f, 1.285466f, 0.1670935f,
  0.8304836f, 1.23353f, -0.591647f, -0.08587574f, 0.4857243f, -0.07356387f, 0.2286556f, -0.4048581f,
  -0.04659779f, 0.09000786f, -0.02091017f, 0.0743935f, 0.01987955f, 0.08133713f, -0.03228621f, -0.08970928f,
  0.03616482f, 1.188783f, -8.06562f, -1.83177f, -0.7080233f, -7.802115f, -2.640451f, 0.1122655f,
  -0.6604092f, -0.003396519f, 0.3665533f, -1.674197f, -0.3963035f, -0.5405811f, -3.231994f, 0.5263544f,
  0.04402301f, -5.430303f, 0.2064017f, 1.481733f, -8.449185f, -2.238395f, 0.1919939f, -9.276329f,
  1.610965f, -0.6309298f, -5.323041f, -2.264316f, -2.227597f, -6.253498f, -2.608486f, 2.284795f,
  -2.392426f, -2.308496f, 0.3139731f, 0.4510466f, 0.2165412f, -0.50766f, -0.3781309f, 0.04103579f,
  0.8559228f, -0.2573351f, -2.84515f, -9.880048f, -0.3825575f, -4.263575f, 0.5721841f, -0.7622738f,
  -1.801515f, -0.431045f, 0.006386138f, 0.20333f, -0.8160141f, -0.01150949f, -2.061111f, -0.3971625f,
  0.7155812f, -0.5298133f, -1.642035f, 0.4206726f, -6.848703f, 0.02448483f, -1.403519f, -10.03523f,
  -7.76304f, -12.69718f, -3.500138f, -3.287667f, -1.641251f, 0.2315099f, 0.3572883f, -0.133742f,
  -0.2539979f, -0.1002498f, -0.4072793f, 0.7964919f, 0.09730704f, -0.8141789f, -1.94186f, -1.892366f,
  -4.547094f, 1.331762f, -6.473956f, -0.2585033f, -1.738931f, -4.693084f, 1.804055f, -7.53333f,
  -8.677153f, -1.597456f, 0.06427459f, 0.1548351f, -0.1283958f, 0.2608244f, 0.1023365f, -0.2717482f,
  0.1138787f, -0.01337551f, -0.2359296f, -7.943719f, -5.067945f, -3.852829f, -1.506508f, 0.5015495f,
  -0.07974137f, -0.5952391f, 0.162698f, -1.693083f, -0.8775611f, -0.1809931f, -0.2020716f, -1.243918f,
  1.001908f, -0.6235287f, -5.39274f, -2.839006f, -0.470861f, -0.991196f, 0.2952324f, -0.9603871f,
  -1.264593f, 0.6887609f, 1.041723f, -3.691976f, -5.047788f, -0.5164918f, -0.4670357f, 1.622573f,
  -3.078244f, 0.6611725f, -1.235728f, -5.019281f, 0.1604849f, -0.7086505f, -1.167931f, -0.05293453f,
  0.837696f, 0.008362728f, 0.0270839f, 0.9540651f, 0.09946272f, -0.03911018f, 0.2807403f, -0.7372055f,
  -6.929023f, -4.67025f, -0.2013014f, -1.848898f, 1.261732f, 0.2215888f, -0.1289785f, -0.5414287f,
  -0.06257579f, -2.620719f, -0.4456739f, -3.206495f, 0.9165283f, -0.3717661f, -4.851512f, -0.004455998f,
  0.2822118f, -2.112937f, -0.788358f, -0.7201144f, -0.4456493f, -0.172912f, 0.5385798f, 0.4370159f,
  0.5050564f, 0.6863418f, 0.8395756f, -1.165574f, 1.190121f, -0.9285091f, 1.256509f, -2.160076f,
  0.5797329f, -3.329931f, -6.557328f, -1.223189f, 0.3779975f, 0.4932693f, -0.565071f, -2.047931f,
  -1.389265f, -1.822001f, 0.6160327f, -0.8127837f, -2.834514f, 0.7562559f, 0.7295329f, -5.082917f,
  -0.4253399f, -1.135676f, -5.573874f, 0.1441466f, -0.05071747f, -3.215674f, -1.260657f, -1.176788f,
  -0.5974768f, 0.2696258f, 0.9080933f, 0.3154668f, 0.4347172f, 0.9652163f, 0.2041832f, -1.629555f,
  -0.04570139f, -2.796774f, 0.4965575f, 1.934798f, -3.443183f, -1.538587f, -1.311579f, -4.762832f,
};

#define W20_LEN (1152u)

#endif // W20_H