#ifndef W22_H
#define W22_H

#include <stdint.h>

// Auto-generated by txt2h.py on 2026-02-16T03:54:18
// Source count: 1152

const float w22[1152] = {
  -0.1395276f, 1.180615f, -1.487471f, 0.4188237f, -1.095221f, -5.94868f, -0.6327478f, 1.027938f,
  -1.80992f, -1.209912f, 1.610614f, -1.835591f, 0.9578593f, -1.693305f, -0.9699203f, -1.233166f,
  -1.585676f, -4.246236f, -2.336234f, -2.704469f, 1.532271f, -0.3843976f, 0.6504215f, -2.568661f,
  -0.2109484f, -0.2969391f, -2.791159f, 0.2019512f, 0.4171697f, -0.8190765f, 0.2459494f, -1.194903f,
  0.7347333f, -2.83427f, -0.8946351f, -0.04923468f, -3.20442f, -1.430765f, -4.143632f, -1.044648f,
  0.00326854f, -2.291079f, 1.145444f, 0.001359723f, -1.857614f, -0.4769643f, -0.1777136f, -0.019388f,
  0.07104089f, 0.23167f, 0.3499297f, 0.3220623f, 0.7589499f, 0.2322211f, -0.008666048f, 0.005230254f,
  0.007532931f, -0.002514206f, 0.006172711f, 0.003671006f, -0.001504465f, 3.727511e-05f, 0.001122709f, 0.747301f,
  -2.866733f, -5.032273f, 0.3952111f, -1.08722f, -3.776814f, -0.6869022f, 0.4342608f, 1.116873f,
  -0.1699045f, -0.1316814f, -0.2796673f, -0.01292386f, 0.1288307f, -0.1678712f, 0.1891746f, 0.2300588f,
  0.02453487f, -2.223881f, -3.185419f, 0.5104247f, -0.3206607f, -2.911459f, 2.810498f, -6.216555f,
  -6.843706f, -1.331385f, 0.9780347f, -0.8693767f, -2.159525f, 0.7362388f, -0.3513975f, -0.8233749f,
  0.0213678f, -0.6258872f, -0.8328419f, -0.811013f, 1.46556f, -2.217696f, -0.1631134f, -1.534808f,
  -1.403742f, 0.2640741f, -1.051746f, -2.1746f, -0.060372f, 0.6042877f, -0.5862782f, -2.463541f,
  -0.9509388f, 1.24919f, -0.4256979f, -3.468717f, -2.746638f, -0.9116479f, 0.4980568f, -0.1147096f,
  -0.04716451f, -1.124703f, -2.018939f, -0.2085587f, 1.312482f, -4.054059f, -0.004529653f, 0.3426435f,
  0.1954166f, 0.3199288f, 1.924301f, 0.1139549f, 0.01686481f, 0.1680446f, -0.09481471f, -0.4221734f,
  -2.035319f, -5.80461f, 0.7263039f, -0.3085923f, -3.863641f, -0.4202643f, 0.3891554f, -3.427578f,
  -0.09855031f, 0.09143973f, -0.06531834f, 0.4552806f, 0.5465408f, 0.1880516f, 0.4013421f, 0.4457021f,
  0.0256675f, -0.3627365f, -0.7760758f, -0.1021224f, 0.3433399f, -5.746333f, 0.5954304f, 0.7365633f,
  -8.540917f, -1.779836f, -1.074755f, -1.004209f, 1.150997f, -2.506317f, -4.454806f, -0.707044f,
  -0.547558f, -0.3983165f, -1.136516f, -0.5038244f, 0.2351924f, -4.518511f, -0.5744404f, 1.251352f,
  -6.504144f, 0.5922564f, -3.003467f, -4.550172f, -1.396125f, 0.7662205f, -0.087083f, 0.04330602f,
  -0.7145264f, 0.4983447f, -1.735862f, -2.972f, -4.543157f, -0.08887444f, -0.01962832f, 0.05912499f,
  -0.05799989f, 0.03622035f, 0.09171874f, -0.0656067f, -0.01499215f, -0.001356495f, 0.4357461f, -0.03310928f,
  -1.440743f, -0.6897446f, -1.767112f, -3.491954f, 0.3238675f, -0.4616052f, -2.502135f, -0.01626221f,
  -0.389122f, -1.574724f, 0.06659866f, 0.7646615f, -1.274807f, -0.5085813f, -4.278007f, -3.245088f,
  -0.7798975f, -4.306021f, 0.08997875f, -1.587828f, -1.599608f, -0.07640722f, 0.3042243f, -3.928277f,
  -0.5071232f, -0.233086f, -0.1880727f, -0.2563689f, -0.09027115f, 0.01148501f, -0.09458356f, -0.06936456f,
  0.1914702f, -0.04844541f, -0.8524027f, -1.677318f, -1.654406f, -0.96529f, -1.863863f, -2.225883f,
  0.007824271f, 1.29254f, -0.806403f, -0.4583873f, -0.9044977f, -1.828381f, -1.366508f, -1.927047f,
  -2.920799f, -0.5800805f, -0.01573889f, -3.567479f, -0.8959606f, -0.7931812f, 1.164063f, 0.2911042f,
  -3.201316f, -1.655001f, -0.1563209f, -0.9794157f, -1.112287f, -0.07181069f, -0.8710995f, 0.4746897f,
  -2.775283f, -0.3972355f, -0.09899557f, -2.441162f, -3.358757f, -1.566883f, -0.02380811f, -1.225373f,
  -2.062251f, -3.108788f, 0.584407f, 1.078965f, -3.990697f, -0.1223979f, -0.7166139f, -0.06369442f,
  0.07329468f, 0.1087382f, -0.01874935f, -0.04682944f, 0.1110464f, -0.05409769f, -0.002518232f, 0.2669517f,
  -0.1663797f, 0.4438764f, -5.696683f, -0.1540006f, -1.100765f, -3.874794f, 0.153198f, -1.018558f,
  1.245318f, 0.07596766f, -1.29763f, 0.8027808f, 0.2263457f, 0.2338395f, -4.330026f, -0.9708245f,
  0.64477f, -4.060142f, -2.703855f, -4.555262f, -3.248573f, -0.8355306f, -1.613627f, 0.3280448f,
  0.1393783f, 0.8025159f, -0.4907128f, 0.3613502f, -0.2795359f, -1.409184f, -1.770388f, -0.4097459f,
  0.1740682f, -5.752958f, -3.423008f, 0.2990438f, -0.2489476f, 0.1567474f, -0.7365884f, 0.7894379f,
  -2.041835f, -0.1136383f, 0.2038156f, -0.4675577f, -2.045782f, -0.2615778f, 0.2298831f, 0.5109107f,
  -5.309469f, -3.024632f, -0.8618968f, -4.247308f, -1.610885f, 1.002439f, -3.207139f, 0.4424004f,
  -0.03329909f, -4.014566f, 0.02154543f, -1.376674f, 0.6443508f, -1.138572f, -2.366534f, -3.714802f,
  -5.243017f, -1.094605f, 0.1130816f, -1.324202f, -2.100571f, 0.6951497f, -0.3300131f, -0.9477828f,
  -2.781623f, -1.903894f, 0.435068f, -2.600916f, 0.7870584f, 0.1288581f, -0.5907681f, 0.8090962f,
  -1.499582f, 0.02999349f, -0.3941163f, -1.112384f, -0.3531432f, 0.6414611f, -1.232472f, -0.4097103f,
  -0.1617474f, -1.073595f, -0.182573f, -6.12295f, -4.080971f, -1.35059f, -1.176275f, 1.322135f,
  0.3843273f, -0.9468849f, 1.248164f, -2.355463f, -1.757544f, -5.649185f, -0.4535438f, 0.3436556f,
  -2.063153f, 0.767022f, 0.4080266f, 0.01391506f, -1.285537f, -4.306126f, -2.184253f, -0.3666154f,
  0.1395628f, -1.383805f, -0.4047168f, -0.3170446f, -1.310399f, 0.8046115f, -0.9307927f, -2.062058f,
  -0.9765739f, -1.83973f, -4.268066f, 0.7169771f, -1.831081f, -1.035191f, 0.1198585f, -0.4744956f,
  -2.276108f, -0.5221716f, -0.5248026f, -3.122424f, -0.09507976f, 0.4012998f, -2.57967f, -3.014156f,
  -3.365819f, -2.805102f, 0.9034122f, -1.352173f, -4.929965f, -0.3450454f, 0.9917061f, -0.1977095f,
  0.7398702f, -2.616818f, -5.410054f, -0.3926063f, -0.6871499f, 0.2728989f, -1.121016f, 1.052333f,
  -0.5582183f, -0.4398211f, -0.4383897f, 1.038013f, 1.788809f, -4.301428f, -5.272904f, -0.860113f,
  -7.303145f, -0.9985654f, -0.9788964f, 0.5339755f, 0.1515821f, 0.26337f, -1.365736f, -5.583451f,
  0.05866523f, -0.5004114f, -0.6331391f, -4.064012f, -1.38154f, 0.1257698f, -2.980713f, -1.667866f,
  0.2559747f, -1.199937f, -0.3858529f, 1.02803f, -4.588041f, -1.757138f, 0.3582966f, -1.564805f,
  -2.290309f, -0.4312472f, -0.798767f, -2.213742f, 0.2332995f, -0.4450497f, 0.2855464f, 0.5774207f,
  0.2641919f, 1.592784f, 0.2601952f, 0.1015955f, 0.2681054f, -0.00970444f, -5.573996f, -3.557645f,
  -0.9934295f, -2.52992f, -1.943455f, 1.819821f, -4.095584f, -2.506956f, 0.9578028f, -4.342518f,
  -2.104883f, -2.228094f, -1.273132f, -0.03031286f, 0.6152279f, -0.3355967f, -0.2342068f, -0.5664317f,
  -4.982031f, -4.124661f, 0.8113667f, 0.1175082f, -1.774975f, -0.6571694f, 0.4286711f, -0.7476829f,
  0.7276347f, -5.204118f, 1.042039f, -0.7162679f, -4.382506f, -0.6240964f, 0.8490883f, -3.677142f,
  0.5237446f, -1.35372f, 0.5215422f, 0.2297f, -0.8695323f, -2.199957f, -2.322321f, -4.866816f,
  -1.855547f, 1.42227f, -0.2553867f, 0.5314348f, -4.670178f, 0.4313065f, 0.9599688f, -1.726191f,
  0.5056223f, -2.198942f, -0.5172001f, -0.4118968f, -0.5951248f, -0.5229312f, -0.7454528f, 0.06609835f,
  0.03154545f, 0.1125938f, 0.3807159f, -0.1366268f, -0.327847f, -8.083358f, -10.03036f, -7.219469f,
  -2.555185f, -0.3540757f, 2.458901f, 1.078273f, 0.01082854f, -3.786629f, -0.05745663f, 0.4357349f,
  0.2326256f, 0.1841577f, 1.257452f, 0.06909285f, 0.05130604f, 0.0299866f, 0.07371267f, -2.152214e-05f,
  8.254422e-06f, 4.072854e-05f, -3.45056e-06f, 0.0001319861f, 3.628391e-05f, 3.05936e-06f, 2.483023e-05f, -3.499795e-05f,
  1.586499f, 0.9960978f, 0.1923884f, -0.5527347f, 0.3055395f, 0.7467523f, -0.4916473f, -0.09221194f,
  0.5344815f, -0.4039376f, -0.1888642f, 0.3337334f, 0.6522314f, 0.3979554f, 0.6793138f, 0.5166562f,
  -0.2146757f, 0.5920424f, -6.309422f, -4.478212f, -4.347344f, -0.9070737f, 0.8309705f, -0.4630663f,
  1.262518f, -1.606934f, 0.2518307f, -0.2334136f, 1.316861f, -1.494621f, 0.1514334f, -1.653049f,
  -4.635729f, -0.1757935f, -2.817619f, -1.466992f, -0.8136981f, 0.3073385f, -1.797169f, 0.558194f,
  -1.097979f, 0.01644874f, -0.7305757f, 0.07214076f, -4.131765f, -0.6492627f, -0.3844248f, -0.3939336f,
  0.07640021f, 0.2470762f, 0.0939915f, -0.2091294f, 0.03091356f, -0.4600294f, 0.05115398f, -0.2176726f,
  -0.3823206f, 0.14903f, -0.1624702f, -0.2275479f, -0.00648024f, -0.01433098f, -0.06500322f, -0.23691f,
  -0.2004339f, -0.09377007f, -0.04359766f, 0.01019127f, -0.02257848f, -0.006910533f, 0.2424538f, 0.08118873f,
  -1.506286f, 0.7269646f, 0.2486119f, -1.484782f, -2.419265f, -4.103748f, -0.7028845f, -3.962761f,
  -3.577328f, -0.5793037f, -0.125226f, -0.02049245f, -0.2076095f, 0.128423f, 0.09583423f, -0.005674477f,
  0.04896402f, -0.07133337f, 0.2108816f, -0.2357644f, 0.0973468f, -2.440309f, -5.619186f, -0.7436055f,
  0.2393481f, -3.105528f, 0.6221907f, -0.6683294f, 0.515433f, -0.02384286f, -0.8648985f, 1.205552f,
  -0.9155341f, -0.5395469f, -1.248559f, -4.506818f, 0.5794838f, -0.6256207f, -3.257147f, 0.02847894f,
  0.6837499f, -1.781761f, -4.927002f, 0.07637424f, 0.1690379f, -0.9452671f, -5.173597f, -4.49568f,
  0.9370946f, -0.6842289f, -1.705445f, -0.6828321f, 0.4259425f, -0.09114753f, -0.1320369f, 1.32709f,
  0.2926111f, 0.3284724f, 0.3307093f, -0.1334328f, -0.1424775f, -0.2446479f, -0.3749839f, 0.6111913f,
  -0.9134241f, 0.5172611f, -0.09672947f, 0.1832661f, -0.5231611f, -2.271789f, -4.684351f, 0.05004177f,
  -0.288604f, 0.1016509f, 0.1706983f, 0.1412226f, -2.421057f, -4.605472f, 0.2858688f, -0.5422912f,
  -1.812183f, -0.5979f, -0.2543158f, -0.2112473f, -0.1706671f, 0.3008632f, 0.4833583f, 0.3059734f,
  0.7584639f, 0.4898051f, -0.6893135f, -0.7997226f, 0.6531745f, -0.01015104f, -3.54622f, 0.1306659f,
  0.1818802f, -2.741784f, -1.062307f, 0.1485787f, -4.405421f, -0.4109857f, -4.586935f, -3.102238f,
  -1.137152f, -2.211274f, 1.073309f, 0.4098119f, -0.632939f, 0.8439928f, -1.770683f, -0.4341136f,
  -0.4565672f, -2.040993f, -0.1480945f, -3.084542f, -3.066403f, -2.183625f, -0.01612653f, 0.6017075f,
  -4.007685f, -1.796253f, -0.2403829f, -5.318191f, -1.664779f, -0.9982009f, -0.8502055f, -0.3080167f,
  1.262492f, 0.7497654f, -2.911834f, 0.8576469f, 0.8791549f, -3.682751f, -2.202181f, -0.07855624f,
  0.2269229f, 0.115042f, 0.03987228f, 0.2673627f, 0.03410165f, 0.0032427f, -0.009082549f, 0.007662037f,
  2.533325e-05f, -3.24683e-05f, -1.571578e-05f, -3.119409e-06f, -5.327293e-05f, -1.015222e-05f, 2.943122e-06f, 2.66574e-06f,
  7.905589e-06f, 0.2596495f, -0.1949873f, 0.4494484f, -2.784839f, -4.269081f, -1.557482f, 1.19724f,
  -1.897426f, -1.493155f, 0.1484237f, -0.08047603f, -0.2841387f, 0.1769357f, -0.121351f, -0.1123596f,
  -0.002724998f, -0.2460773f, -0.1520752f, -0.3505824f, 0.5321479f, 0.2892788f, -4.492626f, -1.383549f,
  -1.835402f, -6.532832f, -0.6133021f, -0.008573621f, -1.255719e-05f, -0.0001414751f, 0.0001470865f, -0.0002648167f,
  -0.0002077856f, 6.911175e-05f, -6.712962e-05f, -4.273599e-05f, 5.48435e-06f, -7.480085f, -1.217273f, -0.7641382f,
  -5.798706f, 4.028513e-05f, 1.594185f, -6.325225f, -0.334559f, -1.52512f, -2.768104f, -3.696287f,
  -6.142518f, -1.910902f, -3.198831f, -3.375688f, 1.541714f, -1.972407f, -0.2758658f, -2.76871f,
  0.5542476f, -1.182746f, -2.115304f, -0.3746396f, -1.564097f, -1.701158f, 0.1166222f, 1.360264f,
  0.9946668f, -3.320061f, -6.363738f, -0.8400431f, -0.4220724f, -1.356712f, 0.2990024f, 0.02579672f,
  0.3824391f, -3.344223f, -0.5118598f, 0.1625234f, -3.912185f, -0.7688235f, 0.3314659f, -4.978734f,
  -0.7963735f, -0.4875412f, -0.7864101f, 0.3348816f, 0.2642426f, -0.01463695f, -4.971708f, -2.210283f,
  0.09501655f, -4.150965f, -0.4879773f, 2.050537f, -0.6470238f, -3.163066f, -2.937634f, -6.631646f,
  -5.403382f, 1.180226f, -1.447005f, -2.739166f, -0.05221121f, -0.02925192f, -0.05544549f, -0.007035161f,
  0.03613354f, 0.007860656f, 0.04952851f, 0.0713971f, -0.02972953f, -1.472121f, -4.428368f, -3.963236f,
  0.1196f, -1.168333f, -0.514294f, -1.695949f, 0.6118655f, 0.4587363f, -4.162363f, -1.183175f,
  0.4030472f, -0.9262108f, 0.1527035f, 0.4983657f, -1.322526f, 0.7993237f, -1.402374f, 0.6172069f,
  -0.8522918f, 0.1546952f, -0.3324592f, -3.763292f, 0.4903757f, -4.020944f, -2.076134f, -0.7909999f,
  -5.245686f, -3.590979f, -0.07928899f, -1.455118f, -0.05547588f, -1.3167f, 0.7405114f, -1.464699f,
  0.2759048f, 0.02090016f, 0.7719694f, -0.4936198f, -0.7306412f, -1.658915f, -2.608778f, -3.07349f,
  -7.281236f, -0.6526434f, -0.1998669f, -0.01921002f, 0.09056504f, 0.0776029f, 0.154474f, 0.1129445f,
  0.1394182f, 0.4021234f, 0.0442665f, -0.4408383f, -3.598f, -6.338382f, 1.139678f, 0.001648991f,
  -0.1555577f, -0.1168074f, 0.2707835f, -0.07669958f, -0.2016207f, 0.65022f, 0.2577612f, 0.2550254f,
  0.9808633f, 0.1600451f, -0.05443284f, -0.007064347f, -0.01157337f, 0.08124207f, -1.654451f, -2.007716f,
  0.5463592f, -1.579041f, 0.6460682f, 0.07964518f, -1.361463f, 0.2615772f, -0.4057112f, -2.907279f,
  0.1600178f, -4.954136f, -2.619852f, -1.733246f, 0.09662718f, -1.06341f, 1.081445f, -2.80267f,
  -7.559281f, -1.08306f, 0.07546221f, -1.127863f, -0.5194667f, -1.52284f, -0.2711035f, 0.8103213f,
  0.8565603f, -1.450158f, -0.3561707f, -2.262955f, -3.300894f, -5.384684f, 0.3631475f, -0.3508661f,
  -0.002937973f, -0.2261387f, -0.8396588f, -1.041788f, 0.04068983f, 0.04217044f, -0.0163594f, -0.01080906f,
  -0.03214329f, -0.1408388f, -0.0495173f, 0.1212519f, 0.03665761f, -0.0122838f, 0.04051931f, -0.04420536f,
  -0.03215457f, -0.006257004f, -0.02302247f, -3.184045f, 0.1485416f, -0.4458811f, -4.006388f, 0.4412179f,
  0.3349677f, -4.326481f, -0.5886604f, -0.02191476f, -0.7424747f, 0.9872613f, -1.349218f, -2.885324f,
  -3.958379f, -0.719319f, -0.6724665f, -0.913218f, 0.476569f, -0.9025877f, -3.597266f, -2.000757f,
  1.015426f, -3.185257f, -6.334781f, -3.480663f, -0.6114575f, -0.3876754f, 0.2515426f, 1.262454f,
  0.3900753f, -0.08592479f, -0.3806327f, -0.3252248f, 0.1525809f, 0.0740582f, -0.06223601f, -0.2639142f,
  -0.5253488f, -0.4696974f, -1.029977f, 0.2038002f, 0.5116962f, -3.938775f, -2.165129f, -0.5003541f,
  -2.284314f, -0.3571878f, 0.4804628f, -2.377993f, 0.5188918f, -0.701098f, -3.410976f, -1.722794f,
  -0.1057322f, -6.095576f, -1.8065f, -2.093556f, -1.180669f, 0.06960285f, 0.3962878f, -0.4532776f,
  0.6889654f, -0.92572f, 0.2359732f, -1.662597f, 1.021497f, -2.708401f, -0.6850716f, -0.7834001f,
  -0.5149235f, -0.2300881f, -0.9500824f, -1.284121f, -0.03441343f, 0.01536405f, -3.76531f, 0.8625574f,
  -0.9746773f, 0.003392835f, -0.8775783f, 0.6159596f, -0.002533783f, 0.0691765f, -0.01330028f, -0.00491013f,
  0.0570863f, 0.01747045f, 0.004788083f, 0.00562439f, -0.0009327098f, 0.752704f, -1.7594f, -3.764621f,
  0.3029763f, -2.255483f, -3.8868f, -0.1886472f, 0.9742177f, -0.04169925f, -1.932914f, -0.2268191f,
  0.4250984f, -4.284607f, 0.04850527f, -0.3686826f, -0.6410446f, -0.752457f, -1.753356f, 0.05302042f,
  0.1829492f, -0.2822459f, -0.300399f, -0.9931539f, 1.125834f, 0.6423764f, -3.383656f, -6.017851f,
};

#define W22_LEN (1152u)

#endif // W22_H