#pragma once
#include <Arduino.h>
#include <avr/pgmspace.h>

// Auto-generated Mobile-LeNet-16 parameters for AVR PROGMEM.
// Layouts follow Noodle: Conv [O][I][K][K], DW [C][K][K], FCN [O][I].

const float b01[] PROGMEM = {
  0.1106422f, 0.05664687f, -0.2934265f, -0.1680316f, -0.01167558f, 0.4352585f,
  0.2193952f, 0.1228763f
};

const float b02[] PROGMEM = {
  1.053589f, 0.3601716f, -0.1410206f, 0.4450604f, 0.07904289f, 1.346797f,
  -0.5113369f, -0.1814598f
};

const float b03[] PROGMEM = {
  -0.6393171f, 0.4297772f, 0.3448014f, 0.3261921f, 0.07173437f, 1.276269f,
  0.03447267f, 0.4920395f
};

const float b04[] PROGMEM = {
  0.273961f, -1.181664f, 0.6756246f, -1.381846f, 0.570181f, -0.4126466f,
  -0.03576869f, 0.5873985f
};

const float b05[] PROGMEM = {
  -1.219558f, 0.4115539f, -0.2229997f, 0.6960616f, 0.9690397f, -0.05934142f,
  0.6106564f, -0.323691f
};

const float b06[] PROGMEM = {
  -0.09634818f, -0.2119423f, 0.8328701f, -1.223588f, -1.201225f, -0.1097369f,
  -0.08245754f, -0.169325f
};

const float b07[] PROGMEM = {
  2.244769f, 0.4140062f, 0.1762136f, 0.1749635f, -0.5660446f, -0.2387159f,
  1.012898f, -0.4196198f, 0.8239557f, 0.225467f, 0.8537118f, 0.4123588f,
  0.03044287f, -0.08029727f, 0.320635f, 0.3483733f
};

const float b08[] PROGMEM = {
  -0.06724723f, -1.03076f, 1.351032f, 0.7454579f, -0.1253595f, -0.2159126f,
  0.5302125f, -0.3841279f, -0.7842319f, -0.7827174f, 1.24825f, -0.4574634f,
  1.149635f, 0.4989657f, -0.4770861f, 0.9882276f
};

const float b09[] PROGMEM = {
  0.4646699f, 0.8835109f, -0.3214f, 0.4343995f, -0.1059525f, 0.1953667f,
  0.9840865f, 0.562821f, 0.24961f, -1.319311f, 1.075622f, 0.2355584f,
  0.7235535f, -0.2216536f, -1.174013f, 0.6474082f
};

const float b10[] PROGMEM = {
  1.835088f, 0.3604149f, -0.9505166f, -0.1604721f, -0.413663f, 1.207428f,
  0.7875644f, 0.4415131f, -0.2618405f, -0.06743354f, 0.932375f, -1.37552f,
  -0.6828134f, -0.6164704f, 0.7112982f, -0.3004573f
};

const float b11[] PROGMEM = {
  0.1652117f, -0.974207f, 0.3691634f, 0.1088206f, 1.22966f, -0.9387749f,
  1.888098f, 0.0999899f, 0.5437847f, -0.4756832f, -0.08259097f, 0.5328063f,
  0.814818f, 0.06538609f, 0.2557337f, 0.6292315f, 0.3817804f, -0.8889568f,
  1.012756f, 0.6257968f, 0.0891839f, -0.6636963f, 1.876897f, -0.2282257f
};

const float b12[] PROGMEM = {
  1.520869f, -0.3397375f, 0.1513199f, -0.491152f, -0.3867737f, 0.6698442f,
  -1.078171f, 0.3042811f, 0.2554089f, 1.187187f, -0.29629f, 1.503f,
  -0.5754894f, -0.67066f, -0.3132107f, -0.7666426f, -0.8143834f, -0.02868313f,
  -1.012234f, 2.224006f, -0.6938014f, 1.529323f, -0.4690581f, -0.3825222f
};

const float b13[] PROGMEM = {
  1.659558f, -0.09065735f, 4.885702f, 0.2589638f, -4.524208f, 0.2098323f,
  -3.029463f, 0.5298536f, 0.1070535f, 1.757232f, 4.463161f, 3.442626f,
  1.598539f, 3.130286f, 0.4423195f, 1.672332f, -0.5711946f, -1.757141f,
  -1.616802f, 1.450623f, -3.272477f, 0.09521696f, 0.4430195f, 0.5890911f
};

const float b14[] PROGMEM = {
  0.009301413f, 0.202932f, -0.009343926f, -0.07353623f, -0.1369776f, -0.05117368f,
  0.05992778f, -0.02617591f, -0.008573033f, 0.03216484f
};

const float w01[] PROGMEM = {
  -0.3399248f, 0.5015907f, 1.849303f, 1.080494f, -0.221784f, -0.003714039f,
  -0.09484089f, -1.318847f, 0.3191777f, -0.965611f, 0.4800728f, 1.988176f,
  -1.243994f, 0.9623531f, -0.2645665f, -0.4794622f, 0.9345716f, -0.6032722f,
  0.3363534f, 0.9417599f, 0.692559f, 0.4875928f, 1.091912f, 0.3893664f,
  -0.280472f, 0.06192087f, 0.02074238f, 0.5310392f, 1.318173f, -2.189154f,
  0.8224828f, 2.792083f, -1.491042f, -0.5843679f, 1.048894f, -0.004167514f,
  -1.237268f, 0.2308708f, 1.81653f, 0.4829364f, 1.409418f, -1.016778f,
  1.073736f, -0.3332568f, -0.7971673f, -0.1303754f, -1.390869f, -0.5401709f,
  -0.6499211f, -0.4504029f, -0.4909931f, -0.8398362f, -0.1834213f, 0.7014058f,
  0.9050612f, -0.8071454f, 0.3896226f, 1.544881f, 1.38869f, -0.1599135f,
  -1.230477f, -0.8077112f, -0.2435544f, 0.3051623f, 0.049874f, 0.7528285f,
  -0.8298727f, 1.431741f, 0.375158f, -1.616171f, -1.54693f, -1.427897f
};

const float w02[] PROGMEM = {
  -0.1231244f, -0.3469054f, 0.3540817f, -1.033682f, -0.8970477f, -0.2533444f,
  0.350111f, -0.2357291f, -0.4710732f, -0.1785042f, 0.05089036f, -1.179603f,
  -0.01383132f, -0.1047423f, -0.5973665f, 0.5293874f, 0.4687431f, 0.2746744f,
  0.2640828f, 0.7739427f, -0.1496437f, -0.8874863f, 0.9494339f, 0.6542122f,
  0.4550121f, -0.3363107f, -1.32618f, 0.1274065f, 0.373077f, -0.3870188f,
  0.3175418f, 0.09187112f, -0.6437742f, 0.05858519f, -0.3351872f, -0.1511851f,
  0.01202001f, 0.3396565f, 0.7142186f, -0.3421439f, 0.5843347f, 0.1024925f,
  -0.5393362f, -0.6258445f, -0.7827619f, -0.7164207f, -1.999905f, -1.226247f,
  -0.4428045f, -0.9911247f, -0.09099954f, 0.4007257f, 0.5675398f, -0.261217f,
  0.2359025f, -0.5580951f, -0.1032378f, 0.1505228f, 0.44709f, 0.2619415f,
  0.5369797f, 0.7620727f, 0.268802f, 0.5737602f, 0.4114926f, 0.5210046f,
  2.450094f, 0.7765217f, -0.8455157f, -1.013542f, -1.104504f, -0.08871163f
};

const float w03[] PROGMEM = {
  0.4666404f, 0.9853308f, 0.9427063f, 0.2142835f, -0.5379245f, -0.7834557f,
  -0.1921456f, 0.7776912f, 0.7908763f, -0.164216f, -0.367107f, -0.9220352f,
  -1.427169f, 0.3156361f, -0.06563923f, 0.5839637f, -0.5124207f, 0.6895327f,
  -0.02551436f, -0.3468643f, 0.3507058f, -0.2095062f, 0.4190514f, -0.026388f,
  0.02300874f, -0.5479738f, -0.2818277f, 0.5165721f, 0.01661577f, -0.1829293f,
  -0.7300341f, 0.738878f, -0.2972218f, -0.1231209f, 0.6485643f, -0.06503046f,
  -0.3066041f, 0.4958014f, -0.2276741f, 0.3420497f, -1.67231f, -0.2293407f,
  -0.4759678f, -0.7203996f, 1.209704f, 0.4316905f, -0.1166117f, -0.02242305f,
  0.2602385f, -0.6148029f, -0.3908488f, -0.856127f, 0.4086688f, 1.102017f,
  -0.06549759f, 0.7718209f, -0.09751828f, -0.0792478f, -0.4367298f, 0.3251763f,
  -0.9178517f, 0.2254751f, -0.3454798f, -0.2686766f
};

const float w04[] PROGMEM = {
  -0.1839824f, -0.3193223f, 0.1002931f, -0.8760616f, 0.008393027f, 0.3141333f,
  -0.1819405f, -0.04932311f, 0.1933619f, 0.3164919f, -0.1780987f, 1.3525f,
  -0.6571494f, -0.05891202f, 0.2431198f, 0.6252744f, 1.706288f, 0.4124139f,
  -0.2166768f, 0.06062343f, 0.3269904f, 0.6739263f, -0.1311458f, -0.9353201f,
  -0.1599913f, -1.069282f, -0.2928507f, -0.4239371f, 0.5523909f, 0.968358f,
  0.4563291f, 0.4846756f, 0.7873046f, 0.7745384f, 0.2614281f, 0.1120882f,
  -0.4153776f, 0.2441705f, -0.3824292f, -0.1679471f, -0.680174f, 0.714101f,
  0.4685666f, -0.5945492f, -0.7582425f, -0.02891205f, 0.3158138f, 0.2648111f,
  0.8894129f, 0.3125533f, 0.09399336f, -0.3813936f, 0.0152638f, -0.2794139f,
  -0.2045391f, 0.1943339f, 0.01439767f, -0.2918805f, -0.2416218f, 0.4400583f,
  0.224035f, 0.6310344f, 0.435715f, 1.698215f, -0.1476388f, 0.4245947f,
  -0.2802856f, -0.1663768f, 0.3746446f, -0.921399f, -1.930101f, -0.7841303f
};

const float w05[] PROGMEM = {
  0.6426531f, -0.01243819f, 1.335836f, -0.2476748f, 0.5372591f, -0.3061325f,
  0.6488925f, 0.1837416f, -0.54663f, -0.02501316f, 0.2677863f, -0.6348056f,
  0.3858514f, 0.2069642f, 0.01275608f, 0.03422431f, -0.1487992f, 0.3202141f,
  -0.03313202f, -0.3048877f, 0.2046603f, 0.3308694f, 0.7514695f, -0.1194069f,
  0.1466278f, -0.1090989f, -0.0634592f, -0.2434188f, 0.2639397f, -0.587997f,
  -0.4033499f, -0.2011579f, -0.2213562f, -0.57153f, -0.08691037f, -0.4379179f,
  -0.379364f, 0.1967836f, -0.1928632f, 0.1694417f, -0.1270206f, -0.4917322f,
  -0.2831137f, -0.08305766f, 0.2918442f, 0.07849708f, 0.7387589f, 0.5077822f,
  -1.017056f, 0.03557852f, -1.795741f, -0.6095774f, 1.126049f, 0.6682211f,
  0.02878176f, -0.6794214f, -0.9109437f, -0.3603479f, 0.1523966f, 0.4801131f,
  0.673777f, -0.06785288f, 0.5819367f, -0.6667809f
};

const float w06[] PROGMEM = {
  0.0508608f, 0.8577648f, 0.5801761f, 0.1962969f, 0.4980141f, 0.3563337f,
  -0.2140702f, -0.5710226f, 0.04605334f, -1.061172f, -1.08699f, -0.7207896f,
  0.1906123f, 0.5658069f, 0.3410139f, 0.8140703f, 0.9720731f, 0.5924484f,
  -0.2114469f, 0.1016454f, -0.8041489f, -0.2584759f, 0.2249966f, -0.6455033f,
  -0.2482701f, -0.0241186f, -0.3046526f, 0.623458f, 0.007310554f, 0.1357584f,
  1.12346f, 0.5948713f, 0.6563811f, 0.8000814f, 0.3720648f, -0.2695023f,
  0.5719315f, 0.5064496f, 0.04125832f, 0.7242352f, 0.5835705f, 0.06890938f,
  0.4649615f, 0.3879602f, 0.1621414f, 0.1090645f, 0.2383718f, 0.2474882f,
  0.1348562f, 0.4379531f, 0.2767009f, 0.06399126f, 0.1080243f, 0.2418517f,
  0.3758073f, 0.2875538f, -0.02186391f, 0.3917364f, 0.492188f, 0.237301f,
  0.0251105f, 0.4819356f, 0.3150924f, 0.1489842f, 0.2893775f, 0.1616141f,
  0.2559154f, 0.4405778f, -0.173062f, 0.3066282f, 0.09204897f, -0.1026255f
};

const float w07[] PROGMEM = {
  -0.02540587f, 0.07801314f, -0.4155833f, -1.493647f, -0.3542396f, -1.013019f,
  -0.06415538f, -0.9824195f, 0.02394571f, -0.007937858f, 0.3092452f, 0.2328748f,
  -0.01961053f, -0.4536487f, -0.1189937f, -0.0278017f, 0.1459177f, 0.2673993f,
  0.5675736f, -0.01629039f, -0.3017256f, -0.4579448f, -0.3784804f, -0.07691837f,
  -0.1640742f, 0.1777189f, 0.08878288f, 0.2340584f, 0.3250813f, -0.3008815f,
  -0.06837216f, -0.382376f, 0.04240969f, 0.4106771f, -0.1671121f, -0.3532686f,
  0.5001057f, 0.5361935f, -0.004834225f, 0.2769817f, -0.03167846f, 0.02851579f,
  -0.1853864f, 0.02015597f, 0.3928617f, -0.04270985f, 0.6487306f, -0.02996388f,
  0.3159651f, 0.3534121f, -0.03166451f, -0.5511124f, 0.2984577f, -0.7406057f,
  -0.3984493f, -0.3957754f, -0.02603979f, 0.2765547f, 0.1187569f, -0.499665f,
  -0.03502037f, 0.3748902f, 0.6420777f, -0.5018992f, -0.1205399f, -0.01196375f,
  -0.0298237f, -0.1446235f, -0.1180054f, 0.2620777f, -0.2475488f, 0.06345383f,
  -0.002163613f, 0.1572809f, -0.5648304f, 0.1446725f, -0.1058153f, 0.434196f,
  0.1048424f, -0.2448124f, 0.04914756f, 0.2971644f, 0.3229066f, -0.5251357f,
  -0.4868017f, -0.6743715f, -0.07092373f, 0.5171077f, 0.2326698f, 0.3075539f,
  -0.2754614f, -0.3130916f, -0.2592475f, 0.2598152f, 0.004445339f, 0.03950227f,
  0.7819905f, -0.9218934f, -0.4778834f, 0.262843f, -0.01558982f, 0.02847284f,
  0.5493439f, -0.1816332f, 0.349748f, -0.1822974f, -0.5260046f, -0.1042543f,
  0.1176469f, 0.5191355f, -0.05710077f, 0.2766754f, -0.3040725f, 0.08699766f,
  0.1950514f, 0.1149017f, -0.1209242f, -0.4825093f, 0.3183202f, -0.1347365f,
  0.2004579f, -0.4698035f, 0.1942537f, 0.06244545f, -0.05530902f, -0.9288012f,
  0.5221804f, 0.5153809f
};

const float w08[] PROGMEM = {
  0.7427464f, -0.2968038f, -0.5247604f, 0.2866739f, -0.6226869f, 0.1857106f,
  0.3781427f, -0.3179303f, -0.2328728f, -0.1177441f, 0.290626f, 0.4434285f,
  -0.4194581f, 0.2615553f, 1.336696f, 0.268944f, 0.1054203f, 0.8424311f,
  -1.570968f, -1.837374f, 0.8820199f, 0.2118215f, -0.7332956f, -0.1001958f,
  -0.8536233f, 0.1325049f, -0.6557209f, 1.024204f, 0.8429212f, -0.5655605f,
  0.1171244f, -0.3283561f, -1.029051f, -0.3436067f, -0.5470341f, -0.7004851f,
  0.9396699f, 0.263281f, 0.1122221f, 0.1730379f, -0.5209652f, -0.04077575f,
  0.001196852f, 0.0599815f, -0.9176138f, 0.3158127f, 0.3211775f, -0.3651225f,
  0.5968761f, 0.5725925f, 0.558835f, -0.4249911f, -0.1179362f, 0.1728957f,
  -0.6626909f, -0.3573636f, -0.6137831f, 0.3106977f, 0.3080036f, -0.8769327f,
  1.074396f, 0.03261039f, -0.7615737f, -0.07620978f, 0.3717695f, 0.4796213f,
  0.2265927f, 0.4977881f, 0.02218044f, 0.09372909f, 0.1162606f, 0.2162927f,
  0.004850681f, -0.06436438f, -1.420591f, 0.4162872f, 0.4214803f, -0.3514f,
  -0.01376206f, 1.540675f, 1.29496f, 0.5985035f, 0.8176897f, -1.050223f,
  -0.0771249f, 0.2411527f, 0.03606677f, 0.8333884f, 0.5413401f, 0.3140475f,
  -0.7320185f, -0.4645942f, -1.265974f, 0.06808621f, 0.3086126f, -1.170985f,
  0.3636402f, 0.7370846f, -1.433903f, -0.1852376f, 0.1802115f, -0.0101402f,
  0.4365523f, 0.654883f, -0.08004846f, 0.5557286f, 0.595782f, -0.08228523f,
  0.08841351f, -0.3875275f, -0.6179473f, -0.7728669f, -0.1517364f, -0.1696703f,
  -0.1994882f, 0.3447491f, 0.148346f, -0.5244431f, 0.222297f, -0.07221781f,
  0.1083948f, 0.190797f, 0.4531682f, -0.3899449f, -0.6114514f, -0.1682094f,
  -0.9425708f, 0.8071808f, 1.564796f, -0.1011812f, 0.6464475f, 0.6325106f,
  -1.050843f, -0.3144155f, 0.02940259f, -1.039932f, 0.01668452f, -1.197851f,
  0.2447006f, -0.09379447f, -0.6181856f, 0.2075035f, -0.3483072f, -0.191941f
};

const float w09[] PROGMEM = {
  -0.3532288f, 0.1621294f, 0.4330612f, -0.2844926f, 0.09041635f, -0.02832577f,
  0.1685316f, -0.1418844f, -0.1586591f, -0.09029251f, 0.1467779f, 0.003683147f,
  -0.2252592f, 0.1589888f, 0.2548297f, -0.3179648f, -0.2384683f, -0.3407662f,
  0.1363843f, 0.3228364f, -0.06294797f, 0.08184034f, -0.08316687f, 0.06952849f,
  -0.1900537f, 0.1057341f, -0.1543977f, -0.1859595f, 0.06574515f, -0.03001058f,
  -0.1809577f, -0.01075713f, 0.3115733f, 0.6287935f, 0.09887388f, -0.05100516f,
  -0.8681951f, 0.3087523f, 1.090964f, 0.2925749f, -0.02952984f, -0.1885972f,
  -0.1331844f, -0.3953506f, -0.2072501f, -0.446767f, -0.1435351f, 0.5552222f,
  0.320293f, 0.4061959f, -0.3042716f, -0.8428987f, -0.3268762f, -0.5013916f,
  -0.1264393f, 0.2627347f, 0.226517f, 0.7457418f, -0.0274534f, 0.3263055f,
  -0.4586542f, -0.360015f, -0.02673385f, 0.1334063f, 0.4185961f, 0.4614429f,
  -0.154302f, -0.4543321f, 0.4583322f, -0.3359086f, -0.03519901f, -0.1633619f,
  0.3583692f, 0.05998891f, 0.2083751f, -0.4957041f, 0.1395597f, -0.2344932f,
  0.1417305f, -0.436214f, 0.007580141f, 0.204035f, 0.2255989f, 0.1944089f,
  -0.03091812f, 0.1126969f, 0.1318624f, 0.2732393f, -0.5644796f, -0.1320865f,
  0.2976267f, -0.2512452f, -0.08035026f, 0.05265192f, 0.03813773f, -0.1208523f,
  0.05295164f, 0.003505992f, -0.04579901f, 0.007958396f, 0.1295775f, 0.08970009f,
  -0.5262808f, 0.1231537f, -0.3393736f, -0.2245345f, -0.2865778f, -0.1480449f,
  0.150846f, -0.1479421f, -0.01031064f, -0.03646095f, 0.08211621f, 0.1303785f,
  -0.07726973f, 0.01448305f, -0.009054293f, -0.3876526f, -0.114823f, 0.1405608f,
  -0.04088299f, 0.03924961f, -0.2079184f, -0.1061412f, 0.400698f, -0.303774f,
  -0.03229162f, 0.1547829f, 0.08878357f, -0.01002384f, 0.3395002f, -0.174273f,
  -0.009783329f, 0.2670077f, 0.07584779f, 0.1368937f, -0.1804061f, 0.02113662f,
  -0.3089966f, 0.3338592f, -0.03794274f, 0.07156416f, -0.08304036f, -0.1600583f,
  -0.4437725f, 0.3495342f, 0.01783725f, 0.4559533f, -0.419865f, 0.1666369f,
  0.3742172f, 0.458487f, 0.5871472f, 0.275879f, -0.02281577f, -0.1576059f,
  0.1103797f, -0.1253291f, 0.2191778f, 0.3914624f, 0.03122651f, -0.5341733f,
  -0.07872284f, -0.1031679f, -0.04712986f, -0.3414998f, -0.1961578f, -0.04179063f,
  -0.2150382f, -0.1323557f, -0.2797265f, 0.4075648f, -0.386394f, 0.01084841f,
  -0.324108f, 0.02771844f, 0.2165317f, -0.2985987f, 0.1055953f, -0.3620545f,
  -0.537925f, 0.2276818f, -0.02579081f, 0.2269093f, 0.0993105f, 0.05105261f,
  0.3027953f, -0.3659592f, 0.1975844f, 0.0172265f, 0.03858487f, 0.1740223f,
  -0.4449079f, 0.1724424f, -0.1947462f, -0.03715478f, -0.1562549f, -0.2137852f,
  0.06087523f, -0.06422547f, 0.09619991f, 0.03197721f, -0.205077f, 0.0533239f,
  -0.02610425f, -0.1204806f, 0.1575401f, 0.3591036f, 0.04003686f, -0.301731f,
  -0.4257737f, 0.7064217f, 0.6441552f, -0.4814806f, 0.2012753f, -0.07702491f,
  -0.02023332f, -0.4644316f, 0.6475134f, -0.004202124f, 0.09855042f, -0.1609102f,
  -0.1109816f, 0.3860385f, 0.3058021f, 0.4940583f, 0.1678183f, -0.1086129f,
  -0.300425f, 0.00204859f, 0.1192193f, 0.6672053f, -0.0880687f, -0.4064355f,
  0.3681492f, 0.2646042f, -0.1314546f, 0.2309584f, 0.4611892f, -0.01124784f,
  -0.02637316f, -0.1769376f, -0.1476593f, -0.4934398f, 0.1098832f, 0.1350315f,
  -0.4549751f, 0.1219887f, 0.00813388f, 0.4627415f, 0.007829058f, -0.1162877f,
  0.0976688f, -0.5647547f, 0.2046071f, -0.07234599f
};

const float w10[] PROGMEM = {
  1.077752f, 0.5221593f, 0.04569875f, -0.524676f, -0.64265f, -0.7211157f,
  -1.027288f, -0.8001194f, -0.8087939f, 1.086186f, 0.9860292f, 0.08848423f,
  0.7388733f, 0.2937173f, -0.04946259f, -0.2874309f, -0.1703754f, -0.77373f,
  0.1918034f, 0.6673787f, 0.4787135f, 0.3078127f, 0.5728206f, 0.2046076f,
  0.571184f, 0.09330016f, 0.1534375f, 0.6318486f, -0.04388958f, -0.4064284f,
  0.5064775f, 0.4104481f, 0.2276532f, -0.003832319f, 0.3841693f, 0.3693814f,
  -0.4303473f, -0.21946f, 0.2713174f, 0.3052132f, 0.6397839f, 0.6485126f,
  0.2319989f, 0.2993807f, -0.0314607f, -0.1754819f, -0.4775117f, -0.4861004f,
  -0.7787213f, -0.2838865f, -0.07817309f, -0.6662112f, -0.2516269f, 0.07604671f,
  0.6587859f, 0.6059472f, 0.3336534f, 0.1416845f, -0.02777464f, -0.3333142f,
  -0.3600909f, -0.6235065f, -0.9277489f, -0.3369228f, -0.8984069f, -0.573379f,
  0.4727361f, 0.9634574f, 0.3430178f, -1.333683f, -0.7840897f, 0.4584817f,
  0.5431642f, 0.2754247f, 0.6322838f, -0.2464403f, 0.4129147f, 0.07588862f,
  -0.08102743f, 0.1236127f, 0.1564471f, 0.08616708f, 0.3500048f, 0.5110202f,
  0.3632885f, 0.2592633f, 0.2799114f, 0.535593f, -0.4462766f, -0.4341435f,
  0.553569f, -0.9409462f, -0.1513015f, -1.651402f, -0.5991027f, -0.4271739f,
  -0.9732558f, -0.388828f, -0.500474f, 0.4370472f, 0.4584877f, 0.8407312f,
  0.5491306f, 0.5732853f, 0.3934038f, 0.1769144f, 0.5962896f, -0.2418345f,
  0.9247955f, 0.7110943f, 1.065391f, 1.391468f, 0.3682508f, -0.2166324f,
  0.2210409f, -0.8624395f, -0.9417354f, 0.1432717f, 0.08849768f, 0.7673634f,
  -0.427422f, 0.3306408f, 0.7721185f, -0.6092203f, 0.4516343f, 0.2673679f,
  -0.2767576f, -0.07748554f, -0.1983101f, -0.2725331f, -0.2216029f, -0.1880932f,
  -1.527068f, 0.09429637f, -0.250023f, -0.04432031f, -0.2578893f, -0.08990398f,
  -0.0498644f, 0.2248347f, -0.06440936f, 0.7423879f, 0.9413062f, 0.1429929f
};

const float w11[] PROGMEM = {
  -0.3632671f, 0.4178602f, -0.2833625f, 0.03773925f, -0.1459176f, 0.132398f,
  0.1131425f, 0.08854555f, -0.3104804f, 0.1873744f, -0.1253932f, 0.04517378f,
  0.4513751f, 0.2621785f, -0.2903248f, -0.2248873f, 0.08639435f, 0.4185328f,
  -0.4475343f, 0.04861982f, 0.6266071f, 0.1260481f, 0.0986886f, -0.008859604f,
  0.2599295f, 0.483217f, -0.3626972f, -0.4061555f, 0.382525f, 0.247774f,
  -0.2942575f, 0.3057944f, -0.225951f, 0.1250184f, -0.07764599f, -0.02981425f,
  -0.06426496f, 0.5561922f, 0.1581268f, -0.4045933f, 0.2152577f, -0.5345268f,
  -0.01800316f, 0.4430996f, -0.4492777f, -0.3013279f, 0.0445244f, 0.1751945f,
  -0.5855651f, -0.4866818f, -0.1223101f, 0.4453958f, -0.007023304f, 0.01980557f,
  -0.1785186f, 0.2793798f, 0.2188445f, 0.008858315f, 0.009478494f, 0.06823413f,
  0.4224006f, -0.06830546f, 0.04302273f, -0.3257547f, 0.06102422f, -0.1884568f,
  0.02183191f, 0.08945259f, -0.2528776f, -0.2627278f, -0.5156605f, -0.6974837f,
  0.2018248f, 0.060754f, -0.4856363f, -0.2397853f, -0.4793698f, 0.2820442f,
  0.1824266f, -0.05235417f, -0.3490168f, 0.4749911f, -0.2567005f, -0.1448438f,
  -0.0385904f, 0.3746422f, -0.19418f, -0.1706275f, 0.2206722f, 0.08546121f,
  0.1779027f, 0.06445303f, 0.2298165f, 0.4174361f, 0.2588598f, 0.3535283f,
  0.2088247f, -0.03572949f, -0.4938392f, -0.0203927f, -0.1983066f, -0.343962f,
  -0.2686148f, -0.1216829f, -0.1001714f, -0.5115314f, -0.173238f, -0.2559294f,
  0.07011421f, -0.08409686f, -0.1054909f, -0.6946771f, 0.103376f, 0.1407823f,
  -0.08584172f, 0.1783472f, -0.07585667f, 0.01944401f, -0.2157775f, 0.1819832f,
  0.04278591f, 0.05042424f, -0.1305965f, 0.1481074f, -0.03569848f, -0.2703636f,
  0.1186336f, 0.09746856f, -0.6179686f, 0.1922604f, 0.3784806f, -0.3355767f,
  0.167418f, -0.06409501f, 0.001339118f, -0.4117985f, -0.3256286f, -0.3389435f,
  0.2798423f, -0.5537812f, 0.2030954f, -0.05830878f, -0.03265079f, 0.2710312f,
  0.3714653f, 0.03886857f, 0.3414795f, 0.1985969f, 0.1374349f, -0.05594115f,
  0.2824768f, -0.02713548f, -0.1846433f, 0.04227279f, 0.2334044f, -0.004257819f,
  -0.2318751f, 0.1327434f, -0.2519027f, 0.115796f, -0.08222932f, 0.1562916f,
  0.09203988f, -0.2726032f, 0.03567392f, -0.04452553f, -0.06328352f, -0.2582387f,
  -0.02170432f, -0.03923651f, -0.09292442f, 0.1024398f, 0.3315409f, -0.2559142f,
  0.1232011f, -0.2073324f, 0.3302775f, -0.006676632f, -0.05357245f, -0.2115161f,
  -0.4333517f, 0.2762549f, -0.3344546f, -0.4167279f, 0.9256054f, 0.1305622f,
  -0.1888876f, -0.6362118f, 0.02959748f, -0.2167684f, -0.4794887f, 0.2456512f,
  0.09884024f, 0.09315078f, -0.5510193f, -0.04573854f, -0.0100118f, 0.1297475f,
  -0.7966105f, -0.2648288f, 0.1060444f, -0.3460948f, -0.0547734f, 0.02267921f,
  -0.1812225f, 0.4576172f, 0.0617945f, -0.6478524f, -0.5045224f, 0.3350739f,
  -0.1082992f, 0.6239312f, 0.05600177f, -0.4878335f, 0.2385726f, -0.1721295f,
  -0.1632837f, -0.3110468f, 0.3303287f, 0.07283569f, -0.00791463f, -0.03951488f,
  0.2801617f, -0.007326032f, -0.3716582f, 0.1793129f, 0.04749932f, 0.3304975f,
  0.6435969f, -0.6922569f, -0.5104505f, 0.0519075f, 0.3247096f, -0.3186201f,
  -0.6193569f, 0.2318222f, -0.09794021f, -0.0247152f, 0.2373132f, -0.32646f,
  -0.2579376f, -0.08303136f, -0.2754232f, -0.3126967f, 0.1979368f, 0.463787f,
  -0.196895f, -0.06842516f, -0.274334f, 0.3887356f, -0.08348887f, -0.1685781f,
  -0.06009469f, 0.4963937f, -0.355326f, -0.1350819f, -0.2370254f, -0.1429135f,
  -0.1948892f, 0.06437472f, -0.517952f, -0.3237998f, 0.2963718f, 0.6337446f,
  -0.2937636f, -0.1695285f, 0.2929902f, -0.5463293f, -0.1007226f, 0.4371267f,
  0.02359135f, 0.3354007f, 0.4928637f, 0.09258373f, 0.1585428f, -0.1473898f,
  0.0316531f, 0.01527683f, 0.2120482f, -0.1373481f, 0.05568689f, 0.07633029f,
  0.4173955f, 0.001783493f, -0.1538426f, -0.1705606f, -0.1463417f, 0.1822046f,
  0.2077003f, -0.4555629f, -0.5277053f, 0.1408616f, -0.3002321f, -0.5252985f,
  0.2189018f, 0.1882073f, -0.328704f, 0.02486693f, 0.5668902f, 0.1041892f,
  -0.003432657f, -0.6238192f, -0.3838088f, 0.1325518f, 0.1793367f, -0.1349287f,
  -0.2801811f, -0.1299536f, -0.2463757f, 0.02906937f, -0.2097343f, 0.1629769f,
  0.06307221f, 0.07201174f, 0.07829688f, 0.06382769f, -0.3683287f, 0.1207821f,
  0.1444931f, 0.1005543f, 0.1475008f, 0.4135194f, -0.1125507f, -0.2336291f,
  -0.1327002f, -0.1329651f, -0.01171896f, -0.1138593f, -0.01942907f, 0.162989f,
  0.08919659f, 0.4691332f, -0.03454228f, -0.3951135f, 0.2752653f, -0.04845362f,
  0.08467485f, 0.4653793f, -0.02039455f, -0.178956f, -0.1595809f, -0.1118959f,
  0.12023f, -0.008123086f, 0.1955702f, 0.4564413f, -0.1637443f, 0.2698252f,
  -0.03829877f, 0.05592732f, -0.2962144f, 0.2653693f, -0.9124931f, -0.4051608f,
  -0.02740134f, -0.3601881f, -0.1224927f, -0.2396829f, -0.529584f, -0.1558504f,
  -0.5265003f, 0.1769487f, 0.1226592f, 0.002152294f, 0.2059063f, -0.1413938f,
  0.2118926f, 0.06966501f, 0.314267f, -0.3161073f, -0.4311372f, 0.2901497f,
  0.4838637f, -0.2713828f, -0.3055614f, 0.4337489f, -0.6294343f, 0.4985629f,
  -0.1135631f, 0.1591239f, 0.2914765f, 0.4043398f, 0.02948736f, 0.03975908f
};

const float w12[] PROGMEM = {
  -0.4660076f, -0.6514232f, -0.6442618f, -1.017362f, -0.9040546f, -0.903503f,
  -0.316753f, -0.03127939f, -0.05960703f, -0.3285841f, 0.5932247f, -0.4337349f,
  -0.2054243f, 0.4646969f, 0.2553099f, 0.1891294f, 0.4975843f, 0.8746648f,
  -0.8163314f, 0.002918636f, 0.6216492f, -0.7095904f, -0.5871379f, 0.009931761f,
  0.9776575f, 0.1175422f, -0.7122893f, -1.188898f, -0.7024397f, -0.6570632f,
  1.160085f, 1.217618f, 1.263514f, 1.145406f, 0.2476585f, 1.414856f,
  -0.5922409f, -0.5357159f, -2.125831f, 0.7943692f, 0.351688f, 0.8632429f,
  -1.256828f, 0.2898945f, 0.03858612f, 0.4546716f, 0.5190557f, 0.1540127f,
  -0.4252014f, -0.5452521f, -0.847495f, -0.3316038f, -0.8391068f, -1.202666f,
  0.08373669f, 0.1633012f, -0.6466487f, 0.7662432f, 0.9409232f, 1.100309f,
  -1.204069f, -0.2488598f, -0.09668553f, -0.1404452f, -0.3482109f, 0.2857319f,
  0.691584f, 1.156721f, 0.3807811f, -1.278671f, -1.878743f, -1.466952f,
  -1.700326f, -0.1006458f, 0.05575421f, -0.4934608f, -0.1241408f, 1.002883f,
  -0.386275f, -0.09238032f, 0.3854444f, 0.2132518f, -0.9961922f, -1.149769f,
  0.3976922f, -0.2591028f, -1.009917f, 0.3324998f, -0.5201857f, -0.8371354f,
  1.768086f, 0.9458084f, 0.9581925f, 1.591911f, 0.4061027f, 0.6864631f,
  1.864834f, 1.486033f, 1.285246f, -0.005914673f, -0.4997877f, -0.5014516f,
  -0.3864807f, -0.3754857f, -0.5317901f, -0.4488209f, -0.4763802f, -0.4618955f,
  0.3352463f, -0.1128386f, -1.047102f, -0.5850486f, -0.1518989f, -0.2274184f,
  0.3710901f, 1.290605f, 1.8602f, 0.4001409f, 0.7611818f, 0.1187517f,
  0.231791f, 0.3482435f, 0.2518097f, 0.03929767f, 0.611047f, 0.3404576f,
  0.5275387f, -0.1869405f, 1.29699f, 0.6924053f, 0.305194f, 0.2417306f,
  0.7527885f, 0.3671796f, 0.5292065f, -1.474278f, 1.080257f, 1.175309f,
  -0.6346974f, 0.9122865f, 0.2159101f, 0.3966451f, 0.6625121f, -0.7257481f,
  0.06958272f, 0.1025086f, 0.8652579f, 0.5487897f, 0.7662686f, 0.5384346f,
  0.03899394f, 1.114784f, 0.1346424f, 1.923615f, -0.06678594f, 0.5312524f,
  0.5473132f, 0.05376716f, -1.098391f, 1.476509f, 1.236524f, 0.5724295f,
  1.006155f, 0.4514608f, 0.6565351f, 0.186419f, 0.4699687f, 0.2229004f,
  -0.4673947f, 0.6962178f, 0.5939134f, -0.3150651f, -0.856349f, -0.2638084f,
  0.03104588f, -1.174981f, -1.916015f, 0.2607697f, -1.132578f, -0.9669986f,
  0.6589919f, 0.1597225f, 0.04820546f, 0.7666702f, 0.6422043f, 0.1875746f,
  0.08167838f, 0.02824268f, 0.2037768f, -1.121569f, -0.265633f, -0.4205712f,
  -0.8176949f, -0.004074791f, -0.4070193f, -0.6769204f, -0.4230077f, -0.1587012f,
  0.7806159f, 0.4456752f, 0.4169587f, 0.5528901f, 0.05004374f, 1.032337f,
  -0.0345511f, 0.3452775f, 0.9124835f, -0.1395688f, 0.9596355f, 1.7054f,
  0.2846854f, -0.5822295f, 0.3504868f, 0.4954273f, -0.09327978f, 0.1778813f
};

const float w13[] PROGMEM = {
  -0.3406506f, -0.1893802f, 0.3228123f, -0.8839858f, 0.1387693f, -0.6524965f,
  0.07031987f, 0.8630349f, -0.9082025f, 0.2105933f, 0.04757222f, -0.5988093f,
  0.4551418f, 0.4943423f, -0.6269868f, 0.1203425f, 0.5781016f, -0.4076481f,
  1.37404f, -0.4950224f, -0.5691923f, -0.9118504f, -0.4450372f, 0.6839895f,
  -0.2585756f, 0.6914298f, -0.1858218f, 0.2774454f, -1.236439f, 0.6262537f,
  -1.706867f, 2.005518f, -0.6741596f, 0.339169f, 0.4235162f, 0.5862811f,
  -1.752162f, 2.664423f, -0.04668267f, -0.3675015f, -0.5146631f, 0.09963156f,
  -0.7810087f, 0.2051448f, 0.2337825f, -0.01510875f, 0.05615404f, -0.09642897f,
  -2.907149f, -0.4013556f, -2.330009f, 0.0509511f, -0.5447652f, -1.209461f,
  -0.5581964f, 0.2040067f, 0.8048289f, 0.164167f, -1.045595f, -0.5304063f,
  0.01118518f, 0.5233871f, -0.1242311f, 0.4732555f, 0.7680574f, 0.01375966f,
  -1.85613f, -3.111114f, -1.133125f, 2.717469f, -0.1446748f, -0.04803329f,
  1.28998f, 0.5045773f, 1.268926f, -1.261958f, 1.606134f, 0.4001626f,
  -0.2201287f, -1.159361f, 0.3619546f, 0.2629692f, -0.4477063f, 0.07559197f,
  -0.3859428f, -1.028837f, 2.273395f, -0.7110166f, -0.8971775f, -0.2299913f,
  0.114004f, -0.0305643f, 0.682444f, -1.092898f, 0.1185389f, 0.6157308f,
  0.5918314f, 0.2964514f, 1.211541f, -0.5294207f, -0.2854554f, 0.7169344f,
  -0.6761682f, 1.164992f, -0.7075142f, 1.043588f, -0.2265379f, 1.238598f,
  -0.2889459f, 0.3336238f, 0.5215774f, 0.2791386f, 1.315992f, 0.1033894f,
  0.3837551f, 0.3699703f, 0.9698733f, 0.535184f, 1.805259f, 0.3189925f,
  -2.148794f, -0.7573687f, -0.733443f, 1.195138f, -1.412335f, 1.000868f,
  1.729545f, 0.2596095f, 1.127672f, -0.3958688f, 0.6641092f, -0.2203956f,
  -0.02309489f, -0.2128054f, 0.4265506f, 0.1323039f, -0.5760009f, -0.1317373f,
  -0.5092556f, 0.1541524f, -1.098737f, 0.9335333f, 1.135595f, 0.2090728f,
  1.304633f, 0.6852855f, 0.7908758f, -0.3705725f, 0.3584868f, 0.899929f,
  -0.0004042758f, -0.4683324f, -0.1404222f, 1.118023f, 0.9492361f, -0.2583844f,
  -0.962774f, -0.89928f, 0.8746473f, 1.536782f, 0.1813271f, -0.3704887f,
  0.8015389f, 0.4625113f, 0.5780759f, -0.4571577f, 0.45773f, 1.987222f,
  -0.7455763f, -1.045417f, -0.203904f, 0.07927394f, -0.5831058f, 0.6308666f,
  1.394461f, -0.5878391f, 1.405806f, 0.2429637f, -0.4981281f, -1.073007f,
  0.6435317f, 0.2200056f, 2.049369f, 0.3205017f, 1.330322f, 0.1128738f,
  0.2784099f, -1.070562f, 0.00971179f, -0.604701f, -0.4049696f, -0.5133265f,
  0.3476261f, -1.084851f, -0.008866758f, 0.3392628f, 0.5404289f, -2.005076f,
  0.06333192f, 0.5167858f, -0.3682277f, -0.9708863f, -0.4050486f, -0.6439549f,
  0.6654939f, 0.2812219f, -0.3027353f, -0.2301524f, 1.600648f, 1.538266f,
  0.6196046f, 0.356743f, -0.03375317f, 0.3934112f, -0.1095617f, -0.6299326f,
  -0.05198416f, 1.091414f, -1.034676f, 0.0946243f, -0.07383409f, 0.5293743f,
  -0.9809318f, 1.579056f, -1.560617f, -1.257439f, 0.2364641f, -1.081994f,
  -0.3460519f, 0.4929292f, -1.074263f, 0.6557826f, -0.1365562f, -0.5435303f,
  -0.4953007f, 0.3381426f, -1.319423f, 0.7755051f, -0.03076929f, 0.7505839f,
  0.9047588f, -0.125636f, -0.5792359f, -1.030324f, -0.7613121f, -0.31587f,
  -2.347274f, 1.387438f, -0.5265983f, -0.6788957f, -0.4133582f, -0.6751987f,
  -1.352633f, 0.6695313f, 0.03079755f, -1.372016f, 0.3360059f, 0.2212169f,
  -0.9885586f, -1.985554f, 0.6314015f, 0.2547193f, -1.311154f, 0.6765317f,
  -0.2072195f, -0.4391829f, -0.205525f, -0.2448506f, -1.683278f, -1.011619f,
  0.7263957f, -0.5384585f, 1.412744f, 0.2953505f, 1.780371f, -0.6867672f,
  0.005486025f, 0.5464213f, -0.3715625f, -1.283835f, -0.7988452f, -0.1818012f,
  -0.09965041f, -0.7567903f, 0.8033952f, -0.8567084f, -1.258543f, -0.2933202f,
  -0.4447141f, 0.7878544f, -1.357906f, -0.1642032f, 1.444544f, 1.820909f,
  -1.504033f, -1.345426f, -0.6143135f, 0.9964051f, -1.263444f, -1.227304f,
  -1.401401f, 1.026071f, 0.4479159f, -0.7954965f, 0.8768032f, 0.6121925f,
  -1.641895f, -0.1469537f, 0.6179041f, 1.174454f, -0.4334371f, -1.015431f,
  0.3006372f, -0.4038639f, -0.894579f, 0.8094879f, -0.2372502f, 1.824313f,
  1.49575f, -1.469793f, 0.4515451f, -0.3745471f, -0.5359024f, -2.005927f,
  -0.4502946f, 0.3038838f, 0.7243524f, 0.1264827f, 0.278945f, -0.9542694f,
  -0.2391242f, 0.4778861f, -1.3254f, -1.925522f, -0.110342f, -0.8724757f,
  1.163352f, 0.804069f, -0.6994663f, -0.6992142f, 1.672959f, -1.78707f,
  -0.739181f, 2.062313f, -1.812422f, 0.6396581f, -0.5561963f, 0.1639499f,
  0.4005283f, 0.03194547f, -0.3310282f, -0.4983601f, -1.337592f, 0.8700677f,
  -1.121683f, 1.59182f, -0.06970972f, -0.5556479f, 0.4755014f, 0.7525479f,
  -1.902782f, -0.355662f, -1.137533f, -0.2241698f, -1.378473f, -2.097813f,
  -0.1748821f, 2.222075f, -0.05088845f, -1.663126f, 2.323743f, 2.474447f,
  0.4117812f, -0.0840214f, -0.5032282f, -0.5339652f, -0.4426154f, 0.7280626f,
  -1.017249f, -0.3156053f, -0.3474607f, 0.723536f, -0.3493688f, 0.9653085f,
  -0.8004136f, -0.4294171f, -0.3519031f, -0.2655113f, 1.467378f, -0.227272f,
  0.5921124f, 0.1592309f, 0.1989123f, 0.2462501f, -0.1893947f, -0.4405819f,
  1.254057f, -0.1439829f, 0.3203294f, 1.657157f, 0.5257404f, -0.5663752f,
  0.004681535f, -0.0462249f, -0.3516892f, -0.0437848f, 0.3661065f, 1.245464f,
  0.671659f, -0.09237503f, 0.08857252f, -0.7655314f, 1.291215f, 1.630649f,
  1.546966f, -0.7404127f, -0.2994528f, -0.5264728f, -0.5954574f, -0.774626f,
  1.357617f, -0.3333299f, 0.4093063f, -0.4977908f, -0.2689561f, 0.9106567f,
  1.202193f, 0.645008f, 0.4215968f, -0.788794f, 1.898032f, -1.072837f,
  -0.1198059f, -0.8513508f, 0.5852821f, 0.4845997f, -0.5113097f, 0.4290594f,
  1.159509f, -1.064424f, 1.262533f, 3.319058f, 1.475399f, -1.667711f,
  0.1164517f, -0.03841432f, -0.3046557f, 0.2141546f, -0.7915339f, -0.9683304f,
  0.2214621f, 1.487725f, 0.848445f, 1.316953f, -0.2626938f, 0.4232204f,
  0.06321605f, 0.330233f, 0.68016f, -0.11588f, -1.162375f, -0.07069847f,
  -0.7926058f, 0.5208554f, -0.2119893f, 0.3938841f, 0.06953082f, 0.446602f,
  -0.02986575f, 0.1051727f, 0.233574f, -0.6576647f, -0.5583851f, 0.3399063f,
  0.5525418f, -0.1872808f, 1.175747f, -1.918432f, -0.3134795f, -0.3784626f,
  0.9001988f, 0.8824273f, 2.424197f, -0.5436801f, -0.2214469f, 1.763336f,
  0.1120128f, -0.02229992f, -1.426368f, 2.711869f, 0.09726646f, -0.08419745f,
  -1.151517f, 1.018205f, -0.1979727f, 0.5036568f, 0.7737928f, -0.5324706f,
  0.753874f, 0.8984401f, 0.6112833f, -0.9880016f, 0.6872831f, 0.8450958f,
  0.2627172f, -0.4410168f, -0.4643085f, -0.4037819f, 2.819542f, 0.3661801f,
  1.162611f, 0.1082473f, 0.2735093f, -0.6486883f, 0.01690025f, -1.269019f,
  1.742982f, -0.9904751f, 0.3672179f, -0.1000729f, 0.07540682f, 0.3342914f,
  0.4117098f, 0.6101959f, -0.4726831f, -0.950687f, 0.1530969f, 0.04423006f,
  0.8757659f, 0.7537151f, -0.2324731f, 0.7884482f, -0.7586931f, -2.069663f,
  0.05381336f, 1.939332f, -0.6516436f, -1.273835f, 0.2507034f, 0.2916584f,
  1.270192f, -0.08960321f, -1.602996f, -0.3432819f, -0.9600884f, 0.9416842f,
  1.036902f, 1.483544f, 0.2438063f, -1.749963f, 0.1078964f, -0.2903315f,
  0.9154694f, 1.712838f, -0.165119f, 1.115986f, 0.5854844f, 1.908449f,
  0.9215567f, -0.8527883f, -0.2397742f, -0.9368271f, -0.01409359f, -0.2830502f,
  -0.3224118f, -0.8582121f, 0.6209472f, -0.2911299f, 0.3088316f, -0.2752976f,
  0.9198108f, 1.006148f, -1.512605f, -2.626367f, -0.344535f, -0.3275058f
};

const float w14[] PROGMEM = {
  0.5278276f, 0.6318783f, -0.8665308f, -0.485925f, -0.2338659f, -0.8288307f,
  -0.2922593f, -1.126262f, -0.1466664f, -0.6121845f, -0.07931606f, 0.8719962f,
  -1.262924f, -1.109369f, 0.4906888f, 0.8727286f, -1.067042f, -0.6983818f,
  0.3431077f, 1.001845f, 0.3316547f, -0.743193f, 1.352277f, -0.2118401f,
  -0.6151722f, 0.7201717f, 1.099948f, -0.1977671f, 0.7225065f, 0.8702427f,
  -0.01951815f, -0.1932113f, 0.06563346f, 0.1081738f, -0.1742198f, -1.168491f,
  -0.3847937f, -0.7051092f, -0.4814567f, 1.055563f, 0.05318997f, 0.3190585f,
  -1.229194f, -0.8822889f, -1.023667f, -1.072715f, -0.8182587f, -0.3884485f,
  0.3113241f, -0.7450032f, 0.8306472f, -0.09283674f, -0.7473088f, -0.8778215f,
  -0.03834554f, -0.6024714f, 0.6162432f, 0.7066409f, 0.9185321f, -0.1363591f,
  -0.009840981f, -0.3324666f, 0.945244f, 0.3110186f, 0.6843402f, -1.128042f,
  -0.6763808f, -0.4744504f, -0.7477079f, 0.3846516f, 0.411763f, -0.05244292f,
  -0.6719702f, 0.8496596f, 0.7169325f, -1.26856f, -0.955002f, 0.2617287f,
  -1.549248f, -0.1295598f, -0.01177098f, 0.6063164f, 0.2540198f, -0.418654f,
  1.244358f, 0.8035346f, -0.3857729f, -0.9663846f, -1.094646f, -0.8097482f,
  0.3318287f, -0.2367444f, -0.2059661f, -0.6624799f, -0.4203933f, 0.622646f,
  0.6626903f, -1.370823f, -0.2466758f, -0.686484f, 0.4137411f, 0.3722675f,
  0.08262929f, 0.5718085f, 1.187509f, -0.8527083f, -0.5691431f, -0.1840407f,
  -1.37164f, 0.5531463f, -1.113394f, -0.5567389f, 0.8730862f, 0.8537482f,
  -0.8971518f, -0.3212678f, 0.3580854f, 0.2906246f, 0.04047636f, -0.1252899f,
  0.3523378f, 0.4934932f, -1.160197f, -0.1633356f, -0.4045737f, 0.2771045f,
  1.258956f, -0.698191f, -1.103373f, 0.4240748f, -0.3913746f, -0.4791754f,
  -0.02144424f, 0.5649329f, -0.07977614f, -0.4676856f, 0.1688799f, -0.6941189f,
  0.3605808f, -0.1250436f, 1.122051f, -0.220322f, -0.2408943f, 0.9954063f,
  -0.3565886f, 0.2707978f, -1.034084f, 0.3492295f, 0.7467992f, -0.6226263f,
  0.2430146f, -1.612495f, -0.09105442f, -0.3295618f, -0.1155635f, -1.08424f,
  0.7307869f, -1.405885f, 1.068396f, -0.9105899f, -0.2851818f, 0.8386042f,
  0.3778413f, 0.3108249f, 0.6591668f, 0.06224471f, 0.2277396f, -0.746655f,
  -0.169393f, -0.9344438f, 0.6512093f, 0.06347786f, -1.314978f, 0.9383088f,
  0.3465476f, 0.6762646f, -0.44883f, -0.6247653f, -0.802924f, 0.7872472f,
  -0.1885906f, -0.01176945f, -0.3660434f, 0.6139767f, 0.3129117f, -0.2449177f,
  1.298096f, -0.8908325f, -1.018411f, 0.2336349f, -0.9389136f, -1.173508f,
  0.05944938f, 0.528667f, -0.1386884f, 0.8570293f, 0.3819941f, -0.8096094f,
  0.1561505f, 0.7605637f, -0.6391274f, -0.6294819f, 1.065806f, 0.3626069f,
  0.5278021f, 0.02252011f, -0.4848526f, -0.6541722f, -0.7107648f, -0.7307264f,
  -0.5626204f, 0.7464447f, 0.4812156f, -0.9861469f, -0.9370052f, -0.3783713f,
  -0.4039463f, -0.8349192f, -1.475032f, 0.864918f, -1.046611f, -0.04465435f,
  -0.5084731f, 0.6560929f, 0.09846686f, -0.1091021f, -0.6830273f, 0.5151277f,
  0.09657692f, 0.7648854f, 0.01952165f, -0.1327767f, -0.1562306f, 0.4953944f,
  -0.1643541f, -0.2293335f, -0.8668202f, 1.07497f, 0.5374589f, 0.9052852f
};

// Total floats: 2698, bytes: 10792
