// Auto-generated for AVR PROGMEM.
// Layouts follow Noodle: Conv [O][I][K][K], DW [C][K][K], FCN [O][I].

#pragma once
#include <avr/pgmspace.h>


// ==================================================
// w01.h
// ==================================================

// kind=conv2d, layout=OIHW
// tflite_op_index=0
// dims: Kh=3, Kw=3, Cin=1, Cout=8
// TFLite common: (Cout,Kh,Kw,Cin) -> Noodle: (Cout,Cin,Kh,Kw)
const float w01[] PROGMEM = {
  -3.399248e-01f, 5.015907e-01f, 1.849303e+00f, 1.080494e+00f, -2.217840e-01f, -3.714039e-03f, -9.484089e-02f, -1.318847e+00f,
  3.191777e-01f, -9.656110e-01f, 4.800728e-01f, 1.988176e+00f, -1.243994e+00f, 9.623531e-01f, -2.645665e-01f, -4.794622e-01f,
  9.345716e-01f, -6.032722e-01f, 3.363534e-01f, 9.417599e-01f, 6.925590e-01f, 4.875928e-01f, 1.091912e+00f, 3.893664e-01f,
  -2.804720e-01f, 6.192087e-02f, 2.074238e-02f, 5.310392e-01f, 1.318173e+00f, -2.189154e+00f, 8.224828e-01f, 2.792083e+00f,
  -1.491042e+00f, -5.843679e-01f, 1.048894e+00f, -4.167514e-03f, -1.237268e+00f, 2.308708e-01f, 1.816530e+00f, 4.829364e-01f,
  1.409418e+00f, -1.016778e+00f, 1.073736e+00f, -3.332568e-01f, -7.971673e-01f, -1.303754e-01f, -1.390869e+00f, -5.401709e-01f,
  -6.499211e-01f, -4.504029e-01f, -4.909931e-01f, -8.398362e-01f, -1.834213e-01f, 7.014058e-01f, 9.050612e-01f, -8.071454e-01f,
  3.896226e-01f, 1.544881e+00f, 1.388690e+00f, -1.599135e-01f, -1.230477e+00f, -8.077112e-01f, -2.435544e-01f, 3.051623e-01f,
  4.987400e-02f, 7.528285e-01f, -8.298727e-01f, 1.431741e+00f, 3.751580e-01f, -1.616171e+00f, -1.546930e+00f, -1.427897e+00f
};

// ==================================================
// w02.h
// ==================================================

// kind=depthwise2d, layout=CKK
// tflite_op_index=1
// dims: Kh=3, Kw=3, Cin=8, M=1, Cout=8
const float w02[] PROGMEM = {
  -1.231244e-01f, -3.469054e-01f, 3.540817e-01f, -1.033682e+00f, -8.970477e-01f, -2.533444e-01f, 3.501110e-01f, -2.357291e-01f,
  -4.710732e-01f, -1.785042e-01f, 5.089036e-02f, -1.179603e+00f, -1.383132e-02f, -1.047423e-01f, -5.973665e-01f, 5.293874e-01f,
  4.687431e-01f, 2.746744e-01f, 2.640828e-01f, 7.739427e-01f, -1.496437e-01f, -8.874863e-01f, 9.494339e-01f, 6.542122e-01f,
  4.550121e-01f, -3.363107e-01f, -1.326180e+00f, 1.274065e-01f, 3.730770e-01f, -3.870188e-01f, 3.175418e-01f, 9.187112e-02f,
  -6.437742e-01f, 5.858519e-02f, -3.351872e-01f, -1.511851e-01f, 1.202001e-02f, 3.396565e-01f, 7.142186e-01f, -3.421439e-01f,
  5.843347e-01f, 1.024925e-01f, -5.393362e-01f, -6.258445e-01f, -7.827619e-01f, -7.164207e-01f, -1.999905e+00f, -1.226247e+00f,
  -4.428045e-01f, -9.911247e-01f, -9.099954e-02f, 4.007257e-01f, 5.675398e-01f, -2.612170e-01f, 2.359025e-01f, -5.580951e-01f,
  -1.032378e-01f, 1.505228e-01f, 4.470900e-01f, 2.619415e-01f, 5.369797e-01f, 7.620727e-01f, 2.688020e-01f, 5.737602e-01f,
  4.114926e-01f, 5.210046e-01f, 2.450094e+00f, 7.765217e-01f, -8.455157e-01f, -1.013542e+00f, -1.104504e+00f, -8.871163e-02f
};

// ==================================================
// w03.h
// ==================================================

// kind=conv2d, layout=OIHW
// tflite_op_index=2
// dims: Kh=1, Kw=1, Cin=8, Cout=8
// TFLite common: (Cout,Kh,Kw,Cin) -> Noodle: (Cout,Cin,Kh,Kw)
const float w03[] PROGMEM = {
  4.666404e-01f, 9.853308e-01f, 9.427063e-01f, 2.142835e-01f, -5.379245e-01f, -7.834557e-01f, -1.921456e-01f, 7.776912e-01f,
  7.908763e-01f, -1.642160e-01f, -3.671070e-01f, -9.220352e-01f, -1.427169e+00f, 3.156361e-01f, -6.563923e-02f, 5.839637e-01f,
  -5.124207e-01f, 6.895327e-01f, -2.551436e-02f, -3.468643e-01f, 3.507058e-01f, -2.095062e-01f, 4.190514e-01f, -2.638800e-02f,
  2.300874e-02f, -5.479738e-01f, -2.818277e-01f, 5.165721e-01f, 1.661577e-02f, -1.829293e-01f, -7.300341e-01f, 7.388780e-01f,
  -2.972218e-01f, -1.231209e-01f, 6.485643e-01f, -6.503046e-02f, -3.066041e-01f, 4.958014e-01f, -2.276741e-01f, 3.420497e-01f,
  -1.672310e+00f, -2.293407e-01f, -4.759678e-01f, -7.203996e-01f, 1.209704e+00f, 4.316905e-01f, -1.166117e-01f, -2.242305e-02f,
  2.602385e-01f, -6.148029e-01f, -3.908488e-01f, -8.561270e-01f, 4.086688e-01f, 1.102017e+00f, -6.549759e-02f, 7.718209e-01f,
  -9.751828e-02f, -7.924780e-02f, -4.367298e-01f, 3.251763e-01f, -9.178517e-01f, 2.254751e-01f, -3.454798e-01f, -2.686766e-01f
};

// ==================================================
// w04.h
// ==================================================

// kind=depthwise2d, layout=CKK
// tflite_op_index=3
// dims: Kh=3, Kw=3, Cin=8, M=1, Cout=8
const float w04[] PROGMEM = {
  -1.839824e-01f, -3.193223e-01f, 1.002931e-01f, -8.760616e-01f, 8.393027e-03f, 3.141333e-01f, -1.819405e-01f, -4.932311e-02f,
  1.933619e-01f, 3.164919e-01f, -1.780987e-01f, 1.352500e+00f, -6.571494e-01f, -5.891202e-02f, 2.431198e-01f, 6.252744e-01f,
  1.706288e+00f, 4.124139e-01f, -2.166768e-01f, 6.062343e-02f, 3.269904e-01f, 6.739263e-01f, -1.311458e-01f, -9.353201e-01f,
  -1.599913e-01f, -1.069282e+00f, -2.928507e-01f, -4.239371e-01f, 5.523909e-01f, 9.683580e-01f, 4.563291e-01f, 4.846756e-01f,
  7.873046e-01f, 7.745384e-01f, 2.614281e-01f, 1.120882e-01f, -4.153776e-01f, 2.441705e-01f, -3.824292e-01f, -1.679471e-01f,
  -6.801740e-01f, 7.141010e-01f, 4.685666e-01f, -5.945492e-01f, -7.582425e-01f, -2.891205e-02f, 3.158138e-01f, 2.648111e-01f,
  8.894129e-01f, 3.125533e-01f, 9.399336e-02f, -3.813936e-01f, 1.526380e-02f, -2.794139e-01f, -2.045391e-01f, 1.943339e-01f,
  1.439767e-02f, -2.918805e-01f, -2.416218e-01f, 4.400583e-01f, 2.240350e-01f, 6.310344e-01f, 4.357150e-01f, 1.698215e+00f,
  -1.476388e-01f, 4.245947e-01f, -2.802856e-01f, -1.663768e-01f, 3.746446e-01f, -9.213990e-01f, -1.930101e+00f, -7.841303e-01f
};

// ==================================================
// w05.h
// ==================================================

// kind=conv2d, layout=OIHW
// tflite_op_index=4
// dims: Kh=1, Kw=1, Cin=8, Cout=8
// TFLite common: (Cout,Kh,Kw,Cin) -> Noodle: (Cout,Cin,Kh,Kw)
const float w05[] PROGMEM = {
  6.426531e-01f, -1.243819e-02f, 1.335836e+00f, -2.476748e-01f, 5.372591e-01f, -3.061325e-01f, 6.488925e-01f, 1.837416e-01f,
  -5.466300e-01f, -2.501316e-02f, 2.677863e-01f, -6.348056e-01f, 3.858514e-01f, 2.069642e-01f, 1.275608e-02f, 3.422431e-02f,
  -1.487992e-01f, 3.202141e-01f, -3.313202e-02f, -3.048877e-01f, 2.046603e-01f, 3.308694e-01f, 7.514695e-01f, -1.194069e-01f,
  1.466278e-01f, -1.090989e-01f, -6.345920e-02f, -2.434188e-01f, 2.639397e-01f, -5.879970e-01f, -4.033499e-01f, -2.011579e-01f,
  -2.213562e-01f, -5.715300e-01f, -8.691037e-02f, -4.379179e-01f, -3.793640e-01f, 1.967836e-01f, -1.928632e-01f, 1.694417e-01f,
  -1.270206e-01f, -4.917322e-01f, -2.831137e-01f, -8.305766e-02f, 2.918442e-01f, 7.849708e-02f, 7.387589e-01f, 5.077822e-01f,
  -1.017056e+00f, 3.557852e-02f, -1.795741e+00f, -6.095774e-01f, 1.126049e+00f, 6.682211e-01f, 2.878176e-02f, -6.794214e-01f,
  -9.109437e-01f, -3.603479e-01f, 1.523966e-01f, 4.801131e-01f, 6.737770e-01f, -6.785288e-02f, 5.819367e-01f, -6.667809e-01f
};

// ==================================================
// w06.h
// ==================================================

// kind=depthwise2d, layout=CKK
// tflite_op_index=6
// dims: Kh=3, Kw=3, Cin=8, M=1, Cout=8
const float w06[] PROGMEM = {
  5.086080e-02f, 8.577648e-01f, 5.801761e-01f, 1.962969e-01f, 4.980141e-01f, 3.563337e-01f, -2.140702e-01f, -5.710226e-01f,
  4.605334e-02f, -1.061172e+00f, -1.086990e+00f, -7.207896e-01f, 1.906123e-01f, 5.658069e-01f, 3.410139e-01f, 8.140703e-01f,
  9.720731e-01f, 5.924484e-01f, -2.114469e-01f, 1.016454e-01f, -8.041489e-01f, -2.584759e-01f, 2.249966e-01f, -6.455033e-01f,
  -2.482701e-01f, -2.411860e-02f, -3.046526e-01f, 6.234580e-01f, 7.310554e-03f, 1.357584e-01f, 1.123460e+00f, 5.948713e-01f,
  6.563811e-01f, 8.000814e-01f, 3.720648e-01f, -2.695023e-01f, 5.719315e-01f, 5.064496e-01f, 4.125832e-02f, 7.242352e-01f,
  5.835705e-01f, 6.890938e-02f, 4.649615e-01f, 3.879602e-01f, 1.621414e-01f, 1.090645e-01f, 2.383718e-01f, 2.474882e-01f,
  1.348562e-01f, 4.379531e-01f, 2.767009e-01f, 6.399126e-02f, 1.080243e-01f, 2.418517e-01f, 3.758073e-01f, 2.875538e-01f,
  -2.186391e-02f, 3.917364e-01f, 4.921880e-01f, 2.373010e-01f, 2.511050e-02f, 4.819356e-01f, 3.150924e-01f, 1.489842e-01f,
  2.893775e-01f, 1.616141e-01f, 2.559154e-01f, 4.405778e-01f, -1.730620e-01f, 3.066282e-01f, 9.204897e-02f, -1.026255e-01f
};

// ==================================================
// w07.h
// ==================================================

// kind=conv2d, layout=OIHW
// tflite_op_index=7
// dims: Kh=1, Kw=1, Cin=8, Cout=16
// TFLite common: (Cout,Kh,Kw,Cin) -> Noodle: (Cout,Cin,Kh,Kw)
const float w07[] PROGMEM = {
  -2.540587e-02f, 7.801314e-02f, -4.155833e-01f, -1.493647e+00f, -3.542396e-01f, -1.013019e+00f, -6.415538e-02f, -9.824195e-01f,
  2.394571e-02f, -7.937858e-03f, 3.092452e-01f, 2.328748e-01f, -1.961053e-02f, -4.536487e-01f, -1.189937e-01f, -2.780170e-02f,
  1.459177e-01f, 2.673993e-01f, 5.675736e-01f, -1.629039e-02f, -3.017256e-01f, -4.579448e-01f, -3.784804e-01f, -7.691837e-02f,
  -1.640742e-01f, 1.777189e-01f, 8.878288e-02f, 2.340584e-01f, 3.250813e-01f, -3.008815e-01f, -6.837216e-02f, -3.823760e-01f,
  4.240969e-02f, 4.106771e-01f, -1.671121e-01f, -3.532686e-01f, 5.001057e-01f, 5.361935e-01f, -4.834225e-03f, 2.769817e-01f,
  -3.167846e-02f, 2.851579e-02f, -1.853864e-01f, 2.015597e-02f, 3.928617e-01f, -4.270985e-02f, 6.487306e-01f, -2.996388e-02f,
  3.159651e-01f, 3.534121e-01f, -3.166451e-02f, -5.511124e-01f, 2.984577e-01f, -7.406057e-01f, -3.984493e-01f, -3.957754e-01f,
  -2.603979e-02f, 2.765547e-01f, 1.187569e-01f, -4.996650e-01f, -3.502037e-02f, 3.748902e-01f, 6.420777e-01f, -5.018992e-01f,
  -1.205399e-01f, -1.196375e-02f, -2.982370e-02f, -1.446235e-01f, -1.180054e-01f, 2.620777e-01f, -2.475488e-01f, 6.345383e-02f,
  -2.163613e-03f, 1.572809e-01f, -5.648304e-01f, 1.446725e-01f, -1.058153e-01f, 4.341960e-01f, 1.048424e-01f, -2.448124e-01f,
  4.914756e-02f, 2.971644e-01f, 3.229066e-01f, -5.251357e-01f, -4.868017e-01f, -6.743715e-01f, -7.092373e-02f, 5.171077e-01f,
  2.326698e-01f, 3.075539e-01f, -2.754614e-01f, -3.130916e-01f, -2.592475e-01f, 2.598152e-01f, 4.445339e-03f, 3.950227e-02f,
  7.819905e-01f, -9.218934e-01f, -4.778834e-01f, 2.628430e-01f, -1.558982e-02f, 2.847284e-02f, 5.493439e-01f, -1.816332e-01f,
  3.497480e-01f, -1.822974e-01f, -5.260046e-01f, -1.042543e-01f, 1.176469e-01f, 5.191355e-01f, -5.710077e-02f, 2.766754e-01f,
  -3.040725e-01f, 8.699766e-02f, 1.950514e-01f, 1.149017e-01f, -1.209242e-01f, -4.825093e-01f, 3.183202e-01f, -1.347365e-01f,
  2.004579e-01f, -4.698035e-01f, 1.942537e-01f, 6.244545e-02f, -5.530902e-02f, -9.288012e-01f, 5.221804e-01f, 5.153809e-01f
};

// ==================================================
// w08.h
// ==================================================

// kind=depthwise2d, layout=CKK
// tflite_op_index=8
// dims: Kh=3, Kw=3, Cin=16, M=1, Cout=16
const float w08[] PROGMEM = {
  7.427464e-01f, -2.968038e-01f, -5.247604e-01f, 2.866739e-01f, -6.226869e-01f, 1.857106e-01f, 3.781427e-01f, -3.179303e-01f,
  -2.328728e-01f, -1.177441e-01f, 2.906260e-01f, 4.434285e-01f, -4.194581e-01f, 2.615553e-01f, 1.336696e+00f, 2.689440e-01f,
  1.054203e-01f, 8.424311e-01f, -1.570968e+00f, -1.837374e+00f, 8.820199e-01f, 2.118215e-01f, -7.332956e-01f, -1.001958e-01f,
  -8.536233e-01f, 1.325049e-01f, -6.557209e-01f, 1.024204e+00f, 8.429212e-01f, -5.655605e-01f, 1.171244e-01f, -3.283561e-01f,
  -1.029051e+00f, -3.436067e-01f, -5.470341e-01f, -7.004851e-01f, 9.396699e-01f, 2.632810e-01f, 1.122221e-01f, 1.730379e-01f,
  -5.209652e-01f, -4.077575e-02f, 1.196852e-03f, 5.998150e-02f, -9.176138e-01f, 3.158127e-01f, 3.211775e-01f, -3.651225e-01f,
  5.968761e-01f, 5.725925e-01f, 5.588350e-01f, -4.249911e-01f, -1.179362e-01f, 1.728957e-01f, -6.626909e-01f, -3.573636e-01f,
  -6.137831e-01f, 3.106977e-01f, 3.080036e-01f, -8.769327e-01f, 1.074396e+00f, 3.261039e-02f, -7.615737e-01f, -7.620978e-02f,
  3.717695e-01f, 4.796213e-01f, 2.265927e-01f, 4.977881e-01f, 2.218044e-02f, 9.372909e-02f, 1.162606e-01f, 2.162927e-01f,
  4.850681e-03f, -6.436438e-02f, -1.420591e+00f, 4.162872e-01f, 4.214803e-01f, -3.514000e-01f, -1.376206e-02f, 1.540675e+00f,
  1.294960e+00f, 5.985035e-01f, 8.176897e-01f, -1.050223e+00f, -7.712490e-02f, 2.411527e-01f, 3.606677e-02f, 8.333884e-01f,
  5.413401e-01f, 3.140475e-01f, -7.320185e-01f, -4.645942e-01f, -1.265974e+00f, 6.808621e-02f, 3.086126e-01f, -1.170985e+00f,
  3.636402e-01f, 7.370846e-01f, -1.433903e+00f, -1.852376e-01f, 1.802115e-01f, -1.014020e-02f, 4.365523e-01f, 6.548830e-01f,
  -8.004846e-02f, 5.557286e-01f, 5.957820e-01f, -8.228523e-02f, 8.841351e-02f, -3.875275e-01f, -6.179473e-01f, -7.728669e-01f,
  -1.517364e-01f, -1.696703e-01f, -1.994882e-01f, 3.447491e-01f, 1.483460e-01f, -5.244431e-01f, 2.222970e-01f, -7.221781e-02f,
  1.083948e-01f, 1.907970e-01f, 4.531682e-01f, -3.899449e-01f, -6.114514e-01f, -1.682094e-01f, -9.425708e-01f, 8.071808e-01f,
  1.564796e+00f, -1.011812e-01f, 6.464475e-01f, 6.325106e-01f, -1.050843e+00f, -3.144155e-01f, 2.940259e-02f, -1.039932e+00f,
  1.668452e-02f, -1.197851e+00f, 2.447006e-01f, -9.379447e-02f, -6.181856e-01f, 2.075035e-01f, -3.483072e-01f, -1.919410e-01f
};

// ==================================================
// w09.h
// ==================================================

// kind=conv2d, layout=OIHW
// tflite_op_index=9
// dims: Kh=1, Kw=1, Cin=16, Cout=16
// TFLite common: (Cout,Kh,Kw,Cin) -> Noodle: (Cout,Cin,Kh,Kw)
const float w09[] PROGMEM = {
  -3.532288e-01f, 1.621294e-01f, 4.330612e-01f, -2.844926e-01f, 9.041635e-02f, -2.832577e-02f, 1.685316e-01f, -1.418844e-01f,
  -1.586591e-01f, -9.029251e-02f, 1.467779e-01f, 3.683147e-03f, -2.252592e-01f, 1.589888e-01f, 2.548297e-01f, -3.179648e-01f,
  -2.384683e-01f, -3.407662e-01f, 1.363843e-01f, 3.228364e-01f, -6.294797e-02f, 8.184034e-02f, -8.316687e-02f, 6.952849e-02f,
  -1.900537e-01f, 1.057341e-01f, -1.543977e-01f, -1.859595e-01f, 6.574515e-02f, -3.001058e-02f, -1.809577e-01f, -1.075713e-02f,
  3.115733e-01f, 6.287935e-01f, 9.887388e-02f, -5.100516e-02f, -8.681951e-01f, 3.087523e-01f, 1.090964e+00f, 2.925749e-01f,
  -2.952984e-02f, -1.885972e-01f, -1.331844e-01f, -3.953506e-01f, -2.072501e-01f, -4.467670e-01f, -1.435351e-01f, 5.552222e-01f,
  3.202930e-01f, 4.061959e-01f, -3.042716e-01f, -8.428987e-01f, -3.268762e-01f, -5.013916e-01f, -1.264393e-01f, 2.627347e-01f,
  2.265170e-01f, 7.457418e-01f, -2.745340e-02f, 3.263055e-01f, -4.586542e-01f, -3.600150e-01f, -2.673385e-02f, 1.334063e-01f,
  4.185961e-01f, 4.614429e-01f, -1.543020e-01f, -4.543321e-01f, 4.583322e-01f, -3.359086e-01f, -3.519901e-02f, -1.633619e-01f,
  3.583692e-01f, 5.998891e-02f, 2.083751e-01f, -4.957041e-01f, 1.395597e-01f, -2.344932e-01f, 1.417305e-01f, -4.362140e-01f,
  7.580141e-03f, 2.040350e-01f, 2.255989e-01f, 1.944089e-01f, -3.091812e-02f, 1.126969e-01f, 1.318624e-01f, 2.732393e-01f,
  -5.644796e-01f, -1.320865e-01f, 2.976267e-01f, -2.512452e-01f, -8.035026e-02f, 5.265192e-02f, 3.813773e-02f, -1.208523e-01f,
  5.295164e-02f, 3.505992e-03f, -4.579901e-02f, 7.958396e-03f, 1.295775e-01f, 8.970009e-02f, -5.262808e-01f, 1.231537e-01f,
  -3.393736e-01f, -2.245345e-01f, -2.865778e-01f, -1.480449e-01f, 1.508460e-01f, -1.479421e-01f, -1.031064e-02f, -3.646095e-02f,
  8.211621e-02f, 1.303785e-01f, -7.726973e-02f, 1.448305e-02f, -9.054293e-03f, -3.876526e-01f, -1.148230e-01f, 1.405608e-01f,
  -4.088299e-02f, 3.924961e-02f, -2.079184e-01f, -1.061412e-01f, 4.006980e-01f, -3.037740e-01f, -3.229162e-02f, 1.547829e-01f,
  8.878357e-02f, -1.002384e-02f, 3.395002e-01f, -1.742730e-01f, -9.783329e-03f, 2.670077e-01f, 7.584779e-02f, 1.368937e-01f,
  -1.804061e-01f, 2.113662e-02f, -3.089966e-01f, 3.338592e-01f, -3.794274e-02f, 7.156416e-02f, -8.304036e-02f, -1.600583e-01f,
  -4.437725e-01f, 3.495342e-01f, 1.783725e-02f, 4.559533e-01f, -4.198650e-01f, 1.666369e-01f, 3.742172e-01f, 4.584870e-01f,
  5.871472e-01f, 2.758790e-01f, -2.281577e-02f, -1.576059e-01f, 1.103797e-01f, -1.253291e-01f, 2.191778e-01f, 3.914624e-01f,
  3.122651e-02f, -5.341733e-01f, -7.872284e-02f, -1.031679e-01f, -4.712986e-02f, -3.414998e-01f, -1.961578e-01f, -4.179063e-02f,
  -2.150382e-01f, -1.323557e-01f, -2.797265e-01f, 4.075648e-01f, -3.863940e-01f, 1.084841e-02f, -3.241080e-01f, 2.771844e-02f,
  2.165317e-01f, -2.985987e-01f, 1.055953e-01f, -3.620545e-01f, -5.379250e-01f, 2.276818e-01f, -2.579081e-02f, 2.269093e-01f,
  9.931050e-02f, 5.105261e-02f, 3.027953e-01f, -3.659592e-01f, 1.975844e-01f, 1.722650e-02f, 3.858487e-02f, 1.740223e-01f,
  -4.449079e-01f, 1.724424e-01f, -1.947462e-01f, -3.715478e-02f, -1.562549e-01f, -2.137852e-01f, 6.087523e-02f, -6.422547e-02f,
  9.619991e-02f, 3.197721e-02f, -2.050770e-01f, 5.332390e-02f, -2.610425e-02f, -1.204806e-01f, 1.575401e-01f, 3.591036e-01f,
  4.003686e-02f, -3.017310e-01f, -4.257737e-01f, 7.064217e-01f, 6.441552e-01f, -4.814806e-01f, 2.012753e-01f, -7.702491e-02f,
  -2.023332e-02f, -4.644316e-01f, 6.475134e-01f, -4.202124e-03f, 9.855042e-02f, -1.609102e-01f, -1.109816e-01f, 3.860385e-01f,
  3.058021e-01f, 4.940583e-01f, 1.678183e-01f, -1.086129e-01f, -3.004250e-01f, 2.048590e-03f, 1.192193e-01f, 6.672053e-01f,
  -8.806870e-02f, -4.064355e-01f, 3.681492e-01f, 2.646042e-01f, -1.314546e-01f, 2.309584e-01f, 4.611892e-01f, -1.124784e-02f,
  -2.637316e-02f, -1.769376e-01f, -1.476593e-01f, -4.934398e-01f, 1.098832e-01f, 1.350315e-01f, -4.549751e-01f, 1.219887e-01f,
  8.133880e-03f, 4.627415e-01f, 7.829058e-03f, -1.162877e-01f, 9.766880e-02f, -5.647547e-01f, 2.046071e-01f, -7.234599e-02f
};

// ==================================================
// w10.h
// ==================================================

// kind=depthwise2d, layout=CKK
// tflite_op_index=11
// dims: Kh=3, Kw=3, Cin=16, M=1, Cout=16
const float w10[] PROGMEM = {
  1.077752e+00f, 5.221593e-01f, 4.569875e-02f, -5.246760e-01f, -6.426500e-01f, -7.211157e-01f, -1.027288e+00f, -8.001194e-01f,
  -8.087939e-01f, 1.086186e+00f, 9.860292e-01f, 8.848423e-02f, 7.388733e-01f, 2.937173e-01f, -4.946259e-02f, -2.874309e-01f,
  -1.703754e-01f, -7.737300e-01f, 1.918034e-01f, 6.673787e-01f, 4.787135e-01f, 3.078127e-01f, 5.728206e-01f, 2.046076e-01f,
  5.711840e-01f, 9.330016e-02f, 1.534375e-01f, 6.318486e-01f, -4.388958e-02f, -4.064284e-01f, 5.064775e-01f, 4.104481e-01f,
  2.276532e-01f, -3.832319e-03f, 3.841693e-01f, 3.693814e-01f, -4.303473e-01f, -2.194600e-01f, 2.713174e-01f, 3.052132e-01f,
  6.397839e-01f, 6.485126e-01f, 2.319989e-01f, 2.993807e-01f, -3.146070e-02f, -1.754819e-01f, -4.775117e-01f, -4.861004e-01f,
  -7.787213e-01f, -2.838865e-01f, -7.817309e-02f, -6.662112e-01f, -2.516269e-01f, 7.604671e-02f, 6.587859e-01f, 6.059472e-01f,
  3.336534e-01f, 1.416845e-01f, -2.777464e-02f, -3.333142e-01f, -3.600909e-01f, -6.235065e-01f, -9.277489e-01f, -3.369228e-01f,
  -8.984069e-01f, -5.733790e-01f, 4.727361e-01f, 9.634574e-01f, 3.430178e-01f, -1.333683e+00f, -7.840897e-01f, 4.584817e-01f,
  5.431642e-01f, 2.754247e-01f, 6.322838e-01f, -2.464403e-01f, 4.129147e-01f, 7.588862e-02f, -8.102743e-02f, 1.236127e-01f,
  1.564471e-01f, 8.616708e-02f, 3.500048e-01f, 5.110202e-01f, 3.632885e-01f, 2.592633e-01f, 2.799114e-01f, 5.355930e-01f,
  -4.462766e-01f, -4.341435e-01f, 5.535690e-01f, -9.409462e-01f, -1.513015e-01f, -1.651402e+00f, -5.991027e-01f, -4.271739e-01f,
  -9.732558e-01f, -3.888280e-01f, -5.004740e-01f, 4.370472e-01f, 4.584877e-01f, 8.407312e-01f, 5.491306e-01f, 5.732853e-01f,
  3.934038e-01f, 1.769144e-01f, 5.962896e-01f, -2.418345e-01f, 9.247955e-01f, 7.110943e-01f, 1.065391e+00f, 1.391468e+00f,
  3.682508e-01f, -2.166324e-01f, 2.210409e-01f, -8.624395e-01f, -9.417354e-01f, 1.432717e-01f, 8.849768e-02f, 7.673634e-01f,
  -4.274220e-01f, 3.306408e-01f, 7.721185e-01f, -6.092203e-01f, 4.516343e-01f, 2.673679e-01f, -2.767576e-01f, -7.748554e-02f,
  -1.983101e-01f, -2.725331e-01f, -2.216029e-01f, -1.880932e-01f, -1.527068e+00f, 9.429637e-02f, -2.500230e-01f, -4.432031e-02f,
  -2.578893e-01f, -8.990398e-02f, -4.986440e-02f, 2.248347e-01f, -6.440936e-02f, 7.423879e-01f, 9.413062e-01f, 1.429929e-01f
};

// ==================================================
// w11.h
// ==================================================

// kind=conv2d, layout=OIHW
// tflite_op_index=12
// dims: Kh=1, Kw=1, Cin=16, Cout=24
// TFLite common: (Cout,Kh,Kw,Cin) -> Noodle: (Cout,Cin,Kh,Kw)
const float w11[] PROGMEM = {
  -3.632671e-01f, 4.178602e-01f, -2.833625e-01f, 3.773925e-02f, -1.459176e-01f, 1.323980e-01f, 1.131425e-01f, 8.854555e-02f,
  -3.104804e-01f, 1.873744e-01f, -1.253932e-01f, 4.517378e-02f, 4.513751e-01f, 2.621785e-01f, -2.903248e-01f, -2.248873e-01f,
  8.639435e-02f, 4.185328e-01f, -4.475343e-01f, 4.861982e-02f, 6.266071e-01f, 1.260481e-01f, 9.868860e-02f, -8.859604e-03f,
  2.599295e-01f, 4.832170e-01f, -3.626972e-01f, -4.061555e-01f, 3.825250e-01f, 2.477740e-01f, -2.942575e-01f, 3.057944e-01f,
  -2.259510e-01f, 1.250184e-01f, -7.764599e-02f, -2.981425e-02f, -6.426496e-02f, 5.561922e-01f, 1.581268e-01f, -4.045933e-01f,
  2.152577e-01f, -5.345268e-01f, -1.800316e-02f, 4.430996e-01f, -4.492777e-01f, -3.013279e-01f, 4.452440e-02f, 1.751945e-01f,
  -5.855651e-01f, -4.866818e-01f, -1.223101e-01f, 4.453958e-01f, -7.023304e-03f, 1.980557e-02f, -1.785186e-01f, 2.793798e-01f,
  2.188445e-01f, 8.858315e-03f, 9.478494e-03f, 6.823413e-02f, 4.224006e-01f, -6.830546e-02f, 4.302273e-02f, -3.257547e-01f,
  6.102422e-02f, -1.884568e-01f, 2.183191e-02f, 8.945259e-02f, -2.528776e-01f, -2.627278e-01f, -5.156605e-01f, -6.974837e-01f,
  2.018248e-01f, 6.075400e-02f, -4.856363e-01f, -2.397853e-01f, -4.793698e-01f, 2.820442e-01f, 1.824266e-01f, -5.235417e-02f,
  -3.490168e-01f, 4.749911e-01f, -2.567005e-01f, -1.448438e-01f, -3.859040e-02f, 3.746422e-01f, -1.941800e-01f, -1.706275e-01f,
  2.206722e-01f, 8.546121e-02f, 1.779027e-01f, 6.445303e-02f, 2.298165e-01f, 4.174361e-01f, 2.588598e-01f, 3.535283e-01f,
  2.088247e-01f, -3.572949e-02f, -4.938392e-01f, -2.039270e-02f, -1.983066e-01f, -3.439620e-01f, -2.686148e-01f, -1.216829e-01f,
  -1.001714e-01f, -5.115314e-01f, -1.732380e-01f, -2.559294e-01f, 7.011421e-02f, -8.409686e-02f, -1.054909e-01f, -6.946771e-01f,
  1.033760e-01f, 1.407823e-01f, -8.584172e-02f, 1.783472e-01f, -7.585667e-02f, 1.944401e-02f, -2.157775e-01f, 1.819832e-01f,
  4.278591e-02f, 5.042424e-02f, -1.305965e-01f, 1.481074e-01f, -3.569848e-02f, -2.703636e-01f, 1.186336e-01f, 9.746856e-02f,
  -6.179686e-01f, 1.922604e-01f, 3.784806e-01f, -3.355767e-01f, 1.674180e-01f, -6.409501e-02f, 1.339118e-03f, -4.117985e-01f,
  -3.256286e-01f, -3.389435e-01f, 2.798423e-01f, -5.537812e-01f, 2.030954e-01f, -5.830878e-02f, -3.265079e-02f, 2.710312e-01f,
  3.714653e-01f, 3.886857e-02f, 3.414795e-01f, 1.985969e-01f, 1.374349e-01f, -5.594115e-02f, 2.824768e-01f, -2.713548e-02f,
  -1.846433e-01f, 4.227279e-02f, 2.334044e-01f, -4.257819e-03f, -2.318751e-01f, 1.327434e-01f, -2.519027e-01f, 1.157960e-01f,
  -8.222932e-02f, 1.562916e-01f, 9.203988e-02f, -2.726032e-01f, 3.567392e-02f, -4.452553e-02f, -6.328352e-02f, -2.582387e-01f,
  -2.170432e-02f, -3.923651e-02f, -9.292442e-02f, 1.024398e-01f, 3.315409e-01f, -2.559142e-01f, 1.232011e-01f, -2.073324e-01f,
  3.302775e-01f, -6.676632e-03f, -5.357245e-02f, -2.115161e-01f, -4.333517e-01f, 2.762549e-01f, -3.344546e-01f, -4.167279e-01f,
  9.256054e-01f, 1.305622e-01f, -1.888876e-01f, -6.362118e-01f, 2.959748e-02f, -2.167684e-01f, -4.794887e-01f, 2.456512e-01f,
  9.884024e-02f, 9.315078e-02f, -5.510193e-01f, -4.573854e-02f, -1.001180e-02f, 1.297475e-01f, -7.966105e-01f, -2.648288e-01f,
  1.060444e-01f, -3.460948e-01f, -5.477340e-02f, 2.267921e-02f, -1.812225e-01f, 4.576172e-01f, 6.179450e-02f, -6.478524e-01f,
  -5.045224e-01f, 3.350739e-01f, -1.082992e-01f, 6.239312e-01f, 5.600177e-02f, -4.878335e-01f, 2.385726e-01f, -1.721295e-01f,
  -1.632837e-01f, -3.110468e-01f, 3.303287e-01f, 7.283569e-02f, -7.914630e-03f, -3.951488e-02f, 2.801617e-01f, -7.326032e-03f,
  -3.716582e-01f, 1.793129e-01f, 4.749932e-02f, 3.304975e-01f, 6.435969e-01f, -6.922569e-01f, -5.104505e-01f, 5.190750e-02f,
  3.247096e-01f, -3.186201e-01f, -6.193569e-01f, 2.318222e-01f, -9.794021e-02f, -2.471520e-02f, 2.373132e-01f, -3.264600e-01f,
  -2.579376e-01f, -8.303136e-02f, -2.754232e-01f, -3.126967e-01f, 1.979368e-01f, 4.637870e-01f, -1.968950e-01f, -6.842516e-02f,
  -2.743340e-01f, 3.887356e-01f, -8.348887e-02f, -1.685781e-01f, -6.009469e-02f, 4.963937e-01f, -3.553260e-01f, -1.350819e-01f,
  -2.370254e-01f, -1.429135e-01f, -1.948892e-01f, 6.437472e-02f, -5.179520e-01f, -3.237998e-01f, 2.963718e-01f, 6.337446e-01f,
  -2.937636e-01f, -1.695285e-01f, 2.929902e-01f, -5.463293e-01f, -1.007226e-01f, 4.371267e-01f, 2.359135e-02f, 3.354007e-01f,
  4.928637e-01f, 9.258373e-02f, 1.585428e-01f, -1.473898e-01f, 3.165310e-02f, 1.527683e-02f, 2.120482e-01f, -1.373481e-01f,
  5.568689e-02f, 7.633029e-02f, 4.173955e-01f, 1.783493e-03f, -1.538426e-01f, -1.705606e-01f, -1.463417e-01f, 1.822046e-01f,
  2.077003e-01f, -4.555629e-01f, -5.277053e-01f, 1.408616e-01f, -3.002321e-01f, -5.252985e-01f, 2.189018e-01f, 1.882073e-01f,
  -3.287040e-01f, 2.486693e-02f, 5.668902e-01f, 1.041892e-01f, -3.432657e-03f, -6.238192e-01f, -3.838088e-01f, 1.325518e-01f,
  1.793367e-01f, -1.349287e-01f, -2.801811e-01f, -1.299536e-01f, -2.463757e-01f, 2.906937e-02f, -2.097343e-01f, 1.629769e-01f,
  6.307221e-02f, 7.201174e-02f, 7.829688e-02f, 6.382769e-02f, -3.683287e-01f, 1.207821e-01f, 1.444931e-01f, 1.005543e-01f,
  1.475008e-01f, 4.135194e-01f, -1.125507e-01f, -2.336291e-01f, -1.327002e-01f, -1.329651e-01f, -1.171896e-02f, -1.138593e-01f,
  -1.942907e-02f, 1.629890e-01f, 8.919659e-02f, 4.691332e-01f, -3.454228e-02f, -3.951135e-01f, 2.752653e-01f, -4.845362e-02f,
  8.467485e-02f, 4.653793e-01f, -2.039455e-02f, -1.789560e-01f, -1.595809e-01f, -1.118959e-01f, 1.202300e-01f, -8.123086e-03f,
  1.955702e-01f, 4.564413e-01f, -1.637443e-01f, 2.698252e-01f, -3.829877e-02f, 5.592732e-02f, -2.962144e-01f, 2.653693e-01f,
  -9.124931e-01f, -4.051608e-01f, -2.740134e-02f, -3.601881e-01f, -1.224927e-01f, -2.396829e-01f, -5.295840e-01f, -1.558504e-01f,
  -5.265003e-01f, 1.769487e-01f, 1.226592e-01f, 2.152294e-03f, 2.059063e-01f, -1.413938e-01f, 2.118926e-01f, 6.966501e-02f,
  3.142670e-01f, -3.161073e-01f, -4.311372e-01f, 2.901497e-01f, 4.838637e-01f, -2.713828e-01f, -3.055614e-01f, 4.337489e-01f,
  -6.294343e-01f, 4.985629e-01f, -1.135631e-01f, 1.591239e-01f, 2.914765e-01f, 4.043398e-01f, 2.948736e-02f, 3.975908e-02f
};

// ==================================================
// w12.h
// ==================================================

// kind=depthwise2d, layout=CKK
// tflite_op_index=13
// dims: Kh=3, Kw=3, Cin=24, M=1, Cout=24
const float w12[] PROGMEM = {
  -4.660076e-01f, -6.514232e-01f, -6.442618e-01f, -1.017362e+00f, -9.040546e-01f, -9.035030e-01f, -3.167530e-01f, -3.127939e-02f,
  -5.960703e-02f, -3.285841e-01f, 5.932247e-01f, -4.337349e-01f, -2.054243e-01f, 4.646969e-01f, 2.553099e-01f, 1.891294e-01f,
  4.975843e-01f, 8.746648e-01f, -8.163314e-01f, 2.918636e-03f, 6.216492e-01f, -7.095904e-01f, -5.871379e-01f, 9.931761e-03f,
  9.776575e-01f, 1.175422e-01f, -7.122893e-01f, -1.188898e+00f, -7.024397e-01f, -6.570632e-01f, 1.160085e+00f, 1.217618e+00f,
  1.263514e+00f, 1.145406e+00f, 2.476585e-01f, 1.414856e+00f, -5.922409e-01f, -5.357159e-01f, -2.125831e+00f, 7.943692e-01f,
  3.516880e-01f, 8.632429e-01f, -1.256828e+00f, 2.898945e-01f, 3.858612e-02f, 4.546716e-01f, 5.190557e-01f, 1.540127e-01f,
  -4.252014e-01f, -5.452521e-01f, -8.474950e-01f, -3.316038e-01f, -8.391068e-01f, -1.202666e+00f, 8.373669e-02f, 1.633012e-01f,
  -6.466487e-01f, 7.662432e-01f, 9.409232e-01f, 1.100309e+00f, -1.204069e+00f, -2.488598e-01f, -9.668553e-02f, -1.404452e-01f,
  -3.482109e-01f, 2.857319e-01f, 6.915840e-01f, 1.156721e+00f, 3.807811e-01f, -1.278671e+00f, -1.878743e+00f, -1.466952e+00f,
  -1.700326e+00f, -1.006458e-01f, 5.575421e-02f, -4.934608e-01f, -1.241408e-01f, 1.002883e+00f, -3.862750e-01f, -9.238032e-02f,
  3.854444e-01f, 2.132518e-01f, -9.961922e-01f, -1.149769e+00f, 3.976922e-01f, -2.591028e-01f, -1.009917e+00f, 3.324998e-01f,
  -5.201857e-01f, -8.371354e-01f, 1.768086e+00f, 9.458084e-01f, 9.581925e-01f, 1.591911e+00f, 4.061027e-01f, 6.864631e-01f,
  1.864834e+00f, 1.486033e+00f, 1.285246e+00f, -5.914673e-03f, -4.997877e-01f, -5.014516e-01f, -3.864807e-01f, -3.754857e-01f,
  -5.317901e-01f, -4.488209e-01f, -4.763802e-01f, -4.618955e-01f, 3.352463e-01f, -1.128386e-01f, -1.047102e+00f, -5.850486e-01f,
  -1.518989e-01f, -2.274184e-01f, 3.710901e-01f, 1.290605e+00f, 1.860200e+00f, 4.001409e-01f, 7.611818e-01f, 1.187517e-01f,
  2.317910e-01f, 3.482435e-01f, 2.518097e-01f, 3.929767e-02f, 6.110470e-01f, 3.404576e-01f, 5.275387e-01f, -1.869405e-01f,
  1.296990e+00f, 6.924053e-01f, 3.051940e-01f, 2.417306e-01f, 7.527885e-01f, 3.671796e-01f, 5.292065e-01f, -1.474278e+00f,
  1.080257e+00f, 1.175309e+00f, -6.346974e-01f, 9.122865e-01f, 2.159101e-01f, 3.966451e-01f, 6.625121e-01f, -7.257481e-01f,
  6.958272e-02f, 1.025086e-01f, 8.652579e-01f, 5.487897e-01f, 7.662686e-01f, 5.384346e-01f, 3.899394e-02f, 1.114784e+00f,
  1.346424e-01f, 1.923615e+00f, -6.678594e-02f, 5.312524e-01f, 5.473132e-01f, 5.376716e-02f, -1.098391e+00f, 1.476509e+00f,
  1.236524e+00f, 5.724295e-01f, 1.006155e+00f, 4.514608e-01f, 6.565351e-01f, 1.864190e-01f, 4.699687e-01f, 2.229004e-01f,
  -4.673947e-01f, 6.962178e-01f, 5.939134e-01f, -3.150651e-01f, -8.563490e-01f, -2.638084e-01f, 3.104588e-02f, -1.174981e+00f,
  -1.916015e+00f, 2.607697e-01f, -1.132578e+00f, -9.669986e-01f, 6.589919e-01f, 1.597225e-01f, 4.820546e-02f, 7.666702e-01f,
  6.422043e-01f, 1.875746e-01f, 8.167838e-02f, 2.824268e-02f, 2.037768e-01f, -1.121569e+00f, -2.656330e-01f, -4.205712e-01f,
  -8.176949e-01f, -4.074791e-03f, -4.070193e-01f, -6.769204e-01f, -4.230077e-01f, -1.587012e-01f, 7.806159e-01f, 4.456752e-01f,
  4.169587e-01f, 5.528901e-01f, 5.004374e-02f, 1.032337e+00f, -3.455110e-02f, 3.452775e-01f, 9.124835e-01f, -1.395688e-01f,
  9.596355e-01f, 1.705400e+00f, 2.846854e-01f, -5.822295e-01f, 3.504868e-01f, 4.954273e-01f, -9.327978e-02f, 1.778813e-01f
};

// ==================================================
// w13.h
// ==================================================

// kind=conv2d, layout=OIHW
// tflite_op_index=14
// dims: Kh=1, Kw=1, Cin=24, Cout=24
// TFLite common: (Cout,Kh,Kw,Cin) -> Noodle: (Cout,Cin,Kh,Kw)
const float w13[] PROGMEM = {
  -3.406506e-01f, -1.893802e-01f, 3.228123e-01f, -8.839858e-01f, 1.387693e-01f, -6.524965e-01f, 7.031987e-02f, 8.630349e-01f,
  -9.082025e-01f, 2.105933e-01f, 4.757222e-02f, -5.988093e-01f, 4.551418e-01f, 4.943423e-01f, -6.269868e-01f, 1.203425e-01f,
  5.781016e-01f, -4.076481e-01f, 1.374040e+00f, -4.950224e-01f, -5.691923e-01f, -9.118504e-01f, -4.450372e-01f, 6.839895e-01f,
  -2.585756e-01f, 6.914298e-01f, -1.858218e-01f, 2.774454e-01f, -1.236439e+00f, 6.262537e-01f, -1.706867e+00f, 2.005518e+00f,
  -6.741596e-01f, 3.391690e-01f, 4.235162e-01f, 5.862811e-01f, -1.752162e+00f, 2.664423e+00f, -4.668267e-02f, -3.675015e-01f,
  -5.146631e-01f, 9.963156e-02f, -7.810087e-01f, 2.051448e-01f, 2.337825e-01f, -1.510875e-02f, 5.615404e-02f, -9.642897e-02f,
  -2.907149e+00f, -4.013556e-01f, -2.330009e+00f, 5.095110e-02f, -5.447652e-01f, -1.209461e+00f, -5.581964e-01f, 2.040067e-01f,
  8.048289e-01f, 1.641670e-01f, -1.045595e+00f, -5.304063e-01f, 1.118518e-02f, 5.233871e-01f, -1.242311e-01f, 4.732555e-01f,
  7.680574e-01f, 1.375966e-02f, -1.856130e+00f, -3.111114e+00f, -1.133125e+00f, 2.717469e+00f, -1.446748e-01f, -4.803329e-02f,
  1.289980e+00f, 5.045773e-01f, 1.268926e+00f, -1.261958e+00f, 1.606134e+00f, 4.001626e-01f, -2.201287e-01f, -1.159361e+00f,
  3.619546e-01f, 2.629692e-01f, -4.477063e-01f, 7.559197e-02f, -3.859428e-01f, -1.028837e+00f, 2.273395e+00f, -7.110166e-01f,
  -8.971775e-01f, -2.299913e-01f, 1.140040e-01f, -3.056430e-02f, 6.824440e-01f, -1.092898e+00f, 1.185389e-01f, 6.157308e-01f,
  5.918314e-01f, 2.964514e-01f, 1.211541e+00f, -5.294207e-01f, -2.854554e-01f, 7.169344e-01f, -6.761682e-01f, 1.164992e+00f,
  -7.075142e-01f, 1.043588e+00f, -2.265379e-01f, 1.238598e+00f, -2.889459e-01f, 3.336238e-01f, 5.215774e-01f, 2.791386e-01f,
  1.315992e+00f, 1.033894e-01f, 3.837551e-01f, 3.699703e-01f, 9.698733e-01f, 5.351840e-01f, 1.805259e+00f, 3.189925e-01f,
  -2.148794e+00f, -7.573687e-01f, -7.334430e-01f, 1.195138e+00f, -1.412335e+00f, 1.000868e+00f, 1.729545e+00f, 2.596095e-01f,
  1.127672e+00f, -3.958688e-01f, 6.641092e-01f, -2.203956e-01f, -2.309489e-02f, -2.128054e-01f, 4.265506e-01f, 1.323039e-01f,
  -5.760009e-01f, -1.317373e-01f, -5.092556e-01f, 1.541524e-01f, -1.098737e+00f, 9.335333e-01f, 1.135595e+00f, 2.090728e-01f,
  1.304633e+00f, 6.852855e-01f, 7.908758e-01f, -3.705725e-01f, 3.584868e-01f, 8.999290e-01f, -4.042758e-04f, -4.683324e-01f,
  -1.404222e-01f, 1.118023e+00f, 9.492361e-01f, -2.583844e-01f, -9.627740e-01f, -8.992800e-01f, 8.746473e-01f, 1.536782e+00f,
  1.813271e-01f, -3.704887e-01f, 8.015389e-01f, 4.625113e-01f, 5.780759e-01f, -4.571577e-01f, 4.577300e-01f, 1.987222e+00f,
  -7.455763e-01f, -1.045417e+00f, -2.039040e-01f, 7.927394e-02f, -5.831058e-01f, 6.308666e-01f, 1.394461e+00f, -5.878391e-01f,
  1.405806e+00f, 2.429637e-01f, -4.981281e-01f, -1.073007e+00f, 6.435317e-01f, 2.200056e-01f, 2.049369e+00f, 3.205017e-01f,
  1.330322e+00f, 1.128738e-01f, 2.784099e-01f, -1.070562e+00f, 9.711790e-03f, -6.047010e-01f, -4.049696e-01f, -5.133265e-01f,
  3.476261e-01f, -1.084851e+00f, -8.866758e-03f, 3.392628e-01f, 5.404289e-01f, -2.005076e+00f, 6.333192e-02f, 5.167858e-01f,
  -3.682277e-01f, -9.708863e-01f, -4.050486e-01f, -6.439549e-01f, 6.654939e-01f, 2.812219e-01f, -3.027353e-01f, -2.301524e-01f,
  1.600648e+00f, 1.538266e+00f, 6.196046e-01f, 3.567430e-01f, -3.375317e-02f, 3.934112e-01f, -1.095617e-01f, -6.299326e-01f,
  -5.198416e-02f, 1.091414e+00f, -1.034676e+00f, 9.462430e-02f, -7.383409e-02f, 5.293743e-01f, -9.809318e-01f, 1.579056e+00f,
  -1.560617e+00f, -1.257439e+00f, 2.364641e-01f, -1.081994e+00f, -3.460519e-01f, 4.929292e-01f, -1.074263e+00f, 6.557826e-01f,
  -1.365562e-01f, -5.435303e-01f, -4.953007e-01f, 3.381426e-01f, -1.319423e+00f, 7.755051e-01f, -3.076929e-02f, 7.505839e-01f,
  9.047588e-01f, -1.256360e-01f, -5.792359e-01f, -1.030324e+00f, -7.613121e-01f, -3.158700e-01f, -2.347274e+00f, 1.387438e+00f,
  -5.265983e-01f, -6.788957e-01f, -4.133582e-01f, -6.751987e-01f, -1.352633e+00f, 6.695313e-01f, 3.079755e-02f, -1.372016e+00f,
  3.360059e-01f, 2.212169e-01f, -9.885586e-01f, -1.985554e+00f, 6.314015e-01f, 2.547193e-01f, -1.311154e+00f, 6.765317e-01f,
  -2.072195e-01f, -4.391829e-01f, -2.055250e-01f, -2.448506e-01f, -1.683278e+00f, -1.011619e+00f, 7.263957e-01f, -5.384585e-01f,
  1.412744e+00f, 2.953505e-01f, 1.780371e+00f, -6.867672e-01f, 5.486025e-03f, 5.464213e-01f, -3.715625e-01f, -1.283835e+00f,
  -7.988452e-01f, -1.818012e-01f, -9.965041e-02f, -7.567903e-01f, 8.033952e-01f, -8.567084e-01f, -1.258543e+00f, -2.933202e-01f,
  -4.447141e-01f, 7.878544e-01f, -1.357906e+00f, -1.642032e-01f, 1.444544e+00f, 1.820909e+00f, -1.504033e+00f, -1.345426e+00f,
  -6.143135e-01f, 9.964051e-01f, -1.263444e+00f, -1.227304e+00f, -1.401401e+00f, 1.026071e+00f, 4.479159e-01f, -7.954965e-01f,
  8.768032e-01f, 6.121925e-01f, -1.641895e+00f, -1.469537e-01f, 6.179041e-01f, 1.174454e+00f, -4.334371e-01f, -1.015431e+00f,
  3.006372e-01f, -4.038639e-01f, -8.945790e-01f, 8.094879e-01f, -2.372502e-01f, 1.824313e+00f, 1.495750e+00f, -1.469793e+00f,
  4.515451e-01f, -3.745471e-01f, -5.359024e-01f, -2.005927e+00f, -4.502946e-01f, 3.038838e-01f, 7.243524e-01f, 1.264827e-01f,
  2.789450e-01f, -9.542694e-01f, -2.391242e-01f, 4.778861e-01f, -1.325400e+00f, -1.925522e+00f, -1.103420e-01f, -8.724757e-01f,
  1.163352e+00f, 8.040690e-01f, -6.994663e-01f, -6.992142e-01f, 1.672959e+00f, -1.787070e+00f, -7.391810e-01f, 2.062313e+00f,
  -1.812422e+00f, 6.396581e-01f, -5.561963e-01f, 1.639499e-01f, 4.005283e-01f, 3.194547e-02f, -3.310282e-01f, -4.983601e-01f,
  -1.337592e+00f, 8.700677e-01f, -1.121683e+00f, 1.591820e+00f, -6.970972e-02f, -5.556479e-01f, 4.755014e-01f, 7.525479e-01f,
  -1.902782e+00f, -3.556620e-01f, -1.137533e+00f, -2.241698e-01f, -1.378473e+00f, -2.097813e+00f, -1.748821e-01f, 2.222075e+00f,
  -5.088845e-02f, -1.663126e+00f, 2.323743e+00f, 2.474447e+00f, 4.117812e-01f, -8.402140e-02f, -5.032282e-01f, -5.339652e-01f,
  -4.426154e-01f, 7.280626e-01f, -1.017249e+00f, -3.156053e-01f, -3.474607e-01f, 7.235360e-01f, -3.493688e-01f, 9.653085e-01f,
  -8.004136e-01f, -4.294171e-01f, -3.519031e-01f, -2.655113e-01f, 1.467378e+00f, -2.272720e-01f, 5.921124e-01f, 1.592309e-01f,
  1.989123e-01f, 2.462501e-01f, -1.893947e-01f, -4.405819e-01f, 1.254057e+00f, -1.439829e-01f, 3.203294e-01f, 1.657157e+00f,
  5.257404e-01f, -5.663752e-01f, 4.681535e-03f, -4.622490e-02f, -3.516892e-01f, -4.378480e-02f, 3.661065e-01f, 1.245464e+00f,
  6.716590e-01f, -9.237503e-02f, 8.857252e-02f, -7.655314e-01f, 1.291215e+00f, 1.630649e+00f, 1.546966e+00f, -7.404127e-01f,
  -2.994528e-01f, -5.264728e-01f, -5.954574e-01f, -7.746260e-01f, 1.357617e+00f, -3.333299e-01f, 4.093063e-01f, -4.977908e-01f,
  -2.689561e-01f, 9.106567e-01f, 1.202193e+00f, 6.450080e-01f, 4.215968e-01f, -7.887940e-01f, 1.898032e+00f, -1.072837e+00f,
  -1.198059e-01f, -8.513508e-01f, 5.852821e-01f, 4.845997e-01f, -5.113097e-01f, 4.290594e-01f, 1.159509e+00f, -1.064424e+00f,
  1.262533e+00f, 3.319058e+00f, 1.475399e+00f, -1.667711e+00f, 1.164517e-01f, -3.841432e-02f, -3.046557e-01f, 2.141546e-01f,
  -7.915339e-01f, -9.683304e-01f, 2.214621e-01f, 1.487725e+00f, 8.484450e-01f, 1.316953e+00f, -2.626938e-01f, 4.232204e-01f,
  6.321605e-02f, 3.302330e-01f, 6.801600e-01f, -1.158800e-01f, -1.162375e+00f, -7.069847e-02f, -7.926058e-01f, 5.208554e-01f,
  -2.119893e-01f, 3.938841e-01f, 6.953082e-02f, 4.466020e-01f, -2.986575e-02f, 1.051727e-01f, 2.335740e-01f, -6.576647e-01f,
  -5.583851e-01f, 3.399063e-01f, 5.525418e-01f, -1.872808e-01f, 1.175747e+00f, -1.918432e+00f, -3.134795e-01f, -3.784626e-01f,
  9.001988e-01f, 8.824273e-01f, 2.424197e+00f, -5.436801e-01f, -2.214469e-01f, 1.763336e+00f, 1.120128e-01f, -2.229992e-02f,
  -1.426368e+00f, 2.711869e+00f, 9.726646e-02f, -8.419745e-02f, -1.151517e+00f, 1.018205e+00f, -1.979727e-01f, 5.036568e-01f,
  7.737928e-01f, -5.324706e-01f, 7.538740e-01f, 8.984401e-01f, 6.112833e-01f, -9.880016e-01f, 6.872831e-01f, 8.450958e-01f,
  2.627172e-01f, -4.410168e-01f, -4.643085e-01f, -4.037819e-01f, 2.819542e+00f, 3.661801e-01f, 1.162611e+00f, 1.082473e-01f,
  2.735093e-01f, -6.486883e-01f, 1.690025e-02f, -1.269019e+00f, 1.742982e+00f, -9.904751e-01f, 3.672179e-01f, -1.000729e-01f,
  7.540682e-02f, 3.342914e-01f, 4.117098e-01f, 6.101959e-01f, -4.726831e-01f, -9.506870e-01f, 1.530969e-01f, 4.423006e-02f,
  8.757659e-01f, 7.537151e-01f, -2.324731e-01f, 7.884482e-01f, -7.586931e-01f, -2.069663e+00f, 5.381336e-02f, 1.939332e+00f,
  -6.516436e-01f, -1.273835e+00f, 2.507034e-01f, 2.916584e-01f, 1.270192e+00f, -8.960321e-02f, -1.602996e+00f, -3.432819e-01f,
  -9.600884e-01f, 9.416842e-01f, 1.036902e+00f, 1.483544e+00f, 2.438063e-01f, -1.749963e+00f, 1.078964e-01f, -2.903315e-01f,
  9.154694e-01f, 1.712838e+00f, -1.651190e-01f, 1.115986e+00f, 5.854844e-01f, 1.908449e+00f, 9.215567e-01f, -8.527883e-01f,
  -2.397742e-01f, -9.368271e-01f, -1.409359e-02f, -2.830502e-01f, -3.224118e-01f, -8.582121e-01f, 6.209472e-01f, -2.911299e-01f,
  3.088316e-01f, -2.752976e-01f, 9.198108e-01f, 1.006148e+00f, -1.512605e+00f, -2.626367e+00f, -3.445350e-01f, -3.275058e-01f
};

// ==================================================
// w14.h
// ==================================================

// kind=dense, layout=OI
// tflite_op_index=16
// dims: Din=24, Dout=10
const float w14[] PROGMEM = {
  5.278276e-01f, 6.318783e-01f, -8.665308e-01f, -4.859250e-01f, -2.338659e-01f, -8.288307e-01f, -2.922593e-01f, -1.126262e+00f,
  -1.466664e-01f, -6.121845e-01f, -7.931606e-02f, 8.719962e-01f, -1.262924e+00f, -1.109369e+00f, 4.906888e-01f, 8.727286e-01f,
  -1.067042e+00f, -6.983818e-01f, 3.431077e-01f, 1.001845e+00f, 3.316547e-01f, -7.431930e-01f, 1.352277e+00f, -2.118401e-01f,
  -6.151722e-01f, 7.201717e-01f, 1.099948e+00f, -1.977671e-01f, 7.225065e-01f, 8.702427e-01f, -1.951815e-02f, -1.932113e-01f,
  6.563346e-02f, 1.081738e-01f, -1.742198e-01f, -1.168491e+00f, -3.847937e-01f, -7.051092e-01f, -4.814567e-01f, 1.055563e+00f,
  5.318997e-02f, 3.190585e-01f, -1.229194e+00f, -8.822889e-01f, -1.023667e+00f, -1.072715e+00f, -8.182587e-01f, -3.884485e-01f,
  3.113241e-01f, -7.450032e-01f, 8.306472e-01f, -9.283674e-02f, -7.473088e-01f, -8.778215e-01f, -3.834554e-02f, -6.024714e-01f,
  6.162432e-01f, 7.066409e-01f, 9.185321e-01f, -1.363591e-01f, -9.840981e-03f, -3.324666e-01f, 9.452440e-01f, 3.110186e-01f,
  6.843402e-01f, -1.128042e+00f, -6.763808e-01f, -4.744504e-01f, -7.477079e-01f, 3.846516e-01f, 4.117630e-01f, -5.244292e-02f,
  -6.719702e-01f, 8.496596e-01f, 7.169325e-01f, -1.268560e+00f, -9.550020e-01f, 2.617287e-01f, -1.549248e+00f, -1.295598e-01f,
  -1.177098e-02f, 6.063164e-01f, 2.540198e-01f, -4.186540e-01f, 1.244358e+00f, 8.035346e-01f, -3.857729e-01f, -9.663846e-01f,
  -1.094646e+00f, -8.097482e-01f, 3.318287e-01f, -2.367444e-01f, -2.059661e-01f, -6.624799e-01f, -4.203933e-01f, 6.226460e-01f,
  6.626903e-01f, -1.370823e+00f, -2.466758e-01f, -6.864840e-01f, 4.137411e-01f, 3.722675e-01f, 8.262929e-02f, 5.718085e-01f,
  1.187509e+00f, -8.527083e-01f, -5.691431e-01f, -1.840407e-01f, -1.371640e+00f, 5.531463e-01f, -1.113394e+00f, -5.567389e-01f,
  8.730862e-01f, 8.537482e-01f, -8.971518e-01f, -3.212678e-01f, 3.580854e-01f, 2.906246e-01f, 4.047636e-02f, -1.252899e-01f,
  3.523378e-01f, 4.934932e-01f, -1.160197e+00f, -1.633356e-01f, -4.045737e-01f, 2.771045e-01f, 1.258956e+00f, -6.981910e-01f,
  -1.103373e+00f, 4.240748e-01f, -3.913746e-01f, -4.791754e-01f, -2.144424e-02f, 5.649329e-01f, -7.977614e-02f, -4.676856e-01f,
  1.688799e-01f, -6.941189e-01f, 3.605808e-01f, -1.250436e-01f, 1.122051e+00f, -2.203220e-01f, -2.408943e-01f, 9.954063e-01f,
  -3.565886e-01f, 2.707978e-01f, -1.034084e+00f, 3.492295e-01f, 7.467992e-01f, -6.226263e-01f, 2.430146e-01f, -1.612495e+00f,
  -9.105442e-02f, -3.295618e-01f, -1.155635e-01f, -1.084240e+00f, 7.307869e-01f, -1.405885e+00f, 1.068396e+00f, -9.105899e-01f,
  -2.851818e-01f, 8.386042e-01f, 3.778413e-01f, 3.108249e-01f, 6.591668e-01f, 6.224471e-02f, 2.277396e-01f, -7.466550e-01f,
  -1.693930e-01f, -9.344438e-01f, 6.512093e-01f, 6.347786e-02f, -1.314978e+00f, 9.383088e-01f, 3.465476e-01f, 6.762646e-01f,
  -4.488300e-01f, -6.247653e-01f, -8.029240e-01f, 7.872472e-01f, -1.885906e-01f, -1.176945e-02f, -3.660434e-01f, 6.139767e-01f,
  3.129117e-01f, -2.449177e-01f, 1.298096e+00f, -8.908325e-01f, -1.018411e+00f, 2.336349e-01f, -9.389136e-01f, -1.173508e+00f,
  5.944938e-02f, 5.286670e-01f, -1.386884e-01f, 8.570293e-01f, 3.819941e-01f, -8.096094e-01f, 1.561505e-01f, 7.605637e-01f,
  -6.391274e-01f, -6.294819e-01f, 1.065806e+00f, 3.626069e-01f, 5.278021e-01f, 2.252011e-02f, -4.848526e-01f, -6.541722e-01f,
  -7.107648e-01f, -7.307264e-01f, -5.626204e-01f, 7.464447e-01f, 4.812156e-01f, -9.861469e-01f, -9.370052e-01f, -3.783713e-01f,
  -4.039463e-01f, -8.349192e-01f, -1.475032e+00f, 8.649180e-01f, -1.046611e+00f, -4.465435e-02f, -5.084731e-01f, 6.560929e-01f,
  9.846686e-02f, -1.091021e-01f, -6.830273e-01f, 5.151277e-01f, 9.657692e-02f, 7.648854e-01f, 1.952165e-02f, -1.327767e-01f,
  -1.562306e-01f, 4.953944e-01f, -1.643541e-01f, -2.293335e-01f, -8.668202e-01f, 1.074970e+00f, 5.374589e-01f, 9.052852e-01f
};

// --------------------
