#ifndef B13_H
#define B13_H

#include <stdint.h>

// Auto-generated by txt2h.py on 2026-02-16T03:54:17
// Source count: 128

const float b13[128] = {
  0.6516923f, -2.02315f, 0.8636286f, 0.5724377f, 0.9898281f, 0.08122037f, 1.648842f, 1.37899f,
  1.286365f, 0.3669965f, -0.827186f, -1.760335f, 0.6647491f, 0.3970996f, 1.314034f, -0.3532918f,
  0.4877545f, 0.09836783f, 0.0862735f, -0.1601242f, 0.07009477f, 0.8111858f, 0.28354f, 0.01852586f,
  0.4796105f, 0.02956932f, 0.6546494f, 1.332553f, -1.360152f, 0.5776113f, 0.03713487f, 0.5724096f,
  -0.7060435f, -2.342307f, 0.8259957f, 0.5019209f, -0.5924035f, -0.3168528f, 0.7243991f, -1.381713f,
  0.784059f, 0.9077603f, 0.1386305f, -0.04730932f, -0.2355916f, -0.09367993f, 1.267303f, -0.1378936f,
  0.6958807f, -1.448219f, -0.1693758f, 1.444793f, -0.4450253f, 0.01633932f, -0.6726401f, 0.5834673f,
  1.063422f, -0.2036055f, 0.4359867f, -0.1921082f, 1.349941f, -0.3512689f, 0.5302671f, 0.4610524f,
  0.7718108f, 0.1338724f, -0.09417625f, -0.05470793f, -0.05876128f, 0.5158607f, -2.899504f, 0.4102993f,
  -0.2555034f, 0.971684f, 1.535703f, -0.5777101f, -1.198164f, 0.1238545f, 0.05150901f, 1.53907f,
  0.03580698f, -0.5725698f, 0.7582735f, 0.9436765f, -0.5675663f, 0.9738802f, 0.01019963f, -0.140152f,
  0.3183362f, -0.0318012f, 1.375389f, 0.5252846f, 0.7315747f, 0.4146417f, 0.07775995f, -0.6637409f,
  0.3203756f, -0.1252995f, -0.1180033f, -0.4751386f, 1.177179f, -1.324583f, 0.4107246f, -0.1697828f,
  -0.2262444f, 0.8323032f, 0.7227514f, 0.3419946f, 0.5695937f, 0.9099472f, -0.2391688f, 0.5556065f,
  -0.1144605f, 1.03208f, 0.4174998f, 1.158166f, 0.211202f, 0.4010907f, 0.3876632f, -0.08471459f,
  0.3337618f, 0.613534f, 0.4896266f, 0.8181059f, 0.8050028f, 0.843751f, 1.155914f, 0.3204784f,
};

#define B13_LEN (128u)

#endif // B13_H