#ifndef B14_H
#define B14_H

#include <stdint.h>

// Auto-generated by txt2h.py on 2026-02-16T03:54:17
// Source count: 128

const float b14[128] = {
  1.668116f, -1.001547f, -0.08280097f, 1.275986f, -0.2647896f, -0.07304412f, 0.02761354f, 1.448731f,
  -0.09134974f, 1.190989f, -0.6225839f, -0.3059714f, -0.1164924f, 0.444032f, 1.474146f, -0.07371473f,
  0.05348375f, 0.3772737f, -0.6345619f, -0.60417f, -0.07354079f, -1.745985f, 0.09045339f, -0.2674758f,
  -1.217056f, -0.2173909f, 0.3014204f, -0.265306f, 0.01088636f, -1.318028f, -0.2361921f, 0.03833352f,
  -0.1549695f, 0.4883984f, 1.465549f, 1.008803f, -0.2082663f, 1.15158f, -1.601545f, -0.6694408f,
  -0.7447169f, -0.02527981f, -0.6536409f, -0.1499034f, -0.7041143f, -0.5696471f, -0.3219652f, -0.5537325f,
  -0.1969785f, -0.5604777f, 0.3857051f, 2.165954f, -0.381717f, -0.3247256f, -0.04024588f, 0.4763972f,
  1.475164f, -0.4278046f, 1.124885f, -0.4681548f, 1.072989f, -0.8668181f, -0.8915216f, 0.2079907f,
  -0.09324214f, -0.1212645f, -0.1112652f, -0.4021131f, -0.4771275f, 1.646497f, -0.7307776f, -0.3259265f,
  -0.3539161f, 0.07512529f, -0.03298803f, 0.07754299f, -0.01838388f, -0.7392229f, -0.008905917f, 1.89595f,
  -0.3339993f, 0.006070986f, 0.1909397f, -0.1773228f, -0.7321712f, -0.2000355f, -0.4245765f, -0.5753177f,
  0.4671216f, -0.6082421f, 2.029238f, 0.177587f, -0.7301183f, 1.447853f, -0.03081957f, 0.8048927f,
  -0.1517122f, -0.7977679f, -0.417731f, -0.06697293f, -0.1079747f, -0.1472226f, 1.909613f, -0.5252512f,
  -0.5167896f, -0.3093756f, 0.1430526f, -0.07775982f, -0.2250144f, -0.1207713f, -0.3934569f, 0.1306953f,
  0.08477204f, -0.3931347f, -0.01411495f, -0.1461836f, 0.3383957f, 1.328638f, -0.4829851f, -0.8536046f,
  0.1705567f, -0.06602044f, -0.1020111f, -0.09070811f, -0.8983395f, 0.3125271f, 0.00980635f, -0.2388047f,
};

#define B14_LEN (128u)

#endif // B14_H