#ifndef B15_H
#define B15_H

#include <stdint.h>

// Auto-generated by txt2h.py on 2026-02-16T03:54:17
// Source count: 128

const float b15[128] = {
  -0.07311172f, -0.4663277f, 0.4099132f, 0.7105703f, -0.4122866f, -0.005871676f, 0.5724235f, -1.252751f,
  1.079362f, 0.3274045f, -0.1183763f, 0.05948261f, -0.1120191f, -0.2079147f, -0.256512f, -0.8662824f,
  -1.332735f, -0.01529689f, -0.08462618f, -0.9895432f, -0.1518674f, 1.135965f, -0.1149199f, -0.1804237f,
  0.0006737392f, 0.908383f, -0.06768513f, -0.04275243f, 0.01630796f, -0.1347501f, 0.7309312f, -2.498746f,
  -0.4110384f, 0.3761698f, 0.08161217f, -1.226232f, -0.04719327f, -2.275122f, -0.3030861f, 0.8571553f,
  -0.02334454f, 1.048569f, -0.1208912f, 0.703285f, 0.0967391f, -0.339242f, -0.584913f, -0.1800035f,
  -0.8609132f, 0.0104338f, 0.6689211f, -0.2068478f, -0.02850287f, 0.2499712f, -0.06917044f, -0.2494437f,
  -0.1551379f, -0.1852716f, 0.0180336f, 0.1482583f, -1.031377f, 0.0686244f, 0.3320105f, 0.03677443f,
  0.363463f, 0.09107893f, -1.413998f, 0.9945707f, -1.156479f, -0.06086566f, 0.4159446f, -0.2039319f,
  -0.21287f, 0.1198267f, -0.07525273f, -0.069149f, 0.08393502f, -0.1202632f, 0.7701072f, -0.01286124f,
  0.6687853f, 0.01175105f, -0.2476605f, 0.02795901f, 0.1977486f, 0.03856023f, -0.141387f, -0.05244941f,
  -0.2385039f, -0.1370293f, -0.09062871f, -0.1325687f, -0.2000037f, -1.418125f, -0.887719f, -0.116713f,
  0.8210821f, 0.3155264f, 0.0597258f, -0.05265058f, 0.6608404f, 0.5933232f, 0.1045788f, 1.363756f,
  -0.09284271f, 0.8661697f, -0.09472005f, 0.1032657f, -0.05441946f, -0.03223332f, -0.06826554f, -0.02689325f,
  -0.04471764f, -0.1438591f, -0.2342321f, 0.02466899f, 0.440009f, 0.0340137f, -0.02518097f, 0.0755986f,
  -0.08070967f, -0.2665693f, 0.06686498f, -0.9044185f, -0.9079649f, -0.09782217f, -0.2082958f, 0.1549783f,
};

#define B15_LEN (128u)

#endif // B15_H