#ifndef B17_H
#define B17_H

#include <stdint.h>

// Auto-generated by txt2h.py on 2026-02-16T03:54:17
// Source count: 128

const float b17[128] = {
  0.05417838f, -0.0488134f, -0.1524407f, 0.02135427f, -0.1670454f, -0.02383056f, -0.1337881f, 0.2275751f,
  -0.2130297f, -0.3517573f, -0.07545073f, -0.2179336f, -0.07851411f, 0.04555152f, -0.8692434f, 0.4003149f,
  0.6359972f, -0.03480314f, -0.1066292f, -0.1030098f, -0.1880231f, -0.26515f, -0.06778963f, -0.327371f,
  -0.2364337f, -0.1496185f, -0.1245358f, -0.1828211f, -0.2354705f, -0.2055428f, -0.1994101f, 0.5037519f,
  -0.1630472f, -0.1773306f, 1.175147f, -0.3592445f, -0.1395706f, -0.1491263f, -0.4774879f, -0.3284777f,
  -0.008210499f, 0.007231979f, -0.0163143f, -0.1921704f, -0.03296495f, -0.1370712f, -0.06178912f, 0.0146727f,
  0.7471322f, -0.09234037f, 0.8388587f, -0.01030511f, -0.1927664f, -0.1136649f, -0.3626747f, -0.1951623f,
  0.02224903f, -0.09505887f, -0.03722998f, -0.07700244f, 0.2220399f, -0.1645746f, -0.009956684f, -0.1202592f,
  -0.1235632f, -0.1888333f, -0.1245298f, 0.6128574f, -0.1670867f, 0.01107833f, -0.03621899f, 0.383704f,
  -0.184474f, -0.2388464f, -0.3518806f, -0.3256216f, -0.2615577f, -0.139096f, 0.7827455f, -0.03925087f,
  -0.4062952f, 1.513022f, -0.09628883f, -0.3706032f, -0.2913559f, 0.3915257f, -0.3144843f, -0.3777841f,
  -0.6632321f, -0.0660461f, -0.3823608f, -0.2624077f, -0.01980934f, -0.145326f, -0.08258866f, 0.06255759f,
  -0.3117652f, 0.06037185f, 0.1138026f, -0.02067248f, 0.4946537f, -0.5750492f, 0.0790707f, 0.0155339f,
  -0.1098568f, -0.176715f, -0.3388512f, 0.1622288f, 0.2796795f, -0.3300936f, -0.09847769f, -0.2924604f,
  -0.02030267f, -0.1398135f, 1.426906f, 1.181362f, 0.02616344f, -0.2152492f, -0.2357393f, -1.371483f,
  -0.02431813f, -0.2451012f, -0.07153986f, -0.1584926f, -0.01227636f, -0.2666211f, 1.353945f, 0.5163773f,
};

#define B17_LEN (128u)

#endif // B17_H