#ifndef B19_H
#define B19_H

#include <stdint.h>

// Auto-generated by txt2h.py on 2026-02-16T03:54:17
// Source count: 128

const float b19[128] = {
  -0.08105456f, -0.0721029f, -0.9404063f, -0.04173698f, -0.09141468f, -0.127742f, 0.5074113f, -0.07979697f,
  0.006132673f, -0.1987697f, -0.1155575f, -0.1612988f, -1.653818f, -0.2338464f, -0.1119738f, -0.1460504f,
  1.710011f, -0.2273837f, 0.02716683f, 0.05861202f, -0.09645978f, -0.1624168f, -0.03313685f, 1.094681f,
  -0.1523847f, -0.3262185f, -0.129139f, 0.07232156f, -0.2560067f, -0.1721886f, -0.1023197f, -0.1918618f,
  -0.2290015f, -0.1011652f, -0.7224539f, -0.2062376f, -0.2117186f, -0.1593336f, -0.2453451f, -0.2051958f,
  -0.2371521f, -0.1441113f, 0.009928765f, -0.173881f, -0.1490507f, -0.06800397f, -0.09515915f, -0.07039024f,
  -0.06827047f, 0.5842723f, -0.08293307f, -0.1894658f, -0.01215106f, 0.7575113f, -0.1319007f, -1.261091f,
  -0.1368901f, -0.1068582f, -0.1866582f, -0.1671044f, -0.1942843f, -0.1651466f, -0.1431183f, -0.0796483f,
  -0.06941646f, -0.06759239f, -0.2442119f, -0.2315565f, -0.2230583f, -0.2766465f, 0.5331003f, -0.1614453f,
  -0.1220744f, 0.0550454f, 0.03077856f, 0.2952132f, 0.1292066f, -0.1136192f, -0.01207967f, -0.02665258f,
  -0.2450868f, -0.1469598f, 0.04973014f, -0.1964985f, 1.019179f, -0.1778234f, 0.2466873f, -0.1360352f,
  -0.09900118f, -0.1784641f, -0.1020688f, 0.4129721f, -0.06518984f, -0.1352527f, -0.2190804f, 0.03285437f,
  0.007467678f, -0.1468593f, 0.6844439f, 0.1274776f, -0.1920571f, -0.01845472f, -0.02367746f, 0.009307712f,
  -0.1291744f, -0.3340082f, -0.003737468f, -0.2620094f, -0.03871883f, -0.2247644f, -0.003145675f, -0.3738376f,
  -0.08924073f, -0.07797208f, 0.5070531f, -0.1584235f, -0.1516127f, -0.07009602f, -0.1548551f, 0.4501031f,
  -0.1501308f, -0.1510044f, 0.3695197f, -0.09698845f, -0.06612645f, 0.0188915f, -0.5444819f, 0.03317879f,
};

#define B19_LEN (128u)

#endif // B19_H