#ifndef B21_H
#define B21_H

#include <stdint.h>

// Auto-generated by txt2h.py on 2026-02-16T03:54:17
// Source count: 128

const float b21[128] = {
  -0.2490067f, -0.2030318f, -0.05270568f, -0.1799366f, -0.1691196f, 0.09567223f, -0.3024303f, -0.1722222f,
  0.3230414f, -0.05972455f, 0.08060648f, -0.1549187f, -0.172818f, -0.254898f, -0.04473685f, -0.019718f,
  0.3263504f, -0.1387558f, -0.1279623f, -0.220897f, -0.2122161f, 0.2019629f, 0.05598756f, -0.0464764f,
  -0.06633009f, 0.2999581f, 0.04310979f, 0.04097081f, -0.1448696f, -0.02279779f, -0.1797106f, 0.5659468f,
  0.0003237575f, -0.0548644f, -0.05876063f, -0.2227205f, -0.2753711f, -0.1116607f, -0.1125616f, -0.05593991f,
  0.01308362f, 0.1230399f, -0.139622f, -0.06667922f, 0.007561356f, -0.1866825f, -0.08575737f, -0.148317f,
  -0.2656519f, -0.01825797f, -0.08334065f, -0.06504945f, -0.1357128f, 0.2964942f, -0.1331287f, 0.04392251f,
  -0.01657381f, -0.1534301f, -0.03089499f, -0.2274132f, -1.076355f, -0.07622924f, -0.01116499f, 0.463061f,
  0.1023722f, 0.3221213f, 0.02410914f, -0.07703784f, -0.1125949f, 1.147226f, -0.1038474f, 0.3753282f,
  -0.08771744f, 0.2516795f, -0.1657783f, -0.1013948f, -0.1047149f, -0.03409355f, -0.09946956f, -0.1473408f,
  -0.1916718f, 0.2539716f, -0.1808433f, -0.1006422f, -0.1684942f, -0.1842624f, -0.2935231f, -0.440491f,
  0.3163884f, -0.06920273f, 0.1351599f, -0.242285f, 0.95393f, -0.04444782f, -0.1622086f, -0.01096707f,
  -0.150877f, -0.09274646f, -0.1392114f, -0.1053461f, 0.3819077f, -0.07772252f, 0.02227955f, -0.1848348f,
  -0.1760968f, -0.01135701f, 0.6126457f, 0.02287691f, 0.3237433f, 0.02119975f, -0.06822255f, -0.1663226f,
  -0.08786666f, 0.2493872f, 0.1949381f, -0.009769673f, -0.01033666f, -0.2291374f, 0.2363779f, -0.02044611f,
  -0.08222596f, -0.07447198f, -0.1776053f, -0.04213107f, 0.3615371f, -0.1652947f, -0.09985627f, -0.1639177f,
};

#define B21_LEN (128u)

#endif // B21_H