#ifndef B23_H
#define B23_H

#include <stdint.h>

// Auto-generated by txt2h.py on 2026-02-16T03:54:17
// Source count: 128

const float b23[128] = {
  -0.09446254f, -0.08698426f, 0.4203983f, -0.1122958f, -0.08796666f, -0.03378778f, 0.7525119f, -0.3037417f,
  0.3159719f, 0.7061827f, 0.8827859f, -0.1184883f, 0.1476839f, -0.2278291f, 0.3346734f, 0.2691421f,
  -0.04620805f, 0.2676987f, 0.07314435f, -0.07945816f, -0.1245431f, -0.0268712f, 0.5590768f, -0.05448449f,
  -0.09675868f, -0.06623508f, -0.2685737f, 0.3923133f, 0.04621242f, -0.06195901f, -0.1115341f, 0.01919198f,
  0.3817078f, -0.2077735f, -0.008342814f, 0.04689544f, -0.0006565109f, -0.1614209f, -0.1644298f, 0.3992012f,
  -0.1473831f, 0.06276172f, -0.1327063f, 0.6476068f, -0.260481f, -0.09750494f, -0.2014493f, -0.02751501f,
  0.04376433f, -0.222583f, 0.007476101f, 0.5860278f, 0.9758539f, 0.0240396f, 0.4378986f, -0.002159329f,
  -0.1461395f, -0.1735936f, -0.02480069f, 0.393941f, -0.1243279f, 0.08887171f, 0.08278412f, -0.04481229f,
  -0.1215672f, 0.4981726f, -0.03649661f, -0.02647588f, 0.04571396f, 0.6358597f, -0.03085667f, -0.03930943f,
  0.378597f, -0.05397151f, 0.2556147f, -0.01020458f, 1.113451f, 0.03103476f, 0.2610722f, -0.144344f,
  -0.2368636f, 0.005365913f, 0.005387084f, -0.2284308f, -0.07779174f, 0.425763f, -0.09125448f, 0.01075094f,
  -0.09748551f, 0.05871961f, -0.04064438f, 0.6038648f, -0.1109198f, -0.1307323f, 0.04437885f, -0.03405813f,
  -0.0221684f, 0.6028777f, -0.1516819f, -0.09649986f, -0.06417304f, -0.03315043f, -0.0798521f, -0.2976715f,
  -0.01500416f, -0.02018552f, -0.01061383f, -0.09183747f, -0.02168162f, 0.1218226f, 0.04334517f, 1.021226f,
  0.1206425f, -0.09603128f, -0.1414651f, 0.1784055f, -0.1531875f, -0.1148919f, -0.1500871f, -0.08290509f,
  0.05392742f, 0.0003411211f, 0.4506215f, 0.08573101f, 0.02973203f, -0.01712861f, 0.08268731f, -0.03836241f,
};

#define B23_LEN (128u)

#endif // B23_H