#ifndef W05_H
#define W05_H

#include <stdint.h>

// Auto-generated by txt2h.py on 2026-02-16T03:54:17
// Source count: 512

const float w05[512] = {
  -0.1574847f, -0.2304264f, 0.2159924f, 0.3481937f, 0.1009429f, 0.1567555f, 0.169204f, 0.3936349f,
  0.04273805f, -0.4336912f, 0.1128045f, -0.08530308f, 0.1165669f, 0.07628301f, 0.02231929f, -0.1275868f,
  -0.06947818f, 0.01435726f, 0.02906138f, -0.1976342f, -0.03165578f, -0.03655684f, 0.02289611f, 0.08994924f,
  0.216373f, 0.02184106f, -0.02314422f, 0.06005934f, -0.04605825f, -0.1232753f, 0.07629501f, -0.00823978f,
  -0.647184f, 0.04597582f, 0.6250378f, -0.1682925f, 0.1651799f, 0.1490298f, 0.4472531f, -0.1353934f,
  0.4010576f, -0.7488297f, 0.2552124f, 0.04294276f, 0.1323378f, -0.213299f, 0.01713713f, 0.3933477f,
  -0.02800498f, -0.0897034f, -0.05169398f, -0.1883607f, 0.3642842f, 0.733444f, -0.1144853f, 0.1402695f,
  0.04988218f, -0.2022257f, 0.6267685f, 0.4395851f, 0.0373335f, -0.01497428f, 0.259523f, 0.0922525f,
  0.2168535f, -0.1398595f, -0.4450666f, -0.05779255f, -0.04048081f, 0.1324865f, -0.09421758f, -0.1760454f,
  0.1698578f, 0.3006853f, 0.051412f, 0.4135074f, 0.1403402f, -0.1120264f, 0.07074746f, -0.2880552f,
  -0.01550534f, 0.006174175f, -0.2272038f, 0.1894702f, -0.05613069f, -0.07100141f, 0.1237553f, -0.1333786f,
  0.01146935f, 0.05686285f, 0.008603513f, 0.2879781f, -0.1434662f, 0.01268034f, -0.008659649f, 0.1305414f,
  0.0399905f, 0.1087571f, 0.08780821f, -0.2121873f, -0.1842757f, -0.003711157f, 0.09990394f, -0.4568601f,
  0.09289453f, -0.1168539f, 0.02372513f, 0.1796424f, -0.07379962f, 0.5211887f, -0.03695945f, 0.1873603f,
  0.3840521f, -0.4538309f, -0.07103067f, -0.04629799f, 0.7375062f, 0.1962842f, 0.1447708f, 0.2223563f,
  0.4194661f, 0.3012701f, 0.06770898f, -0.04569967f, -0.05123531f, 0.4649857f, -0.2507775f, -0.1701434f,
  -0.1069564f, 0.05595424f, -0.2374002f, 0.4298988f, -0.0598761f, -0.2920776f, -0.595661f, 0.4846384f,
  -0.2196549f, -0.08660082f, -0.1707712f, -0.1188156f, 0.0566813f, 0.01811982f, -0.2544055f, 0.04220549f,
  -0.04141542f, -0.3966641f, 0.1039019f, 0.3688889f, -0.08414603f, 0.07150745f, 0.6946561f, -0.5044597f,
  0.01097858f, -0.009144546f, 0.178796f, 0.1307325f, 0.04034922f, -0.3793061f, -0.09860485f, 0.05706097f,
  0.1633365f, -0.1455936f, 0.05017454f, -0.3093604f, -0.05927297f, 0.1814209f, 0.204789f, 0.07730437f,
  -0.08027817f, 0.002879117f, 0.05290181f, 0.2718192f, -0.2698885f, 0.6190268f, 0.1585351f, -0.2131544f,
  -0.1154798f, -0.2381875f, 0.04640798f, 0.2514553f, -0.110536f, 0.1345685f, -0.07414621f, -0.2223305f,
  0.6812524f, -0.4440653f, 0.1091611f, 0.06917588f, 0.1811271f, 0.2179115f, -0.07670334f, -0.1400383f,
  -0.7065535f, 0.5005314f, 0.8614376f, 0.147758f, -0.1109149f, 0.1903276f, 0.1598175f, -0.4329609f,
  0.283272f, -0.2147211f, 0.06436814f, 1.27114f, -0.3238126f, -0.3140176f, -0.3380129f, 0.5194334f,
  0.1593885f, -0.1864033f, -0.1431594f, 0.6111043f, 0.2272748f, 0.2728556f, -0.05932539f, -0.2515553f,
  0.1292526f, 0.2052439f, 0.2440143f, -0.03365351f, 0.2087635f, -0.01763905f, -0.3434629f, -0.1068492f,
  -0.0245438f, 0.1203269f, 0.3910957f, -0.9531859f, -0.07349262f, 0.06163182f, 0.1001601f, 0.265685f,
  0.2718428f, 0.3869808f, 0.07634592f, 0.2418913f, -0.21479f, -0.06096552f, 0.01665569f, 0.3211704f,
  -0.05359194f, -0.1554749f, -0.1831237f, -0.211682f, 0.3539585f, -0.25373f, -0.1274924f, -0.4270052f,
  0.07172138f, 0.3997099f, -0.1230788f, 0.4075525f, 0.03591892f, -0.05316596f, -0.2726966f, 0.1324527f,
  0.009137875f, -0.06178972f, 0.4254602f, 0.02823345f, 0.1268916f, 0.04975005f, 0.1064596f, 0.02482153f,
  0.02527783f, -0.5424251f, 0.04694209f, 0.450571f, -0.03135134f, 0.1083302f, -0.3867851f, 0.08574412f,
  0.2409276f, -0.01562573f, -0.02689061f, 0.3016697f, -0.1887168f, -0.09908447f, 0.03941161f, 0.2645524f,
  -0.04935112f, 0.01988044f, -0.05289166f, 0.08845557f, -0.2542269f, 0.1552438f, 0.05471157f, 0.09521586f,
  0.5260331f, 0.3249702f, 0.1500618f, -0.1237722f, 0.7692635f, -0.052683f, 0.1266634f, 0.3185981f,
  -0.1438874f, 0.210267f, -0.03326447f, 0.1268408f, -0.1082212f, 0.4834795f, -0.3267694f, -0.530742f,
  0.2624549f, -0.04145724f, 0.09605473f, -0.0432958f, 0.5145317f, 0.06482588f, -0.02496107f, -0.1032812f,
  0.4294813f, 0.1959966f, 0.03382637f, 0.1805103f, 0.136563f, -0.4116476f, -0.01126451f, -0.3875575f,
  0.02476132f, -0.01575579f, 0.006648303f, -0.008166045f, 0.002819641f, 0.03080456f, -0.2002652f, -0.04456472f,
  0.4346019f, 0.04740559f, -0.02005637f, 0.008408781f, 0.1111907f, 0.07830866f, -0.04237788f, 0.03681288f,
  0.1461388f, -0.1642699f, -0.09474337f, -0.01764911f, 0.2090373f, 0.2300113f, -0.2927877f, 0.1209411f,
  -0.1464514f, -0.07729635f, 0.2720513f, -0.213557f, 0.6251832f, 0.01844978f, 0.2603117f, -0.1246017f,
  0.03012326f, 0.02621298f, -0.01960056f, 0.05785678f, 0.2544293f, -0.01946178f, -0.1054307f, -0.1178616f,
  -0.04157303f, -0.04854767f, -0.02869852f, 0.2975766f, 0.0345359f, -0.1409211f, -0.09093275f, 0.3034637f,
  -0.01445768f, -0.1206471f, -0.5404466f, -0.2957081f, -0.09528238f, 0.02578118f, -0.03706779f, -0.04388904f,
  -0.01152601f, 0.5453003f, 0.02394081f, 0.1867515f, -0.1849592f, -0.2108389f, -0.08184477f, -0.1437407f,
  -0.4378247f, -0.2189415f, 0.3648946f, -0.05038379f, 0.006576305f, 0.2634311f, 0.3802671f, -0.127946f,
  0.1011739f, -0.1027073f, 0.03117029f, 0.2747568f, -0.6914813f, 1.122733f, -0.002518506f, -0.3363344f,
  0.04665758f, -0.00181371f, -0.1672964f, -0.01802874f, 0.08609571f, 0.008491796f, 0.01434665f, -0.02216627f,
  0.01563484f, -0.1030773f, -0.01443406f, 0.2625141f, -0.05616705f, 0.02632778f, -0.0001472743f, 0.09903982f,
  0.3868271f, 0.05639736f, -0.04685248f, 0.2992722f, -0.07964326f, 0.1177538f, 0.2928997f, 0.4002593f,
  0.280975f, -0.1534999f, 0.0192746f, 0.0966436f, -0.0004149929f, 0.503099f, 0.2149536f, 0.4779579f,
  0.1834283f, -0.2289511f, -0.09418094f, -0.03395253f, -0.2358438f, 0.1650845f, 0.01093899f, 0.3050741f,
  -0.06723984f, 0.2739226f, 0.1624648f, 0.09626831f, -0.02796624f, -0.1383569f, 0.1510922f, -0.0290187f,
  -0.199052f, -0.01522754f, -0.2776715f, -0.1313886f, 0.06645477f, 0.02152744f, 0.4479073f, 0.1000281f,
  0.3550771f, -0.1240604f, 0.005932795f, -0.04557356f, 0.721105f, 0.06882097f, 0.246199f, 0.08755495f,
  0.3701801f, 0.286422f, 0.2474752f, 0.5462496f, 0.2526272f, -0.05769593f, 0.3181623f, -0.01201021f,
  -0.1464649f, -1.002766f, -0.05418549f, 0.1257261f, -0.04830549f, 0.4563106f, -0.7089714f, -0.1973853f,
  0.003928277f, 0.07985766f, 0.02041266f, 0.03599409f, -0.01338465f, 0.9775862f, -0.1348694f, 0.115064f,
  -0.1340873f, -0.001227527f, 0.8377773f, -0.01777493f, -0.09410092f, -0.04411036f, 0.08977456f, -0.04044487f,
  -0.2656057f, -0.03101182f, 0.3076189f, 0.1254294f, -0.1489018f, 0.05521493f, 0.06936124f, 0.258706f,
  -0.2032576f, 0.3460543f, 0.1171223f, -0.3128408f, 0.5437691f, 0.5196315f, 0.3172389f, -0.599367f,
};

#define W05_LEN (512u)

#endif // W05_H