#ifndef W07_H
#define W07_H

#include <stdint.h>

// Auto-generated by txt2h.py on 2026-02-16T03:54:17
// Source count: 1024

const float w07[1024] = {
  -0.1448623f, 0.00236849f, 0.04227979f, -0.0281877f, 0.01208698f, -0.03850025f, 0.1054113f, -0.1702304f,
  0.05323287f, -0.06528682f, -0.08946534f, 0.005158806f, 0.4015897f, 0.0862651f, 0.03140163f, 0.03869005f,
  0.006742043f, 0.06133931f, 0.1742142f, 0.03737246f, -0.02449404f, -0.06556489f, 0.1897139f, 0.003491946f,
  -0.07269531f, -0.01608899f, -0.2203099f, -0.05878378f, 0.001586293f, -0.002381108f, -0.08384918f, -0.1005318f,
  0.1494831f, -0.1024964f, -0.0331683f, 0.1780921f, -0.3343516f, -0.3149309f, -0.01009613f, -0.3276527f,
  0.9783449f, -0.2298438f, 0.2013535f, -0.04764528f, -0.06188593f, -0.5097989f, 0.1626925f, -0.3159696f,
  0.1466375f, 0.0747426f, 0.795568f, 0.02540435f, 0.09942925f, 0.10935f, 0.2504787f, 0.1603659f,
  -0.3597849f, -0.05194078f, 0.1869978f, -0.5216036f, -0.04313007f, -0.5390128f, -0.2671255f, 0.07633863f,
  0.09605319f, 0.1053289f, -0.0122751f, 0.007484012f, -0.07237205f, 0.04168662f, 0.1024156f, -0.05493344f,
  0.02669236f, 0.1077054f, 0.04374848f, 0.04291174f, 0.04552682f, -0.05491223f, 0.0779486f, -0.08131457f,
  0.1847476f, 0.02221754f, 0.07924294f, -0.004241765f, 0.09607412f, -0.02220755f, 4.12628e-05f, 0.02973957f,
  -0.03983574f, 0.05687929f, 0.01321496f, -0.03727481f, -0.0224925f, 0.1597677f, -0.2744333f, 0.04463245f,
  -0.01294411f, -0.07581511f, -0.2826923f, -0.02896095f, 0.2843651f, -0.1804104f, -0.0402797f, 0.2501674f,
  0.404804f, -0.495062f, 0.00904613f, -0.1986274f, 0.1235009f, 0.1785298f, 0.09229832f, -0.02460487f,
  0.02757903f, 0.5020694f, -0.1905018f, 0.07560379f, 0.009325244f, -0.4794754f, -0.1284622f, -0.1003517f,
  -0.1030136f, 0.1685457f, -0.03333305f, -0.108484f, -0.1386191f, 0.3100648f, -0.02662816f, -0.1055544f,
  -0.08403949f, -0.05363536f, 0.09079758f, 0.1866143f, -0.2310591f, 0.02155256f, -0.08636826f, -0.05261512f,
  0.009194518f, -0.1064787f, -0.06982265f, -0.03019595f, 0.05281034f, 0.01705644f, -0.02232681f, 0.3348404f,
  -0.04648198f, -0.05981022f, -0.01041037f, 0.01597238f, -0.005696455f, 0.2689381f, 0.01715272f, 0.06209319f,
  0.1238962f, 0.03236575f, 0.03477473f, 0.007280835f, 0.04545376f, -0.03904573f, -0.01915829f, -0.08256222f,
  0.2915031f, 0.1059252f, -0.07917108f, 0.08022431f, 0.1134893f, -0.007595452f, -0.0969111f, 0.008386265f,
  -0.01314893f, -0.3288805f, 0.01514506f, 0.01128505f, -0.05864198f, 0.373955f, -0.03387819f, 0.08487277f,
  0.1679367f, -0.1871695f, 0.08656612f, 0.01410428f, 0.01578409f, 0.2017655f, 0.1547015f, 0.07317663f,
  0.1593466f, -0.003893452f, -0.1994162f, -0.1246824f, -0.1869002f, 0.1209977f, 0.1671821f, 0.08181552f,
  -0.103508f, 0.1180304f, -0.1364933f, 0.1893507f, -0.3319988f, 0.1463171f, 0.1255193f, -0.2951874f,
  -0.1498535f, 0.3543402f, -0.001530375f, -0.08571685f, 0.2681345f, -0.04402453f, 0.04838342f, -0.08347099f,
  0.2623574f, 0.05381986f, 0.08263509f, 0.1578072f, 0.1901633f, -0.0833f, 0.008953075f, 0.04081814f,
  -0.3381391f, 0.2149489f, 0.1891495f, -0.04304882f, -0.2208864f, 0.01604723f, -0.4055073f, 0.08110856f,
  0.3918227f, 0.1668556f, -0.0216228f, -0.1731328f, 0.1811122f, -0.04392739f, 0.3936189f, -0.2412519f,
  0.3990101f, -0.1033959f, -0.1309254f, 0.4938185f, 0.05181365f, 0.3013323f, -0.2004374f, -0.008493142f,
  -0.007605706f, -0.0792716f, 0.0634044f, 1.082591f, -0.02283744f, 0.4918671f, 0.07964744f, 0.2460127f,
  -0.3157821f, 0.1402011f, 0.3471685f, -0.2522287f, 0.1216462f, 0.2960955f, -0.09628469f, -0.08742873f,
  0.2757419f, -0.1365834f, 0.2379121f, 0.2948665f, -0.07437994f, 0.06748619f, 0.09649334f, 0.2655098f,
  -0.05281084f, -0.112839f, 0.3341872f, 0.08809727f, -0.3890684f, 0.05681159f, -0.1145168f, -0.1526716f,
  -0.1413406f, 0.1591026f, -0.02912789f, -0.2704569f, 0.02295964f, 0.1426611f, 0.09824158f, 0.0004769224f,
  -0.09578612f, -0.003614657f, 0.04810207f, 0.3884224f, 0.1183956f, -0.106779f, -0.4888788f, 0.1102648f,
  -0.009444126f, 0.007349657f, -0.1054327f, 0.1760189f, 0.00677522f, 0.02831601f, -0.008186935f, -0.01979572f,
  -0.02153857f, 0.04943771f, -0.06774235f, -0.04379568f, 0.2752509f, 0.02405317f, -0.04314933f, 0.03687568f,
  0.06974348f, -0.046749f, 0.02843471f, -0.002970972f, -0.01545521f, -0.04396231f, -0.175198f, 0.08123234f,
  0.1004546f, 0.03517541f, -0.06705544f, -0.1987785f, 0.0008677364f, 0.04162986f, -0.002644456f, -0.06254287f,
  0.1706741f, -0.4937781f, 0.2885429f, 0.5227816f, 0.1419396f, 0.2762321f, -0.2390886f, -0.3203363f,
  -0.1130222f, 0.29236f, 0.02761892f, -0.6300766f, -0.01408641f, -0.0353019f, 0.1258466f, -0.3497823f,
  0.1119316f, 0.1639132f, -0.3300619f, -0.2120817f, -0.2682296f, 0.2714258f, -0.279716f, -0.3741931f,
  0.268243f, -0.101543f, -0.1759393f, 0.07087827f, -0.1091346f, -0.1589203f, -0.1031734f, 0.1836136f,
  0.4285307f, -0.1924286f, -0.09920651f, -0.1658972f, 0.2216645f, -0.01303609f, -0.2057511f, 0.07148581f,
  0.1550883f, 0.0218436f, 0.2429172f, -0.1043957f, 0.2960981f, -0.4779066f, 0.08506139f, -0.3054775f,
  -0.1297953f, 0.1641519f, 0.05570408f, 0.2121758f, -0.3363253f, -0.2321431f, 0.173473f, -0.04362147f,
  -0.08384638f, 0.115224f, -0.02007776f, -0.2386056f, -0.1266922f, -0.05441598f, -0.2007641f, 0.04013721f,
  0.1501755f, 0.2818578f, 0.002396034f, -0.1932796f, -0.1503106f, -0.4561539f, -0.07055261f, -0.1027889f,
  -0.3590402f, -0.0520324f, -0.1073105f, 0.04662429f, -0.009497069f, -0.01819131f, -0.09611421f, -0.1244052f,
  -0.01320822f, 0.6355671f, -0.2729265f, 0.3181342f, -0.05894821f, -0.1390786f, -0.1558183f, -0.1507315f,
  0.2461821f, 0.2683311f, 0.4526549f, -0.1065303f, -0.03575177f, -0.1277282f, 0.1470004f, -0.02927857f,
  0.186395f, -0.03884269f, 0.0122684f, -0.06343569f, 0.1112573f, 0.2386243f, -0.05794148f, 0.09176508f,
  -0.1337551f, 0.3345035f, 0.09914117f, -0.1458433f, -0.1327337f, 0.05673975f, -0.1170778f, 0.06378987f,
  0.1614993f, -0.02529538f, -0.07559999f, 0.1743332f, -0.07969198f, -0.008309252f, 0.1218261f, 0.3108005f,
  0.0604487f, 0.3506974f, -0.1121131f, -0.123378f, 0.5228783f, 0.1269299f, 0.1252099f, 0.07012934f,
  0.01187902f, 0.01126486f, -0.038506f, 0.7676f, 0.1837543f, -0.3882219f, 0.9548188f, 0.2251291f,
  0.1921167f, -0.4456787f, 0.6820288f, 0.097932f, -0.6167366f, 0.3883623f, 0.1854248f, -0.1026023f,
  -0.1544452f, 0.05629883f, -0.1985995f, -0.071819f, -0.1770647f, 0.03588383f, -0.5112128f, -0.1935822f,
  0.01532907f, 0.1103197f, 0.8628325f, -0.6028585f, -0.3389318f, 0.0405672f, 0.6953931f, -0.6823191f,
  0.5458366f, -0.3312569f, 0.03331634f, -0.1452914f, -0.05750971f, -0.03388887f, -0.008220794f, -0.4905916f,
  -0.172555f, -0.1490026f, -0.09068139f, -0.01924872f, 0.4519122f, -0.4103988f, 0.1497828f, 0.03190869f,
  1.209094f, -0.2229425f, -0.3362672f, 0.1592743f, -0.1827091f, -0.2155932f, -0.6588581f, 0.2815462f,
  0.1317662f, 0.3211004f, 0.2119121f, -0.003242108f, -0.103545f, 0.3759515f, 0.03917341f, -0.367802f,
  -0.02402946f, 0.1612665f, 0.01283715f, -0.1260463f, 0.0186527f, -0.09361345f, -0.03878722f, -0.2621051f,
  -0.03131122f, -0.1689764f, 0.08999558f, -0.2399224f, -0.07524902f, 0.0909295f, 0.06424811f, 0.04338104f,
  -0.3687387f, 0.05913225f, 0.5029989f, -0.1158843f, 0.07713424f, 0.3144868f, 0.07112208f, 0.1477124f,
  -0.07664536f, -0.1153769f, -0.1153269f, -0.4400184f, 0.05475616f, 0.3737166f, -0.04396575f, 0.1091769f,
  0.0315957f, 0.203249f, -0.06322684f, 0.1246785f, 0.07790284f, -0.006678268f, -0.02913432f, -0.006438191f,
  -0.2242373f, -0.08601449f, 0.06801468f, -0.0318819f, -0.04617622f, 0.03178319f, 0.236511f, -0.004530194f,
  -0.0795562f, -0.0501876f, -0.1648958f, -0.001297423f, 0.3729804f, 0.06255753f, -0.05444959f, 0.01477827f,
  -0.00156329f, -0.004206054f, 0.07774152f, 0.1273593f, -0.1329812f, -0.05503863f, -0.2155389f, -0.008563724f,
  -0.003741006f, -0.3037395f, -0.1266899f, -0.1075959f, 0.07636735f, 0.277494f, -0.08394699f, 0.01426472f,
  0.1993707f, 0.2201257f, -0.06281015f, 0.1171826f, -0.06837575f, -0.1453981f, -0.1287919f, 0.1016855f,
  0.06310437f, 0.1955644f, 0.06163835f, -0.241476f, -0.05476687f, -0.04454096f, -0.4372334f, -0.175836f,
  -0.04224437f, -0.3915917f, -0.01519216f, -0.08540908f, 0.1396387f, -0.07647246f, -0.4125334f, 0.1418231f,
  0.01366469f, 0.1102166f, -0.01337652f, -0.01582992f, -0.1824816f, -0.1703188f, -0.2560875f, -0.005821011f,
  -0.1418804f, 0.01078244f, -0.1710884f, -0.25493f, -0.1067748f, 0.1493796f, 0.005173285f, 0.4578837f,
  -0.4186856f, -0.2448178f, 0.3420091f, 0.007162888f, 0.04513921f, 0.1798171f, -0.2822666f, 0.6239201f,
  0.3879531f, -0.03391816f, 0.180367f, 0.1264539f, -0.1038916f, 0.4993623f, 0.5112692f, 0.08293743f,
  0.2394042f, 0.1523141f, -0.01523429f, -0.04862873f, 0.09613566f, 0.2503687f, -0.3787782f, 0.05868328f,
  0.084021f, -0.1311006f, -0.1774392f, -0.1030414f, -0.3015617f, -0.2743315f, 0.1015063f, 0.1578523f,
  -0.07066087f, -0.1084122f, -0.2692562f, 0.1829988f, 0.1847435f, 0.3588738f, 0.06111981f, -0.1272584f,
  -0.0375022f, -0.1947674f, 0.006532332f, 0.01778152f, -0.118876f, 0.460739f, 0.1541938f, 0.3510582f,
  0.05808092f, -0.04147712f, 0.2618068f, -0.2686557f, -0.1795321f, 0.3670333f, -0.1355381f, 0.008852655f,
  -0.1542789f, -0.04690605f, 0.07178887f, 0.07078703f, -0.3724139f, -0.0221158f, 0.05612816f, 0.1018059f,
  0.1926948f, 0.09753024f, -0.1431419f, 0.1226894f, -0.01853224f, -0.01009364f, -0.3365332f, 0.006747684f,
  -0.1845034f, 0.04714882f, 0.1425063f, -0.01874027f, -0.05023546f, 0.1373281f, 0.00106218f, -0.1123403f,
  0.233687f, 0.1588217f, -0.06039415f, -0.410529f, -0.3157437f, 0.07349546f, -0.01348947f, -0.1279821f,
  -0.03915571f, 0.3952691f, 0.06145928f, 0.02668029f, -0.1826244f, -0.2966326f, 0.04572894f, -0.2761522f,
  0.09819118f, 0.85812f, 0.003224591f, 0.1592391f, 0.245365f, -0.2870235f, 0.1770348f, -0.1350534f,
  -0.2358892f, -0.2237845f, 0.7975709f, 0.3013361f, -0.1526236f, -0.01232901f, 0.0882187f, 0.1127217f,
  -0.1319047f, -0.1795557f, 0.1515564f, 0.2543857f, 0.01373574f, 0.37436f, 0.4186372f, -0.2089164f,
  -0.2817405f, -0.09723821f, 0.03696818f, 0.4463081f, -0.1466236f, 0.0411478f, -0.103489f, 0.1562794f,
  -0.2046035f, -0.5158718f, -0.1199514f, 0.04331423f, -0.293215f, 0.2859879f, -0.1853812f, -0.181273f,
  0.03306958f, -0.2630769f, 0.01607808f, -0.2094199f, 0.28173f, -0.08652426f, 0.2151214f, -0.5034699f,
  0.3034462f, -0.439384f, 0.05496184f, -0.06519984f, 0.1599959f, -0.1243262f, -0.4146608f, 0.1136923f,
  -0.1170537f, -0.3780713f, -0.1380794f, -0.2528833f, 0.08261814f, 0.3544021f, 0.003937823f, 0.1164828f,
  -0.01976676f, 0.4505561f, -0.2742405f, -0.1616447f, -0.3375044f, 0.2043381f, -0.1518674f, -0.1763908f,
  0.1554292f, -0.06796139f, -0.1210795f, 0.08777995f, -0.1445352f, -0.1232419f, 0.1782555f, -0.1681626f,
  -0.2794223f, 0.1500459f, -0.2657557f, -0.05708389f, -0.5812283f, -0.05871134f, 0.03678218f, 0.08190034f,
  0.02694043f, -0.05174775f, -0.1940883f, -0.1060978f, -0.1215526f, 0.125582f, 0.05624594f, 0.3148986f,
  0.008106459f, 0.223327f, 0.1104713f, -0.01995915f, 0.1782068f, 0.009645217f, -0.1064882f, -0.03153355f,
  -0.1848653f, 0.02635791f, 0.1489838f, -0.1565204f, 0.09518814f, 0.1488819f, 0.02738925f, -0.04566684f,
  -0.197026f, -0.1035961f, 0.144666f, 0.1252595f, -0.1291721f, -0.106692f, 0.000874757f, -0.183798f,
  -0.1343343f, 0.08932009f, 0.009297235f, -0.05631932f, 0.4472738f, 0.09720787f, -0.1107868f, 0.3174795f,
  -0.01080827f, -0.0820451f, -0.3783883f, 0.08860295f, -0.07211202f, 0.1893388f, 0.2463233f, -0.1621339f,
  0.205922f, 0.2877755f, -0.3718212f, -0.4318562f, 0.01234495f, -0.2399739f, -0.1646797f, 0.2055618f,
  -0.1988782f, -0.1511738f, 0.6518006f, 0.04440105f, -0.2453461f, -0.4315312f, 0.2380098f, -0.3825713f,
  0.01575693f, 0.4018032f, 0.2369955f, -0.02031844f, -0.07520378f, 0.4998015f, -0.03880573f, 0.1526286f,
  0.1869754f, 0.09616984f, -0.09746677f, -0.03188032f, -0.160272f, 0.05404883f, 0.06362873f, 0.5383587f,
  -0.1518558f, 0.5004993f, -0.1240602f, 0.7010939f, -0.09794948f, 0.05449404f, -0.2527083f, -0.1564366f,
  -0.1802789f, 0.3723966f, -0.04088298f, -0.001989775f, 0.0437311f, 0.1849444f, 0.4747104f, 0.1243292f,
  -0.03600943f, -0.2123235f, 0.1047334f, 0.1467366f, -0.007593046f, 0.1662605f, -0.1086035f, -0.2505351f,
  -0.09866689f, 0.1580891f, -0.01491556f, 0.6259084f, 0.1184567f, -0.1802448f, -0.1382535f, -0.2174597f,
  0.04296927f, -0.138136f, -0.0398174f, -0.08205646f, 0.02696474f, 0.1140746f, 0.06543352f, -0.371496f,
  -0.2103413f, -0.1830686f, 0.3099942f, 0.006180739f, -0.1878609f, 0.9346817f, 1.129195f, 0.3345068f,
  -0.1339775f, -0.0601859f, -0.1334145f, 0.5386465f, 0.4712394f, 0.0539f, 0.03650207f, 0.5152427f,
  -0.3124857f, -0.536814f, -0.2405444f, 0.06691839f, -0.09435628f, -0.3646871f, 0.3552095f, 1.011556f,
  -0.7504f, 0.1305484f, -0.5131675f, -0.01952655f, 0.02137475f, 0.06130541f, 0.1743128f, -0.6548457f,
  0.3988649f, -0.2448552f, 0.1737887f, 0.2578548f, 0.0560584f, -0.1012015f, 0.2346601f, 0.06824759f,
  0.06893253f, 0.0526799f, 0.8869378f, -0.1685434f, -0.1656846f, 0.05405831f, 0.3444268f, -0.3391857f,
  0.428557f, -0.2452207f, -0.02258197f, -0.1431947f, -0.2643485f, -0.1063486f, -0.4528377f, -0.1067024f,
  -0.6786369f, -0.3735162f, -0.1322891f, 0.02616574f, -0.1960396f, -0.213197f, -1.036393f, -0.08126028f,
  -0.2260987f, -0.2075349f, 0.05212139f, -0.2335284f, -0.07188785f, -0.3618374f, 0.2910907f, 0.08800104f,
  -0.1900974f, 0.3534954f, -0.01762432f, 0.4238668f, 0.07439951f, -0.1161592f, -0.201576f, -0.01890658f,
  -0.03366322f, -0.1848379f, -0.1690699f, -0.04716362f, -0.04859154f, -0.01952183f, -0.02598429f, -0.1365533f,
  0.1569179f, 0.1191393f, -0.02223055f, -0.127497f, 0.5841818f, 0.01378745f, -0.07794444f, -0.2996404f,
};

#define W07_LEN (1024u)

#endif // W07_H