#ifndef W09_H
#define W09_H

#include <stdint.h>

// Auto-generated by txt2h.py on 2026-02-16T03:54:17
// Source count: 2048

const float w09[2048] = {
  0.02085418f, 0.02428815f, -0.03255329f, -0.04060575f, 0.2211438f, 0.03333737f, 0.2465489f, 0.007786722f,
  -0.1291808f, 0.07143249f, -0.06809551f, 0.009697559f, 0.0456798f, 0.02659239f, -0.09499705f, -0.154084f,
  -0.07744176f, -0.1076861f, 0.002050328f, 0.004348947f, 0.00392053f, -0.01955249f, -0.0274149f, 0.001422204f,
  -0.1534726f, 0.06428763f, -0.03894262f, 0.0295263f, -0.05063156f, -0.1356285f, 0.04696361f, 0.04988856f,
  0.1637066f, 0.07433223f, -0.1001581f, -0.06434924f, -0.009370482f, -0.1502f, -0.1762131f, 0.398446f,
  0.0894228f, 0.2131724f, 0.06136389f, -0.1364362f, 0.04909964f, 0.3434488f, -0.1609073f, -0.1441517f,
  -0.06566566f, 0.03740104f, -0.01082789f, -0.04548359f, -0.3346975f, 0.390565f, -0.04486402f, 0.2578943f,
  -0.02541896f, 0.02129753f, -0.3358395f, -0.3220005f, -0.2407787f, 0.1487942f, 0.09118117f, 0.337771f,
  0.2296087f, 0.1783147f, -0.09894966f, 0.1253443f, -0.1506839f, -0.07302838f, 0.2800791f, 0.05819659f,
  0.01997161f, 0.2546724f, -0.2347205f, 0.03464579f, -0.05283799f, 0.3443997f, -0.143002f, -0.1117595f,
  -0.122455f, -0.1722334f, 0.05822105f, -0.1636444f, -0.268286f, -0.1002535f, 0.1161063f, -0.119078f,
  0.0871146f, 0.2957803f, -0.3651666f, -0.03298365f, -0.3640787f, 0.07872112f, -0.07128096f, 0.06258279f,
  -0.2353823f, -0.0920607f, -0.3145447f, 0.2038462f, 0.4621599f, 0.33361f, 0.05727637f, 0.2917038f,
  0.1378681f, 0.3164637f, 0.01877583f, -0.3273488f, -0.32489f, 0.01868321f, 0.115894f, 0.08979012f,
  0.06308122f, 0.1775789f, -0.06684718f, -0.07968376f, -0.09082749f, 0.1085003f, -0.2457313f, -0.2124479f,
  -0.2861345f, 0.5256187f, -0.1350268f, -0.09373506f, 0.1586289f, -0.5123152f, 0.03698498f, -0.2364832f,
  0.06368502f, 0.05919815f, -0.03963462f, -0.3217345f, 0.09436573f, -0.2862717f, -0.07855131f, 0.02410014f,
  -0.1714138f, -0.03351917f, 0.02847185f, -0.2918004f, -0.2670367f, 0.009526719f, 0.1883341f, 0.315323f,
  -0.01417267f, 0.1583933f, 0.07242443f, 0.1815731f, -0.179457f, 0.2511072f, 0.1075721f, -0.05614591f,
  0.130658f, 0.06773828f, 0.2672774f, -0.03027573f, -0.02770385f, -0.1505837f, 0.01168855f, 0.06659621f,
  -0.03925127f, -0.004386028f, 0.138966f, -0.0417136f, -0.0658652f, -0.1647522f, -0.115199f, 0.05858828f,
  0.1154715f, 0.06837453f, -0.01442975f, -0.1043896f, -0.0133688f, -0.03248129f, 0.05862201f, 0.05210305f,
  0.02085505f, 0.2311408f, 0.05621867f, -0.05327046f, -0.08531789f, 0.1153447f, -0.04906982f, -0.1070045f,
  0.059902f, 0.06947379f, 0.07418477f, -0.2624696f, -0.05679962f, -0.00814011f, -0.07692815f, 0.1185508f,
  0.05386537f, 0.02894128f, -0.02052031f, 0.03863394f, -0.102198f, -0.2506456f, 0.05353855f, 0.001332694f,
  0.1746547f, 0.08847652f, 0.07198432f, -0.1350009f, 0.05510404f, -0.2909092f, 0.06971653f, -0.2105133f,
  0.02479999f, -0.07687864f, -0.1631662f, 0.09664201f, 0.03357617f, 0.3659133f, 0.0227904f, -0.06473444f,
  0.02769718f, -0.2774406f, 0.1847234f, -0.338517f, 0.06335232f, -0.06777169f, 0.09178106f, -0.06818562f,
  -0.3447762f, -0.5195339f, 0.03180004f, -0.02144431f, 0.1165381f, 0.1104671f, 0.7178336f, -0.04296605f,
  0.2705204f, -0.096218f, -0.1152661f, -0.01940713f, -0.2572629f, 0.1290828f, 0.1765137f, -0.3376084f,
  0.02440929f, -0.04722042f, -0.07132851f, 0.1479409f, 0.2572101f, -0.1040476f, 0.008370995f, -0.08559328f,
  -0.02505267f, 0.0849345f, 0.2507255f, 0.05815614f, 0.06216937f, -0.1721178f, 0.1594876f, 0.2611675f,
  0.1230776f, -0.1484613f, 0.1126664f, 0.175623f, -0.05543308f, -0.08465501f, -0.07807875f, -0.2435448f,
  0.3764183f, 0.008677039f, -0.2665339f, 0.04698712f, 0.07008819f, -0.1404036f, 0.02626421f, -0.005540968f,
  -0.08029732f, 0.3569982f, 0.3570558f, -0.1579921f, 0.2720675f, -0.2156386f, 0.2806184f, 0.1194138f,
  0.05072184f, 0.02010551f, 0.0616126f, -0.004174808f, -0.1815441f, 0.3673896f, -0.4436603f, -0.124618f,
  -0.04058428f, -0.06191475f, -0.05452717f, 0.01542162f, 0.06427862f, 0.02074241f, 0.06514096f, -0.05505096f,
  -0.2192161f, -0.01457326f, 0.2029481f, 0.07563337f, -0.01396441f, -0.1201907f, -0.02223467f, 0.02259313f,
  -0.01489907f, 0.06821524f, -0.1040073f, 0.1343603f, -0.1187611f, 0.046151f, -0.06819532f, -0.04897499f,
  0.0216526f, -0.1246066f, 0.01230318f, 0.06023926f, -0.005483019f, -0.09600236f, 0.2776554f, -0.01859243f,
  0.8578783f, -0.2022458f, 0.07508245f, -0.1108771f, 0.06339737f, 0.0368911f, -0.00695485f, -0.03359387f,
  -0.1032308f, 0.1567588f, -0.05576232f, 0.2082731f, 0.1621805f, 0.1236253f, 0.08804692f, -0.2813209f,
  0.1187396f, 0.1286714f, 0.1479902f, -0.06373036f, 0.03382973f, -0.0136982f, -0.03188771f, -0.1833793f,
  -0.02086928f, -0.223852f, -0.3484505f, 0.000232852f, -0.07093328f, 0.1288823f, 0.1997416f, -0.0275967f,
  0.2259651f, 0.161277f, -0.08940343f, 0.1534531f, -0.009818268f, -0.1084859f, 0.2056049f, -0.1025115f,
  -0.4340001f, 0.2098097f, -0.2441295f, 0.09029519f, -0.05317046f, -0.1134647f, -0.01656749f, -0.150304f,
  -0.1718383f, -0.1643665f, 0.02551237f, -0.1797529f, 0.1953917f, -0.07941091f, 0.1367177f, 0.1248879f,
  -0.1549075f, -0.1568504f, -0.4653701f, 0.2313194f, 0.09601171f, 0.1002984f, -0.3062561f, -0.1810013f,
  0.2085984f, 0.2505994f, 0.2807669f, -0.03637447f, -0.1984863f, 0.03617662f, -0.05500796f, 0.01683042f,
  0.0829244f, -0.08891533f, 0.0001125408f, -0.05403363f, 0.1834246f, 0.1316515f, -0.2615944f, -0.2022614f,
  0.002730519f, -0.2974175f, 0.310206f, -0.271478f, 0.07341538f, 0.1218638f, -0.1940911f, 0.2637575f,
  -0.1514959f, 0.2338527f, -0.2742157f, 0.06344832f, 0.02137484f, -0.03831655f, -0.1547527f, 0.05785852f,
  0.2207402f, -0.1648221f, 0.0009189275f, 0.1218295f, 0.1218876f, -0.04924354f, 0.01857824f, -0.08048656f,
  0.2794465f, 0.05168025f, 0.0150953f, -0.09514778f, -0.01154f, 0.03816885f, -0.1341105f, -0.2275913f,
  -0.1746368f, 0.1130387f, -0.112905f, -0.08539709f, -0.03018529f, 0.2388363f, -0.04930043f, -0.04010168f,
  -0.01534898f, -0.06079703f, 0.06181561f, -0.2151008f, -0.03967904f, -0.0193312f, 0.08062331f, -0.07049119f,
  -0.1820504f, -0.007763957f, 0.08886106f, -0.09262867f, -0.1596953f, 0.1041937f, 0.1886818f, -0.1872133f,
  0.000843906f, 0.1613014f, -0.3026241f, 0.128004f, 0.1532763f, 0.04906084f, 0.01787065f, -0.1633498f,
  -0.04051426f, -0.1307086f, 0.01444632f, -0.05524767f, 0.07306766f, -0.1998919f, -0.02556028f, -0.04093511f,
  0.1559718f, -0.262429f, 0.1195993f, -0.1088725f, -0.1276962f, 0.3313721f, 0.2256977f, -0.1399913f,
  -0.0916715f, -0.185235f, 0.3935159f, -0.2579231f, 0.2458425f, -0.0007303527f, -0.01049126f, 0.2821031f,
  0.03967363f, -0.04813119f, -0.3272185f, 0.002376446f, -0.4406366f, 0.07625385f, -0.1045334f, -0.2924834f,
  0.0317053f, 0.03062017f, -0.001012958f, -0.2111578f, 0.1888684f, -0.01847834f, -0.3477182f, 0.1951642f,
  0.01043106f, -0.2718668f, 0.06492041f, -0.1610935f, 0.2433363f, 0.1929903f, 0.6641886f, -0.04279356f,
  0.08477456f, 0.341352f, 0.07286219f, 0.02214386f, 0.2003451f, 0.2496723f, 0.05476839f, 0.1016672f,
  -0.2120471f, 0.1202491f, -0.1692752f, -0.1991729f, 0.363762f, 0.3375411f, -0.1198791f, -0.009999296f,
  0.1771518f, 0.09772718f, -0.01559004f, -0.2584798f, -0.1828738f, -0.06696533f, 0.2181465f, 0.1092908f,
  -0.5057254f, 0.1345737f, 0.1977105f, 0.4103495f, -0.1516498f, -0.02077221f, -0.1705409f, -0.1793993f,
  0.4172477f, -0.09615804f, 0.1502763f, 0.03625517f, -0.1550052f, 0.05326675f, -0.1903292f, -0.1983186f,
  0.04902606f, 0.004144459f, 0.05945094f, 0.001827504f, 0.1427504f, 0.03291674f, -0.07825662f, -0.2125124f,
  0.2697811f, 0.9111279f, 0.044345f, -0.1382912f, -0.1709936f, -0.01627305f, 0.1209447f, 0.217761f,
  0.2420134f, 0.2509466f, 0.03098788f, 0.3793564f, 0.2354577f, 0.1156847f, 0.02333516f, -0.09368299f,
  0.04494391f, 0.01088991f, -0.0310345f, -0.07644128f, 0.1982462f, 0.2124513f, 0.1010415f, -0.07193989f,
  -0.1967314f, 0.03662614f, -0.1550545f, 0.1000762f, 0.4706639f, -0.08831517f, -0.113512f, 0.157278f,
  -0.0129401f, 0.04760294f, -0.1482864f, 0.02433279f, -0.01431357f, 0.05035605f, 0.4555403f, 0.252311f,
  -0.01609458f, -0.1680362f, 0.2609246f, 0.1623735f, -0.04249451f, 0.002703705f, 0.04864403f, -0.1824419f,
  0.05235083f, 0.05645164f, -0.1602374f, -0.2128456f, 0.02319359f, -0.0235003f, -0.2798346f, 0.3327179f,
  0.09876469f, 0.2821786f, 0.1129431f, -0.4020199f, -0.1539493f, 0.5423493f, 0.1182775f, -0.06381669f,
  -0.03121463f, 0.2294418f, 0.01990351f, 0.09577119f, -0.2255472f, 0.05628054f, -0.1951457f, 0.04957815f,
  0.2554508f, 0.2908308f, 0.0341011f, -0.05365057f, 0.3922485f, 0.03374724f, 0.05629082f, 0.2941694f,
  -0.05090607f, 0.07997598f, 0.02153619f, -0.07912324f, 0.1731173f, 0.04248184f, 0.2556268f, 0.1629273f,
  0.0336053f, 0.07411296f, -0.2279768f, -0.08574036f, 0.05505123f, -0.06749628f, -0.08715578f, -0.1039196f,
  0.05549876f, -0.1175943f, -0.3210136f, 0.05986613f, -0.07156849f, -0.02757744f, 0.08682332f, -0.2345094f,
  -0.3297253f, 0.07061131f, 0.1326706f, 0.3675223f, -0.1274586f, 0.07974313f, -0.05334902f, -0.05557822f,
  -0.2208083f, 0.1648353f, -0.005454257f, -0.003972813f, 0.2110239f, 0.08302919f, -0.002043427f, 0.04379663f,
  0.2194305f, 0.1542386f, 0.1062386f, 0.1589463f, -0.1047522f, -0.2011208f, 0.2152778f, 0.06005398f,
  0.2558362f, -0.2556823f, 0.2473857f, 0.05689105f, 0.1905392f, 0.03524791f, 0.06568007f, -0.1034145f,
  -0.08626892f, 0.3432553f, 0.2985944f, -0.2861523f, -0.4186923f, 0.5564044f, -0.5719981f, 0.3399597f,
  0.2579199f, 0.007321055f, 0.01415508f, 0.1032411f, -0.001012745f, -0.06315061f, 0.01385722f, -0.2479791f,
  0.06386574f, -0.0617603f, -0.03917215f, 0.02907682f, 0.07312395f, -0.2691251f, -0.002217477f, -0.1555783f,
  0.1313915f, -0.1124656f, -0.01753547f, -0.03661924f, 0.01686309f, 0.03651042f, 0.1687206f, 0.06412146f,
  0.1643247f, -0.1737565f, -0.09740645f, 0.08054306f, -0.09484991f, 0.1560266f, -0.1829015f, -0.02554277f,
  0.003457952f, -0.1158581f, -0.3599881f, -0.1635233f, 0.04101006f, 0.06354687f, -0.1332966f, 0.002516512f,
  -0.1678664f, 0.001125831f, 0.2831593f, -0.2764511f, -0.299612f, -0.02580035f, 0.3256894f, 0.1535194f,
  -0.0076952f, 0.1483881f, -0.4083112f, 0.03623038f, -0.2107286f, -0.08786878f, -0.01870534f, 0.2554939f,
  -0.1949009f, -0.2759309f, -0.2188833f, -0.3848678f, 0.2990391f, -0.08459325f, -0.01738839f, 0.04093469f,
  0.2303094f, 0.1801073f, -0.1444143f, -0.2423413f, -0.3637131f, 0.06585801f, 0.2382822f, -0.1944831f,
  -0.1941639f, 0.1300853f, -0.1172744f, -0.1231343f, 0.1694941f, -0.140152f, 0.06177038f, -0.2367273f,
  0.04667891f, 0.1881868f, -0.7528774f, 0.1767802f, 0.1848414f, -0.3498244f, 0.6409215f, -0.2401886f,
  0.1726476f, -0.4003039f, 0.2843814f, -0.2064783f, -0.006112821f, -0.1441315f, -0.2065434f, 0.2268574f,
  0.123403f, -0.06142735f, -0.1084391f, 0.2771849f, 0.1171811f, 0.1903532f, -0.1476187f, 0.2272891f,
  -0.1293351f, 0.1821385f, -0.09412f, 0.2069432f, -0.01265865f, -0.02146518f, 0.01456709f, 0.02267511f,
  0.1681827f, -0.1325757f, -0.2446841f, 0.1049429f, -0.1364346f, -0.2398476f, -0.307689f, -0.1497564f,
  -0.139484f, 0.2020133f, -0.0544836f, 0.05023639f, -0.3303108f, 0.4420563f, 0.06070073f, -0.08992963f,
  0.118631f, -0.3599125f, -0.2169635f, -0.0770635f, -0.1574045f, -0.3785468f, 0.654066f, 0.2389167f,
  0.1488891f, 0.5345955f, 0.2349267f, -0.2938443f, -0.1505323f, 0.07798399f, 0.2431971f, -0.4457971f,
  0.09529643f, -0.05469691f, 0.07894091f, 0.2181514f, 0.03404747f, 0.1967563f, -0.4391582f, -0.3866518f,
  -0.1839071f, 0.08536438f, 0.154379f, -0.1470916f, 0.1884094f, -0.6251261f, -0.213151f, 0.1515288f,
  0.5127702f, 0.1577788f, 0.0520025f, -0.189362f, -0.2337717f, -0.1716897f, 0.09567248f, 0.1593358f,
  0.1691199f, 0.08956593f, -0.170623f, 0.08051342f, -0.05206113f, -0.03310456f, 0.1498291f, -0.5952624f,
  0.04950495f, 0.1140064f, 0.1746446f, 0.06471638f, 0.02275699f, -0.1254874f, 0.1039718f, -0.181547f,
  -0.01845782f, -0.05774018f, -0.108606f, -0.06326104f, -0.05167774f, 0.06216224f, -0.1400431f, -0.01595071f,
  0.3048808f, -0.05774532f, -0.03409803f, 0.03114994f, 0.4708214f, -0.1264086f, -0.4919424f, 0.03394601f,
  -0.2395448f, 0.5072903f, -0.4056369f, 0.0926934f, -0.2396846f, -0.3859708f, 0.04112452f, -0.5769088f,
  0.1462336f, -0.1212201f, -0.103304f, -0.1481558f, -0.3011548f, -0.4150842f, -0.0553637f, -0.2936433f,
  -0.03122301f, -0.2366379f, 0.02696259f, 0.3780657f, 0.1007249f, 0.3165332f, 0.0917694f, 0.09577388f,
  0.07220692f, -0.2007357f, -0.107385f, -0.0389144f, 0.1149096f, -0.2701133f, 0.05293504f, 0.003587112f,
  0.2545007f, 0.1528471f, -0.1103298f, -0.07389784f, 0.0119809f, 0.01763893f, -0.1418869f, -0.1998976f,
  -0.3079038f, -0.02371079f, -0.01727666f, -0.01616037f, 0.1197086f, 0.02398402f, 0.04425368f, -0.2551799f,
  0.4784514f, 0.1101686f, 0.08284026f, -0.1071583f, 0.1129719f, -0.1557476f, 0.315318f, 0.3134398f,
  -0.4115801f, 0.4063543f, 0.2255379f, -0.07360712f, 0.07314789f, 0.01253983f, -0.08242075f, -0.0915012f,
  0.1865723f, -0.1506977f, -0.4025147f, -0.05841284f, 0.2391109f, 0.6768457f, -0.2907027f, -0.2419962f,
  -0.0474881f, -0.5029599f, -0.2013281f, 0.07290766f, -0.1939096f, 0.001869495f, -0.01817593f, 0.3506587f,
  -0.002840203f, -0.04642965f, 0.02033306f, 0.1147683f, -0.2620984f, 0.8322644f, 0.3161929f, -0.2507328f,
  0.1906577f, -0.01583218f, -0.09847698f, -0.04224753f, -0.3003389f, -0.2478843f, -0.05532608f, 0.3175582f,
  -0.1883519f, 0.1019415f, -0.205194f, -0.2500767f, -0.389666f, 0.07921387f, -0.3254373f, -0.1771716f,
  -0.3207709f, -0.0606711f, 0.2789829f, -0.004386953f, -0.468518f, 0.4089954f, -0.009382701f, -0.3204488f,
  -0.1286927f, -0.4697012f, -0.465954f, 0.2656836f, 0.5449707f, 0.114583f, 0.3052341f, -0.2129384f,
  0.07080958f, -0.114485f, 0.03132968f, 0.08188251f, 0.3937294f, 0.3359864f, 0.009103558f, 0.1016812f,
  -0.3862872f, 0.1854341f, 0.06347551f, 0.2040328f, 0.5391701f, 0.05190089f, -0.1650461f, -0.0860557f,
  -0.141449f, -0.1597434f, 0.265425f, -0.1952375f, 0.006957155f, -0.0006034612f, 0.1240034f, -0.09372966f,
  0.295224f, 0.4931741f, 0.09820334f, 0.6122478f, 0.6653079f, 0.1527132f, -0.4005939f, 0.2731931f,
  0.1718623f, -0.02272789f, -0.1497468f, -0.01572233f, -0.4510038f, -0.2132236f, 0.2991586f, -0.01661299f,
  0.1062577f, -0.3083995f, -0.06494845f, 0.1354512f, -0.3452968f, -0.2514728f, 0.04374932f, 0.1444285f,
  -0.1551146f, -0.05719132f, 0.3534502f, -0.02003557f, 0.1150978f, 0.1005311f, -0.1273794f, -0.07540209f,
  -0.01239514f, -0.3209999f, -0.2593426f, 0.3554443f, -0.09778814f, -0.01114715f, -0.2047224f, -0.2414548f,
  0.1005183f, 0.2766843f, 0.2581965f, 0.1985156f, 0.1498547f, 0.07458086f, -0.04270916f, -0.2890799f,
  0.1240831f, -0.1420845f, 0.003222967f, 0.3059873f, 0.3721199f, 0.1508293f, 0.3735554f, -0.2180119f,
  0.6213222f, 0.007045777f, 0.02992465f, -0.1912243f, -0.05091039f, -0.161289f, 0.2531722f, 0.3196759f,
  -0.05291912f, -0.1692185f, 0.1958603f, 0.4378937f, -0.2745651f, 0.731159f, -0.09382284f, -0.1686998f,
  -0.0504988f, 0.1257955f, 0.07443399f, 0.007088501f, 0.003601168f, 0.07624816f, 0.07592334f, -0.09678299f,
  0.1215022f, -0.084644f, 0.01864509f, 0.1149229f, 0.02664435f, -0.2235018f, -0.007023785f, 0.06676437f,
  0.1861527f, 0.05521411f, 0.09710054f, 0.04302568f, -0.1082794f, 0.006789406f, -0.006244534f, 0.1208401f,
  0.00791571f, -0.1356319f, -0.2720912f, 0.06181354f, -0.1353825f, 0.01363396f, -0.05953001f, -0.2226476f,
  0.403125f, -0.04801556f, -0.03138074f, -0.1644911f, -0.0341443f, 0.1370565f, 0.2697283f, 0.04494673f,
  0.0431602f, 0.0197929f, -0.07792494f, -0.05950492f, -0.1112363f, -0.003537599f, 0.05938877f, -0.1207607f,
  -0.1786133f, -0.08336439f, -0.1435784f, -0.006884484f, 0.04321065f, 0.09778466f, -0.07368638f, -0.04239221f,
  -0.05194226f, 0.07162902f, -0.1396798f, -0.008005528f, -0.1688309f, 0.1017045f, 0.08651819f, -0.008211016f,
  -0.115259f, 0.2033635f, 0.0799726f, -0.1002272f, -0.1989018f, -0.2073905f, -0.2884568f, 0.1174743f,
  0.1934064f, -0.1700506f, 0.02947415f, -0.1048886f, 0.05029997f, 0.03890384f, -0.04774762f, -0.000900289f,
  0.2799349f, -0.01213417f, 0.1298679f, -0.170131f, -0.1141671f, 0.0688819f, 0.0133397f, 0.1125886f,
  0.08561224f, -0.1234492f, -0.009505755f, -0.2093766f, 0.08758204f, -0.01203733f, -0.1603199f, 0.0600183f,
  0.02089124f, -0.2978629f, 0.0008647766f, 0.1235323f, -0.0538148f, 0.05186941f, -0.1883504f, -0.1307915f,
  -0.0849339f, -0.04087365f, -0.2985256f, -0.01423714f, -0.1365408f, -0.05739325f, 0.02113529f, 0.02141878f,
  -0.1309919f, 0.3128092f, -0.1665617f, -0.009053546f, -0.2161999f, -0.04996342f, 0.01510084f, 0.0521772f,
  0.04764152f, 0.121452f, 0.01143305f, -0.006079664f, -0.136804f, -0.06170649f, 0.06595791f, -0.3625601f,
  -0.1227121f, 0.02853547f, 0.1327212f, -0.01916363f, 0.05558461f, -0.09041715f, 0.01906919f, 0.00999772f,
  -0.4082787f, 0.01529851f, -0.04071407f, 0.148258f, -0.103452f, -0.2640446f, 0.07255812f, 0.1716506f,
  -0.06878559f, -0.06189267f, 0.1837319f, 0.3046745f, -0.04885886f, 0.2096112f, -0.09054323f, 0.01453804f,
  0.181198f, -0.4331007f, -0.07334105f, 0.1110197f, 0.2673509f, -0.06798814f, -0.01886338f, -0.01881384f,
  -0.2633304f, 0.4009964f, 0.01246532f, -0.2396094f, 0.07241382f, -0.08857f, 0.3532808f, -0.03416675f,
  -0.04176704f, 0.4875934f, 0.01442433f, -0.140101f, 0.1157318f, -0.04209681f, 0.2475948f, 0.1065249f,
  0.1011011f, -0.8205755f, 0.1578602f, 0.03479017f, -0.02123165f, 0.19472f, 0.08576255f, 0.05033805f,
  -0.0775756f, 0.03524008f, 0.2004148f, -0.3383984f, -0.1880151f, -0.1887149f, -0.3881897f, 0.2136513f,
  -0.111355f, 0.009710534f, 0.3351841f, 0.03087472f, -0.1355425f, 0.009254345f, 0.1040745f, 0.0595504f,
  0.06147954f, 0.1312003f, -0.01807377f, 0.07951105f, -0.07685638f, 0.003690412f, -0.03140298f, 0.0001069555f,
  0.02107603f, -0.01530755f, -0.08974995f, 0.03945216f, 0.04339213f, -0.3432989f, -0.1455079f, 0.09225915f,
  0.09071541f, 0.1346835f, -0.08014738f, -0.1160315f, 0.07254816f, 0.003021499f, 0.2911183f, 0.1049066f,
  0.1161498f, -0.2304657f, 0.09242492f, 0.283114f, -0.1278171f, 0.07996752f, -0.1408318f, -0.4551773f,
  -0.02437011f, -0.1074205f, -0.3529725f, 0.1109074f, 0.6555116f, 0.05184809f, -0.04957716f, -0.02228212f,
  -0.07859202f, 0.01414778f, -0.08237483f, -0.01555869f, 0.08193123f, -0.03057977f, 0.1751742f, -0.2160282f,
  0.1372783f, -0.2037699f, 0.1843347f, -0.07639004f, 0.1409604f, -0.2570113f, 0.04156555f, 0.008348043f,
  0.1196158f, 0.03189294f, 0.06910465f, -0.1160744f, -0.1057065f, 0.5246329f, 0.2109947f, -0.005448866f,
  -0.1690791f, 0.1018806f, -0.0892589f, -0.04105641f, -0.03333699f, 0.08496086f, 0.05122248f, 0.07842174f,
  0.3023614f, -0.164556f, -0.02876316f, 0.2655667f, -0.08734823f, 0.1151442f, -0.03714288f, 0.2054747f,
  -0.1069659f, -0.3910269f, -0.1421114f, -0.2640536f, -0.1707494f, 0.2003576f, -0.1178177f, -0.1193385f,
  -0.3286346f, -0.119127f, 0.08396619f, 0.189841f, -0.292112f, -0.1154153f, -0.1270261f, -0.2571057f,
  -0.2322886f, -0.3766882f, 0.4562019f, 0.5816993f, 0.3791702f, 0.1090091f, -0.1556146f, 0.1328126f,
  0.3695278f, -0.1826537f, 0.1988735f, 0.5073861f, -0.7565703f, -0.5809984f, -0.09611893f, -0.05213699f,
  0.8272138f, -0.3834951f, -0.1888447f, 0.470226f, -0.1568871f, -0.3715312f, 0.8288621f, 0.6569105f,
  0.2461196f, 0.5990531f, -0.5468837f, 0.1901181f, -0.1496292f, 0.2826334f, -0.09386129f, -0.1080299f,
  -0.4148941f, -0.1692761f, 0.3088669f, 1.108988f, 0.6845943f, -0.1762842f, -0.2079658f, -0.1462892f,
  0.3895768f, -0.5312071f, -0.4691995f, 0.06760211f, 0.1339371f, 0.2215175f, 0.3390699f, 0.01655706f,
  -0.2248573f, -0.5423431f, -0.3967988f, -0.2531754f, 0.06552213f, -0.2773084f, 0.01145772f, -0.07944671f,
  -0.1937284f, 0.187049f, -0.1397979f, 0.03527881f, -0.1281398f, -0.04173616f, 0.02542897f, 0.1098111f,
  -0.008078747f, 0.1658242f, 0.0003701304f, -0.002018728f, 0.03334744f, -0.1617807f, 0.04106819f, -0.02643835f,
  0.2334488f, -0.01097053f, -0.1316279f, -0.05758315f, -0.02726377f, -0.07041246f, -0.04252807f, 0.1386217f,
  -0.2874921f, 0.05352147f, -0.1016178f, 0.3909532f, -0.1111582f, 0.08513333f, -0.1891787f, -0.3403467f,
  0.4738408f, -0.1125539f, -0.08449711f, 0.1487159f, -0.2085707f, -0.7096962f, -0.1543815f, -0.3108883f,
  -0.3507516f, 0.0731365f, -0.3232701f, 0.3257866f, 0.1200644f, 0.6944026f, -0.4503759f, 0.2084858f,
  -0.4877533f, -0.4617429f, 0.1285089f, 0.06562542f, 0.1356867f, -0.1045283f, 0.09219614f, 0.01068157f,
  -0.5352896f, 0.0257549f, -0.5288037f, -0.2083825f, -0.4061562f, 0.2311363f, 0.4000897f, 0.3247121f,
  0.134706f, -0.002558302f, -0.2901689f, -0.1616517f, 0.285659f, -0.2061187f, 0.6343106f, -0.2155052f,
  -0.2260149f, -0.1158845f, 0.08606384f, 0.3106179f, 0.07637621f, 0.1129954f, -0.2367351f, -0.1325549f,
  0.08902853f, -0.08469973f, 0.163249f, 0.06775073f, 0.07961619f, 0.01370055f, 0.2234268f, -0.04280015f,
  -0.004720084f, -0.04015258f, -0.1301029f, 0.5882207f, 0.2657056f, 0.01441556f, -0.06097144f, 0.02744663f,
  0.8349192f, -0.06253809f, 0.1926827f, 0.05643889f, -0.5340692f, 0.4538468f, 0.5434619f, -0.1737637f,
  0.06370296f, 0.4782394f, -0.1135144f, -0.2205486f, -0.08333346f, 0.005675094f, 0.1365486f, -0.5514493f,
  -0.0430765f, -0.07679664f, -0.08774497f, -0.1438927f, 0.1555832f, -0.346285f, 0.177456f, 0.0817725f,
  0.008491969f, -0.1742643f, -0.2406591f, -0.3594758f, 0.004933594f, -0.1170857f, 0.04740943f, -0.07432963f,
  0.5135857f, -0.09743223f, -0.03955306f, 0.09309574f, 0.02287358f, 0.003373465f, 0.1347765f, -0.1141597f,
  0.04666054f, 0.4325428f, -0.2634983f, -0.1431558f, 0.04011586f, -0.2427161f, 0.2536941f, -0.3838017f,
  -0.08406916f, -0.1685978f, -0.3414435f, -0.008868755f, 0.0717175f, 0.01468389f, 0.3036041f, -0.1845893f,
  -0.04749643f, -0.3371408f, -0.1963835f, -0.1225406f, 0.0544967f, 0.407488f, 0.06540022f, 0.008131475f,
  0.009918177f, -0.00781392f, 0.02890873f, 0.2360566f, 0.1679486f, 0.2064674f, -0.145855f, 0.08881395f,
  -0.08513404f, -0.04241211f, 0.08518331f, 0.08765242f, 0.2650397f, 0.2282554f, -0.2190598f, -0.1422315f,
  0.2597629f, 0.01005332f, 0.04478806f, 0.01679054f, -0.002890232f, -0.03955116f, 0.08697414f, 0.08349468f,
  -0.01039924f, -0.1932394f, 0.303609f, -0.1432342f, 0.1333472f, -0.163979f, 0.01554366f, -0.01880647f,
  0.3010728f, -0.2245348f, -0.06126255f, 0.186879f, 0.1759533f, 0.4504562f, 0.1729529f, -0.002814917f,
  0.1555538f, 0.0644814f, -0.0581426f, -0.06125528f, -0.2002828f, 0.04496693f, 0.101404f, -0.4168129f,
  -0.05017519f, -0.01744433f, 0.1414818f, -0.2690683f, -0.3475381f, -0.1008879f, 0.06912795f, 0.140253f,
  0.2311911f, -0.1115431f, -0.4325858f, -0.1055226f, -0.1593931f, 0.1315855f, -0.1145745f, -0.1311094f,
  -0.02292708f, -0.2150685f, 0.3648471f, 0.1820518f, -0.2142085f, -0.1721104f, 0.3866941f, -0.4577686f,
  0.003512975f, 0.09314744f, -0.04479285f, 0.07384074f, 0.1187293f, 0.0611824f, -0.4085609f, -0.2075736f,
  -0.2471839f, -0.246015f, 0.06812922f, 0.4041415f, 0.3978483f, 0.09601572f, 0.08635682f, -0.126484f,
  -0.1765755f, -0.09109622f, -0.003265671f, 0.01475865f, -0.1491612f, -0.3598203f, -0.1758739f, -0.2142927f,
  0.1680524f, -0.3824594f, 0.2859931f, -0.02825331f, -0.01583427f, -0.303939f, -0.1760578f, -0.229062f,
  0.03191172f, -0.2493674f, -0.01508724f, -0.1350067f, 0.2802592f, 0.09975002f, -0.01003909f, 0.2186989f,
  0.1696365f, 0.3878928f, 0.2471255f, -0.06782542f, -0.171705f, 0.05629968f, -0.2822833f, -0.04480314f,
  -0.00610114f, -0.1278157f, 0.3448932f, -0.3388617f, -0.01254747f, -0.06165083f, -0.1555967f, 0.2111002f,
  0.1128511f, 0.1518684f, -0.01520462f, -0.03255661f, -0.006329339f, -0.06931324f, -0.08196693f, -0.4089504f,
  0.1453505f, -0.2749622f, 0.1467365f, -0.06653778f, 0.01648003f, -0.3661433f, 0.08246949f, -0.1568931f,
  -0.2443314f, -0.09023952f, -0.2769959f, 0.04485828f, 0.03278736f, 0.1586749f, 0.1585518f, 0.02189411f,
  0.03316569f, -0.427084f, 0.1090829f, -0.3728265f, -0.00335514f, 0.004922661f, -0.06038158f, -0.08657608f,
  0.1029852f, -0.08289002f, -0.5586619f, 0.4068585f, 0.1878507f, -0.09084287f, -0.3917927f, -0.3161108f,
  0.142056f, 0.694814f, -0.1530767f, -0.08931805f, 0.4073308f, -0.1078893f, -0.1100949f, -0.1681408f,
  -0.7473105f, -0.5540496f, 0.3012155f, -0.4494497f, -0.1898701f, 0.1377778f, 0.3363581f, -0.115927f,
  -0.3977633f, -0.01762787f, 0.1056964f, -0.4608881f, -0.3026679f, 0.377873f, -0.6841698f, 0.7516577f,
  -0.08229181f, 0.07585072f, 0.0319605f, -0.04472136f, 0.1119409f, -0.2223177f, -0.03033602f, -0.1227372f,
  -0.2967063f, -0.1412162f, -0.06664936f, 0.2581024f, -0.2424282f, -0.3899406f, 0.1311629f, -0.3120793f,
  -0.3776547f, -0.0591189f, 0.07245398f, -0.3505726f, 0.2035783f, -0.1899154f, -0.1500843f, 0.09499653f,
  0.04681116f, 0.09572677f, -0.06602304f, 0.5548964f, -0.05411569f, 0.0307707f, -0.1700639f, 0.09772246f,
  0.05446103f, -0.3457847f, -0.3263944f, -0.2013462f, -0.008281994f, 0.2954161f, 0.2870863f, 0.07849535f,
  0.1586663f, -0.02456919f, -0.1456926f, 0.05429818f, -0.2110503f, -0.05809531f, -0.01074186f, -0.002693653f,
  -0.09273473f, -0.03856803f, -0.2817104f, -0.06892093f, -0.2940927f, -0.1406953f, 0.180292f, -0.24438f,
  0.010878f, 0.06801138f, 0.137266f, 0.2019583f, -0.06743822f, 0.1153547f, 0.1198474f, 0.1261741f,
  -0.02226037f, -0.1209084f, -0.04627037f, 0.09069335f, -0.07037652f, -0.002911339f, 0.141162f, -0.1568704f,
  -0.004596782f, -0.005906296f, -0.1455273f, 0.08464832f, -0.201246f, -0.04740961f, -0.02506133f, -0.1298894f,
  -0.1763432f, -0.1426483f, -0.07245962f, -0.008062501f, 0.1258845f, -0.04053005f, -0.07845067f, -0.2225847f,
  -0.02634219f, 0.1158839f, -0.06135882f, 0.1038835f, -0.0589565f, 0.08635621f, 0.08985932f, -0.07554888f,
  -0.08256257f, -0.005613837f, -0.1330707f, -0.133883f, -0.2935648f, -0.1658927f, -0.4414437f, 0.2368182f,
  -0.04794571f, -0.1035786f, 0.2207417f, -0.1830563f, -0.3240298f, 0.2154705f, 0.006071906f, -0.04057329f,
  0.1862475f, 0.3286123f, -0.05460677f, -0.2589578f, -0.08643104f, 0.1204468f, -0.2814158f, 0.03875252f,
  0.3556541f, -0.02867085f, 0.3059023f, -0.1138337f, 0.08365197f, 0.03850398f, 0.1310472f, 0.1953953f,
  0.1070119f, -0.05913971f, -0.01219743f, -0.05515471f, -0.2644021f, -0.2994685f, 0.1763239f, 0.04435169f,
  -0.01004856f, -0.03240218f, 0.2383864f, 0.1060535f, 0.1427239f, 0.05928999f, -0.4775813f, 0.1157069f,
  -0.3273666f, -0.1447903f, -0.0138152f, -0.1272232f, 0.09282883f, -0.1109359f, 0.03857136f, 0.3608802f,
  0.1941026f, 0.07454181f, -0.1144573f, 0.0161095f, -0.1339554f, 0.001016341f, -0.09884515f, 0.06720451f,
  -0.03273674f, -0.1278605f, 0.2053543f, -0.2090332f, 0.1039881f, -0.003272332f, 0.009542154f, -0.2652631f,
  -0.08445995f, 0.1291503f, 0.1742519f, -0.06426229f, 0.2026268f, 0.3167014f, -0.01920453f, 0.2245032f,
  -0.07362089f, -0.1491999f, 0.1334181f, 0.008907842f, 0.07438187f, -0.4551855f, 0.07185987f, 0.1681127f,
  0.2356919f, 0.3364809f, -0.4647662f, 0.1447581f, 0.1413164f, 0.07731722f, -0.004298539f, -0.08062298f,
  -0.06333043f, 0.3018286f, 0.2503866f, -0.07211683f, 0.08548688f, 0.007892269f, -0.3248367f, 0.01346191f,
  -0.04488408f, -0.1596008f, 0.2164639f, 0.02524759f, 0.3100884f, -0.1626773f, -0.06779428f, -0.2621727f,
  0.2230281f, 0.1470234f, -0.1382432f, -0.08457019f, 0.04082623f, -0.1686743f, -0.02036275f, 0.209182f,
  -0.03585278f, -0.5367165f, -0.2276036f, 0.2152598f, 0.0915659f, 0.2696074f, 0.489072f, -0.05947911f,
};

#define W09_LEN (2048u)

#endif // W09_H