#ifndef W12_H
#define W12_H

#include <stdint.h>

// Auto-generated by txt2h.py on 2026-02-16T03:54:17
// Source count: 576

const float w12[576] = {
  -0.1366041f, 0.7225308f, 0.6842829f, -0.4331962f, 0.3237647f, 0.5639685f, -0.440891f, -0.1843606f,
  0.0296324f, -0.2780245f, -0.4771649f, -0.1794474f, -0.5117598f, -0.1389535f, 0.09264765f, -0.4699733f,
  -0.1327473f, 0.2782222f, 0.4396195f, 0.02063305f, -0.2453945f, 0.4634835f, 0.4182901f, 0.06894661f,
  0.1218187f, 0.4868361f, 0.3020371f, -3.631103f, -2.750098f, -2.823612f, -2.328128f, -3.479656f,
  1.425098f, -0.8522102f, -0.2279962f, 0.2448748f, -0.05214182f, 0.2646277f, 0.2867447f, 0.4050277f,
  0.5872359f, 0.4215965f, 0.3753456f, 0.4141875f, 0.1253883f, -0.06957848f, -0.5653774f, 0.09144017f,
  -0.4965469f, 0.2566927f, 0.3658762f, -0.4860133f, 0.4178365f, 0.03113057f, -0.09970099f, -0.1180153f,
  0.02260876f, 0.01907034f, 0.3183346f, 0.4811997f, -0.71986f, -0.3049906f, 0.0527358f, -0.04118611f,
  0.1351879f, -0.5515826f, 0.3103282f, 0.1571864f, -0.3134518f, 0.2059066f, -0.07949898f, -0.2537881f,
  -0.0002412797f, -0.4669464f, -0.8325114f, -0.1125959f, -0.4944969f, -0.3229159f, -0.1378364f, -0.7151845f,
  -0.4527782f, 1.116209f, 1.403436f, 0.737197f, 0.8319589f, 1.249966f, 0.3716616f, 0.1565887f,
  0.3998089f, 0.4115194f, 0.158794f, 0.1065406f, 0.1454754f, 0.2888906f, 0.3897081f, 0.1793697f,
  0.2597092f, 0.3736045f, 0.1172518f, -0.09001598f, -0.1301365f, -0.1510352f, -0.4426871f, -0.2723492f,
  -0.2792985f, -0.2183681f, -0.466307f, -0.4676986f, -2.474739f, -0.003816085f, 1.118999f, -2.974372f,
  -1.582619f, 0.08602543f, -0.9329024f, 1.287485f, -1.769935f, 0.1464227f, -1.004546f, -2.702002f,
  -0.9118561f, 1.196898f, -0.998606f, 0.5587034f, -3.627826f, -1.615329f, 0.2686697f, 0.3341494f,
  0.2148096f, 0.2346725f, 0.4128587f, 0.1707079f, 0.03036933f, 0.08419815f, 0.01952717f, -0.4875746f,
  0.3025518f, 0.6678701f, -0.4271213f, -0.1300583f, 0.4998915f, 0.003534443f, -0.527071f, 0.09573633f,
  -0.2927108f, -0.4157328f, -0.3220585f, -0.2403825f, -0.3725184f, -0.1357921f, -0.3210947f, -0.4057196f,
  -0.09485797f, 0.1264258f, 0.3962922f, 0.4095636f, 0.125487f, 0.2935138f, 0.2778389f, -0.03437466f,
  -0.02158629f, 0.09654291f, 0.1967631f, 0.1368123f, 0.004033708f, 0.2690404f, 0.2997249f, 0.2049424f,
  0.1467823f, 0.2567868f, 0.2897994f, 0.1228939f, -0.0493619f, -0.2200319f, -0.286124f, -0.4067416f,
  -0.4772405f, -0.3946627f, -0.4285936f, -0.3127229f, 1.158906f, 2.359561f, 1.36933f, 2.092008f,
  3.229184f, 1.718117f, 1.042265f, 1.84937f, 1.223714f, 0.3384285f, 0.7458808f, 0.3306067f,
  0.5726036f, 0.7680275f, 0.1922602f, 0.259245f, 0.1158484f, 0.02707137f, -0.09591293f, 0.2821315f,
  0.3588744f, 0.5171812f, 0.8188969f, 0.4609273f, 0.6198864f, 0.8227431f, 0.4353274f, 0.4943171f,
  0.712154f, 0.4327968f, 0.696083f, 0.8665072f, 0.3928385f, 0.1332472f, 0.1365229f, -0.06614886f,
  0.2013879f, 0.3673401f, 0.2345274f, 0.3221122f, 0.5967485f, 0.3010775f, 0.189754f, 0.3011391f,
  0.2212477f, -0.567054f, -0.1687664f, 0.2490652f, -0.3600767f, 0.3660211f, 0.634917f, -0.08460079f,
  0.5133957f, 0.5440545f, 0.2785712f, 0.1164702f, -0.07920869f, 0.5350581f, 0.4643326f, -0.04655494f,
  0.1323067f, 0.2662605f, 0.09026448f, -0.02684358f, 0.1133642f, 0.08926137f, 0.09811308f, 0.4881544f,
  0.5962233f, 0.1144209f, 0.2938688f, 0.350195f, -0.5044596f, -1.026475f, -0.6795582f, -0.6383236f,
  -1.020823f, -0.7376111f, -0.1384348f, -0.2653943f, 0.08717231f, 0.1598973f, 0.250079f, 0.08793239f,
  0.3841027f, 0.4735623f, 0.2718396f, 0.3492922f, 0.3386936f, 0.1582364f, 0.1444372f, 0.7012355f,
  0.3739713f, 0.5491816f, 0.7686979f, 0.4132237f, 0.2719457f, 0.3644067f, 0.1576485f, 0.1273377f,
  0.6347337f, 0.662482f, -0.9739838f, -0.4655669f, 0.4373542f, -0.4876031f, -1.184911f, -0.7477832f,
  0.9588646f, 1.184557f, 0.009888471f, 0.2182133f, 0.225118f, -0.7868232f, -0.2902039f, -0.2315267f,
  -0.7141389f, 0.2427671f, 0.1803771f, -0.6091968f, 0.3740049f, 0.4509538f, -0.5522262f, 0.2257212f,
  0.2991775f, -0.01772547f, -0.1231151f, -0.05547942f, 0.02885411f, 0.5072519f, 0.4568417f, 0.1746626f,
  0.4510339f, 0.4415419f, 0.1831883f, 0.1813765f, 0.1123128f, 0.03433346f, 0.3304648f, 0.4253058f,
  0.07533243f, 0.1969204f, 0.3140311f, 0.05465539f, -1.277012f, 0.05778469f, 0.2089385f, -1.01787f,
  0.2703736f, -0.009766082f, -0.7807763f, 0.3891191f, 0.02428425f, 0.4233791f, 0.783534f, 0.8004301f,
  -1.227041f, -0.8705237f, 0.05199683f, 0.4032085f, 0.004483218f, -0.1748933f, -0.5158975f, -0.5263636f,
  0.01696247f, -0.7210741f, -0.2206108f, 0.3044169f, -0.6578703f, -0.1577197f, 0.003686234f, 0.4489563f,
  0.5747185f, 0.3014804f, 0.2573689f, 0.3431714f, 0.1580944f, -0.02879659f, 0.02250254f, 0.09381769f,
  -0.2397051f, -0.3054419f, -0.3779044f, -0.05168707f, -0.4488047f, -0.6128584f, 0.1158431f, -0.2681033f,
  -0.6621482f, 0.7866507f, -0.05397488f, -0.190133f, -0.3248118f, 0.3230033f, -0.06948704f, -0.05218898f,
  -0.3810723f, -0.6935611f, 0.3949432f, 0.3470568f, -0.03982412f, 0.4389614f, 0.494581f, -0.1090645f,
  0.2711534f, 0.2604964f, 0.05574416f, 0.3945635f, 0.5603845f, 0.4662008f, 0.2793648f, 0.5420029f,
  0.4828642f, 0.2410077f, 0.3943646f, 0.1229461f, -0.3086013f, -0.2360515f, -0.1226869f, -0.2929596f,
  -0.3902226f, -0.07925891f, -0.2299488f, -0.3351866f, -0.1101528f, -0.1020035f, -0.4548066f, -0.3204092f,
  -0.4050546f, -0.4398215f, -0.2132325f, -0.2683177f, -0.1661396f, -0.0468414f, -0.108474f, 0.08232796f,
  0.2311464f, 0.2934687f, 0.6260225f, 0.4051562f, 0.5017685f, 0.6161248f, 0.1443052f, -1.906196f,
  -4.469699f, 0.9531307f, -0.7512349f, -4.287273f, -3.316617f, -1.061559f, -10.34869f, -9.261629f,
  -0.3327651f, -0.007562832f, 0.09045774f, -0.9467943f, -0.9425467f, 0.02304165f, -0.5964969f, -1.159727f,
  -0.1140535f, 1.52948f, 2.40728f, 1.646617f, 2.711095f, 3.496389f, 1.522911f, 1.537619f,
  1.526943f, 0.4951164f, 0.3733419f, -0.1156417f, -0.8606424f, 0.5992595f, 0.2895926f, -0.836256f,
  0.07005697f, 0.5600332f, -0.6668903f, -0.1925015f, -0.5994603f, -0.1444071f, 0.4066766f, -0.08150639f,
  0.1137443f, 0.4581574f, -0.0979677f, -0.1347158f, -0.3263514f, -0.5383675f, -0.3320635f, -0.3558107f,
  -0.4693362f, -0.314931f, -0.2353112f, -0.2211548f, -0.0307485f, 0.135356f, -0.1736386f, -0.7547337f,
  0.408732f, 0.6532184f, 0.1035798f, -0.3187879f, -0.01708628f, -0.1628563f, 0.4698768f, 0.08651594f,
  -0.6604044f, 0.4956061f, -0.3590571f, -0.5095072f, 0.2256208f, -0.3768983f, -0.3250435f, 0.3385805f,
  0.5020229f, 0.2469673f, 0.3442514f, 0.4366785f, 0.2521425f, 0.1514488f, 0.08558589f, -0.04066352f,
  0.9969187f, 0.647393f, 0.07139908f, 0.312953f, -0.7329266f, -0.4167311f, -0.8048268f, -0.2539248f,
  -0.1718055f, 0.3000617f, 0.608863f, 0.605307f, -0.7080309f, 0.2590729f, 0.9079328f, -0.8989679f,
  -0.7225599f, 0.09767077f, 0.03104479f, 0.1415593f, 0.1861609f, 0.137913f, 0.2634199f, 0.2374667f,
  0.2206683f, 0.230985f, 0.05397667f, 0.1162052f, 0.5457239f, 0.5071498f, 0.2393002f, 0.5776769f,
  0.5018732f, 0.04729982f, 0.08582906f, -0.004944934f, -0.3960307f, -0.7295352f, -0.4297218f, -0.02014987f,
  0.06392307f, 0.16837f, 0.7171799f, 0.8883275f, 0.3115219f, 0.141583f, 0.2250317f, 0.1302208f,
  0.1793098f, 0.4198945f, 0.2098633f, 0.1004766f, 0.1823509f, 0.08742987f, 0.07137927f, 0.4855785f,
  0.5008974f, 0.3001514f, 0.6138553f, 0.4505992f, 0.3416883f, 0.282299f, 0.0645897f, -0.8870522f,
  -0.6746278f, -0.3167762f, 0.2714374f, -0.2531997f, -0.4367348f, 0.5638403f, 0.6182117f, 0.4050874f,
};

#define W12_LEN (576u)

#endif // W12_H