#ifndef W14_H
#define W14_H

#include <stdint.h>

// Auto-generated by txt2h.py on 2026-02-16T03:54:17
// Source count: 1152

const float w14[1152] = {
  -0.8858464f, -0.1962675f, -0.9437579f, -0.3764918f, 0.02388139f, -0.05713447f, -0.6496316f, -0.9244055f,
  -0.4448496f, -0.6828957f, 0.802834f, 0.4103455f, -0.417339f, 0.4298747f, 0.7226596f, -0.1517976f,
  -0.01382685f, 0.4434604f, 1.132792f, 0.3526099f, -0.9514009f, 0.897993f, -0.06764343f, -0.610638f,
  -0.03963193f, -1.611688f, 0.07489965f, 0.03723344f, -0.4516835f, -0.4510788f, -0.299565f, -0.6509452f,
  -0.1162782f, -0.5723531f, -0.3286331f, -0.2655584f, 0.1160905f, 0.1389427f, 1.069432f, 0.07521723f,
  -0.1850391f, 0.6672745f, -0.2898225f, -0.178036f, 0.1160276f, -0.3328588f, -0.7127375f, -0.7809534f,
  0.9068533f, 0.08909527f, 0.1637117f, 0.2980373f, 0.8423328f, 0.157216f, 0.1208602f, -0.2821605f,
  -0.4107907f, 0.9965816f, -0.04396525f, -0.7983852f, 0.3660982f, -0.5345916f, -0.3581157f, 0.2884488f,
  0.5330139f, 0.2244057f, -0.8357689f, -0.1897921f, 0.2600023f, -0.8532723f, -1.036032f, -1.272191f,
  0.610575f, 0.6527321f, -0.3379952f, 0.5265743f, 0.1814542f, -0.4395167f, -0.4084445f, -0.7756239f,
  -0.419112f, -0.6673367f, -0.327122f, -0.5938692f, 0.1933463f, -0.1066672f, -0.5584717f, 0.1062533f,
  0.1895457f, -0.2830817f, 1.857704f, -0.09996044f, 0.124467f, -0.04969606f, -0.1976653f, 0.1157792f,
  0.140503f, 0.166827f, -0.1875036f, -0.1974331f, 0.5821158f, 0.5896794f, 0.2476348f, -0.4134946f,
  0.0316668f, 1.549024f, -0.4554281f, -0.6272212f, -0.09708575f, -0.6252696f, 0.7172562f, -0.7245371f,
  -0.4265597f, 0.5250072f, -0.8206957f, -0.2299099f, 1.352476f, -0.5423292f, -0.2574185f, -0.8481521f,
  0.08993947f, 0.6569796f, 0.03023921f, -0.6773315f, -0.4583845f, -0.3379747f, -1.033911f, -0.580201f,
  -0.403886f, 0.3644838f, -0.5506247f, -0.7032646f, 0.3226546f, -0.2493683f, -0.1458165f, 0.7963125f,
  0.728658f, 0.7925373f, -0.3070904f, -0.1551102f, 0.05320386f, -0.4075811f, -0.6995617f, -0.2150203f,
  -0.2090317f, -0.8473521f, 0.4083343f, 0.4345364f, -0.6713194f, -0.5534515f, 0.4326659f, 1.314705f,
  -0.4362353f, -0.01976224f, -1.170352f, 0.4716142f, -0.2481439f, -2.81943f, -0.8584678f, 0.4776057f,
  -2.044431f, -3.493366f, 0.09571031f, 0.0758949f, 0.4700399f, 0.2789481f, -0.3800643f, 0.4866875f,
  0.7942699f, -0.09845105f, 0.944161f, 0.2539392f, -0.8994522f, -9.351128f, -5.262104f, -3.725768f,
  -8.085432f, 2.111551f, -1.473055f, -0.9766745f, -0.1682715f, -0.04642107f, -0.2102808f, 0.151577f,
  -0.2169091f, -0.3431672f, -0.7380673f, -1.587967f, -1.589878f, 0.188223f, 0.585025f, 0.5329558f,
  -0.08117166f, 0.9449911f, 0.09940372f, 0.3043447f, 0.8803506f, 0.5460966f, -0.8206771f, -0.1392742f,
  1.832805f, -0.02253858f, -0.1795237f, 0.01728897f, 0.4438798f, -0.7207962f, -0.7096804f, -2.35773f,
  -2.270396f, 0.2082059f, -0.3780228f, -3.961765f, -0.01308461f, -0.7321337f, -5.222523f, 0.3974927f,
  0.1430262f, -0.003622429f, 0.1320141f, 0.2182494f, -0.08707552f, 0.1035823f, 0.9226289f, 0.2123151f,
  0.5573136f, 0.01427452f, -1.073015f, -0.3245212f, 0.6066313f, -0.8256977f, -3.935689f, 0.2743316f,
  -2.878937f, -2.660204f, -0.2119362f, 0.1823149f, 0.5786961f, -0.07595003f, -0.1138904f, 0.183429f,
  -0.2599869f, -0.6762926f, -0.399321f, 0.6969282f, 0.03573764f, 0.6918412f, 0.3387073f, -0.3240266f,
  -0.2881685f, 0.7798045f, -0.5926612f, -0.1088751f, 0.567905f, 0.5131749f, -0.1910582f, -0.1068519f,
  -0.447379f, 0.05704047f, -0.5952511f, -0.2442608f, 0.5925819f, -0.452786f, -0.5288078f, -0.2604476f,
  0.2273182f, 1.368315f, 0.5878162f, -0.01067682f, 0.9203317f, -0.3041747f, -0.9302751f, 0.8820642f,
  -1.512724f, 0.3865195f, -0.4779815f, -0.04056481f, -7.447546f, -0.4898567f, 0.320722f, 0.9321705f,
  -0.4139336f, 0.4322506f, -0.7207967f, -1.091699f, -0.3318894f, 0.9067763f, -0.2431331f, 0.6824855f,
  -0.6371369f, 0.2124646f, 0.3637669f, -0.8554264f, -0.2915966f, 0.5522931f, 0.4608854f, 0.07721565f,
  -0.003435903f, -0.1111275f, -0.236179f, 0.5758923f, -0.1753338f, -0.2471748f, 0.2183011f, 0.001441566f,
  -0.641857f, -0.3015871f, -0.5547961f, -1.121825f, -0.7003953f, -0.5275592f, -0.4616759f, -0.1663015f,
  0.6048048f, 0.7065662f, -0.2027629f, -0.09416573f, 0.5488662f, -0.1689768f, -0.4571975f, -0.122584f,
  -0.2040455f, -1.103777f, -0.407423f, -0.7214737f, -0.449681f, 0.01373569f, -0.07800222f, -0.5356668f,
  0.2172242f, -0.08553147f, -0.5494464f, -0.2420564f, 0.01440602f, -0.3683962f, -0.2383255f, -0.686718f,
  -0.259736f, -0.7680125f, -0.4897356f, -0.3472139f, 0.08115168f, -0.04584478f, -0.01703877f, 0.425748f,
  0.02983569f, 0.6026775f, 0.5703204f, 0.1819113f, 0.57232f, 0.5122319f, 0.04648792f, 0.01224388f,
  0.461437f, -0.4433552f, 0.05438707f, 0.5449494f, -0.4085536f, -0.3742364f, 0.7598454f, 0.902486f,
  0.4540302f, 0.03018774f, -0.3455554f, 0.3424067f, 0.6503769f, 0.1598648f, -0.08590692f, 0.09593946f,
  -0.03168128f, -0.1007293f, -0.4926417f, -0.3266248f, -0.3842053f, 0.6229128f, -0.599333f, -0.4869303f,
  0.6574471f, -0.08020905f, -0.2370698f, -0.02883762f, 0.1029532f, 1.007746f, 0.3626965f, -0.2170593f,
  0.4911872f, 0.3738473f, -0.3374785f, -0.6593546f, -0.4698092f, -0.3431072f, 0.5477283f, -0.3154751f,
  0.005023268f, 0.5989072f, 0.4908542f, 0.07331038f, -6.302948f, -8.209909f, -0.8818155f, -7.553998f,
  -0.4905954f, 2.531672f, -4.377447f, -1.321141f, -1.112509f, -0.09776748f, 1.340896f, -3.003199f,
  -5.106706f, -6.722606f, 1.382173f, 0.704133f, -6.41972f, 0.3682714f, 1.123577f, 0.003711238f,
  -0.1814288f, -0.2096982f, -0.1122847f, -0.09999915f, 0.7046488f, 0.01130371f, -0.8982656f, -0.0373298f,
  -0.05033925f, -0.2021393f, 0.4010809f, -0.1094024f, 0.09289519f, 1.367896f, -0.03474357f, 0.243391f,
  -0.1276671f, -0.2881816f, -0.08820193f, -0.4924815f, 0.06130626f, 0.825394f, -0.3022298f, -0.07415976f,
  0.5220088f, 0.8676593f, -0.5858241f, 0.1561343f, -0.3069907f, 0.1437221f, 0.2092136f, -0.4641237f,
  0.315672f, -0.264805f, -0.128719f, -0.9447877f, -0.4593283f, 0.06318458f, 0.2107871f, 0.09914327f,
  -0.5336465f, 0.7235719f, 0.4038608f, -0.3471098f, -0.3071857f, -0.318732f, -0.09351283f, -0.3758015f,
  -0.7066425f, -0.8675866f, -0.5222701f, -0.8328817f, -0.2811123f, 0.1878117f, -0.1490029f, -0.4455725f,
  -0.2278635f, -0.4977751f, 0.4715582f, 0.5804477f, 0.4243588f, -2.512146f, 0.5277178f, -2.321781f,
  -2.945571f, -1.693714f, -2.985893f, 2.018072f, -3.423389f, -4.281538f, 0.8083823f, -0.2394779f,
  -0.5118303f, 0.3814922f, -0.260754f, -0.2704866f, -0.04051894f, -0.006126036f, -0.01875716f, 0.05913781f,
  -0.1204313f, 0.5676091f, -0.3096373f, -0.8568848f, -0.7859922f, 0.3415645f, 0.5218171f, 0.2730363f,
  -0.290479f, -0.1262537f, -0.3343821f, -0.3516518f, -0.1960301f, -0.3130867f, -0.6154935f, -0.1431205f,
  -0.2319656f, 0.4056622f, -0.9617826f, 0.3940231f, -1.403133f, -3.736855f, -2.312926f, -7.165261f,
  -0.01628277f, 0.4378747f, -0.6233346f, -0.969593f, -0.7393112f, -1.167281f, -0.03509561f, -0.3937766f,
  0.1097386f, 0.9639075f, 0.3386509f, 0.2816474f, -5.849624f, 0.3672276f, 0.1602006f, -2.718736f,
  0.8327693f, -5.726365f, -2.712618f, -2.204842f, -0.5316275f, -0.5374158f, -0.6308044f, -0.7445232f,
  -0.3926432f, -1.07358f, 0.3626159f, 0.847224f, 0.3220594f, 0.9602936f, 0.1954689f, -0.427798f,
  -0.00327805f, -0.03480842f, 0.3462575f, -0.1676963f, 0.05431315f, 0.3147862f, -0.8162403f, -0.2187606f,
  0.05733626f, -0.003646311f, 0.9253072f, 0.2149754f, 0.450034f, -0.03423219f, 1.077761f, 0.2914868f,
  -0.2880042f, -0.4149486f, 0.8826971f, 0.0147554f, -0.7423726f, 0.706629f, -0.653042f, -0.4169157f,
  -0.386451f, 1.046361f, 0.2739104f, -0.4047796f, 0.8910648f, 0.09497359f, -0.4518456f, 0.1797185f,
  -0.03031766f, -0.2279564f, 0.09438671f, -0.13844f, -0.2615331f, 0.006374724f, -0.3588624f, -0.2298038f,
  -0.1383641f, 0.03297357f, 0.3268302f, -0.7444959f, 0.6433693f, 0.4231511f, -0.3456445f, -0.5406062f,
  -0.8182251f, 0.7295558f, -0.01483963f, -1.465379f, 0.618594f, -0.4516252f, -0.5549178f, 0.332897f,
  -3.839668f, 0.702376f, -2.533556f, -5.681656f, 1.356129f, -0.7713761f, 0.04406544f, -0.7466598f,
  -6.482775f, 0.5495924f, 0.1850011f, -7.40614f, -0.8658971f, 0.1168153f, -0.5049803f, 0.600098f,
  -0.08946093f, -0.1532752f, 0.6278163f, -1.260191f, -1.966302f, 0.1602217f, 0.09939475f, 0.4320056f,
  0.358426f, -0.222356f, 0.067509f, 0.02962603f, -0.2108026f, 0.7065958f, 0.3600967f, -1.402047f,
  -1.090687f, -0.7785407f, 0.4145375f, 0.9541539f, 0.2557961f, 0.4810274f, 0.2637098f, 0.4428048f,
  -2.128575f, 0.05052833f, 0.405656f, -2.197687f, -7.872083f, -2.903331f, -2.166226f, -7.490958f,
  -9.67572f, -2.254628f, 1.517454f, -0.4014958f, 0.6613268f, 1.273181f, -1.016511f, 0.7256486f,
  -0.979021f, -0.4811284f, 0.2781222f, -0.7399227f, 0.4022059f, 0.5205938f, -0.3531154f, 0.00496512f,
  0.3325645f, -0.6535861f, -0.5659947f, 0.3313278f, -0.6266019f, -0.1775939f, 0.6108378f, -0.629416f,
  1.076015f, -1.088048f, -0.326f, 0.8396255f, -0.2546352f, -0.2111835f, 0.6395992f, -0.4109433f,
  -0.5103267f, -0.1260813f, 0.6418462f, 0.8342693f, -0.2534592f, 0.6003308f, -0.5931684f, -0.6204526f,
  1.559158f, 0.1853609f, -0.09032129f, 0.3426494f, 0.33445f, 0.185359f, -6.896645f, -3.18719f,
  0.8133178f, -2.871996f, 1.340582f, -0.544037f, -0.874052f, -0.8570172f, -1.980939f, -0.320386f,
  0.03087801f, -0.3742085f, -0.3110913f, -0.2166222f, -0.4778115f, -0.7653049f, -0.4046794f, -0.4317886f,
  0.6733387f, -0.6420965f, -0.4878775f, 1.057005f, -0.318353f, -0.1747615f, 0.6953965f, -0.3898491f,
  -0.1415758f, -0.3775021f, -0.3264414f, 0.005655914f, -0.491903f, 0.839338f, -0.4550824f, 0.07724417f,
  -0.2514023f, -0.3714516f, -1.228454f, -0.2534273f, 0.6038581f, 1.643418f, -0.07654192f, -0.1092124f,
  1.05053f, -0.61126f, -1.308342f, -0.280456f, 1.245492f, -0.2131132f, 0.6308741f, 0.7701402f,
  -0.6722233f, -0.8398613f, -0.9895657f, -0.3679813f, 1.450361f, 0.2311109f, 1.07809f, 0.3642958f,
  0.3467126f, -0.1299121f, -0.5901818f, -0.2964499f, 0.1586825f, -0.8356221f, -1.240734f, 0.06445312f,
  0.2310739f, 0.2785572f, -0.01109842f, 0.8216333f, 0.5177917f, 0.7710208f, -0.01458994f, 0.4565225f,
  0.02870955f, 0.04661323f, -0.1748148f, 1.338989f, 0.2785419f, 0.05663214f, 0.395799f, -6.682497f,
  1.951014f, -2.116532f, -5.223373f, -3.470448f, 0.06075931f, -1.433433f, -3.612952f, -1.722126f,
  0.4722191f, 0.01357021f, -0.8931369f, 0.253491f, -0.1419709f, 0.08684276f, -1.291439f, -0.4959882f,
  0.9325706f, -0.4898448f, 0.3220941f, 0.2889114f, -0.1501497f, 0.5044566f, 0.0762452f, -0.1320512f,
  0.7140378f, 0.1280613f, -0.2520302f, -0.1198203f, -0.3147098f, -0.5058416f, -0.3665003f, -0.07655779f,
  -0.2515188f, -0.1934275f, -0.09673437f, -0.1308261f, 0.2233931f, 0.4890792f, 0.009345163f, 0.7426972f,
  0.1856665f, -0.3793029f, -0.497955f, -0.3714569f, 0.2011864f, 0.06523298f, 0.07417956f, -0.5256173f,
  -0.3723604f, -0.01363553f, 0.323766f, 0.948235f, 1.38474f, -0.3580236f, -0.2686907f, -0.1907627f,
  -0.4521734f, -0.3254022f, -0.1226888f, -0.40592f, -0.2595329f, -0.2106469f, 0.1228743f, -0.2042954f,
  -0.5624939f, -1.757686f, 0.6341309f, 0.06049566f, -6.021011f, -1.262416f, -0.718594f, 0.1475921f,
  -0.6651106f, -0.2452743f, -0.1712043f, -0.8379693f, 0.1526972f, 0.1871506f, 0.09173369f, 0.4818261f,
  -0.1607808f, -0.3666695f, -0.4000722f, 0.1659503f, 0.7198088f, -0.3535304f, 0.9894859f, 0.784318f,
  -0.1939277f, -7.121737f, 0.6970151f, 2.568443f, -3.961827f, -5.030452f, -5.161722f, -0.09994744f,
  -8.319577f, -6.161303f, -4.796463f, -0.07049664f, 0.3086604f, -3.437431f, -0.5071788f, -1.42084f,
  0.3716031f, -2.19367f, -0.1518316f, 0.1550396f, -1.550714f, 0.5186375f, 1.725969f, 0.2628102f,
  -0.5025309f, -1.010222f, 0.7182403f, -1.375066f, -0.3009465f, 0.2643348f, -0.8669647f, -0.8239827f,
  1.41729f, -0.3033678f, -0.536541f, -0.09771842f, 0.3829135f, 0.2857949f, -0.05300983f, -0.2315851f,
  -0.3032879f, 0.3919455f, -0.3101615f, -0.1509194f, 0.509103f, -0.5259572f, -0.01673217f, -0.319321f,
  -0.7027054f, -0.06803413f, -0.2974027f, -0.4587857f, -0.2091606f, -0.5948365f, -0.6690489f, -1.40389f,
  -3.913143f, -4.701559f, 2.645839f, -3.819142f, -4.029009f, -0.605884f, -1.064754f, -0.108475f,
  -1.354988f, -2.972728f, -0.6165574f, 0.2810845f, -3.660894f, 1.223516f, -0.9061645f, -4.566177f,
  -2.376751f, 0.6433514f, 0.4991205f, 0.3061283f, 0.4844933f, -0.3173546f, -0.3512481f, 0.3606186f,
  -0.1357266f, 0.1035352f, -0.593903f, -0.5427824f, -0.9117185f, 0.3949772f, 0.9439687f, -0.2072148f,
  -0.2658873f, 0.2536489f, -0.4039487f, 0.362113f, 0.7047058f, -0.04076336f, -0.03534567f, -1.21805f,
  0.6797377f, 0.2149036f, -0.5126012f, 0.4641714f, -0.2768221f, 0.5913714f, -0.3622485f, -0.4098108f,
  1.318839f, -0.1245492f, -0.7467383f, -0.1750709f, 0.5687808f, -0.9360525f, -0.2072002f, 0.6212567f,
  0.04349132f, 0.2074758f, 0.1889669f, 1.022623f, -0.05173945f, -1.053006f, 0.8965199f, -0.8182746f,
  0.3771329f, -1.703655f, -0.1192923f, -0.4229389f, -1.676696f, -7.755103f, -0.7751794f, -0.8002882f,
  0.3815739f, -0.6950994f, -0.1161882f, 0.7634526f, -0.4474849f, -0.2024409f, 0.2700317f, -0.3961696f,
  -0.7046328f, -0.7626011f, -0.4766149f, 0.3123373f, -0.2124197f, -0.2222837f, 0.6614153f, 0.4936002f,
  0.2332361f, 0.6080633f, 0.422239f, 0.3143206f, -0.208399f, -0.5693106f, -0.09032089f, 0.5056855f,
  0.366183f, 0.519873f, -0.5204147f, 0.6329232f, 1.200733f, -0.3293661f, -0.2818782f, -0.03517045f,
  0.2732433f, -0.70078f, -0.9808393f, -0.1692785f, -1.346226f, -0.1239778f, 1.219066f, 0.6095329f,
  -0.8178253f, 0.5645328f, -0.1165639f, -0.4419138f, -0.5814145f, -0.4193202f, 0.494911f, -0.2539679f,
  0.0436545f, 0.4141397f, -0.5634394f, -0.2122767f, -0.22275f, -0.7189768f, -0.08713004f, -0.571669f,
  -0.7698646f, -0.7506384f, -0.3680527f, -0.2136546f, 0.2773293f, -0.04086701f, -0.3616213f, 1.212282f,
  0.8644204f, 0.1012919f, -0.230576f, -0.1610459f, 0.1139266f, -0.4660739f, 0.06467136f, 0.2544486f,
  1.081084f, 0.4139481f, 0.2404113f, -0.5394468f, -0.1715266f, 0.9272972f, 0.2214381f, 0.4972878f,
  0.7834243f, 0.3215846f, -1.686634f, 0.7824484f, -0.6729782f, -0.3375361f, -0.329643f, -0.4351197f,
  0.4496914f, -0.4185463f, -0.4791891f, -0.1046139f, -0.3403058f, -0.110606f, 0.5313835f, 0.2224527f,
  -0.08824312f, -0.228637f, 0.1211168f, 0.4462113f, -0.5481903f, 0.478239f, 0.4910477f, -0.4167332f,
  -0.9094939f, -0.2676179f, -0.1805161f, -0.2336432f, -0.8511783f, -0.3905669f, 0.4800306f, 0.001326104f,
  1.069892f, -0.131837f, -0.5348719f, 0.2966217f, -0.1645686f, -0.1366053f, -0.1230187f, 1.169879f,
  0.05132334f, 0.8348097f, 0.3076f, -0.1689915f, 0.1140875f, -2.032343f, -0.3123261f, -0.8392791f,
  1.208039f, 1.337213f, -0.1526621f, -0.4749f, -0.1687458f, -0.4628105f, -0.8591415f, -0.5229739f,
  0.3108658f, -1.614673f, 1.177039f, 0.7516471f, -0.7576672f, 0.3604011f, 0.314168f, -0.2925306f,
  0.04491363f, -0.07165589f, -0.05358699f, 0.17944f, -0.254085f, -0.5314595f, -0.101685f, -0.006952116f,
};

#define W14_LEN (1152u)

#endif // W14_H