#ifndef W18_H
#define W18_H

#include <stdint.h>

// Auto-generated by txt2h.py on 2026-02-16T03:54:18
// Source count: 1152

const float w18[1152] = {
  -7.64321f, -0.9735664f, -0.2908166f, -0.6547669f, 0.04203266f, 0.197156f, -0.1587575f, 0.02738168f,
  -1.006656f, -5.757164f, -5.23625f, -4.843746f, 0.4540586f, -1.68201f, 1.149279f, -0.09417155f,
  0.2577281f, -4.034384f, -0.9942436f, -0.544152f, -1.444467f, -0.07751901f, -3.133157f, -3.358238f,
  0.8286225f, -2.750125f, -3.362938f, -1.383099f, -0.3585083f, 0.4533795f, 0.4163186f, 0.186171f,
  -0.7376615f, -0.3128628f, -0.8245565f, -7.833724f, -4.628503f, -7.824451f, -4.074137f, 0.1055288f,
  0.3796451f, 0.7918483f, -2.090564f, -2.371039f, -1.499969f, -3.353714f, -2.225354f, -0.3977248f,
  -0.2497513f, -0.4539986f, 0.6838797f, 0.272758f, -1.273453f, -0.7607415f, -6.371668f, -9.412387f,
  -2.931377f, 0.7690279f, 0.05969419f, -0.2451621f, -0.6805407f, -1.115213f, 0.119532f, 1.587293f,
  0.1804421f, 1.115068f, 0.1087285f, 0.1827205f, -0.1730849f, -0.755049f, -0.2803264f, -0.01281118f,
  -0.883136f, -0.7318705f, 0.2443099f, -1.16713f, -0.2171845f, 0.2549581f, -3.521494f, -1.487824f,
  -0.8043886f, -0.5787717f, 0.1637484f, -0.5772311f, -2.57627f, -4.652166f, -0.6570179f, 0.8796277f,
  -2.952996f, -0.540512f, -1.644419f, -4.916529f, 3.126854f, -6.620749f, -4.058389f, -1.009494f,
  -5.874205f, -5.073252f, -2.350246f, -1.870593f, 0.1319711f, 0.1468806f, -3.415031f, -4.540128f,
  0.6055948f, -3.354298f, 1.365683f, -3.124486f, -0.7219338f, -3.499963f, -7.057233f, -1.612346f,
  0.8893393f, -2.115101f, -1.450937f, 0.2040129f, 0.0753528f, -5.950105f, -0.6033021f, 0.2927102f,
  -2.165068f, 0.2193754f, 0.2861216f, -3.517608f, -0.04915657f, -0.4273059f, 1.086449f, 0.08355726f,
  0.05379386f, 0.5255022f, 0.03285937f, 0.1708976f, 0.3981158f, 0.143176f, -0.1120051f, 0.1223578f,
  0.08633294f, -0.01501086f, -0.7554766f, -0.7584741f, -0.569445f, -0.2220304f, -0.09977447f, 0.3606114f,
  0.8066762f, 0.414442f, -0.1341529f, 0.5425569f, 0.2230496f, 0.2280907f, 0.2271458f, -0.006945703f,
  -0.2272587f, 0.2761001f, -1.16676f, -2.50127f, 0.04676937f, -4.055026f, -1.136074f, 0.09117876f,
  -0.2757623f, 0.2487032f, -1.381295f, 0.007327978f, 0.05251067f, 0.3948784f, -0.1533822f, -4.899544f,
  0.3353172f, -3.804519f, -1.245607f, -2.81708f, -3.590305f, -3.285568f, -2.066467f, -0.01116111f,
  0.7719994f, -2.556981f, -0.00376081f, -0.1503135f, 0.08390383f, 0.0554685f, -2.442855f, 0.3248264f,
  -0.9934219f, -0.6763548f, 0.1552293f, -1.462042f, -7.323709f, 0.1191008f, -0.3050727f, 0.6337848f,
  1.200341f, -0.3065749f, -4.63378f, -0.1947358f, -3.171338f, -6.384001f, -5.413087f, -5.407996f,
  -3.48898f, -1.495487f, 1.064858f, -2.480525f, -0.6373764f, 0.89495f, -1.791969f, -1.004678f,
  -0.3962153f, -0.55694f, -5.347541f, -2.468338f, 0.3188603f, -0.2040315f, -1.239483f, -0.08035346f,
  -5.248567f, 0.1654658f, 0.09146345f, -5.513781f, -2.387511f, 0.5416346f, 0.9860407f, 0.0996439f,
  -1.318504f, -1.274539f, -0.006783677f, 0.003096451f, 0.6741161f, -0.8102443f, -0.6537175f, -0.9120048f,
  -5.966788f, 0.2968015f, -3.04682f, -1.34526f, -1.215532f, -3.796657f, -2.090674f, 0.3899268f,
  -1.300198f, 0.58408f, 0.278731f, -0.1420305f, 0.8061624f, 0.7434058f, 0.05413442f, 0.7603239f,
  0.1231499f, -0.2608172f, -0.05117011f, -0.004381713f, -4.80793f, 1.175288f, -1.87279f, -1.169441f,
  -3.238389f, -6.526399f, 1.587489f, -4.191536f, -7.327395f, -0.5537193f, -4.8967f, -0.6356431f,
  -0.5823004f, -2.17352f, 0.8879727f, 0.009019102f, -0.3564972f, -1.338139f, 0.7150618f, -2.850874f,
  -0.9175426f, 0.8088264f, -3.919777f, -0.3663214f, -1.125041f, -4.503715f, 0.6275956f, 0.2025713f,
  0.1116924f, 0.302412f, 0.1778669f, -0.07443152f, 0.4050729f, 0.2803748f, 0.02034325f, 1.272326f,
  -0.3024948f, -0.2251304f, -3.998798f, 0.7369891f, -2.367464f, -5.227841f, -0.551907f, -0.3742567f,
  0.8662923f, -1.704752f, -5.925841f, -0.2754121f, 0.4949184f, -3.707997f, -0.8240638f, 0.1161133f,
  -1.665019f, -0.9896361f, -1.163469f, 0.9542861f, 0.4432205f, -0.9226077f, 0.3424881f, 0.2074179f,
  -0.604123f, 0.4476326f, 0.303396f, -1.916331f, 0.04411757f, -2.804322f, -0.07610705f, -5.094411f,
  -5.085391f, 0.370802f, -1.744691f, -2.30427f, 0.5088103f, 0.05088894f, -4.720181f, -2.856414f,
  -0.1376825f, 1.070701f, -2.482039f, -0.2750785f, -0.7815562f, 0.6414098f, -1.82646f, 0.7509614f,
  -1.363365f, 0.1056896f, -1.646005f, -5.128101f, -3.051251f, 0.4813157f, 1.339588f, -1.349849f,
  -4.93782f, -0.4068612f, -4.007082f, -1.590756f, -7.482815f, -3.031754f, -2.81642f, -5.367153f,
  -2.795122f, -3.71406f, -3.492026f, -3.913204f, -3.711982f, -0.1588337f, 0.09165198f, 1.037421f,
  1.449137f, -3.292102f, -6.8823f, 1.277526f, -3.990171f, -9.076669f, 0.749889f, -3.344667f,
  -1.926502f, 0.1147385f, 0.1533714f, -5.508264f, -0.6666148f, -1.135333f, -6.140524f, 1.747323f,
  -2.567027f, -3.846705f, -3.000315f, -4.472659f, -4.182942f, 2.265577f, -4.21555f, -0.3094367f,
  -1.689797f, -2.275405f, 0.6532883f, -3.799777f, -2.703857f, -1.532865f, 0.1925133f, -0.4598717f,
  -2.1802f, 0.5145485f, 0.1877604f, -1.744017f, -5.057926f, -1.767948f, 0.06936472f, -1.386767f,
  0.07561272f, 0.2148549f, -0.8017328f, -0.1233811f, -1.179426f, -3.744762f, -4.077442f, -3.083481f,
  1.159736f, -1.997475f, -1.666968f, -0.535333f, -0.09604857f, -0.06724443f, 0.4401717f, -0.3634397f,
  -1.822614f, -0.6350569f, 1.1986f, -0.854173f, -1.521613f, -2.339136f, -6.618546f, -3.862465f,
  -0.2692194f, 0.6131746f, -5.298822f, -0.497363f, 0.7456856f, -2.507566f, -2.432354f, -1.785691f,
  -0.02441316f, 0.07245034f, -0.04996991f, 0.5851701f, 0.1432594f, 0.5328933f, 0.7875671f, 0.5386436f,
  0.3451616f, -0.3329817f, 0.7765214f, -0.1062938f, -0.6886852f, 0.2537299f, -0.6619021f, -0.0863653f,
  0.7888199f, 0.1226157f, 0.3258116f, 0.3080295f, 0.0005545092f, -0.2849303f, -0.5967322f, -0.3672518f,
  -0.2715183f, -0.5629755f, -0.708186f, 1.207379f, -0.04050417f, -1.047527f, -1.799246f, -1.841897f,
  1.722564f, -3.911016f, -1.466288f, -0.1218567f, -1.088915f, 0.6095617f, -3.255905f, 1.2978f,
  -0.5484692f, -10.2356f, 0.3386428f, -0.3668158f, -7.917961f, -0.865404f, 0.8026923f, -0.402118f,
  -0.12593f, -2.696728f, 0.8595962f, -1.382171f, -3.973059f, -2.505506f, -2.709095f, -8.974848f,
  -1.853063f, -7.510754f, -3.722121f, 1.048115f, -3.086821f, -1.815907f, -0.8080983f, 1.069657f,
  -2.87718f, -1.435978f, -2.82586f, -4.078643f, 1.001783f, -3.059656f, -0.2966167f, 0.2355618f,
  -2.181498f, -7.842986f, -9.525854f, 0.9482737f, -0.7651796f, -3.172862f, -2.655945f, -1.095958f,
  2.500012f, -3.825279f, -4.100165f, -3.497081f, -0.316821f, -1.968691f, -4.106972f, -0.4303755f,
  1.38646f, 0.04800689f, 0.778814f, -0.4588131f, -6.679039f, -2.108235f, 1.274841f, -1.878531f,
  -0.06484968f, -1.12377f, -0.08234339f, -0.323622f, 0.8520638f, -4.518112f, -0.9575173f, -2.311692f,
  -6.925333f, 0.6010361f, -1.057259f, -2.696199f, -0.1146538f, 0.1640297f, -0.08541608f, 0.000408801f,
  -0.1366758f, 0.02288896f, -0.5876797f, -1.274569f, -1.463045f, -6.088022f, -2.153771f, -2.656001f,
  0.6035452f, -1.732082f, 0.7586993f, -0.2286913f, -0.7362257f, -0.7513066f, 1.145986f, -1.177169f,
  -2.003792f, 0.1663337f, 0.2184972f, -3.538539f, -1.15669f, 0.1624567f, -3.746447f, -4.959577f,
  -3.243234f, -1.281591f, -2.260734f, 0.9324499f, -0.4959548f, -0.3644561f, -0.3803453f, -1.001289f,
  -0.9597064f, -2.946413f, -1.455536f, -2.704367f, -0.8630611f, -1.461114f, 0.3576381f, 0.4986729f,
  -0.06456041f, -1.045549f, -1.069364f, 0.3143189f, -2.574473f, -2.90397f, 0.271584f, -1.120857f,
  -3.037957f, 0.08494581f, -0.8699663f, -3.398939f, -2.307407f, -4.229138f, -1.345315f, -3.027031f,
  -2.806959f, -0.8861802f, 1.680526f, -0.150938f, -0.1191625f, -0.4083652f, 0.343477f, 0.3998785f,
  -0.1898037f, 0.2991066f, 1.364796f, 0.6307685f, -0.9932509f, 0.2738921f, -1.23714f, -2.289347f,
  -0.735039f, 1.028512f, -6.221266f, -0.1104659f, -0.7842864f, 1.589908f, -0.6426759f, -6.994582f,
  -3.983047f, -4.571157f, -5.770091f, -0.1991763f, 1.558702f, -2.617934f, 0.1422163f, -6.595522f,
  -3.628519f, 0.07913756f, 0.4891239f, -1.768907f, -0.0478691f, -0.8817579f, 0.4682701f, 0.02958632f,
  0.5438541f, 0.03435346f, 0.5575547f, 0.6227673f, 0.06249293f, 0.44987f, 0.2981854f, -0.03352398f,
  0.1250222f, -3.163646f, 0.09543367f, -4.416016f, -0.6152341f, 0.3242724f, -5.343618f, 0.2838268f,
  0.07965179f, 0.1077135f, -0.08416788f, -0.9282156f, -5.378493f, 0.5248241f, -2.962069f, 0.2338988f,
  -0.3774348f, 0.1581454f, -1.294818f, -1.864923f, -5.661191f, -0.2437767f, -2.112247f, -5.355115f,
  -0.003077668f, -0.1887452f, 0.7366042f, -0.6901937f, -5.62737f, -4.784854f, 0.8140968f, -1.34455f,
  -0.4199804f, -2.50928f, 0.3554435f, 0.1627154f, -0.6885862f, 0.9024362f, -1.660498f, -1.949238f,
  -0.3502635f, -4.380898f, 0.4204758f, -0.9203112f, -5.293334f, -0.9369099f, -6.623718f, -9.299248f,
  0.9446363f, 0.5005227f, -2.554999f, -1.206181f, -0.7341272f, 0.6337803f, -0.2368402f, -0.3404641f,
  0.0177839f, -1.003298f, -0.09568674f, 0.6440824f, -0.8965617f, -0.1443896f, 0.5225306f, -1.664109f,
  -0.2183638f, -1.173633f, -0.6363356f, 1.376805f, -0.720039f, -3.857127f, -0.7399147f, 0.8868214f,
  -0.4348748f, -0.4329509f, 0.009153835f, -0.2543148f, -0.07490899f, 0.1411652f, 0.07393581f, -0.03733146f,
  -0.3285515f, 0.7277715f, 0.2406978f, 0.263425f, 0.8757989f, -0.00325727f, 0.04311194f, 0.4082566f,
  -0.07415454f, 0.08460344f, 0.8187814f, -5.499285f, -8.701857f, 0.6258333f, -1.745078f, -4.905364f,
  -0.6924883f, 0.0970467f, -1.412962f, 0.1681756f, 0.7202238f, 0.05548351f, 0.007467158f, 0.644981f,
  0.3648824f, -0.1458188f, -0.02055362f, 0.2424621f, -4.019422f, -3.185205f, 0.02776553f, -2.183454f,
  -3.460016f, 1.530354f, -3.9147f, -5.567916f, -0.9556132f, -0.51706f, -0.09275438f, 0.09157842f,
  -0.4509298f, -0.03307878f, 0.05646145f, -0.8312127f, -0.329929f, -0.07805572f, 0.175009f, 0.31647f,
  -0.7198429f, 0.500314f, 0.002709002f, -0.6281232f, 0.585967f, -0.336198f, -0.7625117f, -0.1034619f,
  -0.9508809f, -1.456212f, 0.7547624f, 0.1890176f, -0.3706978f, 0.354797f, 0.7593834f, 2.644311f,
  -0.2189673f, 0.1618671f, 0.5688453f, -0.1081292f, 0.1156041f, 0.7041722f, -0.2337204f, -0.2588637f,
  0.09211659f, -1.564556f, -0.7619419f, 0.4845325f, -5.161117f, -0.4762396f, -0.9500542f, -1.355082f,
  -0.1159946f, -0.6210297f, 0.1832858f, 0.06592212f, 0.2829962f, 0.8987319f, 0.3188194f, 0.0636069f,
  0.3985622f, 0.109273f, 0.3067791f, 0.3739048f, -0.9120091f, -1.642706f, -1.627669f, -0.6507806f,
  0.2486799f, -2.306336f, -2.408783f, -0.2527963f, -1.75752f, -3.61019f, -3.280749f, 1.336284f,
  -2.044373f, -0.5005628f, -0.8038628f, 0.9243394f, 2.534317f, 0.09588849f, -1.846741f, -5.232213f,
  -0.2613376f, -1.127264f, 0.4198331f, 0.05438917f, 0.4087158f, -2.290493f, -0.6115568f, 0.9271333f,
  -1.677632f, -0.6070251f, -0.3252552f, -3.295412f, 0.8156486f, -2.153082f, -7.792134f, -2.990402f,
  0.3693381f, -0.3013266f, -0.1953172f, -0.5697811f, 0.3611509f, 0.4399083f, -3.748695f, -5.15866f,
  0.8746378f, -1.648501f, -0.3626068f, -0.1792083f, -5.336022f, -1.227103f, -5.234009f, -1.368145f,
  0.3208398f, -0.04533774f, 0.3938578f, -4.222202f, -0.3214304f, -0.5573183f, 0.6246554f, -0.675821f,
  -1.072585f, -0.2135458f, 0.1285433f, 0.6052283f, 0.3017125f, 0.04217058f, -0.03691218f, -0.1356164f,
  0.08228185f, 0.03430789f, -0.0103367f, 0.5287285f, -1.3623f, -8.222769f, -0.3428311f, -0.1174524f,
  -4.25201f, -0.5379817f, 0.8286301f, -2.167912f, -0.6767643f, -1.322122f, -1.659734f, 0.5516943f,
  0.1928931f, -1.19542f, 0.08975911f, 0.1846893f, 2.702557f, -0.3359246f, -0.005872071f, 0.1049939f,
  -0.220038f, 0.1861371f, 0.3451085f, -0.6959096f, -0.2840495f, -0.5780428f, -1.688488f, -1.802263f,
  0.7401079f, -2.708711f, -1.0499f, -1.371832f, -1.31811f, 0.241564f, -0.07112412f, -3.801576f,
  -5.938005f, -4.705307f, 0.6221263f, -1.344529f, 0.4297685f, -1.42352f, 0.1201376f, 0.458966f,
  -2.000466f, -1.862489f, -6.101363f, -0.2158697f, 1.129989f, -2.380564f, -0.08599765f, -0.8339463f,
  0.1934647f, 0.4443066f, -1.028507f, -0.3398711f, -1.622572f, -3.695166f, -6.236483f, -0.2491931f,
  -1.613989f, 1.427459f, -6.212169f, -5.148946f, 1.461064f, -8.632908f, -6.853689f, -5.779357f,
  -1.898115f, -1.366734f, 0.6991819f, 1.677001f, -1.132832f, -0.5328071f, -1.787092f, -3.388215f,
  -1.962293f, -0.1541076f, 0.1644213f, 0.6528922f, 0.376531f, 0.8382067f, -0.4103237f, 0.6498461f,
  0.83338f, 0.6948878f, -0.2222049f, -0.2400719f, 0.0542186f, 0.2289697f, 0.2828695f, 0.2856619f,
  0.2935938f, 0.665763f, -0.02237203f, -0.08786631f, -0.09245931f, -0.1587457f, -3.459031f, -0.1396313f,
  0.8295723f, -9.318096f, -4.060365f, 0.01636495f, -4.299305f, 0.9139398f, 0.08326123f, -2.470225f,
  -2.564157f, 0.380639f, 0.9823014f, -1.600006f, -2.341983f, 0.219517f, -2.87953f, -0.9414148f,
  -3.630304f, -5.151931f, -3.765203f, 0.7247191f, -2.945581f, -3.365658f, -0.4809994f, 1.356813f,
  0.8897861f, -0.965076f, 0.5340736f, -0.6555628f, -4.413413f, -1.062537f, -0.1148641f, -0.1544931f,
  -0.05287963f, 0.3571798f, 0.02628758f, 0.07833201f, 0.2236887f, 0.6008917f, 0.4149436f, 0.5883429f,
  0.3625009f, 0.4170294f, 0.1490442f, 0.428128f, 0.4800328f, -0.5030457f, 0.4827602f, 0.01821932f,
  -1.350352f, 0.5005525f, 0.2608105f, -0.9334526f, -3.672333f, -0.6357151f, -0.03137399f, -5.805073f,
  0.01521323f, 0.5884548f, -6.242171f, -0.1815561f, -0.4920874f, -0.7797399f, 0.4694822f, 0.1386247f,
  -3.192333f, -4.088198f, -1.088483f, -1.072379f, -0.6462423f, 0.6261357f, -0.9532339f, 1.054011f,
  -0.4367423f, -2.782614f, -2.532117f, -0.4166431f, 0.8823615f, -3.337929f, -0.9857218f, 0.3468481f,
  0.7654909f, -0.9802001f, -0.1130469f, 0.2409975f, -0.7404028f, 1.339405f, 0.9088745f, 0.06632672f,
  -1.860863f, 1.14775f, -6.710448f, -3.152887f, -0.8071558f, -0.7519085f, -0.4070289f, -2.203705f,
  1.068433f, -6.678395f, -0.4663862f, -2.704416f, -2.627595f, -1.970844f, 1.299754f, -0.5952624f,
  0.241891f, -0.9586953f, 0.31349f, -1.656617f, -1.027528f, -6.513046f, -2.746641f, 0.6417094f,
  -0.2729395f, 1.116044f, -0.06794266f, -0.9729379f, -1.009378f, 0.389489f, 0.8877152f, -3.890174f,
  -3.766246f, -3.417881f, -0.02496983f, 0.6453375f, -2.301237f, -0.4969944f, 0.8203819f, -2.051796f,
  -0.06519313f, -0.07569905f, -7.19489f, -0.6555337f, -1.37016f, -2.149805f, -1.477133f, 0.2768182f,
  -7.328118f, -1.345953f, -0.1422396f, -1.725121f, -0.9038436f, 0.1725362f, 0.6005992f, 0.3373769f,
  -0.2112497f, 0.7226945f, 0.05909833f, -0.337615f, 0.5963982f, 0.1528081f, 0.4114832f, 0.006123421f,
  -0.1016951f, -0.1108615f, 0.1408563f, 0.1424219f, 0.1839599f, 0.53271f, 0.6950352f, -0.01247281f,
};

#define W18_LEN (1152u)

#endif // W18_H