#ifndef W24_H
#define W24_H

#include <stdint.h>

// Auto-generated by txt2h.py on 2026-02-16T03:54:18
// Source count: 1152

const float w24[1152] = {
  0.410471f, -0.9855977f, -1.068404f, -0.3820226f, -2.925024f, -0.3403945f, -1.909858f, -3.509065f,
  0.2735389f, -0.361206f, -0.01484353f, -0.2717244f, -0.2796487f, 0.123846f, -0.4488152f, -0.2762277f,
  0.2872317f, -0.1115576f, -0.005951615f, 0.06317252f, 0.06688126f, 0.05937294f, 0.06022825f, 0.05052311f,
  0.02967692f, 0.03492701f, 0.0525375f, -0.5952846f, 1.069474f, -0.6657095f, -1.043243f, -0.8623432f,
  1.317077f, -6.493364f, -4.604022f, -2.90707f, 0.3112849f, -0.5347466f, -0.2286804f, 0.2763477f,
  -1.373624f, -2.673884f, -0.7040454f, -0.9337937f, -2.148218f, -0.08021512f, -0.7584187f, 0.7297047f,
  0.8154614f, -0.9908071f, -0.8413239f, -5.430787f, -2.46614f, -1.642258f, 0.001670441f, 0.00418668f,
  0.002685444f, 0.00441625f, 0.002328615f, 0.001670832f, 0.0001144453f, 0.001152621f, -0.00130483f, 0.3266838f,
  -1.007194f, -4.888573f, -0.9555013f, -1.055833f, -0.6062329f, -3.741776f, 0.5239877f, -0.5342119f,
  -0.06954864f, 0.1326185f, 0.05551396f, -0.02648094f, 0.379245f, 0.1093763f, -0.04925739f, 0.08110873f,
  0.05178239f, 0.002304134f, 0.001857668f, -0.001101799f, 0.002395711f, 0.002557202f, -0.001685815f, -0.0006552965f,
  0.000500284f, 0.0007899639f, -2.676763e-05f, 0.0003762929f, -7.110258e-06f, 0.0002465708f, 0.0002385042f, -3.306029e-05f,
  1.831626e-05f, 5.762662e-05f, 1.86728e-07f, 0.2438229f, -0.9258943f, 0.09681541f, -3.904738f, 0.3602914f,
  -2.571881f, -3.454913f, -1.646752f, -1.102498f, 0.2555835f, -0.2063297f, -2.433737f, -0.8166298f,
  0.6521691f, 0.3672868f, -0.6913763f, 0.3591268f, -4.024755f, 0.4485184f, -1.507943f, -0.3584059f,
  -1.371977f, -3.977226f, 0.3742676f, 0.9410344f, -5.009349f, -0.1866113f, -0.0849144f, 0.01064423f,
  -0.06103578f, 0.08210079f, 0.3681905f, 0.08902067f, -0.02482304f, 0.1595283f, 0.003670787f, 0.00748518f,
  0.5626957f, -0.04795959f, 0.1096769f, 0.5028692f, 0.226322f, 0.09343141f, 0.3730394f, 0.02202002f,
  -0.8369405f, 0.606976f, -0.4573673f, -0.9606639f, -1.114856f, -2.149209f, -2.326222f, -0.8545918f,
  0.2698372f, -0.03590384f, 0.380659f, 0.07226294f, 0.3180158f, 0.5176005f, -0.1023492f, 0.1068686f,
  0.2265014f, -0.1704652f, 0.1400185f, -0.2463307f, -3.973748f, 0.07576716f, -0.7109661f, -2.392653f,
  -0.4316782f, 0.9072973f, -0.9246682f, 0.1780515f, -1.581669f, -1.074804f, -1.296299f, -2.334448f,
  -4.472476f, 0.8157632f, -0.5091124f, -0.1352897f, 0.5290861f, -1.60711f, -4.938512f, -0.3198161f,
  -0.3280418f, -5.358745f, 0.1678884f, 0.5377447f, -2.264542f, -0.03060673f, 0.5043641f, -5.145155f,
  -0.3338309f, -0.6451725f, -9.087535f, -1.08816f, 0.09151381f, -7.357572f, -0.002612922f, -0.02506446f,
  -0.03980495f, -0.01228342f, -0.03526035f, -0.05841514f, 0.007450837f, -0.006562027f, -0.02297077f, 0.50076f,
  -0.7580524f, -0.3669105f, -1.391339f, -2.139847f, 0.4220996f, -2.164669f, -2.252689f, -3.970583f,
  -2.263482f, -0.5096064f, 0.2977556f, -2.571558f, 0.4723955f, -2.195839f, -2.720326f, 1.814814f,
  -2.114604f, 1.154f, -0.9000646f, -3.456278f, -3.126332f, -0.5303696f, -3.392407f, -4.046655f,
  -1.832961f, -3.391968f, -0.160843f, -5.470245f, 1.176648f, -0.5530379f, -1.264647f, 2.228661f,
  -5.233369f, 0.8129207f, -0.3243753f, -0.005630547f, 4.882599e-05f, -0.03553382f, 0.04270252f, 0.06746312f,
  0.1235654f, -0.05851173f, 0.07730971f, 0.09382869f, -0.6007324f, 1.151729f, -0.7619641f, 0.06869055f,
  0.3697028f, 0.1623639f, -0.5053437f, -0.5819273f, 0.8226743f, 0.5068326f, -3.68626f, 0.8325451f,
  -2.477037f, -7.356f, -1.383803f, 0.6652315f, 0.9422539f, -0.01660611f, -0.8627527f, -0.9119193f,
  -3.928234f, 2.031569f, -1.292826f, -4.393705f, -0.8373859f, -1.941519f, -6.199904f, -3.363194f,
  -0.269201f, -2.196949f, -3.219077f, 1.735285f, -1.902766f, -2.715867f, 1.750091f, -1.033563f,
  -0.01797597f, 0.02375021f, -0.007684771f, 0.06099761f, 0.04635317f, 0.02508576f, 0.03811423f, 0.005967621f,
  0.005447514f, -1.445968f, -0.8559992f, 0.00223284f, -1.167794f, -0.5492383f, -2.96342f, -2.347427f,
  -3.910804f, 1.397609f, -0.7892904f, -2.006539f, -0.1627692f, 0.5557067f, -2.488594f, -1.581535f,
  -1.164029f, -2.187953f, -1.710973f, 0.136055f, 0.9904341f, 0.1316877f, 0.5169164f, 0.6488929f,
  -0.07425889f, 0.0480059f, 0.0160495f, -0.157204f, 0.1344078f, 0.8852214f, 0.0854383f, 0.3815916f,
  0.5195765f, -0.2095032f, -0.04113709f, 0.004209872f, -0.08719708f, -1.923524f, -1.027751f, -0.08118768f,
  -2.823276f, -1.24689f, -2.671744f, -1.670833f, -4.634725f, -5.866292f, 0.4398953f, -0.9322034f,
  -0.673046f, 0.7739261f, -0.5297753f, -4.0353f, -1.400723f, -2.517033f, -7.084257f, -0.007891706f,
  -0.06078055f, -0.05727891f, 0.0173421f, 0.08460581f, 0.07974464f, -0.03224898f, 0.0661492f, 0.03284908f,
  0.598481f, -0.2268665f, 0.4608186f, 1.56037f, -1.29827f, -1.224017f, -2.934732f, -5.658319f,
  -6.318948f, -1.206734f, 0.6071907f, 0.5077423f, -1.181505f, 0.1306069f, 0.3947971f, -1.11357f,
  -1.079121f, 0.2753699f, 1.254843f, -0.5461333f, 0.4560046f, 0.2665071f, -3.978739f, -4.009276f,
  -1.349173f, -3.11895f, -1.215663f, -0.1495418f, 0.05078937f, 0.2309389f, 0.4217476f, 0.7148199f,
  0.6151075f, 0.1757931f, 0.1313814f, -0.01402805f, -0.6168768f, -1.300392f, 0.542907f, 2.106098f,
  -0.5998204f, -3.570935f, -0.9371648f, -2.868142f, -4.527239f, -0.4799209f, 0.934535f, -0.4457906f,
  0.2653258f, -1.736903f, 0.4145555f, -3.595084f, -4.40144f, -1.168223f, 0.9119073f, -2.296495f,
  -0.5470431f, 0.0606553f, -2.138042f, 0.4886033f, -4.262607f, -4.091256f, -0.3212703f, 0.5885597f,
  -1.218624f, -0.2188686f, -1.089152f, -0.9225332f, -4.864743f, -0.01388251f, -1.781262f, -0.4744565f,
  -3.035654f, -0.6821126f, -0.803733f, -0.282044f, -0.3335718f, -0.07107158f, -0.7431726f, -2.485385f,
  -1.179431f, -0.01221509f, 0.00216381f, 0.01104362f, -0.003130525f, 0.004205409f, 0.00810955f, -0.003067385f,
  -0.0005486131f, 0.0001715054f, -0.3563739f, -2.240496f, -0.1242624f, -1.561908f, -3.366254f, -1.089788f,
  1.261115f, -2.545279f, -1.649891f, -0.02547848f, 0.0005026425f, 0.04956923f, 0.006623727f, 0.01450262f,
  0.01846593f, 0.01995282f, 0.02228186f, 0.01534706f, -0.5420879f, -0.1711434f, 0.3341919f, 0.3899201f,
  0.6354142f, 0.646311f, 0.4641693f, 0.8136551f, 0.5604987f, -0.7414985f, 0.9800977f, -0.3824629f,
  -1.973109f, 0.343628f, 1.03779f, -4.063785f, -2.101611f, -1.560866f, -6.672536e-05f, 8.295924e-05f,
  0.0001054204f, 0.0001178578f, 0.0001614515f, 7.90187e-05f, -1.288359e-06f, 7.768762e-05f, 0.0001104195f, 0.4780696f,
  -3.287572f, -2.72687f, -3.257322f, -0.05821845f, -0.4790877f, -1.803031f, -0.5506119f, 1.4447f,
  0.5281723f, -0.9717038f, -0.1943678f, -0.1392908f, -0.5654896f, 0.4043683f, -4.045825f, -2.322549f,
  -0.3235305f, -2.839015f, -1.545049f, -2.717624f, 0.1992502f, 0.8891687f, -0.7534251f, 0.02642089f,
  -0.8518535f, 1.479307f, 0.8427522f, -0.6456093f, 0.3787711f, -1.795276f, -0.791504f, 1.315287f,
  -4.883924f, -1.598149f, -1.257641f, -3.654977e-05f, -0.0001977625f, -7.446797e-05f, 2.395125e-06f, -0.0003057204f,
  -9.260899e-05f, -2.851711e-05f, -4.250024e-06f, 3.433457e-05f, -0.3433985f, -3.807761f, -0.7819712f, -2.702199f,
  -1.538333f, -1.069893f, -1.743635f, 0.9799179f, 1.42555f, -0.05874976f, 0.1306711f, 0.1912446f,
  0.01904907f, 0.001543889f, -0.03204256f, 0.06460493f, 0.1082332f, 0.09476084f, -5.537661f, 0.7969269f,
  0.647639f, -3.466334f, 1.929272f, -0.4510804f, -3.057108f, -0.6593751f, -3.441669f, -0.1271937f,
  1.024427f, -0.2048722f, 0.5592804f, -0.1350739f, -2.286799f, -2.208169f, -2.38384f, -4.256537f,
  -3.192381f, -1.660044f, 0.6339351f, -4.582923f, -1.165902f, -0.9209833f, -2.237652f, -0.1030788f,
  0.1892726f, 0.002504305f, -0.002030138f, -0.003221061f, -0.00162013f, -0.003900758f, -0.007174262f, 0.0002129607f,
  -0.001598372f, -0.002151052f, 0.3918345f, 0.7116081f, -0.8883814f, 1.136331f, -1.540789f, -2.694496f,
  -2.516778f, -4.014065f, -3.625449f, -0.7653002f, -0.2784133f, 0.8454498f, 0.3054002f, -4.366364f,
  0.122819f, -0.7897388f, -4.643879f, -0.5290312f, -0.02548332f, -0.4913027f, -4.849909f, -0.3011236f,
  -0.6289144f, -0.7422224f, -0.6636096f, 0.4221012f, -0.119765f, -0.5733023f, -0.1785211f, 0.2002002f,
  0.4000797f, 0.8178671f, 0.3124869f, 0.1716194f, 0.3943127f, 0.01138359f, 0.3301427f, -0.006068639f,
  -0.3919427f, -1.995118f, -1.16996f, 0.4989119f, -5.097599f, -1.096925f, 0.1383597f, -1.266394f,
  -0.9285448f, -0.2049001f, 1.093289f, -1.194074f, -1.740209f, -0.03932363f, 0.8061512f, -0.9223216f,
  -0.04607353f, -0.002241306f, 0.009106989f, 0.05113602f, 0.09234881f, 0.09377144f, 0.0003129156f, 0.03455514f,
  0.04008394f, 0.701438f, -0.9745678f, -4.499707f, -1.05076f, 0.02719989f, -1.580701f, -0.4362109f,
  -2.353022f, 0.5141171f, 0.1155488f, 0.7592762f, 0.006770867f, 1.590676f, 0.1084563f, 0.1691172f,
  1.314799f, -0.03978156f, -0.4798704f, 0.634538f, -2.303216f, -4.931036f, 0.3865699f, -1.503689f,
  -0.8932286f, -1.073834f, 0.8970852f, -2.194396f, -0.1904944f, 0.07857474f, 0.5341957f, 0.009223845f,
  -0.0390595f, 0.09879507f, 0.2068401f, 0.3401816f, 0.1682491f, 0.1027532f, 1.12764f, 0.2060095f,
  0.6150122f, 0.7260908f, -0.1600803f, 0.01760855f, 0.02273726f, -0.1377977f, 0.04226934f, -0.04810913f,
  -0.01313595f, -0.06199966f, -0.05408305f, 0.046813f, -1.752688f, -0.6028669f, -0.4255069f, 0.1715693f,
  -0.713997f, 0.3977402f, -1.187111f, -3.336171f, 0.5933422f, -1.258994f, -4.601533f, -0.989087f,
  -0.5973221f, 1.247983f, -0.8636811f, 0.7238487f, -1.652326f, 0.05605463f, 0.5349101f, -3.995787f,
  -2.99497f, 0.03274595f, -0.1673921f, -1.542036f, 0.7105154f, -0.7790158f, -1.909025f, -1.078562f,
  -1.12111f, -4.154355f, -1.337867f, -2.985958f, 0.1814509f, 0.8163976f, 0.230263f, -0.1924888f,
  -0.2956781f, 0.3280599f, -0.7650557f, -0.408671f, 0.2624092f, -1.407537f, 0.2716554f, 0.007507896f,
  -5.869298f, 0.4332148f, -2.567574f, -4.818084f, -3.542194f, -3.909963f, -0.9149266f, -2.790215f,
  -1.817916f, 0.2925648f, -0.4525916f, 1.523932f, 0.4236027f, -0.01360496f, 0.01589732f, 0.01590002f,
  0.01995041f, 0.02988631f, 0.02890921f, 0.008084761f, 0.001818813f, 0.00825081f, -0.9957061f, 0.6100191f,
  -2.846737f, -0.03446819f, 0.1988589f, -2.163249f, 0.550136f, -3.160875f, -0.7863026f, 0.2061025f,
  0.8536586f, 0.09142809f, 0.4429052f, 0.6670155f, -0.05007029f, -0.01016039f, 0.06437048f, -0.06505926f,
  0.633947f, -0.4168282f, -1.938979f, 0.2388578f, -0.625186f, -5.330757f, -1.622483f, 0.1803074f,
  -5.72423f, -2.613672f, -6.21315f, -3.371222f, -2.319817f, -0.8507856f, 0.9137834f, -0.6915131f,
  -0.4620808f, 0.8160854f, 0.07551794f, -0.8551044f, -0.4670148f, -0.1285841f, -2.313994f, -2.547337f,
  -0.6335891f, -1.271904f, 0.6651424f, -0.1106235f, 0.139634f, 0.3181064f, 0.1926626f, 0.1391765f,
  0.02089583f, 0.1145273f, 0.2276991f, 0.05724489f, 0.04324788f, 0.6354036f, 0.07594919f, 0.3902748f,
  0.4841665f, 0.02034678f, 0.1074997f, 0.002794489f, 0.005849656f, -3.683382f, -1.83092f, -1.974921f,
  2.05059f, -1.333211f, -4.723783f, -2.862205f, -2.527056f, -1.920869f, -0.1303358f, 0.4261272f,
  -1.140647f, 1.402539f, -1.482781f, -3.390019f, -0.3699963f, -0.7633089f, -6.550357f, 0.614459f,
  -2.137552f, -5.97386f, 0.6072913f, 1.222553f, -2.232626f, -0.7479622f, 0.3946398f, -0.1772811f,
  0.5610179f, -0.4353643f, -0.2514751f, -2.519681f, -0.6849841f, 1.306604f, -3.079703f, -2.578457f,
  -0.9611115f, 0.001179472f, 0.001882526f, 0.0006453834f, 0.002345507f, 0.002043893f, 0.0001160713f, 7.2506e-05f,
  0.0004927377f, -0.0005230765f, 0.1777035f, 0.114437f, 0.8699313f, -3.266333f, -2.234267f, -1.276409f,
  -0.1775752f, -2.620302f, -1.112731f, -0.6672471f, 0.3048205f, -0.1870627f, -1.745529f, -1.86478f,
  -0.5813358f, 0.7615641f, -2.854035f, -2.409294f, 0.3353047f, 0.2918204f, -3.987438f, -0.2020459f,
  0.5022536f, -2.578536f, -0.9259714f, -2.789666f, -1.117384f, 0.2006994f, 0.7031533f, 0.1514342f,
  0.4286763f, 0.651729f, -0.1712393f, 0.02130034f, -0.01183655f, -0.07916293f, 0.933866f, -1.218817f,
  0.8558358f, 0.1485526f, -1.017891f, 0.3918339f, -3.47597f, -3.881649f, -3.767915f, -2.105461f,
  1.245836f, -0.428748f, -2.437546f, -2.106385f, -1.075729f, -4.785321f, -4.278044f, -2.288641f,
  -0.7005876f, -0.351386f, -1.334101f, -4.110034f, -3.239351f, -0.1927061f, -7.288872f, -1.04651f,
  1.184535f, -3.302346f, -2.374275f, -1.95238f, -0.6576459f, -0.4969858f, -0.5512152f, 1.093166f,
  -0.5146158f, -0.5184796f, 0.1415366f, 0.8039297f, 0.05879911f, 0.2841708f, 0.3928714f, -0.135745f,
  -0.1084687f, 0.08475055f, -0.06537007f, 0.794381f, -1.505917f, 0.6717253f, -0.005603157f, 1.131372f,
  -0.8649129f, -1.372513f, -5.0257f, -3.92502f, 0.0001181824f, 8.856363e-05f, 8.543396e-06f, -6.406015e-05f,
  -0.0001057222f, -8.037742e-05f, -2.377122e-05f, -5.843131e-05f, 2.269274e-05f, 0.003506741f, 0.001905931f, 0.0008123312f,
  0.006032376f, 0.005376008f, -0.001155341f, 0.001599778f, 0.0009947164f, -0.0009784912f, 1.036899f, -1.024367f,
  -0.1669766f, -0.5236501f, -1.126993f, -0.1777931f, -1.65326f, -0.2119825f, -4.770741f, 0.002449086f,
  0.01045338f, 0.001529612f, 0.008355483f, 0.0185808f, -0.00180541f, -0.0001042529f, 0.005463726f, -0.003059052f,
  0.05220043f, 0.2400366f, 0.0198828f, 0.1448374f, 0.1510232f, -0.02712662f, -0.02863973f, 0.01525016f,
  0.03465273f, 0.8620611f, -0.9314944f, -3.394726f, 0.3122875f, -0.3020821f, -4.79165f, -0.7367729f,
  1.287812f, -3.37604f, -5.073247f, 0.1961911f, -0.9355278f, -4.308171f, -1.74733f, -0.7733164f,
  -4.085943f, 0.1602709f, 1.319894f, -0.5136381f, -0.7707865f, -0.5528319f, 0.05761902f, 0.1642376f,
  0.2030548f, -0.1360949f, -0.07190187f, 0.285215f, -0.3832037f, -0.01522491f, 0.2802836f, -1.093441f,
  -1.827276f, -2.535471f, -1.096095f, -5.494047f, 1.460348f, -1.044365f, -4.921371f, -4.892024f,
  0.9362694f, -0.3025877f, -1.24834f, -1.043669f, 0.3505001f, 0.7985645f, 0.1018f, 0.6321028f,
  0.1033542f, 0.3776779f, 0.537461f, -0.01227729f, 0.1432159f, 0.04268532f, -0.1430141f, 0.9753992f,
  -1.31279f, -1.312773f, -3.17362f, -7.062191f, -0.319345f, -1.303611f, 0.2361567f, -0.3061171f,
  -4.486164f, -0.801537f, -0.2146316f, -1.636822f, 1.227836f, -0.2231244f, 0.7041469f, 0.6933606f,
  -2.693771f, 0.3069415f, 0.9598011f, 0.2383866f, 0.385103f, 0.7941788f, -0.1355468f, -0.1625895f,
  0.1375936f, -0.1395059f, 1.396662e-05f, -2.02181e-05f, -2.423351e-05f, -9.352133e-06f, -1.494543e-05f, -5.386763e-06f,
  9.706016e-06f, -1.174482e-05f, -4.556301e-06f, 0.0001633521f, -0.008232683f, -0.001721609f, -0.003328872f, -0.007210371f,
  -0.002194647f, -0.000101006f, -0.00193946f, -0.001015726f, -2.560701f, -3.193356f, -5.009951f, 0.4236864f,
  -2.489477f, -1.945043f, 0.7122262f, 0.3467404f, -1.108459f, -0.3443519f, 0.4868692f, 0.7714f,
  -2.931493f, -0.9766626f, -0.5958564f, -5.442893f, -3.827185f, 0.5252132f, -1.081948f, -1.326264f,
  -1.615352f, -0.06210546f, 0.3253563f, 0.3082649f, -0.0555913f, -0.169211f, 0.0375266f, -0.05067671f,
  0.04045876f, 0.06620128f, 0.03640339f, 0.03108022f, 0.02135769f, 0.04001679f, 0.03142703f, 0.08032467f,
};

#define W24_LEN (1152u)

#endif // W24_H