#ifndef W26_H
#define W26_H

#include <stdint.h>

// Auto-generated by txt2h.py on 2026-02-16T03:54:18
// Source count: 2304

const float w26[2304] = {
  0.3765339f, -3.480534f, -2.066667f, -6.708731f, -0.2637809f, 0.5665042f, 0.09796762f, -1.23714f,
  -1.257039f, 0.2013314f, 1.58192f, -0.03102454f, -0.1145942f, 0.07589094f, -0.04100397f, -0.2767202f,
  0.09141192f, 0.04666954f, -0.1177075f, -2.054995f, -0.4454171f, -0.9089795f, -0.1587962f, 0.03610426f,
  -6.127383f, -0.2177444f, -0.7396795f, -0.09453887f, 0.2097145f, -6.275707f, -1.091871f, -0.892171f,
  -0.4367793f, -0.5037618f, 0.5841919f, 0.2031985f, 0.852727f, -1.794244f, -4.90798f, -7.50479f,
  0.8428289f, -0.8778819f, -9.06195f, -0.1639865f, -1.17184f, -5.215503f, -5.866028f, -3.626355f,
  -2.486699f, 0.2852893f, -0.009355283f, 0.06109797f, -0.2304895f, -0.8079154f, -0.3696818f, -0.3838966f,
  -0.302869f, -0.02305707f, -0.011183f, -0.02139839f, -0.008862055f, -0.004780461f, -0.009086883f, -6.231966f,
  -3.271129f, 0.5643086f, -0.4744124f, -0.02455603f, 0.465254f, 0.2736264f, 0.08525018f, -1.046198f,
  0.9086965f, -2.046104f, 1.230378f, -9.466445f, -0.4451714f, -0.0278968f, -6.217354f, -0.04759582f,
  1.032865f, -3.532024f, 0.2269533f, -0.2834305f, -4.29078f, -0.1625496f, -0.435403f, -1.229002f,
  -0.9180341f, 0.03288403f, 0.06748664f, 0.4876561f, -5.433118f, -0.005120741f, -0.7992721f, -2.086433f,
  -0.9234447f, 0.2583129f, 0.0716294f, -0.4388788f, -0.7068892f, 0.1841765f, 0.263852f, -4.521696f,
  0.08340284f, -0.2863588f, -2.864359f, -0.1917968f, -4.183004f, -1.722241f, 0.8139609f, -3.760532f,
  0.3301832f, 0.1339999f, -0.9470018f, 0.7719581f, -1.127505f, -1.451557f, -0.06635375f, 0.1818801f,
  -0.234167f, 0.1470689f, -0.5365404f, 0.09580597f, -2.288462f, -3.098372f, -0.08381888f, 0.80655f,
  -2.344156f, -1.184041f, -3.579199f, -0.8574615f, -1.814265f, -2.672922f, -0.5649986f, -3.41823f,
  -11.01734f, -3.000736f, -0.1570328f, 0.05897698f, -0.1210089f, 0.1076176f, -0.369022f, 0.5069534f,
  -2.804144f, -1.118731f, -0.9147115f, -0.09171145f, -0.2499437f, 0.2492155f, -0.03227673f, 0.1332761f,
  -0.3326107f, -1.927846f, 0.05515609f, 0.1206691f, -0.8430843f, -0.551836f, -0.04136188f, 0.03924441f,
  -3.041214f, 0.5090989f, -4.781019f, -1.596014f, -1.594936f, -2.875632f, 0.07796198f, -0.3418779f,
  1.256925f, -0.42682f, 0.6345217f, -0.2867138f, -0.1956005f, 0.2250022f, -7.652157f, -0.198098f,
  -0.5622213f, -2.299501f, 0.888442f, -0.6136667f, -0.03221244f, -0.04577804f, 0.04157121f, -0.06302888f,
  -1.83357f, -4.248058f, -0.3164925f, 0.2135974f, -3.903231f, 0.03421501f, -1.726104f, 0.8298476f,
  -0.2429755f, -2.713884f, 0.6750653f, 0.747039f, -1.286559f, -0.7001175f, -4.964599f, 0.08716369f,
  0.2696741f, -0.4395343f, -1.308753f, -0.4842778f, 0.3414018f, 0.05694933f, 0.09250375f, -0.1907251f,
  0.3924588f, -0.2439815f, -0.1075386f, -1.019837f, 0.7700863f, 0.4664456f, 0.01250452f, -6.768212f,
  -2.162975f, 0.4820822f, -1.066772f, -2.136091f, 0.209631f, -0.1334894f, -0.5369431f, -1.604339f,
  0.5006f, -6.462612f, -1.797874f, 0.7783532f, 0.1725094f, -0.1468785f, -0.04026698f, 0.2275375f,
  -0.2399462f, 0.004554949f, 0.3031437f, -0.8059301f, 0.3271951f, -1.0251f, 0.2215455f, -0.1415763f,
  -0.9794382f, -2.607061f, -5.835386f, -0.4829148f, -0.3823588f, -0.5716395f, -2.343892f, -0.02626622f,
  0.7124727f, -2.568701f, -0.3840024f, -0.3461648f, -1.415139f, -1.013565f, -0.4405899f, -0.06672778f,
  0.7785326f, 0.03860907f, -0.04798257f, 0.2171108f, 0.09177344f, 0.379449f, -3.903312f, -4.730989f,
  -0.5599542f, -0.08340233f, -1.171751f, 0.1409947f, 0.3414341f, -0.8021446f, -0.4219264f, -4.77632f,
  -7.004314f, 0.6557047f, -0.6910365f, -0.9721721f, 0.9134427f, 0.4343913f, -0.2472279f, 0.1322106f,
  0.2390958f, -0.04395972f, -4.138762f, -0.7025542f, 0.6097669f, -1.381432f, 0.1840433f, 0.3783917f,
  -0.09044082f, 0.07961235f, -0.3509097f, 0.2296012f, -0.6266127f, -5.017576f, -0.002242599f, -0.3061149f,
  -1.459141f, -0.09741968f, -0.3539159f, 0.61764f, -2.386963f, -1.213257f, 0.5924124f, -1.645004f,
  -3.145799f, 1.117348f, -0.609559f, 0.6414594f, -0.9603062f, 0.05235959f, -0.484069f, -5.515292f,
  -0.5454053f, -0.01470578f, 0.3897534f, -3.46353f, -1.785277f, 0.2656982f, -5.805573f, -0.4584883f,
  0.895686f, -3.509669f, 0.8560407f, -0.7813393f, -4.43768f, -0.1189403f, -0.324187f, 0.2441993f,
  -0.165411f, 0.1389145f, -0.4471956f, -0.1848076f, -0.07456124f, 0.6130836f, -2.125148f, -5.647218f,
  -0.4006294f, 0.1329512f, -3.715126f, -1.154929f, 0.4891581f, -2.846657f, -0.2683007f, -4.592004f,
  -4.835377f, 0.7912322f, -1.661345f, 0.5307181f, 0.05373535f, 1.374533f, -0.6425943f, -4.014552f,
  0.05485318f, -1.635597f, -0.09099642f, -0.09837759f, 0.128007f, 0.2033378f, -0.1524058f, -0.4429339f,
  -0.2408545f, 0.2835174f, 0.1526162f, 0.2489551f, -1.015079f, -1.727482f, 0.0873354f, -1.014416f,
  -5.992074f, 1.140998f, -0.06190792f, 0.4001937f, -0.2640585f, 0.09921245f, 0.08139277f, 0.2052012f,
  0.1182859f, 0.2006545f, 0.002124448f, -0.0003514843f, -0.001533474f, 0.0007340142f, -0.001434647f, -0.0002671466f,
  0.001339426f, 0.0002557472f, 0.0008575587f, -6.70015f, -0.7194225f, -0.05922988f, -1.098785f, 0.6136184f,
  -0.8185948f, 0.2088366f, -0.7190181f, 0.4846364f, -0.9338856f, -0.4432765f, -1.313456f, -0.1442018f,
  0.3016634f, 0.1284403f, 0.241111f, -0.2262872f, -0.3659364f, -0.3650752f, -0.7243529f, -0.7805416f,
  -0.002031928f, -0.06607026f, -0.09472678f, 0.001470756f, 0.1151933f, -0.04391992f, 0.3436843f, -0.09582117f,
  -0.3549805f, -0.8295858f, 0.3383923f, -0.1297816f, -4.855807f, -2.310879f, -0.9305249f, -5.013779f,
  -1.502342f, 0.6301866f, -1.996455f, 0.2651972f, 0.03014046f, 0.08476726f, 0.4856645f, -0.3050708f,
  0.2289281f, 0.1241747f, -0.1625833f, -5.143144f, -0.03686504f, 0.08633044f, -5.37407f, -0.997203f,
  0.4646222f, -13.67773f, -2.43802f, 1.154467f, 0.5824364f, -1.733106f, 0.005891723f, -0.2521554f,
  0.8627707f, -1.015681f, 0.21144f, -0.09059481f, -0.005457181f, -2.190999f, -1.25937f, -0.0173913f,
  -4.23534f, -3.088336f, -0.7787898f, 0.8632648f, -6.240748f, -0.2894953f, -5.423364f, -0.2869678f,
  0.406335f, -0.0399737f, -0.5396984f, -0.4438286f, 0.2734931f, -1.541276f, 0.5463889f, -4.140094f,
  0.4932587f, -0.5686655f, -5.56383f, -0.7261402f, -0.02791994f, -4.114176f, -1.802619f, 0.3254362f,
  -4.368836f, -0.6849241f, 0.425308f, 1.412541f, 0.7644241f, -1.904302f, 0.2474546f, -1.613091f,
  -5.649765f, -0.8242036f, 0.3689227f, -1.566504f, 0.1459214f, -0.2955278f, -0.1750799f, -0.08861374f,
  -0.05678751f, 0.3309795f, 0.4845891f, -0.3661818f, -1.823981f, 0.07336067f, -1.219101f, -1.966433f,
  -6.357863f, -0.6323872f, -0.0853063f, -5.399657f, 0.323747f, -0.5330783f, -0.2434202f, -0.7358525f,
  0.9121817f, -0.3860947f, 0.4813693f, -0.3021716f, -4.48377f, -0.1196405f, -0.5401816f, -5.089535f,
  -0.2518809f, 0.9315528f, 0.3808893f, 0.4891703f, -0.9819973f, -5.833335f, -1.071329f, -0.682861f,
  -6.4347f, 0.5272951f, 0.6782469f, 0.2110597f, -0.3391269f, 0.5850421f, -6.637284f, -0.6939989f,
  -0.9577084f, -2.506225f, -1.016242f, 0.4258917f, -0.3270726f, 0.2266426f, -1.049086f, 0.1846189f,
  -1.007653f, -0.3994424f, 0.003523336f, -0.3397044f, -0.947476f, 0.1549526f, 0.4116175f, -0.1208679f,
  -0.1473019f, -0.01858547f, -0.1581013f, -0.7817463f, -0.1681425f, 0.1248515f, 0.6351607f, -1.595198f,
  -1.413004f, 0.216915f, -1.158924f, -0.2308943f, 0.6669767f, 0.8046125f, 0.4579907f, -6.318874f,
  0.2343603f, -0.1543019f, 0.1325264f, -1.154927f, 0.02242227f, -0.254227f, 0.03624738f, -2.152243f,
  0.1537526f, -2.687469f, -8.092128f, 0.5594596f, -1.255159f, 0.3884369f, -0.4751277f, 1.637345f,
  -1.545243f, -0.2306797f, -3.331633f, -1.115984f, 0.220415f, -0.3987097f, -0.5767758f, -0.7005147f,
  0.424734f, 0.09443215f, -0.2638979f, -0.1454363f, -0.02261113f, -0.043281f, 0.1225539f, -3.923083e-05f,
  -0.02623547f, -0.08067436f, 0.001634395f, -0.1526994f, 1.692434f, -0.2409844f, -0.1103359f, 0.3414412f,
  -0.1409456f, -0.2595978f, 0.1888942f, -0.1632016f, -0.7865035f, 0.213337f, -0.411919f, -0.636148f,
  -0.7165837f, -4.159475f, 0.3674926f, 0.02221066f, -1.809241f, -6.2059f, -3.553415f, -1.603468f,
  0.07713008f, 0.125514f, -1.414596f, 0.4978094f, -0.1130359f, 0.3302482f, -3.559273f, -0.3518312f,
  -0.6689976f, -0.1429234f, -1.108075f, 0.4580281f, -0.2483901f, 1.321224f, -1.033132f, -0.3179303f,
  -0.3239115f, -0.08905133f, 0.02006759f, 0.6173505f, 0.1749937f, -0.1560428f, -0.08442642f, 0.08481242f,
  -0.3466279f, -0.2766339f, -0.2344549f, -0.002343366f, 0.005686757f, -0.00119082f, 0.0002778245f, 0.0009417246f,
  0.003095333f, 0.6186506f, -3.989352f, -3.146566f, 0.3544481f, -0.3323217f, -1.235862f, -1.391741f,
  0.239868f, -0.139537f, 0.1188913f, -0.07775714f, 0.1653273f, 0.2133704f, -3.600569f, -0.3144532f,
  -0.5646576f, -3.640517f, -0.6196482f, -5.313837f, 1.482578f, -1.298319f, -6.848032f, -1.682925f,
  -1.510419f, 1.44827f, 0.3804211f, 0.1267765f, 0.4492558f, 0.7068997f, -0.08173589f, -1.210614f,
  -6.302001f, -5.576938f, 1.322492f, -2.573487f, -0.8378686f, 0.1194233f, 0.6410484f, -2.074272f,
  0.3312977f, -0.7276967f, -2.288522f, -0.4134328f, 0.881646f, -1.118691f, -1.090207f, 0.2800655f,
  -0.3626113f, 0.1883937f, -1.086176f, -3.985526f, -1.375898f, -3.097543f, 0.8690796f, 0.02481898f,
  -0.5007732f, -0.8466746f, -0.5037832f, 1.485198f, 0.0786904f, -0.3424505f, 0.4812789f, 0.2470002f,
  -0.4257916f, 0.3180681f, -0.7912648f, -0.2933002f, 0.4706319f, -2.577994f, -0.5537444f, -1.227581f,
  -4.792442f, -3.13349f, -1.941941f, -8.042876f, 0.120726f, -0.2161648f, -2.194274f, 0.3810976f,
  -0.8773475f, 0.2348569f, -0.4237051f, -0.2886367f, -0.3038163f, -0.2194623f, 0.3165917f, -0.06814824f,
  0.05011339f, 0.1818706f, -0.07722882f, -0.02281986f, 0.3880672f, -0.6373847f, -1.457946f, -2.376918f,
  0.2874563f, -5.95734f, -0.07181709f, 0.4033964f, -12.77035f, -0.3154741f, 0.4872657f, -6.620109f,
  0.8008699f, -0.2904505f, 0.9455535f, -0.6516927f, -0.5585538f, -0.2492519f, -8.553267f, -1.651556f,
  0.7144459f, -0.4934793f, 0.07241354f, -0.2300291f, 0.6529152f, 0.06406198f, -4.979475f, -0.5661745f,
  0.539044f, 0.003156844f, -0.2949864f, -0.8325422f, 0.3245354f, 0.1594707f, 0.1630543f, 0.07294524f,
  -0.4706154f, 0.4115835f, -0.5874255f, -2.546656f, -0.3993652f, 0.1533378f, -2.922669f, -3.75762f,
  0.3808017f, -0.7936022f, -1.554972f, -0.5670005f, -1.001719f, -5.264749f, 0.4960757f, -0.05828912f,
  -3.021532f, -0.519832f, -5.448053f, -1.579528f, 0.06865469f, -0.1322626f, 0.1816183f, 0.564448f,
  -0.1698153f, -0.124806f, 0.1122175f, -0.1038886f, -0.1361557f, -2.443107f, -0.1362716f, 0.2798396f,
  -1.686717f, -0.3619748f, 0.01963659f, -2.765221f, -0.8046693f, 0.1743311f, 0.2534695f, -2.102096f,
  1.557577f, 0.220944f, 0.8504931f, -0.4197783f, -5.539114f, -4.767379f, 0.2303062f, 0.20118f,
  -0.05948225f, 0.399448f, 0.3139349f, -0.03114611f, -1.079006f, -0.526166f, -0.1677787f, -0.07016811f,
  -0.02333491f, 0.1341891f, -0.002947717f, -0.07248354f, 0.003354674f, -0.01113525f, -0.06340243f, 0.2714208f,
  -0.1176613f, -0.4075064f, -0.06157931f, -0.3000991f, -0.1866278f, -0.03214904f, -0.02608103f, 0.4006599f,
  1.045763f, -0.2125237f, -0.03062152f, -0.0890568f, -0.06254715f, -0.720735f, -0.1153929f, 0.1703399f,
  -1.791186f, -2.440455f, 0.9138646f, 0.3822193f, -0.7321403f, -0.2234194f, -0.3638634f, 0.3179539f,
  -0.6733009f, -0.6451019f, 0.450063f, -0.3188634f, -0.4404251f, -3.453134f, 0.4050268f, -0.6067322f,
  -3.421579f, -0.9174464f, -0.6215223f, -0.2259065f, -0.773078f, -0.5716746f, 1.31295f, 0.5915688f,
  0.1450023f, -0.2324903f, -0.2610922f, -0.2578017f, -0.3457443f, -0.4125727f, -0.09280112f, 0.1625714f,
  0.02470906f, -0.04479288f, -0.003405919f, -0.03032012f, 0.2344909f, -0.7520769f, -3.303861f, -1.402785f,
  0.1618199f, 0.01248604f, -1.448376f, -0.3014363f, -0.2336611f, -0.5679752f, -2.818704f, -2.074816f,
  -8.253377f, 0.5445252f, 0.5543551f, -9.610971f, -0.6305352f, 0.06480043f, -0.9972292f, -4.40614f,
  -7.274775f, -0.03550232f, -0.01302782f, 0.06928816f, 0.2911851f, 0.7175064f, -0.05163744f, -0.6306748f,
  -0.2603822f, -0.5306134f, -0.5553119f, 1.740233f, 0.8259845f, -0.1833529f, -0.5648882f, -0.4553748f,
  -0.2296563f, -3.347854f, -1.371878f, 0.02745297f, -1.685163f, -2.788834f, -1.410329f, 0.7836484f,
  -1.871443f, -0.3078309f, 0.4196707f, -0.8666855f, 0.03450911f, -1.881843f, -3.390953f, -0.1842728f,
  0.7965941f, -4.891121f, -5.183596f, -0.7032065f, -0.3169732f, -2.971851f, 0.1793133f, -0.005988491f,
  0.5210675f, 0.6850309f, -1.446716f, -5.459214f, 0.3274167f, -0.317102f, -1.041921f, -0.1445396f,
  0.09859134f, 0.2229428f, -0.5851712f, -0.2665626f, 0.007769247f, -6.101954f, -4.912236f, -2.123862f,
  0.1469403f, -0.9348755f, -1.585273f, -0.4513673f, 0.540338f, -0.218284f, 0.445475f, -4.119288f,
  0.04324418f, -0.4983079f, -3.143549f, 0.1572255f, -0.1714191f, 0.6812432f, 0.002760048f, -0.1109027f,
  -3.680831f, -0.1501649f, 0.05269961f, -0.6935019f, 0.5076487f, -0.8815095f, -0.1917629f, -1.154867f,
  -3.98097f, -1.94828f, -14.8886f, -2.514085f, 0.8190649f, -11.45021f, 0.7187367f, -1.579833f,
  -0.3125788f, -0.01567439f, -0.7003667f, 0.1120466f, -0.1150096f, -1.428816f, 0.02995036f, -1.346177f,
  -4.964409f, -1.923461f, -2.808996f, -4.237269f, -1.35028f, -0.4694589f, 1.022554f, 0.4126812f,
  -0.04505638f, -1.722706f, -1.613141f, -0.807698f, -1.522746f, -0.1890752f, 0.08659012f, -0.09413826f,
  0.02538208f, 0.07976181f, -0.1061588f, -0.604471f, -2.8552f, -8.343657f, -5.325389f, 0.6483025f,
  -0.1492556f, -4.477808f, 0.7903579f, 0.5396292f, -4.183773f, 0.01481649f, 0.09710288f, -2.668315f,
  -0.1488496f, -0.07386693f, -2.585581f, -1.934947f, -0.2585708f, -2.988863f, -4.944121f, -4.258995f,
  0.3426135f, -0.8765749f, -0.8846512f, 0.03398591f, -0.2584789f, 0.4159021f, -0.002285015f, -0.0004914633f,
  -0.0006243231f, -0.0002049001f, 0.00117175f, 0.0001360059f, -7.647018e-07f, 0.0001604644f, -0.0001263548f, -0.6773186f,
  -5.310926f, -2.829799f, -0.8630973f, -0.4704048f, -0.3613943f, 0.3727444f, 0.1461128f, -0.8204503f,
  -5.052104f, -1.995685f, 0.3728504f, -0.2419686f, 0.09536023f, 0.1160169f, 1.053807f, -0.4908147f,
  -0.3338247f, 0.1354497f, -0.07102965f, -0.05467553f, -0.90579f, 0.2769932f, 0.2338195f, -2.541857f,
  -4.683918f, -1.633505f, 0.2096298f, -0.4396613f, -2.1176f, -0.09841153f, 0.08781886f, -0.5212918f,
  -3.408775f, -0.08475211f, 0.161495f, -3.638039f, -4.986779f, 0.4536738f, 0.2888192f, -0.05789249f,
  -0.6270629f, 0.06203614f, 0.2781517f, -0.2490701f, -0.1929334f, -1.472456f, 0.007573074f, -5.98162f,
  0.105875f, 0.05118239f, -6.138608f, 0.1361745f, -0.3169921f, -0.07468756f, 1.890989f, -0.6714236f,
  -0.04656202f, 0.313476f, -0.115489f, -0.5179449f, -0.5820804f, -0.6117942f, -1.439583f, -3.585176f,
  -2.585903f, 0.01801569f, -0.2645341f, -2.199198f, 0.2394257f, 0.0219974f, 0.6156453f, 0.158961f,
  -0.7458985f, 0.1180274f, -0.4046926f, 0.3467222f, -1.294196f, 0.05532465f, 0.06451912f, -4.647512f,
  -0.08048657f, -5.181413f, -0.7565328f, -8.184822f, -0.964809f, 0.2320669f, -8.897151f, 0.6359951f,
  -0.1921137f, -0.1351535f, 1.396546f, -0.3095465f, -0.4191029f, 0.4746938f, -0.1991852f, -0.004939086f,
  0.1371887f, -0.7615647f, -0.9782449f, 0.02759304f, -0.01608383f, -5.823293f, -0.9761554f, -0.3848147f,
  -1.65924f, 0.3665069f, -0.1248072f, -10.28117f, -15.60514f, 0.7525715f, 1.227147f, -3.48045f,
  -0.1191909f, 2.475819f, 1.092782f, 0.967168f, -8.833381f, -11.14306f, -1.947231f, -0.7508573f,
  -1.262591f, -0.03532768f, -0.5865144f, -0.2531881f, -1.233889f, 0.1198494f, 0.123943f, -0.1195691f,
  -0.4639813f, 0.1417243f, 0.05463632f, -1.21269f, -0.2343308f, -0.3653699f, -0.255482f, -0.493183f,
  -0.3479567f, 0.001772722f, 0.005136949f, -0.0003844028f, 0.001437736f, -0.005130264f, 0.007476616f, 0.7525777f,
  -0.4627002f, -1.394565f, -1.479478f, -5.380527f, -4.118364f, -0.3666162f, -0.6047234f, -5.101398f,
  0.00725527f, 0.2629597f, -0.2864699f, -0.1340369f, -0.3350519f, -0.403358f, -0.5639173f, -0.1975042f,
  -0.3056349f, -1.018538f, 0.3991909f, -0.8238907f, -2.641703f, -2.579203f, -2.218756f, -2.038937f,
  -0.2844952f, -0.8171952f, -5.992373f, -6.881499f, -1.154274f, 0.2137614f, -2.973671f, 0.3925962f,
  -1.840193f, 1.014199f, -1.057392f, -8.037658f, -5.079652f, -7.909761f, -3.594246f, -0.3222668f,
  1.363339f, -0.5575588f, -1.82412f, -2.634311f, 0.3922725f, -7.1619f, -7.960274f, -2.058463f,
  0.8271775f, -0.4419262f, -2.61505f, -0.169015f, 0.4729083f, -0.8841031f, -0.7581631f, 0.4395562f,
  -0.6806796f, -0.3743131f, -3.685507f, -0.02382471f, -0.7409108f, -2.627677f, -4.294801f, -2.242657f,
  -0.368851f, -1.953055f, 0.2012193f, 0.1686431f, 0.3057395f, -0.3072736f, -0.1863833f, -0.113677f,
  0.4925582f, -0.1141051f, -1.226529f, -2.835342f, -1.768745f, 0.5702422f, -1.046848f, -0.9760851f,
  0.05315404f, 0.03486816f, -0.2062934f, -0.570073f, -0.03136364f, -0.5175009f, -1.3731f, -0.5733781f,
  -0.03646758f, 0.2447119f, -0.2446264f, -0.1122572f, -0.5229064f, 0.4954648f, -0.5053626f, -4.19282f,
  -1.743958f, -0.2008136f, 0.1812542f, -0.7086307f, 0.7855045f, 0.2319392f, -1.680532f, -0.08259822f,
  -0.8305008f, -4.675149f, -2.131568f, -0.1856028f, 0.1942433f, -0.6631131f, -0.2824099f, -0.1599273f,
  -0.2472131f, -0.8441653f, -3.242493f, -7.03086f, 0.5055184f, -3.040935f, 0.04173241f, -0.3178117f,
  -1.058006f, -1.100468f, -1.117819f, -0.8991005f, -1.687495f, -0.386367f, -5.157895f, -2.171618f,
  0.4869748f, -0.8168799f, 0.1581884f, -0.3235804f, 0.6139314f, -0.9632816f, -0.4743657f, 0.4028406f,
  -0.6319909f, -0.8831884f, -0.1134786f, -0.4188727f, 0.4171904f, -2.154057f, -3.931372f, 0.2326416f,
  -2.3757f, -1.433701f, -3.728272f, -0.03718897f, 0.2641115f, -2.855943f, -0.1046603f, -0.02776635f,
  0.2605425f, -0.8686933f, -0.6698029f, -0.4359335f, 0.260169f, -1.265035f, 0.4577239f, -1.039299f,
  -4.401175f, -14.38911f, -7.892183f, -0.862649f, 0.007545439f, 0.4414758f, -0.356359f, 0.5193004f,
  -0.1112865f, -0.7875882f, 0.05383702f, 0.1912767f, 0.006269018f, -0.953561f, -4.805733f, -2.259884f,
  0.2735464f, -0.1634818f, -0.892328f, 0.2781854f, -9.077548f, -12.76101f, -6.992164f, -0.7374163f,
  -0.5450405f, -0.4068249f, -3.076181f, -2.386405f, -2.429539f, -1.461588f, -2.582705f, 0.1085703f,
  -0.7821858f, -3.570542f, 0.238149f, 1.239134f, -1.444231f, -8.937593f, -4.274131f, -4.339052f,
  -3.373578f, 0.2239223f, -2.107265f, -0.7463997f, -0.7809888f, 0.9821467f, -0.5987545f, -7.316725f,
  -4.87293f, 0.2395309f, -0.05503932f, -0.7882612f, 0.02742916f, 0.3212814f, -0.6647749f, -10.39316f,
  -0.07818859f, 0.7874714f, 0.1517559f, -0.6781915f, -0.3784507f, -1.04053f, 0.17631f, 0.9703887f,
  -0.7193177f, 0.005950983f, -0.6555619f, 0.2296709f, -0.02703673f, -2.220267f, -0.1689263f, -0.09963552f,
  0.3315223f, -0.06092744f, -0.08408122f, -0.1744397f, -0.001302372f, 0.0701403f, -0.02632242f, 0.02106865f,
  -0.002090248f, -0.0178039f, -3.684712f, -0.01044245f, 0.2501279f, -2.569359f, -0.3756358f, 0.3763891f,
  -2.064501f, -1.33388f, 0.109817f, -5.553859f, -0.6571785f, 0.433808f, -0.2079522f, 0.3256653f,
  -0.07236844f, 0.3637784f, -0.2760465f, 0.1789657f, -0.324811f, -5.211636f, 1.249863f, 0.1516858f,
  -1.131305f, 0.6179404f, -2.34095f, 0.2566935f, -1.909814f, -0.4032794f, -2.361489f, 0.8711963f,
  0.07503112f, -2.216069f, -2.023423f, 0.3765249f, 1.059009f, 0.2245082f, -3.23861f, -3.158333f,
  -4.91949f, -1.349351f, -0.04980433f, -0.2176912f, 0.2103055f, 0.1669901f, -0.283208f, -5.125664f,
  -1.92678f, -3.581081f, 0.325177f, -0.9208194f, 0.1696783f, -0.2542302f, 0.5259753f, -0.3814047f,
  -0.9750235f, -0.06134047f, -0.08289135f, -1.549601f, -0.5571151f, -8.287236f, 0.1666483f, -0.7213007f,
  -0.1210184f, -0.10146f, -0.5341271f, -5.468761f, -8.997822f, 0.7536416f, -0.6013022f, -8.751395f,
  0.06429875f, -1.799847f, -4.593735f, -5.174258f, -1.204263f, -0.2694652f, -0.7002701f, 0.5157087f,
  0.4048489f, 0.7087626f, -0.9510975f, -0.005417038f, 0.03705355f, 0.03451943f, -1.84751f, 0.1811722f,
  -0.7382483f, -4.417942f, -0.07459947f, 0.547552f, 0.226724f, -1.657441f, 0.6870608f, -0.4114426f,
  -5.212342f, -3.058223f, -0.8573784f, -3.512964f, -1.512817f, -2.547464f, -0.2816746f, 0.578749f,
  -1.884501f, 0.5108133f, -0.2090867f, -1.426829f, 0.3917874f, -0.5795743f, -0.2284543f, -1.348917f,
  -3.69143f, -8.849083f, 0.1391866f, 0.4941152f, -6.499584f, -0.5164285f, -0.4163528f, -0.0425367f,
  -0.6106011f, -4.695494f, -1.469804f, -0.009224592f, -2.560793f, -1.426978f, 0.5636816f, -0.2283255f,
  0.2725723f, 1.160828f, -0.01243373f, -0.2568579f, -0.1727701f, -0.06023408f, -0.6373451f, -0.5246355f,
  0.3767325f, -0.6745147f, 0.1546754f, -0.2881972f, -0.400115f, -1.836167f, -6.318368f, -0.7208599f,
  0.6428773f, 0.5110562f, -0.4767404f, -0.450262f, -0.3095706f, -0.6473643f, -3.292351f, -1.764873f,
  0.2316693f, 0.1694386f, -1.096553f, 0.117967f, -4.59001f, -4.791524f, 0.2031208f, -0.2498751f,
  0.006553032f, 0.305519f, 0.1875036f, 0.499421f, -6.019391f, -3.30043f, -1.537834f, -0.2040408f,
  0.30916f, -0.5948249f, -1.997271f, 0.4062487f, 0.3649873f, 0.1030234f, -0.4154196f, 0.1471748f,
  -0.4372869f, -0.2386777f, -1.931266f, 0.1956384f, -1.703175f, -1.080919f, 0.7464195f, -2.316749f,
  -8.667726f, -4.401337f, 0.3901314f, 0.07785079f, 0.5422345f, 0.147964f, 0.2862664f, -1.862773f,
  0.8402249f, -3.899864f, -0.2291182f, -0.2442411f, -1.886078f, 0.1372202f, 0.2381564f, -1.247652f,
  -0.1722079f, -0.4326608f, -0.02397695f, -1.695952f, -1.125216f, 0.711909f, -4.236203f, -0.3796816f,
  -2.250447f, -0.424563f, 0.2699409f, -3.878049f, 0.05496839f, -0.6487855f, -1.609222f, -0.09448384f,
  0.01070022f, -0.543869f, -7.841394f, 0.2213067f, -0.6214202f, -1.513314f, 0.01784933f, -0.2590942f,
  1.590219f, -0.1423597f, 0.3232065f, 0.2435684f, -2.384049f, -0.09062371f, -5.655469f, -0.6487843f,
  -0.1134922f, -3.240841f, -1.399806f, -0.6670083f, -0.01053746f, 0.01543544f, -0.6440439f, -3.665522f,
  -0.6400329f, -0.09838516f, -0.7482868f, 0.9213539f, -0.07124666f, 0.2517691f, -0.5000549f, -1.834949f,
  -1.128656f, -2.054933f, -5.848647f, 1.036941f, -0.8651336f, -3.9173f, -1.223528f, -1.786536f,
  -0.582251f, -1.180493f, 0.4281485f, 0.4314321f, -3.471721f, -2.340333f, 0.09414817f, -1.554859f,
  -0.5552908f, -0.3716132f, 0.2042823f, 1.413823f, 0.3508234f, -0.3171268f, 0.08904009f, 0.3087358f,
  -0.6998571f, -2.803046f, -4.921962f, 0.1664344f, -1.163955f, -0.1003265f, -0.7640929f, 0.06461345f,
  -0.3666965f, 0.1494525f, -0.6329495f, -0.5097482f, -0.4050418f, 0.4616665f, 0.05952433f, 0.1148815f,
  -0.1708813f, -0.2247876f, -0.5096942f, -0.2545847f, -0.745589f, 0.02487674f, -1.366223f, -2.373221f,
  -1.715889f, -2.577559f, -3.266073f, 0.0710924f, 0.1979951f, -0.4894877f, -3.173587f, -0.9797341f,
  0.4590942f, 0.2603571f, -1.120018f, -0.3517022f, -5.084707f, -2.217468f, -2.047651f, -6.356778f,
  0.06935988f, -0.3516587f, -6.072552f, 1.876164f, -0.05916169f, -1.420296f, -0.0971594f, -0.2360897f,
  0.2371088f, -0.1667415f, -0.5315359f, -2.396789f, -1.185316f, -0.8575342f, 0.5048085f, -1.202665f,
  0.2911928f, -9.75295f, 0.05873276f, 0.5107327f, -8.506916f, -1.238016f, -0.1863691f, -1.123537f,
  -0.5070575f, -0.1515826f, 0.2065489f, 1.071867f, 0.06325055f, -0.2622377f, 0.1718202f, 0.2929204f,
  -0.09040319f, 0.2697943f, 0.009219279f, -1.241788f, -0.1897774f, 0.2004283f, -0.9347978f, -0.3335158f,
  0.2024968f, -0.5964117f, -9.564274f, -12.97911f, 0.9527102f, 1.273785f, 11.85319f, -3.062775f,
  -1.180354f, 4.394432f, -0.2533579f, -1.341636f, -0.2728015f, 0.05870765f, -0.6162658f, -1.963457f,
  -0.8741194f, 0.7997081f, -3.49069f, -7.333917f, 0.05545183f, 0.1205665f, -2.481472f, 0.1893733f,
  0.1519189f, -0.1715486f, -0.7413407f, -0.4236712f, -1.183811f, -0.1154643f, -0.5701905f, -3.782277f,
  0.32012f, -0.212243f, -1.772228f, -0.4616075f, 0.4218271f, 0.7077971f, -3.757056f, -3.808304f,
  -0.3461944f, -0.1639661f, -1.287992f, 0.7640173f, -0.6581311f, 0.9760144f, 0.6939086f, -2.187143f,
  0.3477418f, -3.323767f, 0.6223252f, 0.1191337f, -3.907036f, -0.4197075f, -1.317557f, 0.08523803f,
  -0.3517213f, -4.850095f, -0.03494088f, -0.4488917f, -0.2343136f, -0.423323f, 0.2910339f, 0.1785813f,
  0.4236153f, 0.811099f, -0.08178749f, -0.156548f, -0.3872547f, -0.1963913f, -0.3608854f, -0.8790553f,
  -0.2611629f, -0.3720078f, 0.2244052f, 0.0002460033f, -0.227622f, 0.5394986f, -0.3977513f, -0.1929692f,
  -1.420338f, -4.697846f, 0.1543935f, -0.5050415f, -4.080862f, 0.4475212f, -0.806487f, 0.1681961f,
  0.2466403f, -1.844096f, -1.530365f, -0.6875014f, -4.866866f, -0.3610416f, -4.126295f, -0.553224f,
  0.2166069f, -2.427842f, -1.13801f, -0.2113681f, -6.032645f, -9.726706f, -13.28282f, -0.7425495f,
  -0.3794734f, 1.001156f, 1.144695f, 0.1681783f, -0.5556785f, -5.659537f, -0.3049165f, 0.2018705f,
  0.1301663f, 0.008224239f, -0.3019918f, 0.2694948f, -0.8639045f, 0.1070157f, -9.742015f, -0.383879f,
  0.4214466f, -2.613898f, 0.2597905f, -0.5999518f, 0.6669031f, -0.2086848f, -0.9095556f, 0.2237405f,
  -0.9347643f, -3.755674f, 0.2463118f, -0.8028919f, -6.429433f, -0.04291243f, 1.230567f, -1.941148f,
  0.1582982f, -0.6989812f, -0.09315276f, -1.250229f, -3.934231f, -1.475861f, -0.5739021f, -0.8412869f,
  -0.07387371f, -1.190235f, -0.2155603f, -0.2350584f, -0.2141461f, -2.634406f, -2.013775f, -1.277453f,
  0.7720051f, -2.058925f, -1.098464f, -5.82748f, -1.379822f, -1.990109f, -0.4002616f, 0.5617241f,
  0.5976484f, 0.1994632f, -0.9017596f, -0.8048463f, 0.2227349f, -0.1308612f, 0.2961094f, -0.2981397f,
  -0.9145838f, -2.515625f, -0.6840512f, -4.508858f, -3.655961f, -1.13449f, -0.833705f, -0.3938905f,
  0.5775595f, -0.7866327f, 0.3961238f, -0.6696079f, 0.6716093f, -2.231392f, -0.01819002f, 0.07774339f,
  -2.613782f, 0.1201255f, -0.1122103f, -4.627176f, -1.057351f, -0.4774541f, -5.090071f, -5.008051f,
  -0.4696328f, -0.9207755f, -0.03402048f, 0.3659607f, 0.6647474f, 0.6450437f, -1.637668f, 0.4364233f,
  1.223139f, 0.08244608f, -0.04875797f, 0.06841256f, 0.0489871f, -0.4566988f, -0.02404066f, 0.2025581f,
  -0.3611953f, -5.811532f, -3.853084f, -0.2189487f, -0.2825213f, 0.3647695f, 0.3819854f, 0.5523347f,
  0.1276792f, -0.9428484f, 0.0226204f, -0.7338362f, -0.4418828f, -0.5674029f, -0.578411f, -4.005754f,
  -0.648441f, 1.478492f, -5.945357f, -2.570509f, 0.2973028f, -1.048832f, -0.4182851f, -0.1147673f,
  0.9038599f, 0.2269776f, -1.68938f, 0.2255223f, -1.955327f, -6.495375f, -0.6568622f, 0.2224474f,
  -1.7761f, 0.07807465f, 0.06311652f, -1.244938f, 0.03435789f, -0.1180495f, 0.1353706f, -1.399253f,
  -3.964613f, -0.7149618f, -3.153165f, -4.781787f, -0.1422057f, -0.001516042f, -1.135924f, -3.760469f,
  -0.1226424f, -0.3867143f, -2.097381f, -0.2380265f, -0.0517779f, -0.7448259f, -0.4327076f, -3.210549f,
  -3.481435f, 0.1476278f, 0.05947854f, -0.133616f, -0.297444f, -0.2987573f, 0.07843283f, -0.1060956f,
  -0.4734438f, -0.2519626f, -3.747721f, -1.699215f, -0.9852784f, -2.296284f, -0.7847278f, 0.9109213f,
  0.0753524f, -0.04058467f, -0.7682434f, -0.2340766f, -0.9177113f, -4.618927f, 0.1436653f, 0.2880995f,
  -0.6076121f, 0.5611393f, -0.1703976f, 0.2449219f, -10.73337f, -0.1207786f, 0.5450462f, -5.787455f,
  -0.3218251f, 1.148569f, 0.7617508f, -2.453135f, -4.295197f, -10.75215f, 0.5592284f, 0.1131251f,
  -2.10723f, -0.3854028f, -0.5378517f, 0.0228646f, -0.6691324f, 0.1588058f, -0.7216279f, -0.03855094f,
  -2.139185f, 0.378215f, -2.105346f, -1.675841f, -0.2993953f, -0.4639412f, -0.2847786f, -0.006691301f,
  0.04560835f, -0.005056532f, -0.01642248f, 0.01746897f, -0.009414544f, -0.07028586f, 0.1879949f, -0.4009533f,
  -5.598887f, -0.1377875f, 0.2152963f, -1.377893f, -0.2134586f, 0.237298f, -7.786075f, -11.2749f,
  -9.197294f, -4.752443f, 1.242149f, -0.2488607f, -4.380359f, -0.3552527f, 0.261568f, -4.163046f,
  0.3058838f, -0.6408398f, -1.436031f, 0.004941832f, 0.2264099f, -0.5523825f, 0.05514625f, -0.8067141f,
  -0.1515947f, -5.330314f, 0.1078198f, -0.09740251f, -0.2925969f, 0.4710726f, -0.2438688f, -0.3692545f,
  -0.2993503f, -0.3414917f, -0.05847371f, -0.004299138f, 0.0268355f, 0.4027626f, 0.0006093098f, -0.1916123f,
  -0.0549246f, -0.04109958f, -0.2652828f, -0.00497595f, -0.05418976f, 0.3108261f, -0.1722291f, -5.477645f,
  -0.7559304f, -0.530258f, -7.591147f, -8.30472f, -5.528228f, -7.413536f, -1.184359f, -3.915894f,
  0.3856782f, -1.266208f, 0.2717362f, -0.735939f, -2.016502f, 0.4698521f, -0.3089056f, -3.813965f,
  -0.3399248f, 0.2129468f, 0.1904564f, 0.5820991f, -0.1122186f, -0.8829208f, -5.919345f, -2.707469f,
  0.08567531f, -0.06444794f, -0.5304927f, 0.2432972f, -0.1266829f, -0.9942865f, -0.3861155f, -0.4128204f,
  0.1995631f, -6.571662f, -0.2095699f, -0.05918098f, -5.964347f, -0.7232554f, 0.04731508f, -0.7653639f,
  -0.4133202f, 0.09193255f, -0.008353035f, -0.0829421f, 0.01370134f, 0.002829322f, -0.1167908f, -0.8129326f,
  0.6013746f, -3.708954f, -5.396145f, -2.578758f, 0.2018196f, 0.3650425f, 0.2793094f, 0.3398625f,
  -0.7051019f, -2.529878f, -6.307657f, -4.886226f, -0.08304036f, -0.174699f, -0.1425426f, 0.3009108f,
  0.1117015f, -0.3292756f, -2.366036f, -10.42127f, -0.9303299f, 0.3887826f, -0.4880719f, -0.5817584f,
  0.6221201f, 0.2839862f, 0.4035145f, -3.309203f, -0.5088837f, 0.8701203f, -6.757004f, -0.1622708f,
  0.1528211f, -1.425691f, -0.2055876f, -0.1769053f, -0.4260212f, 0.3318619f, 0.3172035f, 0.6809996f,
  -0.1309548f, -3.993623f, 0.2195049f, -0.1987381f, -5.778221f, 0.3300112f, -0.7814892f, 0.1897674f,
  -0.5911545f, 0.6616542f, -0.07659166f, -0.02974716f, -1.765596f, -4.191392f, 1.327915f, -0.6049947f,
  -0.1321625f, -6.814258f, 0.4492859f, 0.2522088f, -9.906433f, -0.3577016f, -0.07047329f, -7.19406f,
  -2.442056f, 0.06264237f, -1.974145f, 0.2251177f, -0.4162654f, 0.7527031f, -0.2431951f, 0.7268528f,
};

#define W26_LEN (2304u)

#endif // W26_H