#ifndef W28_H
#define W28_H

#include <stdint.h>

// Auto-generated by txt2h.py on 2026-02-16T03:54:18
// Source count: 512

const float w28[512] = {
  0.07171417f, -0.008493722f, -0.01360357f, 0.05396858f, -0.04646539f, 0.05918876f, -0.04930378f, -0.1259755f,
  0.02890261f, 0.1364238f, -0.02104354f, 0.109978f, -0.02247597f, 0.3036286f, 0.0617711f, 0.03690901f,
  0.0647352f, 0.1060231f, 0.02437097f, -0.07702176f, 0.05540781f, 0.02288055f, 0.1089019f, 0.06037943f,
  0.05214246f, 0.01884427f, 0.007952422f, 0.03504127f, 0.0464735f, 0.001184051f, -0.09859945f, -0.1153766f,
  -0.09335528f, -0.05968275f, 0.3629788f, -0.06157253f, -0.03550639f, 0.3104989f, -0.1050824f, -0.0003546181f,
  0.00534384f, -0.005515066f, 0.03367019f, 0.3229993f, 0.073574f, 0.05734696f, -0.1263476f, -0.1113005f,
  0.09484208f, 0.04713649f, 0.3048521f, -0.02026842f, -0.01720064f, 0.04551462f, -0.04365698f, 0.01015956f,
  -0.587254f, -0.05977543f, -0.01640044f, 0.0333125f, 0.09370162f, 0.03858457f, 0.009019609f, -0.1218633f,
  -0.07170733f, 0.01189166f, 0.06265756f, 0.1308031f, -0.04638026f, 0.1201371f, -0.008833493f, 0.07057112f,
  -0.1003999f, -0.5239018f, 0.04334586f, 0.04731548f, -0.01640752f, -0.03203936f, 0.01731296f, -0.1260348f,
  -0.09763528f, 0.00428047f, -0.07136682f, -0.0385753f, -0.0654342f, -0.03816741f, 0.03997635f, 0.2603588f,
  0.1208476f, 0.05996499f, -0.004812806f, -0.1472492f, 0.1007733f, -0.07507328f, 0.04157381f, -0.4526014f,
  -0.0154103f, -0.04703676f, 0.05535564f, 0.2023735f, 0.01114709f, -0.1020815f, -0.02133111f, -0.02588788f,
  -0.05051611f, -0.01439728f, -0.0242198f, 0.008623661f, -0.03505832f, 0.03634219f, -0.03962075f, 0.031536f,
  -0.01317187f, -0.02498798f, 0.1127261f, -0.07847818f, -0.1410582f, -0.08313885f, -0.09905905f, 0.04410188f,
  0.02684578f, 0.03292859f, -0.06747397f, -0.03653107f, 0.06891878f, 0.002140332f, 0.1126679f, 0.04680057f,
  0.06176033f, -0.008452388f, -0.08996098f, 0.01054411f, -0.07445577f, -0.1021935f, 0.02304457f, 0.0005486833f,
  -0.004435074f, 0.07421625f, -0.04435411f, -0.0627238f, -0.1071689f, 0.04241249f, -0.05757998f, -0.3613275f,
  -0.04173812f, -0.01624103f, -0.02310392f, -0.01472145f, 0.04933478f, 0.2539658f, 0.06070146f, 0.02106448f,
  0.1368994f, -0.1049473f, 0.07666078f, 0.003171868f, 0.09539334f, 0.01656432f, 0.04992486f, 0.0243852f,
  0.06136892f, -0.005160079f, 0.09320602f, 0.00233509f, 0.01784812f, -0.0282184f, 0.04292427f, 0.03629366f,
  0.02018823f, -0.02480203f, 0.0468535f, 0.07168169f, 0.01479975f, -0.01839509f, -0.0880257f, -0.01015823f,
  -0.03794415f, -0.2525889f, -0.08643753f, 0.03946053f, 0.02463597f, 0.01831735f, -0.07938287f, -0.03864034f,
  0.03082359f, 0.04134643f, 0.05194f, -0.04533548f, -0.09213462f, 0.2950505f, -0.07483662f, 0.00985911f,
  -0.06901056f, 0.04182113f, 0.05638524f, 0.07620408f, -0.1271684f, -0.05660598f, 0.0542307f, 0.03901011f,
  -0.3468608f, -0.351503f, 0.02339236f, 0.006830769f, 0.03504962f, 0.05078518f, 0.02514044f, -0.2210601f,
  -0.006024919f, 0.01644538f, -0.04302451f, 0.088516f, 0.04397674f, 0.03012511f, 0.2593937f, 0.1101888f,
  0.08301689f, -0.05751486f, 0.1258688f, 0.0210343f, 0.06449586f, 0.1000942f, 0.418249f, -0.06193646f,
  0.06755447f, 0.1093868f, -0.05798033f, -0.004064953f, -0.04474578f, 0.08391115f, -0.08997463f, -0.04870197f,
  0.02250268f, -0.05056519f, 0.009055667f, 0.005513471f, 0.000735756f, 0.01480209f, -0.05401608f, -0.407169f,
  0.01919349f, 0.02691354f, -0.1280175f, 0.1363952f, -0.01539403f, 0.08433353f, -0.03634248f, 0.05494753f,
  -0.09516249f, -0.1676555f, -0.01440082f, 0.05224616f, -0.1143026f, 0.2130879f, 0.1363135f, -0.05102415f,
  0.07169129f, -0.008933698f, -0.01370417f, 0.05617668f, -0.04729448f, 0.05930201f, -0.0493338f, -0.1263396f,
  0.03207124f, 0.1358802f, -0.02129028f, 0.1099129f, -0.02243197f, -0.3414764f, 0.06178588f, 0.03697645f,
  0.06659982f, 0.1059572f, 0.024094f, -0.07762647f, 0.05577137f, 0.01408739f, 0.1105753f, 0.06038724f,
  0.052131f, 0.01860793f, 0.01279593f, 0.02348303f, 0.0464569f, 0.001583808f, -0.09882883f, -0.115579f,
  -0.093569f, -0.06043496f, -0.2952307f, -0.06115771f, -0.03554833f, -0.3281904f, -0.1053097f, -0.006091399f,
  0.00530429f, -0.001457085f, 0.03365805f, -0.3011388f, 0.07362831f, 0.0615523f, -0.126375f, -0.1112907f,
  0.09481435f, 0.04684919f, -0.3053658f, -0.0202653f, -0.01626876f, 0.04552801f, -0.04462214f, 0.01025523f,
  0.5994768f, -0.05701874f, -0.01548749f, 0.03364163f, 0.09372245f, 0.03886922f, 0.009345731f, -0.1218205f,
  -0.07172793f, 0.01139264f, 0.06240038f, 0.1307615f, -0.04773432f, 0.1197568f, -0.008714256f, 0.07163253f,
  -0.1000549f, 0.492607f, 0.04314101f, 0.04726181f, -0.01646826f, -0.0338527f, 0.01273266f, -0.12599f,
  -0.09757636f, -0.1021874f, -0.07120325f, -0.04127419f, -0.0655828f, -0.03902759f, 0.03999393f, -0.2744242f,
  0.1064371f, 0.06088204f, -0.004061306f, -0.1469719f, 0.1005355f, -0.07512683f, 0.04149315f, 0.5308462f,
  -0.01550775f, -0.0472081f, 0.05490708f, -0.2338998f, 0.01087701f, -0.1021405f, -0.02159495f, -0.02584304f,
  -0.05049341f, -0.01630098f, -0.02496128f, 0.008777694f, -0.03529577f, 0.04343349f, -0.03930937f, 0.03212089f,
  -0.01311774f, -0.03387491f, 0.1127565f, -0.07727076f, -0.1409124f, -0.08343001f, -0.09896562f, 0.04461285f,
  0.02903752f, 0.03281352f, -0.06745585f, -0.03558076f, 0.06879322f, 0.002202251f, 0.1118842f, 0.04684375f,
  0.06158845f, -0.008571859f, -0.0895968f, 0.010937f, -0.07162729f, -0.1022137f, 0.02276119f, 0.0004185045f,
  -0.001515084f, 0.07418583f, -0.04597924f, -0.06272683f, -0.1055684f, 0.04174485f, -0.05147664f, 0.3699672f,
  -0.04257302f, -0.0162548f, -0.02325147f, -0.04255709f, 0.05077216f, -0.1698975f, 0.06352619f, 0.02045237f,
  0.1379734f, -0.1042149f, 0.07721575f, 0.003206187f, 0.09592193f, 0.01407885f, 0.04991652f, 0.02429247f,
  0.06133787f, -0.005122548f, 0.093039f, 0.002189093f, 0.01763262f, -0.02856327f, 0.0416559f, 0.03327714f,
  0.03726897f, -0.026309f, 0.04676938f, 0.07106092f, 0.01482602f, -0.01808091f, -0.08795276f, -0.01017012f,
  -0.03817447f, 0.2741061f, -0.0866317f, 0.03971504f, 0.02409658f, 0.01806126f, -0.079347f, -0.04099567f,
  0.03089343f, 0.04211894f, 0.05204704f, -0.0454897f, -0.09250771f, -0.3255851f, -0.07432899f, 0.009873046f,
  -0.0686546f, 0.0411793f, 0.05611435f, 0.076166f, -0.1270575f, -0.0564734f, 0.05440022f, 0.03877976f,
  0.3170357f, 0.3863011f, 0.02233083f, 0.007661351f, 0.03509599f, 0.05082867f, 0.02514887f, 0.2627522f,
  -0.006675584f, 0.01294511f, -0.04433582f, 0.08324583f, 0.04402277f, 0.01839752f, -0.3160171f, 0.10988f,
  0.08243497f, -0.05737135f, 0.1258007f, 0.02099808f, 0.06453943f, 0.1000737f, -0.3645711f, -0.06190926f,
  0.06627195f, 0.1095052f, -0.05797987f, 0.0006082763f, -0.04504884f, 0.07581653f, -0.09626121f, -0.04775447f,
  0.01788712f, -0.0507674f, 0.00972084f, 0.005551856f, 3.248211e-06f, 0.02074314f, -0.07103407f, 0.4682477f,
  0.0191994f, 0.02688957f, -0.1280712f, 0.1359588f, -0.01538245f, 0.08427016f, -0.03302976f, 0.05492172f,
  -0.09200299f, 0.1648028f, -0.01481919f, 0.05111847f, -0.1145386f, -0.2187859f, 0.1364504f, -0.05134534f,
};

#define W28_LEN (512u)

#endif // W28_H