#pragma once

// kind=conv2d, layout=OIHW
// layer=enc1_conv16
// dims: Kh=3, Kw=3, Cin=1, Cout=16
// Keras: (Kh,Kw,Cin,Cout) -> Noodle: (Cout,Cin,Kh,Kw)
static const float w01[] = {
  -9.768819e-02f, 1.974944e-01f, -2.661692e-02f, 9.908435e-02f, -1.830346e-01f, -1.555699e-01f, -4.043417e-02f, 1.814562e-02f,
  1.425627e-01f, 1.918627e-01f, 1.792022e-01f, -7.998798e-02f, 4.361553e-02f, 1.291993e-01f, -8.241265e-02f, -3.018149e-02f,
  -8.265504e-03f, -2.474758e-02f, -4.458687e-02f, -1.602913e-01f, 1.650387e-01f, 1.788585e-02f, -1.456023e-01f, 9.875552e-02f,
  -6.075133e-02f, -3.879229e-02f, 8.871319e-02f, 1.130534e-02f, -7.811686e-02f, -1.224956e-01f, -1.873467e-02f, 9.250126e-02f,
  1.232997e-01f, -1.477343e-02f, -2.696886e-02f, 4.672896e-02f, 1.334694e-01f, -4.477968e-02f, 2.172401e-03f, 1.773122e-01f,
  1.573358e-01f, 3.914518e-04f, 1.216596e-02f, 1.964241e-01f, -2.218953e-02f, -8.628326e-03f, 7.625807e-02f, 8.800672e-02f,
  1.638352e-01f, 1.804262e-01f, 8.357259e-02f, 1.927924e-01f, -2.203178e-01f, -6.031929e-02f, -5.281299e-02f, 1.174646e-01f,
  -1.106679e-01f, -8.683328e-02f, 1.467455e-01f, 9.212550e-02f, -9.170635e-02f, -7.690550e-02f, -4.070698e-02f, 2.158719e-03f,
  -8.094775e-02f, -1.655840e-02f, 6.120959e-02f, 1.535221e-01f, 6.911584e-02f, 1.518084e-01f, 8.580620e-02f, 1.271006e-01f,
  -6.424385e-02f, -1.131851e-02f, 1.632095e-02f, 1.264077e-01f, 1.794851e-01f, -5.915140e-02f, 1.081054e-01f, 1.113905e-01f,
  4.643656e-02f, -7.335798e-02f, 9.002327e-02f, 8.466730e-02f, -1.573877e-01f, 1.405842e-01f, 9.296783e-02f, -1.693322e-01f,
  -1.776134e-01f, -2.592102e-02f, 1.300773e-01f, -6.919411e-02f, 6.929976e-02f, -1.103210e-03f, -5.235510e-02f, -1.532047e-01f,
  1.563893e-01f, -1.099635e-01f, 1.894066e-01f, 1.775372e-01f, -3.710171e-03f, -7.779987e-02f, -1.200869e-01f, -5.924391e-02f,
  8.445862e-02f, 1.642408e-01f, -1.238903e-02f, -3.892333e-02f, -2.636880e-02f, -6.006251e-02f, -1.079074e-01f, -8.081117e-02f,
  -3.590687e-02f, 2.218945e-01f, 7.018219e-03f, -6.249795e-02f, -7.616154e-02f, 4.488008e-02f, -1.697583e-01f, 8.339685e-02f,
  1.111037e-01f, 9.079968e-02f, 2.533359e-02f, -1.016505e-02f, -7.254815e-02f, 6.011796e-02f, -5.961963e-02f, 1.351665e-01f,
  3.191063e-02f, -3.083317e-02f, 1.627844e-01f, -1.378165e-01f, 1.946780e-01f, 1.470632e-01f, 1.402641e-02f, -5.572812e-02f,
  1.375518e-01f, 1.129155e-01f, 1.346897e-01f, 7.659157e-02f, 1.056091e-01f, -1.331018e-01f, 1.310692e-02f, -2.488506e-02f
};
