#pragma once

// kind=conv2d, layout=OIHW
// layer=enc1
// dims: Kh=3, Kw=3, Cin=1, Cout=16
// Keras: (Kh,Kw,Cin,Cout) -> Noodle: (Cout,Cin,Kh,Kw)
static const float w01[] = {
  -1.850508e-02f, -1.054589e-01f, 1.535239e-01f, -5.144896e-02f, 1.162441e-01f, -1.763162e-01f, 1.355450e-02f, 5.206482e-02f,
  -9.000451e-04f, 3.227589e-01f, 3.088294e-01f, 1.235331e-01f, 5.058910e-02f, -2.014502e-01f, -3.698770e-02f, 1.237522e-01f,
  -7.176251e-02f, 7.639051e-02f, 7.279227e-02f, -1.332429e-01f, 9.454259e-02f, -1.033872e-01f, 1.911011e-01f, -4.640644e-02f,
  7.751492e-02f, 3.077450e-02f, -1.570229e-01f, -9.378724e-02f, -1.160263e-01f, -4.050441e-02f, -1.022622e-01f, -6.361607e-02f,
  -9.297635e-02f, -5.685282e-02f, -1.122395e-01f, -1.018093e-01f, 2.854904e-01f, 2.198261e-01f, -4.478953e-02f, 3.962796e-03f,
  2.503128e-01f, 2.245361e-01f, 2.462583e-01f, 2.518483e-01f, 6.046697e-02f, 9.693974e-02f, 7.478205e-03f, -5.693902e-02f,
  5.547693e-02f, -1.366468e-01f, -7.208069e-02f, -9.650009e-02f, 6.323164e-03f, 1.576384e-01f, 3.912846e-02f, -6.834092e-02f,
  -3.993796e-02f, 4.781444e-02f, -4.992809e-02f, -3.180090e-02f, 1.916487e-01f, 2.239219e-01f, 2.040215e-01f, 1.951527e-01f,
  -1.996562e-01f, -1.486888e-01f, 1.672519e-01f, 7.042880e-02f, 1.849872e-01f, -1.647567e-01f, -1.648428e-01f, 6.260014e-02f,
  -9.458906e-04f, 2.242219e-01f, 4.852395e-02f, 4.262914e-01f, 6.681353e-01f, 1.214910e-01f, 2.471464e-01f, 2.013018e-01f,
  -3.382638e-02f, 1.518714e-03f, 7.242567e-02f, 3.845129e-02f, 2.852096e-02f, -2.292323e-01f, 1.536288e-01f, 3.299171e-04f,
  1.271632e-01f, 5.075511e-02f, 8.234680e-04f, -6.086934e-02f, 1.338014e-01f, -8.702625e-02f, 3.202445e-01f, 4.438440e-01f,
  -1.024762e-01f, 3.019398e-01f, 3.532897e-01f, -1.575259e-01f, 1.773511e-01f, -6.681389e-02f, 2.940082e-02f, 1.845316e-01f,
  1.679174e-01f, -6.371425e-03f, -1.225251e-01f, -1.165757e-01f, 3.230731e-01f, 4.175254e-01f, 3.606064e-01f, 3.331547e-01f,
  -1.440264e-01f, -1.724427e-01f, 1.355471e-01f, -2.225589e-01f, -1.722644e-01f, 4.767234e-01f, 3.669487e-01f, -1.151968e-01f,
  5.627211e-01f, 2.352087e-01f, -2.626259e-01f, -2.858392e-02f, 1.338317e-01f, -7.806290e-03f, 1.558245e-01f, 5.622359e-01f,
  2.275050e-01f, -6.010194e-02f, 3.337783e-01f, 2.512659e-01f, -1.966311e-01f, 1.037920e-02f, 5.722107e-02f, -1.199823e-01f,
  2.686119e-01f, 3.075789e-02f, -5.039986e-02f, 2.178329e-02f, -1.255981e-01f, -1.081654e-01f, -6.001097e-02f, 4.367754e-02f
};
