#pragma once

// kind=conv2d, layout=OIHW
// layer=enc2_conv16
// dims: Kh=3, Kw=3, Cin=16, Cout=16
// Keras: (Kh,Kw,Cin,Cout) -> Noodle: (Cout,Cin,Kh,Kw)
static const float w02[] = {
  -2.261315e-02f, 1.024765e-01f, -5.477345e-02f, -4.267693e-03f, 4.059294e-02f, 4.427184e-02f, 3.116651e-02f, 1.054263e-01f,
  4.017233e-02f, -3.610671e-02f, -8.350565e-02f, 3.582384e-02f, 1.021755e-01f, -2.849223e-02f, 1.612137e-02f, 1.503168e-02f,
  -5.887120e-02f, 3.007953e-02f, 6.170571e-02f, 1.049267e-01f, -4.235525e-02f, 1.575245e-02f, -1.094941e-01f, 4.481266e-02f,
  -2.145720e-01f, 1.822235e-02f, -1.054081e-01f, 8.704004e-02f, 7.671568e-02f, -8.736436e-02f, 8.264125e-02f, 4.087450e-02f,
  7.730508e-02f, 6.482995e-03f, 1.691491e-01f, 4.220841e-02f, -2.591532e-02f, 6.498702e-02f, 2.431305e-02f, -1.234979e-01f,
  -1.837852e-05f, -6.026384e-02f, 1.138998e-01f, 3.902335e-02f, 1.514935e-02f, 6.272741e-02f, 4.660951e-02f, 2.782373e-02f,
  -9.152823e-02f, 4.353692e-03f, 1.607506e-01f, -2.983611e-02f, -5.070465e-02f, -6.889408e-03f, 2.047335e-02f, -6.997162e-02f,
  -2.728111e-02f, 8.574204e-03f, 1.696728e-01f, -5.354702e-02f, 1.284580e-01f, 1.205416e-01f, 2.739677e-02f, -8.308344e-02f,
  1.726818e-01f, 1.833830e-01f, 1.408737e-02f, 3.387913e-02f, -1.172334e-01f, -1.489283e-01f, 1.013116e-01f, 1.057305e-02f,
  8.541609e-02f, 7.096753e-02f, -4.467004e-02f, -9.213433e-02f, 2.682735e-02f, -7.014442e-02f, -1.228185e-01f, -6.890015e-03f,
  1.000407e-01f, 3.651970e-02f, 8.453172e-02f, -3.108944e-03f, 9.404637e-02f, 2.466705e-02f, -2.323570e-02f, 2.265866e-01f,
  8.441332e-02f, 3.572869e-02f, -8.367801e-02f, -1.087367e-01f, 1.720592e-02f, 3.477108e-02f, -7.073609e-02f, 3.099079e-02f,
  5.170626e-02f, -6.181544e-02f, -2.709376e-02f, 6.902973e-03f, -1.090095e-01f, -1.001647e-01f, 1.160146e-01f, 1.376092e-01f,
  -1.262763e-01f, 3.233311e-02f, 1.063779e-01f, -8.657712e-02f, 5.148069e-02f, 1.671816e-01f, 2.894392e-01f, 5.455833e-02f,
  4.347259e-02f, 1.058297e-01f, 1.153245e-01f, 1.243467e-01f, -8.340349e-03f, 4.617143e-02f, 9.263063e-02f, 2.462444e-02f,
  -3.463332e-02f, -1.154825e-01f, -8.583350e-02f, -6.015290e-02f, -4.151485e-02f, 1.216324e-01f, 1.507602e-01f, -5.479056e-02f,
  -1.140850e-01f, 1.886399e-01f, -1.038295e-01f, 6.556360e-02f, 7.673886e-02f, -6.722277e-02f, 5.731246e-02f, -2.153475e-02f,
  8.464419e-02f, -3.892582e-02f, -3.477371e-02f, -6.316012e-02f, 1.030997e-01f, -6.355826e-02f, 1.554354e-02f, 1.124881e-01f,
  5.219075e-02f, 5.164635e-02f, -3.962339e-02f, 7.120050e-02f, 4.283318e-02f, 9.873641e-02f, 1.113073e-01f, 5.497677e-02f,
  -8.125187e-02f, 1.560126e-02f, 1.209219e-01f, -7.732289e-02f, 1.020567e-02f, 9.121202e-02f, -1.040009e-01f, 7.164290e-02f,
  4.169257e-02f, 2.858019e-02f, -5.060353e-02f, -8.219602e-02f, -5.756090e-02f, 5.517541e-02f, -8.860160e-02f, -2.408249e-02f,
  1.085116e-01f, 1.247201e-01f, -1.478515e-01f, 1.097684e-01f, -1.565841e-02f, -1.054771e-01f, -5.165897e-03f, -6.418402e-02f,
  4.650187e-02f, 6.043296e-02f, -7.750430e-02f, 1.920456e-02f, -1.474831e-01f, 6.801616e-02f, 1.220649e-01f, 6.864599e-03f,
  -4.476750e-02f, -5.184316e-02f, 2.725595e-02f, 3.887697e-02f, 9.902307e-02f, 4.404696e-02f, 9.999330e-02f, 1.386491e-01f,
  1.614591e-01f, 4.384120e-03f, 3.211685e-02f, -5.614308e-02f, 1.382708e-01f, 3.716810e-02f, -1.970360e-02f, 7.776794e-03f,
  2.628849e-02f, -3.951229e-02f, -1.273747e-01f, 1.007617e-01f, 8.752267e-02f, 3.882571e-02f, -8.465017e-02f, -7.509728e-02f,
  -2.343447e-02f, 1.579366e-01f, -1.081214e-01f, 9.757145e-02f, 1.488250e-01f, 1.214909e-01f, -1.210504e-01f, 1.247078e-01f,
  4.324585e-02f, 1.248572e-01f, -1.068870e-01f, 8.359685e-02f, 8.533970e-02f, -4.151643e-02f, 8.556478e-02f, -2.501707e-02f,
  1.013206e-01f, 2.156531e-05f, 5.522164e-02f, -1.265511e-01f, 1.174715e-03f, 3.829382e-02f, -5.362283e-02f, 6.854445e-02f,
  1.480492e-01f, 1.327108e-02f, 1.126267e-01f, -7.019214e-02f, 6.415384e-02f, -6.888438e-02f, -1.343664e-01f, -6.642073e-02f,
  -1.443920e-02f, 6.015128e-02f, -1.157002e-01f, 4.965391e-02f, 9.708072e-02f, 8.220972e-02f, 9.014676e-02f, -1.356631e-01f,
  -2.408944e-02f, -1.021541e-01f, -1.110904e-01f, 2.595900e-02f, 1.575972e-01f, 1.241656e-02f, 6.793606e-02f, 9.566195e-02f,
  6.169452e-02f, -3.891990e-02f, 1.193876e-01f, 7.981018e-02f, -3.086501e-03f, -1.075596e-02f, -6.223696e-02f, 6.849509e-02f,
  1.709465e-02f, -1.212380e-01f, -1.414060e-01f, -3.239385e-02f, 8.845270e-02f, -6.752549e-02f, 3.570848e-02f, 3.498303e-02f,
  -7.382433e-04f, -5.239696e-02f, 2.492766e-02f, 6.898748e-02f, -2.302284e-02f, 4.299034e-02f, 1.263415e-01f, -1.889428e-02f,
  2.264170e-02f, 3.117327e-02f, -2.671972e-02f, 9.008567e-02f, 5.611718e-02f, -1.277819e-01f, 5.486520e-02f, 1.401999e-01f,
  9.929580e-02f, -6.604234e-03f, 5.894712e-02f, 2.137588e-01f, -4.367882e-02f, 1.610166e-01f, 8.727574e-02f, -1.612298e-02f,
  -4.675039e-02f, -8.165002e-02f, 1.892583e-02f, -4.524510e-02f, 8.507907e-02f, -3.226494e-02f, 1.248669e-03f, -1.054168e-01f,
  -1.373127e-01f, 1.200269e-01f, -1.943514e-01f, 3.040340e-02f, 8.075524e-02f, 3.819542e-03f, -4.513438e-03f, 4.073175e-02f,
  -8.410881e-03f, 1.213218e-02f, -7.771911e-02f, 2.335295e-02f, -2.401909e-02f, -5.787170e-02f, -5.002636e-02f, -3.405283e-02f,
  1.317655e-01f, 1.018072e-01f, 3.069548e-02f, -7.616321e-02f, 6.055481e-02f, -4.272147e-03f, 1.397712e-01f, -9.594524e-02f,
  7.417932e-02f, 4.977430e-03f, -7.745663e-02f, 4.055459e-02f, -1.617479e-02f, 1.889082e-01f, 2.884877e-02f, 2.653803e-02f,
  6.229349e-02f, -6.551280e-02f, 7.983162e-02f, -1.592287e-01f, 1.260061e-01f, -2.512632e-02f, -6.860836e-02f, -4.090261e-02f,
  2.029801e-02f, 1.089130e-01f, 3.515301e-02f, -2.479891e-03f, -5.236671e-02f, 2.975185e-02f, 4.555401e-03f, 6.586779e-02f,
  -6.258322e-02f, 2.965765e-02f, -1.091810e-01f, -1.201338e-01f, -1.245182e-01f, 8.347932e-02f, 5.726385e-02f, 1.358781e-01f,
  3.501282e-02f, 9.958281e-02f, -1.084973e-01f, -1.412253e-01f, 4.181913e-02f, 6.538019e-02f, -1.211918e-01f, -5.273490e-02f,
  -8.090497e-02f, 5.485996e-03f, 6.376231e-02f, 8.536413e-02f, -2.423919e-02f, 3.446947e-02f, 3.748034e-02f, -7.060140e-02f,
  -1.289900e-01f, -5.433625e-02f, 1.153167e-02f, 2.284371e-03f, 7.763911e-02f, 1.774676e-01f, -9.937099e-02f, -2.918950e-02f,
  -2.704599e-02f, -8.571416e-02f, -7.909205e-02f, -7.649101e-02f, -3.084351e-02f, 7.976428e-02f, 9.272913e-02f, -6.339278e-02f,
  8.704064e-02f, 7.372398e-02f, 6.419509e-02f, -1.026972e-02f, 2.762054e-02f, 3.633484e-02f, 2.027971e-01f, -1.412592e-01f,
  6.678609e-02f, -1.677628e-02f, -2.426006e-01f, 9.545464e-02f, 4.438425e-02f, -1.427754e-02f, 8.226741e-02f, -5.362613e-02f,
  6.383691e-02f, 6.963710e-02f, 7.897364e-02f, 2.048989e-02f, 6.864755e-02f, -6.997403e-02f, -6.071976e-02f, -9.506337e-02f,
  -1.463007e-01f, -1.633364e-01f, -1.241332e-01f, -2.996972e-02f, 8.154444e-02f, -1.348082e-02f, -2.844210e-02f, -8.025354e-02f,
  -1.030745e-01f, 1.466532e-01f, -2.652882e-02f, 8.431962e-03f, 4.305688e-02f, -1.997307e-01f, 3.657961e-02f, -1.334971e-01f,
  -4.165436e-03f, 5.549756e-02f, 1.763286e-02f, 5.307697e-02f, 6.192905e-03f, -1.829884e-01f, 3.992301e-02f, -4.298934e-02f,
  1.410150e-01f, 4.561789e-02f, 3.607276e-02f, -7.797483e-02f, 1.616212e-01f, 1.768685e-02f, 1.105307e-02f, 9.879602e-02f,
  -4.688009e-02f, -1.016111e-03f, -1.354536e-01f, -8.579479e-02f, 9.105332e-02f, -1.432098e-01f, 2.957247e-02f, 7.593150e-02f,
  -8.112179e-02f, -2.878991e-01f, 1.172685e-01f, -1.658726e-02f, -6.533269e-02f, -1.043421e-01f, -2.458538e-01f, 1.045947e-01f,
  -8.208827e-02f, 2.020725e-02f, -2.020180e-01f, 9.928820e-02f, -3.255496e-02f, 1.729021e-02f, 6.346363e-02f, 7.379042e-02f,
  -7.914865e-03f, -4.778048e-02f, 1.208598e-01f, 3.545799e-02f, -1.676076e-01f, -1.142713e-02f, 6.821367e-02f, -6.333571e-02f,
  3.755153e-02f, -3.476518e-02f, 7.938206e-02f, -1.043770e-01f, 2.042879e-02f, -9.690889e-02f, 6.897948e-02f, 1.817390e-01f,
  3.506614e-02f, 2.263256e-01f, 1.329468e-01f, 5.730304e-02f, 2.066134e-01f, 1.039804e-01f, 7.689749e-02f, -6.814561e-02f,
  -7.971786e-02f, -3.575859e-01f, -1.493753e-02f, -2.270730e-02f, -1.526915e-01f, 2.434571e-02f, 6.832158e-02f, -1.219870e-02f,
  -5.771176e-02f, -5.884238e-02f, -1.159949e-01f, 8.741726e-02f, 7.620151e-03f, -6.929880e-02f, -3.466394e-02f, -6.884920e-02f,
  4.410590e-02f, 8.679271e-02f, -3.253724e-02f, 4.532891e-02f, -5.232482e-02f, -4.904847e-02f, 1.108655e-02f, 4.302787e-02f,
  1.272364e-01f, 1.003328e-01f, -1.513760e-02f, 9.552591e-02f, -9.713443e-02f, -4.497749e-02f, -1.379464e-01f, -1.304191e-01f,
  1.575579e-01f, 4.772647e-02f, -5.626976e-02f, 4.915265e-02f, -6.082216e-03f, 6.317593e-03f, 1.451921e-01f, 5.826380e-02f,
  -1.157105e-01f, 5.953780e-02f, -9.776006e-02f, 4.181072e-02f, 1.870616e-01f, 3.660617e-01f, 4.474371e-02f, 1.736456e-01f,
  -1.532395e-01f, 8.582972e-02f, -6.769044e-02f, 1.358864e-01f, 1.283120e-02f, 9.716950e-02f, -1.547711e-01f, 1.310511e-02f,
  -5.455551e-02f, -3.080203e-02f, 2.337601e-02f, 3.801201e-02f, 1.252819e-01f, -2.336261e-01f, 7.519706e-02f, -9.119205e-02f,
  -1.548323e-01f, 6.925934e-02f, -8.290844e-02f, -1.858314e-01f, 8.371600e-02f, 1.538913e-01f, 5.654183e-03f, -3.448174e-02f,
  -1.028334e-02f, -7.687806e-02f, -7.585708e-02f, 2.025738e-02f, -2.772311e-01f, -1.669141e-02f, -1.327885e-02f, -2.615712e-01f,
  -3.649273e-03f, 1.319765e-02f, -8.323441e-02f, 1.601420e-01f, 1.545305e-02f, 1.866613e-01f, -3.685978e-02f, 5.715929e-02f,
  1.605898e-01f, 2.842556e-03f, -9.145974e-02f, -3.468280e-02f, 6.567887e-02f, 7.574839e-03f, 1.672289e-01f, -2.336969e-02f,
  -1.227810e-01f, 1.356688e-01f, -1.921971e-01f, 3.052762e-02f, -1.315375e-01f, -7.624225e-02f, -1.058312e-02f, -1.260802e-02f,
  -1.903815e-02f, 6.635953e-02f, -1.258501e-01f, 2.381675e-02f, -5.951706e-03f, 3.991029e-02f, -5.191681e-03f, 4.683230e-03f,
  9.971780e-02f, 1.235205e-01f, 4.730673e-02f, -4.452875e-03f, -8.311772e-02f, 7.554134e-02f, -3.988066e-02f, 2.634509e-02f,
  -4.446565e-02f, -2.071737e-02f, -7.938936e-02f, -5.981494e-02f, -8.582010e-02f, 8.819430e-02f, -1.525103e-01f, -8.128372e-02f,
  1.311190e-01f, 1.111250e-01f, -1.599588e-02f, 1.535681e-01f, 1.958036e-01f, 6.999598e-02f, 3.660236e-03f, 5.359823e-02f,
  3.040892e-02f, 2.249847e-02f, 8.113471e-03f, 3.538830e-02f, 6.116791e-02f, -4.931445e-02f, 6.076855e-02f, -3.264923e-02f,
  -7.315825e-02f, -8.709289e-03f, -1.122392e-01f, 9.797598e-02f, 1.127036e-02f, 5.768988e-02f, -1.626644e-02f, 5.747603e-02f,
  -9.977230e-02f, -1.005288e-01f, 2.278769e-02f, -6.746481e-02f, -5.739853e-02f, 1.177846e-01f, -1.076665e-01f, 9.154834e-02f,
  -1.476970e-01f, -2.214280e-02f, -4.399483e-02f, -1.370743e-01f, -4.772445e-02f, 8.633666e-02f, 1.835331e-02f, -4.922355e-02f,
  1.748886e-02f, -2.597250e-02f, 2.414694e-02f, 1.276665e-01f, 1.410223e-01f, 9.202792e-02f, 4.114427e-02f, -9.111040e-02f,
  3.432110e-02f, 5.545091e-02f, -8.812360e-02f, 9.617213e-02f, -8.949904e-02f, 5.501060e-02f, 5.808716e-02f, -7.342356e-02f,
  3.090816e-02f, -3.162527e-02f, 8.541806e-02f, -4.569337e-02f, -2.461472e-02f, -2.987706e-02f, 3.399010e-02f, -6.663474e-02f,
  1.103204e-01f, 1.008539e-01f, -1.249327e-03f, 4.231602e-02f, 1.242937e-01f, -9.555451e-02f, -1.423050e-01f, -2.519536e-02f,
  -5.369862e-02f, 3.371142e-02f, 1.185051e-01f, 3.730595e-02f, 1.083311e-02f, 9.370694e-02f, 6.794025e-02f, -9.525687e-02f,
  -1.051193e-01f, -1.692562e-01f, -5.861798e-02f, 7.421953e-02f, -8.044265e-02f, 1.193201e-01f, 1.138958e-01f, 1.405084e-01f,
  -2.433391e-02f, -7.288375e-02f, -5.717372e-02f, -1.127586e-01f, -1.345613e-02f, -6.198883e-02f, -5.588591e-02f, 5.734362e-02f,
  -6.136316e-02f, 8.638494e-02f, -3.726629e-03f, 2.220866e-02f, 5.291203e-02f, 1.119995e-01f, -8.364376e-03f, 3.711839e-03f,
  6.454764e-02f, 1.584851e-01f, -6.466641e-02f, -1.674448e-01f, -1.182080e-01f, 1.693908e-01f, 6.268617e-02f, -1.846031e-01f,
  -2.166817e-01f, 5.319748e-02f, 1.247714e-01f, 5.389346e-02f, -5.590153e-01f, -8.484003e-02f, -5.681017e-02f, -2.349293e-01f,
  -2.729875e-01f, -2.340720e-01f, -1.889291e-01f, 2.018856e-02f, 8.816787e-02f, -6.882152e-02f, 7.457184e-02f, 2.409469e-01f,
  8.998601e-02f, 4.801568e-02f, 7.115611e-03f, 5.915832e-02f, -1.088481e-01f, 1.004982e-01f, 1.909110e-01f, -4.389259e-02f,
  -9.816701e-03f, 1.144102e-01f, 1.471395e-01f, 2.563849e-02f, -1.426465e-01f, 6.103585e-02f, -1.995363e-02f, -6.126432e-02f,
  -2.935369e-01f, -7.221604e-03f, -4.652443e-03f, -4.798146e-02f, -2.502579e-01f, -2.661621e-02f, 8.817993e-02f, 6.700100e-02f,
  1.177308e-01f, 5.244991e-02f, 1.155227e-01f, -2.822184e-02f, 3.576947e-01f, 5.354578e-02f, 1.054428e-01f, -8.535468e-04f,
  1.267952e-01f, 8.520252e-02f, -3.930939e-01f, -1.847643e-01f, -6.056050e-02f, 5.024533e-02f, 7.228992e-03f, 7.577161e-03f,
  -4.465438e-02f, 1.136044e-01f, 2.317027e-01f, -2.864905e-01f, -2.937613e-01f, -4.941873e-02f, -4.998717e-02f, -4.793181e-02f,
  -2.200790e-01f, 1.576433e-01f, 1.604025e-01f, -2.367427e-02f, -2.473903e-01f, -7.428716e-02f, 1.221371e-01f, 6.934455e-02f,
  -1.745845e-01f, 5.555028e-03f, 6.913407e-03f, -4.735948e-02f, -1.922562e-02f, 3.791092e-02f, 1.928391e-03f, -1.787903e-01f,
  -2.168896e-02f, 4.267565e-02f, -2.120055e-02f, -1.480639e-02f, -9.948126e-02f, 4.358206e-02f, 7.037212e-02f, 1.069678e-01f,
  5.926434e-02f, 2.231641e-02f, 9.034403e-02f, 4.987819e-02f, -2.617023e-01f, -1.920972e-01f, 6.565821e-02f, -1.952490e-01f,
  7.111023e-02f, 3.287888e-03f, 2.311234e-02f, -8.225248e-02f, -4.282525e-02f, -7.518706e-02f, -5.348944e-02f, 7.444044e-02f,
  6.462143e-02f, -5.645308e-02f, 1.437995e-01f, 9.764819e-02f, 4.499491e-02f, -1.134726e-01f, -2.313208e-01f, -2.588711e-01f,
  -4.659291e-02f, -1.819501e-01f, -1.908798e-01f, -1.838877e-01f, -9.490651e-02f, -2.797917e-01f, -6.472001e-02f, 3.015056e-02f,
  -4.306360e-03f, -5.534609e-02f, -1.025648e-01f, 4.170288e-02f, -5.019764e-02f, -1.697054e-01f, 4.828788e-02f, -4.303851e-02f,
  3.200272e-02f, 1.124303e-01f, 1.767611e-01f, 1.154637e-01f, -8.689319e-02f, -1.060902e-02f, 1.157042e-01f, 1.161320e-01f,
  -3.963169e-02f, 4.658992e-02f, -9.388955e-02f, 2.697011e-02f, -5.746298e-02f, -4.155033e-02f, -2.324355e-02f, 3.756639e-03f,
  -2.084926e-01f, -1.944132e-01f, -2.372179e-01f, -1.064508e-01f, -1.039754e-02f, -1.846125e-01f, 3.173126e-02f, 1.028989e-01f,
  -4.886271e-01f, -1.881395e-01f, -2.833121e-02f, 8.205899e-02f, 1.173833e-01f, -3.181197e-02f, 1.002411e-01f, 1.270719e-01f,
  1.956737e-02f, 2.967209e-02f, 1.616638e-01f, 1.125073e-01f, 4.604369e-02f, -9.178117e-02f, -6.423839e-02f, 9.456169e-02f,
  -1.686608e-01f, -1.240624e-01f, -4.201044e-02f, -1.042990e-02f, -1.362754e-01f, -6.046456e-02f, -4.806975e-02f, 5.174304e-02f,
  -2.354529e-02f, -2.865063e-02f, -1.281722e-01f, 3.815634e-02f, 4.269039e-02f, -1.293709e-01f, 7.174628e-02f, 1.979775e-01f,
  8.951884e-03f, 1.205006e-01f, 4.188218e-02f, 1.978294e-01f, 1.665179e-01f, 1.248696e-02f, -2.220904e-02f, -1.547792e-01f,
  -2.433803e-01f, -1.145764e-01f, -1.628102e-01f, -7.739188e-02f, 1.090868e-02f, 7.038357e-02f, 3.370955e-02f, -1.071883e-02f,
  -1.776984e-01f, -9.058744e-02f, -1.129649e-01f, -8.295695e-02f, -2.192988e-01f, -1.631501e-01f, -1.762107e-03f, 6.771635e-02f,
  7.518086e-02f, 7.225594e-02f, -8.181352e-02f, 3.915754e-02f, -9.224097e-02f, -1.476194e-01f, -3.298896e-02f, 1.502748e-01f,
  -7.697149e-02f, 6.096500e-02f, 9.295715e-02f, -7.009447e-02f, 9.519025e-04f, 1.466313e-01f, 2.822595e-02f, 3.311379e-02f,
  8.642925e-02f, -5.440212e-03f, 5.347188e-02f, -8.251702e-03f, 1.034961e-02f, 5.401478e-02f, -5.522322e-03f, 3.268726e-02f,
  6.419231e-02f, -1.066225e-02f, 7.567760e-02f, -3.941603e-02f, -3.233386e-02f, -2.111493e-02f, -5.468030e-02f, 9.923231e-02f,
  -4.597337e-01f, -6.414474e-02f, -4.702243e-03f, -5.376624e-02f, -3.875371e-02f, -6.329200e-03f, 9.456287e-02f, 7.826093e-02f,
  9.125046e-02f, -1.220225e-01f, -5.413926e-02f, -5.503460e-03f, -1.178920e-02f, 1.131834e-01f, -2.720572e-03f, -2.545725e-01f,
  -2.511526e-01f, 1.196837e-01f, -2.270501e-01f, 3.393992e-02f, -6.943277e-02f, -1.583547e-01f, 3.970177e-02f, 2.846994e-02f,
  2.541670e-02f, 1.365650e-01f, -7.814663e-03f, -2.460592e-01f, -1.497328e-01f, -1.061901e-01f, -2.475803e-01f, -3.053056e-02f,
  8.697422e-02f, 6.234075e-02f, 8.095029e-02f, -6.684933e-02f, 9.870992e-03f, -2.651503e-02f, -6.673736e-03f, -3.715210e-02f,
  7.918638e-02f, 8.556597e-03f, -1.054099e-01f, -5.049097e-02f, -2.086048e-01f, -7.038628e-02f, -8.299877e-02f, -1.105124e-01f,
  6.254647e-03f, 2.405318e-01f, -2.673347e-01f, -2.105088e-01f, 1.685384e-01f, 1.452843e-01f, -1.654919e-01f, -3.291709e-02f,
  -2.034687e-01f, -9.895727e-02f, 6.119549e-02f, 2.334101e-01f, 1.544179e-01f, 2.246585e-02f, 2.257549e-02f, -3.462513e-02f,
  -1.164517e-01f, 9.329958e-02f, -7.219533e-02f, -1.476129e-02f, 1.471067e-01f, -1.478180e-01f, 5.660366e-02f, -5.350394e-02f,
  4.361782e-03f, -1.453069e-01f, -9.227566e-02f, -7.316983e-03f, 2.497901e-02f, -2.303989e-01f, -1.557072e-01f, -1.606963e-01f,
  -3.007836e-02f, 1.058669e-01f, -8.764733e-02f, 3.043645e-02f, -1.554516e-01f, -1.600952e-01f, -8.247394e-02f, -1.948027e-02f,
  1.226308e-01f, 1.363331e-01f, -3.115426e-02f, 1.509332e-02f, 2.921756e-02f, 3.981597e-02f, 1.461015e-01f, -1.700367e-01f,
  -1.304045e-03f, -1.376078e-01f, -7.127404e-02f, -8.776668e-02f, -1.755876e-01f, -4.696613e-02f, 3.409866e-03f, -1.367984e-01f,
  -9.902399e-02f, 5.517416e-02f, 7.362457e-02f, -1.700292e-01f, -6.003840e-02f, 1.022712e-01f, -1.697924e-01f, -1.017206e-01f,
  2.672797e-03f, 3.900871e-02f, 4.092428e-02f, -1.233777e-01f, -6.699138e-03f, 3.391612e-02f, -2.152337e-01f, 1.844333e-01f,
  8.982403e-03f, -1.588456e-01f, 2.782597e-02f, 1.509098e-02f, 1.146772e-01f, 1.968188e-02f, -9.456790e-02f, 1.685916e-01f,
  -5.143171e-03f, 1.004728e-02f, 6.688506e-02f, 3.159304e-02f, 1.099996e-01f, 8.924943e-02f, -3.679668e-02f, 6.328340e-02f,
  -2.674783e-02f, 1.044580e-01f, -1.367685e-01f, -1.294737e-01f, 8.734313e-02f, 1.473233e-01f, -1.474440e-01f, 1.887365e-01f,
  4.095154e-02f, -1.411339e-01f, -9.243763e-02f, 2.076000e-01f, 1.132522e-02f, -7.560197e-02f, -1.598214e-02f, 2.169684e-02f,
  9.003513e-02f, -1.321200e-01f, -4.972993e-02f, -7.779216e-02f, 7.578113e-02f, 3.463247e-02f, -2.048059e-01f, 6.239335e-02f,
  6.598684e-02f, -2.104410e-02f, -4.423388e-02f, -2.047081e-01f, 8.427329e-02f, -1.879769e-02f, -1.776919e-01f, -1.019889e-01f,
  -1.100783e-01f, -2.145807e-01f, -7.143965e-02f, -3.152762e-02f, -1.994527e-01f, 2.488045e-02f, 1.130000e-01f, 2.381312e-04f,
  9.030405e-02f, -3.147409e-02f, -1.520356e-01f, 1.123665e-02f, 1.087564e-01f, 1.464940e-01f, 5.968450e-02f, 1.658010e-02f,
  3.820045e-02f, -6.743256e-02f, 3.420527e-02f, -2.501162e-02f, -1.082400e-01f, -1.065845e-01f, 1.857339e-01f, 1.567143e-01f,
  -1.232234e-01f, 6.725192e-02f, -5.028473e-02f, 1.641549e-01f, 1.876769e-01f, -3.472399e-02f, -2.606872e-02f, 2.130572e-02f,
  2.829118e-02f, 2.751145e-02f, -9.370853e-03f, 1.480842e-01f, 3.083571e-02f, -2.663034e-02f, 1.249421e-02f, -6.026128e-02f,
  3.312836e-02f, 1.602337e-01f, -1.441313e-02f, -6.264216e-02f, -8.465955e-02f, -1.140633e-01f, -2.787544e-02f, 3.204292e-02f,
  -1.178508e-01f, -1.169665e-01f, 1.328192e-01f, -5.142215e-02f, 1.375874e-01f, -8.245520e-02f, 9.122471e-02f, 9.032781e-02f,
  6.898882e-02f, -1.350415e-01f, -1.792035e-01f, -2.481751e-02f, -1.048881e-01f, -2.253866e-02f, 1.889015e-02f, -1.022623e-01f,
  1.556853e-01f, -7.259543e-02f, -6.872950e-02f, 1.121079e-01f, 1.906113e-01f, 1.644163e-02f, 3.857820e-02f, 1.054980e-01f,
  -6.483966e-02f, 6.424175e-04f, 7.038602e-02f, -1.337641e-01f, -1.404153e-01f, -2.452063e-03f, -9.263277e-02f, -2.043563e-02f,
  1.107156e-01f, 1.419615e-01f, -1.050166e-01f, 4.058438e-02f, -4.021557e-02f, -1.281104e-02f, 2.741713e-02f, 1.622201e-01f,
  1.347066e-01f, 2.961330e-03f, 1.384283e-01f, -6.295564e-02f, 1.572471e-01f, 1.059161e-01f, -1.642857e-03f, 1.453340e-01f,
  9.440143e-02f, 2.671536e-02f, 5.096924e-02f, 5.564154e-02f, 1.092283e-01f, 2.080654e-02f, 6.296570e-02f, 7.474903e-02f,
  -4.455169e-02f, 6.552082e-02f, 1.779018e-02f, 6.238908e-02f, 9.070755e-02f, 2.656606e-02f, -5.099921e-02f, 1.156720e-03f,
  1.453080e-01f, 2.848033e-02f, -2.288061e-02f, 1.813415e-01f, -4.988996e-02f, -6.846446e-02f, -4.197767e-02f, 1.317115e-01f,
  7.483820e-02f, -5.593743e-02f, -8.272687e-02f, 4.634747e-02f, -4.555456e-02f, 1.231793e-01f, 3.430087e-02f, -2.457376e-02f,
  4.240659e-02f, 1.047901e-03f, -1.258806e-01f, -6.961693e-02f, -4.841322e-02f, -8.016521e-02f, -1.293841e-01f, -1.520052e-01f,
  -1.049810e-01f, 3.400966e-02f, -1.040119e-01f, -3.454997e-02f, -9.560163e-02f, -1.430665e-01f, -7.214985e-03f, 5.696134e-02f,
  8.951499e-02f, 1.814478e-01f, -5.205068e-02f, -1.165549e-02f, 9.962339e-02f, -6.652076e-02f, 5.812496e-02f, 9.465624e-02f,
  -2.936755e-02f, -1.317387e-01f, -6.217229e-02f, -6.646312e-02f, 1.318801e-02f, -3.429961e-02f, -6.838594e-02f, 1.131655e-01f,
  2.023014e-02f, 5.272636e-02f, -8.898496e-02f, 4.678177e-02f, -2.686881e-02f, 2.878311e-03f, -6.792402e-02f, 6.174254e-02f,
  1.086751e-01f, 1.009478e-01f, 1.751923e-01f, -1.041700e-01f, -1.393058e-01f, -3.093906e-02f, -7.341640e-02f, -5.892316e-02f,
  9.196493e-02f, 1.211874e-01f, 6.079963e-02f, -9.541098e-02f, 7.472438e-02f, -1.010990e-01f, 1.629938e-01f, 1.198410e-01f,
  -1.161411e-01f, -9.035879e-02f, -1.344127e-01f, 7.974947e-02f, -6.006795e-03f, 1.757661e-02f, 1.588826e-01f, 9.441619e-02f,
  8.365139e-02f, -6.623314e-02f, -7.369660e-02f, 1.619957e-01f, 1.367944e-01f, -8.270884e-02f, 6.110466e-02f, -6.469988e-02f,
  -8.094203e-03f, 8.762518e-02f, 9.955890e-02f, 1.387853e-01f, 2.824730e-02f, 1.257104e-02f, -1.167984e-01f, -1.106170e-01f,
  4.056101e-02f, -6.292710e-02f, -9.131674e-02f, 2.708259e-02f, -8.806933e-02f, 1.697765e-02f, -4.842182e-02f, -2.589029e-02f,
  -6.193311e-03f, -7.408114e-03f, -8.838238e-02f, -4.017463e-02f, 1.707595e-01f, 1.290741e-01f, 2.042237e-02f, -1.111356e-01f,
  6.512050e-02f, 5.370960e-02f, 1.651192e-01f, 1.923825e-02f, 3.215059e-02f, -8.765083e-02f, 5.960328e-02f, -8.917787e-02f,
  7.859726e-02f, 7.615782e-02f, -1.253066e-01f, -8.183750e-02f, 1.723965e-02f, 4.265892e-02f, -1.216720e-04f, -6.611644e-02f,
  -3.969253e-02f, 8.457020e-02f, 9.201511e-02f, 1.014803e-01f, -1.083293e-01f, 2.944876e-02f, 4.656021e-02f, 9.131222e-02f,
  -2.540720e-02f, -7.207073e-02f, 6.199653e-02f, -1.906383e-02f, -1.141518e-01f, 5.348326e-02f, 7.751729e-03f, 9.942298e-02f,
  1.117237e-01f, 1.309209e-01f, -6.305602e-02f, -1.914572e-02f, -2.167576e-02f, 1.483246e-03f, 1.215020e-01f, 6.324147e-02f,
  5.621860e-03f, 2.860763e-02f, 7.297871e-02f, -1.852369e-03f, 1.093949e-01f, 1.169864e-01f, 4.242827e-02f, 1.029806e-01f,
  1.206071e-02f, -8.460046e-02f, 3.630499e-02f, -2.472163e-02f, 6.785637e-02f, 1.065937e-01f, 1.269743e-01f, 6.196631e-02f,
  9.240691e-02f, 5.357637e-02f, -5.988516e-02f, 9.980756e-02f, 1.063744e-01f, 1.249240e-01f, 2.929501e-02f, 1.167539e-01f,
  8.376868e-02f, 8.186176e-02f, 1.137610e-01f, 4.853451e-02f, -3.097071e-02f, 1.665927e-01f, 8.008368e-02f, 1.287953e-01f,
  1.698172e-01f, 5.995313e-02f, -2.675883e-02f, -4.312269e-02f, 8.363479e-02f, 1.196067e-01f, 7.431000e-02f, -6.781389e-02f,
  -8.620860e-03f, -1.052817e-01f, -6.367168e-03f, -9.480742e-03f, -2.186125e-01f, -1.985062e-01f, -8.729832e-03f, -1.118408e-01f,
  -2.534359e-01f, -6.443638e-02f, -9.907518e-02f, -4.138727e-01f, -4.114480e-02f, -2.569714e-01f, -2.931499e-01f, 3.479013e-01f,
  -2.193734e-01f, -2.019945e-01f, 3.068180e-01f, 2.040566e-02f, -3.948556e-02f, -1.894387e-02f, -7.451069e-02f, -1.494473e-02f,
  2.030314e-01f, -4.130951e-03f, 1.198409e-01f, -1.158805e-01f, -1.090272e-01f, -4.986591e-02f, 4.490046e-02f, -1.215247e-01f,
  -6.363535e-04f, 1.019760e-01f, 1.641543e-01f, 3.200718e-02f, 1.162838e-02f, 6.934985e-02f, -1.197152e-01f, 8.880864e-03f,
  4.185085e-02f, 7.891707e-03f, 1.281372e-01f, 1.269812e-01f, -2.606928e-02f, 6.544057e-03f, -7.166589e-02f, -1.748806e-01f,
  9.168540e-03f, 2.363655e-02f, 4.892230e-03f, -1.351833e-02f, 1.635531e-01f, -3.053423e-02f, 2.429452e-02f, -3.695983e-02f,
  -2.716505e-02f, 1.096217e-01f, 1.566217e-01f, -2.907661e-02f, 5.910882e-02f, 1.213380e-01f, -3.037473e-02f, 5.011101e-02f,
  3.922126e-02f, 1.407191e-01f, -8.904757e-02f, 1.242055e-01f, -1.085838e-01f, -1.391161e-01f, 1.877430e-02f, 3.438217e-03f,
  8.477673e-02f, 1.714075e-02f, -1.945955e-01f, 1.695236e-01f, 1.836431e-01f, -1.461981e-01f, 8.101566e-02f, 1.532941e-01f,
  -1.246840e-01f, -1.582690e-01f, 1.298350e-01f, -9.482224e-02f, -1.112799e-01f, 3.597879e-02f, 5.108904e-02f, -1.247209e-02f,
  6.562689e-02f, -1.182912e-01f, -5.157879e-02f, 1.809805e-02f, -3.491984e-02f, 1.119406e-02f, 2.334173e-02f, 1.209525e-01f,
  4.107874e-02f, 6.867066e-02f, 1.203159e-01f, 9.148309e-02f, -4.468070e-02f, -8.531839e-02f, -8.910229e-02f, -4.590440e-02f,
  3.038390e-02f, 1.273837e-01f, 4.584706e-02f, -1.664011e-02f, -4.602742e-02f, 2.318778e-02f, 8.634958e-02f, 9.350125e-02f,
  -9.117911e-02f, -2.515370e-02f, 3.261347e-02f, 1.118666e-01f, 3.382327e-02f, 5.335416e-02f, 7.907056e-04f, -7.277951e-02f,
  -4.084645e-02f, 8.338343e-02f, 7.604702e-02f, 7.565899e-02f, -9.969324e-02f, -1.215417e-01f, -2.027498e-02f, 1.073967e-01f,
  8.637015e-02f, -3.778981e-02f, -5.518912e-02f, 1.235424e-01f, -1.150811e-01f, 3.748282e-03f, 1.172978e-02f, 1.288676e-01f,
  8.850963e-02f, 1.082599e-01f, -2.024409e-02f, -3.593096e-02f, 8.987013e-02f, 4.879990e-02f, -4.022090e-04f, 6.559607e-02f,
  3.256491e-02f, -1.892520e-03f, -9.374220e-03f, -8.009209e-02f, 2.731551e-02f, 3.323298e-02f, -2.065740e-01f, 2.511062e-02f,
  1.674925e-02f, -3.332841e-02f, -5.401076e-02f, 4.525403e-02f, 1.024923e-01f, 6.428273e-03f, -6.364491e-02f, 1.513214e-01f,
  -1.298394e-01f, -1.351007e-02f, 6.686078e-02f, 7.612929e-02f, 3.469601e-02f, 1.392227e-01f, -1.669454e-02f, 1.529079e-01f,
  9.641410e-02f, -3.943038e-02f, 1.052577e-01f, -6.589911e-02f, -6.627338e-02f, 2.302280e-02f, -3.334996e-02f, 8.205636e-02f,
  9.272586e-04f, -8.928414e-02f, -1.114407e-01f, 1.345851e-01f, -5.757146e-02f, 6.263393e-02f, -4.045279e-02f, 1.535410e-01f,
  -7.296538e-02f, 2.384356e-02f, -2.230613e-02f, 5.813478e-02f, 5.932178e-02f, -6.437866e-03f, 2.608332e-02f, -6.475043e-02f,
  7.315523e-02f, -5.211088e-02f, 2.108920e-01f, -2.633555e-02f, -3.079201e-02f, 1.366864e-01f, 1.955463e-02f, -7.866807e-02f,
  -1.095212e-01f, -9.317040e-02f, -2.811894e-02f, 1.217741e-01f, -1.061082e-01f, 7.443921e-02f, 1.637626e-01f, 5.612744e-02f,
  -2.129662e-02f, 3.637212e-02f, -1.672866e-01f, -6.136307e-02f, -4.669647e-02f, -6.460118e-02f, 1.496392e-01f, -9.608293e-04f,
  -7.836754e-02f, -9.960856e-02f, -3.374792e-02f, 6.020347e-02f, 1.118465e-01f, 1.870274e-01f, -8.994958e-02f, 1.314192e-01f,
  -3.204332e-02f, -1.134370e-01f, -4.364592e-02f, 1.381121e-01f, -2.968724e-02f, -1.886625e-04f, 1.332366e-02f, 6.382842e-02f,
  -4.368362e-02f, 1.073886e-01f, -6.870079e-02f, 1.782324e-02f, -5.071550e-02f, 1.087302e-01f, 1.645996e-01f, 3.720896e-03f,
  2.059722e-02f, 2.040358e-02f, 3.433904e-03f, -4.098389e-02f, -7.023728e-03f, -8.728599e-02f, -1.531473e-01f, 6.399898e-02f,
  -3.902137e-02f, 1.395021e-02f, 8.696005e-03f, 1.170966e-01f, -2.094021e-02f, 3.259621e-02f, -8.633584e-02f, -1.019557e-01f,
  -8.763616e-02f, 1.222105e-01f, -8.149468e-02f, 1.279528e-01f, 7.355812e-02f, 1.735810e-01f, 1.154585e-01f, -3.954360e-02f,
  1.386489e-02f, -7.300702e-02f, 8.732021e-02f, -4.489219e-02f, -1.235469e-01f, 5.133021e-02f, -8.951213e-02f, -6.225001e-02f,
  -7.354792e-03f, -1.242293e-01f, 2.802905e-02f, -7.583371e-03f, -3.828455e-02f, 6.326760e-03f, 3.400853e-02f, 6.716737e-03f,
  9.555013e-02f, -1.804607e-01f, -6.588580e-02f, -1.829275e-02f, 1.365882e-01f, -7.149435e-03f, 7.027372e-02f, 2.411954e-01f,
  5.860342e-02f, -1.187878e-01f, 1.836680e-02f, -1.619962e-02f, -2.891254e-02f, -3.357862e-03f, -1.309114e-01f, 1.877141e-01f,
  1.375334e-01f, -4.718689e-02f, 2.226043e-01f, -5.883214e-02f, -5.606265e-02f, 1.962221e-01f, -1.388747e-01f, -5.382240e-02f,
  1.587075e-01f, -2.169110e-01f, 8.270472e-02f, -1.315629e-01f, -1.325260e-01f, -9.727019e-02f, 6.302962e-02f, -3.941505e-02f,
  -3.054591e-02f, -1.399240e-02f, -6.283569e-02f, 1.617285e-01f, 1.299925e-02f, 1.825070e-03f, -1.850421e-02f, 8.832374e-02f,
  6.746404e-02f, 9.283251e-02f, 1.051990e-01f, -6.557310e-02f, 5.254908e-02f, -1.179082e-01f, 1.083729e-01f, -2.374680e-02f,
  -6.223919e-02f, 1.214373e-01f, 6.363747e-02f, -9.897545e-02f, -8.701652e-02f, -8.468875e-02f, 2.233937e-01f, 1.139729e-01f,
  1.010616e-01f, 1.723037e-01f, 1.215840e-02f, 4.612985e-03f, 1.157821e-01f, 1.659334e-01f, 6.835462e-03f, -9.918466e-02f,
  2.332884e-01f, 1.077543e-01f, -1.261579e-01f, -1.325281e-02f, -1.059127e-02f, 1.267948e-01f, -5.372916e-02f, -4.612787e-02f,
  8.520316e-02f, 1.997292e-01f, 1.624869e-01f, -5.607132e-02f, 1.703255e-01f, -4.385353e-02f, 3.031595e-03f, -5.527447e-03f,
  5.847313e-02f, -2.437342e-02f, 1.851500e-01f, 1.070089e-01f, 2.313400e-01f, 1.914641e-01f, -1.944371e-02f, 2.440485e-02f,
  5.959655e-02f, -1.420951e-02f, -1.375137e-01f, -7.834790e-02f, -3.609162e-02f, -6.042033e-02f, 6.384867e-02f, 2.544298e-02f,
  4.290394e-03f, -7.477553e-02f, -2.315629e-02f, -3.771607e-03f, -3.182057e-02f, -3.109820e-03f, 1.653524e-02f, 7.596210e-04f,
  -6.257925e-02f, -6.329813e-02f, 6.819207e-02f, 1.065341e-01f, 1.407449e-01f, 9.428595e-03f, 4.591642e-03f, 1.924114e-01f,
  2.442597e-01f, 1.768478e-01f, 2.414034e-01f, 1.266114e-01f, -1.751252e-01f, 8.797653e-02f, -5.517417e-02f, 3.316486e-03f,
  1.831219e-01f, 9.294911e-02f, -4.750214e-02f, 4.754866e-02f, 8.093709e-02f, -8.577960e-02f, 6.746805e-02f, 7.927291e-02f,
  -2.894288e-02f, 2.487314e-03f, -1.860096e-02f, 5.927749e-02f, 1.674555e-01f, -1.355887e-01f, -1.260398e-01f, -8.531906e-02f,
  -8.281102e-02f, -3.991271e-02f, -4.230079e-02f, 6.563147e-05f, -1.029240e-02f, -1.430797e-01f, -4.528332e-02f, 5.108218e-03f,
  1.192311e-01f, 6.754741e-02f, 7.985178e-02f, -1.386052e-01f, -3.231995e-02f, -8.275507e-02f, 4.087364e-03f, 1.274393e-01f,
  1.801086e-01f, 7.071365e-02f, -3.663385e-02f, -1.864790e-01f, -1.864527e-01f, -8.476435e-02f, -3.135646e-01f, -1.506738e-01f,
  -1.801263e-01f, -3.559407e-01f, -2.043658e-01f, 9.413794e-02f, 1.636792e-03f, -5.318270e-02f, -6.211708e-02f, -4.141250e-02f,
  -1.849187e-01f, -6.907377e-02f, 8.512000e-03f, 9.279136e-02f, -2.027735e-02f, 7.323699e-02f, 1.081327e-01f, -1.249688e-01f,
  -9.577631e-02f, 1.947548e-03f, -5.162451e-02f, 6.638745e-02f, -1.121858e-01f, -7.212032e-03f, 5.884198e-02f, 7.648104e-02f,
  1.156165e-01f, 1.632784e-02f, -1.093294e-01f, 9.564747e-03f, 1.209413e-01f, 5.960280e-02f, -1.734456e-01f, -5.610913e-02f,
  2.283901e-02f, -1.088204e-01f, -1.146057e-03f, -5.913954e-02f, -1.978840e-02f, -2.022279e-01f, 1.229292e-02f, 3.605263e-02f,
  -5.395797e-02f, -4.566820e-02f, -4.289746e-03f, -1.382808e-01f, -7.017302e-03f, 7.620923e-02f, 2.442836e-02f, -8.777355e-02f,
  -1.263976e-01f, -6.535144e-02f, 7.044124e-02f, -5.105745e-03f, 5.486726e-02f, -1.909639e-02f, -1.357634e-01f, -5.751104e-02f,
  -3.373685e-02f, -1.752892e-01f, 6.859542e-02f, -4.680891e-02f, -7.033604e-02f, -1.981831e-02f, -1.203421e-01f, -9.443727e-02f,
  -4.449814e-02f, -2.604861e-03f, -3.862651e-04f, 2.312964e-02f, -1.056342e-02f, 1.293385e-01f, 1.337839e-02f, 2.342782e-01f,
  4.603751e-03f, -3.101339e-02f, 1.303017e-02f, -1.704703e-02f, 1.457977e-01f, 8.646944e-03f, -3.396107e-02f, -1.011146e-01f,
  3.987764e-02f, 1.529244e-01f, 3.157572e-03f, 8.149504e-02f, -1.009123e-01f, -1.432431e-01f, 8.297810e-02f, -6.381625e-02f,
  -3.149452e-02f, 4.845167e-02f, 1.056255e-01f, -4.796765e-02f, 6.230775e-02f, -4.154771e-03f, -8.943479e-02f, 5.007831e-02f,
  3.327544e-02f, -8.992430e-02f, -5.521235e-02f, 1.076827e-02f, 7.729234e-02f, 6.756949e-02f, 8.276068e-02f, 1.064293e-01f,
  1.641097e-01f, 1.675843e-02f, 1.733496e-01f, 6.366330e-02f, -2.079488e-01f, 3.706090e-02f, -1.452813e-01f, 9.350325e-02f,
  7.280043e-02f, -7.060282e-02f, 2.829444e-02f, -1.561189e-01f, 9.678651e-02f, 6.114440e-02f, 8.841551e-03f, -1.589877e-01f,
  -1.129825e-01f, -9.824897e-02f, -1.928920e-01f, 2.978819e-02f, -9.671008e-02f, -2.097750e-01f, 5.645075e-02f, -7.517195e-02f,
  1.208559e-01f, 1.274973e-02f, 1.185548e-02f, 1.216853e-01f, 6.754666e-02f, -2.499921e-02f, 2.307707e-02f, 9.780991e-02f,
  -5.806683e-03f, 1.830144e-02f, 1.184522e-01f, -5.687105e-02f, -1.170571e-03f, 9.108417e-02f, 3.153143e-02f, 1.438424e-01f,
  -1.861713e-01f, -1.746522e-01f, -9.116116e-03f, 9.374497e-03f, 2.596632e-02f, -1.268999e-01f, 5.103398e-02f, 2.207568e-01f,
  -1.382467e-01f, 1.165555e-01f, 9.252487e-02f, 5.033845e-02f, 1.142246e-01f, -4.912435e-02f, -1.325756e-01f, 1.517161e-01f,
  -2.553941e-02f, -5.519869e-02f, 9.635565e-02f, -3.441724e-02f, 1.104612e-01f, -1.795002e-03f, 1.226562e-01f, -5.843344e-02f,
  -3.688818e-02f, 1.268183e-02f, -8.370394e-03f, 2.933320e-02f, 4.660793e-02f, 1.059843e-01f, 2.037268e-01f, 2.675689e-02f,
  4.011130e-02f, 9.318589e-02f, -1.419097e-01f, -6.085096e-02f, -1.837813e-01f, 1.066351e-01f, -1.570703e-01f, 7.362260e-03f,
  3.476127e-02f, -6.626490e-02f, -3.681989e-02f, 1.340619e-01f, 1.051225e-01f, 5.490310e-02f, 7.982621e-02f, -1.206341e-01f,
  -1.147085e-01f, 3.523226e-02f, 7.474722e-02f, -1.430086e-01f, 8.143494e-02f, -1.357323e-02f, -6.153246e-02f, 5.124000e-02f,
  5.346805e-02f, -4.128414e-02f, -1.977620e-02f, 1.379691e-02f, -1.645909e-02f, -1.508752e-01f, 5.047176e-02f, -1.399241e-01f,
  -1.217170e-03f, 6.286892e-02f, 3.678774e-02f, 1.862358e-01f, -2.517003e-03f, -4.935095e-02f, -2.309780e-02f, 4.251983e-02f,
  -1.488908e-01f, 2.270428e-02f, 2.121182e-02f, 4.973902e-03f, -9.723324e-02f, 1.370086e-01f, 8.003437e-02f, -8.108712e-02f,
  6.073720e-02f, 5.578334e-02f, 4.007696e-02f, -2.183250e-03f, -2.419952e-02f, 1.189136e-01f, -1.131496e-01f, 3.557365e-02f,
  -2.756527e-02f, -4.781535e-02f, 1.544260e-01f, -3.427988e-02f, 5.285606e-02f, 5.573667e-03f, 2.549177e-02f, 1.856685e-01f,
  -1.545059e-01f, 3.270327e-02f, 1.386127e-03f, -2.401972e-01f, 9.823079e-03f, -1.364644e-01f, -3.451976e-02f, 1.181036e-02f,
  -1.099536e-01f, 7.893309e-02f, -1.185504e-01f, -1.137549e-02f, -1.380488e-02f, -7.461415e-02f, -8.038898e-02f, -1.071990e-01f,
  -2.395657e-02f, 4.205656e-02f, -3.000907e-02f, -1.034291e-01f, 9.790976e-02f, -2.809581e-02f, 8.594215e-03f, -8.557072e-02f,
  1.025895e-01f, 1.022794e-01f, -1.136473e-01f, -8.170944e-02f, 6.833979e-02f, -6.557150e-02f, -1.452154e-01f, 8.650675e-02f,
  4.515341e-02f, 6.553261e-03f, 2.366587e-02f, 1.228414e-01f, 3.981227e-03f, 4.422536e-03f, -1.364235e-01f, -1.480316e-02f,
  -1.075775e-01f, -1.181715e-02f, 9.934735e-02f, -8.955454e-03f, -2.747644e-02f, 4.123027e-02f, 1.800538e-01f, -1.600071e-01f,
  6.954131e-02f, 1.957105e-01f, 9.914946e-02f, 1.254644e-02f, 1.353854e-02f, -4.365152e-03f, 1.167150e-01f, -8.539236e-02f,
  2.638972e-02f, 1.111840e-01f, -7.043939e-02f, 8.610817e-02f, 7.818063e-02f, -1.228321e-01f, 1.584011e-01f, -1.857314e-02f,
  -1.372924e-02f, -2.151215e-02f, 6.544410e-02f, -1.067524e-01f, -2.380206e-02f, 1.115379e-01f, 1.352383e-01f, -6.028070e-02f,
  1.320796e-01f, 1.033628e-01f, 8.735444e-02f, -1.105457e-01f, 5.783600e-02f, -8.430242e-02f, -1.511336e-01f, 6.060496e-02f,
  -3.003832e-02f, -2.364737e-02f, 1.379330e-01f, 3.587219e-02f, 2.496388e-03f, -1.423323e-02f, 3.897802e-02f, -3.026816e-02f,
  8.152298e-02f, 4.695222e-02f, -7.076660e-02f, -7.016619e-02f, -2.969209e-02f, -5.206794e-02f, -3.144168e-02f, 7.335906e-02f,
  7.202229e-02f, 5.762650e-02f, 9.660002e-02f, 1.712677e-01f, 2.157664e-01f, -5.166232e-02f, -1.296855e-01f, 7.365234e-02f,
  -1.414210e-03f, -2.979390e-03f, -3.266708e-03f, -9.750997e-02f, -4.453529e-03f, 9.243453e-02f, 6.423107e-03f, -6.880587e-02f,
  5.844402e-02f, -2.034285e-02f, -7.191523e-02f, 7.752912e-02f, 8.162061e-02f, 1.396601e-01f, 1.898810e-01f, -8.836114e-03f,
  1.637469e-02f, 1.552464e-01f, -1.485177e-02f, -8.567040e-02f, 4.903377e-02f, 3.004217e-02f, 7.651041e-02f, -6.442206e-02f,
  -8.709653e-02f, 6.337717e-02f, 8.788967e-02f, 7.594172e-02f, -3.925575e-02f, -7.761674e-03f, -7.848067e-03f, -1.251737e-01f,
  -1.018118e-01f, -4.291147e-02f, 2.347309e-02f, -1.068050e-01f, -1.300638e-01f, 4.992334e-04f, 3.007673e-02f, -4.826920e-02f,
  2.305930e-01f, 1.140014e-01f, 6.711657e-02f, 7.721435e-02f, 1.218183e-01f, -5.308029e-02f, 7.529894e-02f, 3.512315e-02f,
  2.012561e-01f, -3.813046e-02f, 1.578719e-01f, -2.249847e-02f, -9.418607e-02f, -4.425163e-02f, -2.235234e-02f, -9.812351e-02f,
  4.883264e-02f, -2.042789e-01f, 8.240116e-02f, 5.792773e-02f, -7.919956e-02f, -2.485809e-02f, 1.426843e-01f, -5.822399e-02f,
  5.943898e-02f, -4.169411e-04f, -1.206908e-01f, 2.501224e-03f, -2.768733e-02f, 5.799391e-02f, 1.794642e-01f, 8.032333e-03f
};
