#pragma once

// kind=conv2d, layout=OIHW
// layer=enc3_down32
// dims: Kh=3, Kw=3, Cin=16, Cout=32
// Keras: (Kh,Kw,Cin,Cout) -> Noodle: (Cout,Cin,Kh,Kw)
static const float w03[] = {
  8.555662e-02f, 1.141845e-01f, 5.014961e-02f, 4.580356e-02f, 3.242064e-02f, -1.422967e-01f, 6.327598e-02f, -1.316955e-01f,
  -4.916389e-02f, -5.696306e-02f, -5.371678e-02f, 8.391899e-02f, -4.046554e-03f, -3.279848e-03f, 7.970294e-02f, -1.164656e-01f,
  5.951159e-02f, -1.185905e-01f, 7.681393e-02f, 1.279457e-01f, -7.804719e-02f, -3.111277e-02f, 4.426239e-03f, 4.894800e-02f,
  -1.074854e-01f, -1.289458e-01f, -5.332736e-02f, 1.109696e-01f, 2.428185e-02f, 2.066784e-02f, 3.367337e-02f, -3.813858e-03f,
  -1.093909e-02f, 1.381418e-01f, -3.890783e-02f, -2.437617e-02f, -1.504332e-01f, 7.046233e-02f, -6.113351e-02f, -5.002917e-02f,
  -1.343394e-02f, -2.541655e-02f, -1.031388e-02f, -4.867282e-02f, -3.009833e-02f, -1.967299e-02f, -2.021939e-02f, -2.341880e-02f,
  2.296271e-02f, 1.071048e-01f, 1.253008e-02f, 1.312693e-01f, 1.417072e-01f, 1.437151e-01f, -4.452121e-03f, -5.635539e-02f,
  -1.488537e-02f, -4.450273e-02f, -1.137165e-01f, -1.296219e-01f, -3.768776e-02f, -1.299845e-01f, -1.979399e-01f, -2.073226e-02f,
  1.110626e-02f, 7.965331e-02f, -4.188570e-02f, 3.084404e-02f, 4.485372e-02f, 4.990390e-02f, 1.035818e-01f, -4.486327e-02f,
  1.607703e-01f, -1.258711e-02f, -3.701695e-02f, 7.777177e-02f, 2.111896e-02f, 7.337742e-03f, -3.936132e-03f, -9.170176e-02f,
  -5.175040e-02f, -6.619586e-02f, -1.190929e-01f, -5.042254e-02f, 2.298588e-02f, 2.908227e-02f, 1.125000e-01f, -5.059659e-02f,
  4.839353e-02f, -4.953394e-02f, 7.610800e-02f, 9.094822e-02f, -5.720581e-03f, -5.952346e-02f, -5.302839e-02f, 6.637079e-02f,
  1.064736e-02f, -1.325559e-02f, -6.544298e-03f, 6.406799e-02f, -1.035924e-01f, -6.084203e-02f, 1.124613e-01f, 1.192772e-01f,
  -6.545921e-02f, 4.721138e-02f, 3.859032e-02f, 1.209380e-01f, 1.028373e-01f, 8.563042e-02f, 5.741420e-02f, 5.671925e-02f,
  -1.767800e-01f, 1.691628e-02f, 3.849809e-02f, -5.755969e-02f, 7.830927e-02f, 8.073057e-02f, 5.369369e-02f, 9.912696e-02f,
  4.671874e-02f, 1.770311e-02f, 6.592637e-02f, 1.033491e-01f, 7.173324e-02f, -4.363020e-02f, 7.337954e-02f, 1.602820e-01f,
  -6.288779e-03f, 8.113226e-02f, 8.403434e-02f, -1.614807e-01f, -4.508191e-02f, -4.046256e-02f, -4.805989e-02f, -1.505675e-01f,
  2.570165e-02f, -4.184533e-02f, -1.310844e-01f, -1.124937e-01f, 1.212836e-02f, 8.917847e-02f, -1.906900e-03f, 1.101394e-02f,
  4.395242e-02f, 5.255530e-03f, 1.338806e-02f, -1.841611e-02f, -6.612372e-02f, 1.589607e-02f, 9.379883e-02f, 3.459203e-04f,
  4.024133e-02f, -5.219735e-02f, -8.647705e-02f, 8.645274e-02f, -5.423866e-02f, -8.772596e-02f, -2.945705e-02f, -9.917068e-03f,
  -9.440775e-02f, 1.735128e-02f, 1.419567e-02f, 8.824901e-02f, 1.527098e-03f, -4.375954e-02f, 8.837561e-03f, 1.104360e-01f,
  7.278113e-02f, -7.167814e-02f, -2.937626e-02f, 9.173655e-02f, 9.012831e-03f, -3.765573e-03f, -3.083706e-02f, -3.242160e-02f,
  -7.479781e-02f, 1.173607e-01f, 1.166373e-01f, 8.625250e-02f, -6.790587e-02f, 3.173201e-02f, 1.115643e-01f, 3.411285e-02f,
  7.270126e-02f, 7.355202e-02f, 8.857440e-03f, 1.238146e-01f, 2.795277e-02f, 1.580245e-02f, -2.577450e-02f, -7.405967e-02f,
  -4.188697e-02f, -1.115728e-02f, 1.999641e-03f, 6.853933e-02f, -9.513798e-02f, -4.041514e-02f, 5.304954e-02f, -6.503012e-03f,
  -3.012703e-02f, -1.142785e-01f, -1.400910e-01f, -6.228383e-02f, -1.621638e-02f, -5.844956e-02f, -6.450092e-02f, 5.213131e-02f,
  1.064755e-01f, 1.430659e-02f, -1.965450e-02f, 4.882837e-02f, 7.775231e-02f, 1.317238e-01f, -8.991858e-02f, 8.663134e-02f,
  -2.517890e-02f, 1.518095e-02f, -1.071934e-02f, 1.010644e-01f, 1.186473e-01f, -1.297979e-02f, 9.098057e-02f, 1.005931e-01f,
  9.312735e-02f, -1.056584e-01f, 5.552815e-02f, 8.064429e-02f, -2.321886e-02f, -1.197202e-01f, -1.046286e-01f, -6.284828e-02f,
  6.857369e-02f, 9.670069e-02f, 1.330658e-01f, 1.082319e-01f, -2.112635e-02f, -8.616476e-02f, -7.832679e-02f, 3.597900e-02f,
  -1.342380e-02f, -2.463840e-02f, -7.284593e-02f, 3.744021e-02f, -2.879094e-02f, -3.847818e-02f, 1.306015e-01f, 1.625891e-02f,
  -1.502756e-02f, 1.377613e-01f, 8.677100e-02f, 5.861929e-02f, 8.105265e-02f, -3.614416e-02f, -2.000511e-02f, 1.266543e-02f,
  -8.953379e-02f, -7.892600e-02f, 3.537269e-02f, 1.165423e-01f, 7.594130e-02f, -5.708142e-02f, -7.459627e-02f, -5.985255e-03f,
  4.102967e-02f, 1.089698e-01f, -7.555987e-02f, 2.747115e-03f, 6.755825e-02f, 1.312579e-02f, 9.992383e-02f, 7.208720e-03f,
  4.463289e-02f, -8.346679e-02f, 1.342487e-01f, 2.607307e-02f, -1.947328e-02f, 3.674722e-02f, 1.416033e-02f, 2.923075e-02f,
  1.053874e-01f, 6.298340e-02f, 6.134506e-02f, -3.959441e-02f, 1.724656e-02f, 6.544097e-02f, 1.950723e-02f, -1.129451e-01f,
  -3.931381e-02f, -5.471362e-02f, -1.427900e-02f, -3.093212e-02f, 1.251920e-01f, -8.705982e-02f, 4.721236e-02f, 2.051834e-02f,
  1.215631e-01f, 8.927736e-02f, -6.721890e-02f, 1.256093e-03f, 1.222860e-01f, 3.616964e-02f, 8.578073e-02f, 3.501455e-03f,
  3.054024e-03f, -2.334170e-03f, -1.168193e-01f, -9.032498e-02f, -8.748984e-02f, 1.236633e-03f, -5.533190e-02f, -4.330408e-02f,
  9.911010e-02f, -8.708861e-02f, -9.044757e-02f, -2.248364e-02f, -4.083861e-02f, 6.564398e-02f, -1.067348e-01f, -1.235792e-01f,
  3.409363e-02f, -5.845542e-02f, -1.153070e-01f, -3.377264e-02f, 4.334939e-02f, -8.356575e-02f, -8.747681e-02f, 6.385227e-02f,
  1.749324e-02f, -2.672466e-02f, 8.135652e-02f, -4.127792e-02f, 4.650379e-02f, -4.014290e-02f, -1.736575e-02f, -1.082649e-01f,
  1.688785e-02f, 9.055816e-02f, 8.338228e-02f, -5.040568e-02f, 8.007679e-02f, 8.762588e-03f, 4.313274e-02f, 1.554180e-01f,
  5.245940e-02f, -4.024500e-02f, 6.794029e-02f, 2.135639e-01f, -6.688875e-03f, 1.214968e-01f, -5.841820e-02f, -4.154332e-02f,
  -1.460944e-01f, -1.274678e-01f, -1.156092e-01f, -2.104586e-02f, 9.980787e-02f, -1.438981e-01f, -1.187493e-01f, 1.195707e-02f,
  8.348547e-03f, 1.461622e-02f, -3.050658e-02f, 1.104439e-01f, 2.215319e-02f, -9.570566e-02f, -3.029274e-02f, -1.014378e-01f,
  6.844644e-02f, -2.014020e-02f, -5.442919e-02f, 8.208397e-02f, -5.342815e-02f, 7.439598e-02f, 2.163048e-03f, 1.411410e-02f,
  1.199060e-01f, 2.927071e-02f, 5.914323e-02f, 3.926104e-02f, 1.056162e-01f, -7.962202e-02f, -6.634904e-02f, 6.033698e-02f,
  -4.903680e-02f, 8.854626e-02f, 1.959587e-02f, -4.117586e-02f, 1.144743e-01f, 8.373141e-02f, -1.142485e-01f, -5.077656e-02f,
  -6.771975e-02f, -9.757697e-02f, -8.582163e-02f, 8.254130e-02f, -1.615886e-02f, 2.753723e-02f, 1.174717e-01f, 3.633927e-05f,
  6.327237e-03f, -5.278406e-02f, -6.700787e-02f, 1.567127e-01f, 8.696006e-03f, 4.177092e-02f, -2.361901e-03f, -1.768485e-02f,
  -1.166353e-01f, 4.059722e-02f, 6.937046e-02f, -8.676025e-02f, 3.436823e-02f, 9.689982e-02f, 4.147823e-02f, -1.470458e-01f,
  -1.587539e-02f, 1.875445e-02f, -4.231716e-02f, 6.393006e-02f, 1.142982e-01f, -2.296467e-02f, -3.129619e-02f, 6.577022e-02f,
  7.862899e-02f, 5.064846e-02f, 9.294336e-02f, 9.446714e-02f, 3.837684e-02f, 4.786658e-02f, 1.020068e-01f, -5.618785e-02f,
  4.590310e-02f, -9.332526e-02f, 3.383928e-02f, 1.082228e-02f, 1.183385e-01f, -3.515694e-02f, 2.100521e-01f, -4.751639e-02f,
  -3.272688e-02f, -6.450094e-02f, -4.503153e-02f, 6.214623e-02f, 1.336845e-02f, -3.165899e-02f, -9.244276e-02f, -2.260342e-02f,
  9.089158e-02f, 2.868807e-02f, 2.659362e-02f, 9.825384e-02f, -2.535755e-02f, -3.062766e-03f, 7.055935e-02f, 5.658687e-02f,
  -3.679553e-02f, -9.480893e-02f, 2.826628e-03f, 1.609891e-02f, -2.213002e-02f, -5.870654e-03f, -7.989006e-02f, 1.482998e-02f,
  7.832210e-02f, 5.301726e-02f, 5.138122e-03f, 1.425257e-01f, -9.297857e-03f, -8.955564e-02f, -6.836094e-02f, 9.054380e-02f,
  -6.841446e-02f, -8.222588e-02f, 1.103859e-02f, 2.509933e-02f, -1.754846e-02f, 1.658100e-02f, -1.235601e-01f, -1.276733e-01f,
  1.398913e-01f, -6.331441e-02f, -2.428293e-02f, -2.012257e-02f, 6.713691e-02f, -2.025232e-02f, -9.584492e-02f, -1.584915e-01f,
  -8.471198e-02f, 2.665889e-02f, -2.566192e-01f, -1.490782e-01f, 8.043757e-03f, -1.693826e-01f, -7.678060e-02f, 2.766441e-01f,
  7.350562e-03f, 1.000176e-01f, 1.371762e-01f, 1.142769e-01f, 8.702761e-03f, 2.959803e-02f, 9.745788e-02f, -7.230620e-02f,
  -1.334941e-02f, -3.142159e-02f, 6.259025e-02f, 6.185222e-02f, 5.171326e-02f, -1.970249e-03f, 1.194286e-01f, 1.855227e-02f,
  3.522725e-02f, -7.132568e-02f, -1.587158e-01f, 2.362803e-02f, -1.705084e-01f, -5.138278e-02f, -8.170114e-02f, -1.273791e-01f,
  2.297226e-02f, -5.045867e-02f, -1.938517e-01f, 9.203541e-02f, 2.113446e-01f, -5.026776e-02f, -1.546000e-01f, -1.257140e-01f,
  1.388861e-01f, 9.007947e-02f, 9.467597e-02f, 1.990471e-03f, 1.307970e-01f, -3.527102e-02f, -3.211871e-02f, 7.703272e-02f,
  2.313357e-02f, 1.328909e-02f, 9.617931e-02f, 8.289077e-02f, -1.460578e-01f, -1.424890e-01f, 3.235410e-02f, 1.285652e-01f,
  1.085896e-01f, 4.619814e-02f, -1.795682e-02f, 3.544397e-02f, 6.122791e-03f, 3.670323e-02f, 5.737678e-02f, 1.258094e-02f,
  2.578545e-01f, 3.431887e-02f, 1.018513e-01f, 6.441501e-02f, -6.972288e-02f, 8.139333e-02f, 5.216410e-02f, 1.040228e-02f,
  1.746795e-01f, -5.145373e-02f, -3.338140e-02f, 6.759406e-03f, -1.010362e-01f, -6.199259e-02f, 6.732226e-03f, -7.281202e-02f,
  8.263785e-03f, -6.273562e-02f, 5.873500e-02f, -1.068125e-01f, -1.822689e-02f, -2.141492e-01f, -2.704944e-01f, -2.278893e-01f,
  1.904155e-03f, -8.003189e-02f, 2.169425e-03f, 1.059638e-01f, 1.215519e-01f, 3.750285e-02f, -5.136424e-02f, 1.128769e-01f,
  6.395871e-02f, 9.097283e-02f, 3.065385e-02f, 1.131163e-02f, -1.052272e-01f, -6.585982e-02f, 5.632157e-02f, 7.020064e-02f,
  -7.724465e-02f, 7.349616e-03f, 3.763032e-02f, -7.750657e-02f, -1.310376e-01f, 1.078542e-01f, -7.763641e-02f, -7.968549e-02f,
  9.287383e-02f, 9.506674e-02f, -7.525454e-02f, -1.717670e-01f, 4.072309e-02f, -5.844793e-02f, -4.505185e-02f, -1.342533e-02f,
  4.500097e-02f, -7.519954e-02f, -4.407633e-02f, 6.324203e-02f, -4.628454e-02f, -2.847044e-02f, 7.578975e-02f, -1.115642e-01f,
  -2.102281e-02f, -4.969510e-02f, 2.225957e-02f, 8.399795e-02f, 9.248854e-02f, 3.009940e-02f, -4.580569e-02f, -5.347796e-02f,
  6.349446e-02f, 1.308684e-01f, -7.422507e-02f, 1.802573e-02f, -8.049042e-03f, -8.736637e-02f, -1.072795e-01f, 3.643217e-02f,
  7.568910e-02f, -3.672661e-02f, 1.776884e-01f, 6.648324e-02f, 1.765684e-02f, -7.087778e-02f, 7.574406e-02f, 4.067859e-02f,
  -8.503335e-02f, 3.970893e-02f, -4.286100e-02f, -3.400702e-02f, -9.651837e-02f, 8.634788e-02f, 6.351820e-02f, -1.023214e-02f,
  -7.856102e-02f, -1.081008e-01f, 2.404496e-02f, -2.522016e-03f, -9.782538e-02f, 1.216331e-01f, 6.100322e-02f, 6.449798e-02f,
  6.774508e-02f, 6.936915e-02f, -5.052960e-02f, 9.474589e-03f, 7.565827e-02f, 5.600080e-02f, -4.158629e-02f, 6.785204e-02f,
  4.431313e-02f, -4.920131e-02f, 5.326369e-02f, -2.105404e-02f, 1.383962e-02f, 4.432272e-02f, -7.804370e-02f, -1.959915e-02f,
  -1.780854e-01f, 5.680308e-02f, 1.945170e-02f, 4.571231e-02f, 5.161980e-02f, 4.545110e-02f, -1.031285e-01f, 7.656619e-03f,
  2.285124e-02f, 5.997710e-02f, 3.381542e-02f, 8.993316e-02f, -3.418247e-02f, 5.848414e-02f, 3.466112e-02f, -1.834624e-02f,
  8.017692e-02f, 2.886671e-03f, -1.086570e-01f, -4.557094e-03f, 5.000623e-02f, -1.923178e-01f, -1.915029e-02f, 1.104514e-03f,
  -6.934247e-02f, 1.769596e-02f, 2.123323e-02f, 9.571297e-02f, 1.092598e-01f, 6.295235e-02f, -1.211380e-01f, -6.944814e-02f,
  4.632355e-03f, -2.797836e-02f, -9.909418e-02f, 1.297119e-01f, 7.240880e-02f, 8.783964e-02f, 8.145452e-02f, 1.096232e-01f,
  -3.381533e-02f, -9.496529e-02f, 8.701243e-02f, -3.897803e-02f, -8.031613e-02f, -1.737575e-02f, 1.745697e-02f, -1.486115e-02f,
  -2.046015e-02f, 9.829671e-02f, 5.623539e-02f, -3.615484e-02f, 6.124542e-02f, -2.179429e-02f, -4.136399e-02f, 8.856762e-02f,
  8.378418e-03f, -1.324631e-02f, -8.749089e-02f, 7.339697e-02f, -1.111616e-02f, -9.919842e-02f, 6.917951e-02f, 3.915228e-02f,
  -4.298987e-03f, -1.071759e-01f, -1.581701e-02f, 4.068607e-02f, 6.343108e-02f, -2.476787e-02f, -4.531483e-02f, -9.568703e-02f,
  -2.687498e-02f, -6.182069e-02f, -7.993118e-02f, 1.128112e-01f, 6.855007e-02f, -2.249290e-02f, 8.172625e-02f, -5.218362e-02f,
  -1.224559e-01f, -1.043077e-01f, -3.759231e-02f, -9.313247e-02f, -7.950801e-02f, -1.181366e-02f, 9.942780e-02f, -9.122253e-02f,
  3.906477e-03f, 1.188922e-01f, -2.110117e-03f, -1.119188e-03f, -7.353811e-02f, -2.571680e-02f, -1.076110e-01f, -1.219480e-02f,
  -7.268763e-02f, -1.071943e-01f, 7.723093e-02f, 8.604375e-02f, 1.964561e-02f, -4.324609e-02f, -3.266180e-02f, -7.711795e-02f,
  -1.547132e-01f, -4.512201e-02f, -1.611707e-01f, -7.668990e-02f, 3.812067e-04f, 4.881805e-02f, -3.266994e-02f, -1.111623e-01f,
  5.823441e-02f, 9.762478e-02f, -3.509741e-04f, 7.066215e-03f, 6.004299e-02f, -3.007012e-03f, 1.012169e-02f, -8.646109e-03f,
  1.172419e-01f, 1.543093e-01f, 9.067398e-02f, 8.599995e-02f, 1.340963e-02f, 5.993311e-02f, -6.114164e-02f, 6.789768e-02f,
  3.094288e-02f, 4.948807e-02f, -9.582460e-02f, 2.029785e-02f, 9.345213e-02f, -8.469525e-02f, 7.618890e-02f, -3.236439e-02f,
  4.234568e-02f, 1.063781e-02f, -8.771116e-02f, -7.892082e-02f, 9.893297e-02f, -7.587027e-03f, 3.322517e-02f, -3.350782e-02f,
  -6.389491e-02f, 3.849127e-02f, 4.962574e-02f, 9.494324e-02f, 1.232715e-01f, 9.658437e-02f, 4.048528e-02f, 2.946359e-02f,
  -3.415516e-02f, -7.282647e-02f, -5.796371e-02f, -8.092379e-02f, 9.086210e-02f, -6.238077e-03f, -4.560466e-02f, 5.370446e-02f,
  -1.408015e-02f, -6.354538e-02f, 1.812862e-02f, 6.001221e-02f, 1.101408e-01f, 4.460019e-02f, 1.815177e-01f, -9.601466e-02f,
  -1.220050e-02f, 1.447959e-01f, -1.123018e-01f, -5.811950e-02f, 9.114979e-02f, -2.498137e-03f, 3.513451e-02f, 1.715685e-01f,
  5.766319e-02f, 3.578757e-02f, 1.005593e-01f, 6.809846e-02f, -1.031157e-01f, 7.585496e-02f, -4.592677e-02f, 2.497119e-02f,
  -1.954741e-01f, -4.550514e-02f, 1.084946e-02f, -9.703343e-02f, 4.868592e-02f, 5.747250e-02f, -3.574585e-02f, 4.078251e-02f,
  4.434922e-02f, -3.281978e-02f, 2.335464e-02f, 1.245972e-01f, -4.255728e-02f, 1.969270e-02f, 3.811952e-02f, -3.001610e-02f,
  -1.413411e-02f, -1.871415e-02f, 3.963151e-02f, -6.816360e-02f, -6.188907e-02f, -6.171603e-02f, -4.939477e-02f, 9.653481e-02f,
  8.025359e-02f, 5.800833e-02f, -4.995524e-02f, 7.513644e-02f, 1.131777e-01f, 4.320940e-02f, 2.522025e-01f, 4.121330e-02f,
  1.711239e-01f, 1.186428e-01f, -6.832305e-03f, -8.804330e-02f, 4.059918e-02f, -2.863324e-02f, -7.377343e-02f, -5.329985e-02f,
  6.413150e-02f, -1.127786e-02f, -9.149458e-02f, 2.570615e-02f, -1.483617e-03f, -8.941314e-02f, 7.245345e-02f, 1.949956e-02f,
  -1.124238e-01f, 2.410733e-02f, 3.914913e-02f, 2.289448e-02f, -4.118741e-02f, -8.771603e-02f, -3.803924e-02f, -1.180718e-03f,
  9.848668e-02f, -8.681052e-02f, -1.511627e-01f, -4.586623e-02f, -1.316787e-01f, -4.264226e-02f, 6.723784e-02f, -4.517713e-02f,
  4.367223e-02f, 1.716557e-01f, 4.220532e-02f, 1.193443e-01f, 1.089260e-01f, 1.206591e-01f, -3.106994e-02f, -3.127056e-02f,
  1.770180e-02f, -1.871904e-01f, -5.803256e-02f, 1.109715e-02f, -1.872827e-01f, 1.451032e-01f, -6.025511e-02f, 3.668608e-02f,
  1.338714e-01f, 3.212338e-03f, -4.720896e-02f, -4.220057e-02f, -8.670077e-02f, -3.668970e-02f, -7.095136e-02f, -1.698076e-01f,
  -3.183565e-02f, 1.127645e-01f, -3.401430e-02f, 1.372851e-01f, -7.059900e-02f, -7.726723e-02f, 1.272396e-01f, 1.347029e-02f,
  2.104787e-02f, -1.141129e-04f, 4.396105e-02f, 1.553933e-03f, 7.666533e-02f, 3.415550e-02f, -1.027083e-01f, -1.040119e-01f,
  -3.224063e-02f, -8.647656e-02f, -4.985192e-02f, -7.718575e-02f, -2.197688e-02f, 2.179653e-02f, -8.110908e-02f, -1.268395e-01f,
  6.715921e-02f, -2.865944e-02f, -2.307902e-01f, 1.454758e-03f, 1.365782e-01f, -8.641938e-02f, 4.765436e-03f, 9.094859e-02f,
  -5.935540e-02f, 9.617889e-02f, -1.178167e-01f, -3.585008e-02f, 9.305770e-02f, -5.620066e-02f, -4.326714e-02f, -2.017673e-03f,
  6.939074e-03f, -7.058845e-02f, -6.043680e-02f, 1.367460e-01f, -6.407624e-02f, -5.761598e-02f, -1.568366e-01f, -2.183432e-02f,
  5.969018e-02f, 5.000623e-02f, 4.889437e-03f, 1.157318e-01f, -5.610728e-02f, 2.649211e-02f, 1.106039e-02f, -4.656929e-02f,
  -1.624686e-02f, 2.437058e-04f, 2.506875e-02f, -2.316186e-02f, -4.327065e-02f, -3.335126e-02f, 9.717336e-02f, -4.596165e-02f,
  -3.401710e-02f, -1.060089e-02f, -2.917229e-02f, -1.856856e-01f, -8.986858e-02f, 1.059984e-03f, -1.051904e-01f, 1.780709e-01f,
  7.003909e-02f, 9.949452e-02f, -5.401561e-02f, -1.389642e-01f, 1.471860e-01f, -1.461028e-01f, -1.671579e-01f, 4.635927e-02f,
  -1.030504e-01f, 4.901497e-02f, -4.158980e-03f, 9.534679e-03f, -3.465061e-02f, 1.061442e-01f, 8.452668e-02f, 1.676014e-01f,
  -1.464761e-02f, -5.199204e-02f, -4.778546e-03f, -7.047594e-02f, 2.216406e-01f, 1.318023e-01f, 4.001585e-02f, 1.778010e-01f,
  2.803252e-03f, 1.123398e-01f, 1.043252e-01f, -1.133480e-01f, -1.698102e-01f, -8.127305e-02f, 4.434824e-03f, -1.033240e-01f,
  1.229629e-03f, 3.009345e-02f, 1.489077e-02f, 2.131322e-02f, 9.125908e-02f, -1.344775e-02f, -1.149890e-01f, 3.190936e-02f,
  -1.404622e-01f, -1.257886e-01f, 5.595421e-02f, -2.714666e-01f, -1.090958e-01f, -6.079254e-02f, 1.961556e-01f, 3.921140e-02f,
  -5.124258e-02f, 1.524246e-02f, -3.684092e-02f, -7.353148e-02f, 1.851121e-02f, -4.495159e-02f, -2.036282e-01f, -1.752120e-01f,
  -1.472917e-01f, 9.799623e-02f, -1.374940e-01f, -1.598463e-01f, 6.180663e-02f, -2.198428e-02f, 1.952615e-02f, 6.487465e-02f,
  9.225371e-02f, -3.063475e-02f, 1.214863e-01f, -1.205896e-01f, -5.097045e-02f, 6.275878e-03f, -1.249956e-01f, -2.344399e-03f,
  4.832967e-02f, 2.203346e-02f, -4.382653e-02f, 1.567674e-03f, 2.798351e-02f, 3.429439e-02f, -3.237170e-02f, 2.177690e-03f,
  -7.135135e-03f, -5.596692e-02f, -5.503534e-02f, 3.006326e-02f, -1.282648e-01f, -6.664067e-02f, -1.306357e-01f, -1.355330e-02f,
  -7.716358e-02f, -7.068797e-02f, 4.362037e-02f, 2.335406e-02f, 6.647716e-02f, 9.664657e-02f, 1.890549e-02f, 4.971407e-02f,
  1.043731e-01f, 5.043355e-02f, -3.306890e-02f, -1.247038e-01f, 5.937365e-02f, 8.181672e-02f, -1.054314e-01f, 1.214153e-01f,
  9.483097e-02f, -1.044500e-01f, 2.901519e-02f, -3.536638e-02f, -2.424329e-02f, -1.640651e-02f, 1.217489e-03f, 6.842516e-02f,
  -1.738458e-01f, 1.325424e-01f, 1.126298e-01f, -4.074989e-02f, -7.137319e-03f, 2.166680e-01f, -3.689672e-02f, -3.373120e-02f,
  -1.048834e-01f, 7.270116e-02f, 3.207753e-02f, -8.301266e-02f, 1.088162e-01f, 1.221056e-01f, 2.479641e-03f, 5.784070e-02f,
  -2.595339e-02f, -2.584613e-01f, 5.181645e-02f, -1.630019e-01f, -2.860801e-01f, -6.054098e-03f, -3.342362e-01f, -1.722248e-01f,
  8.033886e-02f, -6.945943e-02f, 1.398348e-02f, 9.610219e-02f, 1.609919e-02f, 2.104484e-02f, -9.406000e-02f, -8.264039e-02f,
  -4.328714e-02f, 8.184195e-02f, 2.171361e-02f, -5.183505e-02f, -3.998461e-02f, -1.969664e-02f, 6.278531e-02f, -2.030570e-02f,
  1.213308e-01f, 1.009706e-01f, -3.202034e-02f, -1.468624e-01f, 3.730235e-02f, -7.028954e-02f, -2.294361e-01f, -4.237500e-02f,
  -7.117578e-03f, -9.328802e-02f, -8.193460e-03f, 3.276107e-02f, 1.778921e-01f, 1.614845e-01f, -5.532445e-02f, 1.749635e-01f,
  7.506373e-02f, -1.250769e-01f, 2.092438e-02f, 9.212015e-02f, -1.084007e-01f, -7.952213e-02f, -9.043992e-02f, -1.151583e-01f,
  1.097469e-02f, -5.782843e-02f, -4.092830e-02f, -1.151481e-01f, 1.022516e-01f, 1.255955e-01f, -5.984570e-02f, 2.022164e-02f,
  -1.802041e-01f, -2.838540e-01f, -1.016436e-01f, 1.328288e-01f, 2.414732e-02f, 7.732807e-02f, 6.494552e-03f, 1.414317e-01f,
  4.782061e-03f, 2.005305e-01f, 9.685153e-02f, 3.388908e-03f, 4.268119e-03f, -2.079962e-02f, 3.304389e-02f, -1.842403e-01f,
  -1.158655e-01f, -5.711762e-02f, -3.309522e-01f, -4.461737e-01f, -3.878065e-02f, -1.589893e-01f, -1.804423e-01f, 4.576202e-02f,
  -4.290386e-03f, 2.461994e-02f, -3.051165e-02f, -6.280284e-02f, -3.895604e-02f, 8.535778e-03f, -8.159976e-02f, 1.084051e-02f,
  6.167924e-02f, -1.208556e-02f, 1.293217e-01f, -6.767830e-02f, 1.551647e-01f, 5.923743e-02f, -1.052848e-01f, 1.155061e-01f,
  7.158809e-02f, 6.562766e-02f, -1.474817e-02f, 6.397877e-02f, -1.408095e-02f, -6.013208e-03f, 6.781944e-02f, -9.162270e-02f,
  1.947428e-02f, -5.157554e-02f, -1.094909e-01f, 4.024496e-02f, 3.586397e-02f, -6.202487e-02f, 9.566378e-02f, -5.308432e-03f,
  1.549377e-01f, -2.906456e-02f, -2.586449e-02f, 2.311029e-03f, -6.367861e-02f, 1.060565e-01f, -8.243680e-02f, 1.392959e-01f,
  7.596225e-02f, -1.182493e-01f, -8.140682e-04f, 8.494982e-02f, -8.218701e-02f, 3.329911e-02f, -7.304745e-02f, 1.001885e-01f,
  -3.216491e-01f, -1.116196e-01f, 2.319666e-03f, -1.582291e-01f, 5.393466e-02f, 1.087063e-03f, -1.568908e-02f, -8.560681e-02f,
  8.513962e-02f, -2.144389e-01f, -9.692571e-02f, 2.078892e-02f, -1.263673e-01f, 1.056749e-02f, 1.217785e-01f, 7.234235e-02f,
  -7.476351e-02f, -9.648211e-02f, 1.140710e-01f, -5.594735e-02f, 6.399149e-02f, 3.072851e-02f, 1.692201e-02f, 5.246370e-02f,
  7.467948e-02f, 1.167330e-01f, 8.973622e-02f, 5.264391e-02f, -5.258258e-02f, 1.117390e-02f, 3.432033e-02f, 6.411614e-02f,
  1.284167e-02f, 3.708493e-02f, 3.566315e-02f, -1.138237e-01f, 1.682824e-03f, 2.120670e-02f, 9.502151e-02f, 7.784992e-02f,
  4.389822e-02f, -5.838650e-02f, -2.927635e-03f, 3.948510e-02f, 2.562300e-04f, 1.430570e-01f, 2.547566e-02f, -7.902404e-03f,
  6.270986e-02f, 9.795165e-02f, 1.004152e-01f, -3.416302e-02f, 3.672254e-03f, -2.147327e-01f, -5.427102e-02f, 7.044061e-02f,
  -9.193325e-02f, 9.555402e-03f, 1.031692e-01f, -9.041599e-02f, -3.923091e-02f, 4.648572e-03f, 1.145139e-01f, -2.154539e-02f,
  -9.235372e-02f, -2.935605e-02f, 1.808494e-01f, 1.626327e-01f, 2.229359e-02f, 1.575207e-04f, 2.966296e-01f, 2.223440e-01f,
  -1.052224e-01f, 9.390680e-04f, 1.627292e-01f, -1.289713e-01f, -1.789552e-01f, -6.604706e-02f, -1.323450e-01f, -9.493978e-02f,
  1.048004e-01f, -3.617360e-03f, -7.571182e-02f, -1.645096e-02f, -9.473684e-03f, -1.020672e-01f, 5.369110e-02f, -6.216617e-02f,
  6.716869e-03f, 2.995347e-02f, -4.859909e-02f, 3.577042e-02f, 3.766248e-02f, 1.215311e-01f, 5.872180e-02f, -7.589089e-02f,
  1.189058e-01f, 8.737260e-02f, 8.999951e-02f, 1.126967e-01f, 2.373710e-02f, 4.382562e-02f, 4.256024e-03f, -1.395350e-02f,
  6.931233e-02f, -1.026426e-01f, -4.589995e-02f, -4.289271e-02f, -1.380214e-01f, -1.574185e-01f, -1.044177e-01f, -1.093258e-01f,
  -1.124842e-01f, -8.855347e-02f, 3.964239e-02f, 3.917801e-02f, -9.545568e-02f, -3.141511e-02f, -3.670381e-02f, 1.027389e-01f,
  -2.747102e-02f, 5.732452e-02f, 1.155450e-01f, -1.140048e-01f, -5.434420e-02f, -6.129150e-02f, -5.502377e-02f, -3.953458e-02f,
  -1.200854e-01f, -5.269984e-02f, -4.108249e-02f, 7.768105e-02f, 9.389964e-02f, -3.933090e-02f, 9.097949e-02f, -1.309959e-01f,
  -3.536734e-02f, -3.640636e-02f, 8.912687e-03f, 3.186975e-02f, 6.438953e-02f, 9.834476e-02f, -4.479924e-02f, -1.370924e-01f,
  -3.150382e-02f, -2.241456e-02f, -6.832368e-02f, -2.367953e-03f, 6.013135e-02f, 4.367296e-02f, 9.504683e-02f, -3.390193e-02f,
  -6.541104e-02f, -4.297217e-03f, -4.815495e-02f, 9.017253e-02f, 9.413090e-02f, -9.647494e-03f, -1.013119e-01f, 6.599243e-03f,
  -7.617132e-02f, -1.217829e-02f, 7.657603e-02f, -5.639715e-02f, -5.973710e-02f, -6.017932e-02f, -8.459645e-03f, 4.641445e-02f,
  -3.640900e-02f, 5.003187e-02f, 3.105808e-02f, 1.619629e-01f, 1.906447e-02f, -1.216206e-01f, 1.083097e-01f, -5.727001e-02f,
  7.805224e-02f, -2.405776e-04f, 4.684793e-02f, 6.343385e-02f, -3.455158e-03f, -8.590918e-02f, -6.806943e-02f, -1.542319e-01f,
  3.748501e-02f, 1.043007e-02f, 4.973128e-02f, 1.046086e-01f, 5.483393e-02f, 2.545980e-02f, -4.362415e-02f, -1.527098e-02f,
  1.001296e-01f, 1.095752e-01f, 1.286806e-01f, 1.748979e-01f, 3.821888e-01f, 9.085025e-02f, 1.338643e-01f, -5.079640e-02f,
  -2.054135e-01f, 1.259822e-01f, -2.023216e-01f, -3.860272e-02f, -1.062941e-01f, -3.766701e-03f, -2.740383e-02f, -1.334354e-01f,
  -9.286855e-02f, 3.165735e-02f, -6.755027e-02f, 6.846225e-02f, 5.300170e-02f, -3.391503e-02f, -1.869657e-01f, -8.659308e-02f,
  -1.629179e-01f, 1.124124e-01f, -7.825796e-02f, -2.116211e-01f, -3.055769e-04f, -1.691810e-01f, -6.275015e-02f, 3.170406e-02f,
  2.018895e-01f, -6.653982e-02f, -1.308899e-01f, -1.541996e-02f, -7.791569e-02f, 9.789837e-02f, 1.755695e-01f, -2.327169e-01f,
  -9.929137e-02f, -9.381613e-02f, 3.230826e-02f, 6.520481e-02f, 1.164817e-01f, -1.037776e-02f, -3.933566e-02f, -1.414059e-01f,
  -1.179031e-03f, 1.048775e-01f, 3.068832e-02f, -8.491993e-02f, 1.719967e-02f, -3.824421e-02f, -6.186111e-02f, 1.299863e-02f,
  -3.448769e-02f, -1.015674e-01f, -4.946729e-02f, 1.018922e-01f, 2.039662e-02f, 8.012339e-02f, -9.066264e-02f, -5.174843e-02f,
  -5.164021e-02f, -7.195803e-02f, -1.163415e-01f, 4.186871e-02f, 6.663697e-03f, -7.862030e-02f, -8.700050e-02f, -2.731960e-02f,
  -1.885437e-01f, 1.989450e-01f, 1.496348e-01f, 4.725055e-02f, -5.133430e-02f, 2.103003e-01f, -1.455695e-01f, 3.856598e-02f,
  2.515566e-01f, -7.358500e-02f, -4.753931e-02f, -5.028894e-03f, 5.939821e-02f, -6.166856e-02f, -7.598110e-02f, 1.227724e-01f,
  -3.030331e-01f, -4.727679e-02f, 9.098709e-02f, -1.090036e-01f, -7.206164e-02f, -1.748923e-02f, 5.363224e-03f, -2.568727e-02f,
  1.325410e-02f, 2.913550e-02f, 8.441716e-03f, 1.241902e-01f, 1.612018e-01f, -1.117827e-01f, 8.298066e-02f, 1.588721e-01f,
  1.119543e-01f, 9.064811e-02f, -1.955538e-02f, -9.754570e-02f, 3.385589e-02f, -4.389520e-02f, 6.353946e-02f, 1.145986e-01f,
  -4.287735e-02f, -1.446543e-01f, -1.925062e-01f, -3.638902e-01f, -1.595140e-01f, -3.036617e-01f, -1.849676e-01f, 3.141553e-03f,
  1.168258e-02f, -6.144019e-03f, -5.374715e-02f, -3.861654e-02f, -8.975623e-02f, 1.699515e-02f, 2.144886e-02f, -9.002792e-02f,
  9.227379e-02f, 1.945550e-02f, -3.071398e-02f, 2.295799e-02f, -4.776700e-02f, -1.534926e-02f, -1.169468e-01f, -9.958659e-02f,
  -5.571183e-02f, 6.698096e-02f, -2.081931e-02f, -8.434056e-02f, 7.076532e-02f, -6.502779e-02f, -9.608363e-02f, 5.830848e-02f,
  6.013227e-02f, -2.973582e-02f, -1.203995e-01f, -1.216677e-01f, -4.629352e-02f, -1.677551e-01f, -1.376224e-01f, -9.556163e-02f,
  3.717731e-03f, 1.909268e-02f, 8.684942e-02f, -6.194769e-02f, -1.066618e-01f, -1.883472e-02f, -1.049198e-01f, 3.087750e-02f,
  -2.821035e-02f, -8.571210e-02f, -4.417343e-02f, -7.645082e-02f, 4.084524e-02f, -3.485221e-02f, -6.906489e-02f, -5.002179e-02f,
  -1.679840e-03f, 3.078727e-02f, -8.921947e-02f, -1.428582e-01f, -2.735777e-02f, -1.486240e-01f, 6.143177e-02f, -2.412198e-02f,
  -9.177031e-02f, -5.120697e-02f, 3.254256e-02f, -7.217914e-02f, -7.486799e-02f, 4.417232e-02f, 2.810987e-02f, 7.644667e-02f,
  -3.125017e-02f, -2.070052e-02f, -9.088682e-02f, 3.244732e-02f, -8.682847e-02f, -2.950370e-02f, 7.126439e-02f, 2.733333e-02f,
  -2.033496e-02f, -6.212098e-03f, -6.645177e-02f, 8.727926e-02f, -1.359362e-01f, 8.100999e-02f, -1.150354e-01f, -9.674310e-02f,
  5.849261e-02f, 2.612097e-02f, -1.043431e-02f, -5.324348e-02f, -1.160053e-01f, -9.639873e-02f, -3.021969e-02f, 2.390391e-02f,
  1.281282e-02f, 3.215187e-02f, 1.418798e-02f, -7.936541e-02f, -1.074080e-02f, 9.117174e-02f, 5.158143e-02f, -1.394680e-01f,
  -9.557093e-02f, -1.453111e-01f, -1.159264e-01f, 7.040896e-02f, 6.701075e-02f, -2.816766e-02f, 4.384774e-02f, 6.446189e-02f,
  -7.666904e-02f, -1.147847e-01f, -3.020447e-02f, -6.655911e-02f, 1.160453e-02f, -9.149747e-02f, -9.927785e-02f, -1.449569e-01f,
  -2.654443e-02f, -1.349825e-01f, -2.949966e-02f, -1.055338e-01f, -9.335396e-02f, -9.135434e-02f, -7.650546e-02f, 5.381059e-02f,
  7.037101e-02f, 2.753537e-02f, -6.743964e-02f, 6.127272e-02f, -5.290064e-03f, -1.141773e-01f, -7.142701e-02f, -6.988019e-02f,
  5.997847e-02f, -1.067537e-01f, -1.319876e-01f, -5.778491e-02f, -1.510824e-02f, 6.827965e-02f, -6.343406e-02f, -1.112999e-01f,
  -8.637553e-03f, 8.142105e-02f, -1.975550e-02f, -1.018961e-01f, -2.584179e-02f, 1.814086e-02f, -7.927182e-02f, -4.377424e-02f,
  3.929481e-02f, -3.962234e-02f, -1.544691e-02f, -5.620587e-02f, 1.026086e-01f, 1.195628e-01f, 1.373148e-02f, -5.720133e-02f,
  3.952213e-02f, -3.146298e-02f, -7.314414e-02f, -3.756919e-02f, 9.131189e-02f, 8.199325e-02f, 7.524484e-02f, 7.133041e-02f,
  -7.684327e-02f, -5.756724e-02f, -3.193639e-02f, 1.091072e-01f, -2.394750e-02f, 7.604034e-02f, -9.440513e-02f, 2.642713e-02f,
  -2.177242e-03f, 9.123036e-02f, 2.179842e-02f, -2.780252e-02f, -4.188319e-02f, 7.157402e-02f, 2.441884e-03f, 1.045875e-01f,
  1.141725e-01f, -4.489001e-02f, -1.007554e-01f, -3.956879e-02f, 9.554515e-02f, 7.140344e-02f, -5.314644e-02f, 6.760430e-02f,
  -3.307634e-02f, -3.049151e-02f, -7.884548e-02f, -6.019662e-02f, 3.356227e-02f, -2.107223e-02f, -7.116236e-02f, -2.312440e-02f,
  2.193762e-02f, 1.052802e-01f, -6.203182e-02f, 8.193668e-03f, 6.216414e-02f, 1.034787e-02f, 1.287694e-01f, 8.255994e-02f,
  1.435825e-01f, 1.406859e-01f, 1.084354e-01f, 2.090302e-01f, 1.275541e-01f, -2.154974e-02f, 8.766802e-02f, 1.248415e-02f,
  -3.930261e-02f, -8.890510e-02f, 1.302733e-03f, -1.369001e-01f, -9.603877e-05f, -9.658132e-02f, 8.012333e-03f, -6.290776e-02f,
  9.085121e-02f, 4.200572e-02f, 1.892316e-02f, -3.634434e-02f, 5.629714e-02f, -7.664081e-02f, 4.488550e-02f, 6.915566e-02f,
  -2.635310e-02f, -1.143302e-01f, -1.068151e-01f, -1.050533e-01f, -6.271354e-02f, 5.700346e-02f, -1.176314e-01f, -3.285872e-03f,
  -4.223695e-02f, -5.912437e-02f, -3.622266e-02f, -1.210754e-01f, 7.879080e-02f, -6.034102e-03f, 6.284019e-03f, 1.250637e-01f,
  -8.212502e-02f, 1.090029e-02f, 8.515984e-02f, 5.045981e-02f, -1.539543e-02f, 7.775918e-02f, -4.894368e-02f, -7.721710e-02f,
  1.039027e-01f, -3.444599e-02f, 9.167913e-02f, 1.369348e-01f, 4.357762e-02f, 1.095497e-01f, 3.335562e-02f, -7.937721e-02f,
  -5.432930e-03f, 5.997200e-02f, 5.608098e-02f, 8.353762e-02f, 1.018211e-01f, 3.507443e-02f, 5.091649e-02f, 4.602944e-02f,
  -8.005888e-02f, 3.707826e-02f, 6.334323e-02f, 4.213554e-03f, -1.035152e-01f, -3.233786e-02f, -2.112988e-02f, 4.819759e-02f,
  -3.367419e-02f, -1.229638e-02f, 1.775385e-02f, 1.800543e-02f, 4.575482e-02f, -6.267586e-02f, 3.291588e-02f, 8.910408e-02f,
  9.985766e-02f, 2.934652e-02f, 4.619485e-02f, -6.776739e-02f, 5.548241e-03f, -1.223696e-02f, -5.916371e-02f, 2.373967e-02f,
  2.798511e-03f, 4.082385e-02f, 1.479030e-02f, -2.733249e-02f, 2.005785e-01f, 6.182297e-02f, 5.815776e-02f, 4.408808e-02f,
  -1.550292e-01f, -1.879939e-02f, 1.079419e-02f, 4.391700e-02f, 3.210173e-02f, -5.686944e-02f, -4.193961e-02f, -2.938350e-02f,
  8.908548e-03f, -8.364285e-02f, 3.028264e-02f, -3.389708e-03f, 1.453382e-01f, 4.383622e-02f, 1.226351e-01f, 1.275226e-01f,
  -6.066510e-02f, -4.448657e-02f, -5.386393e-03f, -9.852306e-03f, -1.176714e-01f, -1.215439e-01f, 2.486278e-01f, 4.274368e-02f,
  1.095265e-01f, -7.761545e-02f, -2.520527e-02f, 1.372684e-01f, -2.234312e-01f, -3.923756e-02f, 1.671665e-02f, -1.280813e-01f,
  1.110254e-01f, -2.358621e-02f, 9.176909e-02f, 6.899852e-02f, -4.164561e-02f, -9.523770e-02f, 6.380738e-02f, 8.336612e-02f,
  -8.270481e-02f, -2.497004e-02f, -4.085912e-02f, -4.514157e-03f, -1.321847e-01f, -2.014140e-02f, -1.233043e-01f, -2.434177e-01f,
  -9.618241e-02f, -1.620820e-01f, 1.203403e-02f, -1.500930e-01f, -1.172136e-01f, -6.596722e-02f, -5.788845e-02f, -1.278504e-01f,
  1.929109e-02f, -4.018072e-02f, 8.509077e-02f, 7.335060e-02f, 1.849279e-01f, -1.549887e-01f, -4.828930e-02f, 6.250201e-02f,
  -6.619313e-02f, 3.173816e-02f, -4.076958e-02f, 9.347439e-02f, 2.645525e-01f, 1.419677e-01f, -1.992197e-02f, -9.269089e-03f,
  -3.175338e-02f, 3.159120e-02f, -7.586940e-02f, -3.511569e-02f, -4.453265e-02f, -4.766504e-02f, 8.490137e-02f, 1.299000e-01f,
  -5.811963e-02f, 4.754890e-03f, 1.369555e-01f, 8.742282e-02f, -5.093179e-02f, 9.657646e-02f, -2.716223e-02f, 7.870859e-03f,
  -5.170221e-02f, -5.802675e-02f, -7.160348e-02f, -3.296470e-02f, 9.633078e-02f, -6.315253e-02f, -4.676564e-02f, 1.026014e-01f,
  -7.216085e-02f, 4.880057e-02f, 4.202786e-02f, -8.940628e-03f, 2.275635e-03f, 8.742726e-02f, 2.641319e-02f, -1.754666e-02f,
  2.067554e-02f, -6.939355e-02f, -8.987668e-02f, 7.865630e-03f, 7.081113e-02f, -1.321938e-01f, 1.127812e-03f, -1.134435e-01f,
  -4.000468e-02f, 2.663258e-01f, -3.333604e-02f, 2.686042e-02f, -6.170145e-04f, 1.212821e-02f, -6.876134e-02f, 3.077633e-02f,
  -9.156550e-02f, 4.933718e-02f, 1.971964e-01f, -2.439798e-02f, 8.625887e-02f, 3.163288e-02f, -5.217025e-03f, 8.736025e-02f,
  -1.164461e-01f, 2.166897e-02f, 2.146484e-02f, -2.175037e-01f, -9.453648e-02f, 9.700136e-02f, 1.270319e-02f, 8.588421e-02f,
  -4.823063e-02f, 4.374300e-02f, -1.273809e-01f, 1.834605e-02f, -1.461272e-01f, 1.014496e-01f, 4.506722e-02f, 1.741368e-02f,
  9.378715e-02f, -5.979216e-02f, -8.840706e-02f, -8.997224e-02f, -1.001151e-01f, 4.501160e-02f, 6.598645e-02f, 2.325929e-02f,
  2.796998e-02f, -4.496049e-02f, 3.941738e-02f, 4.867361e-02f, 6.454425e-02f, -7.896704e-02f, 8.886658e-02f, -1.617895e-02f,
  4.821385e-02f, -1.632311e-02f, 9.609458e-03f, -7.008896e-02f, -9.169564e-03f, 6.390805e-03f, 7.577753e-02f, 8.596404e-03f,
  6.310333e-02f, 6.878985e-02f, 1.264411e-01f, 1.611866e-02f, -1.217142e-01f, -8.594970e-02f, 3.735291e-02f, -1.867664e-01f,
  1.117795e-01f, 9.835184e-02f, -1.022626e-01f, -5.326310e-02f, 1.115504e-01f, 6.237331e-02f, -9.236346e-02f, -2.078995e-01f,
  -4.635554e-02f, 9.822370e-02f, -5.069918e-02f, -1.083652e-02f, 1.596982e-01f, -1.220412e-02f, -8.705376e-02f, -1.646212e-01f,
  -3.929143e-02f, -5.433856e-02f, -1.741083e-01f, -4.017059e-02f, -5.301977e-02f, 5.301600e-02f, -1.492205e-01f, -5.274993e-02f,
  2.399679e-01f, 1.661378e-01f, 3.280390e-02f, 2.042657e-01f, 1.379084e-01f, 1.042956e-01f, 1.540670e-01f, 3.933019e-02f,
  3.030900e-02f, -4.418209e-02f, 5.527426e-02f, 1.435516e-02f, 1.177878e-01f, 9.069992e-02f, -9.429946e-02f, -5.595423e-03f,
  4.390098e-02f, -6.894275e-02f, -7.570421e-02f, -6.170581e-02f, -5.489993e-02f, -3.962966e-02f, -1.378814e-02f, -5.447247e-02f,
  -8.415096e-02f, -1.167936e-01f, 3.542389e-02f, -1.836671e-02f, 3.850269e-02f, 6.147469e-02f, 5.825596e-02f, 7.181276e-02f,
  2.091040e-02f, 6.944605e-02f, 8.485682e-02f, 9.983904e-02f, -2.551276e-02f, 1.537599e-01f, 8.722799e-02f, -3.750012e-02f,
  -4.407858e-03f, -4.910278e-02f, 1.208584e-01f, -4.654401e-02f, 1.107708e-01f, -8.188473e-02f, -2.922494e-02f, 5.090431e-03f,
  7.317629e-02f, 4.059440e-02f, 7.635631e-02f, 6.447667e-02f, -8.585681e-03f, 1.068731e-01f, 5.442489e-02f, 2.550438e-02f,
  1.654622e-01f, 1.090902e-01f, 3.132095e-02f, 1.258844e-01f, 1.777875e-01f, 7.636613e-03f, -1.416500e-02f, -1.034446e-01f,
  -1.027537e-01f, 7.047727e-02f, 1.191389e-02f, -1.905083e-02f, 6.859864e-02f, 3.951661e-02f, -1.291551e-02f, -1.537671e-01f,
  -9.483651e-02f, -1.030928e-01f, -1.040352e-01f, -8.773312e-02f, -9.312820e-02f, 9.120025e-02f, -5.697896e-02f, 2.661254e-02f,
  1.070845e-01f, 1.035091e-01f, -3.784181e-02f, 1.366378e-01f, 9.701335e-02f, -7.752344e-03f, -9.615344e-02f, -4.568900e-02f,
  1.167084e-01f, 8.676349e-02f, -7.175689e-02f, -8.198398e-02f, -4.692607e-02f, 2.624429e-02f, -5.416884e-02f, 1.394536e-02f,
  7.964152e-03f, -5.278184e-03f, 7.851394e-02f, 2.185035e-04f, -3.961611e-02f, 7.762124e-02f, 1.364913e-01f, 1.356512e-01f,
  -9.268402e-02f, -9.705730e-02f, -2.678920e-02f, -3.735586e-02f, 1.345197e-01f, 2.463007e-02f, 1.395110e-01f, 1.502673e-01f,
  4.602616e-02f, 1.277721e-01f, 1.060557e-01f, -8.340647e-03f, 4.057292e-02f, -5.422989e-02f, -6.557764e-02f, -3.690996e-02f,
  1.000876e-02f, -8.892676e-02f, -1.093709e-02f, -8.725931e-03f, 1.819332e-02f, 1.337024e-02f, -9.138483e-03f, 1.463440e-01f,
  -8.791402e-02f, -4.881361e-02f, -3.347192e-02f, -1.387176e-01f, 1.290163e-01f, -6.818434e-02f, 6.011509e-02f, 6.156816e-02f,
  -3.384350e-03f, -1.539026e-01f, -9.017641e-02f, -1.497035e-01f, -1.452902e-01f, 1.394997e-03f, 6.838838e-02f, -4.249827e-02f,
  7.266078e-02f, -6.336474e-02f, -1.722823e-02f, 1.060569e-01f, 5.114103e-02f, -5.141436e-02f, 5.505200e-03f, 4.711233e-02f,
  9.230019e-02f, -1.016359e-02f, 4.025619e-03f, 1.582856e-01f, 7.707918e-03f, 7.030635e-02f, 4.730037e-02f, 5.532208e-03f,
  3.867370e-02f, 2.849639e-03f, -8.331612e-02f, 4.796253e-02f, -1.159936e-01f, -1.551602e-01f, -1.290626e-01f, 4.560148e-02f,
  1.169735e-02f, -6.223257e-02f, -1.703132e-03f, -3.821488e-02f, -5.882653e-02f, 5.434588e-02f, -4.401313e-02f, -3.213014e-02f,
  5.719967e-02f, 6.458198e-02f, 1.035166e-01f, 9.123740e-02f, -8.324043e-02f, -1.106050e-02f, -4.747574e-02f, 2.460569e-02f,
  1.434252e-01f, 1.355227e-01f, 1.261750e-01f, 3.549461e-02f, -5.775831e-02f, -2.739769e-02f, -1.012247e-01f, -1.037847e-01f,
  -8.396045e-02f, -6.091923e-02f, 3.525130e-02f, -5.770962e-02f, -3.908514e-02f, -9.454327e-03f, 8.814587e-02f, 3.396080e-02f,
  -2.241968e-02f, -7.988936e-02f, 6.133024e-02f, -1.156153e-01f, 2.433809e-02f, -4.452382e-02f, 8.669691e-02f, 1.015776e-01f,
  -9.913766e-03f, -7.992055e-02f, -9.296571e-02f, 1.436292e-01f, 4.182578e-02f, -8.933018e-02f, 4.285541e-02f, 3.061994e-02f,
  1.257155e-02f, -1.147914e-02f, -1.283900e-01f, -8.471011e-02f, -2.139224e-02f, -5.696607e-02f, 2.758357e-02f, -2.719257e-02f,
  4.981291e-02f, 1.428137e-02f, -1.123983e-01f, -5.712015e-02f, 5.444689e-02f, -7.467311e-02f, 2.329583e-02f, 9.984399e-02f,
  2.665078e-02f, 5.794952e-02f, -9.746064e-03f, 6.568393e-02f, -3.682601e-03f, -9.533252e-02f, -8.312871e-02f, 7.830196e-02f,
  4.954245e-02f, -4.635147e-02f, -1.942339e-02f, 3.565434e-02f, 2.215974e-03f, 7.652541e-02f, -1.459653e-01f, -1.050552e-01f,
  6.026824e-02f, 6.666315e-02f, 1.856482e-01f, 6.177021e-03f, 1.966108e-01f, 3.219731e-03f, -3.355659e-02f, 1.041035e-01f,
  -4.078910e-02f, 1.034982e-01f, 8.291660e-02f, -8.907173e-02f, 1.530297e-02f, 1.246104e-01f, 7.907003e-02f, 9.945873e-02f,
  -3.297502e-02f, 1.146825e-02f, 1.682777e-02f, -8.741831e-02f, -3.744310e-02f, -7.973055e-02f, 2.019819e-02f, -2.185417e-01f,
  3.231439e-02f, -2.210091e-02f, -1.397103e-01f, 5.538481e-02f, 4.164436e-02f, 9.227385e-02f, 9.307364e-02f, -3.375734e-02f,
  -8.240985e-02f, -1.990234e-02f, 1.917596e-02f, -4.756324e-02f, 4.399108e-03f, 7.705680e-02f, 9.011366e-02f, 5.759686e-02f,
  4.982895e-02f, 9.979648e-03f, 4.522973e-02f, -5.604276e-02f, -4.658041e-02f, -1.128197e-01f, -8.337029e-02f, -4.031178e-02f,
  8.914705e-02f, 1.102139e-01f, 4.669970e-02f, -1.411770e-01f, -7.475901e-02f, 1.324783e-01f, -8.885997e-02f, -7.334874e-02f,
  -3.230663e-02f, 2.735818e-02f, -2.236781e-02f, -1.978658e-02f, -1.111171e-02f, 7.499063e-02f, 5.453862e-02f, -2.180049e-03f,
  -2.043806e-02f, 4.100711e-02f, -9.117797e-02f, -1.379493e-01f, 1.710501e-02f, 1.397810e-01f, -1.633157e-01f, 2.095986e-02f,
  -7.986954e-02f, -1.419062e-02f, -3.530602e-02f, -3.211940e-02f, 9.366727e-02f, 5.394797e-02f, 7.108650e-02f, 2.038258e-01f,
  -3.346920e-02f, 8.611351e-03f, 5.735505e-02f, -1.125592e-01f, 1.744469e-02f, -9.449613e-02f, -8.320394e-02f, -3.649759e-02f,
  -2.098230e-02f, -8.912517e-02f, 5.891611e-02f, -1.640236e-03f, -1.098606e-01f, -5.466545e-03f, 3.220868e-02f, 1.014461e-02f,
  -1.479676e-01f, -7.444262e-02f, -9.619609e-02f, -1.283657e-01f, -4.317622e-02f, 1.066583e-01f, -2.569720e-02f, 8.961429e-03f,
  -5.297344e-02f, -6.940948e-02f, -7.592751e-02f, 5.628916e-02f, -6.593580e-02f, -3.636514e-02f, 1.399550e-01f, 7.831330e-02f,
  -3.387136e-02f, 8.155557e-02f, 5.655834e-02f, 1.266496e-01f, 3.615841e-02f, 1.093115e-01f, 8.131152e-02f, -7.805336e-02f,
  4.822408e-03f, 1.278908e-01f, 7.333720e-02f, 5.674173e-02f, -5.357626e-03f, 3.421157e-02f, 6.495892e-02f, -2.035164e-02f,
  -7.823393e-02f, -5.827269e-02f, -2.846825e-02f, -1.152596e-01f, 5.767049e-02f, -9.078137e-02f, -1.107102e-01f, 8.550711e-02f,
  -3.413066e-02f, 7.445939e-02f, -2.382225e-02f, 1.068152e-01f, 2.672743e-02f, -9.469128e-02f, -1.135544e-01f, -5.168080e-02f,
  -5.214388e-02f, 1.075827e-01f, -8.336009e-03f, 5.611521e-02f, 6.749935e-02f, 4.653646e-03f, 4.680319e-02f, 8.265270e-02f,
  4.400334e-02f, -4.575377e-02f, 2.037818e-02f, 9.847892e-02f, 6.934063e-03f, -3.182732e-02f, -4.113015e-02f, 1.180422e-01f,
  6.665403e-02f, -6.368165e-02f, -3.738877e-02f, -4.419634e-02f, 6.928165e-03f, -9.667583e-04f, -4.122854e-02f, 3.428204e-02f,
  -8.869401e-02f, -8.557651e-02f, -1.823277e-01f, 1.421745e-01f, 9.977363e-02f, -1.306588e-02f, -7.598198e-02f, -1.556356e-01f,
  -4.812548e-02f, 5.525125e-02f, -9.882351e-02f, -8.387037e-02f, 4.308171e-02f, 4.977437e-03f, 2.075838e-02f, -2.709693e-02f,
  -6.151072e-02f, -5.773051e-04f, -1.531832e-01f, -3.948765e-02f, 1.298422e-03f, 5.806529e-02f, -2.278259e-03f, -7.631771e-02f,
  7.709583e-02f, 6.578035e-02f, 1.025305e-01f, -8.321389e-03f, 6.250531e-02f, 3.190039e-02f, 1.275601e-02f, 1.237303e-02f,
  9.052372e-02f, -4.228794e-02f, -2.393080e-02f, 8.034002e-02f, 2.988429e-02f, 1.072686e-01f, -5.180939e-02f, 2.127043e-02f,
  -2.537764e-02f, -7.146086e-02f, 6.871022e-02f, 5.941295e-02f, -1.010336e-01f, 2.440607e-02f, 4.705223e-02f, 5.206280e-02f,
  -1.726065e-02f, -9.800769e-02f, -3.033968e-02f, 4.642379e-03f, -5.358595e-02f, 2.091192e-04f, 5.578860e-02f, 1.503200e-01f,
  -3.162295e-02f, 1.012987e-01f, -4.307789e-03f, 9.873968e-02f, 1.055019e-01f, -6.814959e-02f, -1.987246e-02f, 2.715638e-03f,
  -6.650991e-02f, -1.040151e-01f, 5.829145e-02f, 6.157274e-02f, 5.706050e-02f, 2.349251e-02f, -5.825736e-02f, -9.911509e-03f,
  -8.597704e-02f, -3.076885e-02f, -1.275225e-02f, 2.476367e-02f, -1.433053e-02f, 9.644808e-02f, 4.467119e-02f, 1.563359e-01f,
  -2.203282e-02f, -1.120994e-01f, -6.614400e-02f, 5.650573e-05f, 2.058577e-02f, -9.939976e-02f, 9.719194e-02f, -5.365998e-02f,
  -9.516321e-03f, 3.022770e-04f, 4.101802e-02f, -1.093340e-02f, 6.561017e-02f, -4.936726e-02f, 1.209702e-01f, 7.827348e-02f,
  4.300783e-02f, -2.971247e-02f, -4.426214e-02f, -1.132503e-01f, -1.049283e-01f, -1.464256e-02f, 1.163714e-02f, -9.144466e-02f,
  -7.419672e-02f, -1.063604e-02f, -9.299856e-02f, -8.502141e-02f, 7.569134e-02f, 2.033095e-02f, -1.023698e-01f, -9.968459e-02f,
  6.912226e-03f, -7.845565e-02f, 5.726943e-03f, -5.717785e-02f, -4.079929e-02f, 5.974925e-02f, 1.261942e-02f, 4.459671e-02f,
  5.923301e-02f, 1.317336e-02f, 6.836879e-02f, -6.519251e-02f, -1.131070e-02f, -1.610070e-02f, -2.616557e-02f, 1.020912e-01f,
  5.514047e-03f, -1.129818e-02f, -1.047873e-01f, -6.958216e-02f, -5.716458e-02f, -2.081265e-02f, -5.036428e-03f, 1.421528e-02f,
  -1.421596e-02f, -8.737985e-02f, -4.277583e-02f, -8.374514e-02f, 1.004270e-01f, -1.043331e-01f, -3.485952e-02f, 3.761075e-02f,
  -4.547936e-02f, 7.629345e-02f, -3.082539e-02f, 6.485301e-02f, -7.385065e-02f, -5.817442e-03f, 8.278856e-02f, 1.233596e-02f,
  -4.486378e-02f, 5.212345e-02f, -9.052115e-02f, 8.997252e-02f, -6.874999e-02f, -1.135468e-01f, -1.161928e-02f, -1.218229e-01f,
  -1.159284e-01f, -5.403636e-02f, -4.862167e-02f, -8.597267e-02f, 6.993265e-03f, -6.038797e-03f, -5.304734e-02f, 6.586841e-02f,
  5.541668e-02f, -5.509228e-02f, -1.168955e-01f, -2.637597e-02f, 7.283286e-02f, -6.336253e-03f, -4.652337e-02f, -5.210681e-02f,
  4.429744e-02f, -1.038855e-01f, -9.534386e-02f, 8.436663e-02f, -1.146589e-01f, -1.153802e-01f, -8.710024e-02f, -9.312461e-02f,
  7.588618e-03f, -7.012008e-02f, 3.917667e-02f, -9.012540e-02f, -7.956824e-02f, 4.195753e-02f, -1.093735e-01f, 3.487546e-02f,
  1.121313e-01f, 2.507955e-02f, 8.518146e-02f, -8.729439e-02f, -8.074024e-03f, 9.216988e-02f, 4.938749e-02f, 7.532655e-02f,
  8.634185e-02f, 6.152669e-02f, 1.853142e-02f, -6.020537e-02f, -4.670243e-02f, 6.747347e-03f, 2.966261e-02f, 7.615924e-02f,
  9.773473e-02f, -3.596404e-02f, -1.158742e-01f, 6.303802e-02f, 3.213910e-02f, -1.134479e-01f, -2.772967e-02f, -7.631975e-02f,
  5.481342e-02f, 2.298266e-02f, 9.898745e-02f, -4.830150e-02f, -5.872756e-02f, -4.367404e-04f, -2.564542e-02f, 4.117244e-02f,
  3.044604e-02f, -1.225960e-01f, -7.953628e-02f, -1.040201e-01f, -3.299013e-03f, -2.709199e-04f, -3.255938e-02f, 5.778213e-02f,
  6.392147e-02f, -1.163148e-01f, 8.696885e-02f, 5.324014e-02f, 1.353471e-02f, 7.117669e-02f, 1.522236e-02f, -2.164585e-02f,
  4.130857e-02f, 7.481939e-02f, -4.558112e-02f, 6.635918e-02f, -1.318465e-02f, 5.947170e-02f, 9.595942e-02f, 4.235899e-02f,
  -2.162485e-02f, -6.478646e-02f, -8.923332e-02f, 5.161842e-02f, -1.009393e-01f, -8.528128e-02f, 1.064195e-02f, -3.606638e-02f,
  -6.991560e-03f, 7.779976e-02f, -1.062452e-01f, 9.430739e-02f, -1.187197e-01f, -1.045750e-03f, 8.554856e-02f, -8.933742e-02f,
  -7.633283e-02f, -4.695084e-02f, 5.616579e-03f, -7.298003e-02f, -1.137292e-03f, 5.156899e-02f, 9.345534e-02f, -1.266063e-01f,
  3.688578e-02f, 7.088786e-02f, -7.361674e-02f, -8.558553e-02f, -1.367226e-02f, -1.242561e-01f, 3.898690e-02f, 1.970936e-02f,
  7.569115e-02f, -5.016679e-04f, 1.366420e-02f, 2.635879e-02f, -1.079632e-01f, -8.173522e-02f, -1.291440e-01f, -1.208296e-01f,
  6.009026e-03f, 7.081563e-02f, 9.140921e-02f, -8.421675e-02f, -7.623204e-02f, -1.376749e-02f, 8.236815e-03f, 3.374773e-02f,
  -6.062814e-03f, 7.227334e-02f, -4.004609e-02f, -1.672969e-02f, -4.620752e-02f, -9.629546e-02f, 2.911956e-02f, 8.349093e-02f,
  6.072205e-02f, -1.461867e-02f, -1.025829e-01f, 1.178999e-02f, 1.573783e-02f, 4.915843e-02f, 8.963694e-02f, 1.854696e-02f,
  1.049640e-02f, -8.470011e-02f, -4.407696e-02f, -7.521079e-02f, 1.548345e-02f, 4.123139e-02f, 7.411449e-02f, 5.871064e-02f,
  -4.121697e-03f, -9.452517e-02f, -1.116661e-01f, -6.452516e-02f, 5.148930e-03f, 5.315820e-02f, 4.082150e-02f, -3.203853e-03f,
  -6.840758e-03f, -1.045187e-01f, -8.343013e-02f, -8.844127e-02f, 1.455979e-02f, 5.483235e-02f, -5.720743e-03f, -1.603710e-02f,
  7.195689e-02f, -9.263161e-02f, 4.471976e-02f, -1.247652e-01f, -2.663602e-04f, -1.295393e-02f, -1.162631e-01f, -9.826259e-02f,
  -9.793145e-03f, -9.013613e-02f, 7.870235e-02f, 6.261474e-02f, -1.022698e-01f, -1.231135e-01f, -1.106411e-01f, -2.615267e-02f,
  6.612246e-02f, 3.973817e-02f, -3.480059e-02f, 2.635966e-02f, -1.235738e-01f, -6.574114e-03f, -1.502266e-02f, 7.189643e-02f,
  -1.971206e-02f, -9.829727e-02f, -2.618730e-02f, -5.613362e-02f, -1.067331e-02f, 9.981972e-02f, 9.680879e-03f, -1.328871e-01f,
  -5.386294e-02f, 4.851893e-02f, -1.264253e-01f, 4.150532e-02f, 4.648494e-02f, -1.227330e-01f, 2.937570e-02f, 6.749110e-02f,
  -6.299625e-03f, 6.988133e-02f, 7.030357e-02f, 8.290946e-02f, -8.535659e-02f, -1.146553e-01f, -9.000231e-02f, -8.229341e-02f,
  -6.761117e-02f, -1.014197e-01f, -9.325755e-02f, 5.231157e-02f, 8.482359e-02f, 2.456002e-02f, -1.292275e-01f, -1.176944e-02f,
  3.325016e-02f, -3.271424e-02f, 3.667616e-04f, -1.086362e-01f, -1.062730e-01f, -1.189498e-01f, -8.401871e-03f, -1.268683e-01f,
  8.540785e-02f, 4.584838e-02f, -2.924431e-02f, -6.306519e-02f, -1.040379e-01f, -4.620627e-02f, 2.337579e-02f, -3.127761e-03f,
  -9.632937e-02f, -4.724723e-02f, 5.885460e-02f, -7.244962e-02f, 9.437282e-02f, 8.102365e-02f, 1.984935e-02f, 5.590226e-02f,
  -2.196813e-02f, 1.238104e-02f, -8.321811e-02f, -1.699037e-02f, -1.333873e-01f, 3.232807e-02f, -1.833734e-02f, 5.941805e-02f,
  -6.595526e-02f, -1.412900e-01f, -4.180460e-02f, -1.023600e-01f, -7.241662e-03f, 6.513146e-02f, 5.187351e-02f, 2.445664e-02f,
  5.720142e-02f, -7.415390e-02f, 6.993186e-02f, -2.016497e-02f, -5.959637e-03f, 3.616775e-02f, 5.159452e-03f, -9.997414e-02f,
  -2.292758e-02f, -3.397640e-02f, -1.011675e-01f, 2.607278e-02f, -3.290156e-02f, -2.263823e-02f, 3.187652e-02f, 8.253246e-02f,
  3.233626e-02f, 7.563842e-02f, -8.589495e-02f, -9.734619e-03f, 2.268005e-02f, 2.096628e-02f, 5.375783e-02f, -1.202994e-01f,
  9.032829e-02f, -1.150763e-01f, 7.405745e-02f, -6.814829e-02f, 3.570371e-02f, -8.046838e-02f, -3.875269e-02f, 6.312198e-02f,
  4.392071e-02f, -1.046022e-01f, 4.140540e-02f, -6.616289e-02f, -4.750038e-02f, 1.064134e-02f, 3.553608e-02f, 5.012647e-02f,
  4.518332e-02f, 7.768273e-02f, -1.136263e-01f, 2.339162e-02f, 8.196144e-02f, -1.143889e-02f, -1.116511e-01f, -1.036398e-01f,
  2.321933e-02f, -3.173902e-02f, -1.705954e-02f, -2.037466e-02f, 5.195042e-02f, -1.039557e-01f, 3.154869e-03f, 1.644565e-02f,
  -8.794405e-02f, 1.125699e-02f, -4.471500e-02f, -4.766865e-02f, -1.285092e-01f, -7.397211e-02f, -8.015849e-02f, -2.165682e-02f,
  -8.948999e-02f, 7.015479e-02f, 1.775474e-02f, 6.331535e-02f, 8.595425e-02f, 6.602046e-02f, -9.487781e-02f, -7.229557e-02f,
  1.292023e-02f, 4.684794e-02f, -1.328689e-01f, 5.311871e-02f, 1.084926e-02f, 6.668442e-02f, 6.463936e-02f, -7.766755e-02f,
  -1.044381e-01f, 8.323169e-02f, -2.467605e-02f, -1.017733e-01f, -6.703904e-03f, -1.004405e-01f, -1.200528e-01f, -1.448853e-02f,
  4.370705e-02f, -1.286421e-01f, -1.044570e-01f, -4.023299e-02f, -4.067440e-02f, 4.503180e-02f, 1.309492e-02f, -1.182059e-01f,
  6.802442e-02f, 1.290483e-01f, 4.742148e-03f, 1.590585e-01f, -8.009294e-02f, -1.284672e-01f, 7.035573e-02f, -3.768599e-02f,
  -1.541907e-01f, -4.359015e-02f, 6.219436e-03f, 5.404778e-02f, -6.905866e-02f, -5.813635e-02f, 8.169580e-02f, -8.272937e-02f,
  -9.951723e-02f, 7.396255e-02f, 4.219147e-03f, 1.760933e-01f, 4.594379e-02f, -2.210106e-02f, -2.254931e-02f, 8.430949e-02f,
  -2.128242e-02f, 8.676751e-02f, 1.682056e-02f, 1.495765e-01f, 6.520603e-03f, -4.213492e-02f, 6.773508e-02f, -1.049315e-01f,
  5.030940e-02f, -5.190163e-02f, -6.183480e-02f, 7.286649e-02f, -4.011803e-02f, -3.802137e-02f, -1.445427e-02f, 1.732076e-02f,
  1.395252e-01f, -1.309355e-02f, 4.458218e-02f, -3.189081e-03f, 2.926153e-02f, -8.300200e-02f, -8.481500e-02f, -5.335263e-02f,
  2.398271e-02f, -2.531552e-01f, -4.029581e-02f, -9.674106e-02f, -1.397119e-01f, 4.324159e-02f, -9.011167e-02f, -1.201523e-01f,
  -6.147432e-02f, -1.050966e-01f, -5.060076e-02f, 1.901327e-02f, 4.107131e-03f, 7.194232e-02f, 1.012187e-01f, 1.644615e-01f,
  1.519593e-01f, 8.080722e-02f, 2.685199e-01f, -5.447275e-03f, -5.395428e-02f, -5.613043e-03f, -1.356915e-02f, -9.755448e-02f,
  -5.151011e-02f, 1.403668e-01f, 1.042876e-01f, 3.255390e-02f, 4.062025e-02f, -2.860178e-02f, -8.404895e-02f, -1.616049e-02f,
  5.932102e-02f, -6.259020e-02f, 1.049447e-01f, -5.459603e-02f, -2.917593e-02f, -6.445048e-02f, 3.718602e-02f, 9.388228e-02f,
  2.663762e-02f, 5.504214e-02f, 1.005417e-02f, 2.110163e-03f, -7.064606e-02f, 8.824614e-02f, 7.857180e-02f, -6.148957e-02f,
  -6.036383e-02f, -4.828056e-03f, 3.403680e-02f, 6.085303e-02f, -8.058913e-02f, -6.334542e-02f, 1.391258e-01f, 7.592618e-02f,
  3.243386e-02f, -5.042722e-03f, -6.514901e-02f, 6.452699e-02f, 1.186390e-01f, -1.460317e-01f, -7.282852e-02f, -8.517152e-02f,
  -2.240286e-02f, 7.146863e-02f, -2.866107e-02f, 8.980838e-02f, -6.690516e-02f, 1.011754e-01f, 1.275374e-01f, -1.032206e-01f,
  7.928990e-02f, 8.829103e-02f, 4.141362e-02f, 9.969031e-02f, -7.517059e-02f, 5.442500e-02f, 4.652728e-02f, 7.403338e-02f,
  2.955729e-02f, 1.209172e-01f, -1.177519e-01f, -5.599437e-02f, 2.766217e-02f, -1.699455e-02f, -6.790689e-02f, -1.615233e-01f,
  -9.872908e-02f, 6.899342e-02f, -6.639200e-02f, 2.279740e-03f, 7.521135e-02f, -4.345292e-02f, 4.108663e-02f, -7.107286e-02f,
  -9.550670e-02f, -4.692562e-02f, -2.860264e-02f, 1.282491e-01f, 9.819008e-02f, 8.173521e-02f, 3.071480e-02f, 6.748500e-03f,
  -1.455745e-01f, 1.146152e-01f, 3.249016e-02f, 5.371359e-02f, 9.736583e-02f, 9.242531e-02f, 8.472205e-02f, 1.180020e-01f,
  -8.589415e-02f, -1.348861e-01f, -3.439193e-02f, -9.326458e-02f, -9.444971e-02f, 4.014828e-02f, -5.573498e-02f, 7.171078e-02f,
  8.845660e-02f, -6.154502e-03f, -7.910011e-03f, -5.596701e-02f, -3.479134e-02f, -4.619657e-02f, -1.081081e-02f, 1.371365e-02f,
  -8.693217e-02f, 3.689865e-02f, 1.071869e-01f, -2.698444e-02f, -6.102389e-02f, 1.217337e-01f, 1.075840e-01f, 2.986861e-02f,
  -1.332507e-01f, 9.607791e-02f, 6.911093e-02f, 1.010182e-01f, 8.137864e-02f, 1.275921e-01f, 5.119370e-02f, -5.948820e-02f,
  -3.735913e-02f, 5.329047e-02f, -7.583970e-02f, 1.058763e-01f, 5.906961e-02f, -1.148337e-01f, 2.217943e-02f, -4.847428e-03f,
  -5.306173e-02f, 1.300220e-01f, -4.250472e-02f, 2.698165e-03f, -2.808183e-03f, -7.204562e-02f, -3.232284e-03f, -2.300040e-02f,
  8.032322e-02f, 1.304370e-02f, -1.439369e-01f, -9.149456e-03f, -5.036555e-02f, -7.400125e-02f, 9.914722e-03f, -6.952547e-02f,
  -4.441543e-02f, -7.487555e-02f, -9.607961e-02f, -4.035457e-02f, 4.758745e-02f, -8.196352e-02f, -4.679954e-02f, 2.594119e-02f,
  7.799844e-02f, -8.835240e-02f, -1.276772e-01f, -6.954049e-02f, 3.177200e-02f, 9.566882e-03f, -7.920810e-02f, 1.092422e-02f,
  9.438524e-02f, 3.885107e-02f, 4.797412e-02f, 3.754471e-02f, 1.304166e-02f, -4.166365e-02f, 9.383064e-02f, 1.549775e-02f,
  1.151790e-01f, -5.617772e-02f, 7.265480e-02f, 2.902392e-02f, 2.896556e-02f, 6.903513e-02f, 5.057655e-03f, 3.046447e-02f,
  -1.099713e-01f, -4.557331e-02f, -2.263548e-02f, 1.014624e-01f, 7.870658e-02f, 9.751086e-02f, 7.373791e-02f, 1.309076e-01f,
  1.271535e-02f, -3.097023e-02f, -9.810665e-02f, -5.116075e-02f, -9.281485e-02f, -8.952604e-02f, -7.264121e-03f, -7.799001e-02f,
  8.407293e-02f, 9.423430e-02f, 1.067617e-02f, 1.850541e-02f, 1.749809e-02f, -1.353263e-01f, -7.265592e-02f, -4.387813e-02f,
  -4.854372e-02f, 6.710608e-02f, 1.310808e-01f, 8.795305e-02f, 6.120864e-02f, 1.287096e-01f, 6.516943e-02f, 3.817348e-02f,
  -6.041431e-02f, 1.384792e-01f, -1.023507e-02f, -4.106578e-03f, 1.245814e-02f, -2.423904e-02f, -4.011901e-02f, 3.871102e-02f,
  1.261072e-01f, 9.405071e-02f, -2.561799e-02f, 5.301308e-02f, 1.806978e-02f, 9.063704e-02f, -9.731465e-03f, -1.427423e-01f,
  -3.936891e-02f, -2.683618e-02f, 8.998585e-02f, 5.416188e-02f, -4.251002e-02f, 1.068151e-01f, 4.604256e-02f, 3.473202e-02f,
  7.834024e-02f, 7.396607e-02f, 4.178535e-03f, 1.284585e-01f, -8.178400e-02f, -5.239013e-02f, -3.407176e-02f, -1.987240e-01f,
  -1.266880e-01f, -1.190201e-01f, -6.338674e-02f, -6.082262e-02f, -2.197555e-01f, 8.477094e-02f, -1.515033e-02f, -1.517587e-01f,
  2.400923e-02f, 1.325259e-02f, -9.469110e-02f, 6.769159e-02f, 1.135332e-01f, 8.253191e-02f, 6.332973e-02f, 1.041466e-01f,
  -5.375186e-02f, -1.011332e-01f, 3.611311e-02f, 3.134108e-02f, 2.460735e-02f, 1.557780e-02f, 7.428446e-03f, -1.454834e-01f,
  -2.836882e-01f, -7.911257e-03f, 4.403875e-02f, -1.431967e-01f, -2.775863e-02f, 1.358231e-01f, 7.939075e-03f, 1.213838e-01f,
  3.667174e-03f, -1.400183e-02f, 1.704951e-01f, 1.559950e-01f, -8.415368e-02f, 2.929794e-02f, -7.456905e-03f, 1.474790e-01f,
  -2.290702e-01f, -1.022436e-01f, -1.075573e-01f, -3.787011e-01f, -3.192214e-01f, -8.080111e-02f, -1.487779e-01f, -5.731383e-02f,
  1.994837e-02f, -1.592125e-01f, -1.264123e-01f, 8.698352e-02f, 3.892009e-02f, 5.420784e-02f, -8.584344e-02f, 7.525149e-02f,
  5.742891e-02f, 7.404739e-02f, 2.295786e-02f, 9.390818e-02f, 1.205356e-01f, -1.612062e-03f, -3.057169e-02f, 9.300777e-02f,
  -4.429314e-02f, -1.088040e-01f, 3.500887e-02f, -1.248799e-01f, 1.975001e-02f, 5.943516e-02f, 1.927019e-02f, 1.319045e-01f,
  -1.575066e-01f, -2.555793e-02f, 2.036229e-02f, -2.642533e-02f, -1.600665e-01f, 7.121196e-02f, 5.513062e-02f, 7.589053e-02f,
  3.491354e-02f, 4.112151e-02f, -1.306228e-01f, -5.947354e-02f, -3.466678e-02f, -3.853683e-02f, 1.709396e-01f, 1.076074e-03f,
  -6.716783e-02f, 4.565830e-02f, -3.377467e-02f, 1.098194e-01f, 1.813149e-01f, 2.494819e-01f, 3.529705e-03f, -7.047499e-02f,
  7.377654e-02f, -2.058123e-01f, -1.502869e-01f, -7.013370e-02f, -6.440998e-02f, 6.420891e-02f, 2.310478e-01f, 1.244357e-01f,
  -2.355130e-02f, 6.638490e-02f, -3.608278e-02f, -1.023379e-01f, -8.014814e-02f, 4.800062e-02f, 5.056107e-02f, -7.468467e-02f,
  3.654385e-02f, 4.602085e-02f, -5.742956e-02f, 9.242047e-02f, 8.026598e-02f, -4.468184e-02f, 4.297981e-02f, 8.801193e-04f,
  -7.013797e-03f, 2.301126e-02f, 3.627903e-02f, 1.630556e-02f, -4.569959e-02f, 1.098490e-01f, -5.520770e-02f, 9.605707e-02f,
  8.681569e-02f, -9.393254e-02f, 2.156396e-02f, -4.679558e-02f, 7.368352e-02f, 1.166217e-01f, 7.978339e-02f, -1.307423e-01f,
  -6.779622e-02f, 6.227772e-02f, -1.145713e-01f, -1.532531e-01f, 4.689991e-02f, 4.325429e-02f, 5.004222e-02f, -5.324060e-02f,
  -1.025878e-02f, -2.092892e-02f, 4.644965e-02f, -3.068766e-02f, 8.749425e-02f, 1.977955e-02f, 2.061088e-02f, 9.830743e-02f,
  1.969592e-02f, -1.224801e-01f, -5.618451e-02f, -8.550317e-02f, 3.298818e-02f, -1.186466e-01f, 1.307421e-01f, 1.112467e-02f,
  7.151246e-03f, 9.001746e-02f, 6.318277e-02f, 3.335024e-02f, 1.135722e-01f, -6.321299e-02f, -4.459897e-02f, 4.012028e-02f,
  1.562322e-02f, -1.730150e-01f, -7.738604e-02f, 9.287021e-02f, -9.503685e-02f, -6.173353e-02f, -6.744809e-02f, -7.361461e-02f,
  -3.669131e-02f, -6.361023e-02f, -1.255511e-01f, 1.920442e-02f, -8.644403e-02f, -9.313367e-02f, -1.032905e-01f, -7.005321e-02f,
  3.984740e-02f, 3.505703e-02f, 4.869409e-04f, 4.245340e-02f, 1.516538e-02f, -1.612842e-01f, -7.795629e-02f, -4.128576e-02f,
  -9.314535e-02f, -1.279786e-02f, -7.747938e-02f, 4.899676e-03f, 1.248663e-01f, -1.130283e-02f, 4.766618e-02f, 2.507055e-02f,
  1.106372e-01f, -5.500049e-02f, 8.115607e-02f, -4.302024e-02f, -4.451286e-03f, 7.454993e-02f, 2.491185e-02f, -6.362434e-02f,
  6.702443e-02f, 1.159689e-02f, -6.904951e-02f, -1.151146e-01f, -1.474991e-01f, -3.341436e-02f, -2.247875e-02f, -2.216637e-02f,
  9.729084e-02f, 8.748463e-02f, 3.921578e-02f, -5.392239e-02f, 2.630109e-02f, 3.503398e-02f, -4.347292e-02f, 1.351061e-01f,
  8.663394e-02f, 2.974375e-02f, 1.229495e-01f, 6.988446e-02f, -1.273325e-01f, 7.037468e-02f, 4.873144e-03f, -4.284081e-03f,
  4.848519e-02f, -1.014318e-01f, 6.331460e-02f, -3.523361e-03f, -5.520030e-02f, -9.584536e-02f, -5.877081e-02f, -3.504719e-02f,
  7.365142e-02f, -2.104676e-02f, 2.595440e-02f, -1.144621e-01f, -8.449508e-02f, 9.037950e-03f, -7.414405e-02f, 6.658437e-02f,
  -1.444463e-02f, 6.491825e-02f, 1.039270e-01f, 1.506751e-01f, -6.286568e-02f, 1.054163e-01f, 7.112523e-02f, -6.525046e-02f,
  -9.188131e-02f, -6.073024e-02f, -4.632792e-02f, -1.104728e-01f, -8.655861e-02f, 1.557971e-01f, 1.614232e-01f, -3.031622e-02f,
  -3.996626e-03f, -6.730777e-03f, 7.452384e-02f, 6.281196e-02f, -5.730047e-02f, -3.643381e-03f, -5.228767e-02f, 4.755232e-02f,
  -1.241814e-01f, -5.554874e-02f, -3.916630e-02f, -1.200259e-02f, 1.217272e-01f, 9.605861e-02f, 2.235131e-02f, -4.341400e-02f,
  -6.175882e-03f, 6.086632e-02f, -4.650724e-03f, -1.164474e-01f, -1.808560e-02f, -3.245123e-02f, 2.115700e-02f, -1.406962e-01f,
  1.732144e-02f, 5.572723e-02f, -3.444456e-02f, 9.092771e-03f, 5.119814e-03f, -4.695765e-02f, -1.624977e-01f, -6.678126e-02f,
  -3.903082e-02f, -4.536710e-02f, -1.376327e-02f, 8.720537e-02f, 2.852418e-02f, 9.704439e-02f, 1.343466e-01f, 1.637224e-02f,
  7.535421e-02f, 6.381983e-02f, -3.692177e-02f, -7.543033e-02f, -1.133307e-01f, 5.549782e-02f, -1.438905e-01f, 3.654203e-02f,
  3.364317e-03f, -1.668441e-01f, -8.879431e-02f, -1.175529e-01f, -1.783062e-02f, -9.043580e-02f, 7.564735e-02f, 1.354452e-01f,
  1.613289e-01f, 7.115963e-02f, 2.004975e-01f, 2.477878e-03f, 1.436938e-01f, 2.193947e-01f, 6.568985e-02f, -2.830671e-02f,
  -1.670535e-01f, -1.054799e-02f, -1.864903e-01f, -2.770457e-01f, -1.375964e-01f, -1.091256e-03f, -8.184513e-02f, -1.429716e-02f,
  -3.381443e-02f, -5.254472e-02f, -1.328707e-02f, -7.679622e-02f, -1.510237e-01f, -2.628537e-02f, 7.450806e-03f, -1.781783e-01f,
  -6.199395e-02f, 5.698264e-02f, 1.388803e-01f, 3.505891e-02f, 9.849647e-02f, 1.126237e-01f, 1.489443e-01f, 8.390106e-02f,
  1.299239e-01f, 6.368704e-02f, -1.709330e-02f, -5.529900e-02f, 8.824117e-02f, -4.760880e-02f, -6.841438e-02f, 1.125060e-01f,
  1.057330e-01f, 2.223480e-02f, -8.600355e-02f, 9.837916e-02f, 7.740446e-02f, -4.372581e-02f, -8.273610e-02f, 1.722978e-02f,
  8.122764e-02f, -1.829715e-02f, -4.406516e-02f, 7.469910e-02f, 1.009399e-01f, -3.436642e-02f, -8.484342e-02f, 4.377269e-02f,
  1.104572e-01f, -6.063658e-02f, 1.434545e-02f, -8.237384e-02f, 9.989776e-02f, -5.651642e-02f, -9.257171e-02f, -7.032931e-02f,
  -1.050970e-02f, -6.901386e-02f, -3.615226e-02f, -3.382506e-02f, -4.121264e-02f, -7.100513e-02f, 4.470683e-02f, -8.714081e-02f,
  -9.639947e-02f, -1.355027e-01f, -3.626756e-02f, -9.617914e-02f, -2.475201e-02f, 9.663345e-03f, 1.177687e-01f, -5.879932e-02f,
  5.810517e-02f, 4.063211e-02f, 5.548964e-02f, 2.145348e-02f, 9.019752e-03f, 4.437886e-02f, 2.755919e-02f, -6.516346e-02f,
  -7.870317e-03f, 1.360588e-02f, -5.557251e-02f, 2.208893e-02f, 3.625241e-02f, -3.427062e-02f, 8.505893e-03f, -1.033635e-01f,
  -1.505435e-01f, -1.483640e-02f, -8.684552e-02f, -8.301177e-02f, 1.139762e-02f, -2.646117e-02f, -2.121249e-02f, -7.314055e-02f,
  9.373652e-02f, -1.338829e-02f, 2.506189e-02f, 4.674993e-02f, -5.632805e-02f, 6.967331e-02f, 5.564605e-02f, 4.729451e-02f,
  2.483130e-02f, -2.575571e-02f, -1.857023e-02f, 4.128724e-02f, 3.735044e-02f, -3.012749e-02f, 2.409514e-02f, 6.137910e-02f,
  4.378049e-02f, 3.191624e-02f, -2.649788e-02f, -1.403483e-01f, 1.145341e-01f, 8.826698e-02f, 9.527200e-02f, 7.548463e-02f,
  -4.420501e-02f, 6.819431e-02f, 8.082829e-02f, 1.326054e-01f, -2.023677e-02f, 1.226884e-01f, 2.881393e-02f, 2.590565e-02f,
  5.291468e-02f, -3.680755e-02f, -8.540390e-02f, -4.249397e-02f, 5.969373e-03f, -6.613487e-02f, -1.438407e-01f, -9.214204e-02f,
  -8.219597e-02f, -2.885288e-03f, 5.096201e-02f, 2.784775e-02f, -2.879111e-02f, 4.759479e-02f, 1.102936e-01f, 1.217787e-01f,
  8.289108e-02f, -6.422082e-02f, 9.751318e-02f, 4.534833e-02f, -1.290231e-02f, -4.814567e-03f, -6.447448e-02f, 4.023449e-02f,
  8.321831e-02f, -3.848033e-02f, 1.160301e-01f, 1.359215e-01f, -2.193321e-02f, 1.516933e-02f, -3.827778e-02f, -3.106174e-02f,
  1.379355e-02f, -6.653313e-02f, -1.445271e-01f, -8.340555e-02f, -1.247144e-01f, -3.659891e-02f, 6.541486e-02f, 1.280788e-02f,
  -2.573612e-02f, -9.043080e-02f, -5.518583e-03f, 2.816302e-02f, 8.223715e-02f, 1.209646e-01f, 1.910569e-01f, 1.053232e-01f,
  3.928806e-02f, 1.137234e-01f, -8.056360e-02f, 3.919487e-02f, 1.053961e-01f, -6.783187e-02f, 1.259201e-01f, -3.201662e-03f,
  5.662404e-02f, -7.629353e-02f, -6.873360e-02f, 6.683543e-02f, -1.562502e-01f, -1.148909e-01f, -6.362566e-02f, 2.303907e-02f,
  -1.186174e-01f, -4.108309e-02f, 7.048661e-02f, -8.905154e-02f, 6.749853e-02f, -2.707590e-02f, 1.112628e-01f, -9.781305e-03f,
  1.278650e-01f, -1.076974e-01f, 4.770331e-02f, -1.081653e-01f, -1.007459e-01f, -5.771132e-02f, 9.842712e-02f, -8.761144e-03f,
  2.131882e-02f, -1.009328e-02f, -8.642973e-02f, -5.730798e-02f, -3.024019e-02f, -7.152688e-02f, 2.541096e-02f, -9.149343e-02f,
  -1.337285e-01f, 6.062790e-03f, -4.088141e-02f, -8.542468e-03f, 9.860899e-02f, -7.109612e-02f, 4.450938e-02f, 1.019579e-01f,
  1.272673e-01f, 8.640545e-02f, 1.106363e-01f, -5.124107e-03f, 7.667906e-02f, -3.004700e-02f, -1.858378e-03f, 3.495915e-02f,
  1.216067e-01f, 1.146025e-01f, 7.695046e-02f, -8.791628e-02f, 3.005238e-03f, 1.198498e-01f, -5.033654e-02f, 6.785560e-02f,
  3.959992e-03f, 6.041170e-02f, -2.071841e-02f, -1.093910e-01f, -1.610332e-01f, 1.196920e-01f, -3.223782e-02f, -1.463858e-01f,
  1.915999e-02f, 6.399316e-03f, -4.560349e-02f, -1.722812e-02f, -1.519880e-01f, -1.581487e-02f, -2.262340e-01f, -2.445219e-01f,
  9.208836e-02f, -1.865379e-01f, -5.246434e-02f, 8.531958e-02f, 2.145585e-02f, 7.716319e-02f, 1.861611e-02f, 5.995168e-02f,
  -1.289441e-01f, -1.653206e-02f, 6.817035e-02f, 2.145721e-02f, -8.431742e-02f, -2.153826e-01f, -1.093684e-01f, -3.759001e-02f,
  8.765000e-02f, 5.738215e-02f, -1.266674e-01f, 2.236053e-01f, 1.555130e-01f, -1.134194e-02f, 7.789435e-02f, 1.122567e-01f,
  7.309886e-02f, 1.075102e-01f, -8.354454e-02f, 1.964913e-02f, 8.074170e-02f, 2.577156e-01f, 6.797908e-02f, -2.896998e-01f,
  -4.178146e-01f, -4.350713e-01f, -3.006726e-01f, -1.520692e-01f, -2.778472e-01f, -1.908136e-01f, -4.180816e-02f, 4.999068e-03f,
  -4.961959e-02f, -1.174374e-02f, 5.160233e-02f, -1.658308e-01f, -3.858812e-02f, -3.777253e-02f, -1.857248e-02f, 4.208106e-02f,
  -6.207168e-02f, 9.311641e-02f, 1.660745e-01f, 1.968251e-02f, 1.278283e-01f, -4.191980e-02f, -7.514908e-02f, -1.881515e-02f,
  1.444230e-02f, 5.699925e-02f, 6.025279e-02f, 1.051554e-01f, 7.873080e-02f, 8.394183e-02f, -2.698072e-02f, 5.569267e-02f,
  -3.203218e-03f, -1.163951e-02f, 5.047270e-03f, 8.910198e-02f, 1.235887e-01f, 3.664447e-02f, -9.059775e-03f, -4.256627e-02f,
  6.665424e-02f, -1.468020e-01f, -1.411551e-01f, -1.208085e-01f, -9.930556e-03f, -8.339460e-02f, 2.170919e-02f, -5.502398e-02f,
  3.409560e-02f, 8.126638e-02f, 2.681736e-02f, -3.474611e-02f, -6.094508e-02f, -8.434884e-02f, -2.073520e-01f, -1.741633e-01f,
  -2.298922e-01f, 1.547579e-03f, -1.807792e-02f, 9.029305e-03f, 1.142481e-01f, 1.732704e-02f, -6.861019e-02f, -1.839465e-01f,
  -1.155335e-01f, -1.500755e-01f, -8.925123e-03f, 4.178493e-02f, 4.561484e-02f, -7.140835e-02f, -4.081131e-02f, -3.290728e-02f,
  -2.844905e-02f, -8.534581e-03f, 1.307286e-04f, 1.400678e-01f, 2.487217e-02f, -3.039202e-02f, 1.135272e-01f, -7.589788e-02f,
  2.530793e-02f, 4.832654e-02f, 1.044162e-01f, -1.908908e-02f, 1.472744e-01f, 1.536311e-02f, -5.898833e-02f, 4.810598e-02f,
  3.624595e-02f, -1.212791e-01f, -1.573120e-02f, 1.448928e-01f, -4.687141e-02f, -4.629781e-02f, -2.779388e-02f, -3.299390e-02f,
  7.575763e-03f, -4.890634e-02f, -8.366783e-02f, -1.268724e-01f, -1.395718e-02f, -1.661289e-02f, -1.716473e-01f, -1.010275e-01f,
  1.023082e-01f, 6.403839e-02f, -5.101157e-02f, 1.742547e-01f, -1.277984e-02f, -1.606250e-01f, 1.538032e-01f, 2.009577e-01f,
  4.782334e-02f, 4.820376e-02f, 1.390181e-01f, 1.085654e-01f, -7.685930e-02f, -1.116233e-01f, -1.185237e-01f, 5.169037e-02f,
  -1.634237e-02f, -8.487855e-02f, 4.745312e-02f, 4.479340e-02f, 1.163223e-01f, 5.010297e-02f, 2.019762e-01f, 3.214037e-03f,
  1.003718e-01f, 2.408629e-01f, 1.275433e-01f, 1.784299e-02f, 9.888249e-02f, 4.472573e-02f, 2.901155e-02f, -5.193153e-02f,
  -1.497604e-01f, 1.284955e-01f, 4.512594e-02f, -2.951946e-03f, -5.552452e-02f, 1.068235e-01f, 4.649364e-02f, -8.373350e-02f,
  2.550097e-01f, 6.432493e-02f, -3.767891e-01f, -2.897163e-01f, 4.621953e-04f, -2.347227e-01f, -2.587339e-01f, -1.360637e-01f,
  1.222070e-01f, 4.726054e-02f, -2.140105e-02f, 1.275328e-01f, 1.250650e-01f, 1.098684e-01f, -4.112351e-02f, -3.400202e-02f,
  3.392075e-02f, -3.485951e-02f, -5.886847e-02f, -1.212465e-01f, 2.515787e-02f, -6.517772e-03f, -1.428563e-01f, 1.614678e-02f,
  -7.775308e-03f, -1.671848e-03f, 7.356211e-02f, 1.940722e-01f, 3.326795e-02f, -9.361264e-02f, 6.607054e-02f, 1.243734e-01f,
  -1.085981e-01f, -1.184077e-01f, -1.731250e-02f, 1.604778e-01f, 3.171538e-02f, -1.553786e-01f, 1.667265e-01f, -3.680242e-02f,
  -5.283684e-02f, 6.290048e-02f, 1.701139e-02f, 4.686711e-02f, 4.436000e-02f, -1.904358e-01f, -8.136974e-02f, 1.423770e-01f,
  1.441136e-02f, 7.309084e-02f, -4.464306e-03f, 8.593185e-02f, 5.050292e-02f, 4.100934e-02f, 9.709504e-02f, -8.747259e-03f,
  -1.141834e-01f, 3.395314e-02f, 1.935719e-02f, -3.835444e-02f, -1.772741e-02f, 1.854545e-02f, -1.015707e-01f, 3.277350e-02f,
  1.452584e-01f, -1.174410e-01f, -2.881594e-02f, 1.788483e-02f, -8.119148e-02f, -1.193381e-01f, -1.193240e-01f, -1.078568e-01f,
  -3.647910e-01f, -1.457445e-02f, 1.419652e-01f, -6.602367e-02f, -1.772028e-01f, 2.244223e-01f, 1.047826e-01f, 8.192086e-03f,
  6.087366e-02f, 5.450753e-02f, 2.434838e-02f, -3.516829e-02f, 2.220560e-02f, -9.998038e-02f, 9.694085e-02f, -1.312427e-02f,
  -4.042051e-02f, 3.215116e-02f, 1.029605e-01f, 2.210743e-02f, 5.910208e-02f, 5.310043e-02f, -7.292222e-02f, 1.205563e-02f,
  8.997948e-02f, 4.112428e-02f, -2.656569e-02f, -1.922091e-02f, -4.017580e-02f, 5.555641e-02f, -1.396269e-02f, 4.836202e-02f,
  9.002478e-02f, 9.004913e-02f, -1.615690e-02f, -1.428422e-01f, -1.486030e-02f, 7.726107e-02f, -1.058903e-01f, -3.357647e-02f,
  -5.431887e-04f, -1.528765e-02f, -3.823012e-02f, 4.640205e-02f, 7.482406e-02f, -2.960326e-02f, 1.116062e-01f, -3.308480e-02f,
  5.693058e-02f, -4.731354e-02f, 4.275296e-02f, -8.047073e-02f, -1.914030e-02f, -3.105129e-02f, -4.013925e-02f, -1.013249e-01f,
  1.491313e-02f, 1.359141e-01f, 7.992136e-02f, -1.977365e-02f, 6.839064e-02f, -8.328765e-02f, 4.433367e-02f, -5.925059e-03f,
  -8.586331e-02f, 9.277157e-02f, -4.773415e-02f, 3.028916e-02f, -4.145601e-02f, 1.434414e-01f, 6.940912e-02f, -6.793876e-02f,
  -8.757856e-02f, -1.146434e-01f, -3.075911e-02f, -7.503852e-02f, -8.402018e-03f, -6.503644e-02f, -1.060244e-01f, 8.102840e-02f,
  -6.019918e-02f, 2.300591e-02f, 5.924089e-02f, -1.043784e-01f, 9.721473e-03f, 1.985669e-03f, -5.338551e-02f, -3.218978e-02f,
  8.207646e-02f, 1.746029e-02f, 1.240440e-01f, 7.701866e-02f, -6.304026e-02f, 6.338317e-02f, -1.904457e-02f, 1.118563e-02f,
  -4.120852e-02f, -2.025226e-02f, 2.821081e-02f, -3.119007e-02f, 2.730650e-02f, 5.454777e-02f, 1.203212e-01f, 9.220821e-02f,
  -6.397606e-02f, 2.443666e-02f, 7.898636e-02f, 5.853376e-02f, 4.095392e-02f, 5.134126e-02f, -1.139759e-01f, -1.276466e-01f,
  -3.065249e-02f, 6.784432e-02f, -4.382678e-02f, -9.338407e-02f, 5.111909e-02f, 9.344772e-02f, -6.970736e-02f, 1.278256e-01f,
  7.362614e-02f, 2.054078e-02f, 1.299911e-01f, 1.626801e-02f, 4.921728e-02f, -1.171047e-01f, 1.277224e-02f, -1.165253e-01f,
  5.660504e-02f, -5.224709e-02f, -1.629203e-03f, -3.876602e-02f, 2.008779e-03f, 1.149451e-02f, 9.376036e-02f, 4.357059e-02f,
  -8.903605e-02f, -9.964780e-02f, -1.106313e-01f, 6.029310e-02f, 3.050881e-03f, 2.472009e-02f, -2.295878e-02f, 5.591163e-02f,
  8.219887e-02f, -4.286722e-02f, -1.887175e-02f, -5.157202e-02f, -1.947729e-02f, 3.257744e-02f, 7.433827e-02f, -2.398188e-02f,
  4.858100e-02f, -6.493346e-02f, -9.842427e-02f, -6.420843e-02f, -2.796356e-02f, 3.753242e-02f, 5.002253e-02f, 5.062514e-02f,
  1.528580e-02f, -4.204957e-02f, 6.360953e-02f, 8.728620e-02f, -4.543871e-02f, 3.755745e-02f, -5.080063e-02f, -8.215457e-02f,
  -7.023808e-02f, -7.327417e-02f, 1.091484e-01f, 1.061453e-01f, 1.656482e-03f, 3.286174e-02f, 1.716262e-02f, 6.120867e-02f,
  6.143277e-02f, -1.330972e-02f, -8.070987e-02f, 7.287072e-02f, 9.631212e-02f, 1.686406e-02f, 4.649501e-02f, 1.069061e-01f,
  -1.918833e-03f, 9.769028e-02f, 2.715702e-02f, -6.407311e-02f, -1.492533e-02f, 5.735220e-02f, 6.090501e-02f, 1.520538e-01f,
  6.861525e-02f, 9.197717e-02f, 9.693858e-02f, -5.513498e-03f, 1.116635e-01f, -1.931091e-01f, -2.354601e-02f, -2.344416e-01f,
  4.016521e-02f, 5.882480e-02f, -3.244657e-02f, -6.413127e-02f, -1.421837e-01f, -8.953186e-02f, -8.652892e-03f, -4.258639e-02f,
  -1.316402e-01f, -1.734445e-01f, -9.799194e-02f, -5.163619e-02f, 1.598804e-02f, 4.142579e-02f, -5.067970e-02f, 3.300988e-02f,
  2.158057e-01f, -6.357546e-02f, 1.521042e-02f, 1.596448e-01f, -1.120784e-01f, 6.570633e-02f, -4.419427e-02f, -6.853224e-02f,
  1.248331e-03f, -1.596273e-02f, 2.693178e-03f, -6.550404e-02f, -4.092179e-02f, 1.133454e-01f, 6.887991e-02f, 3.255071e-03f,
  -3.544365e-02f, -2.484850e-02f, -5.007700e-02f, -1.352493e-01f, -1.036503e-01f, -1.590102e-01f, -9.728490e-02f, 6.989987e-02f,
  -6.897294e-02f, 1.119990e-01f, 3.272140e-02f, -1.514674e-01f, 3.958198e-02f, -4.041433e-02f, 1.529030e-02f, 1.326732e-01f,
  1.698442e-01f, 1.220478e-01f, 5.835169e-02f, -1.534936e-01f, 1.123570e-01f, 1.054717e-01f, 1.434885e-02f, 3.059069e-02f,
  -8.914967e-02f, 7.384311e-04f, -4.419633e-02f, 6.910735e-02f, -1.000060e-01f, -1.474122e-01f, -1.206744e-01f, 2.259656e-02f,
  3.598118e-02f, 1.579086e-02f, -8.132029e-02f, -6.450048e-02f, -9.892362e-02f, -7.413530e-02f, -5.226988e-02f, 1.431896e-01f,
  8.971667e-02f, 3.052655e-02f, -1.843221e-02f, 1.464311e-01f, -3.636883e-02f, 3.997899e-02f, 2.281000e-02f, -6.813216e-02f,
  9.867692e-02f, 4.001647e-02f, 7.065177e-02f, -8.630177e-02f, 3.550428e-02f, -8.745158e-02f, 7.784300e-02f, -5.606802e-02f,
  -7.104051e-02f, -5.961112e-02f, -1.563420e-01f, -5.193397e-02f, -9.348370e-02f, -9.106066e-02f, 9.409560e-02f, 2.798576e-02f,
  -7.553753e-03f, 1.120006e-01f, 1.274808e-01f, 1.463705e-01f, 7.587640e-02f, -3.319985e-02f, 3.327362e-03f, 8.355884e-02f,
  6.603875e-02f, -1.584475e-02f, -6.586690e-02f, -1.076425e-01f, -8.156002e-02f, -5.020739e-02f, 7.886133e-02f, 1.118018e-01f,
  -2.099830e-02f, -6.707548e-02f, 1.323713e-01f, 6.241143e-02f, 1.628646e-02f, 1.366147e-01f, 4.994721e-03f, 1.361209e-03f,
  -5.158427e-02f, 5.989771e-02f, 1.227969e-01f, 1.009531e-01f, 1.107300e-02f, 1.795739e-02f, -5.057074e-02f, -1.840298e-02f,
  1.312432e-01f, 6.674621e-02f, 1.097367e-01f, 1.000467e-01f, -2.849804e-02f, -7.154173e-02f, -8.307850e-02f, 1.078046e-01f,
  -6.462024e-02f, -6.955083e-03f, 2.323458e-02f, 8.595112e-02f, -1.926536e-03f, 4.069672e-02f, -4.117405e-02f, 1.269839e-01f,
  6.726187e-02f, 4.695494e-03f, -2.493922e-01f, -8.455551e-02f, 6.410291e-02f, -3.803368e-02f, -8.560559e-02f, 7.152684e-02f,
  -7.500635e-02f, 1.497686e-03f, -1.743326e-01f, -1.918197e-01f, -7.957614e-02f, -1.736619e-01f, -1.452722e-01f, -1.767252e-01f,
  1.513438e-02f, 8.247142e-02f, 1.103198e-01f, 1.769940e-01f, 1.619056e-01f, -8.603862e-04f, 6.959295e-02f, 6.118330e-02f,
  1.045738e-01f, -2.536886e-02f, 1.339015e-01f, -1.249671e-01f, 2.531417e-02f, 9.693812e-03f, 4.939101e-02f, -3.836236e-02f,
  -4.011156e-02f, 4.468593e-02f, 1.690846e-02f, -2.990607e-02f, -1.412034e-01f, 7.299692e-02f, -1.334881e-01f, -2.308273e-01f,
  -2.078571e-01f, 5.340704e-02f, 6.670364e-02f, 1.462617e-01f, -8.069738e-02f, -1.422230e-01f, -6.601325e-02f, -1.528708e-01f,
  2.018037e-01f, 1.640097e-01f, 1.856210e-02f, -4.317252e-02f, -1.024081e-01f, -5.195528e-02f, -4.099359e-02f, -3.359038e-02f,
  1.340916e-01f, 1.024543e-01f, -6.253105e-02f, -1.993282e-02f, 2.236432e-02f, -5.772709e-02f, -5.266455e-02f, -2.284234e-01f,
  -1.725326e-01f, -1.143428e-01f, -3.279204e-02f, 1.173724e-01f, 1.920428e-02f, 6.688580e-02f, -1.631519e-02f, -5.622400e-02f,
  1.166354e-01f, -4.779769e-02f, 1.332718e-01f, 1.397720e-01f, -6.954075e-02f, -3.010555e-02f, 1.117139e-01f, 4.285209e-02f,
  -8.131877e-02f, 1.157217e-01f, 5.490821e-02f, 3.149041e-02f, -3.549113e-02f, -1.549211e-02f, -3.635931e-02f, -3.649903e-02f,
  -1.879076e-02f, 1.636862e-02f, 6.251102e-02f, -8.923582e-02f, -1.293453e-01f, -1.113884e-01f, -1.333393e-01f, -1.667045e-01f
};
