#pragma once

// kind=conv2d, layout=OIHW
// layer=enc4_conv32
// dims: Kh=3, Kw=3, Cin=32, Cout=32
// Keras: (Kh,Kw,Cin,Cout) -> Noodle: (Cout,Cin,Kh,Kw)
static const float w04[] = {
  1.643344e-01f, -2.432236e-01f, -1.708674e-01f, -4.153958e-03f, 1.120755e-01f, -9.863212e-05f, 1.287193e-01f, 1.908240e-02f,
  -5.735134e-02f, 9.412790e-02f, 5.299968e-02f, -6.041760e-02f, -1.144627e-01f, 8.848879e-02f, -3.278983e-02f, -6.944755e-02f,
  4.282003e-02f, -1.552870e-02f, 1.408442e-01f, -2.667707e-02f, 3.114680e-02f, 5.955385e-02f, -5.731314e-02f, 3.152508e-02f,
  1.575219e-02f, -2.287067e-02f, 7.500504e-02f, 1.564415e-01f, -1.561575e-01f, -1.433881e-01f, 2.766670e-01f, 7.174896e-02f,
  -3.379712e-01f, 1.304032e-01f, 3.312693e-01f, 1.097971e-01f, -9.080864e-02f, 2.867017e-02f, 8.415535e-02f, 1.791934e-02f,
  -2.512875e-01f, 1.146711e-01f, -1.089907e-01f, -9.478056e-02f, 9.314071e-03f, -1.869896e-01f, 3.606432e-02f, -3.675065e-02f,
  8.981369e-03f, 1.113340e-01f, -8.474682e-02f, 8.475810e-02f, 2.922424e-02f, 7.408988e-02f, 3.744585e-02f, 2.968877e-02f,
  -8.820257e-02f, -9.080724e-02f, -4.208397e-02f, 4.777935e-02f, -2.478857e-01f, -1.485533e-01f, -4.504118e-02f, 1.016927e-01f,
  -2.513888e-01f, 2.902163e-01f, 3.917719e-01f, -3.963339e-02f, 1.561925e-01f, 6.061484e-02f, -4.881509e-02f, 4.388721e-02f,
  -8.495673e-02f, -1.056413e-01f, 2.878061e-01f, 2.561155e-01f, 2.088802e-02f, 2.838475e-01f, 1.231175e-01f, 1.667845e-01f,
  1.179440e-01f, -2.282491e-02f, -1.657541e-01f, -1.818381e-01f, -9.935407e-02f, 1.520510e-01f, -5.905357e-04f, -1.894804e-02f,
  -2.254023e-02f, 2.729322e-02f, -7.948639e-02f, 5.714508e-02f, 1.967425e-01f, -8.499032e-03f, -9.978927e-02f, -3.426164e-01f,
  -1.096689e-01f, 4.148768e-02f, -1.898145e-02f, -5.022954e-02f, 4.783033e-02f, 4.971617e-03f, -9.549553e-02f, -5.224914e-02f,
  4.594588e-02f, -1.040343e-03f, -7.205330e-03f, -4.741578e-02f, -1.598565e-01f, -8.604090e-03f, 9.205648e-02f, -1.006518e-02f,
  -1.747770e-01f, 2.435622e-01f, -5.077578e-02f, 1.102472e-02f, 1.522790e-01f, 9.300765e-02f, 5.618503e-02f, -6.731210e-02f,
  -1.659186e-02f, 6.236924e-03f, -3.076732e-01f, -4.852702e-02f, -1.234661e-01f, 1.673441e-01f, 2.345128e-01f, 2.939684e-03f,
  3.304451e-03f, 2.871558e-01f, -2.010039e-01f, 6.932742e-02f, 9.748800e-02f, -2.050687e-02f, -1.425461e-02f, 1.211146e-01f,
  -2.519359e-01f, -2.353420e-02f, 1.578246e-01f, -1.662539e-01f, -9.926223e-02f, 2.033906e-01f, 6.053383e-02f, 3.472681e-02f,
  -6.920276e-02f, -1.994253e-01f, 6.410526e-02f, 2.166274e-01f, -2.121751e-01f, 6.891457e-03f, -3.834121e-02f, -5.360885e-02f,
  2.547708e-02f, 1.563107e-02f, -8.111293e-02f, 6.480899e-02f, 1.010340e-01f, -7.597209e-02f, -2.342409e-02f, 3.946935e-03f,
  -2.239912e-03f, 7.528412e-02f, 7.313209e-02f, 1.331717e-02f, 3.330297e-02f, -6.425443e-02f, 5.929534e-02f, 4.628669e-02f,
  -4.921929e-02f, -1.126745e-02f, 3.917260e-02f, 7.699888e-02f, 9.480694e-02f, 9.159406e-02f, 8.665323e-02f, 9.241963e-02f,
  1.298044e-02f, -6.974886e-03f, -1.300605e-02f, 2.618132e-02f, 1.402339e-02f, 9.376886e-02f, -6.523290e-02f, -1.501180e-02f,
  7.803171e-02f, 8.227867e-02f, 9.718566e-02f, 6.775484e-02f, 8.861922e-02f, 2.809189e-03f, 1.571161e-01f, 1.452107e-03f,
  -1.693765e-01f, 2.029913e-01f, -3.041467e-01f, -1.439072e-01f, 1.459519e-01f, -1.111907e-02f, -4.407921e-02f, -1.537607e-01f,
  -1.249526e-01f, -1.762244e-01f, -4.824769e-02f, -4.741993e-03f, -1.543223e-01f, -1.466825e-01f, 1.999574e-01f, 2.466245e-01f,
  9.267953e-02f, 5.526056e-05f, -8.727331e-02f, 1.492525e-01f, 5.953290e-03f, -2.002221e-01f, 3.250778e-02f, -7.477976e-02f,
  -7.252463e-02f, -4.220885e-02f, 2.411251e-01f, -1.469656e-03f, -9.560608e-02f, 2.076438e-01f, -2.190977e-02f, 1.173970e-02f,
  -1.834551e-02f, 1.699074e-01f, -6.574006e-02f, 5.447400e-02f, -1.483493e-01f, -2.132003e-01f, -8.742013e-02f, -1.503487e-01f,
  -1.665858e-01f, 2.870125e-02f, 1.087387e-01f, -4.358059e-02f, -1.030211e-01f, 2.865590e-02f, 1.754306e-01f, -6.038107e-01f,
  -7.348543e-02f, 6.435316e-02f, -1.622916e-01f, -1.900299e-01f, -1.135338e-02f, -1.024780e-01f, -1.033805e-01f, 7.848224e-02f,
  9.502637e-03f, 7.102852e-02f, 1.086687e-01f, 1.168985e-01f, -7.766461e-02f, -6.876767e-02f, -1.350015e-01f, -2.129997e-02f,
  1.011133e-01f, 5.813625e-02f, 1.382578e-02f, 1.400258e-01f, 2.039090e-01f, -6.246514e-02f, -1.951007e-02f, -2.747975e-02f,
  -1.007098e-01f, -3.629002e-02f, 4.320233e-02f, 4.028446e-02f, -5.738604e-02f, 1.315172e-02f, 5.024539e-02f, 9.525567e-02f,
  -2.204187e-01f, -1.023304e-03f, -3.347440e-02f, -2.555116e-01f, -2.567369e-02f, 4.894944e-02f, 1.193361e-02f, 1.822850e-01f,
  1.895143e-02f, -1.969715e-02f, 7.575322e-02f, 4.001528e-02f, -2.128144e-01f, 1.616280e-01f, -8.798391e-02f, -8.913893e-02f,
  1.443938e-02f, -1.318836e-02f, -2.770888e-02f, 3.474205e-02f, -1.142766e-01f, -3.841505e-02f, -2.969903e-02f, -4.164721e-02f,
  -2.903927e-03f, 3.665975e-02f, -1.443660e-02f, -1.543657e-02f, -4.289844e-02f, -2.559460e-02f, -1.069583e-01f, -4.593944e-02f,
  3.823150e-02f, -8.246854e-02f, -8.620011e-03f, 7.162295e-02f, -3.444811e-03f, -4.987493e-02f, -4.709693e-03f, 4.940888e-02f,
  -5.714133e-02f, -8.527556e-03f, -2.272281e-02f, 1.043294e-02f, -4.992441e-02f, -9.810941e-02f, -4.154354e-02f, 7.142293e-02f,
  -3.861528e-02f, -5.017966e-02f, 8.809511e-02f, -9.985260e-02f, 4.375240e-02f, -9.323895e-02f, -9.327908e-02f, 5.020171e-02f,
  1.534441e-02f, -4.836085e-02f, -7.475458e-02f, 8.471966e-02f, -7.788725e-02f, 4.155458e-02f, 8.413924e-02f, -6.767412e-02f,
  4.464164e-02f, -3.977441e-02f, -2.473981e-02f, 1.169128e-02f, 6.285133e-02f, -7.757930e-02f, -2.796716e-02f, -2.999665e-02f,
  5.941534e-02f, 2.315354e-02f, -8.087016e-02f, -9.506986e-02f, -6.117413e-02f, -5.311733e-03f, -9.845119e-02f, -5.586722e-02f,
  2.591274e-02f, 2.008175e-02f, 7.460880e-02f, 1.548328e-02f, -3.714629e-02f, -8.815666e-02f, 2.270832e-02f, 3.365059e-02f,
  6.411445e-02f, -1.063362e-01f, -1.140667e-01f, -7.959144e-02f, -3.052536e-02f, -4.382406e-02f, -1.173508e-02f, 7.665137e-02f,
  -8.217368e-02f, 5.508484e-02f, -4.721510e-02f, 7.284078e-02f, 4.540804e-02f, -7.818455e-02f, 6.529626e-02f, -7.633033e-02f,
  -7.580393e-02f, 7.672541e-03f, -7.084785e-02f, -3.889119e-02f, 9.795329e-03f, 1.977837e-02f, -9.698725e-02f, 8.698528e-02f,
  -1.646069e-02f, -1.396143e-02f, -3.438278e-02f, 2.622871e-03f, -2.694854e-02f, -5.897818e-02f, 7.662085e-02f, 7.943343e-02f,
  6.789412e-02f, -6.240530e-02f, 4.727822e-02f, 2.835131e-02f, 1.043129e-02f, 4.505185e-02f, -7.406369e-02f, 1.952252e-02f,
  -8.617014e-02f, -2.808445e-02f, -8.586824e-02f, -8.497833e-02f, 1.197629e-02f, -9.654385e-02f, 6.504259e-02f, -4.291213e-02f,
  -6.847098e-02f, 7.120518e-02f, 5.152918e-02f, -1.042494e-01f, 5.526323e-04f, -1.374881e-02f, -3.492574e-02f, -4.698765e-02f,
  9.810250e-03f, -8.650793e-03f, -6.711493e-02f, -7.514520e-02f, -4.715022e-02f, 8.606683e-02f, -1.013369e-01f, -4.303287e-02f,
  5.814697e-02f, 6.983536e-02f, -2.321133e-02f, -6.680629e-02f, 8.405802e-02f, 5.026990e-02f, -7.585456e-02f, -4.058687e-02f,
  -1.151886e-01f, 1.482740e-02f, -3.171898e-02f, 2.586123e-02f, -1.131612e-01f, -2.871102e-02f, 3.316306e-02f, 1.046189e-02f,
  -2.478982e-02f, -7.158294e-02f, -2.791954e-02f, 4.486272e-02f, -1.907367e-02f, -1.114088e-02f, 1.404513e-02f, -7.340199e-02f,
  -1.668828e-02f, -9.680394e-02f, -5.522879e-02f, -6.661854e-03f, -8.789275e-02f, -1.794275e-02f, 6.995703e-02f, 5.331963e-04f,
  -8.846912e-02f, 8.260266e-02f, 2.362718e-02f, 3.808931e-02f, 7.406796e-02f, 3.772889e-02f, 9.191252e-02f, -3.880658e-02f,
  4.895232e-02f, 4.857828e-02f, -2.391328e-02f, 4.447351e-02f, -3.722428e-02f, 4.332525e-02f, -6.471986e-02f, 5.750607e-02f,
  4.234123e-02f, 5.656153e-02f, 2.922982e-02f, -5.279998e-02f, -9.001140e-02f, -1.072429e-01f, -9.942832e-02f, -6.027617e-02f,
  1.673429e-02f, -8.450799e-02f, -6.444434e-02f, -6.378666e-02f, 7.449699e-02f, 1.239795e-02f, 5.941775e-02f, 2.676401e-02f,
  2.843691e-02f, 3.291827e-02f, -1.189112e-01f, -8.375454e-04f, -1.145744e-01f, -4.219981e-02f, -7.069340e-02f, -4.891438e-04f,
  -2.485293e-02f, 3.207826e-02f, 8.603156e-02f, -5.545054e-02f, -4.645821e-02f, -2.386651e-03f, -2.925523e-02f, 6.552479e-02f,
  -5.286556e-02f, 7.300225e-02f, 5.525169e-02f, -1.118012e-01f, 4.832660e-02f, -7.526313e-02f, 4.920197e-02f, -1.066835e-01f,
  -3.878495e-02f, 5.310068e-02f, -4.862297e-02f, 5.628984e-02f, 2.067953e-02f, 3.925080e-02f, 6.899876e-03f, -6.410448e-02f,
  -4.556650e-02f, -4.818313e-02f, -5.799366e-02f, 7.793067e-02f, -3.977903e-02f, -7.423104e-02f, -1.036614e-01f, 2.473479e-03f,
  -6.620599e-02f, -2.694896e-02f, 2.554306e-02f, 2.643855e-02f, -4.911210e-02f, -1.001227e-01f, 4.221395e-02f, -6.492260e-02f,
  7.532758e-02f, 6.256443e-02f, -3.846595e-02f, -8.781381e-02f, 2.361068e-02f, 9.880687e-02f, 3.193451e-02f, -1.915533e-02f,
  -6.964132e-02f, -9.171935e-02f, -6.566747e-02f, 6.745080e-02f, 8.435157e-02f, -1.034256e-02f, -5.108093e-02f, 1.658046e-02f,
  -1.004957e-01f, -2.463354e-02f, -1.584526e-02f, -3.280653e-02f, 1.879507e-02f, 2.858816e-02f, -2.857457e-02f, 4.551837e-02f,
  6.675485e-02f, -7.663013e-02f, -1.053312e-01f, -4.031351e-02f, 2.185873e-02f, -4.706993e-02f, -3.927768e-02f, 2.392301e-02f,
  -2.287078e-02f, 3.682008e-03f, 4.923911e-02f, -7.275449e-03f, -4.296779e-02f, -2.299813e-02f, 5.198560e-02f, -9.206410e-03f,
  9.559029e-02f, -1.078378e-01f, -5.647818e-02f, -1.037472e-01f, -1.277161e-01f, 6.793374e-02f, -5.921855e-02f, -1.775494e-01f,
  -2.259562e-03f, -3.068934e-02f, 3.828246e-02f, -1.094894e-01f, 9.365038e-02f, 1.019818e-01f, 1.432445e-01f, -7.422734e-02f,
  1.040502e-02f, -1.684343e-02f, -5.754703e-02f, -5.421041e-02f, -5.345270e-02f, -2.436773e-01f, -1.102454e-01f, 1.052813e-01f,
  -1.358619e-02f, -7.931746e-02f, 6.994820e-02f, -1.379583e-01f, -5.917635e-02f, -1.232532e-01f, 1.305618e-01f, 9.757848e-02f,
  5.068019e-03f, -6.455643e-02f, -1.414098e-02f, -7.528407e-02f, -8.371701e-03f, 1.264525e-01f, 1.601443e-01f, -9.689644e-02f,
  1.705052e-02f, -6.851648e-02f, -4.858261e-02f, -1.022337e-01f, -8.232708e-02f, -7.175644e-02f, -3.439520e-02f, -3.131185e-02f,
  1.314288e-01f, 4.815683e-02f, -5.793527e-02f, 1.649350e-02f, -4.069391e-02f, 1.622326e-02f, 6.387686e-02f, 1.322488e-01f,
  2.147209e-01f, -3.028307e-01f, -1.806170e-01f, -2.247063e-02f, -2.917735e-02f, 1.668634e-02f, -6.378669e-02f, 7.161130e-02f,
  -7.308073e-02f, -3.987766e-02f, 2.402614e-02f, 3.197865e-02f, -1.278300e-01f, 1.231429e-01f, 3.072038e-02f, 2.355077e-02f,
  -2.754827e-02f, -1.667138e-01f, 2.392677e-04f, -1.544220e-01f, -2.574090e-01f, -6.564584e-02f, 1.489732e-01f, 1.583385e-02f,
  5.897498e-02f, 6.671386e-02f, -1.311124e-02f, -1.031310e-01f, -1.177790e-01f, 1.130937e-01f, 1.189307e-01f, 2.437155e-04f,
  -1.213746e-01f, 1.720731e-01f, -7.747858e-03f, -3.595762e-02f, 4.622618e-02f, 1.434982e-01f, 1.201678e-01f, 6.888190e-02f,
  1.623024e-01f, -8.943215e-03f, -1.749740e-02f, -3.195878e-02f, 9.629386e-02f, 8.723059e-02f, -1.286990e-02f, 2.710384e-02f,
  -2.124226e-03f, -1.012923e-01f, 9.508212e-02f, 1.304118e-01f, 2.430308e-02f, -5.940272e-02f, -3.080503e-02f, 1.126877e-02f,
  -6.663714e-02f, 4.589675e-02f, -7.509174e-02f, 6.635137e-02f, 3.982237e-02f, -5.812564e-02f, 1.230284e-01f, 6.531288e-02f,
  1.879411e-02f, 1.142274e-02f, -5.758286e-02f, 1.752202e-02f, 5.562860e-02f, -4.181442e-02f, -4.877380e-02f, 2.901866e-02f,
  -7.589856e-02f, 9.432442e-02f, -3.386205e-02f, -8.239379e-02f, 3.876491e-02f, 1.952354e-03f, -2.804978e-02f, -6.632694e-03f,
  3.483431e-02f, -3.985810e-02f, -8.468530e-02f, -5.622387e-02f, 1.072925e-01f, 3.707878e-02f, 5.023157e-02f, -1.072210e-01f,
  -1.102005e-01f, -2.517384e-02f, -5.568157e-02f, -1.062091e-02f, 1.010584e-01f, -5.262892e-02f, 2.213149e-02f, -1.006648e-02f,
  -6.982204e-02f, -4.403246e-02f, -1.503437e-01f, -7.393318e-02f, -9.801733e-02f, -3.119187e-02f, -3.251119e-02f, 1.089059e-01f,
  1.351009e-01f, -8.928019e-02f, -7.985674e-02f, 8.478519e-02f, -8.664785e-02f, -8.315053e-03f, -5.360535e-02f, 9.410049e-02f,
  1.044735e-02f, -8.344254e-03f, -7.018409e-02f, 5.255435e-02f, -6.731855e-02f, 4.363666e-02f, -5.221698e-02f, 1.032373e-01f,
  -1.678817e-02f, 8.138587e-02f, -9.231707e-02f, 8.688227e-03f, -3.536392e-02f, 1.574578e-02f, -7.982039e-02f, -4.505754e-03f,
  9.145855e-02f, -7.055518e-02f, 9.841505e-02f, -2.635405e-02f, -4.881707e-02f, -8.250105e-02f, 4.944959e-02f, 1.286932e-02f,
  -3.410436e-02f, 1.103032e-02f, -4.706585e-03f, 8.294500e-02f, 7.618286e-02f, 3.631500e-02f, 9.014041e-03f, 5.878105e-02f,
  -2.170988e-02f, -2.569929e-02f, 9.811223e-02f, 6.624044e-02f, 7.829515e-02f, -2.795223e-02f, 1.185642e-02f, 6.806475e-02f,
  1.855941e-01f, 1.023943e-02f, 8.690824e-03f, -2.053347e-01f, 1.650282e-01f, -1.445692e-01f, -9.656356e-02f, 1.496861e-02f,
  -9.875447e-03f, -8.452969e-02f, 9.971755e-03f, -2.889097e-02f, 7.811629e-02f, 7.536634e-02f, -1.640688e-02f, 2.950598e-02f,
  7.874150e-02f, -1.366239e-01f, -1.526283e-01f, -2.490703e-02f, -1.113939e-01f, -1.257779e-01f, -9.211536e-02f, 1.029468e-01f,
  -8.157618e-02f, -9.469440e-02f, 3.096090e-02f, 1.479018e-02f, -1.973263e-02f, -7.652026e-02f, -4.076255e-03f, 6.443993e-02f,
  -2.996942e-02f, 7.219860e-02f, -1.743070e-02f, -1.640350e-01f, -3.175007e-01f, 9.029701e-02f, -3.574220e-01f, -8.148679e-02f,
  3.762241e-02f, 1.401549e-01f, -1.125776e-01f, 5.158519e-02f, -1.411830e-01f, 9.043590e-03f, -4.221225e-02f, -1.631880e-02f,
  -5.358837e-02f, 3.731801e-02f, 1.528869e-01f, 1.136766e-01f, -9.165268e-02f, 4.570817e-03f, 5.989222e-03f, 1.457189e-01f,
  -6.309755e-02f, -1.058896e-01f, -2.291424e-03f, -3.314774e-02f, -3.876537e-02f, 5.460452e-02f, -1.205684e-01f, -5.043146e-02f,
  -3.588156e-02f, -4.102537e-02f, 5.794039e-02f, 8.965059e-02f, -5.856457e-02f, -1.119788e-01f, -8.771903e-02f, 1.564735e-02f,
  -7.739900e-02f, 6.195068e-02f, -4.998765e-02f, 5.462930e-02f, 1.657533e-02f, 4.382831e-02f, -8.208513e-02f, -5.030822e-02f,
  -9.795382e-02f, 2.674902e-02f, -1.275939e-03f, 2.537432e-02f, 3.280354e-02f, -5.053202e-02f, 1.269582e-02f, 6.301691e-02f,
  4.217748e-03f, -5.769321e-02f, -5.380896e-02f, 2.568759e-02f, 1.011558e-01f, 5.249477e-02f, 5.737806e-02f, -7.860008e-02f,
  7.321176e-02f, -5.140852e-02f, -2.473677e-02f, 3.193732e-02f, 5.880386e-02f, -3.329781e-02f, 8.623314e-02f, -3.654303e-03f,
  -9.739540e-02f, -7.694677e-02f, 7.164027e-02f, 5.133798e-02f, 2.881649e-02f, -9.812480e-03f, -8.228172e-02f, 3.469877e-02f,
  4.343190e-02f, -8.892427e-02f, 8.228397e-02f, 3.425930e-02f, 7.627354e-02f, 1.602371e-02f, -3.581969e-02f, 7.003522e-02f,
  9.249841e-02f, 7.982610e-02f, 4.308276e-02f, 3.871877e-02f, -6.294736e-02f, -2.082126e-02f, -9.475242e-03f, 9.953435e-02f,
  -4.223899e-02f, -3.691480e-02f, 6.781232e-02f, 2.215180e-02f, -4.198843e-02f, 7.003129e-02f, -4.161529e-02f, -9.288415e-02f,
  -2.164644e-02f, -3.412918e-02f, 1.026433e-01f, -3.412630e-02f, 7.480457e-02f, -1.596942e-02f, -5.239905e-02f, -1.066289e-01f,
  1.260649e-01f, -6.753334e-02f, -7.772867e-02f, 1.715609e-01f, -1.710103e-02f, -1.107253e-02f, -2.657396e-02f, -4.259979e-02f,
  3.140584e-02f, -4.331070e-04f, -4.821970e-02f, -5.619476e-02f, 2.333335e-03f, 4.593102e-02f, -5.933277e-02f, 1.778534e-02f,
  -4.081262e-02f, -2.292042e-02f, -8.374504e-02f, 5.993168e-02f, 2.429803e-02f, 4.166485e-02f, -4.678756e-02f, -8.647335e-02f,
  1.000719e-02f, -2.979361e-02f, -3.066473e-02f, 1.025511e-01f, 1.172614e-01f, -8.846059e-02f, -4.597885e-02f, 5.545019e-02f,
  1.752999e-02f, -9.403460e-02f, -3.040009e-02f, -7.113966e-02f, 3.500622e-02f, 7.032664e-02f, -6.534455e-02f, -3.591694e-02f,
  -8.568545e-03f, -1.636945e-02f, 3.233887e-03f, 9.942499e-02f, 1.668483e-02f, 1.029449e-01f, 6.789087e-02f, -3.587644e-02f,
  7.744312e-02f, 7.146534e-02f, 8.372275e-02f, -5.467860e-03f, 2.977856e-03f, -4.459199e-03f, 4.775225e-02f, 2.464374e-02f,
  3.020718e-03f, 5.498177e-02f, 3.915080e-02f, 7.221918e-02f, 3.962194e-03f, -9.219378e-02f, 8.723538e-02f, -6.656686e-02f,
  8.032995e-02f, 3.858870e-02f, -5.443661e-02f, 1.490005e-02f, 7.827264e-02f, -1.143998e-01f, -1.278131e-01f, 1.947181e-02f,
  -2.289319e-02f, 3.221561e-03f, 3.758753e-02f, 8.049863e-03f, 2.017227e-02f, 4.708530e-02f, 1.878948e-02f, -6.621758e-04f,
  -1.295787e-02f, -9.660845e-02f, 1.054632e-01f, -6.813204e-04f, -2.440170e-02f, -5.053709e-03f, 6.182051e-02f, -4.819218e-02f,
  7.489735e-02f, -4.652482e-02f, -4.632123e-02f, 4.791885e-02f, -1.250230e-02f, 5.925673e-02f, 5.797043e-02f, 8.454635e-02f,
  1.727290e-02f, -1.532213e-02f, -3.137608e-02f, -2.154365e-02f, 2.296680e-02f, 1.018856e-01f, -2.506616e-02f, -2.969922e-02f,
  -5.622378e-02f, -1.190623e-03f, 8.443259e-02f, -5.590195e-02f, 2.764743e-02f, 7.619029e-02f, 2.066340e-02f, 3.526819e-02f,
  1.134032e-01f, -8.810116e-02f, 7.912398e-02f, -6.832995e-02f, -5.667330e-02f, 7.433663e-03f, 8.047315e-02f, 5.364266e-02f,
  -2.722596e-02f, -2.474117e-02f, -4.122662e-02f, 1.011299e-01f, 3.503121e-02f, 5.278619e-02f, 3.708554e-02f, -3.630642e-02f,
  -5.945625e-02f, 4.127784e-02f, 6.010635e-03f, -4.953895e-02f, -3.424942e-02f, -1.055017e-01f, 9.537946e-02f, -9.321507e-02f,
  -5.132786e-02f, 6.941314e-02f, 3.015361e-02f, 9.758803e-02f, 8.907449e-02f, 5.791549e-02f, -3.198682e-02f, -5.654601e-02f,
  -5.362411e-02f, 2.653399e-02f, -2.650303e-03f, -5.626841e-02f, -3.926727e-02f, 5.737067e-02f, -5.906146e-04f, 3.231063e-02f,
  -5.724618e-02f, 3.761207e-02f, 4.645587e-02f, -7.216621e-03f, 4.873801e-02f, 4.686360e-02f, 3.665772e-02f, 1.185345e-03f,
  -3.744542e-02f, -2.888609e-02f, 2.953346e-02f, -1.513502e-02f, -1.007142e-01f, -2.268571e-02f, -7.752659e-02f, 1.350276e-02f,
  -4.553520e-02f, -9.341699e-02f, 1.261241e-01f, 1.160905e-01f, 1.249034e-01f, 1.834955e-02f, -1.171799e-01f, 6.183277e-02f,
  2.462458e-02f, -5.830596e-02f, 7.128683e-02f, -7.042105e-02f, -9.980488e-02f, -7.127423e-02f, -6.085452e-02f, -9.483585e-02f,
  -8.635555e-02f, -3.263463e-02f, 5.704905e-02f, 3.879103e-02f, 2.867077e-02f, 1.163903e-01f, 1.574507e-02f, -1.397083e-01f,
  3.344296e-02f, 5.137740e-02f, -9.805498e-02f, -2.710842e-02f, -7.772853e-02f, -1.838950e-02f, -6.623663e-03f, -3.398336e-02f,
  -2.979745e-02f, 1.150146e-01f, -7.713701e-02f, 2.187543e-02f, -6.430623e-02f, 5.795826e-02f, -5.893041e-02f, -7.878166e-02f,
  1.009130e-01f, 2.963108e-02f, -1.034550e-01f, -5.753937e-03f, -8.069927e-02f, 8.374579e-02f, 6.105658e-02f, -1.633789e-04f,
  -2.185235e-02f, 5.968760e-02f, 4.024062e-02f, -3.259291e-02f, 3.034497e-02f, 4.903978e-02f, 3.769417e-02f, -1.644645e-02f,
  -8.316207e-02f, 2.929013e-02f, 5.615316e-02f, 1.430672e-02f, 5.891636e-02f, -9.064672e-02f, 7.652006e-02f, -2.969386e-02f,
  -2.862258e-02f, 7.219394e-02f, 1.161121e-02f, 2.760880e-02f, -9.678686e-02f, 5.898754e-02f, -3.897922e-02f, 4.145183e-02f,
  -7.017348e-02f, -1.120086e-03f, 8.794596e-02f, 2.192792e-02f, -7.738633e-02f, 1.477766e-01f, -1.010489e-01f, -7.419685e-02f,
  -4.594508e-02f, -4.141499e-02f, 7.771404e-02f, -1.191348e-01f, -3.745138e-02f, 5.036998e-02f, -6.640918e-02f, 3.220135e-03f,
  -1.305656e-02f, -3.800983e-02f, -3.494621e-02f, -6.900205e-02f, 6.409496e-02f, -9.367975e-03f, -1.673274e-01f, 6.696465e-02f,
  2.312206e-02f, 1.537397e-02f, 4.654463e-02f, 8.574988e-02f, 2.850441e-02f, 2.642463e-02f, 4.261153e-02f, 3.269142e-02f,
  -1.093577e-01f, 8.168228e-03f, 2.010299e-02f, -2.841874e-02f, 5.500551e-02f, -5.612921e-02f, -5.595595e-02f, -7.792910e-02f,
  1.884142e-02f, 1.106193e-01f, 6.310664e-04f, 8.666740e-02f, -5.391899e-03f, -1.422473e-02f, -6.704086e-03f, -1.672844e-01f,
  7.960822e-02f, -6.159677e-02f, -9.001812e-02f, 1.345831e-01f, -1.421650e-01f, 3.098711e-02f, 4.785353e-02f, -6.913136e-02f,
  1.385957e-02f, 9.074195e-02f, 4.968180e-02f, 7.664195e-02f, -3.018774e-02f, 8.266298e-03f, 5.779256e-02f, 5.224229e-02f,
  6.702520e-02f, 1.535782e-01f, -2.919751e-02f, -6.687501e-02f, -1.273557e-02f, 1.571454e-02f, 7.726291e-02f, -3.087479e-02f,
  -1.153265e-01f, -1.791615e-03f, 8.496447e-02f, -7.374343e-02f, 6.950524e-02f, -1.544268e-01f, 2.056381e-01f, -7.414657e-02f,
  -1.127194e-01f, -5.484797e-02f, -3.195545e-02f, 2.799024e-02f, 1.444661e-02f, -1.562646e-02f, 5.691983e-02f, -6.431267e-02f,
  3.316771e-02f, -1.462518e-02f, 5.493437e-02f, -2.863888e-02f, 1.110909e-02f, -3.041408e-02f, 1.059205e-01f, -1.488483e-02f,
  -6.830312e-02f, 6.250451e-02f, -9.618809e-03f, 5.251613e-02f, -1.209108e-02f, -4.357573e-02f, -2.572264e-02f, -1.365304e-02f,
  1.386084e-02f, 1.411665e-01f, 3.882386e-02f, -2.617560e-02f, -5.269959e-02f, 3.341969e-02f, 3.611663e-03f, -1.154839e-01f,
  -2.285180e-02f, -2.203423e-01f, 1.256407e-03f, 6.478927e-02f, 1.934174e-03f, 5.208826e-02f, -1.047884e-02f, -6.932142e-02f,
  -9.531181e-02f, -3.641628e-02f, -1.032681e-01f, 1.270129e-01f, 4.355084e-02f, -1.156033e-01f, 6.241562e-02f, -5.013958e-03f,
  4.349697e-02f, -1.899868e-02f, 1.217187e-01f, 3.624547e-02f, -9.767371e-02f, -1.462798e-02f, 6.010614e-02f, 1.598573e-01f,
  -9.290953e-02f, -5.103295e-02f, 5.325387e-02f, 1.930234e-02f, 9.129274e-02f, 8.220080e-02f, 3.336936e-02f, 2.704346e-03f,
  8.085967e-02f, 7.654253e-02f, -8.509719e-02f, 9.493856e-02f, 1.706639e-02f, -2.859990e-02f, 2.801783e-02f, -6.127572e-02f,
  -1.733129e-02f, -7.474592e-04f, 6.864871e-02f, -8.259632e-02f, -2.389217e-02f, -6.220618e-02f, 7.093396e-02f, -6.174537e-02f,
  5.746266e-02f, -5.914006e-02f, -2.291741e-02f, -3.908544e-02f, -6.875584e-02f, -7.162437e-02f, -1.561268e-02f, 6.384490e-02f,
  -3.129000e-02f, 7.893060e-02f, -6.808174e-02f, -6.376071e-03f, 5.042624e-03f, -2.958559e-02f, 5.675656e-02f, 1.036971e-03f,
  -1.198760e-01f, 6.216534e-02f, 4.225937e-02f, 4.101402e-02f, -3.136519e-02f, -2.153504e-02f, -5.320200e-02f, -3.804848e-02f,
  8.626340e-03f, 9.975602e-02f, 8.591633e-02f, -3.977479e-02f, -7.102446e-02f, 1.785593e-02f, -2.266858e-02f, -3.365661e-02f,
  8.332931e-02f, -7.913369e-02f, 1.393009e-01f, -9.697003e-02f, 2.920366e-02f, 9.028619e-02f, -4.492638e-02f, -5.441000e-02f,
  -2.752840e-02f, -3.515401e-02f, -2.084004e-02f, 2.692448e-02f, 1.667574e-01f, 2.111835e-02f, -7.153852e-02f, 4.707206e-02f,
  1.116946e-02f, -1.173975e-02f, 9.050517e-02f, 1.981554e-02f, -2.092011e-02f, -3.718177e-02f, -4.773426e-02f, 1.073285e-03f,
  -5.406379e-03f, -5.956092e-02f, 5.910179e-02f, 1.905396e-01f, 3.491743e-02f, -5.376072e-02f, -1.096729e-03f, 1.527283e-02f,
  7.830030e-02f, 7.749171e-02f, 4.694767e-02f, -4.091659e-04f, 4.626556e-02f, 9.852588e-02f, 1.232171e-01f, -1.125659e-01f,
  -6.278657e-02f, 5.291728e-02f, 7.636595e-02f, 1.049785e-01f, 4.749940e-02f, -4.779848e-02f, -8.026906e-03f, 2.276748e-02f,
  -3.365377e-02f, -8.803051e-02f, -2.177754e-01f, -3.963747e-02f, 1.184216e-01f, 8.750334e-02f, 7.047287e-02f, 9.202194e-02f,
  -3.915761e-02f, -4.590236e-02f, -5.059714e-02f, -3.133893e-02f, 9.840525e-03f, 8.036313e-02f, -8.141142e-03f, -2.309889e-02f,
  -6.095910e-03f, -1.581054e-01f, 5.507968e-02f, 1.046684e-01f, 2.413885e-02f, 5.980182e-02f, -5.412969e-02f, -9.577081e-02f,
  -2.046663e-01f, -7.561658e-02f, -3.028016e-02f, 1.948435e-01f, 1.052446e-01f, -1.143998e-01f, -8.116064e-02f, 4.024793e-02f,
  -3.513027e-02f, 8.376528e-02f, -3.649722e-02f, 7.716724e-02f, 7.718100e-02f, -1.184424e-01f, -3.611884e-02f, -6.146149e-03f,
  5.572499e-02f, 9.739269e-02f, 9.312231e-03f, 8.880148e-02f, -9.815740e-03f, 1.398391e-03f, -6.031475e-02f, -1.242586e-01f,
  4.733345e-02f, -8.629051e-02f, 6.237319e-02f, -1.532560e-01f, -4.436325e-02f, -6.853031e-02f, -6.724178e-03f, -2.005323e-01f,
  -6.668704e-02f, -1.272068e-01f, -1.054501e-01f, -6.200768e-02f, 4.437732e-02f, -1.307328e-01f, -4.369655e-02f, 7.443585e-02f,
  -7.123924e-02f, 1.218811e-01f, -1.484832e-02f, -8.773396e-04f, 7.404659e-02f, 4.610491e-02f, -4.219975e-02f, 9.032476e-02f,
  -9.942475e-03f, 1.942900e-02f, 3.634285e-03f, -1.347381e-02f, -9.677277e-02f, -1.127540e-01f, -3.386705e-02f, 6.244519e-02f,
  -1.997939e-03f, 2.851888e-02f, 5.700058e-02f, 3.376804e-02f, -9.235298e-02f, 1.693950e-03f, 1.019391e-01f, 1.171868e-01f,
  -1.361396e-01f, 1.891623e-01f, -8.027633e-02f, -1.205921e-01f, 1.127607e-01f, -1.468819e-01f, 1.237844e-01f, -1.070103e-02f,
  2.408666e-01f, -7.554398e-03f, 8.033935e-02f, -1.364512e-01f, 1.393707e-01f, 6.982024e-02f, -1.615302e-01f, 3.606511e-03f,
  7.542710e-02f, 7.048652e-02f, -3.009314e-01f, 9.694517e-02f, -3.405376e-01f, -2.099927e-02f, 1.618868e-01f, -1.522557e-01f,
  -5.306742e-02f, 6.833185e-02f, 1.185738e-01f, 1.130162e-01f, -6.895626e-02f, 6.803554e-03f, -8.322966e-03f, 1.564906e-02f,
  5.713060e-02f, -1.023974e-01f, -1.109999e-01f, 5.545506e-02f, -5.495375e-02f, -7.629587e-03f, -4.251405e-02f, 4.782945e-02f,
  4.408804e-02f, -3.448173e-03f, 2.753538e-02f, -8.555608e-02f, -7.829395e-02f, 7.635733e-02f, -2.554236e-02f, 1.411445e-03f,
  7.612299e-02f, -3.344114e-02f, -8.101791e-02f, 7.846991e-03f, 4.825169e-02f, -4.504313e-02f, 2.157487e-02f, 5.098346e-02f,
  -6.401782e-02f, -1.174261e-01f, -5.471310e-03f, 5.083906e-02f, -6.753241e-02f, 1.373742e-02f, 9.009794e-02f, -4.952405e-02f,
  -2.244392e-02f, 2.494401e-02f, 8.988660e-04f, 1.115810e-01f, -1.306927e-02f, -2.784010e-02f, 1.396176e-01f, -4.012505e-02f,
  6.663793e-02f, 1.457730e-01f, 6.830968e-03f, 2.016030e-02f, -5.382460e-02f, 1.128571e-02f, -5.032147e-02f, 1.055554e-01f,
  -6.538574e-03f, 2.328357e-02f, 7.448594e-03f, 3.552716e-02f, 1.073109e-02f, 4.017255e-02f, 9.264790e-02f, 2.671483e-02f,
  4.282538e-02f, -1.047205e-01f, 1.052075e-01f, 4.550269e-02f, 1.077414e-01f, 9.814432e-02f, -6.783825e-02f, -7.996447e-02f,
  -1.080064e-01f, 9.064171e-02f, 4.300717e-02f, -5.898688e-02f, -7.049222e-02f, -5.435814e-02f, -6.024660e-02f, 5.481778e-02f,
  -1.443423e-01f, 1.015154e-01f, -2.365685e-02f, -3.873751e-02f, 6.290266e-02f, -7.842400e-02f, 6.621388e-02f, -5.126893e-02f,
  -2.664085e-02f, 8.436845e-02f, -2.566719e-02f, -4.672572e-02f, -6.333269e-02f, -6.202732e-02f, -5.485140e-02f, -7.496084e-02f,
  -3.296654e-02f, -1.173073e-02f, 8.308796e-02f, 1.005985e-01f, -7.765590e-02f, -1.171124e-02f, 3.792906e-02f, -4.265249e-02f,
  -6.389215e-02f, 7.701295e-02f, 2.967818e-02f, -3.384046e-02f, 7.132197e-02f, -6.610175e-02f, -2.219241e-02f, -4.773635e-03f,
  -5.114076e-02f, 1.805009e-01f, 9.268764e-03f, -4.966589e-02f, -7.173584e-02f, 5.385782e-02f, -2.292603e-02f, -2.057991e-02f,
  8.213604e-02f, -1.014354e-01f, 8.362132e-04f, -8.755738e-02f, -4.240813e-02f, -1.035421e-01f, 6.040723e-02f, 1.110628e-01f,
  -2.965823e-01f, 5.214326e-02f, -1.118776e-01f, -2.079602e-01f, -2.389811e-01f, -1.596857e-01f, -9.546637e-02f, 6.678684e-02f,
  2.437788e-02f, 2.994091e-02f, -3.279808e-02f, 2.076337e-02f, -1.305113e-01f, 8.293579e-02f, 4.072387e-02f, 1.141369e-03f,
  -6.295106e-03f, -4.136313e-03f, -2.477439e-02f, -2.660179e-01f, -2.228638e-02f, -1.165563e-01f, -1.608577e-01f, -9.587962e-02f,
  -5.002504e-02f, -6.369431e-02f, -6.213283e-02f, 1.355271e-01f, -1.685796e-02f, 1.288303e-01f, 8.202420e-02f, -8.341915e-02f,
  -1.308819e-01f, 5.075041e-02f, -2.992506e-03f, -8.049000e-02f, -1.351697e-01f, -2.841447e-01f, -4.387124e-02f, -2.010795e-01f,
  -2.299124e-01f, 2.063577e-02f, -3.433763e-01f, -1.772637e-02f, 6.864245e-02f, 7.935368e-02f, 6.857032e-02f, -2.789547e-02f,
  -4.057753e-02f, -2.308116e-02f, 5.861855e-02f, 3.395426e-02f, -1.011362e-01f, -6.273793e-02f, 2.395676e-02f, 6.331069e-04f,
  -1.578042e-02f, -6.661989e-02f, -1.827540e-01f, -1.079326e-01f, -5.985705e-02f, -7.600325e-02f, 9.636588e-03f, 4.118564e-02f,
  4.138258e-02f, 7.072037e-02f, 3.008220e-02f, 6.626020e-02f, 2.019483e-02f, 7.110701e-02f, -1.442963e-03f, 4.041483e-02f,
  4.403096e-02f, 6.700186e-02f, 5.189104e-02f, 2.463770e-02f, -1.275223e-01f, -7.442994e-02f, -8.059196e-03f, -2.354436e-02f,
  -1.261161e-01f, -6.749883e-02f, -3.935895e-02f, -1.305772e-01f, 3.022894e-02f, -7.541154e-02f, -2.836631e-02f, 8.939724e-02f,
  1.083448e-01f, -6.239447e-02f, 1.425794e-01f, -7.386409e-02f, -1.127309e-01f, 1.576247e-01f, 1.034059e-02f, 4.123145e-02f,
  -7.100044e-04f, 6.260948e-02f, 8.644425e-02f, -2.190593e-01f, 1.941968e-01f, 1.217921e-01f, -2.038723e-01f, 1.023221e-01f,
  7.633227e-02f, 1.237080e-01f, 1.637821e-01f, -2.002841e-01f, -8.198541e-02f, -4.217408e-01f, -1.440640e-01f, 1.225142e-01f,
  1.351860e-02f, -1.061992e-01f, 1.468083e-01f, 1.950711e-01f, -1.836537e-01f, -9.137781e-02f, -4.755666e-03f, -1.009687e-01f,
  -2.081385e-01f, 9.480432e-02f, -1.771198e-01f, -6.319706e-02f, 3.487403e-02f, -1.890977e-01f, 1.580424e-01f, 1.384025e-02f,
  -4.129786e-02f, 2.564536e-01f, 8.663612e-02f, -2.564582e-01f, 4.087934e-02f, 4.801624e-03f, 7.740021e-02f, -1.021835e-01f,
  -2.490709e-02f, 8.127471e-02f, -1.961308e-01f, -7.899227e-02f, -9.594116e-02f, -2.000655e-01f, 6.412811e-02f, 2.175079e-01f,
  1.031600e-01f, 2.313621e-01f, 6.253123e-03f, 7.570598e-02f, -1.200670e-01f, 1.910307e-01f, -1.393237e-01f, -9.078141e-02f,
  -1.368176e-01f, 2.342738e-01f, 1.359195e-01f, 1.741123e-02f, 6.156287e-02f, 6.450143e-02f, -5.543375e-02f, -2.414381e-02f,
  5.279140e-02f, -1.025500e-01f, -1.407029e-01f, -1.509205e-01f, -1.275759e-01f, -6.466693e-02f, 2.115341e-02f, -1.577212e-02f,
  -7.393743e-02f, 5.709211e-02f, -2.171979e-01f, 6.044148e-02f, -2.576556e-01f, -1.591940e-01f, -1.726090e-03f, -4.989445e-02f,
  3.935355e-03f, -4.609016e-02f, -1.459932e-02f, -6.880629e-02f, -1.145555e-02f, -9.076229e-02f, 2.412646e-02f, 7.515118e-02f,
  1.597971e-02f, 4.690645e-02f, 8.407671e-02f, -5.250683e-02f, -2.107498e-01f, -1.379892e-01f, 1.102909e-01f, -1.260240e-01f,
  -1.955392e-02f, 2.592252e-02f, -1.301294e-01f, -1.665158e-03f, 8.256162e-03f, -3.123628e-02f, -3.634331e-02f, -9.893666e-02f,
  2.713052e-03f, 2.978278e-01f, -5.632567e-02f, -5.114062e-02f, 9.507963e-02f, -5.239199e-02f, -1.814510e-01f, -4.744563e-02f,
  -6.224886e-01f, -2.120412e-01f, 3.295110e-02f, -8.310610e-02f, -1.597468e-01f, 2.709311e-02f, 7.093693e-02f, -8.580266e-02f,
  5.077013e-04f, -3.461100e-01f, -2.081584e-01f, 1.011408e-01f, -2.505355e-02f, -1.335023e-01f, 1.828156e-01f, 1.574607e-01f,
  -4.347911e-02f, 5.330799e-02f, 6.353171e-02f, -6.617273e-02f, 2.146723e-01f, -4.727632e-02f, -1.042165e-02f, 1.045074e-01f,
  -6.481016e-02f, -4.354078e-02f, 2.383103e-02f, -7.748684e-02f, 2.018150e-02f, 1.881402e-01f, -6.825255e-02f, -1.328276e-03f,
  1.120220e-01f, -1.329028e-02f, 1.576697e-02f, -1.637499e-02f, -7.604323e-02f, 9.300127e-02f, -5.985811e-02f, -8.452872e-02f,
  -3.153871e-02f, -2.598959e-02f, 7.386066e-03f, -4.230575e-02f, 1.718625e-03f, -8.223384e-02f, 9.731641e-02f, -5.550342e-02f,
  8.200789e-02f, -4.187362e-03f, -3.543584e-02f, 9.997438e-02f, -2.038261e-02f, 4.675292e-02f, 4.890881e-02f, 6.731291e-02f,
  8.275255e-02f, -1.508517e-03f, -1.396474e-02f, 6.104710e-02f, 5.627209e-02f, -1.040479e-01f, 1.114310e-01f, -5.505935e-02f,
  -1.788451e-01f, 1.063102e-01f, -1.316392e-01f, -1.599170e-01f, 8.171267e-02f, -9.531561e-02f, -1.008573e-01f, 1.021486e-01f,
  -1.485723e-02f, -8.405931e-02f, 5.197965e-02f, -1.772122e-01f, -5.869953e-02f, 4.401765e-03f, 4.787216e-02f, -4.667904e-02f,
  -2.128559e-01f, 2.284851e-01f, -3.392710e-02f, -2.852624e-02f, -5.652769e-02f, 4.255424e-02f, -1.130011e-01f, 1.125650e-01f,
  -2.210926e-01f, -1.417634e-02f, 1.001701e-01f, -1.192423e-01f, 5.202855e-02f, 9.823944e-02f, -1.828953e-01f, -7.240475e-02f,
  1.716190e-01f, 2.179044e-02f, -8.544132e-02f, 6.258424e-02f, 9.982470e-02f, -7.114386e-02f, 5.967515e-02f, -4.762286e-02f,
  -1.220992e-02f, 1.722077e-03f, -2.446221e-01f, 1.270942e-01f, -1.574191e-01f, -2.981756e-01f, 5.327648e-02f, -1.569573e-01f,
  -1.188307e-01f, 3.802537e-03f, 3.825504e-02f, -9.580290e-02f, -3.427587e-01f, 5.438577e-02f, 6.781502e-02f, -2.417719e-01f,
  -1.035083e-02f, -8.524308e-02f, -4.037199e-03f, 1.011675e-01f, -1.682425e-02f, -1.649256e-01f, 1.111485e-02f, -1.194349e-02f,
  2.164964e-01f, -2.079642e-02f, -1.161063e-01f, 6.594414e-02f, 1.470826e-01f, -6.811900e-02f, -2.262847e-01f, 9.356838e-02f,
  2.325960e-02f, -1.995741e-01f, -1.084105e-02f, 4.590345e-02f, -6.448079e-02f, 5.332986e-02f, -2.078440e-01f, 8.260437e-02f,
  -2.269278e-01f, -1.571136e-01f, 1.046742e-01f, -1.023673e-01f, -1.370861e-01f, 1.113979e-01f, 5.764330e-02f, -2.102098e-01f,
  -1.047707e-01f, -4.061014e-01f, -1.271804e-01f, 2.393297e-02f, 9.427375e-02f, -6.989966e-02f, -9.480586e-03f, 7.046454e-02f,
  2.358306e-02f, 8.662239e-02f, -3.685617e-02f, 3.448314e-02f, -1.849008e-02f, -1.079499e-02f, 8.924626e-02f, -2.629151e-02f,
  4.303505e-02f, 8.199167e-02f, -9.660524e-03f, 9.586835e-02f, 4.264635e-02f, 5.949088e-02f, 9.055348e-02f, 9.107519e-02f,
  -4.734442e-02f, 6.217728e-02f, 7.792007e-02f, 2.657385e-02f, 7.631730e-02f, -1.496818e-02f, 1.638878e-02f, -1.127186e-02f,
  9.616020e-02f, -3.381917e-02f, -8.274787e-02f, -1.009853e-01f, -7.289181e-02f, -1.604859e-02f, 6.852527e-02f, 6.430968e-02f,
  -5.808382e-02f, -9.453727e-02f, -1.255380e-01f, 3.837112e-02f, -1.995013e-02f, 6.071034e-03f, 2.222377e-02f, 8.012828e-02f,
  -7.704014e-02f, 6.234141e-02f, 2.413723e-02f, 3.673508e-02f, -1.967764e-02f, -2.280017e-02f, -1.677790e-02f, 1.264995e-01f,
  7.686122e-02f, 9.687433e-02f, 8.011585e-02f, 5.557748e-03f, -1.199093e-02f, -2.655479e-02f, 3.369845e-02f, -4.848287e-02f,
  -9.475089e-02f, -4.951872e-02f, 2.823817e-02f, -2.344052e-02f, 4.013210e-02f, 9.515910e-02f, 9.147613e-02f, 4.563309e-02f,
  -1.185747e-01f, -6.974331e-02f, 5.087714e-02f, -3.992533e-02f, -1.581869e-01f, 5.726028e-02f, -5.365168e-02f, -7.033530e-02f,
  -2.524892e-02f, -1.045344e-01f, -4.168007e-02f, -5.493165e-02f, 9.201206e-02f, -4.206990e-02f, 1.751915e-02f, -9.389821e-02f,
  -1.156087e-01f, 5.766586e-02f, -6.417264e-03f, -6.171909e-03f, -2.695341e-02f, 1.345350e-01f, 1.658216e-01f, 4.954943e-02f,
  1.185805e-02f, 2.877474e-02f, -7.670507e-02f, -1.157141e-01f, 1.537657e-02f, 1.590114e-02f, 6.996191e-02f, 1.970362e-02f,
  5.064681e-02f, 4.558005e-02f, 3.505434e-02f, -6.490082e-02f, -6.107466e-02f, 7.070884e-03f, 2.531212e-02f, -3.884771e-02f,
  -6.806340e-02f, -8.177366e-02f, 7.750524e-02f, 9.488306e-02f, -3.152740e-03f, 6.651704e-03f, -5.719647e-02f, -4.301612e-02f,
  2.154653e-02f, 6.884037e-02f, -6.616145e-02f, -5.344113e-02f, 6.417669e-02f, 6.356851e-02f, -9.476418e-02f, 7.136676e-02f,
  6.970704e-02f, 2.272296e-02f, -4.658703e-02f, -6.927034e-02f, -1.038218e-01f, -5.279770e-02f, -9.183422e-02f, 4.099316e-02f,
  3.071778e-02f, 4.757769e-02f, -7.163821e-03f, 6.356342e-02f, -8.284545e-02f, -3.288398e-03f, -2.844736e-02f, 3.150714e-02f,
  -4.734556e-02f, 4.051289e-02f, 5.936712e-02f, 7.457491e-02f, -4.476457e-02f, -6.960272e-02f, -1.401462e-01f, 1.913627e-02f,
  -1.538137e-02f, -1.931992e-02f, -2.127833e-02f, 6.192190e-02f, -6.550830e-02f, 6.736642e-02f, -9.231640e-02f, 8.094745e-02f,
  4.366384e-02f, 7.440848e-02f, 9.083498e-02f, 8.971338e-02f, 1.188192e-01f, -7.805554e-02f, -8.677252e-02f, 4.428687e-02f,
  -6.551091e-02f, 1.451647e-02f, 5.384462e-02f, -8.251032e-02f, -1.429408e-02f, 3.995070e-02f, 1.534747e-02f, -4.758233e-02f,
  -9.965014e-02f, 4.327407e-02f, -1.279750e-02f, -5.006985e-02f, -1.536510e-02f, -2.102689e-02f, 8.960669e-02f, 4.780816e-02f,
  -6.302503e-02f, -4.271699e-02f, 5.067412e-03f, 9.009710e-02f, -1.325468e-02f, -4.825057e-02f, -9.952832e-04f, 1.763791e-02f,
  -5.794136e-02f, -8.394260e-02f, -6.421234e-02f, -5.999355e-02f, -2.853014e-02f, -8.002046e-02f, 6.385861e-02f, 1.913659e-02f,
  -4.358615e-02f, -6.275459e-02f, 6.037515e-02f, 7.427453e-02f, 1.822052e-02f, 1.075233e-01f, 4.208474e-02f, 7.743817e-02f,
  -7.531802e-02f, 8.442846e-02f, -1.249518e-02f, -6.537466e-02f, 6.304124e-02f, 8.332138e-02f, -6.438801e-02f, 1.655477e-02f,
  -2.426402e-02f, -2.982966e-02f, -7.478961e-02f, -5.914091e-03f, 3.786333e-02f, 1.508766e-02f, -5.079898e-02f, 1.102087e-01f,
  1.654909e-02f, -1.106891e-01f, 6.680205e-03f, 4.582136e-03f, 1.102398e-01f, 4.190052e-02f, 3.326147e-02f, 2.798557e-02f,
  5.384149e-02f, -5.555986e-02f, 6.121297e-02f, 5.874458e-02f, -8.517592e-02f, -8.013703e-02f, -7.765394e-02f, -8.046236e-03f,
  -3.990983e-02f, 7.309940e-02f, -5.817146e-03f, -2.197920e-02f, 1.108353e-01f, -8.416523e-02f, -2.340461e-02f, 7.957453e-02f,
  -5.303090e-02f, 6.609463e-02f, -7.840592e-02f, 3.772287e-02f, -2.983862e-02f, -4.292210e-02f, 5.417565e-02f, -7.231229e-02f,
  -1.246440e-01f, 7.725422e-02f, 3.182192e-02f, 5.127192e-02f, -1.233962e-04f, -1.445273e-02f, 3.054291e-04f, 4.573513e-02f,
  1.249025e-01f, -2.277770e-01f, 5.180842e-02f, -4.431551e-02f, -2.676339e-02f, 8.579156e-02f, -5.204178e-02f, 4.473152e-02f,
  -2.257246e-02f, -2.053984e-02f, -4.235762e-02f, 7.096614e-02f, 1.119225e-01f, -3.981606e-02f, 7.455265e-02f, 6.288476e-02f,
  -8.844119e-02f, 1.913106e-02f, -7.697219e-02f, 2.605302e-02f, 5.393610e-02f, -2.396909e-02f, -1.030524e-01f, -5.409363e-02f,
  -6.897108e-02f, -6.223803e-02f, -1.100093e-02f, -2.260550e-02f, -4.414625e-02f, -5.086106e-02f, -1.013695e-01f, 5.560620e-02f,
  -5.190294e-02f, -1.495670e-01f, -5.870380e-02f, 5.628112e-02f, 1.150942e-01f, 1.973318e-03f, 1.450095e-01f, 2.124035e-02f,
  -4.032877e-02f, -2.321452e-02f, -5.659728e-02f, -7.824781e-02f, 2.655613e-02f, 1.304454e-01f, 2.206271e-02f, -1.006274e-02f,
  -1.365713e-01f, -2.016257e-02f, 9.785780e-02f, 7.433741e-02f, -2.431888e-03f, -2.089640e-01f, 6.371542e-02f, -7.642838e-02f,
  -1.178091e-01f, -1.296862e-01f, -5.929260e-02f, -5.516589e-02f, -1.010716e-01f, -8.103825e-03f, 6.566873e-02f, -1.269269e-02f,
  4.113263e-02f, 8.582428e-02f, 1.969315e-02f, 1.305033e-03f, -3.512019e-02f, 6.874369e-02f, 1.386440e-01f, -1.545720e-01f,
  -1.862911e-01f, 4.207177e-02f, -4.443262e-02f, -4.161722e-02f, -1.611937e-02f, -1.514292e-01f, -9.219849e-02f, 6.569003e-03f,
  8.925676e-02f, 5.230169e-02f, -1.864318e-02f, -2.743383e-02f, -7.520726e-02f, 8.259200e-02f, -9.188633e-04f, -1.396537e-02f,
  4.544249e-02f, -5.970456e-02f, 9.153890e-04f, -1.004731e-01f, -1.791217e-02f, -9.155489e-03f, 1.480919e-01f, -1.338527e-01f,
  -7.721660e-02f, -1.025640e-01f, -1.831926e-01f, -1.292490e-01f, -2.613507e-02f, 4.378552e-02f, -7.390582e-02f, -1.722471e-01f,
  -1.090315e-01f, -2.100917e-02f, 9.398623e-02f, -3.632476e-02f, -6.437524e-02f, -2.451339e-01f, 1.632396e-01f, 4.359008e-02f,
  1.861562e-01f, 2.673422e-02f, 9.297644e-02f, -9.447052e-02f, -6.024765e-02f, 1.226519e-01f, 1.346822e-01f, 1.312742e-01f,
  -6.619395e-03f, -6.656826e-02f, 6.088633e-03f, -1.891371e-02f, -2.171252e-02f, -7.495515e-02f, -1.210367e-02f, 1.201398e-01f,
  -7.354046e-02f, -5.897170e-03f, -3.501159e-02f, -9.880426e-02f, -7.452460e-02f, 3.360276e-02f, 5.686142e-02f, -1.027551e-01f,
  -6.619894e-02f, -8.007420e-02f, 6.691305e-02f, 8.495583e-02f, 3.918718e-02f, 7.508291e-02f, -2.708911e-02f, 2.817918e-02f,
  -1.343728e-01f, 5.419724e-03f, 8.027356e-02f, 2.934789e-02f, 4.404707e-02f, -4.358003e-02f, 8.241238e-02f, -2.034815e-02f,
  -6.157438e-02f, 2.168676e-02f, 1.296366e-01f, 1.318910e-01f, -1.931768e-02f, 3.000243e-02f, -6.344438e-02f, -4.004977e-02f,
  3.884903e-02f, 1.131725e-01f, 1.102552e-01f, 6.567071e-02f, 2.129312e-02f, 3.719245e-02f, 5.643253e-02f, 1.311982e-02f,
  1.065149e-01f, 1.667654e-02f, -2.339685e-02f, 1.220104e-02f, 1.346377e-02f, -7.997295e-02f, 1.205214e-02f, -5.382909e-02f,
  -5.698688e-02f, -1.247229e-01f, 7.598455e-02f, 4.870979e-02f, 1.066145e-01f, -5.617167e-03f, -3.856284e-02f, 2.443744e-02f,
  -5.200932e-02f, -1.748159e-01f, -9.090185e-02f, 6.255033e-02f, 7.540269e-02f, 2.309195e-01f, 7.553574e-03f, 8.913645e-02f,
  -4.270820e-02f, -3.332151e-02f, 9.758337e-02f, -1.780110e-03f, -6.631487e-03f, 3.181364e-02f, -7.746976e-02f, 9.998462e-02f,
  -3.233489e-02f, -4.458801e-02f, 8.961044e-02f, 7.343649e-02f, -7.683722e-02f, -9.406757e-02f, -4.119471e-02f, -9.452494e-02f,
  -5.426082e-03f, 2.585733e-02f, 1.697837e-02f, -4.605766e-02f, -9.616348e-02f, -4.157085e-02f, -7.149613e-02f, -8.526360e-02f,
  4.552475e-02f, -2.006497e-02f, -3.477389e-02f, -8.944138e-02f, 8.013150e-02f, -1.363648e-02f, 5.683292e-02f, -8.169342e-02f,
  7.134967e-03f, 1.050823e-01f, -3.835347e-02f, -8.006061e-02f, -6.476929e-03f, 1.397416e-01f, -4.888782e-02f, -8.979218e-02f,
  -5.516990e-02f, -1.121113e-01f, -9.679962e-02f, 1.927540e-02f, -5.363903e-02f, 6.422430e-02f, -5.956861e-02f, -8.698048e-03f,
  7.344219e-02f, -5.947198e-02f, -7.866248e-02f, -1.599026e-01f, 6.037935e-02f, 5.010360e-02f, -3.342866e-02f, 1.155050e-02f,
  -5.993270e-02f, -1.587974e-01f, 6.647899e-02f, -1.351692e-01f, -7.504008e-02f, -1.111020e-01f, 9.044883e-02f, 1.517248e-03f,
  6.273745e-03f, -6.082327e-02f, 5.475884e-03f, 4.551752e-02f, -3.446116e-01f, -1.647974e-01f, -9.123221e-02f, -6.627309e-02f,
  1.550948e-02f, -7.311448e-02f, -3.952645e-02f, 2.228951e-02f, -2.160378e-02f, 1.180008e-02f, 6.153138e-02f, 8.105894e-02f,
  6.354115e-03f, 4.264320e-02f, 4.164074e-03f, -5.231028e-02f, 2.407406e-03f, 4.765269e-02f, -4.946956e-02f, -1.613847e-01f,
  -6.249337e-02f, -2.670882e-01f, -3.119280e-01f, -3.540504e-01f, -2.251819e-03f, 7.712436e-02f, 2.707885e-02f, -1.700114e-01f,
  2.591616e-02f, 8.613423e-02f, 3.523222e-01f, -2.301753e-01f, -1.399419e-01f, 6.474050e-02f, -1.023774e-02f, 1.124207e-01f,
  -3.640701e-02f, 5.424561e-02f, 2.537662e-02f, 6.324662e-03f, 8.356160e-03f, -1.211276e-01f, -9.626168e-03f, -2.769130e-02f,
  2.229671e-02f, 8.850494e-02f, 3.515676e-02f, -8.597168e-02f, 2.305340e-02f, 1.627953e-03f, -5.777280e-02f, 2.360383e-02f,
  -3.685682e-02f, -1.414578e-02f, 2.086342e-02f, -7.168335e-02f, 9.701905e-02f, -5.149531e-02f, -9.758059e-02f, 1.939413e-02f,
  1.353484e-01f, 5.988483e-02f, 1.071591e-01f, 6.664906e-02f, -7.238355e-02f, -3.364982e-02f, -1.403519e-02f, -3.272980e-02f,
  2.700325e-03f, -2.562372e-03f, 6.516879e-02f, -3.342127e-02f, 6.215332e-02f, 1.258042e-02f, -5.170669e-02f, -4.924111e-02f,
  7.588352e-02f, -5.407897e-02f, -1.046256e-01f, -4.924615e-02f, -5.404757e-02f, 7.889795e-03f, -7.680714e-02f, -1.280649e-02f,
  2.780063e-02f, -2.850272e-02f, 6.208557e-02f, -6.584946e-02f, 8.770971e-02f, -7.959124e-03f, -6.191384e-02f, 1.161316e-01f,
  -1.964856e-02f, -2.523666e-02f, 5.311108e-02f, -1.589616e-01f, -1.611453e-02f, 3.208439e-02f, 1.008491e-01f, 7.961313e-02f,
  5.342015e-02f, -1.532718e-02f, -4.071987e-02f, -5.934187e-02f, -1.223935e-01f, -1.284785e-04f, 5.918040e-02f, 2.303401e-03f,
  -1.261112e-02f, 7.235824e-02f, -1.077834e-01f, 6.769007e-02f, 4.657256e-02f, 1.120156e-01f, -5.652415e-02f, -7.116242e-02f,
  4.926788e-02f, 1.585627e-02f, -9.778337e-02f, 1.706593e-02f, -3.734812e-02f, -8.123251e-02f, 6.415021e-02f, 3.082749e-02f,
  -7.723326e-02f, 2.949667e-02f, 1.193838e-01f, -5.545659e-02f, -1.722889e-02f, 1.150185e-01f, -4.938724e-02f, -6.410175e-02f,
  -1.258478e-02f, -2.423115e-01f, -6.870705e-02f, 6.785113e-03f, -5.536961e-03f, 4.211130e-02f, 4.536377e-02f, 3.560321e-02f,
  -5.597460e-03f, -3.536096e-02f, 1.052935e-01f, 2.730396e-02f, -8.760536e-02f, 9.350674e-02f, 3.384339e-03f, -5.352549e-02f,
  5.963809e-02f, -4.612171e-02f, -4.819296e-02f, -1.188967e-02f, 1.225489e-01f, 7.360029e-02f, -1.163435e-01f, -1.399247e-01f,
  8.607402e-02f, 8.081458e-02f, -4.684005e-02f, -4.064775e-02f, -7.281758e-02f, 3.900393e-02f, -1.126944e-01f, 1.608436e-03f,
  1.240920e-01f, 2.794711e-02f, 1.060384e-01f, 6.286094e-02f, 5.493681e-02f, -4.328581e-02f, -5.543452e-02f, 6.608496e-02f,
  -2.685511e-02f, -5.772673e-02f, -6.571672e-02f, 4.116899e-02f, -2.165967e-04f, 5.174848e-02f, -5.679685e-02f, -1.146834e-01f,
  -1.696219e-02f, 4.296617e-02f, -8.065253e-02f, 1.343158e-01f, -2.084766e-02f, -2.348741e-02f, 6.830100e-02f, 7.795148e-02f,
  2.319655e-02f, -1.905928e-02f, -1.526435e-03f, -1.037806e-01f, -9.645838e-02f, -4.877555e-02f, -1.159650e-01f, -7.323663e-02f,
  -6.679446e-02f, -1.202180e-01f, 1.044688e-02f, -1.622496e-03f, 2.185240e-04f, -1.561501e-02f, 4.654566e-02f, -9.849615e-02f,
  -1.991608e-02f, 9.284365e-03f, -1.420362e-02f, -2.382033e-02f, 1.094796e-03f, -9.324015e-02f, 6.047994e-03f, 2.111569e-02f,
  -9.803307e-02f, -5.070230e-02f, 9.173506e-02f, 2.477009e-02f, 2.687684e-02f, 5.003347e-02f, -1.057939e-03f, 3.594082e-02f,
  -7.843787e-02f, 4.101265e-02f, 1.503583e-02f, -7.196188e-02f, 6.221196e-02f, -3.088175e-02f, 4.314909e-02f, 5.259153e-02f,
  -2.456850e-02f, -2.748986e-02f, 9.502400e-02f, -8.187789e-02f, 1.738851e-03f, 9.216999e-02f, 3.330499e-02f, 4.545721e-02f,
  6.938554e-02f, 5.283203e-03f, -1.537497e-02f, 9.026590e-03f, 1.920001e-02f, 1.094033e-01f, 4.877612e-03f, 3.492707e-02f,
  -4.323463e-02f, -6.964148e-02f, 3.448777e-02f, 9.117955e-02f, -8.344990e-02f, 8.460168e-02f, 8.806739e-02f, 2.518859e-03f,
  -1.063892e-03f, 8.806527e-02f, -8.125349e-02f, 2.954080e-02f, -3.695090e-02f, 6.424985e-02f, -5.942282e-02f, 8.826338e-02f,
  -2.997709e-02f, 1.109577e-01f, 8.743189e-02f, 2.059615e-02f, -3.789992e-02f, 1.039030e-01f, -1.250996e-02f, -7.587654e-02f,
  -9.342246e-02f, -5.072713e-02f, 3.342551e-02f, -4.308616e-02f, 1.486305e-01f, 6.238108e-02f, 2.311609e-02f, -3.018335e-02f,
  -6.929544e-02f, -2.787274e-02f, 1.076112e-01f, 7.547289e-02f, -2.777086e-03f, 2.745077e-03f, 1.100844e-01f, 6.386054e-02f,
  7.313492e-02f, -1.429608e-01f, -1.851865e-01f, 5.562700e-03f, -1.455813e-01f, -1.063852e-01f, -1.184705e-02f, 7.259429e-02f,
  8.539356e-02f, 1.017701e-02f, -3.667988e-02f, -1.389654e-02f, -6.888360e-03f, -2.118363e-02f, 3.024465e-02f, -4.971607e-02f,
  3.712150e-02f, 2.563560e-02f, -1.597792e-02f, -2.401531e-02f, -1.630037e-01f, 9.660948e-04f, -1.382612e-01f, -1.742747e-01f,
  3.558113e-02f, 9.388875e-02f, -4.773311e-02f, -6.551680e-02f, 3.826622e-02f, 1.188694e-01f, -1.706153e-01f, -7.638584e-03f,
  -1.126373e-01f, -5.298397e-02f, 4.103135e-02f, 7.064094e-02f, 6.515466e-02f, -1.010218e-01f, -5.445220e-02f, -4.496539e-02f,
  -1.130915e-01f, -1.368538e-01f, 5.207739e-02f, 8.424399e-02f, 3.292782e-02f, 7.947957e-02f, 6.264941e-02f, -5.005931e-02f,
  -2.761855e-03f, 1.831669e-02f, 8.540365e-02f, 1.005770e-01f, -8.766089e-02f, 6.015163e-02f, -1.184416e-01f, -8.865481e-03f,
  -6.569428e-02f, 6.624477e-02f, -3.165225e-02f, 9.502544e-02f, 7.953797e-02f, -9.800262e-03f, 5.720304e-02f, -1.214229e-01f,
  -1.576954e-01f, 7.000645e-02f, 3.972679e-02f, -1.316483e-02f, 1.197567e-01f, -9.437169e-02f, 1.307571e-01f, -3.222952e-02f,
  5.863448e-02f, -1.135739e-02f, 3.142009e-02f, 3.124627e-03f, -2.326771e-02f, 9.209253e-02f, 7.108331e-02f, 1.669951e-01f,
  6.671289e-02f, 4.605478e-02f, 5.174905e-02f, -6.119035e-02f, -4.014187e-02f, -2.752117e-02f, -3.199964e-03f, 1.370567e-01f,
  6.627287e-02f, -9.219047e-02f, 7.514820e-02f, 4.652755e-02f, -4.491900e-02f, -4.891956e-02f, -2.661707e-01f, 1.169598e-01f,
  -5.941281e-02f, -7.996492e-02f, 4.343451e-02f, -1.507035e-01f, -8.517633e-02f, -1.239770e-02f, 6.099126e-02f, -1.219432e-01f,
  -9.495244e-03f, 1.927969e-02f, -5.942049e-02f, 3.093122e-02f, 3.072363e-02f, 2.056081e-02f, 3.884077e-02f, -5.918976e-02f,
  3.137568e-02f, 3.365405e-01f, -1.229697e-02f, -1.660106e-01f, 1.673043e-01f, -1.603208e-01f, 6.710677e-03f, -1.308837e-02f,
  -7.225914e-02f, 1.433224e-01f, -1.371410e-01f, 3.883745e-02f, 6.997186e-02f, -5.444050e-02f, -1.291188e-01f, -8.551635e-02f,
  1.228144e-01f, 1.119969e-01f, -1.544233e-01f, 4.098582e-02f, 6.465188e-02f, -1.290847e-01f, -2.414378e-01f, 2.345025e-01f,
  -1.060484e-01f, -8.503406e-02f, -3.669329e-02f, -5.998774e-02f, 2.347395e-02f, 6.995199e-03f, -9.705618e-03f, -1.601411e-01f,
  4.067935e-02f, 1.267162e-02f, 6.114350e-02f, -3.393804e-02f, -3.181402e-01f, 6.542447e-02f, -1.350746e-01f, 6.110758e-02f,
  1.078958e-01f, -2.200448e-02f, 1.143793e-01f, 6.174093e-02f, 8.263294e-02f, -3.999573e-01f, 4.233479e-01f, 1.510493e-03f,
  -1.015955e-01f, 1.176055e-01f, 1.326414e-01f, 8.219254e-02f, 3.640543e-02f, 3.367581e-03f, 5.417643e-02f, -1.145777e-01f,
  1.325571e-02f, -5.901581e-02f, -9.269669e-02f, -6.477339e-02f, 4.972072e-02f, -1.132067e-02f, 3.276135e-02f, -1.397039e-02f,
  -8.403443e-02f, 1.563014e-01f, 2.117995e-02f, 1.923000e-02f, 1.936544e-01f, 1.408157e-01f, -8.485547e-02f, 1.063670e-02f,
  -1.454954e-01f, 1.948257e-01f, 2.241752e-02f, -9.196623e-02f, 2.348664e-01f, -2.421737e-02f, 4.394650e-02f, -1.024064e-01f,
  -9.792400e-02f, -9.521053e-02f, 2.011189e-01f, -1.078518e-01f, -1.912559e-01f, 4.983984e-02f, -4.710693e-02f, -4.531691e-03f,
  -1.922875e-01f, -1.114727e-01f, -3.387743e-01f, 3.606679e-02f, -1.246164e-01f, -1.521799e-02f, 2.647413e-02f, -1.011760e-01f,
  -1.152234e-01f, 1.246629e-02f, 1.286651e-01f, 2.243967e-02f, 5.141677e-02f, -3.846535e-02f, -1.727195e-01f, 4.961544e-02f,
  -5.519931e-02f, 1.542221e-02f, -1.267395e-01f, -7.320560e-02f, 6.748771e-02f, 8.646619e-02f, 8.944129e-03f, 2.909756e-02f,
  1.520485e-01f, -2.208040e-01f, 4.784238e-02f, 3.454340e-02f, 9.814791e-02f, -9.206597e-02f, 6.906383e-02f, 1.012685e-01f,
  -1.201753e-02f, -8.681682e-02f, -6.678709e-02f, -3.562508e-02f, -9.582984e-02f, -2.858623e-02f, 2.734386e-02f, 2.114264e-02f,
  -4.587653e-02f, -5.982941e-02f, -8.765870e-02f, 8.608849e-02f, 2.867447e-02f, -4.487726e-02f, -4.344043e-02f, -8.430971e-02f,
  -7.680599e-02f, 4.251884e-02f, 2.664513e-02f, 3.635256e-02f, 7.981450e-02f, 1.308781e-02f, 3.712868e-02f, -5.754221e-03f,
  1.712601e-01f, 4.187810e-03f, 1.720471e-01f, 1.043744e-01f, 2.300457e-01f, -1.581785e-01f, 1.039870e-02f, -1.207919e-02f,
  -8.804918e-02f, -2.044466e-02f, 3.101852e-02f, -1.722128e-01f, 4.010572e-02f, 9.872224e-02f, 2.550486e-02f, -7.921090e-02f,
  6.310196e-02f, -3.462452e-02f, 2.096568e-01f, -1.279264e-01f, 2.760659e-02f, 1.527691e-01f, 1.039432e-01f, 2.822790e-02f,
  1.293209e-01f, -5.232739e-02f, -1.108523e-02f, -6.949834e-02f, 1.981024e-01f, 1.295881e-01f, 1.271240e-01f, 5.111264e-02f,
  1.203833e-01f, 1.765593e-02f, -7.177664e-02f, -9.750454e-02f, 1.343715e-01f, -6.898949e-02f, -1.403551e-02f, -1.062389e-02f,
  -2.355723e-02f, 2.221155e-03f, -7.406118e-02f, 1.844243e-01f, -8.291715e-02f, 6.954634e-02f, 1.251952e-02f, 2.406025e-03f,
  5.662334e-02f, 1.080025e-01f, -5.309624e-03f, -1.774363e-01f, -2.183770e-03f, 1.143317e-01f, 8.678710e-02f, -1.187807e-02f,
  -1.096085e-02f, -8.235396e-02f, -8.313186e-02f, 3.434435e-02f, 9.934025e-03f, -2.393777e-01f, -6.771709e-02f, -4.587642e-03f,
  8.493164e-02f, -1.137988e-01f, -2.837597e-01f, 1.407058e-01f, -2.838741e-01f, 8.594763e-02f, 4.428377e-02f, 1.205303e-01f,
  6.568147e-02f, 4.391457e-02f, 4.425244e-02f, 5.373973e-02f, 5.339806e-03f, -7.470371e-02f, 1.581240e-01f, 1.450279e-03f,
  -1.543438e-01f, -1.967483e-01f, 9.317706e-02f, 5.423122e-02f, -9.665668e-02f, 2.770360e-01f, -1.358168e-01f, -5.411679e-02f,
  -1.159744e-01f, -1.043764e-01f, -1.372012e-01f, 7.344317e-02f, -1.172214e-01f, 5.189858e-02f, 5.819805e-02f, -8.772714e-02f,
  7.900330e-02f, 7.300040e-03f, -3.289803e-02f, -3.469240e-03f, -1.064411e-01f, -6.364888e-02f, 3.432081e-02f, 4.489143e-02f,
  4.527639e-02f, -5.567681e-02f, -4.599597e-02f, -1.661256e-02f, 5.445897e-02f, 1.266099e-02f, -7.858798e-02f, -1.414951e-02f,
  5.226699e-02f, 8.337136e-02f, 9.888618e-02f, 8.628031e-03f, -6.662526e-02f, -6.899986e-02f, 2.312641e-02f, 1.007185e-01f,
  9.184423e-02f, -1.251767e-02f, -3.557521e-02f, -6.008031e-02f, -4.980897e-02f, -7.420270e-02f, -2.484218e-02f, -1.831468e-01f,
  -1.067951e-01f, -3.481755e-02f, -1.276956e-01f, 8.134132e-02f, 5.711162e-02f, 9.603611e-02f, 5.757591e-02f, 3.655670e-02f,
  -5.839047e-02f, 7.600267e-02f, -6.915830e-02f, -3.729082e-02f, -4.473231e-02f, -7.565470e-03f, 1.317163e-02f, -4.123379e-02f,
  -8.905758e-03f, 5.423192e-02f, -1.427252e-02f, -1.962624e-02f, -6.517223e-02f, 5.542290e-02f, -5.256276e-02f, 5.691344e-02f,
  -9.076138e-02f, 6.436081e-03f, 3.740013e-02f, -5.452747e-02f, -9.334888e-02f, 7.613315e-02f, 4.899756e-02f, -4.988886e-02f,
  -4.319830e-02f, 3.450342e-02f, 1.024613e-02f, 6.155889e-03f, 2.088122e-02f, -1.701108e-02f, -2.513899e-03f, 4.962403e-02f,
  -2.710368e-02f, -7.992310e-03f, 2.026738e-02f, 1.084047e-01f, 7.661448e-02f, 1.374587e-01f, 2.495236e-02f, 4.072465e-02f,
  2.374110e-02f, 2.064444e-02f, 4.520757e-02f, -4.562001e-02f, 2.715703e-02f, -6.438005e-02f, -7.617084e-02f, -2.911783e-02f,
  5.693071e-02f, -6.079223e-02f, -5.689537e-02f, 3.122098e-02f, -3.954707e-02f, -4.419530e-02f, -7.248395e-02f, 4.694990e-02f,
  -1.982513e-02f, -5.566061e-02f, 3.672230e-02f, -6.644256e-02f, -9.651430e-02f, 7.416221e-02f, 8.230029e-02f, 3.131951e-04f,
  -4.147180e-03f, 1.759928e-02f, 4.912989e-03f, -4.206269e-03f, -3.068968e-03f, 9.145620e-02f, -9.999307e-03f, -1.721928e-02f,
  6.200134e-02f, -6.784295e-02f, -6.174247e-02f, 7.403667e-02f, 8.352098e-02f, -2.154493e-02f, 9.321592e-02f, 1.127705e-01f,
  -9.443730e-03f, -1.003134e-01f, 6.300324e-02f, 5.752866e-02f, 8.640538e-04f, 3.271199e-02f, -1.201423e-01f, -1.725554e-02f,
  7.607587e-02f, -4.927541e-02f, -7.493651e-02f, -1.210011e-01f, -3.536272e-02f, -1.315870e-01f, -7.075192e-02f, -3.069135e-02f,
  -7.756740e-02f, -4.120603e-02f, -8.488801e-02f, 3.900846e-02f, -2.326007e-02f, 2.173987e-02f, -6.159154e-02f, -9.786030e-03f,
  7.490880e-02f, -5.736041e-02f, -7.214974e-02f, 5.459997e-02f, 2.573510e-03f, -5.172855e-02f, -7.318978e-02f, -8.939598e-02f,
  8.383790e-02f, 3.944964e-02f, 1.026122e-01f, 3.306477e-02f, 2.618076e-03f, -3.235640e-02f, -2.808094e-03f, -2.844639e-02f,
  4.288298e-03f, -3.436917e-02f, -6.368818e-02f, -5.667918e-02f, 7.459673e-02f, 2.256957e-02f, 8.159815e-02f, 8.111072e-02f,
  -1.527595e-02f, 9.692429e-02f, 2.223191e-02f, 9.774628e-02f, 2.123421e-02f, -9.056526e-02f, 9.236440e-02f, -9.310296e-02f,
  -2.508449e-02f, 1.493305e-02f, 7.455533e-02f, -5.693753e-02f, -7.509033e-02f, -1.259159e-02f, 6.960426e-02f, 6.440222e-03f,
  1.417871e-02f, 7.649640e-02f, 6.233810e-02f, 4.575278e-02f, 9.390774e-03f, 3.707889e-02f, -2.485830e-02f, 9.613414e-02f,
  -7.668729e-02f, -6.845742e-02f, -4.047502e-02f, -5.055742e-02f, 1.379008e-02f, 4.873371e-02f, 2.806765e-02f, 2.002895e-02f,
  1.298484e-02f, -7.604343e-02f, 1.098214e-01f, 8.368534e-02f, 9.889624e-02f, 3.196687e-02f, -8.828618e-02f, 7.559963e-02f,
  3.968329e-02f, 2.857941e-02f, 8.641274e-02f, 5.480824e-02f, 2.516974e-02f, -6.028671e-02f, -8.279083e-04f, 7.244422e-02f,
  4.945399e-02f, 8.752382e-02f, 1.024594e-01f, 4.457410e-03f, 5.837985e-02f, -2.772938e-02f, 7.296116e-02f, 2.468929e-02f,
  3.379493e-02f, -6.030488e-02f, 1.254563e-01f, 3.751454e-02f, 1.458452e-01f, 7.305018e-02f, 4.906984e-02f, 8.667978e-02f,
  6.375201e-02f, -2.229779e-02f, -1.843670e-02f, -7.364288e-04f, -2.026436e-02f, -1.067635e-02f, 1.363595e-02f, -2.077165e-02f,
  2.072525e-02f, 5.111065e-02f, 2.389379e-02f, -6.747110e-02f, 1.004710e-01f, 6.917106e-02f, 6.542789e-02f, 1.530373e-01f,
  1.083852e-01f, 4.238912e-02f, 1.015846e-02f, 1.514647e-01f, -5.554713e-02f, 1.534512e-02f, 6.624409e-02f, -8.122934e-02f,
  1.165478e-02f, -2.834976e-02f, 2.160016e-01f, -1.070353e-01f, 2.588059e-02f, 6.262439e-02f, 2.652999e-03f, 7.522362e-02f,
  1.145619e-01f, 3.891348e-02f, 9.781622e-02f, -5.619445e-02f, 7.840940e-02f, 2.669805e-02f, -3.535470e-02f, 5.811872e-03f,
  -3.704939e-02f, -3.080457e-02f, -1.157530e-01f, -1.149406e-01f, -3.826021e-02f, 5.621677e-02f, -5.931622e-02f, -1.035883e-01f,
  3.841800e-02f, 3.719710e-02f, -1.469411e-01f, -8.575738e-03f, -5.651737e-02f, 7.063849e-02f, -7.559580e-02f, 9.854182e-03f,
  -5.547543e-02f, 9.247751e-02f, 4.273980e-02f, -5.985582e-02f, -4.101992e-02f, -5.621940e-02f, 3.105223e-02f, -2.723646e-03f,
  -1.258427e-02f, -5.332617e-02f, 5.882179e-02f, 6.414256e-02f, 8.370242e-02f, 9.414005e-02f, 1.175868e-01f, 8.463668e-02f,
  1.141947e-01f, -3.195093e-02f, 1.255786e-02f, 3.335429e-02f, -9.564748e-02f, -9.001589e-02f, -7.541554e-02f, 7.464173e-02f,
  9.818496e-02f, 1.298303e-01f, -6.649872e-02f, 7.618784e-02f, -2.546480e-02f, 3.820309e-02f, -4.419660e-02f, 7.771847e-02f,
  1.218304e-01f, -1.537180e-02f, -5.769407e-02f, 7.865255e-02f, -5.745676e-02f, 1.989773e-02f, 1.894333e-02f, -5.638610e-04f,
  6.398943e-02f, 4.535773e-02f, -4.092947e-02f, -5.653835e-02f, 5.772008e-02f, 6.642336e-02f, -2.000708e-02f, -8.223305e-03f,
  6.074374e-02f, 9.688845e-06f, -1.181641e-02f, 1.532539e-02f, 6.457488e-02f, -3.251077e-02f, -2.480137e-02f, 1.265766e-01f,
  9.168545e-02f, 6.934115e-02f, 7.791007e-02f, -6.902558e-02f, -7.812382e-02f, 9.432361e-02f, -6.792190e-02f, 1.006398e-01f,
  1.096491e-01f, -8.367793e-02f, 9.281921e-02f, 9.642665e-02f, -3.797200e-02f, 4.904469e-02f, -1.043109e-01f, -1.095551e-01f,
  3.336457e-03f, 3.204566e-02f, -4.035795e-02f, -6.373171e-03f, 1.218146e-02f, -5.313562e-02f, 3.658209e-02f, 8.175991e-02f,
  -1.002410e-01f, 9.451683e-02f, 2.776767e-03f, 1.390337e-02f, -2.808987e-02f, 1.745515e-02f, 1.326987e-01f, 7.055110e-02f,
  -6.393956e-02f, 1.842726e-02f, -6.892558e-02f, 7.545715e-02f, 1.375029e-01f, 1.265860e-02f, 3.502151e-02f, -2.231705e-03f,
  -5.658213e-02f, 5.828840e-02f, -1.102989e-01f, 1.173728e-01f, -7.770049e-03f, 4.464022e-02f, -7.597966e-02f, 7.151942e-02f,
  -8.907455e-02f, 1.085357e-01f, 9.469979e-02f, 9.524922e-02f, -4.987324e-03f, 9.603219e-02f, -4.357639e-02f, 2.092271e-02f,
  8.657725e-02f, 4.116508e-02f, 2.022163e-02f, 1.573662e-02f, 1.153797e-01f, 5.381811e-02f, 3.610689e-02f, -1.353940e-03f,
  2.984016e-03f, 1.002205e-02f, 6.557979e-03f, -5.826018e-02f, 4.608348e-02f, -5.081981e-02f, -1.250327e-03f, -7.057544e-02f,
  -4.325791e-02f, 1.085715e-01f, 1.278159e-01f, 1.666838e-02f, -3.974511e-02f, 3.897676e-02f, 1.037907e-01f, 5.118898e-02f,
  1.100954e-01f, 6.593663e-02f, -7.737287e-02f, 5.365979e-02f, -7.185816e-02f, -7.861666e-02f, -5.826602e-02f, 2.669451e-02f,
  4.557230e-02f, -2.931294e-02f, -8.775728e-02f, -5.319535e-02f, 1.435873e-02f, 1.633005e-02f, 6.813516e-02f, 1.050765e-01f,
  -2.177516e-02f, 1.360689e-03f, 9.271096e-02f, 7.132310e-02f, 8.028322e-02f, -4.898518e-02f, -8.542001e-02f, -6.996893e-02f,
  1.300171e-01f, -3.360793e-03f, 6.439345e-02f, -7.986213e-03f, -4.265365e-02f, 1.819918e-02f, 9.353954e-02f, -7.350655e-02f,
  -5.444607e-02f, 4.057589e-02f, 6.077668e-02f, -5.021857e-02f, 3.087730e-02f, 4.449277e-02f, 7.758438e-03f, 7.980487e-02f,
  -7.379010e-02f, -1.759499e-02f, -3.169696e-02f, -4.270041e-02f, 1.215351e-02f, 9.103861e-02f, -8.908902e-02f, -6.389420e-02f,
  -1.011758e-01f, 1.677468e-02f, -5.047681e-02f, 5.930855e-02f, -4.363337e-02f, 8.805241e-02f, -5.028127e-02f, 1.588311e-02f,
  -6.858428e-02f, -1.657522e-02f, 1.058332e-03f, -8.452530e-02f, 6.291456e-02f, -3.739148e-02f, 3.213799e-02f, 7.909133e-02f,
  1.042863e-01f, 1.819976e-02f, -3.193968e-02f, 7.471499e-02f, 1.913528e-02f, 8.066744e-02f, -8.337899e-02f, 2.766575e-02f,
  4.337282e-02f, 5.851294e-02f, -4.655524e-02f, -8.267152e-02f, 7.352421e-02f, -3.109875e-02f, -2.965404e-02f, 8.767380e-02f,
  -6.640406e-02f, 3.137538e-02f, 1.644698e-03f, -2.120855e-02f, -1.182237e-02f, 8.818185e-02f, 3.407190e-02f, 9.281205e-02f,
  -9.801111e-02f, 1.247974e-02f, -6.418808e-02f, 3.943116e-02f, 3.771284e-02f, -1.160948e-01f, -1.134196e-01f, 1.071501e-01f,
  -2.237684e-02f, 7.291980e-02f, -5.167132e-02f, 6.300608e-03f, -3.138944e-02f, 1.016049e-01f, 8.523062e-02f, 6.552592e-02f,
  7.651948e-02f, 6.371526e-02f, 6.335050e-02f, 2.986064e-02f, -6.107220e-02f, 5.728889e-02f, -9.726160e-02f, 1.184638e-04f,
  1.838468e-02f, 2.449226e-02f, 5.687583e-03f, -9.920213e-02f, 3.873025e-02f, -6.230866e-03f, 4.056173e-02f, -3.351833e-02f,
  -1.874261e-02f, -7.505120e-02f, -1.717553e-01f, 1.782279e-01f, -2.324506e-02f, 6.802848e-02f, 8.436880e-02f, -5.729198e-02f,
  -7.815318e-02f, -2.020236e-02f, -5.748824e-02f, 9.652282e-02f, -5.544086e-02f, -6.975104e-03f, -6.404620e-02f, 1.024019e-01f,
  6.000242e-02f, 1.145474e-02f, 1.464747e-01f, 4.633851e-02f, 2.606456e-02f, -2.030963e-02f, 6.622761e-02f, 1.030488e-01f,
  3.902170e-02f, 9.504051e-02f, -4.491175e-03f, 1.433285e-01f, 1.228010e-01f, -1.548796e-02f, -3.251573e-02f, -6.726661e-02f,
  1.600264e-01f, 3.205510e-02f, -4.313337e-02f, -6.237027e-02f, -9.254259e-02f, 4.362834e-02f, 5.891578e-02f, 1.960032e-01f,
  -6.973199e-02f, 4.053454e-02f, 2.081382e-01f, -9.553974e-02f, -9.250996e-02f, 1.465311e-01f, -3.242209e-02f, 4.902653e-02f,
  -1.973865e-02f, 5.156957e-02f, 8.913942e-02f, 3.500694e-02f, 5.606816e-02f, 1.845066e-01f, -2.225472e-02f, -2.734381e-02f,
  -6.271136e-03f, 1.397438e-01f, 1.963769e-02f, 7.723351e-02f, 6.073749e-02f, -1.712478e-01f, -8.896717e-02f, 2.895872e-02f,
  -2.392849e-02f, -2.200567e-01f, -1.818499e-01f, 1.465177e-01f, 3.309105e-02f, 1.481556e-01f, 5.864304e-02f, -1.746765e-02f,
  -1.766730e-01f, -3.961068e-02f, 1.101978e-01f, 2.016701e-01f, 6.623944e-02f, -6.148895e-02f, 8.126968e-02f, -7.218522e-02f,
  2.584012e-03f, 2.383327e-01f, -9.636196e-02f, -1.974719e-01f, -1.835020e-01f, 2.107239e-02f, 6.920055e-03f, 2.535916e-02f,
  1.554760e-01f, 3.242901e-02f, 1.144227e-02f, -3.817218e-02f, -1.022978e-01f, 1.360367e-01f, 2.366396e-01f, 4.240971e-02f,
  -6.081627e-02f, -9.815904e-03f, -2.542575e-02f, -2.092804e-01f, 1.411216e-01f, 4.365914e-02f, 9.687303e-02f, 2.948203e-02f,
  9.998482e-02f, -1.519047e-01f, 4.128721e-02f, 1.559447e-01f, 6.263032e-02f, 1.410493e-01f, -1.730280e-01f, -7.570219e-02f,
  -3.543081e-02f, -7.437638e-02f, 2.059124e-01f, 1.033969e-02f, 2.873415e-02f, -3.585564e-01f, 1.183278e-02f, 2.333474e-01f,
  2.108009e-01f, -2.214321e-03f, -3.337380e-01f, 2.816971e-02f, -2.188258e-02f, -6.918973e-02f, -1.395519e-01f, -1.465457e-02f,
  -2.974097e-02f, 9.029909e-03f, 5.125785e-02f, 5.569175e-02f, -4.381779e-03f, 3.053345e-02f, 9.078319e-02f, 4.169092e-03f,
  9.375348e-02f, -1.124511e-01f, 6.992385e-02f, 5.332325e-02f, -8.539664e-03f, -2.305216e-02f, 1.714348e-02f, 1.486745e-01f,
  1.060617e-01f, 4.925212e-02f, 3.974485e-02f, 6.885804e-02f, 3.133415e-02f, -1.656417e-01f, -1.297671e-01f, -7.739436e-02f,
  6.330807e-02f, -4.270999e-03f, -3.848261e-02f, 1.567764e-01f, 1.285241e-01f, 8.112334e-02f, -2.832318e-02f, 2.544766e-02f,
  -7.357394e-02f, 5.348567e-02f, -6.728397e-03f, -1.112677e-02f, -1.273152e-01f, -1.179285e-02f, -4.501987e-02f, 8.884817e-02f,
  3.348670e-02f, -2.410900e-02f, 2.029396e-02f, 7.022929e-02f, 9.858837e-02f, -5.098738e-02f, 9.188117e-04f, 8.249196e-02f,
  7.964624e-02f, 5.957678e-04f, 4.245326e-02f, -8.466747e-02f, 2.189119e-01f, -1.162509e-01f, -1.356346e-01f, -3.404813e-02f,
  7.550586e-02f, 3.569401e-02f, -1.255327e-01f, 1.993757e-02f, 6.116490e-02f, 3.932371e-01f, 4.647991e-02f, -1.769017e-01f,
  -1.058297e-01f, 1.226657e-01f, 7.167549e-02f, -2.118934e-02f, -1.136307e-02f, 6.660537e-02f, -8.030494e-02f, 1.007662e-01f,
  -5.320534e-02f, 6.802741e-02f, -3.266020e-02f, 1.347959e-02f, 4.616790e-02f, -5.938933e-02f, 2.931410e-02f, -8.842861e-02f,
  -8.911891e-02f, -5.557878e-02f, -1.950964e-03f, 7.439768e-02f, -6.222115e-02f, -1.264664e-02f, -4.651513e-02f, 1.053992e-01f,
  2.245734e-02f, -1.092409e-02f, 3.806943e-02f, 4.834029e-02f, 8.850762e-02f, -6.976991e-02f, 2.737117e-02f, 4.957692e-02f,
  -1.640670e-02f, 2.313746e-01f, -7.318056e-02f, -1.276564e-01f, -2.467489e-01f, 1.092601e-03f, 1.476429e-02f, 9.665053e-02f,
  -3.589372e-02f, -1.656117e-01f, 2.320683e-03f, 1.057011e-02f, 9.818969e-02f, 4.786604e-02f, -1.099701e-02f, 2.632526e-02f,
  -9.784108e-02f, -5.720019e-02f, -1.452831e-02f, 2.394864e-01f, 2.498827e-01f, 1.315156e-01f, -2.404231e-01f, -8.721358e-02f,
  3.641756e-02f, -1.173099e-01f, -4.889046e-02f, -1.235010e-01f, -3.502630e-02f, 2.650312e-02f, 5.514011e-02f, 8.093722e-02f,
  1.626627e-02f, -5.846274e-02f, -1.363636e-01f, 5.399076e-02f, 4.364583e-02f, 1.383558e-01f, -5.084416e-02f, 1.702457e-02f,
  2.026592e-02f, 5.564040e-02f, -1.442688e-02f, -7.359412e-02f, -8.428074e-02f, 4.953257e-02f, 2.639308e-01f, -2.832502e-02f,
  -1.742546e-01f, -2.226516e-01f, -2.650515e-02f, 6.406455e-02f, -1.520701e-01f, 3.140008e-02f, 7.556264e-02f, 1.028649e-02f,
  9.348326e-02f, 2.860466e-02f, -2.089590e-02f, 4.865377e-02f, 2.104471e-02f, -2.137871e-01f, 2.105699e-01f, 1.538508e-01f,
  5.658178e-01f, -1.021844e-01f, -1.559388e-01f, 7.567818e-02f, 8.046878e-02f, -1.920559e-02f, -9.806109e-02f, 1.209763e-01f,
  -2.405423e-03f, -9.318274e-02f, 7.771947e-02f, 1.283073e-01f, 5.252672e-02f, -2.446541e-02f, -1.750274e-01f, 1.200501e-02f,
  -1.745386e-01f, 1.189913e-01f, 1.749875e-01f, -1.046904e-01f, -2.097815e-01f, -2.079311e-01f, 1.934429e-01f, -5.902020e-02f,
  2.104454e-01f, -2.068306e-01f, -1.061106e-01f, -1.794971e-01f, 1.399077e-02f, 3.570719e-02f, 1.248279e-01f, 1.881916e-01f,
  3.757970e-02f, -1.606437e-02f, 3.905969e-03f, 3.878853e-02f, -1.209921e-02f, -5.856284e-02f, -5.771534e-02f, 1.023438e-02f,
  -5.406119e-02f, -1.078989e-02f, -2.121903e-02f, 4.348950e-02f, -5.875547e-02f, -5.212082e-02f, 7.387602e-02f, 3.870853e-02f,
  -5.987399e-02f, 3.911350e-02f, 3.108152e-02f, 1.586756e-02f, -2.621230e-02f, -4.546206e-02f, -8.094795e-03f, -6.338973e-02f,
  -5.774928e-02f, -3.035498e-02f, 2.003405e-02f, -4.778480e-02f, 2.093187e-02f, -3.090817e-02f, 9.617403e-02f, 1.755025e-01f,
  1.375228e-01f, 6.612495e-02f, -9.310910e-02f, 6.215806e-02f, -7.206741e-02f, -3.797271e-02f, 3.293005e-02f, 7.158108e-03f,
  -5.127899e-02f, -1.058017e-01f, 7.254042e-02f, 1.053924e-01f, 4.137101e-02f, 6.237103e-02f, -4.430630e-02f, 1.909390e-02f,
  5.299087e-02f, 1.399981e-01f, -7.801921e-02f, 5.853437e-02f, -4.661108e-02f, 9.767891e-02f, -3.218187e-02f, -7.377683e-02f,
  5.701694e-02f, -5.907888e-02f, -1.259673e-02f, -1.037298e-01f, 5.443288e-02f, -1.042923e-01f, 7.291006e-02f, -1.065841e-01f,
  1.473495e-02f, -1.537814e-02f, -3.799518e-02f, -1.480863e-01f, -1.643124e-01f, -7.238486e-02f, -2.032791e-01f, -5.811458e-02f,
  -7.534114e-02f, 9.841800e-02f, 7.360370e-02f, -2.245588e-02f, 7.529040e-03f, 6.365634e-03f, -8.405780e-02f, -7.110621e-02f,
  -2.225839e-02f, -5.518228e-02f, -8.744445e-02f, 2.968020e-02f, -2.938392e-02f, -3.010337e-03f, 8.320329e-02f, 1.209853e-01f,
  -8.990481e-02f, -3.777517e-02f, 7.094682e-02f, 5.091548e-02f, 6.806844e-02f, 7.308376e-02f, -9.052105e-02f, -8.838318e-02f,
  7.132461e-02f, -1.409659e-01f, -1.509000e-02f, -8.576066e-03f, -1.132951e-01f, 7.496319e-02f, -3.824758e-02f, 2.041890e-02f,
  5.350880e-02f, -6.817414e-02f, -6.138892e-02f, -1.242955e-01f, 1.991277e-02f, -4.748939e-02f, 2.276817e-02f, 4.668720e-02f,
  -2.304476e-02f, -3.001421e-02f, 4.958397e-04f, -6.156268e-02f, -3.804351e-02f, -6.623364e-03f, -2.382610e-02f, -7.780277e-02f,
  1.403993e-01f, 1.154405e-01f, -1.817074e-02f, 8.057534e-02f, -4.722419e-02f, -5.692964e-02f, -4.788714e-02f, 8.119613e-02f,
  -1.630232e-03f, -3.835256e-02f, 2.966064e-02f, 5.421580e-02f, 6.721067e-03f, 1.122514e-02f, -8.821747e-02f, 1.153165e-02f,
  7.308144e-02f, 4.097471e-02f, 1.287860e-01f, -2.123318e-02f, -6.232499e-02f, -5.256351e-02f, 2.833691e-02f, -2.078314e-02f,
  -7.929403e-02f, 8.988792e-02f, -1.059188e-01f, 8.083151e-03f, -2.128192e-03f, -8.021021e-02f, 3.123235e-02f, -2.836666e-02f,
  -6.661531e-02f, 7.440037e-02f, -3.518314e-02f, -4.030838e-02f, -5.999277e-02f, -2.762415e-02f, 9.401102e-02f, -7.545250e-03f,
  -2.678988e-02f, -8.820622e-02f, 5.966904e-02f, 4.913061e-02f, -2.371565e-02f, -5.161780e-02f, 5.393429e-02f, -5.539050e-02f,
  -4.886418e-02f, -7.026526e-02f, 6.685647e-03f, 2.130176e-02f, -1.695525e-02f, 5.658495e-02f, 4.731677e-03f, -8.148936e-02f,
  -2.501541e-02f, 1.702067e-02f, -8.763022e-02f, 1.105109e-01f, 5.410677e-02f, 1.118937e-01f, 1.110652e-02f, -2.526517e-02f,
  8.783770e-02f, -1.901655e-02f, 6.926282e-02f, 9.696323e-02f, -2.106533e-02f, 1.268185e-02f, -4.579426e-02f, -1.195241e-02f,
  2.434401e-02f, -4.892987e-02f, 4.687899e-02f, 2.202283e-02f, 4.220453e-03f, -6.374272e-02f, 2.198532e-02f, -1.250002e-02f,
  -4.317473e-02f, 8.479451e-02f, 6.194514e-02f, -7.605500e-02f, 8.854060e-02f, 6.769973e-02f, -3.117873e-02f, 3.895973e-03f,
  3.898903e-02f, 8.147384e-02f, 9.163787e-03f, 9.250018e-02f, 1.590682e-01f, 8.037226e-02f, -1.382756e-01f, -8.411410e-02f,
  4.412201e-02f, -7.621137e-04f, -7.495964e-02f, 1.035192e-02f, 1.087338e-01f, -8.178438e-03f, 4.314898e-02f, -5.844096e-02f,
  8.588228e-02f, 3.791770e-02f, -1.806728e-02f, 5.196312e-02f, 1.209614e-02f, 6.089704e-02f, 3.445705e-02f, 1.061994e-01f,
  -4.441128e-02f, 1.317590e-01f, 4.911403e-02f, 3.625193e-02f, -2.335284e-02f, -3.177984e-02f, 2.993862e-02f, 3.674076e-02f,
  1.569365e-01f, -2.744198e-02f, 1.115880e-02f, 6.296283e-02f, 6.294878e-02f, 6.979244e-02f, 1.272366e-01f, -2.027094e-02f,
  -1.271968e-01f, 7.288481e-02f, 1.481524e-01f, 4.048917e-02f, -1.584942e-01f, -1.648264e-02f, -1.150360e-01f, -7.743280e-02f,
  1.376729e-02f, -2.974798e-01f, -1.181032e-02f, 1.878331e-02f, -1.355949e-02f, 3.264993e-02f, -8.592297e-02f, 4.833786e-04f,
  1.558295e-02f, 5.215161e-02f, -8.600582e-02f, 9.397641e-02f, -4.976942e-03f, -9.137183e-02f, 5.667248e-02f, 6.164100e-02f,
  -2.410514e-02f, -4.353415e-02f, 1.630468e-01f, 1.139525e-01f, 1.141367e-01f, -8.768838e-02f, 3.720419e-02f, -3.741831e-02f,
  3.544727e-02f, 2.366093e-02f, 1.453249e-01f, 1.446145e-01f, 2.521797e-02f, -7.938660e-02f, -2.417383e-02f, 2.964856e-02f,
  8.605409e-02f, 6.996013e-02f, -3.369722e-02f, 5.446522e-02f, 5.703970e-02f, -1.044903e-01f, 7.044306e-03f, -1.104811e-01f,
  -2.125402e-02f, -4.863044e-02f, -1.405422e-03f, 1.065677e-01f, 1.166437e-01f, 2.504974e-02f, 2.204917e-02f, 2.713100e-02f,
  -6.379689e-02f, 6.470856e-02f, -7.153151e-02f, 8.146904e-02f, 1.065161e-01f, 2.446150e-02f, -1.053199e-01f, 1.280952e-01f,
  -4.746589e-02f, -8.891829e-04f, 8.197326e-02f, 3.744163e-02f, 5.422793e-02f, 3.065625e-02f, -5.050815e-02f, 1.282411e-02f,
  3.597328e-03f, -6.046015e-02f, 1.467552e-01f, 7.694524e-02f, 8.228634e-02f, -3.921819e-02f, 7.533938e-02f, -3.021442e-02f,
  6.429127e-02f, 8.594529e-02f, -8.228911e-02f, -6.040378e-02f, -5.082623e-02f, 1.790363e-02f, -1.342083e-02f, -4.152548e-03f,
  -1.192554e-01f, -2.313847e-02f, -5.418893e-02f, 6.053090e-02f, 1.384370e-02f, 5.399166e-02f, 1.124670e-01f, 1.419541e-02f,
  6.081552e-02f, 5.815102e-02f, -4.818948e-02f, 4.985582e-03f, 5.267963e-02f, 9.078882e-02f, -5.158495e-02f, 4.021885e-02f,
  -9.735491e-02f, 2.552098e-02f, 5.631312e-02f, -4.967049e-02f, -1.976509e-02f, 5.179420e-02f, -1.273824e-01f, -6.059944e-02f,
  -3.883105e-02f, -1.650991e-02f, -2.448273e-02f, 2.642806e-02f, -1.069511e-01f, -7.559817e-02f, -1.030949e-01f, -6.966470e-02f,
  5.350002e-02f, -5.615091e-02f, 8.590914e-02f, 6.040940e-02f, 1.087806e-02f, 1.155600e-01f, 1.124417e-01f, 9.705117e-02f,
  -2.626640e-02f, 1.073461e-01f, -4.239877e-02f, -8.714783e-03f, 5.680525e-02f, 1.054980e-01f, 1.118161e-01f, -8.494639e-02f,
  2.119722e-02f, -2.424779e-02f, -6.760859e-02f, -4.388980e-02f, 1.662292e-02f, -5.377266e-02f, -4.567902e-02f, -5.783443e-02f,
  7.818317e-02f, -1.038469e-02f, 2.833259e-02f, -4.509677e-02f, 6.903636e-02f, 1.082578e-01f, 3.031724e-02f, -6.609664e-02f,
  4.052231e-02f, -4.134413e-02f, 5.464492e-02f, -9.040121e-02f, 9.274909e-02f, -9.442794e-02f, -2.936175e-02f, 5.271083e-02f,
  -4.499992e-02f, 6.264148e-02f, -1.323380e-01f, -1.141523e-01f, -1.042823e-03f, 6.952794e-02f, 5.446817e-02f, -1.328310e-02f,
  2.987086e-02f, -2.583667e-02f, 8.247541e-02f, -9.766541e-02f, 5.530294e-02f, -5.480802e-02f, -5.502596e-03f, -2.214572e-02f,
  -4.804146e-02f, -3.801499e-02f, 7.741686e-02f, 1.074326e-01f, -8.174178e-02f, 3.006211e-02f, -6.015457e-02f, 3.713014e-02f,
  -2.543254e-02f, 1.205282e-01f, 1.597779e-02f, 7.746805e-02f, -3.355537e-02f, 1.002988e-02f, 2.161636e-02f, -4.548496e-02f,
  -7.804414e-02f, -1.437280e-02f, -9.762782e-02f, -5.928024e-02f, 2.467426e-02f, 3.911425e-02f, -3.143091e-03f, -4.114972e-02f,
  8.206408e-02f, 6.490321e-02f, -6.878015e-02f, 8.183823e-02f, -8.889703e-02f, 2.702178e-02f, 4.575608e-02f, -2.113616e-03f,
  2.706985e-02f, -6.569944e-02f, 3.676203e-02f, -5.160788e-02f, 7.228997e-02f, 1.352290e-02f, -6.761652e-02f, -7.752002e-02f,
  1.709294e-02f, 5.972149e-02f, 6.112988e-02f, -9.399708e-02f, -8.648025e-03f, 2.842414e-02f, 3.278840e-02f, -2.372852e-02f,
  -8.296710e-03f, -3.891272e-02f, -3.389321e-02f, -2.208435e-02f, 7.655537e-03f, 2.377291e-02f, 1.011100e-01f, -2.086157e-02f,
  5.687663e-03f, 7.448155e-02f, -5.095516e-02f, 7.714219e-02f, 1.285820e-01f, 1.279983e-02f, -3.951848e-02f, 7.711923e-02f,
  -7.602987e-02f, -2.802005e-02f, 1.218909e-01f, -1.651643e-02f, -2.574322e-02f, -2.008119e-02f, 2.980630e-02f, 9.914982e-02f,
  8.311895e-02f, -3.316201e-02f, 7.280552e-02f, -9.561146e-02f, 1.095084e-01f, 7.750398e-02f, 3.052215e-02f, -2.150734e-02f,
  4.143640e-02f, 9.306489e-03f, -6.424183e-02f, -1.139683e-02f, 6.031076e-02f, -2.249753e-03f, -5.839108e-03f, 8.206265e-02f,
  3.835392e-02f, 1.156090e-02f, -5.733288e-02f, -1.064092e-01f, 2.267756e-02f, -1.067583e-01f, -6.716578e-03f, 5.002512e-03f,
  -1.791400e-02f, -7.591744e-02f, 7.137658e-02f, -5.244787e-02f, 7.697150e-03f, 2.272764e-02f, -1.409765e-02f, -7.610133e-02f,
  7.952596e-02f, 5.715766e-02f, -1.420872e-02f, 6.382313e-02f, 1.464384e-02f, 7.000186e-02f, 6.889521e-02f, -1.354317e-01f,
  -2.438320e-02f, -7.004712e-02f, 4.555111e-02f, -2.603979e-02f, -1.050883e-01f, 7.160603e-02f, 1.175014e-01f, -7.438065e-02f,
  -4.381734e-02f, -7.163402e-02f, -4.065689e-06f, 1.027050e-01f, -1.882831e-02f, 4.043878e-02f, 1.946819e-03f, -1.199636e-03f,
  8.093633e-03f, -2.877917e-02f, 1.289132e-01f, 4.406441e-02f, -7.052542e-02f, 2.920164e-03f, 4.176918e-03f, -2.264733e-02f,
  7.860638e-02f, -5.042664e-02f, 7.794257e-02f, -2.933341e-02f, 7.819349e-02f, 7.289326e-02f, -5.801913e-03f, 6.176543e-02f,
  -3.590475e-02f, -4.179782e-02f, -3.627634e-02f, 1.002692e-01f, 9.583019e-02f, 8.024839e-02f, 1.019774e-01f, 1.632239e-02f,
  1.011677e-02f, -1.123429e-01f, 7.718229e-02f, 4.653072e-02f, -1.344227e-01f, -8.737640e-03f, -8.024232e-03f, -3.948744e-02f,
  6.338923e-02f, -1.813778e-02f, 9.986755e-03f, -7.410342e-03f, 6.142127e-02f, 5.373227e-02f, -2.098121e-02f, 2.898703e-02f,
  2.720376e-02f, 4.305824e-02f, -6.586806e-02f, -2.142895e-02f, 7.531165e-02f, 6.405669e-02f, -7.191434e-02f, 8.807843e-02f,
  -6.332564e-03f, 8.552127e-02f, -3.410678e-02f, 5.740167e-02f, -5.205114e-02f, -1.236898e-01f, -2.325397e-02f, 6.395732e-02f,
  6.655219e-03f, -8.104184e-02f, -1.549231e-01f, 9.558017e-02f, 8.731788e-02f, -1.103027e-01f, 1.359685e-01f, 1.803947e-02f,
  -6.352793e-02f, 5.700944e-02f, 9.549760e-02f, 2.814316e-02f, -6.796628e-02f, 1.135477e-02f, 7.082398e-02f, 3.181284e-02f,
  4.876802e-02f, 6.163803e-02f, -3.759018e-02f, -1.182470e-01f, 2.222378e-02f, 6.472836e-02f, -2.316158e-02f, 8.988421e-02f,
  3.033869e-02f, 8.258948e-02f, 5.559538e-02f, -9.197941e-02f, -8.489829e-02f, 5.117014e-02f, 5.479608e-02f, 1.437751e-03f,
  -1.075794e-01f, 7.077796e-02f, -3.040166e-02f, 1.578491e-02f, 1.228326e-01f, -9.816595e-02f, 1.269241e-01f, -1.024578e-01f,
  -3.627406e-02f, -1.025232e-01f, 9.786651e-02f, 1.334289e-02f, -9.277141e-02f, 4.025256e-02f, -1.012458e-01f, -7.226715e-02f,
  5.079990e-02f, -5.543983e-02f, 7.625549e-02f, -9.611350e-02f, -1.030878e-02f, 4.968666e-02f, 5.108164e-02f, 7.630579e-02f,
  -8.808474e-02f, -3.350662e-02f, -1.159403e-01f, 3.990681e-02f, 2.957266e-02f, -5.664987e-02f, 7.671082e-02f, 1.321010e-02f,
  -1.015401e-01f, -3.082256e-02f, -1.255673e-01f, -1.602057e-02f, 8.284784e-02f, 1.155690e-01f, -3.838893e-02f, 5.932331e-02f,
  8.900668e-03f, -3.559022e-02f, -2.888006e-02f, -4.733747e-02f, 8.980305e-02f, 9.278800e-02f, 1.702017e-03f, -6.774531e-02f,
  4.011114e-02f, -7.944130e-02f, 7.308815e-02f, -1.976862e-02f, -5.676769e-02f, -2.855284e-02f, 7.733491e-02f, 3.540631e-02f,
  -2.652390e-02f, 4.812094e-02f, 7.323775e-02f, -9.242376e-03f, -2.635779e-02f, -1.201346e-01f, -2.139477e-02f, -4.746049e-02f,
  -2.476738e-02f, -9.261803e-02f, 7.377423e-02f, 6.557606e-02f, -7.762420e-02f, -8.091923e-02f, -8.114033e-02f, 9.426733e-02f,
  -1.299468e-01f, -7.778971e-02f, -8.521590e-02f, 9.711212e-03f, 4.673092e-03f, 7.644097e-02f, -6.272856e-02f, -6.924947e-02f,
  -2.322310e-02f, 5.815696e-02f, 2.264797e-02f, -3.656552e-02f, 3.264351e-02f, 2.391929e-02f, -1.832161e-02f, 9.308584e-02f,
  -3.608177e-02f, 7.920278e-02f, -1.789154e-02f, 9.836468e-02f, 3.783862e-02f, 7.342336e-02f, -4.689790e-03f, 1.214413e-01f,
  6.022171e-02f, -4.587831e-02f, -1.870441e-02f, -7.508176e-02f, -2.829045e-02f, 8.287887e-02f, 6.193746e-02f, 4.294392e-02f,
  -8.214946e-02f, 1.388770e-02f, 9.819622e-02f, 7.580753e-02f, -6.627217e-02f, -8.377347e-03f, 1.009381e-01f, -3.827181e-02f,
  -6.323179e-02f, -5.700663e-02f, -3.952955e-02f, -6.769999e-04f, -6.069859e-02f, -7.281584e-02f, -5.930579e-03f, -6.760408e-02f,
  4.885805e-02f, -3.837063e-02f, -1.030968e-02f, 7.905351e-02f, 8.759277e-02f, -1.223412e-01f, 8.852325e-02f, -5.331363e-02f,
  9.805564e-02f, 1.149732e-01f, -4.296631e-02f, 9.401675e-02f, -7.429326e-02f, -2.480382e-02f, 3.857411e-03f, 3.306744e-02f,
  2.469928e-02f, -8.595642e-02f, 3.214032e-02f, 2.806322e-02f, 3.254247e-02f, 7.090941e-03f, 1.821516e-02f, 8.224644e-02f,
  6.195910e-02f, -9.619540e-02f, -3.200010e-02f, 1.215248e-01f, 1.582835e-02f, 1.041519e-01f, 1.186248e-02f, 6.121549e-02f,
  6.247453e-02f, -1.397751e-01f, 1.937436e-02f, -3.028074e-02f, -7.885057e-02f, 7.350259e-02f, 7.843871e-02f, -1.041860e-02f,
  2.415667e-02f, -6.301097e-03f, 1.004174e-01f, 6.878571e-02f, -7.614126e-02f, -9.947126e-02f, -1.081114e-01f, 1.653195e-02f,
  1.143507e-02f, -7.306784e-02f, -6.670041e-02f, -5.424544e-02f, -1.365947e-01f, -4.995079e-02f, 1.300166e-01f, 6.480788e-02f,
  -5.707968e-02f, 2.989479e-02f, -2.438709e-02f, 7.943738e-02f, -4.612063e-02f, -5.417597e-03f, 4.720826e-02f, -1.403471e-01f,
  -1.144301e-01f, -2.811925e-02f, 5.127002e-02f, -3.466946e-02f, 6.336239e-02f, -7.900430e-02f, 9.596044e-02f, 1.829813e-02f,
  4.167080e-02f, 2.767201e-02f, -1.184864e-01f, 2.324590e-03f, 1.273830e-01f, -2.299363e-02f, -6.472209e-02f, 9.116094e-03f,
  -6.182053e-04f, -3.671936e-03f, -6.453790e-02f, -4.307464e-03f, 2.653553e-02f, -1.383580e-02f, -1.078939e-01f, -1.490657e-02f,
  -4.660247e-02f, -5.697477e-02f, 1.383654e-01f, 8.960271e-02f, -1.506079e-02f, -1.096607e-01f, 9.250120e-02f, 2.914973e-02f,
  5.261024e-02f, -2.427832e-02f, -5.682572e-02f, 5.121428e-02f, -2.863157e-02f, -7.278922e-02f, -8.643757e-02f, 6.031504e-02f,
  8.314507e-02f, -6.421623e-02f, 1.981041e-02f, -2.533697e-02f, -4.678233e-03f, 3.416855e-02f, 7.086124e-02f, -7.923143e-02f,
  8.596458e-02f, -9.744092e-02f, -9.712712e-02f, -7.386155e-02f, 5.143309e-02f, -8.580550e-02f, -8.774758e-02f, 2.987866e-03f,
  -9.027027e-02f, -1.287118e-01f, 8.123829e-02f, 6.070861e-02f, 1.050128e-03f, 4.782343e-02f, 6.369539e-02f, 9.297997e-02f,
  3.580639e-02f, 9.687252e-02f, 8.810433e-02f, -2.308677e-02f, 1.099706e-01f, 3.147081e-03f, -1.094853e-02f, -1.050272e-01f,
  -1.984585e-02f, 6.092024e-03f, -2.284373e-02f, 1.081505e-01f, -8.350475e-03f, 2.346011e-02f, 2.837946e-02f, -1.189577e-02f,
  -3.465033e-02f, 2.759040e-02f, 1.878497e-02f, 6.413478e-03f, 2.573906e-02f, 2.604811e-02f, -5.602536e-02f, -3.963806e-02f,
  -7.636514e-02f, -5.960662e-02f, -4.276821e-02f, -9.478604e-02f, -6.623982e-03f, 1.630223e-02f, 1.048471e-01f, -1.049236e-02f,
  2.935988e-02f, 9.940947e-02f, -1.022758e-02f, -8.561972e-05f, -6.686475e-02f, 8.348907e-02f, -4.470637e-02f, -6.735376e-02f,
  -1.230853e-01f, -1.210641e-02f, -3.046729e-02f, -8.161044e-03f, 1.333843e-01f, 1.496878e-02f, -2.307882e-02f, -5.508504e-03f,
  -5.165115e-02f, 1.375753e-01f, 8.129870e-03f, -3.752034e-02f, 1.038250e-01f, 2.706798e-02f, 1.202609e-01f, -3.276270e-03f,
  3.652411e-02f, 3.434763e-02f, 6.443746e-02f, 6.637694e-02f, -3.772394e-02f, -6.453697e-02f, -6.443116e-03f, 8.467197e-02f,
  6.776961e-03f, -2.883237e-02f, -8.651271e-02f, -1.005688e-01f, 6.576519e-03f, -1.366247e-01f, -2.073018e-01f, -1.397280e-01f,
  4.831603e-03f, 3.761407e-02f, -4.780130e-02f, 7.595067e-02f, 1.429386e-02f, -7.988214e-02f, -1.447210e-02f, -1.932405e-02f,
  -7.895774e-02f, 8.781207e-02f, -7.721873e-02f, -9.484772e-02f, -6.140039e-02f, -3.523366e-02f, -1.020130e-01f, -7.966509e-02f,
  -7.960273e-02f, 5.282173e-02f, 8.811912e-02f, -1.318278e-02f, -3.901678e-02f, -5.638926e-02f, 5.316237e-02f, -1.065317e-01f,
  -4.913531e-02f, 3.731020e-02f, -7.076709e-03f, 5.466644e-02f, -9.078733e-02f, 1.545485e-02f, -3.560771e-02f, -1.876998e-02f,
  1.438214e-02f, 4.964432e-02f, -2.891678e-02f, -4.716758e-02f, -5.732339e-02f, 4.427088e-02f, 4.600585e-02f, 1.186619e-03f,
  1.091388e-01f, 7.599969e-02f, -9.070951e-02f, -6.076195e-02f, -4.835734e-02f, 2.243814e-02f, 1.264699e-01f, 7.584349e-05f,
  3.813511e-02f, 7.693526e-02f, 9.908055e-02f, -1.365217e-02f, -2.997314e-02f, 3.523554e-02f, -1.642528e-02f, -7.580839e-02f,
  2.975822e-02f, -1.441753e-03f, 1.007330e-01f, 2.905463e-02f, 7.428820e-02f, 4.196208e-02f, -2.974177e-02f, -1.063564e-01f,
  -8.038609e-02f, 2.674066e-02f, 6.929357e-02f, -4.807733e-02f, -1.234334e-02f, 1.016416e-01f, 4.747826e-02f, -1.166375e-02f,
  -5.741730e-02f, -7.931606e-02f, 8.098425e-02f, 2.169947e-02f, 7.324171e-02f, 1.018864e-01f, -3.327868e-02f, 6.980229e-02f,
  3.207002e-02f, -3.453767e-02f, 5.636781e-02f, -8.441801e-02f, -8.341973e-02f, 6.617192e-02f, 5.421530e-03f, 8.203533e-02f,
  -3.041565e-02f, 8.366518e-02f, -2.974617e-02f, -4.108026e-02f, -8.399886e-02f, 6.019736e-02f, 1.423465e-02f, -5.493558e-02f,
  -5.965595e-02f, -4.816415e-02f, -9.765635e-02f, -6.536757e-03f, -1.242347e-01f, 5.622438e-02f, -7.001035e-02f, 8.849862e-02f,
  3.027943e-02f, 6.621520e-02f, -3.139050e-02f, -7.899817e-03f, 7.578322e-02f, -7.861681e-02f, -7.197883e-03f, -1.176854e-02f,
  2.909647e-02f, -9.169607e-03f, 2.446186e-02f, 5.666348e-02f, -9.038196e-02f, 2.963609e-02f, 2.511605e-03f, 1.121076e-01f,
  -4.906514e-02f, -1.998658e-02f, 4.154044e-02f, -6.931713e-02f, -5.187445e-02f, -4.186969e-02f, -5.616773e-02f, 2.308470e-03f,
  4.991644e-02f, 3.234467e-02f, 7.761867e-02f, 7.802033e-02f, -1.379325e-02f, 5.615281e-02f, 3.667966e-02f, 9.246521e-02f,
  1.389623e-01f, -4.958177e-02f, 7.229578e-02f, 1.540785e-02f, -6.365082e-02f, -1.264488e-01f, 5.882143e-02f, -8.279326e-02f,
  3.036799e-02f, -8.867479e-02f, -9.778538e-03f, 8.916669e-02f, 2.011506e-02f, 8.270730e-02f, 4.033722e-02f, 1.385933e-01f,
  1.106995e-01f, 7.946973e-02f, 5.699882e-02f, 2.136008e-02f, -7.535808e-02f, -1.561439e-02f, 2.039591e-02f, 5.439616e-02f,
  -4.488584e-02f, 1.071898e-02f, 1.065903e-01f, 6.669565e-02f, -4.952305e-02f, -1.406826e-02f, -5.545457e-02f, 7.304431e-02f,
  5.976732e-02f, -1.219070e-03f, 1.810836e-02f, 3.336421e-02f, 6.589936e-02f, 9.370150e-02f, -5.265191e-02f, -8.092559e-04f,
  3.823271e-02f, -1.710810e-02f, -8.299766e-02f, -7.621487e-02f, -4.515181e-02f, 1.531722e-02f, -4.118038e-02f, -1.065331e-01f,
  5.510210e-02f, 3.490278e-02f, -7.751983e-02f, -9.360633e-02f, 5.943484e-02f, 2.443178e-02f, 5.280522e-02f, 5.912646e-02f,
  -2.585193e-02f, -9.020964e-02f, -1.030189e-01f, -4.171374e-02f, -1.573809e-02f, 1.004547e-01f, -2.046340e-02f, -4.893132e-02f,
  6.408373e-02f, 7.562640e-02f, 3.141607e-02f, -4.007188e-02f, 8.701958e-02f, -4.671872e-02f, 1.816298e-02f, 3.745938e-02f,
  -1.562496e-02f, -8.172204e-02f, 1.010027e-01f, 2.688300e-02f, -7.174881e-02f, 6.450189e-02f, 8.524105e-02f, -5.040535e-02f,
  -4.254266e-02f, 9.339003e-02f, 8.441496e-02f, 1.019461e-01f, -4.748684e-02f, 3.530036e-02f, -2.734779e-02f, -8.517596e-02f,
  5.650749e-02f, 6.818034e-02f, -6.499176e-02f, -1.087574e-01f, 5.655210e-02f, -5.853494e-03f, -7.819921e-02f, -2.137709e-02f,
  -1.236114e-01f, 5.361872e-02f, 4.957527e-02f, 1.137490e-01f, 8.533970e-02f, 6.536037e-03f, -3.170489e-02f, 2.426411e-03f,
  1.569523e-03f, 8.955336e-02f, 4.413443e-02f, -3.191969e-02f, -1.237597e-01f, -3.825367e-02f, -1.942188e-02f, -4.178669e-02f,
  1.412794e-01f, 3.303660e-02f, -1.935120e-02f, 9.687719e-03f, -1.403022e-02f, 8.237697e-02f, 1.334028e-01f, 1.454117e-02f,
  7.212662e-02f, 9.669868e-02f, 1.518698e-01f, -1.081953e-01f, 1.484241e-01f, 4.271402e-02f, -7.178938e-02f, -3.029253e-02f,
  1.358542e-02f, -1.357682e-03f, 7.958264e-02f, 9.991267e-02f, -5.969067e-02f, 1.871976e-01f, 1.548424e-02f, -3.356022e-02f,
  1.801689e-02f, 7.875951e-02f, 4.317955e-02f, 2.502484e-02f, 3.579485e-02f, -1.299616e-01f, -1.043245e-01f, 4.560927e-02f,
  2.712667e-02f, 4.989184e-02f, 5.811858e-02f, 1.550741e-01f, 1.272984e-02f, 1.325512e-01f, -3.339010e-02f, -2.037021e-02f,
  -8.816983e-03f, -2.506682e-01f, 4.686688e-02f, -1.076895e-01f, -5.146292e-02f, -3.749984e-02f, 8.142452e-02f, -4.228508e-02f,
  1.094046e-01f, 2.426764e-02f, 6.611454e-02f, -5.609135e-02f, -1.529836e-02f, -3.512403e-02f, 7.342994e-03f, 2.667515e-02f,
  -3.634137e-02f, -6.833885e-02f, -1.437664e-02f, 2.842340e-02f, -6.362996e-02f, 1.987941e-02f, 4.809325e-02f, 3.935143e-02f,
  8.202896e-02f, 3.134654e-02f, -7.267280e-03f, 7.465908e-02f, -9.337790e-02f, 1.046109e-01f, 4.133258e-02f, -1.474369e-02f,
  9.759129e-02f, 3.279469e-02f, -3.367735e-02f, 6.419787e-02f, 1.447037e-01f, -1.055410e-01f, 2.416666e-02f, 1.394458e-01f,
  -4.456638e-02f, 5.199044e-02f, 1.371540e-01f, -5.942079e-02f, -5.157525e-02f, 6.297447e-02f, 7.832532e-03f, 1.583888e-02f,
  -5.758838e-02f, -7.004435e-03f, -1.013601e-01f, 7.912715e-03f, -1.201422e-02f, 1.114707e-01f, 2.974940e-02f, 2.716479e-02f,
  -6.864462e-02f, -2.845504e-02f, 3.994934e-02f, 2.465220e-02f, 9.384114e-02f, -3.224032e-02f, -7.371965e-03f, 6.306501e-02f,
  -8.954550e-02f, 1.327385e-02f, -3.078160e-02f, -7.591513e-02f, -3.380571e-02f, -9.383462e-02f, 8.068796e-02f, 2.191930e-02f,
  8.511883e-02f, -8.807990e-02f, -3.588734e-02f, -5.495937e-02f, -4.486940e-02f, -5.028007e-02f, -7.837358e-02f, -1.981643e-02f,
  -4.193474e-02f, 9.005411e-02f, -9.702938e-02f, 3.451734e-02f, 2.375585e-02f, -6.942439e-03f, 4.088899e-02f, -5.454200e-03f,
  -3.129766e-02f, -1.839831e-02f, -8.234611e-03f, 3.957312e-03f, 4.529505e-02f, -2.934965e-02f, 5.834666e-02f, 6.220485e-02f,
  3.290371e-02f, 3.290675e-02f, 1.677817e-02f, -6.260768e-03f, 6.730058e-02f, -1.236496e-01f, -5.399240e-02f, -9.660249e-02f,
  3.240514e-02f, -5.408052e-02f, -4.615915e-02f, 9.497188e-02f, -8.701496e-02f, 1.800995e-02f, 1.047882e-01f, 6.623477e-02f,
  -1.088140e-01f, -4.239892e-02f, -2.372024e-02f, 1.494615e-01f, -1.032209e-02f, -9.014588e-02f, 1.699655e-01f, -2.166848e-02f,
  -3.603294e-04f, -7.057096e-02f, -6.513064e-02f, 3.703588e-02f, 3.727876e-02f, 5.226543e-02f, 5.646774e-02f, -2.450529e-02f,
  9.370669e-02f, -3.437960e-02f, 5.131811e-03f, 2.140584e-02f, 4.923295e-02f, -3.258795e-02f, 1.784636e-01f, 2.537462e-02f,
  9.276124e-02f, 8.296493e-02f, 7.167459e-02f, 9.541416e-03f, 3.041701e-02f, 2.982192e-02f, 1.309568e-01f, 1.686624e-02f,
  5.725051e-02f, 9.543158e-03f, -1.146239e-01f, -5.761885e-02f, 2.087589e-02f, 5.893519e-02f, 3.691211e-02f, 5.243893e-02f,
  1.816638e-01f, 5.541735e-03f, 1.324775e-01f, -5.729548e-02f, -1.811425e-02f, -3.086943e-02f, 1.175666e-01f, -1.551264e-03f,
  -1.713892e-02f, 9.724753e-02f, -9.739192e-03f, -5.632192e-02f, 6.474687e-02f, -2.209635e-02f, -3.272435e-02f, -1.389182e-01f,
  -1.227584e-01f, 2.128244e-02f, -3.054651e-02f, -2.879016e-02f, 4.937578e-02f, 1.249072e-01f, -3.138829e-02f, 4.178501e-02f,
  2.325893e-02f, 3.414015e-02f, 1.254950e-01f, -1.397492e-02f, -4.802507e-03f, -1.054749e-01f, 2.970555e-02f, 1.147907e-01f,
  1.787484e-02f, 1.192574e-01f, 1.042340e-01f, 6.341130e-02f, -8.391089e-02f, -6.177799e-02f, -5.995569e-03f, 6.333072e-02f,
  -7.198329e-02f, 9.475554e-03f, 3.661292e-02f, 1.475103e-01f, -1.435294e-03f, 1.635295e-01f, 1.614107e-01f, -7.464717e-03f,
  2.197723e-01f, -5.963973e-03f, 5.031623e-02f, 1.108430e-01f, -6.625003e-02f, 1.611808e-01f, -1.420486e-01f, -1.205583e-01f,
  7.650670e-02f, -5.714910e-02f, -1.318530e-02f, -3.441678e-02f, 9.242533e-02f, 4.623576e-02f, -8.730534e-02f, 4.094317e-02f,
  1.252626e-01f, -6.629618e-02f, -6.843158e-03f, -1.886217e-01f, -9.698227e-02f, -1.449996e-01f, 5.472325e-02f, 1.775901e-01f,
  -2.361746e-01f, -2.025921e-01f, -1.021576e-01f, -1.501252e-01f, -1.765915e-02f, -4.977147e-02f, 1.458992e-02f, 1.138840e-01f,
  -1.420471e-01f, 1.249154e-01f, 1.069804e-01f, -2.274438e-03f, 9.690922e-02f, 1.098977e-01f, -3.115477e-02f, 3.657385e-03f,
  -1.273829e-01f, 1.120362e-01f, 8.886815e-02f, -1.372703e-01f, 2.477158e-02f, 1.386736e-01f, 1.899832e-01f, 4.622646e-03f,
  3.585757e-02f, 1.399083e-01f, 2.157606e-03f, 4.925883e-02f, 1.073666e-01f, 3.645097e-04f, 1.434191e-01f, -1.308264e-01f,
  -1.943879e-02f, 9.191549e-03f, 1.406064e-01f, -2.766621e-01f, 1.838503e-01f, 1.483973e-01f, 6.786186e-02f, 1.791080e-01f,
  6.696156e-02f, 1.602470e-02f, -1.162789e-01f, 2.183750e-02f, -1.524846e-01f, 1.210315e-01f, -5.758716e-02f, 1.987718e-02f,
  7.740532e-02f, -6.950291e-02f, -1.212041e-01f, 5.087999e-03f, -9.062291e-02f, 2.941217e-01f, -8.351930e-02f, -3.955391e-02f,
  -4.776205e-02f, 1.213941e-01f, -1.029765e-01f, 4.943012e-02f, -1.276134e-01f, -1.264763e-01f, 1.603424e-02f, -1.002315e-01f,
  -2.738883e-02f, 4.738145e-03f, 1.368359e-01f, 8.976848e-02f, -5.355592e-02f, 1.106703e-01f, -6.778654e-02f, -9.989946e-03f,
  5.734927e-02f, -2.449171e-02f, -7.004509e-02f, 3.981902e-02f, -1.866640e-02f, 1.238246e-01f, 8.271348e-02f, 1.224338e-01f,
  8.730479e-02f, 1.274505e-02f, -5.097159e-03f, -2.779940e-02f, -6.520486e-02f, 1.483979e-01f, -9.002845e-02f, -2.857567e-02f,
  -9.057067e-02f, 2.312554e-01f, 2.197316e-02f, -5.147702e-02f, -4.546369e-02f, 8.453983e-02f, 4.837894e-03f, 3.205502e-02f,
  1.397704e-01f, 8.694126e-02f, 8.272516e-02f, -7.923067e-02f, -1.428171e-01f, -1.926113e-02f, -9.001145e-02f, 9.858280e-03f,
  -9.676590e-02f, -7.268396e-02f, -2.452929e-02f, 1.487099e-01f, -5.331451e-02f, -4.960800e-02f, 9.134059e-02f, 1.126424e-02f,
  -1.096565e-01f, 3.839589e-02f, 9.375365e-03f, 1.717008e-01f, -1.730992e-01f, 1.321796e-01f, -1.350132e-02f, 4.991675e-02f,
  -2.465783e-02f, -4.743851e-02f, 4.372316e-02f, 9.929450e-02f, 6.517303e-02f, 9.347298e-02f, 8.058254e-02f, -7.729920e-02f,
  -4.975463e-02f, -5.740236e-02f, 4.275679e-02f, -8.613929e-02f, -7.974924e-02f, -8.152436e-02f, -8.428577e-02f, 3.513573e-02f,
  9.268777e-02f, -6.495808e-02f, 4.009795e-02f, -8.713509e-03f, -5.050788e-02f, 7.066645e-02f, 4.250014e-02f, -4.707694e-02f,
  -2.725522e-02f, 7.506796e-02f, 1.012461e-01f, -3.969546e-02f, -7.520138e-02f, -7.646620e-02f, 8.184219e-02f, 3.292873e-02f,
  -8.277071e-02f, 8.980682e-02f, 6.267004e-02f, 1.756931e-02f, 1.021121e-02f, 1.349201e-01f, -1.216205e-01f, -4.214421e-02f,
  -3.724883e-02f, 2.001627e-01f, -8.353591e-02f, -5.179793e-02f, -9.363693e-02f, -6.812148e-02f, 8.128188e-02f, -9.878804e-02f,
  9.473679e-02f, -1.702284e-02f, 7.517160e-02f, 1.732769e-02f, 1.682654e-02f, 2.757274e-02f, 1.402601e-01f, -4.415243e-02f,
  -7.863545e-02f, -1.105198e-01f, 1.305967e-02f, 7.562383e-02f, 6.255753e-02f, 1.066250e-02f, -6.516287e-02f, -5.884495e-02f,
  3.546324e-02f, -4.849958e-02f, -9.330976e-02f, 9.522463e-02f, 8.894125e-02f, -1.045674e-02f, -8.552299e-02f, 8.105351e-02f,
  2.838735e-02f, -5.284065e-03f, -6.352451e-02f, -5.306448e-02f, -9.435198e-02f, -4.448629e-02f, 2.768626e-02f, 1.793471e-02f,
  4.327271e-02f, -4.026436e-02f, -1.644341e-02f, -3.236078e-02f, 6.588689e-02f, -1.238539e-02f, 2.644618e-01f, 1.743403e-02f,
  -1.956201e-01f, -9.276973e-02f, -1.987081e-01f, -1.850415e-02f, -2.344148e-02f, -8.370187e-03f, 2.098925e-02f, -3.065852e-01f,
  9.699987e-02f, 7.780745e-03f, 8.761582e-02f, 2.188169e-02f, 3.525153e-02f, 7.193518e-02f, 2.008458e-01f, 1.847194e-01f,
  -2.094571e-01f, 1.582242e-01f, -2.408447e-01f, 6.218456e-02f, -1.310207e-01f, 1.280736e-01f, 1.468383e-01f, 9.145156e-02f,
  1.572689e-02f, 4.677175e-02f, 8.400787e-02f, 3.580503e-03f, -6.945904e-02f, 3.152795e-02f, 5.942280e-03f, -1.848200e-01f,
  -4.004969e-02f, -2.528764e-02f, 3.753893e-01f, -1.323271e-01f, -5.733618e-02f, -2.922529e-01f, -5.290791e-02f, -1.139202e-01f,
  -1.912709e-01f, -8.100668e-02f, -1.794855e-01f, 3.717231e-01f, -1.746443e-01f, -1.632350e-01f, 4.492566e-02f, 5.251701e-02f,
  -9.029321e-02f, -4.851962e-02f, 5.196508e-02f, -1.675508e-02f, 2.873142e-02f, -1.632518e-02f, 1.671917e-02f, -7.993236e-02f,
  -2.484259e-02f, 8.818526e-02f, 6.085297e-02f, 2.008512e-03f, 5.533867e-03f, 3.801866e-02f, -3.682182e-02f, -4.655285e-02f,
  -5.312430e-02f, -1.786214e-02f, 3.279077e-02f, -2.341296e-02f, 8.646847e-02f, 8.835990e-02f, -2.381313e-04f, 2.660700e-02f,
  8.268300e-02f, 5.406453e-02f, 7.214829e-02f, 3.471403e-02f, 7.940114e-02f, -4.012338e-02f, -1.328849e-02f, -4.850990e-02f,
  -4.645591e-02f, -1.426606e-02f, -1.131818e-01f, 2.139661e-02f, -2.196219e-02f, -4.422589e-03f, 9.181769e-03f, 5.852230e-02f,
  -1.651351e-02f, 5.609635e-02f, -1.243591e-02f, -8.760880e-02f, 5.923538e-02f, 9.693542e-02f, 5.842412e-02f, 6.262029e-02f,
  -2.418149e-02f, -2.882524e-02f, -8.877964e-03f, 8.934703e-03f, 4.622293e-02f, 9.573079e-02f, 5.275294e-02f, 6.008883e-02f,
  -2.443353e-02f, -4.888038e-02f, 8.860064e-02f, 2.270829e-02f, -9.097649e-02f, 4.768129e-02f, 7.656575e-02f, 7.655191e-02f,
  -5.308088e-02f, -2.963841e-02f, -2.505068e-02f, -4.477157e-02f, -8.216523e-02f, -4.393810e-02f, -9.419373e-02f, 7.553140e-02f,
  7.307965e-03f, 4.335598e-02f, -4.690821e-02f, 7.813574e-02f, 4.452025e-02f, 4.361254e-02f, -8.602676e-02f, -9.136100e-02f,
  5.038159e-02f, -7.674859e-02f, -6.571800e-02f, -8.947657e-02f, 1.652388e-02f, -4.732673e-02f, -3.843205e-02f, 3.921932e-02f,
  -2.919637e-02f, -1.222875e-01f, 7.352082e-02f, 1.253163e-01f, -6.360415e-02f, -8.074561e-02f, 5.554576e-02f, -3.041597e-02f,
  -7.155977e-02f, -6.832781e-02f, -1.008402e-01f, -7.590121e-02f, -5.109648e-02f, 6.920953e-02f, -3.519377e-02f, 1.626175e-02f,
  -7.255737e-02f, 2.027492e-02f, -2.615274e-02f, 1.076054e-02f, 4.201366e-02f, 4.856973e-02f, -7.263841e-02f, 1.926157e-02f,
  3.284177e-02f, -5.034732e-02f, 6.972223e-02f, -7.960802e-02f, 2.958271e-02f, 2.779771e-03f, -2.347501e-02f, 4.930026e-02f,
  -9.553168e-02f, -3.454286e-02f, 3.166820e-02f, 4.181347e-02f, -8.117882e-02f, 2.678194e-02f, 5.292035e-02f, -5.956356e-02f,
  3.486896e-02f, -7.350279e-04f, 5.054655e-02f, -6.559652e-02f, -3.421852e-02f, 4.479319e-02f, 7.862571e-02f, -8.111223e-02f,
  3.086267e-02f, -7.107379e-02f, -3.520842e-02f, 6.076237e-02f, 5.894608e-02f, -1.445863e-02f, -1.131062e-01f, -9.548008e-02f,
  3.255685e-02f, -6.867491e-02f, 7.116261e-02f, -9.382243e-02f, 3.646158e-02f, 6.443012e-02f, -7.394151e-02f, 5.103108e-02f,
  8.898477e-02f, 7.236354e-02f, 2.558547e-03f, 4.239552e-02f, 1.175372e-02f, -7.945688e-02f, 2.841322e-02f, -7.218912e-02f,
  1.260486e-02f, -2.295107e-02f, -1.650735e-02f, 9.382457e-02f, -9.052104e-02f, -7.106763e-03f, -9.483556e-02f, -6.299991e-02f,
  -5.211889e-02f, -2.998920e-02f, 6.465389e-03f, -9.159034e-02f, 8.022450e-03f, 6.650000e-02f, 1.175342e-02f, 2.770829e-03f,
  5.993062e-02f, -8.536141e-02f, -1.640290e-02f, -3.037473e-02f, -3.610728e-02f, -8.271786e-02f, 4.919238e-02f, -7.898793e-02f,
  1.019784e-02f, -4.146820e-02f, -8.067436e-02f, 2.552977e-02f, -4.259109e-02f, -7.308861e-02f, 8.099518e-02f, -4.111919e-02f,
  -2.671974e-02f, -7.823833e-02f, -8.999511e-02f, 8.840930e-02f, 6.350164e-02f, 6.218879e-03f, 9.224900e-02f, -1.059977e-02f,
  5.203621e-03f, -5.062190e-02f, 1.097512e-02f, 7.636709e-02f, 1.699145e-03f, -6.498706e-02f, 1.050395e-01f, 8.410028e-02f,
  2.014034e-02f, 4.913900e-02f, -6.247474e-02f, 3.527910e-02f, 9.229805e-02f, -1.309482e-02f, 1.818860e-03f, 1.843088e-02f,
  -6.833969e-02f, 1.905787e-02f, -7.474652e-03f, -3.059108e-03f, -2.294470e-02f, 7.397137e-03f, -2.220871e-02f, -5.047869e-03f,
  -7.197180e-02f, -1.571588e-02f, 2.868296e-02f, 8.297582e-02f, -7.457019e-02f, 8.450439e-02f, 9.719292e-03f, 7.030547e-02f,
  2.700468e-02f, 7.748977e-02f, -3.196679e-02f, 3.667782e-02f, -7.812196e-02f, -1.778119e-02f, 4.352646e-02f, 4.643411e-02f,
  -1.501750e-02f, -3.717508e-02f, -9.399081e-02f, 4.406556e-02f, -4.545114e-02f, -2.975219e-03f, 4.810159e-02f, -6.248353e-02f,
  8.649383e-02f, 5.255407e-02f, -9.105203e-03f, -8.000161e-02f, -2.579364e-02f, 1.233127e-02f, -1.707103e-02f, 4.553097e-02f,
  1.148475e-01f, -4.398213e-02f, 1.019378e-02f, 1.044731e-03f, 5.233254e-02f, -2.066125e-02f, 4.688577e-02f, 1.564326e-02f,
  -2.421122e-02f, 7.236948e-02f, -1.263947e-02f, 5.110310e-02f, -3.878155e-02f, -5.335081e-02f, 8.377072e-02f, 4.047374e-03f,
  5.397861e-02f, 1.806741e-02f, -1.413598e-02f, -3.349285e-02f, -8.220449e-02f, 2.614012e-03f, -7.253800e-02f, 5.051167e-02f,
  -5.763488e-02f, 2.692707e-03f, 3.111406e-02f, -3.910823e-02f, -1.703223e-02f, -2.617293e-02f, -1.200313e-01f, -4.588337e-02f,
  5.771830e-02f, -7.683527e-02f, 8.097620e-03f, 5.920355e-02f, 3.275160e-03f, 4.077876e-02f, 5.020933e-02f, 1.129571e-02f,
  -8.574830e-02f, 6.239338e-02f, -4.097605e-02f, -8.878801e-02f, 7.344980e-02f, 5.136074e-02f, 1.106946e-01f, 2.922294e-02f,
  8.491124e-02f, 7.245293e-02f, 1.044383e-01f, -3.242532e-02f, 3.710519e-02f, 9.114476e-02f, 4.961558e-02f, -9.009609e-02f,
  9.007762e-02f, 7.502617e-02f, -3.360428e-02f, -1.220136e-01f, -1.582732e-01f, -8.504486e-02f, -1.403112e-01f, 3.666146e-02f,
  -2.481888e-02f, -2.827478e-02f, 9.391590e-02f, -3.538585e-02f, -2.300066e-03f, 4.536586e-03f, -8.106185e-02f, 1.108820e-01f,
  -7.275250e-02f, -1.718978e-02f, 4.725201e-02f, -2.360414e-02f, -1.084982e-01f, -6.837334e-02f, -5.135188e-02f, -5.684827e-02f,
  -1.993176e-02f, -3.588007e-02f, -1.053440e-02f, 4.314129e-03f, 6.203984e-02f, -1.740843e-02f, 1.063927e-01f, 7.325571e-02f,
  -7.310287e-02f, 1.690192e-02f, 3.253120e-03f, -7.900840e-02f, -1.895537e-02f, -2.179324e-02f, 7.990137e-02f, -2.186730e-03f,
  9.338176e-02f, -2.160740e-02f, -7.244407e-02f, 2.387984e-02f, 7.700364e-02f, -1.146051e-01f, -4.520877e-03f, 5.968613e-02f,
  3.487694e-02f, -3.310708e-02f, 4.594570e-02f, 4.730282e-02f, 2.204877e-02f, -8.039527e-02f, 3.716906e-03f, 1.582814e-01f,
  5.658392e-02f, -1.039827e-01f, -1.151464e-01f, 3.807982e-02f, -8.724385e-02f, 9.206344e-03f, 4.715627e-02f, -6.052454e-02f,
  -8.100656e-02f, -6.469609e-03f, 1.750842e-02f, 7.820211e-02f, 9.218187e-02f, -2.955615e-02f, -4.287562e-02f, 1.120094e-01f,
  -5.975923e-02f, -1.636172e-03f, 2.000718e-02f, 1.258575e-01f, -9.702983e-02f, 3.441557e-02f, -5.679844e-02f, 2.250369e-02f,
  6.553112e-02f, 4.829950e-02f, -6.044118e-02f, 1.569008e-02f, -2.963984e-02f, -7.174676e-03f, 1.175367e-02f, -1.036751e-01f,
  -2.886830e-02f, 4.452277e-02f, 6.111124e-02f, 9.041690e-02f, -8.924666e-02f, -1.023899e-01f, -4.370630e-02f, 9.534363e-02f,
  -1.064736e-02f, -6.184285e-02f, 5.853796e-02f, 1.094810e-01f, 5.935506e-02f, 1.344993e-02f, -5.298351e-02f, 4.315320e-03f,
  -2.772346e-02f, -2.063554e-02f, 1.584317e-02f, 2.057201e-02f, -4.987310e-02f, -9.049092e-03f, 7.280163e-02f, -9.055497e-02f,
  7.305244e-02f, 2.842389e-02f, -8.986501e-02f, -8.946324e-02f, -5.921951e-02f, 6.271442e-03f, -4.684302e-02f, 1.455136e-02f,
  3.118408e-02f, -6.825832e-02f, -2.250893e-02f, 1.211722e-01f, 2.677234e-02f, -1.113143e-01f, 7.470750e-02f, -5.714638e-02f,
  -3.661471e-02f, -3.029312e-02f, 1.043296e-02f, -1.240095e-02f, 1.116771e-01f, 7.553248e-02f, -3.756156e-02f, 1.802968e-02f,
  6.555465e-02f, 7.614245e-02f, 1.362051e-02f, 7.119949e-02f, -8.337311e-02f, 9.204343e-02f, -6.291437e-03f, 3.693712e-02f,
  7.506657e-03f, -4.643331e-02f, -6.166519e-02f, 1.469968e-02f, -4.905677e-02f, 6.325277e-02f, 3.498605e-02f, -7.737727e-03f,
  9.762080e-02f, -5.595198e-02f, 1.837383e-02f, -9.527087e-02f, -7.308100e-02f, -8.325642e-02f, 3.142472e-02f, 2.905714e-03f,
  1.062950e-02f, 5.267842e-02f, -2.066762e-02f, 2.043131e-02f, -3.918022e-02f, 6.984793e-02f, 6.639892e-02f, 1.000625e-01f,
  4.985355e-02f, -1.716458e-02f, -9.254902e-02f, 1.433425e-02f, 7.528242e-02f, -1.303628e-02f, -5.856147e-02f, 4.351909e-02f,
  6.628335e-02f, 3.209329e-02f, 4.937006e-02f, 3.952423e-04f, -1.104987e-01f, -8.383109e-02f, 3.147315e-02f, -2.501793e-02f,
  -9.122829e-02f, -1.737174e-03f, -1.979504e-02f, 5.787108e-02f, -1.156295e-01f, -5.688795e-02f, 2.505384e-03f, 4.040305e-02f,
  9.248526e-02f, -6.463863e-02f, -7.235140e-02f, 8.121302e-02f, -1.805137e-02f, 2.361488e-02f, 5.510098e-02f, -1.978206e-04f,
  -4.114239e-02f, 4.657764e-02f, 6.838858e-02f, -4.488877e-02f, 8.904395e-02f, -4.555036e-02f, 7.090271e-02f, 5.668236e-02f,
  -9.208411e-02f, 7.755081e-02f, -2.628358e-02f, 8.740810e-02f, 1.050317e-01f, -1.286475e-01f, -1.673761e-01f, -6.530143e-02f,
  -6.229249e-02f, -9.208332e-02f, -3.771499e-02f, -2.746234e-02f, -8.690693e-02f, -2.926445e-02f, -7.085017e-02f, -5.271181e-02f,
  5.786508e-02f, -1.480827e-02f, -5.365662e-02f, 6.070049e-02f, -4.352208e-02f, -2.544003e-02f, 2.671274e-02f, 4.535405e-02f,
  -6.588205e-02f, 1.290993e-01f, 2.774792e-03f, 8.934918e-02f, -9.814027e-03f, -3.813312e-02f, 5.978258e-02f, 1.765143e-02f,
  -2.498843e-02f, 3.253303e-02f, 1.129584e-02f, 6.663590e-03f, 4.789883e-02f, -7.624672e-02f, -8.422579e-02f, 6.907589e-02f,
  -2.008024e-02f, 3.381064e-02f, -7.700021e-02f, 6.629615e-03f, -1.936140e-02f, 7.167785e-03f, 1.315599e-01f, 5.386257e-02f,
  -9.961066e-02f, -4.274224e-02f, -1.354197e-01f, 2.082275e-02f, 1.931611e-02f, 5.400637e-03f, -2.770928e-03f, 8.333376e-02f,
