#pragma once

// kind=conv2d_transpose, layout=OIHW
// layer=dec2
// dims: Kh=3, Kw=3, Cin=16, Cout=1
// Keras: (Kh,Kw,Cout,Cin) -> Noodle: (Cout,Cin,Kh,Kw)
// spatial_flip=false
static const float w04[] = {
  1.198227e-01f, 1.298205e-01f, -2.425809e-02f, 1.739905e-01f, -4.851927e-01f, -2.066717e-01f, 8.294924e-02f, -4.187887e-01f,
  1.115132e-02f, -2.545703e-01f, -3.075843e-01f, -4.987332e-01f, -1.063415e-01f, -7.682975e-02f, -2.703121e-01f, 1.488991e-01f,
  2.059029e-01f, 1.106668e-01f, -5.621472e-01f, -2.696054e-01f, -7.694125e-02f, -2.866332e-01f, -1.759970e-01f, -1.676017e-01f,
  1.639239e-01f, 1.145865e-01f, 5.531522e-02f, -4.227896e-01f, -4.640671e-01f, -2.106005e-01f, -6.320709e-01f, -3.421168e-01f,
  -1.180158e-01f, -2.665606e-01f, -2.098265e-01f, -2.010048e-01f, -5.253266e-02f, -3.310805e-01f, -2.694936e-01f, -2.588219e-01f,
  -5.107744e-01f, -1.567451e-01f, -2.528720e-01f, -2.247951e-01f, 3.015437e-01f, -1.322575e-01f, -1.330529e-01f, -3.066111e-01f,
  3.827592e-02f, 2.731232e-01f, 4.020471e-02f, -6.307132e-02f, 2.159480e-01f, -8.117101e-02f, -7.636510e-01f, -8.815523e-01f,
  -2.351841e-01f, -9.114141e-01f, -3.094751e-01f, -1.949413e-01f, -4.766093e-01f, -1.948787e-01f, -1.961679e-01f, 1.784861e-01f,
  -5.351551e-01f, -2.344442e-01f, 2.703094e-01f, -4.578982e-01f, -3.899468e-01f, 3.463918e-01f, 4.443811e-03f, -2.220040e-01f,
  -2.418572e-01f, -2.419373e-01f, -1.448395e-01f, -1.967380e-01f, -4.513386e-01f, -2.802144e-01f, -2.359064e-01f, -3.153704e-01f,
  1.562057e-01f, -9.259063e-02f, -2.755130e-01f, 1.073371e-01f, -1.568407e-01f, -2.969764e-01f, -2.574434e-02f, -6.805746e-03f,
  -1.425969e-01f, 2.387221e-01f, -5.976085e-02f, -2.506802e-01f, 4.736813e-02f, -2.700371e-01f, -3.886756e-01f, 3.444479e-01f,
  5.787365e-02f, 8.616950e-02f, 5.135068e-02f, 1.619107e-02f, -7.375426e-02f, -1.250800e-01f, -5.256276e-01f, -1.873698e-01f,
  -2.628813e-01f, -4.686611e-01f, -4.165688e-01f, -3.340292e-01f, 1.679279e-01f, 3.799583e-01f, -3.537396e-02f, 6.590524e-02f,
  -8.307946e-02f, -3.783871e-01f, 4.500327e-02f, 8.721715e-02f, -2.362646e-01f, -2.288555e-01f, -2.855943e-01f, -7.077935e-02f,
  -3.818262e-01f, -4.637092e-01f, -1.703145e-01f, -1.866706e-01f, -3.346236e-01f, -4.369692e-01f, -1.491431e-01f, -2.531428e-01f,
  -2.699543e-01f, -1.224049e-01f, -2.794198e-01f, -1.617067e-01f, -2.876892e-01f, 7.719329e-03f, 3.369546e-02f, 6.861865e-02f,
  9.605256e-02f, -1.213710e-02f, 3.472363e-01f, 6.160262e-01f, 2.844068e-01f, 3.057712e-01f, 2.888633e-01f, 2.156667e-01f
};
