#pragma once

// kind=conv2d, layout=OIHW
// layer=enc5_down64
// dims: Kh=3, Kw=3, Cin=32, Cout=64
// Keras: (Kh,Kw,Cin,Cout) -> Noodle: (Cout,Cin,Kh,Kw)
static const float w05[] = {
  -7.950521e-02f, 6.895646e-02f, -1.073804e-03f, 7.859872e-02f, -6.521810e-02f, 1.147161e-02f, -7.712587e-03f, -7.307705e-02f,
  2.542901e-02f, 2.918249e-02f, 7.048295e-02f, 5.783514e-02f, 2.541566e-02f, 4.046692e-02f, 7.875238e-02f, -5.361390e-02f,
  6.099277e-02f, -1.608169e-02f, -7.858817e-02f, -2.613029e-02f, -8.535630e-02f, 3.352576e-02f, 5.899926e-02f, 5.362971e-02f,
  1.716720e-02f, 3.424799e-02f, 3.038674e-02f, -5.201778e-02f, -3.914060e-02f, -9.430744e-02f, 7.159466e-02f, -4.706239e-02f,
  2.127648e-02f, 3.650528e-02f, -3.595650e-02f, -1.349038e-02f, -4.513209e-02f, 3.324864e-02f, -6.746619e-02f, -7.263786e-02f,
  3.835584e-03f, -6.268837e-02f, -4.955011e-02f, 4.945526e-02f, -6.904798e-03f, 3.065641e-02f, -3.433092e-02f, 1.908947e-02f,
  -3.533424e-02f, -2.618991e-02f, -2.445998e-02f, -5.480969e-02f, 6.731877e-02f, -7.848876e-02f, 6.399366e-02f, -4.379984e-02f,
  1.277782e-02f, 1.413675e-02f, 4.181575e-03f, -7.504987e-02f, 7.221495e-02f, 3.593818e-02f, -2.703629e-02f, -3.143517e-02f,
  7.047219e-03f, -3.261462e-02f, -5.021254e-02f, 2.027135e-02f, -9.718338e-03f, 4.104626e-02f, 7.178209e-02f, -3.900502e-02f,
  -2.613526e-03f, 5.864031e-02f, -2.092700e-02f, -1.074240e-02f, -4.423642e-02f, -4.402311e-02f, -5.103950e-02f, -6.404255e-02f,
  -3.033212e-02f, -1.980747e-02f, 2.951165e-02f, 1.996732e-02f, 5.952995e-02f, -3.807131e-02f, 4.137783e-02f, 6.859288e-02f,
  7.703130e-02f, 6.568506e-02f, -5.097036e-02f, -4.021124e-03f, -4.477402e-02f, 7.685278e-02f, 4.549258e-03f, 3.464928e-02f,
  -4.025855e-02f, -6.449848e-02f, 3.083411e-02f, -1.918642e-02f, -3.655869e-02f, 3.057007e-03f, 3.746969e-02f, -6.099319e-02f,
  6.246148e-02f, -7.680453e-02f, 5.166433e-02f, 3.019912e-02f, -1.531919e-02f, -4.958645e-02f, -1.749251e-02f, -4.600272e-02f,
  -3.346629e-02f, -5.675968e-02f, 3.964778e-02f, -2.426163e-02f, -2.652219e-02f, -2.599532e-03f, -5.557054e-02f, -3.334869e-02f,
  -8.105096e-02f, 3.522839e-02f, 4.389096e-02f, 1.074708e-03f, -5.955171e-02f, -1.470079e-02f, 2.112503e-02f, 2.596659e-03f,
  4.611999e-02f, -2.613913e-02f, -5.063782e-02f, 2.409252e-02f, 4.169120e-02f, -1.324459e-02f, 3.076314e-02f, 3.005818e-02f,
  7.229941e-02f, -4.577641e-02f, -8.049080e-02f, -3.283578e-02f, -1.046320e-02f, -5.846646e-02f, -5.231809e-02f, -2.715115e-02f,
  -6.524064e-02f, 3.427214e-02f, 3.615065e-02f, -1.302237e-02f, 1.079769e-02f, -7.332496e-02f, 2.305939e-02f, 6.608913e-02f,
  -1.370964e-02f, -5.093723e-02f, -1.339664e-02f, -5.472028e-02f, 6.673005e-02f, 4.403684e-02f, -4.545433e-02f, -9.228708e-02f,
  -5.846485e-02f, -1.686253e-03f, 7.386114e-03f, 2.859040e-02f, -5.623664e-03f, 4.236415e-02f, 4.686394e-02f, -3.192526e-02f,
  -6.222951e-02f, -6.970914e-02f, -4.831163e-02f, -2.887118e-02f, -9.768444e-02f, -2.947634e-02f, 5.418332e-02f, 4.426008e-02f,
  -8.590866e-02f, -4.420100e-02f, -7.447296e-02f, -7.411415e-02f, -7.093436e-02f, 1.240141e-02f, -6.848581e-03f, -8.438649e-03f,
  -4.045134e-02f, 5.840679e-02f, 1.818519e-02f, 2.508941e-02f, -4.549496e-02f, 2.639452e-02f, 2.472502e-02f, 2.649818e-02f,
  7.913436e-02f, -7.231119e-02f, 1.248069e-02f, 3.187280e-02f, 9.619601e-03f, 3.879436e-02f, 7.182139e-03f, -7.860438e-02f,
  4.021192e-02f, 1.368335e-02f, -6.276482e-02f, 5.324516e-02f, -5.403585e-02f, -3.342642e-02f, 4.505194e-02f, 1.545322e-02f,
  8.600712e-06f, -5.195959e-02f, -1.954279e-02f, 5.506538e-02f, 2.531812e-03f, -2.902371e-02f, 4.630340e-02f, -5.603347e-02f,
  3.091592e-02f, 1.283005e-02f, 4.078253e-02f, -4.755106e-02f, -2.743952e-02f, 7.578877e-02f, -7.078683e-02f, -7.687463e-02f,
  -4.207867e-02f, 5.357450e-02f, 5.539742e-02f, -5.687741e-02f, -6.802563e-02f, 2.588471e-02f, 3.836520e-03f, 7.700036e-02f,
  -4.826890e-02f, 3.758707e-02f, -1.810248e-02f, -8.455650e-02f, -2.590458e-03f, 5.314875e-02f, -7.616426e-02f, -4.993630e-02f,
  -7.477730e-02f, -2.266117e-02f, 5.166784e-02f, -5.305837e-02f, -6.731530e-02f, 1.062803e-02f, 1.669537e-02f, 2.942453e-02f,
  -4.148347e-02f, -1.629916e-02f, 7.710423e-02f, -7.742729e-03f, 6.379766e-02f, -7.967596e-02f, -8.184609e-02f, 7.489196e-02f,
  -7.509239e-02f, -8.177943e-02f, 4.201080e-02f, 1.608558e-02f, 6.137038e-02f, -6.124101e-02f, -7.796952e-02f, 8.543802e-03f,
  6.768087e-02f, 2.358913e-02f, -6.527194e-02f, -4.616614e-02f, 3.341509e-03f, -2.262670e-02f, -8.348402e-02f, -6.446660e-02f,
  -3.069346e-02f, 6.604812e-02f, -8.403175e-02f, 5.345266e-02f, 5.772113e-02f, 5.021852e-02f, 6.719092e-02f, -5.486692e-02f,
  4.767494e-02f, 6.377195e-02f, -4.248380e-02f, -3.921745e-02f, -5.649028e-02f, 6.763738e-02f, -6.167785e-02f, -4.137742e-03f,
  3.584171e-02f, -1.633001e-01f, 3.032772e-03f, 3.877882e-02f, -9.094810e-02f, 4.987572e-02f, 4.405186e-02f, 3.811006e-02f,
  6.706607e-02f, -5.677646e-02f, 2.215776e-02f, -1.812691e-03f, -7.377032e-02f, 2.768903e-02f, 1.113036e-02f, -4.252126e-02f,
  5.262852e-02f, -2.197103e-02f, -1.136866e-01f, -6.151307e-02f, 2.641737e-02f, -1.360498e-02f, -1.829435e-01f, 1.244965e-01f,
  -3.980386e-02f, -1.151360e-01f, -3.021751e-02f, -2.557461e-02f, 2.502086e-02f, -5.856653e-02f, 1.482194e-02f, 4.814148e-02f,
  1.145545e-01f, 3.284512e-02f, 6.938294e-02f, 4.954917e-03f, 3.212556e-02f, 4.190717e-02f, -1.450200e-02f, -4.670071e-02f,
  1.521044e-01f, 8.518659e-02f, -1.205197e-01f, 6.545211e-02f, -8.848327e-02f, 1.248583e-02f, -6.497670e-02f, 7.927621e-02f,
  -1.169005e-01f, -4.303975e-03f, 1.171770e-01f, -1.054108e-01f, 1.197426e-01f, -4.752662e-02f, -9.235740e-02f, 5.258251e-02f,
  9.658441e-02f, -1.282495e-01f, 3.243167e-02f, -9.953191e-02f, 1.110262e-01f, -1.515085e-01f, -1.275053e-02f, 4.912315e-02f,
  -5.550718e-02f, 5.691708e-02f, 4.280953e-02f, 3.840331e-02f, 9.646512e-03f, 1.083708e-01f, -3.530630e-02f, -2.686189e-02f,
  -9.364481e-02f, -8.609895e-02f, -3.150814e-03f, 7.989013e-03f, 5.209031e-02f, -4.422824e-02f, -5.818260e-02f, -9.399253e-02f,
  -2.413932e-02f, -1.631006e-03f, -1.164243e-01f, -5.363018e-03f, 3.037896e-02f, -3.473667e-02f, 4.623385e-02f, -6.238304e-02f,
  -7.830229e-02f, 5.293865e-02f, -7.127621e-02f, 9.422213e-02f, 1.118873e-01f, 9.888886e-03f, 9.801108e-02f, 4.509002e-02f,
  5.633929e-02f, 9.201864e-02f, -4.480886e-02f, 5.409828e-02f, -1.678266e-02f, -4.440082e-04f, 2.366353e-02f, 7.555446e-02f,
  -5.681128e-02f, 6.401939e-02f, 3.125734e-02f, -1.313774e-02f, 4.632316e-03f, 8.058111e-02f, -2.345286e-02f, -4.247272e-02f,
  5.218786e-02f, 1.151688e-01f, -7.358769e-02f, 8.338665e-02f, 3.570036e-02f, 9.113155e-02f, 5.013073e-02f, 7.770941e-02f,
  1.351420e-02f, 6.223750e-03f, -7.549080e-02f, 3.080926e-02f, -5.369398e-02f, 1.239033e-01f, 1.111626e-02f, -5.608700e-03f,
  -7.740892e-02f, 3.878136e-02f, -9.133692e-04f, -5.335975e-02f, -6.403257e-02f, -1.107555e-01f, 1.967696e-02f, 5.099829e-02f,
  -8.921070e-02f, 2.615137e-02f, -1.071478e-01f, 3.209487e-02f, 9.536543e-02f, 1.481663e-02f, -4.202576e-02f, -2.658802e-02f,
  -1.839793e-02f, -6.954989e-03f, 1.239950e-02f, 9.174696e-02f, 7.206224e-02f, -2.998939e-02f, 9.274735e-02f, -5.262398e-03f,
  8.720654e-02f, -1.218412e-01f, -5.539020e-02f, -4.999102e-02f, 2.680551e-02f, 3.701249e-02f, -8.773638e-02f, -2.550796e-03f,
  -6.895147e-02f, 1.229380e-02f, 7.665274e-02f, -2.826949e-02f, -3.197001e-02f, 1.304548e-01f, -1.200118e-01f, -1.516292e-03f,
  2.734213e-02f, -5.807419e-02f, 5.573329e-02f, -3.243700e-02f, 1.266767e-01f, 3.235856e-02f, -1.155693e-02f, 2.681897e-02f,
  8.173344e-02f, -1.056179e-02f, -6.922284e-03f, -4.573354e-02f, 6.919286e-02f, 4.342647e-02f, -1.008676e-01f, 9.852793e-02f,
  2.157307e-02f, 2.656344e-02f, 5.305854e-02f, -1.366303e-03f, -6.685447e-02f, 1.506838e-02f, 8.745731e-02f, -7.994183e-02f,
  5.520120e-02f, 1.770716e-01f, 1.295434e-02f, 1.540657e-02f, 3.746905e-02f, 1.930600e-02f, -4.752376e-02f, 1.823607e-02f,
  -3.669023e-02f, 1.583487e-01f, -2.012637e-03f, 2.393253e-02f, 4.065975e-02f, 4.379483e-02f, 4.655075e-02f, -6.110407e-02f,
  -5.197816e-02f, 8.838271e-02f, 9.738179e-02f, 2.876173e-02f, -4.182189e-02f, 1.420335e-01f, 7.498980e-02f, 1.180655e-03f,
  -7.596942e-02f, -2.270181e-02f, -1.003215e-01f, -2.851045e-02f, 5.165922e-02f, 1.461997e-02f, -3.058082e-02f, 3.855002e-02f,
  -8.687528e-02f, 4.911027e-02f, -4.992999e-03f, 1.232826e-02f, -1.121683e-01f, -1.412783e-02f, 7.643216e-02f, -9.538303e-02f,
  -1.265757e-02f, 1.246427e-01f, 2.612076e-02f, -8.716491e-03f, -2.577483e-02f, -4.597309e-02f, -7.219715e-02f, -3.413679e-02f,
  -4.033384e-02f, -4.338251e-02f, 1.534379e-01f, -1.275410e-02f, 2.832911e-02f, 8.722413e-02f, 6.396450e-03f, -1.168713e-01f,
  1.515249e-02f, 5.919489e-02f, -1.294499e-01f, 1.008939e-01f, -8.018001e-02f, 6.814235e-02f, 7.312729e-02f, -5.296366e-02f,
  5.681803e-02f, -5.557363e-02f, 2.861347e-02f, -5.343376e-03f, -4.982178e-04f, 4.248053e-03f, 5.925509e-02f, 1.693065e-02f,
  2.226822e-02f, 1.605342e-02f, -1.453343e-01f, 4.872022e-03f, -1.254984e-01f, -6.829157e-02f, -8.444536e-02f, 2.521466e-02f,
  8.583350e-02f, -8.784258e-02f, -4.620026e-02f, 1.572970e-01f, -8.164543e-02f, 4.234693e-02f, 5.667632e-02f, 4.342034e-02f,
  -7.240085e-03f, -4.471004e-03f, 1.244366e-01f, -8.624886e-02f, 5.728515e-02f, -1.715731e-02f, -8.104429e-02f, 9.086885e-02f,
  1.362073e-01f, 3.091919e-01f, -1.040247e-01f, -9.818974e-02f, 2.814994e-01f, -1.587287e-01f, -1.383971e-01f, 1.512265e-01f,
  -2.082548e-01f, -5.862442e-02f, -4.506139e-02f, 1.732818e-02f, -3.742769e-02f, 3.778111e-02f, 3.928579e-02f, 6.787743e-02f,
  2.050456e-02f, -6.120082e-02f, 1.603249e-01f, -1.954865e-03f, 4.170826e-03f, 2.069867e-02f, -3.587888e-03f, 3.117720e-02f,
  -1.424940e-02f, 1.392407e-01f, -7.161566e-02f, 9.454550e-03f, 6.240999e-03f, 4.077125e-02f, 2.157984e-02f, 2.700785e-02f,
  -4.072386e-02f, 6.217898e-02f, 1.642225e-03f, 6.235567e-02f, -6.844073e-02f, -1.817055e-01f, 5.819611e-02f, -1.134168e-01f,
  -1.568441e-01f, -3.640003e-02f, 1.258367e-02f, -1.142345e-02f, -9.923199e-02f, 4.128511e-02f, -6.482799e-02f, -3.908168e-02f,
  9.122556e-02f, 1.714841e-02f, -3.546518e-02f, 1.697437e-01f, -4.108608e-02f, -5.479170e-02f, 1.663817e-01f, 3.247057e-01f,
  6.826258e-02f, 3.121653e-01f, 2.539580e-01f, 7.961676e-02f, 2.533142e-01f, 1.470464e-01f, 1.338588e-01f, -2.792992e-02f,
  -1.297339e-01f, -4.482720e-02f, -1.500102e-02f, -3.035383e-03f, 2.950188e-02f, 1.565901e-02f, 4.614689e-02f, -2.147491e-02f,
  5.612147e-02f, -5.712960e-03f, 7.181665e-02f, -3.184914e-02f, 4.923999e-02f, -6.265972e-03f, -1.650995e-01f, 1.637588e-01f,
  8.597898e-02f, 1.984482e-01f, 3.663358e-02f, 5.557997e-02f, 1.054682e-01f, -1.323747e-02f, -1.000093e-01f, 1.512650e-01f,
  1.403243e-02f, 1.645207e-01f, 1.278897e-01f, -5.454423e-02f, -4.988983e-02f, 4.583275e-02f, -1.388439e-01f, -4.675077e-02f,
  -4.067012e-02f, -1.900604e-02f, -2.551323e-02f, -8.498932e-02f, -6.270345e-02f, 8.613270e-02f, -6.457280e-02f, 1.689437e-03f,
  -2.641784e-02f, -1.660216e-01f, -7.825571e-03f, -7.888827e-02f, 2.567017e-02f, -1.127357e-01f, 2.005662e-02f, 7.591734e-02f,
  4.828038e-02f, -6.553803e-02f, 2.923653e-02f, -5.110695e-02f, -5.075083e-02f, 8.569196e-02f, -6.407056e-03f, -1.465201e-02f,
  7.041661e-02f, -1.182118e-01f, 5.349593e-02f, -1.706762e-02f, -1.561122e-01f, -1.304530e-01f, -6.729021e-02f, -4.448053e-02f,
  -4.048512e-03f, -1.901045e-01f, -1.148920e-01f, 7.441732e-02f, 7.511029e-02f, -1.596124e-02f, 3.260367e-02f, 4.592491e-02f,
  -3.258144e-02f, 9.206717e-03f, 1.650357e-02f, 5.307118e-02f, 6.547885e-02f, -7.589154e-02f, 5.759195e-02f, 7.974745e-02f,
  1.636165e-02f, -8.472485e-03f, -3.008994e-02f, 4.298116e-02f, -7.243785e-02f, -8.352312e-02f, -3.378510e-02f, -6.870839e-03f,
  -7.934981e-02f, -6.188434e-02f, 3.256624e-03f, 3.551728e-02f, -4.608056e-02f, -4.267010e-02f, 1.484067e-01f, 3.294407e-02f,
  -3.622106e-02f, 1.108127e-01f, -3.961550e-02f, 3.741800e-02f, 5.792559e-03f, -1.204118e-01f, 6.579223e-02f, -3.644072e-02f,
  -8.062690e-03f, -9.544843e-02f, 5.098068e-03f, 4.916006e-02f, 3.845625e-02f, -7.797407e-02f, -3.574979e-02f, -1.727558e-02f,
  -5.324526e-02f, 3.183160e-02f, 3.644106e-02f, 3.114323e-02f, -4.747778e-02f, 6.087946e-02f, 8.347652e-02f, -2.332709e-02f,
  -1.289622e-02f, 3.080849e-02f, -7.755775e-02f, -5.472543e-02f, 4.263600e-02f, -8.759800e-04f, -1.403621e-01f, 5.453362e-02f,
  -7.243708e-02f, -1.642255e-01f, -5.908575e-02f, -6.818078e-02f, -6.764543e-02f, -1.806651e-01f, -1.354041e-01f, -9.858730e-02f,
  -2.000601e-02f, 9.620445e-03f, 6.443406e-03f, -3.113456e-02f, -3.680434e-03f, 2.228226e-02f, -7.809997e-03f, -2.014392e-01f,
  7.413446e-02f, 1.182776e-01f, -2.256151e-01f, 8.079054e-02f, 9.082522e-02f, -9.167344e-02f, -1.276974e-01f, 7.306378e-02f,
  -1.071581e-01f, 5.407874e-02f, 4.320246e-02f, -1.652440e-02f, -5.451735e-02f, 4.971290e-02f, 2.825004e-03f, 5.512613e-02f,
  1.702354e-01f, -1.417530e-01f, 1.489819e-01f, 3.352028e-01f, -2.265305e-02f, 3.793591e-02f, -6.173651e-02f, 1.593173e-01f,
  -7.165156e-02f, 8.565340e-02f, 2.877930e-01f, 3.302788e-02f, -1.490939e-01f, 1.666651e-01f, -4.618036e-02f, -1.197728e-01f,
  -1.017495e-01f, -2.906254e-02f, -1.504182e-01f, 1.073980e-02f, -5.745649e-02f, -3.791984e-02f, 5.007266e-02f, -8.263651e-02f,
  -1.043371e-01f, -5.290339e-02f, 4.551362e-02f, 6.307563e-02f, 2.989571e-02f, 5.937713e-02f, -3.034575e-02f, 2.398238e-02f,
  -4.205203e-02f, 2.020213e-02f, -8.037829e-02f, -5.859713e-02f, -7.965641e-02f, -1.103236e-01f, -2.256393e-01f, -8.260946e-02f,
  -2.065978e-03f, -1.110881e-02f, 2.191418e-01f, 6.812034e-02f, 6.384094e-02f, 1.065306e-01f, 7.870018e-02f, 6.305017e-02f,
  1.432440e-02f, 1.438240e-01f, -6.150066e-02f, 4.331430e-02f, 1.364594e-01f, -2.131654e-02f, -7.981479e-03f, -1.748111e-01f,
  2.227322e-03f, -1.931251e-02f, -2.150266e-02f, 7.351704e-02f, 5.829015e-02f, 7.199200e-03f, -6.080418e-02f, 2.631134e-02f,
  2.046531e-01f, 2.543100e-01f, 7.709686e-02f, 1.945810e-01f, 3.117788e-01f, 1.463068e-02f, 8.957741e-02f, 9.262516e-02f,
  1.469206e-01f, -4.180137e-02f, -3.983143e-02f, -7.025095e-02f, 6.590654e-02f, -2.116060e-02f, -5.176223e-02f, 7.618145e-03f,
  7.239427e-02f, 8.388501e-02f, 9.080661e-02f, 1.368627e-01f, -1.282539e-02f, -4.004555e-02f, 4.329795e-02f, -6.745802e-02f,
  -1.477178e-02f, -5.123318e-02f, 2.923661e-02f, -8.373288e-03f, 7.178958e-02f, -6.029691e-02f, 5.590639e-02f, 3.148058e-02f,
  5.204633e-02f, -7.275473e-02f, -1.976828e-02f, 7.822826e-02f, 6.329668e-02f, 6.045790e-02f, -1.499584e-01f, 5.771555e-02f,
  2.374976e-02f, -8.822425e-02f, 2.369412e-02f, 1.117465e-01f, 2.101407e-02f, -1.018635e-01f, 6.603723e-02f, -2.298040e-02f,
  -1.784025e-02f, 1.972600e-01f, -2.678022e-02f, 6.114123e-03f, 1.752808e-01f, 2.669377e-02f, 2.261934e-01f, 2.124418e-01f,
  -5.839506e-02f, 7.245657e-03f, 1.678264e-01f, -4.520359e-02f, 1.329066e-01f, 2.540134e-01f, 7.256463e-02f, -1.246577e-02f,
  -3.219692e-02f, 1.862143e-02f, -8.701511e-02f, 9.365977e-02f, 2.113009e-02f, -7.727639e-02f, 3.066801e-02f, 1.415009e-02f,
  -7.234823e-02f, 2.132417e-01f, -6.004155e-02f, -1.830052e-01f, 6.963518e-02f, 4.299069e-02f, -7.656768e-02f, -1.682301e-01f,
  2.461466e-02f, 9.638579e-03f, 1.645527e-01f, 3.350890e-02f, -1.862850e-01f, 6.763043e-02f, -9.970310e-02f, -6.906289e-02f,
  4.758240e-02f, 4.984011e-02f, -5.574350e-02f, 2.173756e-02f, -3.381985e-02f, -6.688422e-02f, 8.729397e-02f, -3.487679e-02f,
  -1.217465e-01f, 3.810732e-02f, 1.430839e-02f, 3.142096e-02f, 3.793142e-02f, 3.049146e-03f, 3.088722e-02f, 1.820739e-03f,
  -7.462104e-02f, 1.031191e-01f, 1.758146e-02f, -6.931709e-02f, -7.141300e-02f, -3.656665e-02f, -1.741955e-02f, 1.580716e-02f,
  2.563011e-02f, 1.286187e-02f, -5.797999e-02f, 7.274157e-02f, 1.131878e-01f, 3.259488e-02f, 7.374921e-02f, 4.630058e-02f,
  -1.401693e-02f, 2.235618e-02f, -2.403192e-02f, -5.514160e-02f, 1.708808e-01f, -1.101908e-02f, -7.010032e-02f, -6.056918e-02f,
  -3.128143e-02f, -7.082234e-02f, -5.304645e-02f, -1.175668e-02f, 1.161169e-02f, 1.708083e-02f, 8.114855e-02f, -4.702018e-02f,
  -5.614616e-02f, -3.208984e-02f, -6.498475e-02f, 9.665749e-03f, 5.502295e-02f, -1.067262e-01f, 3.078043e-02f, 8.147872e-02f,
  -7.810280e-02f, -7.974122e-02f, -8.778862e-02f, -4.581416e-02f, 5.277050e-02f, -1.470095e-03f, -1.453334e-01f, -4.417721e-02f,
  1.025722e-01f, 9.639580e-02f, -2.605050e-02f, -5.011621e-02f, 7.300279e-02f, -6.054681e-02f, -4.206457e-02f, 2.097527e-02f,
  9.728836e-02f, 9.387233e-02f, -7.430942e-02f, 6.075858e-02f, 3.218288e-02f, -1.341540e-01f, -2.752157e-02f, 2.994493e-02f,
  2.400699e-02f, -1.002289e-02f, -3.627457e-02f, -1.176966e-01f, 1.744247e-01f, 2.866641e-02f, -3.518226e-02f, 2.134217e-01f,
  3.059950e-02f, -1.284876e-01f, 1.241755e-01f, 6.119899e-03f, -8.907763e-02f, 3.158849e-02f, 7.782789e-03f, -1.004160e-01f,
  9.133523e-03f, -3.907399e-02f, -3.307889e-02f, 6.476393e-03f, -3.105383e-02f, -6.666154e-02f, 7.117096e-02f, -3.566243e-02f,
  -1.436135e-02f, 8.145338e-02f, -3.379519e-02f, 9.038703e-02f, 1.516833e-01f, -4.639153e-02f, 3.963345e-02f, 6.050087e-02f,
  -1.044117e-01f, -4.922228e-02f, 6.963121e-02f, -9.500697e-02f, 5.202074e-02f, -3.546666e-02f, -4.599835e-02f, 3.319620e-02f,
  -2.598182e-01f, 1.973008e-02f, 2.124624e-02f, -2.552951e-01f, -5.825078e-02f, -5.099850e-03f, -3.076069e-02f, -4.948246e-02f,
  9.181320e-02f, -4.708229e-02f, -3.132518e-02f, 9.060765e-02f, -1.125134e-01f, -1.343175e-01f, -8.942266e-02f, -9.679115e-02f,
  -1.555054e-02f, 8.027332e-03f, -1.162273e-01f, -1.835362e-02f, 8.248067e-03f, -6.079349e-02f, -9.883535e-02f, 1.885295e-04f,
  6.869029e-03f, -3.231014e-02f, -1.921405e-02f, 1.349125e-01f, -4.009502e-02f, 4.127408e-02f, 1.418141e-01f, 1.668214e-03f,
  -8.888140e-02f, 5.308460e-02f, -3.522162e-02f, -1.049813e-01f, 8.861645e-02f, -2.911963e-02f, -1.517490e-01f, 1.945638e-01f,
  1.528311e-02f, -1.617652e-01f, 7.049300e-02f, -8.561929e-03f, 1.511376e-02f, -1.471102e-02f, -6.358582e-03f, -1.891843e-02f,
  6.072074e-02f, -2.155752e-02f, -7.833343e-02f, 3.101941e-02f, -6.863066e-02f, -2.838790e-02f, -3.191218e-02f, 6.642639e-02f,
  8.658024e-03f, 1.115387e-01f, 1.041605e-01f, -2.775759e-02f, 3.240714e-02f, -4.490109e-02f, -3.333034e-02f, 8.017229e-02f,
  4.462520e-02f, -7.094844e-02f, 2.166549e-02f, 8.072821e-03f, -1.609751e-01f, 1.154346e-01f, 6.781114e-02f, 5.183836e-02f,
  1.147486e-01f, -1.127384e-01f, -1.738348e-02f, 5.753703e-02f, -9.223306e-02f, -2.062408e-02f, 2.267873e-02f, 7.222461e-02f,
  5.673519e-02f, 1.402114e-01f, 3.341132e-02f, -1.007224e-02f, 2.088336e-01f, 2.260515e-02f, 2.509268e-02f, 8.049726e-02f,
  1.457368e-01f, -7.247694e-02f, 3.938395e-02f, 4.354640e-02f, 5.843514e-02f, -6.606094e-02f, 4.115932e-02f, -4.402572e-02f,
  -1.600848e-02f, 1.154260e-03f, 3.509427e-02f, -8.723804e-02f, -6.505239e-02f, -1.744625e-02f, 5.823251e-02f, -1.917161e-02f,
  1.797243e-02f, 3.454429e-02f, 6.219685e-02f, -5.289363e-03f, -6.624032e-02f, -2.597933e-02f, 1.075550e-02f, 3.431904e-02f,
  -3.595099e-02f, -2.081481e-02f, 3.887813e-03f, -2.482144e-02f, 8.127377e-02f, -3.308098e-02f, 8.110306e-02f, -2.306312e-02f,
  -9.138744e-02f, 8.399317e-02f, 7.305608e-03f, -2.149500e-02f, -7.360925e-02f, -8.978253e-02f, -1.124904e-01f, -9.994291e-02f,
  4.069478e-02f, -1.969779e-02f, -1.067915e-02f, 5.125576e-02f, 3.450451e-02f, -3.227945e-02f, 3.163690e-01f, 2.468704e-02f,
  -3.435224e-02f, 3.497549e-01f, 2.191060e-01f, 3.680019e-02f, 8.758041e-02f, 2.328753e-02f, 1.903912e-03f, 1.417736e-02f,
  2.299656e-02f, 7.064454e-02f, -1.867309e-02f, 9.742258e-03f, 3.078554e-02f, -4.171237e-02f, 2.113198e-02f, -6.284311e-02f,
  8.497039e-02f, 5.778013e-03f, -3.866930e-02f, 7.174346e-02f, 1.702986e-01f, -1.037562e-02f, -2.748960e-02f, -5.134539e-02f,
  -5.075880e-02f, 1.697084e-02f, -2.463863e-02f, -7.368366e-02f, 1.250499e-02f, 2.234993e-03f, -8.168942e-02f, -8.675600e-02f,
  7.181125e-02f, -9.057812e-02f, 2.781304e-03f, -2.468755e-02f, 1.847798e-01f, -1.226785e-02f, 3.049491e-02f, 1.383018e-02f,
  -5.456478e-03f, 7.503542e-02f, -8.685307e-03f, 8.849330e-02f, 6.544880e-02f, 1.239280e-01f, -3.397043e-02f, -3.253355e-02f,
  3.523855e-02f, 1.345003e-02f, -9.097173e-02f, -1.738293e-02f, -2.659581e-02f, -1.640010e-01f, 3.545216e-02f, 6.420382e-02f,
  4.379963e-02f, 9.508821e-02f, -5.093027e-03f, 5.297128e-02f, 3.938050e-02f, -1.224883e-01f, 4.597008e-02f, 1.458180e-01f,
  -2.197921e-03f, -1.311405e-01f, -1.102302e-01f, 1.705884e-02f, 1.585356e-01f, 8.956585e-02f, -4.811853e-02f, 1.756086e-02f,
  1.009312e-01f, -7.370715e-02f, -5.795465e-02f, 2.077624e-02f, -3.115886e-02f, -2.440592e-02f, -2.040134e-02f, 7.724719e-02f,
  -1.009282e-01f, 9.113941e-02f, 9.722517e-03f, 4.201074e-02f, 5.106853e-02f, 2.904381e-02f, 1.324424e-01f, 6.559344e-02f,
  6.695850e-02f, 8.315232e-02f, 7.423676e-02f, 6.963399e-02f, -1.667989e-02f, -1.300526e-01f, -4.648408e-02f, 3.869756e-02f,
  7.788489e-02f, 1.435910e-02f, 8.281916e-02f, -1.391745e-02f, -6.726768e-02f, 3.424657e-02f, -2.074708e-02f, -7.338634e-03f,
  -2.707508e-02f, -7.085288e-02f, 3.385049e-02f, 9.670861e-02f, -9.357814e-02f, -1.588388e-02f, -1.215300e-02f, 5.685313e-02f,
  2.825274e-02f, -1.757654e-02f, 8.075600e-02f, 8.000783e-02f, 9.873025e-02f, 7.031231e-02f, -1.735282e-02f, -1.553155e-02f,
  -2.620063e-02f, 2.158977e-02f, 3.047933e-02f, -5.272647e-02f, -6.479827e-03f, 1.172766e-01f, -1.791409e-02f, 8.582827e-02f,
  2.452709e-02f, 5.481333e-02f, -2.623370e-02f, -1.353379e-02f, -5.538942e-02f, -2.311003e-02f, 5.149932e-02f, 6.557278e-02f,
  3.669729e-02f, -2.347620e-02f, -2.280279e-02f, -4.676410e-02f, -2.556565e-02f, 6.951492e-02f, 5.358020e-02f, 2.670245e-01f,
  -2.780411e-02f, -1.325495e-02f, -8.857589e-03f, 8.019726e-02f, -3.826663e-02f, -2.796981e-02f, -4.495826e-02f, 1.055367e-01f,
  7.053444e-02f, 9.344672e-02f, 7.315354e-02f, 1.156631e-01f, -5.885538e-02f, -1.485368e-02f, 3.878776e-02f, 3.217008e-02f,
  2.090408e-03f, -7.125760e-02f, -8.086963e-03f, 1.253771e-02f, -3.321503e-02f, -1.436852e-02f, 5.726288e-02f, 6.851026e-02f,
  2.808509e-02f, 6.699961e-03f, -2.219871e-02f, -6.815331e-02f, 2.173332e-02f, -2.027156e-01f, -2.934575e-02f, 3.715935e-02f,
  -6.244699e-03f, -5.354672e-02f, 6.637821e-02f, 1.992356e-03f, -7.419424e-02f, 9.429224e-02f, -1.314730e-01f, -1.168140e-01f,
  -2.253739e-02f, -6.381287e-03f, 7.107040e-02f, -1.712517e-02f, -6.596120e-02f, -3.657681e-02f, 8.802065e-02f, 7.350923e-02f,
  -8.873430e-02f, 3.974131e-03f, -3.299826e-02f, -2.208678e-02f, 5.999982e-02f, 3.308594e-02f, 3.322639e-02f, 5.158156e-02f,
  -3.409148e-02f, -3.821453e-03f, -4.657888e-03f, 6.205849e-02f, -4.804289e-03f, -9.321139e-02f, -5.275139e-02f, 2.640258e-02f,
  6.109723e-04f, 6.113845e-02f, -1.146467e-01f, -8.528947e-02f, -2.509072e-02f, -1.427528e-01f, 6.620695e-02f, -2.710772e-03f,
  -1.308632e-01f, 2.160847e-01f, -1.998074e-01f, 8.147626e-02f, 8.228394e-02f, 1.288471e-01f, -3.359046e-02f, -1.139062e-01f,
  1.800488e-01f, -7.514435e-02f, -2.664991e-02f, 5.581015e-02f, -3.432096e-02f, -1.109837e-01f, -4.557132e-03f, -3.333905e-02f,
  -5.980243e-02f, -1.708598e-01f, -9.744793e-02f, 1.704398e-01f, -1.498515e-01f, 1.277615e-01f, 1.107502e-01f, -1.090150e-01f,
  2.091895e-01f, 1.391894e-02f, 3.156153e-02f, -4.702065e-02f, -2.775944e-02f, -3.547861e-02f, -5.715201e-02f, -7.834606e-02f,
  -5.821643e-02f, 3.661082e-02f, 2.134905e-01f, 1.816390e-01f, -1.126800e-01f, -3.203253e-02f, 1.366325e-01f, -1.113995e-01f,
  -6.814037e-02f, 1.137302e-01f, -1.370183e-01f, 7.857789e-02f, -7.539470e-02f, -4.564345e-02f, -6.251529e-03f, -1.146172e-01f,
  -1.129477e-01f, 9.591728e-02f, -6.289244e-02f, -7.435217e-02f, -1.070695e-01f, 8.512300e-02f, -6.638242e-02f, 1.332321e-03f,
  1.849221e-01f, -7.296634e-02f, 7.742669e-03f, -1.425565e-02f, -2.006776e-01f, -3.264267e-01f, -1.715454e-02f, -1.919353e-01f,
  -9.686355e-02f, 8.174435e-02f, -2.146718e-01f, -7.945753e-03f, 1.473977e-01f, -9.051602e-02f, 1.282272e-02f, 2.108053e-01f,
  5.009354e-02f, -6.627461e-02f, 2.066765e-02f, -5.566727e-02f, -9.235258e-02f, -5.069406e-02f, 4.868647e-02f, -2.957795e-02f,
  -6.062654e-02f, -7.424290e-02f, 8.991811e-02f, -7.292377e-02f, -8.824379e-02f, 7.318319e-02f, -9.840408e-02f, -1.237690e-01f,
  2.323831e-02f, 1.377893e-02f, -8.013018e-02f, -2.723643e-01f, -2.618155e-01f, -4.379690e-02f, -3.718329e-02f, -5.543250e-02f,
  3.396082e-02f, 1.013096e-01f, 7.935660e-02f, -6.510442e-02f, 1.433977e-02f, 1.486905e-02f, -5.781779e-02f, -1.819114e-01f,
  3.335421e-02f, -1.917658e-01f, -7.148810e-02f, 3.716284e-01f, -1.224869e-01f, -1.441733e-01f, 2.337077e-01f, -7.099330e-02f,
  -3.228014e-01f, 2.151803e-01f, -5.902335e-02f, 1.115599e-02f, -1.301477e-01f, -9.008666e-02f, 6.877448e-02f, -3.509729e-02f,
  -7.927123e-02f, -6.160229e-02f, -3.681767e-02f, -2.840429e-03f, 4.436410e-02f, -7.046655e-02f, -1.761786e-01f, -9.045622e-02f,
  7.411082e-02f, -2.332212e-01f, 9.752921e-02f, 1.045531e-01f, -1.409666e-01f, 2.148500e-02f, 1.738590e-02f, -1.376387e-01f,
  2.482509e-02f, 9.082865e-02f, -2.214364e-02f, -1.160846e-01f, 1.507892e-01f, -1.300018e-01f, 1.389471e-02f, -7.976944e-03f,
  -1.315239e-01f, -4.577683e-02f, 3.650425e-02f, -1.776728e-01f, -1.410940e-01f, 6.606971e-02f, -6.057058e-02f, -6.045153e-02f,
  4.751249e-02f, -1.829215e-01f, -1.410030e-01f, 1.263330e-01f, -1.639785e-01f, 6.614224e-02f, 1.193583e-01f, -1.679686e-01f,
  7.686830e-02f, 1.853434e-01f, -1.375248e-01f, 5.358102e-02f, 8.891204e-02f, -4.439496e-02f, -9.982073e-02f, 8.744077e-02f,
  -7.284725e-02f, -2.708986e-02f, -7.856756e-02f, -3.944281e-02f, 2.690218e-02f, 4.678706e-02f, -1.467991e-01f, -3.994070e-03f,
  -1.009710e-02f, 4.006615e-03f, 1.315678e-01f, -2.120657e-01f, -5.436466e-02f, 6.547304e-03f, -2.792272e-02f, -9.812115e-02f,
  -6.604876e-02f, -9.756083e-02f, -1.667088e-01f, 7.549496e-02f, 9.041236e-02f, 3.679472e-02f, 1.134014e-02f, 4.282960e-02f,
  -5.260937e-02f, -7.550698e-02f, 4.363737e-02f, -1.148009e-01f, 9.049749e-02f, 3.203500e-02f, -1.613138e-01f, -3.804477e-02f,
  6.487297e-02f, -4.286836e-02f, -3.356523e-02f, -2.559692e-02f, -1.256287e-02f, -1.532605e-02f, -3.186892e-02f, 2.726132e-03f,
  5.444642e-02f, 3.967448e-02f, 8.189023e-02f, 3.187548e-02f, -3.525425e-02f, 6.201107e-02f, 1.839366e-01f, -1.611607e-01f,
  4.159483e-02f, 1.133564e-01f, -8.576513e-02f, -8.411768e-02f, 2.249672e-01f, -2.529961e-01f, 7.527086e-02f, -3.608086e-03f,
  -5.779767e-03f, -5.482495e-02f, 1.764617e-02f, -1.000055e-01f, -1.565658e-01f, 2.727507e-02f, -2.349049e-02f, -8.126386e-02f,
  1.338218e-01f, -1.170404e-01f, -4.287976e-02f, 6.920606e-02f, -1.865188e-01f, -7.619607e-02f, 4.301176e-02f, -2.189438e-01f,
  -9.148269e-02f, -6.979881e-02f, -1.506018e-01f, 1.229828e-01f, -2.571951e-01f, -1.219879e-01f, 9.164546e-02f, 4.647622e-02f,
  1.292333e-01f, -1.228992e-01f, -1.550744e-01f, -4.645745e-03f, 7.339215e-02f, -2.283843e-01f, -8.847427e-02f, 4.050818e-02f,
  1.555128e-02f, 7.014778e-02f, -7.210176e-02f, 1.940953e-01f, 1.060872e-02f, -1.166875e-01f, 3.199990e-02f, -6.103205e-02f,
  -1.991207e-01f, 3.639567e-02f, 1.500475e-02f, -1.861156e-01f, 5.502435e-02f, 2.166570e-02f, -5.953127e-02f, -4.924922e-02f,
  1.090669e-02f, 5.514369e-02f, 2.508539e-02f, -4.987643e-02f, 3.730288e-02f, 5.618813e-02f, -1.029490e-01f, -2.172925e-01f,
  -3.596777e-01f, -2.437288e-01f, -1.488931e-01f, -5.560226e-02f, -1.334743e-03f, -1.039293e-01f, -2.581497e-01f, -1.608127e-01f,
  -5.802209e-03f, -2.534670e-01f, -3.107043e-01f, 3.981961e-02f, -2.103055e-01f, -2.309109e-01f, -2.825474e-02f, 4.321007e-02f,
  -8.362203e-02f, -3.452421e-02f, -3.890971e-02f, -5.108908e-02f, -8.018402e-02f, 1.924446e-01f, -1.167079e-01f, -1.875556e-03f,
  -7.948948e-03f, 1.950852e-02f, 1.243789e-02f, -7.186954e-02f, -6.142726e-02f, 4.832175e-02f, -7.043969e-02f, 7.538161e-02f,
  3.671541e-02f, 2.367912e-02f, -6.299737e-02f, -2.860899e-02f, 2.099486e-02f, 2.341368e-02f, -4.013671e-02f, -2.824595e-02f,
  -1.215062e-02f, -2.619300e-02f, -2.495907e-02f, -5.280818e-02f, -7.926326e-02f, -5.197067e-02f, 2.960839e-02f, 3.555169e-02f,
  -2.802650e-03f, -2.436811e-02f, 1.190032e-02f, 1.207925e-02f, -3.304137e-02f, 1.901040e-02f, -6.287251e-02f, -3.969122e-02f,
  7.631157e-02f, -1.044726e-01f, -3.765482e-02f, 3.828192e-02f, -4.895028e-02f, 3.490205e-02f, -7.907967e-02f, -2.255779e-03f,
  -6.563160e-02f, -7.754478e-02f, -6.904703e-02f, 2.841819e-02f, 4.246211e-02f, 5.417733e-02f, -5.598061e-02f, 6.448934e-02f,
  1.966985e-02f, -2.250813e-03f, 4.585466e-02f, -8.207823e-02f, 6.717972e-02f, -1.618771e-02f, 4.280635e-02f, 1.188150e-02f,
  5.617640e-02f, -4.730348e-02f, 1.860410e-02f, -3.451953e-02f, 7.264579e-02f, 1.845402e-02f, 1.568730e-02f, 3.169715e-02f,
  -2.368031e-02f, -2.858975e-02f, -6.578789e-02f, -2.445320e-02f, 2.940029e-02f, 3.535236e-02f, -7.509368e-02f, -5.787942e-02f,
  -3.949530e-03f, -7.756729e-02f, -6.091525e-02f, 4.165045e-02f, -7.974782e-02f, -1.103394e-02f, 5.440206e-02f, 8.065327e-02f,
  6.124744e-02f, -3.853307e-02f, 4.893547e-02f, 3.726510e-02f, 6.067885e-02f, -5.169517e-02f, 7.873924e-03f, -1.291193e-02f,
  2.499474e-02f, 3.858408e-02f, -6.963599e-02f, -4.052994e-02f, 7.563972e-02f, -1.421938e-03f, -3.451757e-02f, 2.623927e-02f,
  3.371213e-02f, -2.326135e-02f, -5.284198e-02f, -2.111639e-03f, -8.658081e-02f, 4.731295e-02f, -3.170938e-02f, -6.322566e-02f,
  -8.540611e-02f, 4.149408e-03f, -6.658941e-03f, 5.561102e-02f, -1.410033e-02f, -3.660003e-02f, -2.862042e-02f, -2.350395e-02f,
  5.310360e-02f, -6.152223e-02f, -6.070321e-02f, -1.608809e-02f, -6.077285e-02f, 3.649346e-02f, -8.437365e-02f, 6.419683e-03f,
  3.910484e-02f, -4.537213e-02f, -6.611197e-02f, 4.064286e-02f, 3.386988e-02f, 4.863857e-02f, -1.815905e-03f, -7.091703e-02f,
  -3.509259e-02f, -9.641545e-02f, 3.928323e-02f, 2.898538e-02f, -2.444266e-02f, 3.952656e-04f, 1.497928e-03f, 2.470016e-02f,
  3.591380e-02f, -2.162355e-02f, -6.300768e-02f, -8.611355e-02f, 5.864928e-02f, -1.034732e-03f, -7.463684e-03f, -2.813587e-02f,
  -1.529727e-02f, -4.361752e-02f, -3.802238e-03f, 3.579166e-02f, -7.951561e-02f, 7.367253e-02f, 2.645420e-02f, 2.149347e-02f,
  -1.881239e-02f, -1.471107e-02f, -6.385175e-02f, 5.032815e-02f, 7.984059e-03f, 5.999089e-02f, -6.320194e-02f, -2.504740e-02f,
  -1.945410e-02f, -8.513149e-03f, 4.137586e-02f, -1.055553e-01f, -6.191578e-02f, -5.098151e-02f, -7.630295e-02f, -3.417662e-02f,
  -7.598918e-03f, -3.446700e-02f, 9.199058e-03f, -2.396796e-02f, 1.122180e-02f, 6.185325e-02f, -7.757557e-02f, -8.003169e-02f,
  -4.774727e-02f, -6.799468e-02f, -1.283952e-02f, -4.536258e-02f, -9.425486e-02f, -6.316506e-02f, -6.603140e-02f, -5.690030e-02f,
  9.082697e-04f, -5.394115e-02f, -9.313429e-02f, 3.132074e-02f, -5.578121e-02f, -6.084723e-02f, 5.597087e-02f, 2.733465e-02f,
  3.653517e-02f, -1.705394e-02f, -3.311687e-02f, -1.115970e-02f, 3.105665e-02f, -2.099888e-02f, -5.845111e-02f, -7.782573e-02f,
  5.126362e-04f, -9.639622e-02f, -3.084120e-02f, 5.045708e-03f, -4.087215e-02f, -2.380736e-02f, 3.806579e-02f, 5.994551e-02f,
  -8.413822e-02f, -5.987016e-02f, -5.028668e-02f, 1.380831e-02f, 4.080003e-02f, 1.070962e-02f, -1.147371e-02f, 3.573144e-03f,
  1.270201e-02f, -8.261734e-02f, -4.758460e-04f, -2.871780e-02f, 2.956594e-02f, 7.738617e-03f, 3.643844e-02f, 3.006081e-02f,
  1.486352e-04f, 2.738515e-02f, -8.158018e-02f, 3.560414e-03f, 4.455878e-02f, 1.247866e-03f, -5.668250e-02f, 1.023812e-02f,
  3.756955e-02f, 1.861094e-02f, -9.815014e-02f, 5.169680e-02f, 4.789590e-04f, 1.802833e-02f, 3.259629e-02f, 6.634285e-02f,
  -4.367489e-02f, 1.920101e-02f, 6.027339e-02f, -6.445342e-02f, 1.119916e-02f, -3.074595e-02f, 4.858250e-02f, -7.906727e-02f,
  -4.457299e-02f, -9.401555e-02f, -8.683988e-02f, -5.224672e-02f, -8.219701e-02f, -7.225104e-02f, -5.583122e-02f, 5.188872e-02f,
  -7.931823e-02f, -5.290127e-03f, 4.614593e-02f, 2.102506e-02f, -4.710696e-02f, -2.303218e-02f, 6.649081e-02f, -4.969784e-02f,
  8.014253e-02f, 1.234845e-02f, -2.313735e-02f, 5.061077e-02f, -4.410998e-03f, 5.470598e-02f, 8.939391e-03f, -4.416919e-02f,
  -4.197740e-03f, 6.384525e-02f, -1.751158e-02f, -8.202079e-02f, 1.883547e-03f, 4.494134e-02f, 8.071024e-02f, -1.403851e-02f,
  -7.214421e-02f, 5.353300e-02f, -9.356052e-02f, -7.959912e-02f, 8.042813e-02f, -8.524859e-02f, -8.243692e-02f, 1.508851e-02f,
  -9.552441e-02f, -1.386348e-01f, -1.907519e-01f, -2.027641e-01f, -8.771410e-02f, 1.428548e-02f, -7.363470e-03f, 6.743065e-02f,
  5.347242e-02f, 1.190244e-02f, 2.387332e-02f, 3.901799e-02f, -2.965141e-02f, 3.427859e-02f, 7.129157e-02f, -4.241491e-03f,
  -5.635730e-03f, 4.951069e-02f, -1.947560e-02f, -3.440832e-02f, 1.121381e-02f, 1.243935e-01f, 7.950902e-02f, -4.006650e-02f,
  2.639611e-02f, -1.759480e-02f, -8.570938e-02f, 6.870341e-03f, 1.484282e-02f, -2.204392e-02f, 7.019530e-03f, 6.363605e-02f,
  -4.676334e-02f, 1.375049e-02f, -6.444596e-02f, -3.828697e-02f, 7.225436e-03f, 9.488003e-02f, 4.587453e-02f, -3.220085e-02f,
  -2.052959e-03f, -2.157207e-02f, -2.323632e-02f, 8.794454e-03f, -1.740002e-02f, -8.554523e-02f, 9.407905e-02f, 4.698741e-03f,
  2.044112e-02f, 3.145946e-02f, 3.722025e-02f, -1.653907e-01f, -7.536672e-02f, 7.774052e-02f, -3.520001e-01f, -1.299883e-01f,
  -5.522350e-02f, 9.573112e-02f, -3.889772e-03f, -6.359582e-02f, 9.439369e-02f, 5.771208e-02f, -1.670331e-01f, -5.336566e-02f,
  1.173444e-02f, 4.283311e-02f, 7.380987e-02f, -5.597619e-02f, -1.389647e-01f, -1.679734e-02f, -1.649341e-02f, -5.785338e-02f,
  1.545924e-01f, 4.327067e-02f, 8.821790e-02f, 4.958109e-02f, -3.285885e-02f, -1.453684e-01f, 9.981725e-02f, 1.611553e-02f,
  -8.745050e-02f, -1.764858e-01f, -4.170048e-02f, -9.826132e-02f, 5.743487e-04f, -1.318550e-02f, 1.644895e-02f, -1.029817e-01f,
  1.641572e-02f, -4.127052e-02f, 6.196962e-02f, 1.037853e-01f, 8.861814e-02f, -5.354199e-02f, -1.274214e-01f, -1.042675e-01f,
  3.725759e-02f, -3.457938e-02f, 3.524169e-02f, -3.439113e-02f, -3.727791e-02f, 7.163131e-02f, -6.988504e-02f, -2.185154e-02f,
  -1.082373e-02f, 4.541559e-02f, 1.074365e-01f, -2.942334e-02f, -1.216680e-01f, -8.080549e-02f, 5.617154e-03f, 6.677304e-02f,
  9.256427e-02f, 3.495003e-03f, 2.152506e-02f, -2.209515e-03f, 1.951935e-02f, -1.318489e-01f, -1.510121e-01f, 2.045518e-02f,
  -1.187372e-01f, -4.987339e-02f, 1.160210e-01f, 5.137309e-02f, 1.898177e-02f, -2.530919e-02f, -4.940637e-02f, -1.508641e-02f,
  8.618673e-02f, 6.487487e-02f, -5.921793e-03f, -3.236547e-03f, 1.517238e-01f, 7.979999e-02f, 2.077811e-02f, 4.505891e-02f,
  5.941566e-02f, 3.161559e-02f, -4.894266e-02f, 7.918371e-02f, -6.991012e-02f, -7.805898e-02f, -4.203377e-02f, -1.385012e-01f,
  -5.073501e-02f, 2.648717e-02f, 4.471975e-02f, 3.611835e-03f, -4.836049e-02f, -1.282000e-02f, 2.576807e-02f, -5.578911e-02f,
  1.441289e-02f, -3.938366e-02f, -1.078957e-02f, 7.390780e-02f, -8.664764e-02f, -9.374644e-02f, 1.331946e-03f, 9.898110e-02f,
  -6.623508e-02f, 3.607690e-02f, -1.435706e-01f, -3.258776e-02f, 4.241297e-02f, -6.669897e-02f, -2.744081e-02f, 1.072405e-01f,
  1.377941e-01f, 1.273954e-01f, 2.586039e-02f, -6.614839e-03f, -5.885377e-02f, 1.975030e-02f, -1.056597e-02f, 7.315616e-02f,
  -1.758627e-02f, 1.431329e-01f, -1.240165e-01f, 2.965387e-02f, 2.566999e-02f, 4.857696e-03f, -4.565115e-02f, 8.455511e-03f,
  5.485340e-03f, 2.695413e-02f, -2.311912e-02f, 2.249452e-02f, -6.996238e-02f, -8.586530e-02f, 3.848198e-02f, -8.384746e-02f,
  1.209981e-02f, 1.167680e-02f, -4.891099e-02f, 1.951097e-02f, 9.475149e-02f, 9.648617e-02f, 4.978650e-02f, 6.807323e-02f,
  -3.025036e-02f, -5.062893e-02f, -1.135397e-01f, -1.572489e-01f, 4.908759e-02f, 1.319572e-01f, 9.842394e-02f, 2.020708e-02f,
  6.633718e-02f, 2.586226e-02f, -2.530545e-02f, -9.444878e-02f, -8.583326e-02f, 6.427410e-03f, 7.866636e-02f, 8.357002e-02f,
  -3.138776e-02f, 1.005792e-01f, 4.265106e-02f, 9.511026e-02f, 7.080393e-02f, -1.173616e-02f, 3.461766e-04f, -1.646970e-02f,
  4.734284e-02f, -6.130052e-03f, -1.072482e-01f, 9.428646e-02f, 1.730193e-01f, 1.489217e-01f, 7.316423e-02f, 9.116835e-02f,
  2.290322e-02f, 4.966894e-03f, 7.760713e-02f, -8.681584e-02f, -1.080100e-01f, -3.401861e-02f, 1.213920e-01f, 6.761338e-02f,
  5.044528e-02f, 5.723783e-02f, 2.316506e-02f, -9.461413e-02f, -6.887825e-02f, -1.466305e-02f, 8.409272e-02f, 1.128942e-01f,
  6.345813e-03f, 3.097816e-02f, -5.741690e-02f, -2.856717e-02f, 2.414200e-02f, -6.996185e-03f, -5.947782e-02f, 3.347453e-02f,
  -1.143991e-03f, 5.147243e-02f, -7.687569e-02f, -7.066020e-02f, 2.760157e-02f, -8.702371e-02f, -8.323093e-02f, -1.014075e-03f,
  7.473159e-02f, -6.539819e-02f, 5.648021e-02f, -4.304541e-02f, 2.552518e-02f, 1.186587e-01f, -1.198691e-01f, -1.134122e-02f,
  8.184534e-02f, 2.043930e-02f, 1.596533e-01f, 7.533883e-02f, 7.747081e-02f, 7.001911e-02f, -2.317106e-01f, -1.060010e-02f,
  -4.074738e-02f, 1.599054e-02f, 6.338659e-02f, 3.811878e-02f, 1.419487e-01f, 6.107955e-04f, -2.593315e-03f, 6.984451e-02f,
  -4.667959e-03f, 3.768430e-01f, -1.147666e-01f, -1.958955e-01f, 4.293049e-02f, -4.366859e-02f, 7.113129e-03f, 1.368073e-01f,
  8.191158e-03f, -6.722943e-02f, 8.142673e-02f, -2.501889e-02f, -2.634511e-02f, 3.030274e-02f, -6.514307e-02f, -6.875151e-02f,
  4.305559e-02f, 1.700827e-02f, -5.081360e-02f, 1.895749e-01f, -7.567742e-02f, 7.111197e-02f, -3.607955e-02f, 9.984189e-03f,
  1.496412e-02f, 4.713671e-03f, -5.956079e-02f, 6.578117e-02f, 5.790278e-02f, 1.564154e-02f, -5.375521e-02f, 4.401114e-02f,
  -2.558906e-02f, 9.342933e-02f, 9.044804e-02f, 1.494462e-02f, 6.969009e-02f, -2.052063e-02f, 6.809494e-02f, 5.509876e-02f,
  -1.143991e-01f, 7.645703e-02f, 1.166998e-01f, 9.412594e-02f, 3.048434e-02f, -7.690949e-03f, -7.620212e-02f, 3.787023e-02f,
  3.360817e-02f, -1.172393e-01f, 8.447529e-02f, -4.642480e-02f, -4.856305e-02f, 7.959533e-02f, -3.446699e-02f, 7.028378e-02f,
  4.884394e-02f, -7.961813e-02f, -2.233832e-02f, 1.267948e-01f, 1.148882e-01f, -9.916438e-03f, 3.795839e-02f, 8.914784e-02f,
  3.109947e-02f, -2.323024e-02f, 1.890880e-02f, 5.726638e-02f, 3.112361e-02f, 1.577456e-02f, 1.544931e-03f, -7.703736e-02f,
  1.202497e-01f, 7.489237e-02f, 1.119825e-01f, 1.667523e-03f, -1.428029e-01f, -4.684064e-02f, 2.225028e-01f, 1.230320e-01f,
  -4.512274e-02f, 5.829334e-02f, 1.396370e-02f, -2.532578e-02f, 6.042108e-02f, 6.255668e-02f, 3.618454e-02f, 5.524755e-02f,
  2.306889e-03f, -1.260317e-01f, -1.712248e-01f, -3.048468e-02f, 7.099180e-02f, 1.635238e-01f, -9.880170e-02f, 3.187319e-01f,
  2.849957e-02f, -2.954685e-02f, -1.283067e-01f, 3.434830e-02f, 6.360114e-02f, -8.487656e-02f, -8.068444e-02f, 8.780076e-02f,
  4.034818e-02f, -2.834567e-02f, 2.834263e-03f, -2.445706e-02f, 1.043945e-01f, 4.371438e-02f, 1.054750e-01f, -5.242827e-03f,
  -7.952940e-02f, 2.837361e-02f, 5.100010e-02f, -1.953737e-03f, -6.607838e-02f, -1.587250e-02f, -1.080250e-01f, -1.014968e-01f,
  5.020577e-02f, 2.986304e-01f, 1.292157e-01f, 6.433374e-02f, -2.131807e-01f, 7.562321e-02f, -8.229095e-02f, -4.496071e-02f,
  -7.767922e-02f, -7.727695e-02f, 8.135160e-03f, 8.500016e-03f, 9.187489e-02f, 9.289859e-03f, -7.365328e-02f, -1.768396e-02f,
  7.485581e-02f, -3.134564e-02f, 2.410715e-02f, -1.476170e-01f, 9.220766e-02f, 7.914921e-02f, 5.675185e-02f, 8.496623e-02f,
  6.243132e-02f, -6.087376e-02f, -1.136299e-02f, 2.939008e-02f, 1.307958e-01f, 1.318168e-01f, 5.182675e-02f, -1.238659e-01f,
  8.938120e-02f, -8.427610e-03f, 4.763126e-02f, 1.704408e-03f, 7.500815e-02f, 3.450882e-02f, -2.037075e-02f, 7.781933e-02f,
  -1.115002e-01f, -7.806610e-03f, -5.053895e-02f, 2.503656e-02f, -8.858433e-02f, 1.112423e-01f, 2.761962e-02f, -1.347476e-02f,
  1.048211e-02f, -4.515761e-02f, -7.749671e-02f, -8.767145e-02f, 9.928589e-02f, -3.285703e-02f, 1.605270e-01f, -1.660645e-02f,
  1.539060e-01f, -1.775672e-02f, 1.456578e-01f, -4.557127e-02f, 8.645778e-02f, 8.198265e-02f, 2.678526e-02f, -1.663432e-02f,
  -1.169303e-02f, -1.712328e-02f, -2.069859e-02f, 3.221370e-02f, -5.842053e-02f, 1.143850e-01f, 2.964821e-02f, 5.458107e-02f,
  -3.981961e-02f, -3.118615e-02f, -4.023875e-02f, -4.223833e-02f, -4.613836e-02f, 2.864096e-02f, -2.041595e-02f, -2.541470e-02f,
  1.767420e-02f, -1.004879e-01f, 4.981648e-02f, -1.717585e-01f, 7.572857e-02f, 2.103724e-01f, 7.591157e-02f, 2.111679e-02f,
  7.576937e-02f, 1.094942e-01f, -2.232191e-02f, -3.630710e-02f, 1.293283e-01f, 1.094585e-02f, 7.403506e-02f, -5.106329e-02f,
  -3.422280e-02f, -7.717415e-02f, -4.602219e-02f, 4.991168e-02f, 1.165654e-01f, 2.053206e-01f, -5.430657e-02f, -9.648769e-02f,
  3.648327e-02f, -4.246192e-02f, 1.597884e-02f, 1.601203e-02f, 2.630615e-01f, -2.386972e-02f, 3.311644e-02f, -1.327537e-01f,
  4.979610e-03f, 3.485822e-02f, -2.472461e-02f, 1.119358e-01f, -6.888141e-02f, 4.004873e-02f, 1.487120e-01f, -1.362034e-02f,
  1.708526e-01f, -1.068745e-01f, 1.162431e-01f, -5.562126e-02f, 5.865326e-02f, 1.852092e-03f, -7.104328e-02f, 1.485397e-02f,
  2.432853e-02f, 1.961499e-02f, -4.477771e-02f, 5.989300e-02f, -5.236262e-02f, 5.518408e-02f, -6.102166e-02f, -5.856224e-02f,
  1.946065e-02f, 4.956808e-02f, -5.732115e-02f, 7.083623e-02f, 2.093529e-02f, -1.245177e-01f, -1.948833e-01f, -6.789654e-02f,
  -2.015347e-01f, 2.392970e-01f, 6.546453e-02f, -3.992823e-02f, -3.443462e-01f, -2.102116e-01f, -1.462972e-01f, 1.169992e-02f,
  -2.173729e-02f, 1.026399e-01f, -6.051480e-02f, -1.711199e-01f, 1.031146e-02f, -1.631947e-01f, 3.126699e-02f, -7.591560e-02f,
  2.661281e-02f, 5.831365e-02f, -8.839617e-02f, 7.294991e-02f, -1.384902e-01f, -8.884934e-03f, -4.506231e-03f, 1.309503e-01f,
  3.714625e-02f, 4.974667e-02f, 5.192791e-02f, -3.967145e-02f, -1.621188e-01f, -2.162362e-02f, -6.611938e-03f, 6.798069e-02f,
  -8.023837e-03f, -5.152438e-02f, 4.704752e-02f, 6.408625e-04f, 8.947863e-02f, 8.371034e-02f, -1.950762e-02f, -1.188737e-02f,
  3.945895e-02f, 6.786352e-02f, 7.452863e-02f, 4.057975e-02f, 8.343982e-02f, 1.688641e-02f, 4.829637e-02f, 3.690461e-02f,
  -4.126623e-02f, 1.370883e-01f, 4.871096e-04f, -2.489024e-02f, 5.059641e-03f, -1.987720e-02f, 5.433694e-03f, 1.706065e-02f,
  1.144530e-03f, -6.244865e-02f, -5.395134e-02f, -3.930981e-02f, 4.933638e-02f, 9.049326e-02f, 3.749738e-02f, -2.356647e-02f,
  8.555762e-02f, -1.619384e-02f, 1.233429e-02f, -8.106984e-02f, 4.055545e-02f, 9.905346e-02f, 2.261674e-02f, -9.085506e-02f,
  -1.792866e-03f, 1.208690e-01f, -7.911267e-02f, -1.654782e-02f, 4.105785e-03f, -9.109810e-03f, 5.837674e-03f, 2.688724e-01f,
  3.284613e-03f, -9.565749e-02f, -1.482672e-01f, 9.747106e-02f, -1.430634e-01f, 8.092540e-02f, 3.675957e-02f, -2.107064e-02f,
  3.153890e-02f, -4.937559e-02f, -2.868005e-02f, 6.175078e-02f, -5.028352e-02f, 8.391725e-03f, 4.329098e-02f, 6.621327e-02f,
  4.276507e-02f, 6.339390e-02f, 6.910586e-02f, 5.274902e-02f, 5.888197e-02f, -4.390330e-02f, 9.953582e-02f, 8.122519e-02f,
  -4.305173e-02f, -9.333134e-02f, 2.238048e-02f, -3.423616e-02f, -2.553251e-03f, -6.558126e-03f, 7.897293e-02f, -1.152460e-03f,
  9.795145e-02f, 7.527889e-02f, -4.674100e-02f, -2.899604e-02f, 4.692508e-02f, -2.152985e-02f, 9.709912e-02f, -4.774762e-02f,
  2.266663e-02f, 6.207212e-02f, -6.180533e-02f, 8.368741e-02f, 2.096458e-02f, 1.644082e-02f, 9.676458e-02f, -6.829178e-03f,
  3.325646e-02f, 6.857218e-02f, -4.163872e-03f, 2.317496e-02f, -2.712720e-02f, -3.473508e-02f, -2.373270e-02f, 1.815266e-02f,
  -3.274930e-02f, -4.079783e-02f, 7.019473e-02f, -2.958588e-02f, 6.213136e-02f, -9.546726e-02f, -1.194051e-02f, -5.528107e-02f,
  -1.047089e-02f, -4.780573e-02f, 3.466015e-02f, -9.806132e-03f, 3.444794e-02f, -1.181308e-01f, 8.695329e-02f, 3.724455e-02f,
  -6.457423e-02f, 8.576779e-03f, -5.839470e-02f, 7.789672e-03f, -2.861950e-02f, -1.106257e-01f, 1.794644e-02f, -5.575084e-02f,
  -3.438676e-03f, -1.905261e-02f, 1.326340e-02f, 1.189477e-02f, -5.770930e-02f, -6.930471e-03f, 9.546489e-02f, -5.440194e-02f,
  -6.298262e-02f, 5.706208e-02f, -1.933697e-02f, -4.801814e-02f, -3.952903e-02f, 6.241102e-02f, 2.533417e-02f, 6.031835e-02f,
  -6.707849e-02f, 1.178059e-01f, 1.229097e-01f, 1.236403e-01f, 9.988049e-02f, 9.210747e-02f, 5.664388e-02f, 1.021080e-01f,
  8.755678e-02f, 6.714232e-02f, -3.582926e-02f, -4.682417e-03f, 1.096763e-01f, 7.035475e-02f, -3.126777e-02f, -3.823088e-02f,
  2.259600e-02f, 1.700453e-02f, -2.551657e-02f, 4.150975e-02f, -6.442966e-03f, 4.814621e-02f, -2.452733e-02f, 4.620518e-02f,
  -9.088835e-02f, 5.131284e-02f, 8.393795e-02f, -6.728482e-02f, 6.262343e-02f, -2.769970e-02f, 6.482727e-02f, -1.552869e-02f,
  -2.963717e-02f, 5.577682e-02f, -4.145498e-02f, -2.476841e-02f, -3.612705e-02f, -5.532015e-02f, -3.250337e-02f, 1.946085e-02f,
  7.083146e-02f, 8.144847e-02f, 3.197686e-02f, 8.488401e-02f, -1.924165e-02f, -6.716220e-02f, 1.423341e-02f, 3.290686e-02f,
  1.358748e-02f, 1.992573e-02f, -1.739706e-02f, 4.981240e-02f, -1.445067e-02f, 1.224875e-02f, -3.326241e-02f, 1.276599e-02f,
  4.045309e-02f, 9.058320e-02f, 8.177717e-02f, -3.619618e-02f, 8.815705e-02f, -1.381827e-02f, -6.547331e-02f, 9.552910e-03f,
  -8.609486e-02f, -1.094578e-01f, -7.862656e-02f, 1.801446e-02f, 9.096702e-02f, 7.519299e-02f, 1.165938e-01f, 5.024382e-02f,
  6.508841e-02f, 1.352159e-02f, -6.655483e-02f, 2.081260e-02f, -1.883257e-02f, 1.333720e-01f, 4.671557e-02f, -3.605403e-02f,
  1.119985e-02f, -8.266949e-02f, -2.056419e-02f, 3.004131e-02f, 1.707957e-02f, -5.649756e-02f, -3.993336e-02f, 9.254126e-02f,
  -3.990719e-02f, 1.511579e-01f, 4.507678e-02f, -6.326155e-02f, -2.018452e-02f, 1.900491e-02f, 1.457066e-02f, 1.938380e-02f,
  8.591501e-02f, 5.550822e-02f, 1.789039e-02f, 3.299490e-02f, -1.074751e-02f, -2.025579e-02f, -7.575428e-02f, -5.940815e-02f,
  -5.594285e-02f, 1.078395e-02f, 5.300402e-02f, -1.649267e-02f, 5.593475e-02f, -6.406517e-02f, -2.657627e-02f, -4.578409e-02f,
  8.112264e-02f, 8.039454e-03f, 3.689703e-02f, -9.061538e-04f, -1.061557e-01f, -1.045529e-01f, 8.374567e-02f, -1.065825e-01f,
  1.002694e-02f, -4.649619e-03f, 7.239570e-02f, -3.221171e-02f, 2.570307e-02f, -8.618513e-03f, -2.201870e-02f, 9.542944e-02f,
  1.043084e-03f, 4.150294e-03f, 4.922241e-02f, -2.154229e-02f, 7.928464e-03f, 1.633896e-02f, 8.910139e-03f, -1.122761e-01f,
  -6.440683e-02f, -7.592826e-02f, -6.091697e-02f, -9.104299e-02f, 9.147345e-02f, -6.720889e-02f, -1.089625e-01f, 1.010603e-01f,
  -3.692369e-02f, -4.833740e-02f, 2.748434e-02f, 3.569968e-02f, -5.328451e-02f, 2.313551e-02f, 1.521385e-02f, -5.417690e-02f,
  -3.259524e-02f, 3.807089e-02f, 3.410053e-02f, 4.896586e-02f, 4.929957e-02f, -1.557511e-04f, -8.152317e-02f, -4.682285e-02f,
  -1.120153e-01f, 1.453973e-02f, -4.495123e-02f, 6.497503e-02f, 5.684150e-02f, 5.513493e-02f, 6.072943e-02f, 1.907633e-02f,
  7.837184e-02f, 7.199878e-02f, -9.318536e-03f, -9.698683e-03f, -2.895577e-03f, 1.063025e-01f, 3.355699e-02f, -1.100421e-01f,
  -9.396210e-02f, 2.997708e-03f, 8.522770e-02f, -1.892849e-02f, 1.004136e-02f, -4.342778e-02f, 1.125751e-01f, -2.549290e-02f,
  -1.544132e-03f, 9.194466e-02f, -1.011360e-01f, 7.844615e-03f, -2.210482e-02f, -5.420604e-02f, 5.840493e-02f, -2.189422e-02f,
  -8.200607e-02f, -1.548834e-01f, 9.243494e-02f, -9.828798e-02f, -2.818518e-01f, 1.286705e-01f, 1.710390e-01f, 1.205782e-01f,
  1.716158e-02f, -2.624550e-02f, 6.075243e-02f, -8.973506e-03f, 6.741082e-02f, 2.953848e-02f, 4.898415e-02f, 1.577757e-02f,
  3.794165e-03f, -8.220647e-03f, -2.295588e-02f, 1.941146e-02f, -6.919016e-02f, -5.424947e-02f, -1.031174e-01f, -1.021094e-01f,
  -8.826603e-02f, -4.469919e-02f, 1.260323e-02f, 6.721068e-02f, -5.759059e-02f, 3.659207e-02f, -1.132098e-01f, -8.774091e-02f,
  -9.105426e-02f, -8.722655e-02f, -5.749173e-02f, 1.408115e-01f, -2.279270e-02f, -8.161021e-02f, 1.189701e-01f, 5.288525e-02f,
  2.910884e-02f, -1.448601e-02f, 2.561241e-02f, -3.370762e-02f, -8.496048e-02f, 4.755661e-02f, 5.284032e-02f, 3.519971e-02f,
  -5.315589e-02f, -6.231831e-02f, -6.466965e-02f, 4.901172e-02f, 4.574999e-02f, 5.720467e-02f, -3.794729e-02f, -8.765136e-02f,
  -1.113249e-02f, -7.643340e-02f, -2.869274e-02f, -8.715314e-03f, 1.562019e-02f, 7.870789e-02f, 2.758231e-02f, 6.001532e-02f,
  5.013524e-02f, 6.525210e-02f, -4.927524e-02f, 3.897890e-02f, 9.028402e-02f, 2.051921e-03f, -4.178952e-02f, -3.842124e-03f,
  9.703692e-02f, -1.069107e-01f, 7.624591e-03f, -4.626731e-02f, 9.457707e-03f, -1.035511e-02f, -2.327838e-02f, 8.357278e-02f,
  5.102446e-02f, -8.675521e-03f, -3.671056e-02f, 5.858968e-02f, -1.378563e-02f, -8.477487e-02f, 1.041927e-01f, -4.521965e-02f,
  1.032319e-01f, -1.097509e-03f, 1.993825e-02f, -4.787115e-02f, -2.749771e-02f, 2.351163e-02f, 5.440420e-02f, 9.607626e-02f,
  1.005309e-03f, -4.840867e-02f, -9.842531e-02f, -4.371292e-03f, 3.635771e-02f, -2.436319e-02f, -4.706059e-02f, -8.047872e-02f,
  8.671745e-02f, -6.111971e-03f, -1.605249e-03f, 9.546724e-02f, -7.941854e-04f, -3.612459e-02f, -4.123688e-03f, 6.431140e-02f,
  -2.474575e-02f, -2.546880e-02f, -1.363983e-02f, 3.628244e-02f, 6.651873e-02f, 6.098015e-02f, -8.213478e-02f, -3.243830e-02f,
  -1.481815e-01f, 1.578121e-02f, 1.419000e-01f, -4.041291e-03f, 9.123119e-02f, 2.186278e-02f, 4.319546e-02f, 2.122259e-03f,
  -3.941454e-02f, -1.329877e-02f, 5.541262e-02f, 4.777418e-02f, -9.378083e-02f, 9.845935e-02f, -3.896124e-02f, -5.290244e-02f,
  2.018802e-02f, -1.727833e-02f, 8.902397e-02f, 6.521094e-02f, 1.003890e-02f, 5.553199e-02f, -1.309025e-02f, -1.126016e-02f,
  1.413160e-01f, -6.339943e-02f, -1.535618e-01f, 7.819793e-02f, 9.974709e-02f, 5.690808e-02f, 8.598238e-03f, -4.755517e-03f,
  -3.525515e-02f, -2.106169e-02f, 9.419969e-02f, 3.432768e-02f, 2.866038e-03f, -5.112164e-02f, -7.306623e-03f, 3.235607e-02f,
  9.942921e-02f, 2.006924e-02f, 1.603876e-02f, -5.694460e-02f, -4.137019e-02f, -6.650686e-02f, 4.453345e-02f, 6.050601e-02f,
  -1.013430e-02f, 6.432206e-02f, 1.053359e-01f, 6.160267e-02f, -2.590856e-02f, -5.715072e-02f, -2.621017e-02f, -9.440900e-03f,
  7.300886e-02f, -4.695248e-02f, 1.308560e-01f, 2.372645e-02f, 2.181529e-02f, -4.298321e-02f, 1.010885e-02f, -1.570486e-02f,
  -4.701272e-02f, 8.379456e-02f, -3.899159e-02f, 1.348290e-01f, -9.654053e-03f, 1.228583e-01f, -6.961060e-02f, 2.304146e-02f,
  6.073564e-02f, 2.252366e-02f, 5.651089e-02f, -7.181679e-02f, -1.774663e-02f, 2.759138e-02f, -2.303590e-02f, 3.797603e-03f,
  -7.343255e-03f, 2.712248e-02f, 6.233146e-02f, 4.086036e-02f, -2.114095e-02f, 9.612266e-03f, -1.381164e-01f, -1.787222e-02f,
  2.336488e-02f, 3.387027e-02f, 8.584265e-02f, -5.575722e-02f, -1.463496e-01f, -5.595958e-02f, 1.552854e-01f, 6.517651e-02f,
  3.797005e-02f, -2.044688e-02f, 7.102051e-03f, 3.024543e-02f, -8.144776e-02f, -3.619247e-02f, -2.601442e-02f, 5.872020e-02f,
  -5.516451e-02f, -5.399789e-02f, -6.362358e-02f, -1.095449e-01f, -6.158802e-02f, 3.950692e-02f, -1.643902e-02f, 1.278964e-02f,
  -6.332727e-02f, 5.198612e-02f, -4.977104e-02f, -2.142712e-01f, 1.797206e-01f, -3.656173e-01f, -2.648406e-02f, 2.995524e-01f,
  -7.594378e-02f, -3.403013e-02f, -3.076738e-02f, -8.251939e-02f, 9.414889e-03f, 7.370581e-02f, 4.155833e-02f, 1.797263e-02f,
  1.566321e-03f, -5.515686e-02f, 3.852290e-03f, -1.247224e-01f, -6.553401e-02f, 8.162892e-02f, 1.421006e-01f, -6.521886e-02f,
  -4.643014e-02f, 9.789386e-03f, -6.102278e-02f, -6.769975e-02f, -1.762139e-02f, -3.230110e-02f, 6.179879e-02f, -2.843305e-02f,
  -2.746474e-02f, 2.002823e-01f, 7.632659e-02f, -6.285313e-03f, -6.599733e-02f, -4.976053e-02f, -4.170354e-02f, 2.045598e-01f,
  2.973025e-03f, 1.221161e-02f, -5.514093e-03f, 1.910035e-02f, 1.109899e-03f, -1.159486e-02f, -3.415791e-02f, -1.970761e-02f,
  6.385099e-03f, -1.546033e-02f, 9.749626e-03f, -7.245040e-02f, -1.363440e-01f, -4.970663e-02f, 5.154613e-02f, 8.508921e-02f,
  2.647392e-02f, -7.572342e-02f, -7.965106e-02f, 1.091119e-02f, 4.944973e-02f, 6.498714e-03f, -8.541385e-02f, -1.969396e-02f,
  -6.855303e-02f, 3.511420e-02f, 1.323396e-01f, 9.268825e-02f, 7.950398e-03f, -9.855264e-03f, 9.367331e-02f, 8.889832e-02f,
  -1.273958e-03f, -5.581764e-02f, -1.170127e-02f, 2.976685e-02f, 1.041903e-01f, 9.865373e-02f, -4.316178e-02f, -2.296586e-01f,
  1.508685e-02f, 2.325501e-02f, -3.314352e-02f, -2.910618e-02f, -1.520746e-02f, 1.981179e-02f, -1.013413e-01f, -5.983900e-02f,
  -7.627169e-03f, -1.562571e-01f, 2.159156e-03f, -1.481326e-02f, 9.892306e-02f, 1.601813e-01f, -7.166794e-02f, 4.008013e-02f,
  3.395202e-02f, 1.131566e-01f, 1.310982e-02f, 5.782203e-02f, 1.061881e-01f, 8.505376e-02f, 1.718085e-03f, -3.375649e-03f,
  5.431196e-02f, 8.209484e-02f, 2.116502e-02f, -3.660155e-02f, 4.465568e-02f, -3.359107e-02f, 1.750581e-02f, 8.194235e-02f,
  -2.493929e-02f, 1.495610e-02f, 7.590241e-02f, 3.947578e-02f, 3.371499e-02f, 1.037940e-01f, -1.109942e-02f, 1.541591e-01f,
  -6.891415e-02f, -2.486333e-02f, 2.767625e-02f, -2.096482e-02f, -8.165976e-02f, -9.238606e-02f, -1.412432e-02f, -5.140070e-02f,
  -6.278294e-02f, 1.295535e-01f, 1.320399e-01f, -8.186536e-02f, -2.513735e-02f, -5.301499e-02f, 5.420336e-02f, 7.765254e-02f,
  1.161697e-03f, 4.295821e-02f, 1.937282e-02f, 9.021283e-02f, -7.850578e-02f, 1.113239e-03f, -7.186063e-03f, 6.693371e-02f,
  1.764353e-02f, -5.837967e-02f, 1.100333e-01f, 9.187468e-02f, 1.199437e-01f, 2.513554e-02f, -2.329482e-02f, 6.283329e-02f,
  -1.387837e-02f, -3.948517e-02f, 1.320769e-02f, -5.412300e-02f, -5.378220e-02f, 1.418153e-02f, 6.867314e-02f, 5.880683e-02f,
  -3.553841e-03f, 4.781739e-02f, -4.489532e-02f, 2.787843e-02f, -6.399886e-02f, 3.110244e-02f, 1.380993e-01f, -5.314901e-02f,
  -3.875643e-02f, -2.463453e-02f, 1.205175e-02f, -5.712056e-02f, -1.141145e-01f, -5.191772e-02f, 1.179363e-02f, 2.448980e-01f,
  1.490773e-02f, 1.490275e-02f, -5.120042e-02f, 3.423012e-02f, -7.019305e-02f, -4.862174e-03f, 1.215114e-02f, 3.362525e-02f,
  5.803687e-03f, -5.898036e-02f, 9.149198e-03f, 8.246034e-03f, -4.474190e-03f, 6.192958e-02f, -4.565106e-02f, -4.229734e-02f,
  -6.380570e-03f, 4.465638e-02f, 8.943369e-02f, 2.395851e-02f, -4.914827e-02f, 6.825098e-02f, -6.308433e-02f, -5.199016e-02f,
  -1.118742e-01f, 9.126841e-02f, 3.144256e-01f, 1.522633e-01f, -5.412661e-02f, -3.454180e-02f, 5.554493e-02f, 3.566543e-02f,
  7.102985e-02f, 9.049430e-02f, -5.428288e-02f, -8.224449e-02f, -3.980197e-02f, 5.996635e-02f, 6.470697e-02f, 1.071363e-01f,
  -9.976182e-02f, -1.215553e-01f, 1.338512e-02f, 9.540450e-02f, 1.298785e-01f, 6.926190e-02f, 5.133412e-02f, -1.484697e-01f,
  -4.921299e-02f, 8.474967e-02f, -3.465656e-02f, -4.087823e-02f, 7.484498e-02f, 1.661649e-01f, 1.495011e-01f, 1.586100e-02f,
  -1.944622e-01f, -1.301747e-01f, -1.590478e-01f, -4.266869e-02f, -1.483990e-01f, -6.905169e-03f, 5.742451e-02f, -1.209320e-01f,
  2.414742e-02f, 6.933790e-02f, -1.709227e-01f, -2.748478e-02f, -5.581522e-02f, 3.439411e-03f, 4.292716e-02f, 2.014023e-01f,
  3.862264e-02f, 3.440458e-02f, 5.585476e-02f, -4.930263e-02f, 4.856619e-02f, 2.616943e-02f, -3.282930e-03f, 7.527366e-02f,
  -7.296625e-02f, -2.231704e-02f, -5.113272e-02f, 5.805519e-02f, -6.569496e-02f, 1.599652e-01f, -1.832977e-01f, 7.655115e-02f,
  -9.985073e-02f, 2.119688e-02f, 9.574240e-02f, -1.937669e-01f, 7.660274e-02f, -5.790940e-02f, -1.491363e-02f, -1.920133e-01f,
  -2.778224e-02f, -3.443394e-02f, -2.548684e-03f, -5.766975e-02f, -2.649315e-02f, -1.884156e-01f, -6.647605e-02f, 5.420816e-02f,
  -5.672483e-02f, -1.425084e-01f, -1.561201e-01f, 1.574983e-01f, 9.526665e-03f, -6.079394e-02f, -6.222072e-03f, -1.144080e-04f,
  -1.964724e-02f, -5.593210e-02f, -3.513490e-02f, 1.409897e-02f, -1.176559e-01f, 8.030377e-02f, -5.931786e-02f, -1.306099e-01f,
  -1.291694e-01f, 3.797309e-02f, 1.326363e-02f, -3.107646e-02f, -4.568816e-03f, 6.100418e-02f, 5.679071e-02f, -3.112566e-02f,
  -4.145960e-02f, -5.003408e-02f, -1.160851e-02f, -3.422215e-02f, 6.253384e-03f, 5.177766e-03f, -6.499811e-02f, 3.504016e-02f,
  6.207221e-02f, -3.542742e-02f, -7.876978e-03f, 6.242125e-02f, -2.692315e-02f, -1.569825e-02f, -1.114783e-02f, 3.219895e-02f,
  -6.243135e-02f, -1.320609e-02f, -4.827716e-02f, 5.715909e-02f, -8.940773e-02f, 7.753217e-02f, -4.900983e-02f, 3.914287e-02f,
  4.419344e-02f, -2.991636e-02f, -3.288652e-02f, 1.273992e-01f, -7.832653e-04f, -1.050208e-02f, -2.283095e-02f, -1.803394e-02f,
  -1.103349e-01f, 7.892743e-03f, -8.685260e-02f, 9.112968e-02f, 8.185180e-02f, 3.413144e-02f, 9.538271e-02f, 1.663560e-01f,
  4.855934e-03f, 1.538889e-01f, 3.141367e-02f, -3.079396e-02f, -8.353904e-02f, 1.313476e-01f, 1.397620e-01f, 5.556695e-02f,
  -4.010412e-03f, -3.623044e-02f, -2.880336e-02f, -6.199530e-02f, 7.993075e-02f, 1.916622e-02f, -2.380612e-02f, 8.015308e-02f,
  4.784580e-02f, 3.547388e-02f, 5.926848e-02f, -2.862450e-02f, 5.025974e-02f, -3.706370e-02f, 9.599335e-02f, 6.513488e-02f,
  1.121177e-01f, 2.424249e-02f, 8.648298e-02f, 1.710105e-02f, -6.296171e-02f, -3.653041e-02f, 4.164469e-02f, 3.218978e-03f,
  -7.890023e-02f, 1.871708e-02f, 9.376352e-03f, 1.661994e-01f, -3.291224e-02f, 5.533398e-02f, 3.445381e-02f, 4.607977e-02f,
  -2.194968e-02f, 1.167909e-01f, -1.499380e-02f, 4.922929e-02f, 6.197918e-03f, 4.977821e-02f, -4.936718e-02f, 1.150921e-01f,
  9.815376e-02f, 3.987654e-02f, 1.498955e-02f, -5.292238e-02f, 5.343384e-02f, 5.211213e-02f, -8.119833e-02f, -5.329930e-02f,
  -7.092173e-02f, -6.108597e-02f, 4.762920e-02f, -3.896825e-02f, -4.051132e-02f, 7.358614e-02f, 7.800996e-02f, -1.098533e-02f,
  -5.398155e-02f, -2.314120e-02f, -4.280218e-02f, -3.009277e-02f, -1.249764e-01f, -4.387650e-02f, -1.013939e-01f, -4.989761e-02f,
  -8.812013e-02f, 8.660056e-02f, 1.427048e-02f, -4.481472e-02f, -9.905352e-02f, 9.991680e-02f, 7.055843e-02f, 6.441525e-02f,
  2.617392e-02f, 4.340281e-02f, -1.913026e-03f, 1.386534e-02f, 3.525240e-02f, -5.941547e-02f, 6.507391e-02f, 8.026090e-02f,
  -3.003550e-02f, 6.251464e-02f, -7.776895e-03f, 7.326105e-02f, 5.285078e-02f, -3.802660e-02f, 8.256447e-02f, 1.204065e-02f,
  -3.578258e-02f, 5.660809e-02f, 2.508168e-02f, -5.090512e-02f, -6.191340e-02f, 1.097054e-01f, 6.930976e-02f, 6.210565e-02f,
  -9.307824e-03f, 3.987728e-02f, 5.675961e-02f, 1.199436e-02f, -4.523329e-03f, -5.787423e-03f, 7.906169e-04f, -1.801652e-02f,
  -7.812201e-02f, -3.471316e-02f, -7.864818e-02f, 9.123678e-02f, 5.316500e-02f, -6.278551e-02f, -1.059699e-02f, 3.836393e-02f,
  -3.406911e-02f, 2.972015e-02f, -1.121205e-02f, 7.482206e-03f, 2.623868e-02f, -3.055439e-02f, 6.866808e-02f, 7.299871e-02f,
  -6.358134e-02f, -3.859811e-02f, -5.753249e-02f, -8.208201e-04f, -9.254077e-02f, -4.438956e-02f, 6.526496e-02f, -2.960890e-03f,
  -1.082021e-01f, -1.334880e-02f, -4.672762e-02f, 3.922093e-02f, 1.314423e-02f, -4.841621e-03f, -6.765728e-02f, 1.410303e-02f,
  -2.634127e-02f, 1.116190e-01f, 1.424659e-01f, 1.024355e-02f, 2.683459e-02f, -5.989449e-02f, 1.332167e-01f, 5.617722e-02f,
  2.749118e-02f, 5.386765e-02f, 8.450917e-02f, 1.828190e-02f, 7.578275e-02f, 4.866006e-02f, -4.034986e-02f, -2.103158e-02f,
  7.436998e-02f, 4.530343e-02f, 9.431877e-03f, -7.948705e-02f, -1.906485e-02f, -5.028063e-02f, 1.889862e-02f, 7.168704e-02f,
  9.643308e-02f, 5.960524e-02f, 4.345309e-02f, -1.135799e-01f, -2.265159e-02f, 3.944985e-02f, 9.109222e-02f, 6.569134e-02f,
  1.539227e-01f, 6.947771e-02f, -9.796336e-02f, 1.084678e-02f, 4.707506e-02f, -4.533590e-02f, 7.479962e-02f, -5.188295e-02f,
  5.045393e-02f, 1.021092e-01f, -1.217809e-02f, -4.818702e-02f, -3.794176e-02f, 9.895422e-02f, -6.064338e-02f, -5.718595e-02f,
  9.162067e-02f, -1.431836e-02f, -3.681741e-02f, 5.807564e-03f, -5.438953e-02f, 4.624890e-02f, -1.477711e-02f, 4.000592e-04f,
  -2.239083e-02f, -7.921989e-02f, -5.227905e-02f, -4.395525e-02f, -4.955989e-03f, 1.374434e-01f, -5.605562e-02f, 1.398586e-02f,
  -1.063110e-01f, -8.742494e-03f, 1.195244e-02f, 5.813225e-02f, -1.054425e-01f, -2.194396e-02f, 5.866025e-02f, -1.550140e-01f,
  -3.069511e-02f, -1.002824e-01f, 9.268261e-02f, 9.392727e-03f, -8.560189e-02f, -9.256078e-02f, -2.482737e-03f, 5.847796e-02f,
  6.701934e-03f, 7.419334e-02f, 3.479383e-03f, 1.913361e-03f, -3.370409e-03f, 6.011444e-02f, -5.179483e-02f, 8.796898e-02f,
  -5.308633e-02f, -2.022792e-01f, -3.076130e-02f, -1.901838e-01f, -9.576025e-02f, 1.469202e-01f, -2.019034e-01f, -2.675339e-02f,
  1.245870e-01f, -5.995304e-02f, -2.700541e-02f, -6.197638e-02f, -1.253814e-02f, -5.411745e-02f, 8.950241e-02f, -4.049924e-02f,
  -1.224065e-02f, 5.265408e-02f, -6.553682e-03f, -1.916761e-01f, -4.551458e-02f, 1.466004e-02f, -6.449096e-02f, 3.454139e-02f,
  -7.017158e-02f, -7.961105e-02f, -4.258854e-02f, 6.576484e-02f, 2.923186e-02f, -2.606424e-02f, -7.001015e-02f, 4.596938e-02f,
  2.974320e-02f, 1.721743e-02f, 6.725668e-02f, 5.415646e-02f, -5.282822e-02f, -2.821585e-03f, 6.709815e-02f, -1.418148e-02f,
  6.861226e-02f, 1.582713e-02f, 1.038169e-01f, -4.453141e-02f, -5.536326e-02f, -8.909831e-02f, 3.478935e-02f, 2.682618e-01f,
  -9.412905e-02f, 6.910973e-02f, 1.471165e-01f, 5.917583e-03f, 4.367777e-02f, -7.730336e-02f, -1.363547e-01f, -1.418340e-01f,
  1.309011e-01f, -7.201265e-02f, -1.986516e-01f, 1.399259e-01f, -2.899590e-01f, 5.731609e-02f, 5.257832e-02f, -4.768844e-02f,
  4.122503e-02f, 4.447740e-02f, 1.455983e-02f, -5.148420e-02f, -7.907075e-03f, -5.694699e-02f, -6.160983e-02f, 9.681531e-03f,
  -8.318833e-02f, 6.355867e-03f, -1.908568e-02f, 1.875672e-01f, -9.550069e-02f, 1.184289e-02f, 2.119382e-01f, -2.189469e-02f,
  -1.298022e-01f, 5.449416e-02f, 1.991870e-01f, 9.795171e-02f, 1.615144e-01f, 1.496753e-01f, 2.898352e-02f, -4.053110e-02f,
  -5.278185e-02f, 8.616048e-02f, -8.167672e-03f, -3.728101e-02f, 9.310159e-02f, 2.083486e-02f, 1.318813e-01f, 2.130584e-02f,
  4.225418e-02f, -6.343010e-02f, -1.067365e-01f, -7.428613e-02f, 9.007740e-02f, -3.264329e-02f, 5.408974e-02f, -4.933494e-03f,
  -6.212072e-02f, 1.089814e-02f, 6.114520e-02f, 1.991526e-02f, -2.893158e-02f, -1.018511e-01f, -1.424174e-02f, -2.386285e-03f,
  1.636562e-03f, 3.924201e-02f, 5.718026e-02f, -6.505410e-02f, 1.716683e-02f, -2.661182e-02f, 1.278889e-01f, -3.763295e-02f,
  5.552311e-02f, -1.063420e-01f, 1.784078e-02f, -7.220564e-02f, -4.114603e-03f, -5.436300e-02f, 6.841718e-02f, -8.713911e-03f,
  -1.536265e-02f, 3.795459e-02f, 9.365950e-02f, -5.877665e-02f, 1.452488e-01f, 8.946639e-02f, -3.148054e-02f, 1.435828e-02f,
  -8.020434e-02f, -2.436271e-03f, -5.647775e-02f, 1.052770e-01f, -3.752840e-02f, 6.382959e-02f, -9.964298e-03f, -2.882797e-02f,
  3.532752e-02f, 5.664864e-02f, 3.683624e-02f, -1.142477e-02f, 7.733676e-02f, 1.134437e-01f, -6.293614e-02f, -5.538138e-03f,
  -6.744272e-02f, 2.261290e-02f, 3.067989e-02f, 1.179712e-01f, 8.564666e-02f, -3.792109e-02f, -5.361754e-02f, 7.098211e-02f,
  4.399452e-03f, 8.518454e-03f, 6.951407e-02f, -1.128921e-01f, -1.813827e-01f, -9.715919e-02f, -1.292678e-01f, -1.999564e-02f,
  -1.064847e-01f, 5.706140e-02f, -3.253354e-02f, 8.806511e-02f, -1.224099e-02f, -4.232409e-02f, -9.263103e-03f, 1.394363e-03f,
  -5.166482e-02f, -1.877733e-02f, -6.171788e-02f, 6.880372e-02f, -3.020038e-02f, -8.854299e-03f, -6.834724e-02f, -3.279317e-02f,
  -1.339073e-02f, -2.579327e-02f, -6.313271e-02f, 1.962581e-02f, 3.660609e-02f, 1.903007e-02f, 3.429326e-02f, -2.138336e-02f,
  7.176787e-02f, -2.773401e-02f, -8.321728e-03f, 2.645542e-02f, -2.089440e-02f, -2.661639e-02f, -3.280862e-03f, -8.257592e-02f,
  -1.266471e-01f, 7.467423e-02f, -5.486879e-02f, -2.573905e-02f, -4.242910e-03f, -5.004496e-02f, -9.111023e-02f, 8.021990e-02f,
  1.168792e-01f, 1.894975e-01f, 8.385588e-02f, 1.778986e-02f, -8.014663e-02f, -2.641537e-02f, -5.344976e-02f, -8.835891e-02f,
  -8.310327e-02f, -6.457251e-02f, -1.627441e-01f, -1.152769e-01f, -1.080338e-02f, 1.450111e-01f, 1.832160e-01f, 4.172731e-02f,
  -2.186303e-04f, 1.186949e-01f, 3.449107e-01f, 5.148127e-02f, 2.660112e-02f, 8.857423e-02f, -4.341432e-02f, 2.016684e-01f,
  -8.012389e-02f, -9.381868e-02f, 4.383069e-02f, -7.342425e-02f, 9.303067e-02f, 2.889685e-02f, -4.754488e-02f, -2.350682e-02f,
  -7.879040e-02f, 2.788965e-02f, -3.354650e-02f, 5.370681e-02f, 7.340910e-02f, -1.328658e-01f, -2.397639e-02f, -1.076351e-01f,
  1.654507e-02f, -1.726792e-01f, 2.357399e-02f, -2.884001e-02f, 7.756272e-02f, -1.150836e-02f, 7.339790e-02f, 7.165265e-02f,
  -5.981705e-02f, 5.521603e-02f, -7.627717e-02f, 3.633237e-02f, 4.897960e-02f, -1.617178e-01f, -1.137183e-01f, -7.407980e-02f,
  1.375939e-02f, 3.329374e-02f, 1.961073e-02f, -2.802172e-02f, 1.326273e-01f, 1.316165e-01f, 6.533109e-02f, -1.988811e-01f,
  1.473394e-03f, -5.480345e-02f, -1.381629e-01f, 3.554333e-02f, -1.507276e-01f, -9.091327e-02f, 3.066600e-02f, 1.719737e-01f,
  1.090529e-01f, 1.278207e-01f, 3.581376e-02f, -5.688688e-02f, 8.669834e-03f, -2.202534e-02f, 1.063215e-01f, 8.834507e-02f,
  7.102601e-03f, 1.610041e-01f, -1.099573e-01f, -8.703384e-02f, 1.179726e-01f, -1.378046e-01f, 1.106931e-02f, -7.805502e-02f,
  -2.495462e-02f, 3.277040e-02f, -5.164067e-02f, 1.702603e-02f, -2.575623e-02f, 8.140895e-02f, -2.953138e-02f, -4.506687e-02f,
  -4.782577e-02f, -5.167816e-02f, -3.914125e-02f, 2.969923e-02f, -9.573968e-02f, -1.586985e-01f, 1.761723e-01f, 2.063462e-03f,
  9.503289e-03f, 4.433129e-02f, -2.752139e-02f, 1.069657e-02f, 7.179839e-02f, 6.275927e-02f, 6.491158e-02f, -3.923751e-02f,
  -8.584048e-02f, -2.163641e-03f, 6.549163e-02f, -1.074151e-02f, 6.705566e-02f, -3.005739e-02f, 9.376301e-03f, -4.585949e-03f,
  3.553857e-02f, -1.003382e-01f, 3.298583e-02f, -2.880109e-03f, 8.054759e-02f, 1.810120e-03f, 6.868582e-02f, -1.471391e-01f,
  2.513000e-02f, 1.273273e-02f, -2.549598e-03f, -9.151272e-03f, -7.575548e-02f, 4.638436e-03f, 1.345918e-02f, 9.803406e-03f,
  -6.037543e-02f, -1.752455e-01f, -7.402554e-02f, 7.493772e-02f, -2.564827e-01f, -1.761160e-02f, -3.689281e-02f, 1.235129e-01f,
  -9.447215e-02f, 9.144006e-02f, -7.907172e-02f, 1.044060e-01f, -8.611813e-03f, 1.402586e-01f, -2.031565e-02f, 2.524795e-02f,
  9.233063e-03f, 3.311406e-01f, 1.772434e-01f, -2.698009e-02f, -2.050503e-01f, 6.242479e-02f, 1.859779e-01f, 4.854302e-02f,
  -3.141465e-02f, -5.411146e-02f, 3.713499e-02f, -8.031122e-02f, -7.706065e-02f, 5.755414e-02f, -1.115225e-01f, -4.162847e-02f,
  -1.133572e-02f, -1.048738e-02f, -1.557804e-01f, -8.368805e-02f, 1.416489e-01f, -1.328559e-01f, 1.711201e-01f, 7.072937e-02f,
  1.308918e-02f, -7.022941e-02f, 4.214010e-02f, -2.373660e-02f, 6.544221e-02f, 7.012421e-02f, 4.181642e-02f, 2.790189e-02f,
  -7.498693e-03f, -7.839320e-03f, -1.959418e-02f, -2.617666e-02f, 4.293152e-02f, 8.253669e-02f, 6.482237e-02f, -3.441670e-02f,
  -1.338798e-01f, 7.798134e-02f, 2.211869e-03f, 4.741910e-02f, 4.014631e-02f, -4.229338e-02f, -5.109129e-02f, -1.175466e-01f,
  -1.151932e-01f, 1.589616e-01f, 1.211458e-01f, 2.216709e-02f, -6.524146e-02f, -1.582865e-01f, 4.622979e-02f, -1.359328e-01f,
  8.892783e-02f, -8.532249e-03f, 8.331176e-02f, 1.116336e-01f, -8.387526e-02f, 2.769812e-02f, 2.494025e-02f, 1.688491e-01f,
  -5.707046e-02f, 8.657784e-02f, 3.354433e-03f, 3.743710e-02f, 1.123004e-02f, 4.950090e-02f, 2.084122e-02f, -2.692380e-02f,
  6.355681e-03f, 1.628121e-02f, 4.232382e-02f, -1.399412e-01f, 2.697434e-01f, 4.470600e-03f, 2.640329e-02f, -4.073705e-02f,
  -2.867213e-02f, -7.137609e-02f, -3.712079e-02f, 3.982983e-02f, -6.950474e-02f, 8.598036e-02f, 5.174224e-02f, 2.131371e-02f,
  8.892429e-02f, 9.859164e-04f, 1.182712e-01f, -8.675281e-03f, -1.534443e-01f, -6.302038e-02f, 8.015577e-02f, 4.881948e-02f,
  -2.851019e-02f, 2.100763e-02f, -3.382695e-06f, 4.686577e-02f, 4.120082e-02f, -1.935855e-01f, -1.411586e-01f, 1.940042e-01f,
  2.075298e-02f, 1.080872e-01f, -9.862296e-02f, 3.078744e-02f, -1.632072e-02f, 5.675932e-02f, 9.461262e-03f, 5.890866e-02f,
  2.652800e-02f, 7.080594e-02f, 1.394832e-02f, 8.699261e-02f, 1.316032e-01f, -1.000201e-02f, 1.558680e-01f, -5.633835e-02f,
  -9.581515e-03f, 3.018695e-02f, -7.100348e-02f, 1.629111e-01f, 4.355079e-02f, 3.236178e-02f, 3.763951e-02f, 1.595921e-01f,
  -2.732426e-01f, 1.179821e-01f, -9.220271e-02f, 8.908968e-02f, -6.689561e-02f, -1.356690e-02f, 1.154364e-01f, 8.645044e-02f,
  1.822446e-02f, 7.496748e-02f, 3.282600e-02f, 4.623176e-02f, 4.029768e-02f, 1.384630e-02f, -7.307309e-02f, 2.167021e-02f,
  -1.812223e-03f, -9.756238e-02f, -4.765305e-02f, -1.669748e-01f, 1.341064e-01f, 1.560828e-01f, 1.265187e-01f, 3.177871e-03f,
  -4.310618e-02f, 6.966066e-02f, -1.293263e-01f, 4.231075e-02f, -6.317709e-02f, 1.645334e-01f, -5.254884e-02f, -1.105536e-01f,
  -1.276103e-01f, 1.708510e-02f, 1.391646e-02f, -4.730156e-02f, -5.961453e-02f, 6.224130e-02f, 5.752318e-02f, 4.083641e-02f,
  -1.238414e-01f, 1.444115e-02f, 9.505178e-02f, 1.185048e-02f, 9.728976e-02f, -1.168459e-01f, -9.966575e-02f, -2.687282e-03f,
  -2.433310e-02f, 1.110614e-01f, 4.583333e-02f, -1.398018e-02f, -6.303965e-02f, 7.164989e-02f, 3.464820e-02f, -1.050362e-02f,
  -5.090299e-02f, -7.069724e-02f, 7.041427e-02f, -3.657060e-02f, -7.452504e-03f, -5.281620e-02f, -6.204539e-02f, -1.843788e-01f,
  3.978497e-02f, 1.530431e-01f, 1.006835e-01f, -8.353607e-02f, 6.356032e-02f, -9.954973e-02f, -4.381196e-02f, -1.103725e-01f,
  -6.174763e-02f, -1.172252e-01f, 1.886441e-01f, 1.048341e-01f, -1.313596e-03f, 8.210226e-03f, -1.490337e-02f, -3.469738e-02f,
  1.238688e-01f, -2.095711e-01f, -1.962021e-02f, -9.986843e-02f, 5.574473e-02f, -3.166206e-02f, 7.600633e-02f, -1.009443e-01f,
  2.291409e-02f, 8.845996e-03f, -4.493601e-02f, -7.472496e-02f, 5.700206e-02f, -2.929145e-02f, -3.058581e-02f, 3.862924e-02f,
  -6.191211e-02f, -2.511515e-02f, 7.627159e-02f, 7.399821e-02f, 4.452698e-02f, 5.178270e-02f, -5.094979e-02f, -6.003669e-02f,
  7.533186e-02f, -7.618075e-02f, 9.551306e-03f, -6.719130e-02f, -1.156524e-03f, 2.663029e-02f, -5.139856e-02f, -7.943801e-02f,
  1.649195e-02f, -5.632581e-03f, 1.148056e-02f, -7.470701e-02f, 4.948543e-02f, 4.277513e-02f, -6.339590e-02f, -5.547496e-02f,
  -5.302138e-02f, -6.072425e-02f, -1.416321e-02f, 2.275012e-02f, -2.270528e-03f, 2.588220e-02f, -4.761669e-02f, -5.843944e-02f,
  2.690718e-03f, 1.956871e-02f, -3.811701e-02f, -4.585296e-02f, 1.707978e-02f, -4.686511e-02f, -5.550771e-02f, -5.333557e-02f,
  8.634666e-04f, -8.117022e-02f, 4.565499e-02f, -3.670035e-03f, -7.802784e-02f, -6.958467e-02f, -5.732139e-02f, -7.247605e-04f,
  7.356122e-02f, 7.972579e-02f, 1.646364e-02f, -4.009847e-02f, -3.003489e-02f, 3.759501e-03f, -2.708085e-02f, 5.918327e-02f,
  -8.774602e-02f, -7.560626e-03f, -8.512907e-02f, -6.983107e-02f, 1.300331e-02f, -1.423383e-02f, -4.894591e-02f, 7.140987e-03f,
  7.986377e-02f, 2.825563e-02f, -4.122589e-02f, 1.955627e-02f, -3.570633e-02f, 3.545547e-02f, -6.291641e-02f, 5.170507e-02f,
  6.931429e-02f, 4.787232e-02f, 1.011181e-02f, 1.657559e-02f, -1.247002e-02f, 2.723138e-02f, -2.543347e-02f, -5.691545e-02f,
  -2.296536e-02f, -6.370624e-05f, -7.749011e-03f, -9.207531e-02f, -1.826986e-02f, -3.883945e-02f, 6.913474e-02f, 1.568069e-02f,
  -3.944431e-02f, -7.221289e-02f, -6.308475e-02f, 4.443521e-02f, -7.902630e-02f, -4.043428e-02f, -8.543188e-02f, 7.395249e-03f,
  -1.974243e-02f, -4.946586e-02f, -3.087137e-02f, -4.657770e-02f, -9.134697e-03f, 5.730750e-02f, 2.756435e-02f, -1.300254e-02f,
  -5.418436e-03f, -8.425561e-02f, -6.326547e-02f, -5.656876e-02f, 6.732947e-02f, 3.687343e-02f, -4.751926e-02f, 2.749126e-02f,
  7.539486e-02f, -1.034608e-02f, 3.900288e-02f, 1.315524e-02f, -7.820303e-02f, -5.037355e-02f, -5.626946e-02f, 1.200554e-02f,
  2.639796e-02f, 2.855277e-02f, 2.384800e-02f, -7.166761e-02f, -5.891263e-02f, -7.204086e-02f, -2.949399e-02f, -8.156975e-02f,
  -2.019074e-02f, -1.296645e-02f, 3.260271e-02f, 5.041414e-02f, -3.810194e-02f, -7.784950e-03f, 4.294419e-02f, -6.697028e-02f,
  -4.901025e-02f, -8.919330e-02f, -5.315991e-02f, 2.551377e-02f, 8.671149e-03f, 4.298412e-02f, -3.005822e-02f, -5.526341e-02f,
  3.567286e-02f, -1.948021e-03f, 2.907674e-02f, 5.156339e-02f, 2.240561e-02f, 2.910401e-02f, -3.145811e-03f, -6.815032e-02f,
  -8.808323e-02f, -6.660111e-02f, -8.493029e-02f, -3.041646e-02f, 4.968727e-03f, 5.602567e-02f, 6.929182e-02f, -5.212797e-02f,
  -2.843204e-02f, 3.796705e-02f, 6.722222e-03f, 7.512093e-02f, 3.025426e-02f, 9.785352e-03f, -6.698279e-02f, -2.378511e-03f,
  -8.007705e-02f, -8.667091e-02f, -6.257240e-03f, -3.352659e-02f, -5.099608e-03f, -9.004162e-03f, -7.756846e-02f, 1.897731e-02f,
  -8.201899e-02f, -1.937111e-02f, 3.990996e-02f, 3.202162e-02f, 3.604516e-02f, 5.831732e-02f, -3.406186e-02f, -5.110077e-02f,
  -6.159460e-02f, 4.272853e-04f, 3.720599e-02f, -4.791827e-02f, -4.545358e-02f, -5.093148e-02f, 2.035512e-02f, -4.139987e-02f,
  4.783855e-02f, -1.075240e-01f, -5.948618e-02f, -3.174518e-02f, 7.545609e-02f, -3.966444e-02f, -9.773938e-03f, 1.460429e-02f,
  6.371001e-02f, -4.844389e-03f, -1.245232e-02f, 1.636583e-02f, -6.389363e-03f, -7.735850e-02f, 5.237599e-02f, 1.573486e-03f,
  -2.114824e-03f, -4.110009e-02f, -5.271874e-02f, 6.376468e-02f, 8.106465e-03f, -7.078898e-03f, 3.286878e-02f, 6.780024e-02f,
  2.021557e-02f, 4.805727e-02f, -4.687323e-02f, -5.534375e-02f, 2.076305e-02f, -3.692742e-02f, -6.714571e-02f, -7.233808e-02f,
  -6.493844e-02f, 6.754207e-02f, 2.166108e-02f, 1.430241e-05f, -7.102049e-02f, -8.426419e-02f, 4.738439e-02f, 4.665539e-02f,
  -4.754241e-02f, 3.432033e-02f, -7.329568e-02f, 7.462492e-02f, -6.553338e-02f, 3.557305e-02f, 2.105691e-02f, -8.635495e-02f,
  -8.917266e-02f, 2.733693e-03f, -6.418315e-02f, 1.944183e-02f, 7.107807e-02f, 4.389545e-02f, 7.153001e-02f, -9.537592e-03f,
  4.816844e-02f, -7.279115e-02f, -4.721570e-02f, -1.539458e-02f, 5.937832e-02f, 9.753347e-03f, 4.676001e-02f, 5.204875e-02f,
  -5.354784e-02f, 7.211689e-02f, 2.852598e-02f, 3.591418e-02f, -7.278422e-02f, -7.184492e-02f, 5.189703e-02f, 5.899671e-02f,
  -6.589412e-03f, 5.105940e-02f, -4.892654e-02f, 5.963491e-02f, -2.286478e-02f, -2.983164e-02f, 2.225037e-02f, -3.777051e-02f,
  -2.125278e-02f, -9.933126e-02f, 2.876013e-02f, 4.418098e-02f, 1.949531e-03f, -4.455978e-02f, 1.755614e-02f, 5.633556e-02f,
  5.922101e-03f, 6.408214e-02f, -6.982103e-03f, -4.426668e-02f, -3.195598e-02f, -3.196901e-02f, -5.545986e-02f, -4.338286e-02f,
  2.020121e-02f, 6.050342e-02f, 6.206936e-03f, 6.283988e-02f, -2.972749e-02f, -2.308930e-02f, -4.476678e-02f, -6.059177e-02f,
  3.774405e-03f, 5.128460e-02f, 3.605123e-03f, -8.371101e-02f, 6.123564e-02f, 5.878722e-02f, -7.187115e-03f, -1.287713e-02f,
  6.417670e-02f, 3.286460e-02f, -5.336434e-02f, 6.882465e-02f, 5.506627e-03f, -5.123782e-02f, -3.290216e-02f, 7.141619e-03f,
  7.130652e-02f, -5.631730e-02f, 6.782214e-02f, -1.623830e-02f, -5.171886e-02f, -6.106485e-02f, 1.103974e-02f, 5.746381e-02f,
  -4.559600e-02f, 6.383214e-02f, -6.520910e-02f, -7.026216e-02f, -4.240544e-02f, 2.067910e-03f, -8.822680e-03f, 7.824803e-02f,
  -5.768187e-02f, 6.138795e-02f, 5.418472e-02f, 2.300938e-02f, -7.833052e-05f, -1.577279e-02f, -1.578815e-02f, -4.155976e-02f,
  -3.070070e-02f, -5.509383e-02f, -5.901370e-03f, -5.899526e-02f, 4.881503e-02f, 5.758217e-02f, 5.964438e-02f, 5.652516e-02f,
  -7.893447e-02f, -2.522300e-02f, 5.826025e-02f, 6.019386e-02f, -8.686034e-02f, -6.809175e-02f, -4.482989e-02f, 2.061359e-02f,
  -7.004485e-02f, -2.025826e-02f, -6.342749e-02f, 1.028327e-02f, 2.994252e-02f, -8.073289e-02f, -5.989762e-02f, -1.963264e-03f,
  -6.638493e-02f, -3.770800e-03f, 2.909936e-02f, -5.723132e-02f, -1.705373e-02f, 2.294494e-02f, -4.071030e-02f, -6.935571e-02f,
  -8.617620e-03f, -6.022629e-02f, -4.441803e-03f, 3.885392e-02f, -4.357896e-02f, -6.271955e-02f, 6.879950e-02f, 4.844200e-02f,
  4.924923e-05f, -6.189310e-02f, -1.910471e-02f, -1.225459e-02f, -2.812216e-02f, -1.420035e-02f, -1.682332e-02f, -5.076436e-02f,
  4.009879e-02f, 4.845259e-02f, -7.388504e-02f, -8.169579e-02f, 3.068489e-02f, -3.183360e-02f, -2.348598e-02f, -5.723276e-02f,
  -8.284008e-02f, 4.589124e-02f, 5.766219e-02f, -3.503527e-02f, 4.905920e-02f, -6.960406e-03f, -4.512256e-02f, -2.766346e-02f,
  -2.900624e-02f, -8.058103e-02f, 7.107357e-02f, 4.959797e-03f, -3.477412e-02f, 4.763387e-02f, 1.967569e-02f, 3.087028e-02f,
  -2.092574e-02f, -7.803769e-02f, -1.679558e-02f, -3.665657e-02f, 5.450074e-02f, -1.657114e-02f, 7.414491e-02f, 1.011488e-02f,
  -5.613867e-02f, -3.603712e-02f, -5.291126e-02f, -1.128983e-02f, -8.687164e-02f, 7.775632e-02f, -5.626724e-02f, 3.411492e-03f,
  -1.623048e-02f, -8.568769e-02f, -7.857469e-02f, -1.589998e-02f, -5.653048e-02f, -7.583183e-02f, -5.213340e-02f, -1.602753e-02f,
  -3.052869e-02f, 5.361352e-02f, 1.610023e-02f, -6.920395e-02f, 5.822630e-03f, -7.591063e-02f, 5.665357e-02f, -2.414791e-02f,
  -4.227940e-02f, -5.689508e-02f, -7.424229e-02f, 2.435181e-02f, -3.833052e-02f, 6.804847e-02f, -5.983231e-02f, -1.649338e-02f,
  -6.661560e-02f, -3.690043e-02f, -3.169804e-02f, 5.915762e-02f, -8.271390e-02f, -1.003525e-02f, -8.769952e-02f, 5.197773e-02f,
  4.783813e-02f, -4.167103e-02f, 3.391500e-02f, -5.057598e-02f, -1.749177e-02f, 3.524182e-02f, 6.379494e-02f, -3.881136e-02f,
  -8.907323e-03f, 5.735101e-03f, 5.721471e-03f, -1.299328e-02f, 5.914287e-02f, -4.062560e-02f, -6.806454e-03f, -5.053326e-02f,
  -2.354159e-02f, 7.213170e-02f, -7.217059e-02f, 1.061454e-02f, 2.075380e-02f, -3.140354e-02f, 2.541778e-02f, -8.189896e-02f,
  4.760083e-02f, 3.181735e-02f, -7.180075e-02f, 3.105136e-02f, 3.060388e-02f, -7.254157e-02f, -1.926723e-02f, -2.509480e-02f,
  -6.943282e-02f, 7.087231e-02f, 6.159178e-02f, -6.161452e-02f, 2.862952e-02f, -1.946480e-02f, -7.361213e-02f, -9.594225e-03f,
  -1.820956e-02f, 2.750215e-02f, -1.402830e-02f, -1.730851e-02f, -8.384801e-02f, -5.252137e-02f, -6.811483e-02f, -2.628430e-02f,
  -4.726188e-03f, -9.463801e-03f, -1.679973e-02f, -5.690150e-02f, -6.608213e-02f, 2.723389e-02f, -7.094967e-02f, -3.384360e-02f,
  3.204636e-02f, 3.388318e-02f, -5.111844e-02f, -3.097232e-02f, 1.160287e-02f, -1.830886e-02f, -8.612446e-02f, 1.934486e-03f,
  -4.508661e-02f, -6.479292e-02f, -9.131403e-04f, 7.968122e-02f, -3.279948e-02f, -7.808925e-02f, -1.906746e-02f, -2.260982e-02f,
  -3.863721e-02f, -8.059859e-02f, -6.988511e-02f, 2.973896e-02f, -4.068846e-02f, -6.403184e-03f, 6.874454e-02f, -1.486119e-04f,
  9.568907e-03f, -5.026359e-02f, -4.831214e-02f, 2.145616e-02f, 4.487016e-03f, 7.770272e-02f, 2.789873e-02f, 7.425713e-02f,
  8.201528e-02f, 2.245937e-03f, -2.683401e-02f, -4.824911e-02f, -2.112960e-02f, 3.264525e-02f, 4.198298e-02f, 3.176474e-02f,
  2.989833e-02f, -3.502227e-02f, 1.865628e-02f, -4.078859e-02f, -6.171697e-02f, 3.517561e-02f, 1.843440e-02f, -7.665431e-02f,
  -7.044346e-02f, -7.735562e-02f, 7.042172e-03f, 7.037415e-02f, 5.355262e-02f, -2.610865e-02f, -2.577653e-02f, -2.841182e-02f,
  1.734104e-02f, -8.655634e-02f, 5.184820e-02f, -4.968960e-02f, -1.662181e-01f, 2.607472e-02f, 7.512178e-02f, -1.150407e-01f,
  2.100835e-03f, -2.284127e-02f, 6.506726e-02f, 4.002066e-02f, -6.136702e-02f, 6.410410e-02f, 4.032497e-02f, 4.852965e-03f,
  -2.784556e-02f, 6.728052e-02f, 1.368122e-02f, 3.324207e-02f, -9.937220e-03f, -1.434682e-02f, 5.332018e-02f, 7.429686e-02f,
  -2.830565e-02f, -5.193447e-02f, 2.448238e-02f, 1.051943e-01f, 1.790623e-02f, -9.271803e-02f, -5.776638e-02f, 1.556335e-02f,
  8.827355e-03f, 1.023000e-01f, 6.648170e-03f, 1.196474e-02f, 9.924599e-02f, 1.306565e-02f, 1.045125e-01f, 8.263315e-02f,
  1.156354e-02f, 7.559674e-02f, -1.436026e-02f, 1.130304e-01f, 6.125611e-02f, -5.529108e-02f, -1.397120e-02f, -2.933388e-02f,
  -2.165641e-01f, -1.269819e-01f, -5.951192e-02f, -1.471552e-01f, 2.386686e-02f, -9.080249e-02f, 1.838235e-01f, -5.251203e-02f,
  -1.131162e-02f, 4.227162e-02f, -1.186086e-01f, -1.176691e-01f, 3.070925e-02f, 6.150883e-02f, -3.700587e-02f, 1.741023e-02f,
  4.893651e-03f, -5.537692e-02f, 2.083930e-02f, 2.735178e-02f, -4.142024e-02f, -3.772543e-02f, -2.953731e-02f, 4.957102e-02f,
  -4.491679e-02f, -3.766131e-02f, -4.490396e-02f, -1.381265e-01f, 1.250762e-01f, -3.251699e-02f, -1.634604e-01f, -1.714718e-01f,
  -4.614950e-02f, 4.362221e-03f, 4.379896e-02f, 1.483875e-01f, -1.327188e-01f, 3.932514e-02f, -2.192066e-02f, -2.053367e-01f,
  -5.920606e-02f, 1.951848e-02f, 1.396964e-01f, -5.992722e-02f, -4.034236e-02f, -4.786265e-02f, 1.191683e-01f, 4.220309e-03f,
  -8.960386e-02f, 2.008362e-01f, -8.409268e-02f, -5.743099e-02f, -6.542824e-02f, 1.108960e-02f, 5.178104e-02f, 2.577674e-02f,
  -8.809630e-03f, -3.081780e-04f, 6.694134e-02f, 1.901327e-02f, 1.592541e-01f, 1.839231e-02f, 2.599726e-03f, 7.684845e-03f,
  4.994877e-02f, -1.017091e-01f, 4.741948e-02f, -1.558291e-03f, 7.480854e-02f, 6.280857e-02f, -1.118554e-01f, 2.548810e-02f,
  9.928150e-02f, 7.898989e-02f, -5.410159e-03f, -1.149116e-01f, -9.540453e-03f, 3.210074e-02f, -1.416564e-01f, 3.235308e-02f,
  -2.917816e-02f, 9.665524e-02f, -1.038117e-01f, -2.212393e-02f, -1.051648e-01f, 1.019325e-02f, -3.756812e-02f, 7.904022e-02f,
  5.659776e-02f, 3.103140e-02f, 6.713139e-02f, -2.928994e-02f, -7.187047e-02f, -2.796649e-02f, 2.160647e-02f, 7.344052e-02f,
  8.114348e-02f, -5.521538e-02f, 2.250638e-02f, 1.438287e-01f, 7.300274e-02f, -3.372210e-02f, 1.861086e-02f, -2.739805e-02f,
  2.284720e-02f, 1.027048e-02f, -8.547359e-02f, 1.020003e-01f, 6.593335e-02f, 2.602334e-02f, -5.136266e-02f, -4.211202e-02f,
  -7.742433e-02f, -3.001644e-02f, -8.581049e-02f, -8.922732e-03f, -2.102990e-02f, 3.191524e-02f, -4.712510e-02f, 6.103295e-02f,
  7.586432e-02f, -4.364808e-02f, -6.476861e-02f, 7.554686e-02f, -1.190022e-01f, 8.510417e-02f, 5.653120e-02f, 9.421404e-02f,
  -1.365186e-01f, -1.615644e-01f, 1.121546e-01f, -3.962964e-02f, 7.408208e-02f, 9.311085e-02f, -6.130248e-02f, 8.563749e-02f,
  6.151450e-02f, -4.319337e-02f, -5.586605e-02f, -2.445153e-02f, 5.521273e-02f, 2.123231e-02f, -3.454691e-02f, -3.685360e-02f,
  -3.923751e-03f, 7.106083e-04f, 4.181653e-02f, 1.163271e-01f, -1.686368e-02f, 2.754893e-02f, -4.660777e-02f, 1.067072e-01f,
  -3.198778e-02f, 7.074354e-02f, 6.184674e-02f, -7.368322e-02f, 2.501515e-01f, -2.281222e-02f, 1.101168e-01f, -2.125037e-02f,
  -5.824061e-02f, 2.675469e-03f, -6.586016e-02f, -1.566403e-02f, 7.479215e-02f, 2.479607e-02f, 1.667710e-01f, 5.881042e-02f,
  -8.427642e-02f, 2.284001e-02f, 5.005990e-02f, 2.219385e-02f, 1.038825e-02f, 1.718050e-05f, -8.757190e-02f, -4.676731e-02f,
  -9.897494e-03f, 1.331351e-02f, -1.373381e-02f, 1.148527e-01f, 2.204044e-01f, 5.278769e-03f, -1.206250e-01f, -5.506707e-02f,
  -9.005376e-02f, -4.372856e-02f, -8.982472e-02f, -4.667930e-02f, -7.161357e-02f, 8.374584e-02f, 1.867233e-02f, 8.473548e-02f,
  2.213407e-02f, 1.568683e-01f, 9.416352e-02f, 8.378338e-02f, -3.044952e-02f, 6.068906e-02f, 6.106374e-02f, 3.151547e-02f,
  5.779371e-02f, -4.308434e-02f, -1.168465e-01f, 5.664424e-02f, -2.268856e-02f, 6.571829e-02f, -4.306776e-02f, 3.383547e-02f,
  -6.763791e-02f, 2.500539e-02f, 5.973602e-02f, -2.607028e-02f, -4.076463e-02f, -1.050324e-01f, 5.093511e-02f, 1.000683e-01f,
  -1.509219e-01f, 7.347397e-02f, 1.167821e-02f, -8.252132e-02f, -1.266527e-01f, -5.951764e-02f, -1.507059e-02f, 6.386141e-02f,
  3.666526e-02f, 1.965015e-01f, -2.671768e-01f, -4.230982e-02f, -6.932929e-02f, 7.082619e-02f, -6.132440e-02f, -5.306237e-02f,
  2.132975e-02f, 3.805337e-02f, -7.022733e-02f, 3.109029e-02f, -1.451607e-01f, 1.758187e-02f, -1.176686e-01f, -3.902397e-02f,
  1.429019e-01f, 1.505186e-01f, 1.162605e-01f, -3.278870e-02f, 1.180614e-02f, 8.265055e-02f, -2.717798e-01f, -5.463495e-02f,
  -1.040987e-01f, 1.864776e-02f, 8.123749e-02f, 7.108570e-02f, 5.371339e-02f, -2.881474e-02f, -5.855443e-02f, 6.617071e-02f,
  -6.849772e-02f, 3.523270e-02f, -4.072281e-02f, 1.179305e-02f, -3.464361e-02f, -1.418220e-02f, 7.612087e-02f, 6.292997e-02f,
  5.012602e-02f, -9.969313e-03f, 3.407562e-02f, 4.284027e-02f, -2.931419e-02f, -4.291083e-02f, 7.193276e-02f, 5.704507e-02f,
  -1.739101e-03f, -5.126395e-02f, 3.436392e-02f, -7.354080e-02f, -4.802766e-02f, -2.621680e-02f, -1.173050e-01f, -1.930681e-03f,
  8.892596e-02f, 1.306746e-01f, 6.028046e-02f, -9.571341e-03f, 2.200391e-02f, 3.439273e-02f, -1.588876e-02f, 6.506064e-02f,
  4.001343e-02f, -2.761069e-02f, 1.432952e-02f, 5.196239e-02f, 6.591210e-02f, -5.791130e-02f, -1.455142e-01f, 1.263212e-02f,
  5.345720e-02f, -5.913439e-02f, -1.448086e-01f, 3.481665e-02f, -8.614965e-02f, 1.955761e-01f, -8.267025e-03f, -3.983519e-03f,
  -5.842587e-02f, -3.589546e-02f, 3.016089e-02f, 8.561964e-02f, -9.822324e-03f, -4.608105e-02f, -3.033930e-02f, -2.581220e-02f,
  -6.960706e-02f, -5.712955e-03f, -1.402996e-01f, 2.255798e-01f, 1.505853e-01f, 6.776553e-02f, -9.308109e-02f, -8.511710e-02f,
  7.297696e-02f, -1.190256e-02f, -6.744700e-02f, -1.803197e-02f, 2.858230e-02f, -8.706158e-02f, 7.389872e-02f, 6.627731e-02f,
  1.515396e-02f, 2.285924e-02f, 2.143826e-02f, -4.407827e-02f, -3.271857e-02f, -6.709018e-02f, -1.262851e-01f, -1.817158e-01f,
  5.986785e-02f, -5.937396e-02f, -1.165594e-01f, 5.746766e-03f, -4.641551e-02f, -5.571130e-02f, -6.159452e-02f, -8.249652e-02f,
  -1.435582e-02f, 1.022239e-01f, -2.076327e-02f, -2.063053e-02f, 2.506056e-02f, -7.347159e-03f, -1.653343e-03f, 7.545738e-03f,
  7.050638e-02f, 9.492683e-03f, -4.286444e-02f, -6.567751e-02f, -7.155041e-02f, 3.104406e-02f, 1.010735e-02f, 8.537325e-02f,
  -1.870575e-01f, -1.521572e-01f, -1.910527e-01f, 1.768827e-01f, 1.818898e-01f, 1.843254e-01f, -2.445539e-02f, -8.128071e-02f,
  -7.710224e-02f, 1.401559e-02f, 5.696234e-02f, 7.068923e-02f, 1.006592e-01f, 3.012770e-02f, -4.736448e-02f, 8.434320e-02f,
  8.829955e-03f, -1.086208e-02f, 7.378243e-02f, 8.537610e-02f, 9.426080e-02f, -2.364952e-02f, -4.886641e-02f, -3.753314e-02f,
  5.262443e-02f, 6.966819e-02f, -9.041717e-02f, -7.197875e-02f, 5.007188e-02f, 4.777284e-02f, -3.544470e-02f, -1.329051e-02f,
  -3.714444e-02f, -1.571842e-02f, 9.971227e-02f, -2.228437e-02f, 7.627595e-03f, -8.386034e-03f, -1.049337e-01f, 4.985909e-02f,
  1.180949e-02f, 6.054360e-02f, -6.795442e-03f, -7.358971e-02f, 4.810711e-02f, -1.706522e-02f, -9.549885e-02f, -5.169730e-02f,
  1.262928e-01f, 5.790959e-02f, -4.374022e-02f, -4.960174e-02f, 1.105004e-02f, -1.060604e-01f, 2.451295e-02f, -6.814817e-02f,
  -5.752082e-02f, 9.382096e-02f, 6.263988e-02f, -1.627234e-02f, -9.925375e-02f, -9.260390e-03f, -1.964612e-02f, -1.694339e-02f,
  -3.096379e-02f, -6.176465e-02f, -1.084712e-04f, -1.910669e-02f, 3.722338e-02f, -2.645635e-02f, 4.357418e-02f, -6.704880e-02f,
  8.376271e-03f, -1.151681e-02f, 1.707505e-02f, 4.079876e-02f, -3.676989e-02f, 1.710025e-02f, -3.228002e-02f, 1.529935e-02f,
  1.540130e-02f, 1.242428e-01f, 1.424260e-01f, 8.429421e-02f, -5.893378e-02f, 1.416126e-02f, 1.214391e-02f, -2.423025e-02f,
  8.712108e-02f, 4.674083e-02f, -4.374805e-02f, 2.389578e-02f, -2.370544e-02f, -4.348885e-02f, -2.416553e-02f, -7.301823e-02f,
  6.814378e-03f, -5.639815e-02f, -9.276076e-02f, -1.259028e-02f, -2.576250e-02f, 1.048024e-02f, 2.561690e-02f, 1.281680e-01f,
  9.658787e-02f, -1.540707e-03f, 2.216930e-02f, -1.728857e-01f, 9.922095e-02f, -1.286072e-01f, -6.905805e-02f, 2.527497e-01f,
  6.150264e-02f, -1.568566e-01f, -2.746614e-02f, 5.044086e-02f, -1.556562e-02f, 8.182843e-02f, -1.042098e-02f, -1.843703e-01f,
  -5.887801e-02f, 5.213964e-02f, 6.316752e-02f, -1.864454e-02f, -5.648537e-03f, -2.522014e-02f, 9.272464e-02f, -5.328856e-02f,
  -2.482174e-02f, -8.115380e-02f, 3.175402e-03f, 7.576011e-02f, -8.088586e-02f, -6.944671e-02f, 7.079592e-02f, 1.593951e-02f,
  6.672713e-03f, -7.461213e-03f, -3.983676e-02f, 4.226761e-03f, 4.269625e-02f, 8.875047e-02f, -1.256004e-01f, -1.513943e-01f,
  -1.979894e-02f, 6.406783e-02f, -4.513344e-02f, -1.415381e-01f, -3.200292e-02f, 1.140479e-01f, 6.982702e-02f, -6.278404e-02f,
  -4.350470e-02f, 6.748761e-02f, -1.916854e-02f, 1.927760e-02f, 4.319017e-02f, 7.853406e-02f, -6.588228e-04f, 9.160028e-02f,
  1.220498e-01f, -4.507508e-02f, -1.076093e-01f, -6.155385e-02f, 3.607352e-02f, -8.654392e-03f, -2.783305e-02f, -6.955041e-02f,
  -2.017787e-01f, -1.555942e-01f, -2.150840e-02f, -1.911777e-02f, -1.010268e-01f, 7.354518e-02f, -1.945990e-01f, -2.955840e-02f,
  2.164322e-01f, 5.747391e-02f, -2.527926e-02f, 7.472457e-02f, -4.274106e-03f, 8.082059e-02f, -1.241563e-02f, 7.449228e-03f,
  3.522825e-02f, 6.637763e-02f, 1.181523e-01f, 6.880133e-02f, -4.334674e-03f, 1.301194e-01f, 4.684600e-02f, -1.007887e-02f,
  -6.532506e-02f, 1.070473e-02f, 8.027147e-03f, -4.479392e-02f, -6.107149e-02f, -2.148901e-02f, 1.581306e-02f, 5.463681e-02f,
  1.110595e-01f, 4.535449e-02f, 2.720381e-03f, 7.037598e-02f, 1.477822e-04f, -1.081775e-01f, -4.858541e-02f, -4.210647e-02f,
  -1.522131e-01f, -8.933453e-02f, 3.546698e-02f, 4.556632e-02f, -8.789416e-02f, 4.148284e-02f, 8.023100e-02f, -2.371660e-02f,
  -1.433304e-02f, 1.482159e-01f, 3.162845e-02f, -2.354930e-02f, 5.837817e-02f, 7.072423e-02f, -3.284613e-02f, -6.431887e-02f,
  -7.466083e-02f, 2.119500e-01f, -1.995510e-02f, -8.881668e-02f, 7.382823e-02f, 3.048871e-01f, 9.787286e-02f, 8.356141e-02f,
  -2.760877e-02f, 1.397480e-02f, 1.334074e-01f, -1.004783e-02f, -3.210860e-02f, 1.129420e-01f, 6.717561e-02f, -7.092320e-02f,
  8.969869e-02f, 1.060984e-01f, 1.707795e-02f, 1.277964e-01f, 1.934613e-01f, 7.366793e-02f, -9.425537e-02f, 5.925676e-03f,
  3.082485e-04f, -5.647488e-02f, -8.054571e-02f, -1.031252e-02f, 6.096431e-02f, -2.683564e-02f, 8.989675e-02f, 1.076966e-01f,
  1.140928e-01f, 1.634556e-02f, -4.079862e-02f, -1.019372e-01f, 1.108629e-01f, -4.797986e-02f, 2.517310e-02f, 6.273413e-03f,
  3.347775e-02f, 2.352681e-02f, 7.518061e-02f, -1.103897e-01f, -1.930896e-01f, -5.127312e-02f, -1.447622e-01f, -1.449001e-01f,
  -1.438704e-01f, 1.782424e-02f, -1.727513e-01f, -7.585187e-02f, 2.390969e-02f, 2.622161e-02f, 2.280614e-02f, 7.108880e-02f,
  3.884989e-03f, -4.080050e-02f, 4.502292e-02f, -4.163789e-02f, 5.156498e-02f, -9.558742e-03f, -7.435906e-02f, -2.908918e-02f,
  -5.542980e-03f, -6.640517e-02f, -3.712710e-02f, 1.120122e-01f, 1.175809e-01f, 4.303586e-02f, -4.244205e-02f, 8.229933e-04f,
  -7.703186e-02f, 4.803294e-02f, -4.617674e-02f, 4.169235e-02f, 1.232800e-02f, -1.033011e-02f, -2.782749e-02f, 9.414666e-02f,
  4.523793e-02f, 1.000031e-01f, 6.026945e-02f, -3.424084e-02f, 1.065141e-01f, -2.480217e-02f, -5.864732e-02f, 8.200266e-02f,
  -6.656101e-02f, -1.051664e-02f, -2.251283e-02f, -7.565765e-02f, -6.965762e-02f, 2.726626e-02f, 4.384839e-02f, 7.461447e-02f,
  5.917303e-02f, -1.195337e-01f, -8.174550e-02f, -1.583920e-02f, -7.468332e-02f, -8.092806e-04f, -1.196638e-01f, -7.077012e-02f,
  -6.956715e-02f, 2.857552e-02f, 6.852979e-02f, -4.972657e-02f, -5.309201e-02f, 1.987638e-02f, -6.402486e-02f, 9.177172e-02f,
  4.709271e-02f, 6.982379e-02f, 7.550103e-02f, 7.886299e-02f, -1.238626e-02f, -5.347254e-03f, 2.723002e-02f, -6.540660e-02f,
  -3.432909e-02f, 5.564291e-02f, -3.302171e-03f, -5.836989e-02f, -6.947269e-02f, -6.645513e-02f, -1.152371e-01f, -1.211289e-01f,
  -1.257056e-01f, 1.354658e-02f, 1.375755e-02f, -1.099498e-01f, 2.490436e-02f, -4.072263e-02f, -5.243671e-02f, -1.096563e-01f,
  6.882317e-02f, -5.700720e-02f, -5.823880e-02f, 3.816099e-02f, -1.169843e-01f, 3.925392e-02f, 1.191950e-01f, -8.734367e-02f,
  -2.573301e-02f, 4.843538e-02f, -4.554280e-02f, -8.423854e-02f, -9.130183e-02f, -5.907070e-02f, -7.265526e-02f, -1.881550e-01f,
  -3.849683e-02f, -1.280566e-01f, -9.497044e-02f, -1.426913e-02f, 8.442113e-03f, -2.071224e-02f, -1.661295e-01f, -3.379074e-02f,
  4.748777e-02f, 4.029030e-02f, -7.997656e-03f, 1.250481e-02f, 3.224572e-02f, 4.243826e-02f, 4.036450e-02f, 3.734579e-02f,
  8.402985e-02f, -3.387390e-02f, -1.311242e-02f, 4.186483e-02f, -3.350698e-03f, -5.105190e-02f, -1.419341e-02f, 1.105888e-01f,
  5.882465e-02f, 3.756132e-02f, -5.358191e-02f, -9.286230e-02f, 5.935668e-02f, 4.134228e-02f, -7.747690e-02f, 4.223210e-02f,
  5.374927e-02f, 7.875070e-03f, 1.372649e-01f, 6.779476e-02f, -1.091749e-01f, -8.775084e-02f, 6.218092e-02f, 7.354286e-02f,
  1.542577e-02f, -3.996638e-02f, -4.987825e-02f, 5.553775e-03f, 5.283121e-02f, -7.770406e-02f, -6.009658e-02f, 6.574979e-02f,
  -7.224083e-02f, -5.356599e-02f, 5.548569e-03f, -3.573938e-02f, -1.019022e-02f, 2.336792e-02f, 2.092161e-01f, -1.737747e-02f,
  2.907244e-02f, 5.122409e-03f, -2.974087e-02f, -1.423176e-01f, -2.464567e-03f, 1.392628e-02f, 1.636470e-02f, 1.974451e-03f,
  5.231641e-02f, 5.398255e-02f, 2.136207e-02f, -1.600112e-02f, -5.259732e-02f, -2.068772e-02f, -1.347733e-02f, 4.349918e-02f,
  -7.785834e-02f, 3.555924e-02f, -2.760002e-01f, -3.415778e-01f, -1.564759e-01f, -6.139891e-02f, 2.763859e-02f, -3.904105e-02f,
  1.857121e-01f, -5.930518e-02f, 2.252156e-01f, 7.157743e-02f, -8.704689e-02f, 1.019819e-02f, -1.349226e-02f, 2.470756e-02f,
  -7.300390e-02f, -2.105050e-02f, -2.453866e-02f, -1.872288e-02f, -4.126017e-02f, 5.269653e-02f, 1.330853e-02f, -9.023910e-03f,
  1.941947e-02f, 1.470311e-02f, 3.934733e-03f, -4.733157e-02f, 9.243163e-02f, -3.338131e-02f, 2.980337e-02f, 6.834773e-02f,
  -1.659815e-02f, 5.380681e-02f, -2.925971e-02f, 5.742810e-03f, -4.895478e-02f, -1.110150e-02f, -9.808850e-03f, 7.434504e-02f,
  8.635552e-03f, -1.072000e-03f, 7.708158e-02f, 2.723394e-02f, -6.233603e-03f, -3.816513e-02f, -1.028523e-02f, 1.023378e-02f,
  -1.005094e-01f, 2.697301e-02f, 1.411485e-04f, 6.400556e-03f, -7.247300e-02f, 1.313762e-01f, -1.927921e-02f, -1.313362e-02f,
  2.356741e-03f, -6.693861e-03f, -1.280116e-01f, -3.231641e-02f, -5.385223e-02f, 3.798242e-02f, 1.214213e-01f, 4.058310e-02f,
  1.407206e-01f, 1.686256e-01f, 4.636745e-03f, 5.881075e-02f, 9.231504e-02f, 5.933676e-02f, 8.195144e-02f, -1.540576e-03f,
  7.841220e-02f, -1.923341e-02f, -5.135656e-02f, 6.673237e-02f, 1.181349e-01f, 5.394011e-02f, 1.370914e-02f, 2.601056e-02f,
  1.033621e-01f, -4.488711e-02f, -2.628332e-02f, -4.248335e-03f, 9.421033e-02f, 7.287817e-02f, 2.366799e-02f, -2.029772e-02f,
  -2.962835e-02f, -5.242802e-02f, 8.547682e-03f, 5.421796e-02f, -4.037322e-02f, 1.410679e-02f, 3.442841e-02f, 1.363832e-02f,
  -6.890833e-02f, -1.112536e-01f, 2.408837e-02f, -1.811495e-03f, -2.281285e-02f, 2.910567e-02f, 7.204961e-02f, 9.629336e-02f,
  1.317428e-01f, 1.553941e-02f, -2.756794e-03f, 1.921723e-03f, 5.614338e-02f, -4.826660e-02f, -7.076865e-02f, 5.116666e-02f,
  1.979381e-02f, -4.680007e-02f, 9.824569e-03f, -5.413407e-02f, -4.999530e-02f, 2.881993e-02f, 4.195765e-02f, 7.947238e-03f,
  5.697803e-02f, -5.402023e-02f, -5.622513e-02f, -3.362797e-02f, -4.954071e-02f, -2.700315e-02f, -7.067239e-02f, -8.890277e-02f,
  -2.517899e-02f, 1.241500e-02f, 1.866964e-01f, 5.687754e-02f, 2.703726e-02f, -8.863503e-02f, 7.227104e-03f, 5.535312e-02f,
  -2.238473e-02f, -2.418320e-02f, 7.129446e-02f, -4.739460e-02f, -2.053295e-02f, -6.776603e-02f, -2.346348e-02f, 1.514884e-02f,
  1.811696e-02f, -2.757655e-02f, 4.176773e-02f, 1.010802e-02f, 5.649114e-02f, -8.412085e-03f, -8.532114e-03f, 5.557787e-03f,
  2.735013e-02f, 2.712631e-03f, -3.021548e-02f, 7.312947e-02f, -3.629139e-02f, 1.538033e-01f, -7.721032e-03f, -7.468276e-02f,
  4.603589e-02f, -1.717925e-03f, -8.846754e-02f, -3.790505e-02f, 6.205134e-03f, -1.695908e-02f, 8.113107e-03f, 1.666945e-02f,
  -1.962844e-02f, -9.077396e-02f, 1.569536e-02f, -9.981082e-02f, 4.759398e-02f, 1.949759e-02f, 1.074969e-01f, -6.710175e-02f,
  -1.871877e-02f, 5.314609e-02f, -9.404472e-02f, 9.896766e-02f, -2.022793e-01f, 8.371989e-02f, -3.595855e-02f, -3.660720e-02f,
  7.638370e-02f, 2.520214e-02f, -3.777377e-02f, -4.681432e-02f, 8.455931e-02f, 5.582418e-02f, -4.175111e-02f, 8.779405e-02f,
  4.515273e-02f, 6.625663e-02f, 6.775585e-02f, 5.555061e-02f, -7.440925e-02f, 5.262199e-02f, 1.219147e-01f, 1.007521e-01f,
  -3.141322e-02f, 6.349603e-02f, -8.391626e-03f, -5.348396e-02f, 1.567206e-02f, -1.023747e-01f, -5.871742e-02f, 2.590387e-02f,
  5.758821e-03f, -6.515184e-03f, 8.081903e-02f, 2.369856e-02f, 1.202870e-02f, 8.019179e-02f, -8.557806e-03f, 5.333323e-02f,
  1.213379e-02f, -2.679686e-02f, 5.201735e-02f, -2.007689e-02f, -2.256945e-02f, 3.319724e-02f, 2.211759e-02f, 8.758657e-03f,
  -9.681074e-02f, -2.988487e-02f, -7.501368e-02f, 1.544801e-02f, 9.492495e-02f, -1.166950e-02f, -2.164358e-02f, -6.003138e-02f,
  -9.822304e-02f, -3.147733e-02f, -1.096628e-01f, 4.904053e-02f, -4.285548e-02f, 4.050633e-02f, -3.990160e-03f, 1.208913e-01f,
  -1.070247e-01f, -3.314428e-02f, -3.672360e-02f, -1.124459e-01f, 5.980238e-02f, -6.274224e-02f, 6.926672e-02f, -1.285421e-02f,
  -1.119401e-01f, -3.124214e-02f, -3.037067e-02f, 8.535480e-02f, -6.055300e-02f, 6.201110e-02f, 1.723809e-02f, -5.150388e-02f,
  6.086733e-02f, -1.490437e-02f, 7.540100e-02f, -2.840126e-02f, -4.019756e-02f, -3.593351e-02f, 3.240046e-02f, 2.810010e-02f,
  -6.108472e-02f, 5.411698e-02f, 1.779986e-02f, 7.343077e-02f, -1.136964e-02f, -6.616101e-02f, 5.921788e-02f, -6.160276e-02f,
  4.923067e-02f, -4.948375e-02f, 1.112631e-01f, -1.964486e-02f, -2.953175e-02f, -6.530384e-02f, -5.466664e-02f, -7.515865e-02f,
  1.748353e-02f, -1.674679e-02f, 1.440525e-01f, -5.333987e-02f, 6.397527e-02f, -1.279609e-03f, -4.794389e-02f, 7.439856e-02f,
  -7.148089e-02f, -3.685118e-02f, -5.318137e-02f, 3.402694e-02f, 4.813387e-02f, 3.039506e-02f, 7.916645e-02f, -1.189932e-01f,
  -7.485209e-02f, -8.528499e-02f, 3.194282e-02f, 8.245162e-02f, 8.945359e-02f, -1.849919e-01f, 2.682710e-01f, 9.481080e-02f,
  -2.288629e-01f, 6.519797e-02f, -3.029738e-02f, 5.913332e-02f, -1.820167e-02f, 2.629633e-02f, -4.035032e-03f, -1.498189e-02f,
  3.361962e-02f, -6.780850e-02f, 1.121366e-01f, 5.132992e-02f, 3.911427e-03f, -1.238045e-02f, -2.816592e-02f, 1.183000e-02f,
  -1.616835e-01f, -1.045391e-01f, -1.291754e-01f, 7.048594e-02f, 7.285757e-02f, -4.299621e-02f, 6.472979e-02f, -8.511826e-02f,
  4.824045e-02f, 4.099483e-03f, -4.408866e-02f, -3.778914e-02f, -5.261516e-02f, -1.189384e-01f, 1.438242e-02f, -8.510528e-02f,
  -3.141675e-02f, -1.603738e-01f, 2.878435e-02f, 5.367827e-02f, -9.935547e-02f, 4.646507e-02f, 7.882262e-02f, -6.455611e-02f,
  -1.701360e-01f, 1.395547e-01f, 1.597587e-01f, -2.795505e-02f, 1.882065e-01f, 7.890254e-02f, -1.104312e-01f, -1.075023e-01f,
  1.265431e-01f, -6.502593e-02f, 1.248705e-01f, 1.613011e-01f, 1.015341e-01f, 9.576891e-02f, -7.639123e-02f, 5.615024e-02f,
  2.859404e-02f, 3.084367e-02f, 9.924451e-02f, -3.209141e-02f, 6.352727e-02f, 4.921147e-02f, 5.322029e-02f, 4.909703e-02f,
  -2.417019e-02f, 7.985596e-02f, 9.798007e-02f, -1.803978e-01f, 8.789676e-02f, 1.676605e-01f, -1.764284e-01f, -1.763694e-02f,
  -6.614543e-02f, -8.889077e-02f, 4.988606e-02f, -3.667064e-02f, -3.342410e-02f, -3.347569e-02f, 2.204530e-03f, -7.236948e-02f,
  -9.306727e-02f, 6.105443e-02f, -2.991499e-02f, 7.563621e-02f, 1.365443e-01f, -1.926289e-01f, 3.380175e-02f, 2.568610e-03f,
  -2.124585e-01f, 1.088573e-01f, -9.826242e-02f, 3.990011e-02f, -1.098975e-01f, 1.000032e-01f, -1.188888e-02f, -8.341482e-02f,
  -9.703920e-02f, -2.271331e-02f, -7.298125e-02f, -4.897420e-02f, -2.846506e-02f, 1.882160e-03f, -4.947529e-02f, 1.253376e-02f,
  1.020106e-01f, -1.039382e-01f, 3.987031e-02f, 5.052879e-02f, 5.786756e-02f, 5.164600e-02f, 2.290922e-02f, 3.048536e-02f,
  8.174308e-02f, 1.034272e-01f, 3.234570e-02f, -4.849660e-02f, 1.774859e-01f, -8.213408e-02f, 1.914179e-01f, 4.590749e-02f,
  -4.240715e-02f, 1.412630e-01f, -6.679450e-02f, 4.668608e-02f, -4.556407e-03f, -5.779039e-03f, -1.047863e-01f, -3.603105e-02f,
  -8.743805e-02f, 3.450281e-02f, 8.652947e-03f, 1.415861e-02f, -6.390154e-02f, 4.016014e-02f, 7.877373e-02f, -2.634805e-02f,
  1.007756e-01f, 7.391074e-02f, 3.075612e-04f, -3.830341e-02f, 6.742004e-02f, 1.831167e-03f, -1.985358e-01f, 6.544372e-02f,
  -1.824505e-02f, 1.126210e-01f, 6.328946e-02f, 9.987014e-02f, -6.403010e-03f, -2.347340e-01f, -6.454156e-02f, -6.577243e-02f,
  -3.494408e-02f, -2.529957e-03f, -2.288927e-02f, 5.046631e-03f, -1.626909e-01f, -9.908308e-03f, -1.322037e-01f, -2.165730e-02f,
  3.261133e-02f, -2.134881e-01f, 7.268257e-03f, -2.281103e-02f, 1.148366e-02f, -7.203460e-02f, -1.827989e-01f, 1.865365e-01f,
  6.951257e-02f, -2.255989e-01f, 8.871900e-02f, -2.971907e-03f, -4.860673e-02f, 5.327072e-02f, 9.151868e-02f, 2.383948e-02f,
  7.393943e-03f, -1.333106e-01f, -1.076268e-01f, -1.381323e-01f, -3.316390e-02f, -1.115800e-02f, -6.513271e-02f, -5.055641e-03f,
  -4.904187e-02f, 4.819624e-03f, -1.551114e-01f, 7.162891e-02f, 2.791197e-02f, 1.520324e-02f, -9.257536e-02f, 3.105263e-02f,
  5.556308e-02f, -2.843225e-02f, -3.916663e-02f, -5.321216e-02f, 1.641831e-01f, -5.284972e-02f, -1.362261e-01f, -3.638666e-02f,
  -5.776461e-02f, -1.124011e-02f, -9.497502e-02f, -1.622292e-01f, -1.844977e-01f, 7.875127e-02f, -1.009252e-01f, -4.899608e-02f,
  1.833190e-01f, 3.544733e-02f, 1.881740e-02f, 1.121024e-01f, -7.638910e-03f, -3.309670e-02f, -4.696278e-02f, -6.275992e-02f,
  1.151064e-02f, -7.962448e-03f, 6.410347e-02f, 2.179334e-02f, -1.395920e-01f, -9.981111e-03f, -1.028811e-02f, 1.025122e-01f,
  -8.437407e-02f, -1.014337e-01f, 1.012067e-02f, 1.339812e-02f, 3.540401e-03f, -1.384426e-01f, 1.214732e-01f, 1.240419e-02f,
  -1.661429e-02f, -1.719866e-02f, 6.271821e-02f, 8.889233e-02f, 4.653212e-02f, 3.041295e-02f, 2.871829e-02f, 4.114841e-02f,
  1.263600e-02f, 5.741492e-02f, 4.419689e-02f, 9.588594e-04f, 5.288168e-02f, -5.753782e-02f, -4.097203e-02f, 2.476237e-02f,
  -7.884769e-02f, 6.648535e-02f, 1.856454e-02f, -6.994832e-02f, -6.485254e-02f, 4.148840e-02f, 7.475872e-02f, 7.629693e-02f,
  6.282270e-02f, -1.855291e-01f, 8.286442e-02f, 4.365953e-02f, 1.145234e-01f, 5.171257e-02f, 3.189928e-02f, 9.840821e-02f,
  1.682509e-01f, -4.168632e-03f, -8.194407e-03f, -1.321699e-02f, 7.052973e-02f, -1.157347e-01f, 9.457324e-04f, -6.480995e-02f,
