#pragma once

// kind=conv2d, layout=OIHW
// layer=enc6_bottleneck64
// dims: Kh=3, Kw=3, Cin=64, Cout=64
// Keras: (Kh,Kw,Cin,Cout) -> Noodle: (Cout,Cin,Kh,Kw)
static const float w06[] = {
  3.099244e-02f, -6.575780e-02f, 6.869351e-02f, -1.690558e-02f, 2.870011e-02f, 3.264547e-02f, -7.033173e-02f, -2.762588e-02f,
  4.559539e-02f, 3.275378e-03f, -9.004949e-03f, -1.000464e-01f, -1.912554e-01f, -8.884486e-02f, -3.444763e-02f, -5.961274e-02f,
  -7.793202e-03f, -7.034175e-02f, -4.083942e-02f, 9.793167e-02f, 1.375869e-01f, 1.657192e-03f, 2.527235e-01f, 7.426743e-02f,
  1.106180e-01f, 1.338329e-01f, -2.586471e-02f, -2.724748e-02f, 7.378460e-02f, -3.167966e-02f, 6.234059e-02f, 1.307174e-01f,
  -8.488029e-03f, 6.533986e-02f, 1.640666e-01f, -7.184932e-02f, -6.066905e-02f, 7.281391e-02f, 6.495968e-02f, -2.859229e-02f,
  5.073457e-02f, 1.512813e-01f, -6.161083e-02f, 1.078251e-01f, 5.279083e-02f, -8.049358e-02f, -7.097650e-02f, 3.542913e-02f,
  3.805641e-03f, 1.132705e-01f, 1.835981e-01f, -3.058899e-02f, -3.769226e-02f, 7.731914e-02f, -4.625946e-02f, -2.433540e-02f,
  5.375715e-02f, 1.308125e-02f, 3.776861e-02f, -2.122297e-02f, -4.760232e-02f, -1.801116e-02f, 2.520412e-02f, -3.394687e-02f,
  -5.286127e-02f, 8.616700e-02f, 8.708322e-02f, 5.958215e-02f, 5.843334e-02f, -1.403578e-01f, -3.892815e-02f, -1.219039e-01f,
  -1.024958e-01f, 6.701165e-02f, 1.659740e-02f, -8.378711e-02f, 1.426878e-01f, 4.452937e-02f, -3.255885e-02f, -1.807271e-02f,
  8.813161e-02f, 8.529406e-02f, -7.720586e-02f, 9.896234e-03f, 1.187604e-01f, -5.302606e-02f, -1.420700e-02f, 8.983084e-02f,
  -1.943232e-03f, -5.489048e-02f, -4.617599e-02f, -7.127807e-02f, 3.579712e-03f, -1.631441e-01f, -7.457106e-02f, -1.512008e-02f,
  1.070545e-03f, 3.772378e-02f, -1.130789e-02f, -1.869417e-02f, 1.169948e-01f, 3.212594e-02f, 1.508639e-01f, 1.039755e-01f,
  4.528210e-03f, -2.747548e-02f, 8.883446e-02f, 1.043454e-02f, -3.719690e-02f, -1.427658e-01f, 1.761172e-02f, 1.220261e-02f,
  -8.146457e-02f, 6.117148e-02f, -7.068791e-02f, -9.078448e-02f, -7.754707e-03f, 7.134023e-02f, 1.013831e-01f, -2.192592e-03f,
  -8.021396e-02f, -1.174189e-01f, -1.017683e-01f, 6.716191e-02f, -6.565311e-02f, 2.328709e-02f, -8.295710e-02f, -8.746723e-02f,
  -1.293692e-01f, 1.392441e-01f, 3.832141e-02f, -5.441132e-03f, 5.360265e-02f, -4.286400e-02f, -5.987833e-02f, 2.998981e-02f,
  4.691267e-02f, -3.175589e-02f, 5.932081e-02f, -6.082548e-03f, 4.921802e-03f, -5.583344e-03f, 2.816013e-02f, -1.189457e-02f,
  9.993953e-03f, 5.474498e-02f, -2.281600e-03f, 1.509489e-02f, 5.220750e-02f, 6.720470e-02f, 2.531612e-02f, 5.747875e-02f,
  3.325965e-02f, 8.704948e-02f, 7.701029e-03f, 1.244249e-01f, -2.070846e-01f, 1.199048e-01f, -7.489211e-02f, 8.034226e-02f,
  1.115549e-01f, 9.953509e-02f, 7.982816e-02f, 1.539461e-02f, 6.886106e-03f, -1.979468e-01f, -3.605976e-02f, 3.836275e-02f,
  -1.206738e-01f, 2.792299e-02f, 4.627655e-03f, -1.073759e-01f, -1.066110e-01f, -1.462288e-02f, -6.658939e-02f, 5.105127e-02f,
  1.610449e-01f, -4.458790e-02f, 1.296354e-01f, -6.554510e-02f, 1.373935e-03f, 4.299759e-02f, 5.799416e-02f, 7.936069e-03f,
  4.659177e-02f, -4.547331e-03f, -7.768476e-02f, 1.565380e-02f, -3.893936e-02f, -1.138813e-01f, 8.685472e-03f, 5.904100e-02f,
  -1.840050e-01f, 2.507262e-01f, 1.433662e-01f, -3.481967e-02f, -7.386245e-02f, 1.661749e-03f, -4.771852e-02f, 5.721252e-02f,
  1.607187e-03f, 2.848244e-02f, 4.719317e-02f, 4.403306e-02f, 4.250385e-02f, 3.694937e-02f, -8.315497e-03f, -8.716036e-02f,
  -9.225236e-02f, 6.514627e-02f, -1.731561e-01f, -7.854100e-02f, 1.297885e-02f, 1.509864e-02f, -2.905266e-02f, 1.706791e-03f,
  -6.476945e-02f, -1.604223e-01f, 8.878917e-03f, -1.316926e-01f, -2.852620e-02f, -4.865927e-02f, 2.465792e-02f, -2.494433e-02f,
  2.068057e-02f, -5.343485e-02f, 3.726898e-02f, -5.102636e-02f, -9.785375e-02f, 1.227209e-01f, 1.723934e-02f, -9.984180e-02f,
  8.615955e-02f, 9.189603e-02f, -2.062517e-02f, 4.998741e-02f, 7.199978e-02f, 4.707753e-02f, 5.299432e-03f, -2.988691e-02f,
  -2.969293e-03f, 6.538608e-02f, 2.547740e-02f, 6.317589e-03f, -5.931246e-02f, 3.606885e-02f, -6.077513e-02f, -1.406466e-02f,
  -3.180044e-02f, 4.279595e-02f, 4.720086e-02f, 1.050892e-01f, -1.179674e-01f, 2.847155e-03f, -2.656399e-02f, -1.293482e-01f,
  3.326770e-02f, 3.602643e-02f, -1.131498e-01f, -6.322985e-03f, 4.592455e-03f, -8.806638e-02f, -1.389933e-02f, -6.986978e-02f,
  -1.927939e-01f, -1.112143e-01f, -5.499576e-02f, -5.905171e-02f, 5.588738e-02f, -1.168888e-02f, -1.485202e-01f, -2.764564e-02f,
  -1.898421e-02f, -2.082501e-02f, 3.810515e-02f, -7.615907e-02f, -4.052859e-02f, -3.843611e-02f, -2.951086e-02f, -6.501564e-02f,
  7.682788e-02f, -4.140165e-02f, -6.857061e-02f, 6.723498e-02f, 1.236218e-01f, -2.111005e-03f, 3.289608e-02f, -8.656964e-02f,
  -1.002054e-01f, -1.843976e-01f, -3.391436e-02f, -2.403634e-01f, -1.173552e-01f, 5.865145e-02f, -2.800840e-02f, -2.271980e-03f,
  -1.101305e-02f, 2.704559e-02f, 2.234670e-02f, 7.454684e-02f, -1.607349e-01f, -3.928757e-03f, 7.948869e-02f, -1.855834e-02f,
  1.927674e-02f, 5.789133e-03f, 7.775759e-02f, 2.142867e-02f, 7.153513e-02f, -3.078752e-02f, 2.234476e-02f, 6.109539e-02f,
  -1.782528e-01f, -5.958876e-02f, -1.875525e-02f, -4.899846e-02f, -4.981163e-01f, -6.288885e-02f, -3.531591e-02f, -1.693222e-02f,
  1.514077e-01f, 2.042170e-01f, 6.764369e-02f, 5.862267e-02f, -6.904826e-02f, -1.819192e-02f, -2.914152e-02f, -3.507457e-02f,
  -2.783622e-02f, 1.128566e-01f, -1.624694e-03f, 1.028705e-01f, -1.957602e-02f, -1.215403e-01f, -8.913388e-02f, 5.707115e-02f,
  -4.038891e-02f, 4.010389e-02f, -3.783287e-02f, -7.474277e-03f, 4.973401e-02f, 4.330200e-02f, -4.869793e-03f, -3.257260e-02f,
  -4.674083e-02f, 4.842661e-02f, 2.278488e-02f, 6.449299e-02f, -1.671494e-02f, 3.251461e-02f, -3.019749e-02f, -1.409631e-01f,
  -1.307341e-01f, 5.988646e-02f, -1.879805e-01f, 5.163595e-02f, -6.354984e-02f, -4.307921e-02f, 5.348833e-02f, -3.022842e-02f,
  -5.248106e-02f, -1.961389e-02f, 9.763342e-02f, -9.105942e-02f, -4.492804e-02f, 1.672763e-02f, -3.505516e-02f, -9.031420e-02f,
  -1.001555e-02f, -1.530592e-02f, -1.134671e-02f, -3.166329e-02f, 3.916520e-02f, -8.342237e-02f, -5.786891e-02f, 7.755678e-02f,
  8.168548e-02f, -2.847942e-03f, 1.740907e-02f, -3.573171e-03f, 5.822458e-02f, -1.412845e-02f, 7.679451e-02f, 3.358313e-02f,
  4.867361e-02f, 2.053685e-02f, 8.788081e-02f, -1.502685e-02f, -1.352530e-02f, -9.723746e-03f, -1.957839e-01f, 2.418782e-02f,
  3.186977e-02f, 1.910814e-02f, -7.250041e-03f, 9.219157e-02f, 3.981773e-02f, -1.294992e-01f, 4.013862e-03f, -1.494664e-02f,
  9.539967e-02f, 1.376223e-01f, -4.569924e-02f, 4.896811e-02f, -7.462338e-02f, -1.711757e-02f, -1.388727e-02f, -3.326043e-02f,
  -7.843363e-02f, 8.103421e-02f, 1.012776e-01f, -2.012534e-01f, 4.800738e-02f, -7.593402e-02f, 7.864702e-02f, -1.424359e-01f,
  1.167074e-01f, -8.793583e-02f, -1.425015e-01f, 5.726619e-02f, 6.338364e-02f, -2.902064e-02f, 1.175228e-02f, -2.056602e-02f,
  4.557907e-02f, 7.032327e-02f, -2.466570e-02f, 6.263778e-02f, -1.969584e-02f, 1.208718e-02f, 5.638789e-02f, 6.169955e-02f,
  -1.761257e-02f, 2.309890e-02f, -3.478475e-02f, 4.590201e-02f, -2.670013e-02f, -6.491753e-02f, -5.514949e-04f, -4.962510e-02f,
  7.033414e-02f, 4.632285e-03f, -6.373820e-02f, -3.761162e-02f, 5.204793e-02f, -5.521474e-02f, -4.953842e-02f, -2.886791e-02f,
  2.544601e-02f, 6.928721e-02f, 5.822101e-02f, -1.620653e-01f, 9.354468e-02f, -3.888779e-01f, -1.342552e-02f, 1.049341e-01f,
  6.997149e-02f, 1.245713e-01f, -3.115964e-02f, -3.873419e-02f, 1.102078e-02f, 8.024146e-02f, -2.040599e-02f, 4.488746e-02f,
  3.121255e-02f, -1.091293e-01f, 2.842850e-02f, -1.627228e-02f, -9.637363e-03f, -6.949887e-02f, 5.574693e-02f, -6.332020e-02f,
  -8.208454e-04f, -1.347905e-02f, -5.859242e-02f, -6.342956e-02f, -3.705158e-02f, 1.104798e-02f, -9.316063e-02f, 1.008935e-02f,
  -1.217034e-02f, 1.439458e-01f, -1.197914e-01f, 7.714715e-02f, 3.875375e-02f, 6.260664e-02f, 1.344574e-02f, -7.494627e-02f,
  -1.665076e-01f, -2.257106e-02f, 5.394531e-02f, 4.993299e-03f, 8.644624e-04f, -5.382763e-02f, -1.743815e-02f, -6.084180e-02f,
  -4.785136e-02f, 3.486652e-02f, -7.476155e-02f, 1.113093e-01f, 5.306899e-02f, -2.408056e-02f, -2.964073e-02f, -4.966871e-02f,
  -1.400291e-02f, -1.225776e-03f, 2.335673e-02f, 6.458034e-02f, -1.585241e-02f, -1.274874e-02f, -6.019437e-02f, -6.033299e-02f,
  6.652126e-02f, -6.411530e-02f, 6.811439e-02f, 1.981303e-02f, -4.742632e-02f, 6.867594e-02f, 5.744272e-02f, 3.437604e-02f,
  6.620846e-02f, -1.612544e-02f, -3.051356e-02f, 1.650952e-01f, 2.142734e-02f, 3.309366e-02f, 4.036283e-02f, 1.162300e-01f,
  3.451037e-02f, 3.879114e-02f, 1.123759e-01f, -1.083669e-01f, -1.125418e-01f, 7.906312e-03f, 4.838146e-02f, 7.904618e-02f,
  1.580104e-01f, -1.958827e-02f, -1.228992e-01f, -1.216427e-01f, 6.542622e-02f, -5.660871e-02f, 5.725049e-03f, -1.528489e-01f,
  1.456806e-01f, 1.936723e-02f, -8.822214e-02f, 1.107061e-01f, 1.133990e-02f, -1.575430e-02f, 7.302691e-02f, 1.652108e-02f,
  -6.237240e-02f, 5.039068e-02f, 6.644743e-02f, -9.588668e-02f, 8.349007e-02f, 1.312589e-02f, -1.538271e-04f, -5.390678e-02f,
  -1.169902e-02f, 8.258247e-02f, -5.781144e-02f, -2.766890e-02f, 5.633642e-03f, -7.014714e-02f, 6.963836e-03f, -1.193340e-01f,
  7.051070e-03f, 1.301849e-02f, -1.248644e-01f, 1.210678e-01f, 1.210955e-01f, 1.980137e-02f, 6.708774e-02f, 2.619515e-01f,
  -2.142769e-02f, -5.479247e-02f, -5.478233e-02f, -4.664442e-03f, 4.883197e-02f, -2.506121e-02f, 6.997391e-02f, 4.859424e-02f,
  6.247239e-03f, 3.021325e-02f, 3.964905e-02f, -2.247775e-02f, 2.464010e-02f, -6.495570e-03f, 5.436126e-02f, -8.956743e-02f,
  -6.142318e-02f, -7.244341e-02f, 1.768965e-01f, 6.334681e-02f, -9.538183e-02f, -1.744251e-01f, -2.160751e-02f, -9.978221e-02f,
  -3.998921e-02f, 5.526007e-02f, 8.526116e-02f, -5.406244e-03f, -9.632432e-02f, -6.244245e-02f, -1.831710e-01f, 9.025133e-02f,
  3.736807e-02f, 5.617037e-02f, 1.584807e-01f, -3.716929e-02f, 2.256260e-02f, 9.467332e-02f, 5.912371e-02f, -1.403363e-02f,
  2.483065e-02f, -2.817996e-03f, -6.949972e-02f, -3.425438e-03f, -5.705937e-03f, -1.082499e-01f, 7.899740e-02f, 5.645613e-02f,
  6.953137e-02f, -4.697829e-02f, 2.356498e-02f, 1.560596e-02f, -8.326790e-02f, -2.634681e-02f, 2.898849e-02f, -4.367077e-02f,
  4.656057e-02f, 3.722780e-02f, -6.322325e-03f, 4.957712e-02f, -6.793819e-02f, -1.598166e-02f, -1.708610e-02f, -7.760914e-02f,
  1.694501e-02f, -2.994490e-02f, 2.540215e-02f, 1.556112e-02f, -1.292076e-01f, -3.363337e-02f, -9.154364e-02f, -3.915228e-02f,
  4.581844e-02f, -2.531162e-02f, -1.239540e-01f, -7.983755e-03f, -9.330221e-02f, -3.779330e-02f, 6.236361e-02f, 7.349475e-02f,
  6.307054e-02f, 8.931041e-02f, 6.934393e-02f, 1.073481e-01f, -4.318114e-02f, -1.039511e-01f, -1.733323e-02f, -1.242096e-01f,
  8.797703e-02f, -5.594028e-03f, 4.591503e-02f, 1.604606e-01f, 9.009185e-02f, -5.060203e-03f, 9.100045e-02f, 3.174111e-02f,
  -1.240432e-02f, -1.235832e-02f, -7.534175e-02f, 1.238540e-03f, -1.006397e-01f, 1.717338e-02f, 1.530524e-02f, -7.000378e-02f,
  -1.174609e-01f, -8.810541e-02f, 4.160828e-02f, -8.169484e-02f, -1.947316e-02f, -1.915450e-02f, 3.959096e-02f, -1.767288e-02f,
  -9.325832e-02f, -8.247826e-02f, 5.032456e-02f, -2.974690e-02f, 9.868882e-02f, -2.142699e-01f, 2.228760e-02f, 5.432130e-02f,
  7.609481e-03f, 1.303227e-02f, -3.999220e-02f, 5.042215e-02f, -4.850392e-02f, -3.789870e-02f, -1.450446e-03f, 2.926015e-02f,
  6.695441e-02f, 9.313308e-02f, 8.678738e-03f, -3.296384e-02f, -4.255557e-02f, 2.170734e-03f, 6.912159e-03f, 7.000168e-02f,
  -2.904142e-02f, -6.048251e-02f, 3.729595e-02f, -6.420508e-02f, -3.535299e-03f, -5.629388e-02f, 3.843627e-02f, 8.266292e-03f,
  -5.624098e-02f, -1.609449e-02f, -4.490365e-02f, 3.896561e-02f, -4.610558e-03f, -3.008445e-02f, 3.482705e-02f, 5.866465e-02f,
  7.581217e-02f, -8.242674e-02f, -1.040438e-01f, -1.431298e-01f, -5.367932e-02f, 1.767835e-01f, -3.982271e-02f, -9.833655e-03f,
  1.049635e-01f, -4.112909e-02f, 4.483705e-01f, 8.011831e-02f, -2.443005e-01f, -9.670654e-02f, -1.195020e-02f, -1.553882e-01f,
  4.606762e-02f, 1.073356e-01f, 1.536862e-02f, 4.658908e-03f, -1.875197e-01f, -8.597732e-02f, 1.101575e-01f, 9.781031e-02f,
  1.699708e-01f, 4.076939e-02f, -2.280837e-02f, 2.125599e-02f, 6.084551e-02f, 6.044065e-02f, -1.274424e-01f, 8.174271e-02f,
  -2.463754e-02f, -2.549375e-02f, -4.039818e-02f, -2.510426e-02f, -1.020441e-01f, 9.994200e-02f, -9.616134e-02f, -1.128449e-01f,
  6.355190e-02f, -3.692335e-02f, 3.365615e-02f, -9.555750e-04f, 8.730910e-02f, 8.590276e-02f, -1.785700e-02f, 4.406792e-02f,
  3.315696e-02f, -4.026154e-02f, -3.691624e-02f, 3.665864e-02f, 2.068806e-03f, 3.536334e-02f, -5.672039e-02f, 8.916832e-02f,
  8.685935e-02f, 1.033972e-01f, -4.805163e-03f, 1.101563e-03f, -5.707452e-02f, 3.073205e-02f, 3.400207e-02f, 9.739333e-02f,
  4.933032e-02f, 3.971157e-03f, 5.865689e-02f, -5.650213e-02f, -7.252645e-02f, -2.277725e-02f, 3.111511e-03f, -2.242214e-02f,
  -3.672761e-02f, -3.718565e-02f, -9.921451e-02f, -2.472903e-02f, -7.757042e-04f, -1.105136e-01f, 2.447093e-02f, 2.281566e-02f,
  1.446090e-01f, -2.606944e-02f, -2.733485e-02f, 6.693359e-02f, 2.082305e-02f, 2.013147e-02f, -4.965984e-02f, 2.618022e-02f,
  4.918914e-02f, 1.771951e-03f, 7.465771e-03f, 4.356437e-02f, -1.292691e-01f, -4.706261e-02f, -1.140158e-01f, -4.113339e-02f,
  9.736965e-03f, -8.649473e-02f, 1.860935e-03f, -6.922456e-03f, 5.120643e-02f, 9.795885e-02f, -2.125871e-02f, -5.543582e-02f,
  -1.479314e-02f, -3.585676e-02f, 3.871223e-02f, 3.254155e-02f, -5.773735e-02f, -4.744375e-03f, 1.121273e-01f, 3.774244e-02f,
  -1.170424e-01f, 9.777521e-02f, 5.353350e-02f, -9.140081e-02f, -2.472738e-02f, -1.128261e-01f, 9.547975e-03f, 7.377996e-02f,
  3.058304e-02f, -1.065008e-01f, 7.528737e-02f, -6.403873e-02f, -9.522552e-02f, -1.141821e-02f, 1.750610e-02f, 1.882435e-02f,
  3.442448e-02f, -1.319646e-01f, -6.635505e-02f, 7.618523e-02f, -5.709793e-02f, -4.263002e-02f, -3.413871e-02f, 2.921936e-02f,
  -3.678576e-02f, 3.607029e-04f, 6.763301e-02f, -4.490709e-02f, -9.900447e-02f, -3.765629e-02f, 1.270249e-04f, -1.291218e-02f,
  2.970422e-02f, -7.244550e-02f, -5.096235e-02f, -2.469339e-03f, 1.644533e-01f, 5.625088e-02f, -3.046536e-02f, 2.358359e-02f,
  -3.362407e-02f, -3.770084e-02f, 9.285851e-02f, -8.121390e-02f, -9.662037e-02f, 1.335410e-01f, 3.355254e-02f, -3.966336e-03f,
  -5.814813e-02f, 2.675008e-02f, -3.349506e-02f, -8.116177e-02f, 2.394441e-01f, -6.969966e-03f, -5.416990e-02f, 3.895054e-01f,
  6.453073e-02f, -1.780201e-01f, 4.719288e-02f, -9.406850e-02f, -1.255434e-02f, -5.543926e-03f, 3.903493e-02f, 1.299308e-01f,
  6.061431e-02f, 6.729003e-02f, 4.702322e-03f, 1.248057e-01f, 1.082923e-01f, 3.393828e-02f, -1.357133e-02f, -1.042088e-03f,
  -1.453982e-02f, 4.046957e-02f, 4.698748e-02f, -4.313118e-03f, 1.444497e-02f, 5.131278e-02f, -3.202374e-02f, -5.015066e-02f,
  9.949684e-03f, -2.057109e-02f, -2.965344e-02f, -3.404184e-02f, 3.859908e-02f, 2.736735e-02f, 2.350581e-02f, 2.888520e-04f,
  -3.693974e-02f, -1.400966e-01f, -4.011481e-02f, 1.297783e-01f, 1.061014e-01f, -3.619543e-02f, -5.332752e-02f, -1.023711e-01f,
  -1.054945e-01f, -7.858839e-02f, 1.109607e-01f, 1.469858e-01f, 3.424550e-02f, -1.186833e-01f, -9.107708e-02f, -3.051573e-02f,
  -2.934076e-02f, -7.145011e-02f, -6.549601e-02f, 6.072991e-02f, 1.519673e-02f, 8.504947e-02f, -6.683487e-02f, -1.649479e-03f,
  4.274740e-02f, 7.582276e-02f, -3.620323e-03f, -9.487418e-02f, -1.770699e-01f, -4.765812e-02f, 1.757490e-02f, -1.028567e-02f,
  4.459022e-02f, -3.916902e-02f, 4.096124e-02f, -2.123712e-01f, 2.044837e-02f, 2.225960e-02f, -7.747253e-02f, 6.707047e-02f,
  -2.155408e-02f, 1.783497e-01f, 8.290832e-02f, -2.160016e-01f, -2.103713e-02f, -4.037756e-02f, 3.189444e-02f, 1.332022e-01f,
  9.754027e-02f, 7.937706e-02f, -7.711653e-02f, -2.549987e-02f, -7.038130e-02f, 1.215701e-01f, 1.003836e-01f, 8.245526e-03f,
  5.447083e-02f, -4.771595e-02f, -1.170970e-02f, -6.102737e-03f, 9.086103e-02f, 5.258150e-02f, 9.971678e-02f, 1.826886e-01f,
  1.178159e-01f, -6.499620e-02f, -1.885847e-01f, -3.962954e-02f, -2.455919e-02f, 6.475437e-02f, -1.572905e-02f, 6.125702e-02f,
  -6.511310e-02f, 6.059586e-03f, -6.223992e-02f, -3.952879e-02f, 6.354307e-02f, 3.328077e-02f, 4.357184e-02f, 4.441818e-02f,
  -2.240236e-02f, 3.717995e-02f, -3.050803e-02f, -4.792051e-02f, -2.757766e-02f, -1.487894e-03f, 4.902355e-02f, 4.077883e-03f,
  -3.206849e-02f, -3.035334e-02f, 6.719847e-02f, -5.940910e-02f, 5.414667e-02f, 3.015371e-02f, 4.685200e-03f, -2.552889e-02f,
  -6.868368e-02f, -4.936478e-02f, 8.061082e-03f, 8.726788e-02f, -5.132453e-02f, -1.644752e-01f, -1.021807e-02f, -6.447703e-03f,
  -8.386378e-03f, -2.417566e-02f, -9.262414e-02f, -5.084533e-02f, -7.783355e-03f, -4.893526e-02f, 9.962804e-02f, -1.705286e-02f,
  -7.535184e-02f, 7.174477e-02f, -4.146596e-02f, -9.241462e-05f, -1.838057e-02f, 4.883071e-02f, 6.438013e-02f, -3.853631e-02f,
  6.730513e-02f, 1.311207e-02f, -3.959023e-03f, -1.128701e-02f, 5.268227e-02f, 5.395221e-03f, 3.805579e-02f, -1.377056e-02f,
  -6.566737e-02f, -5.785520e-02f, 1.068365e-01f, -1.338991e-02f, 3.471148e-02f, -5.945308e-02f, 6.201543e-02f, 2.645422e-02f,
  -2.417305e-03f, -5.112556e-03f, 3.143450e-02f, 1.580448e-01f, -7.132044e-03f, 7.897569e-02f, 3.297832e-02f, 1.155473e-01f,
  -2.217761e-02f, -4.073030e-02f, 2.479410e-02f, 6.331410e-02f, -8.237990e-02f, -7.226656e-02f, -7.579455e-02f, 1.474172e-02f,
  4.248768e-02f, 2.293457e-03f, 1.796922e-02f, -4.856164e-02f, 1.288179e-03f, -6.905298e-03f, 5.109930e-02f, -1.818596e-02f,
  3.344106e-02f, -1.088441e-01f, -1.423054e-02f, 6.909606e-02f, -3.829455e-02f, 8.720041e-02f, 1.395827e-02f, 3.765845e-02f,
  1.036759e-01f, -6.517427e-02f, -1.825962e-03f, 4.388765e-02f, 2.763321e-02f, -3.934798e-02f, 3.524806e-02f, -1.312042e-01f,
  5.782498e-02f, 1.080883e-01f, 9.621654e-02f, -1.659786e-01f, 8.737942e-03f, 9.863143e-02f, 5.495527e-02f, 1.249368e-01f,
  1.931970e-01f, -1.136461e-01f, 1.291266e-03f, 1.038291e-01f, -4.565556e-02f, -7.549174e-03f, -9.466847e-02f, 7.974988e-02f,
  7.135604e-02f, -3.081262e-04f, -3.695775e-02f, -6.917188e-02f, -8.397808e-02f, 7.510411e-02f, 1.832024e-02f, -9.530576e-02f,
  2.222094e-02f, -3.637021e-02f, -5.098315e-02f, -2.081819e-02f, 4.332456e-02f, -2.291759e-02f, -3.905857e-02f, -2.397267e-02f,
  -9.616558e-02f, 4.331633e-02f, 1.865081e-02f, 3.071263e-02f, -1.742552e-02f, -2.412987e-02f, -1.113359e-01f, 2.657259e-02f,
  -1.271328e-01f, 1.056846e-01f, -8.520203e-02f, 2.094164e-01f, 1.026763e-01f, 1.437151e-01f, 6.585485e-02f, 1.857612e-01f,
  -5.337048e-02f, 4.059292e-02f, -2.332886e-02f, 1.945451e-02f, -3.519296e-02f, -7.302099e-02f, -3.944435e-02f, -2.241532e-04f,
  4.236767e-02f, 8.338944e-02f, -7.480605e-03f, -7.602461e-02f, 1.724271e-01f, 2.037506e-02f, -4.017503e-02f, -2.718332e-02f,
  -7.051422e-02f, -4.840472e-02f, -7.024556e-02f, 3.210950e-02f, -6.381888e-02f, -4.297027e-02f, 9.946096e-02f, 7.883504e-02f,
  -5.321119e-02f, -1.283329e-01f, -9.453401e-02f, 6.612670e-02f, 5.827254e-02f, 4.797909e-02f, -7.020573e-02f, 2.624606e-02f,
  -5.601067e-03f, -1.146828e-01f, -3.067716e-02f, -1.120210e-01f, 1.367728e-01f, 3.530344e-02f, 1.062339e-01f, 1.943685e-02f,
  8.557282e-03f, -4.587290e-02f, -4.737426e-02f, -1.792659e-02f, -7.459049e-02f, 8.026901e-02f, -9.700058e-02f, -3.631625e-01f,
  1.253075e-03f, -1.237140e-01f, 6.795686e-02f, -5.528849e-02f, -2.009199e-01f, 2.216362e-01f, 4.749160e-02f, -1.371543e-02f,
  6.963822e-02f, 9.003341e-03f, 2.626792e-03f, 5.758759e-02f, -6.352217e-02f, -3.326806e-03f, 4.310915e-02f, 9.559243e-02f,
  1.868284e-01f, 1.629549e-01f, -5.589904e-02f, 1.562852e-01f, 1.416938e-01f, -7.448808e-02f, -4.496177e-02f, -2.680756e-02f,
  5.459682e-02f, 2.870589e-02f, -6.376559e-03f, -4.939457e-02f, -8.185039e-02f, -7.720517e-02f, -9.273399e-02f, -7.358815e-02f,
  -6.463048e-02f, 1.083428e-01f, 1.240598e-01f, -2.922939e-02f, -1.403266e-02f, -4.245175e-02f, -8.599322e-02f, -1.531325e-01f,
  -2.009537e-02f, -1.245108e-01f, 3.103883e-02f, -1.938883e-02f, 4.876146e-03f, 1.049632e-01f, -1.060055e-01f, -9.876787e-02f,
  -9.734486e-02f, -1.119461e-01f, 2.968882e-03f, -1.902567e-02f, 5.088842e-02f, -1.746634e-02f, 9.058267e-02f, 3.917713e-01f,
  1.681741e-01f, -4.831227e-02f, -1.427663e-01f, -6.401642e-02f, 2.811924e-02f, 8.809865e-02f, 2.997956e-02f, -4.202041e-03f,
  1.121294e-02f, -6.727228e-02f, -1.357647e-01f, -6.307767e-02f, -4.139522e-02f, 9.815830e-02f, -2.322841e-02f, -2.073497e-03f,
  6.193878e-02f, 7.951358e-02f, -2.593906e-03f, 1.575016e-02f, 1.910206e-02f, -2.128251e-02f, -1.026099e-03f, 3.522035e-02f,
  -3.503834e-02f, 7.314246e-02f, 5.694206e-02f, -4.297798e-02f, -5.877133e-02f, -4.963760e-02f, -2.968713e-02f, 4.160466e-02f,
  -6.815390e-02f, -1.608298e-03f, 1.477373e-02f, -2.783610e-02f, 7.266416e-02f, -5.263556e-02f, 4.463027e-02f, -5.306777e-02f,
  1.350702e-03f, -1.232820e-02f, -5.332685e-02f, -5.414353e-02f, 5.201922e-02f, -5.726980e-03f, -5.127449e-02f, -7.051036e-02f,
  -2.309079e-02f, -3.841211e-02f, -2.522995e-02f, -8.659082e-02f, -1.453007e-01f, 1.318483e-02f, 7.358733e-04f, -3.594330e-02f,
  -5.519823e-02f, -1.043450e-01f, -1.744932e-01f, -1.248941e-02f, -3.294806e-02f, 2.663672e-01f, 2.618192e-01f, 5.237916e-02f,
  4.557182e-02f, 1.714393e-02f, -7.140409e-02f, 1.049608e-02f, 1.430111e-01f, 9.035780e-03f, -8.885360e-02f, -4.185070e-02f,
  8.644918e-02f, -7.106782e-03f, -1.375996e-01f, -4.588222e-02f, -7.035762e-02f, 3.963416e-02f, 3.137200e-02f, 8.588077e-02f,
  9.435767e-02f, 5.861303e-02f, 5.107521e-02f, -1.228979e-02f, -4.758987e-02f, 8.353673e-03f, 3.301006e-02f, -8.334377e-02f,
  7.154475e-02f, -9.318737e-03f, 6.679598e-02f, 7.569704e-02f, -5.371898e-02f, -5.667781e-03f, -6.676761e-03f, 1.076872e-02f,
  7.327334e-03f, -3.188422e-03f, 2.803952e-02f, 4.756555e-02f, 1.673957e-02f, 6.784236e-02f, 6.026793e-02f, 4.405282e-02f,
  -3.729255e-02f, 3.335968e-02f, -1.936948e-01f, -1.740216e-01f, -1.620322e-01f, -7.546816e-02f, -9.211825e-02f, -6.300856e-02f,
  -6.178742e-02f, 4.025506e-02f, -1.344466e-02f, -3.163924e-01f, -1.838431e-01f, -1.756801e-01f, -4.964857e-02f, -3.792395e-02f,
  -8.597076e-02f, -6.623385e-02f, 9.032169e-02f, -6.722262e-02f, 1.544903e-01f, 2.878326e-01f, -7.450134e-02f, -2.123751e-02f,
  -3.749466e-02f, 2.603535e-02f, -5.705808e-02f, -3.694546e-02f, 4.547229e-04f, -7.012950e-03f, 4.543272e-02f, -5.338689e-02f,
  4.190335e-02f, 1.856159e-02f, -7.045305e-02f, -1.052854e-02f, 8.331056e-02f, 4.051683e-02f, -5.180589e-02f, 2.179759e-01f,
  -6.841508e-02f, -1.013624e-01f, 7.805750e-03f, -1.536006e-02f, -1.926549e-02f, -3.723611e-02f, 7.678617e-02f, -1.313437e-02f,
  -1.031965e-01f, 4.513769e-02f, -1.061728e-01f, -1.683737e-01f, -3.265663e-02f, 1.046962e-01f, 3.663674e-02f, -2.591821e-02f,
  -1.897969e-01f, -3.491577e-01f, -5.494893e-02f, -2.070969e-01f, -2.416983e-01f, -1.219552e-01f, -1.956715e-02f, 2.716095e-02f,
  4.667151e-03f, -5.308501e-02f, -1.004258e-02f, -1.334123e-01f, -3.541061e-03f, 3.748902e-02f, -2.114393e-02f, 9.600629e-02f,
  3.135357e-02f, 7.153120e-02f, -6.063904e-02f, 1.305282e-01f, -6.460396e-02f, -1.267245e-01f, -8.589997e-02f, -5.821979e-02f,
  8.434848e-02f, 7.114919e-02f, 4.231702e-02f, -2.199141e-01f, -5.846697e-02f, -1.641684e-01f, -6.750908e-02f, 4.511544e-03f,
  -6.984358e-02f, 3.861068e-03f, 1.253681e-01f, -3.301868e-02f, 6.525333e-02f, 2.465501e-01f, 5.336672e-02f, 5.316591e-02f,
  -6.285154e-02f, 2.662169e-02f, 2.239929e-02f, -1.404107e-02f, -3.454763e-02f, 1.195462e-01f, 1.647490e-01f, -2.196402e-02f,
  -6.784438e-02f, -9.135032e-02f, -8.175254e-02f, -1.561425e-02f, 1.997437e-01f, -6.038629e-02f, -1.363100e-01f, -2.417613e-01f,
  -4.428761e-02f, 1.619730e-01f, -2.650823e-01f, -5.594777e-03f, -5.543763e-02f, 3.808498e-02f, 1.154523e-02f, 1.073901e-01f,
  1.465975e-01f, 1.151780e-01f, -5.744872e-02f, -8.726801e-02f, -9.603059e-02f, -4.628551e-02f, 1.100503e-02f, -2.351579e-02f,
  -8.693576e-02f, -9.921076e-02f, -1.458499e-01f, -4.774152e-02f, -9.643073e-02f, -5.863731e-02f, 6.016211e-02f, -6.342565e-02f,
  5.179068e-02f, 6.102925e-02f, 2.564185e-02f, -4.808511e-02f, -1.407159e-02f, 4.268192e-02f, -4.192213e-02f, -7.880611e-02f,
  -9.188785e-02f, -1.068394e-02f, -5.284673e-02f, 6.886478e-02f, 7.932626e-02f, -5.904875e-02f, -3.549135e-02f, 3.802003e-02f,
  -2.811469e-02f, -4.312075e-02f, -5.439281e-02f, 6.327668e-02f, 1.793553e-01f, 8.846168e-02f, -9.056829e-02f, 2.663499e-02f,
  -7.939329e-02f, -9.523549e-02f, 1.140657e-02f, 1.160663e-02f, -5.372945e-02f, -8.084697e-03f, -2.679707e-02f, 9.316777e-02f,
  -4.922107e-02f, 5.209505e-02f, -8.936258e-02f, -3.176613e-02f, -6.036218e-02f, 5.276242e-04f, 3.575267e-02f, 5.432576e-02f,
  -9.988194e-02f, -4.833525e-02f, -1.139396e-01f, 5.006308e-02f, 6.048917e-02f, 1.083616e-01f, 3.558743e-02f, 1.397931e-01f,
  2.021344e-02f, -3.236485e-02f, 3.655475e-02f, 7.755557e-02f, -5.045929e-02f, 1.089332e-01f, -2.550862e-02f, 5.249561e-02f,
  2.137951e-02f, 6.499101e-02f, -6.442050e-02f, 6.823567e-02f, 8.016874e-02f, -1.865531e-02f, -3.230856e-02f, -1.918041e-02f,
  4.020890e-05f, 1.666974e-02f, -6.172101e-03f, -1.659341e-01f, -1.744154e-01f, -1.215261e-01f, 9.543433e-02f, 5.524684e-02f,
  1.032861e-01f, -2.401736e-01f, -3.152778e-01f, -2.445685e-01f, -1.192694e-01f, -1.025393e-01f, -3.800727e-02f, -2.260111e-02f,
  -1.416300e-02f, 3.582671e-02f, -7.149537e-03f, -6.047618e-03f, 1.602134e-02f, 1.564590e-02f, 3.907074e-03f, -5.263959e-04f,
  -4.609450e-02f, 4.443668e-02f, -1.638728e-02f, 6.417274e-02f, -3.042663e-03f, 4.051010e-02f, -5.594109e-02f, -4.204018e-02f,
  3.129548e-02f, -3.486543e-02f, 9.423738e-03f, 2.948632e-02f, 5.017346e-02f, 3.371578e-02f, 2.218163e-02f, 6.516719e-02f,
  4.835748e-02f, 4.812559e-02f, -1.523815e-01f, -3.044192e-02f, -1.198242e-01f, 2.621615e-02f, 8.025337e-02f, 8.688105e-02f,
  2.196397e-02f, -1.044748e-01f, -8.286862e-02f, 3.087620e-03f, 6.161642e-03f, -5.457602e-02f, 5.769783e-02f, 5.819215e-02f,
  1.348200e-02f, -1.850441e-01f, -1.405768e-01f, -1.149488e-01f, -6.599997e-02f, 3.447231e-03f, 6.187288e-02f, 1.598228e-02f,
  -2.950015e-03f, -2.286584e-02f, 1.893883e-02f, 3.748939e-02f, -2.602239e-02f, 1.341229e-02f, -4.111016e-02f, -9.727286e-03f,
  -4.931625e-02f, 2.816995e-02f, -8.720763e-02f, -5.169715e-03f, 3.955217e-02f, -4.559226e-02f, 1.035175e-01f, 4.423154e-01f,
  -8.109221e-03f, -4.883272e-02f, -1.079388e-01f, -1.390062e-01f, 3.859141e-02f, -1.376541e-01f, 2.279268e-02f, 8.101840e-02f,
  2.179257e-02f, -7.481688e-03f, -1.902504e-02f, 5.231535e-02f, -5.104613e-02f, 5.576398e-03f, -1.210010e-01f, -9.120303e-02f,
  1.398031e-02f, 6.648076e-02f, -3.349477e-02f, -8.766866e-03f, -6.715606e-02f, 4.456089e-02f, -2.851424e-02f, -1.077997e-02f,
  1.352331e-02f, 4.146492e-02f, 5.691069e-02f, 3.536551e-02f, -1.679912e-01f, -1.040648e-01f, -1.877200e-01f, 5.311373e-02f,
  -6.902573e-02f, 3.396913e-03f, -5.727182e-03f, -5.140357e-03f, 9.899440e-02f, -6.634482e-02f, 6.882930e-02f, 6.139700e-02f,
  1.943750e-02f, -3.236535e-02f, -8.215468e-02f, 8.812214e-03f, 1.064186e-01f, -4.586923e-02f, -5.501157e-02f, -5.944325e-03f,
  7.400709e-02f, -9.749947e-02f, -4.998699e-02f, -1.175051e-01f, 1.423825e-02f, 2.161525e-03f, -3.965335e-02f, 5.916585e-02f,
  1.223017e-01f, 6.228878e-02f, -4.450028e-02f, -1.132289e-01f, -7.179146e-02f, -4.004246e-02f, -9.623665e-02f, -9.833392e-03f,
  1.230478e-01f, 1.496078e-01f, 6.384282e-02f, 1.720086e-02f, 2.659548e-02f, 3.294145e-02f, -2.313277e-03f, 1.235652e-02f,
  2.362797e-02f, 1.017774e-01f, -9.209781e-02f, -8.213973e-02f, -4.648564e-02f, -5.150500e-02f, -5.261514e-02f, -8.375955e-02f,
  1.409974e-01f, -6.604387e-02f, -3.360546e-02f, 3.665558e-02f, -6.435226e-02f, 4.246891e-02f, -4.508781e-02f, 2.198318e-02f,
  -4.813093e-03f, -6.780808e-02f, 1.191350e-02f, 5.421287e-02f, -6.151780e-02f, -3.446708e-02f, -5.273039e-02f, -4.894507e-02f,
  2.375821e-03f, 1.717494e-02f, -4.191946e-02f, -1.079557e-02f, -9.909797e-02f, 2.908140e-02f, -3.976062e-02f, 3.643393e-02f,
  -2.310503e-02f, 2.925439e-02f, 4.646106e-02f, 9.322384e-02f, -1.113106e-02f, 3.248341e-02f, 4.288044e-02f, -1.644800e-02f,
  5.170516e-02f, 1.457339e-01f, -3.736246e-02f, -1.382892e-02f, 8.860607e-02f, -2.254622e-02f, -1.551756e-01f, 1.831718e-02f,
  -1.360717e-01f, 9.837446e-02f, 2.678929e-02f, 6.243329e-02f, -8.078608e-02f, 2.133890e-02f, 2.338246e-02f, -6.119457e-03f,
  1.198550e-01f, -3.923430e-02f, -1.643701e-01f, 2.727143e-02f, -1.077622e-02f, -6.389240e-02f, 2.821163e-02f, -6.966172e-02f,
  -4.562787e-02f, -5.995575e-02f, 6.955660e-02f, -1.008741e-01f, 1.589889e-01f, -1.263131e-01f, -5.192611e-02f, 8.375212e-03f,
  3.879735e-02f, 4.176978e-02f, 7.031520e-02f, -4.131910e-02f, 1.383472e-02f, 4.503939e-02f, 2.173002e-02f, -1.165680e-02f,
  4.859381e-02f, 3.485681e-02f, 6.419573e-02f, 2.084992e-02f, 2.598482e-02f, -8.365566e-02f, -1.406024e-01f, -7.833717e-02f,
  5.425925e-02f, -3.590007e-02f, -2.933869e-03f, -9.186459e-02f, 2.380453e-02f, -2.638793e-02f, -3.860156e-02f, 1.166498e-01f,
  7.640117e-02f, 2.558228e-02f, -2.383047e-02f, -1.129765e-02f, 1.077466e-01f, 1.085374e-02f, 3.335310e-03f, -1.213698e-01f,
  -4.866735e-02f, -3.813437e-02f, 4.622909e-02f, 1.937054e-02f, 5.356034e-02f, -6.447288e-02f, 2.936430e-02f, 1.151277e-01f,
  -4.937953e-04f, 3.469301e-02f, 6.527333e-02f, -2.797295e-02f, -7.612731e-02f, -3.487863e-02f, 3.248609e-02f, -4.795252e-02f,
  -4.326429e-02f, -1.025076e-01f, 1.933806e-02f, 4.729553e-02f, 9.913449e-02f, -4.509763e-02f, 3.227435e-03f, -5.433441e-02f,
  5.022928e-02f, -2.688636e-02f, -1.006175e-01f, -4.768127e-02f, -1.597068e-02f, -2.507391e-01f, 2.139708e-01f, 1.567370e-01f,
  -6.082790e-02f, -5.892485e-02f, 4.154194e-02f, -3.184853e-02f, -4.654627e-02f, -4.442571e-02f, -2.229535e-02f, 5.633540e-02f,
  -2.868942e-02f, -1.144827e-02f, 9.108705e-02f, 5.992324e-02f, -2.875123e-02f, -6.363739e-03f, 1.184634e-02f, 1.109613e-03f,
  2.499831e-02f, 5.162059e-02f, 1.242578e-03f, 3.937386e-02f, 6.966334e-04f, -3.083638e-02f, 1.463666e-02f, 9.840425e-03f,
  2.886863e-02f, -2.199397e-02f, -1.109060e-02f, -3.651565e-02f, -2.494595e-02f, -4.892988e-02f, -3.201497e-02f, 6.166668e-03f,
  -5.784748e-02f, 7.996226e-02f, -1.202372e-01f, 2.525303e-02f, -9.134109e-02f, 2.653952e-02f, 8.892139e-02f, 7.535669e-02f,
  1.293884e-01f, 5.973347e-02f, -1.472586e-02f, -1.031112e-03f, 5.683218e-02f, -9.190357e-02f, -1.984091e-02f, 1.931779e-02f,
  -1.472296e-01f, 5.209799e-04f, 2.617056e-02f, -8.294690e-02f, 2.401512e-02f, 6.746768e-02f, -3.091585e-02f, 1.082472e-01f,
  1.515620e-01f, -4.413670e-02f, 1.009945e-01f, 8.563618e-02f, -1.649038e-02f, 3.978413e-02f, 6.999363e-02f, -3.865347e-02f,
  -6.028837e-02f, -3.057184e-02f, -9.917211e-02f, -8.146787e-03f, 8.648235e-02f, -2.570778e-01f, -7.206064e-02f, 1.001664e-01f,
  2.523959e-02f, -1.112588e-01f, 6.814228e-02f, -1.264079e-03f, -1.346843e-02f, -3.119163e-02f, 3.787846e-02f, 5.639748e-02f,
  -2.830478e-02f, 5.835011e-03f, 1.403509e-02f, 3.752680e-02f, -5.656777e-03f, 2.807632e-02f, 5.945511e-02f, 5.191224e-02f,
  -5.662949e-02f, -5.301882e-02f, -6.185935e-02f, -7.545824e-02f, 9.889399e-03f, -8.190803e-02f, -9.042270e-02f, 2.674200e-03f,
  -2.546656e-03f, -6.056756e-02f, -8.222157e-02f, -2.436845e-01f, 1.656434e-02f, 2.467411e-03f, -4.580035e-02f, -2.450791e-02f,
  -7.892506e-02f, -7.009123e-02f, -1.026156e-02f, -8.737136e-02f, 1.146905e-02f, -4.894481e-02f, 9.114362e-02f, 3.670518e-02f,
  1.049766e-01f, 2.147296e-02f, -4.199118e-03f, -4.454412e-02f, -5.446255e-02f, 5.993845e-02f, -2.942425e-02f, -3.941067e-02f,
  4.982611e-02f, 5.385957e-02f, 6.848283e-02f, -3.788488e-02f, 1.116470e-01f, 5.452361e-02f, -1.232734e-01f, 6.661903e-02f,
  -2.959852e-02f, -1.387588e-02f, -7.789665e-02f, 1.861593e-02f, -6.742019e-02f, -2.247735e-02f, 4.794284e-02f, -9.616564e-02f,
  -8.368152e-03f, 2.817560e-02f, -1.405940e-01f, 1.005943e-01f, 1.045641e-01f, 1.014385e-01f, 7.022892e-02f, -1.565493e-02f,
  2.060017e-02f, 1.087100e-02f, 3.700971e-02f, -9.499118e-02f, 6.239460e-02f, 1.203690e-02f, 4.453222e-02f, -6.664530e-02f,
  6.887310e-03f, -1.317083e-01f, -6.855615e-02f, 1.060290e-02f, -1.749657e-02f, 5.330754e-02f, 5.762188e-02f, -2.652816e-02f,
  4.533990e-02f, 4.089373e-02f, -8.048295e-02f, -4.821993e-02f, 7.090112e-02f, -1.054184e-01f, 7.889380e-03f, 7.952867e-02f,
  -1.679770e-02f, -7.123200e-02f, -9.003393e-02f, -7.879403e-02f, -4.797344e-02f, 1.956895e-02f, -2.700718e-02f, 3.844837e-02f,
  -3.885314e-02f, -3.909659e-02f, 9.183369e-02f, 6.504369e-02f, -3.781157e-03f, -1.026285e-03f, 9.925400e-02f, -1.924997e-01f,
  7.016404e-02f, -6.033150e-02f, -6.570831e-02f, 3.029929e-02f, -5.295219e-03f, 5.251732e-02f, 1.159350e-02f, 1.963207e-02f,
  -9.959529e-02f, -1.901310e-02f, 2.103863e-02f, -9.243489e-02f, -8.567793e-01f, 8.683109e-02f, -8.457516e-02f, 2.306153e-02f,
  1.878283e-01f, -4.135927e-01f, -3.346932e-01f, 1.346971e-02f, -1.218251e-01f, 3.335637e-02f, 1.086152e-02f, -7.403761e-02f,
  6.079865e-02f, 4.052730e-02f, -3.335910e-02f, -6.990855e-02f, 8.641054e-03f, -7.846181e-02f, -2.121255e-02f, 1.000113e-02f,
  -4.010790e-02f, 3.733476e-02f, 5.536438e-03f, -1.046751e-01f, -5.642718e-02f, -7.325821e-02f, 1.643515e-02f, -2.181167e-02f,
  -5.897679e-02f, 2.281912e-02f, -2.699846e-02f, 2.834717e-02f, 7.073636e-02f, -3.653497e-02f, -6.701761e-02f, -5.999576e-02f,
  -6.095533e-02f, -5.073548e-02f, -6.000363e-02f, -9.328178e-02f, 4.480043e-02f, 1.264762e-02f, 1.761310e-02f, 5.047449e-02f,
  -1.597264e-01f, -2.364648e-03f, 2.518800e-02f, 1.951617e-02f, 4.517157e-02f, -1.081103e-02f, -3.906560e-02f, -1.436002e-02f,
  5.665547e-02f, -4.891757e-02f, -4.074132e-02f, -3.279022e-02f, -8.627906e-02f, 7.835568e-02f, 3.498691e-02f, -1.613396e-02f,
  -2.819647e-02f, 3.028607e-03f, -9.313592e-02f, 3.657888e-02f, 2.025011e-02f, -4.741365e-02f, 1.009005e-01f, 5.970706e-02f,
  -5.626246e-02f, 2.916703e-03f, -2.512048e-02f, 7.126614e-03f, -1.690522e-03f, -6.193230e-02f, -4.165219e-02f, 7.763793e-02f,
  2.682550e-02f, -3.575920e-02f, -1.192137e-01f, -1.451670e-02f, -7.179718e-02f, -1.143352e-01f, -1.190191e-02f, 4.828911e-02f,
  1.213493e-01f, 2.892625e-02f, -3.515748e-02f, 4.868951e-02f, -9.128823e-02f, -5.391201e-02f, 3.221104e-03f, -4.588920e-02f,
  1.195721e-02f, 4.851982e-02f, 9.692844e-02f, -7.020998e-02f, -2.672267e-02f, -4.609755e-02f, 1.532792e-01f, -1.740366e-02f,
  1.023347e-02f, -1.406700e-01f, -6.357598e-02f, -2.203280e-02f, 8.719048e-03f, -2.038245e-02f, 1.111542e-02f, -3.250104e-02f,
  -1.402260e-02f, 3.860241e-02f, -3.999828e-02f, 2.495747e-02f, -4.101281e-02f, -6.436338e-02f, -6.264680e-03f, 4.499957e-02f,
  1.946633e-02f, -1.454950e-02f, -7.244308e-02f, -1.914637e-02f, -7.103167e-02f, 3.406254e-02f, 3.408371e-02f, -1.089687e-02f,
  -6.408353e-03f, -2.596576e-02f, 9.549082e-03f, -6.383733e-02f, 4.114382e-04f, 4.612576e-02f, 1.541824e-02f, 3.091975e-02f,
  5.314703e-02f, 7.126773e-03f, 5.099768e-02f, -6.323028e-02f, 3.338796e-02f, -8.856633e-02f, -7.420210e-02f, 2.325393e-02f,
  -1.079298e-01f, -4.081587e-02f, -5.527299e-02f, -3.045264e-02f, 9.680428e-02f, 2.061873e-03f, 7.978164e-03f, 8.328140e-02f,
  -3.341429e-02f, -1.364556e-01f, 8.451882e-02f, 2.845200e-02f, 4.202645e-02f, -2.287289e-02f, 6.644601e-02f, -4.368377e-02f,
  5.467185e-02f, 2.615242e-02f, 3.495071e-02f, -3.716149e-02f, -4.043065e-02f, -1.031321e-01f, -1.282888e-01f, -1.636452e-02f,
  5.313443e-02f, 1.237875e-01f, 6.564441e-02f, -5.223387e-02f, 2.620347e-02f, -1.723475e-03f, -5.135339e-02f, -6.314571e-02f,
  1.969516e-01f, -7.798093e-02f, -7.451343e-02f, 2.149049e-02f, 2.938462e-02f, 1.716852e-02f, 3.059092e-02f, 7.603034e-02f,
  6.130889e-02f, -5.975240e-02f, -3.522007e-03f, 9.225382e-03f, 7.438978e-02f, 1.351129e-02f, 8.500892e-02f, 7.397451e-02f,
  -6.984065e-02f, 1.552776e-02f, -7.198718e-02f, 4.236250e-02f, -3.634710e-02f, 2.527231e-02f, 5.892470e-02f, 5.977036e-02f,
  1.407555e-02f, -1.003882e-01f, -4.017887e-02f, -7.340814e-02f, -1.220697e-01f, -1.440087e-03f, -5.134042e-02f, 1.324093e-02f,
  1.482351e-02f, -7.738944e-03f, 8.337788e-02f, 2.440986e-02f, 4.078416e-02f, 3.379238e-02f, 9.078315e-04f, 5.121291e-02f,
  7.370431e-02f, 1.319446e-01f, 3.285741e-03f, 1.088482e-01f, -4.978400e-02f, 7.467499e-02f, -3.644120e-02f, 2.308877e-02f,
  1.509637e-01f, -1.544980e-01f, -3.082881e-02f, -1.604247e-03f, -1.277295e-01f, -2.045573e-02f, -1.043119e-03f, 4.605849e-02f,
  1.127464e-01f, 3.861909e-02f, -7.788533e-02f, -3.303076e-02f, -4.436523e-02f, -8.743373e-02f, -1.420646e-02f, 2.742367e-02f,
  -4.817957e-02f, 4.218670e-02f, 1.198899e-01f, -6.018452e-02f, -8.122806e-02f, -6.086639e-04f, -1.555332e-01f, 2.191011e-02f,
  -7.717277e-02f, -5.917829e-02f, 9.788442e-02f, -5.620150e-02f, -4.310840e-02f, -7.791579e-02f, -7.747966e-02f, -5.185287e-02f,
  -1.993828e-02f, -4.048040e-02f, -1.117721e-01f, 5.083166e-02f, 8.004217e-02f, -8.196609e-02f, 6.131171e-02f, 1.119083e-02f,
  2.408575e-02f, -6.397023e-02f, 6.773927e-02f, 2.395341e-02f, -1.242091e-02f, 2.773722e-02f, 2.014157e-02f, 1.792109e-02f,
  -2.323156e-02f, 2.427913e-02f, 3.505973e-02f, -7.087099e-02f, -8.848634e-02f, 4.498721e-02f, 7.434347e-02f, -3.688700e-02f,
  5.494902e-02f, -7.260077e-03f, 2.264614e-03f, -1.007641e-01f, 3.456328e-02f, -3.733267e-02f, -1.170885e-01f, 6.449182e-02f,
  -6.488923e-03f, -8.963826e-02f, 5.104770e-02f, -7.646301e-02f, 1.188223e-01f, 3.042053e-02f, -4.489825e-02f, 4.610390e-02f,
  1.407616e-01f, 1.691516e-02f, 1.233725e-01f, 2.521533e-02f, -3.575846e-02f, 6.030289e-02f, 3.378490e-04f, -3.917778e-03f,
  -1.517889e-01f, 2.917754e-02f, 9.188646e-03f, -2.812019e-02f, 9.386415e-02f, 1.032204e-01f, 1.468179e-01f, -4.893322e-02f,
  1.417497e-01f, -5.058572e-02f, -1.926305e-02f, 1.141789e-01f, 1.213842e-01f, 5.169186e-02f, -1.768473e-02f, 8.571655e-03f,
  -7.305786e-02f, 6.172506e-02f, 4.897754e-02f, 4.899220e-02f, -1.669209e-02f, 3.524147e-02f, 6.119755e-02f, 1.744119e-02f,
  -4.621768e-02f, -1.279664e-01f, 4.134036e-02f, 7.008117e-02f, -5.748298e-03f, 3.501773e-02f, 5.636497e-03f, -3.802434e-02f,
  -1.890587e-02f, -4.609113e-02f, 2.315259e-02f, -8.482688e-02f, -2.037435e-01f, -4.886667e-02f, -1.833028e-02f, 9.898861e-02f,
  6.378441e-02f, 7.926701e-02f, 1.223436e-01f, -7.374050e-02f, 3.015632e-02f, 9.120920e-02f, -1.227956e-01f, 3.794803e-02f,
  1.059476e-01f, -1.929191e-02f, 7.607821e-02f, 4.370389e-03f, -3.870531e-02f, 4.766420e-02f, 1.877481e-01f, 2.042474e-02f,
  8.910332e-03f, 7.349025e-02f, 5.245019e-02f, 1.561212e-02f, -6.839761e-02f, -2.608614e-02f, -1.911234e-02f, -2.432528e-01f,
  -1.788540e-01f, -2.511635e-02f, 1.025577e-02f, -2.805092e-02f, 1.309825e-01f, 2.700226e-02f, 6.088430e-02f, 4.166495e-03f,
  -6.528880e-03f, 3.941606e-02f, 7.400437e-02f, 9.277972e-02f, -1.580059e-02f, 9.230945e-02f, 3.724734e-02f, -3.607710e-02f,
  9.733041e-02f, 2.663976e-02f, -7.226236e-02f, -6.453793e-02f, -2.257954e-02f, 7.702755e-02f, 1.982115e-02f, 6.985606e-03f,
  -7.264758e-03f, 7.933502e-03f, 6.263007e-02f, -8.535649e-04f, -3.190159e-02f, 1.832642e-02f, 8.620639e-02f, -6.458579e-02f,
  3.728291e-02f, -5.605896e-02f, 5.315199e-02f, 5.566677e-02f, -2.292181e-02f, -1.989026e-02f, -2.362873e-02f, -4.174004e-02f,
  -6.115193e-02f, 4.279576e-02f, -5.112831e-02f, -1.754717e-02f, 4.942236e-02f, 3.773246e-02f, 6.702097e-02f, -2.208914e-02f,
  2.069875e-02f, -5.025431e-03f, 4.987696e-02f, -3.662326e-02f, 2.115036e-02f, 6.095463e-02f, 1.938097e-02f, -5.355206e-03f,
  9.569554e-03f, -1.269405e-02f, 6.298160e-02f, -3.525428e-02f, -6.894520e-02f, -1.148633e-02f, -7.613418e-02f, -7.287465e-03f,
  -4.746513e-02f, 7.143504e-03f, -1.386560e-02f, 2.784804e-02f, 5.006472e-02f, -7.282614e-03f, -1.212820e-01f, 7.558233e-02f,
  -3.860926e-02f, 2.621109e-02f, 3.589407e-02f, -1.669692e-02f, 1.263355e-02f, -1.197968e-01f, -2.784886e-02f, 2.304708e-02f,
  4.741459e-03f, -2.725288e-02f, 4.905273e-02f, 1.012371e-01f, 1.277656e-01f, 4.484286e-02f, 8.312447e-02f, 3.915210e-02f,
  1.373855e-01f, 1.126724e-01f, 4.333239e-02f, -3.608783e-03f, -2.974480e-03f, -5.556408e-02f, 6.389493e-02f, 6.443099e-02f,
  -9.604821e-03f, 5.420397e-02f, 4.260129e-02f, -2.891392e-02f, -1.771335e-02f, 4.800957e-02f, -5.576182e-03f, 1.244185e-01f,
  7.310107e-02f, 5.167057e-02f, 6.115317e-02f, 2.894241e-02f, 8.124584e-02f, 8.989460e-03f, -2.093421e-02f, 5.273959e-02f,
  2.355342e-03f, -6.939287e-02f, 5.056235e-03f, 8.528885e-02f, -6.485085e-02f, 7.692320e-03f, -5.010609e-03f, -3.221586e-03f,
  -3.771688e-02f, 6.466279e-02f, -2.168603e-02f, 5.178317e-02f, -3.484109e-02f, 1.199276e-01f, -1.688917e-03f, 6.282341e-02f,
  -3.906447e-02f, -2.810257e-02f, 9.807863e-03f, 6.922224e-02f, 8.977634e-03f, -3.977499e-02f, 2.854455e-02f, 6.128982e-02f,
  -2.192388e-02f, -5.606506e-02f, 9.925498e-03f, -2.090310e-02f, 3.231804e-02f, -1.506857e-02f, -5.208486e-02f, 6.586141e-02f,
  -8.847651e-02f, 6.707425e-03f, 9.679050e-03f, 9.136867e-02f, 1.448305e-02f, 4.824911e-02f, 3.108320e-02f, 4.702285e-02f,
  -1.071222e-01f, 6.097096e-02f, 3.217852e-02f, -5.079187e-02f, -4.733313e-02f, -4.110716e-02f, -1.623872e-02f, 4.230938e-03f,
  9.470321e-03f, -5.413348e-02f, 6.264414e-02f, 5.971613e-02f, 1.267573e-01f, 3.610563e-02f, 2.619651e-02f, 5.625949e-02f,
  -2.076668e-02f, 2.506687e-02f, -2.659827e-02f, 6.730826e-03f, -3.629311e-02f, -3.498674e-02f, -2.419315e-02f, 2.260472e-02f,
  7.628276e-02f, -1.665359e-02f, 5.205686e-02f, 5.925641e-02f, -5.821422e-02f, 2.196405e-02f, 5.405429e-02f, -7.552068e-02f,
  6.332040e-02f, -8.872785e-02f, 5.199931e-02f, -3.050888e-02f, -9.408014e-02f, -1.608249e-02f, 2.374494e-02f, -1.719477e-03f,
  4.153105e-03f, 1.471742e-02f, -1.719094e-02f, -1.895911e-02f, 6.766279e-02f, 1.617312e-01f, -2.683705e-02f, 5.103189e-02f,
  -3.048019e-02f, 2.513145e-02f, 6.618643e-02f, 8.015499e-02f, 7.978480e-02f, -4.331898e-02f, 7.595768e-02f, -6.313732e-02f,
  -7.628006e-03f, 5.497333e-02f, 5.519247e-02f, 3.133216e-01f, 2.622831e-01f, 4.067605e-02f, 2.470068e-02f, 8.848064e-02f,
  3.937820e-02f, 5.620467e-03f, 2.228413e-03f, 4.830711e-02f, 1.858426e-02f, 7.070853e-02f, 6.608031e-02f, -6.962471e-02f,
  8.650281e-02f, -5.622276e-02f, 3.179648e-02f, -4.748838e-02f, 3.567200e-03f, -3.268385e-02f, 2.936388e-02f, -3.753784e-02f,
  1.601614e-02f, -2.292752e-02f, 8.207140e-03f, 2.370160e-02f, -3.844404e-03f, 2.461069e-03f, 4.900288e-02f, -6.710821e-02f,
  -6.793387e-02f, -3.027114e-02f, 6.876094e-02f, -1.443458e-02f, -1.291126e-02f, 5.384039e-02f, 3.411124e-02f, 1.249497e-01f,
  2.546291e-02f, 4.001865e-02f, 3.016654e-02f, 1.077724e-01f, 1.960646e-01f, 2.508615e-02f, 5.123235e-02f, -7.364383e-02f,
  8.606571e-02f, 2.932126e-02f, 1.199705e-02f, 3.747965e-02f, -8.158703e-02f, -5.425986e-02f, 3.154606e-02f, 5.966119e-03f,
  3.922258e-02f, 1.047910e-02f, 3.077136e-02f, 2.190381e-02f, -2.454030e-02f, 2.197658e-03f, -2.480694e-02f, -5.256087e-03f,
  -5.227195e-02f, -6.722626e-04f, -6.398792e-03f, -5.535212e-02f, 1.030710e-02f, -1.907594e-02f, 2.000995e-01f, 1.859110e-01f,
  3.698927e-02f, 1.010071e-02f, -9.288334e-03f, 1.045505e-01f, 3.857624e-02f, 5.244806e-02f, 9.072201e-02f, 1.423656e-01f,
  1.433655e-01f, -9.713268e-02f, 5.033683e-02f, 3.613357e-02f, 1.265399e-01f, -9.423264e-02f, 1.159844e-01f, 1.722975e-01f,
  5.943167e-02f, 3.035295e-02f, 5.747262e-02f, 3.890884e-02f, 3.398791e-02f, -2.524811e-03f, 1.222939e-01f, 2.500581e-02f,
  6.147489e-03f, 5.901112e-02f, 2.162861e-02f, 4.106254e-02f, 1.033153e-02f, 6.973214e-02f, -9.966802e-02f, -5.555226e-02f,
  2.334208e-02f, -4.553118e-02f, -5.357774e-02f, 1.250193e-02f, -1.336971e-01f, -3.201283e-02f, -6.008209e-02f, 3.251844e-02f,
  6.393848e-02f, -4.841257e-02f, -4.813227e-02f, 1.493448e-02f, 4.421650e-02f, 9.853621e-03f, 2.219925e-02f, -4.991736e-02f,
  -3.142481e-02f, 1.838341e-02f, -2.384081e-02f, -3.634017e-02f, 3.480746e-02f, 1.086827e-02f, 6.887887e-02f, 7.079722e-02f,
  3.810536e-03f, -3.732339e-02f, 1.478207e-02f, 9.663696e-05f, -3.406012e-02f, -1.734763e-02f, 3.743450e-02f, -1.578283e-02f,
  2.809488e-02f, 3.620669e-02f, -2.116373e-02f, 7.690881e-04f, -4.485925e-02f, -5.220871e-02f, -1.694328e-01f, 1.157720e-01f,
  -5.118679e-02f, -1.916441e-02f, 4.124409e-02f, 5.794230e-02f, -7.683230e-03f, 1.251850e-02f, 8.115239e-02f, -2.268979e-01f,
  6.086764e-02f, -4.899949e-02f, -8.738462e-02f, 3.486785e-02f, -3.179174e-02f, -4.168819e-02f, 6.415628e-02f, -4.448479e-02f,
  -4.852955e-02f, -1.238488e-02f, -5.333131e-02f, -3.076204e-02f, 2.659963e-02f, 5.673477e-02f, 6.446165e-02f, -6.991179e-02f,
  4.592926e-02f, 4.061684e-02f, 1.011758e-01f, 8.156434e-02f, -2.743414e-02f, 6.259155e-02f, 1.361695e-01f, -2.230406e-01f,
  2.029573e-02f, 2.036764e-01f, 1.113781e-01f, -6.274328e-02f, -1.160755e-01f, 4.002723e-02f, -1.163273e-02f, 3.559318e-02f,
  2.154981e-02f, 3.070610e-02f, -9.460560e-02f, 2.071246e-01f, -1.092365e-02f, 3.635671e-02f, 1.566582e-01f, 3.493188e-02f,
  1.150869e-03f, 2.004199e-02f, -4.875266e-02f, 7.658921e-03f, -1.970568e-02f, -5.966063e-02f, 1.318381e-02f, 1.926228e-02f,
  -4.614815e-02f, 6.813685e-02f, -1.822687e-02f, 3.878028e-02f, 5.674639e-02f, 1.154028e-01f, -1.842880e-02f, -5.117170e-02f,
  2.627445e-02f, 2.136538e-02f, -4.276624e-02f, 4.417724e-02f, -4.743187e-02f, 1.256965e-01f, 1.388200e-02f, 3.857122e-02f,
  4.396892e-02f, 6.446405e-02f, 1.490124e-01f, 2.058773e-02f, 8.834946e-03f, 2.648612e-02f, -7.351554e-03f, -6.382617e-02f,
  -1.698754e-01f, -7.152353e-02f, 3.622650e-02f, 1.489918e-02f, 1.105068e-01f, -2.592008e-03f, -2.658723e-02f, -2.359380e-02f,
  2.096115e-01f, 8.394188e-02f, -4.101399e-02f, -4.718142e-02f, -5.820501e-02f, 7.402196e-03f, -3.052844e-02f, 1.153837e-01f,
  -4.859681e-02f, 1.059841e-01f, 9.871676e-02f, 1.578890e-02f, 6.679761e-02f, 8.137101e-02f, 3.337859e-03f, -2.602662e-02f,
  5.155998e-02f, 8.666126e-03f, 6.818137e-02f, 6.808506e-02f, 7.524489e-02f, 3.411587e-02f, -4.886704e-02f, -3.304648e-02f,
  1.315616e-01f, 7.506346e-03f, 1.917239e-02f, 1.647923e-01f, -4.160744e-02f, -1.296056e-02f, 1.205447e-01f, -2.613108e-03f,
  1.029107e-02f, 6.296061e-02f, -1.145224e-03f, -2.975625e-03f, -5.793038e-02f, 7.056383e-02f, 1.521689e-02f, 7.897848e-02f,
  -1.517878e-03f, 5.213295e-02f, 6.984852e-02f, 1.476020e-02f, -2.865470e-02f, -1.199963e-01f, 1.637213e-02f, 1.501729e-03f,
  -7.816692e-02f, 2.632845e-02f, -7.899278e-02f, -3.982142e-02f, -1.848835e-02f, 1.143219e-01f, 1.367709e-01f, -9.279872e-02f,
  5.717330e-02f, 2.540150e-02f, 8.707457e-02f, 2.944070e-02f, 3.039234e-02f, 1.309392e-01f, 2.075407e-01f, 2.652666e-02f,
  -1.228844e-02f, 1.465290e-01f, -5.016101e-02f, -5.410278e-02f, 2.927680e-02f, 5.534306e-02f, 3.291544e-02f, 3.956721e-02f,
  -4.133702e-02f, -5.520706e-02f, 8.964881e-02f, 5.171700e-02f, 5.710044e-02f, 9.302204e-03f, -9.652673e-02f, -2.416918e-02f,
  -2.308765e-02f, 1.098896e-01f, 1.552718e-01f, 1.085099e-01f, 4.007776e-02f, -1.950296e-01f, -1.057754e-02f, 3.911368e-02f,
  5.183673e-02f, 2.006630e-02f, -1.464836e-02f, -1.313007e-02f, -4.494051e-02f, -3.318495e-02f, 4.696008e-02f, 8.942689e-03f,
  -5.441054e-02f, 8.529174e-02f, -1.630595e-01f, 1.444991e-03f, -2.054373e-02f, 4.604882e-02f, -1.148924e-01f, -4.827447e-02f,
  8.335084e-02f, -1.108223e-01f, -8.015022e-02f, 1.392175e-02f, 1.454110e-01f, 2.949543e-02f, -3.903002e-02f, -2.913249e-02f,
  -5.959530e-02f, -1.237723e-02f, -8.331839e-03f, 1.846198e-02f, -1.288598e-02f, -1.451465e-02f, 5.214690e-02f, 1.777704e-02f,
  6.758408e-02f, 2.315948e-02f, -7.310494e-03f, 6.846804e-03f, 4.657644e-02f, 3.201447e-02f, -1.012624e-01f, 8.905885e-02f,
  -4.539146e-02f, -6.927530e-02f, -4.604443e-03f, 1.229880e-02f, 2.317793e-02f, 7.469489e-03f, 2.492208e-02f, 1.254053e-01f,
  2.611591e-02f, 8.173594e-03f, -3.035739e-02f, -2.801664e-03f, -3.296734e-02f, 2.867357e-03f, -6.218371e-02f, 2.464166e-02f,
  9.620880e-02f, 7.087616e-03f, 4.090487e-03f, -3.077816e-02f, 2.896221e-02f, -1.357232e-01f, -8.244749e-02f, 9.406642e-03f,
  -6.865149e-02f, -8.753701e-02f, 3.078567e-02f, 1.600202e-02f, 8.713299e-03f, -1.721812e-02f, -5.027258e-02f, -1.117824e-01f,
  -1.633445e-02f, -1.548881e-02f, -6.071806e-02f, -3.214771e-02f, 6.056413e-02f, -1.563830e-01f, -6.489332e-02f, 6.032477e-03f,
  4.341374e-02f, 1.870192e-02f, 7.164849e-02f, 7.222136e-02f, -5.249374e-02f, 3.116337e-02f, 4.431492e-02f, -3.996187e-02f,
  -6.772530e-02f, -3.185197e-02f, 4.801210e-02f, 5.782717e-02f, -6.235271e-02f, -2.990326e-02f, -3.581247e-02f, -3.656900e-03f,
  4.472623e-02f, -4.653553e-02f, -1.184364e-02f, 3.883117e-02f, -7.090759e-02f, -5.396940e-02f, -4.289347e-02f, 2.558266e-02f,
  1.243958e-01f, 4.611257e-02f, -2.031659e-02f, 3.800033e-02f, -8.377745e-02f, -1.505188e-01f, -4.804775e-02f, -7.905965e-02f,
  -7.131352e-02f, -4.989416e-02f, -3.077345e-02f, -1.004369e-01f, -1.805072e-02f, -6.598200e-02f, 1.066420e-02f, -4.068459e-02f,
  -1.157465e-02f, -8.761297e-03f, 2.086456e-02f, 2.534671e-02f, 4.299726e-02f, -5.722927e-02f, 2.603852e-02f, 7.780984e-02f,
  8.489141e-02f, 1.250410e-02f, 4.263652e-02f, 1.606068e-02f, 8.488043e-02f, -3.214651e-02f, 7.426091e-02f, 9.581417e-02f,
  -1.629499e-02f, -1.537743e-01f, -1.747023e-02f, -1.011336e-01f, -4.354211e-02f, -2.997096e-02f, -5.514550e-02f, -5.175775e-03f,
  6.315092e-03f, 5.869958e-02f, 1.132205e-02f, -2.500049e-02f, -5.899864e-02f, -2.808636e-02f, -3.283262e-02f, -9.044935e-03f,
  3.189838e-02f, -3.844955e-02f, -1.094485e-01f, -2.739968e-02f, -8.421472e-03f, -1.041914e-01f, -2.164388e-02f, 1.082560e-01f,
  1.244844e-02f, 2.619904e-02f, -6.549629e-02f, -2.106851e-02f, 2.134325e-02f, 7.874961e-04f, 4.233978e-02f, -1.973672e-02f,
  -2.496502e-02f, -3.566547e-02f, 5.338942e-02f, -2.908580e-02f, 3.380642e-02f, 3.152835e-02f, 7.885557e-02f, -1.047131e-01f,
  1.216744e-03f, 1.227809e-03f, 5.792156e-02f, -2.360401e-02f, -1.079304e-02f, 4.609129e-02f, 1.359930e-02f, -5.024613e-02f,
  1.944235e-03f, -5.630050e-02f, -2.842264e-03f, -1.573446e-02f, -5.171756e-02f, 3.273261e-02f, -1.852849e-02f, -4.444957e-02f,
  -3.880472e-02f, 1.408680e-02f, 2.414100e-02f, -4.864666e-02f, 1.823614e-02f, -4.263281e-03f, 6.255028e-02f, -3.492816e-02f,
  5.317079e-02f, -9.937394e-03f, -2.012343e-02f, 7.373647e-02f, 4.846037e-02f, -8.404820e-03f, 7.251378e-02f, 1.024567e-01f,
  -3.554797e-02f, -4.040804e-02f, -7.507493e-02f, 5.926247e-02f, 9.377510e-02f, 2.991257e-03f, -6.679627e-02f, -5.923153e-03f,
  -1.062596e-01f, -1.538753e-02f, -3.303156e-02f, 4.138549e-02f, -5.035144e-02f, -2.616445e-02f, 6.554458e-03f, -3.150642e-02f,
  1.076357e-02f, 2.073058e-02f, 2.531574e-02f, 7.645030e-02f, -3.192422e-03f, 4.717870e-02f, -1.044732e-01f, 1.785598e-03f,
  3.180851e-02f, 6.672086e-02f, -5.118832e-02f, 9.137215e-02f, 1.061835e-01f, 4.666321e-02f, 3.311181e-02f, -6.076258e-03f,
  -4.313733e-02f, -5.399042e-02f, -3.705377e-02f, 2.394943e-02f, 2.977425e-02f, 3.897667e-02f, -7.188334e-02f, 4.556819e-02f,
  8.169839e-02f, -3.097958e-03f, 3.216406e-02f, -3.498992e-02f, -1.130041e-02f, 4.343887e-02f, 4.422925e-02f, -2.258504e-02f,
  -9.875686e-02f, 8.350919e-02f, 3.600940e-02f, -7.922380e-02f, -1.592012e-01f, -1.516583e-01f, -1.015919e-01f, -1.983707e-02f,
  -1.166663e-02f, 5.676586e-02f, 4.948461e-02f, -1.277759e-01f, 4.337074e-02f, -5.799099e-04f, -8.429445e-02f, -6.111219e-03f,
  2.613620e-02f, -3.802074e-02f, 5.710391e-02f, -6.214146e-02f, 3.130321e-02f, 5.209903e-02f, -4.513922e-02f, -4.307645e-04f,
  1.680690e-02f, 2.659089e-03f, 3.899824e-02f, 1.052134e-03f, 6.427721e-03f, -4.908661e-03f, 1.764673e-02f, -6.591557e-02f,
  4.729098e-02f, -2.551085e-03f, 4.983501e-03f, 5.399969e-02f, 3.778833e-03f, -5.541088e-02f, -2.098751e-02f, -3.192465e-02f,
  3.341419e-02f, 2.131416e-02f, -6.202438e-04f, 1.223254e-01f, -4.862651e-02f, 2.635118e-02f, -7.611845e-02f, 3.965785e-02f,
  -1.928021e-02f, 5.201384e-02f, -4.495756e-02f, -5.973584e-03f, 3.140974e-02f, -6.563316e-02f, -4.766552e-02f, 3.737402e-02f,
  -1.765235e-02f, -3.289637e-02f, 2.658474e-02f, -2.386905e-02f, -9.794862e-03f, -5.779466e-02f, 4.597954e-02f, -2.057447e-02f,
  -6.191094e-02f, 3.529906e-02f, 2.530377e-02f, -1.072273e-02f, -9.167355e-02f, -7.095294e-04f, -2.995447e-02f, 2.030661e-02f,
  -2.354262e-02f, 6.052128e-02f, -6.957673e-02f, -8.943732e-02f, -6.330751e-02f, 3.760037e-02f, -1.270484e-01f, 2.646412e-02f,
  -1.621831e-01f, -3.122380e-02f, 4.640861e-02f, -5.063781e-02f, -7.804880e-02f, 9.095787e-02f, 2.663211e-02f, 1.222104e-02f,
  3.678416e-02f, -4.065706e-02f, 9.733570e-03f, 7.992418e-03f, -6.927250e-02f, 5.861811e-02f, -1.112385e-02f, 8.052110e-02f,
  -4.514918e-02f, -3.933876e-02f, 4.709133e-04f, 3.955818e-02f, -1.147971e-02f, 4.535721e-02f, 3.189687e-02f, -2.773104e-02f,
  3.094831e-02f, 3.770594e-02f, 5.595557e-03f, 6.205155e-02f, -3.406643e-02f, 5.737388e-02f, -1.850007e-02f, 1.769112e-02f,
  3.339300e-03f, 4.378084e-02f, 5.306527e-02f, 5.678961e-02f, -3.925338e-02f, -5.242426e-02f, 3.983385e-02f, 7.281099e-02f,
  6.363398e-02f, -4.998355e-02f, 4.796061e-02f, -4.694578e-02f, -3.629526e-02f, 6.008025e-02f, 7.582022e-02f, 8.286051e-03f,
  -3.856837e-03f, 7.301372e-02f, -3.346559e-03f, -2.120756e-02f, -8.279881e-03f, 3.325657e-02f, -6.848218e-02f, -5.473968e-02f,
  -6.253556e-04f, 5.658769e-02f, -7.787996e-02f, -3.746890e-02f, 9.330493e-03f, 2.649043e-03f, 5.691110e-02f, 3.420389e-02f,
  2.693215e-02f, -2.917054e-02f, 2.221193e-02f, -1.807620e-02f, 7.315610e-03f, -5.240061e-02f, -1.078664e-02f, -3.643034e-02f,
  -1.061558e-01f, -4.789288e-02f, -8.259865e-02f, 1.536224e-04f, 3.959282e-02f, 6.963104e-02f, -2.213118e-02f, 6.167862e-02f,
  4.353374e-02f, 3.141881e-02f, -4.765599e-02f, -1.173589e-02f, -6.449258e-02f, 2.048836e-02f, -6.837299e-02f, -1.443858e-02f,
  2.591494e-02f, 3.614341e-02f, -4.981438e-02f, -2.772420e-02f, 8.192480e-02f, 4.423068e-02f, 8.004832e-03f, 1.741944e-01f,
  -1.037071e-01f, 7.548246e-06f, 1.611685e-01f, -8.042696e-02f, -2.887473e-02f, -4.626860e-02f, -2.386640e-01f, -2.946356e-02f,
  -5.588285e-02f, 1.604723e-02f, -1.757604e-02f, 1.352697e-01f, 2.722103e-02f, -6.078148e-02f, -3.672886e-02f, 1.001133e-01f,
  -2.860419e-03f, -4.110827e-02f, 2.186928e-02f, 5.380047e-02f, -4.087778e-02f, -1.544217e-02f, -2.515137e-03f, -6.054380e-02f,
  1.845370e-02f, 4.035744e-02f, -4.831776e-02f, -3.444259e-02f, -7.573350e-02f, -4.677871e-02f, -4.029837e-03f, 4.511705e-02f,
  -4.286048e-02f, -3.737424e-02f, 4.386145e-02f, 1.405619e-02f, 3.495059e-02f, 3.614175e-02f, 7.665452e-02f, -5.329197e-02f,
  1.098503e-01f, 2.930154e-02f, -1.352016e-01f, -1.224034e-02f, 8.431191e-02f, -1.283848e-01f, 5.732208e-02f, 4.386738e-02f,
  -2.588860e-02f, -7.067116e-02f, 6.853943e-02f, -5.508259e-02f, 1.701501e-02f, 6.324323e-02f, 2.051991e-02f, 2.842361e-02f,
  1.049230e-02f, 2.378879e-02f, -2.157797e-02f, 8.710875e-02f, 1.098092e-01f, 4.107726e-02f, 6.086388e-02f, -1.423202e-02f,
  2.924598e-02f, -8.144771e-03f, 6.360530e-02f, 3.479178e-02f, -1.021036e-01f, 3.467082e-02f, -6.226600e-02f, 2.777318e-02f,
  1.415385e-01f, -1.184611e-01f, -1.285048e-01f, 9.163877e-02f, -9.415852e-02f, -3.906254e-02f, -1.015853e-01f, 3.831509e-03f,
  -8.855182e-03f, -9.197533e-02f, 7.694937e-02f, -2.692485e-02f, -4.146846e-03f, 8.626149e-02f, -1.578490e-02f, -1.128620e-01f,
  4.460439e-02f, -5.469500e-02f, 5.730066e-02f, -2.333787e-02f, -2.850491e-02f, 1.292957e-02f, 4.212178e-02f, -8.272749e-03f,
  7.715588e-03f, 5.662093e-02f, -1.218613e-01f, 1.097219e-01f, -9.395812e-02f, 1.336655e-01f, 8.802354e-02f, 7.927638e-03f,
  4.857089e-02f, 6.736798e-02f, -4.256508e-02f, 5.250440e-02f, 1.359779e-02f, 7.775548e-02f, -2.897485e-01f, -1.895573e-01f,
  5.633078e-02f, -1.582565e-01f, 4.759924e-02f, -7.926543e-03f, 1.167221e-02f, 4.415112e-02f, 7.999758e-02f, 2.366597e-01f,
  3.532632e-03f, 1.374513e-01f, 5.531941e-02f, -9.307396e-03f, 6.893649e-03f, 8.590040e-02f, -4.929341e-02f, -1.042559e-01f,
  1.149566e-01f, -2.705962e-02f, 9.698470e-02f, 1.468007e-02f, 8.984515e-02f, -1.383546e-01f, 4.918765e-02f, -1.741408e-01f,
  7.951020e-02f, -6.552333e-02f, 1.849798e-02f, 1.043609e-01f, 1.551288e-01f, -4.476872e-02f, -3.221910e-02f, 4.157351e-02f,
  -4.795729e-02f, -1.472636e-02f, 4.911247e-02f, 2.837033e-02f, 6.192598e-02f, 3.807637e-02f, 7.016148e-02f, -4.778891e-02f,
  4.105568e-02f, 2.943439e-02f, 4.616372e-02f, 4.511109e-03f, 4.348726e-03f, -1.613363e-02f, -8.717359e-02f, -1.571418e-02f,
  -6.502572e-03f, 4.051279e-02f, 2.581846e-02f, 3.255107e-02f, -3.630684e-02f, 8.452510e-03f, 1.345047e-03f, -9.180774e-02f,
  -4.702936e-02f, -8.022717e-02f, 2.376210e-02f, 5.257043e-02f, 1.566667e-02f, 8.282134e-02f, 6.591313e-02f, 2.126372e-02f,
  1.032079e-01f, -2.952883e-02f, 3.765794e-02f, 9.595463e-02f, -6.573197e-02f, 1.751216e-01f, 3.535483e-01f, -3.430691e-02f,
  9.981833e-02f, -1.830127e-01f, 1.823683e-02f, 5.979423e-02f, -7.057943e-03f, 7.685533e-02f, 1.806308e-02f, -3.751022e-01f,
  1.044738e-01f, 2.283649e-02f, -1.194378e-02f, -1.239630e-02f, 4.670657e-02f, -2.550779e-02f, 1.115233e-01f, -4.436164e-02f,
  1.673266e-02f, 9.084488e-02f, -3.022129e-02f, -6.853694e-02f, -1.720844e-02f, -3.041314e-02f, -6.363556e-02f, -3.724692e-02f,
  -2.219356e-01f, 1.570042e-01f, 4.214883e-02f, 2.519511e-02f, -2.872938e-02f, -7.022752e-02f, 1.452493e-01f, -7.011697e-02f,
  -3.392321e-02f, 2.278866e-01f, 1.258752e-01f, 5.131114e-02f, 9.204210e-02f, -7.608384e-02f, -4.220839e-02f, 9.336820e-03f,
  -2.360541e-02f, 6.614257e-02f, 4.802527e-02f, 5.357571e-02f, 4.538335e-02f, -3.798027e-02f, 3.580862e-02f, -4.733158e-02f,
  9.019868e-03f, 2.196620e-02f, -1.952550e-02f, -2.774569e-02f, 4.400975e-03f, 4.343913e-02f, 6.812253e-02f, 2.443501e-02f,
  5.175505e-02f, 5.621768e-02f, -6.505357e-02f, 5.742789e-02f, -2.633248e-02f, 7.649521e-02f, -4.377718e-02f, -4.880557e-02f,
  -4.385110e-02f, 7.538610e-02f, -5.789521e-02f, 1.387523e-01f, 4.398755e-03f, -4.221763e-02f, 7.608953e-02f, 4.862424e-02f,
  -1.213793e-02f, 2.812128e-02f, -2.178818e-02f, 8.600023e-03f, 1.024271e-02f, 3.880179e-02f, -1.258681e-01f, -4.671505e-02f,
  -4.584180e-02f, 1.172876e-01f, 1.577400e-03f, -2.924484e-02f, 3.377492e-02f, 9.358031e-02f, -4.283301e-02f, 7.224671e-02f,
  -2.689498e-01f, 4.738564e-02f, -2.647403e-02f, -2.108990e-02f, 5.473492e-02f, -1.332893e-01f, -9.239963e-02f, 1.267379e-01f,
  1.775461e-01f, 9.072413e-02f, 5.342772e-02f, 8.379931e-02f, 9.984517e-02f, 3.503777e-02f, -7.159190e-02f, 4.995883e-02f,
  3.812817e-02f, 1.459083e-02f, -4.808737e-02f, 3.925969e-02f, 3.372094e-02f, -1.617297e-02f, -1.091089e-02f, 3.260887e-03f,
  -3.847374e-03f, -8.304621e-02f, 5.621446e-02f, 1.881495e-01f, 1.476899e-03f, -9.740445e-02f, 9.921838e-03f, -4.993159e-02f,
  -3.612616e-02f, -8.135618e-02f, 7.677381e-03f, 1.307333e-01f, -5.170332e-02f, 3.001175e-02f, 1.117809e-02f, -5.002526e-02f,
  3.673225e-02f, 1.100187e-01f, -1.147542e-01f, 1.253075e-02f, -2.853665e-01f, 7.017638e-02f, -4.661130e-02f, -1.441772e-02f,
  -5.904685e-02f, 2.826229e-02f, -5.351467e-02f, -4.777509e-02f, -1.869342e-02f, -3.216219e-02f, -2.131798e-02f, -5.082036e-02f,
  5.223819e-02f, -1.536675e-02f, 1.452273e-04f, -3.994783e-02f, 4.270824e-02f, -5.470792e-03f, 2.877443e-02f, 2.524537e-02f,
  -6.997664e-02f, 7.550703e-02f, -3.573690e-02f, -3.955989e-02f, 2.228584e-02f, -2.587253e-02f, 7.836219e-02f, 4.217751e-02f,
  -2.238229e-02f, -5.734652e-02f, 1.845003e-02f, 6.797294e-03f, -3.475229e-02f, 5.753234e-02f, -2.584375e-02f, -4.101799e-02f,
  1.264938e-01f, 1.479979e-01f, -6.637184e-02f, 2.215523e-02f, 6.721904e-02f, 3.049176e-03f, -1.188403e-02f, -1.402163e-02f,
  1.489224e-01f, -7.550364e-02f, 1.422583e-01f, -4.642117e-02f, -4.293357e-02f, 7.961916e-02f, -1.425157e-02f, 5.397948e-02f,
  -1.126022e-01f, 4.831981e-03f, 6.269161e-02f, 4.279337e-02f, 2.462399e-02f, 5.483783e-02f, 2.452326e-02f, 1.125832e-01f,
  -5.996601e-03f, -1.108577e-02f, 1.571690e-02f, 9.804313e-02f, 2.064984e-02f, 6.893992e-02f, 7.120577e-02f, -5.725011e-03f,
  1.431542e-03f, 6.429905e-02f, -3.562881e-02f, 8.017907e-02f, 3.735078e-02f, -5.307020e-02f, 1.236975e-01f, 8.779087e-02f,
  -6.392140e-02f, -1.358453e-02f, -5.878018e-02f, 4.831255e-02f, -1.668707e-02f, 1.190577e-01f, -2.109981e-01f, 7.862082e-02f,
  4.320749e-02f, 3.971179e-02f, -4.164977e-02f, 9.770649e-02f, -1.399910e-01f, 1.090577e-01f, 7.028535e-02f, -9.402813e-02f,
  -9.271218e-03f, 6.058554e-02f, -1.470824e-02f, 1.357477e-02f, 6.178109e-02f, -6.683787e-02f, -5.344504e-02f, 4.299361e-02f,
  2.253452e-02f, -6.606632e-02f, 5.214235e-02f, 8.380728e-02f, -5.823983e-02f, 6.291895e-02f, -3.115763e-02f, 2.860488e-02f,
  7.396198e-02f, -6.699978e-02f, 7.714152e-02f, 5.779083e-02f, -8.235309e-03f, -4.770521e-03f, -1.877326e-02f, 5.548865e-02f,
  5.510883e-02f, -2.711189e-02f, -6.656735e-02f, -3.465935e-02f, 5.330348e-02f, 4.100674e-02f, 4.965891e-02f, 8.238491e-02f,
  -8.896409e-02f, 5.243575e-02f, 1.544031e-01f, 4.766252e-02f, -9.906889e-02f, -6.096461e-03f, 4.860570e-02f, 1.026249e-02f,
  -4.025038e-02f, -1.310079e-01f, 4.602534e-02f, -3.777928e-02f, -1.778205e-01f, 5.862635e-02f, 8.764032e-02f, -8.384469e-03f,
  -1.858992e-02f, -1.927212e-02f, -4.757653e-02f, -1.019433e-02f, -1.311045e-02f, 5.644595e-02f, 8.441832e-02f, -7.317562e-02f,
  -7.968885e-02f, -7.111476e-02f, 5.034188e-02f, 1.930480e-02f, -3.015382e-02f, -8.613338e-02f, 1.541304e-01f, -5.575483e-02f,
  9.413399e-02f, -2.365320e-02f, 1.234202e-02f, -4.295624e-02f, -3.583852e-02f, -1.777613e-01f, -1.374887e-02f, -1.270891e-01f,
  8.502419e-02f, 3.264499e-02f, -1.957531e-01f, 4.100955e-02f, 3.583634e-02f, -3.915638e-02f, 8.449923e-03f, 2.253953e-01f,
  3.955314e-02f, -2.362669e-02f, 5.024171e-02f, -3.606682e-02f, 2.828860e-02f, 4.835854e-02f, -2.450267e-02f, 4.444502e-02f,
  4.280709e-02f, 2.820469e-02f, -3.896801e-02f, 9.240095e-02f, 3.243617e-02f, -3.236727e-02f, 5.212984e-03f, 2.198808e-02f,
  -9.895854e-02f, 3.458563e-03f, 1.082916e-02f, 7.724283e-02f, 9.427931e-04f, -1.737290e-01f, 4.580214e-02f, -3.165320e-02f,
  6.967121e-02f, 7.542259e-03f, 1.159108e-02f, 8.927151e-04f, 6.658554e-02f, 4.200280e-02f, -1.341259e-02f, 6.075346e-02f,
  5.273159e-02f, 5.463202e-02f, -2.367334e-02f, 4.441986e-02f, -4.340784e-02f, -3.348989e-02f, -5.190527e-02f, 3.202270e-02f,
  -2.774119e-02f, -4.845469e-02f, -5.607851e-02f, -5.205759e-02f, 5.654507e-02f, -2.335830e-02f, -1.560812e-02f, 3.461260e-02f,
  -7.275052e-02f, 3.936914e-02f, -8.082108e-03f, -2.014302e-01f, 4.188422e-02f, -1.383477e-01f, -3.239041e-02f, -1.194260e-02f,
  7.601766e-02f, -7.689724e-02f, -1.161517e-01f, 3.155236e-02f, 3.270741e-02f, -8.257833e-02f, -1.309924e-01f, 4.672057e-02f,
  1.331467e-02f, 1.087901e-01f, -2.740145e-02f, -1.309770e-02f, -2.159485e-02f, 1.548251e-02f, 4.168103e-02f, -2.308917e-02f,
  4.986058e-03f, 1.978887e-02f, 6.255290e-02f, 2.720888e-02f, -3.622025e-02f, -1.480981e-03f, 2.363482e-02f, -9.122862e-03f,
  2.200120e-01f, 1.115756e-01f, -1.809756e-02f, 7.855681e-02f, 5.172668e-03f, 5.541395e-02f, -1.525682e-01f, -5.867049e-02f,
  -1.922454e-02f, 1.844178e-02f, -1.497940e-01f, 3.373571e-02f, 1.247101e-02f, -1.571947e-01f, 4.252683e-02f, -1.446621e-02f,
  -7.060204e-02f, 5.518904e-02f, 2.431373e-02f, -4.895364e-02f, 4.462922e-02f, -4.340026e-02f, -6.770437e-02f, 2.238057e-02f,
  6.004785e-02f, -3.736770e-03f, -3.070895e-02f, 6.856648e-02f, 1.266563e-02f, -3.103909e-02f, -2.881569e-02f, -5.190449e-02f,
  -4.076688e-02f, -2.823786e-02f, 3.298917e-02f, -6.889915e-02f, 2.856420e-02f, 8.797295e-02f, -2.364653e-02f, -2.252764e-02f,
  3.053619e-02f, 9.535143e-04f, -1.254776e-01f, 1.266177e-01f, 1.573172e-01f, 1.328685e-01f, 1.249650e-01f, 6.482320e-02f,
  7.896394e-02f, -6.267488e-02f, -9.428222e-02f, -1.621454e-01f, 5.066678e-02f, 2.504628e-02f, -5.555974e-02f, -1.177161e-01f,
  -6.850970e-02f, 7.238072e-02f, -1.310155e-02f, 1.332016e-01f, 1.232534e-02f, 9.479244e-03f, 2.180154e-02f, -5.968703e-02f,
  1.576406e-01f, -8.357203e-02f, 4.081251e-02f, 7.647822e-02f, 5.840591e-02f, 1.423702e-02f, 1.667891e-02f, 8.930530e-02f,
  3.935876e-02f, 1.351340e-01f, 9.340120e-03f, 6.149634e-02f, 1.689862e-01f, 9.480134e-02f, -1.501515e-02f, 5.655627e-02f,
  -9.903187e-02f, 4.455197e-02f, 2.277336e-01f, -7.057272e-02f, -4.109225e-02f, 8.132708e-02f, -2.774706e-02f, -4.254618e-03f,
  -3.476260e-02f, 7.035091e-02f, -2.215680e-01f, -5.858876e-02f, -1.211074e-02f, -8.222800e-02f, -8.503953e-02f, 5.711119e-02f,
  4.235048e-02f, -1.164162e-02f, -3.388778e-02f, -7.769093e-03f, 5.201785e-02f, 6.528877e-02f, -1.527593e-02f, -1.710403e-02f,
  9.366506e-03f, 3.543880e-02f, 7.243508e-02f, 1.139644e-02f, -3.392223e-02f, -1.356413e-02f, 1.138377e-01f, -2.567598e-02f,
  5.553502e-02f, 6.344068e-03f, -2.579009e-02f, -6.927339e-02f, 6.903039e-03f, 4.818686e-02f, 4.787998e-02f, 5.796919e-02f,
  -1.904953e-02f, -4.211644e-02f, -6.376822e-02f, 3.619002e-02f, -1.785615e-02f, 5.669478e-02f, 1.437362e-02f, 2.094549e-01f,
  1.264164e-01f, 2.643424e-02f, 1.212135e-01f, -1.054954e-03f, -3.106336e-02f, 5.407300e-03f, -4.910444e-03f, 8.439241e-02f,
  1.288647e-01f, 5.520698e-02f, 4.741623e-02f, -2.245449e-02f, -1.006894e-02f, 1.157720e-01f, 1.223480e-01f, 9.963325e-02f,
  2.666683e-01f, 2.892543e-01f, 4.020044e-02f, 8.568099e-02f, -3.302468e-02f, -6.619687e-02f, -6.368077e-02f, -1.137313e-02f,
  1.498026e-02f, 6.876057e-03f, -6.111233e-02f, -2.135169e-02f, -1.452480e-02f, -4.113290e-02f, 2.069522e-02f, -2.597558e-02f,
  5.760838e-02f, 4.565171e-02f, -5.167024e-02f, 8.621830e-02f, 4.650744e-02f, -5.102108e-02f, -1.071613e-02f, -1.366212e-02f,
  -4.590592e-02f, -4.317953e-02f, 4.491680e-02f, 1.482430e-02f, -3.517013e-01f, -1.913184e-02f, 6.537592e-02f, -7.144309e-03f,
  -1.014916e-01f, -4.601001e-02f, 1.155026e-01f, -6.769848e-03f, 1.536157e-01f, 1.651352e-01f, -2.942444e-02f, 3.491951e-02f,
  2.912898e-02f, 3.940976e-03f, -2.007677e-02f, -5.284243e-03f, -6.526470e-02f, 1.113725e-01f, 8.992542e-02f, -7.128764e-03f,
  -6.312533e-03f, -1.178877e-01f, -4.812836e-02f, -5.043987e-02f, 8.139157e-03f, -3.161851e-02f, 3.493972e-02f, 1.884457e-01f,
  -6.269061e-02f, 2.320454e-02f, 4.437959e-02f, -7.303576e-02f, -3.211040e-06f, 9.828091e-04f, -9.068742e-02f, 9.835266e-02f,
  3.970463e-02f, 3.083842e-03f, -2.003471e-02f, 1.197900e-01f, -5.878560e-02f, -1.028467e-01f, -4.144998e-02f, -1.036055e-02f,
  1.182221e-02f, 1.998549e-01f, -1.425313e-02f, -3.072755e-02f, 7.851610e-02f, 2.014893e-02f, -9.219242e-02f, -3.662557e-02f,
  1.786912e-02f, -8.587412e-02f, -5.784576e-02f, 1.368226e-01f, 2.228775e-02f, -4.824235e-02f, 3.018125e-02f, 6.660359e-02f,
  9.489405e-03f, -2.431548e-02f, -3.978736e-02f, -6.519632e-02f, 3.928085e-02f, 1.697947e-02f, -1.354562e-02f, -4.965261e-02f,
  -1.056689e-02f, 6.616924e-02f, -2.862990e-02f, 5.874449e-02f, -6.769966e-02f, 6.978217e-02f, -4.270523e-02f, -3.834182e-02f,
  -2.662550e-02f, -5.759283e-02f, 6.097508e-02f, 2.138707e-02f, 3.704800e-02f, 4.165421e-02f, 2.580095e-02f, -4.870005e-02f,
  -1.442497e-01f, 2.005153e-02f, 2.525054e-02f, -4.418536e-02f, 3.408495e-02f, 1.320358e-01f, 4.346414e-01f, -1.268939e-04f,
  1.916714e-02f, 3.372925e-02f, -8.545577e-03f, 2.991859e-03f, 5.320011e-02f, 4.832847e-03f, 1.111218e-01f, 1.183578e-01f,
  6.066446e-02f, -6.150972e-02f, -2.822634e-02f, -7.522307e-02f, -6.523119e-03f, -6.437092e-03f, -9.208094e-03f, 1.014595e-01f,
  1.352604e-02f, 3.449488e-02f, 1.037809e-01f, -7.724736e-02f, -5.959210e-03f, 5.081078e-02f, 4.806271e-02f, 2.658176e-02f,
  8.800266e-02f, 2.134343e-01f, 6.881736e-02f, 4.004783e-02f, -1.695714e-02f, -4.608540e-02f, 3.633967e-02f, -1.418351e-02f,
  -5.083383e-02f, -4.545683e-02f, 2.956967e-02f, -1.555665e-02f, -2.636924e-02f, -2.407785e-02f, -2.008728e-02f, -4.168095e-02f,
  -1.330618e-03f, 2.010136e-02f, 1.481301e-01f, -3.560065e-02f, -4.454586e-02f, -1.693137e-02f, 3.251329e-02f, 7.366358e-02f,
  3.340711e-02f, 9.474782e-02f, 4.060038e-02f, 3.863740e-02f, -7.351302e-02f, 8.132420e-02f, 4.317508e-02f, -1.507162e-02f,
  -2.608025e-02f, -3.315046e-02f, 2.303600e-02f, 6.455138e-02f, 9.337240e-02f, -1.085194e-01f, -3.351665e-02f, 4.442084e-02f,
  -3.125658e-02f, 2.741882e-02f, 5.761304e-02f, -5.890307e-02f, -3.667381e-02f, 2.788014e-02f, -1.935554e-02f, -5.750368e-03f,
  4.631286e-02f, 3.781485e-02f, -4.650144e-02f, 6.697914e-02f, 5.312444e-02f, -2.222969e-02f, -7.734420e-02f, 3.755685e-01f,
  -2.195126e-02f, -9.383045e-03f, -2.757920e-02f, -3.495881e-02f, 3.278506e-02f, 5.798855e-02f, 5.722958e-03f, 7.982639e-02f,
  5.015889e-03f, 1.053596e-01f, -2.298160e-02f, 1.566242e-02f, -3.247690e-02f, 4.350021e-02f, 2.341151e-02f, 3.361095e-02f,
  3.019191e-02f, -8.183929e-02f, 8.661140e-02f, 6.383615e-04f, -2.801245e-02f, 2.004145e-03f, 1.484065e-02f, -6.976558e-02f,
  7.759964e-02f, -2.945925e-03f, -2.174693e-01f, 6.400356e-02f, -1.962527e-02f, -1.301634e-02f, 2.243592e-02f, -3.057276e-02f,
  7.081363e-02f, 4.582674e-02f, -1.130042e-02f, 3.867212e-03f, -5.218270e-02f, 2.458841e-02f, 2.434110e-02f, 3.066051e-02f,
  -7.174639e-02f, -1.152566e-02f, -5.533549e-02f, -6.885905e-04f, -7.110702e-03f, 7.521220e-02f, -2.353183e-02f, 1.018082e-02f,
  8.790220e-02f, 2.768308e-02f, -2.644907e-02f, -3.216951e-02f, 2.236214e-02f, 9.268559e-02f, -1.019616e-02f, -3.463196e-02f,
  -4.864575e-02f, 3.264460e-02f, 2.438309e-02f, -6.691593e-02f, -5.138971e-02f, -7.486906e-03f, -2.866090e-02f, 3.839744e-02f,
  -5.850931e-02f, 5.309248e-02f, -5.231368e-03f, -1.045924e-01f, -1.975024e-01f, 7.118687e-03f, -7.312071e-02f, -6.813268e-02f,
  1.097541e-01f, 4.555302e-02f, -1.790019e-02f, -1.663455e-02f, 2.390609e-02f, -5.069626e-02f, 6.245403e-02f, -9.244377e-03f,
  1.460966e-01f, 1.300301e-02f, 5.219518e-02f, 3.064266e-02f, -1.956648e-02f, 5.155995e-02f, -4.135803e-02f, -5.129419e-02f,
  4.983113e-02f, 4.483759e-02f, 1.227145e-03f, -6.066873e-02f, 3.307088e-02f, 6.866256e-02f, -5.044018e-03f, -2.827305e-02f,
  -3.240922e-02f, -6.020138e-02f, -1.342569e-02f, -2.052768e-02f, 2.402060e-02f, 5.617541e-02f, -1.249098e-02f, -8.912009e-03f,
  1.530442e-02f, 1.055413e-02f, -4.842193e-02f, -5.112315e-02f, 3.047557e-02f, 4.142503e-02f, -8.723320e-03f, 8.248514e-03f,
  4.198238e-03f, 1.876910e-02f, -2.359029e-02f, 6.253008e-03f, 1.062514e-01f, -1.927589e-03f, 5.656929e-02f, 4.801441e-02f,
  -4.769032e-02f, 1.696988e-02f, 7.212348e-02f, 6.510990e-02f, -6.208270e-03f, -5.178236e-02f, -1.505361e-02f, 3.097457e-02f,
  -1.511490e-01f, -7.066433e-02f, 3.304589e-03f, 1.115926e-02f, -2.728204e-02f, 3.711677e-02f, -5.591630e-02f, 6.080005e-02f,
  -6.829329e-03f, -1.306397e-01f, -5.988614e-02f, -7.088546e-02f, 5.628710e-02f, 9.421965e-02f, 1.172323e-01f, 1.897860e-01f,
  -1.052935e-01f, 1.990007e-02f, -3.635679e-02f, -4.820012e-02f, -1.388098e-01f, -1.056783e-02f, 2.232153e-02f, 7.800473e-02f,
  -3.767978e-02f, -5.562325e-03f, -3.577817e-02f, -1.738613e-01f, 1.765439e-02f, -9.223532e-03f, -6.703374e-02f, 1.921064e-02f,
  2.429675e-02f, -5.494108e-02f, 8.403178e-02f, -6.065024e-02f, -1.141882e-02f, -3.141487e-03f, -1.453288e-02f, -4.367911e-02f,
  8.402469e-02f, 3.056307e-02f, 3.026118e-02f, -2.134913e-03f, 2.893662e-02f, -8.521132e-02f, 5.846312e-02f, 1.714016e-02f,
  -6.384845e-02f, -4.696371e-02f, 2.398382e-02f, -4.624208e-02f, 6.805190e-02f, 7.130779e-02f, 5.333091e-02f, 7.648871e-03f,
  1.688852e-02f, 1.578091e-02f, 5.238844e-02f, -5.691836e-02f, 3.527937e-02f, -7.328872e-02f, 3.735205e-02f, 5.480193e-02f,
  -1.875194e-02f, -5.694462e-02f, 3.447668e-02f, -2.975604e-02f, 1.656347e-02f, 4.985686e-02f, 1.695333e-02f, 6.264088e-02f,
  -1.739265e-02f, -2.711087e-02f, 8.379243e-02f, 7.555678e-02f, 3.771400e-02f, 3.897696e-02f, -1.056398e-01f, 2.703852e-03f,
  4.444563e-02f, -7.034396e-02f, -3.888390e-02f, -7.112483e-03f, -1.509287e-02f, -1.022704e-02f, -1.481063e-02f, 1.772399e-01f,
  3.664570e-02f, -3.321420e-02f, -4.701765e-02f, 1.971824e-02f, 7.422522e-03f, -3.406305e-02f, 9.552327e-03f, 3.837962e-02f,
  6.692227e-02f, 5.338637e-02f, -4.434289e-02f, -4.716102e-02f, 1.215042e-03f, 9.598280e-03f, 6.912205e-02f, 5.494519e-02f,
  3.882573e-02f, 2.449026e-02f, -3.945122e-02f, -4.194780e-02f, -6.866001e-02f, 2.151190e-02f, 1.595809e-01f, 1.780879e-01f,
  1.190786e-03f, -1.092915e-01f, -2.378352e-01f, -1.571194e-01f, 4.402080e-02f, -1.755709e-01f, 1.494643e-02f, -1.008434e-02f,
  4.719434e-02f, 8.433591e-02f, 7.589941e-02f, -5.253819e-02f, 8.841833e-03f, -5.596690e-02f, -5.692556e-03f, 3.861250e-03f,
  -3.175417e-02f, 3.053024e-02f, 2.092646e-03f, 2.548637e-02f, -3.213868e-02f, 1.972179e-02f, -4.848304e-02f, -4.819030e-02f,
  5.980023e-02f, -3.181744e-02f, -3.671436e-03f, -3.398854e-02f, 8.988295e-02f, 7.095401e-02f, -6.180919e-02f, 4.639240e-02f,
  7.474818e-03f, 5.759669e-02f, -2.692268e-02f, -4.172231e-02f, 6.556776e-03f, -2.582971e-02f, 3.398868e-01f, 9.128541e-02f,
  -2.123731e-02f, 3.673060e-02f, -1.055972e-02f, 6.087400e-02f, -1.429521e-02f, -3.961141e-02f, 6.932773e-02f, -1.629930e-02f,
  1.432046e-03f, 5.845998e-02f, -6.095924e-02f, 7.025228e-02f, -7.182443e-02f, 7.715326e-03f, 2.281494e-02f, 5.458923e-02f,
  -3.402652e-02f, 5.225923e-02f, -6.970262e-02f, -7.768705e-02f, 4.628047e-02f, -3.431403e-02f, -5.468051e-02f, 5.673699e-02f,
  3.835534e-02f, -2.856127e-02f, 7.085338e-02f, -2.470890e-02f, 7.271148e-02f, 1.546151e-02f, 6.190209e-02f, 7.014545e-02f,
  -6.877837e-02f, -9.411356e-02f, 2.659961e-01f, 1.511418e-03f, 5.160935e-02f, 8.303565e-02f, 1.228815e-01f, 1.138094e-01f,
  -8.051872e-02f, 1.047605e-01f, 1.322010e-01f, -2.306755e-01f, 5.662708e-02f, -1.535726e-01f, -1.555910e-01f, -1.898452e-02f,
  4.742877e-02f, 5.934994e-02f, -3.629134e-02f, 3.392439e-03f, 2.263346e-02f, 5.349268e-02f, -3.606569e-02f, -2.972872e-02f,
  -1.771813e-02f, -2.816692e-02f, 7.558101e-03f, -5.686597e-02f, -7.261711e-02f, -6.513102e-02f, -4.891887e-02f, -7.510878e-03f,
  4.814485e-02f, -3.006150e-02f, -8.306589e-03f, 6.681320e-03f, -6.712624e-02f, -7.832084e-02f, -2.598628e-02f, -6.164208e-02f,
  -7.306901e-02f, -2.150730e-02f, -4.037633e-03f, 8.307115e-03f, -7.687314e-02f, -7.630619e-02f, -8.897522e-03f, -1.901475e-04f,
  -4.881890e-02f, 3.172272e-02f, -1.175604e-02f, 3.077302e-02f, 1.823375e-02f, -2.993503e-02f, -1.771487e-02f, 4.445621e-02f,
  -7.734901e-02f, 4.835811e-02f, -3.712300e-02f, -2.783158e-02f, -4.957727e-02f, 2.591860e-02f, 1.414649e-02f, 6.284238e-02f,
  -1.600601e-02f, 1.533330e-02f, -5.569024e-02f, 4.987239e-02f, 6.629931e-02f, -4.941163e-02f, 1.243968e-02f, -2.299315e-02f,
  5.868714e-02f, 7.015165e-02f, -5.786249e-02f, 6.259479e-02f, -5.206659e-02f, 6.067369e-02f, -3.427299e-02f, 2.897669e-02f,
  -7.225565e-02f, 2.565857e-02f, 3.272356e-03f, 4.575370e-02f, 1.812277e-02f, 1.064704e-02f, -7.446554e-02f, -7.701614e-02f,
  8.690493e-04f, -9.516269e-04f, 5.436630e-02f, -9.705949e-03f, 5.537659e-02f, -6.482455e-03f, -2.422287e-02f, -1.975385e-02f,
  1.776324e-02f, -4.231397e-02f, 5.081849e-02f, -7.710871e-02f, -2.257871e-02f, 1.347575e-02f, 2.888094e-02f, -5.089914e-02f,
  -5.184600e-02f, 6.666025e-02f, -3.512597e-02f, 1.672369e-02f, 9.724814e-03f, -4.149158e-02f, 4.641452e-02f, -2.620839e-02f,
  -2.831974e-02f, -3.780461e-02f, 3.785465e-02f, -1.685327e-02f, 1.097369e-02f, -2.902413e-02f, -3.966297e-02f, 3.555967e-02f,
  -4.490508e-02f, 5.735186e-02f, 6.050067e-02f, -6.243499e-02f, 5.057275e-02f, -4.617715e-02f, -2.944149e-02f, 4.726722e-02f,
  -4.845641e-02f, 5.402479e-02f, -6.629913e-02f, 4.785862e-02f, -4.489819e-02f, 2.035128e-02f, -4.981106e-02f, -2.758407e-02f,
  -4.115438e-02f, -2.728481e-02f, -6.712005e-02f, -1.318860e-02f, -7.288604e-02f, -5.613748e-02f, 3.036929e-02f, -3.000762e-02f,
  -5.275238e-02f, 4.527643e-02f, -4.164389e-02f, 6.578381e-03f, -6.122097e-02f, -7.716891e-02f, -3.867649e-02f, -5.876636e-02f,
  2.994959e-02f, 3.606109e-03f, -5.917559e-02f, -1.613969e-02f, -3.731307e-02f, -4.280353e-02f, 9.862737e-03f, 6.707062e-02f,
  -7.060985e-03f, 3.058641e-02f, 2.095928e-02f, -8.157035e-03f, -6.494395e-02f, -1.411604e-02f, -3.984059e-02f, -2.864400e-03f,
  -6.165082e-03f, 4.249315e-02f, 5.970161e-02f, 1.188715e-02f, 5.532041e-02f, -1.907623e-02f, 1.866526e-04f, -3.642685e-02f,
  -2.459252e-02f, -6.665618e-03f, 5.517894e-02f, 3.774298e-02f, -4.607505e-02f, 5.416030e-02f, 2.572020e-02f, 1.026938e-02f,
  -6.550636e-03f, -4.314237e-02f, -7.269465e-02f, -7.390086e-02f, -7.182642e-02f, -7.110736e-03f, 3.272328e-02f, -6.313802e-02f,
  7.032831e-03f, -2.944590e-02f, 6.168653e-02f, 2.907899e-02f, 8.212425e-03f, -1.648419e-02f, -7.040447e-02f, -3.793964e-02f,
  -1.188597e-04f, 5.937971e-02f, 2.763074e-02f, 5.368176e-02f, 2.427419e-02f, -1.810317e-02f, -6.558449e-02f, 4.170875e-02f,
  -4.508302e-02f, -3.624446e-04f, -9.884694e-03f, 3.548737e-02f, 4.099648e-02f, -4.761745e-02f, 6.356509e-02f, -1.204508e-02f,
  1.270038e-02f, 2.191597e-02f, -5.583683e-02f, 5.150181e-03f, 8.915102e-03f, -4.125668e-03f, 4.892313e-02f, -9.853845e-03f,
  6.056239e-02f, 3.793882e-02f, 3.768432e-02f, 2.008517e-02f, 1.368510e-02f, 3.691649e-02f, 9.647658e-03f, -8.646436e-03f,
  -5.690201e-02f, -3.615870e-02f, 3.994615e-02f, -1.957099e-02f, 5.175870e-02f, -2.764037e-02f, 4.062105e-02f, -7.752877e-02f,
  -3.214500e-02f, -2.449840e-02f, 4.323034e-02f, -7.908540e-03f, -2.452763e-02f, -7.576171e-02f, 3.790521e-03f, -4.317420e-02f,
  6.011043e-03f, -1.398743e-02f, 4.341431e-02f, -1.214023e-02f, 5.481332e-02f, -2.546040e-02f, 7.297463e-03f, -3.963510e-02f,
  -6.074996e-02f, 6.273190e-03f, 3.768649e-04f, -5.128556e-02f, -1.784139e-02f, -4.663825e-02f, 2.067687e-02f, 4.525410e-02f,
  -6.738804e-02f, -6.770452e-04f, 4.098425e-02f, 8.178012e-03f, -7.479020e-02f, -5.131079e-02f, -3.125787e-02f, 4.087340e-02f,
  5.001770e-02f, -1.570657e-02f, -2.334909e-02f, -3.718072e-02f, 1.339910e-02f, -2.335513e-02f, -7.614327e-02f, -2.390736e-02f,
  2.498341e-02f, -6.657341e-03f, 2.160753e-03f, 4.531143e-02f, -3.290819e-02f, -6.516424e-03f, -1.233702e-02f, -8.031189e-02f,
  -4.588329e-02f, -3.482836e-02f, -2.819281e-02f, -2.077864e-02f, -1.182721e-03f, 2.961137e-02f, 3.898540e-02f, -8.477181e-03f,
  1.225504e-02f, -3.897637e-02f, -5.217452e-02f, 5.339128e-03f, -4.370780e-02f, -7.044338e-02f, 3.428306e-02f, -3.416603e-02f,
  4.757158e-02f, -4.880194e-02f, 3.578943e-02f, -7.897221e-02f, -6.140347e-02f, 4.882597e-02f, 5.317226e-02f, -1.272667e-03f,
  -2.332458e-02f, 2.013371e-02f, -1.256295e-02f, -4.288941e-02f, 5.414275e-02f, -2.370860e-02f, -6.734482e-03f, -1.484502e-03f,
  -3.621354e-02f, -3.452392e-02f, -2.161981e-02f, -3.238055e-02f, -6.002713e-02f, -1.823505e-03f, -4.011272e-02f, -1.575301e-02f,
  -4.107911e-02f, 3.210987e-02f, 6.800477e-02f, 2.537503e-02f, 4.536515e-02f, -1.517151e-02f, -3.188261e-02f, 3.562173e-02f,
  -6.023635e-02f, 2.078443e-02f, 2.549221e-02f, 1.033697e-02f, -4.556618e-02f, 6.173510e-02f, -3.140469e-02f, -5.399877e-02f,
  -2.063681e-02f, 4.712468e-02f, -1.293572e-03f, -5.928188e-02f, -3.618271e-02f, 4.171143e-02f, -4.005795e-02f, 2.357912e-02f,
  3.068586e-02f, 3.833785e-02f, -4.984716e-02f, -6.097208e-02f, -8.423701e-02f, -4.206985e-02f, -5.624127e-02f, -6.419531e-02f,
  -5.952752e-02f, 4.802888e-02f, 3.838412e-02f, -1.427623e-02f, -4.768895e-02f, -3.632082e-02f, 5.249245e-02f, 5.384612e-02f,
  -7.014903e-02f, 3.819242e-03f, -3.645216e-03f, -2.995746e-02f, -3.120534e-02f, 3.270913e-02f, 2.907839e-02f, -2.919246e-02f,
  3.941881e-02f, -2.184341e-02f, 1.339645e-02f, 2.631675e-02f, 1.303640e-02f, -7.109381e-02f, -6.726053e-02f, 3.878931e-02f,
  -1.922554e-02f, 2.297497e-02f, 1.384425e-03f, -1.325081e-02f, -8.705398e-02f, -7.305510e-02f, 4.621852e-02f, -5.432168e-02f,
  -6.418657e-03f, 5.031017e-02f, 3.096372e-02f, -5.711666e-03f, 5.854598e-02f, 1.547779e-02f, -4.168034e-02f, 3.796784e-03f,
  6.411559e-02f, 6.225182e-02f, -3.983757e-02f, 1.895856e-03f, -4.165652e-02f, 2.754179e-02f, -3.420276e-02f, -2.034724e-02f,
  -5.064018e-02f, 6.478021e-02f, -2.523240e-02f, -3.238597e-02f, 3.593880e-02f, 4.951644e-02f, -1.914262e-02f, -3.754357e-02f,
  5.758658e-02f, 4.782061e-02f, 4.199164e-02f, -2.594128e-03f, 6.029526e-02f, -6.787523e-02f, -4.553895e-02f, -2.335053e-02f,
  2.459634e-02f, -7.075617e-02f, -5.222268e-02f, -3.584934e-02f, -4.229866e-02f, -7.360479e-02f, 1.259003e-02f, -1.502990e-02f,
  1.296235e-02f, -1.768075e-03f, 1.893653e-02f, 1.758469e-02f, 2.287479e-03f, -2.957697e-02f, 4.430843e-02f, 1.665531e-02f,
  -5.940814e-02f, 5.733148e-02f, 1.894380e-02f, 1.976072e-02f, 3.760969e-02f, -5.340731e-03f, 1.584256e-02f, -3.803274e-02f,
  5.149750e-02f, 6.136170e-02f, 3.233148e-02f, 3.996787e-02f, -5.578124e-02f, 1.292034e-02f, 3.848203e-02f, 3.708142e-02f,
  5.638002e-02f, 3.170586e-02f, -5.502378e-02f, -3.625004e-02f, 6.994674e-02f, 3.596589e-03f, -3.193724e-02f, 4.304278e-02f,
  1.531815e-02f, 5.040549e-02f, 2.874320e-02f, -1.096104e-02f, -7.077183e-02f, 2.958012e-02f, -2.429853e-02f, 5.889974e-02f,
  -3.936070e-02f, -2.762988e-02f, 8.125012e-04f, 2.725830e-02f, -5.065091e-02f, -3.202686e-02f, 8.284627e-03f, 3.042006e-02f,
  5.798417e-02f, 4.403424e-02f, 1.061007e-02f, -1.565528e-03f, 4.523010e-02f, -4.864542e-02f, 6.732468e-02f, -5.928111e-02f,
  -3.637446e-02f, -3.492946e-02f, 4.950376e-02f, 7.202002e-02f, -4.877325e-02f, 5.758248e-02f, -8.216513e-02f, 5.218899e-02f,
  7.250816e-03f, 3.893219e-02f, -6.167100e-03f, -8.015745e-02f, -3.220315e-03f, 5.005885e-02f, -7.665452e-02f, 6.385786e-02f,
  4.090159e-02f, 5.486957e-03f, -5.198802e-02f, 3.963508e-03f, 2.116342e-02f, -4.946596e-02f, 4.329709e-02f, 1.936837e-02f,
  -5.359724e-02f, -5.901391e-02f, -2.064823e-02f, 2.209116e-03f, -4.057395e-03f, 1.546511e-02f, 3.966254e-02f, 4.566380e-02f,
  -3.850808e-02f, -3.781382e-02f, 6.848591e-03f, -2.297982e-02f, -4.480891e-02f, 3.269767e-02f, -5.002239e-02f, -1.154899e-02f,
  -3.615898e-02f, -7.830863e-03f, -3.849693e-02f, -2.254350e-02f, -1.316408e-02f, 1.557249e-02f, -5.015311e-02f, 3.509293e-03f,
  -3.199916e-02f, 2.134410e-02f, -7.264980e-04f, -2.317271e-02f, 5.325530e-02f, -4.661037e-02f, -7.230197e-02f, -4.000659e-02f,
  -5.770309e-02f, -6.617170e-02f, 2.545816e-02f, 5.531214e-02f, 3.510407e-02f, 6.265604e-02f, -2.305336e-02f, -7.341999e-02f,
  2.149078e-03f, 3.340328e-03f, -4.715670e-02f, -1.447556e-02f, 2.207271e-02f, -1.921205e-03f, 6.691870e-02f, 1.927698e-02f,
  -3.119605e-02f, -6.248892e-02f, 3.097773e-03f, -6.553831e-02f, 5.489301e-04f, 2.623134e-02f, -6.829136e-02f, -3.288879e-02f,
  -6.402947e-02f, -3.852934e-02f, 3.137824e-02f, -5.313222e-02f, 4.056465e-02f, 6.184797e-02f, -1.922251e-02f, -6.158636e-03f,
  1.716623e-02f, -7.136063e-02f, 4.359424e-02f, -1.007534e-03f, -5.459946e-02f, -3.397426e-02f, 2.881399e-02f, 5.395822e-03f,
  1.778835e-02f, 2.186300e-02f, 4.234548e-02f, 2.721396e-03f, -7.024785e-03f, -6.116473e-02f, -7.027015e-02f, 3.570237e-02f,
  6.363954e-02f, -1.342065e-02f, 1.885339e-02f, 6.723249e-02f, -4.681256e-02f, -4.156553e-02f, -6.239194e-02f, 6.971916e-02f,
  5.385062e-02f, -7.063053e-03f, -4.181200e-02f, 5.057144e-03f, 6.781408e-02f, 4.388716e-02f, -7.379214e-02f, -6.984965e-02f,
  4.478758e-02f, 1.150689e-02f, -3.292423e-02f, 1.187057e-01f, -2.000104e-01f, -3.252093e-02f, -1.466835e-02f, 6.921514e-02f,
  1.048305e-01f, -2.693602e-03f, -4.019497e-02f, -1.665105e-02f, -2.683630e-02f, 3.066778e-02f, -1.892750e-02f, 8.717819e-02f,
  -7.373893e-02f, -8.000360e-02f, 9.545317e-02f, 1.184084e-01f, -4.271096e-02f, 4.293938e-02f, 5.771711e-02f, -5.664523e-02f,
  -8.228125e-02f, 1.234629e-01f, -2.341925e-02f, 2.134591e-03f, -1.138458e-01f, 2.218446e-01f, 7.151307e-02f, 1.139801e-01f,
  1.895871e-01f, 3.040871e-01f, -2.065691e-02f, 2.209790e-01f, 2.089217e-01f, -1.506658e-01f, -3.158388e-02f, -1.421463e-02f,
  5.444613e-03f, -3.112760e-02f, -3.116146e-02f, -2.674493e-02f, 4.922309e-02f, -4.281933e-02f, 4.616753e-02f, -4.192183e-03f,
  -3.997781e-03f, -4.767285e-02f, -8.269900e-02f, -4.705544e-02f, -1.385341e-01f, 3.943064e-02f, 5.962776e-02f, 5.805919e-02f,
  -7.352671e-02f, -8.821682e-02f, -8.705869e-02f, -6.833757e-02f, 4.879844e-02f, -4.349515e-02f, -3.056328e-02f, 4.454503e-02f,
  -2.996901e-02f, 3.544379e-02f, 4.385036e-02f, -4.685714e-03f, -3.176523e-04f, -4.512974e-02f, 1.467577e-02f, 3.355490e-02f,
  -6.970714e-02f, -4.932568e-02f, 7.617593e-02f, -4.227061e-03f, -2.243666e-02f, -6.228304e-03f, 5.974258e-02f, -7.502884e-02f,
  -3.637868e-02f, 4.772511e-02f, 2.124524e-02f, -2.827055e-02f, 5.921268e-02f, -8.826556e-02f, -6.246048e-02f, -9.076941e-02f,
  -1.001630e-02f, -6.946397e-02f, -1.565333e-02f, -5.122341e-02f, 1.666193e-02f, -1.209243e-02f, -7.184344e-03f, 3.234078e-04f,
  -3.231841e-02f, -9.528148e-02f, 8.760317e-02f, -1.519521e-02f, -1.049546e-01f, 9.227428e-02f, 1.467457e-01f, -1.072597e-02f,
  8.270527e-02f, -9.609674e-02f, -4.140570e-02f, 9.773482e-02f, 3.433153e-02f, -4.229535e-02f, 5.260789e-02f, 9.457019e-03f,
  1.339679e-02f, -1.555750e-02f, 3.088577e-02f, 2.928505e-02f, 2.656054e-02f, 4.329110e-02f, 4.637741e-02f, -3.883825e-02f,
  5.605593e-02f, -6.326105e-02f, -6.876758e-02f, 4.490541e-02f, 3.506102e-02f, 4.363885e-02f, -3.141017e-02f, -3.270857e-02f,
  3.883380e-02f, -6.453765e-02f, -6.863792e-02f, -6.508216e-02f, -6.510911e-02f, 2.421868e-02f, 3.104206e-02f, -5.649568e-02f,
  3.850093e-02f, 5.663575e-02f, 2.958150e-03f, -6.565934e-02f, 1.895001e-02f, -3.621829e-02f, -4.720161e-02f, 3.774874e-02f,
  -9.513406e-02f, -2.913119e-02f, 9.777814e-03f, 9.446637e-02f, 6.449418e-02f, -6.605313e-02f, 5.310216e-02f, 1.246959e-01f,
  1.169106e-01f, -4.813503e-02f, -1.462902e-01f, 1.006887e-01f, 3.521218e-02f, -5.585346e-02f, 1.194361e-01f, 1.496013e-01f,
  1.375322e-01f, 3.583627e-02f, -1.706856e-02f, -7.011505e-02f, 3.417147e-02f, -5.588786e-02f, -4.966135e-02f, -6.727401e-02f,
  5.506833e-02f, 3.299704e-02f, -6.226102e-02f, -1.274574e-01f, -8.693056e-02f, -2.499472e-02f, 2.162290e-02f, -2.361760e-02f,
  2.998811e-02f, 1.967891e-01f, -7.171781e-02f, 2.609422e-02f, 4.227812e-02f, 1.167423e-01f, 7.786922e-03f, 3.917060e-02f,
  3.557143e-02f, 2.368690e-02f, 1.090042e-02f, 1.549634e-02f, -1.271882e-02f, 3.558870e-02f, -1.621938e-02f, -6.779553e-02f,
  -6.558362e-02f, -1.410093e-02f, 6.783117e-02f, -6.783754e-02f, 2.528172e-02f, 2.249919e-02f, -7.611588e-02f, -1.415705e-01f,
  7.187647e-03f, -1.312160e-01f, 2.637084e-02f, -1.595181e-02f, -2.062665e-01f, -6.332044e-02f, 6.120762e-02f, 5.090082e-02f,
  -5.446528e-02f, 1.372356e-02f, -3.216604e-02f, -3.036892e-02f, -4.117881e-02f, 3.806357e-02f, -8.325045e-03f, -8.860284e-03f,
  1.500176e-02f, 2.206852e-02f, 9.427067e-03f, 2.205252e-03f, -5.816760e-02f, -7.048061e-02f, 4.560114e-02f, -6.081852e-02f,
  -6.790119e-02f, -1.224054e-02f, -2.544892e-02f, 1.030631e-01f, 3.619222e-02f, -5.967089e-02f, 3.496693e-02f, 2.071906e-02f,
  -1.318668e-01f, 1.039123e-01f, -4.716130e-03f, 4.033997e-02f, 9.915601e-03f, -6.241231e-02f, -4.050963e-02f, -6.641872e-02f,
  -5.787465e-02f, 4.420210e-02f, 9.121098e-03f, 4.986496e-02f, -6.856946e-02f, -1.096125e-01f, -3.971947e-02f, -6.677638e-02f,
  8.739544e-02f, -4.162680e-02f, -4.070593e-02f, 1.696624e-02f, 1.410026e-01f, 7.021829e-02f, 4.753729e-02f, -9.171189e-02f,
  2.185767e-02f, 5.225613e-02f, 6.708954e-02f, -9.304495e-02f, 1.455947e-01f, 1.125576e-01f, 9.707368e-03f, 9.567336e-02f,
  6.219599e-02f, 7.091751e-02f, -2.975048e-02f, 4.389636e-02f, -1.420485e-02f, -8.110500e-03f, -7.774177e-02f, 3.683707e-02f,
  -5.224180e-03f, -7.824920e-02f, 3.033363e-03f, -3.420992e-02f, -1.321030e-01f, -8.581514e-03f, -8.942589e-03f, 5.861189e-02f,
  -1.025643e-01f, -8.365443e-02f, 3.049445e-02f, 1.249709e-02f, -2.281945e-02f, 5.134061e-02f, -4.197041e-02f, -5.988738e-02f,
  5.212818e-02f, -2.533547e-02f, -7.040261e-02f, -5.133392e-02f, 5.663919e-02f, 4.990207e-02f, -1.135209e-02f, -3.414644e-02f,
  -4.933364e-02f, -5.310826e-02f, 4.918914e-02f, 8.742961e-02f, 1.620427e-01f, -1.198857e-01f, 1.239148e-02f, 1.364479e-01f,
  -1.353611e-02f, 4.283690e-02f, 1.117702e-01f, 2.696907e-02f, -1.000186e-01f, 8.650741e-02f, -2.934213e-02f, 5.835767e-02f,
  6.469331e-02f, 8.150572e-02f, 7.081397e-02f, 5.282995e-02f, 6.840911e-02f, 7.908200e-04f, -5.778606e-02f, 1.740562e-02f,
  1.652057e-02f, -9.491667e-02f, -6.761930e-02f, -4.767018e-02f, -2.269275e-02f, -3.712303e-02f, 1.045662e-03f, -5.270236e-02f,
  -5.187203e-02f, 4.007836e-02f, -2.798322e-02f, 5.982364e-03f, -3.867947e-02f, -4.950342e-02f, -4.601822e-02f, -4.869564e-03f,
  -4.997249e-02f, -4.531395e-02f, 2.609464e-02f, 5.176054e-02f, -4.176229e-04f, -2.819474e-02f, 7.960839e-03f, 4.781713e-02f,
  -8.684308e-02f, -5.630780e-02f, -2.199195e-02f, -5.371870e-02f, -2.285288e-02f, 4.528676e-02f, -2.900489e-02f, 1.216710e-01f,
  -1.276951e-02f, -7.275692e-04f, -8.824370e-02f, 5.933581e-03f, 2.146563e-02f, 7.211237e-02f, 4.004120e-03f, 2.249450e-02f,
  3.544035e-02f, -4.355787e-02f, -6.568895e-02f, -5.277137e-03f, 8.099155e-02f, -1.494354e-01f, 1.366480e-01f, -1.297745e-03f,
  1.677944e-02f, -3.947757e-02f, 3.931452e-02f, 1.336066e-02f, 1.064205e-01f, -3.186152e-02f, -1.617029e-02f, 1.602478e-01f,
  -3.090449e-02f, 1.050376e-01f, -5.659726e-02f, -3.706412e-05f, -1.471508e-02f, 8.279905e-02f, -2.985174e-02f, -1.866153e-01f,
  5.700186e-02f, 4.889074e-02f, -6.451144e-02f, -3.886876e-02f, 5.988915e-02f, 5.560863e-03f, -6.415694e-03f, -8.572463e-02f,
  -1.083165e-02f, 2.989756e-02f, 1.218133e-02f, -1.830654e-02f, 2.152916e-02f, 4.438182e-03f, -2.754312e-02f, -3.162538e-02f,
  -1.412509e-02f, -2.204375e-02f, -1.070613e-01f, -3.877747e-02f, -2.668798e-02f, 4.066895e-02f, -1.055923e-01f, -6.803438e-02f,
  -3.883752e-02f, 6.151357e-03f, 2.043893e-02f, -3.531064e-02f, -1.700797e-02f, -3.123348e-02f, -2.648454e-02f, -6.397220e-02f,
  1.323176e-02f, -1.488483e-02f, 3.238906e-02f, -4.497176e-02f, -6.013680e-02f, 5.825541e-03f, -4.461164e-03f, 4.077417e-02f,
  7.151076e-02f, -5.579986e-02f, 3.300066e-02f, 6.923721e-02f, -6.000677e-02f, -1.866499e-02f, 1.492718e-03f, 1.486032e-02f,
  -3.211026e-02f, 6.009717e-02f, 3.202063e-02f, 9.617487e-02f, 9.694466e-04f, -7.950120e-02f, -3.224105e-02f, -7.844954e-02f,
  2.723214e-02f, 4.093647e-02f, -2.362588e-01f, 6.035572e-02f, 7.416172e-02f, 3.436636e-03f, -1.285774e-01f, 7.536008e-02f,
  7.221602e-02f, 3.430160e-02f, -1.048668e-01f, -9.514803e-02f, 3.054801e-02f, -7.163201e-02f, -1.079581e-02f, 1.824452e-03f,
  5.155792e-02f, 5.283556e-03f, 2.137593e-02f, -7.239646e-03f, 1.428186e-02f, 6.124523e-02f, 7.638485e-02f, -7.925608e-02f,
  5.793336e-03f, -4.636673e-02f, -1.578509e-02f, 3.826863e-02f, -1.241395e-01f, 5.055513e-02f, -8.300129e-02f, -1.476999e-01f,
  -1.129429e-01f, 1.028069e-01f, -2.827366e-02f, -1.836250e-02f, 1.564662e-02f, -2.947775e-02f, 1.323141e-01f, -6.456474e-02f,
  -1.893837e-02f, -6.806992e-03f, -5.799139e-02f, 7.115049e-02f, -8.027944e-03f, -7.099736e-02f, 3.770503e-02f, 7.499802e-02f,
  2.456001e-02f, 3.979451e-02f, -6.281887e-02f, 3.089736e-02f, -5.190535e-02f, -5.311585e-02f, -4.155016e-02f, 5.294854e-02f,
  -5.128780e-02f, -3.073155e-02f, -6.688640e-02f, -1.773836e-01f, -1.318474e-01f, -7.560354e-02f, -8.542944e-02f, -2.253509e-03f,
  -2.875414e-02f, -2.257392e-02f, -1.015432e-01f, 1.503355e-01f, 2.534586e-02f, -1.298817e-01f, 4.956901e-02f, -7.087420e-02f,
  4.743660e-02f, -9.055771e-02f, 1.265334e-01f, 1.497134e-01f, -1.663188e-02f, -9.017298e-02f, 2.191306e-01f, 8.104104e-02f,
  6.323795e-02f, -7.553046e-02f, 3.675864e-02f, 5.434304e-03f, -2.023205e-02f, 2.896047e-02f, -9.005443e-02f, -3.495027e-02f,
  4.219983e-02f, 1.354469e-02f, 6.519585e-02f, 1.662087e-03f, 3.537588e-03f, -4.548301e-02f, -1.405439e-01f, 1.069219e-01f,
  -4.364326e-02f, 8.994657e-02f, -1.428181e-02f, -1.328187e-02f, -3.954022e-02f, -3.739713e-02f, 2.520233e-04f, -3.510942e-02f,
  -2.991571e-02f, -3.442799e-02f, 3.061704e-02f, -5.362919e-02f, 3.196038e-02f, -2.058253e-02f, 5.680785e-02f, -3.228674e-03f,
  2.595863e-02f, 4.965601e-03f, -3.611876e-02f, 1.335274e-01f, 6.657752e-02f, -6.299680e-02f, 6.069820e-03f, 1.675716e-01f,
  5.703543e-02f, 4.395189e-02f, 3.136673e-02f, -3.447812e-02f, -4.268432e-02f, 6.789584e-02f, -4.855941e-02f, 2.169172e-02f,
  2.021112e-02f, -1.745587e-01f, -1.181731e-01f, -8.041569e-02f, -1.116837e-01f, 9.374788e-02f, 8.676839e-02f, -1.964270e-02f,
  2.556124e-03f, 8.694314e-02f, -9.399905e-02f, -1.918503e-02f, -1.728684e-01f, 1.618712e-01f, 4.937094e-02f, 1.377881e-01f,
  1.817313e-02f, -6.304424e-02f, 1.285207e-01f, -3.478294e-01f, -1.581626e-01f, -2.392501e-01f, 2.145618e-01f, 1.824228e-01f,
  2.818678e-01f, -1.832645e-01f, -1.156973e-01f, 9.776707e-03f, -1.037111e-01f, -1.405730e-01f, 1.889722e-03f, -5.418186e-02f,
  7.757367e-02f, -9.474730e-02f, 8.536480e-02f, 1.175690e-01f, 1.061554e-01f, 5.951303e-02f, 1.229564e-02f, 1.363054e-01f,
  -4.641683e-02f, 1.402200e-01f, 1.476192e-01f, -3.232194e-02f, -1.782208e-01f, -3.036543e-01f, 2.958160e-02f, 1.795067e-02f,
  8.715757e-03f, 7.139942e-02f, 2.340802e-03f, 3.807843e-02f, 2.991483e-02f, 2.398903e-02f, -5.214150e-02f, -3.890321e-02f,
  -1.182204e-01f, -9.920839e-02f, -1.855382e-02f, -3.488720e-01f, -1.766404e-01f, 4.393645e-02f, -3.137160e-03f, 3.203318e-03f,
  -5.755327e-02f, -2.206694e-01f, -1.253057e-01f, -8.624460e-02f, -2.150685e-01f, 7.352091e-03f, -3.382142e-02f, -2.273672e-02f,
  8.542623e-02f, -1.762705e-01f, -4.392957e-03f, -6.519830e-03f, -1.241447e-02f, 1.154842e-01f, 2.622330e-02f, -8.473883e-02f,
  2.606366e-02f, 5.527027e-02f, -1.362489e-01f, -9.884806e-02f, 1.687006e-02f, 1.713004e-01f, 3.926442e-02f, 2.023091e-03f,
  4.667931e-02f, 1.012404e-02f, 1.995277e-02f, -1.035606e-01f, -2.335850e-01f, -1.725626e-01f, -1.433906e-01f, -8.512614e-02f,
  -9.262507e-02f, 1.336890e-03f, -4.257022e-02f, -5.045548e-02f, -3.697301e-02f, -8.698885e-02f, -2.467409e-03f, -6.074344e-02f,
  1.906318e-01f, 1.307867e-01f, 1.483343e-03f, -1.555431e-02f, -5.613177e-02f, -9.201618e-02f, -3.205283e-02f, -1.255991e-01f,
  -2.579652e-01f, -1.781860e-01f, 1.343632e-01f, 5.653419e-02f, 1.007049e-01f, 6.148470e-02f, -7.786307e-02f, -2.018485e-01f,
  -1.568103e-01f, -2.806512e-01f, -2.040051e-01f, -2.749751e-02f, 4.407366e-02f, -7.949954e-03f, 1.616995e-01f, -5.566297e-02f,
  6.457449e-02f, 5.989975e-03f, -6.300817e-02f, 2.713292e-02f, 5.826173e-02f, -5.194731e-02f, 5.877497e-02f, 1.395119e-02f,
  5.476855e-02f, -1.423328e-02f, -2.468787e-02f, -2.801310e-02f, -5.687946e-02f, -6.598094e-02f, 3.830071e-02f, -1.323939e-02f,
  -2.327437e-02f, 4.508596e-02f, 3.037682e-02f, -3.340190e-02f, 7.567506e-02f, -5.366645e-02f, -2.069514e-02f, 7.481016e-02f,
  -1.872515e-02f, -8.962759e-03f, -1.392018e-01f, -1.536354e-01f, -3.628267e-02f, -3.385115e-03f, -3.437035e-03f, -1.983801e-02f,
  8.485618e-02f, -1.524229e-02f, -1.870109e-01f, -1.058473e-01f, -1.839344e-02f, -1.315619e-01f, -8.600988e-02f, 1.522953e-01f,
  9.909436e-02f, -9.600884e-02f, 9.553305e-02f, 1.353814e-01f, -7.134834e-02f, -1.617751e-01f, -1.868007e-01f, 1.235282e-02f,
  -1.492803e-01f, 6.686547e-02f, 6.510978e-02f, 3.838964e-02f, -1.362973e-02f, 6.719961e-02f, -4.583541e-02f, -1.131683e-01f,
  1.572311e-02f, 1.313806e-01f, 1.735769e-01f, -2.765194e-03f, 1.102058e-01f, 5.562628e-02f, 1.721404e-02f, -2.520251e-04f,
  -1.138212e-02f, -2.454376e-02f, 4.856758e-02f, 3.215299e-03f, 1.900190e-02f, -2.428594e-02f, -1.940659e-02f, 6.010040e-02f,
  -2.789241e-02f, 1.161197e-01f, 2.744272e-01f, 1.179383e-01f, -2.529902e-02f, 3.512661e-02f, -5.672614e-03f, 1.052993e-01f,
  4.712149e-03f, -9.861899e-02f, -7.651343e-02f, 6.715824e-02f, 1.315554e-01f, 7.014597e-02f, -5.148053e-02f, 3.106406e-02f,
  2.887562e-02f, -2.430834e-01f, -1.936299e-01f, -1.294380e-01f, -7.768261e-02f, -1.664193e-02f, 1.054040e-01f, -8.243759e-02f,
  2.929113e-02f, 1.027028e-01f, 6.605014e-02f, -5.733706e-02f, 5.557393e-02f, -7.124325e-02f, -1.674599e-02f, 2.705280e-02f,
  -4.416142e-02f, 6.369534e-02f, 3.467811e-02f, -1.185148e-01f, -1.381389e-01f, -1.085526e-01f, 2.271891e-02f, -6.914761e-02f,
  -1.232137e-02f, -6.335722e-02f, -6.973673e-02f, 8.040718e-03f, -3.827985e-03f, -6.074380e-02f, -1.193488e-01f, 8.805209e-02f,
  5.135788e-02f, -1.459362e-02f, -5.193729e-02f, -1.093216e-02f, 1.529035e-01f, -6.634974e-03f, 1.051042e-02f, 6.642948e-03f,
  1.376190e-01f, 3.291753e-01f, 7.381631e-02f, -6.644881e-02f, -2.610891e-02f, -1.565475e-03f, -6.157298e-02f, 3.177164e-05f,
  -1.326845e-01f, 1.154689e-01f, 4.948598e-02f, 2.692223e-03f, 1.152352e-01f, -5.699568e-02f, -4.407590e-03f, -2.765079e-02f,
  -1.085963e-01f, -7.410779e-02f, 7.336102e-02f, 8.115046e-02f, 3.086827e-02f, 3.160479e-02f, -1.527857e-02f, -5.074367e-02f,
  8.569019e-03f, -2.691638e-02f, -3.356953e-02f, 1.050186e-01f, 1.501161e-01f, 1.671430e-01f, -5.226825e-02f, 7.649178e-02f,
  1.015275e-02f, -6.146706e-02f, -6.154763e-02f, -2.109932e-02f, 2.822143e-02f, 4.943087e-02f, -8.797921e-02f, 7.709660e-02f,
  7.859151e-02f, 2.082510e-02f, -2.559458e-02f, -1.705742e-01f, -8.854956e-02f, -1.374289e-03f, -1.547048e-01f, 1.028022e-01f,
  6.161576e-02f, 1.506641e-01f, 1.618914e-01f, -6.861540e-02f, 2.462338e-02f, 4.763326e-02f, 7.621285e-02f, 6.325397e-02f,
  5.709126e-02f, 1.761912e-01f, -8.306982e-02f, 6.496163e-03f, -8.167554e-02f, -6.073895e-02f, -1.400705e-01f, 1.122692e-02f,
  4.042362e-02f, 1.231127e-01f, -6.759356e-02f, 3.983379e-02f, 1.459304e-01f, -6.746328e-02f, -1.096931e-01f, -1.477420e-03f,
  7.201753e-02f, 5.115474e-02f, 3.595592e-02f, -3.508008e-02f, 6.779301e-03f, -5.698391e-02f, -5.080317e-02f, -6.625058e-02f,
  -3.941296e-02f, -5.654925e-02f, -1.554396e-02f, 6.782850e-02f, -1.097549e-02f, 3.713882e-02f, -3.152167e-02f, 1.287098e-02f,
  -1.948360e-01f, -1.653600e-01f, 6.715640e-02f, 4.447977e-02f, 6.603478e-02f, -1.767695e-02f, 2.385422e-02f, 7.450051e-02f,
  -7.932397e-02f, -1.228568e-01f, -1.130387e-01f, 1.038001e-01f, 5.039569e-03f, 3.673480e-02f, 5.178457e-02f, 3.081624e-02f,
  3.018849e-03f, -1.489696e-01f, -1.248803e-01f, -2.433357e-01f, -2.945148e-02f, -4.695099e-02f, 2.902973e-02f, 5.087886e-02f,
  -8.295691e-02f, 9.433495e-02f, -1.009979e-01f, -4.979647e-02f, -1.381651e-01f, 2.039609e-03f, -4.627308e-02f, -5.849874e-02f,
  -8.317078e-03f, -7.312340e-02f, 1.316905e-01f, -2.518799e-02f, 4.049317e-03f, -2.622211e-02f, -2.134073e-03f, -3.614164e-02f,
  1.443180e-01f, -6.392524e-02f, 1.024601e-01f, 5.961781e-02f, -7.370502e-02f, -6.409558e-02f, -8.049487e-02f, 1.157887e-01f,
  -6.993172e-02f, 5.792585e-02f, 1.084482e-02f, 8.276395e-02f, 3.408861e-02f, -1.207583e-01f, -1.146348e-01f, -2.199152e-01f,
  -7.162903e-02f, -1.000532e-01f, 2.175922e-02f, 1.288397e-01f, 1.031140e-01f, 2.228784e-02f, -3.418849e-02f, -8.034921e-02f,
  -2.665287e-02f, 5.551088e-03f, 5.397660e-02f, 7.128008e-02f, -7.046204e-02f, -5.119414e-02f, 4.416911e-02f, -2.809772e-03f,
  -1.441226e-03f, 6.957105e-02f, -4.618880e-02f, 2.582052e-02f, -3.198180e-02f, -4.888169e-03f, -1.379002e-02f, -4.193628e-02f,
  -9.728252e-03f, -4.355452e-03f, -3.728826e-02f, -2.975077e-02f, -2.104139e-02f, -1.292265e-02f, 7.971178e-03f, 1.176301e-02f,
  4.662619e-02f, -3.784897e-02f, -6.443117e-02f, 6.304501e-02f, -5.024394e-02f, -6.230907e-02f, 6.794091e-02f, 3.258502e-02f,
  -7.175840e-02f, 3.192711e-02f, -2.198230e-01f, -1.046865e-01f, -1.541829e-01f, 3.864318e-02f, 1.360631e-01f, -1.212221e-01f,
  4.259142e-02f, 2.177439e-02f, -1.042671e-01f, -9.050081e-02f, -1.605634e-01f, -5.609707e-02f, -6.318165e-02f, -6.546381e-02f,
  -1.791717e-02f, 1.030899e-01f, -1.504672e-02f, 4.509448e-02f, -5.145673e-02f, -6.412476e-02f, 6.216332e-02f, -2.327984e-02f,
  -5.480426e-02f, 4.020342e-02f, 6.190436e-02f, 6.160510e-02f, 3.424543e-03f, -4.361137e-02f, -3.736514e-02f, -1.400375e-01f,
  -4.395386e-02f, 2.154863e-02f, -2.631329e-02f, 7.439827e-02f, -6.455157e-02f, -4.280102e-02f, 5.534558e-02f, 9.387410e-02f,
  -6.409355e-02f, -7.977590e-02f, 1.413157e-01f, -7.492947e-02f, -2.425915e-02f, 6.222532e-01f, 1.646238e-01f, -8.334304e-02f,
  -1.244879e-01f, -1.259636e-01f, -1.025115e-01f, -1.813910e-01f, -1.251043e-02f, -3.353997e-02f, 5.512841e-02f, 7.309917e-02f,
  -2.232376e-02f, -1.704502e-03f, 1.842729e-02f, 1.064943e-02f, -5.324883e-04f, -5.338659e-03f, 4.508025e-02f, 6.363276e-02f,
  -1.488987e-02f, -8.573110e-02f, -3.639422e-02f, -3.882893e-02f, -9.190742e-02f, 5.357420e-02f, 2.615362e-03f, -4.393442e-02f,
  4.787757e-02f, -8.629196e-02f, 5.371825e-03f, -1.176066e-01f, -8.643536e-03f, -1.559197e-02f, 1.861854e-01f, 1.387211e-01f,
  -3.455253e-01f, 9.855311e-02f, 6.553692e-03f, -9.950716e-02f, -2.884277e-02f, -1.724353e-01f, 6.532614e-02f, 5.049711e-02f,
  1.113279e-01f, -2.596429e-02f, -2.491547e-02f, 1.966028e-01f, -9.499632e-02f, -8.551674e-02f, -1.507649e-01f, 9.714550e-03f,
  1.594453e-02f, -6.540090e-02f, 1.152273e-01f, 2.793916e-02f, 6.806859e-02f, 1.075675e-02f, -8.827578e-02f, -2.456425e-01f,
  -3.529463e-02f, -9.844428e-02f, -5.332915e-02f, 1.567301e-01f, 1.393390e-01f, 3.130187e-02f, -8.070502e-02f, -1.047202e-01f,
  -1.630216e-01f, -4.366931e-02f, 1.905796e-02f, 1.002107e-01f, -1.212123e-01f, -1.023238e-01f, 7.281404e-02f, -5.178481e-02f,
