#pragma once

// kind=conv2d_transpose, layout=OIHW
// layer=dec1_up32
// dims: Kh=3, Kw=3, Cin=64, Cout=32
// Keras: (Kh,Kw,Cout,Cin) -> Noodle: (Cout,Cin,Kh,Kw)
// spatial_flip=false
static const float w07[] = {
  2.466315e-01f, -9.350723e-04f, -9.960397e-02f, 1.014154e-01f, -3.626136e-02f, 4.462156e-03f, 1.240183e-01f, 4.348493e-02f,
  -1.442210e-01f, -2.892316e-02f, 2.358101e-02f, -1.298141e-01f, -1.639348e-02f, 4.755979e-02f, 2.711272e-02f, 1.190871e-02f,
  -3.433064e-02f, 6.571815e-02f, 4.456969e-02f, -5.821572e-02f, -4.580814e-02f, 3.913680e-01f, 5.333392e-02f, 3.062772e-02f,
  -8.122517e-03f, 1.114806e-02f, -3.176643e-02f, 1.080179e-01f, 3.969578e-02f, 7.269481e-02f, 8.889399e-02f, -5.742775e-02f,
  2.514813e-02f, 8.248793e-03f, -8.135267e-02f, -2.798054e-02f, -2.999995e-02f, -2.465192e-02f, 6.492053e-02f, 2.104487e-02f,
  1.105876e-02f, 3.730438e-02f, 2.034807e-02f, 4.740507e-02f, 6.493111e-03f, 5.869890e-02f, 2.379746e-03f, -5.706766e-02f,
  1.843154e-02f, 7.560939e-02f, -1.443967e-02f, -2.336974e-02f, -2.603312e-02f, -5.008604e-02f, 1.982096e-02f, 4.259079e-02f,
  -7.947772e-02f, -8.454549e-02f, -1.200758e-02f, 5.381138e-02f, -9.058925e-02f, 1.841895e-04f, -3.691902e-02f, -3.261513e-02f,
  7.061215e-02f, 1.622200e-02f, 4.811872e-02f, 1.864545e-01f, -3.042469e-02f, -1.105265e-01f, 9.785555e-02f, 2.258762e-02f,
  -1.891545e-03f, -5.617728e-02f, 7.289105e-02f, -6.534711e-02f, -6.672746e-02f, -4.848541e-02f, 6.404168e-02f, 6.579834e-02f,
  -2.647699e-03f, -4.916436e-02f, 8.689839e-02f, -4.823896e-02f, 4.563605e-02f, 5.167036e-02f, 6.274557e-02f, 4.910319e-02f,
  1.690025e-02f, 4.167233e-02f, -2.049752e-01f, -3.143706e-02f, -4.472755e-02f, 6.929754e-02f, -1.809369e-01f, -1.119811e-01f,
  -4.010566e-02f, -4.292815e-02f, -6.580494e-02f, -4.125442e-02f, -1.971276e-02f, -2.861049e-02f, 8.678004e-02f, -1.403419e-01f,
  -1.358323e-02f, -1.638200e-01f, -2.132441e-02f, -9.493331e-02f, 5.345899e-02f, 4.617071e-02f, -3.530481e-02f, 8.385398e-02f,
  8.048403e-02f, -8.322954e-03f, 3.813105e-02f, -7.293798e-02f, 5.581452e-02f, 1.927401e-02f, 2.223719e-02f, -3.568655e-02f,
  1.312518e-02f, -1.443150e-02f, -8.139063e-02f, -4.925214e-02f, -6.282960e-03f, -4.971099e-02f, -4.513232e-02f, -7.596716e-02f,
  -2.576144e-02f, 5.248499e-03f, -8.078402e-02f, 1.045850e-01f, 6.186875e-02f, 4.826681e-02f, -2.644619e-02f, 5.341110e-02f,
  -7.490312e-02f, -2.558447e-02f, 6.294931e-02f, -1.315889e-03f, -5.182999e-02f, 2.623048e-02f, 3.774209e-02f, 7.162312e-02f,
  1.664033e-01f, 6.280027e-02f, -4.012904e-02f, -1.655429e-02f, -6.721187e-02f, -1.260521e-03f, 8.466834e-02f, 1.061396e-02f,
  4.803608e-02f, 2.349420e-02f, -5.218486e-02f, 8.953357e-02f, -1.309017e-01f, -2.672778e-02f, -2.362359e-01f, -1.491675e-01f,
  7.849015e-02f, 3.893143e-02f, 2.772378e-02f, 4.126188e-02f, 1.176190e-01f, -9.630552e-03f, 8.636472e-02f, -7.591581e-02f,
  -4.838144e-02f, 7.320049e-02f, -4.490386e-02f, -1.800304e-03f, 4.439007e-02f, -4.632244e-02f, -2.900838e-02f, -4.022897e-02f,
  6.735277e-02f, 4.278851e-02f, -1.220626e-03f, -2.812279e-02f, 6.746596e-02f, 8.430768e-02f, 1.659193e-02f, 1.880712e-03f,
  7.540755e-02f, 9.819996e-02f, 2.879178e-02f, 4.013038e-02f, -2.028451e-02f, -4.329754e-02f, 1.141143e-01f, 6.887268e-02f,
  8.228485e-03f, -9.546315e-02f, 6.478435e-02f, -8.919062e-02f, -1.338297e-01f, 4.479059e-03f, -2.677913e-02f, 8.514027e-02f,
  -1.296195e-02f, -5.194614e-02f, 2.307098e-03f, 3.491373e-02f, 4.103804e-02f, 5.486728e-03f, 7.435385e-03f, 6.019353e-02f,
  -4.097430e-02f, -5.757603e-02f, -4.860427e-02f, 2.103396e-01f, 7.801502e-02f, -3.340166e-02f, 9.027751e-02f, 1.454151e-01f,
  -5.765684e-02f, 6.805608e-02f, -7.370299e-02f, -1.950533e-02f, 2.438988e-02f, 2.591174e-03f, 5.870194e-02f, 3.826068e-02f,
  3.333003e-02f, -3.667226e-02f, -6.278472e-02f, -5.749605e-02f, -8.193132e-03f, -1.951762e-02f, -6.287837e-02f, -1.509664e-02f,
  -3.607856e-02f, -5.927311e-02f, -6.212364e-03f, -2.171212e-02f, -4.799695e-02f, -5.828039e-02f, 6.802363e-02f, -8.573913e-02f,
  -1.318809e-02f, -5.402880e-02f, 1.371854e-01f, 3.121029e-03f, -7.603052e-02f, 7.436042e-02f, -4.104112e-02f, -1.092596e-02f,
  -1.279313e-02f, -3.800420e-02f, 3.761512e-03f, 1.894553e-02f, -4.928847e-02f, 8.424422e-03f, -6.043249e-05f, 1.416593e-02f,
  6.196090e-03f, 6.683334e-02f, 9.133920e-04f, -4.402117e-02f, 8.068021e-02f, -1.507809e-02f, 6.461713e-02f, 1.864544e-02f,
  3.979277e-02f, -1.296701e-02f, 6.459101e-03f, 1.085234e-01f, -4.484496e-02f, 1.068503e-01f, 5.474482e-02f, 7.922547e-02f,
  8.710802e-02f, -4.329650e-03f, -1.002177e-01f, -2.513558e-02f, 1.228750e-01f, 4.728770e-02f, 3.954308e-02f, -2.597644e-02f,
  -7.414609e-02f, 5.728082e-02f, -5.545239e-02f, 8.748820e-02f, 3.087260e-02f, -5.302804e-02f, 4.826917e-02f, -1.161038e-02f,
  2.112936e-01f, 1.441345e-01f, -6.128088e-02f, 2.415011e-01f, 1.603823e-01f, -9.516012e-02f, 7.532700e-02f, 2.486511e-02f,
  2.709437e-02f, 5.292349e-02f, -2.299797e-02f, 5.125987e-02f, -1.715047e-02f, -5.707134e-02f, 1.660908e-03f, 4.926826e-02f,
  -2.580715e-02f, 3.873621e-02f, -4.646336e-02f, -6.551104e-02f, 1.095438e-01f, -1.266138e-01f, -1.315307e-01f, 3.871053e-03f,
  3.752362e-02f, 5.311785e-02f, 1.253470e-02f, -8.930611e-03f, 2.240629e-01f, 1.306425e-01f, -5.068265e-02f, 3.710794e-01f,
  7.734308e-03f, -3.620871e-03f, 1.192522e-01f, 6.363249e-02f, 9.323487e-03f, -1.302897e-02f, -1.184001e-01f, -9.716234e-02f,
  -9.931243e-02f, -1.105333e-01f, -3.718994e-02f, -1.111677e-02f, -1.035998e-02f, -2.971894e-02f, 3.315762e-02f, -1.973205e-02f,
  -5.045461e-02f, 2.405813e-03f, -3.762231e-02f, 4.307276e-02f, -8.447506e-02f, 4.895531e-02f, 9.568013e-02f, -7.335047e-03f,
  -1.020600e-01f, 3.618224e-02f, -6.245162e-02f, -6.587837e-02f, 2.093963e-02f, -4.453985e-02f, -3.053055e-02f, 2.095851e-02f,
  8.548361e-03f, 1.786946e-02f, 1.365524e-02f, -4.564365e-02f, 8.824272e-02f, -5.891231e-02f, -6.963950e-02f, 2.018727e-02f,
  3.843917e-02f, -1.658284e-03f, -1.118225e-02f, 1.142737e-01f, 1.083819e-01f, -3.163620e-01f, 1.787673e-02f, 1.629744e-01f,
  -6.657352e-02f, 7.560460e-02f, -1.492644e-02f, 2.117355e-01f, -2.100964e-01f, -9.287808e-02f, -4.163579e-01f, -8.096911e-02f,
  4.538947e-02f, -3.949737e-02f, 2.376098e-01f, -1.158426e-01f, -5.075203e-02f, 1.306583e-02f, 3.786270e-03f, 7.046887e-02f,
  -1.654094e-01f, 1.027429e-01f, -2.324095e-02f, -4.162921e-02f, 8.709165e-02f, -6.133596e-02f, 7.729607e-02f, 9.406865e-02f,
  3.193035e-02f, 4.826446e-02f, 6.654085e-02f, 4.620180e-02f, -5.895495e-02f, -3.427012e-02f, -7.351042e-02f, -1.173329e-01f,
  3.780762e-02f, -7.199817e-02f, 5.806333e-03f, 2.313973e-02f, 1.650857e-02f, 3.602870e-02f, -5.385921e-02f, 6.359578e-02f,
  3.061752e-02f, -5.554209e-04f, 2.163577e-02f, -7.503253e-02f, 9.747818e-03f, 2.609258e-02f, -5.256849e-02f, 1.393528e-02f,
  2.348085e-02f, 3.194537e-02f, 1.528325e-01f, -1.251408e-02f, 1.145407e-02f, 7.445270e-02f, 4.486440e-02f, 2.954406e-02f,
  6.689047e-02f, 1.602289e-01f, 3.774747e-02f, 5.000513e-02f, -3.804654e-03f, -3.881754e-03f, 5.793629e-02f, -3.026129e-02f,
  8.886743e-02f, -1.249816e-02f, 7.735162e-02f, -4.621699e-02f, 1.461712e-02f, 1.077651e-01f, -7.985059e-02f, -2.040775e-02f,
  -1.264508e-02f, 9.079088e-02f, -9.763649e-02f, -1.270972e-02f, -4.726190e-02f, -5.227407e-02f, 4.262606e-02f, 7.064767e-02f,
  3.149110e-02f, -6.361504e-03f, 1.068840e-03f, 5.107634e-02f, 6.074160e-02f, 3.482344e-02f, -1.174753e-02f, -3.160113e-02f,
  3.443722e-02f, 2.371476e-02f, -7.157373e-02f, -1.826886e-02f, 3.147863e-02f, 7.175099e-02f, 3.816785e-02f, -1.669472e-01f,
  9.634916e-02f, 6.739078e-02f, -6.527651e-02f, 1.153438e-02f, -3.481517e-02f, 2.090488e-03f, -5.070097e-02f, 7.068592e-02f,
  -2.106476e-02f, -1.703964e-01f, -2.701555e-02f, -2.177624e-02f, 6.127821e-03f, -5.114807e-02f, -5.377426e-02f, -4.829144e-02f,
  4.866479e-02f, 7.868633e-02f, -4.116826e-02f, -6.031486e-02f, 3.196324e-02f, -3.833189e-02f, 1.560370e-01f, 4.060790e-02f,
  -7.186585e-02f, -8.055956e-02f, 7.381566e-03f, -1.065557e-01f, -2.079785e-02f, -5.385293e-02f, -2.371477e-02f, -5.079745e-02f,
  -2.749179e-02f, -2.814330e-02f, -8.853491e-02f, -3.006462e-03f, 3.145792e-01f, 1.191609e-01f, 6.776761e-02f, 1.963779e-01f,
  9.333470e-02f, 1.272017e-01f, 2.064785e-01f, -2.190988e-02f, -1.128564e-01f, 9.227599e-02f, 3.294875e-02f, -8.484139e-02f,
  -2.774672e-02f, 1.727981e-03f, -1.543512e-02f, 4.289203e-03f, 8.601157e-02f, 5.683492e-03f, -2.797474e-02f, 7.243047e-02f,
  6.933622e-02f, -8.871832e-02f, -3.091847e-02f, 1.195885e-02f, -1.446666e-02f, -5.613320e-02f, -1.259443e-02f, -7.314124e-02f,
  3.438504e-03f, 7.924112e-02f, -5.779945e-03f, 6.764849e-02f, 6.314005e-02f, -1.392986e-02f, 1.484646e-01f, 1.280891e-01f,
  6.689288e-02f, 7.916287e-02f, 1.175936e-01f, 4.282126e-02f, 9.812882e-03f, 7.023865e-02f, -6.597737e-02f, 3.633338e-02f,
  -3.276486e-02f, -1.126066e-01f, -1.189294e-01f, -1.206716e-01f, -1.693195e-01f, 7.642789e-02f, 2.886412e-02f, 3.648327e-02f,
  1.476999e-01f, 5.436791e-02f, -2.450508e-02f, -4.399363e-02f, -9.654818e-02f, -1.522085e-01f, -3.600573e-02f, -6.450380e-02f,
  -4.041630e-02f, 8.038051e-02f, 2.771749e-02f, -2.796812e-02f, -1.483560e-02f, 1.651562e-02f, -6.977594e-02f, -3.952068e-02f,
  -5.101560e-02f, -4.679548e-03f, -9.127870e-02f, -1.999950e-01f, -9.464919e-02f, -4.562072e-02f, -1.536012e-02f, 1.405575e-02f,
  -3.078822e-01f, -6.494655e-02f, -1.284257e-01f, -1.710830e-01f, -1.674622e-01f, -9.554239e-02f, -1.469810e-01f, -5.818424e-02f,
  2.346515e-02f, 1.513058e-01f, -1.096393e-02f, -7.235841e-02f, 1.203618e-02f, 6.559685e-03f, -4.207968e-03f, -8.897549e-03f,
  -4.518999e-02f, -1.867083e-02f, 3.856050e-02f, 6.871036e-02f, -1.021825e-01f, 1.556490e-01f, 3.124705e-01f, 1.394306e-01f,
  1.776493e-03f, -3.944355e-02f, 3.738347e-02f, 1.059266e-03f, 2.127339e-01f, 4.042490e-02f, -6.400443e-02f, -4.157106e-02f,
  2.615204e-02f, -2.870288e-01f, -7.058476e-03f, -1.584689e-04f, 1.390836e-02f, 3.282126e-03f, -3.009501e-02f, -1.152530e-01f,
  1.438037e-01f, -9.747086e-02f, -5.948693e-02f, 5.256793e-02f, 8.058405e-02f, 7.419159e-02f, 2.020225e-01f, -7.186063e-02f,
  1.333761e-01f, 7.608014e-02f, -6.130278e-02f, 7.838386e-03f, -1.468207e-01f, 3.988228e-02f, 8.956556e-02f, 5.571933e-02f,
  2.921306e-02f, -8.065242e-02f, 2.774794e-02f, 5.079797e-02f, 1.107461e-01f, -3.027253e-03f, -7.683846e-02f, 5.102408e-02f,
  -1.256588e-01f, 7.717462e-02f, -3.103631e-02f, 1.256414e-01f, 3.472538e-02f, 8.523560e-02f, 2.094881e-02f, -1.626890e-01f,
  7.570432e-02f, 6.126799e-02f, -2.492118e-02f, -7.925924e-02f, 2.828640e-02f, -7.664662e-02f, -6.273479e-02f, 3.874328e-02f,
  1.238701e-02f, -6.227420e-02f, 1.966493e-02f, 1.213987e-01f, -9.408509e-02f, -4.537184e-02f, 1.714812e-02f, -7.867180e-02f,
  -3.765664e-02f, -3.561038e-03f, 1.185407e-01f, 6.801000e-02f, 7.275507e-02f, -5.229416e-03f, 2.107714e-01f, 6.493512e-02f,
  5.027808e-02f, -1.422331e-01f, -9.468454e-02f, -1.896988e-01f, -1.178937e-02f, -6.002840e-02f, 2.742538e-02f, -1.433485e-01f,
  -5.861435e-03f, -5.375288e-02f, -3.503633e-02f, -7.411884e-02f, -1.934098e-02f, -2.352072e-02f, 4.102832e-02f, 2.376977e-02f,
  1.597111e-02f, -5.595634e-02f, 6.283576e-02f, 6.835493e-02f, -1.473913e-02f, -1.643620e-02f, -3.293351e-02f, -1.040110e-01f,
  7.309197e-02f, -3.506295e-02f, -3.503875e-03f, -1.648766e-02f, 4.115870e-02f, 6.650861e-02f, 1.782543e-01f, 3.421425e-03f,
  -5.980693e-02f, 1.757533e-01f, -1.928211e-02f, -4.203331e-02f, 4.094838e-03f, -2.864058e-02f, 1.056148e-04f, -7.244503e-02f,
  -5.776467e-02f, -4.407369e-02f, -2.984353e-02f, -6.162045e-02f, -2.885900e-02f, -2.082616e-02f, 4.397983e-02f, 2.361710e-02f,
  -1.727663e-01f, 5.613222e-02f, -3.152120e-02f, -5.116135e-02f, -2.965896e-02f, 1.857036e-02f, -3.346523e-02f, -2.441359e-02f,
  -6.861040e-02f, -1.753118e-02f, 5.117962e-02f, -1.702053e-02f, -1.066983e-01f, -4.780971e-02f, 5.264287e-03f, 1.030358e-01f,
  1.390020e-01f, 6.426509e-02f, -9.051265e-02f, 2.060738e-02f, 1.535221e-02f, 2.268359e-02f, 9.671628e-02f, -1.152860e-01f,
  -6.985201e-02f, -9.110200e-02f, -5.917154e-02f, -5.532943e-02f, 1.165183e-01f, 4.715013e-02f, 2.377021e-02f, -9.056347e-02f,
  -3.782485e-05f, -5.838863e-02f, -1.267601e-01f, -8.699958e-02f, 6.448677e-02f, 4.858017e-02f, 1.708160e-02f, -3.137929e-02f,
  5.252307e-02f, 6.996930e-02f, 1.917265e-01f, 4.116767e-02f, 3.678902e-02f, 2.809436e-02f, 6.475742e-02f, -6.938781e-03f,
  5.600568e-02f, 1.471442e-02f, 5.589116e-02f, -1.733819e-02f, 6.314141e-02f, 3.582878e-02f, 3.496011e-02f, 8.167675e-02f,
  -4.939485e-02f, 5.604528e-02f, -7.702620e-02f, -5.787656e-02f, 7.622910e-03f, -3.408555e-02f, -6.565630e-02f, -1.106667e-01f,
  -6.715421e-02f, 7.904013e-02f, -5.887551e-04f, 7.946239e-02f, -1.643629e-02f, -3.554388e-02f, 1.597436e-02f, -2.208582e-02f,
  4.844148e-02f, -3.492724e-02f, -2.572014e-02f, 4.145784e-02f, -2.307056e-02f, -4.127391e-02f, 3.399894e-02f, 2.333712e-02f,
  -7.436464e-02f, 8.301422e-02f, -4.212883e-02f, -1.795212e-02f, -3.037420e-04f, -5.474802e-02f, 4.768785e-03f, 2.601982e-02f,
  6.356710e-02f, 7.085413e-02f, 9.385314e-03f, 2.533432e-02f, 2.103609e-02f, 4.885047e-02f, 1.101687e-02f, -6.838014e-02f,
  -4.967260e-02f, 6.758935e-02f, 8.436019e-02f, 6.217157e-02f, 6.140571e-02f, -3.179147e-02f, 5.046885e-02f, -2.628505e-02f,
  -4.906718e-02f, 7.282216e-02f, 6.241471e-02f, 3.991659e-02f, 1.053395e-02f, 2.994988e-02f, 1.400274e-01f, 4.382376e-02f,
  4.437849e-02f, 2.368872e-03f, -3.572291e-02f, -4.760497e-02f, -1.290141e-01f, -9.989463e-02f, 1.928214e-02f, 9.322068e-02f,
  1.993860e-01f, 1.086908e-01f, -9.625085e-03f, -5.906390e-02f, -1.136238e-03f, -1.069226e-01f, 4.273633e-02f, 7.065855e-02f,
  -2.528970e-01f, 5.348020e-02f, 8.128579e-02f, -5.589828e-02f, 7.578894e-02f, 1.400205e-01f, 5.980653e-02f, -1.862630e-01f,
  -4.858632e-02f, -5.806803e-02f, 1.009576e-01f, -3.087103e-02f, -1.427953e-01f, 2.951054e-02f, 3.228791e-02f, 4.102410e-02f,
  -1.022898e-01f, -7.531933e-02f, -1.884451e-04f, 6.494663e-02f, 5.583080e-02f, 7.161356e-04f, 2.006409e-01f, 6.544879e-02f,
  -2.200883e-02f, 3.069464e-02f, -4.424789e-03f, 2.838612e-02f, 1.515234e-01f, 1.132157e-01f, -2.085815e-02f, -5.092568e-02f,
  7.911564e-02f, 3.545796e-02f, -7.680292e-02f, -4.339010e-02f, -4.653361e-02f, 4.251442e-02f, 8.578558e-02f, 5.187702e-03f,
  1.329358e-02f, 2.855459e-02f, 1.142971e-01f, 2.756749e-02f, 4.723602e-02f, 2.080905e-01f, 6.180376e-02f, 2.181569e-01f,
  1.421891e-01f, -5.179763e-02f, -5.579836e-02f, 7.572995e-02f, 1.745263e-02f, -1.048234e-01f, -1.496732e-02f, -7.284155e-02f,
  -8.323918e-02f, 4.837778e-03f, -1.307947e-02f, -5.463038e-02f, 6.477240e-02f, 3.477399e-02f, -7.447463e-02f, -3.150489e-03f,
  4.091737e-02f, 1.076731e-01f, 7.454592e-02f, 2.242684e-01f, 1.438544e-02f, -2.532501e-02f, -2.190524e-02f, 7.834154e-02f,
  -7.431363e-02f, -2.531294e-02f, 3.637014e-02f, 1.012184e-02f, 1.892173e-02f, -3.924873e-02f, -5.691823e-02f, 7.788630e-03f,
  1.512929e-03f, 6.343037e-02f, 6.318964e-02f, -3.996509e-02f, -6.143341e-02f, -3.586597e-02f, 4.453002e-02f, 1.073362e-02f,
  -1.039567e-01f, -4.937042e-02f, -2.282174e-02f, 3.930106e-02f, 7.361539e-02f, -7.964965e-02f, 7.466315e-02f, 9.255058e-02f,
  4.581863e-02f, 1.102761e-01f, 2.694172e-02f, -7.668898e-02f, -8.611652e-02f, 8.685669e-02f, 3.940365e-02f, -5.688648e-02f,
  -5.032694e-02f, 1.037303e-02f, 5.056088e-02f, 8.997030e-02f, 6.486977e-03f, -4.107799e-02f, 1.382548e-02f, 2.331586e-02f,
  -1.357012e-01f, -3.462027e-02f, -1.030118e-01f, -1.461716e-02f, 3.891177e-03f, 1.936575e-02f, 7.981395e-02f, 1.186877e-03f,
  1.529949e-02f, 6.789148e-03f, -4.234552e-02f, -4.106982e-02f, 1.023740e-01f, 8.359591e-02f, -5.838038e-02f, -2.609585e-02f,
  5.473068e-02f, 5.498847e-02f, 5.162570e-04f, -1.771766e-02f, -4.948183e-02f, 1.227481e-02f, 8.954805e-02f, -8.975592e-03f,
  2.908243e-02f, 2.141565e-02f, 2.257496e-02f, -3.489173e-02f, 6.484315e-02f, 3.875246e-02f, -1.098467e-01f, -3.302775e-02f,
  1.064353e-02f, 9.524482e-02f, -5.495468e-02f, 4.549172e-02f, 4.345758e-03f, 3.811266e-02f, -5.612242e-02f, 1.342269e-02f,
  1.369497e-02f, 6.579047e-03f, 1.449123e-02f, 8.933051e-03f, -7.034104e-02f, -3.509944e-02f, -3.797621e-02f, 1.478141e-01f,
  -8.387540e-02f, 1.021386e-01f, 5.071701e-02f, -6.303484e-02f, 3.718999e-02f, 4.141117e-02f, 2.273883e-02f, -9.990499e-03f,
  6.822149e-02f, -9.531418e-02f, -7.726758e-03f, -4.085735e-02f, 4.401224e-02f, -1.126267e-01f, -5.290300e-03f, -4.123511e-02f,
  3.896167e-02f, -2.755606e-02f, -2.256030e-02f, 6.616981e-02f, 1.293718e-02f, 2.595945e-02f, -1.210626e-02f, -1.336104e-02f,
  -8.117901e-02f, -5.105986e-02f, 6.370465e-02f, 1.365723e-01f, -7.662108e-02f, 3.422283e-02f, -8.633518e-02f, 6.898340e-02f,
  9.888448e-02f, 1.832310e-02f, -2.222655e-02f, -6.347121e-02f, -8.773446e-02f, 1.569356e-02f, 1.421005e-01f, -7.434879e-02f,
  1.341973e-01f, -8.471340e-03f, 7.647616e-02f, -7.823807e-02f, 1.008716e-02f, 3.033123e-02f, -2.027148e-02f, 1.551631e-02f,
  6.560767e-02f, 5.920836e-03f, -4.395363e-02f, 7.266092e-02f, -3.131607e-02f, 2.368275e-02f, -1.891965e-02f, -5.072324e-02f,
  -6.479312e-03f, -5.449090e-02f, -5.588426e-03f, 9.809411e-03f, -9.870557e-02f, 1.150531e-02f, 1.596127e-02f, -5.643184e-03f,
  4.588113e-02f, 4.737318e-02f, -4.869544e-03f, 1.170678e-01f, 2.178848e-02f, -3.298644e-03f, -8.207593e-04f, -1.821819e-01f,
  -6.702264e-02f, 3.883272e-01f, 1.737541e-01f, -2.426212e-01f, -3.777211e-01f, -1.304380e-01f, -1.038470e-01f, -5.018227e-02f,
  1.139983e-01f, -1.121957e-01f, 9.276520e-03f, 1.321161e-01f, 1.385184e-01f, -8.147831e-02f, -1.380585e-02f, -3.397872e-02f,
  -6.727699e-02f, 1.267893e-01f, -1.352663e-02f, 1.163171e-01f, -5.940445e-02f, -3.140068e-04f, -9.031589e-02f, 3.624291e-02f,
  9.484657e-02f, 3.313571e-02f, -8.172306e-02f, -7.763081e-02f, 6.623738e-02f, -3.257792e-02f, 2.400901e-02f, 1.322393e-01f,
  7.183939e-02f, 1.583048e-03f, 4.813109e-02f, -7.291334e-03f, 8.342209e-02f, -4.615929e-02f, -2.080035e-02f, -3.228039e-02f,
  8.166999e-02f, 5.458281e-02f, 1.871269e-03f, 2.036906e-02f, 2.540761e-02f, 3.663823e-02f, -8.781296e-02f, 2.250456e-02f,
  8.829517e-02f, -5.099732e-02f, -3.104271e-02f, 7.102932e-02f, -5.545082e-02f, 3.615516e-02f, 1.152460e-01f, 3.917365e-02f,
  8.625720e-03f, -7.586773e-02f, -7.697446e-03f, -2.277405e-02f, 3.016748e-02f, -1.327533e-02f, 2.282989e-04f, -2.023884e-01f,
  1.378945e-01f, 5.909521e-02f, 1.251182e-02f, -2.660042e-02f, -3.706767e-03f, 9.108032e-02f, 3.644051e-02f, -1.716184e-01f,
  1.593387e-01f, -1.097648e-01f, 1.157499e-01f, -8.622834e-02f, 1.305221e-01f, -5.957274e-02f, 4.878461e-02f, 1.844366e-02f,
  -4.392176e-02f, -1.744424e-01f, -1.005984e-01f, -2.009211e-01f, 5.552637e-02f, -6.336652e-03f, 9.526540e-02f, -2.723169e-02f,
  -5.983138e-02f, -4.991675e-02f, 7.009542e-03f, 1.364027e-01f, 7.760800e-02f, 1.772937e-01f, -2.140348e-01f, -1.482277e-01f,
  -8.001038e-02f, -7.113367e-03f, -4.189749e-02f, -2.734995e-03f, 5.720758e-02f, 3.295351e-02f, 9.019041e-02f, 2.589915e-01f,
  -1.142992e-02f, -1.392850e-01f, 1.545018e-02f, -1.495070e-01f, -7.691792e-02f, 6.914280e-02f, -1.704298e-02f, 5.304893e-02f,
  -1.922799e-02f, -1.249910e-01f, 1.627089e-02f, 9.058485e-02f, -6.231173e-02f, 1.509821e-01f, 1.043112e-01f, -8.507109e-02f,
  1.752988e-01f, 1.161727e-02f, 9.743614e-02f, 3.655548e-02f, -7.154638e-02f, 1.119242e-03f, 2.781806e-02f, 1.272403e-02f,
  -1.411446e-01f, 1.020553e-01f, -9.102893e-02f, -1.569554e-01f, -8.597125e-03f, 8.530876e-02f, 3.409044e-02f, -4.613698e-02f,
  -2.236251e-02f, 2.549210e-02f, 4.623528e-02f, 1.002537e-01f, -2.663820e-02f, 4.544825e-02f, 1.001618e-01f, -1.082543e-01f,
  5.126796e-02f, 4.531620e-02f, 1.883499e-02f, 6.754924e-02f, 2.026844e-02f, -7.850680e-02f, -1.414902e-02f, 5.660744e-02f,
  7.187991e-02f, 7.709806e-02f, 7.820085e-02f, 5.551675e-03f, 1.025918e-02f, 1.997472e-01f, -7.325740e-02f, -3.207328e-02f,
  3.712088e-02f, 3.389721e-01f, 3.462805e-02f, 8.126762e-02f, 2.237556e-01f, 1.125305e-02f, -5.952030e-01f, 3.076933e-02f,
  -9.092759e-02f, 8.243805e-02f, 5.843068e-02f, -8.328084e-03f, -2.408441e-02f, -1.653842e-01f, 4.312781e-02f, -4.914885e-02f,
  -1.005498e-01f, -1.488583e-02f, 3.725080e-02f, 2.804682e-02f, 1.437070e-02f, -5.829686e-02f, 4.657335e-02f, 7.243565e-02f,
  -2.867463e-04f, 6.347588e-02f, 6.980185e-02f, 7.243265e-02f, -2.803949e-02f, -3.832107e-02f, 6.316821e-02f, 1.125601e-01f,
  -9.187938e-02f, -2.081610e-01f, -3.979885e-02f, -1.171513e-01f, 6.247621e-02f, -6.687957e-02f, 5.602821e-02f, -6.169273e-02f,
  -7.113140e-02f, 1.477154e-01f, 1.094427e-02f, 1.081053e-01f, 2.536511e-01f, 1.146345e-01f, 1.406838e-01f, 8.193855e-02f,
  -2.144029e-02f, 3.892880e-02f, -4.677220e-02f, 7.884347e-02f, 5.951203e-02f, -7.945484e-02f, 1.693627e-02f, -2.187361e-02f,
  -4.619169e-02f, -9.518507e-02f, -1.491320e-01f, -1.603389e-02f, -2.545792e-01f, -9.185871e-02f, 6.679139e-02f, -3.623562e-02f,
  -1.189813e-01f, -4.823976e-02f, 2.601351e-02f, -4.790665e-02f, 4.467998e-02f, 1.976216e-01f, 1.562562e-01f, -3.961080e-02f,
  5.591012e-02f, 1.446156e-01f, -5.614967e-02f, -4.440044e-03f, 5.628311e-02f, 2.418613e-02f, -3.165008e-02f, -1.378779e-01f,
  -3.848859e-02f, 4.285002e-02f, -9.695806e-02f, -1.799599e-01f, 1.477571e-02f, -2.891464e-02f, 7.874724e-02f, 1.379678e-01f,
  1.253200e-02f, 1.354502e-01f, -5.271372e-02f, 1.452318e-01f, 5.253762e-02f, 4.210487e-02f, 1.010291e-01f, -1.550971e-02f,
  1.915025e-02f, 4.722287e-02f, -2.643334e-02f, 1.232581e-01f, 4.998957e-02f, 2.056132e-02f, 9.806246e-02f, 1.997304e-02f,
  -7.012967e-03f, 1.042639e-01f, -5.777047e-02f, -1.209840e-01f, 5.521084e-02f, -3.738968e-02f, 7.531278e-02f, -1.259187e-02f,
  -6.834558e-02f, 1.938606e-02f, -9.458201e-02f, 5.839402e-02f, 5.002021e-02f, -7.933326e-02f, -7.489527e-02f, -2.753359e-02f,
  -3.261052e-02f, -2.981607e-02f, -5.888504e-04f, 1.166090e-02f, -9.432737e-02f, 1.415035e-02f, -1.441544e-02f, 2.856643e-01f,
  1.078147e-01f, 7.569092e-02f, -3.944809e-02f, -1.035532e-01f, -1.447868e-01f, 2.333809e-02f, -5.030905e-02f, -8.283985e-02f,
  3.440708e-02f, 7.286974e-02f, 5.802142e-02f, 2.527035e-02f, -7.182176e-02f, -3.349676e-02f, -3.121363e-02f, -7.772806e-02f,
  -6.066049e-02f, 2.833240e-02f, 7.864016e-03f, 5.336399e-02f, -1.604884e-01f, 1.931405e-01f, -3.714898e-02f, -7.843800e-02f,
  -1.059098e-01f, -2.004994e-02f, 6.796952e-02f, -3.844252e-02f, -6.646150e-02f, 8.078592e-02f, -2.344121e-02f, -5.541825e-02f,
  -1.140623e-02f, -9.116434e-03f, 8.434647e-02f, -5.626208e-02f, 2.848819e-02f, 4.553937e-02f, -4.046432e-02f, 1.361528e-01f,
  -7.719725e-02f, -2.153231e-02f, 1.046600e-01f, -7.563325e-02f, 3.321657e-02f, 4.048154e-02f, -1.479688e-01f, -3.245378e-02f,
  7.250828e-02f, 4.743974e-03f, 4.560135e-02f, 1.836761e-01f, -1.279535e-03f, -4.379182e-02f, 6.130292e-02f, 1.120718e-01f,
  1.857409e-01f, 1.051546e-02f, 2.161307e-03f, -3.128720e-03f, -8.255872e-03f, -6.693567e-02f, 9.978187e-02f, -7.100437e-02f,
  -1.533493e-02f, -5.272761e-02f, 3.350043e-02f, -1.477744e-01f, -1.620751e-01f, -7.770038e-02f, -1.085593e-02f, -5.489750e-03f,
  1.341752e-01f, 4.731752e-02f, 6.417327e-02f, -1.527224e-01f, -5.786613e-02f, -1.443455e-01f, 3.525032e-02f, 1.430713e-01f,
  1.256610e-01f, -1.795836e-03f, -1.884205e-02f, 1.203300e-01f, -4.409939e-02f, 8.172058e-03f, -1.254812e-01f, -1.253161e-02f,
  -1.248156e-01f, 1.073816e-01f, 1.063622e-02f, 1.085501e-01f, -4.745432e-02f, 8.955480e-02f, -8.386762e-02f, -8.729820e-03f,
  -4.489064e-02f, 2.555909e-02f, 2.193017e-02f, -3.714572e-03f, 1.143195e-01f, 2.767090e-01f, 1.859404e-01f, 1.740361e-01f,
  4.161630e-01f, 6.217688e-02f, 5.000984e-02f, -3.602395e-02f, -9.508678e-02f, -3.760546e-03f, 2.079028e-02f, -1.539911e-01f,
  -5.800568e-02f, 1.115807e-01f, 3.636953e-02f, 4.162947e-02f, 1.089253e-01f, 6.195080e-02f, -8.868284e-03f, 8.073483e-02f,
  1.742592e-01f, -7.940931e-02f, -1.055152e-01f, 4.660440e-02f, -1.143227e-01f, -2.421997e-04f, 1.095553e-02f, -6.074455e-02f,
  9.044040e-02f, 1.052958e-01f, -6.578962e-01f, -2.380864e-02f, -5.250797e-02f, 3.164645e-02f, 4.367543e-02f, 9.964214e-02f,
  -1.249131e-01f, 6.312670e-02f, 1.161968e-01f, 1.102108e-02f, 9.084384e-02f, 2.698556e-03f, 2.496314e-02f, -1.372008e-01f,
  9.863835e-02f, -5.628998e-02f, 1.565526e-01f, -1.207266e-01f, 5.713244e-02f, 2.564068e-01f, 7.218112e-02f, 1.506295e-01f,
  1.459664e-01f, -1.114713e-01f, -9.875088e-02f, -1.199358e-01f, 1.269803e-01f, 2.480822e-01f, -6.529885e-02f, -1.142297e-01f,
  -9.230482e-02f, -1.049992e-01f, 2.752322e-02f, 3.913064e-02f, -4.962652e-02f, -6.389067e-02f, 1.204168e-01f, -4.661383e-02f,
  -1.040809e-01f, 3.830474e-03f, -4.318926e-02f, 3.696654e-02f, 1.907014e-02f, 4.941450e-02f, 5.919412e-03f, 2.048962e-02f,
  6.166353e-02f, -4.078929e-02f, -3.751166e-02f, -6.518363e-02f, 9.837213e-02f, -9.858826e-02f, 8.051801e-02f, -4.391441e-02f,
  1.205193e-01f, 2.036364e-01f, 8.609615e-02f, 1.445302e-01f, 1.848665e-01f, 1.360719e-01f, -9.340021e-02f, -2.156115e-01f,
  -5.467116e-02f, 9.465079e-02f, -2.097424e-01f, -1.366597e-01f, -1.205723e-01f, 1.102873e-01f, 7.848251e-02f, -2.525627e-03f,
  7.807466e-02f, 6.635069e-03f, 8.398618e-02f, 2.671633e-04f, 3.506804e-02f, -4.224695e-02f, -2.117872e-02f, -6.214970e-03f,
  -5.730993e-02f, 4.464168e-02f, -8.413094e-02f, -2.244336e-02f, -2.873359e-03f, 2.784047e-02f, -1.080156e-02f, 1.907271e-01f,
  -3.274481e-02f, 1.089371e-01f, 1.326968e-01f, 3.734254e-02f, 1.235550e-01f, -9.969557e-02f, 5.546738e-02f, 1.715993e-01f,
  -6.682745e-02f, 1.475143e-01f, -1.067469e-02f, 8.035202e-02f, 5.701710e-03f, -1.059163e-02f, -1.419534e-03f, -6.035488e-02f,
  -7.070681e-02f, 7.736729e-03f, 1.416177e-02f, 2.522304e-02f, -8.592139e-02f, -1.239623e-02f, -2.641389e-02f, 2.397627e-02f,
  1.238505e-01f, -2.780635e-02f, -1.632560e-01f, -1.975468e-01f, 1.057230e-01f, 1.071837e-02f, -3.506540e-02f, 1.079025e-01f,
  4.970489e-02f, 7.859744e-02f, 2.631614e-03f, -2.911476e-02f, 6.836473e-02f, 5.264473e-02f, 7.155585e-01f, 8.177478e-02f,
  1.030056e-01f, 1.891535e-02f, 7.995546e-02f, 1.536827e-01f, 1.186270e-01f, 1.402098e-02f, -6.837833e-02f, 6.421158e-02f,
  -7.325984e-02f, 3.819940e-02f, -1.040384e-02f, 7.706675e-02f, -8.037942e-03f, -2.214655e-02f, 7.080887e-02f, -1.822242e-03f,
  -1.096180e-01f, 3.934442e-02f, -1.577333e-01f, -4.648152e-02f, 3.063229e-03f, 1.078428e-01f, -1.239235e-01f, 1.871924e-01f,
  8.682068e-02f, 9.785169e-02f, 7.724660e-02f, 1.228156e-01f, 3.586843e-02f, 1.802022e-01f, 5.525570e-02f, -7.194471e-02f,
  2.283157e-01f, -1.174429e-01f, -1.753813e-01f, -3.594745e-02f, -4.872828e-01f, -2.928573e-01f, -1.503671e-02f, -6.111258e-02f,
  2.545738e-01f, -1.755200e-02f, -8.642822e-04f, -1.755514e-01f, -3.030682e-02f, -6.692807e-03f, 7.557539e-02f, 9.472553e-02f,
  -1.198156e-01f, 2.863512e-02f, -5.592807e-02f, 1.443604e-02f, 9.558949e-03f, -3.755315e-02f, -9.488594e-02f, 1.797101e-02f,
  6.052390e-02f, -8.071101e-02f, 1.505450e-01f, -9.612548e-03f, 1.022273e-01f, 1.283185e-02f, -1.451637e-02f, 3.044178e-02f,
  -1.624813e-01f, -2.658214e-02f, -2.618228e-02f, 1.234731e-02f, 8.767183e-03f, -8.578538e-03f, -1.549430e-01f, 3.001233e-02f,
  -2.802041e-01f, -2.949420e-01f, 2.943984e-02f, -1.913722e-03f, -9.334490e-02f, 1.504242e-01f, 5.380620e-02f, 2.718130e-02f,
  1.513682e-01f, -8.471170e-02f, 3.364299e-02f, 7.562641e-02f, 2.695539e-03f, 2.630011e-02f, -1.182501e-02f, -1.114928e-02f,
  1.806847e-02f, -5.974926e-02f, 7.610844e-02f, 3.098267e-02f, -7.390305e-02f, 7.236648e-02f, 6.094303e-02f, 1.335970e-02f,
  -1.373929e-03f, -2.686222e-02f, -2.218775e-01f, 6.809022e-02f, 3.099032e-02f, 1.004544e-01f, -1.030740e-01f, 2.536907e-02f,
  4.878840e-04f, -8.302805e-02f, -3.799476e-02f, 8.463513e-02f, 1.036724e-02f, 4.576321e-02f, 2.557308e-02f, 7.290410e-02f,
  -8.954814e-02f, 1.330599e-01f, 6.718564e-02f, -3.590112e-03f, -6.396741e-02f, 8.905017e-02f, 4.003046e-02f, -1.192617e-02f,
  -7.968533e-02f, -1.768753e-02f, 3.380637e-03f, -4.680846e-02f, -1.057813e-01f, 4.018008e-02f, 1.147345e-01f, -8.581235e-02f,
  -9.885000e-02f, -2.613246e-02f, -1.517978e-01f, 1.410112e-02f, -4.153367e-02f, -5.558852e-02f, -9.188113e-02f, 1.133711e-01f,
  1.534946e-02f, 6.629308e-02f, 3.916553e-02f, 6.329925e-02f, -9.244154e-02f, -9.935371e-02f, 3.410679e-02f, -4.176883e-02f,
  -4.097132e-02f, 3.868797e-02f, -3.313064e-02f, 6.792283e-02f, 1.039435e-01f, 5.740936e-02f, 6.343378e-02f, 8.220887e-02f,
  5.896610e-02f, -1.645054e-03f, -1.995579e-02f, 1.963020e-02f, 2.098829e-02f, 3.341462e-02f, -8.756209e-02f, -2.089471e-02f,
  7.224451e-02f, 3.017696e-02f, 8.572794e-02f, 1.572355e-03f, 6.053678e-02f, 4.453305e-02f, -2.644217e-03f, 9.113492e-02f,
  9.085393e-02f, 1.910443e-02f, -1.319358e-02f, -1.873132e-02f, -1.079456e-05f, 1.695486e-03f, 5.245284e-02f, -4.790393e-02f,
  7.872353e-04f, 2.471187e-02f, 7.078674e-02f, 8.886900e-03f, 5.167295e-02f, 7.868727e-02f, 3.846850e-02f, 6.157075e-02f,
  5.035758e-02f, -6.495208e-02f, -1.109940e-01f, -8.031253e-04f, -7.283845e-02f, -1.048712e-02f, 3.616070e-02f, 9.643102e-02f,
  -2.042187e-02f, -2.138581e-02f, 1.186145e-01f, 2.635086e-01f, 5.381421e-02f, 4.996761e-02f, 8.046971e-02f, 5.909480e-02f,
  7.946375e-03f, 2.479460e-02f, 1.436538e-02f, -5.897302e-02f, -8.406369e-02f, 3.432377e-02f, -2.278799e-02f, 5.840406e-03f,
  -5.149494e-02f, -1.286415e-02f, 4.094046e-02f, 8.892069e-02f, 3.086893e-02f, -4.795832e-02f, 4.689840e-02f, 3.238591e-02f,
  -2.222648e-02f, -2.828522e-02f, -8.691275e-02f, -1.889546e-02f, 2.293773e-02f, 6.290337e-02f, 1.209304e-01f, -1.427093e-02f,
  2.031246e-02f, 1.407535e-01f, 2.383153e-02f, 8.565693e-02f, 1.044112e-01f, 7.848375e-02f, 1.348047e-01f, -4.849842e-02f,
  4.334445e-02f, 8.869650e-02f, 6.780127e-03f, -3.529222e-03f, 1.645419e-01f, 1.572007e-02f, -3.586194e-02f, 8.428519e-03f,
  1.521360e-04f, -3.838449e-02f, 3.658267e-02f, -7.076915e-02f, -8.199640e-02f, 6.579341e-02f, 4.805434e-02f, -3.961907e-02f,
  8.802662e-02f, 9.351251e-02f, -2.749697e-02f, 2.016627e-02f, -1.737264e-02f, 6.758167e-02f, -8.853397e-02f, 4.472798e-02f,
  -1.819794e-02f, -1.706481e-01f, -4.422414e-02f, 1.164973e-01f, -1.197728e-01f, -2.074979e-03f, 9.174787e-02f, -4.131438e-02f,
  4.495017e-02f, 4.206005e-02f, -6.291685e-02f, 1.115579e-02f, -4.241407e-02f, 1.947444e-03f, 2.904398e-02f, 7.058108e-02f,
  -4.949975e-03f, 4.200255e-02f, 2.167937e-02f, 9.692317e-03f, 2.532688e-02f, 1.106145e-01f, 3.736346e-02f, 3.038099e-03f,
  -7.964764e-03f, 5.057657e-02f, 5.617588e-02f, -4.368797e-02f, 1.418812e-02f, -2.109303e-02f, -1.085586e-01f, -1.335077e-02f,
  -2.633579e-02f, -9.194070e-02f, -3.902542e-02f, 2.997984e-02f, -8.264758e-02f, -4.527432e-02f, -6.983458e-02f, 8.246347e-04f,
  2.786859e-02f, 1.962259e-02f, 9.851035e-04f, 1.534586e-02f, 8.525379e-02f, -8.573944e-02f, 8.141376e-02f, 1.085494e-02f,
  6.815328e-02f, -4.286604e-02f, -2.364979e-02f, -8.285511e-02f, 4.580624e-03f, -7.602775e-03f, -2.499756e-02f, 8.492595e-02f,
  -7.047405e-03f, 7.654373e-02f, -8.558469e-02f, -4.996711e-02f, -2.696247e-02f, 3.512567e-03f, -1.481408e-01f, 5.471919e-03f,
  -5.704716e-02f, 1.064243e-01f, 6.659125e-02f, 1.141003e-02f, 6.459998e-02f, 7.600270e-02f, 9.948903e-02f, 9.854819e-03f,
  6.358259e-02f, -7.904492e-02f, 1.504164e-02f, 8.884741e-03f, 5.988016e-02f, 3.028800e-02f, 4.414481e-03f, -5.009608e-02f,
  5.969285e-03f, -6.619516e-02f, -1.869923e-03f, -2.637341e-02f, -7.029087e-03f, 2.259896e-02f, -3.796842e-02f, 9.759010e-02f,
  1.230628e-01f, 8.588295e-02f, 9.764139e-02f, -3.128416e-02f, 1.006826e-02f, -3.055060e-02f, -5.153555e-02f, -3.401695e-02f,
  1.889142e-02f, 4.463930e-02f, -3.724238e-02f, -2.609922e-02f, -1.068388e-01f, -7.034375e-02f, 3.142431e-02f, -7.028171e-02f,
  -9.866292e-03f, 3.440186e-02f, 2.375586e-02f, -2.238968e-02f, -4.407417e-02f, 2.832309e-02f, 2.844194e-02f, 3.211581e-02f,
  2.214172e-02f, -7.961541e-02f, 8.132794e-02f, -2.878651e-02f, -9.802046e-04f, 1.207176e-01f, -2.113336e-01f, -9.970318e-02f,
  -4.382183e-02f, 4.697128e-02f, -2.124609e-02f, 7.358854e-03f, 1.911606e-02f, 5.520614e-02f, 2.413491e-02f, 4.517507e-02f,
  -1.480792e-02f, 6.437900e-02f, -7.546221e-02f, -4.335336e-02f, -1.767892e-02f, 3.313301e-02f, 3.471348e-02f, 2.696967e-02f,
  -1.099973e-01f, 6.902715e-02f, -1.784339e-02f, 6.715153e-02f, -6.272572e-02f, 7.613482e-02f, -7.200649e-02f, 1.267735e-02f,
  7.304338e-02f, -5.840313e-02f, -6.054418e-03f, 1.687055e-02f, -2.230248e-02f, -3.726138e-02f, 5.220540e-02f, 2.980662e-03f,
  -5.147224e-02f, 5.079436e-02f, -2.751364e-02f, 2.962153e-02f, -3.492137e-03f, -1.645058e-02f, -3.322302e-03f, 9.780251e-03f,
  8.575941e-02f, -1.475509e-02f, -3.496191e-02f, -2.787252e-02f, 7.294323e-02f, 1.890038e-01f, 9.783310e-02f, -7.784118e-02f,
  1.389229e-01f, 3.917130e-02f, -6.418815e-02f, 8.775757e-02f, 1.120762e-01f, 5.778455e-02f, 5.547191e-02f, 1.008029e-01f,
  5.081690e-02f, 3.747340e-02f, 4.427947e-02f, 8.734787e-02f, 3.824170e-02f, -2.181667e-02f, -1.065128e-01f, -7.353049e-02f,
  2.522077e-03f, -1.433119e-03f, -2.898836e-02f, -3.962092e-02f, -3.465328e-02f, -4.380735e-02f, -7.044384e-02f, 1.139261e-01f,
  1.234709e-01f, -7.977806e-02f, -2.872753e-02f, 6.359108e-02f, -3.813450e-02f, 9.306817e-02f, 3.070769e-02f, -4.782702e-02f,
  -5.808271e-02f, -4.546556e-02f, -7.680808e-02f, -1.212863e-02f, 4.976320e-04f, 9.868438e-02f, 9.313729e-02f, -5.447708e-02f,
  7.101981e-02f, 1.613437e-02f, -1.334003e-02f, 5.577842e-03f, 9.422106e-02f, -3.182334e-02f, -1.074030e-01f, -4.623729e-02f,
  7.083945e-03f, 4.252594e-02f, -2.021899e-02f, -7.257998e-03f, -1.467266e-03f, -6.940768e-02f, -2.365306e-02f, -4.673755e-02f,
  7.181669e-02f, -3.176632e-02f, -8.810448e-02f, -1.416054e-02f, 6.917614e-02f, 5.622813e-02f, -7.786566e-02f, 1.402474e-01f,
  -3.474376e-02f, 3.748352e-02f, -3.694245e-02f, 4.879382e-02f, 4.584099e-02f, -2.313858e-02f, 3.380948e-02f, -2.208157e-03f,
  5.317634e-02f, -2.177037e-02f, -8.250979e-02f, -1.528132e-02f, -2.085320e-02f, 1.120578e-02f, 3.897027e-02f, 5.144934e-03f,
  2.305188e-02f, -2.969496e-02f, 1.078668e-02f, -1.743050e-02f, 2.259468e-02f, 9.154373e-02f, -1.133962e-02f, 6.407338e-03f,
  7.572746e-02f, 4.026253e-02f, -4.111227e-02f, -1.867471e-02f, 3.256204e-02f, 3.861786e-02f, -3.804893e-02f, -3.662202e-02f,
  4.164038e-02f, -3.818771e-02f, -5.191721e-02f, -7.132294e-03f, -2.675207e-02f, -6.841594e-02f, 4.530387e-02f, -4.650599e-02f,
  8.569518e-02f, 1.065010e-01f, -5.074875e-02f, 4.020186e-02f, -4.322728e-02f, -6.241093e-02f, 6.537683e-02f, 6.110137e-02f,
  6.901975e-02f, 5.051517e-02f, -4.586773e-02f, 5.264454e-03f, 6.510763e-02f, -3.405492e-02f, -5.646751e-03f, -5.447109e-02f,
  -1.126745e-01f, 9.340725e-02f, 3.139775e-02f, 3.241509e-02f, 2.252953e-04f, 1.110105e-01f, 3.259011e-02f, 4.261309e-02f,
  2.807262e-02f, -2.367770e-02f, 5.519398e-02f, 3.319728e-02f, 7.385047e-02f, -3.050838e-02f, 5.107701e-02f, 2.705906e-02f,
  1.585847e-03f, 8.618105e-02f, 8.133763e-02f, 9.785803e-02f, -7.348271e-02f, 1.034803e-02f, 7.279075e-02f, -1.698164e-02f,
  3.488088e-02f, -4.404046e-02f, 2.801427e-02f, 1.088795e-02f, -1.974037e-01f, -1.813305e-01f, -1.988105e-01f, -3.552764e-02f,
  -1.184428e-01f, -1.783375e-01f, 1.722438e-02f, -2.809170e-02f, -1.410521e-02f, 3.346286e-02f, -4.695922e-02f, 5.606444e-04f,
  7.301223e-02f, -7.661883e-02f, -6.356884e-02f, 8.185553e-02f, 2.397403e-02f, -6.454805e-02f, -3.659188e-02f, 2.394506e-02f,
  3.580119e-02f, -5.019628e-02f, -3.537161e-02f, -4.345576e-02f, -2.385378e-02f, 9.524004e-02f, 5.625652e-02f, -6.871624e-02f,
  -9.753408e-02f, -2.340223e-02f, -9.387899e-02f, -1.006674e-01f, -4.574307e-02f, -4.078845e-02f, -6.842402e-02f, -1.405643e-02f,
  -4.860528e-02f, 8.462337e-02f, -4.846511e-02f, -1.356232e-01f, -3.286071e-01f, -3.153336e-02f, 8.704977e-03f, -2.772283e-02f,
  -4.857309e-03f, -1.578260e-02f, -7.504776e-02f, -4.517579e-02f, -1.327353e-03f, 1.170259e-02f, 8.395762e-04f, 6.884341e-03f,
  9.285438e-02f, -6.040555e-02f, -1.165435e-01f, 3.902400e-02f, 1.163311e-01f, 1.046883e-02f, -1.588831e-02f, 8.071767e-02f,
  -2.407600e-02f, 1.167038e-01f, 2.276650e-02f, -4.590817e-02f, -1.338891e-01f, -4.960298e-02f, -4.760079e-02f, -6.099082e-02f,
  8.130271e-02f, -9.842598e-02f, 5.399285e-02f, -4.756444e-02f, -3.218715e-02f, 3.708003e-02f, -1.045322e-01f, 2.532626e-02f,
  -2.677650e-02f, -8.306449e-03f, 2.824797e-03f, 2.463918e-02f, 3.298083e-02f, 3.531476e-03f, 6.330973e-03f, 5.116706e-02f,
  -7.057737e-02f, -5.586068e-02f, 2.569399e-02f, -7.254244e-02f, -5.073711e-03f, 3.007479e-02f, -2.491816e-02f, 1.981027e-02f,
  -6.624559e-02f, 5.891428e-02f, 5.252111e-02f, -6.879125e-02f, 1.755081e-02f, -8.082853e-02f, 4.003825e-02f, 2.105649e-02f,
  -7.047474e-02f, -5.810936e-02f, 7.291756e-02f, 8.995111e-02f, 1.881315e-02f, 5.613002e-02f, -3.947424e-02f, 2.972056e-02f,
  1.889063e-03f, -1.338138e-02f, -7.235332e-02f, 2.876094e-01f, -4.888086e-02f, -1.093864e-02f, -6.343717e-02f, -4.246405e-02f,
  -4.100290e-02f, -5.959138e-02f, -1.863921e-01f, -1.022454e-02f, 1.387018e-01f, 5.795425e-02f, -4.901111e-02f, 6.926142e-02f,
  1.825413e-01f, 7.337568e-03f, 1.846336e-02f, -7.194009e-02f, 5.140230e-02f, 1.336746e-01f, -2.529359e-02f, 2.556048e-01f,
  -1.580321e-02f, -1.634489e-01f, -1.395350e-02f, -1.202197e-02f, -7.473928e-02f, -7.985237e-02f, 1.481937e-01f, -8.951921e-04f,
  3.592628e-02f, 1.465349e-02f, 1.234709e-01f, -4.672486e-02f, -7.162723e-02f, 6.811775e-03f, 3.996758e-02f, 1.326021e-02f,
  -4.413155e-03f, -5.187415e-03f, 4.589677e-02f, 6.022931e-02f, 3.033302e-02f, 2.444955e-03f, -2.465907e-03f, -1.343128e-02f,
  4.321615e-02f, -9.660359e-02f, -1.192484e-01f, -1.083689e-02f, 1.118854e-01f, 6.883785e-02f, 4.072405e-02f, -1.040258e-01f,
  -9.564397e-02f, -4.177039e-03f, -7.267773e-02f, 2.706480e-03f, -1.888488e-02f, 3.399066e-03f, 3.621124e-02f, -4.729713e-04f,
  9.020871e-03f, 3.781853e-02f, 3.602207e-02f, -5.701790e-03f, -7.286708e-02f, 3.485099e-02f, -9.404073e-02f, -1.243231e-02f,
  1.874400e-02f, 6.722501e-02f, 6.906858e-02f, -6.613982e-02f, 4.562607e-02f, -6.967745e-02f, 8.270156e-02f, -5.253981e-02f,
  8.218990e-02f, -6.660552e-02f, -3.474340e-01f, -3.558062e-02f, 6.170698e-02f, -2.407788e-02f, 6.628301e-02f, 6.019249e-02f,
  -1.969466e-01f, 5.065511e-02f, 3.247720e-02f, 5.170026e-02f, -2.517624e-02f, -1.582242e-01f, 1.421465e-02f, -2.907129e-01f,
  3.186059e-02f, -1.246882e-01f, 5.809287e-02f, -5.460965e-02f, -1.015708e-01f, -8.105469e-02f, 3.745887e-02f, 7.006584e-02f,
  8.272085e-02f, 3.049275e-02f, -1.284762e-01f, 4.918596e-03f, 6.689786e-02f, -5.844682e-02f, 4.745957e-02f, 4.970229e-02f,
  -7.127666e-02f, -3.104617e-02f, -7.157046e-02f, -1.916701e-03f, -5.749599e-02f, -6.296366e-02f, -7.784433e-02f, -9.162469e-02f,
  -1.434076e-01f, -1.131720e-01f, -1.025092e-01f, -8.406456e-02f, -7.176737e-03f, 2.952724e-02f, -4.257785e-02f, -9.405452e-02f,
  4.826524e-04f, -4.840957e-04f, -1.538640e-02f, -1.333637e-01f, 3.013288e-02f, -4.338082e-02f, -2.092629e-02f, 5.764097e-02f,
  3.675890e-02f, -1.650453e-02f, 3.810580e-02f, 5.066704e-02f, -8.051659e-02f, -4.790434e-02f, -9.144888e-05f, -3.295858e-02f,
  -8.577144e-02f, -2.414280e-01f, -8.940977e-02f, 2.877322e-02f, 7.231377e-02f, 1.037506e-01f, -5.824605e-02f, 3.659024e-02f,
  -6.833137e-02f, -2.869800e-03f, -5.136209e-02f, -7.732281e-02f, 7.127634e-02f, 9.505497e-02f, -2.367242e-02f, 2.589728e-02f,
  -7.575250e-02f, -5.801369e-02f, -3.319645e-02f, -1.331855e-02f, 4.285802e-02f, 5.112766e-03f, -9.809186e-02f, 2.327434e-02f,
  -2.054633e-02f, 4.571099e-02f, -6.193427e-02f, 1.136382e-02f, -1.018859e-01f, 3.318343e-02f, 7.449532e-02f, 1.365671e-02f,
  8.011987e-02f, -8.241143e-02f, 8.529039e-02f, -2.100551e-02f, -8.203862e-02f, 9.647655e-03f, -1.007205e-02f, 7.979681e-02f,
  -2.076705e-02f, -1.770540e-02f, -1.011622e-02f, 3.578336e-02f, -2.946090e-02f, 1.160278e-02f, -2.075914e-03f, -5.417093e-02f,
  1.473034e-02f, -9.895114e-02f, -1.745047e-02f, 4.073994e-02f, 2.831857e-02f, 2.180576e-02f, 6.944573e-03f, 6.124581e-02f,
  7.783657e-02f, -6.009100e-02f, 5.539371e-03f, 2.014024e-03f, 7.195192e-02f, -6.673527e-02f, -6.157504e-02f, 3.608545e-02f,
  4.953218e-02f, -3.352964e-02f, 1.682006e-01f, -3.703012e-02f, 9.555016e-02f, -5.739863e-02f, -3.732809e-02f, 3.267526e-02f,
  1.566907e-02f, 4.330794e-02f, 1.497637e-02f, -9.933758e-02f, -1.283507e-02f, -1.267881e-01f, -5.518096e-04f, -5.170059e-02f,
  -1.809783e-02f, -5.598744e-02f, -1.339977e-02f, -3.168414e-02f, 5.222254e-02f, 6.352727e-02f, -6.050805e-02f, 2.529086e-02f,
  -5.086323e-02f, -4.688242e-02f, -1.825842e-02f, -8.736485e-02f, -1.342253e-02f, -5.771805e-02f, 1.699070e-02f, 5.391946e-02f,
  -3.611980e-02f, -1.118645e-01f, -1.780314e-02f, -5.098305e-02f, -1.145856e-03f, 5.761160e-02f, 3.348470e-02f, 5.360089e-02f,
  3.235276e-02f, 3.101882e-02f, 1.444090e-03f, -8.024586e-02f, 1.731310e-02f, -1.148287e-01f, -4.899927e-02f, -6.506288e-02f,
  -3.410318e-02f, 6.952809e-03f, -2.763444e-02f, 2.091954e-01f, 5.352966e-03f, 4.453978e-02f, 4.993322e-02f, 5.024276e-02f,
  7.652531e-02f, -6.630065e-02f, 3.943919e-02f, -7.796931e-02f, 8.034761e-02f, -2.929904e-02f, -2.569414e-02f, 1.598600e-01f,
  4.331375e-03f, 6.967509e-02f, 8.536118e-02f, 3.903210e-02f, -7.854208e-02f, -1.590561e-01f, -1.499828e-02f, -6.614143e-02f,
  1.049333e-01f, 9.530932e-05f, -4.103327e-02f, -1.962375e-02f, 1.143904e-01f, 6.392764e-03f, -5.376580e-02f, 1.991853e-03f,
  4.080836e-02f, -1.939524e-01f, 1.302565e-02f, 1.745057e-01f, 3.399633e-02f, 9.485799e-02f, 4.711532e-02f, 8.260781e-02f,
  -2.906046e-04f, -1.653795e-02f, 5.553897e-02f, 4.959751e-02f, 3.339618e-02f, -3.408233e-02f, 4.574147e-02f, -4.161084e-02f,
  1.011431e-01f, -2.007284e-03f, -7.762232e-02f, 6.548122e-02f, -5.632243e-02f, -1.045320e-01f, 4.103022e-02f, 5.165873e-02f,
  -2.164323e-02f, 8.404341e-02f, -7.044961e-02f, -4.653129e-03f, 6.848762e-03f, 6.810154e-02f, 6.507573e-02f, 4.796616e-02f,
  -1.072920e-01f, -5.799833e-03f, -2.390101e-02f, -3.466118e-03f, -7.084591e-02f, -2.986125e-02f, 2.762854e-02f, -2.658150e-02f,
  -6.501899e-02f, -5.825996e-02f, -9.083389e-02f, -3.669341e-02f, -5.461927e-02f, -2.850750e-02f, 6.856925e-02f, 2.756869e-02f,
  -5.339793e-02f, 2.428407e-03f, 8.445664e-02f, 6.559958e-02f, 5.059967e-03f, 5.027279e-02f, -1.597504e-02f, -1.208645e-01f,
  2.872850e-02f, 6.400109e-02f, 4.842767e-02f, -7.119847e-02f, -5.610870e-02f, 4.405532e-02f, 4.060466e-03f, -5.024275e-02f,
  -6.680904e-02f, -4.876916e-02f, 6.283848e-02f, 2.007733e-02f, -6.525976e-02f, -4.526155e-02f, 1.272405e-01f, 7.298131e-02f,
  1.883442e-02f, 1.390784e-01f, -5.249388e-02f, 1.411101e-01f, 9.997065e-02f, -4.535136e-02f, -4.515117e-02f, -8.102769e-02f,
  -1.526598e-03f, -1.669577e-02f, 6.345744e-02f, 8.781346e-03f, -2.134945e-02f, -2.278191e-02f, 9.330630e-02f, -1.695417e-03f,
  -2.266325e-01f, -3.322916e-02f, -7.913514e-02f, -1.119504e-01f, 1.244171e-02f, 1.289259e-01f, -7.239831e-02f, -7.841180e-02f,
  -3.402078e-02f, -3.673673e-01f, -3.799584e-02f, 5.769171e-02f, 4.553377e-02f, -4.797403e-02f, -9.408780e-03f, -2.420769e-02f,
  6.118731e-02f, 5.746012e-02f, 1.522133e-03f, -7.818490e-02f, 1.871520e-02f, -1.846210e-01f, -1.917151e-02f, -1.555454e-01f,
  -7.286956e-02f, 1.208426e-01f, -4.339345e-02f, 1.676249e-02f, -6.819341e-02f, -2.647601e-02f, -1.179362e-01f, -3.696471e-02f,
  -1.226577e-01f, -1.511296e-02f, 1.277442e-01f, -8.027747e-02f, 9.576792e-02f, -5.210036e-02f, -1.861867e-02f, -1.520193e-02f,
  -4.554592e-02f, 7.026530e-02f, -6.046173e-02f, 5.926480e-02f, 4.101593e-02f, 7.883628e-02f, -3.435380e-02f, -7.346392e-02f,
  -7.716728e-03f, -2.367530e-02f, -4.421470e-02f, 2.236531e-02f, 3.222421e-02f, -4.685904e-02f, -9.022211e-02f, -4.262992e-02f,
  3.553411e-02f, 6.355065e-02f, 6.811218e-02f, -7.031108e-02f, -1.225711e-01f, -7.368971e-02f, -7.737747e-02f, -3.309674e-03f,
  4.298906e-02f, -4.890870e-02f, 1.895263e-02f, -7.677692e-02f, -2.018651e-01f, 4.652566e-02f, -2.320981e-01f, 2.851086e-02f,
  -3.422717e-02f, 4.001493e-02f, 1.850257e-02f, 8.905584e-02f, -2.086967e-02f, 1.067117e-02f, -4.843169e-02f, 2.202245e-02f,
  2.516234e-02f, -1.536447e-02f, -1.816826e-02f, 1.949207e-02f, 6.019252e-02f, 4.918197e-02f, -6.334541e-02f, -8.595132e-02f,
  2.637438e-02f, -5.991827e-02f, -1.007806e-01f, -5.605890e-02f, 6.845545e-03f, -9.004521e-02f, 3.428134e-02f, -4.033870e-02f,
  -9.599003e-02f, 2.643923e-02f, -6.496155e-02f, 1.098754e-01f, -5.940250e-02f, -1.849596e-02f, -8.062108e-02f, -1.749500e-02f,
  -7.840761e-02f, 4.395090e-02f, 7.782955e-02f, 1.630133e-02f, 8.229667e-02f, 5.634862e-02f, 4.595795e-02f, -5.309536e-02f,
  -4.848311e-02f, 1.026255e-01f, -2.935992e-02f, -4.423901e-02f, 5.414199e-02f, 2.197323e-01f, -5.863313e-02f, 6.491174e-03f,
  -1.014511e-01f, -1.159795e-02f, -1.256502e-01f, -3.863514e-02f, -4.178914e-02f, 5.122063e-03f, 9.645833e-02f, -2.441116e-02f,
  4.608613e-02f, -3.145586e-01f, 4.784273e-02f, 1.705672e-01f, 6.419507e-02f, 3.578675e-01f, -3.849955e-02f, -1.833974e-01f,
  -1.088202e-02f, -4.278695e-03f, -1.336883e-01f, -5.939335e-02f, -9.436996e-02f, -9.908506e-02f, 1.603428e-03f, -5.366243e-02f,
  -4.451079e-02f, -5.899700e-02f, 5.381770e-02f, 4.378199e-02f, -7.003934e-02f, -2.919715e-02f, -5.596642e-02f, -3.021236e-02f,
  6.813846e-02f, -9.287842e-02f, 6.050816e-02f, 2.779900e-02f, -7.854068e-02f, 4.551485e-05f, 7.368650e-02f, 9.340283e-03f,
  -1.369369e-02f, 4.327648e-02f, 1.288072e-01f, -8.865736e-02f, -9.212016e-02f, 4.686673e-02f, 3.400099e-02f, 1.146115e-01f,
  -1.480391e-02f, 7.015657e-03f, -1.943817e-02f, -3.611668e-01f, -9.070101e-02f, -6.627420e-02f, -6.379474e-03f, 4.836170e-02f,
  -4.557229e-02f, 3.516135e-02f, -5.802936e-02f, -5.772090e-02f, 4.148035e-02f, -1.623097e-04f, -2.589341e-02f, -1.421465e-02f,
  3.124407e-02f, -4.959673e-02f, -7.651588e-02f, -2.660152e-03f, -8.813464e-02f, -6.433760e-02f, -1.208236e-02f, -3.667698e-02f,
  1.091448e-02f, -8.514018e-02f, -3.815059e-02f, 2.638309e-02f, -1.000715e-01f, -1.418319e-02f, 1.180866e-02f, 7.980667e-02f,
  1.304519e-01f, 1.048859e-01f, 8.042247e-02f, 3.323716e-01f, -1.210054e-02f, -1.027970e-01f, 2.132562e-01f, 1.029587e-01f,
  -1.281009e-02f, -1.267201e-01f, -7.478222e-02f, 1.407575e-01f, -5.755227e-02f, 5.475870e-02f, 1.564536e-02f, -1.219640e-01f,
  1.956447e-01f, -5.723455e-02f, 2.381137e-02f, -3.055578e-02f, 1.045999e-02f, 1.939572e-01f, 9.926081e-02f, 3.516799e-02f,
  -6.410665e-02f, -3.854312e-02f, 6.734712e-02f, -1.231238e-01f, 6.690555e-02f, 1.308755e-01f, 2.323746e-01f, 6.545684e-02f,
  4.288447e-02f, 2.038749e-02f, 2.566375e-02f, 7.251217e-03f, 4.998618e-02f, 9.947287e-02f, -6.917044e-02f, -3.952472e-02f,
  1.302191e-01f, 9.670027e-02f, -6.395327e-02f, -2.256754e-02f, -5.388806e-02f, -3.710351e-02f, 2.932891e-02f, 1.444433e-02f,
  1.023236e-01f, 1.155915e-01f, 1.541439e-02f, -1.132695e-02f, 2.261498e-02f, 9.676566e-05f, 1.260152e-01f, -1.808904e-02f,
  3.403697e-02f, -5.345535e-02f, -4.591884e-02f, 1.314309e-02f, -1.054658e-01f, 6.362375e-02f, 2.049638e-02f, -9.851992e-02f,
  1.159510e-02f, 7.748377e-02f, -2.334069e-02f, -8.646069e-03f, 8.117373e-03f, -8.270039e-02f, 8.447838e-02f, -2.730577e-02f,
  -6.915837e-02f, -1.093191e-03f, -2.015807e-02f, 3.928035e-03f, -2.119950e-03f, 1.745146e-02f, 8.576254e-02f, -6.612760e-03f,
  -6.687730e-02f, -2.248885e-01f, 5.636519e-02f, 3.659504e-02f, 6.791364e-02f, 4.533186e-02f, 3.011318e-02f, -1.529495e-01f,
  1.182450e-01f, 2.327034e-01f, 3.159964e-01f, 1.766367e-01f, 1.278954e-01f, 2.109117e-01f, 8.708211e-02f, 6.897680e-02f,
  1.431023e-01f, -8.293548e-03f, 1.267842e-01f, 1.013770e-01f, -1.378607e-02f, 9.173410e-02f, 1.057638e-01f, 3.330139e-02f,
  -2.810826e-02f, 1.185533e-01f, -4.396482e-02f, 7.315513e-03f, 2.501132e-02f, -5.135353e-02f, 3.923679e-02f, -8.059505e-02f,
  -8.445389e-03f, 2.424472e-02f, -5.412183e-02f, 2.106245e-03f, 8.337936e-02f, 9.627628e-03f, 2.284021e-03f, -2.976015e-02f,
  -1.775342e-02f, -7.269304e-02f, -1.002716e-01f, -9.090056e-02f, 2.456290e-03f, -3.045851e-02f, 7.621734e-02f, 4.482566e-02f,
  1.110310e-01f, 6.245520e-02f, 6.423040e-02f, 3.406198e-02f, -1.241644e-02f, 3.016415e-02f, -1.651046e-02f, -4.541404e-02f,
  -4.183242e-02f, -6.154199e-02f, -8.996458e-03f, -6.233140e-02f, -7.106546e-02f, 7.601009e-02f, 6.128315e-04f, 5.630076e-02f,
  -2.440234e-02f, -3.415117e-02f, -4.782438e-02f, -4.122353e-02f, 4.549663e-02f, -5.713624e-02f, 8.070863e-02f, 7.570790e-02f,
  7.243741e-02f, 2.402872e-01f, 3.308195e-01f, 3.287963e-01f, -9.936254e-03f, 3.468447e-03f, 8.449624e-02f, -1.281595e-01f,
  8.945592e-02f, 9.097724e-02f, -8.873465e-03f, -4.856407e-02f, 1.432149e-02f, 5.533097e-02f, 6.904162e-02f, 7.533761e-03f,
  8.851767e-02f, -9.056199e-02f, -3.163657e-02f, -1.069312e-01f, -1.085454e-01f, -4.926256e-02f, -1.992477e-02f, -5.448475e-02f,
  1.120963e-01f, 8.619970e-02f, 1.252609e-01f, 3.458842e-01f, -1.365558e-03f, 7.579581e-03f, -4.481353e-02f, -1.797410e-02f,
  -8.361899e-03f, -9.217598e-03f, 1.946271e-02f, 4.387337e-02f, -4.340437e-03f, -7.256536e-02f, 7.585106e-02f, -2.897733e-02f,
  -4.770395e-02f, -1.030408e-03f, -4.085622e-02f, -5.530456e-02f, -9.906469e-02f, 6.400900e-04f, -3.075166e-02f, -4.640174e-02f,
  8.747672e-02f, 5.331516e-02f, 8.320224e-03f, -2.569596e-02f, 6.902191e-02f, -5.857709e-02f, -2.714297e-02f, -1.928433e-01f,
  -4.515214e-02f, -5.766638e-02f, -1.525181e-01f, -5.333240e-02f, -8.835963e-03f, 5.775601e-02f, 5.154051e-03f, -1.073223e-02f,
  4.822706e-02f, 4.792802e-02f, 6.641372e-02f, -5.830893e-02f, 7.168516e-02f, -6.610501e-02f, -9.588893e-02f, -9.459437e-02f,
  -4.668891e-02f, 4.188996e-03f, -4.046275e-02f, -7.331508e-02f, 3.892570e-03f, 4.507665e-02f, 5.352432e-02f, -7.302133e-02f,
  2.334224e-02f, 1.031351e-02f, 5.379107e-02f, -9.177656e-02f, 9.819666e-02f, -4.967699e-02f, -6.023929e-02f, -6.013443e-03f,
  9.053396e-02f, -8.287589e-02f, 3.421724e-02f, -5.404188e-02f, -3.907754e-02f, 1.431633e-02f, -2.935248e-02f, 2.011024e-02f,
  6.115668e-02f, 1.844458e-02f, 1.086298e-02f, -4.744808e-02f, 3.812995e-02f, 4.541116e-02f, -2.983922e-02f, -1.094238e-01f,
  6.452731e-02f, 1.681101e-02f, 4.518416e-02f, 1.273573e-01f, 5.013341e-02f, 6.189477e-02f, -9.137249e-06f, -8.149283e-02f,
  1.832574e-02f, -3.108071e-02f, 5.424404e-02f, 3.504920e-02f, 2.022800e-02f, 7.167555e-02f, -5.692835e-02f, -3.898992e-03f,
  -2.161325e-02f, -2.349092e-02f, 2.126361e-01f, 8.429206e-02f, -1.879731e-01f, 1.018237e-01f, -1.269928e-01f, 9.166957e-02f,
  4.687354e-02f, -7.127804e-02f, -1.908806e-02f, -2.803804e-02f, 1.239843e-01f, 1.775244e-03f, -3.646862e-02f, -1.922766e-02f,
  8.494241e-02f, -5.863048e-02f, -2.299361e-02f, 5.874411e-02f, 9.546945e-02f, -5.295641e-02f, 5.749774e-02f, 1.275005e-02f,
  -1.100749e-01f, 7.111979e-02f, -4.987657e-02f, 4.303699e-02f, 2.498671e-02f, -5.736885e-02f, 3.599250e-02f, 2.327248e-02f,
  4.359351e-02f, -3.639743e-02f, 2.172683e-02f, 9.220830e-02f, -2.818965e-02f, 8.010794e-02f, 4.870342e-02f, 9.946243e-02f,
  2.344999e-02f, 2.093383e-03f, 4.056181e-02f, 1.375751e-01f, 1.852773e-01f, 3.502306e-01f, 1.412495e-01f, 4.685073e-02f,
  2.581999e-02f, 2.946784e-01f, 6.459150e-02f, -1.362180e-01f, -1.011511e-01f, -2.145598e-02f, -2.443914e-02f, -1.266888e-01f,
  -1.087832e-01f, -2.841481e-02f, -2.976564e-02f, -7.239597e-02f, -1.795325e-02f, 6.496780e-02f, -6.779733e-02f, -9.737986e-02f,
  5.994115e-02f, -4.381460e-02f, 4.476215e-02f, -3.837320e-02f, -7.220120e-02f, -1.954287e-02f, 7.362006e-02f, 3.865042e-03f,
  -1.020009e-01f, 1.177239e-02f, 7.895209e-02f, 1.095617e-02f, -1.073347e-01f, 3.494071e-03f, -9.563894e-02f, 1.547803e-01f,
  -5.643911e-02f, -6.599242e-02f, 8.591644e-02f, -1.625028e-02f, 3.439482e-02f, 4.534461e-02f, -9.535494e-02f, -3.505570e-02f,
  2.432587e-02f, -7.248035e-02f, -7.523879e-02f, -4.189911e-02f, 3.459461e-04f, -3.634931e-02f, -1.471388e-01f, -9.122770e-02f,
  -1.010712e-01f, -9.172382e-02f, -4.988009e-02f, 2.763430e-02f, 4.970301e-03f, -2.629845e-02f, -1.962638e-03f, 1.705385e-03f,
  -4.173332e-02f, 4.297153e-02f, -3.279541e-02f, -9.006795e-02f, -1.429102e-01f, 1.066609e-01f, -1.309419e-02f, 1.495979e-03f,
  1.675095e-01f, -4.062258e-02f, 1.044955e-01f, 5.107441e-02f, 2.363637e-02f, -4.185393e-02f, -8.640918e-03f, -1.427377e-02f,
  -1.992992e-02f, 7.282191e-02f, 8.214299e-02f, 5.162911e-02f, -7.833762e-02f, 3.137415e-02f, 2.870733e-02f, -5.170661e-03f,
  6.023890e-02f, 1.205655e-01f, -1.744812e-01f, 4.162363e-02f, 1.840185e-01f, 2.625740e-02f, 2.197921e-02f, -4.521251e-02f,
  -2.218277e-01f, 1.232921e-01f, 2.497852e-02f, -1.107294e-01f, 3.768216e-02f, 7.607038e-02f, 7.293243e-02f, -1.653610e-03f,
  1.172091e-01f, -1.587719e-02f, 3.995768e-02f, 1.027099e-01f, 6.437071e-02f, 1.337037e-01f, 8.380754e-02f, -1.230815e-01f,
  1.160602e-01f, 6.831178e-02f, 3.192914e-02f, -8.139459e-02f, -6.095312e-02f, -7.291722e-02f, 3.678256e-02f, 9.312903e-02f,
  -1.573369e-03f, -3.533798e-02f, -3.632968e-02f, 7.339703e-02f, 1.053072e-01f, 7.414672e-02f, -9.855415e-03f, 5.415508e-02f,
  1.366293e-01f, -1.400938e-01f, 7.030187e-02f, 1.355022e-02f, 5.984062e-02f, 2.059902e-02f, 1.679146e-02f, -5.077877e-02f,
  -2.390319e-02f, -2.399130e-02f, 7.218084e-02f, 7.306198e-02f, -4.564038e-03f, 4.957124e-02f, 4.122379e-02f, -9.588575e-02f,
  -1.720421e-02f, -3.579034e-03f, 1.038717e-01f, -1.214197e-02f, 1.661136e-02f, 6.810203e-02f, 8.233930e-02f, -9.759327e-02f,
  1.870733e-02f, 2.630463e-02f, 4.239264e-02f, 1.734295e-04f, 6.088621e-02f, 3.845165e-01f, 3.373019e-01f, 2.340952e-01f,
  4.723654e-01f, 5.505163e-02f, 8.850340e-02f, 3.868108e-01f, 1.014021e-01f, 5.994346e-03f, -3.071833e-02f, -4.258391e-03f,
  -3.466554e-02f, -2.228445e-02f, -5.055442e-02f, -5.484092e-02f, 7.954072e-02f, 7.001622e-02f, -3.076708e-02f, -2.578654e-02f,
  -1.588603e-01f, -9.994469e-03f, -2.176711e-02f, -7.810044e-02f, 8.935501e-02f, -3.471656e-02f, -4.188341e-02f, 7.366055e-02f,
  1.648467e-01f, -5.342681e-02f, -3.561052e-02f, 1.069030e-01f, 1.464854e-01f, -2.376464e-01f, 2.400009e-01f, 6.739065e-02f,
  7.457162e-02f, 4.582055e-02f, 1.070518e-01f, 1.525658e-01f, 4.453864e-01f, 2.307185e-01f, -3.147363e-02f, 4.171681e-02f,
  1.211447e-01f, -3.573294e-02f, -8.221339e-03f, -7.841381e-02f, -3.825017e-02f, -6.710710e-02f, -1.147051e-02f, -3.833321e-02f,
  -1.551206e-01f, -2.322195e-02f, 9.422833e-02f, 5.571334e-02f, -1.340787e-01f, -8.354521e-02f, 1.049356e-01f, -5.646762e-02f,
  -9.217142e-02f, -1.060283e-01f, -4.467270e-02f, 1.585314e-01f, 1.585585e-02f, 1.209111e-01f, 6.627917e-02f, 9.651544e-02f,
  7.533529e-02f, 1.721952e-02f, 1.909447e-02f, -1.120292e-01f, 2.735269e-02f, 1.048855e-01f, 6.496447e-02f, -4.028483e-02f,
  1.318771e-02f, -1.334703e-01f, 1.114058e-01f, -3.514044e-02f, -1.969623e-02f, 1.152929e-01f, 2.388591e-03f, 1.029396e-02f,
  -1.582834e-02f, 1.216063e-01f, 1.557344e-02f, 1.174272e-01f, -2.350001e-02f, -5.566649e-02f, -1.757729e-02f, -2.897441e-03f,
  -2.259250e-02f, -5.998143e-02f, -4.206447e-02f, -2.312196e-02f, -1.456657e-01f, 5.849805e-02f, -2.493900e-02f, -9.155638e-03f,
  -5.937947e-03f, -1.298024e-01f, 6.252851e-03f, 1.896035e-02f, -1.003715e-01f, 6.040983e-02f, 4.138099e-02f, -4.856920e-02f,
  2.263587e-01f, 7.930624e-02f, -1.973521e-02f, 4.726233e-02f, 4.962229e-02f, 1.259776e-02f, 1.411776e-01f, -3.160850e-02f,
  -6.288823e-02f, -1.038945e-01f, -3.197473e-02f, -5.905543e-02f, -7.387052e-02f, 6.236433e-02f, -8.647673e-03f, -2.971221e-02f,
  7.947286e-03f, 8.424748e-02f, -1.769073e-01f, 1.549074e-01f, -1.070212e-01f, -3.506974e-02f, -8.237270e-03f, 1.017701e-01f,
  6.926124e-02f, -2.384239e-02f, 8.262584e-02f, 5.316299e-02f, 1.563727e-01f, 3.646696e-03f, 5.277205e-02f, 2.774029e-02f,
  -6.383242e-02f, 7.650798e-02f, 5.874974e-02f, -1.037791e-01f, 1.531851e-02f, -3.783918e-02f, 6.560392e-03f, 2.778769e-02f,
  -7.243722e-02f, 4.279400e-02f, -1.168474e-02f, -3.119532e-02f, -6.514393e-02f, -3.615646e-02f, 3.411611e-03f, -3.475415e-02f,
  -4.377302e-02f, 7.438280e-03f, 1.796192e-02f, -2.270691e-02f, 6.107148e-02f, -2.202928e-02f, 1.671755e-01f, -1.159208e-01f,
  -1.256106e-01f, 5.949283e-02f, -2.627015e-02f, -6.303691e-02f, -1.629529e-01f, -4.452769e-02f, 3.821546e-02f, -1.953572e-01f,
  -4.836402e-02f, 3.281905e-03f, -4.943038e-02f, 8.172651e-02f, 1.355962e-02f, 2.496561e-02f, -2.890537e-01f, 1.202396e-01f,
  6.410725e-02f, 2.244538e-02f, 6.412684e-02f, 1.554201e-02f, -4.657345e-02f, 8.719554e-03f, -6.421115e-02f, 4.555035e-02f,
  7.409475e-02f, 1.084355e-01f, 1.211098e-01f, -1.126459e-02f, -1.039304e-01f, 1.044766e-01f, 6.077539e-02f, -1.731181e-01f,
  -1.606767e-02f, 1.457129e-02f, 4.783067e-01f, 1.770964e-01f, 1.178068e-01f, 1.061429e-01f, 1.760052e-02f, -3.927026e-02f,
  -2.344106e-02f, -1.471906e-01f, -2.819488e-01f, 9.785749e-02f, 6.637234e-02f, -9.112566e-02f, 6.503211e-02f, -9.369773e-03f,
  -5.285564e-03f, 1.321275e-01f, -7.273001e-02f, -1.509051e-01f, 2.529084e-02f, 3.989979e-02f, -2.628733e-02f, -3.977237e-02f,
  -3.144602e-03f, 3.871668e-02f, -7.098975e-03f, 5.143355e-02f, -2.072437e-02f, 9.596630e-02f, -2.954725e-01f, 5.752770e-02f,
  2.613321e-02f, -4.768279e-02f, 3.094628e-02f, -3.366567e-02f, -2.003212e-01f, -1.106393e-02f, 1.263699e-01f, -2.361428e-02f,
  -2.420849e-02f, -4.891144e-02f, 6.530458e-02f, -9.355261e-02f, -1.764158e-01f, -2.283748e-03f, 9.544937e-02f, -7.489876e-02f,
  -4.718453e-02f, 6.009455e-02f, 2.835664e-02f, -4.848480e-03f, -4.169779e-02f, -7.277148e-02f, -5.448641e-02f, -4.989695e-02f,
  9.582890e-02f, -8.540992e-02f, 2.657436e-02f, -1.044163e-01f, -8.932150e-02f, -5.452354e-02f, -2.982444e-02f, 5.178112e-02f,
  -9.187042e-02f, 1.469490e-01f, -4.552986e-02f, 2.839191e-02f, 1.262902e-01f, 1.639403e-01f, 9.431760e-02f, -3.032605e-02f,
  -6.937312e-02f, -1.888513e-01f, 4.500265e-02f, -4.296869e-02f, -1.040098e-01f, -8.680246e-03f, -1.167110e-01f, -5.186780e-02f,
  9.180465e-02f, 5.523837e-02f, 5.750207e-02f, -1.374873e-01f, 5.994153e-02f, -5.038176e-02f, 3.867995e-02f, 1.159641e-01f,
  -3.093344e-02f, 5.388724e-02f, -7.251129e-02f, 3.093304e-02f, -6.029532e-02f, 2.049927e-02f, 3.073628e-02f, -2.388079e-02f,
  -2.587061e-02f, 1.268198e-01f, -3.533743e-02f, -3.823779e-02f, 8.753542e-02f, -1.066931e-01f, -8.148117e-02f, 4.720344e-02f,
  9.275894e-02f, -7.073226e-02f, 3.148513e-02f, 1.683430e-02f, 1.228647e-01f, 1.381515e-02f, 5.496530e-02f, -2.815990e-02f,
  -6.233693e-02f, -4.990392e-04f, -5.580802e-02f, 2.262861e-02f, -4.942619e-02f, -7.258965e-02f, 4.524491e-02f, -1.412175e-01f,
  -1.626685e-01f, -1.500154e-01f, -3.671729e-02f, -1.081364e-02f, -2.466799e-02f, 3.893980e-02f, -1.130184e-02f, 1.215669e-01f,
  4.819266e-02f, -2.209541e-01f, 8.106869e-02f, 4.109809e-02f, -2.032843e-02f, -6.547041e-02f, 1.492625e-03f, 3.119673e-02f,
  -2.175235e-02f, 4.115509e-02f, 8.177753e-02f, -2.298456e-02f, -2.348734e-03f, -6.942366e-02f, -3.675060e-02f, 4.758186e-03f,
  7.495874e-02f, -3.650128e-02f, -3.044460e-02f, 6.007338e-02f, -2.535311e-02f, -8.755358e-02f, -7.105937e-02f, 2.186576e-02f,
  -7.449874e-02f, 1.016963e-03f, -4.652136e-02f, 5.006258e-02f, 6.478087e-02f, -1.280266e-02f, 6.009826e-03f, -1.303120e-02f,
  8.306549e-02f, 2.354347e-02f, 7.718100e-02f, 4.940704e-02f, 9.932273e-02f, 1.120554e-01f, -1.005373e-01f, 3.696207e-02f,
  -3.995747e-02f, -1.772778e-02f, -1.441965e-02f, -3.264390e-02f, 1.938220e-02f, -1.453785e-02f, -9.174112e-03f, -7.820972e-02f,
  8.104523e-02f, -9.957084e-02f, -2.029561e-02f, -2.309956e-02f, 1.476026e-01f, 2.600135e-02f, 1.485675e-02f, 3.383907e-02f,
  9.196910e-02f, 4.085059e-03f, 1.071188e-01f, -9.625284e-02f, 1.794231e-01f, 5.845433e-02f, 1.814741e-01f, -1.185768e-01f,
  -5.112753e-02f, -1.127628e-01f, -2.247922e-02f, 8.042911e-02f, 2.113116e-02f, -1.386525e-02f, 9.011663e-02f, 9.684905e-02f,
  1.663862e-01f, -7.776104e-02f, 2.378627e-02f, 3.787455e-02f, 5.608916e-04f, 2.605360e-02f, 5.456545e-02f, -1.879308e-01f,
  1.801974e-01f, 6.038020e-02f, 2.263036e-01f, -3.959126e-02f, 4.200074e-02f, 4.727852e-02f, 6.990694e-02f, -6.280400e-02f,
  2.445647e-02f, -3.603484e-02f, -3.365006e-02f, -7.969779e-02f, 1.987573e-02f, -5.232116e-04f, 1.133675e-02f, 6.378638e-03f,
  2.466120e-03f, -6.011211e-03f, 4.532563e-02f, 4.274207e-01f, 5.204238e-01f, 2.225568e-01f, -2.310139e-01f, 4.711062e-02f,
  -2.076679e-02f, -2.722012e-01f, 2.825537e-01f, -8.845025e-02f, -6.256779e-02f, -1.251217e-01f, -3.952071e-02f, -2.034437e-02f,
  -8.958468e-02f, -4.869519e-02f, 9.181916e-02f, -5.021584e-02f, 5.729929e-02f, 3.492735e-02f, 8.077569e-03f, 3.927951e-02f,
  5.110776e-02f, 5.820343e-02f, -2.861792e-02f, -6.359840e-02f, 5.730831e-02f, 8.216578e-02f, -4.302133e-02f, -1.411375e-02f,
  -1.272329e-01f, 6.007443e-02f, 5.207556e-04f, -2.861223e-02f, -5.178844e-02f, -2.094361e-01f, 3.758364e-02f, 1.417510e-01f,
  -4.240031e-02f, -1.638131e-01f, -6.057846e-02f, -4.144184e-02f, 3.135989e-02f, 1.127947e-01f, -4.788473e-02f, -6.832593e-02f,
  1.809543e-02f, 3.164993e-02f, 7.666564e-02f, -1.207668e-02f, -4.468369e-03f, -3.505505e-02f, -2.874677e-02f, -1.052085e-01f,
  6.547721e-02f, -6.375062e-03f, -5.819966e-02f, -1.404271e-01f, -5.937522e-02f, 1.524286e-02f, 3.778671e-02f, -2.917804e-02f,
  3.946902e-02f, 1.062376e-01f, 1.346225e-01f, 7.650360e-02f, 8.896339e-02f, -1.045747e-02f, -6.963260e-02f, -8.079317e-02f,
  2.481147e-02f, -3.154811e-01f, -2.681511e-01f, 1.948516e-03f, 5.666247e-02f, -6.957066e-02f, 3.220491e-02f, 2.870558e-02f,
  -5.009762e-02f, -3.226995e-02f, 3.679636e-02f, -9.396291e-03f, -6.661138e-03f, -6.275354e-02f, 1.118961e-01f, -6.293324e-02f,
  4.879939e-02f, 9.717988e-03f, -1.263346e-01f, -1.197026e-01f, -7.957004e-03f, -5.421308e-02f, 6.767343e-02f, -6.031404e-02f,
  -8.149488e-02f, 2.026089e-02f, -2.966211e-03f, 1.296219e-02f, -4.168572e-02f, -4.282678e-02f, -5.458014e-02f, 6.839297e-02f,
  -1.071512e-01f, 6.042167e-02f, -2.735354e-02f, -5.479952e-02f, -7.389885e-02f, 2.926227e-02f, 3.568292e-02f, -5.597098e-02f,
  8.356295e-02f, -9.546914e-02f, 1.169663e-01f, -4.332617e-03f, 6.506026e-02f, -6.937028e-02f, -9.536666e-04f, 1.778652e-03f,
  2.663732e-02f, -1.545797e-01f, 7.009175e-02f, 1.141248e-02f, 1.574646e-02f, 1.413195e-02f, -3.531910e-02f, -1.685433e-01f,
  -4.566921e-03f, -7.966273e-02f, -5.018685e-02f, 1.354514e-02f, -6.731433e-02f, 9.408523e-02f, 5.025001e-02f, -2.392259e-02f,
  -8.114969e-02f, -2.510131e-02f, 4.876987e-03f, -1.863246e-01f, -5.269692e-02f, 9.997562e-02f, 3.703862e-02f, -6.854650e-02f,
  -6.329823e-02f, 5.057098e-02f, -5.044170e-02f, 8.364967e-02f, -3.113341e-02f, 2.807161e-02f, 1.673530e-03f, 2.131646e-02f,
  2.371668e-02f, -1.076782e-01f, -5.827748e-02f, 1.435127e-01f, -1.246998e-02f, 3.126355e-02f, -2.947350e-01f, 6.571328e-02f,
  9.213699e-02f, 1.999588e-01f, -1.212448e-01f, 2.244614e-02f, -1.399306e-01f, -7.797987e-03f, -6.545900e-02f, -2.679217e-02f,
  7.247549e-02f, -1.021969e-02f, 3.240014e-03f, 1.567093e-02f, -2.368429e-02f, 7.001965e-02f, 5.162114e-02f, -8.476620e-02f,
  -4.195146e-02f, -4.414107e-02f, -2.079720e-02f, 5.990113e-02f, 1.221442e-01f, 3.767073e-02f, -3.196568e-02f, 6.406675e-02f,
  -1.689473e-02f, 1.413824e-01f, -5.724509e-02f, 4.100601e-02f, 1.522207e-02f, -7.914041e-02f, -2.339036e-01f, -2.050641e-01f,
  -4.438609e-02f, -3.101254e-02f, -1.615421e-01f, 5.820552e-02f, 8.900784e-02f, 7.865203e-02f, -1.114354e-01f, -5.798547e-02f,
  -5.414038e-02f, -6.876780e-02f, -3.383435e-02f, 1.064800e-01f, 1.455771e-02f, 9.990256e-03f, 2.865428e-02f, -6.047596e-02f,
  9.414173e-02f, -1.212922e-02f, -1.423039e-02f, -4.312797e-02f, -1.119552e-01f, 3.899314e-02f, 4.280653e-02f, -1.690484e-02f,
  -2.569909e-02f, -6.578732e-02f, -6.285655e-02f, -8.067979e-02f, 7.699773e-02f, -1.986566e-02f, 1.638890e-01f, 1.583258e-01f,
  4.372283e-02f, -1.764324e-02f, -5.388524e-02f, -1.042155e-01f, -9.071776e-02f, -8.067119e-02f, 3.620560e-02f, 4.348348e-02f,
  7.893474e-02f, 5.307583e-02f, -7.486651e-02f, -1.336673e-01f, 9.411271e-02f, -6.414335e-03f, 5.008111e-03f, -1.772372e-01f,
  -4.317830e-02f, 2.403007e-02f, 3.900657e-02f, -4.563561e-02f, -3.869949e-03f, -3.803914e-02f, -2.480152e-02f, -1.129221e-02f,
  -8.223413e-03f, 6.105955e-02f, 2.815574e-02f, -1.928806e-02f, -8.600038e-02f, -1.178224e-02f, -3.797181e-02f, -2.796232e-02f,
  -7.558785e-02f, 1.309341e-01f, 2.657263e-02f, -2.841591e-03f, 8.358704e-02f, -9.663315e-02f, 1.107253e-02f, -4.961066e-02f,
  5.184599e-02f, 1.628828e-01f, 1.357293e-01f, 1.842699e-01f, 4.861818e-03f, 4.212085e-03f, 1.020419e-02f, 9.296359e-02f,
  -3.335991e-03f, -9.295674e-02f, 2.721051e-02f, -6.416674e-02f, -1.570919e-02f, 7.967231e-02f, 8.946059e-02f, -1.124356e-02f,
  5.366403e-02f, 3.014832e-02f, -3.085642e-02f, -6.193319e-03f, 2.056939e-02f, 7.272636e-02f, 1.068135e-03f, 8.531881e-02f,
  -3.192232e-02f, 4.889216e-02f, -1.348468e-01f, 8.145195e-02f, 8.522069e-02f, -8.390884e-02f, 2.104584e-01f, 9.941874e-02f,
  -9.519193e-02f, -4.402880e-02f, 1.574790e-01f, 5.716268e-02f, 2.082326e-02f, -2.536856e-02f, 1.413655e-02f, -9.156407e-02f,
  -2.987028e-02f, -7.060578e-02f, -2.010307e-02f, -7.674664e-02f, -3.798549e-02f, 5.996402e-02f, -9.513333e-03f, -6.029245e-02f,
  5.311596e-02f, 6.216248e-02f, 1.099846e-01f, -4.738215e-02f, -3.064841e-02f, 6.272291e-02f, 1.644877e-02f, 2.975958e-02f,
  -1.847459e-02f, -2.812058e-02f, -5.702236e-02f, -6.161484e-02f, -1.336745e-01f, 1.190172e-01f, 6.526380e-02f, 1.180601e-01f,
  -2.508063e-02f, -1.445810e-02f, 3.005646e-02f, 9.843542e-02f, -1.223181e-01f, -2.699952e-01f, 1.578806e-01f, -8.128523e-02f,
  -8.618757e-03f, -7.850306e-03f, -4.081134e-02f, -6.916896e-02f, 2.459977e-02f, 3.300042e-02f, 4.264143e-02f, -6.693806e-03f,
  4.649288e-02f, -4.072141e-02f, 5.840221e-02f, -9.826353e-02f, -7.190938e-02f, -1.018416e-01f, 5.764334e-03f, 8.784107e-02f,
  8.006277e-03f, -1.246331e-02f, -2.436607e-03f, -4.274127e-02f, -2.405363e-02f, -1.540382e-01f, -1.890241e-02f, -1.852494e-01f,
  -4.584871e-02f, -1.448394e-01f, -1.011360e-01f, 8.623856e-02f, 2.946089e-02f, -1.429973e-02f, -2.072778e-02f, 9.506882e-02f,
  -8.156507e-02f, -8.401596e-02f, 7.777946e-02f, 4.139087e-02f, 5.075891e-02f, 4.190189e-02f, -8.584825e-02f, 5.551547e-02f,
  1.716025e-02f, -6.459215e-02f, 8.423529e-03f, -4.788169e-02f, -2.662410e-02f, -3.799169e-02f, -2.783591e-02f, -4.799429e-02f,
  2.366522e-02f, 9.429986e-02f, -6.253194e-02f, 3.634974e-02f, -6.864250e-02f, 5.080392e-03f, 9.303620e-02f, 4.898845e-02f,
  -5.762988e-02f, 2.016091e-01f, 1.544553e-02f, -1.876836e-03f, 1.455490e-01f, 1.175782e-02f, 4.388675e-02f, 5.087710e-03f,
  4.254572e-02f, 3.132780e-02f, -3.785876e-02f, 8.021308e-02f, -7.188285e-02f, 8.256564e-02f, -8.292845e-03f, 5.983141e-02f,
  2.390238e-02f, -3.336907e-02f, 4.626636e-03f, -9.772074e-02f, 5.578221e-02f, -8.864549e-04f, -3.221069e-02f, -3.097032e-02f,
  3.655559e-02f, 7.176393e-02f, 5.729201e-02f, 1.957179e-02f, 8.807888e-02f, 2.598538e-02f, -6.288630e-02f, 8.798187e-02f,
  5.081420e-02f, 7.685310e-02f, 7.001577e-02f, -7.828286e-02f, 6.366304e-02f, 7.289243e-02f, 1.050619e-01f, -7.860468e-02f,
  -4.015785e-02f, -3.425076e-02f, -3.939434e-02f, -9.079290e-02f, 1.252883e-03f, -5.734048e-02f, 1.030431e-01f, 1.924627e-02f,
  1.159707e-02f, 9.891677e-02f, 5.122991e-02f, -4.224453e-02f, -3.405760e-02f, 5.293953e-02f, -1.895371e-02f, 3.843154e-02f,
  1.330609e-01f, 9.078752e-02f, -5.548018e-02f, 9.895169e-02f, -6.211404e-02f, -1.026209e-01f, -7.382508e-02f, -2.632461e-02f,
  -6.124825e-02f, 1.416394e-01f, 1.626489e-01f, 4.811395e-02f, -2.602170e-02f, 5.593440e-03f, -2.272826e-02f, -1.604859e-02f,
  -4.303878e-02f, 4.014812e-02f, -5.445004e-02f, -5.381587e-02f, 7.979915e-02f, 1.632317e-02f, 5.573435e-02f, 9.883066e-02f,
  7.588308e-03f, 7.985731e-02f, -5.375069e-02f, 4.812982e-02f, 1.402287e-01f, 4.375017e-02f, -4.391484e-02f, -3.287620e-02f,
  9.372912e-02f, -6.090919e-02f, 4.075168e-03f, 5.886930e-02f, -7.701455e-03f, 1.562485e-02f, 5.585181e-02f, -4.157265e-02f,
  4.621234e-02f, 2.900583e-02f, 1.745587e-02f, -6.838904e-02f, 2.258595e-02f, -6.335822e-02f, -7.870632e-02f, 2.409448e-02f,
  -6.587147e-02f, 1.148547e-02f, 3.031989e-02f, 5.742697e-02f, 1.390274e-01f, -5.120336e-02f, 7.545284e-02f, -3.615701e-02f,
  -1.225199e-01f, 4.328215e-03f, -3.151356e-02f, -4.797614e-02f, 7.797407e-02f, -3.299666e-02f, -6.310893e-02f, 4.000271e-02f,
  -3.334375e-02f, -7.594167e-02f, -6.371162e-02f, -4.853779e-02f, 5.196096e-02f, 7.090294e-02f, 5.851527e-02f, -8.405820e-02f,
  -1.152434e-01f, -3.600166e-02f, -1.061823e-01f, -5.855818e-02f, -9.810650e-02f, -1.119739e-01f, 6.378789e-02f, 4.160165e-02f,
  8.225524e-02f, -1.151015e-01f, -2.476555e-02f, 1.479795e-01f, -9.677128e-02f, 3.832235e-03f, 1.419381e-01f, 1.278107e-01f,
  2.665846e-02f, -3.597040e-02f, 3.217322e-02f, 3.206052e-02f, -1.243205e-02f, -9.613690e-03f, -7.040273e-02f, -4.170199e-02f,
  -6.274749e-02f, 2.172516e-02f, -7.333479e-02f, 4.116523e-02f, 8.465963e-02f, -1.007413e-01f, -8.194858e-03f, 4.582809e-02f,
  -2.646120e-02f, 1.373193e-01f, -3.207241e-02f, -7.364394e-02f, 7.180051e-03f, 4.432702e-02f, 3.878125e-02f, 1.209650e-01f,
  2.428522e-02f, 6.126954e-02f, -1.017581e-01f, -6.217290e-02f, -9.598219e-02f, 6.058149e-02f, -5.177058e-02f, 1.102854e-01f,
  -4.387155e-02f, 8.154342e-02f, -2.593266e-02f, -1.412335e-01f, 8.317103e-02f, -7.544521e-02f, 9.702109e-02f, 2.059844e-01f,
  -6.991668e-02f, -6.372780e-02f, 1.961781e-02f, -1.318422e-02f, -2.192549e-01f, -5.991054e-02f, -9.209541e-02f, -1.097018e-01f,
  2.898169e-02f, -3.468009e-03f, -2.426646e-01f, 1.117620e-01f, -9.016105e-02f, -1.647763e-02f, -5.525619e-02f, -1.059972e-02f,
  4.615889e-02f, -7.381536e-02f, -1.076252e-02f, 6.607537e-02f, -2.206365e-02f, 1.011732e-01f, -6.135833e-02f, 3.516301e-02f,
  -4.553794e-02f, 1.105350e-02f, 5.636020e-03f, 1.262448e-01f, -3.438653e-02f, 8.067238e-04f, -7.284241e-02f, -3.634037e-02f,
  6.760782e-03f, -7.057457e-02f, 3.768231e-03f, 4.745354e-03f, -1.050982e-01f, 1.570534e-02f, -1.130857e-02f, -5.401501e-02f,
  -2.826564e-02f, -1.613769e-04f, -4.064575e-02f, 2.335001e-03f, 2.241297e-02f, 4.587993e-02f, 2.076940e-02f, 1.549130e-02f,
  1.277651e-01f, -4.643830e-02f, 6.430778e-03f, 4.154990e-02f, 7.413197e-02f, 1.667728e-02f, -1.122544e-01f, 6.525952e-03f,
  5.372087e-02f, 1.531701e-01f, 3.760170e-02f, 3.286319e-02f, -9.112747e-02f, -8.088742e-03f, 6.674751e-02f, -6.858045e-02f,
  4.391103e-02f, 7.181119e-02f, -2.165922e-03f, 1.465123e-01f, 3.102891e-02f, -2.343943e-02f, 1.082533e-02f, -6.036913e-02f,
  -2.096109e-02f, 1.563336e-01f, -7.704516e-03f, -7.467644e-02f, 7.120298e-02f, -9.863583e-03f, 4.017008e-02f, -2.125371e-02f,
  3.032667e-02f, 5.957113e-02f, -2.429667e-02f, 5.574560e-02f, 3.148460e-02f, -4.707593e-02f, -4.634761e-02f, 6.997702e-02f,
  1.419773e-01f, 4.088926e-02f, 4.229169e-02f, 2.755258e-02f, -3.992036e-03f, 1.475919e-01f, -3.237612e-02f, -1.346641e-01f,
  -4.318787e-02f, -2.283900e-02f, 7.462274e-02f, 9.184664e-02f, -6.496358e-02f, -1.804202e-02f, -4.821898e-02f, 4.057821e-02f,
  -1.608933e-02f, 5.310227e-02f, 5.283153e-02f, -4.534040e-02f, 8.945531e-02f, 4.012779e-02f, 7.213625e-02f, -1.255769e-01f,
  -1.243725e-02f, -1.278491e-01f, -8.679417e-02f, 4.391971e-02f, -2.378357e-02f, -3.949386e-02f, -1.012709e-01f, 8.780620e-02f,
  -1.027551e-01f, 7.205884e-02f, 3.933962e-02f, -1.259035e-01f, 9.461389e-02f, -1.839705e-02f, 5.769445e-03f, 6.129853e-02f,
  -2.800703e-02f, -1.469012e-02f, 4.572916e-02f, 4.442450e-02f, 1.406046e-02f, -7.963174e-02f, -2.279370e-02f, -6.560232e-02f,
  -9.157556e-02f, 6.333017e-03f, 5.165935e-02f, -3.505522e-02f, 4.522025e-03f, 6.358235e-03f, 2.072234e-01f, -1.324828e-02f,
  1.113876e-01f, 3.777659e-02f, -3.795545e-02f, 1.376610e-01f, -1.742744e-01f, 5.689779e-02f, 1.653145e-02f, -2.602825e-01f,
  2.099826e-01f, 4.696205e-02f, -1.265144e-01f, -1.393565e-02f, 5.830796e-02f, 1.943247e-01f, 9.862485e-02f, -5.328292e-02f,
  7.456249e-03f, -6.455255e-02f, 1.240899e-01f, 1.371117e-01f, 1.541654e-02f, -4.789085e-02f, 2.016696e-03f, -1.837161e-02f,
  -2.102123e-02f, -2.647800e-02f, -5.226742e-02f, -5.098686e-03f, 2.696080e-02f, -7.298484e-02f, -1.322151e-02f, 9.609693e-02f,
  -2.859390e-02f, -3.268150e-02f, 4.683721e-02f, 2.527349e-02f, 5.612072e-03f, 4.990980e-02f, 2.886717e-02f, -9.927933e-02f,
  -1.947143e-02f, -1.716354e-02f, -7.808171e-02f, -6.554438e-02f, 3.960500e-02f, -1.223036e-01f, 1.083031e-01f, -1.637352e-01f,
  1.251331e-01f, 6.760208e-02f, 3.324729e-02f, 3.383832e-02f, -7.850280e-02f, -3.483398e-03f, 1.380594e-02f, 4.734066e-02f,
  -3.695394e-02f, 6.450476e-02f, -1.006512e-02f, 1.748480e-01f, 1.002084e-02f, -9.810446e-02f, -4.875720e-02f, 2.253556e-02f,
  -1.536987e-02f, -5.818185e-02f, 4.635308e-02f, -7.930816e-03f, -1.035448e-01f, 1.691553e-02f, 5.094321e-02f, 1.329253e-01f,
  1.429437e-01f, -8.070061e-02f, -3.799842e-02f, 7.662868e-02f, -7.685642e-03f, -7.848795e-03f, -2.409368e-02f, 5.716923e-02f,
  -4.875422e-02f, -4.906794e-02f, 2.219616e-03f, -4.057617e-02f, -6.160340e-02f, 5.434616e-02f, -8.139951e-03f, 1.409012e-01f,
  3.459791e-02f, 8.672125e-02f, -1.055986e-01f, 5.488821e-02f, -8.555937e-02f, -7.396974e-02f, 1.531642e-01f, 5.126929e-02f,
  5.730997e-03f, 2.825866e-02f, 9.745208e-03f, -2.104121e-03f, 2.637625e-02f, -8.126320e-02f, 2.316757e-02f, -5.579666e-02f,
  -4.722731e-02f, 1.716152e-02f, 7.160588e-02f, -7.534077e-02f, 5.792887e-02f, -3.781669e-02f, 7.472336e-02f, -2.095349e-02f,
  4.780866e-02f, 7.684755e-02f, 1.105060e-01f, -1.109651e-01f, 2.094261e-02f, 9.198899e-02f, -2.400736e-01f, 5.372068e-02f,
  1.172055e-01f, -5.767952e-02f, 6.102965e-03f, 1.711696e-01f, 8.183930e-02f, 7.724576e-02f, 1.450600e-02f, 5.280769e-02f,
  7.676011e-02f, -4.808382e-02f, -6.823730e-02f, -1.188089e-02f, -9.887163e-03f, -7.167760e-02f, -1.549329e-01f, -6.215862e-02f,
  -4.841571e-02f, -6.993224e-02f, 5.620556e-02f, -3.436314e-02f, -4.443806e-03f, 7.614094e-03f, 1.402651e-01f, -6.057802e-03f,
  1.917771e-01f, 3.069758e-02f, 1.240901e-01f, 1.613858e-02f, 4.230948e-02f, 1.136796e-01f, -3.947636e-02f, 7.058116e-02f,
  8.331141e-02f, 8.147793e-02f, -5.583720e-02f, 1.809291e-02f, -6.029440e-02f, -3.288436e-02f, -6.212275e-03f, 4.540711e-02f,
  -3.146352e-02f, -3.779729e-02f, -2.364079e-02f, -1.036217e-01f, -3.610101e-02f, -4.004166e-02f, -1.923695e-02f, 8.372393e-02f,
  -3.601962e-02f, -5.624262e-02f, -2.556803e-02f, -3.128704e-02f, -4.179576e-03f, -4.552139e-02f, 6.842569e-02f, 1.492995e-02f,
  -7.350241e-02f, -2.003243e-02f, -7.831424e-02f, 1.186288e-02f, -7.272650e-02f, 2.203014e-02f, 5.805115e-02f, 3.384672e-02f,
  -8.831137e-02f, 3.282931e-02f, -4.050109e-02f, -4.099388e-02f, 4.241153e-02f, 7.858704e-03f, -7.530533e-02f, 8.566303e-02f,
  -4.659377e-02f, -1.507399e-03f, 5.255928e-02f, 2.097839e-02f, -7.195097e-03f, 7.059091e-02f, -7.835799e-02f, -3.325969e-02f,
  -5.688926e-03f, 5.016889e-02f, -1.984609e-02f, 7.350009e-02f, 1.280430e-01f, 3.041451e-03f, 8.452611e-04f, 2.603340e-02f,
  5.524174e-02f, 8.750264e-03f, 1.337785e-01f, -4.957108e-02f, -1.143111e-01f, -4.298870e-02f, -5.150611e-02f, 1.417511e-02f,
  1.437447e-02f, -5.131531e-02f, -7.002430e-02f, 9.070343e-02f, -9.573255e-02f, 4.540553e-02f, 4.384015e-02f, 9.134264e-02f,
  -1.589664e-03f, 7.792447e-02f, -5.736611e-02f, -3.375071e-02f, 7.629497e-02f, -3.546052e-02f, 2.452733e-02f, 2.348275e-02f,
  5.476030e-02f, 4.732970e-02f, 4.163252e-02f, 7.615510e-02f, -3.332141e-02f, 1.778003e-02f, -7.957263e-02f, 3.872296e-02f,
  -5.126604e-02f, 2.758112e-02f, -1.465295e-02f, 1.489744e-02f, -8.839442e-02f, -7.320175e-02f, 1.187576e-01f, -8.019501e-02f,
  -3.358153e-02f, 2.148021e-02f, 4.141661e-02f, 2.479797e-02f, 3.271255e-03f, -1.627079e-02f, 8.319249e-02f, 2.144797e-02f,
  5.940562e-02f, 7.362524e-02f, -3.114673e-02f, -7.593335e-02f, -5.921672e-02f, -8.227416e-03f, 3.302871e-02f, -5.030571e-02f,
  -3.469290e-03f, -2.193930e-02f, -6.337273e-03f, 8.220861e-02f, -5.946733e-02f, 7.427680e-02f, -4.893528e-02f, -6.901061e-02f,
  -2.728017e-02f, 1.770471e-01f, -7.018778e-02f, 1.861851e-03f, 2.004592e-02f, 1.174104e-01f, 3.824960e-02f, 4.063842e-02f,
  7.355504e-02f, 9.744059e-02f, 8.558848e-02f, -2.027819e-02f, -4.264894e-02f, 4.574766e-02f, -5.622877e-03f, 7.780400e-02f,
  9.625864e-02f, 1.242334e-02f, 1.790583e-02f, -1.695083e-02f, -9.797925e-02f, -4.898899e-04f, -4.576200e-02f, -2.930918e-02f,
  1.045220e-01f, -7.212886e-02f, -5.184298e-02f, 1.192408e-01f, 5.001333e-02f, 5.803774e-03f, -3.092373e-03f, -2.600029e-02f,
  1.275943e-01f, -1.429980e-02f, -3.400066e-02f, 5.233060e-02f, 1.007377e-01f, -5.621849e-03f, -1.047436e-02f, -7.656953e-03f,
  2.843982e-02f, 3.889384e-02f, -3.137600e-03f, -1.079545e-01f, 4.868791e-02f, -2.191563e-02f, -4.790197e-02f, -7.723992e-02f,
  6.425583e-02f, -1.889637e-02f, 9.305488e-02f, 1.832827e-02f, 8.748887e-02f, -5.119810e-02f, 2.882078e-02f, 6.977735e-02f,
  -8.754900e-02f, -1.140879e-01f, 6.961219e-02f, 1.668342e-01f, 9.092039e-02f, 8.521002e-03f, -1.051781e-02f, 7.447027e-02f,
  4.809533e-02f, -4.640895e-02f, -2.331831e-02f, 7.166841e-02f, -4.069889e-02f, -5.286015e-02f, -2.405853e-02f, -3.980417e-02f,
  -2.659629e-02f, 4.868951e-02f, 7.358114e-02f, -2.881275e-02f, 1.514044e-03f, 6.113194e-02f, 3.308837e-02f, 3.897977e-02f,
  2.045574e-02f, -6.163570e-02f, -1.186957e-03f, 1.993000e-02f, 9.298772e-02f, 6.498483e-03f, -8.795284e-02f, 2.067908e-02f,
  -2.060341e-03f, -1.103327e-01f, 3.855094e-02f, 2.477893e-02f, 2.902362e-02f, 5.021184e-02f, 7.180075e-02f, 8.267791e-03f,
  -7.605400e-02f, 3.434787e-02f, 6.011433e-02f, -1.533575e-03f, 6.743213e-02f, -1.464144e-02f, -1.276082e-01f, 5.835277e-02f,
  7.272961e-02f, -4.321336e-02f, 4.687649e-02f, -6.061107e-02f, -2.312849e-02f, -5.098553e-02f, 5.613405e-03f, 6.298897e-02f,
  2.878272e-02f, -3.418148e-02f, 3.739518e-02f, 5.923921e-02f, 4.583072e-02f, 1.615045e-02f, 1.640500e-02f, -4.783553e-02f,
  8.509893e-02f, 1.094791e-01f, 8.437242e-02f, 4.600291e-03f, 3.896442e-02f, 8.147230e-02f, -1.153273e-02f, -6.113814e-02f,
  -3.777498e-02f, -4.604280e-02f, 6.212911e-02f, 8.908006e-02f, -2.502347e-03f, 2.649293e-02f, 1.831005e-03f, 9.397797e-02f,
  1.140697e-01f, 3.001766e-02f, -8.169895e-02f, -4.440373e-02f, 9.891908e-02f, -2.027294e-02f, 1.883069e-02f, -4.903017e-02f,
  9.393775e-02f, -4.487919e-03f, 5.228544e-02f, -1.044118e-01f, 4.827094e-02f, -3.158847e-02f, -2.429891e-02f, -6.053881e-02f,
  -5.351290e-02f, 2.018918e-02f, -4.359256e-02f, -1.052688e-01f, -2.123197e-02f, -1.079676e-01f, 1.783323e-02f, 9.371214e-02f,
  -9.010414e-02f, -1.020369e-01f, -5.538788e-02f, 1.070542e-01f, 2.977494e-02f, -2.735275e-01f, 8.828642e-02f, 7.755279e-02f,
  -1.670746e-01f, -4.203260e-02f, -5.421666e-03f, -3.357251e-02f, -3.178625e-02f, -4.955433e-02f, -4.138519e-02f, 2.643452e-02f,
  -1.010954e-01f, -1.120100e-01f, 6.898268e-03f, -2.734670e-02f, -7.713184e-02f, -1.270179e-03f, -3.069000e-02f, -3.042550e-02f,
  -7.768943e-02f, -3.415006e-02f, 3.966274e-03f, 1.899843e-02f, 1.946918e-02f, 8.828538e-03f, 6.544092e-02f, 4.399559e-02f,
  -6.168827e-02f, 1.410797e-01f, -2.088893e-02f, -5.160450e-03f, -1.143640e-02f, 2.784951e-02f, 4.489424e-03f, 1.113745e-02f,
  -4.978674e-02f, -1.891669e-02f, 1.024869e-01f, -3.977447e-03f, 3.575516e-02f, -8.156538e-02f, -2.841697e-02f, 1.873774e-02f,
  4.745808e-02f, -6.853589e-02f, 3.608261e-02f, 9.079998e-02f, 6.618719e-02f, -5.035153e-02f, -3.281035e-02f, -1.537798e-03f,
  5.250309e-03f, -2.816194e-02f, 1.523579e-02f, 1.458609e-01f, 6.733110e-02f, 1.015592e-02f, 1.034971e-01f, -3.940824e-02f,
  -5.837382e-02f, 7.488611e-03f, 2.595945e-02f, 6.633378e-03f, -1.073125e-03f, 1.650526e-02f, 1.442255e-01f, -3.021651e-02f,
  3.465666e-02f, 3.592125e-02f, -6.219795e-02f, -5.818810e-02f, -1.114725e-02f, -3.634191e-02f, -1.595726e-02f, -8.962084e-03f,
  -6.966548e-02f, -2.885872e-02f, 6.653194e-02f, 6.405270e-02f, 3.602421e-02f, 4.832787e-02f, 3.509522e-02f, 4.470215e-02f,
  8.531085e-03f, 2.744463e-02f, 5.230535e-02f, -1.822709e-02f, 1.104865e-01f, 6.971142e-02f, -1.250584e-02f, -1.294087e-02f,
  -8.220725e-02f, -2.349439e-02f, 7.446824e-02f, -6.675774e-02f, -9.091768e-02f, 1.034198e-01f, 1.749138e-02f, -1.879155e-02f,
  1.593968e-02f, 1.315624e-01f, 1.314660e-01f, 4.533067e-02f, -9.487313e-04f, 1.408708e-02f, -4.363368e-02f, 7.589421e-02f,
  -5.041351e-02f, -6.539029e-02f, 3.262721e-02f, -5.158065e-03f, 5.380800e-02f, 1.861463e-02f, -2.554048e-02f, -1.881319e-02f,
  2.798090e-02f, -8.295244e-02f, -1.960178e-02f, 1.349232e-02f, 1.027958e-01f, 1.889262e-02f, 2.926979e-02f, -5.053056e-03f,
  7.465971e-02f, -3.199739e-02f, -1.029324e-01f, -1.650893e-02f, -4.938009e-02f, -2.015372e-01f, -1.949671e-02f, 1.943136e-02f,
  2.113711e-02f, 5.509651e-02f, -5.703989e-02f, 4.431027e-04f, 5.244765e-02f, 4.844938e-02f, 4.131979e-02f, -8.915882e-02f,
  1.442104e-02f, 3.130531e-02f, 7.325236e-02f, 2.468562e-02f, -1.894137e-02f, -2.251419e-02f, 4.701211e-02f, -3.189936e-02f,
  1.039723e-02f, 2.659810e-02f, 2.021650e-02f, -3.231596e-02f, 8.431522e-02f, -9.491757e-03f, 3.282138e-01f, 1.009700e-01f,
  2.012315e-01f, 1.590351e-01f, 2.962513e-02f, 7.224533e-02f, 7.876635e-02f, 6.686596e-02f, 3.423036e-02f, 3.983015e-02f,
  -6.669824e-03f, -4.867899e-02f, 4.631143e-02f, -7.924801e-02f, -1.147130e-02f, 6.954183e-02f, 1.693819e-02f, -2.368202e-02f,
  6.073896e-02f, 7.093919e-02f, -1.734993e-02f, 8.466212e-02f, 3.939115e-02f, -8.268774e-02f, -3.729361e-02f, 8.824116e-03f,
  -1.782634e-02f, 6.864566e-02f, 6.931446e-03f, 1.500401e-02f, -7.130294e-02f, -6.496697e-02f, -1.715066e-02f, -8.367877e-02f,
  5.260808e-02f, 6.178557e-02f, -9.807231e-02f, 1.693295e-01f, 3.289285e-01f, 1.094169e-01f, -1.500614e-02f, 8.278282e-03f,
  -8.575608e-02f, 7.508364e-02f, 1.425927e-02f, 9.315383e-02f, -6.427599e-02f, -2.855144e-02f, 4.786624e-03f, 2.599373e-03f,
  5.070620e-02f, -6.655152e-02f, 1.159827e-02f, 2.494509e-02f, -4.735906e-02f, 8.946926e-03f, -8.179882e-04f, 5.443712e-02f,
  5.693353e-02f, -1.904861e-02f, 2.066923e-02f, 1.140600e-01f, 2.684496e-02f, -5.654610e-02f, 2.852091e-02f, 7.229357e-02f,
  -5.147997e-02f, 5.205024e-02f, 7.550173e-02f, 6.794372e-02f, 9.518549e-02f, -1.629200e-02f, -1.061818e-02f, 1.266527e-01f,
  6.458843e-02f, 1.748713e-02f, -3.756452e-02f, 4.140082e-02f, 4.144846e-02f, -3.951542e-02f, -1.269316e-02f, 6.067541e-02f,
  2.551250e-02f, 8.107324e-02f, -3.308363e-02f, 8.962797e-02f, 2.732025e-02f, 6.479470e-02f, -2.861876e-02f, -5.878726e-02f,
  -3.286640e-02f, -3.473282e-02f, -6.837215e-02f, -7.703431e-02f, -5.608052e-02f, 3.683519e-02f, 6.967165e-02f, 1.530201e-02f,
  -2.260692e-02f, 6.841244e-02f, 5.592074e-02f, 2.360580e-02f, 3.318413e-02f, 6.945533e-02f, -7.837816e-02f, -8.438758e-03f,
  4.796200e-02f, 4.863699e-03f, 7.295207e-02f, 2.347165e-01f, 2.642093e-02f, -1.330695e-03f, -1.704012e-02f, 3.212720e-02f,
  8.447289e-02f, 1.130130e-03f, 8.246964e-02f, 2.119326e-02f, 1.098842e-02f, 9.531988e-03f, -2.987677e-03f, -1.175696e-02f,
  -5.997955e-02f, 7.328141e-02f, 3.844387e-02f, 2.785101e-02f, 5.897737e-02f, 8.051836e-02f, 1.287897e-01f, 1.084501e-02f,
  -1.068226e-03f, -8.876933e-02f, 3.242127e-02f, 1.480354e-02f, 2.744493e-03f, 3.131383e-02f, 1.431107e-01f, 3.313899e-02f,
  1.372601e-01f, -3.858272e-02f, 1.125632e-01f, 3.134492e-02f, -1.472256e-02f, -1.004717e-02f, -9.567493e-02f, -7.579948e-02f,
  4.699197e-02f, 9.905590e-02f, -5.631782e-02f, -2.983917e-02f, -7.643224e-02f, -6.242724e-02f, 1.315460e-03f, -3.532162e-02f,
  4.930224e-04f, 2.428020e-02f, 3.500867e-02f, 9.100982e-03f, -9.975114e-02f, -9.740824e-02f, -6.739717e-02f, -4.894865e-02f,
  -3.752642e-03f, 1.091331e-01f, 2.357096e-02f, -1.031936e-01f, -5.046212e-02f, 1.706807e-01f, 1.032255e-02f, 4.497188e-02f,
  1.301230e-01f, 1.024629e-01f, -1.795015e-01f, -1.452160e-01f, -9.337553e-02f, 1.801847e-01f, 2.469425e-01f, -6.052536e-03f,
  -2.312813e-02f, 3.233581e-02f, 7.437017e-03f, 7.202668e-02f, -4.645338e-02f, -6.639569e-02f, 1.659463e-02f, -5.841768e-02f,
  1.879236e-02f, 2.043823e-02f, -4.856755e-03f, -7.976883e-02f, 5.021524e-02f, 1.133108e-01f, -1.442489e-01f, 2.538293e-02f,
  6.226785e-02f, 8.212820e-02f, 3.918041e-01f, 1.522321e-01f, 2.426647e-01f, -1.489387e-01f, -9.263083e-02f, -2.227396e-01f,
  3.070347e-02f, 3.561720e-02f, -2.814159e-02f, 3.049213e-03f, -2.926894e-02f, 7.697850e-03f, 1.434242e-01f, -3.380731e-02f,
  -3.051799e-03f, 5.532030e-02f, 1.054248e-01f, 4.166275e-02f, 2.418674e-03f, -1.510854e-02f, 4.559324e-02f, 4.928695e-04f,
  1.230840e-02f, 1.907150e-02f, 5.258076e-02f, -4.661926e-02f, -3.860966e-02f, 6.102486e-02f, -5.990134e-02f, -1.794550e-02f,
  7.697459e-02f, 3.740370e-02f, -3.005954e-02f, -5.749938e-02f, 9.107733e-04f, 9.433326e-02f, 5.566938e-02f, -1.193299e-01f,
  5.022724e-02f, 2.239587e-01f, -7.087865e-02f, -7.025982e-02f, 1.910709e-01f, 7.165139e-02f, -3.503296e-02f, 8.024062e-02f,
  -1.624743e-03f, 3.761030e-02f, 1.939320e-02f, -1.572699e-02f, -1.672852e-02f, -6.915023e-02f, 7.235117e-02f, 2.970554e-02f,
  -1.427145e-01f, -5.163966e-02f, 6.135384e-02f, 1.494200e-02f, -9.075197e-03f, 2.357592e-02f, -7.085356e-02f, -5.887711e-03f,
  1.067170e-01f, 2.405190e-01f, 2.643430e-01f, 2.329079e-01f, -4.009473e-02f, 5.383779e-02f, -7.635013e-02f, 6.232495e-02f,
  6.872101e-02f, -4.108648e-02f, 5.961528e-03f, -1.319874e-01f, -1.484788e-02f, -4.059986e-02f, -2.719362e-02f, -8.243214e-02f,
  3.768250e-02f, -2.636199e-02f, 1.322147e-02f, -6.161924e-02f, -1.348966e-02f, -1.964831e-03f, -8.726089e-02f, -2.365851e-02f,
  -7.791534e-02f, -6.650255e-02f, -9.668627e-02f, -5.110831e-02f, -4.074341e-02f, -1.652791e-02f, 8.317271e-02f, -9.117560e-02f,
  -5.209404e-02f, -5.477294e-02f, 1.294189e-01f, 1.392544e-01f, 7.067757e-02f, 7.549611e-02f, 3.427096e-02f, -1.037334e-01f,
  1.096702e-02f, 2.928366e-02f, 9.770910e-02f, 7.218257e-02f, -2.014691e-02f, 1.120917e-01f, 2.509834e-02f, -7.507436e-02f,
  -7.893427e-02f, 6.299088e-02f, 1.351697e-02f, 9.226150e-02f, 1.319092e-02f, -2.439783e-02f, 1.888131e-03f, 1.959387e-03f,
  1.851493e-02f, 6.247731e-02f, 8.985317e-02f, 4.612311e-02f, 2.381565e-02f, -3.189943e-02f, -4.384374e-02f, -3.120859e-02f,
  -4.634827e-03f, -9.672014e-03f, 4.672065e-02f, 1.407128e-01f, 6.562928e-02f, 3.091441e-02f, -9.169521e-02f, -1.379293e-02f,
  7.130589e-02f, 7.216948e-02f, -1.798130e-02f, -3.559072e-02f, -9.462827e-03f, 8.622106e-02f, -6.171124e-02f, 7.001921e-02f,
  -2.754643e-02f, 3.364778e-02f, -4.242325e-02f, -2.648388e-02f, -3.002700e-02f, 3.503227e-02f, 2.526163e-03f, -1.017349e-01f,
  3.317587e-02f, -7.934540e-02f, -3.753972e-02f, 4.858897e-02f, -3.833000e-02f, -1.792139e-02f, -3.133409e-02f, -1.403349e-03f,
  -4.558162e-02f, 5.357721e-02f, -1.501263e-02f, 2.943220e-02f, 8.653193e-03f, 6.168162e-02f, -9.204909e-02f, 1.199697e-03f,
  1.094173e-01f, 7.356315e-02f, 5.357917e-03f, 8.037834e-02f, 1.282127e-01f, -1.781304e-02f, 2.531542e-02f, -1.792619e-01f,
  -1.850463e-02f, -3.138733e-02f, 1.599067e-01f, -2.817043e-03f, -7.203957e-02f, -2.970675e-02f, -2.378737e-02f, 8.205074e-02f,
  6.682296e-02f, 6.908050e-03f, 4.808763e-02f, 4.894830e-03f, -4.107869e-02f, 5.577261e-02f, 1.207670e-02f, 8.227392e-02f,
  -8.579531e-03f, 1.149765e-02f, 8.424627e-02f, -4.222318e-02f, -1.342839e-01f, -5.111282e-02f, 6.936888e-02f, 2.355550e-02f,
  -5.640057e-03f, -1.989544e-01f, -1.540932e-02f, 9.937274e-02f, -6.456458e-03f, -3.411157e-02f, -1.696834e-01f, -1.010218e-01f,
  4.451318e-02f, 1.924695e-01f, -1.372671e-01f, -8.160016e-02f, 4.189772e-02f, -3.532713e-02f, 7.397579e-02f, 9.548975e-02f,
  9.919777e-02f, 1.155396e-01f, -1.587631e-01f, -1.167882e-01f, -4.677139e-03f, 1.678231e-01f, 2.528079e-01f, 1.014190e-01f,
  -4.695535e-02f, -2.341570e-02f, -7.182534e-02f, -5.657186e-02f, -1.542437e-01f, -1.504603e-01f, 1.948679e-01f, -7.037735e-02f,
  -1.970896e-01f, -5.754068e-02f, -4.648740e-02f, -2.719114e-02f, 5.522099e-03f, 5.161269e-02f, 8.241173e-02f, -3.728625e-02f,
  -3.042389e-02f, 3.288564e-02f, -7.878906e-02f, -9.140058e-02f, 3.660721e-03f, 7.732573e-03f, -1.125811e-01f, 2.653986e-03f,
  -8.674450e-02f, 2.291433e-02f, -8.181248e-02f, 8.059958e-02f, 7.448288e-02f, 8.209487e-02f, -3.197817e-04f, 3.885065e-02f,
  -4.576914e-02f, -1.735998e-03f, -2.538108e-02f, -6.257350e-02f, 2.676647e-02f, -5.568163e-02f, -1.716320e-01f, 3.361370e-02f,
  -3.106918e-03f, 1.805341e-02f, 4.706717e-02f, -4.189759e-02f, -7.890764e-02f, -8.005261e-03f, 7.878371e-02f, -6.340958e-02f,
  5.278869e-02f, 1.528401e-01f, 8.548022e-02f, 1.102681e-03f, 1.152132e-01f, 6.656109e-03f, 1.071463e-02f, -6.730456e-02f,
  -5.019237e-02f, -3.960356e-02f, 1.275368e-02f, -1.221660e-01f, 1.734491e-01f, 2.714064e-01f, 2.179626e-01f, 3.554891e-02f,
  2.709430e-02f, -3.769668e-02f, -3.183889e-02f, 4.675406e-03f, 1.239681e-01f, 2.400399e-02f, -1.681032e-02f, 1.616058e-01f,
  -5.329052e-02f, -1.424910e-01f, -6.353647e-02f, 2.857938e-03f, -9.809495e-04f, -4.731312e-02f, 5.212745e-02f, 4.001506e-02f,
  -6.229202e-02f, 5.690133e-03f, 1.647850e-02f, 5.267274e-02f, 1.910179e-01f, 7.848363e-02f, 8.571538e-02f, 5.305373e-02f,
  1.910637e-01f, -1.221699e-02f, 5.846587e-03f, 2.282272e-02f, -3.148369e-03f, 5.721063e-02f, -1.478790e-01f, -2.528037e-02f,
  -6.372973e-02f, 7.678422e-02f, 1.420916e-02f, -5.366256e-02f, -8.617408e-02f, -9.882458e-02f, -2.165610e-03f, -1.545429e-01f,
  4.541491e-02f, -2.473438e-03f, -5.702684e-02f, 5.667872e-02f, 1.526101e-02f, -2.140309e-02f, 6.752107e-02f, 1.321310e-02f,
  -4.673224e-02f, -5.666958e-02f, 4.051961e-02f, 2.632013e-02f, -2.815224e-02f, -2.192661e-02f, -3.137969e-02f, 1.141921e-01f,
  -9.298608e-02f, -7.232349e-02f, 3.096116e-04f, -1.113723e-01f, 1.201866e-01f, 2.629612e-02f, -3.427718e-03f, 3.864002e-02f,
  -5.398291e-03f, 7.543276e-02f, 5.867640e-04f, -7.460415e-02f, 2.312398e-02f, 2.488738e-02f, 2.398124e-02f, 4.262307e-02f,
  -3.448174e-02f, 1.386488e-02f, -1.914709e-02f, 1.171293e-01f, -7.046378e-02f, 3.098387e-02f, 1.167545e-01f, -1.060431e-02f,
  1.032668e-01f, 7.155440e-02f, 3.946588e-03f, 7.337212e-02f, 3.787868e-04f, -2.850268e-02f, -9.873790e-02f, -1.970665e-01f,
  1.827023e-01f, 1.174155e-01f, 3.827909e-02f, -1.865798e-02f, 2.893734e-02f, 4.852621e-02f, 1.609500e-01f, 8.762157e-02f,
  9.351081e-02f, 5.909835e-02f, 8.960301e-02f, 8.031095e-02f, 1.716719e-02f, -4.008437e-03f, 2.267222e-02f, 7.137011e-02f,
  3.694418e-02f, -5.910760e-02f, -8.341707e-03f, 1.650914e-02f, 2.123189e-02f, 6.119386e-02f, -6.590943e-04f, -1.179786e-01f,
  8.274554e-02f, 2.735362e-02f, 4.850979e-02f, -4.352498e-02f, -4.318887e-02f, -1.501784e-01f, 5.199422e-02f, -4.780563e-02f,
  -3.854158e-02f, -1.461057e-02f, -3.710472e-02f, 1.245329e-01f, 1.134787e-01f, -9.598299e-02f, 1.616713e-02f, 1.092490e-02f,
  1.342863e-01f, 1.656583e-01f, 1.189040e-01f, 1.462150e-01f, 1.488852e-01f, 7.354075e-02f, 1.581378e-02f, 8.388532e-02f,
  -1.027795e-01f, 1.096287e-01f, 1.105707e-01f, -2.196167e-02f, -9.802841e-02f, 4.829549e-02f, 7.177892e-02f, 1.648308e-01f,
  -9.495968e-02f, -7.185738e-02f, -1.318034e-01f, -4.682896e-02f, -3.234607e-02f, -5.831693e-02f, -5.917617e-02f, -1.190052e-01f,
  1.597341e-01f, 1.145167e-01f, 4.206937e-03f, -8.310908e-02f, -7.034191e-02f, -6.331323e-02f, -7.595152e-04f, -7.481664e-02f,
  -6.317047e-02f, -1.144533e-02f, -5.509587e-02f, -2.387534e-02f, 1.817382e-02f, 1.599596e-02f, 9.283508e-02f, 1.357978e-01f,
  1.616534e-01f, 1.120809e-01f, -4.815911e-02f, -4.872753e-03f, -5.268838e-02f, 9.179874e-02f, 3.204296e-02f, 3.236048e-03f,
  -8.323088e-02f, -4.960050e-02f, 5.159244e-02f, -1.581956e-02f, 5.425863e-03f, -7.416975e-02f, 7.500736e-03f, 3.972959e-02f,
  2.269056e-01f, 8.712295e-02f, 5.514026e-03f, 4.272981e-02f, -5.198856e-02f, -3.634451e-03f, -1.752947e-02f, 5.569426e-02f,
  1.096884e-01f, 1.868890e-02f, -5.071399e-02f, 3.152375e-02f, -1.343216e-03f, 3.758964e-02f, 9.830539e-02f, 7.173288e-02f,
  1.669164e-01f, 1.779656e-02f, -5.672317e-02f, 2.323560e-01f, 1.619968e-01f, 6.008640e-03f, 5.231550e-02f, 2.829724e-02f,
  6.546763e-02f, 4.608117e-02f, 3.894199e-02f, 7.625991e-02f, 2.378894e-02f, -2.383832e-02f, 2.002327e-03f, 9.479798e-02f,
  -3.383436e-02f, -3.058146e-02f, -1.078363e-01f, -3.250638e-02f, -1.012520e-01f, 1.832872e-02f, 3.521623e-02f, 1.254340e-01f,
  2.784798e-02f, 5.767408e-02f, 5.550951e-02f, -7.645665e-02f, -2.429532e-02f, -3.433495e-02f, 5.849339e-02f, -7.979084e-03f,
  -1.310150e-02f, 2.320028e-01f, 1.325699e-03f, -2.612897e-02f, -1.358619e-02f, 1.217978e-02f, 5.764173e-02f, -1.415549e-01f,
  -6.777775e-03f, 7.423607e-02f, -9.436037e-02f, 3.877686e-02f, 6.728936e-03f, -6.449348e-02f, -3.083737e-02f, 3.027464e-02f,
  1.461261e-02f, 6.002613e-02f, 1.326255e-02f, 4.882804e-02f, -1.614344e-01f, -1.396433e-02f, 9.368242e-02f, 1.075175e-01f,
  -3.296706e-02f, -2.892137e-02f, 1.338421e-02f, -6.661821e-02f, -1.063386e-01f, 1.970239e-02f, -4.262888e-03f, 4.457926e-02f,
  -4.263412e-02f, -2.068285e-02f, -8.589789e-02f, -4.967327e-02f, 5.837302e-02f, -2.629656e-03f, 1.363651e-01f, -3.134164e-02f,
  -8.212919e-02f, -7.124697e-02f, 3.063015e-02f, 1.101406e-02f, 7.958335e-02f, -7.731607e-02f, 1.457100e-02f, -3.386275e-02f,
  -5.324781e-02f, 6.797786e-02f, 1.043504e-01f, -1.601398e-01f, -3.451466e-02f, 7.586861e-02f, -5.342143e-02f, 1.322955e-01f,
  -1.924904e-02f, -1.560648e-01f, 1.291358e-01f, 1.344466e-01f, -5.190914e-02f, 4.928816e-02f, -1.396193e-01f, -5.257995e-03f,
  1.023143e-02f, -5.299704e-02f, -6.239870e-02f, -7.067265e-02f, 5.753351e-02f, 4.226804e-02f, 1.398237e-01f, 1.791646e-02f,
  7.270879e-02f, 3.461302e-02f, 1.303949e-02f, 1.945326e-02f, 6.369099e-02f, 3.186827e-02f, -5.563121e-02f, 2.445905e-02f,
  -2.662091e-02f, -8.666361e-03f, 3.125082e-02f, 6.805731e-02f, 6.139581e-02f, -7.321669e-02f, 4.447377e-02f, 1.568760e-03f,
  6.611352e-02f, 1.079332e-01f, 4.177209e-03f, 1.229019e-01f, 7.267632e-02f, 2.417123e-02f, -8.499707e-02f, 6.698268e-02f,
  8.651846e-04f, -4.328001e-02f, 1.037177e-01f, 1.235134e-02f, 1.333822e-01f, 1.319302e-01f, -7.738700e-02f, -3.662872e-02f,
  8.902885e-02f, 6.517591e-02f, 3.448713e-03f, -1.171813e-02f, 1.826891e-02f, 5.155737e-02f, -7.842594e-02f, -7.417318e-02f,
  -9.109736e-02f, 1.148469e-02f, 7.341454e-03f, -2.277859e-02f, 2.339378e-02f, -2.070237e-02f, -1.017510e-01f, -2.040697e-02f,
  2.517718e-02f, 1.754801e-01f, 1.814145e-01f, 2.065049e-01f, -1.156041e-02f, 1.838483e-02f, -3.344699e-02f, 3.297936e-02f,
  6.655104e-02f, -1.957842e-01f, 4.781540e-02f, -2.671537e-02f, 1.167749e-01f, 5.348771e-02f, 1.363001e-01f, 8.455721e-02f,
  -7.974412e-02f, 1.024510e-01f, -8.646605e-03f, 3.605317e-02f, -1.504685e-02f, 2.795663e-02f, 7.939810e-02f, -1.310362e-02f,
  -4.279578e-02f, -5.682578e-02f, -5.815866e-04f, -5.821797e-02f, 3.762167e-02f, -4.460551e-04f, 7.683876e-03f, -6.004037e-02f,
  -7.234479e-04f, 2.800271e-02f, -9.447731e-03f, 1.384904e-01f, 7.264820e-02f, -4.169944e-02f, 6.680977e-02f, 5.430781e-02f,
  3.396907e-02f, 2.777796e-02f, 9.651552e-02f, 3.972548e-02f, -5.103279e-02f, 3.524309e-02f, -3.624909e-02f, -2.455608e-02f,
  -8.754116e-02f, -3.782810e-02f, 3.671643e-02f, 9.324254e-03f, 4.883719e-03f, -3.400804e-02f, 2.014058e-02f, 5.422899e-02f,
  1.153398e-02f, 7.434719e-02f, 1.414598e-02f, -1.057097e-01f, -1.001428e-02f, -6.987088e-03f, -6.182124e-02f, -1.152338e-01f,
  1.024112e-01f, 1.198053e-01f, 4.233353e-02f, 3.596558e-03f, 6.655607e-02f, 4.828553e-02f, -3.784615e-02f, 2.461980e-02f,
  -2.033390e-02f, -5.602945e-02f, -9.522391e-03f, 6.622412e-02f, 6.261126e-02f, 2.511743e-02f, -6.090970e-02f, -2.085293e-02f,
  -9.587897e-03f, 4.929686e-02f, -7.920202e-04f, 7.091972e-02f, 7.844461e-02f, 1.986190e-02f, 5.215740e-02f, -4.029111e-02f,
  7.355145e-02f, 3.932248e-03f, 7.977601e-03f, 4.205272e-02f, 3.791250e-02f, -8.205935e-02f, 1.900289e-02f, -6.275118e-02f,
  -6.885745e-02f, -6.883121e-02f, -1.447070e-02f, 8.063129e-02f, -3.850968e-02f, 3.661283e-02f, 1.379012e-01f, -1.189928e-01f,
  9.298041e-02f, 5.365309e-02f, -1.453772e-01f, -5.404025e-02f, 1.684555e-01f, -1.181322e-01f, -7.128660e-02f, -1.219569e-02f,
  6.209025e-03f, 9.295651e-02f, 1.323852e-01f, 9.786076e-02f, -6.972040e-02f, 1.256856e-01f, -3.562820e-02f, -1.021320e-02f,
  -1.440804e-01f, 1.446542e-01f, 1.162114e-01f, 1.455069e-01f, -3.394459e-02f, 9.059040e-03f, -4.103407e-02f, 1.039117e-01f,
  1.249018e-02f, 1.419431e-02f, -4.697333e-02f, -1.425654e-02f, 1.484994e-02f, -1.105085e-01f, 7.494226e-02f, 8.263210e-02f,
  8.828176e-03f, 3.386802e-02f, 6.642570e-02f, 1.552473e-01f, 1.206518e-01f, -1.363538e-02f, 4.927029e-02f, -6.703244e-02f,
  1.116331e-02f, 4.209901e-02f, -7.509606e-02f, -1.015075e-01f, -5.185797e-02f, 1.199456e-01f, -7.042539e-02f, 6.634252e-02f,
  -3.201399e-02f, 9.537698e-02f, 1.291424e-02f, -1.872959e-01f, -5.285006e-02f, -2.472869e-02f, 3.277644e-02f, 1.266240e-01f,
  4.409120e-03f, -4.605335e-02f, 2.381284e-02f, -1.760358e-01f, -2.500290e-01f, -4.484922e-01f, -9.656528e-02f, 3.828247e-02f,
  -7.540895e-02f, 4.671310e-02f, -6.450478e-03f, 6.454879e-02f, 5.101286e-02f, -4.092275e-02f, -7.369069e-02f, -5.630587e-03f,
  3.992338e-02f, -2.076787e-03f, 2.625993e-02f, -4.144077e-02f, -6.307539e-02f, 9.790316e-03f, -1.969304e-02f, -5.646072e-02f,
  -8.686188e-02f, 3.814193e-02f, 6.195701e-02f, 8.267551e-02f, 1.265077e-01f, 1.503253e-01f, 2.627183e-02f, 2.051927e-02f,
  3.787908e-03f, 5.223667e-02f, 5.874549e-02f, 8.532069e-02f, -1.641019e-02f, 1.719977e-01f, 6.616536e-04f, 3.192695e-02f,
  8.856266e-02f, -2.847551e-02f, 6.150661e-02f, -1.869937e-02f, -2.418710e-03f, -6.865147e-02f, -3.486187e-02f, -5.273649e-02f,
  2.268088e-02f, 7.243165e-03f, -1.226772e-01f, -5.939628e-03f, 5.646300e-02f, -4.017084e-02f, -7.974451e-02f, 1.185256e-02f,
  -5.981003e-02f, -2.169018e-02f, 1.917602e-02f, 1.240525e-02f, -9.861996e-03f, 2.550854e-02f, 6.536683e-02f, -3.210134e-02f,
  -1.054405e-01f, 1.063041e-02f, -1.729128e-02f, 4.923741e-02f, 2.366973e-01f, -1.519810e-02f, -5.571125e-02f, 1.746195e-01f,
  5.676127e-02f, 1.218797e-01f, -2.018526e-02f, -1.720659e-02f, 5.945789e-02f, -7.091060e-02f, 5.361359e-02f, 8.745148e-02f,
  -5.926171e-02f, 5.487699e-02f, 8.066208e-02f, 3.180763e-02f, -3.105869e-02f, -1.562435e-02f, 1.831315e-02f, -2.091970e-02f,
  1.579870e-01f, 6.741632e-02f, -5.742256e-02f, -8.196029e-02f, -1.156193e-01f, -5.393853e-03f, -6.615280e-02f, -1.682274e-02f,
  4.463389e-03f, 5.866550e-02f, 1.153524e-01f, -6.784245e-02f, -6.400407e-02f, 1.139392e-02f, 1.140660e-02f, -4.696166e-03f,
  4.804704e-02f, -1.800275e-02f, 1.441481e-02f, 7.748217e-04f, -1.306602e-01f, 6.899454e-02f, -6.836989e-03f, -3.556248e-02f,
  6.235414e-02f, -3.576178e-02f, 2.389839e-02f, 1.982387e-02f, -2.200234e-02f, -1.713808e-02f, -5.425963e-02f, 2.805225e-02f,
  7.749290e-04f, 3.459645e-02f, -1.252780e-02f, -4.433016e-02f, -4.506055e-02f, -4.283650e-02f, 7.631888e-02f, -2.991805e-03f,
  4.377048e-02f, 2.732816e-02f, -4.285887e-02f, 5.582698e-02f, -8.008337e-03f, 1.224564e-02f, -2.948977e-02f, 9.716171e-02f,
  2.376845e-02f, 2.918445e-02f, -6.458243e-02f, -2.244851e-02f, 7.857864e-02f, -1.258420e-01f, 1.042265e-01f, 2.016215e-02f,
  8.665256e-03f, 1.337087e-01f, -6.970277e-02f, 7.699677e-02f, -9.222195e-02f, -1.792117e-01f, 7.881942e-02f, -1.417895e-01f,
  8.831751e-02f, 5.916287e-02f, 2.072230e-02f, 2.392599e-02f, -9.845604e-02f, 5.761698e-02f, -4.009819e-01f, 4.533561e-02f,
  1.347964e-01f, 2.831848e-02f, -6.395590e-02f, -8.285265e-02f, -1.561081e-01f, -5.640243e-02f, -7.773511e-02f, -5.096408e-02f,
  6.432298e-02f, -6.712767e-02f, -2.898945e-02f, 6.156616e-02f, -7.389739e-02f, 5.143863e-02f, 1.969313e-02f, -1.265083e-02f,
  1.027146e-01f, 7.956013e-03f, 7.391363e-02f, -3.738784e-02f, 3.213704e-01f, 1.911723e-02f, 2.140210e-02f, 2.597796e-02f,
  -3.259144e-02f, 9.220231e-02f, -1.921245e-02f, 4.429954e-02f, 5.442447e-03f, -4.640221e-02f, -8.251508e-02f, 1.464231e-01f,
  8.963316e-02f, 3.631712e-02f, -8.489189e-02f, -3.416035e-02f, 8.643434e-02f, 1.503725e-01f, 1.147378e-01f, 5.945701e-03f,
  -2.153820e-01f, 7.922777e-02f, 1.459426e-01f, 1.034756e-01f, -8.261748e-02f, 2.166968e-02f, 5.719618e-02f, -3.113223e-02f,
  3.868825e-03f, -4.278354e-02f, -1.155309e-01f, -1.036763e-02f, -6.711003e-02f, 7.341217e-02f, 5.857682e-02f, -6.095406e-02f,
  1.742901e-01f, 5.862755e-02f, -5.620043e-02f, -1.578086e-01f, 6.705652e-02f, 6.302479e-02f, 1.358913e-02f, 9.543659e-02f,
  -6.139464e-02f, -4.809449e-03f, 1.100880e-02f, 1.732667e-01f, 5.685565e-02f, 2.516065e-03f, 4.679954e-02f, 4.861939e-02f,
  1.327261e-01f, 3.173387e-02f, -3.166547e-02f, -1.438640e-02f, 1.550210e-02f, 4.108112e-02f, 1.415581e-01f, -1.514598e-02f,
  5.206401e-02f, 1.891511e-02f, 3.168503e-02f, 1.487830e-02f, 7.057866e-02f, -3.203209e-02f, -1.305582e-02f, 8.118141e-02f,
  2.460290e-02f, 4.080085e-02f, -1.797674e-01f, -1.079199e-01f, 4.070693e-02f, -2.502909e-02f, -4.643606e-02f, -5.044852e-02f,
  2.439924e-02f, 8.114447e-02f, -4.943376e-02f, -1.111702e-01f, -4.452873e-02f, 1.103287e-01f, -1.051399e-01f, -5.344154e-02f,
  -1.397639e-01f, -1.833865e-01f, 4.943034e-03f, 2.653191e-01f, 5.149074e-02f, -1.079996e-01f, 8.681125e-03f, 7.774340e-02f,
