#pragma once

// kind=conv2d, layout=OIHW
// layer=dec2_refine32
// dims: Kh=3, Kw=3, Cin=32, Cout=32
// Keras: (Kh,Kw,Cin,Cout) -> Noodle: (Cout,Cin,Kh,Kw)
static const float w08[] = {
  -1.979125e-02f, -5.489196e-02f, -5.276762e-02f, -1.334571e-02f, -2.933294e-02f, -8.583187e-02f, -6.714726e-02f, 8.790253e-03f,
  -1.281117e-01f, 1.421051e-01f, -8.277199e-02f, -4.950361e-02f, -2.726466e-01f, 2.436883e-02f, 9.157594e-02f, -3.414998e-02f,
  -6.282757e-02f, -8.981908e-03f, -3.206236e-02f, 2.276331e-02f, -1.125683e-02f, 3.899879e-02f, -1.977743e-01f, -1.798186e-01f,
  -4.794354e-02f, -2.074721e-02f, -4.639028e-02f, -6.501172e-02f, 1.041561e-01f, -3.442976e-02f, -3.496877e-02f, -1.912602e-02f,
  1.072703e-01f, -1.072499e-02f, 7.448050e-02f, 3.042489e-02f, 1.269195e-02f, 4.130296e-02f, -2.872722e-01f, 3.962194e-01f,
  4.848548e-02f, -8.443749e-02f, -5.630686e-02f, 7.015476e-02f, -1.550391e-01f, 3.386744e-02f, 6.811532e-02f, -1.841891e-02f,
  6.004963e-02f, 4.939502e-02f, -7.958397e-02f, -1.538090e-01f, -6.580345e-02f, -2.211667e-02f, -2.422039e-03f, -3.084704e-02f,
  2.788286e-02f, 1.462100e-01f, 1.190735e-01f, 2.903285e-02f, 4.033389e-02f, 5.503358e-02f, 5.617882e-02f, 2.889764e-02f,
  -4.486591e-02f, -1.381511e-02f, 4.543195e-02f, 1.687281e-01f, -2.223647e-01f, -3.586084e-02f, 1.883187e-02f, -1.576266e-02f,
  -6.404401e-02f, 2.824607e-02f, -9.503269e-02f, 9.267254e-02f, 9.779856e-02f, 7.361895e-03f, 9.196152e-02f, 1.718365e-01f,
  1.879837e-02f, 1.850825e-02f, 2.718697e-01f, 2.219448e-01f, 6.201291e-02f, 8.236636e-03f, 4.489730e-03f, -1.003242e-01f,
  4.052312e-02f, -9.352283e-03f, 7.793785e-02f, 2.152965e-02f, 1.023595e-01f, -8.083457e-02f, 6.462036e-03f, -5.352129e-02f,
  -2.063437e-01f, 1.200122e-01f, -7.145092e-02f, -7.048099e-02f, 7.012642e-03f, 3.696898e-02f, 3.231388e-02f, -3.332554e-02f,
  1.705581e-02f, 2.948191e-02f, 8.365739e-02f, -7.118710e-02f, -6.366562e-02f, 6.502522e-02f, 5.701479e-02f, 1.968704e-02f,
  2.540214e-02f, 2.929945e-02f, 3.649700e-02f, 3.355506e-02f, -1.118916e-01f, -3.964539e-02f, -2.049873e-02f, -4.667853e-02f,
  -1.648511e-01f, 4.536862e-02f, 1.236432e-01f, -3.941105e-02f, -8.996426e-02f, -6.614942e-02f, 7.299637e-03f, -1.360924e-02f,
  1.579861e-01f, -1.529446e-01f, -3.889688e-02f, -4.138915e-02f, 1.453397e-02f, -2.451372e-02f, 7.293629e-02f, -2.971136e-02f,
  -7.502504e-02f, 5.099543e-02f, -2.137082e-02f, -1.311712e-02f, 1.498331e-01f, 5.762519e-02f, 3.086241e-02f, -7.500804e-02f,
  1.911544e-01f, -1.409125e-01f, -1.905758e-01f, 3.913932e-02f, 8.825485e-02f, 6.701729e-02f, 1.279799e-02f, 1.250474e-01f,
  1.107992e-01f, 2.226918e-02f, -1.136092e-01f, -4.297278e-02f, -1.248364e-01f, 2.296901e-01f, 1.145933e-01f, 1.994750e-02f,
  6.176016e-02f, -1.143395e-01f, 1.072871e-02f, -1.358912e-01f, -1.342869e-02f, -2.383101e-02f, 7.578921e-02f, 2.037688e-02f,
  -2.559786e-02f, 2.452503e-02f, 5.679497e-02f, 6.944164e-02f, 1.076695e-02f, -3.669327e-02f, 9.994584e-02f, 3.845049e-01f,
  1.522890e-01f, -8.350880e-02f, 1.217019e-01f, 8.897234e-02f, 1.321415e-02f, -6.598528e-02f, -1.223886e-01f, -1.370873e-01f,
  -6.585708e-02f, 3.336574e-02f, 5.622028e-02f, 7.358070e-02f, -3.234079e-02f, -5.910790e-02f, 1.094839e-01f, 8.026055e-02f,
  -6.153631e-02f, 7.065409e-02f, 3.437627e-02f, 3.078655e-02f, -1.282245e-01f, 8.544645e-02f, 9.425230e-02f, 4.079880e-02f,
  -5.291547e-02f, 2.810975e-02f, 9.412822e-02f, 1.314033e-01f, -1.970986e-02f, -2.861327e-02f, 2.567212e-02f, -2.261330e-03f,
  -1.358649e-01f, -6.885821e-02f, 3.582124e-02f, 1.521167e-01f, 1.449832e-02f, 7.864489e-02f, -1.122702e-01f, 3.200367e-03f,
  -9.672671e-04f, -2.055213e-01f, -2.502529e-02f, -2.833599e-02f, 2.151417e-01f, 1.408516e-02f, 2.424720e-02f, 1.123789e-01f,
  5.894877e-02f, -4.639915e-02f, -1.178423e-01f, -1.134132e-01f, -7.922797e-02f, -7.333172e-02f, -1.543621e-01f, -9.772951e-02f,
  -2.677018e-02f, 5.336850e-03f, 3.156414e-02f, -5.008746e-03f, 5.918068e-02f, 5.474962e-02f, 1.684048e-01f, 2.224319e-01f,
  1.356740e-02f, 9.659464e-02f, 4.986626e-02f, 3.682081e-02f, 2.472664e-02f, -6.190061e-02f, 1.800311e-02f, 6.735078e-02f,
  -7.955670e-02f, -3.637769e-02f, -1.158262e-02f, -1.266876e-01f, -2.742740e-02f, -2.781075e-02f, -6.832892e-02f, 1.089292e-01f,
  2.098169e-01f, -8.192647e-02f, -4.261937e-02f, -1.423404e-01f, -2.222998e-02f, -5.868541e-02f, -1.897635e-01f, 4.233289e-02f,
  -1.282931e-01f, 2.152911e-01f, -3.540929e-02f, 3.411908e-02f, -5.277526e-02f, 2.082310e-02f, -5.814988e-02f, 1.619130e-02f,
  9.462868e-02f, 9.914101e-02f, 1.304982e-01f, -3.002836e-02f, 5.292626e-02f, -2.843746e-02f, 2.100678e-02f, 1.800039e-02f,
  -3.863563e-02f, -2.922187e-02f, -1.123149e-01f, 1.681409e-01f, 4.334873e-02f, 9.124223e-03f, 1.733899e-01f, -2.248075e-02f,
  -8.433633e-02f, -4.042706e-02f, 1.165335e-02f, -1.324192e-01f, -3.755710e-02f, 7.644308e-02f, -4.066356e-02f, 6.290618e-02f,
  -1.281024e-01f, -4.302935e-02f, 6.141701e-02f, 3.776427e-02f, -6.990135e-02f, 1.287624e-01f, 6.394811e-02f, 3.291031e-02f,
  1.994394e-02f, -4.399456e-02f, -2.989440e-04f, 2.084885e-02f, -3.418246e-02f, 1.486906e-02f, 1.673699e-01f, -9.792820e-02f,
  2.466245e-02f, 1.082696e-01f, -2.954045e-02f, 1.950379e-02f, -4.665241e-02f, -9.756570e-02f, 3.019785e-02f, -3.397242e-02f,
  5.961042e-03f, -6.010559e-03f, -2.133772e-02f, 2.666147e-03f, 1.466191e-01f, -1.146147e-01f, 8.070503e-02f, 8.378346e-02f,
  1.202375e-01f, 9.459445e-03f, 9.406963e-02f, 3.263443e-02f, -2.296828e-01f, 3.652720e-02f, 1.007537e-01f, 4.691518e-02f,
  -3.717167e-02f, 1.187323e-01f, 3.274733e-02f, -4.858017e-04f, 1.459702e-01f, 3.137513e-02f, -6.593907e-03f, -2.514561e-02f,
  8.816346e-02f, 5.331752e-02f, 1.491991e-01f, -8.282638e-02f, 2.427007e-02f, 5.627799e-03f, -2.569416e-02f, -3.170836e-02f,
  2.328487e-02f, -1.731308e-02f, 4.460528e-02f, -5.922766e-02f, 3.528525e-02f, 7.871184e-02f, -4.080249e-02f, -9.460479e-02f,
  -2.036560e-02f, 2.815183e-02f, -4.490632e-02f, 3.939425e-03f, 3.136783e-02f, 1.084633e-01f, -6.436169e-02f, -9.876495e-03f,
  1.148122e-01f, 2.245269e-02f, 6.861912e-02f, 1.774965e-02f, -5.029056e-02f, 1.693526e-02f, -3.807241e-03f, 1.257488e-02f,
  3.119288e-02f, 3.226759e-02f, -7.558960e-02f, 9.287121e-03f, -1.714481e-02f, 5.928664e-03f, 4.754437e-02f, 6.076897e-02f,
  4.867103e-02f, 8.183406e-02f, -1.028151e-01f, 1.470236e-01f, -1.047082e-02f, -7.569158e-02f, -2.482484e-02f, -3.246189e-02f,
  -2.301164e-02f, -2.076861e-02f, 3.518167e-02f, 1.822418e-02f, 3.472784e-02f, 1.457363e-01f, 8.755324e-02f, -2.427611e-04f,
  1.279214e-02f, 7.132163e-02f, 3.606194e-02f, 1.148317e-01f, -3.238231e-02f, 4.087652e-02f, -1.109965e-02f, 5.697808e-03f,
  1.010255e-01f, -6.243886e-02f, -1.224525e-01f, -2.942425e-02f, -5.774899e-02f, -9.151954e-02f, 3.627881e-02f, 1.512010e-01f,
  2.189264e-03f, -1.238355e-01f, 1.452145e-01f, -1.028444e-01f, -3.220768e-02f, 9.398762e-02f, 1.233203e-01f, 4.213494e-02f,
  1.841113e-02f, 9.520878e-03f, -1.011683e-01f, 1.290737e-01f, 2.266635e-02f, 7.285239e-02f, -1.478683e-02f, -1.644304e-01f,
  -1.262581e-01f, 4.039804e-02f, 1.580305e-02f, -1.136560e-01f, 7.788465e-02f, 4.945777e-02f, 6.966544e-02f, 1.950492e-02f,
  -9.714404e-02f, 4.177717e-02f, 9.529385e-03f, 1.008702e-02f, 1.317494e-02f, -1.546055e-01f, 5.551511e-02f, 3.554162e-02f,
  4.505086e-02f, -1.241222e-01f, -5.170398e-02f, 4.155738e-02f, 5.588697e-02f, 1.141756e-02f, 1.157788e-01f, 1.290518e-01f,
  2.752081e-02f, 3.157998e-02f, 7.229596e-02f, -2.240707e-03f, -1.295521e-01f, -6.876775e-02f, 4.810509e-02f, 1.311881e-01f,
  5.885255e-02f, 4.181226e-02f, -7.464502e-02f, 1.703895e-01f, 1.198623e-02f, -8.303434e-02f, 3.884438e-02f, -6.573561e-02f,
  1.943747e-01f, -1.144058e-01f, -1.880393e-02f, 1.053291e-01f, 7.917675e-02f, 2.383685e-02f, 1.419136e-02f, 4.708451e-02f,
  4.039123e-02f, -2.235380e-02f, -1.249541e-01f, -1.337050e-02f, -6.571147e-02f, -4.230165e-02f, -2.443670e-02f, 1.923955e-02f,
  -1.629302e-02f, -4.604213e-02f, 3.131966e-02f, 3.538426e-02f, -6.148447e-03f, -7.946384e-02f, 5.537750e-02f, 2.933441e-02f,
  9.389438e-02f, -7.757349e-02f, -4.017095e-02f, 1.409957e-01f, 9.527699e-02f, -2.065987e-02f, 5.543341e-02f, -2.702092e-02f,
  6.284117e-02f, -8.774261e-02f, -4.675106e-02f, -8.124294e-03f, 8.278863e-02f, -2.776641e-03f, 1.078746e-01f, 1.014229e-01f,
  -5.415373e-03f, -4.322534e-02f, -7.742208e-02f, 6.997889e-02f, -1.019638e-01f, 8.312793e-02f, -4.722407e-02f, 5.406542e-02f,
  7.476078e-02f, 2.570865e-02f, 1.227843e-02f, 1.075131e-01f, 1.348824e-02f, 1.211006e-01f, 1.230659e-01f, 9.191380e-02f,
  7.351632e-02f, 2.312108e-02f, -1.342513e-02f, 5.604658e-02f, 9.241541e-02f, 3.375052e-02f, 8.983018e-02f, -1.731637e-01f,
  9.341185e-02f, -2.298164e-03f, -8.188780e-02f, 5.454947e-02f, -9.419663e-03f, 1.016966e-01f, 6.779579e-02f, 3.943708e-02f,
  1.104707e-01f, 7.311822e-02f, -2.168421e-02f, -1.131626e-01f, -1.621629e-02f, 6.647290e-02f, -4.341830e-02f, -3.434078e-02f,
  -1.136154e-02f, 1.634180e-01f, -4.830330e-02f, 4.561247e-02f, -6.106777e-02f, -4.884712e-02f, -6.570136e-02f, 9.903106e-02f,
  -3.308557e-02f, -3.813576e-02f, 1.200154e-01f, 2.584923e-02f, 5.613876e-02f, -1.101101e-01f, -1.259556e-02f, 2.095195e-02f,
  -1.541751e-01f, -1.008304e-01f, -5.253636e-02f, 1.809093e-01f, 4.113185e-02f, -3.958450e-02f, 6.074766e-04f, 7.842012e-02f,
  -1.173962e-01f, 7.120728e-02f, 4.150500e-02f, -2.834905e-02f, 2.303350e-02f, 2.683870e-02f, -8.668323e-02f, 1.350170e-02f,
  -1.214887e-01f, 5.039518e-02f, 1.223316e-01f, 5.061425e-02f, -5.493204e-02f, 1.352205e-01f, -5.761303e-02f, 1.316014e-01f,
  -1.540659e-02f, 3.993061e-02f, 7.948567e-02f, -5.764361e-02f, -6.266251e-03f, 7.215133e-02f, -5.629130e-02f, -1.045454e-01f,
  -1.608416e-01f, -8.983783e-02f, -7.390905e-02f, -3.206332e-02f, -1.175407e-01f, -1.839517e-02f, -8.429985e-02f, 3.242290e-02f,
  -7.324073e-02f, -1.511093e-01f, -1.017294e-01f, -1.305244e-01f, -7.069852e-02f, 2.065198e-02f, 1.979597e-01f, 2.076453e-01f,
  2.677344e-01f, 2.807393e-01f, 8.132345e-03f, -9.131996e-02f, 1.086530e-01f, 1.585767e-02f, -4.610619e-03f, -2.421188e-03f,
  1.138486e-01f, 1.309993e-01f, 7.757252e-02f, 8.580843e-03f, 4.452755e-02f, -1.203617e-01f, 3.407789e-02f, 2.547455e-02f,
  -6.116094e-02f, 5.219221e-02f, 3.714828e-02f, 5.070456e-02f, -4.864211e-02f, 1.133182e-01f, 1.116551e-01f, 1.875074e-03f,
  -3.850309e-03f, -4.974396e-02f, -4.666145e-02f, 5.335279e-02f, 5.034334e-02f, 2.570491e-02f, -5.165735e-02f, 1.644174e-02f,
  8.112043e-02f, -1.359766e-02f, -9.912273e-02f, 7.742874e-02f, 4.420171e-02f, -1.465160e-02f, 8.291698e-02f, 8.183537e-02f,
  -1.044075e-01f, -1.274894e-02f, 2.409763e-02f, -3.134155e-02f, -8.931605e-03f, 7.096428e-02f, -5.977858e-02f, -3.427342e-02f,
  -2.537911e-02f, -7.349735e-02f, -1.222161e-01f, -6.186818e-02f, 9.058230e-02f, -1.210876e-01f, 1.384419e-01f, 5.662066e-02f,
  1.109861e-01f, -8.744218e-03f, 4.219192e-02f, -8.609880e-02f, -6.786046e-02f, -1.744231e-01f, -8.846150e-02f, -1.268514e-01f,
  -7.525097e-02f, -8.997974e-02f, -9.918576e-02f, 5.463494e-02f, -2.676443e-02f, 1.227974e-02f, -7.839913e-03f, 2.174507e-02f,
  -5.790585e-03f, -2.918192e-02f, 2.476038e-02f, 1.791551e-02f, -7.002439e-02f, 5.652745e-02f, -2.765260e-03f, -8.885063e-02f,
  -5.658355e-02f, 1.224223e-01f, -1.235299e-01f, 4.668553e-02f, -3.087398e-02f, -1.476679e-01f, -8.278364e-02f, 3.661537e-03f,
  4.828868e-02f, 7.064048e-02f, 4.220251e-02f, -4.488921e-02f, -2.551564e-02f, -1.243739e-01f, 7.344397e-02f, 8.574130e-02f,
  1.531392e-01f, -5.575798e-02f, 1.812871e-01f, 1.300966e-01f, 4.042450e-02f, 5.559323e-02f, -1.028176e-01f, -9.329794e-03f,
  2.648420e-02f, 1.290198e-01f, 3.173318e-02f, 2.644508e-02f, -3.900277e-02f, -3.206365e-02f, -4.237068e-02f, -8.159079e-02f,
  -4.783844e-02f, -1.564988e-02f, 1.975328e-02f, 1.015445e-01f, -9.671951e-02f, 4.570947e-02f, 1.937276e-02f, 3.811183e-02f,
  2.569876e-03f, -6.807411e-02f, 7.037487e-02f, 2.594674e-03f, -8.526859e-02f, -8.308884e-02f, -4.826010e-02f, 5.658741e-02f,
  5.190683e-02f, 2.505884e-02f, -9.626837e-02f, -1.394482e-01f, 6.642760e-02f, 6.838895e-02f, 2.199240e-01f, 3.075551e-01f,
  2.592269e-01f, 6.978154e-02f, -6.587148e-02f, 5.599851e-02f, 6.805919e-02f, 6.609250e-02f, 1.380826e-02f, 6.447685e-02f,
  -5.150715e-02f, 1.321610e-02f, 1.780737e-03f, -7.615956e-02f, 1.250993e-01f, 1.923979e-02f, 4.996213e-02f, 1.933554e-03f,
  4.795055e-03f, -1.386511e-01f, -5.287567e-02f, -7.289401e-02f, -4.042842e-02f, -5.571198e-02f, -1.260023e-01f, -1.419963e-01f,
  -1.493254e-01f, -9.207352e-02f, -2.849088e-02f, -7.486278e-02f, -8.676626e-02f, -5.830451e-02f, -6.398433e-02f, -3.976098e-02f,
  6.248954e-02f, -8.928852e-02f, 1.800316e-02f, 4.536969e-03f, -1.379303e-01f, -1.340836e-02f, -5.089426e-02f, -4.633722e-02f,
  -9.668430e-03f, -2.432879e-02f, -1.124105e-01f, -6.148584e-02f, 6.732016e-02f, 6.316605e-02f, -4.005699e-02f, 4.572254e-02f,
  -1.972661e-03f, 6.391755e-02f, -1.620641e-03f, -6.049785e-04f, 5.210608e-02f, -1.334930e-02f, -2.732978e-02f, 1.199488e-01f,
  3.147019e-02f, -8.743892e-02f, -1.244562e-03f, 1.705439e-01f, -1.103118e-02f, 7.191475e-02f, 4.780945e-02f, 1.991949e-02f,
  1.768947e-02f, -8.797742e-02f, -3.973681e-02f, 2.329806e-02f, -7.525099e-02f, -2.185417e-02f, -1.586326e-01f, 5.355775e-02f,
  1.025064e-01f, -3.179419e-02f, 1.173032e-01f, 1.584280e-02f, -2.363222e-02f, -8.509836e-02f, -2.990758e-03f, 5.405381e-02f,
  4.174830e-02f, 5.474911e-02f, 3.217942e-02f, -8.999768e-02f, 5.082199e-04f, 3.329927e-02f, -4.169711e-03f, 6.851011e-03f,
  -4.074641e-02f, -1.227919e-02f, -1.113487e-01f, -5.864626e-02f, -5.099534e-03f, -3.183778e-02f, -4.926455e-02f, 2.796613e-02f,
  8.368313e-02f, 4.551173e-02f, 1.512908e-01f, 1.739872e-01f, -2.743313e-02f, 1.313798e-02f, 3.639039e-02f, -5.598771e-02f,
  -3.234256e-02f, -5.500090e-02f, 2.208110e-02f, 1.666847e-01f, -2.355919e-02f, -6.947233e-02f, 1.277752e-01f, -8.820527e-02f,
  5.485074e-02f, -3.220961e-02f, -3.999764e-02f, 1.884112e-02f, 1.235040e-01f, 7.170366e-02f, 5.261392e-02f, -6.870296e-02f,
  -4.667410e-02f, 1.230066e-01f, -8.037938e-02f, 3.579555e-02f, -2.440598e-02f, -1.426314e-02f, 4.369814e-02f, -2.448961e-02f,
  -2.901503e-02f, -8.032703e-02f, 1.611865e-02f, -9.329178e-02f, 9.628802e-02f, 1.109422e-01f, -1.267546e-01f, -6.502365e-02f,
  -8.367081e-02f, 7.296709e-02f, -4.502286e-02f, -9.937800e-02f, 6.104866e-02f, -1.351131e-01f, -9.836058e-02f, -7.852927e-02f,
  -5.463426e-04f, -9.774595e-02f, 6.533069e-02f, 3.985054e-02f, 1.403490e-02f, 7.214002e-02f, -1.055200e-02f, 1.320692e-01f,
  2.577849e-01f, 1.467863e-01f, 3.906931e-02f, 2.407734e-02f, 2.193305e-01f, 2.059523e-02f, -3.632087e-02f, -7.491560e-02f,
  -1.136016e-02f, 4.998444e-02f, -6.520502e-02f, 6.798629e-02f, 8.876844e-02f, -3.101545e-02f, -2.715979e-03f, -4.044343e-02f,
  -5.313229e-02f, 3.339000e-03f, 6.514973e-02f, -3.650465e-02f, -6.587715e-02f, 6.679206e-02f, 7.376175e-02f, -1.931592e-02f,
  6.160823e-02f, -1.084111e-02f, -9.173629e-02f, 8.428280e-02f, 2.571856e-02f, -1.541940e-02f, 6.327218e-02f, -9.830225e-02f,
  8.951273e-03f, -6.890894e-02f, -1.405485e-01f, 6.726659e-02f, 1.142400e-01f, -6.416039e-02f, -2.001944e-02f, 5.822354e-02f,
  9.887020e-02f, 7.275010e-02f, 5.854790e-02f, -1.205781e-01f, -7.545904e-02f, 3.276393e-02f, -6.572817e-02f, -5.467555e-02f,
  -7.107553e-02f, -8.159335e-02f, -1.091869e-01f, 4.637586e-02f, -1.170030e-01f, 2.110354e-02f, 1.058826e-01f, -8.456194e-02f,
  8.017164e-02f, -1.701701e-02f, 5.280277e-02f, -5.881885e-02f, -3.807747e-02f, -6.401069e-02f, 1.073328e-02f, -6.732415e-02f,
  -1.511694e-01f, -7.960958e-02f, -2.408101e-02f, -8.896004e-02f, -1.968654e-02f, -2.949327e-02f, 1.849032e-02f, -6.273340e-02f,
  2.138807e-02f, 1.230173e-03f, 6.758935e-02f, 2.779781e-02f, -1.085233e-01f, -2.709075e-02f, 1.459533e-01f, -1.499495e-02f,
  -5.189442e-02f, 1.420541e-01f, -6.654733e-02f, -9.754334e-02f, 1.039724e-01f, -4.997844e-03f, -1.381358e-02f, 1.024140e-01f,
  -1.682845e-05f, 2.770307e-02f, -4.045421e-03f, -7.170354e-02f, -5.364664e-04f, 4.013656e-02f, -1.174683e-01f, 1.191160e-01f,
  7.808086e-02f, 6.176604e-02f, 5.061470e-02f, 1.691997e-01f, 1.577073e-02f, 1.062322e-01f, 9.970774e-02f, -2.493749e-02f,
  -1.645736e-02f, 9.318260e-02f, 4.186446e-02f, -8.751440e-03f, 4.546336e-02f, 9.546439e-02f, 2.654844e-02f, 5.952452e-02f,
  9.147339e-02f, 3.957096e-02f, -6.156385e-02f, 9.729766e-02f, 5.028166e-02f, -4.436266e-02f, -5.034337e-02f, -3.771554e-02f,
  -3.586700e-02f, 6.068191e-02f, 5.453945e-02f, 5.259290e-02f, 2.259717e-02f, -5.721539e-02f, -3.790320e-02f, -1.043103e-02f,
  1.233960e-02f, -5.483739e-03f, 2.842735e-02f, -1.060862e-01f, 3.154769e-02f, -6.982449e-02f, 1.762474e-01f, 2.833923e-01f,
  4.346179e-02f, -5.970056e-03f, 8.822875e-02f, 2.237436e-02f, -8.299658e-02f, 4.762256e-02f, 6.463648e-02f, -7.631206e-03f,
  -7.598718e-02f, -2.454780e-03f, 1.017784e-01f, -3.307351e-02f, 6.889289e-02f, -5.505004e-03f, 1.182859e-02f, -6.512728e-02f,
  -5.043939e-02f, -5.868969e-02f, 3.957042e-02f, -4.598849e-02f, 4.430786e-02f, -1.386140e-01f, -6.973812e-02f, 6.254715e-02f,
  -3.068383e-02f, -1.300363e-01f, -1.112027e-01f, -1.260153e-01f, 2.342265e-03f, -5.361031e-02f, -6.366244e-02f, -5.503928e-02f,
  -8.716719e-02f, 5.517893e-02f, 8.632545e-02f, 7.522836e-02f, -3.573191e-02f, 2.628407e-02f, 2.965224e-02f, -2.838757e-02f,
  -4.020598e-03f, -4.064248e-02f, 3.433009e-02f, -8.245648e-02f, 6.379903e-02f, -1.115991e-01f, 4.135775e-02f, 6.185007e-02f,
  4.601062e-02f, -1.225500e-03f, -5.495142e-02f, 4.730777e-02f, -8.451990e-03f, 1.149750e-01f, 6.366896e-02f, 5.377037e-02f,
  1.259688e-02f, 4.670870e-02f, 9.787027e-02f, -6.221496e-02f, 2.580463e-02f, 6.799313e-02f, 8.303285e-02f, -2.175613e-02f,
  -8.381221e-02f, -4.219942e-03f, -6.984149e-02f, 1.850253e-02f, 3.014927e-03f, 1.299389e-02f, 3.131181e-02f, 4.979883e-02f,
  9.014179e-02f, -6.227299e-02f, 3.656698e-03f, 3.991052e-02f, -7.389148e-02f, -6.900202e-03f, 6.647205e-02f, -5.109819e-03f,
  2.510346e-02f, -9.659103e-02f, -3.412415e-02f, 6.448574e-03f, -7.494881e-02f, 5.732566e-02f, -7.523926e-02f, 4.021962e-02f,
  -1.845129e-02f, 3.868664e-02f, 8.160387e-03f, -8.295205e-02f, -6.808931e-02f, 1.011988e-01f, -4.704177e-02f, 4.280234e-02f,
  3.673609e-02f, 5.797968e-02f, 3.315904e-02f, 3.426495e-02f, -6.718285e-02f, 2.014967e-02f, 9.331219e-04f, 7.729623e-02f,
  -3.961589e-02f, -3.469105e-02f, 8.110023e-02f, 1.273969e-01f, 1.105851e-01f, -1.023624e-01f, 6.738204e-02f, 9.278873e-03f,
  1.495482e-02f, 5.104490e-02f, 4.350746e-02f, 6.025237e-04f, 1.288404e-01f, -2.855249e-02f, -6.959525e-02f, 1.086112e-01f,
  -6.340234e-03f, 4.246687e-03f, 3.973427e-02f, 2.536095e-02f, 5.546187e-03f, -8.497369e-03f, 3.960964e-02f, -4.358274e-02f,
  5.237214e-02f, -1.023698e-02f, -8.467774e-02f, 1.944477e-02f, -4.690646e-02f, -2.170803e-02f, -5.672903e-03f, -2.193066e-02f,
  -6.204875e-02f, 5.671838e-03f, 8.070555e-02f, -5.375581e-02f, -4.116321e-02f, -1.117329e-01f, -1.235656e-01f, -1.397502e-01f,
  -1.086870e-01f, -7.669677e-03f, 8.133664e-03f, 1.876002e-02f, -7.450094e-03f, -9.154414e-02f, -6.087940e-02f, 1.315615e-01f,
  2.039583e-01f, 9.392717e-02f, 3.122566e-02f, 8.218376e-03f, 8.000755e-02f, 5.925754e-02f, -3.497272e-02f, -7.969425e-02f,
  1.123478e-01f, 1.629294e-01f, -4.938816e-02f, -2.706434e-02f, 2.781671e-03f, -5.525226e-02f, 1.159644e-01f, -5.169736e-02f,
  7.796166e-02f, 9.819151e-02f, -1.308146e-02f, 1.143754e-02f, 1.070281e-01f, 1.345973e-01f, -4.277286e-02f, 3.074494e-02f,
  6.735906e-02f, -5.117920e-02f, -2.505108e-02f, -1.641373e-02f, 1.077758e-01f, -1.864364e-02f, 6.421983e-02f, 7.933452e-02f,
  5.967396e-02f, 1.165668e-01f, -5.828248e-02f, 2.439057e-02f, 1.504806e-01f, 1.227738e-01f, 7.707924e-02f, 1.172654e-01f,
  -6.287751e-02f, 4.354228e-02f, -5.338812e-02f, -9.231800e-02f, -7.085365e-03f, 4.486445e-02f, 9.435961e-02f, 3.759947e-02f,
  3.021678e-02f, -3.637809e-02f, 3.587556e-02f, 6.914651e-02f, -9.678398e-02f, 4.102823e-03f, -2.197456e-03f, 9.485215e-02f,
  1.585105e-02f, -4.361981e-02f, 4.032528e-02f, -4.580136e-02f, -5.831118e-02f, -1.640840e-03f, 5.905113e-02f, -9.582091e-02f,
  -5.712844e-02f, 3.764329e-02f, -1.124321e-02f, -1.003205e-01f, 6.946331e-02f, 1.577093e-02f, -4.432908e-02f, -3.881528e-02f,
  1.139966e-01f, -1.904552e-03f, 5.821118e-03f, 8.009346e-02f, 3.265534e-02f, -6.785699e-02f, -2.824827e-02f, 8.238059e-03f,
  -1.909534e-02f, 1.403006e-01f, 1.293760e-01f, -1.292391e-02f, 9.808200e-02f, 4.127351e-02f, 5.582953e-02f, 6.349137e-02f,
  1.225869e-02f, 1.116401e-01f, 8.705515e-02f, -1.203880e-01f, -3.318238e-02f, 2.437687e-03f, -8.217338e-03f, -1.915592e-02f,
  4.966692e-02f, 5.863074e-02f, 1.535960e-01f, 1.244338e-01f, 8.406144e-02f, -1.305374e-02f, -1.228684e-02f, 1.618795e-02f,
  -4.943624e-02f, 6.530960e-02f, 4.074048e-02f, 2.108735e-02f, -2.628849e-02f, 6.402968e-02f, -3.502832e-02f, -1.068239e-01f,
  -4.069518e-02f, 9.732769e-02f, -3.467415e-02f, 1.144351e-01f, -7.230433e-02f, -2.495137e-02f, 1.253838e-01f, 2.894745e-02f,
  -3.799008e-02f, 8.542432e-03f, 5.033264e-02f, 1.002742e-01f, -6.810872e-03f, 2.771725e-02f, 9.206995e-02f, 1.205033e-01f,
  1.663137e-02f, 1.115580e-01f, 1.022320e-01f, 6.538794e-02f, -2.072181e-02f, 3.043585e-02f, 6.211841e-02f, 5.494894e-02f,
  2.256418e-02f, 4.398241e-02f, 1.023061e-01f, 8.104149e-02f, -6.727552e-02f, 8.145755e-02f, 1.101326e-01f, -4.081935e-03f,
  -1.009870e-01f, 3.615351e-02f, -5.794109e-02f, 3.057216e-02f, -7.681532e-02f, -1.686071e-02f, -5.528863e-02f, 5.720783e-02f,
  5.811585e-02f, -1.070604e-01f, -4.006709e-02f, 5.249949e-02f, 6.253009e-03f, -2.419635e-02f, -1.073303e-01f, -8.172350e-02f,
  -7.873099e-02f, -1.044750e-01f, -5.867527e-02f, 1.628503e-02f, -8.053293e-03f, 7.776162e-02f, -6.407762e-02f, -1.696806e-02f,
  1.329115e-01f, -7.868871e-03f, 1.405840e-01f, 6.836405e-02f, 6.876721e-03f, 5.119899e-02f, -2.565197e-03f, -3.891430e-02f,
  9.834036e-03f, 3.040737e-02f, -7.388792e-02f, 4.679391e-02f, 3.303215e-02f, 6.731367e-02f, 6.012540e-02f, 1.508465e-01f,
  1.365347e-01f, 6.427027e-02f, 2.972494e-02f, 7.938559e-02f, 4.201857e-03f, 1.759906e-02f, 4.443328e-02f, 9.457116e-03f,
  6.361573e-03f, 1.396944e-01f, -5.216011e-02f, 6.796388e-02f, 4.979009e-02f, 5.782789e-02f, 5.516328e-02f, 6.835348e-02f,
  9.983774e-02f, -6.826486e-02f, 6.511488e-02f, 9.497730e-02f, 3.155429e-02f, -4.750045e-02f, 4.924363e-02f, 5.598892e-03f,
  -4.986074e-03f, -6.413455e-02f, 7.684978e-02f, 1.940051e-02f, 8.092495e-02f, 1.197523e-01f, 1.153864e-01f, -3.814870e-02f,
  5.761970e-02f, 1.393815e-02f, -1.800247e-02f, 2.351640e-02f, -2.447644e-02f, -7.578998e-02f, 1.103409e-01f, -2.143066e-02f,
  -2.152066e-02f, 1.405893e-01f, -4.775754e-02f, -1.002804e-02f, 9.003878e-02f, -1.391547e-03f, -1.043802e-01f, 7.150180e-02f,
  6.671155e-02f, 6.549565e-02f, 1.172285e-01f, -2.430075e-03f, -4.446507e-03f, 1.210216e-01f, -4.306158e-02f, -3.240413e-02f,
  5.329932e-02f, -8.739523e-02f, 4.308025e-02f, -7.056233e-03f, 5.033088e-02f, -5.415738e-02f, 1.275339e-01f, 9.373002e-02f,
  9.527940e-02f, 7.600001e-03f, 1.191574e-02f, -3.287267e-02f, 1.255329e-01f, -5.325267e-02f, 6.183333e-02f, -4.704032e-02f,
  -4.608399e-02f, -1.826540e-02f, 1.709945e-02f, -8.283887e-02f, -7.838456e-02f, 1.259642e-01f, -1.650747e-02f, -8.220889e-03f,
  7.078319e-03f, -1.213638e-01f, 5.804274e-02f, -4.266758e-02f, 4.051708e-02f, 6.020640e-02f, -5.130884e-02f, -1.967683e-01f,
  8.635888e-02f, 1.073682e-01f, -1.324572e-01f, -4.097882e-02f, 3.913143e-02f, -4.467458e-02f, -1.283973e-01f, 1.179440e-02f,
  -7.472725e-02f, -1.210954e-01f, -1.180148e-01f, 1.108866e-01f, 7.635644e-02f, 4.048913e-02f, 3.496021e-02f, -9.682883e-02f,
  2.249792e-01f, 2.447944e-01f, -6.369945e-02f, -3.299721e-02f, -2.499859e-03f, 3.639355e-03f, 3.105269e-02f, 2.316278e-02f,
  -4.689495e-02f, 2.007391e-01f, 7.156581e-03f, -1.050932e-02f, 2.178515e-02f, -2.466460e-02f, 8.318698e-02f, -7.803740e-02f,
  -7.958402e-02f, 8.832869e-02f, 6.390332e-02f, -6.420599e-02f, -2.635575e-02f, 5.968757e-03f, 9.740184e-02f, -6.012378e-02f,
  5.489065e-02f, -9.200772e-02f, 5.050483e-02f, 4.492470e-02f, 7.201128e-02f, -9.112243e-02f, -1.738488e-02f, 4.831434e-02f,
  2.251382e-02f, 1.051166e-01f, -1.290490e-01f, -2.817535e-02f, 8.932257e-02f, 2.983451e-03f, 1.188332e-01f, 1.722680e-01f,
  6.953376e-02f, 9.945536e-02f, -1.121961e-02f, -2.859967e-02f, -6.002397e-02f, 4.949134e-02f, -9.414753e-02f, 1.158496e-01f,
  -1.244797e-03f, 2.346590e-02f, -1.533152e-01f, -8.285429e-02f, -1.163681e-02f, -2.444896e-02f, -3.285594e-03f, 1.208087e-01f,
  -1.940578e-02f, 6.014184e-02f, -7.209675e-03f, -6.746036e-02f, -3.752858e-02f, -3.780081e-02f, 7.839970e-02f, -5.036155e-02f,
  6.183735e-02f, -2.996998e-02f, -4.280416e-02f, 6.585404e-03f, -2.094840e-02f, -2.669115e-02f, -1.009494e-02f, 8.760541e-02f,
  4.465469e-02f, -1.262638e-01f, 3.876350e-02f, 6.813698e-02f, -9.545291e-02f, 6.734224e-02f, 1.381700e-02f, -8.903866e-02f,
  1.898345e-02f, 8.512156e-02f, 1.049520e-02f, 4.750112e-02f, 8.334122e-02f, -1.651737e-01f, 6.113394e-02f, -7.693885e-02f,
  3.737586e-02f, 9.585828e-02f, -7.403848e-02f, -1.003526e-01f, -1.526103e-02f, -3.075574e-02f, -9.057377e-02f, -6.322208e-03f,
  3.732741e-02f, 2.955547e-02f, 3.905180e-02f, 7.684094e-02f, 6.134888e-05f, 1.129010e-01f, -1.175213e-02f, 3.633465e-03f,
  7.436085e-02f, 1.086116e-02f, -1.360187e-02f, 5.281512e-02f, 1.799722e-01f, -1.034535e-02f, 5.686931e-02f, -5.181607e-02f,
  1.358086e-01f, -8.440015e-02f, 2.662224e-02f, -5.625161e-02f, -1.332511e-01f, 3.040217e-03f, 1.726126e-01f, -3.338665e-02f,
  9.000250e-02f, 8.393940e-02f, 7.434620e-02f, -7.738229e-02f, -1.411144e-01f, 1.172367e-02f, 1.111767e-01f, -3.046198e-02f,
  1.230184e-01f, -6.522547e-02f, -1.504728e-01f, -3.735027e-02f, -7.326628e-02f, 1.317905e-03f, 3.629338e-02f, 1.532134e-01f,
  1.312000e-01f, 3.695045e-02f, -5.712315e-03f, -8.003120e-02f, 5.430263e-02f, 5.756228e-02f, 4.028174e-02f, 1.166456e-01f,
  8.401493e-02f, -3.168061e-03f, 1.139544e-01f, 9.414249e-02f, 6.343303e-03f, 1.861462e-02f, 1.012244e-01f, -1.522719e-02f,
  -1.492157e-01f, -1.248821e-01f, -1.407812e-01f, -4.496707e-02f, -9.695496e-02f, 4.222613e-02f, 6.819383e-02f, -1.882471e-02f,
  -4.160015e-02f, -7.199384e-02f, 8.487002e-02f, -1.642071e-02f, -4.021000e-02f, -4.116589e-03f, 1.048904e-01f, -3.599473e-02f,
  1.227517e-02f, -1.183415e-02f, 1.142759e-01f, 1.373037e-02f, -3.819172e-02f, 4.399536e-02f, 9.441781e-02f, -5.206292e-03f,
  7.679347e-02f, 1.026709e-02f, 3.527365e-02f, -3.215635e-02f, 7.977658e-02f, 8.849892e-02f, 1.941968e-02f, 2.134557e-02f,
  -1.175051e-01f, -8.322960e-03f, 5.642888e-02f, -1.024054e-02f, -7.391487e-02f, 2.792436e-02f, 7.004450e-02f, -2.178343e-02f,
  1.809737e-01f, 2.506365e-02f, 6.187231e-02f, -9.197680e-02f, -5.313748e-02f, -2.965593e-03f, 6.783890e-02f, -8.958236e-02f,
  5.520897e-02f, -1.393404e-01f, -1.447944e-01f, 3.502984e-02f, -6.340788e-03f, 3.319651e-02f, -1.548884e-02f, -1.605424e-02f,
  7.877308e-02f, -1.178249e-01f, -6.321592e-02f, 1.185688e-01f, 4.537717e-03f, 1.312899e-01f, -4.594371e-02f, 8.367170e-02f,
  8.897211e-02f, 3.807866e-03f, 5.773352e-02f, 4.515372e-02f, 5.528458e-02f, -1.831885e-02f, -1.080709e-01f, -1.375313e-02f,
  -3.996549e-02f, -2.723864e-03f, -1.011601e-02f, -8.868151e-02f, 2.123229e-03f, -8.332043e-02f, -4.732642e-02f, 3.595290e-02f,
  -8.019320e-02f, 1.167202e-01f, 4.623764e-02f, 8.599187e-03f, -3.876590e-02f, 1.203756e-01f, 7.177959e-02f, 6.299409e-02f,
  8.840558e-02f, 2.698996e-02f, 6.635483e-02f, 1.366723e-01f, 8.343672e-02f, -6.493239e-03f, 1.441720e-01f, -4.103576e-02f,
  8.149873e-02f, 1.600246e-02f, -8.571013e-02f, 2.620535e-02f, -8.240322e-02f, -1.097529e-01f, -3.582041e-02f, 4.655484e-02f,
  -7.462832e-02f, 6.471654e-02f, 1.136588e-01f, 7.872165e-02f, 1.308281e-01f, 7.106417e-02f, -3.473728e-03f, -2.029952e-03f,
  8.283538e-02f, 1.148797e-01f, -3.416961e-02f, 5.135841e-02f, 5.580910e-02f, 4.908513e-02f, 4.978411e-02f, -2.708105e-02f,
  -4.127619e-02f, -5.119670e-02f, -6.089880e-02f, -1.256652e-02f, 2.687719e-02f, 1.423818e-01f, 1.337133e-02f, 1.637393e-01f,
  -1.291631e-02f, -3.604268e-02f, 4.471761e-02f, 4.807150e-02f, -9.433012e-02f, 1.292589e-03f, 4.310054e-03f, 2.445420e-03f,
  -1.425825e-01f, -4.907083e-02f, 5.824910e-02f, -7.471605e-02f, -1.074487e-01f, 5.701060e-02f, 2.327936e-02f, 1.208181e-02f,
  9.346776e-03f, -7.459462e-02f, 7.174654e-02f, 5.491165e-02f, -5.097912e-02f, -6.801825e-02f, 7.810769e-02f, 8.043527e-03f,
  -1.382846e-02f, 3.973769e-02f, -5.543223e-02f, 6.673301e-02f, 2.893061e-02f, 5.473670e-02f, -8.729997e-02f, -1.983801e-02f,
  1.002383e-01f, 1.028952e-01f, -8.348391e-02f, -1.721762e-02f, 4.811206e-02f, 1.150039e-01f, -1.045163e-01f, -6.474886e-02f,
  -1.271282e-03f, -3.347765e-03f, 5.935712e-02f, -4.369238e-02f, 2.446205e-02f, -7.471893e-02f, 7.634497e-02f, -1.276643e-02f,
  1.455620e-02f, 4.643003e-02f, -4.432145e-02f, 5.948177e-02f, 4.894451e-02f, 1.092205e-01f, 9.200937e-02f, 6.847405e-02f,
  3.202506e-02f, -6.398351e-02f, -8.011466e-03f, 8.584454e-02f, 7.272915e-02f, 1.150173e-01f, -8.539745e-02f, -2.744863e-02f,
  8.603535e-02f, -4.535449e-02f, -1.150406e-01f, -5.505914e-02f, 6.013609e-02f, 1.136481e-01f, -5.277278e-02f, 1.432333e-01f,
  1.086096e-01f, 8.828532e-02f, -3.497149e-02f, 4.851387e-02f, -4.893825e-02f, 5.967805e-02f, -4.379266e-02f, -7.678055e-02f,
  4.583693e-03f, 8.130037e-02f, -4.942591e-02f, 5.685051e-02f, 5.579208e-02f, -8.834950e-02f, -8.952717e-02f, 3.669839e-03f,
  2.767046e-02f, -1.209284e-01f, -6.466617e-02f, 5.094629e-02f, -1.924957e-02f, -7.346346e-02f, -8.736451e-02f, -4.944342e-02f,
  -4.085523e-02f, 3.460061e-02f, -1.145214e-01f, 1.234835e-01f, -1.198353e-01f, -2.310369e-02f, 3.333672e-02f, 8.411695e-03f,
  -8.185769e-02f, 3.950381e-02f, 3.068409e-02f, -8.831599e-02f, -3.240984e-02f, 3.899465e-02f, -1.427454e-02f, -4.347683e-02f,
  6.522412e-02f, 1.384127e-02f, -1.147441e-01f, 3.276905e-02f, -8.720499e-02f, -2.144423e-02f, 1.057677e-01f, -1.809292e-02f,
  -6.035815e-02f, 4.440305e-02f, 5.679658e-02f, 4.986143e-02f, 9.494466e-02f, 6.541593e-02f, 9.948457e-03f, 4.588638e-02f,
  -1.984195e-02f, 5.101500e-02f, 1.016741e-01f, 2.164221e-02f, 2.209212e-02f, -6.277040e-02f, 4.661686e-02f, -7.878669e-02f,
  -4.854177e-02f, -1.290001e-01f, -6.883890e-03f, -2.239090e-02f, 1.103257e-01f, -5.788864e-02f, -9.231193e-02f, 9.586738e-03f,
  -8.913957e-02f, 1.126610e-01f, 9.723852e-03f, 8.673411e-02f, 7.573893e-02f, 3.420474e-02f, -2.514422e-02f, -7.671186e-02f,
  -1.820956e-02f, 1.912942e-02f, -7.890064e-02f, 7.510732e-03f, -4.174348e-02f, 4.957124e-02f, -4.331803e-02f, 4.540808e-02f,
  5.063152e-02f, 8.605750e-02f, 6.935795e-02f, 1.188836e-01f, 1.275769e-01f, -1.283713e-02f, -1.586817e-03f, 1.264064e-01f,
  9.859751e-02f, 1.049113e-01f, 6.681488e-02f, 8.259598e-03f, 8.533665e-03f, 1.285455e-02f, 3.093932e-02f, 8.473690e-02f,
  6.106589e-02f, 1.109658e-01f, 9.426859e-02f, -2.555179e-03f, -9.836335e-02f, -3.008639e-02f, -1.181762e-02f, 8.753977e-02f,
  1.640310e-03f, -6.451399e-03f, 6.092774e-02f, -9.931742e-03f, -1.245618e-01f, -1.640171e-02f, -5.867423e-02f, -9.767419e-02f,
  -4.600105e-02f, 5.044180e-02f, 6.936564e-02f, 3.081441e-02f, 9.543693e-02f, -8.158953e-02f, -7.830421e-03f, 3.878633e-02f,
  -4.433068e-02f, 1.410436e-02f, -4.923627e-04f, -3.351289e-02f, 2.953783e-02f, 8.756288e-02f, -4.150871e-02f, 7.451458e-02f,
  -4.482207e-03f, 1.067932e-01f, 1.995269e-02f, 3.454997e-02f, -1.997509e-02f, 1.324720e-01f, 7.675713e-02f, -5.885458e-02f,
  4.389958e-02f, 1.323091e-01f, 1.012482e-01f, 2.189299e-02f, 2.541909e-02f, 8.646657e-02f, -3.166909e-02f, 2.555622e-02f,
  -6.113583e-02f, 4.889863e-03f, 3.129158e-02f, 2.219666e-02f, 9.104794e-02f, 1.347381e-02f, -8.199233e-02f, -6.089250e-02f,
  -7.874058e-02f, -8.075950e-02f, -7.445237e-02f, 4.588912e-02f, -5.669482e-02f, -1.406318e-03f, 1.189434e-01f, 1.730767e-02f,
  -2.753846e-02f, -3.612155e-02f, -1.042779e-01f, -8.612729e-03f, 1.152185e-01f, 7.778534e-02f, -5.165197e-02f, 3.187463e-02f,
  1.173738e-01f, -5.404944e-02f, 9.597410e-02f, 3.384798e-02f, -1.048424e-01f, 1.096694e-01f, 3.294565e-02f, 6.238825e-02f,
  -1.820522e-02f, -1.314375e-01f, 2.170208e-02f, 3.120084e-02f, 1.937568e-02f, 2.302236e-02f, -1.423626e-01f, -8.966832e-02f,
  -8.909936e-02f, -1.830138e-02f, -1.402018e-02f, 2.065793e-02f, -2.147777e-01f, 1.375809e-01f, 5.676462e-02f, 5.539200e-03f,
  3.011848e-02f, 4.572283e-02f, 4.347504e-02f, 8.811183e-02f, 2.978557e-02f, 2.351237e-02f, 1.742281e-02f, -7.404298e-02f,
  -7.387337e-02f, 7.518957e-02f, 6.473136e-02f, 3.334931e-02f, 7.628597e-02f, -4.046378e-03f, -1.142968e-02f, 6.253544e-02f,
  2.560379e-02f, 4.311636e-02f, -9.205659e-02f, -7.401312e-02f, -5.709410e-02f, -4.082707e-02f, 5.770798e-02f, 1.553841e-01f,
  9.311483e-02f, 8.594857e-02f, -8.168888e-02f, -3.742915e-02f, -1.190708e-03f, 2.375223e-02f, 1.508005e-01f, -3.653007e-02f,
  -9.905952e-02f, 7.885182e-02f, -2.821805e-02f, 1.056491e-02f, 5.422843e-02f, 7.970750e-02f, 1.422551e-02f, -4.770158e-02f,
  -8.629448e-03f, -4.253179e-02f, 7.431939e-02f, -3.590284e-02f, -8.442775e-02f, 5.437174e-02f, 1.020459e-01f, -5.047557e-02f,
  -8.296438e-02f, -1.150353e-01f, -2.868105e-02f, 8.855043e-02f, 8.308020e-02f, -8.652744e-02f, 2.683172e-02f, 6.515667e-02f,
  7.276022e-02f, -4.167200e-02f, -3.791710e-02f, -2.391539e-02f, 7.047095e-02f, 5.925575e-02f, 2.525126e-02f, 5.293030e-02f,
  9.170771e-02f, 3.634562e-02f, 5.763065e-02f, 6.171175e-02f, 2.387800e-02f, -2.095866e-02f, -9.717181e-02f, -1.723332e-02f,
  9.574287e-02f, -9.584384e-02f, -2.794191e-02f, -2.012971e-02f, -2.975947e-02f, -7.484256e-02f, -9.447429e-02f, 1.299849e-01f,
  -1.840073e-02f, 1.212670e-01f, -4.148310e-03f, 4.829793e-02f, -5.578471e-02f, -9.883793e-02f, 7.224618e-02f, 2.572143e-02f,
  -1.019900e-01f, 4.631018e-02f, -5.032032e-02f, -3.226394e-02f, -1.151174e-01f, -6.919878e-02f, 8.241139e-03f, 4.439628e-02f,
  -8.586206e-02f, -6.959065e-03f, -2.338397e-02f, 7.911962e-02f, 4.323585e-02f, -6.882694e-03f, -7.322967e-02f, -9.312896e-02f,
  -7.823855e-02f, -1.376202e-01f, -9.984914e-02f, -8.561786e-02f, -1.035348e-01f, -5.248525e-02f, -4.102024e-02f, -3.994203e-02f,
  -1.258953e-01f, -1.605754e-01f, 7.512489e-02f, -1.472476e-01f, 3.602440e-02f, 9.838358e-02f, -4.647654e-02f, -5.259494e-02f,
  7.829396e-02f, 1.091179e-02f, 4.122980e-02f, 6.359498e-02f, 9.728859e-02f, -5.477813e-02f, 5.961720e-02f, 3.003342e-02f,
  2.460921e-02f, 1.535157e-02f, 2.453087e-02f, -2.930822e-02f, 1.546461e-01f, 6.805808e-02f, -2.851517e-03f, 8.254488e-03f,
  -1.320878e-02f, 4.744488e-02f, -7.486390e-02f, -7.521736e-02f, 7.757410e-02f, -4.905350e-02f, 1.451638e-01f, -4.643622e-02f,
  7.642810e-02f, 1.780991e-02f, 1.251980e-03f, -6.003844e-02f, -5.653067e-02f, 5.466334e-02f, -3.942918e-02f, 7.977129e-02f,
  1.063496e-02f, 1.288197e-01f, 3.979917e-02f, 1.175116e-02f, 4.606978e-02f, -1.120863e-01f, 5.694261e-02f, 2.493406e-01f,
  9.036762e-02f, -6.243975e-02f, 5.411239e-02f, -1.400441e-02f, -4.147789e-02f, -1.039550e-01f, 2.589983e-02f, 4.735718e-02f,
  1.282752e-01f, -9.720544e-03f, 4.811490e-02f, 7.761513e-02f, 4.098599e-02f, 4.390168e-02f, 8.644816e-02f, 8.581705e-02f,
  -1.882525e-02f, -1.113893e-01f, -6.844482e-02f, 1.359926e-02f, -1.077881e-01f, -2.342095e-02f, 3.120152e-02f, 3.194353e-02f,
  -6.132431e-02f, 1.204912e-02f, 8.765978e-02f, 4.476377e-02f, 1.164554e-02f, 5.394230e-02f, 1.276136e-01f, 4.155362e-02f,
  2.245369e-02f, -7.497992e-02f, -1.469480e-03f, 1.510183e-01f, 9.104466e-02f, 4.782414e-03f, 8.713041e-02f, -8.801090e-02f,
  6.432849e-03f, -8.014369e-02f, -1.252319e-01f, 7.092489e-02f, 6.603042e-02f, -9.077933e-02f, 4.176529e-02f, 9.329284e-02f,
  -2.263440e-02f, -4.593625e-02f, -3.091042e-02f, -7.111301e-02f, -2.018194e-02f, 1.245474e-01f, -7.510556e-03f, 5.431527e-02f,
  8.580043e-02f, 7.035661e-02f, -1.318733e-01f, 9.196435e-02f, -1.397147e-02f, 1.150283e-01f, 9.425862e-02f, 4.012353e-02f,
  -6.494027e-02f, 5.889589e-02f, 1.024347e-02f, -1.275506e-02f, -5.613216e-03f, 9.023114e-03f, 2.440118e-02f, -3.171023e-02f,
  1.684719e-01f, -4.854115e-02f, -7.097295e-02f, 9.375894e-02f, -1.498654e-02f, -4.315031e-03f, 2.346974e-02f, 1.500410e-02f,
  8.399892e-02f, -5.341077e-02f, -5.992933e-02f, -4.974555e-02f, 3.164898e-02f, 5.763800e-02f, -8.987144e-02f, -6.683841e-02f,
  2.020244e-02f, 1.914639e-01f, -6.913865e-02f, -8.630367e-02f, 3.529895e-02f, 3.644968e-02f, 4.847128e-02f, 3.229608e-03f,
  9.386107e-02f, -6.849115e-02f, 1.104752e-01f, 6.333777e-02f, 6.336979e-02f, -3.299379e-02f, 8.965786e-02f, 8.651210e-02f,
  -1.534434e-02f, -4.191526e-02f, -7.343994e-02f, 2.228475e-01f, 1.582137e-01f, -5.507833e-02f, 1.285431e-01f, -4.467030e-02f,
  -2.486458e-02f, -6.762953e-02f, 1.046141e-01f, -4.253018e-02f, -9.359236e-02f, 4.756235e-02f, -1.001475e-01f, -1.253838e-01f,
  -3.645863e-02f, -6.477188e-02f, 5.478914e-02f, 2.064243e-02f, -5.206345e-02f, 1.810722e-02f, -3.685410e-02f, -1.708669e-02f,
  2.213721e-03f, -8.839921e-04f, 3.760042e-02f, -4.397891e-02f, -4.169293e-02f, 2.130973e-02f, 3.478674e-02f, -9.389401e-02f,
  -4.596968e-02f, -6.202373e-02f, 5.252685e-02f, -3.728622e-02f, 6.361000e-02f, -2.529407e-02f, -1.034561e-01f, 6.075972e-02f,
  4.512846e-02f, -5.120322e-02f, -7.783983e-03f, -6.713265e-02f, -6.057613e-02f, -4.410658e-02f, 4.164917e-02f, 1.953726e-01f,
  1.730615e-01f, 1.456762e-01f, -1.157548e-01f, -8.065142e-02f, 3.614297e-03f, 6.218692e-02f, 8.719533e-02f, -2.193547e-02f,
  -4.451305e-02f, -5.789218e-03f, -1.102901e-01f, -3.072549e-02f, 1.308689e-02f, -8.018505e-02f, 5.283887e-03f, 8.270643e-02f,
  -8.690438e-02f, 6.379200e-02f, 1.196575e-01f, -4.051740e-02f, 2.956354e-02f, 9.090505e-02f, 8.184384e-02f, -3.759269e-02f,
  -1.349371e-02f, -1.212742e-01f, 3.952735e-03f, 1.538777e-01f, 5.557064e-02f, 9.009250e-02f, -2.141365e-02f, 6.747354e-02f,
  -9.621784e-03f, 2.758871e-02f, 3.352018e-02f, 7.922200e-02f, 1.216410e-01f, 1.068657e-01f, -5.924948e-03f, -2.038290e-02f,
  -1.560878e-02f, -8.492175e-03f, -5.742319e-02f, 5.634033e-02f, -6.329462e-02f, 3.354293e-03f, 1.330590e-02f, -7.479896e-03f,
  7.008553e-02f, 4.740529e-02f, -1.003566e-01f, -2.865816e-02f, 8.559644e-02f, -3.294293e-02f, 1.460716e-01f, 3.482124e-02f,
  -4.733973e-02f, -7.304408e-02f, 6.131251e-02f, -2.755963e-02f, -6.300393e-02f, -1.873451e-02f, 9.020739e-02f, -2.226012e-02f,
  -9.905591e-02f, 7.095098e-02f, 5.851868e-02f, 5.296809e-02f, 2.032822e-02f, -1.023479e-02f, 5.291988e-03f, -8.858581e-02f,
  5.824957e-02f, 5.544941e-02f, 5.764705e-03f, -9.396830e-03f, -9.381518e-03f, -9.133910e-02f, 7.638580e-02f, 4.597417e-02f,
  -3.450238e-02f, 1.988609e-03f, -6.688643e-02f, 1.036405e-02f, 7.457700e-02f, -7.855937e-03f, 3.041824e-02f, -7.154134e-03f,
  -1.411242e-02f, -7.266552e-02f, 8.866347e-02f, -8.302891e-02f, -7.153553e-02f, -1.409082e-01f, 6.702699e-02f, 6.923159e-02f,
  -6.816947e-02f, 3.946290e-02f, -1.665089e-02f, 2.644257e-02f, 7.604044e-02f, 5.045993e-02f, 3.885216e-02f, 2.709572e-02f,
  5.835568e-03f, -8.349595e-03f, 2.557118e-02f, -2.187018e-02f, 1.053864e-01f, 5.971031e-03f, -1.714572e-01f, -5.668589e-02f,
  -4.821678e-02f, 1.755957e-02f, -8.588039e-02f, 2.744479e-02f, 2.044124e-03f, 5.837839e-02f, 1.004042e-02f, 1.178795e-01f,
  -8.653802e-02f, -1.163495e-02f, -2.018269e-02f, -3.399488e-02f, 7.767932e-02f, 2.641395e-02f, 2.731345e-02f, 1.978339e-02f,
  -1.354863e-01f, 6.289370e-02f, -3.187873e-02f, -8.005318e-02f, 6.378816e-02f, 9.314047e-02f, 1.461620e-01f, 1.299123e-01f,
  1.351689e-01f, 4.424836e-02f, 1.448496e-02f, 4.049549e-02f, -6.953487e-02f, 7.716746e-02f, 5.134054e-02f, -8.694202e-02f,
  1.243203e-01f, -1.003490e-01f, 2.939298e-02f, 1.048532e-01f, 8.991318e-02f, -7.930387e-03f, 4.735019e-02f, -6.161012e-02f,
  -1.067354e-02f, 4.864989e-02f, 6.554132e-02f, 3.466679e-02f, -6.986951e-02f, 1.958631e-02f, -1.095216e-02f, 2.086300e-02f,
  7.759055e-02f, -1.043610e-02f, -2.681507e-02f, 2.238037e-02f, -6.063697e-02f, 5.591094e-02f, 8.049680e-02f, 2.318149e-02f,
  1.194150e-01f, -2.451089e-02f, 2.202439e-02f, 7.283740e-02f, -9.363399e-02f, -3.873001e-02f, -7.489149e-02f, -5.269150e-02f,
  -2.474000e-03f, 4.395781e-02f, -4.065925e-02f, -9.331589e-03f, -6.874169e-02f, -1.769042e-01f, 5.048293e-02f, 3.387539e-02f,
  7.186133e-03f, -1.449724e-02f, -1.075108e-02f, -1.833425e-02f, -1.185757e-02f, 1.597336e-01f, 5.726155e-02f, 1.514570e-02f,
  3.409229e-02f, 8.883916e-02f, 3.494573e-02f, 5.504096e-02f, 1.011050e-01f, 7.177284e-02f, 1.025278e-01f, -7.300769e-02f,
  -5.900440e-02f, -5.491805e-02f, -3.604178e-02f, 7.896252e-02f, 9.311929e-03f, 1.982609e-02f, -4.524759e-03f, 8.129565e-02f,
  2.919852e-02f, 1.395492e-01f, -7.569606e-03f, -3.122879e-02f, -2.182079e-02f, 9.217627e-02f, -2.046182e-02f, 9.489719e-02f,
  1.375566e-01f, 1.038437e-01f, 9.434908e-02f, -1.739167e-02f, -8.497972e-03f, -2.466189e-02f, 5.207292e-02f, -5.338389e-02f,
  4.037319e-02f, -3.053358e-02f, -8.074584e-02f, -4.074290e-02f, -6.177428e-02f, 8.514438e-02f, 1.404398e-02f, 4.463903e-03f,
  2.440316e-03f, 1.193209e-01f, 9.564658e-02f, 7.092883e-02f, 6.501067e-02f, -4.150202e-03f, 4.780278e-02f, -5.696503e-02f,
  8.664878e-02f, -3.511895e-02f, 7.778084e-02f, 8.979990e-02f, 3.178636e-02f, -1.108214e-01f, 7.739662e-02f, -4.691167e-03f,
  4.195608e-02f, 7.946656e-03f, -2.374973e-02f, 4.660463e-02f, 2.752565e-02f, -4.118879e-03f, 2.665480e-02f, 5.003486e-02f,
  5.597471e-02f, 1.163865e-01f, 9.740008e-02f, -6.735524e-02f, 7.514740e-02f, 1.797167e-01f, 3.108462e-02f, 8.760242e-02f,
  1.268260e-01f, -5.967015e-03f, 7.944988e-02f, -8.608052e-02f, -5.554889e-02f, 5.626551e-02f, -7.589555e-03f, -1.142376e-01f,
  -3.034808e-02f, -1.173517e-02f, -3.720666e-02f, -9.036608e-02f, 3.603052e-02f, 9.328893e-03f, -5.950216e-02f, -1.314999e-01f,
  -5.153875e-02f, -2.519036e-03f, -6.793269e-02f, 2.634123e-02f, -2.710682e-02f, 1.176438e-02f, -2.418325e-02f, 1.342953e-01f,
  1.381494e-01f, 8.683586e-02f, 5.226602e-02f, -3.809473e-02f, 8.570926e-02f, 6.820889e-02f, 6.445460e-02f, -2.338878e-02f,
  4.170518e-02f, -1.039530e-02f, -3.326878e-02f, -8.714154e-02f, 9.641667e-02f, 5.693833e-02f, 6.475892e-02f, -3.117409e-02f,
  -1.753074e-02f, -6.825740e-03f, 1.178091e-01f, 1.262457e-01f, 4.814819e-02f, 1.106000e-01f, 2.200868e-02f, 9.741357e-02f,
  -7.073663e-02f, 6.354138e-02f, -2.025594e-02f, 1.317262e-01f, 3.866834e-02f, 1.098864e-01f, -4.071459e-02f, -8.634409e-02f,
  6.473631e-02f, 1.160789e-02f, -3.928532e-02f, -3.615259e-02f, 9.724936e-02f, 9.101581e-02f, 3.031422e-02f, 8.538694e-02f,
  1.361336e-02f, 3.540884e-02f, 1.716994e-02f, -1.978637e-02f, 3.210448e-02f, 5.535495e-02f, 6.670683e-02f, 8.137654e-02f,
  -6.565337e-02f, 4.055826e-02f, 4.203507e-03f, -1.105593e-01f, -9.355719e-02f, -8.412817e-02f, 1.155976e-01f, 2.143653e-02f,
  -2.370585e-02f, 1.052187e-01f, 9.340520e-02f, -1.844165e-04f, 5.618532e-02f, -9.687200e-02f, -1.116418e-02f, 7.474010e-02f,
  2.165340e-02f, 8.457206e-03f, -3.077645e-02f, 4.316008e-02f, 1.093567e-01f, 8.829276e-02f, 9.532223e-02f, 3.505899e-03f,
  4.825369e-02f, 9.522026e-02f, -7.848888e-02f, -5.110809e-02f, 6.976069e-02f, 1.027247e-01f, 4.347170e-03f, 4.694498e-02f,
  1.104443e-01f, 1.287191e-02f, 3.304387e-02f, 1.252835e-01f, 5.455095e-02f, 2.726251e-02f, -5.042777e-02f, -3.877550e-02f,
  -8.180626e-02f, 2.436907e-02f, -3.531780e-02f, -7.658122e-02f, 5.467720e-02f, -1.781777e-02f, 6.254487e-02f, 4.419609e-02f,
  1.071862e-01f, 3.725063e-03f, 7.467039e-02f, 1.219800e-01f, 1.323345e-01f, 2.867718e-02f, -4.996110e-02f, -2.296280e-03f,
  -5.918113e-02f, 3.674673e-02f, 1.028148e-01f, -1.070990e-01f, 1.077366e-01f, -8.408975e-02f, 3.193296e-02f, -8.485749e-02f,
  6.637106e-02f, -6.575782e-02f, -1.820909e-02f, 1.845809e-04f, -1.519764e-02f, 1.557315e-02f, 5.818095e-02f, -6.358845e-02f,
  1.105809e-02f, -5.615614e-02f, 1.695823e-02f, 1.021878e-01f, -4.965396e-02f, 6.646636e-02f, 1.015018e-01f, -5.024897e-02f,
  -5.844077e-02f, 9.483687e-02f, 7.196380e-02f, 6.967821e-02f, 7.152320e-02f, 8.112890e-02f, 6.173396e-02f, 1.586192e-01f,
  4.030869e-02f, -5.741169e-02f, 3.333373e-02f, -2.988286e-04f, -6.475645e-02f, -5.309686e-02f, 1.071354e-01f, 1.463060e-02f,
  -5.213264e-02f, 2.035660e-02f, 1.301574e-02f, 8.152148e-02f, -2.674455e-02f, 1.058918e-01f, 1.154285e-01f, 6.103087e-03f,
  2.015079e-02f, 6.326915e-02f, 1.855765e-02f, -2.411754e-02f, -1.054659e-01f, 2.490920e-02f, -5.590985e-02f, -1.585753e-02f,
  6.535752e-02f, -6.664430e-02f, 3.478208e-02f, 5.359376e-02f, -3.535168e-02f, 4.410062e-02f, 2.811932e-02f, -8.064824e-02f,
  1.183137e-01f, -5.950206e-03f, 3.893381e-02f, 7.589203e-02f, -2.111984e-02f, 1.016534e-01f, -6.023863e-02f, -1.003196e-01f,
  -1.029148e-01f, 5.216638e-02f, -1.063721e-01f, -1.766011e-02f, 1.430024e-01f, -3.013907e-02f, 1.985955e-03f, 1.020189e-01f,
  7.233798e-02f, -4.391800e-02f, 1.922467e-02f, -6.425624e-02f, 8.243204e-02f, 1.253573e-01f, 1.123097e-01f, 7.632973e-03f,
  1.736720e-02f, 6.638194e-03f, 1.019204e-01f, 1.480661e-01f, -2.111819e-02f, 1.242466e-01f, 5.959103e-02f, 7.720111e-02f,
  2.717206e-02f, 5.900196e-02f, -8.829671e-03f, -4.782289e-02f, -2.147941e-02f, 5.005548e-02f, 7.773029e-02f, -6.326133e-02f,
  8.522834e-02f, 2.622263e-02f, 7.340121e-02f, 7.188491e-02f, -2.874800e-02f, 7.903202e-02f, 1.028860e-01f, 6.925727e-02f,
  -4.053915e-02f, 2.587361e-02f, -3.005409e-02f, -9.484806e-02f, -1.590022e-02f, 8.458458e-02f, 6.890208e-02f, -4.440312e-02f,
  7.523387e-02f, 7.937215e-02f, 2.110517e-02f, -8.666147e-02f, 1.911889e-02f, 5.726044e-02f, -4.254515e-02f, 5.491673e-02f,
  2.621672e-02f, 8.108513e-02f, 7.332817e-02f, 3.008935e-03f, 7.377293e-02f, -4.574718e-02f, 1.379308e-02f, -6.622615e-02f,
  7.976656e-02f, 4.630858e-02f, 4.145994e-02f, 1.510846e-01f, 1.263983e-02f, -6.625191e-02f, -5.446713e-02f, 8.682910e-02f,
  7.470135e-02f, -1.025833e-02f, 5.714612e-02f, -4.478638e-03f, -4.999124e-02f, 7.056475e-04f, -4.872176e-02f, 8.862317e-02f,
  -1.256922e-01f, -6.632498e-02f, 8.948957e-02f, -9.164602e-03f, -5.285645e-02f, 1.370086e-01f, 1.282445e-01f, 1.912008e-01f,
  -7.512477e-02f, -2.083997e-02f, -4.177903e-02f, -2.039207e-02f, -1.113867e-01f, 8.308936e-02f, 2.285496e-02f, -1.808274e-01f,
  4.853465e-03f, 4.664255e-02f, 2.223662e-05f, -1.296674e-01f, -5.923487e-02f, 1.128778e-02f, -2.488691e-02f, -1.528108e-02f,
  -6.677408e-02f, 3.466785e-02f, -3.007017e-02f, -8.133210e-02f, 6.992034e-02f, -5.115337e-02f, 1.730925e-01f, 1.409868e-01f,
  -1.061416e-01f, -2.016918e-01f, -1.131507e-01f, 2.070469e-01f, 1.260381e-01f, 2.456095e-02f, 5.654883e-02f, 3.967602e-02f,
  -2.086085e-02f, 8.450610e-02f, -9.617621e-02f, -1.492653e-01f, 1.383718e-02f, 4.971826e-02f, 1.290638e-01f, 2.869854e-02f,
  -9.094739e-04f, 7.127748e-02f, -3.312563e-02f, 5.351597e-02f, 8.027111e-02f, 1.251681e-01f, 4.282757e-02f, -3.743414e-03f,
  7.614899e-02f, 6.445544e-02f, 3.340881e-02f, -3.438495e-02f, 4.606761e-02f, 3.631545e-02f, 1.276261e-02f, -1.731788e-01f,
  1.394836e-02f, -5.338604e-02f, -1.219643e-01f, -5.518448e-02f, 1.190974e-01f, -7.640932e-02f, -2.177781e-02f, -5.332864e-02f,
  1.303329e-01f, -3.445029e-02f, 4.542143e-02f, 1.009907e-01f, 8.406575e-03f, -1.046086e-01f, -5.709993e-02f, -4.611906e-02f,
  2.279325e-01f, 2.725838e-02f, 2.372298e-03f, 1.764959e-02f, 1.231494e-02f, -6.277032e-02f, -6.452845e-02f, 8.253790e-02f,
  2.739366e-02f, 1.033024e-01f, -1.439073e-01f, -1.124907e-02f, 3.413837e-02f, 3.748685e-02f, -6.002257e-02f, -3.533712e-02f,
  5.372720e-02f, -7.027061e-02f, 7.730401e-02f, -1.112079e-01f, -1.063495e-01f, 2.061799e-02f, 5.430312e-02f, 8.793650e-02f,
  -1.578855e-01f, -7.067417e-02f, -1.611072e-01f, 4.061081e-02f, -1.356131e-03f, 1.169949e-01f, 3.903519e-02f, -9.434421e-02f,
  1.345297e-02f, 2.634194e-02f, -6.966246e-02f, -8.809655e-04f, -1.854349e-01f, -1.609929e-02f, 3.076150e-02f, 5.131687e-02f,
  -5.237055e-02f, -1.111781e-01f, 9.400078e-03f, -1.078307e-01f, -9.737098e-03f, 3.303375e-02f, -2.924258e-02f, -4.684752e-02f,
  9.526711e-02f, 2.258734e-02f, -1.671848e-02f, -2.117937e-02f, -6.242295e-02f, -1.499141e-03f, 3.168565e-02f, -9.141070e-02f,
  -6.779018e-02f, -1.106358e-01f, 5.604720e-02f, -8.605636e-02f, -6.131584e-02f, -1.251155e-01f, 9.672836e-03f, -1.511787e-01f,
  -5.368007e-02f, 4.235890e-02f, -9.105519e-03f, -8.416536e-02f, 5.779463e-02f, -3.649226e-02f, 1.065267e-01f, 5.620844e-02f,
  1.048711e-01f, -2.828717e-02f, -4.185639e-02f, 1.422646e-02f, -6.125789e-02f, -7.753798e-02f, 6.539796e-02f, 4.327622e-02f,
  9.489760e-02f, 1.631767e-01f, -2.091469e-02f, -4.478086e-02f, -4.686090e-02f, 4.900604e-02f, 5.874728e-02f, 8.085110e-02f,
  2.258770e-01f, -7.909942e-02f, 5.443534e-02f, 1.603252e-01f, 1.387738e-01f, -2.855051e-02f, 3.566208e-02f, -6.850705e-02f,
  9.698197e-02f, -5.666881e-02f, 2.917370e-02f, 7.273322e-02f, 1.621231e-02f, 1.654958e-02f, 5.927453e-02f, -8.316986e-02f,
  1.027725e-03f, -8.029155e-02f, 2.045564e-02f, 4.986476e-03f, -9.612551e-03f, 9.729874e-02f, 1.096199e-02f, -1.292091e-01f,
  -2.990982e-03f, -2.407259e-02f, 3.989173e-02f, 2.094756e-02f, -3.599882e-03f, -2.309165e-02f, 2.048107e-02f, 1.441871e-02f,
  9.573986e-02f, 8.178063e-02f, 1.532508e-02f, 3.071432e-03f, 1.137806e-01f, 2.572546e-02f, -2.346422e-02f, -1.664430e-01f,
  3.891155e-02f, 1.505059e-02f, -8.214042e-02f, -8.194423e-04f, 6.878711e-02f, 4.271261e-02f, 8.394899e-03f, -2.423090e-01f,
  -4.802530e-02f, 4.131477e-02f, -6.460882e-02f, -8.674972e-02f, -9.101065e-02f, -4.614366e-02f, 1.275367e-01f, -5.366281e-02f,
  1.194751e-01f, 7.347050e-02f, 4.259647e-02f, 1.359939e-01f, 9.933830e-02f, 9.542617e-02f, 1.189923e-01f, 1.295643e-01f,
  6.856421e-03f, 7.388183e-02f, -4.692402e-02f, 3.209833e-02f, -5.393653e-02f, 7.730452e-02f, 1.653428e-01f, -1.351383e-01f,
  1.159064e-01f, 7.404188e-03f, -7.401346e-02f, 4.221202e-02f, -4.114522e-02f, -4.821013e-02f, -6.304348e-03f, 9.899959e-02f,
  2.086647e-01f, 9.299622e-02f, -1.120148e-01f, -1.588737e-01f, 6.639171e-02f, 8.578053e-02f, 1.387910e-03f, -7.063340e-02f,
  -5.828500e-02f, 9.741252e-02f, 9.043456e-03f, 5.338484e-02f, -1.980580e-01f, -3.801669e-03f, 5.634729e-02f, 7.651594e-02f,
  -2.359879e-02f, -3.801105e-02f, 9.674952e-03f, 5.951699e-02f, -4.320861e-02f, -7.679467e-02f, 5.243183e-02f, 2.078770e-02f,
  -6.617723e-02f, -9.132487e-02f, -1.264121e-01f, 3.485452e-02f, 1.654028e-01f, -2.702645e-02f, -5.416455e-02f, 3.388780e-02f,
  3.739402e-03f, 1.335832e-01f, -4.683134e-02f, -1.486634e-02f, 1.196262e-01f, -3.768368e-02f, -3.230014e-02f, 4.422613e-02f,
  -1.051687e-01f, 2.026341e-02f, 7.403919e-03f, 6.237943e-02f, 4.215032e-02f, 4.887612e-02f, -5.881016e-02f, 9.605315e-02f,
  -7.084877e-02f, 3.437192e-02f, 3.543534e-02f, 2.818096e-02f, 2.918385e-02f, 1.029464e-01f, -2.451796e-02f, -1.171237e-01f,
  -7.149279e-02f, 2.239609e-02f, 2.319854e-02f, -1.888301e-02f, -9.493741e-02f, 2.179976e-02f, -9.045684e-03f, 3.742002e-02f,
  -1.275617e-02f, -4.170176e-02f, 2.691108e-02f, 6.085296e-02f, -1.156067e-01f, 1.844295e-02f, -1.195674e-01f, 1.200043e-01f,
  2.756908e-01f, 5.904416e-02f, -1.201762e-01f, -1.934627e-02f, -8.772299e-04f, 1.173387e-02f, -3.577788e-02f, 6.036528e-02f,
  1.206932e-01f, 8.532848e-02f, 2.498834e-02f, -1.451746e-03f, -5.009251e-02f, -6.656567e-02f, -6.125368e-02f, 1.370876e-02f,
  -1.349011e-01f, 1.408408e-01f, 6.527041e-02f, -1.971243e-02f, 1.098278e-01f, 1.099970e-01f, 4.351135e-02f, -6.678128e-02f,
  -6.621107e-03f, 6.759027e-03f, -5.353006e-02f, 1.453977e-01f, -5.511610e-02f, 5.554250e-02f, 9.135865e-02f, 5.812518e-02f,
  1.557229e-02f, 1.032455e-01f, 2.200196e-02f, 1.426725e-01f, 1.729071e-01f, 4.124019e-02f, -2.992911e-02f, 2.707627e-02f,
  7.386474e-02f, -2.675206e-03f, 2.958905e-02f, -1.162853e-01f, -9.017239e-02f, 9.601608e-02f, -1.199448e-01f, -4.772643e-02f,
  -6.850538e-02f, -5.295835e-02f, 2.727430e-02f, -2.998618e-02f, -2.888115e-03f, -2.402266e-02f, 9.709626e-02f, -4.888204e-03f,
  1.348471e-03f, 6.463938e-02f, 8.458009e-02f, 5.039148e-02f, 5.393158e-03f, 5.629089e-02f, -5.352462e-02f, -4.683893e-02f,
  1.583685e-02f, -8.468681e-02f, -1.952530e-02f, -1.246039e-01f, 2.490871e-03f, 2.166184e-02f, -4.908920e-02f, 4.212663e-02f,
  5.759291e-02f, 6.816175e-03f, 1.149695e-02f, 6.089390e-02f, -1.446719e-01f, 3.884003e-02f, -4.530549e-02f, 2.548563e-02f,
  -6.560478e-02f, 1.123615e-02f, 4.863637e-02f, -1.569363e-02f, 2.107444e-03f, -8.092260e-02f, -6.001757e-02f, -3.252481e-02f,
  -9.206109e-02f, -5.128355e-02f, -4.359277e-02f, -1.362482e-02f, 4.698789e-02f, -8.345641e-03f, -4.966369e-02f, 4.587122e-02f,
  -3.400710e-02f, 1.267725e-02f, 1.238539e-01f, 5.431327e-02f, 4.293916e-02f, -1.164545e-03f, 1.071849e-02f, 1.596175e-02f,
  8.229833e-02f, 1.399449e-01f, 5.296020e-02f, 5.664013e-02f, 1.206036e-01f, 1.256455e-02f, -8.374589e-02f, -1.020480e-01f,
  2.191301e-02f, 9.699243e-02f, 2.936850e-02f, -5.885673e-02f, 4.815936e-02f, 1.859388e-02f, -8.417261e-02f, -4.636791e-02f,
  9.786120e-02f, 8.558608e-02f, 1.153278e-01f, -3.978898e-02f, -5.227479e-04f, 1.556891e-01f, 4.137347e-02f, 8.242401e-02f,
  1.406252e-01f, -1.464545e-03f, -4.989214e-03f, -8.734538e-02f, 2.179740e-02f, 6.219669e-02f, 1.264289e-01f, 8.646847e-02f,
  -4.603902e-02f, -6.534404e-02f, 1.323585e-01f, 4.216823e-02f, -6.031029e-02f, -5.279058e-02f, 1.130909e-01f, 9.101269e-02f,
  -6.295132e-02f, -1.266438e-01f, -1.219905e-02f, -2.010433e-02f, -4.538044e-02f, 9.339398e-02f, 9.117392e-02f, -3.286727e-02f,
  -4.624545e-03f, -7.609166e-02f, -4.165875e-02f, 4.530247e-02f, -2.519019e-02f, 8.013491e-02f, -7.988950e-02f, -6.672671e-02f,
  1.248161e-03f, -1.937256e-02f, -1.040460e-02f, -3.049479e-02f, 1.356295e-02f, 6.200406e-02f, 1.816603e-02f, 1.710343e-02f,
  8.020531e-03f, 1.276363e-02f, 1.036894e-01f, -2.320843e-02f, -1.137572e-02f, -3.355542e-02f, -5.204987e-02f, 4.064340e-02f,
  -5.788093e-02f, 6.193192e-02f, 6.945581e-02f, 6.343763e-02f, 5.613126e-02f, 6.341314e-02f, 1.394013e-01f, 1.480237e-01f,
  -4.675669e-02f, 5.590687e-02f, 1.654840e-02f, 4.971019e-02f, 7.351194e-02f, 2.278978e-01f, 9.047270e-02f, 6.638054e-02f,
  -9.912874e-03f, 5.167952e-02f, 7.597801e-02f, 1.402214e-02f, -5.388095e-02f, -2.352686e-02f, -3.889915e-03f, 2.823996e-02f,
  -6.531604e-02f, -3.389044e-02f, 2.375500e-02f, -3.189520e-02f, 2.325929e-03f, -5.593754e-02f, -2.516327e-02f, 1.074444e-01f,
  1.739376e-02f, 8.634442e-02f, 1.020171e-01f, -9.467140e-03f, 6.036148e-02f, -2.734118e-02f, 4.133359e-02f, 1.993245e-01f,
  2.045714e-02f, -8.871667e-02f, 4.204868e-02f, -3.005839e-02f, -2.791562e-02f, -1.610672e-02f, 7.087824e-02f, -9.749636e-02f,
  1.611423e-02f, 1.909965e-02f, -1.332854e-01f, -8.317959e-03f, -3.440087e-02f, -7.633733e-02f, 7.642735e-03f, 4.697908e-03f,
  -2.252265e-02f, 1.181196e-01f, 8.901742e-02f, 1.323548e-01f, 4.839169e-02f, 7.903287e-02f, 4.703411e-02f, -1.908915e-02f,
  6.652689e-02f, -3.074265e-02f, 1.765639e-02f, 7.751071e-02f, 7.875987e-02f, -8.468527e-02f, 6.951737e-02f, -8.348367e-02f,
  -9.763189e-03f, 4.235812e-03f, 6.393188e-02f, -1.203603e-01f, 5.089769e-02f, 2.507323e-02f, -5.916186e-02f, 5.308248e-02f,
  -6.541369e-02f, 1.134203e-01f, -1.059684e-02f, 1.860538e-02f, -1.306242e-01f, 5.516447e-02f, -9.810812e-02f, -2.029487e-01f,
  4.172161e-02f, 1.289052e-01f, 5.283664e-02f, -2.206970e-02f, -7.987941e-02f, -6.620356e-02f, -1.055731e-01f, -1.192304e-01f,
  -8.475892e-02f, -1.792831e-01f, -7.534739e-02f, 4.726885e-02f, 8.725161e-02f, -2.012296e-02f, -1.086155e-01f, -3.034129e-02f,
  -3.458072e-02f, -3.798337e-02f, -3.768257e-02f, 2.469321e-02f, 2.708488e-02f, -1.273366e-01f, -1.391192e-01f, 1.731886e-01f,
  5.351514e-02f, -2.259208e-01f, -1.162850e-01f, 1.475257e-02f, -2.303858e-01f, -9.586979e-04f, -1.314737e-01f, -1.307303e-02f,
  -8.254895e-02f, 1.978371e-01f, -6.090677e-02f, -1.628981e-01f, -1.115609e-01f, -2.471087e-01f, -5.381477e-02f, -1.531409e-02f,
  -1.052332e-02f, 1.089934e-02f, 1.453992e-02f, 4.495888e-02f, 8.400855e-03f, 8.198158e-02f, -2.400527e-02f, 8.034868e-02f,
  -7.539408e-03f, -1.133896e-01f, 1.036961e-02f, 7.866418e-02f, 2.830215e-02f, 1.700787e-02f, 8.930617e-02f, 9.930603e-03f,
  -3.972688e-02f, -6.547118e-02f, -2.601465e-03f, 5.042651e-03f, 1.165537e-01f, 6.614507e-02f, 1.985529e-02f, -2.204749e-02f,
  -4.606257e-02f, -3.927403e-02f, -9.617727e-02f, 8.979166e-02f, -4.357516e-02f, 3.885373e-01f, 6.748504e-02f, 8.983386e-02f,
  -2.739046e-02f, 1.300907e-02f, 5.497915e-02f, -7.020309e-02f, -8.316097e-02f, -1.322002e-02f, 1.575475e-01f, -2.545613e-02f,
  -9.191324e-02f, -1.956526e-02f, -3.834479e-02f, 2.395212e-02f, -1.044587e-01f, 5.604403e-02f, 6.362016e-02f, -4.723054e-02f,
  -2.162472e-02f, -9.161835e-02f, 4.471837e-02f, 2.259014e-02f, -1.422319e-02f, -1.255420e-01f, 7.518075e-02f, -1.027224e-01f,
  2.565644e-02f, -1.757603e-03f, 1.175614e-01f, 1.062602e-01f, -1.064927e-02f, 2.928085e-02f, -4.945407e-02f, -4.466678e-02f,
  -1.151480e-01f, 6.810779e-02f, 7.572117e-02f, -2.967368e-03f, 6.078031e-02f, -2.379088e-03f, 6.082217e-03f, 5.982321e-02f,
  -8.719136e-02f, -1.682173e-01f, 6.753807e-03f, 3.337327e-02f, 2.394678e-02f, -3.283140e-02f, 1.018023e-01f, 3.638344e-02f,
  -5.535295e-02f, 5.056629e-02f, 6.408010e-02f, 6.003525e-02f, 1.025588e-01f, -9.376208e-03f, 9.723190e-02f, -1.694616e-01f,
  -6.704769e-02f, -9.757563e-02f, -2.490400e-02f, -1.953211e-01f, 5.533362e-02f, -6.276958e-02f, -8.278207e-02f, -1.540945e-01f,
  2.108394e-02f, 5.401049e-02f, -2.836191e-02f, -1.159799e-02f, -3.126839e-02f, 6.892637e-02f, 9.223644e-02f, 5.185372e-02f,
  1.090534e-01f, -8.919666e-02f, -7.023650e-02f, -8.263366e-02f, -3.078251e-03f, 5.457120e-02f, 1.291031e-01f, -4.302265e-02f,
  -1.248365e-01f, -7.147530e-02f, -1.565753e-02f, -3.174753e-02f, 9.101139e-02f, -1.512344e-01f, 1.910958e-01f, 2.958980e-01f,
  3.232630e-02f, 1.081875e-01f, 1.007010e-01f, 1.478195e-01f, 3.984405e-02f, -1.133695e-01f, 7.401893e-02f, 3.460881e-02f,
  5.021532e-02f, -9.992059e-02f, -1.895614e-01f, 1.546396e-01f, -1.122795e-02f, 2.197813e-02f, 8.576491e-02f, 5.732575e-03f,
  -3.442641e-02f, -2.735060e-02f, 8.687712e-03f, 1.053011e-02f, -3.161445e-02f, 8.033450e-02f, -1.570631e-01f, -1.268151e-01f,
  3.330183e-02f, 4.203845e-02f, 2.689489e-03f, 4.423402e-03f, 4.226098e-02f, -7.120314e-02f, -1.742027e-02f, 9.183396e-02f,
  -1.215319e-02f, 1.758550e-02f, 4.111928e-02f, 2.258261e-01f, -4.355861e-02f, 9.682618e-02f, 3.222537e-02f, 2.098071e-03f,
  5.164736e-02f, -9.099729e-02f, -5.370243e-03f, -5.343940e-02f, 5.692385e-03f, 8.301781e-02f, -1.117419e-01f, -2.003766e-01f,
  8.467813e-02f, -7.588651e-03f, 2.459271e-02f, 1.670931e-02f, -1.422544e-02f, -7.855416e-02f, -5.274856e-02f, -8.759681e-02f,
  1.161373e-02f, -1.400857e-01f, -2.750485e-03f, 1.231623e-01f, 1.281705e-01f, 8.266985e-02f, 1.120313e-01f, 2.320351e-02f,
  -1.064895e-02f, -6.469575e-02f, 4.050978e-02f, 9.273681e-02f, 1.059825e-01f, -1.265572e-01f, 1.400464e-02f, -1.384218e-01f,
  7.038220e-02f, 5.916665e-02f, 7.408133e-02f, 3.913553e-02f, 6.421686e-02f, 1.112977e-01f, 4.841939e-02f, 6.277680e-02f,
  -1.463474e-02f, -3.934066e-02f, -1.882193e-02f, -3.567787e-02f, -1.752673e-01f, -8.277605e-02f, -3.545463e-02f, 4.835632e-02f,
  -1.479175e-01f, 5.169230e-02f, -1.910833e-01f, 4.120874e-02f, -7.453751e-02f, 1.112739e-01f, -1.726739e-02f, 1.928106e-03f,
  9.576275e-02f, 6.617282e-02f, 1.069424e-01f, 1.192302e-01f, -9.535985e-02f, -5.764607e-02f, 3.483521e-02f, -1.676621e-02f,
  7.756627e-02f, 1.404986e-01f, 7.940952e-02f, 1.976791e-01f, -3.332037e-02f, -1.798776e-02f, 6.455074e-02f, -1.095977e-01f,
  2.048003e-02f, -1.989283e-02f, 5.789369e-02f, -9.863315e-02f, 5.653229e-02f, 7.631642e-02f, -9.360757e-02f, 7.906038e-02f,
  4.940359e-02f, -7.949319e-02f, -1.361095e-01f, -6.276004e-02f, -3.924119e-02f, 1.160746e-01f, 9.063209e-02f, 5.441288e-03f,
  -6.785680e-02f, 3.087358e-02f, 8.367544e-02f, -2.941652e-02f, -7.094449e-02f, 3.416293e-02f, 4.889121e-02f, -9.086583e-02f,
  -8.322984e-02f, -7.456829e-02f, -4.550284e-02f, -6.462255e-02f, -1.964846e-02f, -1.547812e-02f, -3.056837e-02f, 2.615658e-02f,
  3.648277e-04f, -3.634416e-02f, -1.248002e-01f, 5.801557e-02f, 4.784178e-02f, 2.725493e-02f, -4.616044e-02f, 1.251373e-02f,
  2.584211e-01f, 1.459164e-01f, -6.590718e-02f, -8.158298e-02f, -8.529188e-02f, -1.134702e-01f, 1.753206e-03f, 5.553338e-02f,
  -4.078107e-02f, 1.002083e-01f, -4.455669e-02f, 4.246341e-02f, 5.813584e-03f, 7.284283e-02f, -4.352529e-03f, -3.266170e-02f,
  5.350694e-02f, -6.975442e-02f, -1.576783e-02f, 1.534923e-02f, 9.116301e-02f, 8.196265e-02f, -5.507648e-02f, -2.951466e-02f,
  5.896470e-02f, -1.487197e-01f, -1.446941e-01f, 1.290764e-01f, 3.882080e-02f, 1.073844e-01f, 2.517134e-04f, 2.651845e-02f,
  1.317972e-02f, 5.858791e-02f, -5.583129e-02f, 3.802803e-03f, 4.109192e-02f, -6.517337e-03f, -9.791163e-02f, -5.041829e-02f,
  6.456159e-03f, -2.278738e-02f, -2.408862e-02f, 3.308326e-02f, 4.860222e-02f, 1.780888e-01f, 4.190906e-02f, 5.522639e-02f,
  4.572517e-02f, -1.231935e-01f, -5.539348e-02f, -8.392170e-02f, -1.141544e-01f, 2.062673e-02f, 1.634928e-01f, 9.983925e-02f,
  -1.258388e-01f, 9.755640e-02f, -2.979698e-02f, 1.157779e-01f, -5.958465e-02f, -8.075518e-02f, 1.073496e-01f, -3.031653e-02f,
  -4.542294e-02f, -5.054957e-02f, 1.608965e-02f, -4.293708e-02f, -5.326026e-02f, -1.073331e-01f, 3.137776e-02f, 8.941777e-05f,
  4.977535e-02f, 2.142693e-02f, 2.339706e-02f, 3.697307e-02f, -3.326146e-02f, 5.213709e-02f, -6.451979e-02f, -5.512063e-02f,
  -1.098954e-01f, 1.096489e-01f, -6.935526e-02f, 9.404380e-02f, 9.751876e-02f, 1.418194e-02f, -1.254899e-01f, -2.935321e-02f,
  -1.160351e-01f, -5.654436e-03f, 1.217058e-01f, -1.052663e-01f, 4.938416e-02f, 7.819601e-02f, 5.411112e-02f, -5.631873e-02f,
  -8.895690e-03f, 4.111329e-02f, 6.099360e-02f, 1.533229e-01f, 4.452597e-02f, -6.568274e-02f, -4.635590e-03f, -7.031715e-02f,
  -3.383999e-02f, 2.924881e-02f, 9.256396e-03f, -1.794801e-02f, 1.268936e-01f, 1.015190e-01f, -7.540542e-02f, 5.519776e-02f,
  -4.647879e-02f, 1.210120e-02f, 6.764197e-02f, 1.964556e-02f, -2.287104e-02f, 1.179386e-01f, 4.994357e-02f, -5.404339e-02f,
  4.851396e-02f, -4.992486e-02f, -4.777262e-02f, -5.995582e-03f, -5.840923e-02f, 6.045294e-02f, 3.144474e-02f, -6.486151e-02f,
  6.145262e-02f, -6.885694e-02f, 6.809518e-03f, 8.491875e-02f, 2.149117e-02f, 7.403354e-02f, 1.315948e-01f, 2.008459e-02f,
  5.049220e-02f, -6.715582e-02f, 2.989541e-02f, 8.773669e-02f, -2.701809e-02f, -1.196669e-01f, -7.789875e-02f, 2.327084e-02f,
  9.701338e-02f, -1.026729e-01f, 3.031701e-02f, 1.480544e-02f, 7.988982e-02f, 5.019085e-02f, 1.235318e-01f, 6.016046e-02f,
  -6.208108e-02f, -1.426211e-01f, 3.741581e-02f, -3.616375e-02f, -6.569112e-02f, 1.002056e-01f, -3.666972e-03f, 2.210538e-02f,
  9.788387e-02f, -1.722833e-02f, -3.861270e-02f, -6.825578e-03f, 6.278413e-02f, 8.832766e-02f, 7.981525e-02f, 2.777268e-02f,
  -6.362306e-02f, -9.888819e-03f, 2.783172e-02f, 1.819329e-01f, 1.178861e-01f, 1.149562e-01f, -1.160501e-02f, -3.455178e-02f,
  2.463644e-02f, -1.047740e-01f, -7.790259e-02f, -3.112346e-03f, 1.405044e-01f, 4.425065e-02f, -9.959731e-02f, -1.755223e-02f,
  6.413617e-02f, -8.555084e-02f, 1.087298e-01f, 9.538469e-03f, -1.075724e-02f, -3.045139e-02f, 7.719857e-02f, 2.275057e-03f,
  7.556637e-02f, -1.460665e-02f, 1.067347e-01f, 8.325593e-02f, 1.158971e-01f, 1.413655e-01f, 5.046939e-02f, 9.847832e-02f,
  1.854610e-02f, -1.186392e-01f, 3.057672e-02f, 5.755150e-02f, 5.071320e-02f, 2.688649e-02f, -4.761505e-02f, -2.261588e-02f,
  3.331067e-02f, -3.526349e-02f, 3.959830e-02f, -7.629252e-02f, -3.173969e-02f, 1.261196e-02f, -2.976836e-02f, -4.842625e-02f,
  -9.081858e-02f, -1.019576e-01f, -6.154533e-03f, 1.873815e-02f, -9.158125e-02f, -7.099547e-02f, -1.783687e-02f, -6.973336e-03f,
  -7.253127e-02f, 1.187191e-01f, 1.426870e-02f, 6.987864e-02f, -9.230867e-02f, 8.638508e-02f, 7.629859e-03f, -3.189509e-02f,
  3.299350e-03f, 5.868132e-02f, 1.130300e-01f, 5.837166e-02f, 4.248972e-02f, 1.138611e-01f, 2.485160e-02f, -9.065913e-02f,
  4.116905e-02f, 9.334759e-02f, 6.650567e-02f, -3.744033e-02f, 5.316297e-02f, 5.419409e-02f, 3.544877e-02f, 3.809153e-02f,
  2.513812e-02f, 2.033229e-02f, -3.831528e-02f, -1.189390e-01f, -4.775088e-02f, -1.301956e-01f, 1.367790e-01f, 6.616879e-03f,
  1.204347e-01f, -5.991748e-02f, 9.694932e-03f, 1.546571e-01f, 7.262834e-02f, -9.082909e-02f, 9.012045e-02f, 1.035195e-02f,
  9.785245e-02f, 7.767104e-02f, -8.411206e-02f, 1.253953e-01f, 2.631893e-02f, -1.307123e-01f, -4.835444e-02f, -9.154637e-03f,
  7.045892e-02f, -8.814509e-02f, -1.284873e-03f, 1.080700e-01f, -7.753684e-02f, -3.292029e-02f, 8.952788e-02f, 4.982955e-02f,
  4.348344e-02f, -1.035375e-01f, 1.166463e-01f, 1.230481e-04f, -1.928794e-02f, 8.057485e-02f, -7.571222e-02f, 6.004784e-03f,
  1.479138e-01f, 4.755638e-02f, -8.390958e-02f, -2.101795e-01f, 4.070508e-01f, -4.249351e-02f, 6.354924e-02f, 2.334682e-02f,
  -1.127849e-01f, -1.705722e-01f, -1.320583e-01f, -1.892542e-02f, -4.176843e-03f, -4.059966e-02f, 2.757158e-02f, 8.920597e-02f,
  1.437741e-01f, 7.771342e-04f, 7.194164e-02f, 1.624444e-02f, 4.683499e-02f, 1.971365e-02f, -1.477288e-01f, 2.039452e-02f,
  1.279757e-01f, 1.285388e-01f, 3.905047e-02f, 1.792597e-02f, -7.282722e-02f, -3.182698e-02f, 5.800401e-02f, 1.990905e-02f,
  3.461078e-02f, 6.383431e-02f, 8.125670e-02f, 8.005639e-03f, -2.728179e-02f, 2.742299e-02f, 4.819490e-02f, 1.270793e-01f,
  5.814430e-02f, 8.064527e-02f, 9.265927e-03f, -1.094402e-01f, 2.415099e-02f, 4.607718e-03f, 9.784190e-02f, -8.045170e-02f,
  -1.316327e-02f, -4.120961e-02f, 8.495444e-02f, 2.261033e-02f, -5.965793e-02f, -1.062685e-01f, 4.776416e-02f, -7.379838e-03f,
  -5.378418e-02f, -1.093909e-02f, -4.196354e-02f, -3.404688e-02f, 5.262396e-03f, 6.959627e-02f, -4.397664e-03f, -3.724074e-02f,
  -5.973423e-04f, -2.971166e-02f, -5.594737e-02f, 2.509759e-02f, 5.978569e-02f, -3.093207e-02f, -1.845378e-02f, 2.487447e-02f,
  8.034932e-02f, -3.744376e-03f, 4.058737e-02f, 5.566131e-02f, -5.183300e-02f, 2.558192e-02f, -6.128573e-02f, -1.107638e-01f,
  -1.863401e-01f, -7.014965e-03f, 4.221443e-02f, -7.925818e-02f, 1.019351e-01f, -5.098033e-02f, -1.461914e-02f, -1.345432e-01f,
  5.384537e-03f, -1.032162e-01f, 1.025916e-01f, -4.824333e-02f, 4.889084e-03f, -8.968187e-02f, -1.022135e-01f, -3.479689e-04f,
  1.171158e-01f, 6.044575e-02f, -5.001951e-02f, -4.177666e-02f, -2.721444e-02f, 2.786939e-02f, -1.055118e-01f, 2.631463e-02f,
  -9.102459e-02f, 1.209940e-02f, 3.141107e-02f, 7.273151e-02f, 4.273088e-02f, 7.466584e-02f, 6.095064e-02f, 2.604185e-02f,
  1.453404e-02f, -8.110399e-02f, -2.570228e-02f, 4.918291e-02f, -4.858898e-03f, 8.975416e-03f, -3.625328e-02f, -8.704730e-02f,
  1.540062e-02f, -4.659547e-02f, 3.570829e-04f, -1.991887e-02f, 6.345768e-03f, -1.386297e-01f, -1.218376e-02f, -1.881612e-02f,
  -1.299692e-01f, -3.434050e-02f, -1.222744e-01f, -8.755325e-03f, 2.961249e-02f, 1.894487e-02f, 7.611755e-02f, -4.180143e-02f,
  1.022941e-01f, 7.600776e-02f, 1.136672e-01f, 3.459825e-01f, -1.035711e-01f, 5.221042e-02f, 8.946623e-03f, -1.547539e-02f,
  5.295181e-02f, 4.799984e-02f, -6.432597e-02f, -2.826066e-02f, 2.248941e-02f, -2.779034e-02f, -5.374102e-02f, -8.554465e-02f,
  -2.420492e-02f, -7.533766e-02f, 5.298293e-02f, 1.089984e-02f, -5.374280e-02f, -1.261341e-02f, 4.064054e-02f, 4.197109e-03f,
  4.634671e-02f, 1.645431e-02f, -1.452951e-02f, -1.297953e-02f, 7.313681e-02f, 9.768188e-02f, 4.797250e-02f, 3.409141e-02f,
  -1.520364e-02f, 4.913923e-02f, 2.268181e-02f, 4.104846e-02f, -1.268968e-01f, -5.726219e-02f, -3.674275e-02f, 4.829709e-02f,
  6.536257e-02f, -6.338514e-02f, 1.000755e-01f, 3.809965e-03f, 1.457917e-02f, -1.296848e-01f, 1.636203e-02f, 6.329929e-03f,
  -5.667453e-02f, 1.559792e-02f, -5.802759e-02f, 4.099377e-02f, -2.456637e-02f, -8.365854e-02f, 4.353645e-03f, -8.916981e-02f,
  -4.910809e-02f, -8.348017e-02f, -6.348910e-02f, 6.922019e-03f, 7.133511e-02f, -6.540774e-02f, -1.044771e-01f, -3.714998e-02f,
  1.939125e-03f, 3.061490e-02f, 1.495799e-01f, -1.566126e-01f, 4.186392e-02f, 5.593298e-02f, 9.384481e-02f, -7.332370e-02f,
  -7.119070e-02f, 3.787151e-02f, -9.083717e-02f, 3.543039e-02f, 8.487447e-02f, -1.238952e-05f, 1.433289e-01f, -8.387917e-02f,
  -1.449489e-01f, -1.941202e-01f, -3.699899e-02f, -1.268933e-02f, 8.831850e-02f, -4.383235e-03f, -7.236163e-02f, 1.185319e-01f,
  -8.928363e-02f, -1.034490e-01f, -9.435855e-02f, 1.001978e-01f, -9.786742e-03f, 1.112741e-01f, 3.449014e-02f, 9.696726e-03f,
  5.711378e-02f, -6.560703e-02f, -6.278830e-02f, 7.390495e-02f, -1.673873e-02f, -9.966411e-02f, -1.827529e-02f, 8.284767e-02f,
  2.259647e-02f, 1.350578e-01f, -2.321023e-02f, 6.900188e-02f, 3.996156e-02f, -1.219331e-01f, 1.249832e-02f, -7.513107e-02f,
  -1.239329e-01f, 1.661739e-02f, -8.378050e-02f, -3.296527e-02f, -8.590782e-02f, 7.416928e-02f, -8.195350e-02f, -2.349592e-02f,
  -6.668686e-02f, 7.451535e-02f, -1.382290e-03f, 7.737096e-02f, -7.789077e-02f, 5.947989e-02f, -8.387078e-02f, 7.338912e-03f,
  -2.079579e-02f, -7.296291e-02f, -6.073970e-02f, -8.535881e-02f, 7.123948e-02f, -2.058549e-02f, -1.121579e-01f, -4.496932e-03f,
  -2.061882e-02f, -4.628189e-02f, -7.102147e-02f, 5.725025e-02f, 2.773822e-02f, 4.710684e-04f, -5.937099e-02f, -4.640635e-02f,
  -4.161109e-03f, -1.013793e-01f, -1.147488e-01f, -8.500192e-02f, 2.644005e-02f, 1.422385e-03f, -8.102993e-02f, 7.174388e-02f,
  -5.524142e-02f, -5.997101e-02f, -5.982690e-02f, -1.028597e-01f, -1.058827e-01f, -8.052079e-02f, 2.142261e-02f, 7.934745e-02f,
  -1.942207e-06f, -7.304660e-02f, -7.633162e-04f, -3.446042e-02f, -3.825035e-02f, 6.367216e-02f, -2.780644e-02f, 2.789618e-02f,
  -9.269039e-02f, -8.402307e-02f, -9.352813e-02f, -4.086338e-03f, -4.538174e-02f, 1.405333e-02f, 5.165163e-02f, 2.144064e-02f,
  -8.069742e-02f, 3.617422e-02f, 5.426912e-02f, -1.210247e-01f, -8.667047e-02f, 5.383457e-02f, -2.977954e-02f, -4.025351e-03f,
  5.991414e-02f, 4.646957e-02f, -5.491924e-03f, -5.107288e-02f, -2.434797e-02f, -7.391383e-02f, -7.267641e-02f, -9.250302e-02f,
  -4.486734e-02f, 6.179481e-02f, -2.806513e-02f, -1.153438e-01f, 7.550888e-02f, -1.076322e-01f, 3.835245e-02f, 2.694224e-03f,
  4.931353e-02f, -9.128290e-03f, 2.050253e-02f, -5.164613e-02f, -7.557281e-03f, -4.781435e-02f, -1.774913e-02f, -8.895543e-02f,
  5.359498e-02f, -8.509686e-02f, -4.217847e-02f, -7.034891e-02f, 7.904791e-03f, -1.284779e-01f, 2.880289e-02f, -8.302198e-02f,
  5.928351e-02f, 4.550955e-02f, 3.065504e-02f, -8.724391e-03f, 2.627610e-02f, 1.068765e-02f, -1.060246e-01f, -6.428519e-03f,
  -3.909910e-03f, 3.031122e-02f, -5.565983e-03f, -1.182637e-01f, -1.194326e-01f, -3.832364e-02f, 5.421212e-02f, -1.008612e-01f,
  -5.073013e-03f, -1.268539e-02f, 6.399024e-02f, 7.804479e-02f, -2.467244e-02f, -1.006478e-01f, 6.607948e-02f, -4.987984e-02f,
  -8.269557e-02f, 1.629524e-02f, 7.094730e-02f, -4.347329e-02f, 6.282164e-02f, 6.534890e-02f, -3.920618e-02f, -2.095697e-02f,
  -1.109545e-01f, -7.722891e-02f, 9.762900e-02f, -6.836169e-02f, -9.091506e-02f, -9.536357e-03f, 3.177281e-02f, 5.099875e-02f,
  -4.048122e-02f, -1.236008e-01f, -4.354739e-02f, 5.680502e-02f, -5.792501e-02f, -7.436708e-02f, 6.288759e-02f, -6.904992e-02f,
  -4.254340e-02f, -1.375775e-02f, -1.067541e-01f, 1.200168e-02f, -1.048024e-01f, -6.463899e-02f, 6.355985e-02f, 2.442817e-02f,
  4.022203e-02f, 2.449046e-02f, 4.593273e-02f, 5.870291e-02f, -2.150063e-03f, 4.312932e-02f, -1.098283e-01f, -7.823678e-02f,
  8.952265e-04f, 7.440367e-02f, -9.096045e-02f, 8.272383e-02f, -9.426272e-04f, 9.518763e-02f, -3.855871e-02f, -8.387186e-02f,
  3.576636e-02f, -3.417079e-03f, 2.947561e-02f, 6.320804e-02f, -1.013686e-01f, 1.978845e-02f, 3.976294e-02f, 5.814954e-02f,
  -6.898928e-02f, 3.111548e-02f, -5.105615e-02f, -7.975878e-02f, -5.115648e-02f, -6.373583e-02f, 1.120182e-02f, 2.619902e-02f,
  4.989084e-03f, -1.102032e-02f, -1.545110e-02f, 8.121244e-03f, -9.091149e-02f, -9.523872e-02f, -4.612715e-02f, 3.326437e-02f,
  6.762293e-02f, -4.661626e-02f, 6.936000e-02f, -1.742288e-02f, -8.968151e-02f, -7.977450e-02f, -5.018348e-02f, 7.458456e-02f,
  -6.928758e-02f, -4.806039e-02f, -1.490834e-02f, -3.049535e-02f, -4.533718e-03f, 6.611478e-02f, 1.728010e-02f, 6.113035e-02f,
  -3.506672e-02f, -6.799730e-02f, 1.571367e-02f, 5.698390e-02f, -7.325467e-03f, 7.219522e-03f, 2.942220e-02f, -1.840685e-02f,
  4.853448e-02f, -8.393728e-02f, -9.216183e-03f, 5.374942e-02f, 7.111418e-02f, 1.411439e-02f, -9.975228e-03f, 1.493290e-02f,
  -1.083282e-01f, -6.301528e-02f, 9.442892e-02f, -5.031282e-02f, 8.514369e-03f, 6.184485e-02f, 4.391755e-03f, 5.307846e-02f,
  -7.095332e-02f, 4.436870e-02f, -1.229159e-01f, -8.636776e-02f, -7.802931e-02f, -2.783220e-02f, 6.510713e-02f, 3.455171e-02f,
  6.828532e-02f, 3.434402e-02f, -3.334847e-02f, 1.765952e-02f, -3.329117e-02f, -5.377299e-02f, -1.134746e-01f, -3.676547e-02f,
  -6.442635e-02f, -8.140704e-02f, 4.137895e-02f, 7.765897e-02f, 1.413641e-02f, -2.037122e-02f, -8.965277e-02f, -8.775724e-02f,
  -1.820743e-02f, -1.366667e-02f, -1.055557e-01f, -7.483022e-02f, -3.909877e-02f, -4.676073e-02f, 7.288481e-02f, 1.206851e-02f,
  -3.487269e-02f, 7.033907e-02f, -7.860105e-02f, 1.071976e-01f, -7.356653e-02f, -1.018332e-01f, -4.985262e-03f, -1.081993e-01f,
  8.568034e-02f, -6.836274e-02f, -7.326352e-02f, -7.433742e-02f, 6.319890e-02f, -7.104044e-02f, -7.669047e-02f, 8.475218e-02f,
  7.487516e-03f, 6.934723e-02f, -6.983366e-02f, 6.156999e-02f, 7.858848e-02f, 1.815161e-02f, 1.797136e-02f, -5.635877e-02f,
  -2.145696e-03f, 6.147015e-02f, 9.800635e-03f, -3.053805e-02f, -4.252090e-02f, 6.302900e-02f, 1.165524e-01f, 6.663598e-02f,
  1.205189e-01f, 5.044396e-02f, -5.395958e-02f, 5.558885e-02f, 9.033742e-02f, 1.698408e-01f, -4.677249e-02f, -1.847565e-02f,
  4.281308e-02f, 6.196303e-03f, 3.949444e-02f, -5.558610e-02f, -8.702953e-02f, -1.324934e-02f, 4.425551e-02f, -2.241415e-02f,
  -3.510199e-02f, -9.801792e-02f, 6.928951e-02f, -8.099589e-02f, 1.494918e-01f, 8.684493e-02f, -6.609368e-02f, -1.760332e-01f,
  3.902975e-01f, -1.358730e-01f, -1.424605e-01f, -1.679946e-01f, -6.750286e-02f, -4.675760e-02f, 3.696325e-02f, -9.509206e-02f,
  -1.807616e-02f, 1.408010e-01f, -3.749147e-02f, -3.613039e-02f, 5.066799e-02f, -5.438598e-03f, -4.654615e-02f, -4.727792e-02f,
  -3.494722e-02f, 4.915589e-02f, -9.776057e-03f, 1.101779e-01f, 7.394139e-02f, 1.208546e-01f, 9.997358e-02f, 3.692019e-02f,
  1.747686e-02f, -9.827324e-02f, -2.758264e-02f, 7.721798e-02f, -5.755731e-02f, 2.138206e-02f, 3.099955e-02f, -1.927925e-04f,
  -2.791796e-02f, 7.546855e-02f, -7.843482e-02f, -4.357354e-02f, 3.887669e-02f, 1.284543e-01f, 3.215273e-02f, 4.289161e-02f,
  3.042718e-02f, -1.170534e-01f, -1.126507e-01f, 6.581958e-02f, 1.193548e-01f, 5.163313e-02f, -9.406321e-02f, -7.330450e-02f,
  8.455146e-02f, -3.380508e-02f, -5.580658e-02f, -7.559413e-02f, 1.557246e-02f, 3.811084e-02f, 1.047564e-01f, 1.591057e-02f,
  -2.124150e-02f, 1.229575e-01f, 6.920279e-02f, 5.026713e-02f, 5.758699e-02f, -9.200918e-02f, 1.039752e-03f, -8.575898e-02f,
  -4.241153e-02f, -4.444337e-03f, 1.984654e-02f, 4.714565e-02f, -6.442434e-02f, 6.372138e-02f, 5.210211e-02f, 7.397982e-02f,
  1.415087e-01f, -4.971582e-02f, 2.697459e-02f, 1.324827e-01f, -1.347092e-01f, -2.442862e-03f, -3.067869e-03f, -5.859701e-02f,
  6.672005e-02f, 9.811331e-02f, 5.940862e-02f, 1.317046e-01f, 2.571659e-02f, 3.816400e-02f, 5.292257e-02f, 5.615408e-02f,
  1.566732e-05f, 7.550343e-03f, 6.376670e-02f, -2.896350e-02f, -5.725349e-03f, 1.093553e-01f, 1.932107e-02f, 3.187379e-02f,
  2.116677e-02f, -4.164014e-02f, 9.302841e-04f, 3.022076e-02f, 7.552893e-02f, -5.200340e-02f, -2.175083e-03f, 7.910908e-02f,
  -7.139395e-03f, -2.297259e-02f, 1.513761e-02f, -1.367189e-01f, 9.052487e-02f, -1.241958e-02f, -8.640409e-02f, 4.579186e-02f,
  -5.551819e-02f, -4.462820e-02f, -5.105946e-03f, 3.090510e-02f, 1.736864e-03f, 4.616621e-02f, 5.695830e-02f, -7.773904e-02f,
  2.918864e-02f, -1.718338e-02f, 9.888013e-02f, -3.882611e-02f, -3.535614e-02f, 1.101133e-01f, 6.474347e-02f, -2.100340e-02f,
  4.153604e-02f, -4.318778e-03f, -2.257936e-02f, -4.922244e-02f, 1.564385e-02f, 1.124553e-02f, 2.732568e-02f, 8.670840e-02f,
  4.561171e-02f, 2.593225e-02f, 4.241901e-02f, 1.307531e-01f, 1.187844e-01f, 4.114830e-03f, 3.211789e-02f, 1.303259e-01f,
  7.565812e-02f, -4.865676e-02f, -1.885005e-02f, 9.167327e-02f, -5.382742e-03f, -7.505927e-02f, 4.909135e-02f, 8.798647e-02f,
  -2.425053e-03f, -1.628041e-02f, 1.950740e-02f, -2.926188e-02f, 6.348037e-02f, 4.535947e-03f, 2.074146e-02f, -8.724117e-02f,
  -1.437807e-02f, -9.728014e-02f, -6.444831e-02f, 4.880931e-02f, -7.702643e-02f, -6.667732e-03f, 5.341647e-02f, 1.247446e-02f,
  -1.909003e-02f, 7.987528e-02f, 4.592631e-02f, 1.395211e-01f, -5.848845e-02f, 3.226990e-02f, -2.177060e-02f, -8.486520e-02f,
  -3.705149e-02f, -4.472943e-02f, -7.912904e-02f, -3.666512e-02f, 5.445771e-02f, -2.447052e-02f, 6.425565e-02f, 9.574894e-02f,
  -9.393645e-04f, -6.021951e-02f, 1.553543e-02f, -1.868866e-02f, -7.738946e-03f, 9.705809e-02f, 6.070014e-02f, -3.998697e-03f,
  8.210213e-02f, 3.278048e-02f, 8.918273e-02f, 1.225474e-01f, 3.830214e-02f, 1.546923e-01f, 1.905327e-01f, 7.424580e-02f,
  8.630460e-02f, 1.084790e-02f, -8.736444e-03f, -5.022069e-02f, 1.791778e-02f, -9.459246e-02f, -5.263445e-03f, -1.370349e-02f,
  2.455852e-02f, 2.954704e-02f, 6.039501e-02f, -2.426510e-02f, 7.837270e-02f, 1.205289e-01f, 1.862074e-02f, -5.643481e-02f,
  1.246417e-01f, 5.874497e-02f, -2.367301e-02f, -1.816444e-02f, -8.770312e-02f, 9.350204e-02f, 3.900504e-03f, 2.135691e-02f,
  -5.903000e-02f, 9.787934e-02f, 6.097096e-02f, 6.702353e-02f, -5.839970e-02f, 8.857117e-02f, -3.103760e-02f, 1.053001e-01f,
  5.551303e-02f, 1.020166e-01f, 4.229082e-03f, -6.726067e-03f, 4.132479e-02f, 1.416157e-02f, 3.886968e-02f, 4.810850e-02f,
  6.895778e-02f, 1.035093e-01f, 9.508397e-03f, 7.618637e-02f, -8.032447e-02f, -6.462049e-02f, -3.109425e-02f, -4.304230e-02f,
  -4.754004e-02f, -1.106816e-01f, -6.366980e-02f, -1.597550e-02f, -3.955927e-02f, 8.087580e-02f, -1.172712e-01f, -1.114473e-01f,
  2.917488e-02f, 8.429030e-02f, 4.022480e-02f, -1.227597e-01f, -1.472100e-01f, 1.657054e-02f, 1.365017e-01f, 5.361850e-02f,
  1.160663e-01f, -4.689006e-02f, -4.529542e-02f, -9.951564e-02f, -3.371548e-03f, 1.416887e-01f, -1.977535e-02f, -2.784594e-01f,
  -5.409680e-02f, -7.906186e-02f, -2.903909e-02f, -4.475878e-02f, 2.383596e-03f, 4.647624e-02f, 7.291603e-02f, -1.648335e-02f,
  -1.024482e-02f, -7.967996e-03f, -1.074909e-01f, -3.424381e-02f, -4.210851e-02f, -5.691433e-02f, -1.143667e-01f, 1.073173e-01f,
  2.023637e-01f, 1.788218e-01f, -1.068709e-01f, 1.081265e-01f, 8.048879e-02f, 9.985873e-02f, -2.068020e-01f, 5.009618e-02f,
  8.437619e-02f, 3.849614e-02f, -2.553830e-02f, -2.037679e-01f, -9.208450e-03f, 7.752851e-02f, 6.504130e-02f, 1.087232e-01f,
  -1.223969e-01f, 3.241367e-02f, 8.341364e-02f, 1.385936e-01f, 1.782543e-02f, 1.873147e-01f, 2.010253e-02f, -4.272849e-02f,
  9.420939e-02f, 6.343118e-02f, 5.858540e-02f, -4.735941e-02f, 1.038663e-01f, 8.393691e-02f, -6.740221e-02f, -2.192288e-02f,
  -3.414218e-02f, -9.043119e-02f, 7.311805e-03f, 6.769221e-02f, -3.997466e-02f, 1.031620e-02f, 2.539623e-02f, 1.625268e-02f,
  1.307764e-02f, -4.388724e-02f, 6.052950e-02f, 1.271704e-01f, 4.646417e-02f, 5.709029e-02f, -1.708718e-01f, -1.238025e-01f,
  -1.471700e-02f, 4.700831e-02f, 2.400602e-03f, 4.451652e-02f, 1.388471e-02f, 1.021028e-01f, 1.701912e-03f, -1.006407e-01f,
  -2.021427e-01f, -5.448835e-02f, 7.710969e-02f, -3.935795e-02f, 3.908189e-02f, 8.322684e-02f, -1.931865e-02f, -3.327204e-02f,
  3.097625e-02f, 1.871691e-02f, 1.044033e-01f, -4.390438e-02f, -3.223187e-02f, 1.912200e-02f, 4.484762e-02f, 5.845718e-02f,
  8.710930e-02f, -6.414101e-02f, -8.033065e-02f, 3.875630e-02f, 4.055173e-02f, -8.451330e-02f, 1.386275e-01f, 4.150630e-02f,
  -4.051616e-02f, 8.058230e-02f, 7.031132e-02f, -2.643338e-02f, 1.222022e-02f, -6.134431e-02f, 8.475335e-03f, -8.705935e-02f,
  4.242438e-02f, -1.807686e-01f, 6.361488e-02f, 3.214655e-02f, 1.672416e-02f, -9.138145e-02f, 1.435565e-01f, -7.097892e-02f,
  9.318621e-03f, 3.804386e-02f, -6.646843e-02f, 3.922978e-02f, 1.257513e-01f, -2.226069e-02f, 6.008168e-02f, 1.771073e-02f,
  -6.926356e-02f, -1.485185e-02f, -2.611673e-02f, -1.489251e-01f, 6.081884e-02f, -4.474268e-02f, -1.241388e-01f, -1.746703e-02f,
  6.855652e-03f, -7.848538e-02f, 9.364661e-02f, 6.502999e-03f, 1.140216e-02f, -2.598674e-02f, 1.892626e-01f, 7.114036e-02f,
  2.676949e-02f, 5.097527e-02f, -2.043637e-02f, 1.984338e-02f, -1.738838e-03f, -7.668750e-02f, 4.611230e-02f, 2.024477e-02f,
  -8.094159e-03f, 9.115450e-02f, 2.834585e-02f, -1.618961e-02f, -1.022819e-01f, -1.071228e-01f, 1.547847e-01f, 2.604396e-01f,
  1.882898e-01f, 5.190203e-02f, 7.167567e-02f, 1.672432e-01f, 1.141780e-02f, -1.056022e-01f, 3.352649e-02f, -2.360754e-02f,
  -5.138224e-04f, 4.883736e-02f, -1.035885e-01f, 1.666472e-01f, -3.048859e-03f, -4.364274e-02f, -6.655924e-03f, 6.671613e-02f,
  1.107633e-02f, 4.550841e-02f, -5.269847e-02f, 3.439227e-02f, -9.691339e-03f, -1.467164e-02f, 5.816701e-02f, -8.659537e-02f,
  -5.317021e-02f, 2.018588e-03f, -3.506748e-02f, -6.087783e-02f, -3.310542e-02f, -1.014872e-01f, 2.439911e-02f, 1.100012e-01f,
  2.219369e-02f, 7.923796e-03f, 3.637023e-02f, 7.561328e-02f, 4.305824e-02f, 3.082287e-02f, 8.213591e-02f, 1.527323e-02f,
  -9.954473e-02f, -2.970124e-01f, -9.926123e-02f, -1.971059e-01f, -1.275538e-02f, 1.975725e-02f, -1.004868e-01f, -6.660118e-02f,
  9.191205e-03f, 4.360243e-02f, 2.313065e-02f, 2.444814e-03f, 5.653735e-02f, -5.489971e-02f, -1.151738e-01f, 2.274816e-02f,
  3.512380e-02f, 5.815157e-02f, 1.636177e-01f, 1.007193e-01f, 4.966729e-02f, -8.227264e-02f, 5.997548e-02f, 2.438772e-02f,
  4.438606e-02f, 1.101919e-01f, 6.093682e-02f, 7.778607e-02f, 2.166191e-02f, -1.245291e-01f, -3.086847e-02f, 5.602852e-02f,
  5.054863e-02f, 8.934910e-02f, -8.804229e-02f, -5.063223e-03f, 4.373604e-02f, 3.034187e-02f, -5.223617e-02f, -1.138851e-01f,
  1.181911e-01f, 6.609975e-02f, 1.025250e-01f, 8.028176e-02f, -4.262187e-02f, 3.004955e-02f, -2.137171e-02f, -1.876559e-02f,
  8.920308e-03f, 1.389939e-01f, -5.100599e-02f, 7.331948e-02f, 6.508643e-02f, -3.491818e-02f, 9.293249e-02f, 1.331014e-01f,
  -1.929564e-02f, -1.078792e-02f, 1.627766e-01f, 7.890775e-03f, -1.688778e-01f, 3.376457e-02f, 7.713220e-02f, 1.796783e-01f,
  -3.639625e-02f, -1.347891e-01f, 1.426410e-01f, 1.043455e-01f, -3.354820e-02f, -1.013615e-01f, 4.872824e-02f, 1.057051e-01f,
  -2.806861e-02f, -3.542055e-02f, -1.023684e-01f, 1.235852e-01f, -1.636738e-02f, -1.367506e-01f, -4.623945e-02f, 4.137554e-02f,
  -4.255924e-02f, 8.989146e-02f, -8.407425e-02f, 1.204396e-02f, 4.679545e-02f, 1.918222e-01f, -1.445817e-01f, 1.750414e-01f,
  -5.817980e-02f, 9.481048e-02f, 9.262803e-02f, 3.162682e-02f, 6.475775e-02f, 3.650453e-02f, 8.963270e-02f, 5.709663e-02f,
  4.213576e-02f, 1.017973e-01f, -1.961431e-01f, 6.251720e-02f, 7.177893e-03f, 2.777120e-02f, -7.818566e-02f, 1.040801e-01f,
  -3.547212e-02f, 1.140799e-02f, -3.488243e-02f, 1.625625e-03f, -1.074150e-01f, -3.329738e-02f, -1.342287e-01f, 2.330988e-01f,
  7.409367e-02f, 2.161112e-01f, 1.871529e-01f, -7.165448e-02f, -1.253231e-01f, 9.227586e-02f, 6.958389e-02f, 4.539694e-02f,
  5.923606e-02f, 8.320129e-02f, 1.214939e-01f, 1.672010e-02f, 1.864245e-01f, 4.633954e-03f, -8.984156e-02f, -2.884143e-02f,
  -3.724257e-02f, 2.861939e-02f, 6.288318e-02f, -2.022304e-03f, 8.552864e-02f, -7.393011e-02f, -2.219892e-03f, 4.659117e-02f,
  4.683525e-02f, 9.165774e-02f, -1.357501e-01f, 2.496273e-01f, -2.530660e-01f, -7.796624e-02f, 1.467093e-01f, -2.980706e-02f,
  -1.103100e-01f, -2.061241e-02f, -5.829452e-02f, -1.345653e-01f, -1.740614e-01f, -2.597344e-01f, -1.516017e-01f, -2.496673e-01f,
  -2.247653e-01f, -2.267054e-02f, 3.132403e-02f, -1.677391e-01f, -1.867272e-01f, 1.220156e-02f, -1.652372e-01f, -6.948060e-02f,
  -6.065459e-02f, -1.853977e-03f, 4.749347e-02f, -7.761379e-02f, 9.621070e-02f, -1.666703e-01f, 1.226319e-01f, -1.346290e-01f,
  -2.074319e-02f, 1.595041e-01f, -8.439883e-02f, 1.431271e-01f, 1.778847e-02f, -1.195402e-02f, -3.804036e-02f, -1.116885e-02f,
  1.256928e-02f, -1.446379e-02f, 5.118382e-02f, -2.216491e-02f, -1.055934e-01f, -2.706418e-02f, -1.335878e-01f, -9.860654e-02f,
  -8.258510e-03f, 1.314277e-01f, 6.577982e-02f, -1.095538e-02f, -9.381360e-02f, 2.492118e-02f, 1.083598e-01f, 1.155748e-01f,
  1.390984e-01f, 4.457634e-02f, -8.603516e-02f, -7.174449e-02f, 6.659531e-02f, 8.842588e-02f, 2.140682e-03f, -9.818594e-02f,
  1.290580e-01f, 1.193405e-02f, 9.953461e-02f, 9.731074e-02f, 1.188816e-01f, 1.352871e-01f, 1.964801e-01f, 2.523999e-02f,
  4.836712e-02f, -1.298301e-01f, -2.911850e-02f, -3.445468e-02f, 2.783063e-02f, -8.741272e-02f, -4.216212e-02f, -1.176643e-01f,
  -5.401604e-02f, -5.462033e-02f, -1.058923e-01f, -8.039383e-02f, -8.876483e-02f, -1.067271e-01f, -2.614920e-03f, -1.860055e-01f,
  -2.272326e-01f, 1.535802e-01f, -6.359885e-02f, 4.841970e-02f, -5.974896e-02f, 1.365356e-01f, -1.809155e-01f, -3.507830e-02f,
  1.233397e-01f, -2.417002e-02f, 2.850471e-02f, -3.149768e-02f, -4.905765e-02f, 1.382961e-01f, -5.678578e-02f, -2.823974e-02f,
  1.218316e-01f, 2.211748e-02f, -1.157520e-01f, 7.522146e-02f, 1.365393e-01f, 8.938455e-02f, 1.464840e-01f, -6.742234e-04f,
  -1.951587e-03f, 1.848143e-01f, 7.990245e-03f, -2.373131e-01f, -3.432066e-02f, 1.098530e-01f, -7.583985e-03f, -4.359205e-02f,
  -1.159320e-01f, 1.773617e-01f, 5.901901e-02f, 1.036041e-02f, 3.482756e-01f, 5.929799e-02f, 1.084755e-02f, -1.132179e-01f,
  -5.137453e-02f, -7.925944e-02f, 1.188999e-01f, -1.723830e-01f, 4.341013e-02f, -9.991507e-02f, -4.538803e-02f, -3.135881e-02f,
  1.560181e-01f, 1.206726e-02f, -1.171722e-04f, 4.531828e-03f, -2.024553e-01f, -1.358803e-02f, -1.516574e-02f, -5.366699e-02f,
  -3.879297e-02f, -4.659317e-02f, -1.024949e-01f, 2.539705e-02f, -8.986578e-02f, 4.547266e-02f, -1.348574e-01f, 2.777156e-02f,
  -9.888908e-02f, 3.095733e-02f, -1.548892e-01f, 4.476053e-02f, 1.083826e-01f, -1.450502e-01f, 5.781817e-02f, 4.003537e-02f,
  -2.436098e-01f, -2.119109e-01f, -5.876183e-02f, 1.063367e-02f, -8.573163e-02f, 2.235378e-02f, -7.144756e-02f, 1.966673e-02f,
  -3.587921e-02f, -1.076151e-02f, 2.170886e-01f, 1.542657e-01f, 3.178389e-02f, 1.983033e-01f, 3.896711e-02f, 1.645289e-01f,
  -6.135492e-02f, 1.031778e-02f, 1.560756e-02f, 1.003947e-01f, 5.450062e-02f, 4.452027e-02f, 1.659618e-02f, 1.575896e-01f,
  -1.010979e-01f, 6.605144e-03f, 2.572455e-01f, -1.543536e-01f, -2.213991e-02f, -4.521246e-02f, 1.721187e-01f, 1.864859e-01f,
  1.914773e-01f, -2.160292e-01f, 5.064785e-02f, 5.285387e-02f, -1.804056e-01f, 2.748240e-03f, 9.747443e-02f, 6.024175e-02f,
  -1.091899e-01f, 7.228986e-02f, -3.147150e-02f, -3.050720e-02f, -5.114628e-02f, 1.205424e-01f, 8.548713e-02f, -3.589356e-03f,
  1.267956e-01f, 5.167709e-02f, -1.827486e-01f, 1.020898e-01f, 2.835969e-02f, -2.286717e-02f, -5.208711e-02f, 1.255673e-01f,
  -3.413962e-04f, -1.203030e-02f, -5.696191e-02f, 1.266364e-01f, -1.043486e-01f, 6.686328e-02f, -3.155227e-02f, 4.502262e-02f,
  -7.888072e-03f, -1.038620e-01f, 8.317512e-03f, -2.009724e-02f, -4.685478e-02f, -1.220357e-02f, -7.166870e-02f, 1.165805e-02f,
  6.150827e-02f, 1.588857e-01f, 4.436743e-02f, 1.079607e-03f, -1.078673e-01f, 1.113069e-01f, 7.816266e-02f, 4.355109e-02f,
  7.567603e-02f, 7.594517e-02f, 7.745955e-02f, -6.958393e-02f, -1.119535e-03f, 2.770527e-02f, -2.507416e-02f, 3.958715e-02f,
  2.434413e-02f, 5.959042e-02f, 7.945232e-02f, 3.304052e-02f, 1.450151e-02f, 9.546024e-04f, 6.569985e-02f, 2.054060e-02f,
  6.404201e-02f, -8.860254e-03f, -4.633585e-02f, 5.626038e-02f, -1.501891e-01f, -2.854395e-01f, -2.366162e-01f, 1.145939e-01f,
  1.075550e-01f, -1.912803e-02f, 2.877931e-02f, 1.894020e-02f, 1.059912e-01f, 3.188428e-02f, 7.369956e-02f, 1.173413e-01f,
  1.764067e-02f, -6.725018e-02f, 1.438087e-02f, -1.300137e-01f, -6.204125e-02f, 1.994766e-02f, 1.374974e-01f, 8.741155e-02f,
  -1.417577e-01f, 3.105600e-02f, -2.537456e-02f, -3.174426e-02f, -1.654004e-03f, 4.558903e-02f, 7.884230e-02f, 2.879694e-02f,
  -9.031780e-03f, 7.562962e-02f, -1.113866e-01f, 3.959215e-02f, -1.334651e-01f, -8.262504e-02f, -8.117504e-02f, 2.772576e-02f,
  1.186208e-01f, -6.254806e-02f, 1.826951e-02f, -4.921008e-02f, 2.781714e-02f, -1.128278e-02f, 1.422158e-01f, -3.952076e-02f,
  1.291108e-01f, 1.862850e-03f, 1.459045e-01f, 1.169377e-01f, 1.054308e-01f, -7.547726e-02f, 1.786513e-02f, -1.377926e-01f,
  -5.480260e-04f, -1.071159e-01f, 2.401009e-02f, -3.048283e-03f, 3.952419e-02f, 8.362301e-02f, 1.002913e-01f, 3.419884e-02f,
  8.758632e-02f, 3.190983e-02f, -4.271207e-02f, 8.639655e-02f, 2.093244e-02f, -1.472871e-02f, 6.439944e-02f, 8.567936e-02f,
  -3.055358e-02f, 3.302214e-02f, 6.344233e-02f, -9.991798e-02f, 4.720914e-03f, -2.296907e-02f, 5.175500e-02f, -1.417296e-02f,
  -9.932850e-02f, -9.963524e-02f, 1.478979e-02f, 5.905664e-02f, -8.169236e-02f, 9.239457e-02f, -2.489717e-02f, 3.592855e-02f,
  4.394829e-02f, -1.463056e-03f, -1.290964e-01f, -6.589346e-02f, -8.328026e-02f, 1.349279e-02f, -6.071089e-02f, 1.845728e-02f,
  6.031011e-02f, 2.469971e-03f, -1.202395e-01f, -7.838651e-03f, -6.083071e-02f, 5.029057e-02f, -6.472649e-02f, 4.321992e-02f,
  -3.290817e-02f, 3.410890e-02f, 6.173488e-02f, 7.711209e-03f, -1.560680e-02f, -1.368465e-02f, -1.026432e-02f, -3.554261e-02f,
  -2.809133e-02f, -1.577028e-01f, -1.400500e-01f, 8.766112e-03f, -6.720191e-03f, 7.060818e-02f, 3.371125e-02f, 1.125621e-01f,
  3.726375e-02f, 8.515292e-02f, 5.706121e-02f, -8.389493e-02f, 7.399149e-02f, 1.122513e-01f, 6.204788e-02f, 5.429272e-02f,
  -1.065726e-01f, -7.504168e-02f, 2.773233e-02f, 3.820293e-02f, -6.032915e-02f, -1.281757e-02f, -7.568542e-02f, -4.012723e-02f,
  -4.364033e-02f, 3.765448e-02f, 2.654066e-02f, -1.075371e-01f, -1.364077e-02f, -1.341105e-01f, 5.754334e-02f, 1.588094e-02f,
  -2.593229e-03f, 7.147526e-03f, 1.290395e-01f, 7.035375e-02f, 1.386080e-02f, 2.879762e-02f, -5.862784e-02f, 6.604499e-02f,
  -4.971983e-02f, -1.641167e-03f, -1.077786e-02f, 5.464543e-02f, -8.392807e-03f, 5.511668e-02f, 1.066685e-01f, 7.093316e-02f,
  9.001261e-02f, 1.090932e-01f, 1.530960e-01f, -1.583182e-02f, 3.029093e-02f, -1.122767e-02f, -1.303195e-02f, 1.071331e-01f,
  9.465599e-02f, 6.656938e-02f, 1.174871e-01f, -2.400958e-02f, 1.024158e-01f, 6.827298e-02f, 3.284255e-02f, 7.699882e-02f,
  1.293730e-02f, 6.072865e-02f, -1.480431e-02f, 6.225480e-02f, -6.489154e-02f, 3.969645e-03f, 3.802810e-02f, -4.982986e-02f,
  2.023660e-02f, -4.781310e-02f, 6.277917e-02f, 7.491129e-02f, 9.042402e-02f, 5.377229e-02f, 6.651859e-02f, -6.643223e-02f,
  7.556135e-02f, 1.039071e-02f, -7.943109e-03f, -3.763042e-02f, -5.924790e-02f, 8.337662e-03f, -7.576010e-02f, 3.247458e-02f,
  -2.420297e-02f, -1.298762e-02f, -5.501255e-02f, -6.398795e-02f, -4.158723e-02f, 1.648105e-02f, 7.449906e-02f, 6.800557e-02f,
  -5.079448e-02f, 2.368169e-02f, 6.631261e-02f, 2.114832e-02f, -5.671823e-02f, -2.660476e-02f, 1.702012e-02f, 6.265689e-02f,
  1.130841e-03f, 4.415986e-02f, 2.492412e-02f, -1.090662e-01f, 9.232893e-02f, 7.774485e-02f, 5.497546e-02f, 2.385236e-02f,
  1.689288e-01f, -1.075111e-03f, 1.589075e-03f, -5.070199e-02f, 6.381296e-02f, 3.001295e-02f, 2.162957e-02f, 9.442651e-02f,
  8.005491e-03f, 1.375457e-01f, -3.489454e-02f, 3.559198e-02f, -2.298653e-02f, 8.654185e-02f, 1.597338e-01f, 7.471365e-02f,
  5.944819e-02f, 1.492241e-01f, -6.420832e-02f, 9.768914e-02f, 1.816835e-02f, 1.296467e-01f, 1.316318e-01f, -4.449820e-02f,
  -6.146315e-02f, 3.029584e-02f, -2.715145e-02f, -9.278864e-02f, 6.931477e-02f, -4.663336e-02f, 6.836925e-03f, -2.786229e-02f,
  2.352510e-02f, 7.401057e-02f, -2.271010e-01f, -4.907648e-02f, 4.561459e-02f, -1.874190e-01f, 9.344571e-03f, 2.500082e-02f,
  7.823826e-02f, 4.225068e-02f, 2.216673e-02f, -2.197647e-02f, 5.977903e-02f, 5.875328e-02f, -1.097878e-01f, -1.798409e-01f,
  9.090693e-02f, -1.683146e-02f, 4.438664e-03f, -5.919507e-02f, 4.716861e-02f, -5.140719e-02f, -2.430378e-02f, -1.547590e-02f,
  -5.073901e-02f, -4.261767e-03f, 5.469771e-02f, -8.889674e-02f, 4.614525e-02f, -6.235462e-02f, -7.455494e-02f, 1.632224e-02f,
  1.370387e-01f, 6.887502e-02f, 6.885228e-02f, 6.449978e-02f, -5.891134e-02f, -6.656989e-02f, -1.814504e-01f, 8.526213e-03f,
  2.843029e-01f, 2.491805e-01f, 5.428449e-02f, -2.272505e-01f, -1.585994e-01f, 9.842712e-02f, -3.667816e-02f, -6.246454e-02f,
  1.647991e-01f, -6.607697e-02f, -2.337258e-02f, 1.998035e-02f, -4.187264e-02f, 5.150186e-02f, 4.355753e-02f, 1.052768e-01f,
  -5.512493e-02f, 7.031564e-02f, 1.486326e-01f, 9.282850e-02f, 3.233153e-02f, -2.958523e-02f, 1.098257e-01f, 1.780934e-03f,
  -4.957258e-02f, -3.518641e-02f, -7.515502e-02f, 1.966302e-01f, -2.997224e-02f, 1.110188e-01f, -6.971394e-02f, -4.392650e-02f,
  -1.676902e-02f, 6.922783e-02f, -2.103975e-02f, 8.310294e-02f, 6.854927e-02f, -2.150549e-02f, 3.449130e-02f, 6.127022e-02f,
  -2.472176e-02f, 4.866267e-02f, -6.361491e-02f, -3.592749e-02f, 1.854161e-01f, 3.353405e-01f, -9.168536e-02f, 4.446093e-02f,
  -3.360173e-02f, 5.368648e-02f, -3.619891e-02f, -2.785283e-02f, 1.773912e-02f, -2.477767e-02f, 1.463337e-01f, -3.436313e-02f,
  8.983275e-02f, -5.890479e-02f, 5.613537e-02f, -1.724178e-02f, 1.149847e-01f, -8.375054e-04f, 1.319731e-02f, 1.136777e-01f,
  3.131714e-02f, 1.068942e-03f, 4.246608e-02f, -7.584167e-02f, 5.431375e-02f, -5.854081e-02f, -1.059993e-01f, 1.305393e-02f,
  1.222430e-01f, -1.651949e-02f, 7.244756e-03f, -1.007023e-02f, 1.296115e-01f, 2.319621e-02f, -6.282344e-03f, -4.396165e-02f,
  1.011406e-02f, 6.021786e-02f, -8.796970e-02f, 2.936190e-02f, -1.077923e-02f, 3.369826e-02f, 9.159988e-02f, -6.502984e-02f,
  3.419536e-02f, 1.020351e-01f, -9.571020e-02f, 6.439934e-02f, 3.973717e-02f, -3.623867e-03f, 3.153158e-02f, 1.052826e-01f,
  -2.313050e-02f, -1.305844e-01f, 1.087984e-01f, 1.225285e-01f, 1.390562e-01f, 6.026113e-02f, 2.921044e-02f, -1.786737e-02f,
  8.735647e-02f, -1.494119e-02f, 6.201325e-02f, 2.217966e-02f, 3.963723e-02f, -5.396891e-02f, 4.101817e-02f, 5.040090e-02f,
  2.199430e-02f, 6.169381e-02f, 6.955588e-02f, 5.780584e-02f, -7.724654e-02f, 1.439109e-01f, -1.468061e-01f, 6.873949e-03f,
  1.050967e-03f, -3.472219e-02f, 1.228789e-01f, -3.462242e-04f, 8.132628e-03f, -1.766917e-03f, 1.408235e-01f, 2.376363e-02f,
  -5.897277e-02f, -2.940315e-02f, -8.010571e-02f, -2.570683e-02f, 1.655258e-02f, 3.278755e-02f, 8.611821e-02f, -6.382649e-03f,
  2.251720e-02f, -3.198460e-02f, 1.411695e-01f, -7.399457e-02f, -3.376469e-02f, 8.374483e-02f, 2.064796e-02f, 1.260403e-01f,
  -2.200264e-01f, 5.730980e-02f, 1.076535e-01f, -6.625228e-02f, 6.899342e-02f, -1.331898e-01f, -8.225844e-02f, 1.990972e-02f,
  -2.580518e-02f, 2.486860e-02f, -6.693710e-04f, 5.231626e-02f, 9.591535e-02f, 1.125097e-01f, 7.510268e-02f, 2.297781e-02f,
  1.633851e-02f, 7.717019e-02f, 6.471958e-03f, 2.641827e-02f, 6.488041e-02f, -4.446537e-02f, -9.581242e-02f, 5.846515e-02f,
  -5.035123e-02f, -3.732638e-02f, 1.294246e-01f, 2.413953e-02f, -5.602532e-02f, 3.317264e-02f, 7.344519e-02f, 9.180414e-02f,
  -8.153323e-02f, 4.699374e-02f, 3.952513e-02f, -6.331545e-02f, 1.231728e-01f, 7.458299e-02f, -1.194759e-01f, 1.172990e-01f,
  4.079355e-02f, 3.692516e-02f, 1.049862e-01f, 3.638764e-02f, 1.478280e-01f, -2.641618e-02f, -1.008124e-01f, 1.059109e-01f,
  4.420570e-02f, -4.074357e-02f, 9.711549e-02f, 6.167703e-02f, -1.098053e-01f, 1.230984e-01f, 1.261097e-01f, -2.407886e-02f,
  6.426512e-02f, -6.079484e-03f, 8.971376e-02f, 9.720429e-02f, -4.232592e-02f, -3.365305e-03f, -1.797133e-01f, 1.710596e-01f,
  -7.100669e-02f, -2.198900e-02f, 8.683354e-02f, 8.846432e-03f, -2.469360e-02f, 9.728298e-02f, -8.374000e-02f, 5.326118e-02f,
  -1.039826e-01f, -4.828553e-02f, 4.693021e-02f, 6.813371e-03f, -1.479036e-01f, -9.129602e-02f, -3.217674e-02f, -1.080970e-01f,
  -5.429777e-02f, -1.358334e-01f, -2.966390e-03f, -9.188759e-02f, -5.332569e-02f, 8.139548e-02f, 6.165338e-02f, -5.192766e-02f,
  2.502423e-02f, -9.123837e-03f, 1.038889e-01f, -3.473917e-02f, -2.844433e-02f, 1.200766e-01f, 1.878689e-02f, 7.226557e-02f,
  8.647776e-02f, 7.166532e-02f, 1.176726e-01f, 2.845084e-02f, -1.747095e-03f, 4.752871e-02f, -3.079281e-02f, -4.262769e-02f,
  3.180888e-02f, 5.792382e-02f, 8.722889e-02f, -2.267821e-02f, 7.931909e-02f, -3.771529e-02f, 8.417737e-03f, 1.212265e-01f,
  2.007685e-02f, 5.797415e-02f, -5.159399e-02f, -1.109418e-01f, -5.555979e-03f, -1.031337e-02f, -8.736373e-02f, 8.954735e-02f,
  7.846425e-02f, -8.052424e-02f, 4.335169e-02f, 7.087890e-02f, 1.045417e-01f, -2.024228e-02f, 3.992328e-02f, 3.272624e-02f,
  6.140988e-02f, 6.383277e-02f, -1.036799e-01f, -1.136712e-01f, 1.232970e-02f, 4.808883e-02f, -1.438934e-01f, -9.515703e-02f,
  -1.687185e-03f, -1.332678e-01f, -8.548073e-03f, 3.905187e-02f, -7.385854e-02f, -9.726460e-02f, 4.515652e-03f, 1.743348e-02f,
  1.262589e-01f, 4.944579e-02f, -1.960028e-02f, 1.041018e-01f, -6.610587e-02f, -2.211633e-02f, 4.269138e-02f, 3.090015e-02f,
  7.000882e-02f, -1.823810e-02f, 2.616516e-03f, 1.089084e-01f, 1.498016e-01f, -8.173816e-02f, 8.992177e-03f, 8.664631e-02f,
  1.147845e-02f, -6.375489e-03f, 2.769000e-02f, -9.656376e-02f, 3.367453e-02f, -2.581665e-02f, -1.427380e-02f, 9.045596e-02f,
  -7.207511e-02f, 9.509964e-02f, -4.329875e-02f, 1.752626e-01f, 8.303993e-03f, -7.366824e-02f, 7.609723e-02f, -5.191657e-02f,
  2.948935e-02f, -6.287747e-03f, 3.111451e-02f, 2.571388e-03f, 9.874793e-02f, 2.686421e-03f, 8.251221e-02f, 9.960035e-02f,
  9.793826e-02f, 6.992134e-02f, -9.137392e-02f, -3.660263e-02f, -2.825256e-02f, 2.602544e-02f, 5.324834e-02f, 4.787725e-02f,
  1.188951e-01f, -5.977897e-03f, 1.069773e-02f, 5.370116e-02f, -2.126061e-02f, 3.271959e-02f, 3.199115e-02f, 1.436042e-02f,
  -8.469331e-02f, -6.343913e-04f, 9.733365e-02f, -3.388189e-02f, -4.188586e-02f, 3.992455e-02f, 4.263708e-02f, -4.149848e-02f,
  9.670588e-02f, -6.510565e-02f, -4.493702e-02f, 5.640484e-02f, 7.812286e-02f, 9.246094e-04f, -2.763661e-02f, 3.663696e-02f,
  1.094558e-01f, -5.599894e-02f, 6.626248e-02f, -5.060447e-02f, -7.118373e-02f, 2.792591e-03f, 2.562681e-02f, 5.099024e-02f,
  1.566696e-02f, 1.281708e-01f, -1.226037e-01f, -7.291969e-03f, 4.880429e-02f, -3.466505e-02f, 4.593873e-02f, 2.770904e-02f,
  7.638618e-02f, 3.499432e-02f, 1.951427e-03f, -2.146255e-03f, 7.925455e-02f, 9.011819e-02f, 8.005799e-02f, 8.871578e-02f,
  -3.428218e-02f, 6.472554e-02f, 7.336989e-02f, 1.765285e-01f, 7.655983e-02f, -9.116490e-03f, 1.822906e-02f, -7.711406e-02f,
  1.605049e-02f, 1.400648e-02f, 6.739526e-03f, 3.594377e-02f, 7.191999e-02f, -3.333563e-03f, -5.088384e-02f, -3.527841e-03f,
  2.662453e-02f, 4.347877e-02f, -2.560740e-02f, -5.617264e-02f, -1.720848e-02f, 1.023693e-01f, -2.117795e-03f, 5.778566e-02f,
  9.045600e-02f, -6.311639e-02f, -7.462530e-02f, -5.117095e-02f, 3.585744e-02f, 1.375237e-01f, 9.499647e-02f, 3.689833e-02f,
  1.417526e-02f, 1.138297e-01f, 3.570895e-02f, 4.251609e-02f, -1.061473e-01f, 6.055486e-02f, 3.235538e-02f, 2.120461e-02f,
  -5.000101e-02f, 5.801829e-02f, 2.171143e-02f, 5.519625e-02f, 5.597611e-02f, 1.152747e-01f, 4.040949e-02f, 1.023165e-01f,
  4.098069e-02f, 2.553754e-02f, 1.146088e-01f, 1.065865e-01f, 1.053287e-01f, 7.508631e-02f, 5.524221e-02f, -3.486461e-02f,
  -8.797462e-02f, -2.324232e-02f, -2.608593e-02f, -8.106834e-02f, -1.140030e-01f, 2.382194e-02f, -8.507434e-02f, 1.431506e-02f,
  2.167906e-02f, -1.012520e-01f, 2.732651e-02f, -5.938150e-03f, 6.600934e-02f, 5.198730e-02f, -2.964935e-03f, -6.497948e-02f,
  8.588333e-02f, 5.960672e-02f, 1.194501e-01f, 1.579245e-01f, 1.753273e-02f, 9.404588e-02f, -4.425325e-02f, -9.769575e-02f,
  1.069387e-02f, -7.011699e-02f, -1.361415e-01f, -3.762996e-03f, 1.828213e-01f, -6.268271e-02f, -2.920083e-02f, 6.120780e-02f,
  -1.041086e-02f, -5.799711e-02f, 5.511122e-02f, 2.423741e-02f, 2.475275e-02f, 1.530061e-01f, 4.198658e-02f, -1.736668e-02f,
  6.020439e-02f, -3.729018e-02f, 1.204193e-01f, -3.523823e-03f, -6.069434e-02f, -2.427782e-02f, -3.641093e-02f, 5.827716e-02f,
  -2.654326e-02f, -5.511465e-02f, 1.432082e-02f, -6.676301e-02f, 4.025034e-02f, 5.870877e-02f, -3.742379e-02f, -2.704561e-02f,
  6.662425e-02f, -7.593150e-02f, -2.928925e-02f, 1.021741e-01f, 1.634100e-02f, -3.112504e-02f, 9.284196e-02f, -4.091049e-03f,
  3.644683e-02f, -7.962746e-02f, 5.481175e-02f, -2.577403e-02f, 4.825716e-02f, 5.734133e-02f, -3.308513e-02f, -3.426019e-02f,
  1.260829e-01f, 1.428352e-01f, -1.448566e-01f, -7.970416e-02f, -4.605613e-03f, -6.570376e-02f, -9.687294e-02f, 4.136253e-02f,
  1.129486e-01f, 3.521801e-02f, 1.325520e-01f, 4.845970e-02f, -5.564791e-02f, 4.507640e-02f, 5.958354e-03f, -9.540000e-02f,
  1.015195e-01f, -1.675898e-03f, -1.528870e-03f, 3.703468e-02f, -5.693699e-02f, -6.116101e-02f, 6.577000e-03f, 6.558942e-02f,
  -4.399341e-02f, -9.162860e-02f, -4.920418e-02f, 9.908392e-02f, -1.399582e-02f, -6.854714e-02f, -5.297960e-02f, -6.274177e-02f,
  2.460326e-02f, -3.149295e-02f, -2.549606e-02f, 9.109636e-02f, -4.760096e-02f, -5.298293e-02f, 3.551253e-02f, -8.484538e-02f,
