#pragma once

// kind=conv2d_transpose, layout=OIHW
// layer=dec3_up16
// dims: Kh=3, Kw=3, Cin=32, Cout=16
// Keras: (Kh,Kw,Cout,Cin) -> Noodle: (Cout,Cin,Kh,Kw)
// spatial_flip=false
static const float w09[] = {
  -8.918962e-02f, -8.377848e-02f, 1.402545e-02f, 1.905241e-01f, 1.845815e-02f, 8.270434e-03f, 1.246931e-01f, 4.476323e-02f,
  9.393354e-02f, -2.118906e-02f, -2.160110e-03f, -1.075599e-01f, 5.579406e-02f, -6.195263e-02f, 1.327903e-01f, -9.670030e-02f,
  -1.213749e-01f, -1.152161e-01f, 1.043244e-01f, 1.168279e-01f, 8.435727e-02f, 1.649744e-01f, 1.453070e-01f, -7.367623e-02f,
  1.659950e-01f, 3.770081e-02f, 7.251491e-02f, -3.477068e-02f, 6.232732e-02f, -8.703034e-02f, -5.028795e-02f, 9.086813e-02f,
  1.111214e-01f, 1.470875e-01f, 8.777845e-02f, 1.843098e-01f, 2.196915e-02f, 1.065247e-01f, 1.047629e-01f, -4.296456e-02f,
  1.199740e-01f, 2.053499e-02f, 4.802579e-02f, -4.089351e-02f, -9.343823e-02f, 3.956988e-02f, 9.258446e-02f, 7.366432e-02f,
  1.165367e-01f, -7.685017e-03f, 1.465393e-01f, -1.905287e-01f, 9.141900e-02f, -2.795928e-02f, -1.459159e-02f, 4.431116e-02f,
  -4.126035e-02f, -4.958950e-02f, -7.405462e-02f, -1.264512e-01f, 1.824430e-02f, -3.530513e-02f, 3.705085e-02f, 8.147185e-02f,
  -2.338926e-02f, -1.151928e-01f, 3.080568e-02f, 1.762744e-01f, 1.570382e-01f, 1.330568e-01f, 1.106279e-01f, -1.412940e-01f,
  1.356188e-01f, 1.091493e-01f, 1.169114e-01f, 3.274573e-02f, 5.308829e-02f, -2.432358e-02f, 6.834246e-02f, -6.228191e-02f,
  1.089664e-02f, -2.812633e-02f, -9.324970e-02f, 1.181118e-01f, -1.961046e-03f, 1.141308e-01f, -6.886483e-02f, 9.744871e-02f,
  5.015060e-02f, -1.293524e-01f, -3.576801e-02f, 1.969592e-02f, -9.412598e-02f, -1.127149e-01f, -1.431413e-02f, -8.089039e-02f,
  1.124038e-01f, 5.094321e-02f, -1.475798e-02f, -4.680101e-02f, -8.141976e-03f, 1.591530e-01f, 7.633409e-02f, 7.558750e-02f,
  -1.129217e-01f, -7.641613e-04f, -7.786426e-03f, 3.099958e-02f, 2.159236e-01f, -5.833456e-02f, -9.567267e-02f, 6.555369e-02f,
  1.670022e-01f, 7.616730e-02f, -9.031066e-02f, -7.715713e-03f, -7.954981e-02f, 1.427441e-01f, 1.604663e-01f, 1.729013e-01f,
  8.533207e-02f, 1.600266e-01f, -3.538057e-02f, -2.580268e-02f, 9.013193e-02f, 3.007885e-02f, -1.995050e-01f, -9.519066e-02f,
  -1.883281e-01f, -4.391759e-02f, 1.805514e-02f, -2.884361e-02f, 1.244894e-02f, 4.746852e-02f, -1.532955e-01f, 1.150852e-01f,
  -5.623608e-02f, -1.096703e-01f, 8.886667e-02f, -6.749752e-02f, 1.401312e-02f, 3.883405e-02f, 6.265565e-02f, -3.263408e-02f,
  -7.289775e-02f, -5.759967e-02f, -3.268577e-02f, 9.834605e-02f, -9.704240e-02f, -4.461199e-02f, -2.956051e-02f, 7.509256e-02f,
  -9.645238e-02f, 1.573740e-03f, 6.988058e-02f, -1.519339e-01f, 7.554644e-02f, 8.012389e-02f, 2.337961e-02f, 4.975038e-02f,
  -2.298770e-02f, -1.158849e-01f, -1.056227e-02f, 4.909655e-02f, -2.357845e-02f, 1.015178e-01f, 7.225662e-02f, -3.512580e-01f,
  -2.398566e-01f, 1.285260e-02f, -2.142884e-01f, -4.054386e-02f, -4.516684e-02f, -8.385614e-02f, -6.427274e-03f, 1.457584e-01f,
  -3.434376e-02f, -4.765970e-02f, 4.150884e-02f, -6.489978e-02f, 3.429140e-02f, 1.472994e-01f, 1.556631e-01f, 2.677558e-02f,
  -3.236469e-02f, 2.661916e-02f, -1.308695e-01f, -1.354528e-02f, 1.460029e-02f, -4.133935e-02f, -5.030039e-02f, -2.583842e-02f,
  6.160919e-02f, 7.092020e-02f, 1.106648e-02f, -1.248984e-01f, 4.541729e-02f, -1.743086e-02f, -7.208019e-02f, -4.127591e-02f,
  -1.695370e-01f, 3.768253e-02f, -8.554929e-02f, -7.124875e-02f, -7.900030e-02f, -1.200279e-01f, 3.440774e-02f, 2.022259e-02f,
  -1.409852e-02f, -1.155078e-01f, 1.571511e-01f, 2.618198e-02f, 1.293670e-01f, 1.521402e-01f, -4.500425e-03f, 1.335401e-01f,
  2.113736e-01f, 1.252516e-01f, 1.735711e-01f, 3.560371e-02f, -2.999559e-02f, 9.340160e-02f, -3.765325e-02f, -3.434955e-02f,
  1.005468e-01f, 1.689850e-01f, 1.508178e-01f, 4.283771e-02f, 6.430519e-02f, -1.776756e-02f, -5.516682e-02f, 1.529456e-01f,
  1.097758e-01f, 3.686082e-02f, 2.620041e-02f, -3.911438e-02f, 6.370939e-02f, -2.362115e-02f, 3.613779e-02f, 1.118686e-01f,
  -9.718391e-02f, -2.560660e-02f, -5.763181e-02f, 7.361889e-02f, 1.068751e-01f, -8.179375e-02f, -2.714141e-04f, 3.496675e-03f,
  -3.893020e-02f, -1.288284e-01f, -8.719211e-03f, -1.324870e-01f, 3.929850e-02f, -6.869256e-04f, -2.951057e-02f, 6.292871e-02f,
  -9.916209e-02f, 9.490209e-02f, -4.219648e-02f, 8.762874e-02f, -1.020497e-01f, -7.300801e-03f, -2.228021e-02f, 3.415684e-02f,
  -9.253795e-02f, -7.493133e-04f, 6.816055e-02f, 1.238116e-02f, 2.196627e-02f, -1.534410e-01f, 1.618331e-02f, 7.008288e-02f,
  -3.597410e-02f, -5.717136e-02f, -4.784502e-02f, -1.476625e-02f, 7.209966e-02f, 1.104851e-01f, 4.423346e-02f, -4.197850e-02f,
  8.876217e-02f, 9.354819e-02f, 3.407821e-02f, 7.055162e-03f, 6.813306e-02f, 2.732824e-02f, 3.759962e-04f, 2.507839e-02f,
  5.645774e-02f, 8.208256e-03f, -6.150352e-02f, 4.667113e-02f, 3.824614e-02f, 1.185682e-01f, 1.125640e-02f, 7.491413e-02f,
  1.518872e-02f, 5.278752e-02f, 2.994685e-02f, 4.638056e-02f, 8.152929e-02f, -1.218192e-02f, -4.920120e-02f, -1.255366e-02f,
  -1.389699e-02f, 1.028877e-01f, 1.091323e-01f, 5.667024e-02f, -9.594655e-04f, 1.626478e-01f, 5.953451e-02f, 1.133265e-01f,
  -3.495318e-02f, -1.488705e-01f, 5.505185e-02f, -4.973458e-02f, 2.244590e-02f, -6.553913e-02f, 5.635095e-02f, -3.186984e-02f,
  -6.070367e-02f, 5.728935e-02f, 3.280128e-02f, -6.951693e-02f, 9.915610e-02f, 8.671626e-02f, -1.418022e-01f, -6.899428e-03f,
  3.314297e-02f, -4.169552e-02f, -3.706317e-02f, 1.086753e-01f, 5.679081e-02f, 1.312578e-02f, -8.282895e-02f, -7.387640e-02f,
  6.354501e-02f, 1.282815e-01f, 3.409162e-02f, 2.009192e-02f, -9.141401e-02f, -5.224315e-02f, -3.669308e-02f, 7.109199e-02f,
  -1.014086e-01f, -1.354604e-01f, -8.983184e-02f, -1.741839e-01f, 7.856777e-02f, -3.053034e-02f, -9.604573e-02f, 7.165244e-02f,
  -7.896411e-02f, 2.934664e-02f, 4.231873e-02f, 1.532674e-01f, 5.199317e-02f, 8.746311e-02f, -1.826993e-02f, 4.211780e-02f,
  1.333517e-01f, 1.306144e-01f, 1.212562e-01f, -5.480910e-03f, -3.226063e-02f, 8.790712e-02f, -5.736973e-02f, -1.714376e-02f,
  8.727846e-02f, -2.051499e-03f, 9.214334e-02f, 3.761362e-02f, 9.330659e-02f, 1.598317e-01f, -2.361121e-02f, -4.846292e-02f,
  -7.499593e-02f, -1.792476e-02f, 3.917233e-04f, -8.368611e-02f, 8.886688e-02f, 2.743267e-02f, 1.121352e-01f, -1.898943e-02f,
  1.617431e-02f, -7.941400e-02f, -1.444392e-01f, 1.538868e-01f, 6.067029e-02f, -1.045173e-01f, 1.259018e-01f, 1.632835e-01f,
  5.311504e-02f, 2.004946e-02f, 7.473316e-03f, -4.876773e-02f, -2.757813e-02f, 1.906755e-01f, 8.942574e-02f, -3.583644e-02f,
  7.296503e-02f, 7.359952e-02f, -8.169942e-02f, 7.512149e-03f, -7.096442e-03f, 1.299142e-01f, -2.183674e-02f, 2.475198e-02f,
  3.516954e-02f, 2.065005e-02f, 6.666734e-03f, 1.223761e-02f, 2.908836e-02f, 1.566658e-01f, -1.118258e-01f, 6.242929e-02f,
  -1.410547e-01f, 2.159203e-02f, -3.928546e-02f, -3.611629e-02f, 1.166676e-01f, -2.540115e-02f, 3.866770e-02f, 1.365035e-01f,
  4.667942e-02f, -4.801684e-02f, 9.963421e-02f, -3.671918e-03f, 4.341879e-04f, -5.413477e-02f, 1.165713e-01f, -1.493108e-02f,
  -2.006263e-03f, 6.751398e-02f, -1.892574e-01f, 1.101638e-01f, 1.454614e-01f, -5.129850e-02f, 3.713965e-02f, 1.358932e-01f,
  1.599884e-02f, 1.834009e-02f, 1.292545e-02f, -1.185897e-01f, 3.564196e-02f, -5.265327e-02f, -7.136255e-03f, -5.632873e-02f,
  -1.410232e-02f, 8.204357e-02f, 1.876056e-01f, 7.358833e-02f, -3.540228e-02f, 6.906614e-02f, -5.135427e-02f, -1.216704e-01f,
  -2.087332e-02f, 5.079762e-03f, -3.876149e-01f, 1.114069e-01f, -6.762753e-02f, -1.027963e-01f, 1.317637e-02f, 1.563198e-01f,
  -9.402811e-02f, -1.294541e-02f, 6.495778e-02f, -1.765716e-02f, 2.192010e-01f, 9.467839e-02f, -1.470982e-01f, 1.280845e-01f,
  5.175138e-02f, -2.601050e-02f, 2.012052e-01f, -6.159194e-02f, -1.013397e-01f, -4.640213e-02f, -6.494790e-02f, -6.529973e-02f,
  1.200562e-01f, 1.020168e-01f, -2.207980e-02f, 4.878064e-02f, 8.015066e-02f, -6.283311e-02f, -1.236636e-01f, -3.740117e-02f,
  5.934380e-03f, -4.425084e-02f, -8.070783e-02f, -1.589662e-01f, -1.099271e-01f, -8.893503e-02f, -2.277624e-02f, -1.264579e-02f,
  -9.359651e-02f, -4.136076e-02f, -2.883684e-02f, 1.421507e-01f, -5.352819e-02f, -5.705100e-02f, 1.829972e-02f, 7.243682e-02f,
  6.617627e-02f, 2.258343e-01f, 5.809049e-02f, 1.837917e-02f, -2.105647e-02f, 3.183939e-03f, -8.270048e-03f, 8.618877e-02f,
  8.572554e-02f, 1.311576e-02f, 7.895613e-02f, 3.306018e-01f, 3.736251e-02f, 9.847125e-02f, 1.812393e-01f, -4.722936e-02f,
  7.201860e-02f, 1.193309e-03f, 1.194539e-01f, -4.866442e-02f, -1.985986e-01f, 1.189663e-01f, 9.413429e-02f, -1.887519e-02f,
  6.328274e-02f, -3.523325e-02f, -2.993476e-03f, 4.077610e-02f, 6.774756e-02f, 8.905629e-02f, -2.988732e-02f, 8.916719e-02f,
  -6.088894e-03f, 4.796794e-02f, 1.042493e-01f, -7.858738e-02f, 5.558719e-02f, 1.134360e-01f, -6.299302e-02f, 1.220573e-01f,
  -6.505974e-03f, -6.623401e-02f, -7.824063e-02f, 1.576923e-03f, 5.726560e-02f, -7.376295e-02f, 1.641310e-01f, -3.491653e-02f,
  -5.291164e-03f, -9.562885e-05f, 4.100570e-02f, -1.514373e-01f, -7.232372e-02f, 2.331890e-02f, -1.525955e-01f, -1.702031e-02f,
  -1.852779e-02f, 1.026744e-02f, 3.426600e-03f, 3.635036e-02f, -7.044473e-02f, -8.068262e-02f, 4.694926e-02f, 3.275416e-03f,
  -1.232755e-02f, -2.639670e-02f, -3.022844e-02f, 6.723418e-02f, 3.596152e-02f, -5.833511e-03f, -1.097577e-01f, -3.809875e-02f,
  4.008096e-02f, -1.061026e-02f, 3.331615e-02f, -9.705670e-02f, -1.855436e-02f, 2.617963e-02f, 5.922478e-02f, 1.188967e-01f,
  3.944932e-03f, -1.967019e-02f, -4.912139e-02f, 1.164755e-02f, -1.998750e-02f, 1.024755e-01f, -8.882491e-02f, -7.689976e-03f,
  5.427159e-02f, 4.013797e-02f, 1.107964e-02f, 3.062302e-02f, -9.228778e-03f, 4.887720e-02f, -8.233608e-04f, 9.144673e-02f,
  3.619406e-02f, 7.836916e-02f, -8.304799e-02f, 2.064500e-02f, 2.854293e-02f, -8.100019e-02f, 5.544760e-02f, -4.049268e-02f,
  -5.514784e-02f, 3.284863e-02f, -2.605382e-02f, -6.515849e-02f, 1.016008e-01f, -5.648128e-02f, 4.460619e-02f, 1.659857e-01f,
  5.029632e-02f, 1.970871e-03f, 2.924299e-02f, 8.079039e-02f, -9.979200e-02f, -1.022623e-01f, -1.536387e-01f, 5.927051e-02f,
  8.942267e-02f, -7.673380e-02f, 3.449738e-02f, 6.621861e-03f, 1.021251e-01f, 5.425477e-02f, 7.229615e-02f, -5.784637e-02f,
  5.736604e-02f, -1.057319e-01f, -1.305984e-01f, 6.531451e-02f, -1.039538e-02f, -2.843260e-02f, -1.040158e-01f, 3.385828e-02f,
  7.459508e-02f, 8.039855e-02f, 6.579186e-02f, 1.153599e-01f, -8.763729e-02f, 5.132172e-02f, 8.837563e-03f, 3.379263e-02f,
  -7.736677e-03f, -4.790697e-03f, 3.044003e-02f, 3.133879e-02f, 4.256912e-02f, -7.693145e-02f, -3.300854e-02f, 4.675605e-02f,
  -1.029556e-01f, -8.196086e-02f, 8.606511e-02f, 6.429207e-02f, 4.440434e-02f, 9.557855e-02f, 5.433592e-02f, -5.156088e-02f,
  2.562047e-02f, 4.544926e-02f, -5.136366e-02f, 2.360802e-02f, -1.149026e-01f, 3.746498e-02f, -2.479873e-04f, -2.890268e-02f,
  3.308128e-02f, 4.860848e-02f, -1.320634e-01f, 8.362447e-02f, 7.685823e-02f, 1.811973e-02f, -1.700384e-02f, -1.200675e-01f,
  -9.386569e-02f, 1.355707e-01f, -4.649490e-02f, -2.183798e-02f, -1.053007e-01f, 4.483403e-02f, 1.305954e-01f, 8.911292e-02f,
  -9.569098e-02f, -5.121218e-02f, 3.785156e-02f, -7.363952e-02f, -5.525513e-02f, 5.274536e-02f, -2.519354e-02f, -4.703085e-02f,
  -1.399764e-02f, -3.767937e-02f, 4.463081e-02f, -1.088091e-02f, -7.309173e-02f, -2.561313e-02f, -6.525500e-02f, 1.262066e-02f,
  -9.158777e-02f, -9.688067e-02f, -1.080124e-01f, -6.320417e-02f, 2.667909e-03f, -1.124362e-02f, -1.192545e-01f, -1.725420e-02f,
  2.254837e-02f, -1.429967e-02f, -2.342014e-02f, 4.303356e-02f, 6.053068e-02f, 9.698876e-03f, -5.524704e-03f, 8.344281e-02f,
  4.798628e-02f, 6.259169e-02f, -1.121710e-01f, 3.291957e-02f, -8.707276e-02f, 4.571088e-03f, 5.300556e-02f, 7.182335e-02f,
  -1.167786e-01f, 2.084496e-02f, 3.101111e-02f, 6.943703e-02f, 1.268263e-01f, -5.488509e-02f, 1.682811e-01f, -5.786614e-02f,
  -3.786080e-02f, 7.102886e-02f, -6.792293e-03f, -1.853627e-02f, 4.226154e-02f, -1.499139e-01f, -8.990891e-02f, -5.649332e-02f,
  7.349780e-02f, 5.136345e-02f, -6.134639e-02f, 1.102889e-01f, 8.220356e-02f, 4.323763e-02f, -3.651790e-02f, 7.287300e-02f,
  3.374950e-03f, 1.857924e-02f, 7.240219e-02f, -5.253677e-02f, 1.680217e-01f, -5.019172e-02f, 1.064872e-01f, -6.913593e-02f,
  -7.017580e-02f, -2.769321e-02f, 8.098214e-03f, -4.998769e-02f, 7.266041e-02f, -1.379914e-02f, -1.403921e-02f, 7.931938e-05f,
  -2.826228e-02f, 5.950534e-02f, -1.945785e-01f, 1.642049e-02f, 6.267143e-02f, -8.446497e-02f, -5.623028e-02f, -6.569748e-02f,
  -1.288236e-01f, -2.839039e-02f, 1.040775e-01f, -5.516195e-02f, -6.607716e-02f, 2.527675e-02f, -1.201190e-01f, 1.614711e-01f,
  -7.855869e-02f, 1.225499e-02f, 1.548077e-02f, 6.488102e-03f, 1.784441e-01f, -4.477157e-02f, 9.363969e-02f, -8.895107e-02f,
  1.116822e-01f, 9.475586e-02f, 9.117638e-02f, 2.295235e-02f, -4.071712e-02f, 3.992571e-02f, -3.584457e-02f, 1.327019e-01f,
  -2.378741e-03f, 2.507167e-01f, 2.013841e-01f, 2.232652e-01f, -4.370040e-02f, -9.912789e-02f, -1.182257e-01f, -8.628923e-04f,
  2.261272e-02f, 2.815373e-02f, 7.645014e-02f, -6.733683e-03f, -4.348896e-02f, 4.896138e-03f, 8.586647e-02f, -2.024204e-02f,
  -1.096175e-01f, 3.960996e-03f, 1.968539e-02f, -1.697076e-02f, -4.909809e-02f, 2.243733e-02f, 7.217985e-02f, 7.370302e-02f,
  3.918724e-02f, 2.243637e-02f, 3.844366e-02f, 2.554034e-02f, 9.627503e-02f, 6.929044e-03f, -3.939046e-02f, 6.330064e-02f,
  2.062754e-02f, -8.990975e-02f, 2.490998e-02f, 7.550066e-03f, -1.176128e-01f, -4.682511e-02f, 1.497046e-01f, -1.708361e-03f,
  5.395126e-02f, -9.653703e-03f, -6.365883e-03f, -9.178942e-02f, -2.736554e-02f, -5.031667e-02f, -5.385048e-02f, 1.708337e-02f,
  5.682443e-02f, 9.246433e-02f, 1.098981e-01f, -3.986573e-02f, 7.779216e-02f, 6.012463e-02f, 7.219251e-02f, -6.417716e-02f,
  9.241261e-02f, -1.860256e-02f, 1.367634e-01f, 6.485723e-02f, -1.486597e-01f, -5.255140e-03f, 5.376229e-02f, 5.727771e-02f,
  2.584304e-01f, -1.218520e-01f, -1.107235e-01f, 2.029850e-01f, 1.433895e-01f, 9.394719e-02f, -8.676597e-03f, -1.300851e-01f,
  2.584274e-02f, -3.594176e-02f, -6.036144e-02f, -6.672141e-02f, -6.631795e-02f, -5.844023e-02f, 4.471892e-03f, 5.200361e-02f,
  8.421510e-03f, -3.062288e-02f, -1.212384e-01f, -9.413854e-02f, -1.262740e-01f, 5.403567e-02f, 6.122443e-02f, 1.823399e-01f,
  -2.229347e-01f, -1.372258e-01f, -1.847204e-01f, 3.688229e-02f, -1.041131e-01f, -7.814454e-02f, 3.605232e-02f, 1.350120e-01f,
  -7.058101e-02f, 1.172908e-01f, 5.741250e-02f, 4.685856e-02f, 1.027585e-01f, -1.273603e-01f, -1.702370e-01f, 1.483064e-01f,
  7.417606e-03f, -2.860435e-02f, 6.436316e-02f, 8.350421e-02f, 3.414133e-03f, -8.554596e-02f, -6.896199e-02f, -3.646166e-02f,
  1.592353e-02f, -4.897670e-02f, -8.445075e-02f, 3.543197e-02f, -3.893239e-02f, 1.610241e-01f, 7.560310e-02f, -1.421633e-01f,
  1.258068e-01f, -3.850928e-02f, 3.695331e-02f, -1.078697e-01f, 1.580685e-01f, -1.702882e-02f, -1.048482e-01f, 4.829379e-02f,
  2.382565e-02f, -1.815533e-01f, -2.749732e-02f, 2.153717e-03f, 6.600092e-02f, -7.951909e-02f, 4.255724e-02f, 5.646053e-02f,
  1.199183e-01f, 2.456186e-02f, -1.177091e-01f, 1.303882e-01f, 1.054072e-01f, 7.379552e-02f, -1.629432e-01f, -1.173145e-01f,
  -2.645756e-01f, 8.313615e-02f, -1.250408e-01f, 7.982393e-02f, 4.135022e-02f, 1.138474e-01f, 5.995344e-02f, 2.414924e-02f,
  -3.471968e-02f, -1.442055e-02f, -3.138733e-02f, 6.236488e-02f, -1.298145e-01f, -7.268871e-02f, 1.029664e-01f, -9.844478e-02f,
  2.533360e-01f, -1.193150e-02f, 9.665091e-02f, 1.946553e-01f, -9.135728e-02f, 4.586414e-02f, 1.382236e-01f, 3.400959e-02f,
  4.521189e-02f, -8.756131e-02f, -4.183440e-02f, -5.113856e-02f, 3.322665e-02f, -1.449327e-01f, 4.396046e-02f, 5.383617e-02f,
  7.313813e-02f, 1.134505e-01f, -5.711920e-01f, -7.196847e-02f, 6.591284e-03f, 1.166046e-01f, 6.356695e-02f, -8.242267e-02f,
  1.107335e-01f, 3.675835e-02f, 1.251699e-01f, -5.363753e-01f, -2.973372e-02f, 2.339580e-02f, 3.206924e-03f, 7.291207e-03f,
  2.604290e-02f, 8.759613e-02f, 1.596832e-02f, -4.034431e-02f, 1.258704e-01f, 4.438125e-02f, 1.411892e-01f, 1.889923e-02f,
  5.292659e-02f, 1.507929e-02f, -3.160970e-02f, 5.794087e-02f, 4.242039e-03f, 8.584648e-02f, -2.182983e-02f, -9.263635e-02f,
  1.303782e-01f, -7.914286e-03f, -5.721865e-02f, -2.960435e-02f, -1.409999e-02f, 1.241003e-01f, 1.511450e-02f, -4.596179e-02f,
  1.534711e-02f, 1.274788e-01f, 1.503480e-03f, -1.247183e-01f, 7.917482e-02f, 8.784262e-02f, 3.038759e-02f, -1.544122e-01f,
  -1.276205e-01f, -1.053138e-01f, 4.418250e-02f, -5.912878e-02f, -4.625510e-02f, -2.529048e-02f, -9.950238e-02f, -2.691777e-01f,
  -9.227204e-02f, 6.833438e-02f, -5.123998e-01f, 1.800313e-02f, -1.347871e-01f, -8.082414e-02f, 1.497334e-01f, 1.765411e-02f,
  -9.111409e-02f, 5.873363e-02f, -1.419607e-01f, -1.053985e-02f, 2.216337e-01f, -3.030846e-02f, 5.580530e-02f, 1.281185e-01f,
  -4.642157e-02f, -1.648216e-02f, -1.722029e-01f, -8.992426e-02f, -9.054568e-02f, -2.040436e-02f, -3.224980e-02f, -8.203189e-02f,
  -2.267194e-02f, 1.700723e-02f, -9.305689e-02f, -9.998455e-02f, -2.961905e-02f, 1.150566e-01f, -1.966579e-01f, 6.710774e-02f,
  -1.514313e-01f, -7.938651e-02f, -2.412251e-02f, -1.167883e-02f, 1.384756e-02f, -1.501020e-01f, 8.491622e-02f, 8.815382e-02f,
  -6.438580e-02f, -1.887588e-01f, 6.225413e-02f, 4.696439e-02f, -1.278706e-01f, 2.291830e-02f, 2.016861e-03f, 4.110473e-02f,
  2.116254e-01f, -1.801628e-02f, -6.912129e-02f, 1.889878e-01f, 6.987815e-02f, 1.013911e-01f, -5.793176e-02f, -6.444059e-02f,
  -1.613570e-01f, -2.896226e-02f, -2.527343e-02f, -1.820519e-01f, 1.485213e-01f, 2.030362e-01f, 2.192699e-01f, -1.586827e-01f,
  3.031298e-03f, -1.958492e-01f, 9.325974e-02f, -2.075718e-03f, -2.019942e-01f, 1.608665e-01f, 8.988042e-02f, 3.853807e-02f,
  -2.277795e-01f, 6.194175e-02f, -1.661955e-01f, 1.488834e-02f, -5.075959e-02f, -4.943915e-02f, -6.939713e-03f, -3.057826e-02f,
  -4.380325e-02f, -6.543131e-02f, 2.484209e-02f, 4.966059e-03f, -1.136941e-01f, -3.245035e-02f, -3.139191e-02f, 4.846801e-04f,
  7.699940e-02f, 1.174922e-02f, 1.378649e-01f, -6.117656e-02f, 6.469106e-02f, 2.509177e-01f, -8.903437e-02f, -4.079096e-02f,
  9.718525e-02f, 5.789946e-02f, -7.403985e-02f, -4.656325e-01f, -1.297362e-01f, -4.583887e-02f, -5.984982e-02f, 4.513046e-02f,
  -1.529442e-01f, 1.152693e-01f, 5.312835e-02f, 6.897172e-02f, 1.150044e-01f, 2.264779e-02f, 1.879673e-01f, 1.724058e-01f,
  -1.164301e-01f, 9.157046e-02f, 4.927199e-02f, 4.229408e-03f, -3.776123e-02f, -3.335720e-02f, -1.237114e-01f, -8.382502e-02f,
  -3.584827e-02f, -5.993858e-03f, 8.129877e-02f, 1.571316e-01f, 6.213672e-03f, -1.502452e-01f, -5.469682e-02f, 5.649642e-02f,
  -8.001993e-02f, -2.799336e-02f, 1.302111e-01f, 4.317980e-02f, -6.192540e-03f, 1.593799e-01f, 4.007141e-02f, -5.101773e-02f,
  -4.342635e-02f, 6.603671e-03f, -4.190592e-02f, 3.423185e-02f, 1.289868e-01f, -7.651062e-02f, 1.812739e-01f, -6.071086e-03f,
  2.037722e-01f, 9.133836e-02f, 7.277267e-02f, 1.852343e-02f, 2.035037e-01f, 9.674425e-02f, -5.823430e-02f, 8.889303e-02f,
  1.173354e-01f, 9.713818e-02f, 1.306650e-02f, -6.045974e-02f, 8.464406e-02f, -5.138207e-02f, 6.068118e-02f, 8.458407e-02f,
  -7.019842e-02f, -1.289045e-02f, 3.489898e-03f, -1.167836e-02f, 5.659841e-02f, -6.631591e-02f, -2.690710e-02f, -3.998664e-02f,
  1.420933e-01f, 1.186169e-01f, -5.366190e-04f, 7.942492e-02f, 2.936917e-02f, 9.130491e-02f, -3.461070e-02f, -8.442091e-02f,
  -2.849520e-02f, -9.400091e-02f, -1.035328e-02f, 3.618063e-02f, 3.921694e-03f, 4.727812e-02f, -7.771761e-02f, 7.906223e-02f,
  7.624203e-02f, 1.222149e-01f, 3.128872e-02f, 1.491282e-01f, 1.382050e-01f, 8.124409e-02f, 1.920201e-01f, -9.058317e-02f,
  3.140576e-02f, 4.632735e-02f, 6.809973e-02f, 2.414351e-02f, 1.016867e-03f, 4.995311e-02f, -7.937092e-02f, -8.400469e-03f,
  4.160756e-02f, 2.790204e-02f, 5.259092e-02f, -3.107739e-02f, 2.306578e-02f, -8.318757e-02f, 8.383477e-02f, -1.538744e-02f,
  -3.890528e-02f, -1.057473e-01f, 1.959599e-03f, -4.024308e-02f, 1.357094e-02f, 1.552604e-02f, 4.341719e-02f, 8.444051e-02f,
  7.160518e-02f, 5.056720e-02f, -4.201536e-02f, 4.806757e-02f, -4.018007e-03f, -4.373475e-02f, 2.263634e-02f, 3.800884e-02f,
  -8.062514e-03f, 1.526281e-02f, 1.926478e-02f, 3.618228e-02f, 1.019920e-01f, 2.556302e-01f, 1.390088e-01f, -1.436454e-01f,
  2.170144e-01f, 5.618354e-03f, 5.604669e-03f, 7.665260e-03f, -9.229054e-02f, 3.565869e-02f, 1.056613e-01f, -4.509801e-03f,
  4.048031e-02f, 7.767443e-02f, 9.066381e-03f, 2.847261e-03f, -1.072140e-01f, -1.014887e-02f, -1.001026e-01f, -5.310518e-02f,
  -9.407657e-02f, -1.141015e-01f, -1.292765e-01f, -9.779719e-02f, 4.103258e-02f, -3.326445e-03f, -1.135454e-01f, 1.131926e-01f,
  8.992106e-02f, 7.303325e-03f, 1.088866e-01f, 2.160630e-02f, 4.967778e-02f, 6.152151e-02f, -7.417892e-02f, 5.989595e-02f,
  7.433588e-03f, -5.150590e-02f, -1.030672e-01f, -3.360871e-02f, 2.830939e-02f, 8.165812e-02f, 1.134752e-01f, 1.099562e-01f,
  -7.338986e-02f, -2.225585e-02f, -1.197828e-01f, -4.485912e-02f, 1.100049e-01f, -2.044388e-02f, 1.129283e-01f, -2.322723e-03f,
  7.102085e-02f, 8.058667e-02f, 7.003573e-02f, 8.366339e-02f, -3.598072e-02f, 1.178927e-01f, 6.155149e-03f, -6.475149e-02f,
  2.689231e-01f, -1.636274e-01f, -6.684560e-02f, -4.445935e-02f, -3.377461e-03f, -9.871237e-02f, 1.276968e-01f, 1.204109e-01f,
  5.255670e-02f, 1.113730e-01f, 1.114462e-01f, 1.132967e-01f, 1.531836e-01f, -5.659822e-03f, -5.004662e-02f, 1.748809e-01f,
  7.699353e-02f, -6.639303e-02f, 5.078591e-02f, -1.905004e-02f, 1.083327e-01f, -1.995031e-02f, 3.966248e-02f, -7.262967e-03f,
  5.895876e-02f, 5.405004e-02f, 6.728743e-02f, 4.477536e-02f, 1.190080e-02f, -7.504102e-02f, -1.308687e-02f, -3.533560e-02f,
  1.364933e-02f, -3.953050e-02f, -1.199884e-01f, -1.165670e-01f, -4.067492e-02f, -5.731803e-02f, 7.127709e-02f, -1.238579e-01f,
  1.462056e-02f, -4.525251e-03f, 6.448244e-02f, 1.049422e-01f, -3.522216e-02f, 1.201870e-01f, -1.326390e-02f, 7.540120e-02f,
  1.323796e-01f, 5.669469e-02f, -1.983259e-01f, -1.249067e-02f, 1.930836e-01f, 1.293420e-01f, 9.713125e-02f, 1.305866e-01f,
  3.088837e-02f, 1.036473e-01f, 2.014260e-02f, 2.760654e-02f, 9.148635e-02f, 2.527649e-01f, 9.317831e-02f, 3.215750e-02f,
  -2.120005e-03f, 9.517371e-02f, 1.041589e-01f, 1.559679e-01f, 7.269727e-02f, -9.601039e-03f, -2.688996e-03f, 7.238057e-02f,
  -5.972515e-02f, -9.991135e-02f, 7.471883e-03f, -3.428638e-02f, 3.487294e-02f, -7.325416e-02f, 5.050087e-02f, -1.713732e-02f,
  1.510703e-01f, -7.457511e-02f, 1.784848e-02f, -9.506138e-02f, 5.859734e-03f, -5.042040e-02f, -1.440270e-03f, 3.221896e-02f,
  -1.238294e-01f, -7.095478e-02f, -6.150518e-02f, -7.365501e-02f, -5.250404e-02f, 8.486148e-02f, 2.099843e-01f, 3.557394e-02f,
  -8.537199e-02f, 8.885095e-02f, 1.741283e-01f, -8.897130e-03f, 2.284781e-03f, 6.017704e-02f, -1.257489e-01f, 2.255157e-02f,
  -1.019058e-02f, -8.377811e-02f, 1.874833e-01f, 2.060252e-02f, 1.415902e-01f, 6.728874e-02f, 6.079267e-02f, -3.455554e-02f,
  -5.729834e-02f, -2.019456e-02f, -1.875726e-02f, 7.963080e-02f, 8.646260e-03f, 7.069458e-02f, 2.012345e-02f, 2.117334e-02f,
  4.453610e-04f, 2.923324e-02f, -1.225833e-02f, 4.551898e-02f, -1.555011e-01f, -2.068280e-02f, 8.019309e-02f, -3.056320e-02f,
  -1.240413e-01f, 4.945066e-03f, -4.071661e-02f, -1.323425e-01f, -1.146541e-02f, -1.722182e-01f, -1.200062e-02f, 5.765803e-02f,
  1.622440e-02f, 8.600844e-02f, -5.854176e-02f, -5.259889e-02f, -7.665643e-02f, 2.147152e-01f, 3.854566e-02f, 1.320812e-01f,
  4.739480e-02f, 1.637822e-01f, 1.201664e-01f, -4.734061e-02f, -1.425706e-01f, 1.052064e-01f, -1.035521e-02f, -1.597337e-02f,
  1.169679e-03f, 8.557270e-02f, -7.358786e-02f, -4.483708e-02f, 4.354188e-02f, 1.223475e-02f, 1.071727e-01f, 3.669176e-02f,
  8.231910e-02f, 7.770277e-02f, 6.878867e-02f, 5.612687e-02f, -6.909503e-02f, 7.144935e-02f, -1.314615e-01f, 8.837382e-02f,
  1.065222e-01f, -1.445386e-01f, -1.303380e-01f, -2.103662e-02f, -7.024208e-02f, -7.183723e-02f, 1.031070e-02f, 9.366625e-02f,
  -5.031176e-02f, 8.600567e-02f, 9.935742e-02f, 5.568352e-02f, -8.292980e-02f, 1.430611e-01f, 8.636180e-02f, 3.815132e-02f,
  -2.202325e-01f, -1.208356e-01f, -3.060672e-02f, -2.380159e-01f, -2.131309e-01f, 9.057280e-03f, -4.938060e-02f, 1.174226e-01f,
  -9.706634e-02f, -1.003228e-01f, 2.537568e-02f, 8.375712e-03f, 6.731465e-02f, 8.444493e-02f, 1.735633e-02f, 8.557966e-02f,
  -9.278775e-02f, -2.397820e-02f, 8.348110e-02f, 7.513583e-02f, 1.036299e-01f, 1.366126e-01f, 1.253790e-01f, -1.393915e-01f,
  -5.306965e-02f, -9.268846e-02f, -9.760601e-02f, 6.396598e-02f, -5.589423e-02f, 1.277183e-01f, -1.087485e-01f, 2.632020e-02f,
  4.682504e-03f, -1.151586e-01f, 3.047022e-02f, -9.809277e-02f, -1.482461e-02f, 6.185411e-02f, 1.058283e-01f, -2.405357e-02f,
  9.822135e-02f, 5.022900e-02f, 4.184883e-03f, -1.834972e-02f, -2.432361e-02f, -8.660980e-02f, 5.845238e-02f, 4.178527e-02f,
  -2.485925e-02f, 1.257139e-02f, -3.051506e-02f, 3.291795e-02f, -9.421152e-02f, 1.152138e-02f, -2.027798e-03f, -1.285109e-01f,
  -1.879998e-01f, 1.720259e-01f, -2.611431e-02f, 5.172917e-03f, 9.046543e-02f, -4.746945e-02f, -7.428069e-02f, -4.668943e-02f,
  -4.512357e-02f, -1.328413e-01f, 1.822120e-02f, 4.855653e-02f, 1.088503e-01f, -1.059241e-01f, -7.687330e-02f, -5.812988e-02f,
  6.999373e-02f, -1.048101e-01f, -1.773977e-02f, -6.840236e-02f, -3.666940e-02f, 9.538047e-03f, 9.975594e-02f, -1.129282e-01f,
  7.867537e-02f, 8.084419e-02f, -5.472695e-02f, 3.328678e-02f, 5.954763e-02f, -3.840470e-02f, -9.314608e-02f, -4.998548e-02f,
  7.207457e-02f, -8.753229e-02f, 7.936499e-02f, -1.010555e-01f, 6.892837e-02f, 8.087148e-03f, -1.516213e-02f, 3.222643e-02f,
  1.508142e-02f, -1.168408e-01f, 3.673404e-02f, 5.080162e-02f, -4.755652e-02f, 1.038430e-01f, 2.566381e-01f, 1.852249e-01f,
  -1.166756e-01f, 1.471424e-01f, 5.238630e-02f, 2.339873e-02f, -8.736542e-02f, -1.268494e-02f, 1.723293e-02f, -7.896739e-02f,
  -2.814840e-02f, 6.851061e-02f, 6.557722e-02f, 1.195191e-01f, 1.472054e-02f, 5.875782e-02f, -1.732193e-02f, 4.510109e-02f,
  1.878575e-01f, 6.345406e-03f, 9.910266e-02f, -4.518856e-02f, -1.007703e-01f, -3.409043e-02f, -5.487007e-02f, -1.252627e-01f,
  7.395487e-02f, 1.320886e-01f, -4.499853e-02f, -3.377652e-03f, 1.311473e-01f, -3.633140e-02f, -2.377289e-02f, -9.510101e-02f,
  -1.887935e-02f, 2.097782e-02f, -5.576180e-02f, -5.891107e-02f, -7.340853e-03f, 1.612535e-02f, -1.305645e-01f, 6.094969e-02f,
  1.431725e-01f, -9.647897e-02f, -3.496095e-01f, -1.160144e-01f, -8.980311e-02f, -5.911909e-02f, -2.194464e-02f, -4.879061e-02f,
  8.192012e-02f, 2.429306e-02f, -8.345786e-02f, -8.449506e-02f, -1.772817e-01f, 5.588491e-02f, -1.189813e-01f, 6.407690e-02f,
  -6.999446e-02f, 4.233488e-02f, -2.109328e-02f, 3.872417e-02f, -8.312836e-02f, -5.852676e-02f, 1.266123e-02f, -7.632840e-02f,
  1.203824e-01f, 9.422643e-02f, -1.147677e-01f, 5.692127e-02f, -8.367858e-02f, 3.162105e-02f, 2.667015e-02f, 5.073844e-02f,
  2.199974e-02f, 7.360693e-02f, -4.429565e-02f, -3.009284e-02f, 3.672456e-02f, 4.485177e-03f, 5.539066e-02f, 8.663204e-02f,
  -2.445770e-02f, -2.049838e-02f, -6.424201e-02f, 4.192068e-02f, -9.798536e-02f, 1.939600e-02f, -1.283230e-01f, 3.389030e-02f,
  7.005820e-02f, 4.755485e-02f, -1.858920e-02f, -8.356828e-02f, -3.204897e-02f, 3.363970e-02f, -4.444733e-02f, -3.837566e-02f,
  -5.286684e-02f, 4.369396e-02f, 6.139611e-02f, -7.286641e-02f, 7.085960e-02f, 2.742206e-02f, -8.490805e-02f, -1.307411e-01f,
  3.807255e-02f, -1.473617e-01f, -1.353323e-01f, -8.172708e-02f, 6.795875e-02f, 5.589261e-02f, -1.122978e-01f, -1.351109e-01f,
  6.755067e-02f, -1.004643e-01f, 9.341092e-02f, 4.230065e-02f, 6.771126e-02f, -2.880322e-02f, 5.925480e-02f, 1.396244e-02f,
  2.417839e-01f, 4.268041e-02f, -9.904501e-02f, -4.187081e-02f, -3.570905e-02f, 4.500935e-02f, 2.333100e-01f, 1.536902e-01f,
  -3.265232e-01f, 1.206768e-01f, -9.464366e-03f, 5.984543e-02f, -1.327109e-01f, -4.290345e-02f, -6.332728e-02f, 3.411445e-03f,
  1.551419e-01f, -4.000028e-02f, 7.373648e-02f, -7.428134e-02f, 2.236490e-04f, 6.158061e-03f, -1.114944e-02f, 8.707673e-02f,
  -8.362404e-02f, -9.893488e-03f, -5.515134e-02f, -2.596011e-02f, -6.077160e-02f, -5.915685e-02f, -1.131085e-02f, 2.468996e-02f,
  4.068807e-02f, 2.920166e-02f, -7.253675e-02f, 1.074130e-01f, 1.230375e-01f, 1.047371e-02f, -1.850603e-02f, 2.449019e-02f,
  -5.151490e-02f, -2.859267e-02f, 1.193148e-01f, 1.032978e-01f, -4.818388e-02f, 4.713008e-02f, -1.050975e-01f, -1.154245e-01f,
  2.787421e-01f, -5.870299e-02f, 6.619727e-02f, -5.408210e-02f, 1.517362e-02f, -1.029782e-02f, -1.842331e-01f, 6.783162e-02f,
  -1.769017e-01f, -3.123405e-02f, 1.890346e-02f, 1.055724e-01f, 2.483116e-02f, 1.618624e-01f, -2.295779e-01f, 1.167086e-01f,
  7.037142e-02f, -7.665224e-02f, 1.559046e-02f, -1.236003e-02f, 9.058615e-04f, 4.715469e-02f, 1.075324e-01f, 5.483486e-02f,
  1.008153e-01f, -1.413029e-01f, 1.630721e-02f, -1.185773e-01f, -7.659870e-02f, 1.591685e-01f, 8.559030e-02f, 1.971778e-02f,
  -1.915667e-01f, 9.982999e-02f, -9.505637e-02f, -8.779839e-02f, -4.425719e-02f, 4.235913e-03f, 5.794412e-02f, 1.087961e-01f,
  6.966750e-02f, -2.046005e-01f, 4.957647e-02f, 1.360304e-01f, 9.670178e-02f, 1.926542e-02f, 5.047851e-02f, -1.650396e-02f,
  -1.006124e-01f, -4.403155e-02f, -9.590741e-02f, 5.993674e-02f, -2.165890e-02f, -2.313415e-01f, -6.329892e-02f, 2.759255e-02f,
  1.034851e-01f, 2.189058e-01f, -4.274938e-02f, -8.066899e-02f, -1.760394e-01f, -2.579223e-01f, -4.462051e-03f, -2.508719e-02f,
  -2.653689e-02f, 7.037689e-02f, -7.804455e-03f, 1.490016e-01f, -1.389886e-01f, 2.306059e-01f, -1.102119e-01f, -1.727815e-01f,
  -8.313373e-02f, -3.479437e-02f, 3.099467e-02f, 6.720673e-02f, 4.389114e-02f, -6.785417e-02f, 1.312982e-02f, 1.000336e-01f,
  -6.731278e-02f, -7.950285e-02f, 3.458753e-02f, 1.203083e-01f, 1.013824e-01f, 4.894745e-02f, -1.155083e-01f, -1.344159e-04f,
  3.906292e-02f, -7.966232e-02f, 6.246277e-02f, -3.305585e-02f, 4.989650e-03f, -6.013205e-02f, 1.182671e-01f, 2.329506e-02f,
  -6.805586e-02f, -9.782569e-02f, -1.052138e-01f, -2.418858e-03f, -6.214749e-02f, -8.089539e-02f, -7.082473e-02f, -7.513458e-02f,
  -1.142264e-01f, 3.660089e-02f, -3.434526e-02f, -8.658414e-02f, 7.422746e-02f, 8.321447e-02f, 8.268987e-02f, -3.875409e-02f,
  7.398557e-03f, -1.212336e-01f, 8.698884e-02f, -1.114940e-01f, 2.051920e-01f, -1.966456e-01f, -1.765540e-02f, 8.389885e-02f,
  1.859669e-01f, 7.705186e-02f, -9.939426e-02f, 1.020209e-01f, -8.913960e-02f, -2.784440e-02f, 1.148044e-01f, -5.246672e-02f,
  -3.448566e-02f, -8.847753e-02f, 1.584919e-01f, -1.218026e-01f, 2.220766e-01f, -4.237554e-02f, 9.754373e-03f, 1.832494e-01f,
  4.008943e-03f, 3.541432e-02f, 2.716275e-01f, -4.862815e-02f, -2.447882e-01f, -1.876702e-02f, -6.536868e-02f, 6.642287e-05f,
  -7.422969e-02f, -8.548064e-02f, -8.218201e-02f, 1.302087e-01f, 5.024210e-03f, -1.536786e-01f, 1.446338e-01f, -4.789853e-03f,
  -2.871536e-01f, 2.463627e-02f, -6.136172e-02f, -5.702746e-02f, -1.391582e-02f, -8.576351e-02f, -2.686336e-01f, 1.486483e-01f,
  -9.512373e-02f, -1.537847e-01f, -2.593522e-01f, -9.886589e-02f, -1.694477e-02f, 2.176899e-01f, -4.590841e-02f, 8.917185e-02f,
  7.030195e-02f, 1.027603e-01f, -1.900247e-01f, 9.155666e-02f, -4.535824e-02f, 2.318024e-01f, 4.108175e-02f, 7.951689e-02f,
  -6.185475e-02f, 1.378023e-01f, -9.280587e-02f, -1.777939e-01f, -2.018587e-02f, -6.866159e-02f, -2.626228e-02f, 2.269958e-02f,
  1.345529e-01f, 1.554625e-01f, 3.167982e-02f, -1.015135e-01f, 5.764340e-02f, -5.532266e-02f, 9.355695e-02f, 4.647403e-02f,
  5.060121e-02f, 1.343306e-01f, -1.570894e-01f, -5.555396e-02f, -1.193216e-01f, 7.938322e-02f, -3.363001e-02f, 8.147100e-02f,
  1.504280e-01f, 5.398786e-02f, 1.692457e-01f, -2.043814e-01f, -5.756206e-02f, -2.220612e-02f, -3.798462e-02f, -5.253167e-02f,
  -1.011087e-01f, -1.366810e-02f, 6.701729e-02f, -3.161942e-03f, -1.490638e-01f, 1.336985e-01f, 3.021345e-02f, -1.316470e-01f,
  4.644120e-04f, -7.853717e-02f, 1.572370e-01f, -7.068124e-02f, 5.829548e-02f, -1.783871e-02f, 1.878643e-02f, -3.294589e-02f,
  -1.287573e-01f, -9.241995e-02f, 6.426875e-02f, -7.172678e-02f, 1.284334e-01f, 8.444387e-03f, -8.038999e-02f, 1.240199e-01f,
  -3.617129e-02f, -2.533010e-01f, -1.339975e-01f, 2.678500e-02f, 8.774901e-03f, -8.799876e-02f, -4.162888e-02f, -2.923228e-02f,
  1.119981e-02f, -7.913473e-02f, -5.911497e-03f, 9.416159e-02f, 6.028470e-02f, 5.763188e-02f, 5.530537e-02f, 3.003729e-02f,
  -2.610187e-02f, 7.180281e-03f, -1.352709e-01f, -1.156287e-01f, 5.273386e-02f, 7.235453e-02f, -1.241161e-01f, 1.535839e-01f,
  -1.200344e-01f, -9.903782e-02f, 2.002597e-01f, -9.343242e-02f, -1.717664e-01f, 1.055989e-02f, -1.482865e-01f, 3.919731e-02f,
  -2.503600e-02f, -8.737086e-02f, -8.940812e-02f, 2.853865e-02f, 4.047317e-02f, -1.574257e-01f, 1.312761e-02f, -4.759077e-02f,
  -1.018994e-01f, 1.852317e-02f, 5.121935e-02f, -3.156937e-01f, 1.750202e-01f, -6.647264e-02f, 2.459656e-02f, 1.181497e-01f,
  7.993026e-02f, 5.825639e-02f, 1.061973e-01f, -1.468479e-01f, 5.735496e-02f, 4.261184e-02f, -8.010712e-02f, -2.638505e-01f,
  4.642605e-03f, -3.026617e-02f, 1.538493e-01f, -1.361471e-01f, -3.007234e-02f, -7.195087e-02f, 3.671107e-02f, -1.971232e-02f,
  -9.222416e-02f, 2.403840e-02f, -6.862876e-02f, 1.585971e-02f, -2.183108e-02f, 1.064675e-02f, 2.088490e-02f, -6.912597e-02f,
  7.945585e-02f, -1.246570e-01f, -2.511678e-02f, 1.401228e-01f, -1.092095e-01f, 4.668581e-02f, 9.139211e-02f, 2.978989e-03f,
  -1.152793e-01f, 1.905807e-02f, -2.418896e-01f, 1.478942e-03f, 9.395150e-02f, -5.874306e-02f, 4.510425e-02f, 9.305333e-02f,
  9.711047e-03f, 1.672692e-01f, -2.254161e-02f, 5.188030e-02f, 7.951523e-02f, -1.862588e-02f, -5.772737e-02f, 4.556552e-02f,
  1.214204e-02f, 6.367666e-02f, 6.259904e-02f, -7.139894e-03f, 2.534448e-03f, -1.183077e-01f, 1.111194e-01f, 4.120573e-03f,
  1.090835e-01f, -8.187345e-02f, -1.419310e-02f, 1.188024e-02f, -1.030033e-01f, -1.586592e-01f, 1.532430e-01f, -3.958447e-02f,
  -2.670004e-02f, 4.063484e-02f, 2.472571e-03f, -4.572731e-02f, -1.720479e-02f, 2.982978e-02f, 8.334584e-02f, -4.510108e-02f,
  5.423121e-02f, -1.631391e-01f, 3.869603e-02f, 9.126987e-02f, -3.800736e-02f, -3.920812e-02f, -6.028947e-02f, -1.924049e-01f,
  -8.070226e-02f, 1.694305e-01f, -5.943919e-03f, 4.334142e-02f, -7.349054e-02f, -6.125082e-02f, 3.821952e-02f, 4.078336e-02f,
  -1.286355e-01f, -5.189939e-02f, -9.609927e-02f, -2.160922e-01f, -2.645544e-02f, -1.521642e-01f, -7.877503e-02f, 8.921327e-02f,
  -3.072665e-02f, -8.651591e-02f, -1.324610e-01f, 6.038949e-02f, 6.835858e-02f, 7.393209e-02f, -1.030430e-01f, -2.302587e-02f,
  1.192755e-01f, 1.427879e-03f, -1.480568e-01f, 5.031363e-02f, 5.184568e-02f, 5.643810e-02f, 3.443336e-02f, 6.976635e-02f,
  3.186354e-02f, 8.311276e-02f, 4.151189e-02f, -1.401631e-01f, 1.119101e-01f, 1.568600e-01f, -1.966577e-02f, 1.884691e-01f,
  -6.059037e-02f, 8.165468e-02f, -9.818678e-03f, -1.121483e-01f, -1.539731e-01f, -9.860954e-02f, -2.233545e-01f, 2.670243e-02f,
  2.946382e-01f, -1.221090e-01f, -4.202603e-02f, -7.388410e-02f, -5.641253e-02f, -5.477833e-02f, 1.275810e-01f, -1.133000e-02f,
  1.971180e-02f, 2.049485e-01f, 2.812489e-02f, 5.842204e-02f, 8.155657e-02f, -1.148479e-01f, -5.469116e-03f, -7.542782e-02f,
  -1.132161e-01f, -5.280939e-02f, -5.743530e-02f, -2.732501e-02f, 2.254571e-02f, -8.120343e-02f, -1.169824e-01f, -1.618125e-01f,
  -4.919979e-03f, -1.264984e-01f, 1.329027e-03f, -9.991220e-02f, 7.409304e-02f, -1.400187e-01f, -5.323156e-02f, 1.927236e-02f,
  7.472547e-03f, -2.735519e-02f, 2.396790e-02f, 3.093704e-02f, -5.311532e-02f, -1.374025e-01f, -6.340306e-02f, 1.483027e-01f,
  -3.056724e-02f, -2.171681e-02f, 1.033992e-01f, -4.495575e-02f, -4.147842e-02f, 2.514605e-01f, 7.777195e-02f, 4.051220e-01f,
  -3.829057e-02f, -3.747843e-02f, -1.729786e-03f, -7.221060e-02f, 1.084795e-01f, -3.784564e-02f, 8.786843e-02f, -9.642532e-02f,
  7.376232e-03f, -1.262456e-01f, 1.073499e-03f, 1.512978e-01f, 5.404476e-02f, 9.497144e-03f, -6.469968e-03f, 8.045935e-02f,
  -4.356238e-02f, -8.222778e-02f, 4.613408e-02f, 8.637571e-02f, -4.153899e-02f, 9.478408e-03f, 3.426587e-03f, 7.031695e-02f,
  -1.242737e-01f, 3.105524e-02f, -1.163653e-01f, 6.627265e-03f, 8.959448e-02f, -1.024341e-01f, -1.174929e-02f, -5.954903e-02f,
  -8.038348e-02f, 4.240126e-02f, -3.309924e-02f, 3.277372e-02f, 1.198396e-01f, -3.747605e-02f, -8.900111e-03f, 4.185845e-02f,
  -6.512332e-02f, 2.117427e-02f, 3.163889e-02f, -8.033550e-02f, -7.594006e-02f, 2.959496e-02f, -8.297573e-02f, -1.386000e-01f,
  -1.859677e-02f, 1.853764e-01f, 7.826146e-02f, 1.380833e-02f, -4.969839e-02f, -2.859770e-02f, -1.318607e-01f, -7.145113e-02f,
  -2.646955e-01f, 6.273783e-02f, 8.042384e-02f, -3.581169e-02f, 5.464295e-02f, -7.313790e-02f, 2.803002e-02f, -5.781205e-02f,
  -9.994032e-03f, -1.349348e-02f, 1.110634e-01f, 1.214865e-01f, 9.832708e-02f, 1.511404e-01f, 3.374156e-02f, -3.938695e-02f,
  5.396930e-02f, 1.078570e-01f, -8.023011e-02f, 8.966777e-02f, 5.087446e-02f, 1.131402e-01f, 2.312255e-02f, 8.315039e-02f,
  9.138360e-02f, -8.007320e-02f, -8.069289e-02f, -4.927758e-02f, 1.291772e-01f, 8.009491e-02f, -3.061214e-02f, 8.183024e-02f,
  -9.207502e-02f, 5.004629e-02f, 1.142910e-01f, -1.378070e-01f, 1.434960e-01f, -1.617990e-01f, -2.145311e-02f, -6.676932e-02f,
  1.067324e-01f, 5.922976e-02f, 1.041241e-01f, 9.746515e-03f, -4.232245e-02f, 9.853433e-02f, 4.379996e-02f, 9.745949e-02f,
  6.652024e-02f, -1.136535e-01f, -3.159009e-02f, -3.507724e-02f, 1.490893e-02f, -6.214051e-02f, -1.173653e-01f, 1.299879e-02f,
  -9.554976e-02f, -1.301836e-01f, -8.094067e-02f, 1.938854e-02f, -8.344714e-02f, 1.289349e-02f, 7.772153e-04f, -1.049348e-01f,
  6.447607e-02f, -3.988734e-02f, 8.286351e-02f, -2.765443e-02f, -8.494837e-02f, 4.579504e-02f, -2.723510e-02f, -6.807300e-02f,
  1.326463e-02f, 3.378969e-02f, 1.423800e-01f, 1.355881e-01f, 1.012568e-01f, -2.396001e-02f, 1.122386e-01f, 2.197559e-02f,
  4.117852e-02f, 1.178472e-01f, -4.166329e-02f, -9.596024e-02f, 8.796254e-03f, 1.803969e-02f, 7.396201e-04f, 1.164593e-03f,
  5.708835e-02f, -6.608518e-02f, 7.392909e-02f, 1.114276e-01f, -7.003623e-02f, 4.104977e-02f, -3.343030e-03f, -2.747534e-03f,
  6.226096e-02f, -1.429135e-01f, 2.780353e-02f, 5.597866e-02f, -5.981915e-02f, 4.275979e-02f, -6.214305e-02f, -3.077528e-02f,
  -7.146547e-02f, -7.978384e-02f, 2.940032e-02f, 2.986310e-02f, -1.333929e-01f, -9.821136e-02f, 1.115952e-01f, 7.269841e-02f,
  3.758705e-02f, -7.867146e-02f, -9.038796e-03f, -8.587223e-02f, 5.643522e-02f, -3.364684e-02f, -9.140544e-02f, -7.735867e-03f,
  1.567105e-01f, -8.347813e-02f, 8.631033e-02f, 9.407360e-02f, 3.765741e-02f, 1.006428e-01f, 8.007925e-02f, 5.131089e-02f,
  -3.876667e-02f, -1.371540e-02f, -7.442275e-02f, 2.202623e-02f, 7.053594e-02f, -3.588402e-02f, -6.704246e-02f, 4.122555e-04f,
  7.515774e-02f, 9.291954e-02f, -9.762016e-03f, 3.360973e-02f, -8.386062e-02f, 1.086847e-01f, 2.370395e-02f, -7.250797e-02f,
  -9.928896e-02f, 1.170391e-01f, -3.112643e-02f, 3.882891e-02f, 3.763646e-02f, 5.705432e-02f, -5.279142e-04f, 1.484344e-03f,
  1.574350e-02f, -1.141115e-01f, -4.806432e-02f, -1.971533e-02f, 6.110077e-02f, 2.092583e-02f, -1.041176e-01f, 1.009984e-01f,
  -2.011431e-02f, 1.514007e-02f, 4.135083e-02f, 4.687314e-02f, -2.566787e-02f, -7.671413e-02f, -7.072216e-02f, 1.287430e-01f,
  3.183863e-02f, -1.092574e-01f, 7.347836e-02f, -3.162565e-02f, 1.416069e-01f, -5.588511e-04f, 1.035764e-01f, 8.123399e-02f,
  -1.520248e-02f, -1.305733e-01f, -1.017578e-01f, -1.211292e-02f, -4.722592e-02f, 1.171255e-02f, 1.004450e-01f, 1.493836e-01f,
  1.280946e-01f, -6.258758e-02f, -1.290749e-01f, 1.047906e-01f, 8.240984e-02f, -3.094088e-02f, 7.412700e-02f, -4.530461e-03f,
  9.320389e-02f, -1.122670e-02f, 8.882647e-02f, 2.972939e-02f, 8.712145e-02f, 8.599633e-02f, 1.320124e-01f, 9.551833e-03f,
  9.570002e-03f, -5.098524e-02f, 7.323863e-02f, 4.774644e-02f, -7.599278e-03f, 1.258540e-02f, -2.836301e-02f, -4.091561e-02f,
  -8.753610e-02f, -3.069335e-02f, 3.944446e-02f, 1.842976e-02f, -5.038517e-02f, -1.096873e-01f, -1.745699e-02f, 1.611733e-01f,
  1.294725e-01f, 2.759019e-02f, 4.873166e-02f, 5.065604e-02f, -3.594018e-02f, 1.189517e-01f, 1.468313e-02f, 2.076985e-02f,
  -9.016494e-02f, -4.629916e-02f, -1.465091e-01f, 1.135257e-02f, -5.134248e-03f, -1.391539e-01f, 1.790786e-02f, 8.520080e-02f,
  1.947058e-02f, -1.706741e-01f, 1.697955e-01f, -5.836951e-02f, -1.045697e-01f, -6.672774e-02f, 1.187792e-02f, 6.035341e-02f,
  1.866381e-02f, 7.964143e-04f, -9.420293e-02f, -9.842971e-02f, -2.820758e-02f, -1.767780e-01f, -8.408090e-02f, 6.250522e-02f,
  -8.178501e-02f, 1.684019e-02f, 5.520112e-02f, 2.004072e-02f, -7.266966e-02f, -3.912567e-02f, -6.316374e-02f, -6.889197e-02f,
  3.670760e-02f, -4.855747e-02f, 7.661054e-02f, -9.821425e-02f, -8.050185e-02f, -5.374912e-02f, 9.781950e-04f, -4.136402e-02f,
  1.239723e-01f, -8.583721e-02f, 1.510272e-01f, 2.422259e-02f, -1.266639e-01f, 1.180988e-01f, -6.563096e-02f, 3.499773e-02f,
  9.271078e-02f, 1.440741e-01f, -3.695265e-04f, 5.847711e-02f, -6.316146e-02f, 9.461178e-02f, -1.458766e-02f, 1.281832e-01f,
  8.411469e-02f, 3.789418e-02f, 8.607467e-03f, -3.353443e-02f, -3.367980e-02f, -4.457478e-02f, -1.374994e-01f, 6.454474e-02f,
  7.870910e-02f, -3.012841e-02f, -3.632588e-02f, 6.095307e-02f, -3.991565e-02f, -8.184159e-02f, 1.008420e-01f, -2.309271e-02f,
  -7.331184e-03f, 2.523304e-02f, -8.542114e-02f, -2.480815e-02f, -9.925598e-02f, -1.274382e-01f, 1.219109e-02f, 4.623345e-02f,
  -5.915169e-03f, -1.305795e-01f, 1.030411e-01f, -1.897779e-02f, 2.807323e-02f, 9.334645e-02f, 5.047146e-03f, 5.780278e-02f,
  7.189149e-02f, -1.180113e-01f, 2.815862e-02f, 1.221615e-01f, -3.792426e-02f, 3.830991e-02f, 1.243439e-01f, 1.678220e-02f,
  3.382304e-02f, 1.229271e-02f, 5.045542e-02f, 4.766722e-02f, 6.976118e-02f, 1.224200e-01f, 2.890047e-01f, 3.128145e-02f,
  -7.850105e-02f, 3.694136e-02f, -1.731903e-01f, 2.578343e-02f, -8.269699e-02f, 1.069342e-01f, 1.294200e-01f, -1.416396e-02f,
  8.418316e-02f, 4.679383e-02f, 6.993221e-02f, 5.260286e-02f, 1.215501e-01f, 7.159363e-02f, 3.070741e-02f, -2.920154e-02f,
  7.126940e-02f, 3.660947e-02f, 1.431330e-01f, 1.250371e-01f, 5.721921e-02f, 5.912863e-02f, -8.231667e-02f, -2.854902e-02f,
  9.269969e-02f, 6.468227e-02f, 3.930854e-02f, 5.648219e-02f, -5.145112e-02f, -9.988131e-02f, -6.154862e-02f, -1.818760e-01f,
  -6.452316e-02f, 3.395489e-02f, -3.255936e-02f, -6.007343e-02f, 1.389323e-02f, -1.107711e-01f, 4.146746e-02f, -5.284336e-02f,
  6.182854e-02f, -2.741968e-03f, 1.033937e-01f, -3.003656e-02f, -1.781140e-02f, 2.114069e-02f, 1.547240e-01f, 8.298919e-02f,
  3.316351e-02f, -6.799111e-03f, 4.046850e-02f, 7.054251e-02f, -1.233491e-02f, -3.985625e-02f, 2.719177e-02f, -1.033071e-01f,
  -9.650221e-02f, -4.153605e-02f, 1.004041e-01f, -1.184840e-01f, 5.500670e-02f, 2.007705e-02f, 1.229177e-01f, 9.779181e-02f,
  -9.419700e-02f, -1.395671e-02f, 5.244297e-02f, 6.473544e-02f, -1.339954e-01f, -2.911270e-02f, 7.623164e-02f, 7.968029e-02f,
  -8.891472e-02f, -5.042945e-02f, 6.806443e-02f, 1.023973e-01f, 8.630726e-02f, -7.888002e-02f, 1.418311e-01f, 5.182631e-02f,
  5.234901e-02f, -2.858641e-02f, -8.237019e-02f, -2.033290e-01f, 4.581089e-02f, 1.233392e-01f, 4.895698e-02f, -8.154669e-02f,
  -5.082025e-02f, 7.727906e-03f, -8.597625e-03f, -1.277758e-01f, -9.526647e-02f, -9.430026e-02f, 3.774957e-02f, -6.209842e-02f,
  9.306473e-02f, 5.751243e-02f, -3.627530e-02f, -1.500701e-02f, 1.097963e-01f, 6.605583e-02f, 1.275289e-02f, 8.949084e-02f,
  2.294063e-01f, -5.050172e-02f, -6.126973e-02f, -1.764162e-02f, 4.789220e-02f, 5.633533e-02f, 3.349628e-02f, 7.560296e-02f,
  -4.125698e-02f, -7.075377e-02f, -5.585999e-02f, -4.225734e-02f, -8.358062e-02f, -8.474998e-02f, -7.531212e-02f, 9.695026e-02f,
  6.565820e-02f, 7.588900e-02f, 7.114026e-04f, 1.296661e-02f, 5.006989e-02f, 3.031797e-02f, 1.587315e-01f, -1.199276e-02f,
  -1.903279e-02f, -4.364035e-02f, -3.294675e-02f, 5.835175e-02f, -5.541072e-02f, -8.804084e-03f, -6.657614e-03f, -6.866801e-02f,
  1.008611e-01f, 8.778248e-02f, 3.007326e-02f, -1.340792e-03f, -1.501668e-01f, 6.248447e-02f, 2.515906e-02f, -1.849098e-01f,
  -1.506613e-01f, 7.716857e-03f, -3.098280e-01f, -9.109806e-02f, -8.265126e-02f, -2.793638e-02f, -9.378219e-03f, 4.807570e-02f,
  -9.299398e-02f, -1.469424e-02f, -9.099345e-02f, -4.937703e-02f, 8.926928e-02f, -1.451611e-02f, -1.713124e-01f, 6.144995e-02f,
  2.033684e-02f, -8.995192e-02f, 1.874829e-01f, 3.182827e-02f, -1.109240e-01f, -8.054754e-02f, -9.615590e-02f, -1.270047e-01f,
  4.337102e-02f, 1.139568e-01f, 3.818993e-02f, 3.328639e-02f, 5.277314e-02f, -1.725572e-01f, -7.798912e-03f, -3.875363e-02f,
  -1.378565e-01f, -8.931255e-02f, -1.869895e-01f, -3.620753e-02f, -7.581229e-02f, -1.037178e-01f, -1.092019e-01f, 9.801176e-02f,
  -9.431420e-02f, -6.227919e-02f, 6.150236e-02f, 2.143922e-02f, 5.369040e-02f, 1.358818e-01f, 7.120496e-02f, 3.664447e-02f,
  1.424769e-01f, 1.401431e-01f, 6.965221e-02f, -6.630185e-02f, 1.819049e-01f, -3.683998e-02f, -5.042953e-02f, 2.776893e-02f,
  -5.216524e-03f, -1.474007e-02f, -4.431786e-02f, 1.092658e-01f, 7.824045e-02f, 4.749256e-02f, 7.385687e-02f, 9.435207e-02f,
  -1.329078e-01f, -8.137634e-02f, -1.613078e-03f, -6.631528e-02f, -9.522559e-02f, 7.800252e-02f, 2.262484e-02f, 7.726482e-02f,
  -5.118067e-02f, -8.805255e-02f, 8.420683e-02f, 1.051140e-01f, -5.502697e-02f, 5.995577e-02f, -3.595452e-02f, 3.141172e-02f,
  3.126554e-02f, 9.308496e-02f, 1.091928e-01f, -5.633112e-02f, 5.540149e-02f, 4.696613e-02f, -4.971806e-02f, -2.221728e-02f,
  -8.801541e-02f, -4.902867e-03f, 1.686750e-02f, -6.272338e-02f, -3.388013e-02f, 9.797880e-02f, 3.042785e-03f, 1.310410e-01f,
  -1.512127e-01f, 5.519380e-02f, 4.865808e-02f, 3.320891e-02f, 7.797738e-02f, 6.416546e-03f, 1.091642e-01f, 1.059307e-01f,
  -7.075325e-02f, 6.474238e-02f, 1.340747e-01f, 1.831709e-02f, 1.703948e-01f, 4.228511e-02f, -9.514486e-02f, 1.328518e-01f,
  1.149669e-01f, -1.583835e-01f, -6.331550e-02f, 5.715142e-02f, -3.020843e-02f, 3.725971e-02f, -2.257618e-02f, -3.674501e-02f,
  2.302591e-02f, 8.801675e-02f, 2.365877e-02f, 2.428110e-02f, -1.007100e-01f, -1.016971e-01f, -1.121151e-01f, -4.853804e-02f,
  -1.144323e-01f, 6.178680e-02f, 1.231924e-01f, -8.068640e-02f, 1.811695e-01f, 1.929419e-01f, -1.517359e-01f, 6.859407e-02f,
  1.303757e-01f, -1.029034e-01f, 2.429056e-02f, -3.823074e-03f, 1.206222e-02f, 3.023995e-02f, -9.544913e-02f, -1.291267e-01f,
  -6.660298e-02f, -1.296543e-01f, -2.483545e-02f, -6.100539e-02f, 9.218981e-02f, -2.035151e-02f, 6.433555e-02f, -1.907128e-03f,
  -1.502399e-01f, -1.298383e-01f, -2.464908e-02f, -1.071100e-01f, -1.233377e-01f, 6.016518e-02f, 5.872166e-04f, 3.376301e-02f,
  1.282103e-01f, -1.790202e-02f, 3.117829e-02f, 3.040894e-02f, 6.422816e-02f, -2.265127e-02f, -3.395163e-02f, -1.464266e-01f,
  7.492696e-02f, -4.025914e-02f, -2.172872e-01f, 1.475936e-04f, -9.805126e-02f, -1.359627e-01f, -1.433299e-02f, 1.285994e-01f,
  -1.337726e-01f, -3.121139e-02f, 1.290527e-01f, 3.768239e-02f, -1.453700e-01f, 3.086563e-02f, -4.932770e-02f, -6.196247e-02f,
  1.488110e-02f, 9.318847e-02f, -3.179185e-02f, 9.873307e-02f, -2.263708e-01f, -1.141796e-01f, -8.340529e-02f, -5.464485e-03f,
  -8.093231e-02f, -1.268720e-01f, -7.080562e-02f, 5.853027e-02f, -1.657420e-01f, -1.786634e-01f, -1.267761e-01f, -9.823927e-02f,
  5.286210e-02f, -1.140767e-01f, 1.582817e-02f, -9.761658e-02f, 3.578729e-02f, 5.407057e-02f, -4.588758e-02f, -1.104690e-01f,
  3.380324e-02f, -1.530349e-01f, 6.438474e-02f, -7.770379e-02f, 2.070952e-02f, 4.151890e-02f, 2.393730e-02f, -1.843579e-01f,
  -1.274009e-01f, -1.686221e-02f, -1.037626e-01f, -2.935420e-02f, -3.166226e-02f, 3.604832e-04f, 2.816069e-03f, -1.600646e-01f,
  -1.592115e-01f, 8.803430e-04f, -3.561777e-02f, 5.987529e-02f, -7.135985e-02f, 8.270315e-02f, -8.204437e-02f, -3.842298e-02f,
  -2.547009e-03f, -1.072047e-01f, 6.450376e-02f, -2.801567e-02f, 5.634180e-02f, 6.454571e-02f, 4.790539e-02f, 6.908382e-02f,
  2.056084e-02f, -1.325750e-01f, -1.387553e-02f, -9.268314e-02f, -8.152197e-02f, -7.544100e-02f, -2.835045e-02f, -1.206420e-01f,
  3.979729e-02f, 2.695395e-02f, 8.419372e-02f, -3.326254e-02f, 6.494803e-02f, -1.944869e-02f, 5.888878e-02f, -5.900377e-02f,
  3.280000e-02f, 3.299398e-02f, -2.340381e-02f, 6.773774e-02f, 1.020632e-01f, 8.414365e-02f, -5.307483e-02f, -4.218826e-02f,
  -1.335268e-02f, 6.717201e-02f, -2.027647e-02f, 1.406902e-01f, -8.665759e-02f, -8.200608e-02f, 1.280437e-02f, -1.376073e-02f,
  -3.252812e-02f, -5.283558e-02f, -9.389760e-02f, -6.247689e-02f, 8.951912e-02f, 1.557616e-01f, -5.316237e-02f, -8.549150e-03f,
  3.872392e-02f, -1.221655e-01f, 4.472033e-02f, 2.309077e-03f, -4.059022e-02f, 3.034660e-01f, -1.707500e-01f, 7.287068e-02f,
  -5.399054e-02f, -2.338133e-01f, -2.097091e-02f, -8.885510e-03f, 1.039880e-01f, 6.136150e-02f, 4.360858e-02f, -4.049807e-02f,
  2.157854e-02f, 2.426793e-02f, 2.670810e-02f, -6.254425e-02f, -6.245727e-02f, -3.364748e-02f, 5.067783e-02f, -2.852817e-02f,
  -9.039535e-02f, 5.359101e-02f, -2.054565e-02f, -1.386080e-01f, -1.514183e-01f, 9.152628e-02f, 7.826997e-02f, -1.933050e-02f,
  5.611339e-02f, -5.579438e-02f, 6.953608e-02f, 3.302971e-02f, -4.061285e-02f, -3.574830e-02f, -1.611051e-02f, 4.840657e-02f,
  -1.078056e-01f, 1.596799e-01f, 6.540560e-02f, 3.375188e-02f, -1.132018e-01f, 2.221637e-02f, -1.376197e-01f, -6.244922e-02f,
  1.462274e-02f, -5.345461e-02f, 6.336372e-02f, -1.888496e-01f, -4.913751e-02f, 5.877393e-02f, -1.603360e-01f, 5.184061e-02f,
  -1.034641e-01f, 4.731741e-03f, 2.873148e-05f, 1.266573e-01f, 4.643416e-02f, -1.150661e-01f, -4.034945e-03f, 4.206061e-02f,
  -6.791360e-02f, 6.491920e-02f, 1.370978e-03f, -4.501715e-02f, 6.550391e-02f, -1.014900e-01f, -6.702861e-02f, 2.145292e-02f,
  3.713172e-02f, -5.897268e-02f, -7.674766e-02f, 8.075129e-02f, -6.852082e-02f, 3.800773e-02f, 5.804987e-02f, 5.580967e-02f,
  7.270072e-02f, 1.474196e-01f, -8.117662e-02f, -8.042980e-02f, 6.112829e-02f, -4.522797e-02f, 1.139888e-01f, 1.009204e-01f,
  4.884530e-02f, -4.491009e-02f, 1.153405e-01f, 5.407826e-02f, -4.596811e-02f, -3.287772e-02f, 9.262230e-03f, 1.386107e-01f,
  8.208902e-02f, -8.477918e-02f, -3.863820e-02f, 4.702565e-02f, 4.893272e-02f, 7.592673e-02f, 1.024214e-01f, -5.430892e-02f,
  4.767756e-02f, 6.280901e-02f, -9.053727e-02f, -1.406289e-01f, 1.197086e-01f, 9.633908e-02f, -5.125459e-02f, 2.509374e-02f,
  -1.459275e-01f, 4.767630e-02f, -1.390105e-01f, -1.955190e-01f, -9.386408e-02f, -1.442258e-01f, -1.421883e-01f, -5.099989e-02f,
  1.570879e-02f, -4.605726e-03f, 1.532645e-01f, -2.520384e-02f, 3.566086e-02f, -6.409179e-02f, -1.961278e-02f, 7.547259e-02f,
  -5.319396e-03f, -9.521873e-02f, -1.559592e-02f, 3.416673e-01f, 1.400392e-01f, 9.553575e-02f, 4.220818e-02f, 6.533045e-02f,
  6.897809e-02f, -1.230472e-01f, 4.677329e-02f, -1.047784e-01f, 3.984956e-02f, 1.103390e-01f, 9.920319e-02f, -2.945927e-02f,
  -1.158183e-01f, -1.982681e-02f, -4.860718e-02f, -2.031629e-02f, 3.336881e-02f, -2.934275e-02f, -1.429949e-01f, -4.810408e-02f,
  -7.783803e-02f, -8.106519e-02f, -3.820266e-02f, 5.325031e-02f, -1.112150e-01f, 6.026153e-02f, -1.204418e-01f, -6.017140e-02f,
  -2.254081e-02f, 7.991992e-02f, 3.900899e-02f, 5.843838e-02f, 4.993553e-02f, 2.066107e-02f, -3.110602e-02f, -6.803947e-02f,
  -5.848996e-02f, -7.807857e-02f, -8.535641e-02f, 6.089171e-02f, 8.617447e-02f, 4.020111e-02f, 7.349627e-02f, 3.425210e-02f,
  -2.968472e-03f, -2.095359e-02f, 9.379147e-03f, -9.495663e-03f, 4.019552e-02f, 9.105051e-02f, 8.940886e-03f, -1.394486e-01f,
  -1.224154e-03f, -7.528105e-02f, -4.577087e-02f, -1.035279e-01f, -6.600153e-02f, 4.733817e-02f, -5.297336e-02f, -1.074388e-01f,
  -1.976160e-02f, -1.934048e-02f, 8.838154e-02f, 2.787296e-01f, 2.620304e-02f, 5.451867e-02f, -1.040269e-01f, -1.034881e-01f,
  -5.038039e-02f, 4.129229e-02f, -7.805096e-03f, 7.384879e-02f, 5.798323e-02f, 9.228064e-02f, -1.239257e-01f, -1.329439e-01f,
  9.372719e-02f, -5.665473e-02f, 9.343722e-02f, -7.382741e-02f, 4.919049e-03f, 1.300649e-02f, -1.609517e-02f, -5.817657e-02f,
  -3.349542e-02f, 2.269306e-02f, -1.201100e-01f, 9.207188e-02f, -6.295486e-02f, -8.094751e-02f, 1.500729e-01f, 2.082504e-01f,
  5.010874e-02f, 7.665782e-02f, -1.145096e-01f, 3.669146e-03f, -4.919111e-02f, -5.153281e-02f, 1.394839e-01f, -4.561703e-02f,
  -8.194812e-02f, 6.550896e-02f, -3.804741e-02f, 6.246923e-02f, -3.987628e-02f, 4.508964e-02f, -2.920490e-02f, 1.172860e-01f,
  5.210366e-02f, -6.277701e-02f, -8.106191e-02f, -1.168819e-01f, 8.469396e-02f, 4.684680e-02f, 1.083637e-01f, 8.621598e-02f,
  4.456883e-02f, -5.207196e-02f, -1.405358e-01f, -5.251180e-02f, -5.513803e-02f, -6.020319e-02f, -5.776588e-02f, -9.613346e-02f,
  -2.890651e-03f, -1.258721e-01f, -1.092087e-01f, -2.535687e-01f, -1.256936e-01f, -3.075598e-02f, 6.586619e-02f, -9.572069e-02f,
  -1.033356e-01f, 9.499034e-02f, 8.468003e-02f, 4.263696e-03f, 1.087392e-01f, 5.320547e-02f, -1.158550e-01f, 1.155981e-03f,
  -7.534147e-02f, -1.142181e-01f, -8.608253e-02f, -1.095112e-02f, -6.711522e-02f, 1.808163e-01f, 9.487445e-02f, -1.210737e-01f,
  -5.721315e-02f, 4.308594e-02f, 5.236730e-03f, -1.037144e-01f, -1.301217e-01f, 1.610772e-01f, 1.255359e-01f, -5.813559e-02f,
  2.802874e-02f, -8.211723e-02f, -8.195600e-02f, 9.000636e-02f, 5.798709e-03f, 2.170583e-01f, 1.195559e-02f, -1.844324e-01f,
  -5.674111e-02f, 3.084939e-02f, -1.250322e-01f, -1.028540e-01f, 7.880266e-03f, 8.325621e-03f, 4.888373e-02f, 6.333353e-02f,
  -5.659292e-02f, 6.414860e-02f, -1.401430e-01f, -1.327647e-02f, 1.314460e-02f, -1.925513e-02f, -1.324141e-01f, 4.217081e-02f,
  -1.998193e-01f, -4.989331e-02f, -7.569822e-02f, -3.656412e-02f, -7.903592e-02f, 3.077085e-02f, 8.768965e-02f, 2.987568e-02f,
  1.270092e-01f, 4.486625e-02f, -4.770946e-02f, -1.148903e-01f, -1.198841e-01f, -1.369639e-01f, 4.111209e-02f, -8.281856e-02f,
  -2.095183e-03f, 4.130952e-02f, 4.868252e-02f, 1.542855e-01f, -3.604034e-02f, 2.201287e-02f, -8.449349e-03f, -7.796510e-03f,
  -1.753733e-02f, -4.792270e-02f, -1.487768e-01f, -1.067084e-01f, -7.963957e-05f, -6.657711e-02f, 4.613484e-02f, -1.066793e-02f,
  4.284113e-02f, 1.800076e-02f, 6.616766e-03f, -3.697034e-01f, -1.273866e-01f, -3.435276e-01f, 5.422937e-02f, -8.611762e-02f,
  6.380399e-02f, -1.097504e-01f, -3.225004e-02f, -3.197847e-02f, -8.970760e-02f, 5.007984e-02f, -1.048482e-01f, 3.963675e-02f,
  -1.215161e-01f, -4.407720e-02f, -1.109118e-01f, -5.131618e-02f, 2.712881e-02f, 2.450337e-02f, -4.795388e-02f, 1.360203e-01f,
  -1.114269e-01f, -5.037896e-02f, -3.923681e-02f, 2.293143e-02f, -1.973601e-02f, -1.220531e-01f, -1.489674e-01f, -1.194331e-01f,
  2.623929e-02f, 3.156440e-02f, -2.079642e-02f, 5.320721e-02f, -1.121924e-01f, -5.980324e-02f, -4.878492e-02f, -9.386833e-02f,
  4.212864e-03f, -8.812577e-02f, -7.463504e-03f, 1.684744e-02f, -2.921676e-02f, -4.472324e-02f, -1.182443e-01f, 6.807499e-02f,
  -2.396693e-02f, -1.141289e-01f, 6.101932e-02f, 2.459789e-02f, 6.401753e-02f, -8.445638e-02f, -3.634509e-02f, -3.208531e-02f,
  -4.300473e-02f, 1.915482e-02f, 1.148101e-01f, 1.344230e-02f, 1.077114e-01f, 3.646144e-02f, -5.386094e-02f, 2.280686e-02f,
  -1.287374e-01f, -8.172881e-02f, 8.766933e-02f, 1.099900e-01f, 5.786121e-02f, 1.996035e-03f, -9.342019e-02f, -1.292183e-01f,
  1.279345e-01f, -3.264750e-02f, -2.024254e-02f, 1.744027e-01f, 1.043904e-01f, -5.409498e-02f, 8.387584e-02f, -5.416437e-02f,
  -1.014814e-01f, -1.025898e-01f, 1.564016e-01f, 1.378114e-01f, 4.463395e-02f, 8.339752e-02f, -4.777342e-02f, -5.970202e-02f,
  1.273684e-01f, -1.203474e-01f, 7.539193e-02f, -5.622925e-02f, -1.285091e-01f, 1.026426e-02f, 8.160688e-02f, -3.558810e-02f,
  1.230552e-02f, 3.793006e-02f, -4.976802e-02f, -2.402847e-02f, -3.499277e-02f, -5.714870e-02f, 1.622824e-01f, 9.302499e-02f,
  9.937704e-02f, 1.295309e-01f, 7.553312e-02f, 6.043244e-02f, 1.704324e-01f, 6.472231e-02f, -6.165083e-02f, 6.068468e-02f,
  4.206789e-02f, -1.188586e-01f, -6.149479e-02f, -1.715050e-02f, -3.881535e-02f, 8.119498e-02f, 1.087087e-01f, -4.490728e-02f,
  3.024204e-02f, 8.400083e-02f, 1.034850e-01f, 7.900126e-02f, -1.262422e-02f, 1.820457e-01f, 9.005865e-02f, 4.221608e-02f,
  -4.302520e-02f, -4.536670e-02f, -2.514814e-02f, -1.625744e-02f, -9.408922e-02f, -8.391739e-02f, 3.097537e-02f, -1.202488e-01f,
  9.195437e-02f, 2.941249e-02f, 1.033117e-01f, 2.678903e-01f, 1.126401e-01f, 1.323685e-01f, 7.492767e-02f, 3.058396e-02f,
  1.459482e-01f, -4.492272e-04f, 5.909883e-02f, 1.124749e-01f, 1.185617e-01f, -3.814682e-02f, -1.648950e-01f, 6.134325e-02f,
  3.744138e-02f, 8.054174e-02f, 1.143792e-01f, -6.591298e-02f, 5.473701e-02f, 1.185542e-01f, 9.020297e-02f, -4.333902e-02f,
  7.147508e-02f, 1.622692e-02f, -2.915683e-01f, -8.638263e-02f, -6.081242e-02f, -8.891995e-02f, -2.648887e-02f, 4.033406e-02f,
  2.203465e-01f, 2.031022e-01f, 5.518337e-04f, 1.388172e-01f, 4.713478e-03f, -1.606750e-02f, -4.913434e-02f, -1.605801e-02f,
  5.288188e-02f, 4.712372e-02f, -5.003476e-02f, -9.283608e-02f, 1.433395e-01f, 3.220939e-01f, -9.645677e-02f, 1.139029e-01f,
  1.832209e-01f, -4.777311e-02f, -6.480384e-03f, -2.594510e-02f, 3.058783e-02f, 1.266345e-01f, 3.974728e-01f, 1.425394e-01f,
  4.016270e-02f, 4.239700e-02f, -6.723090e-02f, -9.291828e-02f, -6.751938e-02f, -7.871158e-02f, 5.155383e-03f, 4.457434e-03f,
  5.714430e-02f, -1.120781e-01f, -6.878080e-02f, -1.299310e-01f, 1.474422e-01f, -1.652919e-01f, 1.027235e-02f, -7.059973e-02f,
  -9.124161e-02f, 5.325877e-02f, 6.396974e-03f, -4.800308e-02f, 1.080309e-01f, -3.033029e-02f, -9.560964e-02f, -1.080068e-01f,
  1.624311e-01f, -8.841844e-03f, 1.204214e-01f, -2.332702e-02f, -5.162035e-02f, -8.676460e-03f, -5.330526e-02f, 1.413988e-01f,
  2.065317e-03f, 1.636103e-02f, 3.893564e-03f, 7.121831e-02f, 5.334290e-02f, 3.493085e-02f, -5.353242e-03f, -9.243245e-02f,
  -5.311451e-02f, 1.430500e-01f, 2.248372e-01f, 8.182338e-02f, -1.646205e-01f, 2.389058e-01f, -2.703894e-03f, -1.090661e-01f,
  -3.017704e-02f, -3.884015e-02f, -8.713671e-02f, -3.012773e-02f, -1.652867e-02f, 6.813081e-02f, -5.009386e-02f, 8.902434e-02f,
  1.049314e-01f, -2.428561e-02f, 1.776625e-02f, 2.193437e-02f, 2.939781e-01f, 6.925891e-02f, -9.957431e-02f, 1.400073e-01f,
  -1.083876e-02f, -5.831669e-02f, -3.625212e-02f, 7.727490e-02f, -1.002587e-01f, 8.746195e-02f, 1.232825e-02f, -7.893416e-02f,
  1.940749e-03f, 5.668269e-02f, -1.070416e-01f, 3.177567e-02f, -2.880567e-02f, -5.416632e-02f, 8.387297e-02f, -5.542073e-02f,
  -3.041025e-02f, -8.007881e-02f, -1.680367e-01f, -2.967378e-02f, -6.879004e-02f, -3.315188e-02f, 1.890134e-02f, -1.335907e-02f,
  1.030607e-01f, -4.877210e-02f, -3.775681e-03f, 2.219348e-01f, -3.180535e-02f, 4.723009e-02f, 4.562753e-02f, -3.884891e-02f,
  -1.543927e-01f, 6.455297e-02f, 1.457617e-02f, -2.491092e-02f, 5.994441e-03f, 2.289330e-01f, -3.389483e-02f, -1.859564e-01f,
  -3.834528e-02f, 1.401214e-01f, 1.381687e-01f, 1.116072e-01f, 5.490190e-02f, 8.295178e-02f, 1.901005e-01f, -3.285389e-02f,
  -1.584724e-01f, 7.972844e-02f, 1.857405e-01f, -5.405604e-02f, -1.275103e-02f, 5.894417e-02f, -5.126006e-03f, -1.846413e-02f,
  -1.516244e-01f, -3.908001e-03f, 8.623285e-03f, 7.882978e-02f, 5.810259e-02f, 5.664199e-02f, -3.524453e-02f, -4.782609e-02f,
  -9.111251e-02f, -1.651446e-01f, -9.084524e-03f, -8.098088e-02f, 9.491250e-02f, 2.782005e-02f, -8.950003e-02f, -4.072369e-02f,
  3.510822e-02f, 1.438796e-02f, 2.594525e-02f, -1.066010e-01f, 4.316752e-02f, 1.203520e-01f, 2.335062e-01f, 2.163665e-01f,
  1.488001e-02f, 1.180321e-01f, 7.284038e-02f, -6.224263e-02f, -9.894198e-02f, -3.460749e-02f, 9.377450e-02f, 6.691578e-02f,
  2.482871e-02f, 6.288814e-02f, 2.264646e-02f, 6.014593e-02f, 1.507484e-01f, 9.971675e-02f, -2.540709e-02f, 6.667550e-02f,
  1.833042e-03f, -2.427718e-03f, 6.573057e-02f, -1.615996e-02f, -3.212044e-02f, -2.615024e-02f, 6.802334e-02f, 4.557226e-02f,
  1.370813e-01f, -1.371914e-01f, 1.601932e-01f, 1.033288e-01f, 7.425191e-02f, -2.458691e-02f, -3.013609e-01f, -1.313077e-01f,
  -1.991264e-01f, 4.992140e-02f, -3.938106e-02f, -5.316399e-02f, -1.687714e-02f, 8.625042e-02f, 5.362107e-02f, 1.029846e-02f,
  7.832611e-02f, -2.818054e-01f, 3.108198e-01f, 1.634821e-01f, 2.949457e-01f, 1.440927e-01f, 1.447185e-01f, 1.052436e-01f,
  7.006125e-02f, 1.051718e-01f, -2.135158e-01f, 1.003497e-01f, -1.440186e-02f, 9.522029e-03f, 1.214675e-01f, 1.245274e-01f,
  8.937006e-02f, 1.889199e-01f, 1.026183e-01f, 4.617713e-02f, 1.499035e-01f, -6.976084e-03f, 1.928365e-01f, 9.162244e-02f,
  -4.805851e-02f, -7.656299e-02f, 1.164381e-01f, 4.749334e-02f, -1.645296e-01f, -1.047329e-01f, 2.524456e-02f, -2.463541e-02f,
  3.560152e-02f, 2.593685e-02f, 1.505185e-02f, -2.655447e-01f, -8.841259e-02f, 7.379098e-02f, -1.801055e-01f, -7.072148e-03f,
  -6.045368e-02f, -1.027399e-01f, 5.999938e-02f, -1.656823e-01f, -1.028530e+00f, -6.756546e-02f, -9.806929e-01f, -6.204096e-02f,
  8.364869e-02f, -5.813822e-02f, -3.622492e-02f, 2.221270e-02f, 5.076456e-02f, 1.589455e-01f, 1.272833e-01f, -1.125031e-01f,
  1.616343e-02f, 3.678018e-02f, -1.490929e-02f, 9.485129e-02f, 9.251062e-02f, -1.221092e-01f, -1.489575e-01f, -8.912411e-02f,
  -1.410788e-01f, 1.547871e-01f, -2.970717e-02f, 1.043402e-01f, -1.732344e-03f, 4.648036e-03f, -4.229962e-02f, -9.423283e-02f,
  -8.478240e-02f, 2.438827e-02f, -2.268049e-01f, -4.086285e-02f, 5.844045e-02f, -5.201442e-02f, 4.684675e-02f, -5.249701e-02f,
  -5.776767e-02f, 1.240279e-01f, -5.081642e-02f, 4.996482e-01f, -4.697216e-02f, 4.111371e-01f, 3.974890e-02f, 9.041967e-02f,
  -1.355736e-01f, -7.376096e-02f, 5.913984e-02f, 4.095083e-02f, 2.932623e-01f, 4.767314e-02f, 1.298917e-01f, -8.920618e-02f,
  -4.628925e-02f, -4.703674e-03f, -2.490382e-01f, 8.287764e-02f, -2.451468e-01f, 3.058027e-01f, 4.650499e-02f, 2.072841e-01f,
  -5.189268e-02f, 1.515422e-01f, 1.468946e-02f, -4.952525e-02f, 3.179540e-02f, -2.628863e-01f, 2.767811e-01f, -4.444030e-05f,
  -1.244472e-01f, 2.241476e-02f, -7.678084e-02f, 3.464463e-02f, -3.094956e-01f, -9.708380e-03f, -7.057158e-01f, -6.864762e-04f,
  1.308763e-01f, -8.857306e-02f, 1.018982e-01f, -5.550898e-02f, 7.572564e-02f, 4.210876e-02f, 1.128311e-01f, 1.152589e-01f,
  4.360598e-02f, -4.072361e-03f, 2.227169e-01f, 7.274147e-03f, 1.028562e-01f, 9.313019e-03f, -1.571987e-01f, 1.278267e-01f,
  -9.194356e-02f, -5.312039e-02f, -1.513645e-02f, -1.160272e-01f, 7.812479e-02f, -6.714720e-02f, 8.006439e-02f, -1.142874e-01f,
  -3.239293e-02f, -2.403005e-01f, 3.070683e-01f, 2.792157e-02f, 4.700286e-01f, 6.166262e-02f, 3.914631e-03f, -5.370076e-02f,
  -9.929692e-02f, 8.875404e-02f, -2.124202e-01f, -5.670082e-02f, -8.971900e-02f, -3.211174e-01f, -3.959931e-02f, -9.727922e-02f,
  -8.085158e-02f, -2.645836e-01f, -1.353361e-01f, -4.167424e-01f, 7.205730e-01f, -5.434792e-02f, 5.657051e-01f, 2.367209e-02f,
  2.006873e-02f, 1.169319e-02f, -7.109955e-01f, -1.442517e-01f, -1.943939e-01f, 1.661623e-02f, 1.204313e-01f, -5.273230e-02f,
  1.022932e-01f, -6.870773e-02f, -1.641883e-02f, -1.288363e-01f, 3.870572e-03f, 1.282635e-01f, -2.908883e-01f, -1.821568e-01f,
  -4.945620e-01f, -1.449874e-01f, -2.506150e-02f, 3.405519e-02f, -3.912880e-01f, 1.139298e-03f, -5.830079e-01f, 1.694814e-01f,
  4.007284e-02f, 2.613435e-02f, 7.841141e-03f, -5.769852e-02f, 7.016425e-02f, -1.607628e-01f, 2.662148e-02f, -1.278561e-01f,
  3.361161e-01f, 2.207046e-01f, 4.203153e-01f, -3.133073e-02f, -3.803224e-02f, 1.487872e-01f, -2.138063e-01f, -1.337573e-02f,
  -2.530330e-01f, 4.567081e-01f, 6.746237e-02f, 3.127172e-01f, 4.957085e-02f, 1.621517e-01f, 1.780393e-01f, -1.147583e-01f,
  -1.030978e-01f, -5.079932e-01f, 1.901070e-01f, 1.278374e-01f, 1.912648e-01f, -7.975462e-02f, 1.485621e-03f, -3.509498e-02f,
  -2.641680e-01f, 1.240454e-02f, -4.152921e-01f, 1.755447e-01f, -9.339315e-02f, -2.275816e-02f, 1.322985e-02f, 9.952603e-02f,
  -1.155338e-01f, -3.093832e-01f, -7.559887e-03f, -1.199572e-02f, 1.070469e-01f, -6.228974e-02f, -5.601999e-02f, 3.860489e-03f,
  5.110314e-02f, -2.594142e-02f, -5.511890e-02f, -4.669876e-02f, -2.558278e-01f, 3.246132e-02f, 9.860457e-02f, 6.581543e-02f,
  -2.691016e-02f, 1.410109e-02f, 3.297741e-02f, -3.270185e-02f, 1.407874e-01f, -5.625592e-01f, 5.173065e-02f, 8.030830e-02f,
  -7.461295e-02f, 8.243579e-02f, 7.514035e-02f, 5.432966e-02f, 2.676113e-01f, 6.482642e-02f, 1.482453e-01f, -5.317021e-03f,
  2.069111e-02f, 2.010904e-03f, 1.283999e-01f, 1.252254e-01f, 1.030136e-01f, 8.919179e-02f, 2.071761e-02f, -2.086093e-02f,
  -4.026602e-03f, -1.190936e-01f, 8.556680e-04f, 1.951651e-02f, 8.094516e-02f, 6.711534e-02f, 2.813281e-02f, 1.363677e-02f,
  9.916982e-02f, -2.852209e-02f, 1.157244e-01f, -9.281134e-03f, -5.720027e-02f, 1.230008e-01f, -3.718410e-02f, -7.325004e-02f,
  4.794195e-02f, 1.486865e-02f, -4.750098e-02f, -5.622179e-03f, 8.537728e-02f, 1.478944e-01f, 1.912248e-01f, 2.979775e-01f,
  6.307373e-02f, 2.277817e-03f, 1.840145e-02f, -8.077309e-02f, 1.141090e-01f, 1.738180e-02f, 2.047907e-01f, 2.721239e-02f,
  6.717626e-02f, 6.766470e-03f, 4.828757e-02f, 7.980155e-02f, 4.115776e-02f, 3.674304e-03f, -3.492900e-02f, 1.250515e-01f,
  9.596091e-02f, 5.754231e-02f, 3.210080e-02f, -3.787540e-02f, 9.863064e-02f, 4.604908e-02f, 8.396336e-02f, -9.844963e-02f,
  2.272782e-02f, 7.853300e-02f, 1.233026e-01f, -1.225841e-02f, 1.213096e-01f, 2.549866e-02f, -5.119317e-02f, -1.391686e-01f,
  5.222758e-02f, 9.195492e-02f, 5.588656e-02f, -5.467764e-02f, -8.173457e-02f, -1.648970e-01f, -3.419482e-02f, -9.667236e-02f,
  1.259153e-01f, 1.314450e-02f, -4.818847e-02f, 7.856665e-02f, 7.082002e-02f, 1.229623e-01f, 7.848169e-02f, 1.455714e-01f,
  5.440846e-02f, 8.364139e-03f, 6.095914e-02f, -9.529333e-02f, 1.141852e-01f, -1.436200e-01f, -1.250096e-01f, -5.059944e-02f,
  3.563811e-02f, 7.341141e-02f, 2.857030e-02f, -1.006602e-01f, -4.388665e-02f, 1.703429e-02f, -3.575463e-02f, -4.948262e-02f,
  1.108369e-01f, 3.728433e-02f, -4.603161e-02f, -2.062100e-02f, -6.619758e-02f, 3.995514e-02f, -1.079513e-02f, -2.764886e-04f,
  8.156236e-02f, -6.802912e-02f, 7.622314e-02f, 9.469586e-02f, -4.072798e-03f, 3.662654e-02f, -4.242393e-02f, 6.878726e-02f,
  -1.682473e-01f, 4.263851e-02f, 3.676833e-02f, -6.676345e-02f, 8.671000e-02f, 2.606349e-02f, 1.094025e-02f, 8.347785e-02f,
  -1.578104e-02f, -1.205385e-02f, -1.326872e-01f, 4.633248e-02f, -4.928859e-02f, 8.799986e-02f, 1.145051e-01f, 1.218343e-01f,
  1.645885e-01f, 9.277576e-02f, -1.460491e-02f, -2.852499e-03f, 2.054459e-02f, 8.216774e-04f, -8.410678e-02f, 9.295167e-03f,
  1.140259e-01f, 2.145998e-02f, 4.847123e-02f, -3.521880e-02f, -4.880534e-02f, -1.737278e-02f, -1.314004e-01f, -3.919725e-02f,
  -8.840037e-02f, 8.287437e-02f, -2.501828e-02f, -7.257666e-02f, 8.550216e-02f, -9.492208e-02f, -8.461106e-03f, 1.287224e-01f,
  2.082560e-02f, -1.515861e-02f, -3.326766e-02f, -2.761344e-02f, 4.399914e-04f, -1.454585e-01f, 1.060737e-01f, -3.477914e-02f,
  -5.937178e-02f, -1.662096e-02f, -6.308370e-02f, -2.525402e-02f, 8.064386e-03f, 9.793748e-02f, 1.237322e-01f, -6.701915e-02f,
  -1.804008e-02f, 7.347380e-02f, -1.384791e-02f, 1.163152e-02f, 9.533495e-02f, 2.560273e-01f, 1.351245e-01f, -2.622489e-01f,
  2.172481e-01f, 4.127121e-02f, -1.826992e-01f, -9.234493e-04f, -8.936463e-02f, 7.029947e-02f, -2.462476e-02f, 1.225295e-01f,
  -6.287914e-02f, 1.286182e-01f, 1.094534e-01f, -3.273775e-02f, 1.949508e-01f, 8.411421e-03f, 8.134930e-02f, 5.170236e-02f,
  -5.989354e-02f, -9.808575e-02f, 7.650535e-02f, -4.076569e-02f, -1.187313e-01f, 7.308650e-02f, 5.994396e-02f, -1.961164e-02f,
  -3.273047e-02f, 1.156265e-01f, -2.250366e-01f, -6.507454e-02f, 7.564840e-02f, -7.915798e-02f, -1.073414e-01f, -1.074410e-04f,
  -8.701179e-02f, -9.620158e-02f, -9.717951e-02f, 5.400963e-02f, 1.107706e-02f, -2.111608e-02f, 7.711310e-03f, -8.764999e-02f,
  -4.253485e-03f, -7.490385e-02f, 1.417093e-01f, 1.622244e-01f, 2.005297e-01f, 2.327936e-02f, 4.384455e-02f, 6.493028e-02f,
  -2.641434e-02f, 6.152515e-02f, 1.152162e-01f, -4.514806e-02f, 1.536364e-01f, 1.666805e-01f, -5.935370e-02f, 5.449156e-02f,
  5.948153e-02f, 4.910151e-02f, -3.917504e-02f, 1.299906e-01f, 1.374594e-01f, 1.414038e-01f, 3.426765e-01f, 5.288439e-02f,
  1.293632e-01f, 2.198063e-02f, -5.295908e-02f, 1.842225e-03f, 4.178444e-02f, 7.602590e-02f, 1.407549e-01f, -1.440729e-01f,
  -5.408303e-03f, -1.186879e-03f, 9.794877e-02f, 4.089500e-02f, -1.659563e-02f, -2.431664e-02f, -6.200011e-03f, 8.177691e-02f,
  -3.288019e-04f, -2.966948e-02f, -1.419881e-02f, 2.955529e-02f, 5.240947e-02f, 8.588320e-02f, -6.750281e-02f, -9.338489e-02f,
  -7.412369e-02f, 3.750426e-02f, 2.117848e-02f, 5.916922e-02f, -7.752106e-02f, -1.057947e-01f, 6.861044e-02f, 2.176948e-01f,
  3.257081e-03f, -4.831187e-02f, -1.550358e-02f, -8.899974e-02f, -7.484529e-02f, 4.383511e-02f, 3.336644e-02f, 9.080020e-02f,
  -3.514730e-02f, 6.411327e-02f, 1.643257e-03f, 5.007467e-02f, 1.301402e-01f, 7.945614e-02f, 1.862062e-02f, -3.133986e-02f,
  2.072024e-02f, 1.051493e-01f, 1.175508e-01f, 1.522770e-01f, 5.123958e-02f, 1.131315e-01f, -6.721344e-02f, 1.796737e-02f,
  -1.167151e-01f, 1.886211e-02f, 2.917180e-02f, 8.448511e-02f, 7.926673e-02f, 3.869458e-02f, 1.320833e-01f, 1.748056e-01f,
  9.894028e-02f, -7.096267e-02f, 4.955712e-02f, 8.350752e-02f, -4.361181e-02f, 2.828199e-02f, -4.968547e-02f, -5.394504e-02f,
  5.634745e-02f, 6.740404e-02f, -1.409180e-02f, -4.616958e-02f, -1.460958e-01f, -1.159779e-02f, 4.808715e-04f, -6.910417e-02f,
  7.324657e-02f, -1.155675e-01f, -1.876001e-02f, 4.589265e-02f, 4.350453e-02f, -1.170636e-01f, 8.732022e-02f, -3.784292e-02f,
  3.423446e-02f, 6.221985e-02f, -4.569666e-03f, 9.617567e-03f, -1.418538e-02f, -6.053901e-02f, 6.289088e-02f, 4.699545e-02f,
  -2.650024e-02f, -5.982891e-02f, -3.611851e-02f, -3.949074e-02f, 5.434855e-02f, 7.410616e-02f, -2.281486e-02f, -8.788215e-02f,
  1.135196e-01f, 9.982663e-02f, -1.651520e-02f, 4.909978e-02f, 1.228075e-01f, -7.973752e-02f, -4.567630e-02f, 6.693228e-02f,
  -1.106754e-01f, -9.578699e-03f, 9.084457e-03f, -3.079511e-02f, -9.246954e-02f, -1.388841e-01f, -1.740574e-01f, -7.922301e-02f,
  -8.898688e-02f, -4.139024e-02f, 1.391229e-01f, 1.837392e-02f, 9.386592e-02f, -2.885425e-02f, 9.077994e-02f, 1.618668e-01f,
  1.266017e-01f, -4.155539e-02f, 2.077300e-03f, -4.332767e-02f, 2.152490e-02f, 4.333859e-02f, 1.928620e-02f, -1.168666e-03f,
  5.353538e-02f, 5.849818e-02f, 9.506419e-02f, -3.413382e-02f, 6.260407e-02f, 3.874460e-02f, -9.887479e-02f, 4.693568e-02f,
  8.919680e-03f, -2.548840e-02f, 3.355784e-02f, -7.930954e-02f, -5.466211e-02f, 1.053321e-02f, 1.519825e-01f, 8.284614e-02f,
  1.131803e-01f, 1.678382e-01f, 2.908178e-02f, 1.542692e-01f, -2.659468e-02f, -3.007654e-02f, 1.396984e-01f, 1.598364e-01f,
  -5.320944e-02f, 1.246727e-01f, 7.216624e-02f, -1.536441e-01f, 7.207024e-02f, 9.813972e-02f, -1.962627e-02f, 8.802989e-02f,
  -1.866945e-02f, 4.494799e-02f, 2.408111e-02f, -3.196358e-02f, 4.697575e-02f, -3.026652e-02f, -6.331296e-03f, 1.262297e-01f,
  4.717124e-02f, 4.763964e-02f, -6.758301e-02f, 4.587974e-02f, 1.339610e-01f, -2.710780e-02f, 8.412617e-02f, 4.751973e-02f,
  1.425596e-02f, -2.582952e-02f, -3.173911e-02f, -7.891165e-02f, -1.704196e-02f, -7.246720e-02f, -4.795628e-02f, 1.325362e-01f,
  -5.704388e-02f, -8.687393e-02f, 9.840313e-02f, -1.220583e-02f, 7.714537e-02f, -7.107861e-02f, -7.199348e-02f, 3.804792e-02f,
  -9.165911e-02f, 4.694895e-02f, -7.802651e-03f, 5.343377e-02f, 1.842886e-03f, -1.004397e-01f, 6.529184e-02f, 1.739964e-02f,
  2.868058e-02f, 3.986130e-02f, -1.145680e-01f, -1.178402e-01f, 1.110105e-01f, 1.264032e-01f, 1.045104e-01f, 8.042435e-02f,
  1.406753e-01f, 9.983762e-02f, 2.180976e-02f, -1.687390e-01f, -9.648981e-03f, 3.621867e-03f, -5.482171e-02f, -1.634218e-01f,
  1.533312e-01f, -2.945376e-01f, -4.166612e-01f, 7.314327e-02f, -5.549239e-02f, 2.721170e-02f, -4.454923e-02f, 1.092671e-01f,
  -1.431425e-02f, -6.602759e-02f, 7.977477e-02f, 9.209932e-02f, 1.001117e-01f, -2.673766e-02f, -6.468465e-02f, -8.733360e-02f,
  -1.271621e-01f, -1.299736e-01f, -1.581276e-02f, 7.501648e-02f, -3.610133e-02f, 4.765802e-02f, -2.426590e-02f, 6.626027e-02f,
  3.405399e-02f, 1.125385e-01f, 2.841045e-02f, 5.162054e-02f, 1.729923e-02f, -8.361125e-02f, -8.520806e-02f, -7.248344e-02f,
  -4.880216e-02f, 6.704212e-02f, -7.885455e-02f, -3.139542e-02f, -3.637024e-02f, -7.894544e-02f, -3.671577e-02f, 7.692507e-03f,
  2.396446e-02f, -5.096416e-02f, 4.458632e-02f, 1.106286e-01f, 5.440298e-02f, 9.706336e-02f, -1.738290e-02f, 1.029719e-01f,
  4.129374e-02f, 1.279601e-01f, 9.498791e-02f, -3.590510e-02f, 1.020236e-01f, 1.660734e-03f, 3.194894e-02f, -1.387086e-02f,
  2.423132e-02f, 2.039509e-02f, -2.306399e-03f, 2.378965e-03f, -3.379437e-02f, 6.593527e-02f, 1.143663e-01f, 7.131191e-02f,
  -4.500750e-02f, 4.863981e-02f, -3.554474e-02f, 5.405298e-02f, 9.269399e-02f, 2.667177e-02f, 9.887225e-02f, -5.427168e-02f,
  9.049351e-02f, 7.323045e-02f, 5.139629e-02f, 5.244523e-02f, 1.263610e-01f, 1.346240e-02f, 3.946494e-02f, -2.521404e-02f,
  9.798779e-02f, 8.028894e-02f, -2.230670e-02f, 8.384555e-02f, -9.295452e-02f, -1.545281e-02f, -4.293454e-02f, 6.476798e-02f,
  1.129028e-01f, -2.950863e-02f, -9.832462e-02f, 8.541761e-02f, 3.181326e-02f, 1.926946e-03f, -3.625916e-02f, 8.012275e-02f,
  1.590682e-02f, 2.169181e-02f, -1.031167e-03f, -3.668357e-02f, 4.027344e-02f, 1.524649e-01f, 2.812966e-02f, 7.764556e-02f,
  2.408622e-02f, 1.259107e-01f, -3.164904e-02f, 5.946432e-02f, 8.032808e-02f, 2.367172e-02f, 1.169441e-02f, -1.033020e-01f,
  -9.128532e-02f, 5.227918e-02f, 1.149662e-02f, -1.697346e-02f, 8.484701e-02f, 5.897969e-02f, 3.966995e-02f, -2.381970e-02f
};
