#pragma once

// kind=conv2d, layout=OIHW
// layer=dec4_refine16
// dims: Kh=3, Kw=3, Cin=16, Cout=16
// Keras: (Kh,Kw,Cin,Cout) -> Noodle: (Cout,Cin,Kh,Kw)
static const float w10[] = {
  9.570056e-02f, 3.989676e-02f, 7.175359e-02f, -2.743156e-02f, 9.895652e-02f, 1.237439e-01f, -1.040822e-01f, -9.994972e-02f,
  1.151812e-01f, 4.726855e-03f, 1.444429e-01f, 2.257405e-01f, 9.393998e-02f, 9.726442e-02f, 2.728302e-01f, 6.104937e-02f,
  -3.373663e-02f, -1.180713e-01f, -1.285368e-02f, 1.392336e-01f, 4.802408e-02f, 1.128614e-01f, 1.995853e-01f, -1.756726e-03f,
  1.066915e-01f, 4.366333e-02f, -1.019190e-01f, -1.667623e-01f, 2.876752e-01f, 3.009908e-01f, 5.202160e-03f, 2.607015e-01f,
  2.632167e-01f, -6.440354e-02f, 3.653020e-02f, 7.775763e-02f, -2.148918e-03f, 1.989713e-01f, -1.121842e-01f, -4.092813e-02f,
  3.150117e-01f, 1.684215e-01f, -1.114777e-01f, -7.813861e-02f, -1.290865e-01f, -1.649008e-01f, 5.374132e-02f, 6.391773e-02f,
  -2.635095e-01f, -1.169178e-01f, 5.735344e-02f, -7.321116e-02f, -8.736897e-02f, 7.656418e-02f, 2.447567e-02f, 4.024094e-02f,
  -1.098289e-01f, -3.499600e-02f, 2.139774e-01f, 1.212510e-01f, -6.308234e-02f, 4.510673e-01f, 2.324775e-01f, 2.125372e-01f,
  3.700280e-01f, 1.463654e-01f, -1.083859e-01f, 2.040265e-01f, -2.989545e-02f, -1.882485e-01f, -4.153792e-02f, -2.333180e-01f,
  1.806142e-02f, 8.341853e-03f, -1.363914e-01f, -8.847181e-02f, -6.309158e-03f, 6.141768e-03f, -5.520174e-02f, -2.315079e-02f,
  7.132332e-02f, 6.979790e-02f, 1.882488e-02f, -1.273793e-01f, 8.948307e-02f, 7.776594e-02f, -2.187929e-01f, -4.603370e-02f,
  1.108550e-02f, 4.777246e-02f, 2.830499e-01f, 2.117412e-01f, 8.746557e-03f, 2.975982e-01f, 1.473809e-01f, -1.964229e-01f,
  4.231756e-02f, -1.013239e-02f, -2.048136e-01f, 7.867062e-02f, 4.028132e-01f, -3.707193e-02f, 1.280596e-01f, 3.142428e-01f,
  1.451541e-01f, -2.057237e-01f, -2.255675e-01f, -3.154336e-01f, 1.781806e-01f, 3.136824e-01f, 6.953797e-02f, 6.314974e-02f,
  2.934423e-01f, 2.710014e-01f, -1.398032e-01f, -1.508475e-01f, -2.829896e-01f, 2.706293e-02f, 4.267843e-02f, 6.102716e-02f,
  -6.633869e-04f, 2.787026e-01f, -1.429600e-01f, 1.003124e-03f, 1.611685e-01f, 2.247273e-01f, -1.799414e-01f, 1.942844e-01f,
  1.520668e-01f, -1.715333e-01f, 9.441165e-02f, 5.203173e-02f, -2.209713e-01f, -2.176360e-01f, -1.556495e-01f, 2.730524e-02f,
  1.828629e-01f, 1.101406e-01f, -1.017928e-01f, 4.345751e-02f, 8.844119e-03f, -2.020048e-01f, -1.338454e-02f, 3.282380e-02f,
  3.818133e-02f, 5.764490e-02f, 1.720003e-01f, 9.626780e-02f, 1.236239e-01f, 1.627083e-01f, -6.472734e-02f, 9.395834e-03f,
  1.440473e-01f, -8.012782e-02f, -5.368329e-02f, 1.183231e-01f, -3.074380e-02f, 6.103165e-02f, -2.486916e-02f, 1.270448e-01f,
  3.219249e-02f, 1.012620e-01f, 7.695139e-02f, 1.236174e-01f, -3.206183e-02f, 9.249971e-02f, -7.133761e-02f, 3.961663e-02f,
  7.319693e-02f, -1.055151e-01f, 1.473830e-01f, 3.773060e-02f, -9.836598e-02f, -1.836177e-01f, -1.082649e-01f, 1.677356e-01f,
  1.038406e-01f, 1.450195e-04f, -7.421979e-02f, -5.453834e-02f, -1.273589e-01f, 6.567696e-02f, -1.405060e-01f, 1.379227e-01f,
  8.514369e-02f, 2.169782e-02f, 1.153364e-01f, -2.504596e-02f, -1.394593e-02f, 4.689182e-02f, -1.487494e-01f, 5.928339e-02f,
  -7.277231e-02f, 1.871993e-01f, 6.568096e-02f, 6.026735e-02f, 8.023103e-02f, -2.303566e-02f, -6.250942e-02f, 6.445485e-02f,
  6.305567e-02f, -3.640867e-02f, 1.126127e-01f, 1.799612e-01f, 9.115326e-02f, 4.841727e-02f, 1.597987e-01f, -1.326292e-01f,
  -6.280132e-02f, 5.581069e-03f, -6.352473e-02f, -3.773091e-02f, 3.551823e-02f, -5.368162e-02f, -3.393341e-02f, -9.140648e-02f,
  8.188259e-02f, -1.254694e-01f, 2.179078e-02f, -1.744896e-01f, -1.091709e-01f, -1.568770e-01f, -1.201029e-01f, -1.295864e-01f,
  -7.263812e-02f, 1.180680e-01f, 1.859687e-01f, -6.808238e-02f, 1.154235e-01f, 3.557461e-02f, 1.212362e-02f, 3.704192e-02f,
  1.498162e-01f, -3.083594e-02f, 5.047440e-02f, -2.563267e-01f, -6.483143e-02f, -6.779543e-02f, -6.299562e-03f, -1.392985e-01f,
  -1.717807e-03f, 8.051054e-03f, -2.744233e-02f, -1.038456e-01f, 1.591396e-02f, 9.563297e-03f, -4.960653e-03f, -2.328263e-02f,
  1.007031e-01f, 2.031674e-03f, -7.121240e-02f, 2.068848e-02f, 1.056676e-01f, 1.117052e-01f, 2.426650e-02f, -6.428311e-02f,
  8.380692e-02f, 7.428929e-02f, 1.842847e-02f, 4.302905e-02f, -5.010591e-02f, 1.212251e-01f, 1.468970e-01f, 9.433933e-02f,
  5.454953e-02f, 1.726630e-01f, 1.627272e-01f, 1.547375e-01f, -1.322140e-01f, 3.122873e-02f, 5.512649e-03f, 3.914506e-02f,
  3.886746e-02f, 1.152059e-01f, 5.193762e-02f, 5.226206e-02f, -4.712898e-02f, 6.794381e-02f, -2.480019e-02f, 9.336226e-02f,
  -1.468555e-02f, 1.327235e-01f, 1.594746e-02f, -1.089267e-01f, -4.998233e-02f, 5.392262e-02f, -7.888593e-02f, -1.027145e-01f,
  -4.318124e-02f, -1.064992e-01f, -7.111489e-02f, 7.804260e-02f, 1.635517e-01f, 1.227659e-01f, -2.709102e-02f, 6.702743e-02f,
  4.548405e-02f, 8.905601e-02f, 6.420367e-02f, 6.582878e-02f, -9.813312e-02f, 4.498597e-02f, -1.496344e-02f, 1.146359e-01f,
  1.654566e-01f, -1.136723e-01f, 9.880770e-02f, -1.547565e-02f, -9.139384e-02f, 1.633535e-01f, 1.032542e-01f, -4.117396e-02f,
  -1.192257e-01f, 5.126561e-02f, -1.160323e-01f, 4.088644e-02f, 1.472914e-01f, 2.364473e-02f, -1.443139e-01f, -9.247728e-02f,
  -5.993303e-02f, 7.026749e-02f, 1.616208e-01f, 9.900106e-02f, 1.821899e-02f, -1.016918e-01f, 1.527550e-01f, 3.917318e-03f,
  3.105941e-02f, -9.787992e-02f, 3.271723e-02f, -7.308155e-02f, 2.806791e-02f, -5.140696e-02f, -7.202432e-02f, -2.034021e-02f,
  -6.112909e-02f, -1.142254e-01f, -9.343530e-02f, -6.046291e-02f, 1.434681e-01f, 1.566337e-01f, 8.477836e-03f, -1.231125e-01f,
  5.894327e-02f, 8.759712e-02f, 1.984225e-02f, -9.305108e-02f, 4.063876e-02f, 1.072957e-01f, 3.937325e-02f, 1.899280e-01f,
  1.475288e-02f, -7.151965e-02f, 9.546454e-02f, -2.764422e-02f, 1.308413e-01f, 1.180282e-01f, 1.731733e-01f, -8.071464e-02f,
  -6.247674e-02f, -1.772184e-01f, -7.232455e-02f, -2.718502e-02f, -5.443456e-02f, -1.682325e-01f, -1.670432e-01f, 3.417553e-02f,
  -2.796019e-02f, -3.129219e-02f, 5.656246e-02f, -8.124461e-02f, -4.118385e-02f, 9.389693e-02f, 8.304168e-02f, 8.620474e-03f,
  8.841217e-02f, 9.095103e-03f, -8.393716e-02f, -6.624867e-02f, 1.710140e-03f, -4.564517e-02f, 1.161672e-01f, -3.542945e-03f,
  7.456006e-02f, -4.381524e-02f, -4.036312e-02f, 1.575033e-01f, 1.776304e-01f, 1.915633e-01f, 9.429025e-02f, -2.551799e-02f,
  -2.612502e-02f, -4.399433e-02f, 6.693834e-03f, -1.510903e-01f, -8.446233e-02f, -1.049932e-01f, 1.261518e-01f, -2.538946e-02f,
  -8.900207e-03f, 5.537798e-02f, -8.111313e-02f, 4.789012e-02f, -4.666287e-02f, 1.514938e-01f, -6.856255e-04f, -1.166548e-02f,
  5.799635e-02f, 1.694807e-01f, 1.099091e-01f, -2.576819e-02f, -3.977745e-02f, 3.099818e-03f, -9.124302e-02f, 1.554081e-01f,
  -3.387155e-02f, 1.026011e-01f, 1.101089e-01f, 1.394661e-02f, -5.611208e-02f, 1.430362e-01f, 1.004930e-01f, 1.043880e-01f,
  1.603007e-03f, -1.270462e-01f, -2.627391e-02f, -4.103593e-02f, 1.268897e-01f, 2.573383e-02f, 1.533341e-01f, 1.047675e-02f,
  5.170451e-02f, -1.375547e-02f, -2.139709e-02f, 1.094848e-01f, 1.958784e-01f, 1.554765e-01f, 1.092799e-01f, -8.830270e-02f,
  -4.214617e-02f, 1.031707e-01f, -5.223324e-02f, -6.581382e-02f, 3.757133e-02f, -2.710990e-02f, 7.816211e-02f, -4.475053e-02f,
  8.874285e-02f, 2.676772e-02f, 2.820182e-02f, -9.327285e-03f, -2.593045e-02f, 3.771951e-02f, 7.586020e-02f, 3.838038e-02f,
  1.006653e-01f, -8.696596e-02f, -3.261478e-02f, 8.900130e-02f, -8.758055e-02f, -5.377195e-02f, -1.343642e-01f, 3.354175e-02f,
  1.732769e-01f, 8.863548e-02f, 1.552301e-01f, 1.674137e-01f, -6.153486e-02f, 5.046969e-02f, 1.006807e-01f, -1.080207e-01f,
  1.270832e-01f, 1.039487e-01f, 9.417677e-02f, 1.352653e-01f, 1.541726e-01f, -9.101620e-02f, -1.323718e-01f, 3.901911e-02f,
  8.189812e-02f, -1.454964e-01f, -6.402018e-02f, 1.173490e-01f, -8.741748e-02f, -2.886114e-02f, -4.784686e-02f, -1.190715e-02f,
  3.758192e-02f, 1.465023e-01f, 7.623826e-02f, 5.229057e-02f, 1.711722e-02f, 2.164752e-01f, -1.000518e-01f, 3.665012e-02f,
  2.005702e-02f, -3.297536e-02f, 5.292249e-02f, 1.142930e-01f, -1.034403e-01f, 1.772708e-01f, 4.915133e-02f, -5.336150e-02f,
  -5.312768e-02f, -2.965302e-03f, -4.649692e-02f, -8.394666e-02f, 1.381168e-02f, 6.922744e-02f, -4.497448e-03f, -1.633202e-01f,
  -6.500853e-02f, -9.801614e-02f, 8.910640e-02f, 1.260894e-01f, 1.002756e-01f, 1.328036e-01f, -1.452703e-02f, -9.358076e-02f,
  1.321081e-01f, -2.196584e-02f, 1.123544e-01f, -6.165274e-02f, -1.980808e-04f, 1.002759e-01f, 3.958923e-02f, -1.205366e-01f,
  4.507495e-02f, 1.649804e-01f, -2.124079e-04f, 1.342596e-02f, -3.438975e-02f, -1.121958e-01f, -6.437711e-02f, 6.765269e-02f,
  -4.606174e-02f, -3.648868e-02f, 9.971172e-03f, -7.946833e-02f, 8.795810e-02f, 6.901377e-02f, -1.107961e-01f, 1.234376e-01f,
  8.634699e-02f, -6.387245e-02f, 6.697080e-02f, 9.941956e-02f, 5.120980e-02f, -4.982537e-02f, -7.560454e-02f, 9.236071e-02f,
  6.193732e-02f, 1.755314e-01f, 3.311026e-03f, 1.093888e-01f, 1.539716e-01f, 1.133063e-02f, -1.283586e-01f, -1.986399e-02f,
  1.196176e-01f, 3.176752e-02f, -3.311705e-02f, 1.450841e-01f, 6.803584e-02f, -3.614651e-03f, 7.623521e-02f, -5.397742e-03f,
  6.409829e-02f, 6.962101e-02f, 2.259788e-02f, 4.029752e-02f, -4.291444e-02f, 9.794536e-02f, 1.229287e-01f, 1.096945e-01f,
  1.374756e-02f, -1.538153e-02f, 1.211681e-02f, -3.044611e-02f, 7.601084e-02f, 9.030090e-02f, 1.085485e-01f, 2.124799e-02f,
  4.022697e-02f, 2.151776e-02f, 7.347747e-02f, -2.279080e-02f, 6.263555e-02f, 1.134494e-01f, -1.325026e-01f, -1.978436e-02f,
  -7.430466e-02f, 4.403305e-02f, -6.399860e-03f, 9.310877e-02f, 1.171167e-01f, 8.013462e-02f, -1.145495e-01f, 1.049780e-01f,
  -9.159180e-02f, -4.328559e-02f, 4.366805e-02f, -1.619774e-01f, -8.630442e-02f, 3.154935e-02f, 1.391229e-01f, 8.148555e-02f,
  -4.396587e-03f, 1.973256e-01f, 1.313328e-01f, 1.308724e-02f, -3.676596e-02f, 5.156304e-02f, 1.631208e-03f, -6.562666e-03f,
  -2.513993e-02f, -1.388175e-01f, 1.320664e-01f, 2.218415e-02f, -7.176651e-02f, 3.124653e-02f, -1.783656e-01f, -6.852408e-02f,
  -2.270970e-01f, -1.364276e-01f, 1.767847e-01f, 9.231213e-02f, 1.065322e-01f, 5.170397e-02f, -6.797931e-02f, -7.440583e-03f,
  -1.066338e-01f, -1.320130e-01f, -8.204998e-02f, 6.382811e-02f, 1.312639e-01f, 2.419188e-01f, -3.259717e-02f, 2.498329e-01f,
  1.745834e-01f, 1.047194e-02f, 2.114392e-02f, -4.338699e-02f, -4.012319e-02f, 8.390132e-02f, -3.480558e-02f, 1.233771e-01f,
  1.225184e-01f, -1.055220e-01f, -1.666866e-01f, -7.552450e-02f, -5.223284e-02f, -3.035996e-02f, -9.780300e-02f, 4.277580e-03f,
  -7.161656e-02f, 9.240483e-02f, 1.382773e-01f, -1.064771e-01f, 6.500657e-02f, 2.724544e-02f, -1.222804e-01f, -3.066095e-02f,
  1.441430e-02f, -6.620783e-03f, 1.818535e-01f, 8.724581e-02f, -1.202541e-01f, 1.218965e-02f, -8.527143e-02f, -1.201305e-01f,
  8.563018e-02f, -6.847912e-02f, 8.801564e-02f, 1.227785e-01f, 1.636060e-01f, 5.651178e-03f, 5.649368e-02f, -2.644635e-01f,
  -2.845515e-01f, 1.055797e-01f, 1.080572e-01f, 1.843251e-01f, 1.739938e-01f, 1.760183e-01f, 9.358795e-02f, -2.024683e-02f,
  -6.197530e-02f, -1.430475e-01f, -1.752030e-01f, -1.170642e-01f, 9.240811e-02f, 2.552737e-01f, 9.792066e-02f, -7.994489e-03f,
  5.410654e-02f, 2.730697e-02f, 7.220046e-02f, 2.979451e-02f, 5.681683e-02f, -1.394113e-01f, -7.017857e-02f, 1.356119e-01f,
  7.131799e-02f, 3.709442e-02f, 1.043605e-01f, -1.386544e-01f, 4.937809e-02f, -1.352255e-01f, -8.710121e-02f, 1.871846e-03f,
  1.059356e-02f, -1.022157e-01f, -1.720455e-01f, 5.944832e-02f, 4.914164e-02f, 1.281271e-01f, 4.315303e-02f, 4.056810e-02f,
  -1.349497e-02f, -6.025010e-02f, -1.191784e-02f, 1.929990e-02f, 1.967080e-02f, 9.234516e-02f, -2.180912e-02f, -6.444696e-02f,
  9.122188e-02f, -8.938643e-02f, -9.938844e-03f, 6.727342e-02f, -1.376815e-02f, -1.167688e-01f, -1.010308e-01f, -1.166391e-01f,
  9.655188e-03f, -4.307747e-02f, 3.442515e-02f, 5.703477e-02f, -1.829425e-02f, 3.855994e-03f, 8.593103e-03f, -3.300751e-02f,
  -6.184317e-02f, 7.431652e-02f, 7.311209e-02f, -9.663411e-03f, -5.575103e-02f, -1.068237e-01f, -9.892335e-02f, 1.072526e-01f,
  7.488438e-02f, 4.729681e-02f, -2.608998e-02f, -5.516406e-02f, -3.878814e-02f, -1.408247e-02f, 1.141157e-01f, 4.587530e-02f,
  4.218233e-02f, 6.132218e-03f, -1.320662e-01f, -1.347945e-01f, 1.126833e-01f, -5.540719e-02f, -3.562228e-03f, 6.135112e-02f,
  8.224731e-02f, 6.249876e-02f, -1.817826e-02f, -1.713022e-02f, -1.868282e-02f, -9.004713e-03f, 1.061199e-02f, -1.233818e-01f,
  -1.439061e-02f, 9.103752e-02f, 8.721344e-02f, 2.172032e-03f, 4.479770e-03f, 4.108892e-02f, -6.391674e-02f, -1.250603e-01f,
  -1.440950e-01f, 6.034414e-02f, -1.301201e-01f, -1.033315e-01f, 1.313524e-02f, 5.651900e-02f, -1.478681e-01f, 1.012267e-01f,
  4.623352e-02f, -4.905150e-02f, 1.053918e-01f, 1.957453e-01f, 6.292468e-02f, -3.913970e-02f, 6.663002e-02f, -8.993994e-02f,
  6.991532e-02f, 5.384349e-02f, -8.528925e-05f, 1.280070e-02f, 1.074574e-02f, -1.477733e-01f, 8.566628e-02f, -1.205405e-02f,
  8.820757e-02f, 1.829607e-01f, -1.325834e-02f, 8.257950e-02f, -3.390713e-02f, 4.454854e-02f, 4.681898e-02f, 5.824426e-02f,
  -2.551250e-02f, 8.689045e-02f, 6.955993e-02f, -7.239449e-02f, -1.186705e-01f, -4.708209e-02f, 1.072214e-01f, 1.493700e-01f,
  -6.123424e-03f, 6.043564e-02f, -7.601359e-02f, 4.400455e-02f, -9.078429e-02f, 9.497113e-02f, 5.900561e-02f, -3.339643e-02f,
  1.155327e-02f, -1.308800e-01f, 1.297394e-02f, 9.114547e-02f, 6.639309e-02f, -1.943870e-01f, -7.047948e-02f, 7.485443e-02f,
  -1.309763e-01f, -6.459480e-02f, -8.669002e-02f, -6.790689e-02f, 7.026301e-02f, 1.723917e-01f, 2.396053e-03f, 1.429361e-01f,
  6.618352e-02f, 1.601966e-01f, -7.447157e-02f, -5.641511e-02f, -1.097157e-02f, -1.274714e-01f, -4.493124e-02f, -1.841413e-02f,
  7.566495e-03f, -1.091712e-01f, 1.217083e-01f, -3.690780e-02f, -7.168605e-03f, 5.718077e-02f, -2.179606e-03f, -9.976749e-02f,
  -2.154312e-02f, 9.212799e-02f, -7.104813e-02f, -5.994571e-02f, -1.380330e-01f, -6.050928e-02f, 1.232220e-01f, -1.908522e-02f,
  -1.228909e-01f, 6.083491e-02f, -1.422160e-01f, -9.405694e-02f, -2.235494e-02f, 1.360927e-03f, -2.517372e-02f, 1.144233e-01f,
  3.201751e-02f, -6.922430e-02f, -4.033092e-04f, 6.978556e-02f, 5.117254e-02f, -5.756417e-03f, -6.628504e-02f, -1.179019e-01f,
  5.373900e-02f, -5.803312e-02f, -7.359945e-02f, 5.991159e-03f, -1.024190e-01f, -5.465322e-02f, 6.593937e-02f, -1.241061e-01f,
  9.656975e-02f, 1.784481e-01f, -4.323943e-02f, -9.312317e-02f, 1.041986e-02f, -1.359043e-01f, 1.429126e-02f, 1.569061e-01f,
  -1.818002e-01f, 6.830878e-02f, 1.054418e-01f, 4.440552e-02f, -4.697430e-03f, 1.612051e-01f, 1.734374e-01f, -5.133373e-02f,
  1.658181e-02f, 1.293899e-01f, 7.332579e-02f, 4.890644e-02f, 9.802573e-02f, -1.024170e-01f, 1.133494e-01f, -1.104818e-01f,
  5.099448e-02f, 1.120715e-01f, 1.630182e-01f, 1.227578e-01f, 2.702422e-01f, -6.199773e-02f, -1.190687e-02f, 6.450801e-02f,
  -1.002969e-02f, 2.726057e-02f, -1.445577e-02f, -1.580966e-02f, -4.200913e-02f, 9.754803e-02f, 2.398774e-02f, 5.857572e-02f,
  -2.786964e-02f, 1.172270e-01f, 1.348399e-01f, 9.246950e-02f, -1.866059e-02f, -5.967934e-03f, 1.963417e-01f, 1.600676e-01f,
  1.654964e-01f, -6.733222e-02f, -1.145744e-01f, 1.157144e-01f, -1.475013e-01f, -3.048966e-04f, -3.743162e-02f, 3.503916e-02f,
  5.641830e-02f, -1.543241e-01f, -7.862186e-02f, -5.149793e-02f, 1.259847e-01f, -2.262090e-01f, -4.914740e-02f, 4.083963e-02f,
  -1.433771e-01f, -4.511960e-02f, 7.587850e-02f, 3.601100e-01f, 1.710876e-02f, -1.292452e-01f, -3.034071e-02f, -1.043767e-01f,
  -1.202512e-01f, -7.865148e-02f, -6.078515e-02f, 2.116946e-01f, 2.183622e-01f, 1.019694e-01f, -3.563756e-02f, -3.893848e-02f,
  -1.741682e-01f, -1.372202e-01f, 1.565470e-02f, 4.418389e-02f, 1.669385e-01f, 1.627907e-01f, 7.163365e-03f, -2.074338e-03f,
  -1.675616e-02f, 4.528415e-03f, 5.340972e-02f, 3.095623e-02f, -8.060206e-02f, -6.141434e-02f, 6.972199e-02f, -1.031846e-01f,
  1.324062e-01f, 1.619382e-01f, -8.711442e-02f, -7.244030e-02f, 4.589857e-02f, -1.111655e-01f, -1.601977e-01f, -7.991894e-02f,
  -3.399096e-02f, -4.531183e-03f, -1.008320e-01f, 8.036104e-02f, 1.041743e-01f, 2.297109e-02f, -9.878130e-02f, 3.981626e-02f,
  1.598063e-01f, -4.921057e-02f, 2.135561e-01f, -1.376880e-01f, -2.111094e-01f, 8.430232e-02f, 8.734487e-02f, 1.371070e-01f,
  5.165550e-02f, -4.349006e-02f, -1.115588e-01f, -1.626154e-01f, 1.074054e-01f, 7.679477e-02f, -1.205141e-01f, 1.496456e-01f,
  1.365574e-01f, -5.499566e-02f, -2.280142e-01f, -1.000199e-01f, -1.624200e-01f, -3.371724e-02f, 4.264628e-02f, -8.611277e-02f,
  5.525409e-02f, 1.827510e-01f, 7.232260e-02f, 7.586799e-02f, 1.047454e-01f, 1.106766e-01f, 1.124907e-01f, 1.161361e-01f,
  8.464558e-02f, 1.982092e-01f, 1.277261e-01f, 1.766897e-01f, 1.514657e-03f, -2.362598e-01f, 2.294860e-01f, -4.158547e-02f,
  -6.350952e-02f, -2.838685e-02f, -6.187006e-03f, -6.597688e-02f, -1.260023e-01f, 1.907827e-02f, -2.215038e-03f, -4.061623e-02f,
  1.938623e-01f, -1.099943e-01f, 2.322217e-03f, -5.473942e-02f, 4.278467e-02f, 8.256745e-02f, 1.606044e-01f, 1.416246e-01f,
  2.988358e-02f, -4.597280e-02f, -1.917398e-01f, -1.243685e-01f, -1.143871e-01f, -5.122332e-01f, -1.490508e-01f, -3.877743e-02f,
  7.926904e-02f, 3.249417e-02f, 4.974194e-03f, -6.254813e-02f, 1.180486e-01f, 1.767499e-01f, 4.391240e-02f, 5.313333e-02f,
  -4.986517e-02f, -4.550622e-02f, 6.676842e-02f, 1.176976e-01f, 7.111464e-02f, 3.963144e-02f, 1.596418e-01f, 6.638640e-02f,
  1.153108e-01f, -7.691178e-02f, -5.788498e-02f, -5.898493e-02f, 2.012925e-02f, -2.385464e-01f, 1.058499e-01f, -2.661749e-02f,
  -6.711809e-02f, -3.118191e-02f, 4.288273e-02f, -8.459879e-02f, 1.647442e-01f, 1.928420e-02f, -2.064228e-01f, 1.402384e-01f,
  -1.553960e-01f, -1.416955e-01f, -1.099021e-01f, -8.735882e-02f, -3.601133e-01f, 4.290839e-02f, 1.458185e-01f, 2.013187e-01f,
  1.630698e-01f, 1.362341e-01f, 1.351265e-01f, 1.007878e-01f, -7.866900e-02f, -7.851876e-02f, 2.416352e-01f, -1.823048e-01f,
  6.679577e-02f, 1.044531e-01f, 2.466098e-02f, 1.883183e-01f, -3.429352e-02f, -1.002724e-01f, 4.174360e-02f, 1.329618e-01f,
  -2.479351e-01f, -2.267366e-01f, -1.092404e-01f, 4.492841e-02f, -1.201399e-01f, -3.863243e-02f, 2.179411e-02f, -1.817927e-01f,
  1.246508e-02f, -9.424294e-03f, -4.138466e-02f, -7.368551e-02f, -1.069576e-01f, 1.738432e-01f, -1.059722e-01f, 2.520798e-02f,
  1.338491e-03f, 1.687184e-01f, -5.213088e-02f, -1.277601e-01f, -1.071644e-01f, 2.376893e-01f, 1.141280e-01f, -9.798450e-02f,
  -8.868953e-02f, -1.804920e-01f, -1.344878e-01f, -2.013892e-01f, -1.921145e-01f, -1.324462e-01f, -8.306168e-02f, -7.879194e-02f,
  8.293814e-02f, -4.775685e-02f, -3.450115e-02f, 2.416594e-02f, -1.316639e-02f, 7.222827e-03f, 9.433783e-02f, 1.118993e-01f,
  1.339258e-02f, -1.273759e-01f, -1.089890e-02f, -1.459974e-01f, -1.196379e-01f, -1.732971e-01f, -8.441249e-02f, -1.944138e-02f,
  4.605078e-02f, -8.874573e-02f, 1.753229e-02f, 1.433008e-01f, 9.045546e-02f, 7.940485e-02f, -3.846345e-02f, -9.168418e-02f,
  -6.808645e-02f, -4.579640e-02f, -1.407412e-01f, 4.048804e-02f, -1.004627e-01f, -1.595664e-01f, 6.940127e-02f, -1.983959e-01f,
  -9.075792e-02f, -1.513927e-01f, 5.494251e-02f, -1.980244e-02f, 4.892925e-03f, 3.340873e-02f, 1.566301e-01f, -5.495514e-02f,
  1.454570e-01f, -7.717513e-02f, 1.625993e-02f, -6.375618e-02f, -5.895988e-02f, -1.490659e-01f, 1.470096e-01f, 1.985172e-01f,
  1.338817e-01f, 1.575801e-01f, 2.322592e-01f, 7.653432e-02f, 3.937305e-02f, -1.305384e-01f, -5.236016e-02f, 9.165968e-03f,
  -2.904196e-02f, 5.438045e-02f, -1.774507e-01f, -2.431778e-01f, 6.095946e-02f, -3.615740e-02f, 4.518912e-03f, 8.480355e-02f,
  1.726571e-01f, 5.727912e-02f, -3.099683e-03f, 2.129473e-01f, 4.792242e-02f, 3.556917e-02f, 7.025270e-02f, 1.446487e-01f,
  9.724836e-02f, -2.179648e-01f, -2.466311e-01f, -2.129491e-01f, -4.592999e-01f, -3.929986e-01f, -5.811993e-01f, -4.727379e-01f,
  3.625051e-02f, -3.636226e-01f, -1.091988e-01f, -2.871351e-02f, 1.008347e-01f, -8.754335e-02f, 2.170745e-01f, 1.880237e-01f,
  1.381807e-02f, 5.529437e-02f, 8.916514e-02f, -8.285227e-02f, -2.691653e-01f, -4.848164e-02f, -2.139388e-01f, -2.479218e-01f,
  1.347310e-01f, 1.056198e-01f, 4.162570e-02f, 6.555980e-02f, -6.493107e-02f, -1.294882e-01f, -7.051957e-02f, -2.232121e-01f,
  -2.448224e-01f, -1.042635e-01f, -2.225076e-02f, -4.685574e-02f, 5.969828e-02f, 2.517233e-02f, 7.418147e-02f, 9.594345e-02f,
  3.198631e-01f, -2.517076e-01f, 1.070126e-01f, -2.505170e-02f, -1.823466e-01f, -1.885369e-01f, -5.605522e-02f, -1.456461e-01f,
  -3.017990e-02f, -2.111818e-01f, -1.098885e-01f, -1.634170e-01f, -1.021896e-01f, -4.342178e-02f, 4.681411e-02f, -6.452612e-02f,
  6.623998e-02f, 5.361619e-02f, -1.946034e-01f, -1.632945e-01f, -3.199130e-02f, -6.446801e-02f, 7.292983e-02f, -1.274377e-01f,
  1.765563e-01f, 1.502142e-01f, 4.366179e-02f, -1.654931e-02f, 9.574682e-02f, -4.068161e-02f, -5.172038e-02f, 1.208069e-01f,
  -1.354763e-01f, -1.131466e-01f, -1.383285e-01f, 1.030814e-01f, 3.661265e-02f, -2.628186e-02f, -1.289874e-01f, 1.307660e-01f,
  -1.086591e-01f, -1.039883e-01f, 8.913349e-02f, -7.592427e-02f, -1.242526e-01f, 5.373868e-02f, -9.276234e-02f, 2.074877e-02f,
  -1.757698e-02f, 5.597632e-02f, 3.167773e-02f, 1.265568e-01f, 5.398916e-02f, 2.257242e-02f, 1.351939e-01f, -1.433649e-01f,
  5.389270e-02f, -6.686662e-02f, 4.650456e-02f, 2.575899e-02f, 6.232106e-02f, 7.773308e-02f, -5.445958e-03f, -7.068849e-02f,
  1.068155e-01f, -2.459407e-02f, 1.085978e-01f, -5.134693e-02f, 2.975408e-02f, 1.779586e-01f, -3.204881e-02f, -5.004768e-02f,
  -8.091906e-02f, 4.317569e-02f, -1.249260e-01f, -1.083758e-01f, -4.136601e-02f, -7.134585e-02f, -3.615317e-02f, 9.861274e-02f,
  -5.666724e-02f, -4.935527e-02f, -9.762396e-02f, 1.267679e-01f, 8.251166e-02f, 9.571527e-02f, 4.369892e-02f, -1.006594e-02f,
  8.866014e-02f, -3.567307e-03f, 1.244406e-01f, -2.421401e-02f, 8.215267e-02f, 1.721760e-01f, 1.118686e-01f, 7.484125e-03f,
  1.439336e-01f, -5.795217e-02f, 1.822867e-02f, 1.694257e-01f, 1.195389e-01f, 1.638618e-01f, 8.767398e-02f, 1.466277e-01f,
  4.456403e-02f, 9.649313e-02f, 2.279465e-02f, 3.691821e-02f, -8.449840e-02f, 9.776857e-02f, 4.334017e-02f, -3.342102e-02f,
  4.612048e-02f, -6.193712e-02f, 5.120908e-02f, 2.646435e-02f, -8.278879e-02f, -1.273120e-01f, 8.847708e-02f, -1.068474e-01f,
  -5.886424e-03f, 8.735400e-02f, -2.361026e-02f, -1.941336e-02f, 7.712916e-02f, 1.659899e-02f, 1.506370e-01f, -1.190483e-01f,
  -2.569292e-02f, -8.789135e-02f, -1.060881e-01f, 2.237192e-02f, -4.568203e-02f, -1.034053e-01f, 5.219489e-02f, 1.656957e-01f,
  -1.076732e-02f, 8.228587e-02f, -7.524977e-03f, -8.171014e-02f, 3.976557e-02f, -1.987984e-03f, -2.157499e-02f, 2.123561e-02f,
  7.046463e-02f, -1.825244e-01f, -7.623523e-02f, -6.616581e-02f, -1.155956e-02f, 1.540224e-01f, -5.661679e-02f, -6.268259e-02f,
  -2.672158e-03f, -9.526967e-02f, -2.160973e-02f, -6.444188e-02f, 9.745875e-02f, -1.011511e-01f, -1.346521e-01f, -1.496343e-02f,
  1.377726e-01f, 4.853196e-02f, -4.707742e-02f, 1.214617e-01f, 2.074296e-02f, -3.324110e-02f, -8.581273e-02f, 1.047703e-01f,
  -1.360008e-01f, -5.729173e-02f, 4.978125e-02f, 1.306948e-01f, -3.372123e-02f, 1.393236e-01f, 1.082895e-01f, -3.965952e-02f,
  -3.510480e-02f, 6.077181e-02f, -1.067855e-01f, 6.959686e-02f, -6.926992e-02f, 1.135602e-01f, -2.914817e-02f, 1.261788e-01f,
  -1.215343e-01f, -5.952041e-02f, 7.814056e-02f, 2.546026e-02f, -9.214026e-02f, -8.308163e-02f, 1.323738e-01f, 1.190057e-01f,
  -1.308179e-01f, -1.414292e-01f, -2.128619e-01f, 7.911322e-02f, 1.068546e-01f, -9.867129e-02f, -5.381678e-02f, 9.350392e-02f,
  1.214812e-01f, 1.023161e-01f, 5.337926e-02f, -7.341117e-02f, 4.873274e-02f, -1.341321e-01f, -8.639126e-02f, 4.160150e-04f,
  -1.199492e-01f, 8.111852e-02f, 1.441942e-01f, 3.799247e-02f, 3.608107e-02f, -3.440302e-03f, -2.781427e-03f, -6.021667e-02f,
  -2.115838e-01f, -1.373473e-01f, -1.603588e-01f, 3.393801e-02f, 2.304220e-02f, -3.248614e-02f, -1.296294e-01f, 3.092456e-02f,
  3.790216e-02f, -2.340840e-01f, -6.763954e-02f, 4.510093e-02f, -2.951064e-02f, -5.373630e-02f, 6.886444e-03f, 8.216819e-02f,
  1.110019e-01f, -2.248704e-01f, 2.856779e-02f, -1.313196e-01f, -5.977579e-02f, 2.183947e-01f, 4.824106e-02f, 1.180963e-01f,
  -7.716779e-02f, -1.884310e-01f, -6.460398e-02f, -4.882055e-02f, -2.540521e-02f, -6.114997e-02f, -1.834379e-01f, -6.049890e-02f,
  -3.381650e-02f, 6.357498e-02f, -6.040131e-02f, 1.358501e-01f, -3.593849e-02f, 1.523159e-02f, 1.466300e-01f, 1.115394e-01f,
  -8.458076e-02f, -1.458257e-01f, 9.479867e-02f, 1.850187e-02f, -3.002076e-01f, -4.494158e-02f, -2.378982e-01f, -4.568316e-01f,
  -3.446188e-01f, -6.340045e-01f, -2.666532e-01f, 1.254806e-01f, 2.868501e-02f, -3.146615e-01f, -3.149042e-01f, -3.509420e-01f,
  2.474106e-02f, 1.665983e-01f, -7.436224e-02f, -6.834903e-02f, -4.170115e-02f, -4.150045e-02f, 3.068396e-02f, 6.838886e-02f,
  4.141076e-02f, 1.250954e-01f, 2.929619e-02f, 7.573351e-02f, 1.639795e-01f, 1.141462e-01f, 6.282552e-02f, 1.204382e-02f,
  -3.225605e-02f, 2.416345e-01f, 2.524376e-04f, 3.194478e-02f, 1.041470e-01f, 2.377359e-02f, 1.367857e-02f, 6.393798e-02f,
  1.821437e-02f, 1.435093e-01f, 9.967827e-02f, 1.385641e-01f, 6.671196e-02f, 1.338216e-01f, 1.465118e-01f, -5.897373e-02f,
  3.826220e-02f, -1.487629e-01f, -1.257455e-01f, 9.543259e-02f, 1.664178e-02f, 8.549007e-02f, 9.103034e-02f, -3.144945e-02f,
  -1.373510e-01f, -4.546390e-02f, 1.223764e-01f, 5.065253e-02f, 1.318746e-02f, -9.812824e-02f, 5.781725e-02f, 7.789157e-02f,
  -1.004566e-01f, 2.532488e-02f, 5.665547e-02f, 6.644867e-02f, -1.195745e-01f, -1.342263e-01f, 5.011936e-02f, 6.847706e-04f,
  -8.790915e-02f, 1.323123e-01f, -6.507992e-02f, -4.619234e-02f, 1.248305e-01f, 9.927905e-02f, 1.146656e-01f, 4.218714e-02f,
  9.309846e-02f, 1.747309e-02f, 7.362893e-02f, 1.473434e-01f, 1.340054e-01f, -1.885506e-02f, -8.554464e-02f, -9.311425e-02f,
  -1.042559e-02f, -4.791905e-02f, 3.862915e-02f, 1.070658e-01f, -5.021210e-02f, 1.194035e-01f, 3.161006e-02f, 1.016421e-01f,
  -6.388686e-02f, 9.531696e-02f, 8.751913e-02f, 8.097947e-02f, 1.037399e-01f, -4.826016e-02f, -1.016266e-01f, 7.080158e-02f,
  9.815452e-02f, -1.600877e-01f, -9.763582e-02f, 1.122053e-01f, -1.486603e-01f, -1.081989e-01f, 6.340099e-02f, 6.032585e-02f,
  3.646914e-02f, -9.431607e-02f, 7.859337e-03f, 7.009837e-02f, 3.438473e-02f, 8.634035e-02f, 4.693969e-02f, -7.630561e-02f,
  -2.261482e-03f, 1.388710e-01f, -1.225567e-01f, 4.766887e-02f, -7.412018e-02f, 8.499581e-02f, -1.013611e-02f, 1.250423e-01f,
  1.048258e-01f, 1.858411e-01f, 2.303217e-01f, -2.158573e-02f, -5.865572e-02f, -3.808005e-03f, 1.163126e-01f, 5.443736e-02f,
  -1.699113e-02f, 8.732942e-02f, 9.943225e-02f, 1.356793e-01f, 1.851282e-02f, -5.311023e-02f, 7.597997e-02f, 9.144896e-02f,
  -1.144767e-01f, -4.677372e-02f, -1.270363e-02f, -2.482266e-02f, 1.467258e-01f, -4.100721e-02f, 1.230369e-01f, 1.489965e-01f,
  -6.850952e-02f, 1.410665e-01f, 2.168448e-02f, -5.555488e-02f, 9.552653e-02f, -3.002697e-02f, -8.097640e-02f, 1.225051e-01f,
  3.545604e-02f, 7.100620e-02f, 4.279144e-02f, 5.158237e-02f, 6.427012e-02f, -8.030203e-02f, 8.960955e-02f, 4.489941e-02f,
  -5.070132e-02f, -4.782658e-02f, 9.277817e-03f, 1.060623e-01f, -6.664032e-02f, -6.820134e-02f, -7.540744e-02f, -2.874436e-02f,
  -1.784282e-01f, -3.398804e-02f, -8.975123e-02f, 8.263062e-02f, 8.685965e-02f, -6.928281e-02f, 5.387256e-02f, -1.636345e-02f,
  1.402880e-01f, 2.653399e-02f, -7.361037e-02f, 4.841977e-02f, 1.063788e-01f, -7.113926e-02f, 7.905211e-02f, 3.628374e-02f,
  -3.074895e-04f, 1.517684e-01f, -1.903981e-03f, -8.723462e-02f, -7.369622e-03f, -4.145316e-04f, -1.191864e-01f, 1.042029e-01f,
  1.328128e-01f, 1.668186e-01f, 1.102963e-01f, -1.197994e-01f, -6.210329e-03f, 8.237539e-03f, -9.946349e-02f, 5.453940e-03f,
  6.636510e-02f, -5.536184e-02f, 6.595109e-02f, -6.386931e-02f, 7.917179e-02f, 7.739629e-02f, 1.467277e-01f, 6.747606e-02f,
  9.138598e-02f, 1.288816e-01f, 1.158348e-03f, 8.613089e-02f, 1.338324e-01f, 6.505631e-02f, -5.532603e-02f, 1.174126e-01f,
  -5.447253e-02f, 5.731342e-02f, -2.591239e-02f, -3.307387e-02f, 1.148281e-01f, -7.495301e-02f, 1.194718e-01f, -3.184270e-02f,
  -7.524331e-03f, -1.214869e-01f, 3.083728e-02f, -1.234854e-01f, 3.053292e-02f, -5.091457e-02f, -1.129172e-02f, 4.668878e-02f,
  1.576640e-01f, -6.991188e-02f, 1.068034e-01f, -1.529234e-02f, 5.161811e-02f, -1.222674e-02f, -1.712679e-01f, 3.566802e-02f,
  7.193737e-02f, 7.341034e-03f, 1.235400e-01f, -3.487514e-02f, 6.267034e-02f, 9.506626e-02f, -1.441111e-02f, -5.506701e-02f,
  -1.214019e-02f, -8.637570e-04f, 5.199520e-02f, 4.070708e-02f, 1.357501e-02f, 1.708443e-01f, 2.539517e-02f, 3.556566e-02f,
  1.262589e-01f, 7.046131e-02f, -7.199521e-02f, 6.185029e-02f, 1.518129e-01f, -4.026868e-02f, 1.183684e-02f, -8.357927e-02f,
  2.501929e-02f, -6.841794e-02f, -1.108394e-01f, 1.787495e-02f, -9.396555e-02f, -1.050308e-01f, 4.076691e-02f, 6.847287e-02f,
  -6.947926e-02f, 1.415763e-01f, -2.456225e-02f, -1.253580e-01f, -9.966231e-02f, 1.571995e-01f, 6.656050e-02f, 2.183334e-02f,
  2.179301e-02f, 8.289755e-02f, 1.345460e-02f, 9.609827e-02f, -9.558206e-02f, 1.087313e-01f, 1.378562e-01f, -1.533301e-01f,
  8.334329e-02f, -5.115401e-02f, 6.556468e-02f, -1.962352e-02f, 7.856853e-02f, -1.065318e-01f, -3.295214e-02f, 1.025838e-01f,
  -2.943125e-03f, -9.662531e-02f, 5.211481e-02f, -5.861616e-02f, -1.299146e-02f, 1.763264e-01f, 3.583983e-02f, -1.394749e-01f,
  1.130428e-01f, 6.131420e-02f, 4.754736e-02f, -2.008238e-02f, -3.322856e-02f, -7.054411e-02f, 1.981272e-02f, 1.536216e-01f,
  1.405868e-01f, 3.868419e-02f, -7.346969e-03f, -1.062241e-01f, 1.572884e-01f, -5.343277e-02f, -7.407513e-02f, 1.442796e-01f,
  -1.195134e-01f, -1.276421e-01f, -1.067560e-02f, 8.905715e-02f, -1.500501e-01f, -1.047925e-01f, 4.496203e-02f, 9.173237e-02f,
  1.480065e-01f, -3.071309e-02f, 7.907528e-02f, 1.417485e-01f, 1.518556e-01f, -1.258745e-01f, 3.721640e-02f, 9.771200e-02f,
  5.141932e-03f, 4.076598e-02f, 4.378135e-02f, -6.395546e-02f, 1.440488e-01f, 1.305949e-01f, -2.929078e-02f, -3.717536e-02f,
  1.532510e-01f, -2.872274e-02f, -1.343132e-01f, 1.024984e-01f, 1.506818e-01f, -3.937554e-02f, 1.125301e-01f, -4.535126e-02f,
  4.755060e-02f, -1.414234e-02f, 8.345672e-02f, -2.313489e-02f, -8.451523e-02f, 1.179108e-01f, -7.812709e-02f, 1.481363e-01f,
  1.274533e-01f, 1.012662e-01f, -9.230985e-02f, -3.159050e-02f, 4.986434e-03f, 1.028023e-02f, 8.001862e-02f, 1.372492e-01f,
  6.748809e-02f, 1.593047e-01f, 3.790534e-02f, 1.642266e-01f, 9.702530e-02f, 9.458521e-02f, 1.426226e-01f, -1.088778e-01f,
  4.939337e-02f, 1.301131e-01f, -2.286425e-03f, 8.623113e-03f, 1.236954e-01f, -1.790760e-01f, -8.113144e-02f, -1.462097e-01f,
  1.193159e-01f, 1.468507e-02f, 1.665058e-01f, -9.195650e-02f, -7.386600e-03f, -4.393472e-02f, -2.102475e-03f, -9.650351e-02f,
  -1.069536e-02f, 1.836470e-02f, -9.498154e-02f, -1.563347e-01f, 4.635676e-02f, -1.569400e-01f, -1.974581e-01f, 9.361821e-02f,
  8.701376e-02f, -1.147004e-01f, -1.533038e-02f, 1.861237e-01f, -1.304588e-01f, 1.256884e-01f, -2.238341e-02f, -5.825284e-02f,
  -6.593406e-02f, -8.902543e-02f, 3.113400e-02f, -3.677050e-02f, -9.213256e-02f, -1.620833e-01f, 6.224742e-02f, -2.085580e-01f,
  -2.648586e-02f, 9.871004e-02f, -6.282490e-02f, 1.493372e-01f, 5.900221e-02f, -3.979443e-02f, -7.935113e-02f, -7.580223e-02f,
  2.814222e-03f, 8.952888e-03f, 1.455680e-01f, -1.817658e-01f, -7.620055e-02f, 7.751016e-02f, 1.004152e-01f, -4.861631e-02f,
  1.229699e-02f, -8.780444e-02f, 3.122330e-02f, -6.947304e-02f, 5.762501e-02f, -1.087132e-01f, -1.324432e-02f, -6.072775e-02f,
  9.830130e-03f, 1.753461e-02f, -3.579215e-02f, -1.388020e-01f, -3.729045e-02f, 5.330758e-02f, -4.944219e-02f, -1.265379e-01f,
  4.227755e-02f, 4.903474e-02f, -4.605670e-03f, -7.393664e-02f, -9.122366e-02f, 1.278741e-01f, -5.721801e-02f, -4.786541e-02f,
  2.549645e-01f, 2.276377e-01f, 2.213961e-01f, -5.003522e-02f, -1.025690e-01f, -5.798424e-02f, -8.453004e-02f, 4.837269e-02f,
  -9.382458e-02f, 9.970427e-03f, -2.198157e-02f, 1.300746e-01f, -1.164535e-01f, 6.329788e-02f, -6.714275e-02f, -5.112305e-02f,
  -5.600468e-02f, 1.064307e-01f, 1.017283e-01f, -5.114207e-02f, 9.933545e-02f, -1.410786e-01f, 7.969481e-02f, -4.381109e-02f,
  4.888198e-02f, 2.600179e-02f, -8.082441e-02f, -2.846776e-02f, 9.942367e-02f, -2.261031e-02f, -1.154862e-02f, 4.803802e-02f,
  3.784875e-02f, -1.530096e-01f, -1.984482e-01f, 2.400252e-02f, -6.001182e-02f, 9.492546e-02f, 1.186927e-01f, -8.637410e-02f,
  3.545954e-02f, -9.350704e-02f, -1.212852e-01f, -2.430902e-02f, 2.187186e-03f, -5.336964e-02f, 1.113992e-01f, -4.193027e-02f,
  1.132755e-01f, 1.800956e-01f, 1.061975e-02f, -9.620439e-02f, 1.711588e-02f, 3.481635e-02f, 1.317700e-02f, 1.665324e-02f,
  5.924345e-03f, 4.098126e-02f, 9.799570e-02f, 1.435795e-01f, -1.338714e-01f, -1.444379e-01f, -9.338799e-02f, -9.938116e-02f,
  -1.958600e-02f, -4.902554e-03f, 3.294212e-03f, 3.986061e-02f, -4.196505e-02f, -3.068214e-01f, -1.177893e-01f, -1.795034e-01f,
  -1.310219e-01f, -1.497201e-01f, -1.239515e-01f, -2.093433e-02f, -1.692794e-02f, 3.747312e-02f, -9.182569e-02f, -3.428571e-01f,
  -2.004882e-01f, 6.839728e-02f, -9.985079e-03f, -1.507619e-01f, -2.897067e-01f, -1.730068e-02f, -3.277376e-04f, -5.415286e-02f,
  -2.893553e-02f, -3.371072e-04f, 9.541827e-03f, -8.010726e-03f, -2.615672e-02f, 4.282622e-02f, 9.708355e-02f, 8.818311e-02f,
  1.003895e-01f, -1.087753e-01f, -1.036741e-03f, -1.982773e-02f, -1.206304e-01f, 4.348959e-04f, -4.811353e-02f, -1.578203e-01f,
  -1.855903e-02f, 1.925483e-01f, 1.457797e-01f, -5.196496e-02f, 1.485785e-01f, -6.514645e-02f, -5.463086e-02f, 7.558992e-02f,
  8.471739e-02f, 1.168511e-01f, -4.580519e-02f, 7.060285e-03f, 3.508833e-02f, 6.413515e-02f, 4.287874e-02f, 2.474943e-02f,
  1.284020e-01f, 1.929148e-02f, -8.298308e-02f, -1.031434e-01f, -1.118720e-01f, 1.836022e-01f, 1.542704e-02f, 2.291584e-01f,
  -4.115712e-02f, 1.438977e-01f, -9.525002e-02f, -2.112068e-01f, -1.400964e-01f, 2.046866e-02f, 8.809918e-02f, 7.158007e-02f,
  1.276663e-01f, 3.914291e-02f, 9.482785e-02f, -9.249548e-02f, -6.764275e-02f, 2.705871e-01f, -7.082181e-02f, 1.921542e-01f,
  4.793859e-01f, 2.381985e-01f, 2.210122e-01f, 3.598409e-02f, -1.887283e-02f, -6.513541e-02f, -1.798957e-01f, -1.456789e-01f,
  4.463773e-02f, -2.654614e-02f, 8.094722e-02f, 6.470048e-02f, 1.044113e-01f, -1.880054e-02f, -4.566019e-02f, -9.443906e-02f,
  1.139828e-01f, 1.407789e-01f, -4.450904e-02f, 4.729570e-02f, 6.826396e-02f, 1.557100e-03f, 6.553032e-02f, -1.988407e-02f,
  -2.351894e-02f, 1.416809e-01f, 4.090327e-02f, 3.361699e-02f, 2.356901e-02f, -1.335730e-01f, -2.344312e-02f, -7.641069e-02f,
  -7.210779e-02f, -6.235610e-02f, 1.770263e-02f, 3.518033e-01f, -1.398446e-01f, -7.147847e-03f, 1.013724e-01f, 6.907086e-02f,
  1.550919e-03f, 8.391008e-02f, -3.944525e-02f, 1.531786e-01f, -1.372253e-02f, -7.515644e-02f, -9.508548e-02f, 1.700279e-01f,
  1.205901e-01f, 6.251970e-02f, -1.854060e-01f, 1.100279e-01f, -1.142774e-01f, -3.838813e-01f, 7.943162e-02f, -4.614338e-02f,
  -9.388711e-02f, -2.901748e-02f, -6.856343e-02f, -2.112839e-01f, -1.165003e-02f, 2.105169e-02f, 4.657174e-02f, -2.753924e-02f,
  -1.473156e-02f, 5.704436e-02f, 9.788630e-02f, -3.117650e-02f, 1.554887e-02f, 5.502281e-01f, 2.111319e-01f, -1.506424e-01f,
  1.431319e-01f, 1.089962e-01f, -6.278579e-02f, -7.222287e-03f, 9.047501e-02f, -3.624155e-02f, 7.831582e-02f, 7.207433e-02f,
  8.154818e-02f, -2.482720e-01f, -1.014879e-01f, -3.976915e-03f, -7.200830e-01f, -1.939522e-01f, 1.256968e-02f, -2.178548e-01f,
  -2.450923e-01f, -2.719057e-01f, 6.745069e-03f, 1.134717e-02f, -1.785123e-01f, -1.506474e-01f, 1.166645e-01f, -9.922314e-02f,
  4.105514e-02f, -6.698700e-02f, -5.803137e-02f, -3.170578e-02f, 3.199248e-03f, 9.207616e-02f, 1.267062e-02f, 8.989951e-02f,
  3.263511e-02f, 7.108609e-02f, -2.212880e-01f, 1.274228e-01f, -1.317794e-02f, -2.985029e-02f, -2.341179e-01f, 1.707977e-01f,
  -1.608659e-01f, 4.573638e-03f, -6.161005e-02f, -8.589999e-02f, -3.941968e-01f, 2.762238e-01f, 2.288143e-01f, -5.401194e-01f,
  2.129992e-01f, 6.938526e-02f, -3.109691e-01f, -5.312170e-01f, 2.373418e-01f, 1.645443e-01f, -2.088252e-03f, 6.873944e-02f,
  2.354395e-01f, 4.966635e-01f, 4.356297e-01f, -6.810117e-01f, -1.127628e-01f, 1.400762e-02f, 2.395093e-01f, -1.385162e-01f,
  9.234636e-02f, 9.973784e-02f, 6.247570e-02f, 6.848656e-02f, -2.690615e-02f, -1.997484e-01f, -1.176269e-02f, 1.938666e-01f,
  3.792375e-02f, 1.465824e-01f, -7.280089e-02f, -1.625738e-01f, -1.956523e-02f, 1.105215e-01f, 3.607311e-02f, 8.103023e-02f,
  -1.160641e-01f, -1.560060e-01f, -7.267705e-02f, -1.347555e-03f, 1.004852e-01f, 1.837638e-02f, -4.863757e-02f, -1.230932e-01f,
  -6.199811e-02f, -1.278340e-01f, 5.345510e-02f, -1.066796e-01f, -5.548652e-02f, 5.433453e-02f, 7.676608e-02f, -1.467208e-02f
};
