#pragma once

// kind=conv2d, layout=OIHW
// layer=dec5_out
// dims: Kh=3, Kw=3, Cin=16, Cout=1
// Keras: (Kh,Kw,Cin,Cout) -> Noodle: (Cout,Cin,Kh,Kw)
static const float w11[] = {
  1.252078e-01f, 8.547047e-02f, 6.892639e-02f, -2.550296e-01f, -1.762289e-01f, 6.502775e-02f, 6.153957e-02f, -1.262087e-01f,
  6.028039e-02f, 1.468647e-02f, -2.640974e-02f, -1.445256e-01f, -1.563748e-01f, -1.117885e-01f, 3.923490e-02f, -1.726117e-01f,
  -1.898912e-01f, 1.419467e-01f, 1.189631e-01f, -1.425245e-01f, -1.865808e-01f, -2.031277e-01f, 5.320630e-02f, -7.939480e-02f,
  -6.019712e-02f, -8.839358e-02f, 7.016235e-02f, -1.881005e-01f, 1.890940e-02f, -1.705327e-01f, 3.898002e-02f, -2.203549e-01f,
  7.938313e-02f, 3.043942e-02f, -4.866853e-02f, -8.523733e-02f, -6.973195e-02f, 4.644775e-03f, -1.118411e-02f, 1.704743e-01f,
  9.436909e-02f, -1.453623e-01f, 2.049213e-02f, -1.878821e-01f, 5.228351e-02f, 1.241995e-02f, 1.152461e-01f, -8.396304e-02f,
  9.710550e-03f, -1.210295e-01f, 1.466932e-01f, 9.506304e-03f, 8.445248e-02f, 8.073708e-02f, -3.043653e-02f, 1.174658e-01f,
  -1.046735e-01f, 2.034020e-01f, 1.802950e-01f, -1.176674e-01f, 9.595239e-02f, -4.032637e-02f, -8.266709e-02f, -1.152617e-01f,
  -1.619656e-01f, -2.267714e-01f, 5.858578e-02f, 1.663682e-01f, 1.296341e-01f, 1.310571e-01f, -6.464315e-03f, 2.940520e-03f,
  8.076249e-02f, 6.761936e-02f, 7.831179e-02f, -6.704876e-02f, 9.760661e-01f, 3.692362e-02f, 5.330491e-02f, -1.365572e-03f,
  9.348403e-02f, 4.190286e-02f, 1.884077e-01f, -2.798823e-02f, 1.301639e-01f, -1.398385e-01f, 8.769350e-02f, 8.782747e-02f,
  1.256109e-01f, 1.600759e-01f, -2.433226e-01f, -4.470217e-02f, -2.913563e-01f, -2.590141e-01f, 8.983888e-03f, -4.249398e-02f,
  -5.539181e-02f, 6.092969e-02f, -1.346098e-02f, -7.748051e-02f, -1.234147e-01f, 1.823936e-01f, -1.138206e-01f, 1.034764e-01f,
  1.249016e-01f, 1.561976e-01f, 7.945015e-02f, 1.873344e-01f, -6.941606e-02f, -5.016714e-03f, 4.687966e-02f, -8.392094e-02f,
  -6.383614e-02f, -3.501200e-02f, -6.278371e-02f, -1.962007e-01f, 5.552388e-02f, 8.226863e-02f, 1.350436e-02f, -1.092431e-01f,
  -1.463260e-01f, -5.816501e-03f, -2.211546e-01f, -1.662604e-01f, 1.006863e-01f, -5.400494e-02f, 1.188518e-01f, -9.983403e-02f,
  6.939524e-02f, -3.547844e-02f, 1.144923e-01f, -1.620713e-01f, -3.064749e-02f, -2.541921e-01f, 3.513368e-02f, -3.880155e-02f,
  -1.672053e-02f, 1.888283e-01f, -2.405734e-01f, 1.736148e-01f, 1.364900e-01f, -1.089380e-01f, 9.748631e-02f, 4.220058e-02f
};
