#pragma once

// kind=conv1d, layout=OIC
// dims: K=3, Cin=8, Cout=16
static const float w02[] = {
  -5.020089e-01f, -2.990942e-01f, 4.517027e-01f, 1.503761e-01f, -3.190902e-01f, 2.219425e-01f, 2.673222e-01f, 3.357180e-01f,
  3.249306e-01f, 2.167388e-01f, 3.612072e-01f, 3.322725e-02f, 3.188758e-01f, -1.483810e-02f, 1.584039e-01f, 2.729568e-01f,
  2.121898e-01f, 1.947212e-01f, 2.410622e-02f, 9.934018e-03f, -2.703368e-01f, -1.233991e-01f, -2.567933e-02f, 4.401646e-02f,
  2.680195e-01f, 4.080766e-01f, -2.716659e+00f, -1.523567e-01f, -8.043112e-01f, -3.177491e+00f, 3.860489e-01f, -6.379494e-03f,
  2.313802e-01f, 6.787207e-01f, -2.401605e-01f, -6.619904e-01f, -8.980766e-02f, 4.547511e-02f, -1.919293e-01f, 6.744224e-01f,
  3.517020e-02f, 3.831735e-01f, 2.819249e-02f, 4.746468e-01f, -3.086863e-01f, -2.634841e-01f, -4.656377e-01f, -1.641818e+00f,
  -5.477976e-01f, 1.300590e-01f, 1.253409e-01f, 2.059982e-01f, 3.523611e-01f, 1.876021e-01f, 1.498443e-01f, 1.821722e-01f,
  4.487911e-01f, 4.579983e-01f, 3.173988e-03f, -4.500786e-01f, -7.298633e-01f, 2.455534e-01f, 2.908805e-01f, -5.266466e-01f,
  -3.275035e-01f, -2.207678e-01f, -3.477385e-01f, -1.980836e-01f, 2.000606e-01f, -3.114512e-01f, 2.387892e-01f, 1.997654e-01f,
  -2.655609e-01f, 3.420230e-01f, -2.339354e-01f, 3.822632e-01f, 3.749358e-01f, -2.373380e-02f, 6.796964e-02f, 1.479754e-01f,
  3.025412e-03f, -6.124738e-01f, 4.077727e-02f, -6.513250e-01f, 6.750737e-02f, 5.011628e-01f, -1.365267e-01f, -2.815957e-01f,
  4.206427e-01f, -1.594199e-01f, 3.934348e-01f, 2.624680e-01f, 2.992322e-01f, -3.443635e-01f, 1.083341e-01f, -1.530407e-01f,
  3.417679e-01f, -3.501906e-04f, 1.425643e-01f, 4.058642e-01f, 2.937415e-01f, 2.150337e-01f, 3.752943e-01f, -9.967753e-02f,
  -3.438973e-01f, 6.610183e-02f, 2.227126e-01f, -6.358904e-02f, 5.358953e-01f, -2.715883e-01f, 4.094965e-01f, 5.578002e-01f,
  2.583800e-02f, -6.574604e-02f, -2.567518e-01f, -4.699934e-01f, 6.556538e-01f, -1.416443e-02f, -2.506442e-01f, 2.111943e-01f,
  2.211417e-01f, 7.647802e-02f, -3.231034e-01f, 2.157922e-01f, -1.633398e-01f, 1.012922e-01f, -7.873116e-01f, -5.872496e-01f,
  2.655360e-01f, 9.238293e-02f, 3.870211e-02f, 1.033742e-01f, -9.833591e-02f, 1.893447e-01f, 4.216653e-01f, -8.072494e-01f,
  4.295952e-01f, -4.873758e-01f, -1.835301e-01f, -1.077900e-01f, 8.331794e-01f, -1.078188e-02f, 1.352140e-02f, 3.034757e-01f,
  7.117402e-02f, -2.552540e-01f, 5.003808e-01f, 3.495673e-01f, -6.399369e-01f, -1.476555e-01f, 4.017876e-01f, -3.044617e-01f,
  -1.042863e-01f, -7.431638e-02f, -1.757412e-01f, 4.250452e-01f, 3.137693e-01f, -8.237690e-01f, -1.053845e-01f, 4.886021e-02f,
  1.791291e-01f, -1.635852e-01f, 1.827531e-01f, -4.772969e-01f, -5.440211e-04f, 4.273323e-01f, -6.893175e-01f, 1.915999e-01f,
  -4.223971e-01f, -5.013869e-01f, -1.936306e+00f, 1.768286e-01f, 3.803892e-01f, -1.855922e-01f, 1.102068e-01f, -8.909250e-01f,
  -4.902573e-01f, 8.847337e-02f, 3.264581e-01f, 1.242814e-01f, 3.118473e-01f, -8.135246e-01f, 5.337858e-01f, -8.313440e-01f,
  -1.309777e+00f, 8.034414e-01f, -2.321693e-01f, -1.687862e+00f, -1.335841e+00f, -3.071111e-01f, -1.177740e-01f, -1.512843e+00f,
  -2.772185e-01f, -2.751023e-01f, 7.365269e-01f, -4.720276e-01f, 3.307710e-01f, 2.943954e-01f, 2.287664e-02f, 2.188001e-02f,
  -3.910462e-01f, 1.542784e-01f, 2.730324e-01f, 2.765498e-01f, -8.345547e-01f, -9.261401e-01f, -1.103561e+00f, 5.526922e-01f,
  7.325605e-01f, -6.796274e-01f, -1.984127e+00f, 6.999540e-01f, -1.311098e-01f, -2.003389e-01f, 6.802176e-02f, -1.428259e-01f,
  -1.398504e-01f, -2.456652e-01f, -2.675838e-01f, 1.652115e-01f, -7.385647e-02f, -3.192063e-02f, 2.496803e-01f, 1.676237e-01f,
  1.279858e-01f, -2.345202e-01f, -1.519845e-01f, 8.197088e-01f, 3.841791e-01f, 2.380800e-01f, 3.273294e-01f, 1.795126e-01f,
  -1.329640e-02f, -1.449808e-01f, 3.163111e-01f, 1.790435e-01f, -1.966603e-01f, 1.656006e-01f, 3.285044e-01f, -6.213377e-01f,
  -8.512040e-01f, -5.975131e-01f, 6.723664e-02f, -1.201951e+00f, 2.486802e-03f, -1.951656e-01f, -8.360483e-01f, -2.049192e-01f,
  8.175366e-02f, -2.004929e-01f, 5.147159e-02f, 5.160385e-01f, -3.650264e+00f, -6.136741e-01f, 6.584820e-01f, 2.619147e-01f,
  4.702618e-01f, 1.757274e-01f, -1.181534e+00f, -7.764459e-01f, 1.832992e-01f, -8.132078e-02f, -1.505891e-01f, 1.401041e-01f,
  -3.392049e-01f, -1.278472e-01f, -5.904169e-01f, -5.853749e-01f, -1.830770e+00f, -2.101207e-02f, -3.346659e-01f, -8.048185e-03f,
  5.858635e-01f, 3.132886e-01f, 2.704152e-02f, 7.647735e-01f, -2.285688e-01f, -1.619538e-02f, 4.743475e-02f, -4.408328e-01f,
  -1.172383e-01f, 4.526563e-01f, 3.651240e-01f, 3.811689e-01f, 3.897054e-01f, 7.290077e-02f, -2.705435e-02f, 1.245954e-01f,
  -3.194966e-01f, -4.708138e-03f, -1.447361e-01f, -3.424805e-01f, -1.482796e-01f, 3.198105e-01f, 5.206384e-01f, 4.566124e-01f,
  -6.331334e-01f, 2.866685e-01f, 2.725340e-02f, 3.136382e-01f, 2.763300e-02f, -1.740742e-03f, 4.287386e-01f, -1.338933e+00f,
  -3.955985e-01f, -5.675770e-01f, -1.711734e-01f, -5.225274e-01f, 4.937480e-03f, 2.163995e-01f, -3.791556e-01f, 1.765141e-01f,
  -1.853933e+00f, -1.379560e-01f, 1.750857e-01f, -9.850061e-01f, -5.749726e-01f, 6.837057e-02f, -1.321106e-01f, -2.035439e-01f,
  -2.364664e-01f, -4.903505e-01f, -1.735223e+00f, 1.074770e-01f, 3.745517e-01f, -1.174933e-02f, 1.459251e-01f, 5.679635e-01f,
  2.374262e-01f, -6.628557e-01f, 3.310121e-01f, 2.620758e-01f, -1.319247e-01f, -1.615650e+00f, -1.961080e-01f, 6.923297e-02f,
  3.070968e-01f, 3.036669e-03f, -1.198573e+00f, -7.419816e-02f, 2.952939e-01f, -1.826690e-01f, 2.764386e-01f, -2.037508e-02f,
  -4.205631e-01f, -6.325845e-01f, -4.051300e-01f, -1.411714e+00f, 4.361718e-01f, 2.256706e-01f, 2.354278e-01f, 3.754070e-01f,
  -2.346376e-02f, -2.825766e-01f, 1.415010e-01f, -1.454917e-01f, -3.372509e-01f, -6.947474e-01f, -1.452399e+00f, -1.332119e+00f,
  -1.718983e+00f, -8.166652e-01f, 3.686281e-01f, -1.102058e+00f, -5.970302e-01f, -2.216653e-01f, 2.163441e-01f, 1.968377e-02f,
  -1.485003e-01f, -5.594547e-01f, -1.280958e+00f, -5.733090e-01f, 3.325911e-01f, 2.948436e-01f, 3.456987e-01f, -3.392486e-02f,
  9.137099e-02f, -2.122293e-01f, -1.676220e-01f, 3.891815e-01f, -3.786439e-01f, -1.105345e+00f, -3.132309e-01f, -4.844584e-02f
};
