#pragma once

// kind=dense (stored OI)
static const float w03[] = {
  3.149329e-01f, 2.474804e-01f, -1.085737e-01f, 2.535219e-01f, 1.939753e-01f, 7.888124e-03f, -4.912034e-01f, -2.069962e+00f,
  1.560677e-01f, -3.435705e-01f, 5.918716e-01f, -5.319470e-01f, 4.219410e-01f, -1.759506e-01f, -5.969112e-01f, -1.959907e-01f,
  -3.415768e-01f, 1.235248e-01f, -3.163140e-01f, -4.180551e-01f, 6.463638e-02f, 2.391680e-01f, 3.053722e-01f, 2.601303e-01f,
  -5.856904e-02f, -4.870548e-02f, -3.796630e-01f, -5.190440e-01f, -4.931923e-01f, -1.683353e-02f, -2.601227e-01f, 2.213206e-01f,
  -3.571303e-01f, 2.965692e-01f, -6.700922e-01f, 4.616230e-01f, -6.746993e-02f, 9.754905e-02f, -7.722580e-01f, -7.112104e-01f,
  1.153848e-01f, -2.996303e-01f, 5.681080e-01f, -4.342836e-01f, -5.797048e-01f, 6.683705e-01f, 1.427623e-02f, -7.658943e-03f,
  -2.461640e-01f, 8.853172e-02f, -1.278969e-01f, 1.206186e-02f, -2.410323e-01f, -2.301388e-01f, 2.669783e-01f, 1.589074e-01f,
  -3.084207e-01f, -1.975645e-01f, 3.065988e-01f, -3.334235e-01f, 3.283308e-01f, 2.576857e-02f, -3.507282e-02f, 3.620773e-02f,
  -1.786689e-01f, -4.542809e-01f, 3.219669e-01f, -1.020056e-01f, -4.820423e-01f, -1.191697e-01f, 3.417822e-01f, 2.623676e-01f,
  -7.487581e-02f, 3.259758e-02f, 2.048536e-01f, -1.087660e-01f, -9.447306e-02f, 2.833279e-01f, 1.367700e-01f, 2.992450e-02f,
  -1.448086e-01f, -2.171076e-01f, 1.318525e-02f, 2.964764e-01f, -4.209471e-01f, 2.287016e-01f, -1.321385e-01f, 3.731047e-01f,
  -1.207176e+00f, 1.996062e-01f, 5.558558e-01f, 1.785712e-01f, -8.372443e-01f, 2.210832e-01f, 1.267139e-01f, -2.233259e-01f,
  -4.724928e-01f, -6.538826e-02f, -3.025481e-01f, -7.732024e-01f, -5.652686e-01f, 6.213894e-01f, 5.853680e-01f, 5.803300e-01f,
  -8.509080e-01f, 2.827577e-01f, 8.595653e-02f, 4.323531e-02f, -1.604175e-01f, 3.113334e-01f, 6.515484e-01f, 8.453181e-01f,
  2.026338e-01f, 1.703936e-02f, -3.046840e-02f, -3.612236e-01f, 2.061323e-01f, -1.524259e-01f, -3.173049e-01f, 3.780647e-01f,
  -1.432414e-01f, -3.856644e-01f, 2.220243e-03f, -1.785633e-01f, -3.746346e-01f, -2.192815e-01f, -1.890880e-01f, 1.585353e-01f,
  1.553137e-01f, 1.779935e-01f, 1.239166e-01f, -6.763417e-02f, -1.170467e-01f, 1.487056e-01f, -2.359596e-01f, 7.702279e-02f,
  5.696422e-01f, -3.591883e-01f, -1.787262e-01f, 1.710508e-01f, -1.555583e-01f, -9.302103e-02f, 1.836760e-01f, -2.228468e-01f,
  -3.813166e-01f, -3.383784e-01f, -3.620220e-01f, 2.483938e-01f, -3.920926e-01f, 2.679147e-02f, 2.962785e-01f, -2.208896e-01f,
  -4.203678e-01f, 1.506235e-01f, -2.698056e-01f, 1.494074e-01f, 2.674355e-01f, -2.493488e-01f, 1.623280e-01f, -1.010094e-01f,
  -3.120899e-01f, -1.519904e-01f, 5.573720e-03f, 3.429100e-02f, 4.669383e-02f, -3.606016e-01f, 3.956607e-01f, 6.841859e-02f,
  3.611070e-01f, -3.214007e-01f, 1.823220e-01f, -4.164955e-01f, -3.468542e-01f, -3.305876e-02f, -1.887434e-01f, 1.385477e-02f,
  -4.417610e-01f, -1.733807e-01f, -9.397447e-01f, 2.336540e-01f, 1.424037e-01f, 2.781513e-02f, -6.948299e-02f, 6.931700e-01f,
  -1.417388e-01f, -6.548435e-01f, 6.303366e-01f, -1.277758e-01f, -9.873668e-01f, 7.892891e-01f, 5.590804e-01f, -8.917683e-02f,
  -6.934441e-02f, -3.795773e-01f, 1.470881e-01f, 3.062982e-01f, -1.334175e-01f, -3.000788e-01f, -4.967100e-02f, -2.991716e-01f,
  5.018828e-01f, -2.204094e-01f, 3.000199e-01f, 3.687208e-01f, -1.230894e-02f, -3.640717e-01f, 3.677233e-01f, 2.005455e-01f,
  3.383909e-01f, -1.308822e-01f, -4.818615e-01f, -5.838098e-02f, -1.998361e-01f, -2.361123e-01f, -3.292704e-01f, 3.463911e-01f,
  -3.337521e-01f, -2.826879e-01f, 3.474253e-01f, -1.967240e-01f, -1.802301e-01f, 1.925990e-01f, 1.174947e-01f, -2.569225e-01f,
  -3.370987e-01f, -8.276694e-01f, 4.109741e-01f, -3.289916e-01f, 3.863046e-01f, -4.210256e-01f, -1.502180e-01f, 5.373583e-01f,
  9.091517e-01f, 3.961663e-01f, -5.357810e-01f, 9.253818e-01f, -1.648535e-01f, -3.074983e-01f, 4.614445e-01f, 1.812769e-01f,
  5.716426e-01f, -2.583808e-01f, 1.353037e-01f, -1.885677e-01f, 4.938069e-01f, -6.102077e-02f, -5.849024e-01f, 4.895153e-02f,
  7.195676e-01f, -8.125310e-02f, 1.772730e-01f, 4.900482e-01f, -9.440074e-02f, -5.072136e-01f, -1.058737e-01f, -5.161372e-01f
};
