#pragma once

static const float w05[] = {
                            5.537249e-03, 1.484949e-02, -1.032527e-01, 7.691018e-02,
                            4.249035e-02, -1.826405e-02, -1.098180e-01, -4.567120e-02,
                            2.789173e-02, -1.358989e-02, -7.660962e-02, -1.021732e-02,
                            4.925603e-02, 5.130026e-02, -4.858344e-02, -9.029890e-02,
                            6.169371e-02, -3.729807e-03, -5.972182e-02, -4.500404e-02,
                            -1.965762e-02, 5.029314e-02, -1.040549e-02, 7.887208e-02,
                            2.056302e-02, 5.581038e-02, -3.859755e-02, 8.253423e-03,
                            -7.003386e-02, 8.628524e-03, 1.829214e-02, 1.654085e-02,
                            -2.163494e-02, -8.731458e-02, 5.753763e-03, -3.228553e-02,
                            6.025940e-02, -6.686246e-03, 1.930897e-02, -1.038268e-01,
                            3.359883e-03, 4.329872e-02, 3.754333e-02, -9.354810e-02,
                            4.645715e-02, -3.270713e-02, 1.333006e-02, 4.069221e-02,
                            -2.433442e-02, 2.509520e-02, -8.090934e-02, -9.770783e-02,
                            -1.936880e-02, -9.276310e-02, -6.955393e-02, -2.701197e-02,
                            -3.368579e-01, -1.982527e-02, -3.383555e-02, 2.994443e-02,
                            -1.060727e-01, -7.632019e-02, -1.052289e-01, 5.296614e-02,
                            -1.016249e-01, -6.446832e-02, -5.700177e-02, -3.907246e-02,
                            8.619106e-02, 5.281895e-02, -6.521513e-02, 7.685443e-02,
                            -7.824790e-02, 1.823860e-02, 3.763027e-02, -8.006028e-02,
                            -6.034113e-02, -7.769425e-02, -7.789025e-02, -5.289318e-03,
                            -4.014159e-02, 2.756622e-02, 7.434609e-03, 8.273107e-03,
                            7.211385e-02, 5.136027e-02, 3.538592e-02, -1.115580e-02,
                            1.121632e-02, 7.185970e-02, -7.256912e-02, 6.229056e-02,
                            -8.880621e-02, -3.551284e-02, 4.702223e-04, -1.043173e-01,
                            -9.266479e-02, -2.800860e-02, -4.225490e-02, 6.206108e-02,
                            2.804833e-02, 2.442863e-02, 2.882417e-02, -1.305395e-02,
                            -5.096258e-02, -8.046633e-02, 8.404783e-02, -1.320264e-01,
                            9.689384e-02, -1.315048e-01, -3.990163e-02, -1.221181e-01,
                            4.849013e-02, 1.817333e-02, -2.994891e-02, -1.187479e-01,
                            5.159500e-02, 8.100998e-02, -9.360114e-02, -1.649421e-02,
                            -1.584816e-02, 4.026941e-03, -5.999808e-02, 2.531177e-02,
                            -3.206807e-02, 1.626406e-03, -3.418659e-02, -1.548757e-02,
                            -7.809384e-03, -1.787636e-02, -4.622263e-03, 2.186446e-02,
                            -1.465322e-02, 1.902134e-02, -6.940464e-02, -7.316562e-02,
                            4.797648e-02, 5.200367e-02, -3.487249e-02, 7.271645e-02,
                            -6.898869e-02, -2.668825e-03, -1.652557e-01, 9.910245e-02,
                            -3.090048e-03, -3.016675e-02, -8.730933e-02, 4.456126e-03,
                            1.895144e-02, -5.351052e-02, -1.443946e-01, 2.994319e-02,
                            -7.199399e-02, -2.350400e-02, 2.214765e-03, -9.115633e-02,
                            -8.954801e-02, 4.528127e-02, -2.649585e-02, 1.834659e-03,
                            7.909238e-02, -8.776516e-02, -7.775732e-02, -5.615017e-02,
                            -2.431374e-02, 1.144576e-03, -8.374211e-03, 2.284345e-04,
                            -1.644007e-02, 2.361331e-02, 1.588191e-02, 1.770862e-02,
                            -7.046116e-02, -8.069793e-02, -5.749641e-03, -1.214581e-01,
                            5.110922e-02, -3.349543e-02, 2.575681e-02, -7.040767e-02,
                            8.143478e-02, 4.743381e-03, -3.307123e-02, 4.297962e-02,
                            6.432039e-02, -6.249276e-02, 4.351316e-02, 1.721104e-02,
                            3.081487e-02, -3.528341e-02, -2.315208e-02, -9.506179e-02,
                            -8.353654e-02, -1.840236e-02, 3.882513e-02, -7.915156e-02,
                            5.092113e-02, -2.326505e-02, -5.711268e-03, -8.226748e-02,
                            -3.418959e-02, -1.274724e-02, -4.618162e-02, -2.496639e-02,
                            -5.953441e-02, 2.726296e-02, 1.790058e-02, -2.557475e-02,
                            -7.387836e-02, -6.809294e-03, 7.391696e-02, 8.450559e-03,
                            -2.430880e-02, -6.792147e-02, -3.405421e-02, -4.250969e-02,
                            -1.061027e-01, -5.576599e-02, -4.277948e-03, -4.094751e-02,
                            -4.804872e-02, -8.567359e-02, 5.612817e-02, -8.584339e-03,
                            -6.392506e-02, -5.207729e-02, -1.457334e-02, -9.614623e-02,
                            -2.615864e-02, -3.235334e-02, 1.175471e-02, -1.161615e-01,
                            2.990102e-02, -7.575777e-02, -4.069715e-02, 3.504115e-02,
                            5.674216e-03, 2.750179e-02, -2.771048e-02, -1.120938e-02,
                            7.481305e-02, 4.501213e-02, -8.753596e-02, -1.110806e-01,
                            6.442180e-02, 2.852072e-02, 2.391239e-02, -7.092050e-02,
                            -2.765868e-03, 8.562528e-02, -3.608832e-02, -5.453933e-02,
                            -2.480987e-02, -9.002906e-02, 6.759042e-02, -6.645825e-02,
                            4.264200e-02, 5.623431e-03, -1.900855e-02, 6.801057e-02,
                            1.874898e-02, -1.242145e-02, -1.557981e-02, 7.619951e-03,
                            2.456603e-03, 1.105222e-02, -2.481455e-02, -5.129011e-02,
                            -4.668197e-02, 8.103034e-03, -3.095207e-02, 4.700593e-02,
                            -6.539113e-03, 9.008664e-03, -2.835048e-02, -8.199817e-02,
                            -1.027940e-01, 1.974862e-03, -3.574027e-02, -7.677478e-02,
                            1.182356e-02, -8.831158e-02, -4.328056e-02, 4.598810e-02,
                            -6.136372e-02, -1.317069e-01, 3.355615e-02, -1.616496e-02,
                            6.781720e-03, -4.072060e-04, -7.924883e-02, 5.199688e-02,
                            -2.352800e-02, -4.452105e-02, -6.955952e-02, -4.887429e-02,
                            -8.435801e-02, -5.919252e-02, -9.076355e-02, -1.476890e-03,
                            -3.332143e-02, -2.508728e-02, -4.915051e-02, -3.959164e-02,
                            -3.039415e-02, -5.906351e-02, 3.594261e-02, -3.440130e-02,
                            3.928090e-02, -5.088499e-02, -8.455876e-02, -9.118323e-02,
                            1.106574e-01, -7.801034e-02, -6.605037e-02, -6.557616e-02,
                            3.278167e-02, -8.570157e-03, -4.050555e-02, -4.707048e-02,
                            -6.664543e-03, 3.588079e-03, -6.990205e-02, 4.347467e-02,
                            4.658609e-02, -2.127147e-02, -7.694716e-02, 7.681753e-02,
                            2.676499e-02, 7.371092e-03, -5.744588e-02, -3.049859e-03,
                            6.445447e-02, 2.090716e-03, -6.355164e-02, -1.272412e-01,
                            -8.162490e-02, -6.168347e-04, -3.783217e-02, -8.416104e-03,
                            -1.822974e-02, -3.331290e-02, -4.732009e-02, 2.897225e-02,
                            -5.564809e-02, -1.676733e-02, 2.310309e-02, -1.155719e-01,
                            -7.235014e-02, -1.235324e-01, -6.240988e-04, 8.800982e-03,
                            -4.330055e-02, -9.796402e-03, 1.279268e-02, 1.255965e-02,
                            -2.355880e-02, -5.375447e-02, -3.616112e-02, 8.437149e-04,
                            -4.355407e-02, -2.105038e-02, 1.291221e-02, -3.948675e-02,
                            -1.405294e-01, -4.724378e-02, -7.615975e-02, -9.553690e-02,
                            -1.096901e-01, 3.765348e-02, -3.282301e-03, -2.590560e-02,
                            -6.388016e-02, 2.833600e-03, -4.547017e-02, -2.808295e-02,
                            7.108540e-02, -3.220158e-02, -7.912893e-02, 3.531912e-02,
                            2.045231e-02, 9.481817e-02, 6.772818e-02, -2.987268e-02,
                            -2.127121e-02, -1.054784e-01, 2.756591e-02, 6.694704e-02,
                            7.032994e-04, 2.673195e-03, 3.376836e-03, -3.552907e-02,
                            -7.314711e-02, 4.489103e-02, 1.335478e-02, 3.288475e-02,
                            -1.733640e-01, 1.124221e-02, -3.823349e-02, -8.134993e-03,
                            4.326509e-02, 5.862981e-02, -1.175509e-01, 3.827629e-02,
                            -2.769756e-02, 2.362051e-02, 4.611997e-02, 1.478958e-02,
                            5.880408e-02, -7.384054e-03, 6.823868e-02, -2.539478e-02,
                            -1.257309e-01, -1.657622e-01, 6.577061e-02, -2.281433e-02,
                            -1.971877e-02, 5.484806e-02, -1.049019e-02, 9.388255e-02,
                            -5.228928e-02, -5.587984e-02, 3.066117e-02, -3.727065e-02,
                            -5.944382e-02, -7.318202e-02, 2.279605e-02, -1.226743e-02,
                            -5.246928e-03, -2.995050e-02, -6.969320e-02, 5.911217e-02,
                            -6.625059e-02, -9.127303e-03, -1.369377e-01, -6.402543e-02,
                            -1.351856e-02, 2.455450e-02, -1.185867e-01, -5.857657e-02,
                            -5.493155e-02, 6.502678e-02, -1.014698e-01, -1.568039e-01,
                            -6.747717e-02, -3.322102e-02, 2.371358e-02, 7.753093e-02,
                            5.886423e-02, 1.899211e-02, 4.854376e-03, 8.106975e-02,
                            -6.517490e-02, 8.200399e-03, -1.140655e-02, 3.880054e-02,
                            -4.717305e-02, -1.094990e-03, 1.903310e-02, 9.551063e-03,
                            -1.493551e-02, -5.751536e-02, -9.695806e-02, -2.052978e-02,
                            1.333348e-02, 4.512615e-02, 9.895512e-02, -3.190763e-02,
                            -1.066991e-01, 2.847764e-02, -5.906884e-02, 1.167092e-02,
                            -8.847744e-02, 6.599505e-02, -6.891630e-03, -4.480381e-03,
                            -1.751644e-01, -7.889200e-04, -5.822505e-02, -3.660693e-02,
                            -1.162998e-02, 7.150982e-03, -1.091523e-02, -4.728456e-02,
                            1.110620e-02, 5.948963e-02, 2.947562e-02, -2.256561e-03,
                            -2.799139e-02, -8.395372e-04, -7.537322e-02, 1.003711e-02,
                            1.422276e-02, 1.201540e-03, -2.534391e-02, -4.591892e-02,
                            1.952095e-03, -3.533425e-02, 2.110164e-02, -3.418479e-02,
                            6.337870e-02, -5.017165e-02, 5.984948e-02, -8.126647e-02,
                            6.923223e-02, 3.825364e-02, -1.924202e-02, 3.523855e-02,
                            -1.175358e-02, -2.210883e-03, 7.626291e-02, -6.737914e-02,
                            -7.750240e-02, -2.562453e-02, 2.800089e-02, 6.390100e-03,
                            1.892515e-02, -1.316617e-02, -9.735020e-02, -3.809023e-02,
                            -9.547544e-02, 2.144665e-02, -9.703974e-02, -5.692066e-02,
                            -8.430845e-04, 1.042342e-02, 2.618007e-02, -2.985710e-02,
                            -1.090797e-01, 5.000348e-02, 9.648958e-02, 4.069335e-03,
                            2.343990e-02, -6.673910e-02, -5.967487e-02, 3.079125e-02,
                            -1.058598e-01, 3.448059e-02, -3.390160e-02, 7.558746e-02,
                            3.164380e-02, -6.214802e-02, 2.201989e-02, -1.300510e-01,
                            -1.487016e-02, -5.849541e-02, 9.844628e-03, -3.133116e-02,
                            -2.827145e-02, 8.363745e-02, 9.286345e-03, -3.234462e-02,
                            -6.441038e-02, 2.875014e-02, -1.003302e-01, -6.457659e-02,
                            -4.919462e-02, 1.292620e-03, -1.082645e-02, 8.566698e-02,
                            -2.392241e-01, -4.358639e-02, -5.733546e-02, -1.018722e-01,
                            -4.503125e-02, 5.930282e-03, -1.857356e-02, 4.942884e-02,
                            -4.982355e-02, 4.665429e-02, -1.558443e-01, 6.248722e-02,
                            -6.457271e-02, -8.061706e-02, 3.491946e-02, 1.053113e-02,
                            3.630712e-02, -8.076953e-02, -5.250413e-03, -8.927374e-02,
                            -5.511899e-02, -1.276572e-01, -1.547875e-02, -3.396646e-02,
                            -1.299674e-01, 1.572927e-02, -3.369180e-02, -5.184742e-02,
                            -6.086538e-02, -5.491189e-02, -6.045606e-02, -7.661087e-02,
                            7.754479e-02, 2.311416e-02, -1.565897e-01, 1.494130e-02,
                            5.459335e-02, -4.347785e-03, -5.215797e-02, -7.009696e-02,
                            -9.275632e-02, -6.358404e-02, -4.325260e-02, -2.204803e-02,
                            -9.898754e-03, -3.622231e-02, 6.950281e-02, -1.816157e-02,
                            -6.715382e-02, 4.112788e-02, 6.592999e-02, -3.432372e-02,
                            -1.238405e-01, -9.387175e-02, -6.082743e-02, 1.687690e-02,
                            -3.571358e-02, 3.664849e-02, 4.158732e-02, -1.430541e-03,
                            1.008178e-01, 3.192414e-02, -3.011351e-02, 1.024701e-01,
                            -9.684804e-02, 2.361666e-02, -4.296385e-02, 4.434277e-02,
                            -9.029142e-02, 8.038586e-02, 6.178541e-02, 5.627126e-02,
                            7.792798e-03, -1.731109e-02, -2.821362e-02, -1.149139e-02,
                            -4.468806e-02, -2.309487e-02, 4.471364e-02, -4.018610e-02,
                            1.208007e-04, -7.439132e-02, 3.067106e-02, -7.840957e-02,
                            2.950174e-02, 3.798222e-02, 8.640628e-02, 4.261412e-02,
                            -2.998376e-02, -4.918940e-02, -4.525888e-02, -9.898908e-03,
                            -5.363800e-02, -5.378471e-02, 3.635399e-02, -3.902148e-02,
                            -2.075001e-02, -5.263662e-02, 3.183911e-02, -1.547614e-02,
                            8.112212e-02, -2.774475e-02, -1.646218e-02, -2.911266e-02,
                            7.863471e-02, -3.546977e-02, 1.253071e-02, 2.651363e-02,
                            4.968000e-03, -5.824362e-02, -5.054955e-02, -7.154461e-03,
                            1.895976e-02, 2.028519e-02, 4.787521e-02, -1.295816e-01,
                            1.564890e-02, -8.678640e-02, 5.601277e-02, -4.294912e-02,
                            -3.737285e-02, -5.094061e-02, -1.758416e-02, 5.042811e-02,
                            6.027925e-02, 6.135250e-02, -7.401420e-02, 3.570883e-02,
                            -1.123747e-02, 2.553177e-03, -9.279664e-02, -9.002136e-02,
                            4.147756e-02, -2.893686e-02, -1.938464e-02, -1.033157e-01,
                            4.959247e-03, -4.528318e-02, 1.173997e-02, 1.332133e-02,
                            5.036804e-02, -8.565567e-02, -8.607147e-04, -5.007222e-02,
                            -1.568338e-01, -1.926618e-02, 8.103649e-02, 1.972007e-02,
                            6.653591e-02, 3.010734e-03, -2.142154e-02, 3.508407e-02,
                            -7.162189e-02, -2.156659e-02, 1.693567e-02, 6.265015e-02,
                            9.896836e-02, 1.890023e-02, -3.737527e-02, -3.386429e-02,
                            -1.555199e-01, 2.371929e-03, 4.825171e-02, -1.167117e-01,
                            6.329560e-02, 1.082741e-02, -8.621264e-02, -7.076465e-02,
                            -1.025945e-01, -1.744413e-02, -6.640430e-02, 5.566693e-02,
                            -4.671864e-02, 7.848031e-03, 1.110246e-01, 4.189637e-02,
                            5.000889e-02, -2.824831e-02, -9.653712e-02, -4.729167e-02,
                            -4.613488e-02, -1.006095e-01, -1.058064e-01, -7.154043e-02,
                            8.596968e-03, -7.806119e-02, -2.056722e-02, 3.640234e-03,
                            -6.880051e-02, -2.718311e-03, 3.032525e-02, 2.092120e-02,
                            -7.819590e-02, 5.110073e-03, -1.010650e-01, -7.153263e-02,
                            -6.703810e-02, -1.740576e-02, -6.535082e-02, -8.856293e-03,
                            -2.535561e-02, 2.104752e-02, -2.500297e-01, 3.526044e-02,
                            5.559625e-02, 1.694192e-02, 6.030043e-03, -4.816474e-02,
                            -2.987092e-02, -1.475749e-03, -3.688605e-02, 4.060846e-02,
                            -3.856599e-02, -9.908892e-03, -5.083940e-03, -1.122445e-02,
                            -1.106458e-02, -7.356001e-02, -8.712247e-02, 2.336123e-02,
                            -1.475403e-02, 1.568387e-02, -3.772722e-02, 2.369991e-02,
                            -8.651680e-02, -3.608360e-02, 4.390223e-02, 1.161030e-02,
                            -2.215592e-02, -6.186844e-02, 6.897492e-02, -1.042385e-01,
                            -1.107483e-01, -1.121972e-02, 7.693935e-03, 8.422904e-03,
                            -3.682758e-02, 8.097820e-03, 2.464476e-02, -5.032861e-02,
                            -7.743918e-03, -6.776209e-02, -7.412031e-02, 2.990118e-03,
                            7.396993e-04, -4.022607e-02, 7.839689e-02, 5.695544e-02,
                            -3.363590e-02, -3.011580e-03, -9.607835e-02, 4.690547e-02,
                            -1.116802e-01, 1.932299e-02, -1.707826e-02, -3.749931e-02,
                            -5.707117e-03, -5.794557e-03, -3.011800e-02, 3.392379e-02,
                            8.289498e-03, 5.919952e-02, -8.639365e-02, 9.194798e-03,
                            -2.509479e-03, -2.936359e-02, -3.797198e-02, -4.332977e-02,
                            -9.284501e-02, 6.774364e-02, 5.319108e-02, 7.277783e-02,
                            -1.046840e-01, -2.086730e-02, 4.158793e-02, -3.899365e-02,
                            5.122889e-02, -4.198435e-02, -3.302661e-02, 5.808603e-02
};
