#ifndef W09_H
#define W09_H

#include <stdint.h>

// Auto-generated by txt2h.py on 2026-02-14T11:20:42
// Source count: 1024

const float w09[1024] = {
  0.02788f, -0.04986f, -0.01489f, -0.0106f, -0.02292f, -0.08424f, 0.3275f, -0.04808f,
  0.01076f, -0.06644f, -0.03437f, 0.02933f, 0.0001263f, 0.0147f, 0.08529f, -0.07742f,
  -0.08198f, 0.0016f, 0.01861f, -0.1556f, 0.07299f, -0.008918f, -0.04101f, 0.07234f,
  0.02234f, -0.0003423f, 0.0622f, -0.08678f, 0.04021f, 0.07661f, -0.007926f, 0.007137f,
  0.007403f, -0.4682f, -0.1613f, -0.06811f, 0.003037f, -0.02547f, -0.05582f, -0.1753f,
  0.01491f, -0.1179f, -0.05457f, 0.04825f, 0.0166f, 0.04615f, 0.01237f, 0.02233f,
  -0.02161f, -0.01628f, 0.01045f, -0.1298f, 0.0958f, 0.003971f, -0.02859f, -0.1002f,
  -0.01495f, -0.07917f, 0.03327f, 0.2243f, -0.0207f, 0.008195f, -0.0301f, 0.02373f,
  0.02837f, 0.05061f, 0.2722f, -0.3491f, 0.06258f, -0.1019f, -0.01892f, -0.03398f,
  0.1496f, 0.04552f, -0.05862f, -0.01804f, -0.07649f, 0.007605f, -0.16f, 0.01636f,
  0.07239f, -0.03326f, -0.1128f, 0.1145f, 0.04376f, 0.04568f, 0.01131f, -0.04178f,
  -0.07504f, 0.002276f, -0.2354f, -0.1016f, -0.02467f, 0.06287f, 0.02022f, -0.2033f,
  -0.04668f, -0.02124f, -0.03303f, 0.003078f, 0.01628f, -0.131f, -0.004661f, 0.119f,
  -0.00401f, -0.05013f, -0.0752f, -0.3823f, -0.0113f, -0.01603f, 0.08123f, -0.1028f,
  0.01156f, 0.0625f, 0.05766f, 0.2652f, 0.08419f, -0.04867f, -0.02309f, -0.003619f,
  -0.009841f, -0.006977f, 0.4566f, -0.0972f, -0.1436f, 0.02499f, -0.003557f, 0.01665f,
  0.01082f, 0.1672f, -0.03002f, 0.006012f, 0.3858f, 0.05782f, -0.009663f, -0.1509f,
  -0.03176f, -0.1169f, 0.01923f, 0.0107f, 0.01188f, 0.00975f, -0.02154f, 0.02537f,
  0.03439f, -0.004095f, 0.01799f, -0.08691f, -0.03488f, -0.1874f, 0.007593f, 0.03126f,
  0.03361f, -0.0119f, -0.03452f, 0.01916f, 0.0008997f, -0.01747f, -0.002374f, -0.1165f,
  0.003273f, 0.03708f, -0.075f, -0.0003202f, -0.005609f, -0.001259f, -0.0002111f, -0.1005f,
  0.005349f, -0.003341f, 0.02864f, -4.772e-05f, 0.02436f, -0.09063f, -0.1143f, -0.5232f,
  -0.004778f, 0.01893f, 0.002259f, -0.08044f, -0.05885f, 0.00928f, -0.02499f, 0.03957f,
  0.2184f, -0.04005f, -0.02845f, 0.03201f, 0.6423f, -0.1976f, 0.1692f, -0.03639f,
  -0.166f, -0.02982f, 0.023f, 0.03792f, 0.02476f, 0.005078f, 0.05215f, -0.002953f,
  -0.1461f, -1.06f, -0.1195f, -0.03174f, 0.06067f, 0.01282f, -0.001477f, -0.02957f,
  0.081f, 0.02647f, -0.02767f, -0.05736f, -0.008766f, -0.01771f, 0.0007522f, 0.04433f,
  0.07241f, 0.03389f, -0.00524f, -0.01053f, -0.03925f, 0.08919f, -0.001003f, 0.01218f,
  -0.004158f, -0.09582f, 0.01961f, -0.01638f, -0.008442f, -0.06176f, -0.005665f, -0.009243f,
  0.2419f, -0.1133f, 0.05808f, -0.04236f, 0.005869f, 0.003116f, -0.02322f, -0.002497f,
  0.002282f, 0.05493f, -0.1056f, 0.02364f, -0.004226f, 0.003926f, 0.03601f, 0.01953f,
  0.21f, 0.01099f, -0.01687f, -0.01634f, -0.04896f, 0.03075f, -0.003264f, 0.001481f,
  -0.0234f, -0.06859f, 0.0199f, 0.02506f, -0.09073f, 0.2601f, -0.1555f, -0.08336f,
  -0.08846f, -0.007006f, 0.09933f, -0.01727f, -0.05459f, 0.008791f, -0.08491f, 0.1343f,
  0.03348f, 0.009813f, 0.1226f, -0.109f, -0.1453f, 0.05998f, 0.03662f, 0.03293f,
  0.1124f, 0.0182f, -0.1122f, 0.01643f, -0.0009537f, 0.09975f, -0.04675f, 0.06947f,
  0.01362f, 0.2276f, 0.06955f, 0.03103f, -0.06064f, 0.04086f, 0.07807f, -0.02279f,
  0.03326f, -0.001797f, 0.07327f, -0.003703f, 0.08921f, -0.09402f, -0.03198f, 0.1155f,
  -0.02693f, 0.05004f, 0.1072f, -0.1093f, -0.2466f, -0.000477f, -0.09715f, 0.05837f,
  -0.06761f, -0.07715f, -0.02587f, -0.01961f, -0.1428f, 0.02031f, -0.08094f, -0.002732f,
  0.0006653f, -0.05595f, 0.008236f, 0.2029f, 0.09646f, -0.02164f, 0.1613f, -0.02234f,
  -0.6766f, 0.2687f, -0.2411f, -0.1093f, 0.03686f, 0.02362f, 0.06882f, -0.1092f,
  0.03695f, 0.03815f, -0.04245f, -0.247f, -0.03603f, -0.1161f, -0.02804f, 0.1892f,
  -0.1047f, 0.2832f, -0.0472f, 0.002515f, -0.1665f, -0.04508f, 0.006716f, 0.03969f,
  0.1698f, -0.1225f, 0.05739f, -0.06535f, -0.03719f, -0.1517f, -0.01731f, -0.3953f,
  -0.04152f, -0.1147f, 0.2423f, -0.05387f, 0.01768f, 0.02614f, -0.1748f, 0.0006049f,
  0.04973f, 0.1269f, 0.06184f, 0.0907f, -0.06229f, -0.02344f, 0.1232f, 0.06885f,
  -0.02579f, -0.02768f, -0.1296f, -0.066f, 0.02004f, 0.1463f, -0.03302f, -0.009014f,
  0.233f, -0.006616f, -0.02226f, -0.02977f, -0.01924f, 0.1932f, -0.02979f, 0.006124f,
  -0.114f, -0.01838f, -0.07901f, 0.05146f, -0.0111f, 0.03695f, -0.004004f, 0.02344f,
  -0.02087f, -0.03582f, 0.01193f, -0.02748f, -0.1117f, -0.0003466f, -0.08998f, 0.006835f,
  -0.0901f, 0.01882f, 0.02756f, -0.008219f, -0.121f, -0.02652f, -0.00795f, 0.08718f,
  -0.07439f, 0.01874f, 0.0009817f, 0.05479f, 0.2579f, 0.03047f, 0.1093f, 0.002248f,
  -0.01486f, -0.03038f, 0.02267f, 0.2001f, 0.01648f, -0.03877f, 0.004039f, 0.01612f,
  0.03802f, -0.2455f, -0.02248f, 0.02868f, -0.2068f, 0.1308f, 0.1299f, -0.01022f,
  -0.02082f, -0.005359f, 0.05236f, 0.07158f, -0.02779f, 0.01772f, -0.01579f, -0.06068f,
  0.05723f, -0.06178f, -0.01764f, 0.1062f, -0.1321f, 0.01144f, -0.153f, 0.01005f,
  -0.1658f, 0.05174f, 0.02306f, 0.1277f, -0.03141f, -0.04464f, 0.004311f, 0.047f,
  -0.1341f, 0.02049f, -0.002943f, -0.1969f, 0.02701f, -0.0908f, 0.05424f, 0.03258f,
  -0.03906f, -0.02868f, -0.01295f, 0.01246f, 0.1053f, 0.1142f, 0.01393f, 0.0169f,
  0.06505f, 0.031f, -0.03368f, 0.1469f, 0.01962f, 0.0663f, 0.003185f, -0.01631f,
  -0.01265f, -0.05304f, 0.02061f, -0.02846f, 0.01282f, -0.01569f, -0.0894f, -0.01386f,
  -0.02277f, 0.08048f, -0.08052f, 0.01527f, 0.03676f, 0.01178f, -0.09792f, -0.01214f,
  -0.002234f, -0.07344f, -0.04029f, 0.009073f, -0.06634f, -0.01717f, 0.01294f, 0.003557f,
  0.1271f, -0.01322f, -0.01028f, 0.007401f, -0.002446f, 0.005475f, 0.1687f, -0.06555f,
  -0.0385f, -0.07849f, 0.07728f, 0.008756f, 0.02689f, -0.0231f, 0.02553f, -0.03629f,
  -0.1315f, -0.03081f, 0.03995f, 0.01599f, -0.02324f, 0.005753f, 0.1763f, -0.06463f,
  -0.00641f, -0.02346f, -0.06112f, 0.1799f, -0.01841f, -0.02816f, 0.001462f, 0.01149f,
  0.00957f, -0.1581f, 0.1935f, -0.1363f, 0.02342f, 0.05365f, 0.05233f, 0.0209f,
  -0.01309f, 0.2734f, 0.02255f, 0.2202f, 0.05107f, 0.08321f, -0.002884f, 0.01231f,
  0.03298f, 0.02677f, 0.08925f, 0.2011f, -0.0003493f, 0.07526f, 0.05855f, 0.02344f,
  -0.01291f, -0.1289f, 0.188f, 0.03085f, -0.008928f, -0.001511f, -0.008948f, -0.2053f,
  -0.0453f, 0.006087f, -0.007018f, 0.5917f, 0.02925f, 0.1914f, 0.04554f, 0.0517f,
  0.04977f, -0.001261f, -0.1258f, 0.01739f, 0.01252f, -0.08721f, -0.06066f, -0.02853f,
  -0.04931f, -0.07347f, -0.1982f, -0.01137f, 0.06885f, -0.1498f, -0.02026f, -0.009312f,
  0.0111f, -0.0588f, 0.4545f, -0.1278f, -0.04107f, 0.09915f, 0.03155f, -0.09275f,
  -0.06689f, -0.03493f, 0.05894f, -0.05488f, -0.004588f, -0.1203f, 0.02071f, 0.09638f,
  -0.02619f, -0.001146f, -0.0321f, -0.6883f, -0.003588f, 0.01373f, -0.1939f, -0.1148f,
  0.002539f, 0.09392f, -0.111f, -0.1587f, -0.03985f, 0.08949f, 0.04728f, -0.001778f,
  -0.003961f, -0.015f, 0.1432f, -0.07018f, 0.1305f, 0.1023f, -0.003097f, -0.01467f,
  -0.0994f, 0.0058f, -0.002137f, 0.02307f, 0.0169f, -0.1169f, 0.2172f, -0.02682f,
  -0.005978f, -0.009095f, 0.04425f, -0.03785f, -0.1637f, 0.0448f, 0.09008f, -0.122f,
  -0.1689f, 0.01114f, 0.2226f, -0.0416f, 0.01054f, -0.02015f, 0.06044f, 0.04854f,
  0.07075f, 0.135f, -0.1177f, 0.01393f, -0.006779f, -0.03017f, -0.04765f, 0.02611f,
  -0.006811f, -0.3539f, 0.02508f, 0.06572f, 0.01192f, 0.08398f, 0.07437f, 0.02487f,
  -0.0218f, 0.008017f, 0.1195f, -0.06303f, 0.1582f, 0.03652f, 0.009963f, -0.02447f,
  0.03734f, -0.07183f, -0.06181f, 0.04033f, 0.1193f, -0.07941f, 0.08649f, 0.1479f,
  0.01773f, 0.1284f, 0.0377f, -0.00531f, 0.0196f, -0.02858f, 0.01459f, -0.01481f,
  -0.07321f, -0.0009312f, 0.08667f, 0.1881f, -0.1055f, -0.0002936f, 0.07118f, -0.004189f,
  0.3129f, -0.03063f, -0.001778f, 0.003937f, 0.1361f, -0.05675f, -0.1081f, -0.1254f,
  -0.03147f, 0.2066f, 0.04108f, 0.1218f, -0.1113f, -0.4096f, 0.03357f, -0.07482f,
  -0.1067f, -0.01431f, 0.04512f, 0.1949f, -0.01692f, 0.001176f, -0.03689f, -0.05146f,
  -0.08074f, 0.01565f, 0.02315f, 0.0171f, -0.01725f, 0.1393f, -0.01903f, -0.05475f,
  0.007975f, -0.0973f, -0.1373f, 0.2338f, 0.05571f, -0.01703f, -0.5257f, 0.06248f,
  0.01652f, -0.1559f, 0.07631f, -0.04777f, 0.3135f, -0.02421f, 0.02419f, 0.07881f,
  0.00909f, -0.01524f, 0.3226f, 0.01179f, 0.1171f, 0.04428f, -0.008504f, -0.02143f,
  -0.04445f, -0.006486f, -0.05071f, -0.1964f, 0.006918f, -0.004016f, 0.01108f, -0.0406f,
  0.0126f, -0.00434f, 0.01503f, -0.04786f, -0.02029f, 0.1245f, -0.003376f, -0.01463f,
  0.002766f, -0.1124f, -0.01134f, -0.007814f, -0.01441f, -0.005066f, 0.004759f, -0.009411f,
  0.00815f, 0.01535f, -0.0345f, -0.01513f, 0.001265f, -0.0144f, -0.1182f, 0.009273f,
  0.001242f, -0.0007787f, -0.002615f, 0.01217f, -0.002389f, 0.0352f, -0.007329f, 0.02177f,
  -0.09176f, -0.01566f, 0.003669f, -0.04769f, -0.008799f, -0.03586f, -0.02093f, -0.01186f,
  -0.1464f, -0.01241f, 0.06072f, -0.01354f, -0.007602f, -0.04452f, -0.01191f, -0.01777f,
  0.006468f, -0.1223f, -0.02852f, -0.02758f, 0.009381f, -0.01152f, 0.01056f, 0.01319f,
  -0.01862f, -0.0503f, 0.001901f, 0.0167f, 0.0006229f, -0.0227f, 0.002898f, 0.00827f,
  -0.03171f, -0.02228f, -0.01232f, -0.005591f, 0.02007f, 0.02103f, -0.003296f, -0.005129f,
  -0.01659f, 0.01021f, -0.0099f, -0.006244f, -0.01406f, 0.007151f, -0.08431f, 0.01412f,
  -0.01486f, 0.003188f, -0.02081f, -0.01879f, 0.004162f, -0.01794f, -0.1642f, -0.01697f,
  0.00427f, -0.007851f, 0.01193f, -0.0003325f, -0.07431f, -0.02727f, 0.1188f, 0.02405f,
  0.009612f, 0.02271f, 0.01319f, 0.0007005f, -0.07209f, 0.1583f, 0.009224f, 0.004921f,
  0.1001f, -0.002107f, 0.01217f, -0.04763f, 0.008964f, 0.001226f, -0.006775f, 0.0205f,
  0.001779f, -0.004755f, 0.02714f, -0.01555f, 0.01404f, 0.008118f, -0.1542f, 0.2139f,
  0.07044f, 0.01064f, 0.01468f, 0.0001018f, 0.01501f, 0.00912f, -0.02543f, -0.009622f,
  -0.07065f, -0.002248f, -0.05793f, -0.01105f, -0.003934f, 0.005729f, 0.00084f, 0.003319f,
  0.1291f, -0.02747f, -7.238e-05f, 0.01446f, -0.01312f, -0.01321f, 0.03594f, -0.03279f,
  -0.003849f, 0.04204f, -0.1501f, -0.6519f, -0.008918f, -0.02061f, 0.02033f, 0.05156f,
  0.01214f, -0.02037f, -0.07382f, 0.02964f, 0.0152f, -0.01447f, -0.1015f, 0.3211f,
  -0.007188f, -0.1311f, 0.06015f, 0.16f, -0.0004821f, 0.06669f, -0.02411f, 0.002235f,
  -0.01338f, 0.02912f, -0.005911f, -0.11f, -0.009021f, 0.07028f, 0.01615f, 0.1765f,
  0.008498f, 0.04314f, 0.03887f, -0.08473f, 0.01953f, -0.006591f, 0.02604f, -0.03816f,
  0.005915f, 0.2675f, 0.1208f, -0.4669f, -0.00418f, -0.6159f, 0.01137f, -0.1725f,
  -0.003219f, -0.05644f, 0.001992f, -0.00201f, -0.1363f, -0.03358f, 0.002279f, 0.001623f,
  -0.05006f, 0.06652f, -0.05339f, -0.01917f, 0.01881f, -0.04292f, -0.002597f, 0.002366f,
  0.009053f, -0.07382f, -0.2712f, -0.02635f, -0.001467f, 0.01378f, 0.02438f, 0.01435f,
  -0.03075f, -0.01944f, -0.2077f, 0.05555f, -0.01842f, -0.01328f, -0.001765f, 0.1141f,
  0.001726f, -0.02975f, 0.006412f, -0.1269f, 0.03424f, -0.01276f, -0.07749f, -0.01949f,
  -0.01462f, 0.07042f, 0.1434f, -0.008848f, -0.1013f, -0.3381f, 0.0234f, 0.01417f,
  0.00346f, 0.02695f, 0.0246f, 0.01982f, 0.001108f, 0.08559f, 0.01822f, 0.002846f,
};

#define W09_LEN (1024u)

#endif // W09_H