#ifndef W11_H
#define W11_H

#include <stdint.h>

// Auto-generated by txt2h.py on 2026-02-14T11:20:46
// Source count: 1024

const float w11[1024] = {
  -0.7355f, -0.1087f, -1.025f, -0.0002582f, -0.05211f, 0.1588f, -0.1134f, 0.4562f,
  -0.5637f, -0.3851f, 0.06767f, -0.2199f, -0.07265f, 0.2947f, -0.2049f, 0.6813f,
  0.3364f, 0.134f, 0.6633f, 0.03149f, 0.139f, 1.373f, 0.02364f, -0.2274f,
  -0.4623f, -0.1613f, -0.283f, 0.1435f, 0.9597f, -0.1761f, -0.0957f, 0.2863f,
  -0.2139f, -0.08225f, -0.3447f, -0.01148f, -0.2721f, -0.1642f, -0.6151f, -0.02458f,
  0.3255f, 0.02526f, -0.236f, 1.46f, -0.8179f, -0.04426f, 0.098f, -0.09932f,
  0.1795f, -3.064f, 0.7434f, -0.026f, 0.02286f, -0.06328f, -0.09497f, -0.07547f,
  0.8535f, -0.03539f, 0.2271f, -0.3887f, -0.1625f, -0.9975f, 0.1046f, 0.09435f,
  -0.05382f, -0.09698f, -0.2506f, -0.1519f, -0.2334f, -0.7998f, -0.04233f, 0.1344f,
  -0.454f, -0.1047f, 0.1417f, -0.6372f, -0.2629f, 0.4954f, 0.2528f, 0.546f,
  -0.1441f, 2.156f, -0.4493f, 0.03182f, -0.1144f, 0.1212f, 0.03572f, 0.05538f,
  0.2093f, 1.309f, -0.1589f, -0.07526f, -0.1311f, -0.1209f, -0.1171f, -0.1859f,
  -0.02614f, -0.03526f, 0.04965f, 0.1086f, 0.04828f, 0.04923f, 0.9895f, -0.03902f,
  -0.07069f, -0.2038f, -0.3477f, 0.4399f, -0.8879f, 0.05739f, -0.01821f, 0.9813f,
  -0.1701f, 0.2429f, -0.03986f, -0.1064f, -0.7258f, -0.08881f, 0.5173f, -0.4527f,
  0.2461f, -0.1181f, -0.3507f, -0.1251f, 0.1752f, 0.3118f, 0.118f, 0.303f,
  0.2012f, -0.224f, -0.7188f, -0.05418f, 0.5258f, -0.02384f, -0.5629f, 0.06832f,
  0.06929f, -0.03103f, -0.5235f, 0.3222f, 0.3436f, -0.8381f, -0.1595f, 0.7377f,
  -0.04744f, -0.006429f, -0.005834f, 0.06864f, -0.1639f, -0.9919f, 0.3227f, -0.2388f,
  0.05122f, -0.08625f, -1.331f, -0.07575f, 0.3884f, -0.1355f, 0.1733f, 0.7605f,
  0.8025f, 0.07357f, 0.3003f, 0.3143f, -0.853f, -0.1208f, -0.1906f, 0.5737f,
  0.3913f, -0.007794f, -0.1074f, -0.01594f, 0.3949f, -1.257f, 0.2035f, 0.1772f,
  0.2105f, 1.032f, -0.1898f, 0.2084f, -0.3346f, 0.2744f, 0.081f, -0.1063f,
  -0.6427f, 0.06103f, -0.148f, -0.1314f, 0.8012f, -0.1139f, 0.03824f, -2.312f,
  0.4611f, -1.796f, 0.6892f, 0.008298f, -0.1218f, -0.06017f, -0.1553f, -0.2807f,
  -0.01698f, 0.01367f, -0.3118f, -0.04234f, -0.02745f, -0.3861f, 0.5587f, -0.038f,
  0.1152f, -0.1069f, -0.1297f, -0.14f, -0.07006f, 0.02853f, 3.395f, 0.1141f,
  0.07086f, -0.05481f, -0.419f, 0.1093f, -0.224f, -0.2753f, 0.6939f, -0.435f,
  -0.4921f, 0.06096f, 0.3053f, -0.8155f, -0.7177f, -0.1838f, -0.07093f, -0.218f,
  -0.1232f, 0.05923f, 0.01168f, 0.2125f, 0.5004f, 0.1373f, 0.1026f, -0.7266f,
  0.5605f, -0.1302f, -0.2267f, 0.06876f, -0.09643f, -0.3457f, 0.02585f, -0.8473f,
  -2.531f, -0.07457f, 0.3207f, -0.1255f, -0.8676f, -1.515f, 0.08164f, 0.326f,
  -0.9511f, -0.3132f, -0.03858f, -0.02512f, -0.1787f, -0.2684f, -0.07427f, -0.02389f,
  0.04048f, 0.1645f, 0.7233f, -0.1805f, 0.4291f, 0.474f, -0.01696f, -0.9856f,
  0.1188f, 0.1187f, 0.6847f, -0.2762f, -0.05009f, -0.1336f, -0.3409f, -0.7311f,
  -0.8843f, -0.0107f, -0.0536f, 0.03252f, -0.9224f, 0.2981f, -0.2445f, -0.1261f,
  -0.6395f, -0.08287f, -0.5833f, 0.2399f, -0.2881f, -0.1482f, -0.5187f, -0.1509f,
  0.9179f, -0.06586f, -0.2768f, 0.1135f, 0.6085f, 0.7794f, -0.06766f, 0.06906f,
  -0.4274f, -1.009f, -0.4312f, 0.1006f, 0.3778f, 0.2523f, -0.09132f, 0.2352f,
  -0.3251f, 0.05676f, -0.4026f, 0.8779f, -0.05958f, 0.3857f, -0.1879f, 0.06681f,
  -0.3269f, -0.003549f, -0.1672f, -0.3276f, 0.6051f, 0.1204f, -0.4355f, -0.5794f,
  -0.1526f, 0.3335f, 0.9855f, 0.4875f, -0.4417f, -0.693f, 0.1821f, -0.2973f,
  -0.5107f, 0.1404f, 0.5378f, 0.2334f, -1.282f, 0.008672f, 0.2625f, -0.3926f,
  -0.183f, 0.1337f, -0.2174f, -0.2665f, -0.1428f, 0.04381f, -0.4207f, 0.8794f,
  0.01279f, -0.1917f, 0.881f, 0.05269f, -0.3027f, 0.1567f, -0.1154f, -0.4132f,
  -0.1208f, -0.01811f, -0.05122f, -0.01994f, -1.029f, 0.9511f, -0.09131f, -0.7531f,
  0.07655f, 0.0001695f, -0.1084f, 0.03469f, 0.02973f, -0.1881f, -0.7879f, 0.004742f,
  0.7664f, 0.02171f, 0.5679f, -0.2253f, -0.611f, -0.0609f, 0.05273f, -0.1609f,
  0.5254f, 0.08492f, -0.1099f, 0.6511f, -0.2248f, 0.3878f, -0.09153f, -0.02505f,
  -0.1182f, -0.07989f, 0.1865f, -0.5169f, -0.02643f, -0.02548f, -0.6091f, 0.1497f,
  0.1954f, -0.07608f, -0.6724f, 0.1411f, 0.5424f, 0.3621f, 0.1359f, 0.2225f,
  -0.01221f, 0.5947f, 0.5133f, -0.1046f, -0.1786f, 0.1216f, -0.1726f, -0.07914f,
  0.7137f, 0.2431f, -0.2086f, 0.08364f, -0.481f, -0.2994f, 0.01837f, 0.3209f,
  -0.6546f, 0.207f, -0.6619f, 0.06129f, 0.5847f, 0.3856f, 0.1204f, -0.1264f,
  -0.3338f, 0.2384f, -0.4136f, -0.1253f, -0.06468f, -0.6341f, -0.1457f, 0.7221f,
  -0.6107f, 0.4554f, 1.609f, 1.695f, -0.1826f, -0.7982f, 0.0003971f, 0.022f,
  -0.6842f, 0.4475f, 1.599f, 1.61f, -0.1553f, -0.8446f, 0.04467f, 0.04648f,
  -0.09801f, 0.5224f, -0.1773f, 0.1935f, -0.03266f, 0.1285f, 0.1573f, 0.01026f,
  0.9507f, 0.04702f, 0.1518f, -0.8303f, 0.5416f, -0.52f, -0.01516f, -0.01389f,
  0.6119f, 0.1272f, 0.2648f, -0.1478f, -0.6192f, -0.4552f, -0.1651f, -0.5101f,
  -0.01541f, -0.03755f, 0.1161f, -0.05691f, -0.1324f, 0.2155f, 0.5579f, 0.6769f,
  1.302f, 0.111f, 0.2161f, 0.06849f, 0.4017f, 0.4785f, -0.3584f, -0.1065f,
  -0.6506f, -0.1142f, -0.2567f, 0.2686f, -0.2349f, 0.801f, 0.4314f, 0.1126f,
  0.2521f, 0.06207f, 0.07465f, 0.06639f, 0.1164f, -0.7043f, -0.02548f, -0.5388f,
  -0.4559f, 0.04248f, -0.03702f, 0.07569f, 0.7927f, 0.006478f, 0.08559f, -2.915f,
  -0.1773f, 0.00525f, 0.474f, -2.026f, 0.745f, -0.005299f, -0.1972f, 0.04114f,
  0.3062f, -0.4174f, -0.1582f, -0.07329f, 0.4957f, -0.4068f, -0.146f, 0.8192f,
  0.5009f, 0.5515f, 0.1338f, -0.1236f, 0.5159f, -0.7427f, 0.07954f, 0.23f,
  -0.6199f, -0.1721f, -0.06356f, -1.396f, 1.069f, 0.1828f, -0.2479f, 0.02245f,
  0.8609f, 0.1594f, 0.0785f, -0.03486f, 0.02341f, -0.2333f, 0.06124f, -0.5383f,
  -1.104f, -0.08327f, -0.06975f, 0.02085f, -2.097f, 0.6588f, -0.03838f, -0.4658f,
  1.023f, 0.09539f, 0.08084f, 0.2513f, 0.7005f, -0.1467f, 0.01429f, 0.05354f,
  -0.4025f, -0.1314f, 0.3892f, 0.1784f, 1.44f, -0.2732f, -0.05811f, 0.02084f,
  0.5138f, 0.05772f, -0.01263f, 0.08346f, 1.148f, -0.528f, 0.03095f, 0.257f,
  -0.3942f, -0.09255f, -0.003491f, -0.2023f, -1.468f, 0.2134f, 0.0232f, -0.367f,
  0.7185f, 0.1628f, 0.3171f, 0.192f, -0.4009f, 0.5785f, -0.1569f, -0.1124f,
  -0.1682f, -0.141f, 0.1173f, -1.84f, -0.332f, 0.284f, 0.3802f, -0.3338f,
  0.9162f, 0.2402f, 0.2181f, -0.05585f, 0.5888f, 0.3169f, 0.1831f, 0.05188f,
  -0.1271f, 0.1275f, 0.1286f, 1.948f, 0.2678f, 0.08224f, 0.04414f, 0.07252f,
  0.6626f, -0.1848f, -0.6024f, -0.4675f, -0.123f, 0.4044f, 0.146f, -0.1915f,
  -0.3557f, 1.198f, -0.4765f, -0.08831f, 0.08611f, 0.08218f, -0.05139f, 0.2868f,
  0.02102f, 0.001881f, -0.1351f, 0.7597f, 0.1023f, -0.3427f, -1.052f, 0.3828f,
  -0.005923f, 0.0953f, 0.5542f, -2.166f, 0.4323f, -0.1563f, -0.1994f, -0.09276f,
  0.2094f, -0.01488f, 0.01209f, 0.1413f, 0.02017f, -0.4505f, -1.004f, -0.2815f,
  -1.23f, 0.2359f, 1.048f, -0.005521f, -0.6584f, -1.342f, 0.1215f, -0.171f,
  0.2225f, -0.08622f, -0.3368f, -1.317f, -0.2021f, -0.6139f, -0.1012f, 0.182f,
  0.6035f, 0.06858f, -0.06548f, -0.5072f, -0.459f, 0.7607f, 0.1087f, -0.4229f,
  -0.6221f, -0.03425f, -0.3453f, 1.483f, 0.1401f, 0.1409f, 0.06924f, -0.3908f,
  0.4705f, 0.1892f, 0.6144f, -0.1607f, 0.6f, -0.8195f, 0.1139f, -0.03988f,
  -0.7704f, 0.2916f, 0.09568f, -0.1194f, 0.1868f, 0.4626f, -0.01692f, 0.3972f,
  0.2276f, -0.1255f, -0.02817f, 0.09504f, -0.4526f, -0.08209f, 0.5063f, 0.05461f,
  -0.5201f, 0.09381f, 0.2059f, 0.1515f, 0.1111f, -0.003901f, -0.2721f, 0.1021f,
  0.02112f, 0.1786f, 0.7845f, -0.2473f, 0.1549f, 0.681f, -0.3549f, -0.0004473f,
  -0.098f, 0.09272f, 0.1058f, 0.1183f, 0.07044f, -0.02301f, -2.913f, -0.1072f,
  0.1326f, -0.157f, 0.2608f, 0.154f, 0.08334f, 0.4645f, -0.1719f, -1.087f,
  0.2689f, -0.1357f, -0.5544f, -0.3223f, 0.1081f, 0.1568f, -0.732f, -0.02401f,
  0.1752f, -0.07539f, -0.7015f, -0.04728f, -0.1552f, -1.427f, -0.1661f, -0.3045f,
  0.4267f, 0.3809f, 0.1463f, -0.07553f, 0.2364f, 0.01256f, -0.1807f, -0.8044f,
  0.4806f, 0.07862f, 0.0123f, 0.3876f, -0.7078f, 0.1386f, -0.08066f, -0.5987f,
  -0.09673f, -0.1131f, 0.3731f, 0.2071f, -0.2657f, -0.167f, 0.02596f, -0.7784f,
  -0.4877f, 0.07332f, -0.02827f, -0.06864f, 0.6732f, 0.06444f, -0.0561f, -2.426f,
  -0.1266f, 0.1095f, 0.4871f, -0.3764f, 0.4155f, 0.2081f, 0.7573f, 0.3374f,
  -0.001646f, -0.1732f, 0.03911f, 0.09205f, 0.1881f, -0.3816f, 0.2754f, 1.346f,
  -0.108f, 0.1307f, 0.3024f, 1.043f, 0.4771f, 0.02153f, -0.2887f, 0.7721f,
  0.4733f, -0.06701f, -0.4576f, -0.04177f, 0.03752f, -0.7439f, 0.4189f, -0.1842f,
  0.5396f, 0.1151f, 0.327f, -1.068f, -0.4102f, 0.226f, -0.1093f, -0.3725f,
  0.2405f, -0.2673f, -1.007f, -0.3208f, -0.008933f, 0.3985f, -0.03355f, -0.02101f,
  0.6756f, 0.04826f, -0.04944f, -0.2503f, 0.2317f, -0.7383f, 0.2039f, -0.2982f,
  0.2009f, -0.2093f, -0.8465f, 0.4332f, -0.02781f, -0.05927f, 0.2755f, -0.1394f,
  0.1538f, 0.006812f, -0.0004981f, -0.0004265f, -0.4369f, 0.1094f, -0.1672f, 2.007f,
  -0.4873f, 0.1401f, -0.535f, 0.1129f, -0.1472f, 0.0003752f, 0.2296f, 0.5211f,
  -0.1491f, -0.01733f, 0.05274f, -0.2174f, -1.306f, -0.08062f, -0.2723f, -0.2651f,
  0.2954f, 0.2216f, 0.9143f, -0.1879f, 0.3387f, 0.07611f, -0.1943f, 0.1668f,
  0.7791f, 0.06003f, -0.001653f, 0.4262f, -0.7699f, -0.4597f, -0.3687f, -0.02418f,
  0.1982f, -0.1101f, -0.4249f, 0.9863f, -0.1513f, -0.1717f, 0.3233f, -0.01671f,
  0.184f, 0.02811f, 0.3419f, -0.241f, 0.02956f, 0.2541f, -0.5271f, 0.2329f,
  0.1076f, -0.03223f, -0.2741f, 0.06646f, -0.3398f, -0.0522f, -0.5234f, -0.1984f,
  -0.1924f, -1.665f, 0.156f, -0.05548f, 0.1808f, 0.02036f, 0.119f, 0.2204f,
  0.3205f, -0.008507f, 0.09533f, -1.156f, -0.5179f, -0.843f, -0.1513f, -0.3059f,
  0.428f, -0.6759f, 0.265f, -0.06249f, 0.3919f, -0.3549f, -0.01709f, 0.04136f,
  -0.376f, -0.01842f, 0.1028f, -0.06782f, 0.09549f, 0.1264f, 0.4747f, -0.3341f,
  -0.3054f, -0.1808f, -0.5787f, -0.4705f, -0.05087f, 0.3166f, -0.2746f, 0.01416f,
  0.3364f, 0.03581f, -0.0489f, -0.0646f, -0.7373f, -0.1773f, 0.02938f, 0.9272f,
  -0.03893f, 0.2487f, 0.1733f, -0.3919f, 0.5701f, -0.1068f, 0.3176f, -0.4165f,
  0.6244f, 0.3272f, 1.013f, -0.3697f, -0.0809f, -0.03076f, 0.5496f, -0.1324f,
  0.3928f, -0.0878f, 0.1204f, 0.4255f, -0.04286f, 0.6871f, 0.04528f, -0.2063f,
  0.1092f, 0.05231f, 0.1128f, -0.3464f, 0.02655f, -1.177f, 0.3509f, -0.2606f,
  -0.07691f, -0.2604f, -0.6675f, -0.9517f, -0.1852f, -0.08609f, -0.02076f, -0.1656f,
};

#define W11_LEN (1024u)

#endif // W11_H